Episode: 1: [[-0.11657108  0.01925944 -0.5485631   0.5081599   0.51482797  0.34263572
  -0.09813324  0.36980087]
 [-0.31287375  0.4729509  -0.44070682 -0.4904909  -0.10482257  0.5312401
  -0.33566955 -0.35339358]
 [ 0.45142373 -0.07081959 -0.16514593  0.05238764  0.38095844 -0.33493564
   0.3099484  -0.08199146]
 [-0.33293104  0.18539287 -0.3864072  -0.08661058  0.568887    0.22681153
  -0.2919255   0.23418397]
 [ 0.28799024  0.49685922 -0.52026755 -0.49073985  0.2566427   0.5170866
  -0.15627958 -0.32159573]
 [ 0.32144564  0.16059367 -0.3375632   0.2361349   0.5321596  -0.50870615
  -0.18964416 -0.5062304 ]
 [ 0.001       0.          0.          0.          0.          0.
   0.          0.        ]
 [ 0.001       0.          0.          0.          0.          0.
   0.          0.        ]
 [ 0.001       0.          0.          0.          0.          0.
   0.          0.        ]
 [ 0.23370929  0.23737404  0.10893833 -0.37746835  0.14405029  0.13707826
   0.25212246  0.43637034]
 [ 0.51523185 -0.01700069 -0.57065964  0.49524948  0.2670042  -0.22395086
   0.5447955   0.28569257]
 [-0.279218   -0.1521027   0.14305349 -0.4652852   0.3663096   0.18491977
  -0.16814803  0.0793543 ]] 
Episode: 2: [[-1.16471082e-01  1.91594437e-02 -5.48463106e-01  5.08259892e-01
   5.14927983e-01  3.42535734e-01 -9.82332453e-02  3.69900852e-01]
 [-3.12973738e-01  4.72850919e-01 -4.40806806e-01 -4.90590900e-01
  -1.04722567e-01  5.31340122e-01 -3.35569561e-01 -3.53293598e-01]
 [ 4.51523632e-01 -7.07195923e-02 -1.65245935e-01  5.22876419e-02
   3.80858451e-01 -3.34835649e-01  3.09848428e-01 -8.20914581e-02]
 [-3.33031029e-01  1.85292870e-01 -3.86307210e-01 -8.65105838e-02
   5.68987012e-01  2.26911530e-01 -2.92025477e-01  2.34283969e-01]
 [ 2.87890255e-01  4.96959209e-01 -5.20367563e-01 -4.90839839e-01
   2.56742686e-01  5.17186642e-01 -1.56179577e-01 -3.21495742e-01]
 [ 3.21545631e-01  1.60693675e-01 -3.37463200e-01  2.36034900e-01
   5.32059610e-01 -5.08806169e-01 -1.89544156e-01 -5.06330431e-01]
 [ 1.09999999e-03  9.99999975e-05  9.99999902e-05 -9.99999975e-05
   9.99999975e-05 -9.99999756e-05  9.99999902e-05  9.99999756e-05]
 [ 9.00000043e-04 -9.99999975e-05  9.99999975e-05 -1.00000005e-04
  -9.99999902e-05  9.99999902e-05  9.99999902e-05  9.99999975e-05]
 [ 9.00000043e-04 -9.99998811e-05  9.99999902e-05 -9.99999975e-05
   9.99999975e-05  9.99998010e-05  9.99999902e-05  9.99999829e-05]
 [ 2.33809292e-01  2.37274036e-01  1.08838327e-01 -3.77368361e-01
   1.44150287e-01  1.36978254e-01  2.52222449e-01  4.36470330e-01]
 [ 5.15131831e-01 -1.69007108e-02 -5.70759654e-01  4.95149493e-01
   2.67104179e-01 -2.23850861e-01  5.44895530e-01  2.85792559e-01]
 [-2.79118001e-01 -1.52002692e-01  1.43153489e-01 -4.65185225e-01
   3.66209626e-01  1.85019776e-01 -1.68248028e-01  7.92542994e-02]] 
Episode: 3: [[-1.1638801e-01  1.9187137e-02 -5.4838389e-01  5.0819528e-01
   5.1485431e-01  3.4244230e-01 -9.8189585e-02  3.6999425e-01]
 [-3.1297207e-01  4.7276959e-01 -4.4073635e-01 -4.9057174e-01
  -1.0475697e-01  5.3126770e-01 -3.3547115e-01 -3.5319453e-01]
 [ 4.5144942e-01 -7.0619509e-02 -1.6533129e-01  5.2306902e-02
   3.8092747e-01 -3.3474788e-01  3.0976599e-01 -8.2191132e-02]
 [-3.3309272e-01  1.8519765e-01 -3.8622558e-01 -8.6422175e-02
   5.6908530e-01  2.2685455e-01 -2.9211149e-01  2.3427881e-01]
 [ 2.8781858e-01  4.9691525e-01 -5.2030283e-01 -4.9080467e-01
   2.5684273e-01  5.1722187e-01 -1.5612660e-01 -3.2156339e-01]
 [ 3.2160980e-01  1.6077176e-01 -3.3752304e-01  2.3593600e-01
   5.3195989e-01 -5.0885117e-01 -1.8960947e-01 -5.0638634e-01]
 [ 1.1753438e-03  1.8619119e-04  1.8668390e-04 -3.1265674e-05
   1.0456527e-04 -1.7571992e-04  2.8245617e-05  2.8659744e-05]
 [ 8.0750085e-04 -6.2415333e-05  7.4986572e-05 -5.0894167e-05
  -3.1591357e-05  8.0238344e-05  3.7680067e-05  4.0014093e-05]
 [ 9.6656877e-04 -2.6331116e-05  1.9307695e-04 -3.2672633e-05
   1.4570350e-04  2.5761945e-05  2.9049934e-05  3.0124354e-05]
 [ 2.3389588e-01  2.3720765e-01  1.0889877e-01 -3.7728754e-01
   1.4409781e-01  1.3688448e-01  2.5230730e-01  4.3656638e-01]
 [ 5.1511443e-01 -1.6825840e-02 -5.7068902e-01  4.9517509e-01
   2.6705202e-01 -2.2388360e-01  5.4497582e-01  2.8588930e-01]
 [-2.7918687e-01 -1.5191802e-01  1.4308564e-01 -4.6512216e-01
   3.6619398e-01  1.8509935e-01 -1.6834575e-01  7.9161704e-02]] 
Episode: 4: [[-1.1629902e-01  1.9202817e-02 -5.4830480e-01  5.0823611e-01
   5.1484215e-01  3.4237644e-01 -9.8228544e-02  3.7008950e-01]
 [-3.1295580e-01  4.7279206e-01 -4.4068107e-01 -4.9054757e-01
  -1.0479803e-01  5.3118563e-01 -3.3539325e-01 -3.5310259e-01]
 [ 4.5138118e-01 -7.0560388e-02 -1.6542128e-01  5.2251369e-02
   3.8092545e-01 -3.3472237e-01  3.0969331e-01 -8.2286283e-02]
 [-3.3310252e-01  1.8516688e-01 -3.8621965e-01 -8.6455241e-02
   5.6917226e-01  2.2686516e-01 -2.9220197e-01  2.3433794e-01]
 [ 2.8773564e-01  4.9694654e-01 -5.2029181e-01 -4.9083725e-01
   2.5694251e-01  5.1728982e-01 -1.5605073e-01 -3.2151312e-01]
 [ 3.2167664e-01  1.6081701e-01 -3.3751625e-01  2.3595235e-01
   5.3186291e-01 -5.0892335e-01 -1.8967752e-01 -5.0645703e-01]
 [ 1.2608629e-03  2.6785137e-04  1.7604532e-04  4.7858125e-06
   7.0180744e-05 -2.5927738e-04 -1.2711420e-05  1.5202176e-05]
 [ 7.5386150e-04  7.7143195e-06  3.8740171e-05 -4.1596439e-05
   5.0111230e-05  2.5309260e-05 -4.1415544e-05 -3.8527749e-05]
 [ 1.0484920e-03  5.2827298e-05  1.8025002e-04  1.5300593e-06
   1.5509714e-04 -5.7548252e-05 -2.8091285e-05 -1.5607620e-06]
 [ 2.3398495e-01  2.3714764e-01  1.0897468e-01 -3.7721938e-01
   1.4410514e-01  1.3680111e-01  2.5230786e-01  4.3661553e-01]
 [ 5.1510274e-01 -1.6740918e-02 -5.7062507e-01  4.9518749e-01
   2.6698241e-01 -2.2394335e-01  5.4502666e-01  2.8597885e-01]
 [-2.7926984e-01 -1.5195495e-01  1.4300500e-01 -4.6517140e-01
   3.6614186e-01  1.8517080e-01 -1.6834801e-01  7.9066440e-02]] 
Episode: 5: [[-1.16208322e-01  1.91814285e-02 -5.48259199e-01  5.08296728e-01
   5.14864028e-01  3.42369378e-01 -9.82768759e-02  3.70179951e-01]
 [-3.12910080e-01  4.72819597e-01 -4.40664113e-01 -4.90555167e-01
  -1.04822390e-01  5.31201184e-01 -3.35306942e-01 -3.53022397e-01]
 [ 4.51336384e-01 -7.04890937e-02 -1.65449142e-01  5.21814860e-02
   3.80893469e-01 -3.34733486e-01  3.09611320e-01 -8.23834985e-02]
 [-3.33134413e-01  1.85107395e-01 -3.86253327e-01 -8.64104480e-02
   5.69255769e-01  2.26854116e-01 -2.92171866e-01  2.34373227e-01]
 [ 2.87659913e-01  4.96987343e-01 -5.20301461e-01 -4.90833879e-01
   2.56941020e-01  5.17336011e-01 -1.55967817e-01 -3.21461678e-01]
 [ 3.21756274e-01  1.60872504e-01 -3.37481588e-01  2.35907331e-01
   5.31768978e-01 -5.08937478e-01 -1.89756870e-01 -5.06496966e-01]
 [ 1.34872121e-03  2.87584786e-04  1.50117354e-04  4.43598401e-05
   9.97444731e-05 -3.20846768e-04 -5.69109543e-05  5.04306045e-05]
 [ 7.16154114e-04  5.81283166e-05 -2.56099083e-05 -7.10086679e-05
   1.38723102e-04  6.16729521e-05 -1.21555189e-04 -3.85864041e-05]
 [ 1.13490410e-03  7.85410884e-05  1.38698684e-04  3.65980959e-05
   2.12205690e-04 -1.13390204e-04 -8.83881949e-05  2.89727923e-05]
 [ 2.34075680e-01  2.37073630e-01  1.09020665e-01 -3.77195150e-01
   1.44143790e-01  1.36761531e-01  2.52288908e-01  4.36632901e-01]
 [ 5.15127242e-01 -1.66555792e-02 -5.70603430e-01  4.95169610e-01
   2.66951591e-01 -2.23945186e-01  5.45097828e-01  2.86071688e-01]
 [-2.79319733e-01 -1.51962519e-01  1.42988354e-01 -4.65183079e-01
   3.66070062e-01  1.85149029e-01 -1.68381140e-01  7.89691731e-02]] 
Episode: 6: [[-1.16213530e-01  1.91459227e-02 -5.48199832e-01  5.08371532e-01
   5.14870465e-01  3.42325479e-01 -9.83442664e-02  3.70174736e-01]
 [-3.12843233e-01  4.72816944e-01 -4.40653712e-01 -4.90591109e-01
  -1.04785055e-01  5.31257272e-01 -3.35230857e-01 -3.53008062e-01]
 [ 4.51364964e-01 -7.04131797e-02 -1.65485710e-01  5.21015562e-02
   3.80847007e-01 -3.34767997e-01  3.09565961e-01 -8.24292749e-02]
 [-3.33094925e-01  1.85053736e-01 -3.86312753e-01 -8.63663852e-02
   5.69344461e-01  2.26903647e-01 -2.92117298e-01  2.34428316e-01]
 [ 2.87685126e-01  4.97013777e-01 -5.20334363e-01 -4.90861654e-01
   2.56991953e-01  5.17396748e-01 -1.55879349e-01 -3.21391940e-01]
 [ 3.21731776e-01  1.60918176e-01 -3.37426305e-01  2.35868052e-01
   5.31676769e-01 -5.08993268e-01 -1.89843252e-01 -5.06554246e-01]
 [ 1.43626111e-03  2.54732207e-04  1.52288398e-04  9.31097165e-05
   1.52955385e-04 -3.64618056e-04 -9.95634982e-05  6.94887131e-05]
 [ 7.42175325e-04  9.66204752e-05 -1.02528225e-04 -6.15031386e-05
   2.04461889e-04  9.70029214e-05 -1.92025153e-04 -1.40058673e-05]
 [ 1.22602901e-03  5.48230055e-05  1.12435162e-04  8.33090526e-05
   2.82910216e-04 -1.51027241e-04 -1.44322519e-04  5.39443354e-05]
 [ 2.34082386e-01  2.37013891e-01  1.09081201e-01 -3.77142489e-01
   1.44154817e-01  1.36699766e-01  2.52232760e-01  4.36587155e-01]
 [ 5.15170753e-01 -1.66030526e-02 -5.70591390e-01  4.95129734e-01
   2.66990781e-01 -2.23894134e-01  5.45176685e-01  2.86105961e-01]
 [-2.79293358e-01 -1.51957348e-01  1.42965585e-01 -4.65229601e-01
   3.66001874e-01  1.85102507e-01 -1.68394029e-01  7.89851695e-02]] 
Episode: 7: [[-1.16231017e-01  1.91272087e-02 -5.48131824e-01  5.08408189e-01
   5.14847338e-01  3.42295140e-01 -9.83438715e-02  3.70180786e-01]
 [-3.12780470e-01  4.72803414e-01 -4.40652579e-01 -4.90622401e-01
  -1.04761571e-01  5.31313479e-01 -3.35165679e-01 -3.53009403e-01]
 [ 4.51399446e-01 -7.03357160e-02 -1.65509135e-01  5.20598963e-02
   3.80824268e-01 -3.34810466e-01  3.09508771e-01 -8.24811235e-02]
 [-3.33056629e-01  1.84987351e-01 -3.86385292e-01 -8.63063559e-02
   5.69431424e-01  2.26947442e-01 -2.92074233e-01  2.34483600e-01]
 [ 2.87717879e-01  4.97004122e-01 -5.20386100e-01 -4.90881920e-01
   2.57045805e-01  5.17450213e-01 -1.55800655e-01 -3.21355402e-01]
 [ 3.21694493e-01  1.60982728e-01 -3.37356091e-01  2.35820755e-01
   5.31585813e-01 -5.09041607e-01 -1.89904988e-01 -5.06613612e-01]
 [ 1.51733123e-03  2.16707296e-04  1.49244224e-04  1.50903434e-04
   2.19713256e-04 -3.73206596e-04 -1.49477448e-04  4.45148071e-05]
 [ 7.50867883e-04  1.14413735e-04 -1.84878358e-04 -3.55270495e-05
   2.80639768e-04  1.54565394e-04 -2.36285196e-04 -2.83117879e-05]
 [ 1.30650611e-03  2.33616120e-05  7.63704811e-05  1.40316537e-04
   3.63044033e-04 -1.50710359e-04 -2.01495073e-04  3.13818564e-05]
 [ 2.34081089e-01  2.37001479e-01  1.09133869e-01 -3.77115101e-01
   1.44133896e-01  1.36661127e-01  2.52198964e-01  4.36564803e-01]
 [ 5.15191376e-01 -1.65788978e-02 -5.70575476e-01  4.95090812e-01
   2.67001629e-01 -2.23841906e-01  5.45261979e-01  2.86112189e-01]
 [-2.79264688e-01 -1.51944607e-01  1.42956480e-01 -4.65265453e-01
   3.65966588e-01  1.85054868e-01 -1.68411955e-01  7.89889097e-02]] 
Episode: 8: [[-1.16253436e-01  1.91053916e-02 -5.48077464e-01  5.08435607e-01
   5.14840066e-01  3.42270970e-01 -9.83487889e-02  3.70185554e-01]
 [-3.12735677e-01  4.72809047e-01 -4.40640718e-01 -4.90632534e-01
  -1.04728401e-01  5.31366527e-01 -3.35106224e-01 -3.53006244e-01]
 [ 4.51426893e-01 -7.02784210e-02 -1.65518194e-01  5.20289391e-02
   3.80785227e-01 -3.34860921e-01  3.09455752e-01 -8.25210214e-02]
 [-3.33036542e-01  1.84925362e-01 -3.86448830e-01 -8.62561092e-02
   5.69516242e-01  2.26992667e-01 -2.92014420e-01  2.34545946e-01]
 [ 2.87743270e-01  4.97011185e-01 -5.20428419e-01 -4.90905911e-01
   2.57089883e-01  5.17496586e-01 -1.55725554e-01 -3.21310252e-01]
 [ 3.21656972e-01  1.61026061e-01 -3.37301403e-01  2.35773399e-01
   5.31497777e-01 -5.09089530e-01 -1.89977854e-01 -5.06675899e-01]
 [ 1.60276331e-03  2.04027107e-04  1.38331365e-04  2.06015116e-04
   2.95952545e-04 -3.66873806e-04 -1.90109480e-04  1.27805797e-05]
 [ 7.36979011e-04  1.42332690e-04 -2.51766265e-04 -5.70069424e-05
   3.53730924e-04  2.10752318e-04 -2.57999491e-04 -5.10395803e-05]
 [ 1.38785504e-03  1.64495214e-05  3.86268475e-05  1.89094630e-04
   4.49185842e-04 -1.36653864e-04 -2.43285933e-04  2.22410404e-06]
 [ 2.34081089e-01  2.36966610e-01  1.09173328e-01 -3.77082258e-01
   1.44126594e-01  1.36639729e-01  2.52173930e-01  4.36547697e-01]
 [ 5.15184045e-01 -1.65454671e-02 -5.70550978e-01  4.95063931e-01
   2.67015040e-01 -2.23803297e-01  5.45336425e-01  2.86130995e-01]
 [-2.79228568e-01 -1.51926503e-01  1.42941564e-01 -4.65308100e-01
   3.65915120e-01  1.85003772e-01 -1.68431252e-01  7.89961442e-02]] 
Episode: 9: [[-1.16279826e-01  1.90584380e-02 -5.48029840e-01  5.08464575e-01
   5.14828384e-01  3.42247993e-01 -9.83466804e-02  3.70189279e-01]
 [-3.12692821e-01  4.72803742e-01 -4.40625101e-01 -4.90620077e-01
  -1.04720980e-01  5.31414986e-01 -3.35038215e-01 -3.53001177e-01]
 [ 4.51457739e-01 -7.02088028e-02 -1.65524021e-01  5.19941822e-02
   3.80756915e-01 -3.34914207e-01  3.09396833e-01 -8.25624615e-02]
 [-3.33032817e-01  1.84863478e-01 -3.86494607e-01 -8.61959457e-02
   5.69594324e-01  2.27037176e-01 -2.91950107e-01  2.34609172e-01]
 [ 2.87770092e-01  4.97023582e-01 -5.20453572e-01 -4.90908533e-01
   2.57125974e-01  5.17538607e-01 -1.55647457e-01 -3.21266145e-01]
 [ 3.21629494e-01  1.61064416e-01 -3.37265730e-01  2.35716209e-01
   5.31420052e-01 -5.09136617e-01 -1.90054417e-01 -5.06739020e-01]
 [ 1.68529397e-03  1.97525384e-04  1.20039193e-04  2.57203239e-04
   3.63027066e-04 -3.68620967e-04 -2.10995757e-04 -1.18416137e-05]
 [ 7.15349510e-04  1.72198881e-04 -3.12343909e-04 -7.97232133e-05
   4.25165897e-04  2.68047705e-04 -2.77382118e-04 -5.87391805e-05]
 [ 1.46424642e-03  1.54931204e-05 -2.83695908e-06  2.33903207e-04
   5.26799529e-04 -1.29789987e-04 -2.65844719e-04 -1.78449809e-05]
 [ 2.34077364e-01  2.36909911e-01  1.09204367e-01 -3.77050996e-01
   1.44107789e-01  1.36623859e-01  2.52158195e-01  4.36537802e-01]
 [ 5.15187800e-01 -1.65229756e-02 -5.70523083e-01  4.95065868e-01
   2.67008096e-01 -2.23773062e-01  5.45418680e-01  2.86151171e-01]
 [-2.79192865e-01 -1.51887953e-01  1.42926648e-01 -4.65355128e-01
   3.65878433e-01  1.84948385e-01 -1.68470100e-01  7.89907351e-02]] 
Episode: 10: [[-1.16322525e-01  1.90301295e-02 -5.47974348e-01  5.08470237e-01
   5.14810860e-01  3.42241436e-01 -9.83109847e-02  3.70199203e-01]
 [-3.12691122e-01  4.72808301e-01 -4.40612704e-01 -4.90600705e-01
  -1.04707249e-01  5.31470060e-01 -3.34970504e-01 -3.53001088e-01]
 [ 4.51510757e-01 -7.01528192e-02 -1.65528119e-01  5.19852526e-02
   3.80729824e-01 -3.34974200e-01  3.09326857e-01 -8.26155841e-02]
 [-3.33063155e-01  1.84828773e-01 -3.86542946e-01 -8.61321539e-02
   5.69674313e-01  2.27085009e-01 -2.91877359e-01  2.34669656e-01]
 [ 2.87778109e-01  4.97052997e-01 -5.20488322e-01 -4.90891904e-01
   2.57175297e-01  5.17581224e-01 -1.55579329e-01 -3.21219623e-01]
 [ 3.21643233e-01  1.61087707e-01 -3.37224454e-01  2.35647082e-01
   5.31337798e-01 -5.09186327e-01 -1.90123737e-01 -5.06793618e-01]
 [ 1.71038648e-03  1.65025660e-04  8.05729724e-05  3.02350614e-04
   4.39695665e-04 -3.49046284e-04 -2.31409911e-04 -5.94559424e-05]
 [ 7.04144535e-04  1.78176575e-04 -3.76394135e-04 -1.16898016e-04
   5.03222749e-04  3.38424463e-04 -2.67404685e-04 -6.75473857e-05]
 [ 1.48666976e-03 -1.22061429e-05 -6.05359346e-05  2.70265184e-04
   6.10357849e-04 -9.98260293e-05 -2.79763277e-04 -5.96482423e-05]
 [ 2.34055862e-01  2.36868009e-01  1.09256528e-01 -3.77038300e-01
   1.44080028e-01  1.36621773e-01  2.52174050e-01  4.36529040e-01]
 [ 5.15150845e-01 -1.64904222e-02 -5.70503652e-01  4.95076686e-01
   2.67007649e-01 -2.23728657e-01  5.45506179e-01  2.86165744e-01]
 [-2.79139072e-01 -1.51848644e-01  1.42912909e-01 -4.65389758e-01
   3.65847588e-01  1.84882998e-01 -1.68524012e-01  7.89935663e-02]] 
Episode: 11: [[-1.1636098e-01  1.8979680e-02 -5.4794919e-01  5.0849569e-01
   5.1481116e-01  3.4223300e-01 -9.8290175e-02  3.7021995e-01]
 [-3.1265715e-01  4.7282857e-01 -4.4059661e-01 -4.9057093e-01
  -1.0469466e-01  5.3152311e-01 -3.3492893e-01 -3.5298437e-01]
 [ 4.5155719e-01 -7.0084199e-02 -1.6551454e-01  5.1968064e-02
   3.8069624e-01 -3.3503741e-01  3.0927640e-01 -8.2678355e-02]
 [-3.3308771e-01  1.8480076e-01 -3.8657132e-01 -8.6087815e-02
   5.6974584e-01  2.2713253e-01 -2.9182330e-01  2.3473118e-01]
 [ 2.8779387e-01  4.9709785e-01 -5.2049381e-01 -4.9088213e-01
   2.5721094e-01  5.1762271e-01 -1.5551589e-01 -3.2117000e-01]
 [ 3.2165676e-01  1.6110273e-01 -3.3719909e-01  2.3560686e-01
   5.3126782e-01 -5.0923628e-01 -1.9017655e-01 -5.0685096e-01]
 [ 1.7505576e-03  1.5055436e-04  6.3854008e-05  3.5077540e-04
   5.0696760e-04 -3.3077892e-04 -2.6312680e-04 -8.7991080e-05]
 [ 7.1227818e-04  2.0192884e-04 -4.2082329e-04 -1.3162007e-04
   5.8281602e-04  4.0795782e-04 -2.6001749e-04 -7.9776182e-05]
 [ 1.5274212e-03 -2.1449681e-05 -8.9260677e-05  3.1289645e-04
   6.8654440e-04 -7.0475602e-05 -3.0602646e-04 -8.6056403e-05]
 [ 2.3403640e-01  2.3680788e-01  1.0927361e-01 -3.7701321e-01
   1.4407274e-01  1.3662711e-01  2.5217846e-01  4.3653274e-01]
 [ 5.1515144e-01 -1.6450567e-02 -5.7047409e-01  4.9510336e-01
   2.6700786e-01 -2.2369348e-01  5.4556823e-01  2.8619874e-01]
 [-2.7910739e-01 -1.5180452e-01  1.4291605e-01 -4.6542814e-01
   3.6581209e-01  1.8481930e-01 -1.6855741e-01  7.8976303e-02]] 
Episode: 12: [[-1.16394252e-01  1.89243983e-02 -5.47921538e-01  5.08532166e-01
   5.14808297e-01  3.42229158e-01 -9.82685685e-02  3.70241195e-01]
 [-3.12619597e-01  4.72847134e-01 -4.40585762e-01 -4.90536153e-01
  -1.04681686e-01  5.31567633e-01 -3.34885776e-01 -3.52968693e-01]
 [ 4.51589674e-01 -7.00132921e-02 -1.65503785e-01  5.19323573e-02
   3.80669147e-01 -3.35095853e-01  3.09223503e-01 -8.27413574e-02]
 [-3.33101660e-01  1.84767678e-01 -3.86589050e-01 -8.60291049e-02
   5.69806576e-01  2.27170229e-01 -2.91768283e-01  2.34795630e-01]
 [ 2.87808359e-01  4.97138202e-01 -5.20492792e-01 -4.90873873e-01
   2.57242113e-01  5.17658830e-01 -1.55456007e-01 -3.21122140e-01]
 [ 3.21663618e-01  1.61121458e-01 -3.37176442e-01  2.35555500e-01
   5.31204462e-01 -5.09278536e-01 -1.90228760e-01 -5.06902933e-01]
 [ 1.79240271e-03  1.41347584e-04  4.03181184e-05  3.82625614e-04
   5.65191149e-04 -3.16808932e-04 -2.84442736e-04 -1.12725953e-04]
 [ 7.30491243e-04  2.25748852e-04 -4.54939378e-04 -1.57321309e-04
   6.50320435e-04  4.53444285e-04 -2.49028439e-04 -9.39491292e-05]
 [ 1.57247845e-03 -2.60106081e-05 -1.21441524e-04  3.38229322e-04
   7.52498163e-04 -4.87680118e-05 -3.20740539e-04 -1.09608081e-04]
 [ 2.34022841e-01  2.36746833e-01  1.09286606e-01 -3.76976937e-01
   1.44070730e-01  1.36629671e-01  2.52182186e-01  4.36535537e-01]
 [ 5.15154064e-01 -1.64111853e-02 -5.70444047e-01  4.95123386e-01
   2.67007411e-01 -2.23662019e-01  5.45626879e-01  2.86231786e-01]
 [-2.79086739e-01 -1.51759133e-01  1.42923951e-01 -4.65468526e-01
   3.65776658e-01  1.84770107e-01 -1.68593794e-01  7.89599493e-02]] 
Episode: 13: [[-1.1641053e-01  1.8855227e-02 -5.4787678e-01  5.0857383e-01
   5.1480865e-01  3.4221685e-01 -9.8242722e-02  3.7024015e-01]
 [-3.1256562e-01  4.7284850e-01 -4.4056612e-01 -4.9048582e-01
  -1.0465249e-01  5.3159851e-01 -3.3487016e-01 -3.5296401e-01]
 [ 4.5159343e-01 -6.9933444e-02 -1.6552259e-01  5.1897157e-02
   3.8063684e-01 -3.3513218e-01  3.0918679e-01 -8.2763270e-02]
 [-3.3308440e-01  1.8471783e-01 -3.8657847e-01 -8.6027831e-02
   5.6985879e-01  2.2719802e-01 -2.9172495e-01  2.3485057e-01]
 [ 2.8784019e-01  4.9718311e-01 -5.2048653e-01 -4.9088797e-01
   2.5727209e-01  5.1768613e-01 -1.5543513e-01 -3.2109493e-01]
 [ 3.2164055e-01  1.6115594e-01 -3.3717442e-01  2.3555291e-01
   5.3114545e-01 -5.0931299e-01 -1.9027209e-01 -5.0695258e-01]
 [ 1.8349728e-03  1.4962803e-04  2.2901839e-05  4.3378776e-04
   6.3456863e-04 -3.1754840e-04 -2.9940737e-04 -1.5766444e-04]
 [ 7.3750282e-04  2.5813811e-04 -4.9073051e-04 -1.7700254e-04
   7.2657369e-04  5.0893653e-04 -2.2409983e-04 -1.0015054e-04]
 [ 1.6152457e-03 -1.3958742e-05 -1.4742599e-04  3.8340798e-04
   8.2873338e-04 -3.6877187e-05 -3.2423160e-04 -1.5057577e-04]
 [ 2.3403674e-01  2.3667383e-01  1.0930882e-01 -3.7693790e-01
   1.4408457e-01  1.3663036e-01  2.5218496e-01  4.3652859e-01]
 [ 5.1517582e-01 -1.6406532e-02 -5.7040483e-01  4.9515131e-01
   2.6701927e-01 -2.2364293e-01  5.4564977e-01  2.8624040e-01]
 [-2.7909970e-01 -1.5169656e-01  1.4291324e-01 -4.6551079e-01
   3.6572915e-01  1.8472978e-01 -1.6861029e-01  7.8959353e-02]] 
Episode: 14: [[-1.16430283e-01  1.88114680e-02 -5.47824979e-01  5.08614361e-01
   5.14818490e-01  3.42202872e-01 -9.82055813e-02  3.70232195e-01]
 [-3.12539786e-01  4.72846121e-01 -4.40535128e-01 -4.90459651e-01
  -1.04609564e-01  5.31624556e-01 -3.34848106e-01 -3.52951616e-01]
 [ 4.51599598e-01 -6.99012429e-02 -1.65550813e-01  5.18656708e-02
   3.80596071e-01 -3.35148692e-01  3.09138119e-01 -8.27805996e-02]
 [-3.33068788e-01  1.84680149e-01 -3.86553079e-01 -8.60132501e-02
   5.69920301e-01  2.27219537e-01 -2.91671693e-01  2.34901309e-01]
 [ 2.87872761e-01  4.97205973e-01 -5.20466447e-01 -4.90902066e-01
   2.57311970e-01  5.17706037e-01 -1.55411273e-01 -3.21058005e-01]
 [ 3.21622998e-01  1.61179483e-01 -3.37183058e-01  2.35548288e-01
   5.31077147e-01 -5.09342194e-01 -1.90325499e-01 -5.07005811e-01]
 [ 1.85380084e-03  1.53187953e-04  3.66494282e-06  4.65490593e-04
   6.74712646e-04 -3.16940335e-04 -3.05193884e-04 -1.85204874e-04]
 [ 7.21107994e-04  2.84173089e-04 -5.06919750e-04 -1.88980775e-04
   7.64221477e-04  5.37388260e-04 -2.13887048e-04 -1.21729237e-04]
 [ 1.62831286e-03 -7.01643057e-06 -1.69626321e-04  4.12143389e-04
   8.72627657e-04 -2.81824869e-05 -3.23752436e-04 -1.79524257e-04]
 [ 2.34045193e-01  2.36632466e-01  1.09331615e-01 -3.76904547e-01
   1.44114286e-01  1.36640832e-01  2.52209336e-01  4.36526924e-01]
 [ 5.15179694e-01 -1.64137427e-02 -5.70354819e-01  4.95168120e-01
   2.67045438e-01 -2.23633051e-01  5.45677185e-01  2.86253154e-01]
 [-2.79100001e-01 -1.51668772e-01  1.42893851e-01 -4.65537459e-01
   3.65675330e-01  1.84696794e-01 -1.68634623e-01  7.89629444e-02]] 
Episode: 15: [[-1.16453633e-01  1.87686644e-02 -5.47780395e-01  5.08640170e-01
   5.14816701e-01  3.42194796e-01 -9.81636792e-02  3.70219350e-01]
 [-3.12524408e-01  4.72855300e-01 -4.40499485e-01 -4.90444988e-01
  -1.04572542e-01  5.31639814e-01 -3.34832877e-01 -3.52937937e-01]
 [ 4.51614231e-01 -6.98767900e-02 -1.65580258e-01  5.18534966e-02
   3.80573064e-01 -3.35170209e-01  3.09087664e-01 -8.28009173e-02]
 [-3.33067328e-01  1.84647992e-01 -3.86521041e-01 -8.59979317e-02
   5.69966972e-01  2.27240250e-01 -2.91617811e-01  2.34952614e-01]
 [ 2.87894726e-01  4.97235507e-01 -5.20435333e-01 -4.90916342e-01
   2.57348061e-01  5.17720520e-01 -1.55406371e-01 -3.21018636e-01]
 [ 3.21616292e-01  1.61190823e-01 -3.37201864e-01  2.35541895e-01
   5.31022072e-01 -5.09367347e-01 -1.90375254e-01 -5.07062376e-01]
 [ 1.87776354e-03  1.66826445e-04  7.39152938e-06  4.95565531e-04
   7.09155749e-04 -3.26771784e-04 -3.24235385e-04 -2.14656116e-04]
 [ 7.07404572e-04  3.10227450e-04 -5.05656935e-04 -1.86403136e-04
   8.06886645e-04  5.56252722e-04 -2.06058554e-04 -1.48162813e-04]
 [ 1.64663000e-03  8.63322020e-06 -1.65172154e-04  4.41535609e-04
   9.12988733e-04 -3.13750570e-05 -3.36717290e-04 -2.11298946e-04]
 [ 2.34042808e-01  2.36585915e-01  1.09341644e-01 -3.76886398e-01
   1.44131020e-01  1.36657044e-01  2.52240628e-01  4.36521202e-01]
 [ 5.15174508e-01 -1.64094213e-02 -5.70295990e-01  4.95183527e-01
   2.67070264e-01 -2.23635465e-01  5.45684636e-01  2.86257744e-01]
 [-2.79087007e-01 -1.51640907e-01  1.42868698e-01 -4.65559751e-01
   3.65632504e-01  1.84663042e-01 -1.68663785e-01  7.89658576e-02]] 
Episode: 16: [[-1.16481103e-01  1.87492296e-02 -5.47733128e-01  5.08666277e-01
   5.14824808e-01  3.42192024e-01 -9.81239676e-02  3.70209783e-01]
 [-3.12518477e-01  4.72864091e-01 -4.40471858e-01 -4.90434885e-01
  -1.04539163e-01  5.31652987e-01 -3.34830552e-01 -3.52940023e-01]
 [ 4.51634884e-01 -6.98626265e-02 -1.65619001e-01  5.18578440e-02
   3.80553186e-01 -3.35189939e-01  3.09051663e-01 -8.28062072e-02]
 [-3.33081305e-01  1.84620321e-01 -3.86490345e-01 -8.60035643e-02
   5.70007145e-01  2.27256805e-01 -2.91586339e-01  2.34980404e-01]
 [ 2.87914366e-01  4.97241646e-01 -5.20407975e-01 -4.90945309e-01
   2.57379919e-01  5.17730653e-01 -1.55406997e-01 -3.20995480e-01]
 [ 3.21621209e-01  1.61208719e-01 -3.37217212e-01  2.35550806e-01
   5.30975997e-01 -5.09386420e-01 -1.90393776e-01 -5.07084489e-01]
 [ 1.91280583e-03  1.77439259e-04 -2.05091419e-05  5.27810247e-04
   7.63114251e-04 -3.10066127e-04 -3.14596051e-04 -2.49739969e-04]
 [ 7.00750679e-04  3.45366425e-04 -5.20508736e-04 -2.05635370e-04
   8.50786455e-04  5.99389314e-04 -1.88050675e-04 -1.59963078e-04]
 [ 1.67697202e-03  2.38470402e-05 -1.93503467e-04  4.68780199e-04
   9.69817105e-04 -5.65659229e-06 -3.21289001e-04 -2.45482603e-04]
 [ 2.34032571e-01  2.36553684e-01  1.09356634e-01 -3.76851201e-01
   1.44146457e-01  1.36662394e-01  2.52244532e-01  4.36508805e-01]
 [ 5.15164614e-01 -1.64088104e-02 -5.70254385e-01  4.95183617e-01
   2.67103612e-01 -2.23635420e-01  5.45700848e-01  2.86253422e-01]
 [-2.79073834e-01 -1.51628658e-01  1.42842531e-01 -4.65583801e-01
   3.65594774e-01  1.84634969e-01 -1.68662027e-01  7.89880008e-02]] 
Episode: 17: [[-1.16501771e-01  1.87319983e-02 -5.47688544e-01  5.08700311e-01
   5.14827073e-01  3.42201710e-01 -9.80800241e-02  3.70199829e-01]
 [-3.12522441e-01  4.72863257e-01 -4.40446645e-01 -4.90421683e-01
  -1.04504794e-01  5.31661868e-01 -3.34831417e-01 -3.52941662e-01]
 [ 4.51647788e-01 -6.98435083e-02 -1.65651396e-01  5.18566743e-02
   3.80536795e-01 -3.35206449e-01  3.09019804e-01 -8.28053281e-02]
 [-3.33095998e-01  1.84590906e-01 -3.86467248e-01 -8.60277861e-02
   5.70041716e-01  2.27262855e-01 -2.91566730e-01  2.35008061e-01]
 [ 2.87928373e-01  4.97243404e-01 -5.20387828e-01 -4.90984082e-01
   2.57415056e-01  5.17729819e-01 -1.55418783e-01 -3.20972085e-01]
 [ 3.21629196e-01  1.61231458e-01 -3.37222546e-01  2.35577941e-01
   5.30933917e-01 -5.09395063e-01 -1.90399423e-01 -5.07107496e-01]
 [ 1.93477329e-03  1.87914848e-04 -4.44796715e-05  5.57324325e-04
   8.15585430e-04 -2.92376208e-04 -3.14191828e-04 -2.82908266e-04]
 [ 6.93403534e-04  3.74238443e-04 -5.32149803e-04 -2.32103295e-04
   8.91928736e-04  6.46671979e-04 -1.64819343e-04 -1.69970866e-04]
 [ 1.69472524e-03  3.79577432e-05 -2.17725552e-04  4.91940940e-04
   1.02474925e-03  2.13586500e-05 -3.13461991e-04 -2.77483574e-04]
 [ 2.34027937e-01  2.36523777e-01  1.09367207e-01 -3.76806766e-01
   1.44152984e-01  1.36677429e-01  2.52251893e-01  4.36491847e-01]
 [ 5.15149057e-01 -1.64125133e-02 -5.70213974e-01  4.95182812e-01
   2.67139941e-01 -2.23638415e-01  5.45715392e-01  2.86256254e-01]
 [-2.79062539e-01 -1.51611164e-01  1.42819285e-01 -4.65608537e-01
   3.65567029e-01  1.84610277e-01 -1.68657601e-01  7.90129229e-02]] 
Episode: 18: [[-1.1652293e-01  1.8728415e-02 -5.4766178e-01  5.0873202e-01
   5.1483846e-01  3.4221405e-01 -9.8047040e-02  3.7018827e-01]
 [-3.1253311e-01  4.7285551e-01 -4.4043842e-01 -4.9040294e-01
  -1.0447186e-01  5.3167450e-01 -3.3483109e-01 -3.5293859e-01]
 [ 4.5165715e-01 -6.9834821e-02 -1.6566710e-01  5.1863678e-02
   3.8052428e-01 -3.3522129e-01  3.0898547e-01 -8.2799286e-02]
 [-3.3310640e-01  1.8458393e-01 -3.8644463e-01 -8.6063623e-02
   5.7006818e-01  2.2726621e-01 -2.9155326e-01  2.3501748e-01]
 [ 2.8794852e-01  4.9723628e-01 -5.2036804e-01 -4.9101928e-01
   2.5743601e-01  5.1772988e-01 -1.5542042e-01 -3.2095742e-01]
 [ 3.2163236e-01  1.6124336e-01 -3.3723277e-01  2.3561040e-01
   5.3090250e-01 -5.0940436e-01 -1.9040310e-01 -5.0710338e-01]
 [ 1.9501788e-03  2.0602760e-04 -8.8755274e-05  5.8584323e-04
   8.7273406e-04 -2.8544234e-04 -3.1018653e-04 -3.1599589e-04]
 [ 6.7770144e-04  4.1821445e-04 -5.4445653e-04 -2.5703298e-04
   9.4503368e-04  6.8914407e-04 -1.4116635e-04 -1.7085936e-04]
 [ 1.7040859e-03  6.1766194e-05 -2.6042323e-04  5.1422731e-04
   1.0859881e-03  3.7695943e-05 -3.0201679e-04 -3.0749125e-04]
 [ 2.3401447e-01  2.3649871e-01  1.0936474e-01 -3.7676919e-01
   1.4416771e-01  1.3670406e-01  2.5223744e-01  4.3646497e-01]
 [ 5.1512372e-01 -1.6419716e-02 -5.7019001e-01  4.9519771e-01
   2.6717982e-01 -2.2363557e-01  5.4572910e-01  2.8625891e-01]
 [-2.7904105e-01 -1.5159680e-01  1.4281994e-01 -4.6563956e-01
   3.6553162e-01  1.8457542e-01 -1.6865778e-01  7.9037867e-02]] 
Episode: 19: [[-1.16542704e-01  1.87257938e-02 -5.47638237e-01  5.08763492e-01
   5.14847398e-01  3.42222929e-01 -9.80178937e-02  3.70167404e-01]
 [-3.12543809e-01  4.72847819e-01 -4.40428883e-01 -4.90396559e-01
  -1.04439594e-01  5.31687856e-01 -3.34832132e-01 -3.52932751e-01]
 [ 4.51665133e-01 -6.98322132e-02 -1.65677294e-01  5.18739410e-02
   3.80513668e-01 -3.35235000e-01  3.08950484e-01 -8.27834979e-02]
 [-3.33117366e-01  1.84577644e-01 -3.86424541e-01 -8.60998929e-02
   5.70091844e-01  2.27268055e-01 -2.91542143e-01  2.35025600e-01]
 [ 2.87966490e-01  4.97226417e-01 -5.20350575e-01 -4.91054296e-01
   2.57458031e-01  5.17731607e-01 -1.55427977e-01 -3.20940167e-01]
 [ 3.21637243e-01  1.61256015e-01 -3.37240338e-01  2.35644326e-01
   5.30871093e-01 -5.09413660e-01 -1.90406904e-01 -5.07103801e-01]
 [ 1.96930184e-03  2.17680528e-04 -1.26843835e-04  6.09575131e-04
   9.23434738e-04 -2.72651814e-04 -2.99546693e-04 -3.43648077e-04]
 [ 6.65404194e-04  4.60039417e-04 -5.51400881e-04 -2.78246735e-04
   9.84029262e-04  7.24953017e-04 -1.16770068e-04 -1.67255479e-04]
 [ 1.71802880e-03  7.94761945e-05 -2.96322483e-04  5.32575767e-04
   1.13865524e-03  5.76026359e-05 -2.84506968e-04 -3.31544841e-04]
 [ 2.34001189e-01  2.36479074e-01  1.09357193e-01 -3.76736462e-01
   1.44185722e-01  1.36727095e-01  2.52219617e-01  4.36431915e-01]
 [ 5.15103102e-01 -1.64297614e-02 -5.70167780e-01  4.95202661e-01
   2.67217904e-01 -2.23630100e-01  5.45738399e-01  2.86264002e-01]
 [-2.79020607e-01 -1.51585475e-01  1.42823607e-01 -4.65662748e-01
   3.65494967e-01  1.84543535e-01 -1.68656334e-01  7.90638328e-02]] 
Episode: 20: [[-1.1655638e-01  1.8720437e-02 -5.4762131e-01  5.0878602e-01
   5.1485318e-01  3.4223455e-01 -9.7992882e-02  3.7015250e-01]
 [-3.1255126e-01  4.7283348e-01 -4.4041985e-01 -4.9038836e-01
  -1.0440821e-01  5.3170043e-01 -3.3483389e-01 -3.5292447e-01]
 [ 4.5166934e-01 -6.9823757e-02 -1.6568524e-01  5.1894974e-02
   3.8050467e-01 -3.3524716e-01  3.0892038e-01 -8.2771376e-02]
 [-3.3312708e-01  1.8457130e-01 -3.8640538e-01 -8.6138666e-02
   5.7011414e-01  2.2726804e-01 -2.9153314e-01  2.3502854e-01]
 [ 2.8798333e-01  4.9721512e-01 -5.2033341e-01 -4.9108693e-01
   2.5748029e-01  5.1773077e-01 -1.5543637e-01 -3.2092655e-01]
 [ 3.2164311e-01  1.6126814e-01 -3.3725002e-01  2.3567963e-01
   5.3084147e-01 -5.0941950e-01 -1.9040824e-01 -5.0710076e-01]
 [ 1.9812426e-03  2.2621108e-04 -1.5837250e-04  6.3369481e-04
   9.6970308e-04 -2.6454221e-04 -2.8668452e-04 -3.6357270e-04]
 [ 6.5686664e-04  4.9495685e-04 -5.5822224e-04 -2.9468979e-04
   1.0200875e-03  7.5607060e-04 -9.5896161e-05 -1.6365547e-04]
 [ 1.7266029e-03  9.3302624e-05 -3.2614512e-04  5.5219949e-04
   1.1868492e-03  7.2215087e-05 -2.6617083e-04 -3.4845801e-04]
 [ 2.3399033e-01  2.3645939e-01  1.0934675e-01 -3.7670672e-01
   1.4420317e-01  1.3675343e-01  2.5220168e-01  4.3640172e-01]
 [ 5.1508927e-01 -1.6446870e-02 -5.7014763e-01  4.9520728e-01
   2.6725298e-01 -2.2362542e-01  5.4574656e-01  2.8627384e-01]
 [-2.7900398e-01 -1.5156990e-01  1.4282668e-01 -4.6568331e-01
   3.6545908e-01  1.8451324e-01 -1.6865210e-01  7.9088569e-02]] 
Episode: 21: [[-1.1657290e-01  1.8717486e-02 -5.4760361e-01  5.0881135e-01
   5.1485240e-01  3.4223798e-01 -9.7974956e-02  3.7014356e-01]
 [-3.1256777e-01  4.7281635e-01 -4.4041780e-01 -4.9036649e-01
  -1.0437555e-01  5.3170347e-01 -3.3483878e-01 -3.5292804e-01]
 [ 4.5167682e-01 -6.9815293e-02 -1.6569291e-01  5.1895127e-02
   3.8050276e-01 -3.3524343e-01  3.0889976e-01 -8.2763195e-02]
 [-3.3314410e-01  1.8455714e-01 -3.8638860e-01 -8.6161315e-02
   5.7013392e-01  2.2726066e-01 -2.9153129e-01  2.3503061e-01]
 [ 2.8799191e-01  4.9719808e-01 -5.2032363e-01 -4.9111438e-01
   2.5750604e-01  5.1772636e-01 -1.5543963e-01 -3.2092094e-01]
 [ 3.2165539e-01  1.6129003e-01 -3.3725530e-01  2.3569861e-01
   5.3081441e-01 -5.0941926e-01 -1.9040495e-01 -5.0709504e-01]
 [ 1.9856556e-03  2.3363571e-04 -1.9040622e-04  6.6042709e-04
   1.0038434e-03 -2.5709622e-04 -2.6596108e-04 -3.8231249e-04]
 [ 6.4544851e-04  5.2895473e-04 -5.6726771e-04 -3.0604520e-04
   1.0569607e-03  7.8025681e-04 -7.8642675e-05 -1.5560185e-04]
 [ 1.7274591e-03  1.0586754e-04 -3.5701573e-04  5.7535077e-04
   1.2247849e-03  8.4672589e-05 -2.4201878e-04 -3.6350681e-04]
 [ 2.3397756e-01  2.3644483e-01  1.0933698e-01 -3.7667516e-01
   1.4421363e-01  1.3676775e-01  2.5217673e-01  4.3637317e-01]
 [ 5.1506424e-01 -1.6467750e-02 -5.7013339e-01  4.9521685e-01
   2.6729065e-01 -2.2362769e-01  5.4575497e-01  2.8627640e-01]
 [-2.7898365e-01 -1.5155648e-01  1.4283164e-01 -4.6571350e-01
   3.6542973e-01  1.8450406e-01 -1.6863836e-01  7.9113320e-02]] 
Episode: 22: [[-1.16590396e-01  1.87203009e-02 -5.47560871e-01  5.08827627e-01
   5.14853418e-01  3.42229545e-01 -9.79499966e-02  3.70142847e-01]
 [-3.12590390e-01  4.72792923e-01 -4.40426379e-01 -4.90347147e-01
  -1.04338683e-01  5.31714499e-01 -3.34832847e-01 -3.52925658e-01]
 [ 4.51697379e-01 -6.98033944e-02 -1.65719435e-01  5.19044138e-02
   3.80502224e-01 -3.35233629e-01  3.08864176e-01 -8.27644914e-02]
 [-3.33176553e-01  1.84543669e-01 -3.86394173e-01 -8.61920491e-02
   5.70153415e-01  2.27260053e-01 -2.91532069e-01  2.35052019e-01]
 [ 2.87984639e-01  4.97176260e-01 -5.20347416e-01 -4.91136134e-01
   2.57533431e-01  5.17733157e-01 -1.55450836e-01 -3.20907414e-01]
 [ 3.21681291e-01  1.61317423e-01 -3.37236881e-01  2.35723555e-01
   5.30788541e-01 -5.09424686e-01 -1.90399498e-01 -5.07103801e-01]
 [ 1.99706620e-03  2.30464531e-04 -2.29786630e-04  6.94549759e-04
   1.04206114e-03 -2.30194404e-04 -2.28551522e-04 -4.01515223e-04]
 [ 6.34489930e-04  5.62251196e-04 -5.99273888e-04 -3.24088556e-04
   1.08962238e-03  8.14614759e-04 -5.43184651e-05 -1.34498827e-04]
 [ 1.73480180e-03  1.08984663e-04 -3.99593991e-04  6.04649365e-04
   1.26558903e-03  1.15581199e-04 -2.01584917e-04 -3.75952746e-04]
 [ 2.33964488e-01  2.36430049e-01  1.09365083e-01 -3.76653790e-01
   1.44221470e-01  1.36767909e-01  2.52172083e-01  4.36353177e-01]
 [ 5.15033901e-01 -1.64890680e-02 -5.70133567e-01  4.95229512e-01
   2.67335385e-01 -2.23618820e-01  5.45767903e-01  2.86285996e-01]
 [-2.78957456e-01 -1.51540130e-01  1.42814755e-01 -4.65733469e-01
   3.65402192e-01  1.84497252e-01 -1.68647498e-01  7.91290402e-02]] 
Episode: 23: [[-1.16604820e-01  1.87247694e-02 -5.47523856e-01  5.08836210e-01
   5.14858127e-01  3.42227846e-01 -9.79288816e-02  3.70145440e-01]
 [-3.12608808e-01  4.72764373e-01 -4.40431774e-01 -4.90332365e-01
  -1.04310088e-01  5.31728029e-01 -3.34820867e-01 -3.52919817e-01]
 [ 4.51715320e-01 -6.98010772e-02 -1.65737823e-01  5.19247949e-02
   3.80497158e-01 -3.35233361e-01  3.08835775e-01 -8.27712789e-02]
 [-3.33203137e-01  1.84534267e-01 -3.86401325e-01 -8.62242728e-02
   5.70172906e-01  2.27260709e-01 -2.91531801e-01  2.35076740e-01]
 [ 2.87976712e-01  4.97153282e-01 -5.20365953e-01 -4.91151959e-01
   2.57559896e-01  5.17738223e-01 -1.55455038e-01 -3.20895016e-01]
 [ 3.21704417e-01  1.61339596e-01 -3.37221414e-01  2.35746518e-01
   5.30763268e-01 -5.09432793e-01 -1.90396026e-01 -5.07116139e-01]
 [ 2.01042369e-03  2.27054683e-04 -2.61965557e-04  7.24821643e-04
   1.07651076e-03 -2.00658818e-04 -1.86027726e-04 -4.07229789e-04]
 [ 6.28673646e-04  5.92037744e-04 -6.27443893e-04 -3.38356796e-04
   1.11559383e-03  8.48068390e-04 -2.28243662e-05 -1.07678374e-04]
 [ 1.74513902e-03  1.11381691e-04 -4.35176684e-04  6.30813243e-04
   1.30184495e-03  1.48553532e-04 -1.54889494e-04 -3.74449504e-04]
 [ 2.33954906e-01  2.36419261e-01  1.09387226e-01 -3.76645118e-01
   1.44227147e-01  1.36775911e-01  2.52159834e-01  4.36336100e-01]
 [ 5.15006065e-01 -1.65148061e-02 -5.70129335e-01  4.95245218e-01
   2.67377138e-01 -2.23604694e-01  5.45792937e-01  2.86298722e-01]
 [-2.78935015e-01 -1.51526570e-01  1.42801091e-01 -4.65748459e-01
   3.65376592e-01  1.84479058e-01 -1.68656573e-01  7.91364983e-02]] 
Episode: 24: [[-1.16619155e-01  1.87290087e-02 -5.47489047e-01  5.08846402e-01
   5.14859438e-01  3.42227817e-01 -9.79124829e-02  3.70149732e-01]
 [-3.12624782e-01  4.72734898e-01 -4.40437675e-01 -4.90318358e-01
  -1.04281880e-01  5.31737149e-01 -3.34805578e-01 -3.52916330e-01]
 [ 4.51733530e-01 -6.97985291e-02 -1.65757403e-01  5.19410707e-02
   3.80494744e-01 -3.35232854e-01  3.08809161e-01 -8.27767104e-02]
 [-3.33227992e-01  1.84523970e-01 -3.86404872e-01 -8.62571895e-02
   5.70195794e-01  2.27260441e-01 -2.91525990e-01  2.35099718e-01]
 [ 2.87967175e-01  4.97129470e-01 -5.20379126e-01 -4.91167933e-01
   2.57586569e-01  5.17740369e-01 -1.55452371e-01 -3.20882559e-01]
 [ 3.21725965e-01  1.61360398e-01 -3.37211370e-01  2.35772654e-01
   5.30735612e-01 -5.09439170e-01 -1.90399662e-01 -5.07126808e-01]
 [ 2.02377839e-03  2.24717980e-04 -2.90779950e-04  7.54595269e-04
   1.10539724e-03 -1.73805529e-04 -1.46359569e-04 -4.13304078e-04]
 [ 6.23428321e-04  6.17360813e-04 -6.53725059e-04 -3.47737048e-04
   1.14045700e-03  8.75717553e-04  6.65373318e-06 -8.30745848e-05]
 [ 1.75557495e-03  1.13862960e-04 -4.67289356e-04  6.57373981e-04
   1.33286358e-03  1.78062706e-04 -1.11284884e-04 -3.73904710e-04]
 [ 2.33946905e-01  2.36409709e-01  1.09407336e-01 -3.76636326e-01
   1.44233301e-01  1.36786133e-01  2.52147675e-01  4.36319411e-01]
 [ 5.14979482e-01 -1.65419262e-02 -5.70123851e-01  4.95262355e-01
   2.67415583e-01 -2.23596588e-01  5.45817792e-01  2.86313266e-01]
 [-2.78914511e-01 -1.51512682e-01  1.42788395e-01 -4.65762615e-01
   3.65350693e-01  1.84462845e-01 -1.68667555e-01  7.91463852e-02]] 
Episode: 25: [[-1.16633750e-01  1.87288802e-02 -5.47463894e-01  5.08859813e-01
   5.14861643e-01  3.42224330e-01 -9.78984460e-02  3.70153636e-01]
 [-3.12642306e-01  4.72711444e-01 -4.40443873e-01 -4.90309715e-01
  -1.04257450e-01  5.31742990e-01 -3.34793001e-01 -3.52914006e-01]
 [ 4.51746792e-01 -6.97903857e-02 -1.65767223e-01  5.19498214e-02
   3.80494356e-01 -3.35230470e-01  3.08781385e-01 -8.27815309e-02]
 [-3.33248019e-01  1.84513658e-01 -3.86415720e-01 -8.62891823e-02
   5.70221543e-01  2.27260277e-01 -2.91522622e-01  2.35118181e-01]
 [ 2.87959993e-01  4.97108698e-01 -5.20389497e-01 -4.91181880e-01
   2.57610053e-01  5.17742693e-01 -1.55449063e-01 -3.20871681e-01]
 [ 3.21741104e-01  1.61376685e-01 -3.37195754e-01  2.35799685e-01
   5.30705273e-01 -5.09446084e-01 -1.90404162e-01 -5.07133961e-01]
 [ 2.03035073e-03  2.25098585e-04 -3.12185468e-04  7.85154756e-04
   1.13157567e-03 -1.52885172e-04 -1.08495369e-04 -4.21945413e-04]
 [ 6.10080257e-04  6.37728837e-04 -6.76807540e-04 -3.55545926e-04
   1.16227253e-03  8.99402658e-04  2.82061319e-05 -6.28991838e-05]
 [ 1.75786042e-03  1.17829979e-04 -4.92197229e-04  6.84960512e-04
   1.36098603e-03  2.01499905e-04 -7.12137626e-05 -3.76981421e-04]
 [ 2.33940467e-01  2.36402944e-01  1.09417886e-01 -3.76630992e-01
   1.44240573e-01  1.36798233e-01  2.52138823e-01  4.36304063e-01]
 [ 5.14951706e-01 -1.65664703e-02 -5.70117533e-01  4.95282143e-01
   2.67450452e-01 -2.23593265e-01  5.45839429e-01  2.86327481e-01]
 [-2.78894722e-01 -1.51503712e-01  1.42784506e-01 -4.65772569e-01
   3.65324438e-01  1.84447423e-01 -1.68677792e-01  7.91561455e-02]] 
Episode: 26: [[-1.16646282e-01  1.87323112e-02 -5.47438323e-01  5.08868456e-01
   5.14863670e-01  3.42223585e-01 -9.78834555e-02  3.70157480e-01]
 [-3.12653929e-01  4.72689539e-01 -4.40445244e-01 -4.90313679e-01
  -1.04237415e-01  5.31747580e-01 -3.34786028e-01 -3.52918774e-01]
 [ 4.51759666e-01 -6.97876438e-02 -1.65779561e-01  5.19672297e-02
   3.80490690e-01 -3.35233718e-01  3.08754414e-01 -8.27857256e-02]
 [-3.33261281e-01  1.84507936e-01 -3.86420399e-01 -8.63218084e-02
   5.70241868e-01  2.27262810e-01 -2.91518778e-01  2.35132784e-01]
 [ 2.87955195e-01  4.97090667e-01 -5.20397484e-01 -4.91199315e-01
   2.57633507e-01  5.17744303e-01 -1.55443266e-01 -3.20865124e-01]
 [ 3.21751028e-01  1.61387637e-01 -3.37186903e-01  2.35832781e-01
   5.30677795e-01 -5.09454548e-01 -1.90406278e-01 -5.07137656e-01]
 [ 2.03607837e-03  2.25483163e-04 -3.25670320e-04  8.08215991e-04
   1.14543072e-03 -1.32729503e-04 -6.95539784e-05 -4.29121137e-04]
 [ 6.01029024e-04  6.58584875e-04 -6.93680253e-04 -3.57865531e-04
   1.17285736e-03  9.15387063e-04  4.96823995e-05 -4.57821116e-05]
 [ 1.76035066e-03  1.21675817e-04 -5.08782163e-04  7.06533319e-04
   1.37629372e-03  2.22690476e-04 -3.02415192e-05 -3.79420933e-04]
 [ 2.33935535e-01  2.36395717e-01  1.09426938e-01 -3.76629740e-01
   1.44251987e-01  1.36814773e-01  2.52128005e-01  4.36286062e-01]
 [ 5.14931321e-01 -1.65852029e-02 -5.70105851e-01  4.95290637e-01
   2.67478526e-01 -2.23592669e-01  5.45857668e-01  2.86336124e-01]
 [-2.78878242e-01 -1.51498079e-01  1.42776757e-01 -4.65772897e-01
   3.65302473e-01  1.84433728e-01 -1.68679908e-01  7.91700408e-02]] 
Episode: 27: [[-1.16644785e-01  1.87471081e-02 -5.47410846e-01  5.08871138e-01
   5.14871716e-01  3.42220008e-01 -9.78725404e-02  3.70156825e-01]
 [-3.12672228e-01  4.72668141e-01 -4.40442413e-01 -4.90314454e-01
  -1.04222797e-01  5.31743884e-01 -3.34779650e-01 -3.52919966e-01]
 [ 4.51760471e-01 -6.97965547e-02 -1.65800512e-01  5.19917868e-02
   3.80480409e-01 -3.35237026e-01  3.08730721e-01 -8.27818364e-02]
 [-3.33271146e-01  1.84496745e-01 -3.86428475e-01 -8.63522664e-02
   5.70263267e-01  2.27261737e-01 -2.91515380e-01  2.35136449e-01]
 [ 2.87942797e-01  4.97064918e-01 -5.20406783e-01 -4.91209447e-01
   2.57659316e-01  5.17741919e-01 -1.55437067e-01 -3.20863485e-01]
 [ 3.21760535e-01  1.61407664e-01 -3.37176174e-01  2.35863566e-01
   5.30655622e-01 -5.09458005e-01 -1.90410852e-01 -5.07137001e-01]
 [ 2.02544313e-03  2.23822863e-04 -3.37268488e-04  8.35642568e-04
   1.15955202e-03 -1.17352189e-04 -3.63130202e-05 -4.23901452e-04]
 [ 5.83774352e-04  6.78565935e-04 -7.14301597e-04 -3.63123312e-04
   1.18481950e-03  9.24939464e-04  6.11904761e-05 -2.82287237e-05]
 [ 1.74598419e-03  1.23559788e-04 -5.25016570e-04  7.31913140e-04
   1.39194599e-03  2.38663924e-04  2.65849280e-06 -3.70827242e-04]
 [ 2.33940408e-01  2.36395568e-01  1.09434821e-01 -3.76633704e-01
   1.44258171e-01  1.36824653e-01  2.52114147e-01  4.36268687e-01]
 [ 5.14911175e-01 -1.66035127e-02 -5.70095778e-01  4.95302558e-01
   2.67510206e-01 -2.23602787e-01  5.45873523e-01  2.86347330e-01]
 [-2.78869927e-01 -1.51500180e-01  1.42762661e-01 -4.65770960e-01
   3.65281194e-01  1.84431314e-01 -1.68678969e-01  7.91876018e-02]] 
Episode: 28: [[-1.1664211e-01  1.8760959e-02 -5.4738653e-01  5.0886679e-01
   5.1487422e-01  3.4221634e-01 -9.7857751e-02  3.7015590e-01]
 [-3.1268340e-01  4.7265080e-01 -4.4043618e-01 -4.9031690e-01
  -1.0420743e-01  5.3174478e-01 -3.3477286e-01 -3.5291764e-01]
 [ 4.5175830e-01 -6.9801673e-02 -1.6582145e-01  5.2027278e-02
   3.8047269e-01 -3.3523786e-01  3.0870453e-01 -8.2779244e-02]
 [-3.3328018e-01  1.8448852e-01 -3.8643476e-01 -8.6381771e-02
   5.7028002e-01  2.2725818e-01 -2.9151317e-01  2.3513778e-01]
 [ 2.8793114e-01  4.9704263e-01 -5.2041405e-01 -4.9121574e-01
   2.5768349e-01  5.1774168e-01 -1.5543470e-01 -3.2086352e-01]
 [ 3.2176688e-01  1.6142553e-01 -3.3716878e-01  2.3589157e-01
   5.3063768e-01 -5.0945932e-01 -1.9041073e-01 -5.0713569e-01]
 [ 2.0233849e-03  2.2217016e-04 -3.5328857e-04  8.5986563e-04
   1.1722156e-03 -9.8188299e-05 -1.4494073e-06 -4.1892950e-04]
 [ 5.7316275e-04  7.0129894e-04 -7.3386787e-04 -3.7537920e-04
   1.1948518e-03  9.3217508e-04  7.7555633e-05 -9.3442532e-06]
 [ 1.7415032e-03  1.2598551e-04 -5.4488925e-04  7.5293554e-04
   1.4058193e-03  2.5731075e-04  3.8290676e-05 -3.6212662e-04]
 [ 2.3394425e-01  2.3639607e-01  1.0944161e-01 -3.7663996e-01
   1.4426051e-01  1.3683145e-01  2.5210163e-01  4.3625101e-01]
 [ 5.1489484e-01 -1.6619001e-02 -5.7008553e-01  4.9531275e-01
   2.6753944e-01 -2.2360389e-01  5.4588956e-01  2.8635880e-01]
 [-2.7886736e-01 -1.5150650e-01  1.4274752e-01 -4.6576607e-01
   3.6526373e-01  1.8443134e-01 -1.6868030e-01  7.9204395e-02]] 
Episode: 29: [[-1.1664388e-01  1.8769603e-02 -5.4736340e-01  5.0885767e-01
   5.1490086e-01  3.4221634e-01 -9.7843364e-02  3.7013671e-01]
 [-3.1268203e-01  4.7264370e-01 -4.4043693e-01 -4.9029940e-01
  -1.0419261e-01  5.3175420e-01 -3.3475506e-01 -3.5292104e-01]
 [ 4.5176432e-01 -6.9804236e-02 -1.6583447e-01  5.2045301e-02
   3.8043919e-01 -3.3524901e-01  3.0867752e-01 -8.2765460e-02]
 [-3.3329079e-01  1.8448555e-01 -3.8643539e-01 -8.6413078e-02
   5.7030487e-01  2.2725661e-01 -2.9149544e-01  2.3514511e-01]
 [ 2.8792679e-01  4.9703461e-01 -5.2041411e-01 -4.9121195e-01
   2.5770503e-01  5.1774579e-01 -1.5542632e-01 -3.2084951e-01]
 [ 3.2176945e-01  1.6144207e-01 -3.3716503e-01  2.3591226e-01
   5.3061157e-01 -5.0946134e-01 -1.9041987e-01 -5.0714624e-01]
 [ 2.0066511e-03  2.2553455e-04 -3.6935165e-04  8.7808922e-04
   1.1954181e-03 -7.0473878e-05  2.3995590e-05 -4.1464137e-04]
 [ 5.5621413e-04  7.2917127e-04 -7.4695708e-04 -4.0240760e-04
   1.1971350e-03  9.5290516e-04  9.7308141e-05  7.1029140e-06]
 [ 1.7230264e-03  1.3423161e-04 -5.6314439e-04  7.6540146e-04
   1.4271041e-03  2.8593780e-04  6.5176624e-05 -3.5609506e-04]
 [ 2.3394382e-01  2.3638201e-01  1.0945170e-01 -3.7664291e-01
   1.4427711e-01  1.3682705e-01  2.5207615e-01  4.3622568e-01]
 [ 5.1488155e-01 -1.6609428e-02 -5.7008117e-01  4.9534076e-01
   2.6757458e-01 -2.2359115e-01  5.4592007e-01  2.8635970e-01]
 [-2.7886301e-01 -1.5151717e-01  1.4273134e-01 -4.6576583e-01
   3.6522642e-01  1.8442203e-01 -1.6867799e-01  7.9223342e-02]] 
Episode: 30: [[-1.16647139e-01  1.87841877e-02 -5.47338724e-01  5.08857787e-01
   5.14916122e-01  3.42213482e-01 -9.78225768e-02  3.70126456e-01]
 [-3.12673360e-01  4.72639978e-01 -4.40430164e-01 -4.90282625e-01
  -1.04186565e-01  5.31768858e-01 -3.34736824e-01 -3.52929473e-01]
 [ 4.51763749e-01 -6.98004663e-02 -1.65842921e-01  5.20509072e-02
   3.80420893e-01 -3.35252404e-01  3.08664590e-01 -8.27560648e-02]
 [-3.33292127e-01  1.84483260e-01 -3.86424452e-01 -8.64457116e-02
   5.70323527e-01  2.27267578e-01 -2.91494280e-01  2.35158101e-01]
 [ 2.87938267e-01  4.97024298e-01 -5.20415545e-01 -4.91222113e-01
   2.57726252e-01  5.17759383e-01 -1.55430272e-01 -3.20843667e-01]
 [ 3.21758986e-01  1.61460638e-01 -3.37167680e-01  2.35932425e-01
   5.30585766e-01 -5.09473026e-01 -1.90404817e-01 -5.07153869e-01]
 [ 1.99498446e-03  2.35917527e-04 -3.89402121e-04  8.91874428e-04
   1.22059055e-03 -4.29469765e-05  4.72808897e-05 -4.18910029e-04]
 [ 5.33411046e-04  7.65311939e-04 -7.48423336e-04 -4.25942126e-04
   1.19494216e-03  9.76194104e-04  1.23097459e-04  2.18381756e-05]
 [ 1.70782814e-03  1.50071617e-04 -5.82445587e-04  7.74243963e-04
   1.44919951e-03  3.15042940e-04  9.14882985e-05 -3.58769496e-04]
 [ 2.33943179e-01  2.36369491e-01  1.09461881e-01 -3.76639217e-01
   1.44284725e-01  1.36810556e-01  2.52056330e-01  4.36209112e-01]
 [ 5.14878213e-01 -1.65936649e-02 -5.70069432e-01  4.95360225e-01
   2.67603129e-01 -2.23564997e-01  5.45951247e-01  2.86355436e-01]
 [-2.78862745e-01 -1.51527107e-01  1.42712370e-01 -4.65775102e-01
   3.65201920e-01  1.84412241e-01 -1.68671906e-01  7.92392045e-02]] 
Episode: 31: [[-1.16656370e-01  1.87953748e-02 -5.47317803e-01  5.08863091e-01
   5.14923275e-01  3.42212379e-01 -9.78104547e-02  3.70116293e-01]
 [-3.12659681e-01  4.72625554e-01 -4.40426975e-01 -4.90265518e-01
  -1.04179725e-01  5.31786442e-01 -3.34715962e-01 -3.52946281e-01]
 [ 4.51771885e-01 -6.97880611e-02 -1.65849835e-01  5.20421565e-02
   3.80406469e-01 -3.35263401e-01  3.08669180e-01 -8.27446282e-02]
 [-3.33295852e-01  1.84481576e-01 -3.86406630e-01 -8.64605531e-02
   5.70349872e-01  2.27277413e-01 -2.91506559e-01  2.35163629e-01]
 [ 2.87959009e-01  4.97014523e-01 -5.20417392e-01 -4.91228193e-01
   2.57747531e-01  5.17769277e-01 -1.55427292e-01 -3.20843816e-01]
 [ 3.21751982e-01  1.61479846e-01 -3.37179273e-01  2.35934690e-01
   5.30550003e-01 -5.09484649e-01 -1.90378308e-01 -5.07153988e-01]
 [ 1.97474705e-03  2.43596791e-04 -4.13804082e-04  9.00946674e-04
   1.24145474e-03 -2.07566809e-05  6.96945499e-05 -4.32737259e-04]
 [ 5.10691723e-04  8.03033938e-04 -7.47495273e-04 -4.45055397e-04
   1.19340571e-03  1.00051856e-03  1.52571069e-04  3.67963439e-05]
 [ 1.68441259e-03  1.63773366e-04 -6.04998902e-04  7.79588183e-04
   1.46780955e-03  3.39555991e-04  1.18105127e-04 -3.70721653e-04]
 [ 2.33934328e-01  2.36349970e-01  1.09471865e-01 -3.76637369e-01
   1.44290730e-01  1.36803329e-01  2.52031505e-01  4.36197132e-01]
 [ 5.14887273e-01 -1.65789109e-02 -5.70062697e-01  4.95373517e-01
   2.67624885e-01 -2.23538965e-01  5.45987010e-01  2.86338300e-01]
 [-2.78855056e-01 -1.51521996e-01  1.42698541e-01 -4.65787977e-01
   3.65170121e-01  1.84387982e-01 -1.68657571e-01  7.92521387e-02]] 
Episode: 32: [[-1.16661474e-01  1.88070256e-02 -5.47299862e-01  5.08869052e-01
   5.14934778e-01  3.42218727e-01 -9.78127941e-02  3.70108694e-01]
 [-3.12648892e-01  4.72610205e-01 -4.40409094e-01 -4.90238518e-01
  -1.04175180e-01  5.31794012e-01 -3.34696978e-01 -3.52966428e-01]
 [ 4.51775819e-01 -6.97902814e-02 -1.65863663e-01  5.20400479e-02
   3.80397588e-01 -3.35282564e-01  3.08693320e-01 -8.27322751e-02]
 [-3.33298504e-01  1.84470505e-01 -3.86390120e-01 -8.64710286e-02
   5.70379972e-01  2.27294028e-01 -2.91528642e-01  2.35152930e-01]
 [ 2.87976503e-01  4.97003168e-01 -5.20414829e-01 -4.91233528e-01
   2.57768929e-01  5.17775357e-01 -1.55428961e-01 -3.20853829e-01]
 [ 3.21742892e-01  1.61501884e-01 -3.37193459e-01  2.35935748e-01
   5.30521631e-01 -5.09502232e-01 -1.90351620e-01 -5.07142484e-01]
 [ 1.96217792e-03  2.54698913e-04 -4.29544045e-04  9.15316807e-04
   1.25452899e-03  2.84160501e-06  9.00674277e-05 -4.47884435e-04]
 [ 4.80678777e-04  8.36305262e-04 -7.47147365e-04 -4.58852010e-04
   1.19220477e-03  1.01723452e-03  1.86790145e-04  5.63941976e-05]
 [ 1.66637858e-03  1.79520706e-04 -6.20391394e-04  7.90547754e-04
   1.47917925e-03  3.63524014e-04  1.44109144e-04 -3.83130013e-04]
 [ 2.33933866e-01  2.36331195e-01  1.09482393e-01 -3.76633465e-01
   1.44293547e-01  1.36805445e-01  2.51997977e-01  4.36185658e-01]
 [ 5.14888704e-01 -1.65729113e-02 -5.70046246e-01  4.95400190e-01
   2.67647624e-01 -2.23527983e-01  5.46024978e-01  2.86319375e-01]
 [-2.78853089e-01 -1.51521504e-01  1.42671794e-01 -4.65803713e-01
   3.65150839e-01  1.84364393e-01 -1.68642655e-01  7.92646185e-02]] 
Episode: 33: [[-1.16663672e-01  1.88220479e-02 -5.47291875e-01  5.08888245e-01
   5.14961302e-01  3.42235208e-01 -9.78353098e-02  3.70104134e-01]
 [-3.12649310e-01  4.72586066e-01 -4.40402687e-01 -4.90217119e-01
  -1.04166247e-01  5.31805634e-01 -3.34684461e-01 -3.52982879e-01]
 [ 4.51776177e-01 -6.98011220e-02 -1.65860921e-01  5.20250350e-02
   3.80368173e-01 -3.35303754e-01  3.08734834e-01 -8.27219635e-02]
 [-3.33302855e-01  1.84463277e-01 -3.86382163e-01 -8.64854455e-02
   5.70412993e-01  2.27319479e-01 -2.91548312e-01  2.35141858e-01]
 [ 2.87987649e-01  4.96998876e-01 -5.20416617e-01 -4.91246015e-01
   2.57793963e-01  5.17781854e-01 -1.55429512e-01 -3.20863962e-01]
 [ 3.21737528e-01  1.61510199e-01 -3.37202609e-01  2.35936582e-01
   5.30492783e-01 -5.09523630e-01 -1.90328315e-01 -5.07126808e-01]
 [ 1.94995641e-03  2.43214308e-04 -4.52083419e-04  9.23776359e-04
   1.27769553e-03  2.73367768e-05  1.06003426e-04 -4.73596127e-04]
 [ 4.52263717e-04  8.42066307e-04 -7.70036480e-04 -4.94454289e-04
   1.19300315e-03  1.04525033e-03  2.27666358e-04  7.71974155e-05]
 [ 1.64940255e-03  1.71098582e-04 -6.46927045e-04  7.90758641e-04
   1.50000723e-03  3.90843779e-04  1.67799793e-04 -4.05487459e-04]
 [ 2.33920857e-01  2.36323819e-01  1.09484546e-01 -3.76610041e-01
   1.44305453e-01  1.36805147e-01  2.51958579e-01  4.36175823e-01]
 [ 5.14883459e-01 -1.65710673e-02 -5.70039392e-01  4.95416611e-01
   2.67680317e-01 -2.23511741e-01  5.46041727e-01  2.86304563e-01]
 [-2.78838247e-01 -1.51514083e-01  1.42660066e-01 -4.65828508e-01
   3.65128249e-01  1.84336275e-01 -1.68621957e-01  7.92749524e-02]] 
Episode: 34: [[-1.1666831e-01  1.8812196e-02 -5.4728889e-01  5.0892591e-01
   5.1498467e-01  3.4226307e-01 -9.7875439e-02  3.7009346e-01]
 [-3.1266975e-01  4.7254977e-01 -4.4039163e-01 -4.9021217e-01
  -1.0416040e-01  5.3181088e-01 -3.3468720e-01 -3.5301736e-01]
 [ 4.5177767e-01 -6.9801643e-02 -1.6584316e-01  5.2007429e-02
   3.8035658e-01 -3.3533123e-01  3.0879083e-01 -8.2710944e-02]
 [-3.3329278e-01  1.8445215e-01 -3.8639399e-01 -8.6509436e-02
   5.7041931e-01  2.2735322e-01 -2.9157355e-01  2.3512681e-01]
 [ 2.8799331e-01  4.9699977e-01 -5.2042454e-01 -4.9127442e-01
   2.5781581e-01  5.1778483e-01 -1.5542792e-01 -3.2087818e-01]
 [ 3.2171801e-01  1.6152214e-01 -3.3718914e-01  2.3595873e-01
   5.3049278e-01 -5.0954890e-01 -1.9030099e-01 -5.0710338e-01]
 [ 1.9341318e-03  2.2787921e-04 -4.6452481e-04  9.1484009e-04
   1.2936520e-03  3.5291094e-05  1.1000911e-04 -5.0452206e-04]
 [ 4.2437183e-04  8.4515923e-04 -7.8375527e-04 -5.1988824e-04
   1.1988746e-03  1.0815635e-03  2.7538411e-04  7.1930161e-05]
 [ 1.6304241e-03  1.5889909e-04 -6.6194107e-04  7.7658636e-04
   1.5155528e-03  4.0592437e-04  1.8248965e-04 -4.3814522e-04]
 [ 2.3390342e-01  2.3630778e-01  1.0947385e-01 -3.7658626e-01
   1.4430174e-01  1.3681091e-01  2.5191364e-01  4.3616858e-01]
 [ 5.1485831e-01 -1.6586382e-02 -5.7002765e-01  4.9542171e-01
   2.6771051e-01 -2.2350313e-01  5.4603887e-01  2.8627795e-01]
 [-2.7882338e-01 -1.5150604e-01  1.4265704e-01 -4.6583924e-01
   3.6513296e-01  1.8431535e-01 -1.6858798e-01  7.9293706e-02]] 
Episode: 35: [[-1.16675660e-01  1.88063029e-02 -5.47282219e-01  5.08952320e-01
   5.15010655e-01  3.42296481e-01 -9.79015902e-02  3.70081037e-01]
 [-3.12680304e-01  4.72518921e-01 -4.40380752e-01 -4.90211159e-01
  -1.04146622e-01  5.31826198e-01 -3.34693462e-01 -3.53054225e-01]
 [ 4.51786488e-01 -6.98081106e-02 -1.65825203e-01  5.19971922e-02
   3.80339175e-01 -3.35362047e-01  3.08843225e-01 -8.26920569e-02]
 [-3.33285421e-01  1.84436724e-01 -3.86407912e-01 -8.65338147e-02
   5.70431054e-01  2.27389112e-01 -2.91603863e-01  2.35117212e-01]
 [ 2.88006514e-01  4.97002393e-01 -5.20443141e-01 -4.91301417e-01
   2.57847637e-01  5.17789543e-01 -1.55440390e-01 -3.20901394e-01]
 [ 3.21699858e-01  1.61537409e-01 -3.37172329e-01  2.35975638e-01
   5.30485809e-01 -5.09573638e-01 -1.90261394e-01 -5.07083297e-01]
 [ 1.92788709e-03  2.11697406e-04 -4.76233894e-04  9.07834794e-04
   1.31122011e-03  4.52597305e-05  1.07822256e-04 -5.36806707e-04]
 [ 4.07087762e-04  8.48282711e-04 -7.90515216e-04 -5.38511900e-04
   1.20472978e-03  1.11632375e-03  3.23135551e-04  7.01200988e-05]
 [ 1.62289059e-03  1.45932398e-04 -6.74596289e-04  7.65708392e-04
   1.53247535e-03  4.22161364e-04  1.91342449e-04 -4.71235602e-04]
 [ 2.33880252e-01  2.36291945e-01  1.09469377e-01 -3.76566499e-01
   1.44297361e-01  1.36815578e-01  2.51875788e-01  4.36159313e-01]
 [ 5.14845669e-01 -1.65964719e-02 -5.70020378e-01  4.95422542e-01
   2.67748713e-01 -2.23486379e-01  5.46039939e-01  2.86245376e-01]
 [-2.78803676e-01 -1.51493430e-01  1.42648220e-01 -4.65847939e-01
   3.65134954e-01  1.84286252e-01 -1.68557107e-01  7.93124512e-02]] 
Episode: 36: [[-1.16688713e-01  1.87933799e-02 -5.47278523e-01  5.08988261e-01
   5.15037835e-01  3.42320800e-01 -9.79189277e-02  3.70064825e-01]
 [-3.12698394e-01  4.72496897e-01 -4.40376550e-01 -4.90229636e-01
  -1.04133531e-01  5.31841934e-01 -3.34709048e-01 -3.53092849e-01]
 [ 4.51802820e-01 -6.97963908e-02 -1.65805548e-01  5.19785732e-02
   3.80319387e-01 -3.35371703e-01  3.08894873e-01 -8.26612189e-02]
 [-3.33288610e-01  1.84422538e-01 -3.86422962e-01 -8.65609869e-02
   5.70441067e-01  2.27411494e-01 -2.91641235e-01  2.35102087e-01]
 [ 2.88019717e-01  4.97010529e-01 -5.20463645e-01 -4.91337389e-01
   2.57877618e-01  5.17794967e-01 -1.55461580e-01 -3.20925295e-01]
 [ 3.21690589e-01  1.61555707e-01 -3.37149262e-01  2.35996336e-01
   5.30480623e-01 -5.09589434e-01 -1.90217063e-01 -5.07056653e-01]
 [ 1.93031668e-03  1.99534159e-04 -4.96223627e-04  8.99987703e-04
   1.33232423e-03  6.46846529e-05  1.07706794e-04 -5.57097665e-04]
 [ 3.88239161e-04  8.66076851e-04 -7.96013104e-04 -5.60744316e-04
   1.20927219e-03  1.15797727e-03  3.64704727e-04  8.41365691e-05]
 [ 1.62232341e-03  1.39313473e-04 -6.94025890e-04  7.53736880e-04
   1.55210239e-03  4.47848462e-04  1.99926173e-04 -4.89153259e-04]
 [ 2.33850524e-01  2.36262828e-01  1.09465465e-01 -3.76544118e-01
   1.44294217e-01  1.36812612e-01  2.51845539e-01  4.36138570e-01]
 [ 5.14830172e-01 -1.65951531e-02 -5.70016921e-01  4.95414585e-01
   2.67783850e-01 -2.23465428e-01  5.46039283e-01  2.86211073e-01]
 [-2.78775245e-01 -1.51472315e-01  1.42642200e-01 -4.65858907e-01
   3.65136147e-01  1.84270293e-01 -1.68517947e-01  7.93397576e-02]] 
Episode: 37: [[-1.16700754e-01  1.87856741e-02 -5.47284186e-01  5.09024739e-01
   5.15071750e-01  3.42349142e-01 -9.79310349e-02  3.70058119e-01]
 [-3.12704444e-01  4.72494721e-01 -4.40374792e-01 -4.90253091e-01
  -1.04117572e-01  5.31860054e-01 -3.34722698e-01 -3.53124738e-01]
 [ 4.51817632e-01 -6.97900057e-02 -1.65780067e-01  5.19625656e-02
   3.80295217e-01 -3.35386902e-01  3.08942050e-01 -8.26418325e-02]
 [-3.33296090e-01  1.84416920e-01 -3.86439890e-01 -8.65914449e-02
   5.70452094e-01  2.27430880e-01 -2.91675776e-01  2.35097170e-01]
 [ 2.88035154e-01  4.97025847e-01 -5.20482779e-01 -4.91371989e-01
   2.57904321e-01  5.17797709e-01 -1.55479580e-01 -3.20951045e-01]
 [ 3.21683764e-01  1.61567003e-01 -3.37123960e-01  2.36022606e-01
   5.30477524e-01 -5.09603262e-01 -1.90174282e-01 -5.07040679e-01]
 [ 1.94459083e-03  1.96816880e-04 -5.14129817e-04  8.92839336e-04
   1.35003624e-03  8.44103779e-05  1.12666654e-04 -5.69704105e-04]
 [ 3.73304472e-04  8.89013056e-04 -7.99363013e-04 -5.78481180e-04
   1.21421914e-03  1.19343109e-03  4.05832863e-04  9.83236241e-05]
 [ 1.63319695e-03  1.41392840e-04 -7.11299072e-04  7.43100129e-04
   1.56874582e-03  4.72731801e-04  2.12894403e-04 -4.99649439e-04]
 [ 2.33820990e-01  2.36241162e-01  1.09455809e-01 -3.76526862e-01
   1.44298479e-01  1.36817634e-01  2.51816928e-01  4.36127365e-01]
 [ 5.14825225e-01 -1.65806450e-02 -5.70020437e-01  4.95406777e-01
   2.67822862e-01 -2.23443866e-01  5.46042204e-01  2.86182642e-01]
 [-2.78752267e-01 -1.51464760e-01  1.42642647e-01 -4.65866476e-01
   3.65131408e-01  1.84246942e-01 -1.68478176e-01  7.93552399e-02]] 
Episode: 38: [[-1.16713852e-01  1.87765881e-02 -5.47289670e-01  5.09059966e-01
   5.15106082e-01  3.42370629e-01 -9.79444236e-02  3.70043933e-01]
 [-3.12711388e-01  4.72499967e-01 -4.40372705e-01 -4.90268767e-01
  -1.04104578e-01  5.31879604e-01 -3.34729731e-01 -3.53162050e-01]
 [ 4.51827496e-01 -6.97806627e-02 -1.65756181e-01  5.19463159e-02
   3.80269051e-01 -3.35401267e-01  3.08989912e-01 -8.26209560e-02]
 [-3.33297312e-01  1.84415936e-01 -3.86455774e-01 -8.66160393e-02
   5.70463657e-01  2.27446899e-01 -2.91711330e-01  2.35089928e-01]
 [ 2.88052738e-01  4.97044921e-01 -5.20500243e-01 -4.91405547e-01
   2.57924169e-01  5.17800689e-01 -1.55495137e-01 -3.20975423e-01]
 [ 3.21670473e-01  1.61572650e-01 -3.37100059e-01  2.36043677e-01
   5.30474901e-01 -5.09617388e-01 -1.90134376e-01 -5.07023454e-01]
 [ 1.95347611e-03  1.92949490e-04 -5.29491052e-04  8.87887436e-04
   1.36742927e-03  1.02224389e-04  1.17786185e-04 -5.82095410e-04]
 [ 3.52614472e-04  9.08350514e-04 -8.03867937e-04 -5.95449936e-04
   1.21699460e-03  1.22289557e-03  4.44468751e-04  1.08222550e-04]
 [ 1.63770129e-03  1.41786208e-04 -7.26525206e-04  7.34562578e-04
   1.58468576e-03  4.94649110e-04  2.25669006e-04 -5.10653015e-04]
 [ 2.33794674e-01  2.36220270e-01  1.09445132e-01 -3.76508474e-01
   1.44303545e-01  1.36826158e-01  2.51794219e-01  4.36111867e-01]
 [ 5.14816582e-01 -1.65596195e-02 -5.70023358e-01  4.95401621e-01
   2.67852873e-01 -2.23426372e-01  5.46049416e-01  2.86148041e-01]
 [-2.78732657e-01 -1.51457623e-01  1.42645299e-01 -4.65876251e-01
   3.65125686e-01  1.84220821e-01 -1.68445230e-01  7.93760866e-02]] 
Episode: 39: [[-1.1670637e-01  1.8785296e-02 -5.4729378e-01  5.0910735e-01
   5.1513362e-01  3.4239611e-01 -9.7951949e-02  3.7005082e-01]
 [-3.1272808e-01  4.7250602e-01 -4.4036746e-01 -4.9027577e-01
  -1.0409122e-01  5.3188354e-01 -3.3473334e-01 -3.5316876e-01]
 [ 4.5183048e-01 -6.9803320e-02 -1.6574927e-01  5.1895440e-02
   3.8024715e-01 -3.3542544e-01  3.0902699e-01 -8.2613446e-02]
 [-3.3329469e-01  1.8443805e-01 -3.8646439e-01 -8.6621173e-02
   5.7048905e-01  2.2747247e-01 -2.9171395e-01  2.3510295e-01]
 [ 2.8805703e-01  4.9705428e-01 -5.2051610e-01 -4.9142888e-01
   2.5793874e-01  5.1781070e-01 -1.5550397e-01 -3.2101309e-01]
 [ 3.2166708e-01  1.6155340e-01 -3.3708802e-01  2.3604015e-01
   5.3046054e-01 -5.0963742e-01 -1.9013128e-01 -5.0702012e-01]
 [ 1.9220549e-03  1.8188213e-04 -5.5006356e-04  8.5196237e-04
   1.3610539e-03  1.1174386e-04  1.3937571e-04 -6.0876703e-04]
 [ 3.6236501e-04  9.2835887e-04 -7.9422619e-04 -6.3889287e-04
   1.2093637e-03  1.2249689e-03  4.8521973e-04  1.4942355e-04]
 [ 1.6089220e-03  1.3572208e-04 -7.4255129e-04  6.9325569e-04
   1.5778005e-03  5.0314673e-04  2.5375816e-04 -5.2780565e-04]
 [ 2.3377135e-01  2.3622811e-01  1.0943569e-01 -3.7647128e-01
   1.4431469e-01  1.3684647e-01  2.5177190e-01  4.3610680e-01]
 [ 5.1480705e-01 -1.6543087e-02 -5.7002932e-01  4.9539205e-01
   2.6787159e-01 -2.2342609e-01  5.4604411e-01  2.8613529e-01]
 [-2.7870896e-01 -1.5147938e-01  1.4263467e-01 -4.6591386e-01
   3.6511025e-01  1.8420435e-01 -1.6843066e-01  7.9367734e-02]] 
Episode: 40: [[-1.16692238e-01  1.87772550e-02 -5.47292829e-01  5.09169459e-01
   5.15170157e-01  3.42439443e-01 -9.79542211e-02  3.70043993e-01]
 [-3.12732071e-01  4.72526431e-01 -4.40358102e-01 -4.90289181e-01
  -1.04076706e-01  5.31875730e-01 -3.34731162e-01 -3.53184581e-01]
 [ 4.51817065e-01 -6.98161870e-02 -1.65745482e-01  5.18373288e-02
   3.80221158e-01 -3.35458517e-01  3.09054673e-01 -8.26043487e-02]
 [-3.33268434e-01  1.84484169e-01 -3.86470318e-01 -8.66438821e-02
   5.70504427e-01  2.27484077e-01 -2.91711390e-01  2.35125601e-01]
 [ 2.88070917e-01  4.97087210e-01 -5.20530999e-01 -4.91468847e-01
   2.57928520e-01  5.17800987e-01 -1.55512825e-01 -3.21027517e-01]
 [ 3.21644992e-01  1.61508948e-01 -3.37080091e-01  2.36053556e-01
   5.30455232e-01 -5.09642601e-01 -1.90131277e-01 -5.07030129e-01]
 [ 1.89233036e-03  1.74175264e-04 -5.75436279e-04  8.13309220e-04
   1.35222753e-03  1.20573146e-04  1.57001879e-04 -6.35859906e-04]
 [ 3.72452341e-04  9.50118178e-04 -7.85715238e-04 -6.83487917e-04
   1.19773636e-03  1.22606836e-03  5.21911948e-04  1.85588768e-04]
 [ 1.58215954e-03  1.33177557e-04 -7.63058721e-04  6.49006106e-04
   1.56782288e-03  5.10636135e-04  2.77451501e-04 -5.46185707e-04]
 [ 2.33754262e-01  2.36216754e-01  1.09440282e-01 -3.76417339e-01
   1.44347399e-01  1.36885181e-01  2.51762629e-01  4.36090916e-01]
 [ 5.14812827e-01 -1.65100452e-02 -5.70034146e-01  4.95372742e-01
   2.67882854e-01 -2.23434851e-01  5.46032369e-01  2.86108524e-01]
 [-2.78698176e-01 -1.51497185e-01  1.42619908e-01 -4.65959698e-01
   3.65084499e-01  1.84183583e-01 -1.68425158e-01  7.93646649e-02]] 
Episode: 41: [[-1.16682686e-01  1.87677070e-02 -5.47289133e-01  5.09225070e-01
   5.15205443e-01  3.42478454e-01 -9.79608148e-02  3.70033205e-01]
 [-3.12741846e-01  4.72544521e-01 -4.40352589e-01 -4.90310222e-01
  -1.04060851e-01  5.31868100e-01 -3.34730119e-01 -3.53199869e-01]
 [ 4.51807380e-01 -6.98268637e-02 -1.65746197e-01  5.17837182e-02
   3.80195379e-01 -3.35488170e-01  3.09084564e-01 -8.25930610e-02]
 [-3.33246946e-01  1.84525430e-01 -3.86474580e-01 -8.66671354e-02
   5.70521772e-01  2.27495193e-01 -2.91711271e-01  2.35148937e-01]
 [ 2.88080692e-01  4.97115016e-01 -5.20543873e-01 -4.91506547e-01
   2.57921994e-01  5.17791390e-01 -1.55522034e-01 -3.21038455e-01]
 [ 3.21625978e-01  1.61468744e-01 -3.37074459e-01  2.36066461e-01
   5.30448020e-01 -5.09647131e-01 -1.90129250e-01 -5.07040381e-01]
 [ 1.86594564e-03  1.68004248e-04 -6.02874148e-04  7.78281945e-04
   1.34598487e-03  1.29983848e-04  1.74345536e-04 -6.63022511e-04]
 [ 3.80185113e-04  9.71673639e-04 -7.80004542e-04 -7.25794234e-04
   1.18998880e-03  1.22675125e-03  5.60109387e-04  2.19875234e-04]
 [ 1.55813235e-03  1.31815337e-04 -7.86062970e-04  6.08605100e-04
   1.56093040e-03  5.18416811e-04  3.00943095e-04 -5.64904243e-04]
 [ 2.33738124e-01  2.36206502e-01  1.09448567e-01 -3.76372039e-01
   1.44377843e-01  1.36922985e-01  2.51751155e-01  4.36076164e-01]
 [ 5.14811575e-01 -1.64840985e-02 -5.70040941e-01  4.95348722e-01
   2.67897069e-01 -2.23443121e-01  5.46021581e-01  2.86085159e-01]
 [-2.78686970e-01 -1.51516229e-01  1.42603427e-01 -4.65998203e-01
   3.65057766e-01  1.84161991e-01 -1.68416947e-01  7.93619379e-02]] 
Episode: 42: [[-1.16657175e-01  1.87557507e-02 -5.47256768e-01  5.09289324e-01
   5.15257001e-01  3.42546761e-01 -9.79771912e-02  3.70023370e-01]
 [-3.12745601e-01  4.72561836e-01 -4.40373182e-01 -4.90304500e-01
  -1.04054205e-01  5.31862915e-01 -3.34704936e-01 -3.53208929e-01]
 [ 4.51774567e-01 -6.98392242e-02 -1.65771261e-01  5.17066345e-02
   3.80154818e-01 -3.35550457e-01  3.09106857e-01 -8.25765207e-02]
 [-3.33212554e-01  1.84554711e-01 -3.86461556e-01 -8.66525844e-02
   5.70520878e-01  2.27500200e-01 -2.91695118e-01  2.35149562e-01]
 [ 2.88073152e-01  4.97142851e-01 -5.20578384e-01 -4.91539508e-01
   2.57903188e-01  5.17763019e-01 -1.55504197e-01 -3.21035028e-01]
 [ 3.21600258e-01  1.61444142e-01 -3.37079257e-01  2.36035436e-01
   5.30447662e-01 -5.09640574e-01 -1.90153450e-01 -5.07031620e-01]
 [ 1.83871924e-03  1.70959509e-04 -6.46519067e-04  7.41059135e-04
   1.35640369e-03  1.41923287e-04  1.84622812e-04 -6.58392149e-04]
 [ 3.65589513e-04  1.00142229e-03 -7.99424946e-04 -7.77657318e-04
   1.15006731e-03  1.22777908e-03  5.47355507e-04  2.42137976e-04]
 [ 1.52815843e-03  1.39677548e-04 -8.28684133e-04  5.64290152e-04
   1.56216382e-03  5.29571553e-04  3.05274705e-04 -5.56590734e-04]
 [ 2.33748898e-01  2.36184523e-01  1.09486192e-01 -3.76309186e-01
   1.44431189e-01  1.36979565e-01  2.51748413e-01  4.36057985e-01]
 [ 5.14813900e-01 -1.64501015e-02 -5.70060968e-01  4.95337188e-01
   2.67904550e-01 -2.23441914e-01  5.46023607e-01  2.86076993e-01]
 [-2.78705001e-01 -1.51520997e-01  1.42580658e-01 -4.66062099e-01
   3.65024954e-01  1.84121013e-01 -1.68412969e-01  7.93665200e-02]] 
Episode: 43: [[-1.16631635e-01  1.87453404e-02 -5.47233462e-01  5.09345353e-01
   5.15309811e-01  3.42611820e-01 -9.79862362e-02  3.70007604e-01]
 [-3.12754303e-01  4.72567797e-01 -4.40397948e-01 -4.90302384e-01
  -1.04051687e-01  5.31872451e-01 -3.34672749e-01 -3.53223979e-01]
 [ 4.51744527e-01 -6.98565841e-02 -1.65786386e-01  5.16404472e-02
   3.80121976e-01 -3.35610032e-01  3.09121609e-01 -8.25574398e-02]
 [-3.33185822e-01  1.84597045e-01 -3.86458129e-01 -8.66445079e-02
   5.70506930e-01  2.27513775e-01 -2.91679859e-01  2.35139817e-01]
 [ 2.88062245e-01  4.97170001e-01 -5.20615935e-01 -4.91574109e-01
   2.57871866e-01  5.17744422e-01 -1.55480191e-01 -3.21042389e-01]
 [ 3.21584880e-01  1.61409035e-01 -3.37073594e-01  2.36010641e-01
   5.30460179e-01 -5.09638131e-01 -1.90173775e-01 -5.07016063e-01]
 [ 1.81534339e-03  1.69141364e-04 -6.90342276e-04  7.06876279e-04
   1.37415552e-03  1.51296961e-04  1.77786234e-04 -6.56907097e-04]
 [ 3.49424896e-04  1.03225338e-03 -8.13917315e-04 -8.30946956e-04
   1.12148165e-03  1.23626203e-03  5.30693855e-04  2.55778636e-04]
 [ 1.50159060e-03  1.43978017e-04 -8.70171527e-04  5.22603688e-04
   1.57217251e-03  5.40295208e-04  2.93438556e-04 -5.53528196e-04]
 [ 2.33759180e-01  2.36163348e-01  1.09515958e-01 -3.76249045e-01
   1.44477725e-01  1.37029797e-01  2.51758218e-01  4.36041921e-01]
 [ 5.14810920e-01 -1.64292641e-02 -5.70087671e-01  4.95323777e-01
   2.67910600e-01 -2.23428562e-01  5.46033978e-01  2.86056608e-01]
 [-2.78719902e-01 -1.51524305e-01  1.42570093e-01 -4.66113299e-01
   3.64999354e-01  1.84073344e-01 -1.68416217e-01  7.93759450e-02]] 
Episode: 44: [[-1.16609290e-01  1.87337231e-02 -5.47214150e-01  5.09399891e-01
   5.15363157e-01  3.42670977e-01 -9.80003774e-02  3.69994432e-01]
 [-3.12761933e-01  4.72572356e-01 -4.40419167e-01 -4.90306586e-01
  -1.04048431e-01  5.31886041e-01 -3.34646374e-01 -3.53237182e-01]
 [ 4.51717824e-01 -6.98724836e-02 -1.65799722e-01  5.15809320e-02
   3.80083084e-01 -3.35666001e-01  3.09139371e-01 -8.25437754e-02]
 [-3.33160281e-01  1.84634641e-01 -3.86455655e-01 -8.66425484e-02
   5.70500672e-01  2.27525696e-01 -2.91669101e-01  2.35131770e-01]
 [ 2.88052291e-01  4.97195512e-01 -5.20648360e-01 -4.91609871e-01
   2.57844925e-01  5.17729461e-01 -1.55457646e-01 -3.21046919e-01]
 [ 3.21569353e-01  1.61378026e-01 -3.37069005e-01  2.35994145e-01
   5.30465126e-01 -5.09636223e-01 -1.90190107e-01 -5.07003367e-01]
 [ 1.79299421e-03  1.65821417e-04 -7.24721700e-04  6.77311036e-04
   1.38738472e-03  1.57357717e-04  1.66820377e-04 -6.55293057e-04]
 [ 3.36896483e-04  1.06016814e-03 -8.23685376e-04 -8.73473997e-04
   1.09665038e-03  1.24464580e-03  5.14732325e-04  2.66813935e-04]
 [ 1.47700927e-03  1.46267848e-04 -9.02273285e-04  4.86962497e-04
   1.57883752e-03  5.47876698e-04  2.78308697e-04 -5.51012869e-04]
 [ 2.33767450e-01  2.36142278e-01  1.09542705e-01 -3.76195461e-01
   1.44523889e-01  1.37077764e-01  2.51761079e-01  4.36029226e-01]
 [ 5.14809132e-01 -1.64096504e-02 -5.70111513e-01  4.95307744e-01
   2.67916441e-01 -2.23412067e-01  5.46038747e-01  2.86039710e-01]
 [-2.78734624e-01 -1.51524320e-01  1.42558873e-01 -4.66156334e-01
   3.64969999e-01  1.84025586e-01 -1.68411642e-01  7.93835446e-02]] 
Episode: 45: [[-1.16591565e-01  1.87159274e-02 -5.47197223e-01  5.09438396e-01
   5.15413880e-01  3.42721850e-01 -9.80117396e-02  3.69980335e-01]
 [-3.12767237e-01  4.72581655e-01 -4.40447628e-01 -4.90311176e-01
  -1.04055472e-01  5.31901896e-01 -3.34622025e-01 -3.53256285e-01]
 [ 4.51697409e-01 -6.98756799e-02 -1.65810421e-01  5.15365750e-02
   3.80046248e-01 -3.35713148e-01  3.09159577e-01 -8.25299770e-02]
 [-3.33137363e-01  1.84661970e-01 -3.86456192e-01 -8.66452903e-02
   5.70497692e-01  2.27532640e-01 -2.91667759e-01  2.35121518e-01]
 [ 2.88044870e-01  4.97222602e-01 -5.20684302e-01 -4.91640419e-01
   2.57818371e-01  5.17716825e-01 -1.55438974e-01 -3.21048796e-01]
 [ 3.21555197e-01  1.61354393e-01 -3.37062538e-01  2.35982314e-01
   5.30468285e-01 -5.09634137e-01 -1.90194383e-01 -5.06988466e-01]
 [ 1.77398324e-03  1.64351906e-04 -7.55800458e-04  6.54103584e-04
   1.39769621e-03  1.73006236e-04  1.59174175e-04 -6.53432100e-04]
 [ 3.25187459e-04  1.08792668e-03 -8.35228246e-04 -9.06989328e-04
   1.07181713e-03  1.25204516e-03  5.05066593e-04  2.73369282e-04]
 [ 1.45600643e-03  1.50110180e-04 -9.31855408e-04  4.58831404e-04
   1.58290577e-03  5.63397014e-04  2.68036616e-04 -5.49170480e-04]
 [ 2.33772919e-01  2.36114487e-01  1.09565496e-01 -3.76157314e-01
   1.44564778e-01  1.37118667e-01  2.51761317e-01  4.36014950e-01]
 [ 5.14807880e-01 -1.63846351e-02 -5.70143342e-01  4.95291829e-01
   2.67915994e-01 -2.23394409e-01  5.46044409e-01  2.86016613e-01]
 [-2.78746665e-01 -1.51517898e-01  1.42553985e-01 -4.66186970e-01
   3.64944309e-01  1.83979914e-01 -1.68406963e-01  7.93945119e-02]] 
Episode: 46: [[-1.16584115e-01  1.86825693e-02 -5.47173798e-01  5.09474337e-01
   5.15439034e-01  3.42790633e-01 -9.80334878e-02  3.69970858e-01]
 [-3.12796354e-01  4.72569555e-01 -4.40472722e-01 -4.90308136e-01
  -1.04034111e-01  5.31936169e-01 -3.34586024e-01 -3.53271157e-01]
 [ 4.51695591e-01 -6.98415115e-02 -1.65829808e-01  5.14742397e-02
   3.80034477e-01 -3.35778743e-01  3.09173256e-01 -8.25197026e-02]
 [-3.33106518e-01  1.84652865e-01 -3.86444479e-01 -8.66388232e-02
   5.70463777e-01  2.27545828e-01 -2.91660756e-01  2.35110044e-01]
 [ 2.88034767e-01  4.97250527e-01 -5.20700157e-01 -4.91659880e-01
   2.57814497e-01  5.17707288e-01 -1.55410603e-01 -3.21030080e-01]
 [ 3.21534485e-01  1.61360085e-01 -3.37059796e-01  2.35953048e-01
   5.30493617e-01 -5.09633005e-01 -1.90216988e-01 -5.06974518e-01]
 [ 1.72699289e-03  1.62811906e-04 -7.58991053e-04  6.56888762e-04
   1.44604896e-03  1.93865388e-04  1.41241006e-04 -6.61486119e-04]
 [ 2.93897116e-04  1.07878016e-03 -8.29764875e-04 -9.43623949e-04
   1.08238985e-03  1.29685644e-03  5.07340184e-04  2.65627372e-04]
 [ 1.40481442e-03  1.46508784e-04 -9.33952862e-04  4.55093628e-04
   1.62752380e-03  5.93769830e-04  2.53684528e-04 -5.60158165e-04]
 [ 2.33774200e-01  2.36085102e-01  1.09564498e-01 -3.76123309e-01
   1.44555211e-01  1.37150809e-01  2.51759291e-01  4.36014503e-01]
 [ 5.14789581e-01 -1.63663477e-02 -5.70158005e-01  4.95268017e-01
   2.67948329e-01 -2.23354667e-01  5.46052039e-01  2.86006898e-01]
 [-2.78747410e-01 -1.51494324e-01  1.42559826e-01 -4.66228426e-01
   3.64935666e-01  1.83932498e-01 -1.68412983e-01  7.93937743e-02]] 
Episode: 47: [[-1.1657711e-01  1.8645814e-02 -5.4715103e-01  5.0950748e-01
   5.1545668e-01  3.4284955e-01 -9.8059878e-02  3.6996472e-01]
 [-3.1282440e-01  4.7255412e-01 -4.4049624e-01 -4.9030152e-01
  -1.0401986e-01  5.3196496e-01 -3.3455831e-01 -3.5328329e-01]
 [ 4.5169517e-01 -6.9804996e-02 -1.6584586e-01  5.1412944e-02
   3.8002819e-01 -3.3583820e-01  3.0919084e-01 -8.2506970e-02]
 [-3.3308247e-01  1.8464211e-01 -3.8643691e-01 -8.6629391e-02
   5.7043082e-01  2.2755978e-01 -2.9165956e-01  2.3510253e-01]
 [ 2.8802568e-01  4.9727389e-01 -5.2071863e-01 -4.9167863e-01
   2.5781003e-01  5.1769990e-01 -1.5538768e-01 -3.2101130e-01]
 [ 3.2152149e-01  1.6136698e-01 -3.3705541e-01  2.3592144e-01
   5.3051770e-01 -5.0963503e-01 -1.9023558e-01 -5.0696176e-01]
 [ 1.6817256e-03  1.6191269e-04 -7.6739298e-04  6.5785815e-04
   1.4896062e-03  2.1441963e-04  1.2774843e-04 -6.6877925e-04]
 [ 2.6361572e-04  1.0743872e-03 -8.2564465e-04 -9.7901747e-04
   1.0918240e-03  1.3370060e-03  5.0796807e-04  2.6271524e-04]
 [ 1.3552405e-03  1.4423562e-04 -9.4081787e-04  4.4996245e-04
   1.6677362e-03  6.2280142e-04  2.4293551e-04 -5.6878239e-04]
 [ 2.3377453e-01  2.3605189e-01  1.0956327e-01 -3.7609103e-01
   1.4454633e-01  1.3717985e-01  2.5175035e-01  4.3601328e-01]
 [ 5.1477510e-01 -1.6354999e-02 -5.7017332e-01  4.9524492e-01
   2.6796943e-01 -2.2332142e-01  5.4605120e-01  2.8600022e-01]
 [-2.7874437e-01 -1.5146640e-01  1.4256695e-01 -4.6627098e-01
   3.6492938e-01  1.8388541e-01 -1.6841020e-01  7.9396538e-02]] 
Episode: 48: [[-1.1657451e-01  1.8594261e-02 -5.4712355e-01  5.0954711e-01
   5.1546955e-01  3.4290743e-01 -9.8068953e-02  3.6995080e-01]
 [-3.1286418e-01  4.7251818e-01 -4.4053754e-01 -4.9028742e-01
  -1.0401622e-01  5.3198665e-01 -3.3453655e-01 -3.5329783e-01]
 [ 4.5171008e-01 -6.9753319e-02 -1.6585211e-01  5.1351197e-02
   3.8003030e-01 -3.3589339e-01  3.0919313e-01 -8.2496345e-02]
 [-3.3307469e-01  1.8464126e-01 -3.8642651e-01 -8.6612895e-02
   5.7038343e-01  2.2756892e-01 -2.9166478e-01  2.3510832e-01]
 [ 2.8800616e-01  4.9730113e-01 -5.2074564e-01 -4.9168864e-01
   2.5779462e-01  5.1769376e-01 -1.5537260e-01 -3.2098702e-01]
 [ 3.2152793e-01  1.6136555e-01 -3.3705136e-01  2.3589195e-01
   5.3055871e-01 -5.0962913e-01 -1.9024394e-01 -5.0696003e-01]
 [ 1.6269287e-03  1.5745766e-04 -7.9183473e-04  6.5923779e-04
   1.5298248e-03  2.2851554e-04  9.8735713e-05 -6.8174896e-04]
 [ 2.3059627e-04  1.0772345e-03 -8.2941540e-04 -1.0205784e-03
   1.1080829e-03  1.3831789e-03  5.1170809e-04  2.6150289e-04]
 [ 1.2962880e-03  1.4046745e-04 -9.6268445e-04  4.4449460e-04
   1.7061573e-03  6.4704992e-04  2.1819497e-04 -5.8202894e-04]
 [ 2.3376945e-01  2.3600194e-01  1.0957535e-01 -3.7605375e-01
   1.4453423e-01  1.3720369e-01  2.5174791e-01  4.3599704e-01]
 [ 5.1475173e-01 -1.6359260e-02 -5.7020497e-01  4.9523723e-01
   2.6797777e-01 -2.2328860e-01  5.4606068e-01  2.8599003e-01]
 [-2.7872840e-01 -1.5141171e-01  1.4257672e-01 -4.6631834e-01
   3.6492887e-01  1.8384130e-01 -1.6840525e-01  7.9409741e-02]] 
Episode: 49: [[-1.16573416e-01  1.85421836e-02 -5.47107100e-01  5.09571552e-01
   5.15486598e-01  3.42963099e-01 -9.80727524e-02  3.69935274e-01]
 [-3.12913060e-01  4.72487867e-01 -4.40579176e-01 -4.90271449e-01
  -1.04019545e-01  5.32006264e-01 -3.34533662e-01 -3.53316277e-01]
 [ 4.51728195e-01 -6.97059184e-02 -1.65844649e-01  5.13051338e-02
   3.80027354e-01 -3.35947752e-01  3.09195191e-01 -8.24834853e-02]
 [-3.33068460e-01  1.84640795e-01 -3.86421442e-01 -8.66038948e-02
   5.70341468e-01  2.27576673e-01 -2.91672289e-01  2.35105410e-01]
 [ 2.87990212e-01  4.97326016e-01 -5.20771265e-01 -4.91695076e-01
   2.57777840e-01  5.17685115e-01 -1.55371666e-01 -3.20967853e-01]
 [ 3.21535498e-01  1.61362231e-01 -3.37041885e-01  2.35868752e-01
   5.30596614e-01 -5.09622157e-01 -1.90247983e-01 -5.06952941e-01]
 [ 1.57651759e-03  1.57392948e-04 -8.07793811e-04  6.63743354e-04
   1.56442705e-03  2.44280935e-04  6.95569906e-05 -6.88562286e-04]
 [ 1.99829534e-04  1.07582868e-03 -8.31114303e-04 -1.05170149e-03
   1.12333533e-03  1.42390130e-03  5.11905004e-04  2.62662041e-04]
 [ 1.24197255e-03  1.39815616e-04 -9.76754236e-04  4.43619851e-04
   1.73945911e-03  6.71254063e-04  1.92020045e-04 -5.88687370e-04]
 [ 2.33761817e-01  2.35954016e-01  1.09574087e-01 -3.76034051e-01
   1.44524544e-01  1.37230888e-01  2.51750052e-01  4.35976207e-01]
 [ 5.14724910e-01 -1.63656287e-02 -5.70233822e-01  4.95235771e-01
   2.67979801e-01 -2.23264009e-01  5.46057403e-01  2.85977483e-01]
 [-2.78707743e-01 -1.51361302e-01  1.42601043e-01 -4.66350377e-01
   3.64932179e-01  1.83796659e-01 -1.68398291e-01  7.94295669e-02]] 
Episode: 50: [[-1.16579615e-01  1.84950288e-02 -5.47100544e-01  5.09588897e-01
   5.15511632e-01  3.43018502e-01 -9.80912298e-02  3.69932592e-01]
 [-3.12953383e-01  4.72468674e-01 -4.40642804e-01 -4.90278810e-01
  -1.04015082e-01  5.32035589e-01 -3.34534943e-01 -3.53318393e-01]
 [ 4.51750875e-01 -6.96488842e-02 -1.65834174e-01  5.12915850e-02
   3.80001366e-01 -3.36008519e-01  3.09230477e-01 -8.24783444e-02]
 [-3.33069563e-01  1.84637979e-01 -3.86417389e-01 -8.66078883e-02
   5.70314527e-01  2.27596685e-01 -2.91713029e-01  2.35113427e-01]
 [ 2.87972450e-01  4.97359931e-01 -5.20813465e-01 -4.91716623e-01
   2.57757753e-01  5.17682552e-01 -1.55386403e-01 -3.20934206e-01]
 [ 3.21541041e-01  1.61369666e-01 -3.37032199e-01  2.35851631e-01
   5.30622244e-01 -5.09632051e-01 -1.90220788e-01 -5.06939411e-01]
 [ 1.54195970e-03  1.62211261e-04 -8.33670085e-04  6.68443157e-04
   1.59654452e-03  2.55135441e-04  7.15281494e-05 -7.02317455e-04]
 [ 1.61351942e-04  1.07857224e-03 -8.46319715e-04 -1.07822311e-03
   1.13547419e-03  1.46378949e-03  5.04103140e-04  2.84130481e-04]
 [ 1.20067527e-03  1.43338286e-04 -1.00291846e-03  4.44391218e-04
   1.76965341e-03  6.90465095e-04  1.91371408e-04 -5.96466183e-04]
 [ 2.33760729e-01  2.35926539e-01  1.09567106e-01 -3.76015514e-01
   1.44532681e-01  1.37270182e-01  2.51738280e-01  4.35939252e-01]
 [ 5.14693439e-01 -1.63531620e-02 -5.70283055e-01  4.95210230e-01
   2.67968476e-01 -2.23236397e-01  5.46044052e-01  2.85989225e-01]
 [-2.78697789e-01 -1.51302576e-01  1.42627269e-01 -4.66362268e-01
   3.64915073e-01  1.83735624e-01 -1.68379173e-01  7.94622973e-02]] 
Episode: 51: [[-1.16575032e-01  1.84472054e-02 -5.47099650e-01  5.09598315e-01
   5.15532196e-01  3.43083769e-01 -9.81015861e-02  3.69938433e-01]
 [-3.12990576e-01  4.72455591e-01 -4.40699428e-01 -4.90273952e-01
  -1.04015045e-01  5.32064080e-01 -3.34535420e-01 -3.53317797e-01]
 [ 4.51768905e-01 -6.95948303e-02 -1.65819317e-01  5.12897484e-02
   3.79977733e-01 -3.36076915e-01  3.09255660e-01 -8.24729800e-02]
 [-3.33078653e-01  1.84630468e-01 -3.86417270e-01 -8.66109207e-02
   5.70290565e-01  2.27615282e-01 -2.91739345e-01  2.35116407e-01]
 [ 2.87944734e-01  4.97394502e-01 -5.20854652e-01 -4.91730034e-01
   2.57737011e-01  5.17672837e-01 -1.55408591e-01 -3.20908755e-01]
 [ 3.21555614e-01  1.61379620e-01 -3.37020248e-01  2.35837132e-01
   5.30647635e-01 -5.09639263e-01 -1.90205812e-01 -5.06922126e-01]
 [ 1.50807679e-03  1.73400636e-04 -8.50531098e-04  6.78311684e-04
   1.62533915e-03  2.67720287e-04  6.00795283e-05 -7.21070915e-04]
 [ 1.23072692e-04  1.08313805e-03 -8.58574931e-04 -1.09100668e-03
   1.14866672e-03  1.50799134e-03  4.96388122e-04  2.98255298e-04]
 [ 1.15998404e-03  1.52913199e-04 -1.02060765e-03  4.52043343e-04
   1.79722754e-03  7.12743320e-04  1.78497416e-04 -6.10972347e-04]
 [ 2.33766034e-01  2.35894531e-01  1.09557033e-01 -3.76005739e-01
   1.44538864e-01  1.37314647e-01  2.51744539e-01  4.35914069e-01]
 [ 5.14665782e-01 -1.63413268e-02 -5.70331573e-01  4.95205104e-01
   2.67954588e-01 -2.23211527e-01  5.46016693e-01  2.86001444e-01]
 [-2.78690428e-01 -1.51246190e-01  1.42653719e-01 -4.66370493e-01
   3.64902020e-01  1.83673769e-01 -1.68376848e-01  7.94896632e-02]] 
Episode: 52: [[-1.16569296e-01  1.84033643e-02 -5.47099233e-01  5.09606957e-01
   5.15546918e-01  3.43144625e-01 -9.81050879e-02  3.69946778e-01]
 [-3.13021481e-01  4.72442061e-01 -4.40750569e-01 -4.90263939e-01
  -1.04016028e-01  5.32090604e-01 -3.34539473e-01 -3.53322566e-01]
 [ 4.51784879e-01 -6.95449635e-02 -1.65804610e-01  5.12892082e-02
   3.79962564e-01 -3.36135715e-01  3.09275508e-01 -8.24720562e-02]
 [-3.33084553e-01  1.84623674e-01 -3.86416584e-01 -8.66089910e-02
   5.70269287e-01  2.27634743e-01 -2.91763186e-01  2.35119879e-01]
 [ 2.87923634e-01  4.97425437e-01 -5.20891845e-01 -4.91742373e-01
   2.57720351e-01  5.17662764e-01 -1.55433640e-01 -3.20889622e-01]
 [ 3.21566790e-01  1.61390111e-01 -3.37009549e-01  2.35821456e-01
   5.30670524e-01 -5.09645581e-01 -1.90189242e-01 -5.06907403e-01]
 [ 1.47513626e-03  1.81793672e-04 -8.65688955e-04  6.87183172e-04
   1.65198429e-03  2.79971719e-04  4.86208883e-05 -7.40915013e-04]
 [ 8.54407335e-05  1.08573202e-03 -8.70094518e-04 -1.10184774e-03
   1.16224249e-03  1.55172322e-03  4.89594298e-04  3.12111544e-04]
 [ 1.12020038e-03  1.59805757e-04 -1.03661045e-03  4.58979397e-04
   1.82298850e-03  7.34663161e-04  1.65776844e-04 -6.26741443e-04]
 [ 2.33774260e-01  2.35865593e-01  1.09548412e-01 -3.75992954e-01
   1.44540980e-01  1.37354136e-01  2.51752079e-01  4.35895711e-01]
 [ 5.14644444e-01 -1.63318422e-02 -5.70375204e-01  4.95202601e-01
   2.67941684e-01 -2.23187432e-01  5.45989633e-01  2.86006451e-01]
 [-2.78686643e-01 -1.51193634e-01  1.42677680e-01 -4.66381162e-01
   3.64893615e-01  1.83618367e-01 -1.68372974e-01  7.95120150e-02]] 
Episode: 53: [[-1.16568848e-01  1.83646735e-02 -5.47100961e-01  5.09621501e-01
   5.15553296e-01  3.43185633e-01 -9.81167182e-02  3.69946390e-01]
 [-3.13053846e-01  4.72428352e-01 -4.40809727e-01 -4.90272671e-01
  -1.04023710e-01  5.32107294e-01 -3.34546924e-01 -3.53324801e-01]
 [ 4.51802075e-01 -6.94981143e-02 -1.65780991e-01  5.12831174e-02
   3.79948407e-01 -3.36183071e-01  3.09301972e-01 -8.24641213e-02]
 [-3.33094567e-01  1.84617430e-01 -3.86426657e-01 -8.66010636e-02
   5.70251763e-01  2.27652103e-01 -2.91789055e-01  2.35126883e-01]
 [ 2.87898839e-01  4.97453481e-01 -5.20929873e-01 -4.91759211e-01
   2.57704258e-01  5.17655730e-01 -1.55457184e-01 -3.20858181e-01]
 [ 3.21581662e-01  1.61400735e-01 -3.36984128e-01  2.35801697e-01
   5.30687988e-01 -5.09655833e-01 -1.90174356e-01 -5.06899238e-01]
 [ 1.44116767e-03  1.82637174e-04 -8.89759511e-04  6.86616404e-04
   1.67413941e-03  2.87073577e-04  4.36150040e-05 -7.51317362e-04]
 [ 4.93359003e-05  1.08843856e-03 -8.79348139e-04 -1.12370600e-03
   1.17435167e-03  1.58367795e-03  4.79965442e-04  3.33789998e-04]
 [ 1.07968214e-03  1.60153679e-04 -1.05968851e-03  4.55518661e-04
   1.84476690e-03  7.49256229e-04  1.57892602e-04 -6.31307426e-04]
 [ 2.33778596e-01  2.35839278e-01  1.09537065e-01 -3.75976980e-01
   1.44538060e-01  1.37381330e-01  2.51756907e-01  4.35867578e-01]
 [ 5.14617622e-01 -1.63236968e-02 -5.70423484e-01  4.95185167e-01
   2.67917454e-01 -2.23177150e-01  5.45960844e-01  2.86018193e-01]
 [-2.78678030e-01 -1.51143923e-01  1.42712906e-01 -4.66390699e-01
   3.64889681e-01  1.83572754e-01 -1.68368563e-01  7.95353726e-02]] 
Episode: 54: [[-1.16565906e-01  1.83194503e-02 -5.47093809e-01  5.09630501e-01
   5.15575647e-01  3.43209863e-01 -9.81327146e-02  3.69957358e-01]
 [-3.13072443e-01  4.72422510e-01 -4.40862387e-01 -4.90284175e-01
  -1.04006745e-01  5.32112002e-01 -3.34554315e-01 -3.53309840e-01]
 [ 4.51809168e-01 -6.94462806e-02 -1.65767431e-01  5.12689985e-02
   3.79908919e-01 -3.36224824e-01  3.09328079e-01 -8.24686959e-02]
 [-3.33104849e-01  1.84615821e-01 -3.86425197e-01 -8.65951329e-02
   5.70247471e-01  2.27678627e-01 -2.91807890e-01  2.35146463e-01]
 [ 2.87882715e-01  4.97496247e-01 -5.20969331e-01 -4.91780788e-01
   2.57694274e-01  5.17653883e-01 -1.55484021e-01 -3.20823014e-01]
 [ 3.21592659e-01  1.61398038e-01 -3.36971819e-01  2.35783532e-01
   5.30692756e-01 -5.09679735e-01 -1.90171853e-01 -5.06908715e-01]
 [ 1.41903025e-03  1.95969769e-04 -9.09829861e-04  6.92934089e-04
   1.70156010e-03  2.92655692e-04  3.30200310e-05 -7.76805740e-04]
 [ 1.96871060e-05  1.08343526e-03 -8.81496468e-04 -1.15524873e-03
   1.18828914e-03  1.59580214e-03  4.53575980e-04  3.33155913e-04]
 [ 1.05248648e-03  1.69932639e-04 -1.07689959e-03  4.56965819e-04
   1.87179702e-03  7.58030510e-04  1.39783704e-04 -6.55513722e-04]
 [ 2.33792633e-01  2.35814795e-01  1.09534241e-01 -3.75961274e-01
   1.44551292e-01  1.37401789e-01  2.51763940e-01  4.35865045e-01]
 [ 5.14601350e-01 -1.63090713e-02 -5.70470214e-01  4.95153457e-01
   2.67898500e-01 -2.23180756e-01  5.45925200e-01  2.86043316e-01]
 [-2.78678536e-01 -1.51103094e-01  1.42725751e-01 -4.66411829e-01
   3.64864051e-01  1.83532149e-01 -1.68377027e-01  7.95335174e-02]] 
Episode: 55: [[-1.1656370e-01  1.8281359e-02 -5.4708689e-01  5.0963867e-01
   5.1559269e-01  3.4323165e-01 -9.8147467e-02  3.6996591e-01]
 [-3.1308916e-01  4.7241986e-01 -4.4090798e-01 -4.9029425e-01
  -1.0398834e-01  5.3211766e-01 -3.3457184e-01 -3.5329533e-01]
 [ 4.5181891e-01 -6.9405608e-02 -1.6575907e-01  5.1257703e-02
   3.7987339e-01 -3.3626273e-01  3.0935183e-01 -8.2470469e-02]
 [-3.3311245e-01  1.8462072e-01 -3.8642401e-01 -8.6596385e-02
   5.7024437e-01  2.2770399e-01 -2.9182571e-01  2.3516254e-01]
 [ 2.8787014e-01  4.9753860e-01 -5.2100521e-01 -4.9180534e-01
   2.5768894e-01  5.1765341e-01 -1.5551595e-01 -3.2079074e-01]
 [ 3.2160214e-01  1.6138840e-01 -3.3696282e-01  2.3577248e-01
   5.3069568e-01 -5.0970227e-01 -1.9016822e-01 -5.0691605e-01]
 [ 1.3998800e-03  2.0619290e-04 -9.2848978e-04  6.9743482e-04
   1.7247675e-03  2.9666538e-04  2.1837683e-05 -8.0105814e-04]
 [-6.8472318e-06  1.0786046e-03 -8.8379876e-04 -1.1825222e-03
   1.2006687e-03  1.6050563e-03  4.2791181e-04  3.3270696e-04]
 [ 1.0287573e-03  1.7718016e-04 -1.0931107e-03  4.5733800e-04
   1.8948278e-03  7.6462969e-04  1.2142371e-04 -6.7851058e-04]
 [ 2.3380083e-01  2.3579775e-01  1.0953455e-01 -3.7594506e-01
   1.4456056e-01  1.3742319e-01  2.5177169e-01  4.3586314e-01]
 [ 5.1458776e-01 -1.6296007e-02 -5.7051235e-01  4.9512365e-01
   2.6788405e-01 -2.2318436e-01  5.4588062e-01  2.8606513e-01]
 [-2.7867660e-01 -1.5107073e-01  1.4273261e-01 -4.6643227e-01
   3.6484212e-01  1.8349411e-01 -1.6837884e-01  7.9532489e-02]] 
Episode: 56: [[-1.1656498e-01  1.8242382e-02 -5.4708624e-01  5.0964081e-01
   5.1561320e-01  3.4324899e-01 -9.8162115e-02  3.6997187e-01]
 [-3.1311023e-01  4.7242010e-01 -4.4094741e-01 -4.9030492e-01
  -1.0397150e-01  5.3212464e-01 -3.3459446e-01 -3.5327834e-01]
 [ 4.5183182e-01 -6.9368050e-02 -1.6574448e-01  5.1250000e-02
   3.7983617e-01 -3.3629093e-01  3.0937696e-01 -8.2475804e-02]
 [-3.3312044e-01  1.8462269e-01 -3.8642749e-01 -8.6602993e-02
   5.7024020e-01  2.2772326e-01 -2.9184893e-01  2.3517875e-01]
 [ 2.8785276e-01  4.9757594e-01 -5.2103841e-01 -4.9183163e-01
   2.5768399e-01  5.1765776e-01 -1.5555160e-01 -3.2076132e-01]
 [ 3.2161215e-01  1.6138117e-01 -3.3694983e-01  2.3576826e-01
   5.3070086e-01 -5.0972098e-01 -1.9016029e-01 -5.0692511e-01]
 [ 1.3924022e-03  2.1888471e-04 -9.4054604e-04  7.0199952e-04
   1.7470809e-03  3.0504682e-04  2.3575016e-05 -8.1753515e-04]
 [-2.5085083e-05  1.0774125e-03 -8.8053744e-04 -1.1973548e-03
   1.2106156e-03  1.6116982e-03  4.0663552e-04  3.3251467e-04]
 [ 1.0183860e-03  1.8754711e-04 -1.1025395e-03  4.5978525e-04
   1.9164793e-03  7.7388145e-04  1.1637374e-04 -6.9416396e-04]
 [ 2.3380116e-01  2.3577748e-01  1.0953144e-01 -3.7593666e-01
   1.4456990e-01  1.3743508e-01  2.5177115e-01  4.3585834e-01]
 [ 5.1456797e-01 -1.6286926e-02 -5.7055020e-01  4.9509540e-01
   2.6787493e-01 -2.2318177e-01  5.4583251e-01  2.8608564e-01]
 [-2.7867028e-01 -1.5104331e-01  1.4274015e-01 -4.6644479e-01
   3.6482075e-01  1.8346950e-01 -1.6837326e-01  7.9530321e-02]] 
Episode: 57: [[-1.16570272e-01  1.82063002e-02 -5.47084332e-01  5.09643376e-01
   5.15633583e-01  3.43268543e-01 -9.81795117e-02  3.69973838e-01]
 [-3.13126117e-01  4.72417861e-01 -4.40976918e-01 -4.90309596e-01
  -1.03946880e-01  5.32129049e-01 -3.34607869e-01 -3.53262573e-01]
 [ 4.51845616e-01 -6.93344250e-02 -1.65733978e-01  5.12419119e-02
   3.79801571e-01 -3.36315334e-01  3.09397638e-01 -8.24750066e-02]
 [-3.33128989e-01  1.84623763e-01 -3.86417270e-01 -8.66075084e-02
   5.70234895e-01  2.27734223e-01 -2.91857690e-01  2.35187069e-01]
 [ 2.87841499e-01  4.97607023e-01 -5.21058619e-01 -4.91855919e-01
   2.57685274e-01  5.17656028e-01 -1.55573308e-01 -3.20737332e-01]
 [ 3.21616530e-01  1.61373541e-01 -3.36949021e-01  2.35763684e-01
   5.30704021e-01 -5.09730101e-01 -1.90164044e-01 -5.06928086e-01]
 [ 1.38322613e-03  2.29532205e-04 -9.52352595e-04  7.01244397e-04
   1.76655431e-03  3.19870684e-04  1.87398655e-05 -8.32170830e-04]
 [-4.23416495e-05  1.07320189e-03 -8.75347585e-04 -1.21195370e-03
   1.21289911e-03  1.62461190e-03  3.89330060e-04  3.33034870e-04]
 [ 1.00673852e-03  1.95516608e-04 -1.11124967e-03  4.57439339e-04
   1.93407584e-03  7.90171442e-04  1.06680396e-04 -7.07807892e-04]
 [ 2.33800799e-01  2.35761181e-01  1.09525554e-01 -3.75927180e-01
   1.44581750e-01  1.37443498e-01  2.51765579e-01  4.35853779e-01]
 [ 5.14552116e-01 -1.62823331e-02 -5.70578039e-01  4.95071530e-01
   2.67878950e-01 -2.23176226e-01  5.45791149e-01  2.86099344e-01]
 [-2.78663933e-01 -1.51017308e-01  1.42746344e-01 -4.66457069e-01
   3.64796758e-01  1.83449969e-01 -1.68368369e-01  7.95331299e-02]] 
Episode: 58: [[-1.16587326e-01  1.81673337e-02 -5.47078252e-01  5.09645462e-01
   5.15659690e-01  3.43285739e-01 -9.81972292e-02  3.69968742e-01]
 [-3.13128084e-01  4.72407371e-01 -4.41013247e-01 -4.90323722e-01
  -1.03928752e-01  5.32128572e-01 -3.34594876e-01 -3.53243738e-01]
 [ 4.51868057e-01 -6.92951381e-02 -1.65726006e-01  5.12328073e-02
   3.79759312e-01 -3.36339295e-01  3.09415460e-01 -8.24673250e-02]
 [-3.33108842e-01  1.84632048e-01 -3.86398345e-01 -8.65985453e-02
   5.70235193e-01  2.27741599e-01 -2.91858137e-01  2.35191062e-01]
 [ 2.87862152e-01  4.97642756e-01 -5.21078229e-01 -4.91873026e-01
   2.57687390e-01  5.17652452e-01 -1.55577019e-01 -3.20703685e-01]
 [ 3.21592271e-01  1.61358729e-01 -3.36955369e-01  2.35751957e-01
   5.30700862e-01 -5.09735286e-01 -1.90171972e-01 -5.06924808e-01]
 [ 1.36830274e-03  2.42759896e-04 -9.72096110e-04  6.91952126e-04
   1.78894820e-03  3.40376137e-04  7.08204561e-06 -8.48964090e-04]
 [-5.03909505e-05  1.06480613e-03 -8.61991371e-04 -1.23661419e-03
   1.20376225e-03  1.63126027e-03  3.71587463e-04  3.38575250e-04]
 [ 9.91440378e-04  2.05121003e-04 -1.12473569e-03  4.45237674e-04
   1.95226306e-03  8.09813209e-04  9.03137407e-05 -7.22110679e-04]
 [ 2.33792558e-01  2.35731199e-01  1.09523132e-01 -3.75914812e-01
   1.44601732e-01  1.37452915e-01  2.51763165e-01  4.35846090e-01]
 [ 5.14548421e-01 -1.62787437e-02 -5.70611417e-01  4.95042831e-01
   2.67878085e-01 -2.23176152e-01  5.45773089e-01  2.86119401e-01]
 [-2.78658837e-01 -1.50973648e-01  1.42747357e-01 -4.66467261e-01
   3.64767998e-01  1.83427572e-01 -1.68377116e-01  7.95393959e-02]] 
Episode: 59: [[-1.16602115e-01  1.81273408e-02 -5.47069192e-01  5.09647906e-01
   5.15684366e-01  3.43307346e-01 -9.82040614e-02  3.69970441e-01]
 [-3.13128054e-01  4.72408324e-01 -4.41046804e-01 -4.90350455e-01
  -1.03908837e-01  5.32125175e-01 -3.34575713e-01 -3.53221744e-01]
 [ 4.51886028e-01 -6.92586452e-02 -1.65718034e-01  5.12294471e-02
   3.79721433e-01 -3.36364388e-01  3.09424073e-01 -8.24730769e-02]
 [-3.33090663e-01  1.84649795e-01 -3.86380434e-01 -8.66068825e-02
   5.70240438e-01  2.27744371e-01 -2.91847348e-01  2.35217348e-01]
 [ 2.87877142e-01  4.97689933e-01 -5.21094561e-01 -4.91899908e-01
   2.57695645e-01  5.17643332e-01 -1.55575976e-01 -3.20659786e-01]
 [ 3.21571857e-01  1.61333144e-01 -3.36959571e-01  2.35753432e-01
   5.30694187e-01 -5.09733796e-01 -1.90185860e-01 -5.06937742e-01]
 [ 1.34289369e-03  2.47819000e-04 -9.94480564e-04  6.81242615e-04
   1.80728780e-03  3.44116590e-04 -2.32619441e-05 -8.72385979e-04]
 [-5.77505343e-05  1.05318986e-03 -8.54624785e-04 -1.26452011e-03
   1.19605067e-03  1.63888792e-03  3.50478978e-04  3.38915066e-04]
 [ 9.66041523e-04  2.07106161e-04 -1.14203827e-03  4.30902903e-04
   1.96715118e-03  8.15215171e-04  5.57082749e-05 -7.43998622e-04]
 [ 2.33790144e-01  2.35703111e-01  1.09524570e-01 -3.75899911e-01
   1.44619882e-01  1.37467727e-01  2.51771897e-01  4.35845554e-01]
 [ 5.14541984e-01 -1.62644573e-02 -5.70639551e-01  4.95005012e-01
   2.67880827e-01 -2.23178208e-01  5.45765996e-01  2.86143064e-01]
 [-2.78656185e-01 -1.50936440e-01  1.42752081e-01 -4.66474384e-01
   3.64740670e-01  1.83405802e-01 -1.68393999e-01  7.95403197e-02]] 
Episode: 60: [[-1.16607092e-01  1.81013737e-02 -5.47057152e-01  5.09660363e-01
   5.15710115e-01  3.43327373e-01 -9.82197002e-02  3.69963437e-01]
 [-3.13116223e-01  4.72398460e-01 -4.41070676e-01 -4.90372211e-01
  -1.03912182e-01  5.32127082e-01 -3.34567934e-01 -3.53198498e-01]
 [ 4.51890051e-01 -6.92309886e-02 -1.65718600e-01  5.12168556e-02
   3.79693210e-01 -3.36394489e-01  3.09438944e-01 -8.24800283e-02]
 [-3.33058566e-01  1.84658915e-01 -3.86354774e-01 -8.66170526e-02
   5.70231974e-01  2.27754727e-01 -2.91845143e-01  2.35233828e-01]
 [ 2.87901610e-01  4.97719288e-01 -5.21106720e-01 -4.91926193e-01
   2.57680953e-01  5.17636895e-01 -1.55584604e-01 -3.20628285e-01]
 [ 3.21543127e-01  1.61326081e-01 -3.36967349e-01  2.35761404e-01
   5.30703425e-01 -5.09738266e-01 -1.90199226e-01 -5.06949961e-01]
 [ 1.32512941e-03  2.53623410e-04 -1.02804927e-03  6.64566352e-04
   1.82418234e-03  3.49292182e-04 -3.73438088e-05 -8.81635817e-04]
 [-6.81650272e-05  1.05082919e-03 -8.42380046e-04 -1.29489822e-03
   1.18774862e-03  1.63981388e-03  3.31135525e-04  3.35859513e-04]
 [ 9.47338296e-04  2.11689723e-04 -1.16788002e-03  4.10789566e-04
   1.98020670e-03  8.20962596e-04  3.59634469e-05 -7.53382221e-04]
 [ 2.33797982e-01  2.35687286e-01  1.09529264e-01 -3.75882030e-01
   1.44637331e-01  1.37492046e-01  2.51775414e-01  4.35851216e-01]
 [ 5.14553726e-01 -1.62554588e-02 -5.70660830e-01  4.94975597e-01
   2.67865777e-01 -2.23176032e-01  5.45755923e-01  2.86158502e-01]
 [-2.78670281e-01 -1.50910571e-01  1.42747074e-01 -4.66486722e-01
   3.64725798e-01  1.83371127e-01 -1.68407351e-01  7.95324668e-02]] 
Episode: 61: [[-1.16612405e-01  1.80790331e-02 -5.47046542e-01  5.09673476e-01
   5.15732348e-01  3.43341559e-01 -9.82378051e-02  3.69951874e-01]
 [-3.13108385e-01  4.72383380e-01 -4.41086411e-01 -4.90395159e-01
  -1.03917971e-01  5.32121837e-01 -3.34558517e-01 -3.53174597e-01]
 [ 4.51896578e-01 -6.92090094e-02 -1.65717795e-01  5.12056351e-02
   3.79670769e-01 -3.36419731e-01  3.09453398e-01 -8.24898928e-02]
 [-3.33033264e-01  1.84670299e-01 -3.86331290e-01 -8.66276324e-02
   5.70224941e-01  2.27763116e-01 -2.91844517e-01  2.35241160e-01]
 [ 2.87920624e-01  4.97743875e-01 -5.21117270e-01 -4.91952419e-01
   2.57667661e-01  5.17630517e-01 -1.55592263e-01 -3.20599258e-01]
 [ 3.21522117e-01  1.61317080e-01 -3.36979002e-01  2.35769838e-01
   5.30714452e-01 -5.09741604e-01 -1.90212399e-01 -5.06959260e-01]
 [ 1.31393422e-03  2.59258901e-04 -1.05818070e-03  6.50750648e-04
   1.83774380e-03  3.55589902e-04 -5.61476809e-05 -8.85115296e-04]
 [-7.59610120e-05  1.04911206e-03 -8.31723853e-04 -1.32131309e-03
   1.17684610e-03  1.63520256e-03  3.13964789e-04  3.27095564e-04]
 [ 9.35416261e-04  2.16222761e-04 -1.19134795e-03  3.93802009e-04
   1.98962865e-03  8.26219912e-04  1.25759525e-05 -7.58746231e-04]
 [ 2.33805224e-01  2.35672772e-01  1.09537154e-01 -3.75865638e-01
   1.44654304e-01  1.37508497e-01  2.51777530e-01  4.35855746e-01]
 [ 5.14566243e-01 -1.62548330e-02 -5.70674777e-01  4.94945377e-01
   2.67848849e-01 -2.23182291e-01  5.45745611e-01  2.86171615e-01]
 [-2.78684437e-01 -1.50884897e-01  1.42733425e-01 -4.66498196e-01
   3.64714026e-01  1.83347896e-01 -1.68419942e-01  7.95253292e-02]] 
Episode: 62: [[-1.1662174e-01  1.8057358e-02 -5.4703897e-01  5.0968099e-01
   5.1574886e-01  3.4335822e-01 -9.8253652e-02  3.6996087e-01]
 [-3.1309256e-01  4.7237825e-01 -4.4109422e-01 -4.9040687e-01
  -1.0391238e-01  5.3212571e-01 -3.3455420e-01 -3.5313737e-01]
 [ 4.5190799e-01 -6.9179721e-02 -1.6571406e-01  5.1200263e-02
   3.7966073e-01 -3.3644027e-01  3.0947039e-01 -8.2514144e-02]
 [-3.3300853e-01  1.8468523e-01 -3.8631514e-01 -8.6635567e-02
   5.7021606e-01  2.2777182e-01 -2.9184639e-01  2.3525326e-01]
 [ 2.8794333e-01  4.9777043e-01 -5.2112383e-01 -4.9197650e-01
   2.5765935e-01  5.1762885e-01 -1.5560044e-01 -3.2057056e-01]
 [ 3.2149592e-01  1.6130777e-01 -3.3698246e-01  2.3577283e-01
   5.3072721e-01 -5.0974321e-01 -1.9022337e-01 -5.0696915e-01]
 [ 1.3082187e-03  2.6242100e-04 -1.0871966e-03  6.3705759e-04
   1.8506488e-03  3.5792915e-04 -7.9938851e-05 -8.9103554e-04]
 [-7.6199693e-05  1.0546574e-03 -8.2156900e-04 -1.3419517e-03
   1.1735375e-03  1.6377226e-03  3.0097197e-04  3.1763961e-04]
 [ 9.3036587e-04  2.1965241e-04 -1.2140827e-03  3.7778373e-04
   1.9998869e-03  8.2946022e-04 -1.5261379e-05 -7.6686440e-04]
 [ 2.3381150e-01  2.3565872e-01  1.0953893e-01 -3.7584940e-01
   1.4467122e-01  1.3751854e-01  2.5177693e-01  4.3587017e-01]
 [ 5.1458496e-01 -1.6242631e-02 -5.7067966e-01  4.9492288e-01
   2.6784343e-01 -2.2317494e-01  5.4573494e-01  2.8620133e-01]
 [-2.7870142e-01 -1.5085997e-01  1.4272702e-01 -4.6651477e-01
   3.6470315e-01  1.8332994e-01 -1.6842887e-01  7.9510346e-02]] 
Episode: 63: [[-1.1662878e-01  1.8048132e-02 -5.4702848e-01  5.0968254e-01
   5.1576078e-01  3.4338033e-01 -9.8263256e-02  3.6997434e-01]
 [-3.1308037e-01  4.7237104e-01 -4.4109240e-01 -4.9041387e-01
  -1.0390851e-01  5.3213638e-01 -3.3454019e-01 -3.5308799e-01]
 [ 4.5191786e-01 -6.9167197e-02 -1.6571395e-01  5.1197384e-02
   3.7965527e-01 -3.3647567e-01  3.0948353e-01 -8.2539223e-02]
 [-3.3298969e-01  1.8470408e-01 -3.8629839e-01 -8.6647004e-02
   5.7020128e-01  2.2778764e-01 -2.9184875e-01  2.3526645e-01]
 [ 2.8796297e-01  4.9779418e-01 -5.2113235e-01 -4.9199691e-01
