Episode: 1: [[ 0.          0.          0.        ]
 [ 0.          0.          0.        ]
 [ 0.          0.          0.        ]
 [-0.16240509 -0.34006977  0.04328375]
 [ 0.12615696 -0.04700504 -0.04048468]
 [ 0.46043023  0.522202   -0.38252082]
 [ 0.22833015 -0.46042326  0.35057473]
 [ 0.3768362   0.48599768  0.40276992]
 [-0.19741115  0.02976353 -0.38563552]
 [ 0.28855428 -0.24599251 -0.2545849 ]
 [-0.37674072  0.4958444  -0.4124831 ]
 [ 0.38596833 -0.5666126   0.28840122]] 
Episode: 2: [[ 9.9999910e-05  9.9999837e-05 -9.9999692e-05]
 [ 9.9999961e-05  9.9999925e-05 -9.9999837e-05]
 [-9.9999859e-05  9.9999052e-05 -9.9992700e-05]
 [-1.6230509e-01 -3.4016976e-01  4.3183748e-02]
 [ 1.2605695e-01 -4.6905037e-02 -4.0584680e-02]
 [ 4.6033025e-01  5.2230203e-01 -3.8242084e-01]
 [ 2.2843015e-01 -4.6032327e-01  3.5047475e-01]
 [ 3.7673622e-01  4.8609766e-01  4.0286991e-01]
 [-1.9731115e-01  2.9863525e-02 -3.8573551e-01]
 [ 2.8865427e-01 -2.4609251e-01 -2.5468490e-01]
 [-3.7664074e-01  4.9594438e-01 -4.1258308e-01]
 [ 3.8586834e-01 -5.6671262e-01  2.8850120e-01]] 
Episode: 3: [[ 4.00996178e-05  1.89142505e-04 -3.73119110e-05]
 [ 1.19661825e-04  1.92747364e-04 -5.55900333e-05]
 [-4.95998902e-05  1.77494265e-04 -1.75129448e-04]
 [-1.62369207e-01 -3.40173542e-01  4.32360210e-02]
 [ 1.25962287e-01 -4.68113348e-02 -4.06586453e-02]
 [ 4.60386008e-01  5.22376060e-01 -3.82464170e-01]
 [ 2.28455141e-01 -4.60302860e-01  3.50444287e-01]
 [ 3.76734227e-01  4.86118197e-01  4.02813524e-01]
 [-1.97271571e-01  2.98807304e-02 -3.85778666e-01]
 [ 2.88597137e-01 -2.46192098e-01 -2.54620403e-01]
 [-3.76680970e-01  4.96015429e-01 -4.12548989e-01]
 [ 3.85923177e-01 -5.66661358e-01  2.88433641e-01]] 
Episode: 4: [[ 4.7005567e-05  2.8221917e-04 -6.0074821e-05]
 [ 1.7651815e-04  1.7035739e-04 -8.5299602e-05]
 [-3.9645434e-05  1.9727981e-04 -1.6913052e-04]
 [-1.6243319e-01 -3.4023535e-01  4.3307200e-02]
 [ 1.2588257e-01 -4.6723619e-02 -4.0614557e-02]
 [ 4.6043819e-01  5.2245378e-01 -3.8252598e-01]
 [ 2.2840989e-01 -4.6034902e-01  3.5048774e-01]
 [ 3.7678593e-01  4.8607224e-01  4.0274155e-01]
 [-1.9731288e-01  2.9833633e-02 -3.8573945e-01]
 [ 2.8860873e-01 -2.4615294e-01 -2.5463197e-01]
 [-3.7668595e-01  4.9597040e-01 -4.1250825e-01]
 [ 3.8592973e-01 -5.6659752e-01  2.8842902e-01]] 
Episode: 5: [[ 7.9604935e-05  3.7592341e-04 -1.0648090e-04]
 [ 2.4930600e-04  1.6224313e-04 -1.4590887e-04]
 [-6.3621163e-05  2.5742696e-04 -1.3248088e-04]
 [-1.6248703e-01 -3.4031016e-01  4.3359630e-02]
 [ 1.2579562e-01 -4.6635572e-02 -4.0583208e-02]
 [ 4.6046394e-01  5.2253991e-01 -3.8255858e-01]
 [ 2.2838880e-01 -4.6037146e-01  3.5050738e-01]
 [ 3.7680632e-01  4.8605248e-01  4.0269384e-01]
 [-1.9733277e-01  2.9811358e-02 -3.8572359e-01]
 [ 2.8864509e-01 -2.4613360e-01 -2.5467068e-01]
 [-3.7668523e-01  4.9593362e-01 -4.1249722e-01]
 [ 3.8590592e-01 -5.6653476e-01  2.8846055e-01]] 
Episode: 6: [[ 1.20041754e-04  4.32564353e-04 -1.13386624e-04]
 [ 3.30691604e-04  2.09300953e-04 -2.13282052e-04]
 [-1.19468947e-04  3.25734349e-04 -1.21125850e-04]
 [-1.62461951e-01 -3.40380728e-01  4.33234349e-02]
 [ 1.25767455e-01 -4.65507507e-02 -4.06250469e-02]
 [ 4.60422814e-01  5.22619188e-01 -3.82514626e-01]
 [ 2.28438154e-01 -4.60322529e-01  3.50457698e-01]
 [ 3.76756966e-01  4.86102074e-01  4.02731985e-01]
 [-1.97283223e-01  2.98601445e-02 -3.85773957e-01]
 [ 2.88679719e-01 -2.46178418e-01 -2.54689723e-01]
 [-3.76646370e-01  4.95968640e-01 -4.12542850e-01]
 [ 3.85856032e-01 -5.66545486e-01  2.88497597e-01]] 
Episode: 7: [[ 1.3558946e-04  5.0396484e-04 -1.3799683e-04]
 [ 3.9777264e-04  2.5389233e-04 -2.6629979e-04]
 [-1.5243850e-04  3.5221386e-04 -9.3038820e-05]
 [-1.6244602e-01 -3.4043038e-01  4.3296330e-02]
 [ 1.2574926e-01 -4.6473745e-02 -4.0662978e-02]
 [ 4.6039346e-01  5.2268738e-01 -3.8248429e-01]
 [ 2.2847527e-01 -4.6028593e-01  3.5042065e-01]
 [ 3.7672177e-01  4.8613852e-01  4.0275091e-01]
 [-1.9724566e-01  2.9896032e-02 -3.8581184e-01]
 [ 2.8869081e-01 -2.4620183e-01 -2.5469989e-01]
 [-3.7661052e-01  4.9600136e-01 -4.1257906e-01]
 [ 3.8583547e-01 -5.6656563e-01  2.8852347e-01]] 
Episode: 8: [[ 1.5274622e-04  5.7881163e-04 -1.7032013e-04]
 [ 4.5935833e-04  2.7766576e-04 -3.1633276e-04]
 [-1.8021783e-04  3.6465406e-04 -5.8539135e-05]
 [-1.6243717e-01 -3.4047291e-01  4.3279495e-02]
 [ 1.2572235e-01 -4.6399705e-02 -4.0686432e-02]
 [ 4.6037468e-01  5.2275372e-01 -3.8246611e-01]
 [ 2.2848968e-01 -4.6027240e-01  3.5040623e-01]
 [ 3.7670872e-01  4.8615235e-01  4.0274838e-01]
 [-1.9723088e-01  2.9908957e-02 -3.8582706e-01]
 [ 2.8870445e-01 -2.4619921e-01 -2.5471896e-01]
 [-3.7658483e-01  4.9601409e-01 -4.1259971e-01]
 [ 3.8581568e-01 -5.6657851e-01  2.8855324e-01]] 
Episode: 9: [[ 1.6634190e-04  6.3826720e-04 -1.9662936e-04]
 [ 5.0304626e-04  2.9626390e-04 -3.5024833e-04]
 [-2.0219739e-04  3.7546072e-04 -3.1400279e-05]
 [-1.6243349e-01 -3.4051210e-01  4.3268755e-02]
 [ 1.2569578e-01 -4.6335407e-02 -4.0703420e-02]
 [ 4.6036106e-01  5.2281022e-01 -3.8245285e-01]
 [ 2.2849859e-01 -4.6026444e-01  3.5039759e-01]
 [ 3.7670097e-01  4.8616061e-01  4.0274522e-01]
 [-1.9722158e-01  2.9916141e-02 -3.8583624e-01]
 [ 2.8871864e-01 -2.4620391e-01 -2.5473410e-01]
 [-3.7656981e-01  4.9602234e-01 -4.1261008e-01]
 [ 3.8580051e-01 -5.6658363e-01  2.8857490e-01]] 
Episode: 10: [[ 1.6590153e-04  6.6168635e-04 -1.7705990e-04]
 [ 5.6512794e-04  3.3621772e-04 -4.0751125e-04]
 [-2.3031617e-04  4.0961502e-04 -3.5267429e-05]
 [-1.6244158e-01 -3.4051284e-01  4.3254025e-02]
 [ 1.2566806e-01 -4.6261039e-02 -4.0737204e-02]
 [ 4.6034351e-01  5.2281982e-01 -3.8242441e-01]
 [ 2.2852173e-01 -4.6024200e-01  3.5037324e-01]
 [ 3.7667748e-01  4.8618412e-01  4.0275037e-01]
 [-1.9719896e-01  2.9939186e-02 -3.8586122e-01]
 [ 2.8873408e-01 -2.4622403e-01 -2.5474840e-01]
 [-3.7657046e-01  4.9605194e-01 -4.1264242e-01]
 [ 3.8577828e-01 -5.6660265e-01  2.8861153e-01]] 
Episode: 11: [[ 1.5909094e-04  6.6602719e-04 -1.4420770e-04]
 [ 6.3486345e-04  3.8515113e-04 -4.7255744e-04]
 [-2.5580233e-04  4.5130402e-04 -5.0743503e-05]
 [-1.6246058e-01 -3.4050551e-01  4.3245360e-02]
 [ 1.2563916e-01 -4.6180036e-02 -4.0775884e-02]
 [ 4.6032858e-01  5.2281284e-01 -3.8239473e-01]
 [ 2.2854832e-01 -4.6021590e-01  3.5034522e-01]
 [ 3.7665078e-01  4.8621133e-01  4.0275574e-01]
 [-1.9717276e-01  2.9966006e-02 -3.8588998e-01]
 [ 2.8874999e-01 -2.4625425e-01 -2.5475928e-01]
 [-3.7658268e-01  4.9608892e-01 -4.1267747e-01]
 [ 3.8575661e-01 -5.6662172e-01  2.8864920e-01]] 
Episode: 12: [[ 1.54714056e-04  6.58430217e-04 -1.09680244e-04]
 [ 7.02930498e-04  4.33444453e-04 -5.34812920e-04]
 [-2.80449865e-04  4.94419655e-04 -6.91595924e-05]
 [-1.62480429e-01 -3.40500385e-01  4.32395041e-02]
 [ 1.25607654e-01 -4.61003743e-02 -4.08110619e-02]
 [ 4.60315138e-01  5.22803485e-01 -3.82367253e-01]
 [ 2.28573069e-01 -4.60191488e-01  3.50319207e-01]
 [ 3.76625776e-01  4.86236811e-01  4.02762264e-01]
 [-1.97148338e-01  2.99911480e-02 -3.85916680e-01]
 [ 2.88768977e-01 -2.46288761e-01 -2.54768878e-01]
 [-3.76597017e-01  4.96125787e-01 -4.12710220e-01]
 [ 3.85733396e-01 -5.66635966e-01  2.88683563e-01]] 
Episode: 13: [[ 1.5458580e-04  6.4014096e-04 -8.7318207e-05]
 [ 7.6389464e-04  4.7813187e-04 -6.0385262e-04]
 [-3.0485934e-04  5.4314092e-04 -6.2040424e-05]
 [-1.6250259e-01 -3.4050015e-01  4.3236341e-02]
 [ 1.2556767e-01 -4.6017624e-02 -4.0839106e-02]
 [ 4.6030062e-01  5.2279830e-01 -3.8234201e-01]
 [ 2.2859246e-01 -4.6017227e-01  3.5029820e-01]
 [ 3.7660590e-01  4.8625711e-01  4.0276620e-01]
 [-1.9712888e-01  3.0011222e-02 -3.8593870e-01]
 [ 2.8878933e-01 -2.4633159e-01 -2.5478423e-01]
 [-3.7662685e-01  4.9615788e-01 -4.1273651e-01]
 [ 3.8571361e-01 -5.6663406e-01  2.8872710e-01]] 
Episode: 14: [[ 1.6245905e-04  6.1763840e-04 -7.5373559e-05]
 [ 8.1701332e-04  5.0249812e-04 -6.6884945e-04]
 [-3.2295112e-04  5.8811385e-04 -4.6172721e-05]
 [-1.6252816e-01 -3.4051096e-01  4.3241668e-02]
 [ 1.2551577e-01 -4.5940064e-02 -4.0849943e-02]
 [ 4.6029586e-01  5.2279818e-01 -3.8232777e-01]
 [ 2.2861050e-01 -4.6015471e-01  3.5027838e-01]
 [ 3.7658709e-01  4.8627606e-01  4.0276778e-01]
 [-1.9711077e-01  3.0030005e-02 -3.8595968e-01]
 [ 2.8881654e-01 -2.4636336e-01 -2.5481015e-01]
 [-3.7666118e-01  4.9617031e-01 -4.1274896e-01]
 [ 3.8569897e-01 -5.6661576e-01  2.8877187e-01]] 
Episode: 15: [[ 1.6728211e-04  6.0246082e-04 -6.7278241e-05]
 [ 8.6650415e-04  5.2401877e-04 -7.2878605e-04]
 [-3.3778002e-04  6.2519219e-04 -2.8620974e-05]
 [-1.6255172e-01 -3.4051624e-01  4.3247525e-02]
 [ 1.2547249e-01 -4.5870207e-02 -4.0860701e-02]
 [ 4.6029085e-01  5.2279437e-01 -3.8231534e-01]
 [ 2.2862615e-01 -4.6013957e-01  3.5026118e-01]
 [ 3.7657064e-01  4.8629239e-01  4.0276954e-01]
 [-1.9709527e-01  3.0046262e-02 -3.8597780e-01]
 [ 2.8883669e-01 -2.4638556e-01 -2.5483295e-01]
 [-3.7668777e-01  4.9617997e-01 -4.1276175e-01]
 [ 3.8569000e-01 -5.6660116e-01  2.8881192e-01]] 
Episode: 16: [[ 1.8505094e-04  5.8754056e-04 -6.9610367e-05]
 [ 9.1366883e-04  5.2860938e-04 -7.8895554e-04]
 [-3.5010264e-04  6.5738434e-04 -2.4125463e-06]
 [-1.6258633e-01 -3.4053481e-01  4.3268971e-02]
 [ 1.2541611e-01 -4.5799948e-02 -4.0852178e-02]
 [ 4.6030027e-01  5.2280706e-01 -3.8231930e-01]
 [ 2.2863071e-01 -4.6013531e-01  3.5025468e-01]
 [ 3.7656319e-01  4.8629859e-01  4.0276530e-01]
 [-1.9709198e-01  3.0052191e-02 -3.8598457e-01]
 [ 2.8887069e-01 -2.4639992e-01 -2.5486904e-01]
 [-3.7672395e-01  4.9617317e-01 -4.1276053e-01]
 [ 3.8567463e-01 -5.6656468e-01  2.8885785e-01]] 
Episode: 17: [[ 1.9260222e-04  5.7834748e-04 -7.1097340e-05]
 [ 9.4472349e-04  5.2191713e-04 -8.3560968e-04]
 [-3.5011736e-04  6.7286100e-04  1.9211735e-05]
 [-1.6262336e-01 -3.4053814e-01  4.3296121e-02]
 [ 1.2536916e-01 -4.5746043e-02 -4.0836863e-02]
 [ 4.6031839e-01  5.2280688e-01 -3.8233206e-01]
 [ 2.2862311e-01 -4.6014354e-01  3.5026053e-01]
 [ 3.7656805e-01  4.8629233e-01  4.0275159e-01]
 [-1.9710094e-01  3.0045386e-02 -3.8597867e-01]
 [ 2.8889307e-01 -2.4639635e-01 -2.5489852e-01]
 [-3.7676471e-01  4.9615809e-01 -4.1274983e-01]
 [ 3.8566992e-01 -5.6652921e-01  2.8889298e-01]] 
Episode: 18: [[ 2.0383984e-04  5.8228342e-04 -7.7033394e-05]
 [ 9.7729941e-04  5.0995057e-04 -8.8186312e-04]
 [-3.4800670e-04  6.8587461e-04  4.2465646e-05]
 [-1.6266601e-01 -3.4055111e-01  4.3328200e-02]
 [ 1.2532298e-01 -4.5700978e-02 -4.0818568e-02]
 [ 4.6034372e-01  5.2282369e-01 -3.8235158e-01]
 [ 2.2861949e-01 -4.6014792e-01  3.5026234e-01]
 [ 3.7656787e-01  4.8629025e-01  4.0274638e-01]
 [-1.9710651e-01  3.0042496e-02 -3.8597634e-01]
 [ 2.8891897e-01 -2.4638800e-01 -2.5493076e-01]
 [-3.7679204e-01  4.9613863e-01 -4.1274297e-01]
 [ 3.8566127e-01 -5.6648833e-01  2.8892934e-01]] 
Episode: 19: [[ 2.1665517e-04  5.8288855e-04 -8.3938023e-05]
 [ 1.0070681e-03  5.0021952e-04 -9.2496042e-04]
 [-3.4863056e-04  6.9875497e-04  6.6420187e-05]
 [-1.6270019e-01 -3.4056422e-01  4.3353934e-02]
 [ 1.2528186e-01 -4.5657743e-02 -4.0803969e-02]
 [ 4.6036240e-01  5.2283800e-01 -3.8236621e-01]
 [ 2.2861716e-01 -4.6015093e-01  3.5026303e-01]
 [ 3.7656689e-01  4.8628929e-01  4.0274212e-01]
 [-1.9711052e-01  3.0040812e-02 -3.8597524e-01]
 [ 2.8894404e-01 -2.4638169e-01 -2.5496140e-01]
 [-3.7681738e-01  4.9612176e-01 -4.1273671e-01]
 [ 3.8565195e-01 -5.6645328e-01  2.8896457e-01]] 
Episode: 20: [[ 2.3224628e-04  5.7923567e-04 -8.9780289e-05]
 [ 1.0328783e-03  4.8962067e-04 -9.6399640e-04]
 [-3.5212340e-04  7.1192358e-04  8.7698230e-05]
 [-1.6272907e-01 -3.4057805e-01  4.3376643e-02]
 [ 1.2524423e-01 -4.5620244e-02 -4.0789440e-02]
 [ 4.6037814e-01  5.2285147e-01 -3.8237882e-01]
 [ 2.2861500e-01 -4.6015376e-01  3.5026371e-01]
 [ 3.7656620e-01  4.8628831e-01  4.0273803e-01]
 [-1.9711405e-01  3.0039202e-02 -3.8597429e-01]
 [ 2.8897032e-01 -2.4637634e-01 -2.5499135e-01]
 [-3.7684080e-01  4.9610448e-01 -4.1273043e-01]
 [ 3.8564011e-01 -5.6642073e-01  2.8899845e-01]] 
Episode: 21: [[ 2.4535548e-04  5.7932024e-04 -9.5123825e-05]
 [ 1.0594534e-03  4.8087057e-04 -1.0000931e-03]
 [-3.5408995e-04  7.2333479e-04  1.0530156e-04]
 [-1.6275665e-01 -3.4059313e-01  4.3398246e-02]
 [ 1.2521130e-01 -4.5586679e-02 -4.0777415e-02]
 [ 4.6039334e-01  5.2286708e-01 -3.8239107e-01]
 [ 2.2861362e-01 -4.6015576e-01  3.5026383e-01]
 [ 3.7656516e-01  4.8628795e-01  4.0273410e-01]
 [-1.9711664e-01  3.0038314e-02 -3.8597393e-01]
 [ 2.8899330e-01 -2.4637195e-01 -2.5501710e-01]
 [-3.7685975e-01  4.9608934e-01 -4.1272625e-01]
 [ 3.8562939e-01 -5.6639040e-01  2.8902760e-01]] 
Episode: 22: [[ 2.4920370e-04  6.0590124e-04 -1.0635600e-04]
 [ 1.0898396e-03  4.8459790e-04 -1.0352862e-03]
 [-3.5533629e-04  7.2773627e-04  1.2883569e-04]
 [-1.6278358e-01 -3.4061047e-01  4.3414705e-02]
 [ 1.2518707e-01 -4.5551684e-02 -4.0775571e-02]
 [ 4.6040243e-01  5.2289045e-01 -3.8239801e-01]
 [ 2.2862010e-01 -4.6014953e-01  3.5025641e-01]
 [ 3.7655640e-01  4.8629552e-01  4.0273747e-01]
 [-1.9711149e-01  3.0045699e-02 -3.8598120e-01]
 [ 2.8900787e-01 -2.4637076e-01 -2.5503501e-01]
 [-3.7686259e-01  4.9608853e-01 -4.1273272e-01]
 [ 3.8562426e-01 -5.6637317e-01  2.8905189e-01]] 
Episode: 23: [[ 2.50502111e-04  6.29434886e-04 -1.09753215e-04]
 [ 1.12812466e-03  4.95100394e-04 -1.07534847e-03]
 [-3.59629077e-04  7.35408161e-04  1.44443678e-04]
 [-1.62810594e-01 -3.40623826e-01  4.34298292e-02]
 [ 1.25166580e-01 -4.55130972e-02 -4.07792814e-02]
 [ 4.60408479e-01  5.22907853e-01 -3.82400900e-01]
 [ 2.28628993e-01 -4.60140705e-01  3.50246578e-01]
 [ 3.76545340e-01  4.86305565e-01  4.02742773e-01]
 [-1.97103888e-01  3.00557353e-02 -3.85990888e-01]
 [ 2.89022207e-01 -2.46371642e-01 -2.55049646e-01]
 [-3.76862854e-01  4.96093899e-01 -4.12746340e-01]
 [ 3.85615587e-01 -5.66362083e-01  2.89076298e-01]] 
Episode: 24: [[ 2.4739763e-04  6.5449084e-04 -1.1295258e-04]
 [ 1.1604285e-03  5.0085678e-04 -1.1099213e-03]
 [-3.5789600e-04  7.3710765e-04  1.5779487e-04]
 [-1.6283835e-01 -3.4063211e-01  4.3447170e-02]
 [ 1.2514928e-01 -4.5482479e-02 -4.0779509e-02]
 [ 4.6041813e-01  5.2292192e-01 -3.8240749e-01]
 [ 2.2863489e-01 -4.6013504e-01  3.5023969e-01]
 [ 3.7653744e-01  4.8631245e-01  4.0274498e-01]
 [-1.9709925e-01  3.0062569e-02 -3.8599762e-01]
 [ 2.8903139e-01 -2.4636512e-01 -2.5506175e-01]
 [-3.7686294e-01  4.9609533e-01 -4.1275668e-01]
 [ 3.8561171e-01 -5.6635147e-01  2.8909603e-01]] 
Episode: 25: [[ 2.4554148e-04  6.7394896e-04 -1.1177776e-04]
 [ 1.2005277e-03  5.1277742e-04 -1.1481754e-03]
 [-3.6141608e-04  7.4228033e-04  1.6473296e-04]
 [-1.6286199e-01 -3.4063911e-01  4.3460224e-02]
 [ 1.2513551e-01 -4.5447733e-02 -4.0786009e-02]
 [ 4.6042234e-01  5.2293140e-01 -3.8240829e-01]
 [ 2.2864322e-01 -4.6012667e-01  3.5023043e-01]
 [ 3.7652746e-01  4.8632178e-01  4.0274757e-01]
 [-1.9709215e-01  3.0072074e-02 -3.8600677e-01]
 [ 2.8904217e-01 -2.4636175e-01 -2.5507277e-01]
 [-3.7685776e-01  4.9610257e-01 -4.1277459e-01]
 [ 3.8560328e-01 -5.6634778e-01  2.8911632e-01]] 
Episode: 26: [[ 2.4510923e-04  6.8376929e-04 -1.0370146e-04]
 [ 1.2458102e-03  5.3082430e-04 -1.1907227e-03]
 [-3.6969635e-04  7.5529161e-04  1.6625543e-04]
 [-1.6288179e-01 -3.4064367e-01  4.3468442e-02]
 [ 1.2511970e-01 -4.5406442e-02 -4.0796652e-02]
 [ 4.6042201e-01  5.2293634e-01 -3.8240343e-01]
 [ 2.2865517e-01 -4.6011457e-01  3.5021725e-01]
 [ 3.7651354e-01  4.8633492e-01  4.0275320e-01]
 [-1.9708146e-01  3.0085495e-02 -3.8601992e-01]
 [ 2.8905472e-01 -2.4636334e-01 -2.5508395e-01]
 [-3.7685382e-01  4.9611461e-01 -4.1279659e-01]
 [ 3.8559115e-01 -5.6634778e-01  2.8913897e-01]] 
Episode: 27: [[ 2.5677227e-04  6.8644353e-04 -9.7022661e-05]
 [ 1.2947700e-03  5.5720255e-04 -1.2403360e-03]
 [-3.9176864e-04  7.8461447e-04  1.7517971e-04]
 [-1.6289745e-01 -3.4066293e-01  4.3469064e-02]
 [ 1.2509382e-01 -4.5355156e-02 -4.0812559e-02]
 [ 4.6041226e-01  5.2295548e-01 -3.8238961e-01]
 [ 2.2867773e-01 -4.6009174e-01  3.5019368e-01]
 [ 3.7648866e-01  4.8635867e-01  4.0277344e-01]
 [-1.9706029e-01  3.0109469e-02 -3.8604325e-01]
 [ 2.8907835e-01 -2.4638614e-01 -2.5510141e-01]
 [-3.7685111e-01  4.9613401e-01 -4.1282359e-01]
 [ 3.8556802e-01 -5.6634355e-01  2.8917217e-01]] 
Episode: 28: [[ 2.6552135e-04  6.9126347e-04 -9.1725880e-05]
 [ 1.3374304e-03  5.8038242e-04 -1.2834641e-03]
 [-4.0980644e-04  8.0846413e-04  1.8343015e-04]
 [-1.6291261e-01 -3.4068090e-01  4.3471001e-02]
 [ 1.2507106e-01 -4.5310061e-02 -4.0826153e-02]
 [ 4.6040446e-01  5.2297294e-01 -3.8237843e-01]
 [ 2.2869781e-01 -4.6007141e-01  3.5017279e-01]
 [ 3.7646645e-01  4.8637983e-01  4.0279251e-01]
 [-1.9704142e-01  3.0130809e-02 -3.8606390e-01]
 [ 2.8909850e-01 -2.4640638e-01 -2.5511581e-01]
 [-3.7684876e-01  4.9615103e-01 -4.1284707e-01]
 [ 3.8554832e-01 -5.6633979e-01  2.8920087e-01]] 
Episode: 29: [[ 2.7867052e-04  6.7825039e-04 -7.8722813e-05]
 [ 1.3786593e-03  6.1327778e-04 -1.3368858e-03]
 [-4.3758651e-04  8.5153081e-04  1.9495712e-04]
 [-1.6293508e-01 -3.4070557e-01  4.3473542e-02]
 [ 1.2503405e-01 -4.5248408e-02 -4.0843021e-02]
 [ 4.6039104e-01  5.2299100e-01 -3.8236037e-01]
 [ 2.2872637e-01 -4.6004191e-01  3.5014352e-01]
 [ 3.7643427e-01  4.8641032e-01  4.0282664e-01]
 [-1.9701518e-01  3.0160999e-02 -3.8609189e-01]
 [ 2.8912866e-01 -2.4644984e-01 -2.5513318e-01]
 [-3.7687024e-01  4.9617818e-01 -4.1286904e-01]
 [ 3.8552228e-01 -5.6632370e-01  2.8923851e-01]] 
Episode: 30: [[ 2.9069057e-04  6.6609884e-04 -6.6053930e-05]
 [ 1.4193961e-03  6.4211932e-04 -1.3857679e-03]
 [-4.6387117e-04  8.9240429e-04  2.0452555e-04]
 [-1.6295654e-01 -3.4073037e-01  4.3476276e-02]
 [ 1.2499797e-01 -4.5191888e-02 -4.0857069e-02]
 [ 4.6037686e-01  5.2300781e-01 -3.8234249e-01]
 [ 2.2875270e-01 -4.6001485e-01  3.5011640e-01]
 [ 3.7640461e-01  4.8643845e-01  4.0285596e-01]
 [-1.9699092e-01  3.0188758e-02 -3.8611799e-01]
 [ 2.8915867e-01 -2.4648646e-01 -2.5515118e-01]
 [-3.7688792e-01  4.9620214e-01 -4.1288865e-01]
 [ 3.8549644e-01 -5.6631005e-01  2.8927389e-01]] 
Episode: 31: [[ 3.0248929e-04  6.4896530e-04 -5.3392407e-05]
 [ 1.4582389e-03  6.7290466e-04 -1.4326901e-03]
 [-4.9052417e-04  9.3546376e-04  2.1347174e-04]
 [-1.6297641e-01 -3.4075701e-01  4.3476786e-02]
 [ 1.2496028e-01 -4.5136556e-02 -4.0871024e-02]
 [ 4.6036229e-01  5.2302611e-01 -3.8232371e-01]
 [ 2.2878106e-01 -4.5998552e-01  3.5008743e-01]
 [ 3.7637341e-01  4.8646846e-01  4.0288660e-01]
 [-1.9696431e-01  3.0218668e-02 -3.8614619e-01]
 [ 2.8918785e-01 -2.4652840e-01 -2.5516739e-01]
 [-3.7690449e-01  4.9622861e-01 -4.1290960e-01]
 [ 3.8547081e-01 -5.6629616e-01  2.8930730e-01]] 
Episode: 32: [[ 3.19086685e-04  6.30073133e-04 -4.42137170e-05]
 [ 1.49447971e-03  6.96935109e-04 -1.47301820e-03]
 [-5.15718013e-04  9.73042042e-04  2.20217044e-04]
 [-1.62988439e-01 -3.40784758e-01  4.34741303e-02]
 [ 1.24931686e-01 -4.50917408e-02 -4.08856869e-02]
 [ 4.60347027e-01  5.23042262e-01 -3.82305145e-01]
 [ 2.28807271e-01 -4.59958524e-01  3.50060642e-01]
 [ 3.76345158e-01  4.86496001e-01  4.02912527e-01]
 [-1.96939364e-01  3.02461237e-02 -3.86172533e-01]
 [ 2.89215446e-01 -2.46563584e-01 -2.55183965e-01]
 [-3.76913428e-01  4.96248454e-01 -4.12929267e-01]
 [ 3.85447085e-01 -5.66288233e-01  2.89337218e-01]] 
Episode: 33: [[ 3.3699954e-04  5.7957921e-04 -8.5699430e-06]
 [ 1.5178836e-03  7.1973988e-04 -1.5028940e-03]
 [-5.4994307e-04  1.0264158e-03  1.9564223e-04]
 [-1.6298781e-01 -3.4078863e-01  4.3462344e-02]
 [ 1.2491142e-01 -4.5053177e-02 -4.0902264e-02]
 [ 4.6032503e-01  5.2302694e-01 -3.8227698e-01]
 [ 2.2881415e-01 -4.5995134e-01  3.5005301e-01]
 [ 3.7633592e-01  4.8650432e-01  4.0292171e-01]
 [-1.9693263e-01  3.0252909e-02 -3.8617998e-01]
 [ 2.8924671e-01 -2.4660794e-01 -2.5519127e-01]
 [-3.7694460e-01  4.9626321e-01 -4.1293454e-01]
 [ 3.8541225e-01 -5.6627202e-01  2.8935704e-01]] 
Episode: 34: [[ 3.66235792e-04  5.17600332e-04  2.39997898e-05]
 [ 1.53669831e-03  7.37547991e-04 -1.53865165e-03]
 [-5.87815302e-04  1.08736195e-03  1.81132578e-04]
 [-1.62982792e-01 -3.40800673e-01  4.34488170e-02]
 [ 1.24876834e-01 -4.50058542e-02 -4.09105942e-02]
 [ 4.60301280e-01  5.23012280e-01 -3.82247835e-01]
 [ 2.28822157e-01 -4.59942788e-01  3.50043982e-01]
 [ 3.76324236e-01  4.86514479e-01  4.02934343e-01]
 [-1.96925059e-01  3.02616395e-02 -3.86188835e-01]
 [ 2.89286792e-01 -2.46658325e-01 -2.55209833e-01]
 [-3.76991034e-01  4.96271342e-01 -4.12927419e-01]
 [ 3.85377467e-01 -5.66242933e-01  2.89387733e-01]] 
Episode: 35: [[ 3.8208530e-04  4.6615145e-04  5.8910260e-05]
 [ 1.5553305e-03  7.5841870e-04 -1.5692334e-03]
 [-6.1487389e-04  1.1408617e-03  1.6066286e-04]
 [-1.6298613e-01 -3.4080735e-01  4.3440145e-02]
 [ 1.2484725e-01 -4.4960700e-02 -4.0921547e-02]
 [ 4.6028510e-01  5.2299434e-01 -3.8222325e-01]
 [ 2.2882748e-01 -4.5993721e-01  3.5003784e-01]
 [ 3.7631622e-01  4.8652139e-01  4.0294126e-01]
 [-1.9691989e-01  3.0267229e-02 -3.8619503e-01]
 [ 2.8931710e-01 -2.4670827e-01 -2.5521752e-01]
 [-3.7703410e-01  4.9628156e-01 -4.1291997e-01]
 [ 3.8535580e-01 -5.6621575e-01  2.8940472e-01]] 
Episode: 36: [[ 3.74838448e-04  4.39550757e-04  8.92850221e-05]
 [ 1.57605321e-03  7.84913020e-04 -1.59233320e-03]
 [-6.23728731e-04  1.17762398e-03  1.38993491e-04]
 [-1.63006380e-01 -3.40808153e-01  4.34438400e-02]
 [ 1.24824315e-01 -4.49177437e-02 -4.09354493e-02]
 [ 4.60281789e-01  5.22979319e-01 -3.82209897e-01]
 [ 2.28830352e-01 -4.59934175e-01  3.50034416e-01]
 [ 3.76311451e-01  4.86525476e-01  4.02942359e-01]
 [-1.96917295e-01  3.02700792e-02 -3.86198491e-01]
 [ 2.89323598e-01 -2.46751264e-01 -2.55206048e-01]
 [-3.77072483e-01  4.96297151e-01 -4.12913024e-01]
 [ 3.85353088e-01 -5.66189229e-01  2.89402187e-01]] 
Episode: 37: [[ 3.69895744e-04  4.17062081e-04  1.14145456e-04]
 [ 1.59925246e-03  8.11958744e-04 -1.61467143e-03]
 [-6.34356518e-04  1.21127197e-03  1.21854151e-04]
 [-1.63024381e-01 -3.40811372e-01  4.34466228e-02]
 [ 1.24800004e-01 -4.48759943e-02 -4.09486592e-02]
 [ 4.60277617e-01  5.22970974e-01 -3.82197559e-01]
 [ 2.28834242e-01 -4.59929973e-01  3.50030035e-01]
 [ 3.76305163e-01  4.86530691e-01  4.02946442e-01]
 [-1.96914181e-01  3.02741658e-02 -3.86202574e-01]
 [ 2.89330721e-01 -2.46791959e-01 -2.55197048e-01]
 [-3.77104610e-01  4.96313214e-01 -4.12908942e-01]
 [ 3.85345817e-01 -5.66166103e-01  2.89402604e-01]] 
Episode: 38: [[ 3.6618538e-04  3.9553776e-04  1.3646379e-04]
 [ 1.6225548e-03  8.3767442e-04 -1.6368704e-03]
 [-6.4625102e-04  1.2422804e-03  1.0644730e-04]
 [-1.6303946e-01 -3.4081358e-01  4.3447778e-02]
 [ 1.2477675e-01 -4.4836368e-02 -4.0961642e-02]
 [ 4.6027291e-01  5.2296364e-01 -3.8218537e-01]
 [ 2.2883777e-01 -4.5992610e-01  3.5002601e-01]
 [ 3.7629935e-01  4.8653546e-01  4.0295064e-01]
 [-1.9691135e-01  3.0277928e-02 -3.8620630e-01]
 [ 2.8933707e-01 -2.4682981e-01 -2.5518882e-01]
 [-3.7713340e-01  4.9632895e-01 -4.1290757e-01]
 [ 3.8533735e-01 -5.6614685e-01  2.8940406e-01]] 
Episode: 39: [[ 3.6994083e-04  3.5609253e-04  1.6945790e-04]
 [ 1.6356687e-03  8.4728113e-04 -1.6455691e-03]
 [-6.5144378e-04  1.2736366e-03  7.3214163e-05]
 [-1.6304784e-01 -3.4081712e-01  4.3450553e-02]
 [ 1.2477227e-01 -4.4816677e-02 -4.0973738e-02]
 [ 4.6027619e-01  5.2294075e-01 -3.8217840e-01]
 [ 2.2882678e-01 -4.5993748e-01  3.5003680e-01]
 [ 3.7631020e-01  4.8652488e-01  4.0293524e-01]
 [-1.9692190e-01  3.0265892e-02 -3.8619566e-01]
 [ 2.8935030e-01 -2.4686900e-01 -2.5517616e-01]
 [-3.7716812e-01  4.9632800e-01 -4.1289151e-01]
 [ 3.8533178e-01 -5.6611663e-01  2.8939223e-01]] 
Episode: 40: [[ 3.84049636e-04  3.11841548e-04  1.98120688e-04]
 [ 1.65074994e-03  8.66023998e-04 -1.65899482e-03]
 [-6.64548832e-04  1.31596753e-03  4.61371346e-05]
 [-1.63054347e-01 -3.40837270e-01  4.34488058e-02]
 [ 1.24752924e-01 -4.47867289e-02 -4.09857780e-02]
 [ 4.60274130e-01  5.22932529e-01 -3.82166266e-01]
 [ 2.28828922e-01 -4.59935278e-01  3.50034267e-01]
 [ 3.76306802e-01  4.86528069e-01  4.02935117e-01]
 [-1.96919635e-01  3.02677639e-02 -3.86198342e-01]
 [ 2.89376318e-01 -2.46923685e-01 -2.55171359e-01]
 [-3.77203315e-01  4.96335834e-01 -4.12880003e-01]
 [ 3.85318816e-01 -5.66081107e-01  2.89387256e-01]] 
Episode: 41: [[ 3.8237707e-04  2.8158783e-04  2.2429231e-04]
 [ 1.6645861e-03  8.8765717e-04 -1.6677874e-03]
 [-6.6585321e-04  1.3471788e-03  2.0420770e-05]
 [-1.6307147e-01 -3.4085056e-01  4.3454558e-02]
 [ 1.2473557e-01 -4.4757903e-02 -4.0997826e-02]
 [ 4.6028015e-01  5.2292514e-01 -3.8216117e-01]
 [ 2.2883011e-01 -4.5993403e-01  3.5003275e-01]
 [ 3.7630454e-01  4.8653015e-01  4.0293315e-01]
 [-1.9691856e-01  3.0268662e-02 -3.8619992e-01]
 [ 2.8938723e-01 -2.4697252e-01 -2.5515673e-01]
 [-3.7723735e-01  4.9634627e-01 -4.1286752e-01]
 [ 3.8531888e-01 -5.6604862e-01  2.8937384e-01]] 
Episode: 42: [[ 4.0484522e-04  2.3338388e-04  2.6075868e-04]
 [ 1.6944344e-03  9.2198385e-04 -1.6941167e-03]
 [-6.9224834e-04  1.4042192e-03 -7.6331971e-06]
 [-1.6307597e-01 -3.4087908e-01  4.3445982e-02]
 [ 1.2470767e-01 -4.4713926e-02 -4.1016590e-02]
 [ 4.6026281e-01  5.2291983e-01 -3.8213536e-01]
 [ 2.2884171e-01 -4.5992145e-01  3.5002020e-01]
 [ 3.7629065e-01  4.8654366e-01  4.0294549e-01]
 [-1.9690621e-01  3.0281289e-02 -3.8621345e-01]
 [ 2.8942484e-01 -2.4703790e-01 -2.5515908e-01]
 [-3.7726504e-01  4.9636930e-01 -4.1286942e-01]
 [ 3.8529292e-01 -5.6601155e-01  2.8937802e-01]] 
Episode: 43: [[ 4.2845641e-04  1.8840292e-04  2.9540400e-04]
 [ 1.7263147e-03  9.5643854e-04 -1.7201956e-03]
 [-7.2071102e-04  1.4596698e-03 -3.4188961e-05]
 [-1.6307871e-01 -3.4090725e-01  4.3435939e-02]
 [ 1.2468130e-01 -4.4669885e-02 -4.1036557e-02]
 [ 4.6024171e-01  5.2291203e-01 -3.8210708e-01]
 [ 2.2885242e-01 -4.5990968e-01  3.5000867e-01]
 [ 3.7627760e-01  4.8655626e-01  4.0295827e-01]
 [-1.9689506e-01  3.0293018e-02 -3.8622567e-01]
 [ 2.8946239e-01 -2.4709924e-01 -2.5516284e-01]
 [-3.7728944e-01  4.9639377e-01 -4.1287324e-01]
 [ 3.8526678e-01 -5.6598032e-01  2.8938293e-01]] 
Episode: 44: [[ 4.5062217e-04  1.4543533e-04  3.3218396e-04]
 [ 1.7643903e-03  9.9328975e-04 -1.7494508e-03]
 [-7.5076328e-04  1.5132568e-03 -6.4230175e-05]
 [-1.6308093e-01 -3.4093106e-01  4.3425217e-02]
 [ 1.2465658e-01 -4.4624928e-02 -4.1058544e-02]
 [ 4.6021974e-01  5.2290285e-01 -3.8207772e-01]
 [ 2.2886330e-01 -4.5989770e-01  3.4999698e-01]
 [ 3.7626472e-01  4.8656887e-01  4.0296966e-01]
 [-1.9688375e-01  3.0304940e-02 -3.8623804e-01]
 [ 2.8949806e-01 -2.4715678e-01 -2.5516561e-01]
 [-3.7730947e-01  4.9642041e-01 -4.1288313e-01]
 [ 3.8523811e-01 -5.6595516e-01  2.8938866e-01]] 
Episode: 45: [[ 4.68915765e-04  1.09456676e-04  3.64716863e-04]
 [ 1.79895177e-03  1.02225738e-03 -1.77520479e-03]
 [-7.75161665e-04  1.55744620e-03 -9.18699661e-05]
 [-1.63084209e-01 -3.40949595e-01  4.34180386e-02]
 [ 1.24636248e-01 -4.45882939e-02 -4.10758480e-02]
 [ 4.60202992e-01  5.22894323e-01 -3.82054567e-01]
 [ 2.28869870e-01 -4.59890217e-01  3.49989623e-01]
 [ 3.76256257e-01  4.86576974e-01  4.02976692e-01]
 [-1.96876884e-01  3.03123835e-02 -3.86245936e-01]
 [ 2.89527982e-01 -2.47202337e-01 -2.55167902e-01]
 [-3.77324581e-01  4.96440738e-01 -4.12892222e-01]
 [ 3.85212749e-01 -5.65933883e-01  2.89393544e-01]] 
Episode: 46: [[ 4.2880373e-04  1.3181927e-04  3.7265613e-04]
 [ 1.8246276e-03  1.0646883e-03 -1.7930769e-03]
 [-7.4898050e-04  1.5538458e-03 -9.1355279e-05]
 [-1.6313121e-01 -3.4092611e-01  4.3446165e-02]
 [ 1.2463139e-01 -4.4552095e-02 -4.1098528e-02]
 [ 4.6022496e-01  5.2287161e-01 -3.8206583e-01]
 [ 2.2886488e-01 -4.5989573e-01  3.4999448e-01]
 [ 3.7626261e-01  4.8657167e-01  4.0296301e-01]
 [-1.9688186e-01  3.0305754e-02 -3.8624141e-01]
 [ 2.8949666e-01 -2.4722695e-01 -2.5512785e-01]
 [-3.7735051e-01  4.9647218e-01 -4.1289252e-01]
 [ 3.8524729e-01 -5.6591618e-01  2.8936306e-01]] 
Episode: 47: [[ 3.8538213e-04  1.5945031e-04  3.7789979e-04]
 [ 1.8485858e-03  1.1058983e-03 -1.8045927e-03]
 [-7.1833649e-04  1.5443693e-03 -9.1758156e-05]
 [-1.6317959e-01 -3.4090114e-01  4.3475959e-02]
 [ 1.2462964e-01 -4.4518679e-02 -4.1121732e-02]
 [ 4.6024996e-01  5.2285135e-01 -3.8208032e-01]
 [ 2.2885926e-01 -4.5990217e-01  3.5000011e-01]
 [ 3.7626994e-01  4.8656541e-01  4.0294725e-01]
 [-1.9688724e-01  3.0298069e-02 -3.8623622e-01]
 [ 2.8946200e-01 -2.4724625e-01 -2.5508493e-01]
 [-3.7737268e-01  4.9650362e-01 -4.1289207e-01]
 [ 3.8528502e-01 -5.6590259e-01  2.8932786e-01]] 
Episode: 48: [[ 3.6453232e-04  1.6698871e-04  3.8883265e-04]
 [ 1.8749409e-03  1.1403126e-03 -1.8192532e-03]
 [-7.0864806e-04  1.5522194e-03 -1.0073918e-04]
 [-1.6321442e-01 -3.4089667e-01  4.3497629e-02]
 [ 1.2461763e-01 -4.4485845e-02 -4.1137818e-02]
 [ 4.6026254e-01  5.2284092e-01 -3.8208458e-01]
 [ 2.2886607e-01 -4.5989504e-01  3.4999278e-01]
 [ 3.7626228e-01  4.8657304e-01  4.0295056e-01]
 [-1.9688052e-01  3.0304702e-02 -3.8624388e-01]
 [ 2.8945068e-01 -2.4727328e-01 -2.5506085e-01]
 [-3.7739274e-01  4.9653080e-01 -4.1289562e-01]
 [ 3.8529935e-01 -5.6587952e-01  2.8930688e-01]] 
Episode: 49: [[ 3.42746702e-04  1.75385299e-04  3.99620883e-04]
 [ 1.89356320e-03  1.16511725e-03 -1.82979484e-03]
 [-6.95638766e-04  1.55478530e-03 -1.09937289e-04]
 [-1.63246349e-01 -3.40885878e-01  4.35192510e-02]
 [ 1.24610975e-01 -4.44612950e-02 -4.11493555e-02]
 [ 4.60277230e-01  5.22826016e-01 -3.82091910e-01]
 [ 2.28867948e-01 -4.59893227e-01  3.49990189e-01]
 [ 3.76259565e-01  4.86575574e-01  4.02948827e-01]
 [-1.96878821e-01  3.03062219e-02 -3.86246771e-01]
 [ 2.89437503e-01 -2.47288570e-01 -2.55037814e-01]
 [-3.77412051e-01  4.96550292e-01 -4.12895590e-01]
 [ 3.85315508e-01 -5.65861166e-01  2.89285898e-01]] 
Episode: 50: [[ 3.1605273e-04  2.0984361e-04  3.8394629e-04]
 [ 1.9245197e-03  1.1798933e-03 -1.8460702e-03]
 [-6.7120825e-04  1.5423230e-03 -9.0282716e-05]
 [-1.6327560e-01 -3.4087855e-01  4.3539099e-02]
 [ 1.2461165e-01 -4.4441193e-02 -4.1159127e-02]
 [ 4.6029323e-01  5.2283347e-01 -3.8210702e-01]
 [ 2.2886778e-01 -4.5989448e-01  3.4999079e-01]
 [ 3.7626132e-01  4.8657432e-01  4.0293610e-01]
 [-1.9687971e-01  3.0304333e-02 -3.8624609e-01]
 [ 2.8941473e-01 -2.4726757e-01 -2.5502294e-01]
 [-3.7739819e-01  4.9656519e-01 -4.1290319e-01]
 [ 3.8534203e-01 -5.6585664e-01  2.8927070e-01]] 
Episode: 51: [[ 2.81613728e-04  2.47677934e-04  3.70989146e-04]
 [ 1.94868317e-03  1.19872193e-03 -1.85692229e-03]
 [-6.41570485e-04  1.52478891e-03 -7.25572609e-05]
 [-1.63310349e-01 -3.40861142e-01  4.35632467e-02]
 [ 1.24615744e-01 -4.44204956e-02 -4.11702506e-02]
 [ 4.60312426e-01  5.22831321e-01 -3.82124394e-01]
 [ 2.28864506e-01 -4.59898889e-01  3.49994600e-01]
 [ 3.76266181e-01  4.86569911e-01  4.02922034e-01]
 [-1.96883649e-01  3.02992947e-02 -3.86242181e-01]
 [ 2.89384425e-01 -2.47246489e-01 -2.54998982e-01]
 [-3.77391458e-01  4.96582538e-01 -4.12905276e-01]
 [ 3.85375619e-01 -5.65855742e-01  2.89248139e-01]] 
Episode: 52: [[ 2.5101731e-04  2.8106116e-04  3.6050650e-04]
 [ 1.9704353e-03  1.2147255e-03 -1.8666749e-03]
 [-6.1488483e-04  1.5101206e-03 -5.8792422e-05]
 [-1.6334179e-01 -3.4084493e-01  4.3584511e-02]
 [ 1.2461842e-01 -4.4402543e-02 -4.1179780e-02]
 [ 4.6033046e-01  5.2283049e-01 -3.8213998e-01]
 [ 2.2886202e-01 -4.5990235e-01  3.4999755e-01]
 [ 3.7626997e-01  4.8656642e-01  4.0291002e-01]
 [-1.9688684e-01  3.0295309e-02 -3.8623908e-01]
 [ 2.8935710e-01 -2.4722764e-01 -2.5497741e-01]
 [-3.7738541e-01  4.9659768e-01 -4.1290766e-01]
 [ 3.8540554e-01 -5.6585348e-01  2.8922749e-01]] 
Episode: 53: [[ 2.2308571e-04  3.1447847e-04  3.4869355e-04]
 [ 1.9898473e-03  1.2330513e-03 -1.8721607e-03]
 [-5.9213920e-04  1.4959490e-03 -4.5075183e-05]
 [-1.6336891e-01 -3.4083366e-01  4.3601125e-02]
 [ 1.2462111e-01 -4.4389408e-02 -4.1189428e-02]
 [ 4.6034464e-01  5.2283603e-01 -3.8215244e-01]
 [ 2.2886290e-01 -4.5990252e-01  3.4999719e-01]
 [ 3.7627044e-01  4.8656622e-01  4.0290222e-01]
 [-1.9688679e-01  3.0294448e-02 -3.8623911e-01]
 [ 2.8933311e-01 -2.4721120e-01 -2.5495854e-01]
 [-3.7737158e-01  4.9661610e-01 -4.1291502e-01]
 [ 3.8543078e-01 -5.6585741e-01  2.8920874e-01]] 
Episode: 54: [[ 1.8778589e-04  3.5731183e-04  3.3184639e-04]
 [ 1.9969824e-03  1.2409256e-03 -1.8682851e-03]
 [-5.6185073e-04  1.4654804e-03 -2.7403808e-05]
 [-1.6339469e-01 -3.4080729e-01  4.3618713e-02]
 [ 1.2464118e-01 -4.4389922e-02 -4.1200709e-02]
 [ 4.6036294e-01  5.2283376e-01 -3.8217044e-01]
 [ 2.2885582e-01 -4.5991081e-01  3.5000503e-01]
 [ 3.7627795e-01  4.8655820e-01  4.0289283e-01]
 [-1.9689532e-01  3.0285582e-02 -3.8623026e-01]
 [ 2.8930086e-01 -2.4717876e-01 -2.5493577e-01]
 [-3.7735572e-01  4.9662706e-01 -4.1291794e-01]
 [ 3.8546371e-01 -5.6588072e-01  2.8918621e-01]] 
Episode: 55: [[ 1.55056405e-04  3.97250638e-04  3.17081256e-04]
 [ 2.00310140e-03  1.24487339e-03 -1.86237227e-03]
 [-5.32474078e-04  1.43562839e-03 -1.37857305e-05]
 [-1.63418606e-01 -3.40781122e-01  4.36359681e-02]
 [ 1.24662042e-01 -4.43940200e-02 -4.12098505e-02]
 [ 4.60381955e-01  5.22829950e-01 -3.82188737e-01]
 [ 2.28846520e-01 -4.59921330e-01  3.50014895e-01]
 [ 3.76287520e-01  4.86548007e-01  4.02881593e-01]
 [-1.96905985e-01  3.02745756e-02 -3.86219442e-01]
 [ 2.89270341e-01 -2.47145846e-01 -2.54914224e-01]
 [-3.77340138e-01  4.96633917e-01 -4.12919313e-01]
 [ 3.85494977e-01 -5.65901756e-01  2.89163202e-01]] 
Episode: 56: [[ 1.2678976e-04  4.3064190e-04  3.0482758e-04]
 [ 2.0129408e-03  1.2549940e-03 -1.8632093e-03]
 [-5.0931808e-04  1.4141516e-03  7.0121786e-07]
 [-1.6344239e-01 -3.4076107e-01  4.3650892e-02]
 [ 1.2467317e-01 -4.4390216e-02 -4.1219916e-02]
 [ 4.6039701e-01  5.2283037e-01 -3.8220233e-01]
 [ 2.2884357e-01 -4.5992526e-01  3.5001826e-01]
 [ 3.7629014e-01  4.8654449e-01  4.0287849e-01]
 [-1.9691053e-01  3.0270277e-02 -3.8621500e-01]
 [ 2.8924522e-01 -2.4712513e-01 -2.5489596e-01]
 [-3.7732875e-01  4.9664521e-01 -4.1292399e-01]
 [ 3.8552022e-01 -5.6591678e-01  2.8914684e-01]] 
Episode: 57: [[ 1.0408433e-04  4.5811333e-04  2.9422951e-04]
 [ 2.0181949e-03  1.2593383e-03 -1.8640404e-03]
 [-4.9031235e-04  1.3952052e-03  1.5087988e-05]
 [-1.6346225e-01 -3.4074339e-01  4.3663658e-02]
 [ 1.2468154e-01 -4.4389535e-02 -4.1224081e-02]
 [ 4.6040925e-01  5.2283168e-01 -3.8221380e-01]
 [ 2.2884199e-01 -4.5992777e-01  3.5002005e-01]
 [ 3.7629083e-01  4.8654258e-01  4.0287969e-01]
 [-1.9691360e-01  3.0267721e-02 -3.8621223e-01]
 [ 2.8922611e-01 -2.4710378e-01 -2.5488546e-01]
 [-3.7731844e-01  4.9665183e-01 -4.1292739e-01]
 [ 3.8553986e-01 -5.6593180e-01  2.8913802e-01]] 
Episode: 58: [[ 8.7125234e-05  4.7630025e-04  2.8710562e-04]
 [ 2.0235886e-03  1.2659075e-03 -1.8750912e-03]
 [-4.7961465e-04  1.3870570e-03  3.3557517e-05]
 [-1.6348182e-01 -3.4073180e-01  4.3672886e-02]
 [ 1.2467698e-01 -4.4378150e-02 -4.1227240e-02]
 [ 4.6041659e-01  5.2283615e-01 -3.8221875e-01]
 [ 2.2884658e-01 -4.5992377e-01  3.5001490e-01]
 [ 3.7628329e-01  4.8654780e-01  4.0289032e-01]
 [-1.9691119e-01  3.0271964e-02 -3.8621610e-01]
 [ 2.8921255e-01 -2.4709404e-01 -2.5488025e-01]
 [-3.7732103e-01  4.9666038e-01 -4.1292915e-01]
 [ 3.8555458e-01 -5.6594151e-01  2.8914011e-01]] 
Episode: 59: [[ 7.4522723e-05  4.8958708e-04  2.8251554e-04]
 [ 2.0307843e-03  1.2742525e-03 -1.8888599e-03]
 [-4.7385274e-04  1.3851997e-03  5.0528070e-05]
 [-1.6350022e-01 -3.4072614e-01  4.3679677e-02]
 [ 1.2466464e-01 -4.4360694e-02 -4.1230224e-02]
 [ 4.6042126e-01  5.2284449e-01 -3.8222012e-01]
 [ 2.2885418e-01 -4.5991668e-01  3.5000661e-01]
 [ 3.7627214e-01  4.8655626e-01  4.0290451e-01]
 [-1.9690587e-01  3.0279521e-02 -3.8622314e-01]
 [ 2.8920373e-01 -2.4709128e-01 -2.5487870e-01]
 [-3.7732923e-01  4.9667007e-01 -4.1292900e-01]
 [ 3.8556519e-01 -5.6594580e-01  2.8914616e-01]] 
Episode: 60: [[ 6.06954673e-05  5.05049364e-04  2.82207999e-04]
 [ 2.03614240e-03  1.27762614e-03 -1.89304585e-03]
 [-4.65550809e-04  1.37820910e-03  5.69170770e-05]
 [-1.63517326e-01 -3.40720236e-01  4.36874926e-02]
 [ 1.24659784e-01 -4.43566106e-02 -4.12324667e-02]
 [ 4.60428655e-01  5.22851586e-01 -3.82223934e-01]
 [ 2.28860214e-01 -4.59910959e-01  3.50000232e-01]
 [ 3.76262367e-01  4.86563265e-01  4.02917355e-01]
 [-1.96902335e-01  3.02856583e-02 -3.86227965e-01]
 [ 2.89192885e-01 -2.47083098e-01 -2.54872590e-01]
 [-3.77328098e-01  4.96675581e-01 -4.12930459e-01]
 [ 3.85575920e-01 -5.65958083e-01  2.89144695e-01]] 
Episode: 61: [[ 4.7801215e-05  5.1886257e-04  2.8241149e-04]
 [ 2.0389301e-03  1.2793397e-03 -1.8951594e-03]
 [-4.5704623e-04  1.3692611e-03  6.1575520e-05]
 [-1.6353309e-01 -3.4071133e-01  4.3696944e-02]
 [ 1.2465687e-01 -4.4354502e-02 -4.1232675e-02]
 [ 4.6043858e-01  5.2285415e-01 -3.8223061e-01]
 [ 2.2886373e-01 -4.5990777e-01  3.4999645e-01]
 [ 3.7625572e-01  4.8656756e-01  4.0292624e-01]
 [-1.9690098e-01  3.0289197e-02 -3.8623041e-01]
 [ 2.8918234e-01 -2.4707481e-01 -2.5486550e-01]
 [-3.7732807e-01  4.9667820e-01 -4.1292953e-01]
 [ 3.8558695e-01 -5.6596839e-01  2.8914088e-01]] 
Episode: 62: [[ 2.9295621e-05  5.5133720e-04  2.6159224e-04]
 [ 2.0371464e-03  1.2746635e-03 -1.9003240e-03]
 [-4.3875963e-04  1.3476054e-03  9.2566370e-05]
 [-1.6354814e-01 -3.4070256e-01  4.3707319e-02]
 [ 1.2465455e-01 -4.4354372e-02 -4.1224733e-02]
 [ 4.6044943e-01  5.2287108e-01 -3.8224399e-01]
 [ 2.2886571e-01 -4.5990616e-01  3.4999448e-01]
 [ 3.7625131e-01  4.8656994e-01  4.0293300e-01]
 [-1.9690122e-01  3.0291270e-02 -3.8623106e-01]
 [ 2.8916332e-01 -2.4704500e-01 -2.5486472e-01]
 [-3.7731776e-01  4.9667558e-01 -4.1292512e-01]
 [ 3.8560858e-01 -5.6598842e-01  2.8914544e-01]] 
Episode: 63: [[ 1.42024737e-05  5.78081817e-04  2.45295989e-04]
 [ 2.03838409e-03  1.27412635e-03 -1.90668483e-03]
 [-4.26534738e-04  1.33069244e-03  1.19713935e-04]
 [-1.63558722e-01 -3.40694845e-01  4.37143259e-02]
 [ 1.24651775e-01 -4.43504266e-02 -4.12209891e-02]
 [ 4.60454166e-01  5.22884548e-01 -3.82252157e-01]
 [ 2.28867948e-01 -4.59904224e-01  3.49992216e-01]
 [ 3.76246899e-01  4.86572564e-01  4.02939409e-01]
 [-1.96900949e-01  3.02935820e-02 -3.86232138e-01]
 [ 2.89147377e-01 -2.47020245e-01 -2.54863769e-01]
 [-3.77310127e-01  4.96674448e-01 -4.12921309e-01]
 [ 3.85624737e-01 -5.66009164e-01  2.89151549e-01]] 
Episode: 64: [[-4.0305313e-06  6.0587475e-04  2.3277290e-04]
 [ 2.0390085e-03  1.2675442e-03 -1.9079557e-03]
 [-4.1176038e-04  1.3092239e-03  1.4028132e-04]
 [-1.6357064e-01 -3.4067780e-01  4.3725383e-02]
 [ 1.2465675e-01 -4.4351671e-02 -4.1215468e-02]
 [ 4.6046290e-01  5.2288997e-01 -3.8226458e-01]
 [ 2.2886050e-01 -4.5991224e-01  3.4999946e-01]
 [ 3.7625188e-01  4.8656559e-01  4.0293652e-01]
 [-1.9691038e-01  3.0286057e-02 -3.8622370e-01]
 [ 2.8912827e-01 -2.4698561e-01 -2.5486028e-01]
 [-3.7730318e-01  4.9666733e-01 -4.1291401e-01]
 [ 3.8564146e-01 -5.6603253e-01  2.8915331e-01]] 
Episode: 65: [[-2.4183862e-05  6.3318998e-04  2.2210777e-04]
 [ 2.0396092e-03  1.2647986e-03 -1.9076931e-03]
 [-3.9534117e-04  1.2881148e-03  1.5807852e-04]
 [-1.6358429e-01 -3.4065992e-01  4.3736968e-02]
 [ 1.2466165e-01 -4.4351805e-02 -4.1212093e-02]
 [ 4.6047339e-01  5.2289444e-01 -3.8227746e-01]
 [ 2.2885363e-01 -4.5991954e-01  3.5000616e-01]
 [ 3.7625641e-01  4.8655921e-01  4.0293372e-01]
 [-1.9691919e-01  3.0279210e-02 -3.8621584e-01]
 [ 2.8910711e-01 -2.4695459e-01 -2.5485307e-01]
 [-3.7729806e-01  4.9666283e-01 -4.1290635e-01]
 [ 3.8566029e-01 -5.6605417e-01  2.8915134e-01]] 
Episode: 66: [[-3.5142173e-05  6.4073980e-04  2.2975386e-04]
 [ 2.0365187e-03  1.2587295e-03 -1.8983674e-03]
 [-3.8764428e-04  1.2798754e-03  1.5466349e-04]
 [-1.6358678e-01 -3.4063509e-01  4.3740176e-02]
 [ 1.2467451e-01 -4.4363257e-02 -4.1210525e-02]
 [ 4.6047738e-01  5.2288014e-01 -3.8228214e-01]
 [ 2.2884114e-01 -4.5993280e-01  3.5001826e-01]
 [ 3.7626705e-01  4.8654690e-01  4.0292731e-01]
 [-1.9693294e-01  3.0266073e-02 -3.8620272e-01]
 [ 2.8909382e-01 -2.4692988e-01 -2.5484550e-01]
 [-3.7729844e-01  4.9665451e-01 -4.1289496e-01]
 [ 3.8566893e-01 -5.6607056e-01  2.8914407e-01]] 
Episode: 67: [[-4.0651194e-05  6.4383418e-04  2.3989672e-04]
 [ 2.0316045e-03  1.2479903e-03 -1.8913207e-03]
 [-3.8448747e-04  1.2735889e-03  1.5087888e-04]
 [-1.6358182e-01 -3.4061047e-01  4.3737587e-02]
 [ 1.2468960e-01 -4.4378296e-02 -4.1207679e-02]
 [ 4.6047574e-01  5.2286279e-01 -3.8228211e-01]
 [ 2.2882879e-01 -4.5994589e-01  3.5003015e-01]
 [ 3.7627789e-01  4.8653468e-01  4.0292045e-01]
 [-1.9694605e-01  3.0253166e-02 -3.8619015e-01]
 [ 2.8908616e-01 -2.4690434e-01 -2.5484443e-01]
 [-3.7729675e-01  4.9664363e-01 -4.1288558e-01]
 [ 3.8567218e-01 -5.6609398e-01  2.8914475e-01]] 
Episode: 68: [[-4.2404026e-05  6.3374045e-04  2.6632965e-04]
 [ 2.0271237e-03  1.2406235e-03 -1.8826971e-03]
 [-3.8686107e-04  1.2782629e-03  1.2859743e-04]
 [-1.6357449e-01 -3.4058556e-01  4.3732215e-02]
 [ 1.2470516e-01 -4.4393890e-02 -4.1207526e-02]
 [ 4.6047208e-01  5.2283716e-01 -3.8227677e-01]
 [ 2.2881547e-01 -4.5995989e-01  3.5004285e-01]
 [ 3.7628955e-01  4.8652163e-01  4.0291405e-01]
 [-1.9695981e-01  3.0239198e-02 -3.8617685e-01]
 [ 2.8908354e-01 -2.4688990e-01 -2.5483993e-01]
 [-3.7730211e-01  4.9663579e-01 -4.1287819e-01]
 [ 3.8566804e-01 -5.6610805e-01  2.8914034e-01]] 
Episode: 69: [[-4.5532975e-05  6.2451448e-04  2.9775695e-04]
 [ 2.0236063e-03  1.2358506e-03 -1.8742089e-03]
 [-3.8857848e-04  1.2854426e-03  1.0141685e-04]
 [-1.6357139e-01 -3.4056440e-01  4.3726485e-02]
 [ 1.2471787e-01 -4.4411428e-02 -4.1208383e-02]
 [ 4.6047047e-01  5.2281785e-01 -3.8226968e-01]
 [ 2.2881038e-01 -4.5996556e-01  3.5004708e-01]
 [ 3.7629211e-01  4.8651719e-01  4.0291601e-01]
 [-1.9696531e-01  3.0233931e-02 -3.8617232e-01]
 [ 2.8908339e-01 -2.4687983e-01 -2.5483632e-01]
 [-3.7730464e-01  4.9663138e-01 -4.1287434e-01]
 [ 3.8566259e-01 -5.6612146e-01  2.8913650e-01]] 
Episode: 70: [[-4.5827375e-05  6.1331945e-04  3.2769717e-04]
 [ 2.0224596e-03  1.2309582e-03 -1.8666070e-03]
 [-3.9074995e-04  1.2938194e-03  7.4972129e-05]
 [-1.6356558e-01 -3.4054837e-01  4.3720815e-02]
 [ 1.2473029e-01 -4.4428047e-02 -4.1207694e-02]
 [ 4.6046764e-01  5.2279913e-01 -3.8226303e-01]
 [ 2.2880265e-01 -4.5997396e-01  3.5005403e-01]
 [ 3.7629864e-01  4.8650983e-01  4.0291131e-01]
 [-1.9697279e-01  3.0225692e-02 -3.8616547e-01]
 [ 2.8908572e-01 -2.4687135e-01 -2.5483453e-01]
 [-3.7730765e-01  4.9662638e-01 -4.1286969e-01]
 [ 3.8565481e-01 -5.6613028e-01  2.8913388e-01]] 
Episode: 71: [[-4.9728140e-05  6.0379365e-04  3.5691028e-04]
 [ 2.0249656e-03  1.2315453e-03 -1.8593256e-03]
 [-3.9001775e-04  1.3012721e-03  4.8657708e-05]
 [-1.6356446e-01 -3.4053385e-01  4.3718670e-02]
 [ 1.2473917e-01 -4.4439007e-02 -4.1208223e-02]
 [ 4.6046692e-01  5.2278113e-01 -3.8225818e-01]
 [ 2.2879575e-01 -4.5998138e-01  3.5006034e-01]
 [ 3.7630430e-01  4.8650330e-01  4.0290701e-01]
 [-1.9697966e-01  3.0218391e-02 -3.8615915e-01]
 [ 2.8908503e-01 -2.4686639e-01 -2.5482830e-01]
 [-3.7731242e-01  4.9662560e-01 -4.1286495e-01]
 [ 3.8565019e-01 -5.6613630e-01  2.8912726e-01]] 
Episode: 72: [[-5.4721218e-05  5.8727723e-04  3.9593244e-04]
 [ 2.0189825e-03  1.2230454e-03 -1.8476881e-03]
 [-3.8589101e-04  1.3101657e-03  9.5733467e-06]
 [-1.6356872e-01 -3.4051231e-01  4.3723598e-02]
 [ 1.2474908e-01 -4.4458102e-02 -4.1201849e-02]
 [ 4.6047351e-01  5.2275348e-01 -3.8225803e-01]
 [ 2.2878419e-01 -4.5999399e-01  3.5007095e-01]
 [ 3.7631392e-01  4.8649216e-01  4.0290102e-01]
 [-1.9699141e-01  3.0206021e-02 -3.8614824e-01]
 [ 2.8908479e-01 -2.4686313e-01 -2.5481752e-01]
 [-3.7732589e-01  4.9661687e-01 -4.1285497e-01]
 [ 3.8564423e-01 -5.6613159e-01  2.8911355e-01]] 
Episode: 73: [[-6.6217523e-05  5.7577016e-04  4.3162878e-04]
 [ 1.9993302e-03  1.1973447e-03 -1.8296597e-03]
 [-3.7076895e-04  1.3065321e-03 -2.6634752e-05]
 [-1.6357212e-01 -3.4047243e-01  4.3733887e-02]
 [ 1.2477571e-01 -4.4490300e-02 -4.1187849e-02]
 [ 4.6048814e-01  5.2270901e-01 -3.8226786e-01]
 [ 2.2875878e-01 -4.6002084e-01  3.5009491e-01]
 [ 3.7633687e-01  4.8646721e-01  4.0288231e-01]
 [-1.9701721e-01  3.0179814e-02 -3.8612404e-01]
 [ 2.8907585e-01 -2.4683844e-01 -2.5480461e-01]
 [-3.7734249e-01  4.9659309e-01 -4.1283417e-01]
 [ 3.8564825e-01 -5.6612986e-01  2.8909495e-01]] 
Episode: 74: [[-8.1624028e-05  5.6438096e-04  4.6907042e-04]
 [ 1.9761191e-03  1.1710472e-03 -1.8084757e-03]
 [-3.5524144e-04  1.2999574e-03 -6.4110412e-05]
 [-1.6357887e-01 -3.4042361e-01  4.3749053e-02]
 [ 1.2480397e-01 -4.4519570e-02 -4.1173607e-02]
 [ 4.6050459e-01  5.2265662e-01 -3.8228029e-01]
 [ 2.2872588e-01 -4.6005538e-01  3.5012645e-01]
 [ 3.7636742e-01  4.8643467e-01  4.0285662e-01]
 [-1.9705032e-01  3.0145729e-02 -3.8609213e-01]
 [ 2.8906611e-01 -2.4681285e-01 -2.5479084e-01]
 [-3.7736872e-01  4.9656817e-01 -4.1280630e-01]
 [ 3.8565189e-01 -5.6613064e-01  2.8907591e-01]] 
Episode: 75: [[-9.5757154e-05  5.5080187e-04  5.0267676e-04]
 [ 1.9484892e-03  1.1419774e-03 -1.8009455e-03]
 [-3.3814623e-04  1.2991397e-03 -9.0657384e-05]
 [-1.6360281e-01 -3.4038287e-01  4.3778032e-02]
 [ 1.2480610e-01 -4.4528730e-02 -4.1148726e-02]
 [ 4.6053320e-01  5.2261472e-01 -3.8230175e-01]
 [ 2.2869946e-01 -4.6008286e-01  3.5015103e-01]
 [ 3.7638932e-01  4.8640963e-01  4.0284091e-01]
 [-1.9707806e-01  3.0119358e-02 -3.8606659e-01]
 [ 2.8905988e-01 -2.4679993e-01 -2.5478095e-01]
 [-3.7741825e-01  4.9654067e-01 -4.1276717e-01]
 [ 3.8565922e-01 -5.6610566e-01  2.8906497e-01]] 
Episode: 76: [[-1.1103517e-04  5.3711049e-04  5.3454621e-04]
 [ 1.9201221e-03  1.1152837e-03 -1.7937280e-03]
 [-3.1698390e-04  1.2963932e-03 -1.1566098e-04]
 [-1.6362615e-01 -3.4034446e-01  4.3806568e-02]
 [ 1.2480931e-01 -4.4538055e-02 -4.1124232e-02]
 [ 4.6056131e-01  5.2257144e-01 -3.8232303e-01]
 [ 2.2867638e-01 -4.6010691e-01  3.5017303e-01]
 [ 3.7640935e-01  4.8638755e-01  4.0282506e-01]
 [-1.9710205e-01  3.0096067e-02 -3.8604382e-01]
 [ 2.8905246e-01 -2.4678859e-01 -2.5476986e-01]
 [-3.7746549e-01  4.9651402e-01 -4.1272846e-01]
 [ 3.8567108e-01 -5.6608438e-01  2.8905213e-01]] 
Episode: 77: [[-1.2434095e-04  5.2489812e-04  5.6157366e-04]
 [ 1.8911297e-03  1.0876268e-03 -1.7850784e-03]
 [-2.9671038e-04  1.2920388e-03 -1.3739824e-04]
 [-1.6364615e-01 -3.4031001e-01  4.3832842e-02]
 [ 1.2481355e-01 -4.4549804e-02 -4.1099370e-02]
 [ 4.6058738e-01  5.2253222e-01 -3.8234383e-01]
 [ 2.2865283e-01 -4.6013144e-01  3.5019565e-01]
 [ 3.7643036e-01  4.8636481e-01  4.0280768e-01]
 [-1.9712631e-01  3.0072153e-02 -3.8602054e-01]
 [ 2.8904536e-01 -2.4677655e-01 -2.5476038e-01]
 [-3.7750843e-01  4.9648663e-01 -4.1269138e-01]
 [ 3.8568217e-01 -5.6606460e-01  2.8904063e-01]] 
Episode: 78: [[-1.2540015e-04  4.8220158e-04  6.1048876e-04]
 [ 1.8512065e-03  1.0467293e-03 -1.7609081e-03]
 [-2.8486279e-04  1.3035624e-03 -1.8554390e-04]
 [-1.6364914e-01 -3.4027386e-01  4.3852862e-02]
 [ 1.2482647e-01 -4.4573668e-02 -4.1073166e-02]
 [ 4.6061060e-01  5.2247274e-01 -3.8236082e-01]
 [ 2.2861199e-01 -4.6017295e-01  3.5023531e-01]
 [ 3.7646872e-01  4.8632479e-01  4.0277505e-01]
 [-1.9716701e-01  3.0030603e-02 -3.8598037e-01]
 [ 2.8904754e-01 -2.4677032e-01 -2.5475174e-01]
 [-3.7757275e-01  4.9643785e-01 -4.1263175e-01]
 [ 3.8568175e-01 -5.6602722e-01  2.8902113e-01]] 
Episode: 79: [[-1.2472611e-04  4.4225174e-04  6.5515039e-04]
 [ 1.8158137e-03  1.0103098e-03 -1.7391300e-03]
 [-2.7560908e-04  1.3156586e-03 -2.2969347e-04]
 [-1.6365041e-01 -3.4024286e-01  4.3869089e-02]
 [ 1.2483858e-01 -4.4595342e-02 -4.1050959e-02]
 [ 4.6062952e-01  5.2241969e-01 -3.8237417e-01]
 [ 2.2857533e-01 -4.6021017e-01  3.5027087e-01]
 [ 3.7650302e-01  4.8628891e-01  4.0274614e-01]
 [-1.9720359e-01  2.9993407e-02 -3.8594437e-01]
 [ 2.8905058e-01 -2.4676637e-01 -2.5474468e-01]
 [-3.7763008e-01  4.9639434e-01 -4.1257894e-01]
 [ 3.8568032e-01 -5.6599301e-01  2.8900370e-01]] 
Episode: 80: [[-1.2457145e-04  4.0350444e-04  6.9929135e-04]
 [ 1.7837653e-03  9.8138698e-04 -1.7204109e-03]
 [-2.6838129e-04  1.3298682e-03 -2.7203554e-04]
 [-1.6365269e-01 -3.4021652e-01  4.3883398e-02]
 [ 1.2484538e-01 -4.4611834e-02 -4.1030992e-02]
 [ 4.6064585e-01  5.2237272e-01 -3.8238439e-01]
 [ 2.2854491e-01 -4.6024090e-01  3.5030022e-01]
 [ 3.7653133e-01  4.8625940e-01  4.0272194e-01]
 [-1.9723393e-01  2.9962797e-02 -3.8591468e-01]
 [ 2.8905493e-01 -2.4676751e-01 -2.5473821e-01]
 [-3.7768593e-01  4.9635836e-01 -4.1253048e-01]
 [ 3.8567701e-01 -5.6596118e-01  2.8898904e-01]] 
Episode: 81: [[-1.2369157e-04  3.6845583e-04  7.4123318e-04]
 [ 1.7588814e-03  9.5623493e-04 -1.7063714e-03]
 [-2.6356059e-04  1.3428514e-03 -3.1251434e-04]
 [-1.6365208e-01 -3.4018981e-01  4.3893948e-02]
 [ 1.2485569e-01 -4.4626925e-02 -4.1016504e-02]
 [ 4.6065876e-01  5.2232724e-01 -3.8239172e-01]
 [ 2.2851634e-01 -4.6026984e-01  3.5032773e-01]
 [ 3.7655801e-01  4.8623157e-01  4.0269879e-01]
 [-1.9726239e-01  2.9933939e-02 -3.8588688e-01]
 [ 2.8905901e-01 -2.4676678e-01 -2.5473249e-01]
 [-3.7773374e-01  4.9632627e-01 -4.1249079e-01]
 [ 3.8567263e-01 -5.6593484e-01  2.8897658e-01]] 
Episode: 82: [[-1.2225324e-04  3.3819460e-04  7.7700731e-04]
 [ 1.7353353e-03  9.3364663e-04 -1.6913789e-03]
 [-2.6044046e-04  1.3532923e-03 -3.4802503e-04]
 [-1.6364855e-01 -3.4016579e-01  4.3900698e-02]
 [ 1.2486635e-01 -4.4641204e-02 -4.1004922e-02]
 [ 4.6066818e-01  5.2228707e-01 -3.8239694e-01]
 [ 2.2848867e-01 -4.6029779e-01  3.5035461e-01]
 [ 3.7658429e-01  4.8620448e-01  4.0267569e-01]
 [-1.9728988e-01  2.9905954e-02 -3.8585976e-01]
 [ 2.8906271e-01 -2.4676576e-01 -2.5472730e-01]
 [-3.7777525e-01  4.9629790e-01 -4.1245502e-01]
 [ 3.8566867e-01 -5.6591403e-01  2.8896439e-01]] 
Episode: 83: [[-1.2036580e-04  3.0987905e-04  8.0957351e-04]
 [ 1.7119652e-03  9.0780377e-04 -1.6763334e-03]
 [-2.5674631e-04  1.3609951e-03 -3.8055965e-04]
 [-1.6364393e-01 -3.4014225e-01  4.3906372e-02]
 [ 1.2487875e-01 -4.4658437e-02 -4.0993031e-02]
 [ 4.6067786e-01  5.2224773e-01 -3.8240251e-01]
 [ 2.2846229e-01 -4.6032441e-01  3.5038012e-01]
 [ 3.7660930e-01  4.8617867e-01  4.0265328e-01]
 [-1.9731621e-01  2.9879518e-02 -3.8583407e-01]
 [ 2.8906581e-01 -2.4676150e-01 -2.5472361e-01]
 [-3.7781167e-01  4.9626738e-01 -4.1242090e-01]
 [ 3.8566628e-01 -5.6589687e-01  2.8895327e-01]] 
Episode: 84: [[-1.18784475e-04  2.83095025e-04  8.43751535e-04]
 [ 1.69910584e-03  8.90788797e-04 -1.66574807e-03]
 [-2.55977124e-04  1.37010415e-03 -4.15503338e-04]
 [-1.63642019e-01 -3.40120912e-01  4.39121127e-02]
 [ 1.24888860e-01 -4.46694233e-02 -4.09866199e-02]
 [ 4.60685939e-01  5.22211432e-01 -3.82405311e-01]
 [ 2.28440747e-01 -4.60345984e-01  3.50400805e-01]
 [ 3.76629442e-01  4.86157835e-01  4.02634799e-01]
 [-1.97337851e-01  2.98581831e-02 -3.85813177e-01]
 [ 2.89070010e-01 -2.46761858e-01 -2.54718155e-01]
 [-3.77842963e-01  4.96245414e-01 -4.12395746e-01]
 [ 3.85661274e-01 -5.65882921e-01  2.88941860e-01]] 
Episode: 85: [[-1.2580051e-04  2.6611827e-04  8.7287789e-04]
 [ 1.6734395e-03  8.5507019e-04 -1.6468012e-03]
 [-2.4187587e-04  1.3622205e-03 -4.4727389e-04]
 [-1.6364138e-01 -3.4008348e-01  4.3924842e-02]
 [ 1.2491490e-01 -4.4698257e-02 -4.0971119e-02]
 [ 4.6070394e-01  5.2216470e-01 -3.8241988e-01]
 [ 2.2840719e-01 -4.6038005e-01  3.5043305e-01]
 [ 3.7666094e-01  4.8612505e-01  4.0260524e-01]
 [-1.9737190e-01  2.9824778e-02 -3.8578060e-01]
 [ 2.8906405e-01 -2.4673714e-01 -2.5471088e-01]
 [-3.7787160e-01  4.9620825e-01 -4.1236296e-01]
 [ 3.8566703e-01 -5.6587708e-01  2.8892550e-01]] 
Episode: 86: [[-1.6428581e-04  2.9685529e-04  8.6801150e-04]
 [ 1.6352291e-03  7.9570926e-04 -1.6213503e-03]
 [-1.9455353e-04  1.3112336e-03 -4.4649746e-04]
 [-1.6365008e-01 -3.4001526e-01  4.3947168e-02]
 [ 1.2497842e-01 -4.4756688e-02 -4.0956598e-02]
 [ 4.6073705e-01  5.2211249e-01 -3.8245440e-01]
 [ 2.2835499e-01 -4.6043405e-01  3.5048503e-01]
 [ 3.7671298e-01  4.8607185e-01  4.0255636e-01]
 [-1.9742537e-01  2.9770618e-02 -3.8572747e-01]
 [ 2.8902140e-01 -2.4666968e-01 -2.5469333e-01]
 [-3.7786379e-01  4.9615598e-01 -4.1233984e-01]
 [ 3.8570899e-01 -5.6590545e-01  2.8890470e-01]] 
Episode: 87: [[-2.0200387e-04  3.2448574e-04  8.6592056e-04]
 [ 1.6001741e-03  7.4301334e-04 -1.5982463e-03]
 [-1.5098198e-04  1.2644170e-03 -4.4564594e-04]
 [-1.6365901e-01 -3.3994889e-01  4.3967545e-02]
 [ 1.2503526e-01 -4.4807848e-02 -4.0943656e-02]
 [ 4.6076670e-01  5.2206028e-01 -3.8248482e-01]
 [ 2.2830790e-01 -4.6048275e-01  3.5053194e-01]
 [ 3.7676010e-01  4.8602384e-01  4.0251210e-01]
 [-1.9747342e-01  2.9721754e-02 -3.8567957e-01]
 [ 2.8898066e-01 -2.4660777e-01 -2.5467622e-01]
 [-3.7786019e-01  4.9610943e-01 -4.1231614e-01]
 [ 3.8574809e-01 -5.6593537e-01  2.8888720e-01]] 
Episode: 88: [[-2.4908961e-04  3.5753980e-04  8.6545048e-04]
 [ 1.5660858e-03  6.9773715e-04 -1.5702845e-03]
 [-9.9846475e-05  1.2139896e-03 -4.4820592e-04]
 [-1.6367845e-01 -3.3987844e-01  4.3995123e-02]
 [ 1.2509312e-01 -4.4857152e-02 -4.0934760e-02]
 [ 4.6080446e-01  5.2200836e-01 -3.8252100e-01]
 [ 2.2825976e-01 -4.6053252e-01  3.5058004e-01]
 [ 3.7680894e-01  4.8597446e-01  4.0246296e-01]
 [-1.9752234e-01  2.9671593e-02 -3.8563076e-01]
 [ 2.8893214e-01 -2.4654706e-01 -2.5464651e-01]
 [-3.7785801e-01  4.9606845e-01 -4.1228965e-01]
 [ 3.8579497e-01 -5.6596541e-01  2.8885666e-01]] 
Episode: 89: [[-2.9297959e-04  3.8771535e-04  8.6574140e-04]
 [ 1.5324157e-03  6.5252552e-04 -1.5444339e-03]
 [-5.0534007e-05  1.1664855e-03 -4.5117555e-04]
 [-1.6369510e-01 -3.3981109e-01  4.4020418e-02]
 [ 1.2514970e-01 -4.4905331e-02 -4.0925089e-02]
 [ 4.6083993e-01  5.2195877e-01 -3.8255560e-01]
 [ 2.2821303e-01 -4.6058106e-01  3.5062647e-01]
 [ 3.7685627e-01  4.8592654e-01  4.0241483e-01]
 [-1.9756985e-01  2.9622797e-02 -3.8558367e-01]
 [ 2.8888667e-01 -2.4648774e-01 -2.5461951e-01]
 [-3.7785578e-01  4.9602774e-01 -4.1226447e-01]
 [ 3.8583887e-01 -5.6599343e-01  2.8882843e-01]] 
Episode: 90: [[-3.3011186e-04  4.1274441e-04  8.6704327e-04]
 [ 1.4998338e-03  6.1262480e-04 -1.5217798e-03]
 [-9.3592053e-06  1.1263797e-03 -4.5388102e-04]
 [-1.6370820e-01 -3.3975199e-01  4.4040479e-02]
 [ 1.2519865e-01 -4.4947736e-02 -4.0916629e-02]
 [ 4.6086937e-01  5.2191645e-01 -3.8258421e-01]
 [ 2.2817361e-01 -4.6062195e-01  3.5066569e-01]
 [ 3.7689564e-01  4.8588628e-01  4.0237659e-01]
 [-1.9761035e-01  2.9581795e-02 -3.8554358e-01]
 [ 2.8884813e-01 -2.4643725e-01 -2.5459749e-01]
 [-3.7785470e-01  4.9599266e-01 -4.1224307e-01]
 [ 3.8587540e-01 -5.6601828e-01  2.8880608e-01]] 
Episode: 91: [[-3.6930793e-04  4.3634372e-04  8.7266567e-04]
 [ 1.4710746e-03  5.7901832e-04 -1.5020077e-03]
 [ 3.0774270e-05  1.0893306e-03 -4.5897553e-04]
 [-1.6372713e-01 -3.3969244e-01  4.4063605e-02]
 [ 1.2524074e-01 -4.4983342e-02 -4.0907644e-02]
 [ 4.6090034e-01  5.2187210e-01 -3.8261190e-01]
 [ 2.2813876e-01 -4.6065792e-01  3.5070008e-01]
 [ 3.7692988e-01  4.8585099e-01  4.0234238e-01]
 [-1.9764638e-01  2.9545978e-02 -3.8550848e-01]
 [ 2.8881052e-01 -2.4639054e-01 -2.5457463e-01]
 [-3.7785941e-01  4.9596301e-01 -4.1222075e-01]
 [ 3.8591197e-01 -5.6604135e-01  2.8878334e-01]] 
Episode: 92: [[-4.0121810e-04  4.5447165e-04  8.7942148e-04]
 [ 1.4475149e-03  5.5247091e-04 -1.4871390e-03]
 [ 6.3264386e-05  1.0618478e-03 -4.6410642e-04]
 [-1.6374353e-01 -3.3964545e-01  4.4081505e-02]
 [ 1.2527423e-01 -4.5010887e-02 -4.0901680e-02]
 [ 4.6092531e-01  5.2183735e-01 -3.8263312e-01]
 [ 2.2811139e-01 -4.6068633e-01  3.5072714e-01]
 [ 3.7695700e-01  4.8582315e-01  4.0231454e-01]
 [-1.9767475e-01  2.9517666e-02 -3.8548079e-01]
 [ 2.8878006e-01 -2.4635522e-01 -2.5455514e-01]
 [-3.7786356e-01  4.9593988e-01 -4.1220310e-01]
 [ 3.8594151e-01 -5.6605667e-01  2.8876492e-01]] 
Episode: 93: [[-4.2891197e-04  4.7024159e-04  8.8458369e-04]
 [ 1.4311278e-03  5.3448876e-04 -1.4787551e-03]
 [ 8.8715300e-05  1.0405526e-03 -4.6578393e-04]
 [-1.6375837e-01 -3.3960560e-01  4.4095691e-02]
 [ 1.2530081e-01 -4.5031145e-02 -4.0898882e-02]
 [ 4.6094418e-01  5.2180856e-01 -3.8264889e-01]
 [ 2.2809114e-01 -4.6070743e-01  3.5074720e-01]
 [ 3.7697747e-01  4.8580238e-01  4.0229195e-01]
 [-1.9769572e-01  2.9496536e-02 -3.8546029e-01]
 [ 2.8875470e-01 -2.4632721e-01 -2.5453946e-01]
 [-3.7786800e-01  4.9592507e-01 -4.1219091e-01]
 [ 3.8596448e-01 -5.6607044e-01  2.8875318e-01]] 
Episode: 94: [[-4.4187380e-04  4.7695157e-04  8.9135597e-04]
 [ 1.4173238e-03  5.1576656e-04 -1.4740659e-03]
 [ 1.0323764e-04  1.0290002e-03 -4.6906210e-04]
 [-1.6376251e-01 -3.3957809e-01  4.4102471e-02]
 [ 1.2532160e-01 -4.5046791e-02 -4.0894557e-02]
 [ 4.6095338e-01  5.2178401e-01 -3.8265717e-01]
 [ 2.2807422e-01 -4.6072513e-01  3.5076374e-01]
 [ 3.7699425e-01  4.8578498e-01  4.0227455e-01]
 [-1.9771309e-01  2.9478878e-02 -3.8544342e-01]
 [ 2.8874040e-01 -2.4630368e-01 -2.5453365e-01]
 [-3.7787291e-01  4.9590692e-01 -4.1217783e-01]
 [ 3.8597843e-01 -5.6607568e-01  2.8874776e-01]] 
Episode: 95: [[-4.6098966e-04  4.9019267e-04  8.9447625e-04]
 [ 1.3902863e-03  4.8168493e-04 -1.4565424e-03]
 [ 1.2723827e-04  1.0044195e-03 -4.7239626e-04]
 [-1.6377059e-01 -3.3954099e-01  4.4118579e-02]
 [ 1.2535319e-01 -4.5077294e-02 -4.0881485e-02]
 [ 4.6097389e-01  5.2175373e-01 -3.8267770e-01]
 [ 2.2804980e-01 -4.6074992e-01  3.5078782e-01]
 [ 3.7701857e-01  4.8576036e-01  4.0224963e-01]
 [-1.9773793e-01  2.9454384e-02 -3.8541910e-01]
 [ 2.8871983e-01 -2.4626558e-01 -2.5452444e-01]
 [-3.7787926e-01  4.9587527e-01 -4.1215298e-01]
 [ 3.8599882e-01 -5.6608564e-01  2.8873530e-01]] 
Episode: 96: [[-4.7682857e-04  5.0297548e-04  8.9534908e-04]
 [ 1.3615717e-03  4.4327651e-04 -1.4379612e-03]
 [ 1.4891350e-04  9.7920618e-04 -4.7390230e-04]
 [-1.6377534e-01 -3.3950621e-01  4.4133700e-02]
 [ 1.2538727e-01 -4.5113076e-02 -4.0865742e-02]
 [ 4.6099314e-01  5.2172565e-01 -3.8269839e-01]
 [ 2.2802606e-01 -4.6077400e-01  3.5081112e-01]
 [ 3.7704232e-01  4.8573649e-01  4.0222546e-01]
 [-1.9776176e-01  2.9430807e-02 -3.8539580e-01]
 [ 2.8870183e-01 -2.4622516e-01 -2.5451881e-01]
 [-3.7788254e-01  4.9584073e-01 -4.1212907e-01]
 [ 3.8601631e-01 -5.6609839e-01  2.8872654e-01]] 
Episode: 97: [[-4.9150060e-04  5.1711762e-04  8.9220604e-04]
 [ 1.3244075e-03  4.0160262e-04 -1.4133144e-03]
 [ 1.7315660e-04  9.5199293e-04 -4.7275846e-04]
 [-1.6377701e-01 -3.3947393e-01  4.4146717e-02]
 [ 1.2542546e-01 -4.5156710e-02 -4.0847361e-02]
 [ 4.6101230e-01  5.2170128e-01 -3.8271996e-01]
 [ 2.2800401e-01 -4.6079683e-01  3.5083327e-01]
 [ 3.7706420e-01  4.8571405e-01  4.0220571e-01]
 [-1.9778384e-01  2.9408423e-02 -3.8537359e-01]
 [ 2.8868422e-01 -2.4618272e-01 -2.5451553e-01]
 [-3.7788346e-01  4.9580345e-01 -4.1210157e-01]
 [ 3.8603678e-01 -5.6611180e-01  2.8871569e-01]] 
Episode: 98: [[-5.1279418e-04  5.4089294e-04  8.8175555e-04]
 [ 1.2827480e-03  3.5704338e-04 -1.3880513e-03]
 [ 2.0436257e-04  9.1800425e-04 -4.6361366e-04]
 [-1.6378039e-01 -3.3943611e-01  4.4160120e-02]
 [ 1.2546842e-01 -4.5203254e-02 -4.0828422e-02]
 [ 4.6103299e-01  5.2167845e-01 -3.8274416e-01]
 [ 2.2798353e-01 -4.6081823e-01  3.5085407e-01]
 [ 3.7708539e-01  4.8569283e-01  4.0218446e-01]
 [-1.9780426e-01  2.9387401e-02 -3.8535291e-01]
 [ 2.8865916e-01 -2.4613275e-01 -2.5450948e-01]
 [-3.7787613e-01  4.9576718e-01 -4.1207743e-01]
 [ 3.8606596e-01 -5.6613135e-01  2.8870332e-01]] 
Episode: 99: [[-5.2587845e-04  5.5563264e-04  8.7401731e-04]
 [ 1.2502705e-03  3.1980182e-04 -1.3720366e-03]
 [ 2.2691859e-04  8.9288835e-04 -4.5355325e-04]
 [-1.6377714e-01 -3.3940655e-01  4.4168945e-02]
 [ 1.2550271e-01 -4.5236055e-02 -4.0810093e-02]
 [ 4.6104261e-01  5.2165735e-01 -3.8276085e-01]
 [ 2.2796097e-01 -4.6084142e-01  3.5087702e-01]
 [ 3.7710813e-01  4.8566976e-01  4.0216318e-01]
 [-1.9782689e-01  2.9364390e-02 -3.8532990e-01]
 [ 2.8864226e-01 -2.4608977e-01 -2.5451142e-01]
 [-3.7787569e-01  4.9573487e-01 -4.1205192e-01]
 [ 3.8608623e-01 -5.6614745e-01  2.8870174e-01]] 
Episode: 100: [[-5.3590321e-04  5.6888576e-04  8.6393923e-04]
 [ 1.2181115e-03  2.8456547e-04 -1.3571607e-03]
 [ 2.4755026e-04  8.6933380e-04 -4.4155819e-04]
 [-1.6377416e-01 -3.3938277e-01  4.4179004e-02]
 [ 1.2553376e-01 -4.5267090e-02 -4.0790841e-02]
 [ 4.6105206e-01  5.2163988e-01 -3.8277814e-01]
 [ 2.2794145e-01 -4.6086141e-01  3.5089692e-01]
 [ 3.7712783e-01  4.8564988e-01  4.0214500e-01]
 [-1.9784655e-01  2.9344548e-02 -3.8530988e-01]
 [ 2.8862864e-01 -2.4605098e-01 -2.5451496e-01]
 [-3.7787542e-01  4.9570444e-01 -4.1202784e-01]
 [ 3.8610435e-01 -5.6615931e-01  2.8870091e-01]] 
Episode: 101: [[-5.3029682e-04  5.5733649e-04  8.7428000e-04]
 [ 1.1872844e-03  2.4024982e-04 -1.3412349e-03]
 [ 2.5134103e-04  8.6694479e-04 -4.4960159e-04]
 [-1.6376626e-01 -3.3937895e-01  4.4187505e-02]
 [ 1.2554942e-01 -4.5300446e-02 -4.0762469e-02]
 [ 4.6105450e-01  5.2162147e-01 -3.8278553e-01]
 [ 2.2793216e-01 -4.6087143e-01  3.5090527e-01]
 [ 3.7713450e-01  4.8564109e-01  4.0213937e-01]
 [-1.9785571e-01  2.9335799e-02 -3.8530216e-01]
 [ 2.8863320e-01 -2.4602471e-01 -2.5452775e-01]
 [-3.7789035e-01  4.9566144e-01 -4.1199210e-01]
 [ 3.8610411e-01 -5.6615335e-01  2.8870547e-01]] 
Episode: 102: [[-5.2212714e-04  5.5405078e-04  8.7145285e-04]
 [ 1.1531750e-03  1.8455356e-04 -1.3316236e-03]
 [ 2.5646362e-04  8.5966534e-04 -4.4214650e-04]
 [-1.6376013e-01 -3.3937630e-01  4.4199325e-02]
 [ 1.2555765e-01 -4.5328848e-02 -4.0724531e-02]
 [ 4.6105859e-01  5.2161223e-01 -3.8279778e-01]
 [ 2.2791569e-01 -4.6088836e-01  3.5092041e-01]
 [ 3.7714550e-01  4.8562616e-01  4.0213323e-01]
 [-1.9787385e-01  2.9320855e-02 -3.8528660e-01]
 [ 2.8863835e-01 -2.4598841e-01 -2.5455153e-01]
 [-3.7791091e-01  4.9560720e-01 -4.1194567e-01]
 [ 3.8610521e-01 -5.6614548e-01  2.8872219e-01]] 
Episode: 103: [[-5.1799056e-04  5.5302161e-04  8.7133702e-04]
 [ 1.1205768e-03  1.3288301e-04 -1.3211544e-03]
 [ 2.6343830e-04  8.5089268e-04 -4.3776835e-04]
 [-1.6375722e-01 -3.3936930e-01  4.4211693e-02]
 [ 1.2556800e-01 -4.5357339e-02 -4.0690713e-02]
 [ 4.6106452e-01  5.2160186e-01 -3.8281006e-01]
 [ 2.2789888e-01 -4.6090561e-01  3.5093600e-01]
 [ 3.7715763e-01  4.8561057e-01  4.0212506e-01]
 [-1.9789210e-01  2.9305371e-02 -3.8527068e-01]
 [ 2.8864044e-01 -2.4595249e-01 -2.5457096e-01]
 [-3.7793094e-01  4.9555761e-01 -4.1190225e-01]
 [ 3.8610810e-01 -5.6614357e-01  2.8873602e-01]] 
Episode: 104: [[-5.1511679e-04  5.5213418e-04  8.7100384e-04]
 [ 1.0893230e-03  8.5724110e-05 -1.3116128e-03]
 [ 2.6991873e-04  8.4332813e-04 -4.3281380e-04]
 [-1.6375530e-01 -3.3936241e-01  4.4223160e-02]
 [ 1.2557648e-01 -4.5383327e-02 -4.0658846e-02]
 [ 4.6106976e-01  5.2159262e-01 -3.8282117e-01]
 [ 2.2788437e-01 -4.6092060e-01  3.5094932e-01]
 [ 3.7716782e-01  4.8559713e-01  4.0211838e-01]
 [-1.9790789e-01  2.9291999e-02 -3.8525710e-01]
 [ 2.8864181e-01 -2.4591924e-01 -2.5458866e-01]
 [-3.7795100e-01  4.9551266e-01 -4.1186163e-01]
 [ 3.8611084e-01 -5.6614149e-01  2.8874907e-01]] 
Episode: 105: [[-5.0391851e-04  5.4693985e-04  8.6689676e-04]
 [ 1.0652852e-03  4.5659726e-05 -1.3054872e-03]
 [ 2.6902257e-04  8.4192399e-04 -4.2511223e-04]
 [-1.6374673e-01 -3.3936489e-01  4.4227667e-02]
 [ 1.2557605e-01 -4.5401875e-02 -4.0627912e-02]
 [ 4.6106890e-01  5.2159256e-01 -3.8282764e-01]
 [ 2.2787327e-01 -4.6093217e-01  3.5095927e-01]
 [ 3.7717527e-01  4.8558697e-01  4.0211231e-01]
 [-1.9792010e-01  2.9281812e-02 -3.8524705e-01]
 [ 2.8865093e-01 -2.4589512e-01 -2.5461200e-01]
 [-3.7796551e-01  4.9547452e-01 -4.1182831e-01]
 [ 3.8610592e-01 -5.6613386e-01  2.8876629e-01]] 
Episode: 106: [[-4.8741917e-04  5.3904048e-04  8.4159343e-04]
 [ 1.0301095e-03 -6.0099192e-06 -1.3413717e-03]
 [ 2.6798144e-04  8.5122394e-04 -3.7382613e-04]
 [-1.6376029e-01 -3.3938646e-01  4.4248994e-02]
 [ 1.2553118e-01 -4.5374636e-02 -4.0574502e-02]
 [ 4.6107495e-01  5.2160865e-01 -3.8284060e-01]
 [ 2.2787431e-01 -4.6093109e-01  3.5095549e-01]
 [ 3.7716493e-01  4.8559126e-01  4.0212977e-01]
 [-1.9792363e-01  2.9285520e-02 -3.8524854e-01]
 [ 2.8866664e-01 -2.4588241e-01 -2.5466388e-01]
 [-3.7803119e-01  4.9542436e-01 -4.1176194e-01]
 [ 3.8611099e-01 -5.6609327e-01  2.8882682e-01]] 
Episode: 107: [[-4.7620459e-04  5.3414010e-04  8.1859383e-04]
 [ 9.9321164e-04 -6.0291110e-05 -1.3703384e-03]
 [ 2.7181554e-04  8.5436628e-04 -3.2760482e-04]
 [-1.6377555e-01 -3.3940029e-01  4.4273302e-02]
 [ 1.2549450e-01 -4.5356676e-02 -4.0521614e-02]
 [ 4.6108666e-01  5.2161819e-01 -3.8285834e-01]
 [ 2.2787151e-01 -4.6093389e-01  3.5095572e-01]
 [ 3.7715909e-01  4.8559144e-01  4.0214229e-01]
 [-1.9793077e-01  2.9285194e-02 -3.8524610e-01]
 [ 2.8867692e-01 -2.4586365e-01 -2.5470895e-01]
 [-3.7809139e-01  4.9537215e-01 -4.1169780e-01]
 [ 3.8611969e-01 -5.6605756e-01  2.8887853e-01]] 
Episode: 108: [[-4.6650600e-04  5.2917836e-04  7.9995632e-04]
 [ 9.5779746e-04 -1.1252513e-04 -1.3949010e-03]
 [ 2.7669652e-04  8.5634651e-04 -2.8824477e-04]
 [-1.6378972e-01 -3.3941075e-01  4.4296384e-02]
 [ 1.2546317e-01 -4.5343205e-02 -4.0472195e-02]
 [ 4.6109864e-01  5.2162385e-01 -3.8287541e-01]
 [ 2.2786631e-01 -4.6093914e-01  3.5095853e-01]
 [ 3.7715626e-01  4.8558900e-01  4.0215129e-01]
 [-1.9793995e-01  2.9282259e-02 -3.8524133e-01]
 [ 2.8868547e-01 -2.4584499e-01 -2.5474849e-01]
 [-3.7814599e-01  4.9532235e-01 -4.1163880e-01]
 [ 3.8612828e-01 -5.6602460e-01  2.8892314e-01]] 
Episode: 109: [[-4.5784377e-04  5.2505109e-04  7.8160188e-04]
 [ 9.2561881e-04 -1.5807428e-04 -1.4179993e-03]
 [ 2.8064949e-04  8.5808779e-04 -2.5061236e-04]
 [-1.6380270e-01 -3.3941954e-01  4.4316866e-02]
 [ 1.2543522e-01 -4.5330003e-02 -4.0428746e-02]
 [ 4.6110931e-01  5.2163011e-01 -3.8289091e-01]
 [ 2.2786170e-01 -4.6094370e-01  3.5096106e-01]
 [ 3.7715331e-01  4.8558694e-01  4.0216139e-01]
 [-1.9794834e-01  2.9279742e-02 -3.8523680e-01]
 [ 2.8869218e-01 -2.4582916e-01 -2.5478360e-01]
 [-3.7819505e-01  4.9527845e-01 -4.1158611e-01]
 [ 3.8613680e-01 -5.6599480e-01  2.8896382e-01]] 
Episode: 110: [[-4.5657795e-04  5.3139427e-04  7.5769000e-04]
 [ 8.9354860e-04 -2.0454467e-04 -1.4368200e-03]
 [ 2.9190865e-04  8.4931753e-04 -2.0909221e-04]
 [-1.6381159e-01 -3.3941755e-01  4.4333253e-02]
 [ 1.2542476e-01 -4.5323882e-02 -4.0397614e-02]
 [ 4.6111941e-01  5.2162933e-01 -3.8290745e-01]
 [ 2.2784330e-01 -4.6096253e-01  3.5097772e-01]
 [ 3.7716621e-01  4.8557022e-01  4.0215364e-01]
 [-1.9796947e-01  2.9262416e-02 -3.8521877e-01]
 [ 2.8869021e-01 -2.4580219e-01 -2.5481337e-01]
 [-3.7823570e-01  4.9523485e-01 -4.1153666e-01]
 [ 3.8615340e-01 -5.6597948e-01  2.8899899e-01]] 
Episode: 111: [[-4.8315694e-04  5.7951262e-04  6.8792462e-04]
 [ 8.2816015e-04 -2.6629362e-04 -1.4302249e-03]
 [ 3.4409994e-04  8.0003362e-04 -1.2490789e-04]
 [-1.6383545e-01 -3.3942106e-01  4.4368550e-02]
 [ 1.2541153e-01 -4.5323040e-02 -4.0343322e-02]
 [ 4.6115318e-01  5.2166551e-01 -3.8295788e-01]
 [ 2.2782908e-01 -4.6097964e-01  3.5099152e-01]
 [ 3.7717804e-01  4.8555595e-01  4.0214062e-01]
 [-1.9798751e-01  2.9247167e-02 -3.8520327e-01]
 [ 2.8866172e-01 -2.4574089e-01 -2.5485078e-01]
 [-3.7826616e-01  4.9518216e-01 -4.1146696e-01]
 [ 3.8620508e-01 -5.6599158e-01  2.8904229e-01]] 
Episode: 112: [[-5.0163356e-04  6.1897247e-04  6.2600389e-04]
 [ 7.7087688e-04 -3.2016181e-04 -1.4285928e-03]
 [ 3.8399344e-04  7.6105644e-04 -4.8285809e-05]
 [-1.6384965e-01 -3.3942616e-01  4.4392612e-02]
 [ 1.2539768e-01 -4.5318980e-02 -4.0297814e-02]
 [ 4.6117464e-01  5.2169585e-01 -3.8299546e-01]
 [ 2.2781774e-01 -4.6099389e-01  3.5100222e-01]
 [ 3.7718725e-01  4.8554441e-01  4.0212902e-01]
 [-1.9800213e-01  2.9234612e-02 -3.8519129e-01]
 [ 2.8864101e-01 -2.4568966e-01 -2.5488970e-01]
 [-3.7829551e-01  4.9513477e-01 -4.1140506e-01]
 [ 3.8624689e-01 -5.6600231e-01  2.8908649e-01]] 
Episode: 113: [[-5.2034704e-04  6.5372227e-04  5.7144166e-04]
 [ 7.1530684e-04 -3.6841817e-04 -1.4240197e-03]
 [ 4.2321297e-04  7.2606595e-04  1.9139683e-05]
 [-1.6387159e-01 -3.3943367e-01  4.4423182e-02]
 [ 1.2537736e-01 -4.5314558e-02 -4.0248483e-02]
 [ 4.6120203e-01  5.2172863e-01 -3.8303560e-01]
 [ 2.2781390e-01 -4.6100044e-01  3.5100555e-01]
 [ 3.7718937e-01  4.8554033e-01  4.0212417e-01]
 [-1.9800897e-01  2.9229533e-02 -3.8518670e-01]
 [ 2.8862292e-01 -2.4564609e-01 -2.5492430e-01]
 [-3.7832466e-01  4.9509186e-01 -4.1134614e-01]
 [ 3.8628596e-01 -5.6600559e-01  2.8912395e-01]] 
Episode: 114: [[-5.4569822e-04  6.9064606e-04  5.2210985e-04]
 [ 6.6500530e-04 -4.1045377e-04 -1.4159330e-03]
 [ 4.6531047e-04  6.8910798e-04  7.8605939e-05]
 [-1.6389979e-01 -3.3943418e-01  4.4457722e-02]
 [ 1.2536126e-01 -4.5311403e-02 -4.0205274e-02]
 [ 4.6123463e-01  5.2175701e-01 -3.8307792e-01]
 [ 2.2780855e-01 -4.6100828e-01  3.5101047e-01]
 [ 3.7719297e-01  4.8553470e-01  4.0211836e-01]
 [-1.9801724e-01  2.9223021e-02 -3.8518053e-01]
 [ 2.8859779e-01 -2.4560289e-01 -2.5494561e-01]
 [-3.7835184e-01  4.9505356e-01 -4.1129074e-01]
 [ 3.8632795e-01 -5.6600952e-01  2.8914931e-01]] 
Episode: 115: [[-5.6946877e-04  7.2445290e-04  4.7818050e-04]
 [ 6.1992201e-04 -4.4890773e-04 -1.4080052e-03]
 [ 5.0463347e-04  6.5529393e-04  1.3094473e-04]
 [-1.6392717e-01 -3.3943442e-01  4.4490594e-02]
 [ 1.2534647e-01 -4.5308698e-02 -4.0165935e-02]
 [ 4.6126655e-01  5.2178270e-01 -3.8311768e-01]
 [ 2.2780322e-01 -4.6101597e-01  3.5101545e-01]
 [ 3.7719712e-01  4.8552895e-01  4.0211093e-01]
 [-1.9802500e-01  2.9216399e-02 -3.8517457e-01]
 [ 2.8857419e-01 -2.4556381e-01 -2.5496379e-01]
 [-3.7837714e-01  4.9501815e-01 -4.1124007e-01]
 [ 3.8636693e-01 -5.6601155e-01  2.8917077e-01]] 
Episode: 116: [[-5.8936601e-04  7.5400062e-04  4.3856018e-04]
 [ 5.7663035e-04 -4.8532494e-04 -1.4027752e-03]
 [ 5.3794793e-04  6.2625902e-04  1.7996421e-04]
 [-1.6394943e-01 -3.3943492e-01  4.4517793e-02]
 [ 1.2533173e-01 -4.5305643e-02 -4.0129513e-02]
 [ 4.6129301e-01  5.2180630e-01 -3.8315162e-01]
 [ 2.2780111e-01 -4.6102017e-01  3.5101706e-01]
 [ 3.7719792e-01  4.8552665e-01  4.0210745e-01]
 [-1.9802928e-01  2.9213272e-02 -3.8517207e-01]
 [ 2.8855416e-01 -2.4552734e-01 -2.5498378e-01]
 [-3.7840167e-01  4.9498561e-01 -4.1119421e-01]
 [ 3.8640040e-01 -5.6601501e-01  2.8919536e-01]] 
Episode: 117: [[-6.0366542e-04  7.7886187e-04  4.0428981e-04]
 [ 5.4745737e-04 -5.0712051e-04 -1.4018296e-03]
 [ 5.6227349e-04  6.0589856e-04  2.2241313e-04]
 [-1.6396885e-01 -3.3944488e-01  4.4538103e-02]
 [ 1.2531255e-01 -4.5294046e-02 -4.0103707e-02]
 [ 4.6131006e-01  5.2183425e-01 -3.8317484e-01]
 [ 2.2780448e-01 -4.6101865e-01  3.5101327e-01]
 [ 3.7719366e-01  4.8552987e-01  4.0210819e-01]
 [-1.9802760e-01  2.9215677e-02 -3.8517526e-01]
 [ 2.8854233e-01 -2.4550344e-01 -2.5500414e-01]
 [-3.7842327e-01  4.9496639e-01 -4.1115782e-01]
 [ 3.8642547e-01 -5.6601799e-01  2.8921968e-01]] 
Episode: 118: [[-6.1045308e-04  8.0014649e-04  3.7175149e-04]
 [ 5.2449829e-04 -5.2768481e-04 -1.4031666e-03]
 [ 5.7977246e-04  5.8870617e-04  2.6185546e-04]
 [-1.6397211e-01 -3.3945373e-01  4.4544488e-02]
 [ 1.2530161e-01 -4.5284171e-02 -4.0087186e-02]
 [ 4.6131638e-01  5.2185833e-01 -3.8318938e-01]
 [ 2.2780083e-01 -4.6102396e-01  3.5101652e-01]
 [ 3.7719703e-01  4.8552597e-01  4.0210083e-01]
 [-1.9803222e-01  2.9211033e-02 -3.8517186e-01]
 [ 2.8853518e-01 -2.4547917e-01 -2.5502822e-01]
 [-3.7843683e-01  4.9494815e-01 -4.1112936e-01]
 [ 3.8644385e-01 -5.6602597e-01  2.8924620e-01]] 
Episode: 119: [[-6.1537081e-04  8.1846595e-04  3.4289883e-04]
 [ 5.0643744e-04 -5.4465287e-04 -1.4072520e-03]
 [ 5.9370528e-04  5.7407224e-04  2.9692467e-04]
 [-1.6397291e-01 -3.3946273e-01  4.4547759e-02]
 [ 1.2529249e-01 -4.5273930e-02 -4.0075716e-02]
 [ 4.6132013e-01  5.2188003e-01 -3.8320029e-01]
 [ 2.2779921e-01 -4.6102715e-01  3.5101753e-01]
 [ 3.7719849e-01  4.8552415e-01  4.0209365e-01]
 [-1.9803487e-01  2.9208580e-02 -3.8517076e-01]
 [ 2.8852910e-01 -2.4545783e-01 -2.5504965e-01]
 [-3.7844774e-01  4.9493310e-01 -4.1110769e-01]
 [ 3.8645995e-01 -5.6603569e-01  2.8927040e-01]] 
Episode: 120: [[-6.2701572e-04  8.4173930e-04  3.1250008e-04]
 [ 4.8405759e-04 -5.7925994e-04 -1.4010579e-03]
 [ 6.1779731e-04  5.4659729e-04  3.2848417e-04]
 [-1.6397607e-01 -3.3945626e-01  4.4560730e-02]
 [ 1.2529702e-01 -4.5281567e-02 -4.0053021e-02]
 [ 4.6133655e-01  5.2188736e-01 -3.8322428e-01]
 [ 2.2778127e-01 -4.6104577e-01  3.5103482e-01]
 [ 3.7721458e-01  4.8550680e-01  4.0207663e-01]
 [-1.9805436e-01  2.9190972e-02 -3.8515297e-01]
 [ 2.8851479e-01 -2.4541801e-01 -2.5506681e-01]
 [-3.7845522e-01  4.9490201e-01 -4.1107813e-01]
 [ 3.8648266e-01 -5.6604689e-01  2.8928417e-01]] 
Episode: 121: [[-6.4706686e-04  8.7314547e-04  2.8149449e-04]
 [ 4.6882118e-04 -6.0076325e-04 -1.3956821e-03]
 [ 6.4605428e-04  5.1476411e-04  3.6003339e-04]
 [-1.6398363e-01 -3.3944437e-01  4.4573534e-02]
 [ 1.2531206e-01 -4.5283288e-02 -4.0045965e-02]
 [ 4.6135014e-01  5.2189153e-01 -3.8324535e-01]
 [ 2.2776662e-01 -4.6106076e-01  3.5104942e-01]
 [ 3.7722829e-01  4.8549253e-01  4.0206087e-01]
 [-1.9807057e-01  2.9176557e-02 -3.8513780e-01]
 [ 2.8849012e-01 -2.4537885e-01 -2.5506899e-01]
 [-3.7845391e-01  4.9488467e-01 -4.1105768e-01]
 [ 3.8651460e-01 -5.6606644e-01  2.8928694e-01]] 
Episode: 122: [[-6.6547340e-04  9.0220023e-04  2.5228760e-04]
 [ 4.5107497e-04 -6.2202092e-04 -1.3887719e-03]
 [ 6.7324378e-04  4.8496685e-04  3.8919324e-04]
 [-1.6399066e-01 -3.3943474e-01  4.4585515e-02]
 [ 1.2532471e-01 -4.5286648e-02 -4.0037155e-02]
 [ 4.6136406e-01  5.2189654e-01 -3.8326576e-01]
 [ 2.2775374e-01 -4.6107396e-01  3.5106227e-01]
 [ 3.7724030e-01  4.8548001e-01  4.0204686e-01]
 [-1.9808500e-01  2.9163918e-02 -3.8512439e-01]
 [ 2.8846723e-01 -2.4534285e-01 -2.5507137e-01]
 [-3.7845346e-01  4.9486721e-01 -4.1103736e-01]
 [ 3.8654485e-01 -5.6608301e-01  2.8928912e-01]] 
Episode: 123: [[-6.8411679e-04  9.2860055e-04  2.2866509e-04]
 [ 4.3371913e-04 -6.4230803e-04 -1.3812518e-03]
 [ 6.9926371e-04  4.5845003e-04  4.1319270e-04]
 [-1.6399981e-01 -3.3942378e-01  4.4598419e-02]
 [ 1.2533635e-01 -4.5290757e-02 -4.0028501e-02]
 [ 4.6137941e-01  5.2189839e-01 -3.8328552e-01]
 [ 2.2774172e-01 -4.6108621e-01  3.5107422e-01]
 [ 3.7725139e-01  4.8546839e-01  4.0203387e-01]
 [-1.9809847e-01  2.9152226e-02 -3.8511193e-01]
 [ 2.8844449e-01 -2.4531008e-01 -2.5507045e-01]
 [-3.7845457e-01  4.9485064e-01 -4.1101763e-01]
 [ 3.8657379e-01 -5.6609529e-01  2.8928810e-01]] 
Episode: 124: [[-7.0048112e-04  9.5113943e-04  2.0874637e-04]
 [ 4.1586164e-04 -6.5986218e-04 -1.3760276e-03]
 [ 7.2190806e-04  4.3729274e-04  4.3529281e-04]
 [-1.6400760e-01 -3.3941612e-01  4.4607505e-02]
 [ 1.2534510e-01 -4.5293674e-02 -4.0022161e-02]
 [ 4.6139115e-01  5.2190137e-01 -3.8330051e-01]
 [ 2.2773446e-01 -4.6109372e-01  3.5108131e-01]
 [ 3.7725806e-01  4.8546144e-01  4.0202442e-01]
 [-1.9810687e-01  2.9145295e-02 -3.8510454e-01]
 [ 2.8842461e-01 -2.4528378e-01 -2.5506920e-01]
 [-3.7845773e-01  4.9483728e-01 -4.1100013e-01]
 [ 3.8660026e-01 -5.6610638e-01  2.8928846e-01]] 
Episode: 125: [[-7.1624544e-04  9.7097311e-04  1.9544640e-04]
 [ 4.0852724e-04 -6.7004602e-04 -1.3788082e-03]
 [ 7.4025075e-04  4.2149081e-04  4.5252216e-04]
 [-1.6401845e-01 -3.3940771e-01  4.4616096e-02]
 [ 1.2535147e-01 -4.5290619e-02 -4.0021144e-02]
 [ 4.6140215e-01  5.2190274e-01 -3.8331208e-01]
 [ 2.2772981e-01 -4.6109876e-01  3.5108572e-01]
 [ 3.7726218e-01  4.8545697e-01  4.0201619e-01]
 [-1.9811271e-01  2.9140808e-02 -3.8509983e-01]
 [ 2.8840926e-01 -2.4526069e-01 -2.5507012e-01]
 [-3.7845996e-01  4.9483046e-01 -4.1099060e-01]
 [ 3.8662177e-01 -5.6611764e-01  2.8929114e-01]] 
Episode: 126: [[-7.2850066e-04  9.9151582e-04  1.7865482e-04]
 [ 3.9851249e-04 -6.8334333e-04 -1.3774249e-03]
 [ 7.5686531e-04  4.0428696e-04  4.7039281e-04]
 [-1.6402283e-01 -3.3940250e-01  4.4619933e-02]
 [ 1.2536235e-01 -4.5294434e-02 -4.0020797e-02]
 [ 4.6141005e-01  5.2190948e-01 -3.8332254e-01]
 [ 2.2772504e-01 -4.6110404e-01  3.5109052e-01]
 [ 3.7726682e-01  4.8545206e-01  4.0200871e-01]
 [-1.9811848e-01  2.9135872e-02 -3.8509470e-01]
 [ 2.8839505e-01 -2.4523677e-01 -2.5507152e-01]
 [-3.7845418e-01  4.9482146e-01 -4.1098484e-01]
 [ 3.8664129e-01 -5.6613135e-01  2.8929272e-01]] 
Episode: 127: [[-7.4547727e-04  1.0082714e-03  1.7597260e-04]
 [ 3.8846774e-04 -6.8141718e-04 -1.3633696e-03]
 [ 7.7237096e-04  3.8880054e-04  4.7141229e-04]
 [-1.6401856e-01 -3.3939251e-01  4.4614214e-02]
 [ 1.2538746e-01 -4.5303922e-02 -4.0035568e-02]
 [ 4.6140647e-01  5.2190375e-01 -3.8332120e-01]
 [ 2.2771765e-01 -4.6111202e-01  3.5109812e-01]
 [ 3.7727591e-01  4.8544389e-01  4.0199679e-01]
 [-1.9812509e-01  2.9127490e-02 -3.8508776e-01]
 [ 2.8837952e-01 -2.4521807e-01 -2.5506014e-01]
 [-3.7844327e-01  4.9482706e-01 -4.1098660e-01]
 [ 3.8665709e-01 -5.6616116e-01  2.8928080e-01]] 
Episode: 128: [[-7.6707127e-04  1.0314144e-03  1.5985101e-04]
 [ 3.4272525e-04 -7.1227574e-04 -1.3605884e-03]
 [ 7.9484243e-04  3.6433421e-04  4.9775135e-04]
 [-1.6403909e-01 -3.3938152e-01  4.4637002e-02]
 [ 1.2539077e-01 -4.5302369e-02 -4.0017627e-02]
 [ 4.6141997e-01  5.2189547e-01 -3.8333800e-01]
 [ 2.2770280e-01 -4.6112788e-01  3.5111129e-01]
 [ 3.7728596e-01  4.8543108e-01  4.0198839e-01]
 [-1.9814214e-01  2.9113691e-02 -3.8507348e-01]
 [ 2.8836063e-01 -2.4518885e-01 -2.5506237e-01]
 [-3.7848234e-01  4.9480462e-01 -4.1094446e-01]
 [ 3.8668445e-01 -5.6617683e-01  2.8929302e-01]] 
Episode: 129: [[-7.8162336e-04  1.0460409e-03  1.5015063e-04]
 [ 2.9291576e-04 -7.4252125e-04 -1.3541641e-03]
 [ 8.0987083e-04  3.4764106e-04  5.1799836e-04]
 [-1.6405033e-01 -3.3937263e-01  4.4652078e-02]
 [ 1.2539645e-01 -4.5302283e-02 -4.0003549e-02]
 [ 4.6142519e-01  5.2188295e-01 -3.8334733e-01]
 [ 2.2768822e-01 -4.6114299e-01  3.5112441e-01]
 [ 3.7729564e-01  4.8541862e-01  4.0198195e-01]
 [-1.9815865e-01  2.9100332e-02 -3.8505924e-01]
 [ 2.8834933e-01 -2.4516492e-01 -2.5506768e-01]
 [-3.7852380e-01  4.9478278e-01 -4.1090062e-01]
 [ 3.8670442e-01 -5.6618887e-01  2.8930527e-01]] 
Episode: 130: [[-7.9678639e-04  1.0595709e-03  1.4231217e-04]
 [ 2.5070540e-04 -7.6527527e-04 -1.3482249e-03]
 [ 8.2322373e-04  3.3333540e-04  5.3517253e-04]
 [-1.6406441e-01 -3.3936545e-01  4.4667639e-02]
 [ 1.2539774e-01 -4.5298465e-02 -3.9991863e-02]
 [ 4.6143043e-01  5.2187270e-01 -3.8335553e-01]
 [ 2.2767591e-01 -4.6115568e-01  3.5113540e-01]
 [ 3.7730321e-01  4.8540831e-01  4.0197739e-01]
 [-1.9817308e-01  2.9089086e-02 -3.8504705e-01]
 [ 2.8833824e-01 -2.4514675e-01 -2.5506914e-01]
 [-3.7856194e-01  4.9476710e-01 -4.1086173e-01]
 [ 3.8672265e-01 -5.6619936e-01  2.8931364e-01]] 
Episode: 131: [[-8.1625988e-04  1.0749521e-03  1.3692959e-04]
 [ 2.0735247e-04 -7.9284993e-04 -1.3404894e-03]
 [ 8.4134837e-04  3.1526652e-04  5.4888002e-04]
 [-1.6408068e-01 -3.3934832e-01  4.4685792e-02]
 [ 1.2540585e-01 -4.5303218e-02 -3.9978620e-02]
 [ 4.6144116e-01  5.2185684e-01 -3.8336784e-01]
 [ 2.2766034e-01 -4.6117157e-01  3.5114983e-01]
 [ 3.7731412e-01  4.8539448e-01  4.0197095e-01]
 [-1.9819085e-01  2.9074565e-02 -3.8503125e-01]
 [ 2.8832266e-01 -2.4512228e-01 -2.5506830e-01]
 [-3.7859666e-01  4.9474618e-01 -4.1082430e-01]
 [ 3.8674363e-01 -5.6621248e-01  2.8931940e-01]] 
Episode: 132: [[-8.3137164e-04  1.0865802e-03  1.3440184e-04]
 [ 1.7329142e-04 -8.1573299e-04 -1.3390894e-03]
 [ 8.5597282e-04  3.0149147e-04  5.6008610e-04]
 [-1.6409169e-01 -3.3933213e-01  4.4698182e-02]
 [ 1.2541108e-01 -4.5302942e-02 -3.9968371e-02]
 [ 4.6144748e-01  5.2183902e-01 -3.8337529e-01]
 [ 2.2764686e-01 -4.6118528e-01  3.5116231e-01]
 [ 3.7732336e-01  4.8538253e-01  4.0196586e-01]
 [-1.9820638e-01  2.9062083e-02 -3.8501742e-01]
 [ 2.8831044e-01 -2.4510139e-01 -2.5507018e-01]
 [-3.7862837e-01  4.9472860e-01 -4.1079274e-01]
 [ 3.8676107e-01 -5.6622499e-01  2.8932777e-01]] 
Episode: 133: [[-8.5062138e-04  1.1036495e-03  1.2768731e-04]
 [ 1.4260979e-04 -8.3800621e-04 -1.3396665e-03]
 [ 8.7608490e-04  2.8348190e-04  5.7303492e-04]
 [-1.6410924e-01 -3.3931166e-01  4.4715658e-02]
 [ 1.2541641e-01 -4.5305237e-02 -3.9955769e-02]
 [ 4.6146309e-01  5.2182603e-01 -3.8339007e-01]
 [ 2.2763303e-01 -4.6119910e-01  3.5117564e-01]
 [ 3.7733385e-01  4.8537013e-01  4.0195870e-01]
 [-1.9822240e-01  2.9049387e-02 -3.8500255e-01]
 [ 2.8829479e-01 -2.4507821e-01 -2.5507152e-01]
 [-3.7865409e-01  4.9471197e-01 -4.1076714e-01]
 [ 3.8678220e-01 -5.6623554e-01  2.8933483e-01]] 
Episode: 134: [[-8.70040443e-04  1.11853285e-03  1.22362020e-04]
 [ 1.12116024e-04 -8.57294071e-04 -1.33800122e-03]
 [ 8.94687080e-04  2.66558520e-04  5.85344387e-04]
 [-1.64127305e-01 -3.39292318e-01  4.47329693e-02]
 [ 1.25420287e-01 -4.53073047e-02 -3.99441198e-02]
 [ 4.61477816e-01  5.21812499e-01 -3.83403540e-01]
 [ 2.27622539e-01 -4.61209655e-01  3.51185620e-01]
 [ 3.77341330e-01  4.85360920e-01  4.01954859e-01]
 [-1.98234767e-01  2.90398784e-02 -3.84991199e-01]
 [ 2.88278669e-01 -2.45057583e-01 -2.55071521e-01]
 [-3.78680259e-01  4.94697571e-01 -4.10741597e-01]
 [ 3.86802495e-01 -5.66247761e-01  2.89341867e-01]] 
Episode: 135: [[-8.8623050e-04  1.1357551e-03  1.1123868e-04]
 [ 7.5277130e-05 -8.7950926e-04 -1.3270439e-03]
 [ 9.1435725e-04  2.4626899e-04  5.9992814e-04]
 [-1.6413833e-01 -3.3927712e-01  4.4746634e-02]
 [ 1.2542902e-01 -4.5318503e-02 -3.9930474e-02]
 [ 4.6149138e-01  5.2180481e-01 -3.8341865e-01]
 [ 2.2761260e-01 -4.6122012e-01  3.5119542e-01]
 [ 3.7734979e-01  4.8535150e-01  4.0194961e-01]
 [-1.9824590e-01  2.9030079e-02 -3.8498035e-01]
 [ 2.8826308e-01 -2.4503538e-01 -2.5507110e-01]
 [-3.7869775e-01  4.9468076e-01 -4.1071585e-01]
 [ 3.8682401e-01 -5.6626183e-01  2.8934440e-01]] 
Episode: 136: [[-8.9524483e-04  1.1504673e-03  9.6772936e-05]
 [ 4.8671878e-05 -8.9674833e-04 -1.3205584e-03]
 [ 9.2795870e-04  2.3034410e-04  6.1678543e-04]
 [-1.6414745e-01 -3.3927208e-01  4.4757381e-02]
 [ 1.2543006e-01 -4.5324247e-02 -3.9915696e-02]
 [ 4.6150157e-01  5.2180594e-01 -3.8343096e-01]
 [ 2.2760402e-01 -4.6122953e-01  3.5120395e-01]
 [ 3.7735695e-01  4.8534328e-01  4.0194461e-01]
 [-1.9825564e-01  2.9020885e-02 -3.8497078e-01]
 [ 2.8825632e-01 -2.4501838e-01 -2.5507918e-01]
 [-3.7871072e-01  4.9466851e-01 -4.1069451e-01]
 [ 3.8683805e-01 -5.6627399e-01  2.8935263e-01]] 
Episode: 137: [[-9.1150997e-04  1.1604379e-03  9.5143587e-05]
 [ 3.3444641e-05 -9.0353627e-04 -1.3237814e-03]
 [ 9.4123959e-04  2.2010348e-04  6.2451215e-04]
 [-1.6416639e-01 -3.3926028e-01  4.4772536e-02]
 [ 1.2542467e-01 -4.5317084e-02 -3.9907303e-02]
 [ 4.6151471e-01  5.2179837e-01 -3.8344055e-01]
 [ 2.2759610e-01 -4.6123782e-01  3.5121134e-01]
 [ 3.7736282e-01  4.8533618e-01  4.0193823e-01]
 [-1.9826479e-01  2.9012915e-02 -3.8496250e-01]
 [ 2.8824577e-01 -2.4500802e-01 -2.5507894e-01]
 [-3.7873507e-01  4.9466413e-01 -4.1067454e-01]
 [ 3.8685229e-01 -5.6628472e-01  2.8935912e-01]] 
Episode: 138: [[-9.2706125e-04  1.1715365e-03  9.0067195e-05]
 [ 7.8198955e-06 -9.2345901e-04 -1.3297548e-03]
 [ 9.6393388e-04  2.0665827e-04  6.3540280e-04]
 [-1.6419326e-01 -3.3924824e-01  4.4801071e-02]
 [ 1.2541935e-01 -4.5310967e-02 -3.9887901e-02]
 [ 4.6154013e-01  5.2178538e-01 -3.8346273e-01]
 [ 2.2758037e-01 -4.6125430e-01  3.5122621e-01]
 [ 3.7737605e-01  4.8532152e-01  4.0192229e-01]
 [-1.9828160e-01  2.8997127e-02 -3.8494715e-01]
 [ 2.8823674e-01 -2.4499278e-01 -2.5508192e-01]
 [-3.7876591e-01  4.9464554e-01 -4.1064382e-01]
 [ 3.8687390e-01 -5.6628191e-01  2.8936362e-01]] 
Episode: 139: [[-9.3834993e-04  1.1804127e-03  8.5129570e-05]
 [-1.3141593e-05 -9.4054389e-04 -1.3376201e-03]
 [ 9.8184170e-04  1.9649122e-04  6.4526650e-04]
 [-1.6421562e-01 -3.3924043e-01  4.4825293e-02]
 [ 1.2541273e-01 -4.5304194e-02 -3.9870147e-02]
 [ 4.6156093e-01  5.2177721e-01 -3.8348135e-01]
 [ 2.2756760e-01 -4.6126786e-01  3.5123813e-01]
 [ 3.7738666e-01  4.8530966e-01  4.0190861e-01]
 [-1.9829540e-01  2.8984126e-02 -3.8493475e-01]
 [ 2.8823173e-01 -2.4498020e-01 -2.5508747e-01]
 [-3.7879184e-01  4.9463004e-01 -4.1061917e-01]
 [ 3.8688996e-01 -5.6627846e-01  2.8937012e-01]] 
Episode: 140: [[-9.4683468e-04  1.1863319e-03  8.6310160e-05]
 [-1.8720306e-05 -9.4767183e-04 -1.3528761e-03]
 [ 9.9284633e-04  1.9143659e-04  6.5060594e-04]
 [-1.6423319e-01 -3.3923313e-01  4.4844039e-02]
 [ 1.2540883e-01 -4.5289710e-02 -3.9865684e-02]
 [ 4.6157384e-01  5.2176398e-01 -3.8349187e-01]
 [ 2.2755782e-01 -4.6127829e-01  3.5124683e-01]
 [ 3.7739474e-01  4.8530087e-01  4.0189424e-01]
 [-1.9830598e-01  2.8974267e-02 -3.8492581e-01]
 [ 2.8822899e-01 -2.4497196e-01 -2.5509140e-01]
 [-3.7881550e-01  4.9462190e-01 -4.1060197e-01]
 [ 3.8690138e-01 -5.6627923e-01  2.8937799e-01]] 
Episode: 141: [[-9.5362688e-04  1.1907280e-03  8.8448382e-05]
 [-2.1813497e-05 -9.5383875e-04 -1.3651407e-03]
 [ 1.0023367e-03  1.8721625e-04  6.5313454e-04]
 [-1.6424802e-01 -3.3922651e-01  4.4860713e-02]
 [ 1.2540494e-01 -4.5276724e-02 -3.9861057e-02]
 [ 4.6158525e-01  5.2175289e-01 -3.8350156e-01]
 [ 2.2754693e-01 -4.6128988e-01  3.5125670e-01]
 [ 3.7740397e-01  4.8529083e-01  4.0187964e-01]
 [-1.9831754e-01  2.8963128e-02 -3.8491574e-01]
 [ 2.8822759e-01 -2.4496454e-01 -2.5509468e-01]
 [-3.7883592e-01  4.9461439e-01 -4.1058636e-01]
 [ 3.8690948e-01 -5.6627816e-01  2.8938350e-01]] 
Episode: 142: [[-9.5655135e-04  1.1951643e-03  8.9039720e-05]
 [-1.6207812e-05 -9.5944485e-04 -1.3816555e-03]
 [ 1.0071574e-03  1.8656391e-04  6.5638241e-04]
 [-1.6425763e-01 -3.3922279e-01  4.4872232e-02]
 [ 1.2540258e-01 -4.5265496e-02 -3.9858937e-02]
 [ 4.6159139e-01  5.2174878e-01 -3.8350800e-01]
 [ 2.2753844e-01 -4.6129909e-01  3.5126397e-01]
 [ 3.7741068e-01  4.8528305e-01  4.0186659e-01]
 [-1.9832674e-01  2.8954491e-02 -3.8490841e-01]
 [ 2.8822729e-01 -2.4495502e-01 -2.5509974e-01]
 [-3.7884778e-01  4.9460763e-01 -4.1057831e-01]
 [ 3.8691270e-01 -5.6627542e-01  2.8939098e-01]] 
Episode: 143: [[-9.5912407e-04  1.1988764e-03  9.0127265e-05]
 [-9.2411483e-06 -9.6450903e-04 -1.3960029e-03]
 [ 1.0115381e-03  1.8569453e-04  6.5784092e-04]
 [-1.6426647e-01 -3.3921871e-01  4.4883557e-02]
 [ 1.2540090e-01 -4.5254715e-02 -3.9856900e-02]
 [ 4.6159756e-01  5.2174294e-01 -3.8351440e-01]
 [ 2.2752850e-01 -4.6130988e-01  3.5127297e-01]
 [ 3.7741974e-01  4.8527345e-01  4.0185055e-01]
 [-1.9833687e-01  2.8943926e-02 -3.8489953e-01]
 [ 2.8822756e-01 -2.4494618e-01 -2.5510424e-01]
 [-3.7885833e-01  4.9460119e-01 -4.1057074e-01]
 [ 3.8691536e-01 -5.6627244e-01  2.8939644e-01]] 
Episode: 144: [[-9.34361364e-04  1.16978737e-03  1.13208785e-04]
 [-7.03057083e-07 -9.76905227e-04 -1.40654133e-03]
 [ 9.86777479e-04  2.11945997e-04  6.40121754e-04]
 [-1.64251998e-01 -3.39239150e-01  4.48791236e-02]
 [ 1.25382513e-01 -4.52396497e-02 -3.98474298e-02]
 [ 4.61578697e-01  5.21732390e-01 -3.83498669e-01]
 [ 2.27522895e-01 -4.61315870e-01  3.51276994e-01]
 [ 3.77421707e-01  4.85269219e-01  4.01847243e-01]
 [-1.98342130e-01  2.89387070e-02 -3.84896040e-01]
 [ 2.88254946e-01 -2.44953126e-01 -2.55124092e-01]
 [-3.78882438e-01  4.94583249e-01 -4.10551190e-01]
 [ 3.86889696e-01 -5.66258848e-01  2.89411366e-01]] 
Episode: 145: [[-9.1007067e-04  1.1300583e-03  1.5365986e-04]
 [ 4.2692605e-05 -9.6162577e-04 -1.4119417e-03]
 [ 9.5679075e-04  2.4654667e-04  5.9756509e-04]
 [-1.6421488e-01 -3.3925185e-01  4.4850960e-02]
 [ 1.2538910e-01 -4.5237537e-02 -3.9866850e-02]
 [ 4.6154347e-01  5.2170449e-01 -3.8346598e-01]
 [ 2.2751935e-01 -4.6132028e-01  3.5128030e-01]
 [ 3.7742895e-01  4.8526430e-01  4.0182588e-01]
 [-1.9834149e-01  2.8933020e-02 -3.8489577e-01]
 [ 2.8828081e-01 -2.4496710e-01 -2.5512478e-01]
 [-3.7886548e-01  4.9459100e-01 -4.1057283e-01]
 [ 3.8685533e-01 -5.6626129e-01  2.8940180e-01]] 
Episode: 146: [[-8.8938576e-04  1.0949800e-03  1.9018806e-04]
 [ 8.1034683e-05 -9.4667141e-04 -1.4175167e-03]
 [ 9.3128608e-04  2.7777420e-04  5.5927818e-04]
 [-1.6418417e-01 -3.3926424e-01  4.4827651e-02]
 [ 1.2539421e-01 -4.5234747e-02 -3.9884195e-02]
 [ 4.6151397e-01  5.2168089e-01 -3.8343799e-01]
 [ 2.2751741e-01 -4.6132305e-01  3.5128185e-01]
 [ 3.7743416e-01  4.8526117e-01  4.0180698e-01]
 [-1.9833988e-01  2.8929085e-02 -3.8489687e-01]
 [ 2.8830415e-01 -2.4498129e-01 -2.5512460e-01]
 [-3.7885121e-01  4.9459895e-01 -4.1059205e-01]
 [ 3.8682580e-01 -5.6626070e-01  2.8939191e-01]] 
Episode: 147: [[-8.7114068e-04  1.0650678e-03  2.2086107e-04]
 [ 1.1714007e-04 -9.3097129e-04 -1.4226632e-03]
 [ 9.0757117e-04  3.0415322e-04  5.2609754e-04]
 [-1.6415586e-01 -3.3927476e-01  4.4805594e-02]
 [ 1.2540063e-01 -4.5232072e-02 -3.9902404e-02]
 [ 4.6148604e-01  5.2166033e-01 -3.8341203e-01]
 [ 2.2751662e-01 -4.6132457e-01  3.5128227e-01]
 [ 3.7743798e-01  4.8525926e-01  4.0179047e-01]
 [-1.9833761e-01  2.8926469e-02 -3.8489875e-01]
 [ 2.8832453e-01 -2.4499302e-01 -2.5512490e-01]
 [-3.7883607e-01  4.9460834e-01 -4.1061187e-01]
 [ 3.8679925e-01 -5.6626463e-01  2.8938335e-01]] 
Episode: 148: [[-8.6017331e-04  1.0427929e-03  2.4427660e-04]
 [ 1.4485118e-04 -9.2483073e-04 -1.4226551e-03]
 [ 8.9226937e-04  3.2016489e-04  4.9860257e-04]
 [-1.6413167e-01 -3.3928019e-01  4.4788111e-02]
 [ 1.2541303e-01 -4.5240156e-02 -3.9916005e-02]
 [ 4.6146494e-01  5.2164203e-01 -3.8339314e-01]
 [ 2.2751288e-01 -4.6132934e-01  3.5128582e-01]
 [ 3.7744465e-01  4.8525411e-01  4.0177113e-01]
 [-1.9833851e-01  2.8920721e-02 -3.8489738e-01]
 [ 2.8833583e-01 -2.4499524e-01 -2.5512135e-01]
 [-3.7881908e-01  4.9460927e-01 -4.1062751e-01]
 [ 3.8678220e-01 -5.6627733e-01  2.8937218e-01]] 
Episode: 149: [[-8.4608223e-04  1.0225081e-03  2.5337350e-04]
 [ 1.5980939e-04 -9.2769519e-04 -1.4176595e-03]
 [ 8.8484056e-04  3.3049149e-04  4.8306616e-04]
 [-1.6410682e-01 -3.3929032e-01  4.4773713e-02]
 [ 1.2542130e-01 -4.5250528e-02 -3.9915647e-02]
 [ 4.6144956e-01  5.2163315e-01 -3.8338321e-01]
 [ 2.2751217e-01 -4.6133137e-01  3.5128599e-01]
 [ 3.7744668e-01  4.8525250e-01  4.0176216e-01]
 [-1.9833712e-01  2.8918626e-02 -3.8489911e-01]
 [ 2.8834581e-01 -2.4499507e-01 -2.5512210e-01]
 [-3.7880129e-01  4.9460146e-01 -4.1063470e-01]
 [ 3.8677123e-01 -5.6627399e-01  2.8936192e-01]] 
Episode: 150: [[-8.3310122e-04  1.0046983e-03  2.6126282e-04]
 [ 1.7238318e-04 -9.3079126e-04 -1.4123633e-03]
 [ 8.7870436e-04  3.3891594e-04  4.6880927e-04]
 [-1.6408460e-01 -3.3929950e-01  4.4761479e-02]
 [ 1.2542850e-01 -4.5260150e-02 -3.9914299e-02]
 [ 4.6143672e-01  5.2162629e-01 -3.8337553e-01]
 [ 2.2751048e-01 -4.6133423e-01  3.5128725e-01]
 [ 3.7744957e-01  4.8524997e-01  4.0175295e-01]
 [-1.9833702e-01  2.8915720e-02 -3.8489950e-01]
 [ 2.8835484e-01 -2.4499491e-01 -2.5512227e-01]
 [-3.7878478e-01  4.9459419e-01 -4.1064137e-01]
 [ 3.8676125e-01 -5.6627077e-01  2.8935209e-01]] 
Episode: 151: [[-8.2300877e-04  9.8951755e-04  2.6830501e-04]
 [ 1.7840070e-04 -9.3509571e-04 -1.4029145e-03]
 [ 8.7670691e-04  3.4348748e-04  4.5503431e-04]
 [-1.6406862e-01 -3.3930773e-01  4.4756152e-02]
 [ 1.2543838e-01 -4.5271963e-02 -3.9910458e-02]
 [ 4.6142769e-01  5.2161849e-01 -3.8337171e-01]
 [ 2.2750834e-01 -4.6133745e-01  3.5128900e-01]
 [ 3.7745279e-01  4.8524714e-01  4.0174434e-01]
 [-1.9833764e-01  2.8912526e-02 -3.8489917e-01]
 [ 2.8836250e-01 -2.4499252e-01 -2.5512210e-01]
 [-3.7877008e-01  4.9458623e-01 -4.1064483e-01]
 [ 3.8675487e-01 -5.6626874e-01  2.8934065e-01]] 
Episode: 152: [[-8.1273116e-04  9.7575266e-04  2.7418183e-04]
 [ 1.8507763e-04 -9.3976728e-04 -1.3929559e-03]
 [ 8.7317458e-04  3.4670366e-04  4.4185863e-04]
 [-1.6405298e-01 -3.3931509e-01  4.4751044e-02]
 [ 1.2544885e-01 -4.5283902e-02 -3.9908025e-02]
 [ 4.6141788e-01  5.2161080e-01 -3.8336757e-01]
 [ 2.2750442e-01 -4.6134230e-01  3.5129252e-01]
 [ 3.7745762e-01  4.8524266e-01  4.0173471e-01]
 [-1.9834007e-01  2.8907556e-02 -3.8489690e-01]
 [ 2.8837094e-01 -2.4499059e-01 -2.5512254e-01]
 [-3.7875736e-01  4.9457923e-01 -4.1064811e-01]
 [ 3.8674629e-01 -5.6626910e-01  2.8933099e-01]] 
Episode: 153: [[-8.0167328e-04  9.6800853e-04  2.6603730e-04]
 [ 1.8077380e-04 -9.5483859e-04 -1.3881759e-03]
 [ 8.7500946e-04  3.4727683e-04  4.4509137e-04]
 [-1.6405305e-01 -3.3933815e-01  4.4761702e-02]
 [ 1.2543675e-01 -4.5288634e-02 -3.9883085e-02]
 [ 4.6142054e-01  5.2162677e-01 -3.8337645e-01]
 [ 2.2750944e-01 -4.6133816e-01  3.5128659e-01]
 [ 3.7745139e-01  4.8524797e-01  4.0173861e-01]
 [-1.9833478e-01  2.8912403e-02 -3.8490337e-01]
 [ 2.8837946e-01 -2.4498737e-01 -2.5513393e-01]
 [-3.7875581e-01  4.9456212e-01 -4.1063717e-01]
 [ 3.8674283e-01 -5.6625146e-01  2.8933319e-01]] 
Episode: 154: [[-7.9328544e-04  9.6300285e-04  2.5489624e-04]
 [ 1.7060063e-04 -9.7248651e-04 -1.3804545e-03]
 [ 8.8065723e-04  3.4513476e-04  4.5115256e-04]
 [-1.6405444e-01 -3.3935842e-01  4.4773296e-02]
 [ 1.2542590e-01 -4.5295946e-02 -3.9856307e-02]
 [ 4.6142656e-01  5.2164322e-01 -3.8338843e-01]
 [ 2.2751218e-01 -4.6133620e-01  3.5128319e-01]
 [ 3.7744755e-01  4.8525092e-01  4.0174100e-01]
 [-1.9833180e-01  2.8914981e-02 -3.8490728e-01]
 [ 2.8838515e-01 -2.4498275e-01 -2.5514376e-01]
 [-3.7875593e-01  4.9454367e-01 -4.1062316e-01]
 [ 3.8674304e-01 -5.6623298e-01  2.8933409e-01]] 
Episode: 155: [[-8.2625524e-04  1.0118519e-03  2.0061160e-04]
 [ 1.4525461e-04 -1.0040413e-03 -1.3667002e-03]
 [ 9.2715409e-04  2.9539128e-04  4.9902435e-04]
 [-1.6407217e-01 -3.3934778e-01  4.4798985e-02]
 [ 1.2544389e-01 -4.5320425e-02 -3.9830029e-02]
 [ 4.6145430e-01  5.2166587e-01 -3.8342804e-01]
 [ 2.2750698e-01 -4.6134356e-01  3.5128793e-01]
 [ 3.7745205e-01  4.8524460e-01  4.0173966e-01]
 [-1.9833817e-01  2.8908672e-02 -3.8490224e-01]
 [ 2.8834236e-01 -2.4492897e-01 -2.5513566e-01]
 [-3.7873060e-01  4.9451932e-01 -4.1060948e-01]
 [ 3.8679332e-01 -5.6625581e-01  2.8932244e-01]] 
Episode: 156: [[-8.4071181e-04  1.0410477e-03  1.5845090e-04]
 [ 1.2882781e-04 -1.0326495e-03 -1.3556833e-03]
 [ 9.5001300e-04  2.6176826e-04  5.3502125e-04]
 [-1.6406076e-01 -3.3934250e-01  4.4801176e-02]
 [ 1.2546490e-01 -4.5342311e-02 -3.9813962e-02]
 [ 4.6145722e-01  5.2168083e-01 -3.8344669e-01]
 [ 2.2749387e-01 -4.6135801e-01  3.5130006e-01]
 [ 3.7746260e-01  4.8523125e-01  4.0173838e-01]
 [-1.9835180e-01  2.8895777e-02 -3.8489017e-01]
 [ 2.8831294e-01 -2.4488276e-01 -2.5513634e-01]
 [-3.7870973e-01  4.9449044e-01 -4.1059691e-01]
 [ 3.8682151e-01 -5.6627369e-01  2.8931972e-01]] 
Episode: 157: [[-8.5764634e-04  1.0709834e-03  1.2015536e-04]
 [ 1.1309839e-04 -1.0593914e-03 -1.3428011e-03]
 [ 9.7491726e-04  2.2755955e-04  5.6611141e-04]
 [-1.6405398e-01 -3.3933222e-01  4.4806473e-02]
 [ 1.2548892e-01 -4.5364700e-02 -3.9800774e-02]
 [ 4.6146455e-01  5.2169114e-01 -3.8346717e-01]
 [ 2.2747378e-01 -4.6137920e-01  3.5131916e-01]
 [ 3.7747991e-01  4.8521116e-01  4.0173033e-01]
 [-1.9837230e-01  2.8876064e-02 -3.8487121e-01]
 [ 2.8828433e-01 -2.4483706e-01 -2.5513455e-01]
 [-3.7869075e-01  4.9446315e-01 -4.1058376e-01]
 [ 3.8685051e-01 -5.6629181e-01  2.8931168e-01]] 
Episode: 158: [[-8.72183649e-04  1.09780591e-03  8.61463923e-05]
 [ 1.01768426e-04 -1.08280883e-03 -1.33264973e-03]
 [ 9.96323302e-04  1.97484886e-04  5.93214470e-04]
 [-1.64043486e-01 -3.39321434e-01  4.48070988e-02]
 [ 1.25512257e-01 -4.53840792e-02 -3.97920609e-02]
 [ 4.61468041e-01  5.21698594e-01 -3.83483022e-01]
 [ 2.27451235e-01 -4.61402714e-01  3.51340652e-01]
 [ 3.77499759e-01  4.85188603e-01  4.01718259e-01]
 [-1.98395178e-01  2.88538635e-02 -3.84849995e-01]
 [ 2.88258195e-01 -2.44795218e-01 -2.55132914e-01]
 [-3.78672540e-01  4.94438440e-01 -4.10573751e-01]
 [ 3.86875719e-01 -5.66308737e-01  2.89304525e-01]] 
Episode: 159: [[-8.8309904e-04  1.1192502e-03  5.8196663e-05]
 [ 9.3291623e-05 -1.0951521e-03 -1.3273164e-03]
 [ 1.0105133e-03  1.7738102e-04  6.1705755e-04]
 [-1.6403355e-01 -3.3931878e-01  4.4803057e-02]
 [ 1.2552744e-01 -4.5392912e-02 -3.9790649e-02]
 [ 4.6146592e-01  5.2170920e-01 -3.8349053e-01]
 [ 2.2744006e-01 -4.6141499e-01  3.5135120e-01]
 [ 3.7750965e-01  4.8517701e-01  4.0171266e-01]
 [-1.9840604e-01  2.8842600e-02 -3.8484007e-01]
 [ 2.8823799e-01 -2.4476720e-01 -2.5513068e-01]
 [-3.7865910e-01  4.9442521e-01 -4.1056699e-01]
 [ 3.8689628e-01 -5.6632262e-01  2.8929999e-01]] 
Episode: 160: [[-9.6722605e-04  1.2054226e-03 -7.6267220e-06]
 [ 5.2685838e-05 -1.0880627e-03 -1.3112929e-03]
 [ 1.0904334e-03  9.8483513e-05  6.7721558e-04]
 [-1.6410017e-01 -3.3925614e-01  4.4854727e-02]
 [ 1.2556861e-01 -4.5405041e-02 -3.9806265e-02]
 [ 4.6152967e-01  5.2171826e-01 -3.8355058e-01]
 [ 2.2743063e-01 -4.6142673e-01  3.5136259e-01]
 [ 3.7752187e-01  4.8516524e-01  4.0170640e-01]
 [-1.9841842e-01  2.8830789e-02 -3.8482672e-01]
 [ 2.8815237e-01 -2.4471395e-01 -2.5506678e-01]
 [-3.7864077e-01  4.9445075e-01 -4.1057143e-01]
 [ 3.8698277e-01 -5.6637341e-01  2.8925243e-01]] 
Episode: 161: [[-1.0430029e-03  1.2839797e-03 -6.7791807e-05]
 [ 1.6138489e-05 -1.0833381e-03 -1.2960706e-03]
 [ 1.1623441e-03  2.6052780e-05  7.3173351e-04]
 [-1.6415830e-01 -3.3919734e-01  4.4900328e-02]
 [ 1.2560837e-01 -4.5417108e-02 -3.9821677e-02]
 [ 4.6158636e-01  5.2172303e-01 -3.8360447e-01]
 [ 2.2742075e-01 -4.6143886e-01  3.5137421e-01]
 [ 3.7753454e-01  4.8515308e-01  4.0169880e-01]
 [-1.9843067e-01  2.8818512e-02 -3.8481352e-01]
 [ 2.8807503e-01 -2.4466299e-01 -2.5501004e-01]
 [-3.7862301e-01  4.9447247e-01 -4.1057584e-01]
 [ 3.8706088e-01 -5.6642199e-01  2.8920975e-01]] 
Episode: 162: [[-1.1142247e-03  1.3568368e-03 -1.2218599e-04]
 [-1.4580185e-05 -1.0751443e-03 -1.2807145e-03]
 [ 1.2301117e-03 -4.0359770e-05  7.7897357e-04]
 [-1.6421609e-01 -3.3914444e-01  4.4946704e-02]
 [ 1.2564361e-01 -4.5427218e-02 -3.9836239e-02]
 [ 4.6164188e-01  5.2172965e-01 -3.8365668e-01]
 [ 2.2741178e-01 -4.6144983e-01  3.5138479e-01]
 [ 3.7754565e-01  4.8514202e-01  4.0169209e-01]
 [-1.9844215e-01  2.8807363e-02 -3.8480136e-01]
 [ 2.8800315e-01 -2.4461885e-01 -2.5495362e-01]
 [-3.7860680e-01  4.9449456e-01 -4.1058001e-01]
 [ 3.8713357e-01 -5.6646073e-01  2.8916410e-01]] 
Episode: 163: [[-1.1792284e-03  1.4243890e-03 -1.7228596e-04]
 [-3.7853992e-05 -1.0655726e-03 -1.2717516e-03]
 [ 1.2904468e-03 -1.0017314e-04  8.2344533e-04]
 [-1.6427018e-01 -3.3909598e-01  4.4989504e-02]
 [ 1.2567499e-01 -4.5433361e-02 -3.9851904e-02]
 [ 4.6169174e-01  5.2173650e-01 -3.8370332e-01]
 [ 2.2740650e-01 -4.6145687e-01  3.5139135e-01]
 [ 3.7755251e-01  4.8513505e-01  4.0168923e-01]
 [-1.9844991e-01  2.8800339e-02 -3.8479325e-01]
 [ 2.8793871e-01 -2.4457815e-01 -2.5490385e-01]
 [-3.7858990e-01  4.9451730e-01 -4.1058785e-01]
 [ 3.8719848e-01 -5.6649685e-01  2.8912559e-01]] 
Episode: 164: [[-1.2394098e-03  1.4860387e-03 -2.1732564e-04]
 [-5.9625327e-05 -1.0568238e-03 -1.2625004e-03]
 [ 1.3458967e-03 -1.5520948e-04  8.6359307e-04]
 [-1.6431879e-01 -3.3904964e-01  4.5027770e-02]
 [ 1.2570520e-01 -4.5439169e-02 -3.9867368e-02]
 [ 4.6173695e-01  5.2173930e-01 -3.8374540e-01]
 [ 2.2740002e-01 -4.6146494e-01  3.5139906e-01]
 [ 3.7756073e-01  4.8512691e-01  4.0168425e-01]
 [-1.9845845e-01  2.8792221e-02 -3.8478428e-01]
 [ 2.8787872e-01 -2.4453978e-01 -2.5485766e-01]
 [-3.7857553e-01  4.9453789e-01 -4.1059378e-01]
 [ 3.8725874e-01 -5.6653214e-01  2.8909001e-01]] 
Episode: 165: [[-1.2956860e-03  1.5422484e-03 -2.5737501e-04]
 [-8.1399543e-05 -1.0558229e-03 -1.2513936e-03]
 [ 1.4001322e-03 -2.0881447e-04  8.9779263e-04]
 [-1.6436462e-01 -3.3900061e-01  4.5068808e-02]
 [ 1.2573507e-01 -4.5447428e-02 -3.9873891e-02]
 [ 4.6178311e-01  5.2173215e-01 -3.8378999e-01]
 [ 2.2738548e-01 -4.6148098e-01  3.5141495e-01]
 [ 3.7757644e-01  4.8511076e-01  4.0167376e-01]
 [-1.9847518e-01  2.8775966e-02 -3.8476682e-01]
