Episode: 1: [[-0.04896965  0.00809058 -0.23044261  0.21346986  0.21627101  0.14393578
  -0.04122421  0.15534744 -0.13143326  0.19867912 -0.1851339  -0.2060474
  -0.04403428  0.2231655  -0.14100942 -0.148455    0.1896359 ]
 [-0.02975018 -0.06937516  0.02200721  0.16003455 -0.14070112  0.13020438
  -0.0344433  -0.139859    0.07788058 -0.16232349 -0.03638372  0.23898034
   0.09527989 -0.12263323  0.09837694  0.1209801   0.20872262]
 [-0.21855608 -0.20615198  0.1078115   0.21721983 -0.06565056 -0.13509722
   0.13503417  0.06746283 -0.1418049   0.0991965   0.22355177 -0.21369933
  -0.07966648 -0.21265931  0.09848797  0.03113616 -0.23761007]] 
Episode: 2: [[-0.04933616  0.00848287 -0.23083788  0.21307878  0.21665351  0.1435423
  -0.04156455  0.15573199 -0.1318294   0.1990378  -0.18474512 -0.20644295
  -0.04442666  0.22355501 -0.14140354 -0.14881489  0.19002298]
 [-0.02935319 -0.0689781   0.02240567  0.16043183 -0.14030369  0.13060232
  -0.0340456  -0.1394612   0.07827888 -0.1619271  -0.03598633  0.23937885
   0.09567735 -0.12223614  0.09877496  0.12137784  0.2091204 ]
 [-0.2189528  -0.20654984  0.10741376  0.2168237  -0.0660483  -0.13549422
   0.13463655  0.06706477 -0.1422019   0.09879985  0.22315389 -0.2140971
  -0.08006271 -0.21305703  0.09809095  0.03073853 -0.23800816]] 
Episode: 3: [[-0.04963614  0.00819624 -0.23115453  0.21277079  0.21636069  0.14322923
  -0.04186326  0.15543965 -0.13215092  0.19874251 -0.18503512 -0.206762
  -0.04473754  0.22326489 -0.14171857 -0.14911416  0.18973266]
 [-0.02900081 -0.06864329  0.02277319  0.16078018 -0.13996571  0.13097082
  -0.03368648 -0.13912137  0.07864098 -0.1615872  -0.03564633  0.23975097
   0.09603374 -0.1219049   0.09914687  0.12173389  0.20946184]
 [-0.21872188 -0.20638376  0.10755388  0.21704797 -0.06588328 -0.13528913
   0.13482     0.06718054 -0.14204147  0.0990349   0.22332284 -0.21396734
  -0.07984426 -0.21288761  0.09829558  0.03094622 -0.2379819 ]] 
Episode: 4: [[-0.04981855  0.00825898 -0.23115553  0.21269007  0.21629067  0.14325637
  -0.04198331  0.15544218 -0.13211237  0.19857202 -0.18497998 -0.20673464
  -0.04477859  0.22316949 -0.14168623 -0.1492714   0.18977557]
 [-0.02889162 -0.06868898  0.02278451  0.16088928 -0.13983965  0.13092512
  -0.03368827 -0.13905169  0.07864201 -0.16137078 -0.03570134  0.2397086
   0.09603766 -0.12168798  0.09907775  0.12177128  0.20949967]
 [-0.21849298 -0.20647965  0.1075271   0.21707971 -0.06592541 -0.13527602
   0.13507004  0.06703722 -0.14216685  0.09914967  0.22327225 -0.21393302
  -0.07973386 -0.21299228  0.09835452  0.03120041 -0.23819117]] 
Episode: 5: [[-0.04960719  0.00846733 -0.23095924  0.21290846  0.21643843  0.14347069
  -0.04176556  0.15560286 -0.13192645  0.19877698 -0.18478277 -0.20653304
  -0.04455471  0.22324352 -0.14154491 -0.14906581  0.18997085]
 [-0.02912142 -0.06892389  0.02255306  0.16066015 -0.14006472  0.13069108
  -0.03392057 -0.13927859  0.07841004 -0.16159785 -0.03593693  0.23947437
   0.09580556 -0.12190766  0.09884257  0.12154038  0.20927049]
 [-0.21825315 -0.20625165  0.10775889  0.21731289 -0.06569457 -0.13504338
   0.1353102   0.06726374 -0.14193746  0.09938578  0.22350265 -0.21370004
  -0.07949884 -0.21276446  0.09858809  0.03144199 -0.23796631]] 
Episode: 6: [[-0.04944471  0.00864121 -0.23088062  0.21309365  0.21651144  0.14359777
  -0.04158461  0.15570538 -0.13182878  0.19893579 -0.18463418 -0.20644878
  -0.04436534  0.22323722 -0.14153284 -0.14889541  0.1901188 ]
 [-0.02928976 -0.06908958  0.02239127  0.16048557 -0.1402218   0.13052225
  -0.03409243 -0.13943589  0.0782377  -0.16176258 -0.03610324  0.23930971
   0.09562862 -0.12205761  0.09867346  0.12137085  0.20910867]
 [-0.21808226 -0.20609751  0.10793094  0.21748029 -0.06552771 -0.1348707
   0.13547502  0.06742263 -0.1417618   0.09955197  0.22366343 -0.21352732
  -0.07933009 -0.21260016  0.09876463  0.03160924 -0.23780937]] 
Episode: 7: [[-0.04930852  0.00878634 -0.23074019  0.21327241  0.2165839   0.1437893
  -0.04145755  0.15585406 -0.13161966  0.19905378 -0.18446214 -0.2062986
  -0.04417679  0.22322941 -0.14138563 -0.14876911  0.19028567]
 [-0.02944564 -0.06924718  0.02224017  0.16031745 -0.14036372  0.13035583
  -0.03424243 -0.13959235  0.07806551 -0.16191894 -0.03626545  0.23915936
   0.09545884 -0.12220005  0.09850595  0.1212189   0.2089502 ]
 [-0.21791582 -0.20594619  0.10807794  0.21764126 -0.06537816 -0.13471556
   0.13563623  0.06757121 -0.14161219  0.099724    0.22381428 -0.21338369
  -0.07917196 -0.2124439   0.09892213  0.0317712  -0.23766007]] 
Episode: 8: [[-0.04910932  0.00883668 -0.23056635  0.21350527  0.2164606   0.14400333
  -0.04125801  0.15584381 -0.13144454  0.19925085 -0.18440652 -0.2061182
  -0.04393585  0.22307894 -0.1411859  -0.14856665  0.1903346 ]
 [-0.02943861 -0.06915861  0.02231438  0.1603186  -0.14025807  0.13040957
  -0.03424063 -0.13949552  0.07812547 -0.1619061  -0.03618485  0.23923345
   0.0954584  -0.12209217  0.09856369  0.12123276  0.20904036]
 [-0.2180005  -0.2060494   0.10798222  0.21755986 -0.0654797  -0.13479784
   0.13555223  0.06746611 -0.14169493  0.09964534  0.22371915 -0.2134785
  -0.07925602 -0.21254507  0.09884691  0.03168839 -0.23776293]] 
Episode: 9: [[-0.04897083  0.00882291 -0.23060574  0.21367595  0.21625063  0.1440119
  -0.04110819  0.15570416 -0.13143899  0.19938806 -0.18453537 -0.20613691
  -0.04374281  0.22284043 -0.14118826 -0.14842665  0.19022146]
 [-0.0294107  -0.06905974  0.02240184  0.16034614 -0.14013903  0.13048175
  -0.03420858 -0.13938525  0.078196   -0.16187072 -0.03608371  0.2393144
   0.09547538 -0.12196864  0.09863177  0.1212687   0.20914678]
 [-0.21808584 -0.2061555   0.10789839  0.21747023 -0.06557345 -0.1348747
   0.13545518  0.06736755 -0.14176948  0.09956189  0.2236349  -0.21355891
  -0.07934258 -0.21263406  0.09877926  0.03160229 -0.23786075]] 
Episode: 10: [[-0.04916142  0.00862728 -0.23080188  0.21348539  0.21605183  0.14381658
  -0.04129813  0.15550694 -0.13163437  0.19919688 -0.18473285 -0.20633265
  -0.04393245  0.22264138 -0.14138377 -0.14861801  0.19002458]
 [-0.0292144  -0.06886126  0.02260045  0.1605424  -0.1399397   0.13067968
  -0.03401214 -0.13918634  0.07839398 -0.1616742  -0.03588511  0.23951277
   0.0956713  -0.12176931  0.09882959  0.12146522  0.2093456 ]
 [-0.21828498 -0.20635565  0.10769864  0.21727087 -0.06577306 -0.13507392
   0.13525538  0.06716761 -0.14196873  0.09936281  0.22343566 -0.21375863
  -0.07954176 -0.21283346  0.09858037  0.03140307 -0.23806071]] 
Episode: 11: [[-0.04910922  0.00865173 -0.23079549  0.21350993  0.21608055  0.14383106
  -0.04125746  0.15552521 -0.1316253   0.19924253 -0.18471202 -0.20631616
  -0.04390496  0.22267058 -0.14136723 -0.14858961  0.19004771]
 [-0.02908766 -0.06872424  0.02278082  0.1606769  -0.13980989  0.13085105
  -0.03388133 -0.13904959  0.07856966 -0.16154498 -0.0357469   0.23968846
   0.09580383 -0.12163655  0.0990073   0.12159712  0.20948213]
 [-0.21851522 -0.20658863  0.10745122  0.21704571 -0.06600427 -0.13532
   0.13502678  0.06693477 -0.14221504  0.09913696  0.22320005 -0.2140099
  -0.07976344 -0.21306671  0.09833145  0.03117985 -0.23829485]] 
Episode: 12: [[-0.04902475  0.0087064  -0.2307408   0.2135689   0.2161389   0.14389019
  -0.04118073  0.15557179 -0.13156989  0.19932435 -0.18466182 -0.20625818
  -0.04384128  0.22272809 -0.14130586 -0.14852132  0.19010064]
 [-0.02897278 -0.06860016  0.0229422   0.16080044 -0.13969226  0.1310039
  -0.03376446 -0.13892603  0.07872609 -0.16142993 -0.03562273  0.23984642
   0.09592418 -0.12151696  0.0991656   0.12171407  0.20960449]
 [-0.21875209 -0.20682508  0.10720089  0.21681291 -0.06624046 -0.13556913
   0.13479215  0.06669986 -0.14246368  0.09890561  0.2229624  -0.21426405
  -0.079992   -0.21330257  0.09808074  0.03095003 -0.23853104]] 
Episode: 13: [[-0.04894573  0.00874532 -0.23066737  0.21363154  0.21621665  0.14395493
  -0.04109464  0.15562859 -0.13153297  0.1994057  -0.18462643 -0.20620233
  -0.04377912  0.2228149  -0.14124264 -0.14843157  0.19016065]
 [-0.02881333 -0.06842659  0.02314802  0.1609629  -0.13952683  0.13119753
  -0.03360155 -0.13875754  0.07893144 -0.16126694 -0.03544599  0.24005328
   0.09607769 -0.12135333  0.09936478  0.12187299  0.20976871]
 [-0.21902898 -0.20710401  0.10690843  0.21653959 -0.06652467 -0.13585679
   0.13451253  0.06641894 -0.14275172  0.09863001  0.22268021 -0.21455894
  -0.08025528 -0.21358654  0.09779271  0.03067365 -0.2388105 ]] 
Episode: 14: [[-0.04883538  0.00883761 -0.23063949  0.21375646  0.21632536  0.14395218
  -0.0409525   0.15571779 -0.13154635  0.19951925 -0.1845506  -0.20620221
  -0.04364807  0.2229234  -0.14126442 -0.14828302  0.19025633]
 [-0.02863145 -0.06824298  0.02339466  0.16114241 -0.13934213  0.13143605
  -0.03342065 -0.13857831  0.07917552 -0.16108051 -0.0352557   0.24030197
   0.09624563 -0.1211734   0.09961122  0.1220426   0.20994817]
 [-0.2193364  -0.20741297  0.10659093  0.21623066 -0.06683674 -0.13616776
   0.1341994   0.06611437 -0.14306302  0.09832355  0.2223699  -0.2148772
  -0.08055657 -0.21389344  0.09748241  0.03036549 -0.23911798]] 
Episode: 15: [[-0.04862767  0.00903001 -0.2304777   0.21397348  0.21652919  0.1440894
  -0.04072415  0.15590952 -0.13141136  0.19973117 -0.18436725 -0.20606622
  -0.04342662  0.22312386 -0.14114596 -0.14805155  0.19045019]
 [-0.0284032  -0.06801478  0.02367317  0.16136721 -0.1391129   0.131708
  -0.03319571 -0.1383545   0.0794508  -0.16084795 -0.03502172  0.24058239
   0.09646262 -0.12094769  0.09989031  0.12225972  0.21017538]
 [-0.21966085 -0.20773947  0.10625429  0.2159039  -0.06716588 -0.13649791
   0.13386919  0.0657913  -0.14339413  0.0979997   0.22204436 -0.21521376
  -0.08087707 -0.21422099  0.09715117  0.03003838 -0.2394424 ]] 
Episode: 16: [[-0.04841493  0.00925934 -0.23030311  0.21417579  0.21676964  0.14425051
  -0.0405045   0.15612783 -0.1312401   0.19994386 -0.18414046 -0.20591217
  -0.04323676  0.22335854 -0.14098029 -0.14782372  0.19066554]
 [-0.02813443 -0.06776237  0.02398432  0.16163483 -0.13885981  0.13201353
  -0.0329317  -0.13809595  0.07975516 -0.16057417 -0.03476418  0.2408957
   0.09672648 -0.12069988  0.10019898  0.12251759  0.2104383 ]
 [-0.22000974 -0.20809011  0.10589456  0.21555513 -0.06751866 -0.1368535
   0.13351905  0.06544235 -0.14375024  0.09765144  0.22169347 -0.2155743
  -0.08121929 -0.21457127  0.09679406  0.02968932 -0.23979208]] 
Episode: 17: [[-0.04820333  0.00949716 -0.2301596   0.21436225  0.21703741  0.14440976
  -0.04029503  0.15635537 -0.13106701  0.20016047 -0.18390171 -0.20576657
  -0.04305291  0.22361003 -0.14082615 -0.1475843   0.19089448]
 [-0.02789061 -0.06752834  0.02426704  0.16186614 -0.13864265  0.1323002
  -0.03270123 -0.13786767  0.08003871 -0.16033316 -0.03453682  0.24118604
   0.0969448  -0.12047842  0.10048097  0.12275039  0.21066542]
 [-0.22033659 -0.2084296   0.10557503  0.21524714 -0.06786271 -0.13719068
   0.13320294  0.0651131  -0.14408836  0.09732834  0.22135934 -0.21590964
  -0.08151828 -0.2149103   0.09646642  0.02935467 -0.24012034]] 
Episode: 18: [[-0.04793486  0.00978668 -0.22992706  0.2146194   0.21734937  0.14464773
  -0.04002557  0.15663995 -0.13081822  0.20042852 -0.18360893 -0.2055369
  -0.04279558  0.22391066 -0.14060359 -0.14729184  0.1911796 ]
 [-0.0277411  -0.06741798  0.02442907  0.16197021 -0.13853785  0.13249242
  -0.03257427 -0.13775729  0.08019171 -0.16020143 -0.03442582  0.24136321
   0.09704291 -0.12038563  0.10066342  0.12284304  0.21076693]
 [-0.22064811 -0.20878357  0.1052596   0.21495536 -0.06821162 -0.13752529
   0.13289903  0.06477302 -0.14440835  0.09704184  0.22102909 -0.21623269
  -0.08181646 -0.21524881  0.0961635   0.0290553  -0.24045591]] 
