Episode: 1: [[-0.11657108  0.01925944 -0.5485631   0.5081599   0.51482797  0.34263572
  -0.09813324  0.36980087]
 [-0.31287375  0.4729509  -0.44070682 -0.4904909  -0.10482257  0.5312401
  -0.33566955 -0.35339358]
 [ 0.45142373 -0.07081959 -0.16514593  0.05238764  0.38095844 -0.33493564
   0.3099484  -0.08199146]
 [-0.33293104  0.18539287 -0.3864072  -0.08661058  0.568887    0.22681153
  -0.2919255   0.23418397]
 [ 0.28799024  0.49685922 -0.52026755 -0.49073985  0.2566427   0.5170866
  -0.15627958 -0.32159573]
 [ 0.32144564  0.16059367 -0.3375632   0.2361349   0.5321596  -0.50870615
  -0.18964416 -0.5062304 ]
 [ 0.001       0.          0.          0.          0.          0.
   0.          0.        ]
 [ 0.001       0.          0.          0.          0.          0.
   0.          0.        ]
 [ 0.001       0.          0.          0.          0.          0.
   0.          0.        ]] 
Episode: 2: [[-1.16571084e-01  1.92594435e-02 -5.48563123e-01  5.08159876e-01
   5.14827967e-01  3.42635721e-01 -9.81332436e-02  3.69800866e-01]
 [-3.12873751e-01  4.72950906e-01 -4.40706819e-01 -4.90490913e-01
  -1.04822569e-01  5.31240106e-01 -3.35669547e-01 -3.53393584e-01]
 [ 4.51423734e-01 -7.08195940e-02 -1.65145934e-01  5.23876399e-02
   3.80958438e-01 -3.34935635e-01  3.09948415e-01 -8.19914564e-02]
 [-3.33031029e-01  1.85292870e-01 -3.86507183e-01 -8.65105763e-02
   5.68786979e-01  2.26911530e-01 -2.91825503e-01  2.34283969e-01]
 [ 2.87890255e-01  4.96759236e-01 -5.20367563e-01 -4.90839839e-01
   2.56542712e-01  5.16986609e-01 -1.56379580e-01 -3.21695715e-01]
 [ 3.21345657e-01  1.60493672e-01 -3.37663174e-01  2.36034900e-01
   5.32059610e-01 -5.08806169e-01 -1.89744160e-01 -5.06330431e-01]
 [ 1.09999999e-03  1.00000005e-04  9.99999975e-05  9.99999975e-05
   9.99999975e-05  9.99999975e-05 -1.00000005e-04  9.99999829e-05]
 [ 9.00000043e-04  1.00000005e-04  9.99999902e-05  9.99999975e-05
   1.00000005e-04  9.99999975e-05 -9.99999975e-05 -9.99999902e-05]
 [ 9.00000043e-04  9.99999975e-05 -9.99999975e-05 -9.99999902e-05
  -9.99999975e-05 -9.99999975e-05  9.99999975e-05 -9.99999975e-05]] 
Episode: 3: [[-1.1664550e-01  1.9185031e-02 -5.4848874e-01  5.0823426e-01
   5.1475358e-01  3.4256130e-01 -9.8207660e-02  3.6972645e-01]
 [-3.1294817e-01  4.7287649e-01 -4.4078124e-01 -4.9056530e-01
  -1.0489685e-01  5.3116572e-01 -3.3574396e-01 -3.5346800e-01]
 [ 4.5134932e-01 -7.0894010e-02 -1.6522035e-01  5.2462049e-02
   3.8088402e-01 -3.3501005e-01  3.0987400e-01 -8.2065873e-02]
 [-3.3296373e-01  1.8536454e-01 -3.8659886e-01 -8.6575091e-02
   5.6868845e-01  2.2684655e-01 -2.9186767e-01  2.3424694e-01]
 [ 2.8795248e-01  4.9683172e-01 -5.2029616e-01 -4.9077779e-01
   2.5655919e-01  5.1704276e-01 -1.5631986e-01 -3.2172552e-01]
 [ 3.2127291e-01  1.6041873e-01 -3.3774000e-01  2.3596281e-01
   5.3198159e-01 -5.0887161e-01 -1.8981670e-01 -5.0640965e-01]
 [ 1.1974220e-03  1.6843170e-04  1.6764640e-04  1.7188601e-04
   1.6929630e-04  1.6579543e-04 -1.8000766e-04  1.6635681e-04]
 [ 8.1356871e-04  1.6772884e-04  1.7444887e-04  1.6712083e-04
   1.6863839e-04  1.8568682e-04 -1.6544174e-04 -1.5946248e-04]
 [ 8.0839515e-04  1.3928497e-04 -1.8699525e-04 -1.9952130e-04
  -1.9844070e-04 -1.7601572e-04  9.3652459e-05 -1.9844333e-04]] 
Episode: 4: [[-1.16695657e-01  1.91542599e-02 -5.48410356e-01  5.08302987e-01
   5.14667749e-01  3.42519432e-01 -9.81757566e-02  3.69742602e-01]
 [-3.12998474e-01  4.72824603e-01 -4.40747648e-01 -4.90619868e-01
  -1.04962036e-01  5.31118453e-01 -3.35800499e-01 -3.53506207e-01]
 [ 4.51297373e-01 -7.09357336e-02 -1.65170893e-01  5.25404848e-02
   3.80940080e-01 -3.35025549e-01  3.09846818e-01 -8.20928887e-02]
 [-3.32901925e-01  1.85421765e-01 -3.86691064e-01 -8.66560712e-02
   5.68618536e-01  2.26779282e-01 -2.91929424e-01  2.34179392e-01]
 [ 2.87985981e-01  4.96882081e-01 -5.20248055e-01 -4.90751505e-01
   2.56514430e-01  5.17040372e-01 -1.56333551e-01 -3.21791798e-01]
 [ 3.21261853e-01  1.60385296e-01 -3.37821364e-01  2.35918358e-01
   5.31934142e-01 -5.08849561e-01 -1.89889967e-01 -5.06450891e-01]
 [ 1.28287147e-03  2.22463612e-04  2.21637441e-04  2.27685785e-04
   2.26454693e-04  2.17024382e-04 -2.47787713e-04  2.18073677e-04]
 [ 8.01275077e-04  2.21078124e-04  2.48219410e-04  2.19744776e-04
   2.25020587e-04  2.68538890e-04 -1.60924887e-04 -2.02871408e-04]
 [ 7.27128412e-04  1.67945225e-04 -2.59185559e-04 -2.78916006e-04
  -2.78191845e-04 -2.35635074e-04  8.66214905e-05 -2.80405628e-04]] 
Episode: 5: [[-1.1672699e-01  1.9130005e-02 -5.4833961e-01  5.0837666e-01
   5.1470959e-01  3.4251547e-01 -9.8144069e-02  3.6975864e-01]
 [-3.1303486e-01  4.7278377e-01 -4.4071412e-01 -4.9057171e-01
  -1.0495526e-01  5.3108823e-01 -3.3584160e-01 -3.5353905e-01]
 [ 4.5125821e-01 -7.0973001e-02 -1.6512421e-01  5.2621156e-02
   3.8098052e-01 -3.3503589e-01  3.0982909e-01 -8.2114935e-02]
 [-3.3285233e-01  1.8546797e-01 -3.8676056e-01 -8.6718775e-02
   5.6855017e-01  2.2672012e-01 -2.9196835e-01  2.3412727e-01]
 [ 2.8800958e-01  4.9692169e-01 -5.2020717e-01 -4.9072576e-01
   2.5653473e-01  5.1704639e-01 -1.5634567e-01 -3.2184139e-01]
 [ 3.2125908e-01  1.6036873e-01 -3.3787537e-01  2.3589796e-01
   5.3188312e-01 -5.0882596e-01 -1.8996653e-01 -5.0649518e-01]
 [ 1.3536563e-03  2.6674606e-04  2.6589187e-04  2.7348686e-04
   2.7349446e-04  2.5907066e-04 -3.0300303e-04  2.6047273e-04]
 [ 7.9494691e-04  2.6480434e-04  3.0925631e-04  2.6302336e-04
   2.7147913e-04  3.3841457e-04 -1.5400216e-04 -2.3791974e-04]
 [ 6.7002163e-04  1.9198196e-04 -3.1699470e-04 -3.4235261e-04
  -3.4219649e-04 -2.8390915e-04  8.1628241e-05 -3.4480655e-04]] 
Episode: 6: [[-1.1675358e-01  1.9109432e-02 -5.4828000e-01  5.0843894e-01
   5.1474482e-01  3.4251198e-01 -9.8117456e-02  3.6977208e-01]
 [-3.1306568e-01  4.7274920e-01 -4.4068596e-01 -4.9053118e-01
  -1.0495000e-01  5.3106266e-01 -3.3587638e-01 -3.5356691e-01]
 [ 4.5122498e-01 -7.1004651e-02 -1.6508572e-01  5.2688811e-02
   3.8101360e-01 -3.3504486e-01  3.0981398e-01 -8.2133800e-02]
 [-3.3281049e-01  1.8550698e-01 -3.8681942e-01 -8.6772315e-02
   5.6849211e-01  2.2666983e-01 -2.9200146e-01  2.3408310e-01]
 [ 2.8802952e-01  4.9695510e-01 -5.2017260e-01 -4.9070418e-01
   2.5655153e-01  5.1705134e-01 -1.5635625e-01 -3.2188377e-01]
 [ 3.2125673e-01  1.6035467e-01 -3.3792105e-01  2.3588067e-01
   5.3183997e-01 -5.0880599e-01 -1.9003125e-01 -5.0653267e-01]
 [ 1.4134708e-03  3.0417476e-04  3.0329611e-04  3.1219775e-04
   3.1325180e-04  2.9460966e-04 -3.4968075e-04  2.9631832e-04]
 [ 7.8964746e-04  3.0176391e-04  3.6088715e-04  2.9960461e-04
   3.1075391e-04  3.9754919e-04 -1.4811520e-04 -2.6753789e-04]
 [ 6.2175322e-04  2.1229975e-04 -3.6585884e-04 -3.9596250e-04
  -3.9628849e-04 -3.2471187e-04  7.7417215e-05 -3.9922266e-04]] 
Episode: 7: [[-1.1674880e-01  1.9104177e-02 -5.4821682e-01  5.0850153e-01
   5.1479775e-01  3.4252241e-01 -9.8087087e-02  3.6978740e-01]
 [-3.1309068e-01  4.7271994e-01 -4.4065407e-01 -4.9049413e-01
  -1.0493935e-01  5.3104490e-01 -3.3590692e-01 -3.5358953e-01]
 [ 4.5120588e-01 -7.1019553e-02 -1.6502684e-01  5.2765179e-02
   3.8107270e-01 -3.3503798e-01  3.0981019e-01 -8.2141958e-02]
 [-3.3277932e-01  1.8553895e-01 -3.8687992e-01 -8.6829871e-02
   5.6843340e-01  2.2661507e-01 -2.9203254e-01  2.3404188e-01]
 [ 2.8804624e-01  4.9698377e-01 -5.2014285e-01 -4.9068713e-01
   2.5656307e-01  5.1705462e-01 -1.5637147e-01 -3.2192343e-01]
 [ 3.2125437e-01  1.6034187e-01 -3.3796123e-01  2.3586605e-01
   5.3180242e-01 -5.0878912e-01 -1.9008674e-01 -5.0656486e-01]
 [ 1.4658930e-03  3.3647666e-04  3.3560005e-04  3.4564876e-04
   3.4768772e-04  3.2530312e-04 -3.8755118e-04  3.2726687e-04]
 [ 7.8857364e-04  3.3366686e-04  4.0613732e-04  3.3121181e-04
   3.4478327e-04  4.4604810e-04 -1.4382640e-04 -2.9304565e-04]
 [ 5.6291133e-04  2.2681018e-04 -4.0918417e-04 -4.4624016e-04
  -4.4439716e-04 -3.6041188e-04  7.4234122e-05 -4.4733688e-04]] 
Episode: 8: [[-1.1674476e-01  1.9099493e-02 -5.4816127e-01  5.0855678e-01
   5.1484424e-01  3.4253174e-01 -9.8060437e-02  3.6980101e-01]
 [-3.1311259e-01  4.7269407e-01 -4.4062606e-01 -4.9046108e-01
  -1.0493146e-01  5.3102922e-01 -3.3593354e-01 -3.5360932e-01]
 [ 4.5118895e-01 -7.1032718e-02 -1.6497655e-01  5.2831545e-02
   3.8112387e-01 -3.3503237e-01  3.0980664e-01 -8.2149267e-02]
 [-3.3275202e-01  1.8556698e-01 -3.8693279e-01 -8.6879387e-02
   5.6838232e-01  2.2656710e-01 -2.9205957e-01  2.3400617e-01]
 [ 2.8806087e-01  4.9700883e-01 -5.2011687e-01 -4.9067202e-01
   2.5657353e-01  5.1705778e-01 -1.5638463e-01 -3.2195786e-01]
 [ 3.2125238e-01  1.6033065e-01 -3.3799621e-01  2.3585315e-01
   5.3176969e-01 -5.0877440e-01 -1.9013527e-01 -5.0659299e-01]
 [ 1.5115315e-03  3.6467143e-04  3.6380222e-04  3.7485154e-04
   3.7773928e-04  3.5209948e-04 -4.2076717e-04  3.5428701e-04]
 [ 7.8711112e-04  3.6152147e-04  4.4549492e-04  3.5880005e-04
   3.7447526e-04  4.8827691e-04 -1.4019742e-04 -3.1533657e-04]
 [ 5.1154953e-04  2.3943618e-04 -4.4707058e-04 -4.9020676e-04
  -4.8641575e-04 -3.9160930e-04  7.1428083e-05 -4.8944738e-04]] 
Episode: 9: [[-1.1673951e-01  1.9096179e-02 -5.4811162e-01  5.0860643e-01
   5.1488763e-01  3.4254181e-01 -9.8035865e-02  3.6981383e-01]
 [-3.1313166e-01  4.7267136e-01 -4.4059861e-01 -4.9042904e-01
  -1.0492304e-01  5.3101629e-01 -3.3595669e-01 -3.5362634e-01]
 [ 4.5117411e-01 -7.1044482e-02 -1.6493195e-01  5.2890316e-02
   3.8116777e-01 -3.3502740e-01  3.0980358e-01 -8.2155637e-02]
 [-3.3272767e-01  1.8559182e-01 -3.8697860e-01 -8.6921029e-02
   5.6833833e-01  2.2652604e-01 -2.9208240e-01  2.3397511e-01]
 [ 2.8807381e-01  4.9703094e-01 -5.2009392e-01 -4.9065879e-01
   2.5658259e-01  5.1706064e-01 -1.5639585e-01 -3.2198820e-01]
 [ 3.2125059e-01  1.6032076e-01 -3.3802706e-01  2.3584177e-01
   5.3174084e-01 -5.0876141e-01 -1.9017805e-01 -5.0661778e-01]
 [ 1.5515821e-03  3.8950605e-04  3.8864967e-04  4.0059179e-04
   4.0423093e-04  3.7572123e-04 -4.5008055e-04  3.7811234e-04]
 [ 7.8533869e-04  3.8606543e-04  4.7991239e-04  3.8309305e-04
   4.0060742e-04  5.2553311e-04 -1.3711090e-04 -3.3499714e-04]
 [ 4.6592939e-04  2.5044262e-04 -4.8062656e-04 -5.2912603e-04
  -5.2356685e-04 -4.1918733e-04  6.8755333e-05 -5.2698440e-04]] 
Episode: 10: [[-1.1673491e-01  1.9093236e-02 -5.4806757e-01  5.0865048e-01
   5.1492620e-01  3.4255072e-01 -9.8013997e-02  3.6982521e-01]
 [-3.1314862e-01  4.7265118e-01 -4.4057456e-01 -4.9040133e-01
  -1.0491572e-01  5.3100479e-01 -3.3597723e-01 -3.5364142e-01]
 [ 4.5116091e-01 -7.1054965e-02 -1.6489257e-01  5.2942306e-02
   3.8120669e-01 -3.3502305e-01  3.0980086e-01 -8.2161285e-02]
 [-3.3270621e-01  1.8561380e-01 -3.8701975e-01 -8.6958863e-02
   5.6829882e-01  2.2648916e-01 -2.9210302e-01  2.3394741e-01]
 [ 2.8808531e-01  4.9705058e-01 -5.2007353e-01 -4.9064705e-01
   2.5659063e-01  5.1706314e-01 -1.5640582e-01 -3.2201514e-01]
 [ 3.2124901e-01  1.6031197e-01 -3.3805445e-01  2.3583166e-01
   5.3171521e-01 -5.0874990e-01 -1.9021602e-01 -5.0663978e-01]
 [ 1.5871455e-03  4.1155380e-04  4.1070842e-04  4.2344321e-04
   4.2775067e-04  3.9669184e-04 -4.7609420e-04  3.9926294e-04]
 [ 7.8383595e-04  4.0785456e-04  5.1050290e-04  4.0466222e-04
   4.2381286e-04  5.5869023e-04 -1.3432070e-04 -3.5244285e-04]
 [ 4.2547134e-04  2.6022107e-04 -5.1040435e-04 -5.6366867e-04
  -5.5654312e-04 -4.4366726e-04  6.6384084e-05 -5.6030153e-04]] 
Episode: 11: [[-1.1672800e-01  1.9093433e-02 -5.4802644e-01  5.0869310e-01
   5.1497191e-01  3.4256196e-01 -9.7991213e-02  3.6983699e-01]
 [-3.1316441e-01  4.7263399e-01 -4.4054931e-01 -4.9036384e-01
  -1.0488419e-01  5.3099531e-01 -3.3599362e-01 -3.5365403e-01]
 [ 4.5114911e-01 -7.1063936e-02 -1.6485628e-01  5.2990276e-02
   3.8124293e-01 -3.3501995e-01  3.0979896e-01 -8.2165949e-02]
 [-3.3268663e-01  1.8563353e-01 -3.8705611e-01 -8.6989015e-02
   5.6826097e-01  2.2645488e-01 -2.9212135e-01  2.3392282e-01]
 [ 2.8809276e-01  4.9706700e-01 -5.2005649e-01 -4.9064133e-01
   2.5658897e-01  5.1705807e-01 -1.5642609e-01 -3.2204840e-01]
 [ 3.2124758e-01  1.6030407e-01 -3.3807886e-01  2.3582317e-01
   5.3169286e-01 -5.0873905e-01 -1.9024894e-01 -5.0665945e-01]
 [ 1.6188202e-03  4.3123562e-04  4.3038867e-04  4.4382678e-04
   4.4875560e-04  4.1540072e-04 -4.9955805e-04  4.1813991e-04]
 [ 7.8212173e-04  4.2730116e-04  5.3774135e-04  4.2389307e-04
   4.4453080e-04  5.8959768e-04 -1.3097616e-04 -3.6786782e-04]
 [ 3.8940570e-04  2.6899803e-04 -5.3680560e-04 -5.9453130e-04
  -5.8613362e-04 -4.6560648e-04  6.3877189e-05 -5.9050665e-04]] 
Episode: 12: [[-1.16721429e-01  1.90886278e-02 -5.47989488e-01  5.08729458e-01
   5.14997721e-01  3.42567593e-01 -9.79715213e-02  3.69846135e-01]
 [-3.13180298e-01  4.72615272e-01 -4.40529972e-01 -4.90352780e-01
  -1.04884416e-01  5.30983269e-01 -3.36009771e-01 -3.53666931e-01]
 [ 4.51137364e-01 -7.10722730e-02 -1.64823502e-01  5.30298389e-02
   3.81271303e-01 -3.35017771e-01  3.09796423e-01 -8.21708143e-02]
 [-3.32668722e-01  1.85652152e-01 -3.87086958e-01 -8.70106816e-02
   5.68233192e-01  2.26427749e-01 -2.92135000e-01  2.33903587e-01]
 [ 2.88101822e-01  4.97082472e-01 -5.20040452e-01 -4.90633905e-01
   2.56591320e-01  5.17059684e-01 -1.56431958e-01 -3.22065979e-01]
 [ 3.21246386e-01  1.60296693e-01 -3.38100731e-01  2.35816032e-01
   5.31672716e-01 -5.08729160e-01 -1.90278962e-01 -5.06677210e-01]
 [ 1.64715364e-03  4.48855717e-04  4.48017032e-04  4.62088356e-04
   4.67560167e-04  4.32154600e-04 -5.20354195e-04  4.35067661e-04]
 [ 7.79999362e-04  4.44716570e-04  5.61554392e-04  4.41103039e-04
   4.63062519e-04  6.16936770e-04 -1.28376560e-04 -3.81856633e-04]
 [ 3.58034187e-04  2.77098618e-04 -5.60192915e-04 -6.22126448e-04
  -6.12685108e-04 -4.85285069e-04  6.15555473e-05 -6.17675250e-04]] 
Episode: 13: [[-1.1671629e-01  1.9083917e-02 -5.4795617e-01  5.0876170e-01
   5.1502043e-01  3.4257340e-01 -9.7953290e-02  3.6985454e-01]
 [-3.1319460e-01  4.7259843e-01 -4.4051388e-01 -4.9034423e-01
  -1.0488601e-01  5.3097260e-01 -3.3602419e-01 -3.5367870e-01]
 [ 4.5112708e-01 -7.1079485e-02 -1.6479300e-01  5.3065035e-02
   3.8129562e-01 -3.3501655e-01  3.0979347e-01 -8.2175478e-02]
 [-3.3265248e-01  1.8566896e-01 -3.8711408e-01 -8.7029010e-02
   5.6820887e-01  2.2640383e-01 -2.9214665e-01  2.3388717e-01]
 [ 2.8811011e-01  4.9709651e-01 -5.2002597e-01 -4.9062708e-01
   2.5659356e-01  5.1706159e-01 -1.5643623e-01 -3.2208076e-01]
 [ 3.2124439e-01  1.6028731e-01 -3.3812240e-01  2.3580414e-01
   5.3165364e-01 -5.0872099e-01 -1.9030884e-01 -5.0669426e-01]
 [ 1.6724925e-03  4.6468293e-04  4.6385374e-04  4.7850306e-04
   4.8442147e-04  4.4721676e-04 -5.3936610e-04  4.5026964e-04]
 [ 7.7760662e-04  4.6036867e-04  5.8275345e-04  4.5656081e-04
   4.7969705e-04  6.4134109e-04 -1.2630888e-04 -3.9446633e-04]
 [ 3.2953097e-04  2.8432452e-04 -5.8132282e-04 -6.4705865e-04
  -6.3661463e-04 -5.0304522e-04  5.9357215e-05 -6.4239680e-04]] 
Episode: 14: [[-1.1671495e-01  1.9078597e-02 -5.4792625e-01  5.0878990e-01
   5.1503795e-01  3.4257773e-01 -9.7937092e-02  3.6986187e-01]
 [-3.1320903e-01  4.7258282e-01 -4.4050366e-01 -4.9033624e-01
  -1.0490453e-01  5.3096330e-01 -3.3603767e-01 -3.5368937e-01]
 [ 4.5111310e-01 -7.1089059e-02 -1.6477498e-01  5.3087004e-02
   3.8130242e-01 -3.3502036e-01  3.0978626e-01 -8.2182914e-02]
 [-3.3263803e-01  1.8568408e-01 -3.8713861e-01 -8.7046169e-02
   5.6818694e-01  2.2638234e-01 -2.9215735e-01  2.3387267e-01]
 [ 2.8811774e-01  4.9710923e-01 -5.2001286e-01 -4.9062070e-01
   2.5659597e-01  5.1706380e-01 -1.5643947e-01 -3.2209337e-01]
 [ 3.2124311e-01  1.6027991e-01 -3.3814037e-01  2.3579665e-01
   5.3163815e-01 -5.0871229e-01 -1.9033490e-01 -5.0670862e-01]
 [ 1.6954152e-03  4.7896011e-04  4.7814025e-04  4.9330725e-04
   4.9961108e-04  4.6079492e-04 -5.5652967e-04  4.6396747e-04]
 [ 7.7540131e-04  4.7448362e-04  6.0197414e-04  4.7051109e-04
   4.9470313e-04  6.6347007e-04 -1.2431636e-04 -4.0581802e-04]
 [ 3.0375633e-04  2.9091813e-04 -6.0030399e-04 -6.6944835e-04
  -6.5816042e-04 -5.1903049e-04  5.7425386e-05 -6.6466990e-04]] 
Episode: 15: [[-1.16713822e-01  1.90724265e-02 -5.47898650e-01  5.08814573e-01
   5.15053988e-01  3.42580706e-01 -9.79230627e-02  3.69868308e-01]
 [-3.13221902e-01  4.72567797e-01 -4.40495372e-01 -4.90338892e-01
  -1.04926884e-01  5.30954599e-01 -3.36050361e-01 -3.53699893e-01]
 [ 4.51100647e-01 -7.10978284e-02 -1.64757177e-01  5.31092994e-02
   3.81308645e-01 -3.35023731e-01  3.09779704e-01 -8.21896195e-02]
 [-3.32625240e-01  1.85697928e-01 -3.87162149e-01 -8.70617554e-02
   5.68166852e-01  2.26361588e-01 -2.92167485e-01  2.33859375e-01]
 [ 2.88125575e-01  4.97121274e-01 -5.20000398e-01 -4.90613312e-01
   2.56601572e-01  5.17068386e-01 -1.56439170e-01 -3.22102010e-01]
 [ 3.21242005e-01  1.60273269e-01 -3.38156462e-01  2.35790104e-01
   5.31624198e-01 -5.08704424e-01 -1.90358281e-01 -5.06721556e-01]
 [ 1.71614566e-03  4.91856132e-04  4.91057406e-04  5.06685465e-04
   5.13338251e-04  4.73066146e-04 -5.71945915e-04  4.76340909e-04]
 [ 7.73518928e-04  4.87233396e-04  6.19409140e-04  4.83110896e-04
   5.08251891e-04  6.83435472e-04 -1.22564190e-04 -4.16077819e-04]
 [ 2.79943604e-04  2.96785671e-04 -6.17487705e-04 -6.89678767e-04
  -6.77643868e-04 -5.33461687e-04  5.56200794e-05 -6.84756495e-04]] 
Episode: 16: [[-1.16698615e-01  1.90820191e-02 -5.47870576e-01  5.08834898e-01
   5.15085518e-01  3.42603624e-01 -9.79049504e-02  3.69882762e-01]
 [-3.13224882e-01  4.72564936e-01 -4.40480262e-01 -4.90325987e-01
  -1.04910329e-01  5.30964673e-01 -3.36051077e-01 -3.53703171e-01]
 [ 4.51091409e-01 -7.11032376e-02 -1.64746419e-01  5.31288758e-02
   3.81309032e-01 -3.35027218e-01  3.09770823e-01 -8.21955875e-02]
 [-3.32618803e-01  1.85709968e-01 -3.87188882e-01 -8.70826393e-02
   5.68139493e-01  2.26337537e-01 -2.92177379e-01  2.33845457e-01]
 [ 2.88132459e-01  4.97132450e-01 -5.19989073e-01 -4.90606576e-01
   2.56607294e-01  5.17072201e-01 -1.56439483e-01 -3.22108120e-01]
 [ 3.21242839e-01  1.60267144e-01 -3.38170499e-01  2.35784709e-01
   5.31612217e-01 -5.08695781e-01 -1.90379232e-01 -5.06732821e-01]
 [ 1.73520762e-03  5.03584335e-04  5.02750743e-04  5.18780435e-04
   5.25798299e-04  4.84194752e-04 -5.85934322e-04  4.87555109e-04]
 [ 7.72609026e-04  4.98787675e-04  6.35309261e-04  4.94536711e-04
   5.20536327e-04  7.01852958e-04 -1.20665958e-04 -4.25379025e-04]
 [ 2.59544031e-04  3.02174245e-04 -6.32939569e-04 -7.07879371e-04
  -6.95207098e-04 -5.46502066e-04  5.40107685e-05 -7.02816411e-04]] 
Episode: 17: [[-1.16685264e-01  1.90907344e-02 -5.47844768e-01  5.08853078e-01
   5.15113592e-01  3.42623681e-01 -9.78881493e-02  3.69895101e-01]
 [-3.13226104e-01  4.72564667e-01 -4.40456629e-01 -4.90306437e-01
  -1.04884431e-01  5.30976653e-01 -3.36049616e-01 -3.53704929e-01]
 [ 4.51083243e-01 -7.11079910e-02 -1.64735243e-01  5.31478375e-02
   3.81310165e-01 -3.35030049e-01  3.09763163e-01 -8.22011754e-02]
 [-3.32610488e-01  1.85721859e-01 -3.87206584e-01 -8.70882347e-02
   5.68121970e-01  2.26322323e-01 -2.92179406e-01  2.33839154e-01]
 [ 2.88138509e-01  4.97142464e-01 -5.19978881e-01 -4.90600377e-01
   2.56612033e-01  5.17074704e-01 -1.56440109e-01 -3.22114587e-01]
 [ 3.21243525e-01  1.60261452e-01 -3.38183433e-01  2.35779583e-01
   5.31601250e-01 -5.08688033e-01 -1.90398425e-01 -5.06743073e-01]
 [ 1.75285421e-03  5.14263869e-04  5.13377425e-04  5.29765792e-04
   5.37137443e-04  4.94291657e-04 -5.98272658e-04  4.97728586e-04]
 [ 7.72732019e-04  5.09275822e-04  6.50034344e-04  5.04928059e-04
   5.31724654e-04  7.18836207e-04 -1.18424541e-04 -4.33763751e-04]
 [ 2.42224763e-04  3.07372859e-04 -6.46677276e-04 -7.24165991e-04
  -7.11009838e-04 -5.58257976e-04  5.27355187e-05 -7.18780968e-04]] 
Episode: 18: [[-1.16674222e-01  1.90982670e-02 -5.47821879e-01  5.08866906e-01
   5.15139282e-01  3.42641592e-01 -9.78740528e-02  3.69906038e-01]
 [-3.13226938e-01  4.72564250e-01 -4.40437406e-01 -4.90302026e-01
  -1.04859486e-01  5.30987322e-01 -3.36048692e-01 -3.53706688e-01]
 [ 4.51075137e-01 -7.11130947e-02 -1.64727658e-01  5.31604886e-02
   3.81309569e-01 -3.35034132e-01  3.09754759e-01 -8.22072774e-02]
 [-3.32602769e-01  1.85732722e-01 -3.87222588e-01 -8.70916769e-02
   5.68106830e-01  2.26309270e-01 -2.92179078e-01  2.33833745e-01]
 [ 2.88144052e-01  4.97151673e-01 -5.19969463e-01 -4.90594268e-01
   2.56616473e-01  5.17077923e-01 -1.56440452e-01 -3.22120339e-01]
 [ 3.21244270e-01  1.60256445e-01 -3.38194966e-01  2.35775128e-01
   5.31591356e-01 -5.08680940e-01 -1.90415725e-01 -5.06752372e-01]
 [ 1.76893058e-03  5.23960334e-04  5.23023773e-04  5.39733854e-04
   5.47434145e-04  5.03456395e-04 -6.09407376e-04  5.06957294e-04]
 [ 7.72877655e-04  5.18793589e-04  6.63442537e-04  5.14360028e-04
   5.41885151e-04  7.34295405e-04 -1.16346120e-04 -4.41364944e-04]
 [ 2.26668300e-04  3.12117307e-04 -6.59108511e-04 -7.38917384e-04
  -7.25325313e-04 -5.68911666e-04  5.16123255e-05 -7.33192661e-04]] 
Episode: 19: [[-1.1666918e-01  1.9104106e-02 -5.4780102e-01  5.0887626e-01
   5.1515436e-01  3.4265301e-01 -9.7863190e-02  3.6991537e-01]
 [-3.1323001e-01  4.7256190e-01 -4.4042346e-01 -4.9031094e-01
  -1.0485962e-01  5.3099340e-01 -3.3605137e-01 -3.5370940e-01]
 [ 4.5106709e-01 -7.1118176e-02 -1.6471951e-01  5.3172234e-02
   3.8130534e-01 -3.3503786e-01  3.0974740e-01 -8.2212530e-02]
 [-3.3259609e-01  1.8574214e-01 -3.8723952e-01 -8.7097682e-02
   5.6809169e-01  2.2629654e-01 -2.9218024e-01  2.3382667e-01]
 [ 2.8814951e-01  4.9716055e-01 -5.1996076e-01 -4.9058789e-01
   2.5662333e-01  5.1708263e-01 -1.5643537e-01 -3.2212180e-01]
 [ 3.2124507e-01  1.6025220e-01 -3.3820528e-01  2.3577134e-01
   5.3158253e-01 -5.0867444e-01 -1.9043092e-01 -5.0676066e-01]
 [ 1.7836547e-03  5.3278520e-04  5.3181581e-04  5.4881914e-04
   5.5682682e-04  5.1179546e-04 -6.1889680e-04  5.1534903e-04]
 [ 7.7352865e-04  5.2744226e-04  6.7591504e-04  5.2295235e-04
   5.5114867e-04  7.4855128e-04 -1.1419452e-04 -4.4823828e-04]
 [ 2.1408442e-04  3.1649653e-04 -6.7035272e-04 -7.5219339e-04
  -7.3824410e-04 -5.7855708e-04  5.0893705e-05 -7.4597873e-04]] 
Episode: 20: [[-1.16664670e-01  1.91093180e-02 -5.47782063e-01  5.08884788e-01
   5.15168130e-01  3.42663437e-01 -9.78533104e-02  3.69923770e-01]
 [-3.13232839e-01  4.72559720e-01 -4.40410852e-01 -4.90319312e-01
  -1.04859985e-01  5.30999005e-01 -3.36053699e-01 -3.53711903e-01]
 [ 4.51059669e-01 -7.11227879e-02 -1.64712846e-01  5.31823710e-02
   3.81301016e-01 -3.35041314e-01  3.09740603e-01 -8.22173953e-02]
 [-3.32590044e-01  1.85750693e-01 -3.87254894e-01 -8.71031657e-02
   5.68077922e-01  2.26284936e-01 -2.92181343e-01  2.33820200e-01]
 [ 2.88154513e-01  4.97168630e-01 -5.19952834e-01 -4.90582049e-01
   2.56629705e-01  5.17087042e-01 -1.56430587e-01 -3.22122902e-01]
 [ 3.21245909e-01  1.60248458e-01 -3.38214427e-01  2.35768318e-01
   5.31574667e-01 -5.08668244e-01 -1.90444663e-01 -5.06768167e-01]
 [ 1.79703953e-03  5.40805922e-04  5.39806846e-04  5.57076652e-04
   5.65363676e-04  5.19374269e-04 -6.27515139e-04  5.22976217e-04]
 [ 7.74136512e-04  5.35303028e-04  6.87263382e-04  5.30762540e-04
   5.59569453e-04  7.61506904e-04 -1.12227346e-04 -4.54483874e-04]
 [ 2.02615280e-04  3.20470921e-04 -6.80575031e-04 -7.64255237e-04
  -7.49982253e-04 -5.87321527e-04  5.02429211e-05 -7.57590402e-04]] 
Episode: 21: [[-1.16655745e-01  1.91161484e-02 -5.47762036e-01  5.08897543e-01
   5.15193284e-01  3.42686862e-01 -9.78437513e-02  3.69936526e-01]
 [-3.13234389e-01  4.72558677e-01 -4.40391451e-01 -4.90314722e-01
  -1.04837388e-01  5.31010985e-01 -3.36057067e-01 -3.53710324e-01]
 [ 4.51056629e-01 -7.11237565e-02 -1.64691657e-01  5.32037169e-02
   3.81305546e-01 -3.35036695e-01  3.09738636e-01 -8.22188482e-02]
 [-3.32584321e-01  1.85757682e-01 -3.87275517e-01 -8.71101990e-02
   5.68058789e-01  2.26265624e-01 -2.92183489e-01  2.33812109e-01]
 [ 2.88162261e-01  4.97177243e-01 -5.19944847e-01 -4.90573883e-01
   2.56638706e-01  5.17093360e-01 -1.56414732e-01 -3.22119445e-01]
 [ 3.21246833e-01  1.60245255e-01 -3.38222623e-01  2.35765964e-01
   5.31567633e-01 -5.08662462e-01 -1.90456614e-01 -5.06774902e-01]
 [ 1.80988095e-03  5.48120821e-04  5.47133212e-04  5.64611983e-04
   5.72951569e-04  5.26311924e-04 -6.36521203e-04  5.29946410e-04]
 [ 7.76380941e-04  5.42471244e-04  6.98397693e-04  5.37923304e-04
   5.67314622e-04  7.73966953e-04 -1.10039895e-04 -4.60072333e-04]
 [ 1.89974133e-04  3.23906046e-04 -6.89810666e-04 -7.75302236e-04
  -7.60589086e-04 -5.95231482e-04  4.92845138e-05 -7.67919410e-04]] 
Episode: 22: [[-1.1664776e-01  1.9122213e-02 -5.4774392e-01  5.0890887e-01
   5.1521587e-01  3.4270802e-01 -9.7835317e-02  3.6994794e-01]
 [-3.1323561e-01  4.7255781e-01 -4.4037333e-01 -4.9030995e-01
  -1.0481629e-01  5.3102213e-01 -3.3606002e-01 -3.5370865e-01]
 [ 4.5105392e-01 -7.1124509e-02 -1.6467342e-01  5.3223122e-02
   3.8131061e-01 -3.3503190e-01  3.0973729e-01 -8.2219750e-02]
 [-3.3257908e-01  1.8576404e-01 -3.8729423e-01 -8.7116502e-02
   5.6804144e-01  2.2624804e-01 -2.9218543e-01  2.3380481e-01]
 [ 2.8816944e-01  4.9718514e-01 -5.1993752e-01 -4.9056619e-01
   2.5664717e-01  5.1709950e-01 -1.5639989e-01 -3.2211620e-01]
 [ 3.2124764e-01  1.6024224e-01 -3.3823025e-01  2.3576374e-01
   5.3156108e-01 -5.0865722e-01 -1.9046770e-01 -5.0678104e-01]
 [ 1.8215440e-03  5.5477361e-04  5.5379758e-04  5.7146727e-04
   5.7985232e-04  5.3262390e-04 -6.4472045e-04  5.3628784e-04]
 [ 7.7848451e-04  5.4899318e-04  7.0853147e-04  5.4443878e-04
   5.7436014e-04  7.8531296e-04 -1.0804073e-04 -4.6515604e-04]
 [ 1.7845765e-04  3.2702819e-04 -6.9821876e-04 -7.8535837e-04
  -7.7024312e-04 -6.0242886e-04  4.8414000e-05 -7.7732047e-04]] 
Episode: 23: [[-1.1664174e-01  1.9126717e-02 -5.4772860e-01  5.0891805e-01
   5.1523340e-01  3.4272748e-01 -9.7827137e-02  3.6995828e-01]
 [-3.1323677e-01  4.7255713e-01 -4.4035867e-01 -4.9030238e-01
  -1.0479874e-01  5.3103256e-01 -3.3606258e-01 -3.5370684e-01]
 [ 4.5105079e-01 -7.1125619e-02 -1.6465792e-01  5.3238854e-02
   3.8131383e-01 -3.3502847e-01  3.0973518e-01 -8.2220972e-02]
 [-3.3257288e-01  1.8577003e-01 -3.8731104e-01 -8.7120242e-02
   5.6802726e-01  2.2623138e-01 -2.9218644e-01  2.3380105e-01]
 [ 2.8817546e-01  4.9719214e-01 -5.1993102e-01 -4.9055970e-01
   2.5665358e-01  5.1710385e-01 -1.5638769e-01 -3.2211491e-01]
 [ 3.2124862e-01  1.6023965e-01 -3.3823699e-01  2.3576213e-01
   5.3155529e-01 -5.0865227e-01 -1.9047742e-01 -5.0678653e-01]
 [ 1.8320833e-03  5.6082505e-04  5.5986107e-04  5.7769771e-04
   5.8610126e-04  5.3836382e-04 -6.5237400e-04  5.4205273e-04]
 [ 7.7420648e-04  5.5490795e-04  7.1760523e-04  5.5035943e-04
   5.8033486e-04  7.9543894e-04 -1.0656735e-04 -4.7053478e-04]
 [ 1.6800681e-04  3.2986433e-04 -7.0589560e-04 -7.9452281e-04
  -7.7903690e-04 -6.0898921e-04  4.7576814e-05 -7.8594737e-04]] 
Episode: 24: [[-1.1664042e-01  1.9127553e-02 -5.4771870e-01  5.0892258e-01
   5.1524037e-01  3.4274057e-01 -9.7822025e-02  3.6996502e-01]
 [-3.1323770e-01  4.7255623e-01 -4.4034946e-01 -4.9030668e-01
  -1.0478441e-01  5.3104109e-01 -3.3606634e-01 -3.5370588e-01]
 [ 4.5104629e-01 -7.1129069e-02 -1.6464931e-01  5.3247690e-02
   3.8131437e-01 -3.3502814e-01  3.0973157e-01 -8.2222998e-02]
 [-3.3256677e-01  1.8577561e-01 -3.8732564e-01 -8.7121613e-02
   5.6801540e-01  2.2621682e-01 -2.9218727e-01  2.3379748e-01]
 [ 2.8818083e-01  4.9719876e-01 -5.1992524e-01 -4.9055380e-01
   2.5665918e-01  5.1710820e-01 -1.5637457e-01 -3.2210940e-01]
 [ 3.2124937e-01  1.6023697e-01 -3.3824342e-01  2.3575994e-01
   5.3154975e-01 -5.0864798e-01 -1.9048655e-01 -5.0679171e-01]
 [ 1.8411145e-03  5.6628580e-04  5.6530838e-04  5.8328058e-04
   5.9168576e-04  5.4356642e-04 -6.6032587e-04  5.4728618e-04]
 [ 7.6894939e-04  5.6027871e-04  7.2544458e-04  5.5571005e-04
   5.8569084e-04  8.0430205e-04 -1.0552246e-04 -4.7549038e-04]
 [ 1.5803818e-04  3.3235989e-04 -7.1303250e-04 -8.0296886e-04
  -7.8711577e-04 -6.1499479e-04  4.6724297e-05 -7.9401769e-04]] 
Episode: 25: [[-1.1664067e-01  1.9128017e-02 -5.4771042e-01  5.0892681e-01
   5.1524466e-01  3.4275120e-01 -9.7820051e-02  3.6997193e-01]
 [-3.1324029e-01  4.7255427e-01 -4.4035223e-01 -4.9030513e-01
  -1.0477725e-01  5.3104776e-01 -3.3607608e-01 -3.5370445e-01]
 [ 4.5104733e-01 -7.1127877e-02 -1.6462970e-01  5.3273700e-02
   3.8133353e-01 -3.3502263e-01  3.0973360e-01 -8.2220308e-02]
 [-3.3256036e-01  1.8578100e-01 -3.8733277e-01 -8.7111346e-02
   5.6801093e-01  2.2620626e-01 -2.9218197e-01  2.3379830e-01]
 [ 2.8818592e-01  4.9720487e-01 -5.1991969e-01 -4.9054793e-01
   2.5666574e-01  5.1711231e-01 -1.5636086e-01 -3.2210410e-01]
 [ 3.2125053e-01  1.6023597e-01 -3.3824849e-01  2.3576227e-01
   5.3154534e-01 -5.0864404e-01 -1.9049037e-01 -5.0679511e-01]
 [ 1.8491581e-03  5.7124015e-04  5.7025021e-04  5.8834947e-04
   5.9674011e-04  5.4829335e-04 -6.6796190e-04  5.5205007e-04]
 [ 7.6313724e-04  5.6516251e-04  7.3220249e-04  5.6055322e-04
   5.9052109e-04  8.1214937e-04 -1.0490015e-04 -4.8004865e-04]
 [ 1.4851881e-04  3.3449853e-04 -7.1965362e-04 -8.1071741e-04
  -7.9452508e-04 -6.2049227e-04  4.5867684e-05 -8.0156897e-04]] 
Episode: 26: [[-1.16641201e-01  1.91281624e-02 -5.47703147e-01  5.08930206e-01
   5.15247881e-01  3.42760503e-01 -9.78185162e-02  3.69977921e-01]
 [-3.13242704e-01  4.72552180e-01 -4.40354884e-01 -4.90307331e-01
  -1.04772523e-01  5.31053424e-01 -3.36085290e-01 -3.53703588e-01]
 [ 4.51048315e-01 -7.11270496e-02 -1.64612561e-01  5.32964543e-02
   3.81350428e-01 -3.35017979e-01  3.09735328e-01 -8.22182670e-02]
 [-3.32554787e-01  1.85785815e-01 -3.87340039e-01 -8.71032402e-02
   5.68006217e-01  2.26195931e-01 -2.92177707e-01  2.33798459e-01]
 [ 2.88190484e-01  4.97210383e-01 -5.19914687e-01 -4.90542710e-01
   2.56671429e-01  5.17115831e-01 -1.56348571e-01 -3.22099566e-01]
 [ 3.21251541e-01  1.60235018e-01 -3.38253140e-01  2.35764250e-01
   5.31541348e-01 -5.08640468e-01 -1.90493971e-01 -5.06798267e-01]
 [ 1.85636664e-03  5.75740880e-04  5.74742560e-04  5.92954922e-04
   6.01322856e-04  5.52590820e-04 -6.75018644e-04  5.56383748e-04]
 [ 7.57328060e-04  5.69605909e-04  7.38206320e-04  5.64946851e-04
   5.94894984e-04  8.19157460e-04 -1.04425584e-04 -4.84219257e-04]
 [ 1.39589130e-04  3.36374040e-04 -7.25740101e-04 -8.17817519e-04
  -8.01297429e-04 -6.25516404e-04  4.50340776e-05 -8.08541605e-04]] 
Episode: 27: [[-1.1664171e-01  1.9128259e-02 -5.4769653e-01  5.0893331e-01
   5.1525074e-01  3.4276897e-01 -9.7817145e-02  3.6998338e-01]
 [-3.1324494e-01  4.7255021e-01 -4.4035739e-01 -4.9030939e-01
  -1.0476837e-01  5.3105855e-01 -3.3609372e-01 -3.5370278e-01]
 [ 4.5104915e-01 -7.1126364e-02 -1.6459709e-01  5.3317070e-02
   3.8136569e-01 -3.3501375e-01  3.0973688e-01 -8.2216397e-02]
 [-3.3254969e-01  1.8579020e-01 -3.8734666e-01 -8.7095819e-02
   5.6800193e-01  2.2618654e-01 -2.9217380e-01  2.3379862e-01]
 [ 2.8819466e-01  4.9721542e-01 -5.1991016e-01 -4.9053797e-01
   2.5667661e-01  5.1711905e-01 -1.5633737e-01 -3.2209542e-01]
 [ 3.2125247e-01  1.6023415e-01 -3.3825737e-01  2.3576605e-01
   5.3153771e-01 -5.0863725e-01 -1.9049726e-01 -5.0680113e-01]
 [ 1.8629041e-03  5.7984010e-04  5.7883374e-04  5.9714832e-04
   6.0549477e-04  5.5650470e-04 -6.8147416e-04  5.6033104e-04]
 [ 7.5194088e-04  5.7365326e-04  7.4364938e-04  5.6894636e-04
   5.9887557e-04  8.2551554e-04 -1.0402974e-04 -4.8802263e-04]
 [ 1.3143815e-04  3.3807970e-04 -7.3128910e-04 -8.2429074e-04
  -8.0747087e-04 -6.3009537e-04  4.4268574e-05 -8.1490428e-04]] 
Episode: 28: [[-1.16642199e-01  1.91282947e-02 -5.47690392e-01  5.08936107e-01
   5.15253663e-01  3.42777163e-01 -9.78159308e-02  3.69988561e-01]
 [-3.13246936e-01  4.72548306e-01 -4.40359533e-01 -4.90311027e-01
  -1.04764469e-01  5.31063676e-01 -3.36101294e-01 -3.53701949e-01]
 [ 4.51050043e-01 -7.11256638e-02 -1.64582416e-01  5.33357263e-02
   3.81380081e-01 -3.35009605e-01  3.09738427e-01 -8.22144821e-02]
 [-3.32544833e-01  1.85794294e-01 -3.87352109e-01 -8.70884433e-02
   5.67998588e-01  2.26177916e-01 -2.92170167e-01  2.33798817e-01]
 [ 2.88198322e-01  4.97219950e-01 -5.19906044e-01 -4.90533769e-01
   2.56681144e-01  5.17121434e-01 -1.56327635e-01 -3.22092235e-01]
 [ 3.21253330e-01  1.60233378e-01 -3.38261217e-01  2.35767722e-01
   5.31534433e-01 -5.08634269e-01 -1.90500140e-01 -5.06803691e-01]
 [ 1.86888652e-03  5.83576504e-04  5.82561304e-04  6.00967091e-04
   6.09290728e-04  5.60068933e-04 -6.87381136e-04  5.63928683e-04]
 [ 7.46937003e-04  5.77339262e-04  7.48627877e-04  5.72581717e-04
   6.02494518e-04  8.31225014e-04 -1.03592916e-04 -4.91487095e-04]
 [ 1.24109443e-04  3.39655991e-04 -7.36323243e-04 -8.30161793e-04
  -8.13073071e-04 -6.34254655e-04  4.36166738e-05 -8.20606598e-04]] 
Episode: 29: [[-1.16638422e-01  1.91311669e-02 -5.47682106e-01  5.08941472e-01
   5.15258372e-01  3.42785567e-01 -9.78140756e-02  3.69994402e-01]
 [-3.13248634e-01  4.72546160e-01 -4.40358996e-01 -4.90310192e-01
  -1.04759276e-01  5.31068385e-01 -3.36107224e-01 -3.53700936e-01]
 [ 4.51046169e-01 -7.11289570e-02 -1.64580926e-01  5.33404499e-02
   3.81380618e-01 -3.35012257e-01  3.09732765e-01 -8.22173432e-02]
 [-3.32540780e-01  1.85797945e-01 -3.87358785e-01 -8.70816484e-02
   5.67994118e-01  2.26169825e-01 -2.92168140e-01  2.33797431e-01]
 [ 2.88201630e-01  4.97223884e-01 -5.19902468e-01 -4.90530342e-01
   2.56683916e-01  5.17123044e-01 -1.56319216e-01 -3.22090060e-01]
 [ 3.21254253e-01  1.60232812e-01 -3.38264585e-01  2.35769391e-01
   5.31531513e-01 -5.08631527e-01 -1.90502539e-01 -5.06806016e-01]
 [ 1.87430379e-03  5.86971466e-04  5.85954054e-04  6.04467001e-04
   6.12733071e-04  5.63314883e-04 -6.92763540e-04  5.67202398e-04]
 [ 7.42299831e-04  5.80693246e-04  7.52886932e-04  5.75882441e-04
   6.05757290e-04  8.36250314e-04 -1.03296370e-04 -4.94696957e-04]
 [ 1.17005889e-04  3.40954284e-04 -7.40945281e-04 -8.35563231e-04
  -8.18204193e-04 -6.38054917e-04  4.29449392e-05 -8.25882948e-04]] 
Episode: 30: [[-1.1662597e-01  1.9141966e-02 -5.4767144e-01  5.0895137e-01
   5.1527476e-01  3.4279764e-01 -9.7807497e-02  3.7000349e-01]
 [-3.1324649e-01  4.7254920e-01 -4.4033700e-01 -4.9027267e-01
  -1.0474646e-01  5.3107983e-01 -3.3610183e-01 -3.5369354e-01]
 [ 4.5104668e-01 -7.1127608e-02 -1.6457009e-01  5.3353697e-02
   3.8139164e-01 -3.3500743e-01  3.0973411e-01 -8.2213238e-02]
 [-3.3253703e-01  1.8580128e-01 -3.8736522e-01 -8.7075710e-02
   5.6798941e-01  2.2616120e-01 -2.9216793e-01  2.3379542e-01]
 [ 2.8820354e-01  4.9722674e-01 -5.1990163e-01 -4.9052823e-01
   2.5666875e-01  5.1712120e-01 -1.5632088e-01 -3.2209000e-01]
 [ 3.2125449e-01  1.6023162e-01 -3.3826849e-01  2.3576955e-01
   5.3152823e-01 -5.0862974e-01 -1.9050591e-01 -5.0680840e-01]
 [ 1.8793457e-03  5.9007946e-04  5.8905093e-04  6.0765736e-04
   6.1588484e-04  5.6628283e-04 -6.9745997e-04  5.7018810e-04]
 [ 7.3821103e-04  5.8375206e-04  7.5686310e-04  5.7889591e-04
   6.0872704e-04  8.4091350e-04 -1.0290921e-04 -4.9761136e-04]
 [ 1.1068220e-04  3.4212181e-04 -7.4520649e-04 -8.4055058e-04
  -8.2293607e-04 -6.4154604e-04  4.2255200e-05 -8.3084038e-04]] 
Episode: 31: [[-1.16614707e-01  1.91516411e-02 -5.47661901e-01  5.08960187e-01
   5.15289307e-01  3.42808574e-01 -9.78016630e-02  3.70011657e-01]
 [-3.13244700e-01  4.72551793e-01 -4.40317541e-01 -4.90239590e-01
  -1.04736328e-01  5.31090200e-01 -3.36097300e-01 -3.53687346e-01]
 [ 4.51045603e-01 -7.11276978e-02 -1.64564043e-01  5.33616655e-02
   3.81397188e-01 -3.35005343e-01  3.09731960e-01 -8.22117627e-02]
 [-3.32533628e-01  1.85804307e-01 -3.87371302e-01 -8.70707929e-02
   5.67984879e-01  2.26153135e-01 -2.92167932e-01  2.33793393e-01]
 [ 2.88205296e-01  4.97229278e-01 -5.19900918e-01 -4.90526408e-01
   2.56654739e-01  5.17119408e-01 -1.56322673e-01 -3.22090000e-01]
 [ 3.21254581e-01  1.60230532e-01 -3.38272125e-01  2.35769704e-01
   5.31525195e-01 -5.08628130e-01 -1.90509111e-01 -5.06810606e-01]
 [ 1.88394915e-03  5.92912023e-04  5.91872493e-04  6.10564894e-04
   6.18762453e-04  5.68988675e-04 -7.01625191e-04  5.72910649e-04]
 [ 7.34470843e-04  5.86539390e-04  7.60495139e-04  5.81642264e-04
   6.11433294e-04  8.45156901e-04 -1.02529528e-04 -5.00269700e-04]
 [ 1.04923325e-04  3.43186955e-04 -7.49088300e-04 -8.45093862e-04
  -8.27246520e-04 -6.44725456e-04  4.16267067e-05 -8.35351937e-04]] 
Episode: 32: [[-1.1660463e-01  1.9160002e-02 -5.4765379e-01  5.0896782e-01
   5.1530039e-01  3.4281936e-01 -9.7796507e-02  3.7001857e-01]
 [-3.1324375e-01  4.7255361e-01 -4.4030389e-01 -4.9021354e-01
  -1.0473169e-01  5.3109962e-01 -3.3609337e-01 -3.5368186e-01]
 [ 4.5104411e-01 -7.1128130e-02 -1.6455953e-01  5.3368781e-02
   3.8140073e-01 -3.3500281e-01  3.0973080e-01 -8.2210548e-02]
 [-3.3253103e-01  1.8580700e-01 -3.8737679e-01 -8.7065130e-02
   5.6798136e-01  2.2614534e-01 -2.9216826e-01  2.3379159e-01]
 [ 2.8820559e-01  4.9723127e-01 -5.1990068e-01 -4.9052605e-01
   2.5663823e-01  5.1711708e-01 -1.5632735e-01 -3.2209146e-01]
 [ 3.2125455e-01  1.6022943e-01 -3.3827549e-01  2.3576957e-01
   5.3152227e-01 -5.0862682e-01 -1.9051242e-01 -5.0681269e-01]
 [ 1.8881029e-03  5.9548480e-04  5.9443101e-04  6.1320298e-04
   6.2135723e-04  5.7145179e-04 -7.0545112e-04  5.7538110e-04]
 [ 7.3088717e-04  5.8907719e-04  7.6379196e-04  5.8414479e-04
   6.1389187e-04  8.4901851e-04 -1.0217963e-04 -5.0269056e-04]
 [ 9.9160927e-05  3.4407838e-04 -7.5263402e-04 -8.4922917e-04
  -8.3117798e-04 -6.4761215e-04  4.1056581e-05 -8.3943573e-04]] 
Episode: 33: [[-1.16595306e-01  1.91678386e-02 -5.47646344e-01  5.08974791e-01
   5.15311062e-01  3.42829257e-01 -9.77919251e-02  3.70024890e-01]
 [-3.13242942e-01  4.72555071e-01 -4.40293014e-01 -4.90191191e-01
  -1.04728036e-01  5.31107903e-01 -3.36090147e-01 -3.53677124e-01]
 [ 4.51042861e-01 -7.11286291e-02 -1.64555520e-01  5.33756986e-02
   3.81404370e-01 -3.35000575e-01  3.09729308e-01 -8.22097063e-02]
 [-3.32529068e-01  1.85809299e-01 -3.87382984e-01 -8.70617926e-02
   5.67977011e-01  2.26137251e-01 -2.92169601e-01  2.33789518e-01]
 [ 2.88205832e-01  4.97233093e-01 -5.19900501e-01 -4.90525723e-01
   2.56623209e-01  5.17114937e-01 -1.56331614e-01 -3.22092801e-01]
 [ 3.21254581e-01  1.60228550e-01 -3.38278443e-01  2.35769629e-01
   5.31519771e-01 -5.08625507e-01 -1.90515175e-01 -5.06814539e-01]
 [ 1.89178425e-03  5.97816426e-04  5.96754020e-04  6.15600380e-04
   6.23715867e-04  5.73691621e-04 -7.09005690e-04  5.77630242e-04]
 [ 7.27460021e-04  5.91383548e-04  7.66658515e-04  5.86411799e-04
   6.16116391e-04  8.52465164e-04 -1.01912156e-04 -5.04905242e-04]
 [ 9.40582686e-05  3.44930217e-04 -7.55806221e-04 -8.52938916e-04
  -8.34719627e-04 -6.50216825e-04  4.06039762e-05 -8.43013404e-04]] 
Episode: 34: [[-1.16587467e-01  1.91748813e-02 -5.47639668e-01  5.08980930e-01
   5.15320718e-01  3.42838138e-01 -9.77878124e-02  3.70030552e-01]
 [-3.13242286e-01  4.72556382e-01 -4.40283537e-01 -4.90171015e-01
  -1.04725115e-01  5.31115353e-01 -3.36087257e-01 -3.53672892e-01]
 [ 4.51041639e-01 -7.11288974e-02 -1.64552093e-01  5.33817522e-02
   3.81407678e-01 -3.34998518e-01  3.09727997e-01 -8.22089314e-02]
 [-3.32527131e-01  1.85811460e-01 -3.87388200e-01 -8.70580226e-02
   5.67973554e-01  2.26130292e-01 -2.92170376e-01  2.33787999e-01]
 [ 2.88206071e-01  4.97234762e-01 -5.19900322e-01 -4.90525395e-01
   2.56609440e-01  5.17112970e-01 -1.56335637e-01 -3.22093993e-01]
 [ 3.21254641e-01  1.60227746e-01 -3.38281155e-01  2.35769704e-01
   5.31517446e-01 -5.08624256e-01 -1.90517679e-01 -5.06816208e-01]
 [ 1.89514330e-03  5.99938503e-04  5.98869985e-04  6.17784390e-04
   6.25859015e-04  5.75731974e-04 -7.12310488e-04  5.79678395e-04]
 [ 7.24301266e-04  5.93483215e-04  7.69251201e-04  5.88474504e-04
   6.18137186e-04  8.55581136e-04 -1.01704463e-04 -5.06927609e-04]
 [ 8.93572651e-05  3.45699256e-04 -7.58702401e-04 -8.56322702e-04
  -8.37949396e-04 -6.52590708e-04  4.01892066e-05 -8.46284034e-04]] 
Episode: 35: [[-1.16577014e-01  1.91857331e-02 -5.47630489e-01  5.08988500e-01
   5.15332222e-01  3.42848510e-01 -9.77816284e-02  3.70038241e-01]
 [-3.13239872e-01  4.72560257e-01 -4.40270036e-01 -4.90148336e-01
  -1.04721554e-01  5.31124830e-01 -3.36083323e-01 -3.53666246e-01]
 [ 4.51041400e-01 -7.11283535e-02 -1.64546967e-01  5.33881783e-02
   3.81411403e-01 -3.34993780e-01  3.09728295e-01 -8.22065175e-02]
 [-3.32526237e-01  1.85813189e-01 -3.87396932e-01 -8.70838314e-02
   5.67966580e-01  2.26114377e-01 -2.92177320e-01  2.33784452e-01]
 [ 2.88205475e-01  4.97236073e-01 -5.19900322e-01 -4.90525723e-01
   2.56595731e-01  5.17110348e-01 -1.56340823e-01 -3.22096586e-01]
 [ 3.21255386e-01  1.60227910e-01 -3.38282883e-01  2.35771403e-01
   5.31516075e-01 -5.08622468e-01 -1.90518513e-01 -5.06817102e-01]
 [ 1.89847674e-03  6.01899112e-04  6.00820815e-04  6.19810016e-04
   6.27847447e-04  5.77600847e-04 -7.14680704e-04  5.81568398e-04]
 [ 7.22439261e-04  5.95407502e-04  7.71953899e-04  5.90398384e-04
   6.20038831e-04  8.58938089e-04 -1.00744066e-04 -5.08648693e-04]
 [ 8.53181773e-05  3.46482499e-04 -7.61231640e-04 -8.59328371e-04
  -8.40837776e-04 -6.54711388e-04  3.99238270e-05 -8.49031203e-04]] 
Episode: 36: [[-1.1656671e-01  1.9196250e-02 -5.4762155e-01  5.0899631e-01
   5.1534641e-01  3.4285811e-01 -9.7774953e-02  3.7004507e-01]
 [-3.1323710e-01  4.7256362e-01 -4.4025761e-01 -4.9012512e-01
  -1.0471412e-01  5.3113312e-01 -3.3607852e-01 -3.5366058e-01]
 [ 4.5104209e-01 -7.1127646e-02 -1.6454126e-01  5.3395335e-02
   3.8141796e-01 -3.3498898e-01  3.0972943e-01 -8.2204014e-02]
 [-3.3252573e-01  1.8581463e-01 -3.8740507e-01 -8.7108299e-02
   5.6796026e-01  2.2609898e-01 -2.9218403e-01  2.3378068e-01]
 [ 2.8820440e-01  4.9723721e-01 -5.1990038e-01 -4.9052626e-01
   2.5658196e-01  5.1710796e-01 -1.5634724e-01 -3.2209927e-01]
 [ 3.2125628e-01  1.6022818e-01 -3.3828434e-01  2.3577289e-01
   5.3151494e-01 -5.0862080e-01 -1.9051827e-01 -5.0681782e-01]
 [ 1.9016762e-03  6.0369656e-04  6.0261163e-04  6.2166725e-04
   6.2967552e-04  5.7930959e-04 -7.1674126e-04  5.8329472e-04]
 [ 7.2137488e-04  5.9716747e-04  7.7471201e-04  5.9216941e-04
   6.2180386e-04  8.6212263e-04 -9.9683224e-05 -5.1019259e-04]
 [ 8.1872437e-05  3.4723119e-04 -7.6347589e-04 -8.6202897e-04
  -8.4343308e-04 -6.5662258e-04  3.9757873e-05 -8.5140765e-04]] 
Episode: 37: [[-1.16561592e-01  1.92045122e-02 -5.47615528e-01  5.09002745e-01
   5.15350997e-01  3.42866242e-01 -9.77710485e-02  3.70049447e-01]
 [-3.13235641e-01  4.72565234e-01 -4.40248758e-01 -4.90108997e-01
  -1.04715064e-01  5.31138718e-01 -3.36076200e-01 -3.53657007e-01]
 [ 4.51041639e-01 -7.11278245e-02 -1.64538503e-01  5.34009561e-02
   3.81422669e-01 -3.34984124e-01  3.09731394e-01 -8.22020322e-02]
 [-3.32525492e-01  1.85816094e-01 -3.87413889e-01 -8.71301889e-02
   5.67954361e-01  2.26085857e-01 -2.92189717e-01  2.33775899e-01]
 [ 2.88202763e-01  4.97238368e-01 -5.19900918e-01 -4.90526378e-01
   2.56568164e-01  5.17105579e-01 -1.56351432e-01 -3.22100341e-01]
 [ 3.21257502e-01  1.60228834e-01 -3.38284492e-01  2.35774875e-01
   5.31514466e-01 -5.08618891e-01 -1.90517843e-01 -5.06818414e-01]
 [ 1.90453406e-03  6.05329929e-04  6.04239118e-04  6.23356609e-04
   6.31323317e-04  5.80868043e-04 -7.18471303e-04  5.84874768e-04]
 [ 7.20459328e-04  5.98769519e-04  7.77206325e-04  5.93781820e-04
   6.23408821e-04  8.65022128e-04 -9.87138046e-05 -5.11599530e-04]
 [ 7.79555266e-05  3.47860216e-04 -7.65545235e-04 -8.64510774e-04
  -8.45812494e-04 -6.58370671e-04  3.95360003e-05 -8.53621925e-04]] 
Episode: 38: [[-1.1655670e-01  1.9212523e-02 -5.4761004e-01  5.0900871e-01
   5.1535481e-01  3.4287354e-01 -9.7767234e-02  3.7005359e-01]
 [-3.1323439e-01  4.7256669e-01 -4.4024006e-01 -4.9009401e-01
  -1.0471630e-01  5.3114361e-01 -3.3607405e-01 -3.5365379e-01]
 [ 4.5104131e-01 -7.1127944e-02 -1.6453564e-01  5.3406514e-02
   3.8142699e-01 -3.3497944e-01  3.0973312e-01 -8.2200140e-02]
 [-3.3252531e-01  1.8581736e-01 -3.8742173e-01 -8.7149829e-02
   5.6794888e-01  2.2607428e-01 -2.9219502e-01  2.3377152e-01]
 [ 2.8820127e-01  4.9723941e-01 -5.1990145e-01 -4.9052653e-01
   2.5655565e-01  5.1710331e-01 -1.5635560e-01 -3.2210141e-01]
 [ 3.2125866e-01  1.6022947e-01 -3.3828458e-01  2.3577677e-01
   5.3151411e-01 -5.0861710e-01 -1.9051743e-01 -5.0681895e-01]
 [ 1.9071811e-03  6.0682493e-04  6.0572434e-04  6.2489766e-04
   6.3283357e-04  5.8228563e-04 -7.2017068e-04  5.8630487e-04]
 [ 7.1985810e-04  6.0022960e-04  7.7953283e-04  5.9525383e-04
   6.2487973e-04  8.6770637e-04 -9.7829485e-05 -5.1288196e-04]
 [ 7.4473479e-05  3.4844113e-04 -7.6741673e-04 -8.6676009e-04
  -8.4796565e-04 -6.5995782e-04  3.9347946e-05 -8.5561315e-04]] 
Episode: 39: [[-1.16551496e-01  1.92202460e-02 -5.47604978e-01  5.09014368e-01
   5.15359402e-01  3.42880219e-01 -9.77638289e-02  3.70057791e-01]
 [-3.13232273e-01  4.72568810e-01 -4.40231413e-01 -4.90079939e-01
  -1.04714952e-01  5.31148314e-01 -3.36071759e-01 -3.53650421e-01]
 [ 4.51042056e-01 -7.11273402e-02 -1.64531767e-01  5.34128584e-02
   3.81433040e-01 -3.34975183e-01  3.09734851e-01 -8.21980312e-02]
 [-3.32524866e-01  1.85818627e-01 -3.87428224e-01 -8.71664584e-02
   5.67944586e-01  2.26064280e-01 -2.92199105e-01  2.33768106e-01]
 [ 2.88200825e-01  4.97240692e-01 -5.19901633e-01 -4.90525514e-01
   2.56546140e-01  5.17102838e-01 -1.56356573e-01 -3.22099864e-01]
 [ 3.21259707e-01  1.60230413e-01 -3.38284671e-01  2.35778853e-01
   5.31513810e-01 -5.08615494e-01 -1.90516159e-01 -5.06819308e-01]
 [ 1.90962956e-03  6.08188508e-04  6.07078255e-04  6.26303779e-04
   6.34216587e-04  5.83577261e-04 -7.21703225e-04  5.87607792e-04]
 [ 7.19436735e-04  6.01559586e-04  7.81677605e-04  5.96596510e-04
   6.26225141e-04  8.70153948e-04 -9.69983666e-05 -5.14049083e-04]
 [ 7.06384308e-05  3.48919741e-04 -7.69133389e-04 -8.68813775e-04
  -8.49932490e-04 -6.61406142e-04  3.91629001e-05 -8.57451407e-04]] 
Episode: 40: [[-1.16550572e-01  1.92272123e-02 -5.47603428e-01  5.09015083e-01
   5.15346825e-01  3.42882276e-01 -9.77673009e-02  3.70060474e-01]
 [-3.13233674e-01  4.72571522e-01 -4.40232277e-01 -4.90087479e-01
  -1.04731634e-01  5.31150043e-01 -3.36074620e-01 -3.53646964e-01]
 [ 4.51040417e-01 -7.11290166e-02 -1.64535016e-01  5.34112342e-02
   3.81430328e-01 -3.34973007e-01  3.09735656e-01 -8.21955353e-02]
 [-3.32524121e-01  1.85819715e-01 -3.87432575e-01 -8.71784687e-02
   5.67943096e-01  2.26056546e-01 -2.92202145e-01  2.33766362e-01]
 [ 2.88200766e-01  4.97242004e-01 -5.19901216e-01 -4.90524858e-01
   2.56539494e-01  5.17103553e-01 -1.56355128e-01 -3.22096586e-01]
 [ 3.21260393e-01  1.60231769e-01 -3.38285267e-01  2.35781148e-01
   5.31513095e-01 -5.08614302e-01 -1.90514550e-01 -5.06819606e-01]
 [ 1.91136799e-03  6.09385490e-04  6.08261733e-04  6.27528760e-04
   6.35372475e-04  5.84698049e-04 -7.24433921e-04  5.88765193e-04]
 [ 7.16413546e-04  6.02748303e-04  7.82607065e-04  5.97748382e-04
   6.27357862e-04  8.71826836e-04 -9.69690373e-05 -5.15194435e-04]
 [ 6.72161696e-05  3.49252368e-04 -7.70931016e-04 -8.70863325e-04
  -8.51839373e-04 -6.62819308e-04  3.87094806e-05 -8.59603926e-04]] 
Episode: 41: [[-1.1655490e-01  1.9230902e-02 -5.4760689e-01  5.0901258e-01
   5.1532918e-01  3.4287891e-01 -9.7772963e-02  3.7006259e-01]
 [-3.1323645e-01  4.7257358e-01 -4.4024193e-01 -4.9010718e-01
  -1.0474855e-01  5.3114772e-01 -3.3607855e-01 -3.5364196e-01]
 [ 4.5103917e-01 -7.1131423e-02 -1.6454379e-01  5.3407874e-02
   3.8142610e-01 -3.3497524e-01  3.0973467e-01 -8.2193665e-02]
 [-3.3252490e-01  1.8581922e-01 -3.8743749e-01 -8.7189324e-02
   5.6794161e-01  2.2604947e-01 -2.9220456e-01  2.3376465e-01]
 [ 2.8820097e-01  4.9724329e-01 -5.1990068e-01 -4.9052423e-01
   2.5653455e-01  5.1710391e-01 -1.5635467e-01 -3.2209456e-01]
 [ 3.2126144e-01  1.6023356e-01 -3.3828464e-01  2.3578462e-01
   5.3151304e-01 -5.0861317e-01 -1.9051163e-01 -5.0681937e-01]
 [ 1.9126961e-03  6.1045086e-04  6.0931762e-04  6.2861957e-04
   6.3639187e-04  5.8570516e-04 -7.2713208e-04  5.8981020e-04]
 [ 7.1315252e-04  6.0382357e-04  7.8326534e-04  5.9877150e-04
   6.2835903e-04  8.7322900e-04 -9.7233868e-05 -5.1624444e-04]
 [ 6.4114080e-05  3.4960487e-04 -7.7258085e-04 -8.7275601e-04
  -8.5358840e-04 -6.6412060e-04  3.8243270e-05 -8.6163898e-04]] 
Episode: 42: [[-1.16559066e-01  1.92349385e-02 -5.47608674e-01  5.09010375e-01
   5.15313864e-01  3.42874289e-01 -9.77794975e-02  3.70064288e-01]
 [-3.13238919e-01  4.72575396e-01 -4.40236747e-01 -4.90124047e-01
  -1.04760990e-01  5.31145811e-01 -3.36080849e-01 -3.53639454e-01]
 [ 4.51037288e-01 -7.11346492e-02 -1.64550722e-01  5.34043200e-02
   3.81423950e-01 -3.34979594e-01  3.09733182e-01 -8.21929649e-02]
 [-3.32525164e-01  1.85818940e-01 -3.87440562e-01 -8.71941075e-02
   5.67942441e-01  2.26043791e-01 -2.92204559e-01  2.33764604e-01]
 [ 2.88201272e-01  4.97244388e-01 -5.19900262e-01 -4.90523666e-01
   2.56529987e-01  5.17104208e-01 -1.56354487e-01 -3.22092384e-01]
 [ 3.21262360e-01  1.60234466e-01 -3.38284165e-01  2.35786080e-01
   5.31510472e-01 -5.08614480e-01 -1.90512419e-01 -5.06819725e-01]
 [ 1.91392424e-03  6.11424388e-04  6.10281888e-04  6.29598915e-04
   6.37312478e-04  5.86617854e-04 -7.30120868e-04  5.90746175e-04]
 [ 7.10311695e-04  6.04804372e-04  7.83953816e-04  5.99719118e-04
   6.29275164e-04  8.74745019e-04 -9.69395333e-05 -5.17142180e-04]
 [ 6.33688469e-05  3.49994487e-04 -7.73976324e-04 -8.74453399e-04
  -8.55162099e-04 -6.65293192e-04  3.79955927e-05 -8.63436842e-04]] 
Episode: 43: [[-1.1656270e-01  1.9238291e-02 -5.4761064e-01  5.0900805e-01
   5.1529992e-01  3.4286991e-01 -9.7785890e-02  3.7006542e-01]
 [-3.1324106e-01  4.7257680e-01 -4.4023570e-01 -4.9014109e-01
  -1.0477449e-01  5.3114367e-01 -3.3608291e-01 -3.5363805e-01]
 [ 4.5103496e-01 -7.1138367e-02 -1.6456029e-01  5.3399865e-02
   3.8142133e-01 -3.3498439e-01  3.0973125e-01 -8.2192987e-02]
 [-3.3252475e-01  1.8581907e-01 -3.8744122e-01 -8.7195553e-02
   5.6794477e-01  2.2604010e-01 -2.9220262e-01  2.3376656e-01]
 [ 2.8820181e-01  4.9724558e-01 -5.1989973e-01 -4.9052268e-01
   2.5652707e-01  5.1710546e-01 -1.5635303e-01 -3.2208908e-01]
 [ 3.2126310e-01  1.6023508e-01 -3.3828381e-01  2.3578714e-01
   5.3150803e-01 -5.0861573e-01 -1.9051349e-01 -5.0682014e-01]
 [ 1.9150663e-03  6.1231619e-04  6.1116280e-04  6.3049700e-04
   6.3816586e-04  5.8745703e-04 -7.3273078e-04  5.9160095e-04]
 [ 7.0801261e-04  6.0570490e-04  7.8472233e-04  6.0059415e-04
   6.3013926e-04  8.7626785e-04 -9.6555930e-05 -5.1794283e-04]
 [ 6.2970168e-05  3.5034507e-04 -7.7521586e-04 -8.7596226e-04
  -8.5656135e-04 -6.6634419e-04  3.7802256e-05 -8.6498231e-04]] 
Episode: 44: [[-1.16565764e-01  1.92412063e-02 -5.47612369e-01  5.09005845e-01
   5.15287220e-01  3.42865795e-01 -9.77917835e-02  3.70066434e-01]
 [-3.13242972e-01  4.72577989e-01 -4.40234303e-01 -4.90156174e-01
  -1.04786202e-01  5.31141698e-01 -3.36084723e-01 -3.53636682e-01]
 [ 4.51032162e-01 -7.11424425e-02 -1.64570495e-01  5.33937924e-02
   3.81416887e-01 -3.34989280e-01  3.09728831e-01 -8.21934491e-02]
 [-3.32524419e-01  1.85819179e-01 -3.87441903e-01 -8.71969312e-02
   5.67946732e-01  2.26036683e-01 -2.92201072e-01  2.33768165e-01]
 [ 2.88202256e-01  4.97246653e-01 -5.19899249e-01 -4.90521848e-01
   2.56524295e-01  5.17106473e-01 -1.56351805e-01 -3.22086215e-01]
 [ 3.21263850e-01  1.60235703e-01 -3.38283390e-01  2.35788226e-01
   5.31505883e-01 -5.08616805e-01 -1.90514371e-01 -5.06820500e-01]
 [ 1.91609841e-03  6.13127719e-04  6.11964380e-04  6.31312723e-04
   6.38938916e-04  5.88219729e-04 -7.35081849e-04  5.92377910e-04]
 [ 7.05827493e-04  6.06523012e-04  7.85397715e-04  6.01387699e-04
   6.30920287e-04  8.77627230e-04 -9.62290578e-05 -5.18676417e-04]
 [ 6.25781904e-05  3.50671238e-04 -7.76349159e-04 -8.77340790e-04
  -8.57839943e-04 -6.67303626e-04  3.76168937e-05 -8.66407005e-04]] 
Episode: 45: [[-1.1656885e-01  1.9244332e-02 -5.4761350e-01  5.0900424e-01
   5.1527792e-01  3.4286562e-01 -9.7793743e-02  3.7006921e-01]
 [-3.1324533e-01  4.7257972e-01 -4.4023308e-01 -4.9015847e-01
  -1.0479145e-01  5.3114063e-01 -3.3608490e-01 -3.5363430e-01]
 [ 4.5103011e-01 -7.1145289e-02 -1.6457590e-01  5.3393722e-02
   3.8141465e-01 -3.3498916e-01  3.0972818e-01 -8.2191944e-02]
 [-3.3252412e-01  1.8581982e-01 -3.8744017e-01 -8.7197907e-02
   5.6794852e-01  2.2603293e-01 -2.9220089e-01  2.3377015e-01]
 [ 2.8820273e-01  4.9724722e-01 -5.1989937e-01 -4.9052095e-01
   2.5652251e-01  5.1710719e-01 -1.5635066e-01 -3.2208338e-01]
 [ 3.2126427e-01  1.6023587e-01 -3.3828440e-01  2.3578908e-01
   5.3150296e-01 -5.0861818e-01 -1.9051629e-01 -5.0682086e-01]
 [ 1.9173799e-03  6.1393698e-04  6.1270996e-04  6.3208514e-04
   6.3974177e-04  5.8896496e-04 -7.3523936e-04  5.9310056e-04]
 [ 7.0456212e-04  6.0727703e-04  7.8626024e-04  6.0213299e-04
   6.3166133e-04  8.7905780e-04 -9.5721800e-05 -5.1931583e-04]
 [ 6.2646723e-05  3.5098349e-04 -7.7733910e-04 -8.7856082e-04
  -8.5898029e-04 -6.6815177e-04  3.7500318e-05 -8.6757482e-04]] 
Episode: 46: [[-1.1657264e-01  1.9247007e-02 -5.4761457e-01  5.0900209e-01
   5.1526958e-01  3.4286600e-01 -9.7794823e-02  3.7007132e-01]
 [-3.1324732e-01  4.7258204e-01 -4.4022936e-01 -4.9016023e-01
  -1.0479410e-01  5.3114039e-01 -3.3608404e-01 -3.5363173e-01]
 [ 4.5102811e-01 -7.1147949e-02 -1.6458039e-01  5.3393338e-02
   3.8141236e-01 -3.3498925e-01  3.0972758e-01 -8.2190737e-02]
 [-3.3252448e-01  1.8582007e-01 -3.8744101e-01 -8.7200850e-02
   5.6794864e-01  2.2602756e-01 -2.9220313e-01  2.3377040e-01]
 [ 2.8820327e-01  4.9724773e-01 -5.1989937e-01 -4.9052033e-01
   2.5652122e-01  5.1710862e-01 -1.5634908e-01 -3.2207927e-01]
 [ 3.2126489e-01  1.6023615e-01 -3.3828506e-01  2.3579016e-01
   5.3150064e-01 -5.0861919e-01 -1.9051775e-01 -5.0682104e-01]
 [ 1.9184850e-03  6.1466289e-04  6.1338238e-04  6.3278340e-04
   6.4045540e-04  5.8963906e-04 -7.3548552e-04  5.9375184e-04]
 [ 7.0338545e-04  6.0796121e-04  7.8698929e-04  6.0281483e-04
   6.3232798e-04  8.8029285e-04 -9.5233721e-05 -5.1990472e-04]
 [ 6.2947387e-05  3.5131845e-04 -7.7822938e-04 -8.7967771e-04
  -8.6002122e-04 -6.6891965e-04  3.7387999e-05 -8.6866546e-04]] 
Episode: 47: [[-1.1657712e-01  1.9249987e-02 -5.4761553e-01  5.0899982e-01
   5.1526690e-01  3.4286746e-01 -9.7795129e-02  3.7007052e-01]
 [-3.1324807e-01  4.7258657e-01 -4.4021577e-01 -4.9015310e-01
  -1.0478270e-01  5.3114235e-01 -3.3607954e-01 -3.5362759e-01]
 [ 4.5102766e-01 -7.1147807e-02 -1.6458222e-01  5.3387240e-02
   3.8141826e-01 -3.3498773e-01  3.0972871e-01 -8.2187012e-02]
 [-3.3252567e-01  1.8581983e-01 -3.8744178e-01 -8.7206781e-02
   5.6794745e-01  2.2602065e-01 -2.9220828e-01  2.3376770e-01]
 [ 2.8820324e-01  4.9724805e-01 -5.1989961e-01 -4.9052021e-01
   2.5651801e-01  5.1710743e-01 -1.5635034e-01 -3.2207930e-01]
 [ 3.2126728e-01  1.6023649e-01 -3.3827606e-01  2.3579130e-01
   5.3150666e-01 -5.0861949e-01 -1.9049262e-01 -5.0682175e-01]
 [ 1.9198295e-03  6.1537273e-04  6.1400858e-04  6.3339825e-04
   6.4117042e-04  5.9025822e-04 -7.3709793e-04  5.9428200e-04]
 [ 7.0299377e-04  6.0859113e-04  7.8789954e-04  6.0344551e-04
   6.3294813e-04  8.8167976e-04 -9.4832314e-05 -5.2046799e-04]
 [ 6.3246269e-05  3.5172529e-04 -7.7889831e-04 -8.8058854e-04
  -8.6088001e-04 -6.6956005e-04  3.7219521e-05 -8.6935190e-04]] 
Episode: 48: [[-1.1658147e-01  1.9252773e-02 -5.4761618e-01  5.0899786e-01
   5.1526445e-01  3.4286898e-01 -9.7795501e-02  3.7006986e-01]
 [-3.1324890e-01  4.7259057e-01 -4.4020325e-01 -4.9014637e-01
  -1.0477388e-01  5.3114420e-01 -3.3607569e-01 -3.5362372e-01]
 [ 4.5102704e-01 -7.1147740e-02 -1.6458447e-01  5.3381108e-02
   3.8142288e-01 -3.3498690e-01  3.0972946e-01 -8.2183830e-02]
 [-3.3252662e-01  1.8581966e-01 -3.8744241e-01 -8.7211996e-02
   5.6794697e-01  2.2601432e-01 -2.9221275e-01  2.3376516e-01]
 [ 2.8820306e-01  4.9724829e-01 -5.1989985e-01 -4.9052024e-01
   2.5651458e-01  5.1710582e-01 -1.5635218e-01 -3.2207984e-01]
 [ 3.2126948e-01  1.6023687e-01 -3.3826786e-01  2.3579234e-01
   5.3151214e-01 -5.0861973e-01 -1.9046971e-01 -5.0682241e-01]
 [ 1.9209466e-03  6.1600463e-04  6.1456993e-04  6.3394825e-04
   6.4180017e-04  5.9081282e-04 -7.3879532e-04  5.9475569e-04]
 [ 7.0212863e-04  6.0915778e-04  7.8856741e-04  6.0400652e-04
   6.3348981e-04  8.8277267e-04 -9.4658390e-05 -5.2100566e-04]
 [ 6.3346881e-05  3.5206720e-04 -7.7952945e-04 -8.8143745e-04
  -8.6167821e-04 -6.7015347e-04  3.7026803e-05 -8.7004667e-04]] 
Episode: 49: [[-1.1658615e-01  1.9255241e-02 -5.4761732e-01  5.0899482e-01
   5.1526117e-01  3.4287018e-01 -9.7796328e-02  3.7006900e-01]
 [-3.1325024e-01  4.7259364e-01 -4.4019547e-01 -4.9014604e-01
  -1.0476853e-01  5.3114498e-01 -3.3607310e-01 -3.5362077e-01]
 [ 4.5102590e-01 -7.1148269e-02 -1.6458844e-01  5.3373594e-02
   3.8142571e-01 -3.3498630e-01  3.0972990e-01 -8.2180843e-02]
 [-3.3252743e-01  1.8581954e-01 -3.8744262e-01 -8.7216213e-02
   5.6794697e-01  2.2600813e-01 -2.9221702e-01  2.3376223e-01]
 [ 2.8820291e-01  4.9724853e-01 -5.1990008e-01 -4.9052027e-01
   2.5651151e-01  5.1710427e-01 -1.5635397e-01 -3.2208049e-01]
 [ 3.2127148e-01  1.6023722e-01 -3.3826038e-01  2.3579335e-01
   5.3151721e-01 -5.0861990e-01 -1.9044879e-01 -5.0682300e-01]
 [ 1.9220363e-03  6.1658741e-04  6.1508326e-04  6.3445204e-04
   6.4238935e-04  5.9131894e-04 -7.4016629e-04  5.9518591e-04]
 [ 7.0120813e-04  6.0966995e-04  7.8909704e-04  6.0450425e-04
   6.3397572e-04  8.8373368e-04 -9.4529038e-05 -5.2149704e-04]
 [ 6.3175539e-05  3.5231884e-04 -7.8016106e-04 -8.8227028e-04
  -8.6244097e-04 -6.7071198e-04  3.6787394e-05 -8.7078800e-04]] 
Episode: 50: [[-1.16591237e-01  1.92570034e-02 -5.47618985e-01  5.08991241e-01
   5.15257359e-01  3.42870951e-01 -9.77972373e-02  3.70067894e-01]
 [-3.13251793e-01  4.72596079e-01 -4.40191180e-01 -4.90149081e-01
  -1.04764506e-01  5.31145930e-01 -3.36071372e-01 -3.53618532e-01]
 [ 4.51024473e-01 -7.11495504e-02 -1.64594203e-01  5.33631705e-02
   3.81427497e-01 -3.34985942e-01  3.09729934e-01 -8.21787417e-02]
 [-3.32528144e-01  1.85819402e-01 -3.87442678e-01 -8.72201771e-02
   5.67946732e-01  2.26002321e-01 -2.92221218e-01  2.33759403e-01]
 [ 2.88202494e-01  4.97248650e-01 -5.19900382e-01 -4.90520716e-01
   2.56508172e-01  5.17102301e-01 -1.56356364e-01 -3.22081476e-01]
 [ 3.21272522e-01  1.60236999e-01 -3.38253617e-01  2.35794201e-01
   5.31521678e-01 -5.08620799e-01 -1.90429807e-01 -5.06823719e-01]
 [ 1.92306435e-03  6.17110112e-04  6.15547586e-04  6.34921715e-04
   6.42922532e-04  5.91781805e-04 -7.41579221e-04  5.95566409e-04]
 [ 6.99992117e-04  6.10136776e-04  7.89511192e-04  6.04939705e-04
   6.34407799e-04  8.84562673e-04 -9.45209104e-05 -5.21945010e-04]
 [ 6.53565803e-05  3.52785137e-04 -7.80658505e-04 -8.82981287e-04
  -8.63122405e-04 -6.71203947e-04  3.67425309e-05 -8.71164200e-04]] 
Episode: 51: [[-1.16595715e-01  1.92586351e-02 -5.47620475e-01  5.08988082e-01
   5.15253425e-01  3.42871875e-01 -9.77982953e-02  3.70066881e-01]
 [-3.13253313e-01  4.72598165e-01 -4.40187216e-01 -4.90151763e-01
  -1.04761623e-01  5.31146705e-01 -3.36070359e-01 -3.53616625e-01]
 [ 4.51023042e-01 -7.11510107e-02 -1.64600477e-01  5.33527471e-02
   3.81427467e-01 -3.34985912e-01  3.09729546e-01 -8.21770951e-02]
 [-3.32528800e-01  1.85819298e-01 -3.87442708e-01 -8.72235298e-02
   5.67946553e-01  2.25997075e-01 -2.92224914e-01  2.33756900e-01]
 [ 2.88202167e-01  4.97248799e-01 -5.19900680e-01 -4.90521103e-01
   2.56505311e-01  5.17100573e-01 -1.56358406e-01 -3.22082311e-01]
 [ 3.21273446e-01  1.60236776e-01 -3.38247478e-01  2.35794932e-01
   5.31525731e-01 -5.08621633e-01 -1.90412581e-01 -5.06824374e-01]
 [ 1.92399416e-03  6.17584097e-04  6.15968835e-04  6.35346863e-04
   6.43404899e-04  5.92202297e-04 -7.42899952e-04  5.95912046e-04]
 [ 6.98860735e-04  6.10560761e-04  7.89879239e-04  6.05334528e-04
   6.34798140e-04  8.85315356e-04 -9.45300490e-05 -5.22355898e-04]
 [ 6.73470495e-05  3.53198935e-04 -7.81113107e-04 -8.83626286e-04
  -8.63742724e-04 -6.71651738e-04  3.66987369e-05 -8.71511817e-04]] 
Episode: 52: [[-1.16600245e-01  1.92600321e-02 -5.47622025e-01  5.08985102e-01
   5.15249908e-01  3.42872262e-01 -9.77994055e-02  3.70065749e-01]
 [-3.13254833e-01  4.72599834e-01 -4.40183967e-01 -4.90155429e-01
  -1.04759812e-01  5.31147003e-01 -3.36069673e-01 -3.53615195e-01]
 [ 4.51021791e-01 -7.11524040e-02 -1.64606243e-01  5.33430353e-02
   3.81427616e-01 -3.34985971e-01  3.09729218e-01 -8.21756274e-02]
 [-3.32529306e-01  1.85819268e-01 -3.87442499e-01 -8.72263387e-02
   5.67946732e-01  2.25992560e-01 -2.92228222e-01  2.33754739e-01]
 [ 2.88201898e-01  4.97248918e-01 -5.19900978e-01 -4.90521371e-01
   2.56502837e-01  5.17099023e-01 -1.56360194e-01 -3.22082937e-01]
 [ 3.21274370e-01  1.60236672e-01 -3.38241935e-01  2.35795751e-01
   5.31529486e-01 -5.08622229e-01 -1.90396756e-01 -5.06824911e-01]
 [ 1.92484469e-03  6.18018908e-04  6.16353762e-04  6.35731150e-04
   6.43846637e-04  5.92580414e-04 -7.44228542e-04  5.96221653e-04]
 [ 6.97732728e-04  6.10945106e-04  7.90165795e-04  6.05688663e-04
   6.35153207e-04  8.85991496e-04 -9.45634820e-05 -5.22731163e-04]
 [ 6.90175439e-05  3.53534648e-04 -7.81573122e-04 -8.84262437e-04
  -8.64342903e-04 -6.72082766e-04  3.65896813e-05 -8.71969678e-04]] 
Episode: 53: [[-1.16604671e-01  1.92613006e-02 -5.47623336e-01  5.08982360e-01
   5.15247285e-01  3.42872471e-01 -9.78005454e-02  3.70064676e-01]
 [-3.13256383e-01  4.72601056e-01 -4.40182388e-01 -4.90161806e-01
  -1.04758695e-01  5.31147003e-01 -3.36069971e-01 -3.53614062e-01]
 [ 4.51020092e-01 -7.11539686e-02 -1.64612621e-01  5.33330292e-02
   3.81426930e-01 -3.34986031e-01  3.09728503e-01 -8.21744204e-02]
 [-3.32529634e-01  1.85819298e-01 -3.87442142e-01 -8.72286633e-02
   5.67946970e-01  2.25988820e-01 -2.92230934e-01  2.33753055e-01]
 [ 2.88201958e-01  4.97248977e-01 -5.19901276e-01 -4.90521669e-01
   2.56500393e-01  5.17097473e-01 -1.56361997e-01 -3.22082877e-01]
 [ 3.21275204e-01  1.60236597e-01 -3.38236839e-01  2.35796526e-01
   5.31532884e-01 -5.08622825e-01 -1.90382391e-01 -5.06825447e-01]
 [ 1.92561909e-03  6.18414721e-04  6.16703823e-04  6.36080280e-04
   6.44250191e-04  5.92924247e-04 -7.45414174e-04  5.96503785e-04]
 [ 6.96615723e-04  6.11293071e-04  7.90395250e-04  6.06007059e-04
   6.35471428e-04  8.86579626e-04 -9.46185537e-05 -5.23072842e-04]
 [ 7.05097773e-05  3.53841460e-04 -7.81993149e-04 -8.84839217e-04
  -8.64887610e-04 -6.72472466e-04  3.64939588e-05 -8.72376491e-04]] 
Episode: 54: [[-1.16608948e-01  1.92622524e-02 -5.47624767e-01  5.08979738e-01
   5.15244603e-01  3.42872322e-01 -9.78017971e-02  3.70063573e-01]
 [-3.13257784e-01  4.72602159e-01 -4.40181017e-01 -4.90167528e-01
  -1.04757726e-01  5.31146944e-01 -3.36070299e-01 -3.53613019e-01]
 [ 4.51017797e-01 -7.11561963e-02 -1.64620757e-01  5.33222407e-02
   3.81424308e-01 -3.34986895e-01  3.09727222e-01 -8.21742192e-02]
 [-3.32529902e-01  1.85819328e-01 -3.87441903e-01 -8.72306079e-02
   5.67947149e-01  2.25985363e-01 -2.92233497e-01  2.33751461e-01]
 [ 2.88202018e-01  4.97249037e-01 -5.19901514e-01 -4.90521938e-01
   2.56498158e-01  5.17096102e-01 -1.56363606e-01 -3.22082847e-01]
 [ 3.21275979e-01  1.60236567e-01 -3.38232160e-01  2.35797316e-01
   5.31536043e-01 -5.08623302e-01 -1.90369278e-01 -5.06825864e-01]
 [ 1.92626263e-03  6.18770195e-04  6.17018901e-04  6.36391109e-04
   6.44610438e-04  5.93233854e-04 -7.46541482e-04  5.96759259e-04]
 [ 6.95513503e-04  6.11608906e-04  7.90568476e-04  6.06292218e-04
   6.35755481e-04  8.87092843e-04 -9.47158624e-05 -5.23389317e-04]
 [ 7.18511219e-05  3.54119868e-04 -7.82379939e-04 -8.85364192e-04
  -8.65388254e-04 -6.72828814e-04  3.63954605e-05 -8.72770557e-04]] 
Episode: 55: [[-1.16591476e-01  1.92558654e-02 -5.47627509e-01  5.08987010e-01
   5.15243709e-01  3.42870623e-01 -9.77892205e-02  3.70063931e-01]
 [-3.13253582e-01  4.72596884e-01 -4.40179288e-01 -4.90134418e-01
  -1.04739800e-01  5.31147838e-01 -3.36059660e-01 -3.53612065e-01]
 [ 4.51015830e-01 -7.11534396e-02 -1.64634272e-01  5.33200987e-02
   3.81429404e-01 -3.34985822e-01  3.09731126e-01 -8.21744502e-02]
 [-3.32529038e-01  1.85820922e-01 -3.87429595e-01 -8.72065574e-02
   5.67954361e-01  2.25989074e-01 -2.92228431e-01  2.33758792e-01]
 [ 2.88201541e-01  4.97248858e-01 -5.19901872e-01 -4.90522504e-01
   2.56494910e-01  5.17093599e-01 -1.56366378e-01 -3.22084576e-01]
 [ 3.21276248e-01  1.60236329e-01 -3.38228524e-01  2.35797375e-01
   5.31539023e-01 -5.08623719e-01 -1.90357938e-01 -5.06826103e-01]
 [ 1.92708743e-03  6.19064784e-04  6.17298938e-04  6.36682031e-04
   6.44924992e-04  5.93524950e-04 -7.47181301e-04  5.97004138e-04]
 [ 6.94268791e-04  6.11886673e-04  7.90592341e-04  6.06547575e-04
   6.35993609e-04  8.87162460e-04 -9.47923909e-05 -5.23745257e-04]
 [ 7.28357918e-05  3.54310934e-04 -7.82743911e-04 -8.85823451e-04
  -8.65838083e-04 -6.73148199e-04  3.63292384e-05 -8.73085170e-04]] 
Episode: 56: [[-1.16579950e-01  1.92486905e-02 -5.47631562e-01  5.08991182e-01
   5.15241385e-01  3.42867494e-01 -9.77797955e-02  3.70063066e-01]
 [-3.13251793e-01  4.72590208e-01 -4.40187216e-01 -4.90115166e-01
  -1.04732044e-01  5.31145930e-01 -3.36053103e-01 -3.53613377e-01]
 [ 4.51012254e-01 -7.11534023e-02 -1.64654538e-01  5.33117726e-02
   3.81430537e-01 -3.34988505e-01  3.09732139e-01 -8.21766704e-02]
 [-3.32528949e-01  1.85821921e-01 -3.87419879e-01 -8.71860385e-02
   5.67960382e-01  2.25990966e-01 -2.92225778e-01  2.33763069e-01]
 [ 2.88201421e-01  4.97248799e-01 -5.19901454e-01 -4.90522355e-01
   2.56493419e-01  5.17100453e-01 -1.56368390e-01 -3.22074056e-01]
 [ 3.21277112e-01  1.60236642e-01 -3.38224411e-01  2.35799059e-01
   5.31541944e-01 -5.08623898e-01 -1.90347046e-01 -5.06825864e-01]
 [ 1.92753167e-03  6.19300525e-04  6.17531303e-04  6.36923418e-04
   6.45164691e-04  5.93776756e-04 -7.47924787e-04  5.97215490e-04]
 [ 6.92501257e-04  6.12128875e-04  7.90366321e-04  6.06757589e-04
   6.36168697e-04  8.87092028e-04 -9.51708353e-05 -5.24086703e-04]
 [ 7.31170512e-05  3.54334246e-04 -7.83166208e-04 -8.86347436e-04
  -8.66336224e-04 -6.73498551e-04  3.60582708e-05 -8.73724755e-04]] 
Episode: 57: [[-1.16569489e-01  1.92421768e-02 -5.47635257e-01  5.08994937e-01
   5.15239298e-01  3.42864662e-01 -9.77712348e-02  3.70062321e-01]
 [-3.13250184e-01  4.72584128e-01 -4.40194368e-01 -4.90097940e-01
  -1.04724884e-01  5.31144202e-01 -3.36047173e-01 -3.53614509e-01]
 [ 4.51008976e-01 -7.11533949e-02 -1.64673060e-01  5.33040129e-02
   3.81431639e-01 -3.34990919e-01  3.09733063e-01 -8.21786299e-02]
 [-3.32528889e-01  1.85822830e-01 -3.87411058e-01 -8.71674046e-02
   5.67965865e-01  2.25992694e-01 -2.92223394e-01  2.33766958e-01]
 [ 2.88201302e-01  4.97248739e-01 -5.19901097e-01 -4.90522206e-01
   2.56492049e-01  5.17106652e-01 -1.56370223e-01 -3.22064489e-01]
 [ 3.21277916e-01  1.60236910e-01 -3.38220686e-01  2.35800579e-01
   5.31544566e-01 -5.08624077e-01 -1.90337166e-01 -5.06825686e-01]
 [ 1.92793109e-03  6.19515369e-04  6.17742364e-04  6.37143326e-04
   6.45383901e-04  5.94005629e-04 -7.48592778e-04  5.97407750e-04]
 [ 6.90888439e-04  6.12349308e-04  7.90174061e-04  6.06949499e-04
   6.36330864e-04  8.87038885e-04 -9.55044598e-05 -5.24393923e-04]
 [ 7.33826600e-05  3.54359101e-04 -7.83545140e-04 -8.86819966e-04
  -8.66785587e-04 -6.73815201e-04  3.58146426e-05 -8.74295016e-04]] 
Episode: 58: [[-1.16559684e-01  1.92365497e-02 -5.47637939e-01  5.09000123e-01
   5.15236437e-01  3.42862040e-01 -9.77638885e-02  3.70061606e-01]
 [-3.13248426e-01  4.72578913e-01 -4.40199256e-01 -4.90079015e-01
  -1.04718246e-01  5.31142890e-01 -3.36041868e-01 -3.53615344e-01]
 [ 4.51006055e-01 -7.11534545e-02 -1.64689988e-01  5.32975383e-02
   3.81432503e-01 -3.34993064e-01  3.09733838e-01 -8.21804777e-02]
 [-3.32528621e-01  1.85823768e-01 -3.87402087e-01 -8.71495977e-02
   5.67971408e-01  2.25995213e-01 -2.92220652e-01  2.33771011e-01]
 [ 2.88201183e-01  4.97248739e-01 -5.19900680e-01 -4.90522027e-01
   2.56491393e-01  5.17112255e-01 -1.56371936e-01 -3.22055846e-01]
 [ 3.21278661e-01  1.60237163e-01 -3.38217258e-01  2.35801995e-01
   5.31547010e-01 -5.08624196e-01 -1.90328121e-01 -5.06825507e-01]
 [ 1.92829862e-03  6.19711180e-04  6.17934973e-04  6.37345656e-04
   6.45581400e-04  5.94212674e-04 -7.49241619e-04  5.97582490e-04]
 [ 6.89515029e-04  6.12549717e-04  7.89998739e-04  6.07124181e-04
   6.36477780e-04  8.86990631e-04 -9.58070159e-05 -5.24666684e-04]
 [ 7.37090231e-05  3.54383083e-04 -7.83892174e-04 -8.87252681e-04
  -8.67196592e-04 -6.74105191e-04  3.55900920e-05 -8.74822203e-04]] 
Episode: 59: [[-1.16551250e-01  1.92315932e-02 -5.47640741e-01  5.09004474e-01
   5.15233040e-01  3.42859626e-01 -9.77575108e-02  3.70060712e-01]
 [-3.13247293e-01  4.72574174e-01 -4.40205902e-01 -4.90064353e-01
  -1.04714885e-01  5.31141341e-01 -3.36037487e-01 -3.53616476e-01]
 [ 4.51003015e-01 -7.11534098e-02 -1.64706185e-01  5.32912575e-02
   3.81432235e-01 -3.34994853e-01  3.09734613e-01 -8.21822435e-02]
 [-3.32528204e-01  1.85824677e-01 -3.87393415e-01 -8.71326774e-02
   5.67976952e-01  2.25997999e-01 -2.92217731e-01  2.33774915e-01]
 [ 2.88201064e-01  4.97248739e-01 -5.19900322e-01 -4.90521848e-01
   2.56490767e-01  5.17117679e-01 -1.56372905e-01 -3.22047383e-01]
 [ 3.21278930e-01  1.60237357e-01 -3.38214159e-01  2.35803306e-01
   5.31548381e-01 -5.08624732e-01 -1.90321997e-01 -5.06825745e-01]
 [ 1.92863587e-03  6.19890634e-04  6.18110003e-04  6.37528603e-04
   6.45759923e-04  5.94399520e-04 -7.49887433e-04  5.97738195e-04]
 [ 6.88169210e-04  6.12731674e-04  7.89826736e-04  6.07281516e-04
   6.36611425e-04  8.86927359e-04 -9.60895704e-05 -5.24918607e-04]
 [ 7.39347670e-05  3.54394084e-04 -7.84208882e-04 -8.87644826e-04
  -8.67569179e-04 -6.74367533e-04  3.53792020e-05 -8.75293103e-04]] 
Episode: 60: [[-1.16543651e-01  1.92270670e-02 -5.47643304e-01  5.09008408e-01
   5.15229762e-01  3.42857420e-01 -9.77518037e-02  3.70059907e-01]
 [-3.13246310e-01  4.72569793e-01 -4.40212131e-01 -4.90051240e-01
  -1.04712315e-01  5.31139910e-01 -3.36033702e-01 -3.53617489e-01]
 [ 4.51000124e-01 -7.11534545e-02 -1.64721385e-01  5.32854609e-02
   3.81431460e-01 -3.34996581e-01  3.09735149e-01 -8.21839273e-02]
 [-3.32527846e-01  1.85825497e-01 -3.87385547e-01 -8.71173292e-02
   5.67982018e-01  2.26000533e-01 -2.92215109e-01  2.33778447e-01]
 [ 2.88200945e-01  4.97248739e-01 -5.19900024e-01 -4.90521699e-01
   2.56490201e-01  5.17122567e-01 -1.56373799e-01 -3.22039753e-01]
 [ 3.21279168e-01  1.60237536e-01 -3.38211358e-01  2.35804498e-01
   5.31549633e-01 -5.08625269e-01 -1.90316439e-01 -5.06825984e-01]
 [ 1.92894158e-03  6.20053324e-04  6.18268619e-04  6.37694669e-04
   6.45921624e-04  5.94568555e-04 -7.50475854e-04  5.97879756e-04]
 [ 6.86973217e-04  6.12896809e-04  7.89666898e-04  6.07424998e-04
   6.36732439e-04  8.86867754e-04 -9.63437415e-05 -5.25147829e-04]
 [ 7.40418254e-05  3.54403513e-04 -7.84501608e-04 -8.88002745e-04
  -8.67907074e-04 -6.74605777e-04  3.51884119e-05 -8.75719124e-04]] 
Episode: 61: [[-1.16537333e-01  1.92225818e-02 -5.47645926e-01  5.09011924e-01
   5.15224814e-01  3.42854917e-01 -9.77474377e-02  3.70058894e-01]
 [-3.13246250e-01  4.72565532e-01 -4.40219700e-01 -4.90040481e-01
  -1.04713775e-01  5.31138122e-01 -3.36030692e-01 -3.53618741e-01]
 [ 4.50997144e-01 -7.11539090e-02 -1.64736241e-01  5.32796942e-02
   3.81430030e-01 -3.34998548e-01  3.09735298e-01 -8.21857080e-02]
 [-3.32527190e-01  1.85826331e-01 -3.87378067e-01 -8.71030912e-02
   5.67987740e-01  2.26003289e-01 -2.92212337e-01  2.33781993e-01]
 [ 2.88200915e-01  4.97248709e-01 -5.19899726e-01 -4.90521580e-01
   2.56489426e-01  5.17126858e-01 -1.56374574e-01 -3.22033465e-01]
 [ 3.21278960e-01  1.60237238e-01 -3.38209212e-01  2.35805124e-01
   5.31550646e-01 -5.08625865e-01 -1.90312043e-01 -5.06826401e-01]
 [ 1.92916358e-03  6.20192557e-04  6.18407852e-04  6.37841469e-04
   6.46053406e-04  5.94712968e-04 -7.51142448e-04  5.98005659e-04]
 [ 6.85797015e-04  6.13043725e-04  7.89454789e-04  6.07549620e-04
   6.36830227e-04  8.86791735e-04 -9.65747095e-05 -5.25354699e-04]
 [ 7.41805197e-05  3.54377815e-04 -7.84815871e-04 -8.88372131e-04
  -8.68252362e-04 -6.74842915e-04  3.49657057e-05 -8.76206148e-04]] 
Episode: 62: [[-1.16533667e-01  1.92209296e-02 -5.47649384e-01  5.09012461e-01
   5.15218377e-01  3.42851251e-01 -9.77444202e-02  3.70058179e-01]
 [-3.13246965e-01  4.72563535e-01 -4.40222204e-01 -4.90036666e-01
  -1.04715675e-01  5.31138003e-01 -3.36026728e-01 -3.53620380e-01]
 [ 4.50993389e-01 -7.11530298e-02 -1.64751396e-01  5.32727018e-02
   3.81427169e-01 -3.35001796e-01  3.09736341e-01 -8.21865946e-02]
 [-3.32526654e-01  1.85827106e-01 -3.87371063e-01 -8.70879441e-02
   5.67992210e-01  2.26005897e-01 -2.92209834e-01  2.33784780e-01]
 [ 2.88200617e-01  4.97248381e-01 -5.19900382e-01 -4.90522325e-01
   2.56486744e-01  5.17128885e-01 -1.56373486e-01 -3.22025239e-01]
 [ 3.21279794e-01  1.60238579e-01 -3.38205338e-01  2.35806659e-01
   5.31551778e-01 -5.08626223e-01 -1.90307811e-01 -5.06826639e-01]
 [ 1.92930154e-03  6.20319450e-04  6.18521299e-04  6.37952122e-04
   6.46141358e-04  5.94845857e-04 -7.52034015e-04  5.98115381e-04]
 [ 6.85213599e-04  6.13185752e-04  7.89394660e-04  6.07662601e-04
   6.36922661e-04  8.86778173e-04 -9.68548120e-05 -5.25548588e-04]
 [ 7.48181628e-05  3.54406802e-04 -7.85006152e-04 -8.88621958e-04
  -8.68500560e-04 -6.75034011e-04  3.48635331e-05 -8.76435020e-04]] 
Episode: 63: [[-1.16531655e-01  1.92187317e-02 -5.47653139e-01  5.09012461e-01
   5.15210330e-01  3.42846304e-01 -9.77437273e-02  3.70057225e-01]
 [-3.13248336e-01  4.72561449e-01 -4.40225869e-01 -4.90033239e-01
  -1.04720801e-01  5.31136394e-01 -3.36024553e-01 -3.53622377e-01]
 [ 4.50990230e-01 -7.11518154e-02 -1.64763540e-01  5.32666296e-02
   3.81422698e-01 -3.35005611e-01  3.09735775e-01 -8.21862742e-02]
 [-3.32526147e-01  1.85827747e-01 -3.87365073e-01 -8.70746374e-02
   5.67995906e-01  2.26008490e-01 -2.92207420e-01  2.33787492e-01]
 [ 2.88200974e-01  4.97248203e-01 -5.19900858e-01 -4.90522712e-01
   2.56484866e-01  5.17130673e-01 -1.56372309e-01 -3.22017133e-01]
 [ 3.21281344e-01  1.60240233e-01 -3.38201642e-01  2.35807851e-01
   5.31553268e-01 -5.08625984e-01 -1.90304041e-01 -5.06826341e-01]
 [ 1.92920375e-03  6.20411243e-04  6.18610298e-04  6.38040539e-04
   6.46193745e-04  5.94952551e-04 -7.53204571e-04  5.98208630e-04]
 [ 6.84396538e-04  6.13306649e-04  7.89151003e-04  6.07741531e-04
   6.36960845e-04  8.86524853e-04 -9.73848873e-05 -5.25757554e-04]
 [ 7.49978935e-05  3.54316318e-04 -7.85323675e-04 -8.89006362e-04
  -8.68854171e-04 -6.75285351e-04  3.45582121e-05 -8.77105398e-04]] 
Episode: 64: [[-1.16521820e-01  1.92260928e-02 -5.47650516e-01  5.09022892e-01
   5.15220106e-01  3.42848390e-01 -9.77351144e-02  3.70060802e-01]
 [-3.13244969e-01  4.72566634e-01 -4.40214306e-01 -4.90016162e-01
  -1.04698315e-01  5.31134784e-01 -3.36008728e-01 -3.53625327e-01]
 [ 4.50991064e-01 -7.11449459e-02 -1.64759934e-01  5.32718934e-02
   3.81430298e-01 -3.35011125e-01  3.09741199e-01 -8.21879879e-02]
 [-3.32525581e-01  1.85827807e-01 -3.87359798e-01 -8.70666653e-02
   5.67998290e-01  2.26010710e-01 -2.92205989e-01  2.33790562e-01]
 [ 2.88204342e-01  4.97249782e-01 -5.19899964e-01 -4.90516305e-01
   2.56487817e-01  5.17134905e-01 -1.56374440e-01 -3.22011799e-01]
 [ 3.21282655e-01  1.60241619e-01 -3.38198304e-01  2.35808730e-01
   5.31554341e-01 -5.08625925e-01 -1.90301150e-01 -5.06826103e-01]
 [ 1.92926533e-03  6.20503211e-04  6.18698949e-04  6.38128142e-04
   6.46214932e-04  5.95052494e-04 -7.54021748e-04  5.98307815e-04]
 [ 6.84894505e-04  6.13421667e-04  7.89302401e-04  6.07832102e-04
   6.37012359e-04  8.86294001e-04 -9.72155103e-05 -5.25887997e-04]
 [ 7.67137608e-05  3.54560267e-04 -7.85294978e-04 -8.89137911e-04
  -8.69008712e-04 -6.75423245e-04  3.45949920e-05 -8.77081300e-04]] 
Episode: 65: [[-1.1651433e-01  1.9231111e-02 -5.4764909e-01  5.0903183e-01
   5.1522601e-01  3.4284928e-01 -9.7728476e-02  3.7006402e-01]
 [-3.1324363e-01  4.7257087e-01 -4.4021186e-01 -4.9000189e-01
  -1.0468085e-01  5.3113222e-01 -3.3599526e-01 -3.5362774e-01]
 [ 4.5099118e-01 -7.1139015e-02 -1.6475819e-01  5.3275779e-02
   3.8143885e-01 -3.3501461e-01  3.0974457e-01 -8.2191564e-02]
 [-3.3252478e-01  1.8582791e-01 -3.8735464e-01 -8.7060243e-02
   5.6800097e-01  2.2601233e-01 -2.9220414e-01  2.3379309e-01]
 [ 2.8821015e-01  4.9725229e-01 -5.1989841e-01 -4.9050736e-01
   2.5649661e-01  5.1714182e-01 -1.5636931e-01 -3.2200029e-01]
 [ 3.2128382e-01  1.6024299e-01 -3.3819529e-01  2.3580979e-01
   5.3155535e-01 -5.0862581e-01 -1.9029853e-01 -5.0682586e-01]
 [ 1.9290994e-03  6.2056340e-04  6.1876449e-04  6.3820387e-04
   6.4621499e-04  5.9514795e-04 -7.5452769e-04  5.9840240e-04]
 [ 6.8512716e-04  6.1352085e-04  7.8926573e-04  6.0790696e-04
   6.3703099e-04  8.8597089e-04 -9.7071425e-05 -5.2600342e-04]
 [ 7.7737968e-05  3.5469612e-04 -7.8539149e-04 -8.8934565e-04
  -8.6920150e-04 -6.7558401e-04  3.4483659e-05 -8.7726978e-04]] 
Episode: 66: [[-1.16508983e-01  1.92413498e-02 -5.47638834e-01  5.09039521e-01
   5.15243590e-01  3.42850953e-01 -9.77175757e-02  3.70064765e-01]
 [-3.13242376e-01  4.72575426e-01 -4.40200478e-01 -4.90001708e-01
  -1.04662865e-01  5.31126618e-01 -3.35981429e-01 -3.53633404e-01]
 [ 4.50992644e-01 -7.11323842e-02 -1.64750278e-01  5.32744192e-02
   3.81444663e-01 -3.35019708e-01  3.09754699e-01 -8.21990296e-02]
 [-3.32525283e-01  1.85827807e-01 -3.87353420e-01 -8.70556012e-02
   5.68000317e-01  2.26015255e-01 -2.92203367e-01  2.33794093e-01]
 [ 2.88218826e-01  4.97255415e-01 -5.19896030e-01 -4.90495950e-01
   2.56509632e-01  5.17159224e-01 -1.56346872e-01 -3.21972668e-01]
 [ 3.21285844e-01  1.60244212e-01 -3.38195413e-01  2.35804603e-01
   5.31555951e-01 -5.08625567e-01 -1.90296084e-01 -5.06825268e-01]
 [ 1.92911248e-03  6.20657345e-04  6.18855585e-04  6.38281403e-04
   6.46246015e-04  5.95240912e-04 -7.55936024e-04  5.98489656e-04]
 [ 6.82432670e-04  6.13591867e-04  7.89620564e-04  6.08001312e-04
   6.37109915e-04  8.85943475e-04 -9.69266912e-05 -5.26307500e-04]
 [ 7.69969411e-05  3.54632095e-04 -7.85605400e-04 -8.89514515e-04
  -8.69344804e-04 -6.75711432e-04  3.44261935e-05 -8.77342187e-04]] 
Episode: 67: [[-1.1650281e-01  1.9251343e-02 -5.4762912e-01  5.0904727e-01
   5.1526105e-01  3.4285325e-01 -9.7707175e-02  3.7006590e-01]
 [-3.1324139e-01  4.7257936e-01 -4.4019145e-01 -4.9000257e-01
  -1.0464716e-01  5.3112143e-01 -3.3596912e-01 -3.5363871e-01]
 [ 4.5099676e-01 -7.1123958e-02 -1.6473722e-01  5.3279478e-02
   3.8145694e-01 -3.3502284e-01  3.0976573e-01 -8.2204469e-02]
 [-3.3252564e-01  1.8582776e-01 -3.8735178e-01 -8.7050505e-02
   5.6800056e-01  2.2601856e-01 -2.9220179e-01  2.3379563e-01]
 [ 2.8822678e-01  4.9725828e-01 -5.1989383e-01 -4.9048552e-01
   2.5652155e-01  5.1717520e-01 -1.5632632e-01 -3.2194737e-01]
 [ 3.2128751e-01  1.6024520e-01 -3.3819574e-01  2.3579955e-01
   5.3155631e-01 -5.0862545e-01 -1.9029394e-01 -5.0682479e-01]
 [ 1.9290237e-03  6.2072737e-04  6.1893015e-04  6.3834502e-04
   6.4627163e-04  5.9532275e-04 -7.5731170e-04  5.9856952e-04]
 [ 6.8004784e-04  6.1365264e-04  7.8984798e-04  6.0807861e-04
   6.3716428e-04  8.8584068e-04 -9.6902440e-05 -5.2659406e-04]
 [ 7.6243676e-05  3.5452822e-04 -7.8583061e-04 -8.8969345e-04
  -8.6949556e-04 -6.7584694e-04  3.4307392e-05 -8.7754190e-04]] 
Episode: 68: [[-1.16495594e-01  1.92604940e-02 -5.47620296e-01  5.09055316e-01
   5.15279472e-01  3.42855543e-01 -9.76966918e-02  3.70067686e-01]
 [-3.13239217e-01  4.72582966e-01 -4.40181166e-01 -4.89999533e-01
  -1.04628779e-01  5.31117678e-01 -3.35956812e-01 -3.53642851e-01]
 [ 4.51000869e-01 -7.11171478e-02 -1.64725810e-01  5.32837026e-02
   3.81468862e-01 -3.35025966e-01  3.09775680e-01 -8.22098255e-02]
 [-3.32526058e-01  1.85827762e-01 -3.87350082e-01 -8.70458707e-02
   5.68000495e-01  2.26021916e-01 -2.92200595e-01  2.33796880e-01]
 [ 2.88235128e-01  4.97261167e-01 -5.19891500e-01 -4.90475178e-01
   2.56534129e-01  5.17191589e-01 -1.56304583e-01 -3.21922004e-01]
 [ 3.21289033e-01  1.60246119e-01 -3.38196009e-01  2.35794991e-01
   5.31556487e-01 -5.08625329e-01 -1.90292090e-01 -5.06824434e-01]
 [ 1.92905648e-03  6.20801409e-04  6.19003957e-04  6.38417667e-04
   6.46325061e-04  5.95413730e-04 -7.58198032e-04  5.98646468e-04]
 [ 6.78337936e-04  6.13712531e-04  7.90173421e-04  6.08157367e-04
   6.37229241e-04  8.85841844e-04 -9.68711684e-05 -5.26832649e-04]
 [ 7.56091467e-05  3.54438002e-04 -7.86036660e-04 -8.89845192e-04
  -8.69631884e-04 -6.75969583e-04  3.42150670e-05 -8.77721526e-04]] 
Episode: 69: [[-1.16479278e-01  1.92650948e-02 -5.47620714e-01  5.09070754e-01
   5.15273869e-01  3.42844129e-01 -9.76802707e-02  3.70054543e-01]
 [-3.13241273e-01  4.72578347e-01 -4.40204024e-01 -4.89961207e-01
  -1.04654364e-01  5.31104267e-01 -3.35945278e-01 -3.53655994e-01]
 [ 4.51013237e-01 -7.10983798e-02 -1.64702013e-01  5.33016697e-02
   3.81466359e-01 -3.35023671e-01  3.09779942e-01 -8.22211802e-02]
 [-3.32530111e-01  1.85825691e-01 -3.87353778e-01 -8.70613977e-02
   5.68006396e-01  2.26030186e-01 -2.92190224e-01  2.33779192e-01]
 [ 2.88243294e-01  4.97263104e-01 -5.19890845e-01 -4.90467042e-01
   2.56541163e-01  5.17201006e-01 -1.56287789e-01 -3.21906000e-01]
 [ 3.21285546e-01  1.60244480e-01 -3.38200033e-01  2.35780537e-01
   5.31552672e-01 -5.08626282e-01 -1.90307736e-01 -5.06828368e-01]
 [ 1.92836684e-03  6.20778243e-04  6.19002501e-04  6.38452184e-04
   6.46508066e-04  5.95768157e-04 -7.54012435e-04  5.98572777e-04]
 [ 6.72992028e-04  6.13705139e-04  7.88654143e-04  6.08098169e-04
   6.37114805e-04  8.84110574e-04 -9.91199631e-05 -5.27430559e-04]
 [ 7.43254495e-05  3.54016287e-04 -7.86506978e-04 -8.90157942e-04
  -8.69908428e-04 -6.76167896e-04  3.37959136e-05 -8.78457562e-04]] 
Episode: 70: [[-1.1646373e-01  1.9268679e-02 -5.4762048e-01  5.0908601e-01
   5.1526809e-01  3.4283334e-01 -9.7664222e-02  3.7004340e-01]
 [-3.1324217e-01  4.7257477e-01 -4.4022068e-01 -4.8992136e-01
  -1.0467649e-01  5.3109169e-01 -3.3593273e-01 -3.5366699e-01]
 [ 4.5102546e-01 -7.1080893e-02 -1.6467759e-01  5.3320721e-02
   3.8146317e-01 -3.3502078e-01  3.0978441e-01 -8.2231484e-02]
 [-3.3253348e-01  1.8582387e-01 -3.8735405e-01 -8.7072551e-02
   5.6801271e-01  2.2603960e-01 -2.9218176e-01  2.3376395e-01]
 [ 2.8825188e-01  4.9726498e-01 -5.1989013e-01 -4.9045908e-01
   2.5654826e-01  5.1721013e-01 -1.5627058e-01 -3.2189065e-01]
 [ 3.2128242e-01  1.6024293e-01 -3.3820352e-01  2.3576738e-01
   5.3154892e-01 -5.0862736e-01 -1.9032225e-01 -5.0683218e-01]
 [ 1.9278027e-03  6.2077929e-04  6.1900471e-04  6.3849246e-04
   6.4664840e-04  5.9607928e-04 -7.5064815e-04  5.9849804e-04]
 [ 6.6799013e-04  6.1369687e-04  7.8726019e-04  6.0803746e-04
   6.3699641e-04  8.8263099e-04 -1.0108031e-04 -5.2797340e-04]
 [ 7.3019939e-05  3.5358040e-04 -7.8703865e-04 -8.9058443e-04
  -8.7026536e-04 -6.7641999e-04  3.3256390e-05 -8.7953534e-04]] 
Episode: 71: [[-1.1644636e-01  1.9272007e-02 -5.4761857e-01  5.0910199e-01
   5.1526475e-01  3.4282476e-01 -9.7649358e-02  3.7003449e-01]
 [-3.1324369e-01  4.7257027e-01 -4.4023731e-01 -4.8988122e-01
  -1.0469711e-01  5.3108031e-01 -3.3592227e-01 -3.5367647e-01]
 [ 4.5103580e-01 -7.1065962e-02 -1.6465490e-01  5.3339079e-02
   3.8146120e-01 -3.3501723e-01  3.0978799e-01 -8.2240418e-02]
 [-3.3253604e-01  1.8582238e-01 -3.8735339e-01 -8.7080255e-02
   5.6802022e-01  2.2604841e-01 -2.9217258e-01  2.3375116e-01]
 [ 2.8825936e-01  4.9726665e-01 -5.1988959e-01 -4.9045175e-01
   2.5655419e-01  5.1721716e-01 -1.5625657e-01 -3.2187787e-01]
 [ 3.2127863e-01  1.6023982e-01 -3.3820760e-01  2.3575418e-01
   5.3154576e-01 -5.0862855e-01 -1.9033903e-01 -5.0683552e-01]
 [ 1.9274377e-03  6.2078470e-04  6.1901333e-04  6.3854636e-04
   6.4678473e-04  5.9636752e-04 -7.4745255e-04  5.9843250e-04]
 [ 6.6330610e-04  6.1369024e-04  7.8608037e-04  6.0798950e-04
   6.3689053e-04  8.8127365e-04 -1.0279198e-04 -5.2846433e-04]
 [ 7.1410803e-05  3.5318805e-04 -7.8751647e-04 -8.9094980e-04
  -8.7057310e-04 -6.7663286e-04  3.2790809e-05 -8.8044320e-04]] 
Episode: 72: [[-1.1642973e-01  1.9278871e-02 -5.4761147e-01  5.0911689e-01
   5.1526254e-01  3.4282094e-01 -9.7621776e-02  3.7002990e-01]
 [-3.1324607e-01  4.7256881e-01 -4.4024312e-01 -4.8985088e-01
  -1.0471821e-01  5.3107488e-01 -3.3589911e-01 -3.5368466e-01]
 [ 4.5103958e-01 -7.1057566e-02 -1.6465610e-01  5.3349752e-02
   3.8145021e-01 -3.3501923e-01  3.0979311e-01 -8.2251936e-02]
 [-3.3253664e-01  1.8582115e-01 -3.8735783e-01 -8.7082691e-02
   5.6803054e-01  2.2605333e-01 -2.9217297e-01  2.3373921e-01]
 [ 2.8827262e-01  4.9726999e-01 -5.1988667e-01 -4.9044243e-01
   2.5656709e-01  5.1722860e-01 -1.5624486e-01 -3.2184738e-01]
 [ 3.2127485e-01  1.6023612e-01 -3.3821175e-01  2.3574102e-01
   5.3154218e-01 -5.0863010e-01 -1.9035597e-01 -5.0683904e-01]
 [ 1.9264537e-03  6.2073290e-04  6.1892049e-04  6.3852890e-04
   6.4683403e-04  5.9659430e-04 -7.4693939e-04  5.9832714e-04]
 [ 6.7045545e-04  6.1366311e-04  7.8404986e-04  6.0786237e-04
   6.3702231e-04  8.7938580e-04 -1.0031761e-04 -5.2817771e-04]
 [ 6.9645786e-05  3.5257070e-04 -7.8828970e-04 -8.9157594e-04
  -8.7103527e-04 -6.7695812e-04  3.3484182e-05 -8.8211510e-04]] 
Episode: 73: [[-1.1641483e-01  1.9285116e-02 -5.4760504e-01  5.0913048e-01
   5.1526040e-01  3.4281746e-01 -9.7596772e-02  3.7002575e-01]
 [-3.1324813e-01  4.7256756e-01 -4.4024810e-01 -4.8982215e-01
  -1.0473695e-01  5.3106999e-01 -3.3587813e-01 -3.5369191e-01]
 [ 4.5104301e-01 -7.1049973e-02 -1.6465749e-01  5.3359319e-02
   3.8143989e-01 -3.3502114e-01  3.0979776e-01 -8.2262322e-02]
 [-3.3253723e-01  1.8581997e-01 -3.8736218e-01 -8.7085284e-02
   5.6803966e-01  2.2605756e-01 -2.9217342e-01  2.3372820e-01]
 [ 2.8828466e-01  4.9727303e-01 -5.1988399e-01 -4.9043396e-01
   2.5657895e-01  5.1723927e-01 -1.5623380e-01 -3.2181922e-01]
 [ 3.2127139e-01  1.6023271e-01 -3.3821556e-01  2.3572901e-01
   5.3153884e-01 -5.0863153e-01 -1.9037138e-01 -5.0684226e-01]
 [ 1.9253638e-03  6.2066829e-04  6.1882415e-04  6.3850102e-04
   6.4685853e-04  5.9679354e-04 -7.4660638e-04  5.9822836e-04]
 [ 6.7662215e-04  6.1363349e-04  7.8206899e-04  6.0773303e-04
   6.3712144e-04  8.7753223e-04 -9.8226985e-05 -5.2793883e-04]
 [ 6.7786990e-05  3.5195620e-04 -7.8906340e-04 -8.9221628e-04
  -8.7150827e-04 -6.7728263e-04  3.4025077e-05 -8.8382192e-04]] 
Episode: 74: [[-1.16403036e-01  1.92886014e-02 -5.47600031e-01  5.09142041e-01
   5.15256703e-01  3.42813820e-01 -9.75753888e-02  3.70021850e-01]
 [-3.13249886e-01  4.72566485e-01 -4.40252602e-01 -4.89796221e-01
  -1.04751661e-01  5.31064689e-01 -3.35859239e-01 -3.53698611e-01]
 [ 4.51043576e-01 -7.10449964e-02 -1.64663300e-01  5.33628985e-02
   3.81423026e-01 -3.35025936e-01  3.09798837e-01 -8.22746605e-02]
 [-3.32538307e-01  1.85819000e-01 -3.87366980e-01 -8.70883539e-02
   5.68046689e-01  2.26060167e-01 -2.92175055e-01  2.33717352e-01]
 [ 2.88294971e-01  4.97275710e-01 -5.19882023e-01 -4.90425795e-01
   2.56587714e-01  5.17249048e-01 -1.56226933e-01 -3.21793228e-01]
 [ 3.21268737e-01  1.60229966e-01 -3.38218600e-01  2.35719368e-01
   5.31536460e-01 -5.08632302e-01 -1.90384582e-01 -5.06844699e-01]
 [ 1.92445319e-03  6.20607636e-04  6.18743943e-04  6.38480182e-04
   6.46917091e-04  5.97011764e-04 -7.45564292e-04  5.98147162e-04]
 [ 6.82418351e-04  6.13612821e-04  7.80423754e-04  6.07625581e-04
   6.37219055e-04  8.75934376e-04 -9.62224658e-05 -5.27707685e-04]
 [ 6.67647255e-05  3.51594645e-04 -7.89720158e-04 -8.92776006e-04
  -8.71909724e-04 -6.77547243e-04  3.45220215e-05 -8.85315880e-04]] 
Episode: 75: [[-1.1639148e-01  1.9292675e-02 -5.4759490e-01  5.0915319e-01
   5.1525438e-01  3.4281099e-01 -9.7555764e-02  3.7001860e-01]
 [-3.1325170e-01  4.7256538e-01 -4.4025680e-01 -4.8977420e-01
  -1.0476528e-01  5.3105968e-01 -3.3584246e-01 -3.5370460e-01]
 [ 4.5104578e-01 -7.1038894e-02 -1.6466449e-01  5.3370312e-02
   3.8141271e-01 -3.3502638e-01  3.0980238e-01 -8.2283095e-02]
 [-3.3253926e-01  1.8581815e-01 -3.8737109e-01 -8.7090962e-02
   5.6805325e-01  2.2606267e-01 -2.9217634e-01  2.3370764e-01]
 [ 2.8830436e-01  4.9727818e-01 -5.1988018e-01 -4.9041837e-01
   2.5659564e-01  5.1725787e-01 -1.5622063e-01 -3.2176980e-01]
 [ 3.2126632e-01  1.6022745e-01 -3.3822140e-01  2.3571059e-01
   5.3153425e-01 -5.0863302e-01 -1.9039659e-01 -5.0684696e-01]
 [ 1.9236164e-03  6.2055327e-04  6.1867113e-04  6.3846115e-04
   6.4697105e-04  5.9720909e-04 -7.4463087e-04  5.9807382e-04]
 [ 6.8763894e-04  6.1359274e-04  7.7890331e-04  6.0752511e-04
   6.3730293e-04  8.7444967e-04 -9.4442315e-05 -5.2750169e-04]
 [ 6.5855507e-05  3.5126545e-04 -7.9031219e-04 -8.9328206e-04
  -8.7227224e-04 -6.7778520e-04  3.4974586e-05 -8.8666147e-04]] 
Episode: 76: [[-1.1638219e-01  1.9295793e-02 -5.4759067e-01  5.0916290e-01
   5.1525086e-01  3.4280831e-01 -9.7538576e-02  3.7001550e-01]
 [-3.1325355e-01  4.7256419e-01 -4.4026050e-01 -4.8975310e-01
  -1.0478026e-01  5.3105462e-01 -3.3582798e-01 -3.5371000e-01]
 [ 4.5104772e-01 -7.1033351e-02 -1.6466524e-01  5.3377006e-02
   3.8140219e-01 -3.3502805e-01  3.0980510e-01 -8.2290895e-02]
 [-3.3253983e-01  1.8581742e-01 -3.8737416e-01 -8.7093584e-02
   5.6805938e-01  2.2606407e-01 -2.9217774e-01  2.3369846e-01]
 [ 2.8831264e-01  4.9728030e-01 -5.1987869e-01 -4.9041215e-01
   2.5660181e-01  5.1726502e-01 -1.5621588e-01 -3.2174969e-01]
 [ 3.2126448e-01  1.6022544e-01 -3.3822381e-01  2.3570314e-01
   5.3153247e-01 -5.0863355e-01 -1.9040678e-01 -5.0684863e-01]
 [ 1.9227094e-03  6.2049495e-04  6.1859796e-04  6.3843600e-04
   6.4700830e-04  5.9738121e-04 -7.4394274e-04  5.9800065e-04]
 [ 6.9188460e-04  6.1356957e-04  7.7741069e-04  6.0742081e-04
   6.3735992e-04  8.7299914e-04 -9.2938943e-05 -5.2733533e-04]
 [ 6.5018532e-05  3.5094435e-04 -7.9087075e-04 -8.9376082e-04
  -8.7260967e-04 -6.7801384e-04  3.5320143e-05 -8.8794838e-04]] 
Episode: 77: [[-1.16379485e-01  1.92958750e-02 -5.47589064e-01  5.09168744e-01
   5.15244305e-01  3.42803121e-01 -9.75247175e-02  3.70010883e-01]
 [-3.13256443e-01  4.72562999e-01 -4.40264583e-01 -4.89736557e-01
  -1.04793772e-01  5.31048834e-01 -3.35814863e-01 -3.53715807e-01]
 [ 4.51045573e-01 -7.10308701e-02 -1.64672598e-01  5.33746630e-02
   3.81385267e-01 -3.35034698e-01  3.09804082e-01 -8.23009461e-02]
 [-3.32540125e-01  1.85816780e-01 -3.87375057e-01 -8.70959088e-02
   5.68066716e-01  2.26066411e-01 -2.92177111e-01  2.33690649e-01]
 [ 2.88320005e-01  4.97282177e-01 -5.19877315e-01 -4.90406603e-01
   2.56607264e-01  5.17271280e-01 -1.56211853e-01 -3.21731567e-01]
 [ 3.21263194e-01  1.60223842e-01 -3.38225752e-01  2.35696524e-01
   5.31530917e-01 -5.08633852e-01 -1.90415844e-01 -5.06850064e-01]
 [ 1.92186155e-03  6.20440871e-04  6.18529273e-04  6.38407364e-04
   6.47029781e-04  5.97532140e-04 -7.43413751e-04  5.97926555e-04]
 [ 6.95243594e-04  6.13548444e-04  7.76067551e-04  6.07323309e-04
   6.37411315e-04  8.71690980e-04 -9.15912024e-05 -5.27201861e-04]
 [ 6.42589148e-05  3.50664894e-04 -7.91366328e-04 -8.94192955e-04
  -8.72909965e-04 -6.78221229e-04  3.56374221e-05 -8.89104791e-04]] 
Episode: 78: [[-1.1637924e-01  1.9295663e-02 -5.4758799e-01  5.0917238e-01
   5.1524436e-01  3.4279788e-01 -9.7512543e-02  3.7000617e-01]
 [-3.1325957e-01  4.7256145e-01 -4.4027016e-01 -4.8972154e-01
  -1.0479828e-01  5.3104442e-01 -3.3580279e-01 -3.5372025e-01]
 [ 4.5104364e-01 -7.1029134e-02 -1.6468012e-01  5.3370539e-02
   3.8137063e-01 -3.3504194e-01  3.0980259e-01 -8.2310170e-02]
 [-3.3254057e-01  1.8581605e-01 -3.8737682e-01 -8.7099507e-02
   5.6807029e-01  2.2606635e-01 -2.9217854e-01  2.3368226e-01]
 [ 2.8832626e-01  4.9728376e-01 -5.1987630e-01 -4.9040186e-01
   2.5661126e-01  5.1727599e-01 -1.5620932e-01 -3.2171652e-01]
 [ 3.2126263e-01  1.6022334e-01 -3.3822694e-01  2.3569269e-01
   5.3153020e-01 -5.0863338e-01 -1.9042133e-01 -5.0685096e-01]
 [ 1.9207345e-03  6.2033837e-04  6.1844173e-04  6.3835119e-04
   6.4696179e-04  5.9764448e-04 -7.4365828e-04  5.9783761e-04]
 [ 6.9755001e-04  6.1350130e-04  7.7421468e-04  6.0721074e-04
   6.3739001e-04  8.7015203e-04 -9.1549613e-05 -5.2729913e-04]
 [ 6.2578736e-05  3.5015211e-04 -7.9197565e-04 -8.9465128e-04
  -8.7322423e-04 -6.7842624e-04  3.5912235e-05 -8.9027028e-04]] 
Episode: 79: [[-1.1636917e-01  1.9325266e-02 -5.4758841e-01  5.0922757e-01
   5.1525593e-01  3.4281024e-01 -9.7526714e-02  3.6999771e-01]
 [-3.1326482e-01  4.7256050e-01 -4.4024447e-01 -4.8963723e-01
  -1.0477497e-01  5.3101605e-01 -3.3582118e-01 -3.5373858e-01]
 [ 4.5103997e-01 -7.1031138e-02 -1.6470490e-01  5.3389125e-02
   3.8134372e-01 -3.3505151e-01  3.0980155e-01 -8.2328670e-02]
 [-3.3253956e-01  1.8581580e-01 -3.8737178e-01 -8.7123834e-02
   5.6807315e-01  2.2608796e-01 -2.9214975e-01  2.3368455e-01]
 [ 2.8832963e-01  4.9728766e-01 -5.1987392e-01 -4.9039280e-01
   2.5662678e-01  5.1728392e-01 -1.5620802e-01 -3.2170796e-01]
 [ 3.2128108e-01  1.6023010e-01 -3.3820727e-01  2.3568799e-01
   5.3153276e-01 -5.0862592e-01 -1.9042701e-01 -5.0685090e-01]
 [ 1.9158915e-03  6.1996945e-04  6.1803515e-04  6.3803844e-04
   6.4638152e-04  5.9740362e-04 -7.5260922e-04  5.9755525e-04]
 [ 6.9666485e-04  6.1336457e-04  7.6798315e-04  6.0680893e-04
   6.3718267e-04  8.6596858e-04 -9.2329094e-05 -5.2755809e-04]
 [ 3.2923777e-05  3.4653160e-04 -7.9577952e-04 -8.9619809e-04
  -8.7461813e-04 -6.7927234e-04  3.4484387e-05 -8.9454104e-04]] 
Episode: 80: [[-1.16362184e-01  1.93518903e-02 -5.47589779e-01  5.09277165e-01
   5.15264869e-01  3.42820883e-01 -9.75400209e-02  3.69989276e-01]
 [-3.13269854e-01  4.72560048e-01 -4.40219879e-01 -4.89559203e-01
  -1.04753710e-01  5.30990541e-01 -3.35837632e-01 -3.53754878e-01]
 [ 4.51036155e-01 -7.10331202e-02 -1.64728388e-01  5.34050427e-02
   3.81318420e-01 -3.35060686e-01  3.09800029e-01 -8.23456198e-02]
 [-3.32539231e-01  1.85815230e-01 -3.87368947e-01 -8.71490017e-02
   5.68073928e-01  2.26105884e-01 -2.92125314e-01  2.33685046e-01]
 [ 2.88333297e-01  4.97291327e-01 -5.19871593e-01 -4.90384459e-01
   2.56641686e-01  5.17291903e-01 -1.56205773e-01 -3.21699351e-01]
 [ 3.21297944e-01  1.60236433e-01 -3.38189244e-01  2.35684097e-01
   5.31535268e-01 -5.08619010e-01 -1.90431789e-01 -5.06850779e-01]
 [ 1.91127032e-03  6.19611179e-04  6.17647311e-04  6.37740013e-04
   6.45826512e-04  5.97176433e-04 -7.60884373e-04  5.97291335e-04]
 [ 6.94527233e-04  6.13233424e-04  7.62235723e-04  6.06424175e-04
   6.36977027e-04  8.62040499e-04 -9.31792529e-05 -5.27877943e-04]
 [ 6.28401312e-06  3.43215739e-04 -7.99274712e-04 -8.97663820e-04
  -8.75928090e-04 -6.80072058e-04  3.30018047e-05 -8.98586935e-04]] 
Episode: 81: [[-1.1635592e-01  1.9375769e-02 -5.4759133e-01  5.0932205e-01
   5.1527256e-01  3.4283027e-01 -9.7552188e-02  3.6998168e-01]
 [-3.1327483e-01  4.7255936e-01 -4.4019806e-01 -4.8948848e-01
  -1.0473497e-01  5.3096724e-01 -3.3585271e-01 -3.5376948e-01]
 [ 4.5103243e-01 -7.1035281e-02 -1.6474994e-01  5.3419504e-02
   3.8129508e-01 -3.3506906e-01  3.0979854e-01 -8.2360603e-02]
 [-3.3253890e-01  1.8581474e-01 -3.8736615e-01 -8.7171413e-02
   5.6807488e-01  2.2612219e-01 -2.9210305e-01  2.3368576e-01]
 [ 2.8833684e-01  4.9729469e-01 -5.1986939e-01 -4.9037653e-01
   2.5665584e-01  5.1729941e-01 -1.5620342e-01 -3.2169116e-01]
 [ 3.2131338e-01  1.6024262e-01 -3.3817273e-01  2.3568119e-01
   5.3153807e-01 -5.0861222e-01 -1.9043584e-01 -5.0685036e-01]
 [ 1.9068570e-03  6.1926607e-04  6.1728165e-04  6.3745514e-04
   6.4529374e-04  5.9696310e-04 -7.6848606e-04  5.9705222e-04]
 [ 6.9223077e-04  6.1310892e-04  7.5686374e-04  6.0606195e-04
   6.3676300e-04  8.5831614e-04 -9.4106414e-05 -5.2819040e-04]
 [-1.8156212e-05  3.4021100e-04 -8.0250774e-04 -8.9905778e-04
  -8.7715930e-04 -6.8082102e-04  3.1581265e-05 -9.0243254e-04]] 
Episode: 82: [[-1.1634944e-01  1.9398469e-02 -5.4759181e-01  5.0936300e-01
   5.1528126e-01  3.4283954e-01 -9.7563148e-02  3.6997548e-01]
 [-3.1327879e-01  4.7255954e-01 -4.4017482e-01 -4.8942345e-01
  -1.0471600e-01  5.3094661e-01 -3.3586580e-01 -3.5378215e-01]
 [ 4.5102939e-01 -7.1037725e-02 -1.6477017e-01  5.3431939e-02
   3.8127297e-01 -3.3507699e-01  3.0979723e-01 -8.2374461e-02]
 [-3.3253890e-01  1.8581377e-01 -3.8736510e-01 -8.7192647e-02
   5.6807518e-01  2.2613636e-01 -2.9208359e-01  2.3368546e-01]
 [ 2.8833926e-01  4.9729705e-01 -5.1986802e-01 -4.9037063e-01
   2.5666773e-01  5.1730406e-01 -1.5620351e-01 -3.2168639e-01]
 [ 3.2132742e-01  1.6024828e-01 -3.3815771e-01  2.3567864e-01
   5.3154069e-01 -5.0860602e-01 -1.9043934e-01 -5.0684994e-01]
 [ 1.9026496e-03  6.1893300e-04  6.1693642e-04  6.3718186e-04
   6.4478058e-04  5.9675879e-04 -7.7556149e-04  5.9682823e-04]
 [ 6.8946858e-04  6.1298546e-04  7.5179426e-04  6.0571590e-04
   6.3651102e-04  8.5475500e-04 -9.5156327e-05 -5.2855536e-04]
 [-4.0953968e-05  3.3746596e-04 -8.0548169e-04 -9.0036233e-04
  -8.7829807e-04 -6.8151404e-04  3.0248855e-05 -9.0597861e-04]] 
Episode: 83: [[-1.16343856e-01  1.94194485e-02 -5.47591865e-01  5.09400725e-01
   5.15290141e-01  3.42848480e-01 -9.75723937e-02  3.69970292e-01]
 [-3.13282430e-01  4.72559899e-01 -4.40153331e-01 -4.89363492e-01
  -1.04697339e-01  5.30928254e-01 -3.35877150e-01 -3.53793293e-01]
 [ 4.51026678e-01 -7.10393712e-02 -1.64788723e-01  5.34445047e-02
   3.81254792e-01 -3.35083276e-01  3.09796363e-01 -8.23863372e-02]
 [-3.32539082e-01  1.85812786e-01 -3.87364507e-01 -8.72127861e-02
   5.68074703e-01  2.26149008e-01 -2.92066723e-01  2.33684584e-01]
 [ 2.88341254e-01  4.97299105e-01 -5.19866824e-01 -4.90365684e-01
   2.56677061e-01  5.17307162e-01 -1.56205624e-01 -3.21683675e-01]
 [ 3.21340114e-01  1.60253376e-01 -3.38144094e-01  2.35676318e-01
   5.31543076e-01 -5.08600414e-01 -1.90442547e-01 -5.06849587e-01]
 [ 1.89839688e-03  6.18417340e-04  6.16603706e-04  6.36899960e-04
   6.44269690e-04  5.96571947e-04 -7.85390439e-04  5.96608617e-04]
 [ 6.86500745e-04  6.12823991e-04  7.46951438e-04  6.05320907e-04
   6.36186393e-04  8.51333840e-04 -9.76201482e-05 -5.29168290e-04]
 [-6.19431521e-05  3.34740675e-04 -8.08232871e-04 -9.01613676e-04
  -8.79362109e-04 -6.82154088e-04  2.85143542e-05 -9.09316295e-04]] 
Episode: 84: [[-1.16348714e-01  1.94321275e-02 -5.47604501e-01  5.09421706e-01
   5.15276730e-01  3.42848480e-01 -9.75926816e-02  3.69959354e-01]
 [-3.13289970e-01  4.72557157e-01 -4.40163910e-01 -4.89329994e-01
  -1.04700856e-01  5.30906439e-01 -3.35899860e-01 -3.53809297e-01]
 [ 4.51022387e-01 -7.10463226e-02 -1.64816692e-01  5.34441210e-02
   3.81225407e-01 -3.35092694e-01  3.09792668e-01 -8.24000314e-02]
 [-3.32538515e-01  1.85811982e-01 -3.87361169e-01 -8.72293189e-02
   5.68073392e-01  2.26163894e-01 -2.92049199e-01  2.33683646e-01]
 [ 2.88335323e-01  4.97296512e-01 -5.19867003e-01 -4.90378499e-01
   2.56673783e-01  5.17300904e-01 -1.56235024e-01 -3.21690649e-01]
 [ 3.21352243e-01  1.60258889e-01 -3.38130921e-01  2.35676602e-01
   5.31546354e-01 -5.08594632e-01 -1.90443128e-01 -5.06848335e-01]
 [ 1.89485005e-03  6.17975777e-04  6.16315578e-04  6.36664568e-04
   6.43830514e-04  5.96415717e-04 -7.93982705e-04  5.96419442e-04]
 [ 6.84984436e-04  6.12688542e-04  7.42972945e-04  6.05013687e-04
