Episode: 1: [[ 0.5452972   0.3359824  -0.03574859]
 [-0.19629928 -0.19112663 -0.14055663]
 [ 0.30482256  0.16221905 -0.45003137]
 [-0.16240509 -0.34006977  0.04328375]
 [ 0.12615696 -0.04700504 -0.04048468]
 [ 0.46043023  0.522202   -0.38252082]
 [ 0.          0.          0.        ]
 [ 0.          0.          0.        ]
 [ 0.          0.          0.        ]] 
Episode: 2: [[ 5.45297205e-01  3.35982412e-01 -3.57485898e-02]
 [-1.96299285e-01 -1.91126630e-01 -1.40556633e-01]
 [ 3.04822564e-01  1.62219048e-01 -4.50031370e-01]
 [-1.62305087e-01 -3.39969784e-01  4.31837440e-02]
 [ 1.26056954e-01 -4.69050370e-02 -4.05846834e-02]
 [ 4.60530221e-01  5.22101998e-01 -3.82420838e-01]
 [-9.99999975e-05  9.99999975e-05  1.00000005e-04]
 [ 9.99999975e-05  9.99999902e-05  9.99999975e-05]
 [ 9.99999902e-05 -9.99999975e-05 -9.99999902e-05]] 
Episode: 3: [[ 5.4537159e-01  3.3590800e-01 -3.5823002e-02]
 [-1.9622487e-01 -1.9120105e-01 -1.4063105e-01]
 [ 3.0489698e-01  1.6214463e-01 -4.5010579e-01]
 [-1.6221164e-01 -3.3988726e-01  4.3107629e-02]
 [ 1.2611146e-01 -4.6825487e-02 -4.0665843e-02]
 [ 4.6046641e-01  5.2200955e-01 -3.8233411e-01]
 [-3.6319761e-05  7.0783200e-05  2.8337061e-05]
 [ 1.7648343e-04  3.7897513e-05  4.0648785e-05]
 [ 6.4650107e-05 -1.8264832e-04 -1.8339850e-04]] 
Episode: 4: [[ 5.4539716e-01  3.3593100e-01 -3.5875551e-02]
 [-1.9625519e-01 -1.9125634e-01 -1.4062569e-01]
 [ 3.0484453e-01  1.6216314e-01 -4.5008734e-01]
 [-1.6213994e-01 -3.3989918e-01  4.3037023e-02]
 [ 1.2611909e-01 -4.6770319e-02 -4.0718447e-02]
 [ 4.6041957e-01  5.2195567e-01 -3.8227385e-01]
 [ 2.1654569e-05  9.0876893e-05 -2.4791301e-05]
 [ 1.4872705e-04 -7.8322773e-06  2.7548522e-05]
 [-4.6266000e-06 -1.8765975e-04 -1.9601715e-04]] 
Episode: 5: [[ 5.4542172e-01  3.3598003e-01 -3.5936348e-02]
 [-1.9627768e-01 -1.9128273e-01 -1.4065880e-01]
 [ 3.0477861e-01  1.6217215e-01 -4.5007521e-01]
 [-1.6208167e-01 -3.3990592e-01  4.2989109e-02]
 [ 1.2614682e-01 -4.6725951e-02 -4.0765967e-02]
 [ 4.6038955e-01  5.2192295e-01 -3.8222539e-01]
 [ 6.7573026e-05  1.2818715e-04 -7.4744828e-05]
 [ 1.2263436e-04 -3.9271319e-05 -4.5114812e-06]
 [-7.8608718e-05 -1.9496592e-04 -2.0804106e-04]] 
Episode: 6: [[ 5.45442581e-01  3.36021662e-01 -3.59877460e-02]
 [-1.96296692e-01 -1.91304982e-01 -1.40686706e-01]
 [ 3.04723024e-01  1.62179768e-01 -4.50064927e-01]
 [-1.62032321e-01 -3.39911580e-01  4.29485999e-02]
 [ 1.26170352e-01 -4.66884226e-02 -4.08061072e-02]
 [ 4.60364193e-01  5.21895289e-01 -3.82184416e-01]
 [ 1.06395441e-04  1.59849820e-04 -1.16967720e-04]
 [ 1.00519654e-04 -6.58261342e-05 -3.15663310e-05]
 [-1.41120210e-04 -2.01161543e-04 -2.18182016e-04]] 
Episode: 7: [[ 5.4545677e-01  3.3606747e-01 -3.6033619e-02]
 [-1.9633000e-01 -1.9132511e-01 -1.4070995e-01]
 [ 3.0466771e-01  1.6218552e-01 -4.5005322e-01]
 [-1.6199222e-01 -3.3991832e-01  4.2913903e-02]
 [ 1.2615018e-01 -4.6655905e-02 -4.0840570e-02]
 [ 4.6033990e-01  5.2186221e-01 -3.8214934e-01]
 [ 1.3910088e-04  1.9329382e-04 -1.5386322e-04]
 [ 7.4141244e-05 -8.8815992e-05 -5.4371110e-05]
 [-1.9295518e-04 -2.0391939e-04 -2.2657297e-04]] 
Episode: 8: [[ 5.45467973e-01  3.36107671e-01 -3.60738523e-02]
 [-1.96358785e-01 -1.91342488e-01 -1.40730366e-01]
 [ 3.04618478e-01  1.62190452e-01 -4.50043231e-01]
 [-1.61957666e-01 -3.39924157e-01  4.28834707e-02]
 [ 1.26133278e-01 -4.66273539e-02 -4.08706740e-02]
 [ 4.60318625e-01  5.21833360e-01 -3.82118672e-01]
 [ 1.67430757e-04  2.22583389e-04 -1.86121746e-04]
 [ 5.11780308e-05 -1.08841916e-04 -7.43316195e-05]
 [-2.38631445e-04 -2.06380224e-04 -2.33909217e-04]] 
Episode: 9: [[ 5.4547870e-01  3.3614227e-01 -3.6108963e-02]
 [-1.9638470e-01 -1.9135834e-01 -1.4074862e-01]
 [ 3.0457473e-01  1.6219461e-01 -4.5003429e-01]
 [-1.6192700e-01 -3.3992860e-01  4.2856619e-02]
 [ 1.2609407e-01 -4.6599723e-02 -4.0897045e-02]
 [ 4.6029994e-01  5.2180821e-01 -3.8209167e-01]
 [ 1.9261464e-04  2.4801432e-04 -2.1447660e-04]
 [ 3.0661056e-05 -1.2657333e-04 -9.2020950e-05]
 [-2.7909191e-04 -2.0864911e-04 -2.4002057e-04]] 
Episode: 10: [[ 5.45488238e-01  3.36172998e-01 -3.61401327e-02]
 [-1.96407691e-01 -1.91372424e-01 -1.40764818e-01]
 [ 3.04535955e-01  1.62198305e-01 -4.50026333e-01]
 [-1.61899775e-01 -3.39932531e-01  4.28327806e-02]
 [ 1.26059264e-01 -4.65751924e-02 -4.09204550e-02]
 [ 4.60283339e-01  5.21785855e-01 -3.82067710e-01]
 [ 2.14972664e-04  2.70591874e-04 -2.39647910e-04]
 [ 1.24554190e-05 -1.42313278e-04 -1.07722044e-04]
 [-3.15005949e-04 -2.10659462e-04 -2.45445583e-04]] 
Episode: 11: [[ 5.4550850e-01  3.3619443e-01 -3.6167305e-02]
 [-1.9642772e-01 -1.9138576e-01 -1.4077860e-01]
 [ 3.0450356e-01  1.6220030e-01 -4.5001861e-01]
 [-1.6187195e-01 -3.3993682e-01  4.2810854e-02]
 [ 1.2602708e-01 -4.6553407e-02 -4.0941998e-02]
 [ 4.6026900e-01  5.2176529e-01 -3.8204634e-01]
 [ 2.3676026e-04  2.8814760e-04 -2.6192196e-04]
 [-4.0564341e-06 -1.5653200e-04 -1.2145410e-04]
 [-3.4649723e-04 -2.1296818e-04 -2.4977219e-04]] 
Episode: 12: [[ 5.4551214e-01  3.3621347e-01 -3.6186058e-02]
 [-1.9644141e-01 -1.9139814e-01 -1.4078717e-01]
 [ 3.0447257e-01  1.6220196e-01 -4.5001030e-01]
 [-1.6185081e-01 -3.3994061e-01  4.2790689e-02]
 [ 1.2599911e-01 -4.6533607e-02 -4.0962037e-02]
 [ 4.6025649e-01  5.2174711e-01 -3.8202703e-01]
 [ 2.5438578e-04  3.0380086e-04 -2.8061451e-04]
 [-1.7115759e-05 -1.6933196e-04 -1.3254251e-04]
 [-3.7451435e-04 -2.1499459e-04 -2.5335484e-04]] 
Episode: 13: [[ 5.4551458e-01  3.3623078e-01 -3.6203630e-02]
 [-1.9645168e-01 -1.9140963e-01 -1.4079587e-01]
 [ 3.0444175e-01  1.6220507e-01 -4.5000330e-01]
 [-1.6183197e-01 -3.3994445e-01  4.2772919e-02]
 [ 1.2597659e-01 -4.6515562e-02 -4.0980209e-02]
 [ 4.6024591e-01  5.2173066e-01 -3.8200948e-01]
 [ 2.7014990e-04  3.1794852e-04 -2.9757569e-04]
 [-2.8203938e-05 -1.8090676e-04 -1.4283857e-04]
 [-4.0106909e-04 -2.1652483e-04 -2.5643996e-04]] 
Episode: 14: [[ 5.4551798e-01  3.3625102e-01 -3.6223680e-02]
 [-1.9646548e-01 -1.9141869e-01 -1.4080751e-01]
 [ 3.0440801e-01  1.6220647e-01 -4.4999796e-01]
 [-1.6181429e-01 -3.3994803e-01  4.2756151e-02]
 [ 1.2595892e-01 -4.6498224e-02 -4.0996499e-02]
 [ 4.6023571e-01  5.2171594e-01 -3.8199329e-01]
 [ 2.8433002e-04  3.3246743e-04 -3.1369386e-04]
 [-3.9506056e-05 -1.9105978e-04 -1.5334113e-04]
 [-4.2695989e-04 -2.1819919e-04 -2.5973129e-04]] 
Episode: 15: [[ 5.4551756e-01  3.3626556e-01 -3.6244031e-02]
 [-1.9647522e-01 -1.9142830e-01 -1.4082022e-01]
 [ 3.0437642e-01  1.6220801e-01 -4.4999531e-01]
 [-1.6179998e-01 -3.3995047e-01  4.2740908e-02]
 [ 1.2594303e-01 -4.6482254e-02 -4.1011319e-02]
 [ 4.6022633e-01  5.2170247e-01 -3.8197869e-01]
 [ 2.9696291e-04  3.4403172e-04 -3.2868501e-04]
 [-4.8861075e-05 -2.0047894e-04 -1.6347857e-04]
 [-4.5066944e-04 -2.1961257e-04 -2.6335893e-04]] 
Episode: 16: [[ 5.4551071e-01  3.3627892e-01 -3.6271982e-02]
 [-1.9648570e-01 -1.9143113e-01 -1.4083320e-01]
 [ 3.0434552e-01  1.6221848e-01 -4.4999349e-01]
 [-1.6178723e-01 -3.3995458e-01  4.2727299e-02]
 [ 1.2592347e-01 -4.6467304e-02 -4.1026145e-02]
 [ 4.6021855e-01  5.2168912e-01 -3.8196522e-01]
 [ 3.0706316e-04  3.5463064e-04 -3.4425518e-04]
 [-5.7818124e-05 -2.0790730e-04 -1.7288658e-04]
 [-4.7242429e-04 -2.1872418e-04 -2.6686993e-04]] 
Episode: 17: [[ 5.4550540e-01  3.3629072e-01 -3.6297541e-02]
 [-1.9649315e-01 -1.9143434e-01 -1.4084467e-01]
 [ 3.0432370e-01  1.6222753e-01 -4.4999155e-01]
 [-1.6177523e-01 -3.3995765e-01  4.2714916e-02]
 [ 1.2590198e-01 -4.6454135e-02 -4.1039612e-02]
 [ 4.6021155e-01  5.2167690e-01 -3.8195312e-01]
 [ 3.1669697e-04  3.6441992e-04 -3.5847194e-04]
 [-6.4961227e-05 -2.1474212e-04 -1.8134827e-04]
 [-4.9175660e-04 -2.1776134e-04 -2.7049668e-04]] 
Episode: 18: [[ 5.4549760e-01  3.3630162e-01 -3.6320962e-02]
 [-1.9649878e-01 -1.9143720e-01 -1.4085573e-01]
 [ 3.0430391e-01  1.6223478e-01 -4.4999018e-01]
 [-1.6176514e-01 -3.3996078e-01  4.2703770e-02]
 [ 1.2588271e-01 -4.6442211e-02 -4.1051786e-02]
 [ 4.6020532e-01  5.2166599e-01 -3.8194218e-01]
 [ 3.2515827e-04  3.7344373e-04 -3.7141971e-04]
 [-7.1165217e-05 -2.2093861e-04 -1.8920202e-04]
 [-5.0945097e-04 -2.1711757e-04 -2.7396565e-04]] 
Episode: 19: [[ 5.4548466e-01  3.3631068e-01 -3.6341157e-02]
 [-1.9649944e-01 -1.9143689e-01 -1.4086521e-01]
 [ 3.0428773e-01  1.6224274e-01 -4.4999051e-01]
 [-1.6175723e-01 -3.3996382e-01  4.2693257e-02]
 [ 1.2585731e-01 -4.6432387e-02 -4.1063268e-02]
 [ 4.6019942e-01  5.2165574e-01 -3.8193241e-01]
 [ 3.3219141e-04  3.8183370e-04 -3.8301334e-04]
 [-7.5681091e-05 -2.2609296e-04 -1.9621868e-04]
 [-5.2553666e-04 -2.1613235e-04 -2.7766664e-04]] 
Episode: 20: [[ 5.4547262e-01  3.3631894e-01 -3.6359474e-02]
 [-1.9649996e-01 -1.9143656e-01 -1.4087349e-01]
 [ 3.0427307e-01  1.6225012e-01 -4.4999054e-01]
 [-1.6175005e-01 -3.3996660e-01  4.2683713e-02]
 [ 1.2583442e-01 -4.6423316e-02 -4.1073732e-02]
 [ 4.6019405e-01  5.2164638e-01 -3.8192353e-01]
 [ 3.3854961e-04  3.8949528e-04 -3.9355131e-04]
 [-7.9768011e-05 -2.3076864e-04 -2.0252563e-04]
 [-5.4018403e-04 -2.1519636e-04 -2.8098395e-04]] 
Episode: 21: [[ 5.4547507e-01  3.3633962e-01 -3.6379382e-02]
 [-1.9649394e-01 -1.9143388e-01 -1.4088599e-01]
 [ 3.0425683e-01  1.6226605e-01 -4.4998527e-01]
 [-1.6173904e-01 -3.3997351e-01  4.2675912e-02]
 [ 1.2580542e-01 -4.6414420e-02 -4.1084867e-02]
 [ 4.6018979e-01  5.2163303e-01 -3.8191608e-01]
 [ 3.4641416e-04  4.0158984e-04 -4.0381009e-04]
 [-8.2319675e-05 -2.3458463e-04 -2.0965644e-04]
 [-5.5623095e-04 -2.1167785e-04 -2.8326901e-04]] 
Episode: 22: [[ 5.4547715e-01  3.3635834e-01 -3.6397640e-02]
 [-1.9648744e-01 -1.9143154e-01 -1.4089736e-01]
 [ 3.0424261e-01  1.6228050e-01 -4.4998023e-01]
 [-1.6172908e-01 -3.3997980e-01  4.2668812e-02]
 [ 1.2577906e-01 -4.6406329e-02 -4.1094959e-02]
 [ 4.6018592e-01  5.2162093e-01 -3.8190931e-01]
 [ 3.5356361e-04  4.1257779e-04 -4.1317393e-04]
 [-8.4498941e-05 -2.3807355e-04 -2.1613871e-04]
 [-5.7047670e-04 -2.0846674e-04 -2.8528125e-04]] 
Episode: 23: [[ 5.4548126e-01  3.3637536e-01 -3.6413942e-02]
 [-1.9648145e-01 -1.9142941e-01 -1.4090638e-01]
 [ 3.0423084e-01  1.6229357e-01 -4.4997406e-01]
 [-1.6171931e-01 -3.3998558e-01  4.2662505e-02]
 [ 1.2575558e-01 -4.6398830e-02 -4.1104242e-02]
 [ 4.6018249e-01  5.2161014e-01 -3.8190320e-01]
 [ 3.6018019e-04  4.2246282e-04 -4.2161209e-04]
 [-8.6488304e-05 -2.4125315e-04 -2.2172469e-04]
 [-5.8300968e-04 -2.0573683e-04 -2.8652555e-04]] 
Episode: 24: [[ 5.4548407e-01  3.3638951e-01 -3.6428247e-02]
 [-1.9647294e-01 -1.9142850e-01 -1.4091320e-01]
 [ 3.0421922e-01  1.6230682e-01 -4.4996810e-01]
 [-1.6171116e-01 -3.3998975e-01  4.2656463e-02]
 [ 1.2573557e-01 -4.6392057e-02 -4.1113034e-02]
 [ 4.6017894e-01  5.2159995e-01 -3.8189775e-01]
 [ 3.6610849e-04  4.3079292e-04 -4.2910856e-04]
 [-8.7593791e-05 -2.4431798e-04 -2.2645615e-04]
 [-5.9501274e-04 -2.0314874e-04 -2.8722672e-04]] 
Episode: 25: [[ 5.4548734e-01  3.3641133e-01 -3.6439106e-02]
 [-1.9646926e-01 -1.9141856e-01 -1.4090581e-01]
 [ 3.0420002e-01  1.6232695e-01 -4.4995812e-01]
 [-1.6170225e-01 -3.3999199e-01  4.2651460e-02]
 [ 1.2572876e-01 -4.6384841e-02 -4.1120276e-02]
 [ 4.6017474e-01  5.2159071e-01 -3.8189206e-01]
 [ 3.7129092e-04  4.4132175e-04 -4.3549240e-04]
 [-8.9939465e-05 -2.4571610e-04 -2.2690304e-04]
 [-6.0486101e-04 -1.9868357e-04 -2.8676854e-04]] 
Episode: 26: [[ 5.4548973e-01  3.3643121e-01 -3.6448836e-02]
 [-1.9646664e-01 -1.9140925e-01 -1.4089876e-01]
 [ 3.0418089e-01  1.6234536e-01 -4.4994915e-01]
 [-1.6169424e-01 -3.3999422e-01  4.2646877e-02]
 [ 1.2572297e-01 -4.6378560e-02 -4.1126844e-02]
 [ 4.6017087e-01  5.2158231e-01 -3.8188678e-01]
 [ 3.7587923e-04  4.5088952e-04 -4.4127053e-04]
 [-9.2335955e-05 -2.4694289e-04 -2.2722782e-04]
 [-6.1398133e-04 -1.9464684e-04 -2.8628134e-04]] 
Episode: 27: [[ 5.4549193e-01  3.3644930e-01 -3.6457699e-02]
 [-1.9646427e-01 -1.9140075e-01 -1.4089234e-01]
 [ 3.0416343e-01  1.6236214e-01 -4.4994098e-01]
 [-1.6168694e-01 -3.3999625e-01  4.2642705e-02]
 [ 1.2571771e-01 -4.6372838e-02 -4.1132826e-02]
 [ 4.6016735e-01  5.2157468e-01 -3.8188198e-01]
 [ 3.8005601e-04  4.5960286e-04 -4.4653279e-04]
 [-9.4529998e-05 -2.4806036e-04 -2.2752302e-04]
 [-6.2229263e-04 -1.9097142e-04 -2.8582505e-04]] 
Episode: 28: [[ 5.4549533e-01  3.3646545e-01 -3.6465731e-02]
 [-1.9646233e-01 -1.9139318e-01 -1.4088614e-01]
 [ 3.0414802e-01  1.6237742e-01 -4.4993368e-01]
 [-1.6168003e-01 -3.3999771e-01  4.2638861e-02]
 [ 1.2571459e-01 -4.6367932e-02 -4.1138347e-02]
 [ 4.6016413e-01  5.2156764e-01 -3.8187766e-01]
 [ 3.8403977e-04  4.6739131e-04 -4.5132134e-04]
 [-9.6574127e-05 -2.4911083e-04 -2.2770399e-04]
 [-6.2984077e-04 -1.8764239e-04 -2.8555174e-04]] 
Episode: 29: [[ 5.4549772e-01  3.3647910e-01 -3.6473252e-02]
 [-1.9646052e-01 -1.9138674e-01 -1.4088033e-01]
 [ 3.0413806e-01  1.6239072e-01 -4.4992596e-01]
 [-1.6167372e-01 -3.3999857e-01  4.2635530e-02]
 [ 1.2571558e-01 -4.6363343e-02 -4.1143265e-02]
 [ 4.6016139e-01  5.2156150e-01 -3.8187379e-01]
 [ 3.8748453e-04  4.7394916e-04 -4.5570327e-04]
 [-9.8373159e-05 -2.5013657e-04 -2.2784129e-04]
 [-6.3628930e-04 -1.8491116e-04 -2.8496695e-04]] 
Episode: 30: [[ 5.4550928e-01  3.3650440e-01 -3.6480896e-02]
 [-1.9644471e-01 -1.9137856e-01 -1.4088807e-01]
 [ 3.0414093e-01  1.6241841e-01 -4.4991687e-01]
 [-1.6166507e-01 -3.3999702e-01  4.2633593e-02]
 [ 1.2572761e-01 -4.6356469e-02 -4.1147832e-02]
 [ 4.6015763e-01  5.2155662e-01 -3.8187012e-01]
 [ 3.9116817e-04  4.8408477e-04 -4.5991220e-04]
 [-9.6561191e-05 -2.5060470e-04 -2.3126412e-04]
 [-6.3601148e-04 -1.7816492e-04 -2.8371884e-04]] 
Episode: 31: [[ 5.4552025e-01  3.3652762e-01 -3.6488071e-02]
 [-1.9643049e-01 -1.9137084e-01 -1.4089534e-01]
 [ 3.0414319e-01  1.6244379e-01 -4.4990867e-01]
 [-1.6165704e-01 -3.3999559e-01  4.2631894e-02]
 [ 1.2573868e-01 -4.6350189e-02 -4.1151963e-02]
 [ 4.6015424e-01  5.2155215e-01 -3.8186678e-01]
 [ 3.9453959e-04  4.9334619e-04 -4.6377521e-04]
 [-9.4961288e-05 -2.5099036e-04 -2.3443795e-04]
 [-6.3575589e-04 -1.7197510e-04 -2.8260736e-04]] 
Episode: 32: [[ 5.4552424e-01  3.3655035e-01 -3.6495518e-02]
 [-1.9641863e-01 -1.9135933e-01 -1.4090462e-01]
 [ 3.0414212e-01  1.6247110e-01 -4.4990253e-01]
 [-1.6165034e-01 -3.3999443e-01  4.2630501e-02]
 [ 1.2574847e-01 -4.6344399e-02 -4.1154400e-02]
 [ 4.6015149e-01  5.2155048e-01 -3.8186371e-01]
 [ 3.9672165e-04  5.0240359e-04 -4.6744797e-04]
 [-9.3727576e-05 -2.5064574e-04 -2.3795506e-04]
 [-6.3682819e-04 -1.6539045e-04 -2.8177729e-04]] 
Episode: 33: [[ 5.4552746e-01  3.3657113e-01 -3.6502503e-02]
 [-1.9640768e-01 -1.9134882e-01 -1.4091326e-01]
 [ 3.0414116e-01  1.6249603e-01 -4.4989711e-01]
 [-1.6164441e-01 -3.3999342e-01  4.2629238e-02]
 [ 1.2575731e-01 -4.6339136e-02 -4.1156620e-02]
 [ 4.6014899e-01  5.2154899e-01 -3.8186091e-01]
 [ 3.9864445e-04  5.1061460e-04 -4.7085085e-04]
 [-9.2540438e-05 -2.5032929e-04 -2.4120772e-04]
 [-6.3780090e-04 -1.5934830e-04 -2.8129009e-04]] 
Episode: 34: [[ 5.4553032e-01  3.3659008e-01 -3.6508780e-02]
 [-1.9639727e-01 -1.9133927e-01 -1.4092116e-01]
 [ 3.0414134e-01  1.6251871e-01 -4.4989222e-01]
 [-1.6163902e-01 -3.3999252e-01  4.2628083e-02]
 [ 1.2576544e-01 -4.6334419e-02 -4.1158631e-02]
 [ 4.6014673e-01  5.2154762e-01 -3.8185838e-01]
 [ 4.0041623e-04  5.1805109e-04 -4.7394531e-04]
 [-9.1324517e-05 -2.5004440e-04 -2.4417325e-04]
 [-6.3872128e-04 -1.5388273e-04 -2.8083692e-04]] 
Episode: 35: [[ 5.4553378e-01  3.3660686e-01 -3.6513884e-02]
 [-1.9638881e-01 -1.9133152e-01 -1.4092781e-01]
 [ 3.0413860e-01  1.6253778e-01 -4.4988710e-01]
 [-1.6163409e-01 -3.3999130e-01  4.2626832e-02]
 [ 1.2577567e-01 -4.6330273e-02 -4.1160930e-02]
 [ 4.6014509e-01  5.2154648e-01 -3.8185608e-01]
 [ 4.0224227e-04  5.2470987e-04 -4.7665829e-04]
 [-9.0432630e-05 -2.4994588e-04 -2.4674041e-04]
 [-6.4004585e-04 -1.4927087e-04 -2.8056448e-04]] 
Episode: 36: [[ 5.4553914e-01  3.3661959e-01 -3.6518931e-02]
 [-1.9638146e-01 -1.9132550e-01 -1.4093557e-01]
 [ 3.0413637e-01  1.6255337e-01 -4.4988436e-01]
 [-1.6162936e-01 -3.3998990e-01  4.2625558e-02]
 [ 1.2578876e-01 -4.6326317e-02 -4.1162234e-02]
 [ 4.6014363e-01  5.2154613e-01 -3.8185403e-01]
 [ 4.0421670e-04  5.2992260e-04 -4.7920973e-04]
 [-8.9697649e-05 -2.5000106e-04 -2.4950094e-04]
 [-6.4128463e-04 -1.4542631e-04 -2.8087429e-04]] 
Episode: 37: [[ 5.4554391e-01  3.3663327e-01 -3.6522120e-02]
 [-1.9637632e-01 -1.9131853e-01 -1.4094101e-01]
 [ 3.0413726e-01  1.6256899e-01 -4.4988063e-01]
 [-1.6162495e-01 -3.3998767e-01  4.2624462e-02]
 [ 1.2580273e-01 -4.6322849e-02 -4.1163605e-02]
 [ 4.6014217e-01  5.2154559e-01 -3.8185224e-01]
 [ 4.0591208e-04  5.3532008e-04 -4.8131068e-04]
 [-8.9304456e-05 -2.4983138e-04 -2.5164988e-04]
 [-6.4178271e-04 -1.4152566e-04 -2.8088476e-04]] 
Episode: 38: [[ 5.4554904e-01  3.3664545e-01 -3.6525033e-02]
 [-1.9637214e-01 -1.9131257e-01 -1.4094634e-01]
 [ 3.0413836e-01  1.6258250e-01 -4.4987711e-01]
 [-1.6162080e-01 -3.3998552e-01  4.2623505e-02]
 [ 1.2581570e-01 -4.6319596e-02 -4.1164897e-02]
 [ 4.6014097e-01  5.2154511e-01 -3.8185057e-01]
 [ 4.0755482e-04  5.4014951e-04 -4.8322044e-04]
 [-8.9048342e-05 -2.4972818e-04 -2.5368849e-04]
 [-6.4210210e-04 -1.3812125e-04 -2.8087245e-04]] 
Episode: 39: [[ 5.4555374e-01  3.3665660e-01 -3.6527764e-02]
 [-1.9636838e-01 -1.9130708e-01 -1.4095132e-01]
 [ 3.0413935e-01  1.6259487e-01 -4.4987404e-01]
 [-1.6161698e-01 -3.3998361e-01  4.2622633e-02]
 [ 1.2582731e-01 -4.6316687e-02 -4.1166078e-02]
 [ 4.6013987e-01  5.2154469e-01 -3.8184905e-01]
 [ 4.0904968e-04  5.4457114e-04 -4.8497098e-04]
 [-8.8822162e-05 -2.4962501e-04 -2.5557587e-04]
 [-6.4240873e-04 -1.3501525e-04 -2.8082338e-04]] 
Episode: 40: [[ 5.4555851e-01  3.3666900e-01 -3.6528643e-02]
 [-1.9637005e-01 -1.9130215e-01 -1.4094828e-01]
 [ 3.0413422e-01  1.6260464e-01 -4.4986972e-01]
 [-1.6161285e-01 -3.3998406e-01  4.2621445e-02]
 [ 1.2582953e-01 -4.6313591e-02 -4.1167002e-02]
 [ 4.6013892e-01  5.2154613e-01 -3.8184780e-01]
 [ 4.1036226e-04  5.4918899e-04 -4.8618249e-04]
 [-8.9818961e-05 -2.4953680e-04 -2.5543367e-04]
 [-6.4358150e-04 -1.3292422e-04 -2.7964651e-04]] 
Episode: 41: [[ 5.4555190e-01  3.3667895e-01 -3.6529321e-02]
 [-1.9637531e-01 -1.9129643e-01 -1.4094725e-01]
 [ 3.0411452e-01  1.6260956e-01 -4.4986686e-01]
 [-1.6161139e-01 -3.3998501e-01  4.2620678e-02]
 [ 1.2582713e-01 -4.6311896e-02 -4.1168012e-02]
 [ 4.6013772e-01  5.2154720e-01 -3.8184685e-01]
 [ 4.1067894e-04  5.5314664e-04 -4.8732650e-04]
 [-9.1724047e-05 -2.4929785e-04 -2.5583667e-04]
 [-6.5030355e-04 -1.3212160e-04 -2.7870445e-04]] 
Episode: 42: [[ 5.4554498e-01  3.3668375e-01 -3.6530241e-02]
 [-1.9637911e-01 -1.9128953e-01 -1.4094566e-01]
 [ 3.0409226e-01  1.6261515e-01 -4.4986305e-01]
 [-1.6161004e-01 -3.3998576e-01  4.2619824e-02]
 [ 1.2582478e-01 -4.6310138e-02 -4.1169405e-02]
 [ 4.6013638e-01  5.2154809e-01 -3.8184598e-01]
 [ 4.1073633e-04  5.5515388e-04 -4.8835477e-04]
 [-9.3203773e-05 -2.4883452e-04 -2.5605681e-04]
 [-6.5778568e-04 -1.3118233e-04 -2.7770406e-04]] 
Episode: 43: [[ 5.4553956e-01  3.3668739e-01 -3.6531880e-02]
 [-1.9638185e-01 -1.9128361e-01 -1.4094655e-01]
 [ 3.0407518e-01  1.6261999e-01 -4.4986221e-01]
 [-1.6160870e-01 -3.3998668e-01  4.2619072e-02]
 [ 1.2582210e-01 -4.6308558e-02 -4.1170612e-02]
 [ 4.6013528e-01  5.2154803e-01 -3.8184494e-01]
 [ 4.1102819e-04  5.5657222e-04 -4.8917130e-04]
 [-9.4272509e-05 -2.4846144e-04 -2.5680990e-04]
 [-6.6433649e-04 -1.3022590e-04 -2.7746314e-04]] 
Episode: 44: [[ 5.4553425e-01  3.3669063e-01 -3.6533386e-02]
 [-1.9638404e-01 -1.9127822e-01 -1.4094731e-01]
 [ 3.0405971e-01  1.6262442e-01 -4.4986141e-01]
 [-1.6160756e-01 -3.3998740e-01  4.2618424e-02]
 [ 1.2582055e-01 -4.6307039e-02 -4.1171655e-02]
 [ 4.6013430e-01  5.2154803e-01 -3.8184401e-01]
 [ 4.1122030e-04  5.5779039e-04 -4.8992748e-04]
 [-9.5173440e-05 -2.4811685e-04 -2.5748901e-04]
 [-6.7036948e-04 -1.2938098e-04 -2.7719379e-04]] 
Episode: 45: [[ 5.4553139e-01  3.3669153e-01 -3.6532644e-02]
 [-1.9638759e-01 -1.9127831e-01 -1.4093891e-01]
 [ 3.0403727e-01  1.6262466e-01 -4.4985616e-01]
 [-1.6160642e-01 -3.3998817e-01  4.2617526e-02]
 [ 1.2582353e-01 -4.6305362e-02 -4.1172367e-02]
 [ 4.6013349e-01  5.2154863e-01 -3.8184315e-01]
 [ 4.1174950e-04  5.5835448e-04 -4.9025117e-04]
 [-9.6336640e-05 -2.4850800e-04 -2.5591478e-04]
 [-6.7826477e-04 -1.2925973e-04 -2.7625705e-04]] 
Episode: 46: [[ 5.4552776e-01  3.3669308e-01 -3.6532279e-02]
 [-1.9639586e-01 -1.9127750e-01 -1.4093223e-01]
 [ 3.0401349e-01  1.6262418e-01 -4.4985205e-01]
 [-1.6160552e-01 -3.3998865e-01  4.2616561e-02]
 [ 1.2582774e-01 -4.6303872e-02 -4.1172925e-02]
 [ 4.6013269e-01  5.2154928e-01 -3.8184202e-01]
 [ 4.1203198e-04  5.5896078e-04 -4.9058290e-04]
 [-9.8604316e-05 -2.4873141e-04 -2.5478555e-04]
 [-6.8597874e-04 -1.2941814e-04 -2.7543638e-04]] 
Episode: 47: [[ 5.4552650e-01  3.3669427e-01 -3.6528993e-02]
 [-1.9640918e-01 -1.9127658e-01 -1.4092663e-01]
 [ 3.0398545e-01  1.6262747e-01 -4.4984847e-01]
 [-1.6160411e-01 -3.3998978e-01  4.2615879e-02]
 [ 1.2582646e-01 -4.6302121e-02 -4.1172888e-02]
 [ 4.6013212e-01  5.2155071e-01 -3.8184106e-01]
 [ 4.1255381e-04  5.5964221e-04 -4.9045653e-04]
 [-1.0212564e-04 -2.4890841e-04 -2.5386486e-04]
 [-6.9368741e-04 -1.2839260e-04 -2.7517459e-04]] 
Episode: 48: [[ 5.45527756e-01  3.36695611e-01 -3.65257300e-02]
 [-1.96422279e-01 -1.91275761e-01 -1.40920803e-01]
 [ 3.03959131e-01  1.62630677e-01 -4.49844837e-01]
 [-1.61602199e-01 -3.39990646e-01  4.26149368e-02]
 [ 1.25824571e-01 -4.63005304e-02 -4.11723182e-02]
 [ 4.60131675e-01  5.21551728e-01 -3.81840050e-01]
 [ 4.13271249e-04  5.60237502e-04 -4.90299950e-04]
 [-1.05579646e-04 -2.49066710e-04 -2.52888654e-04]
 [-7.00619654e-04 -1.27603198e-04 -2.74785940e-04]] 
Episode: 49: [[ 5.4552978e-01  3.3669695e-01 -3.6522809e-02]
 [-1.9643441e-01 -1.9127513e-01 -1.4091609e-01]
 [ 3.0393615e-01  1.6263346e-01 -4.4984177e-01]
 [-1.6160034e-01 -3.3999121e-01  4.2614162e-02]
 [ 1.2582354e-01 -4.6299037e-02 -4.1171823e-02]
 [ 4.6013129e-01  5.2155268e-01 -3.8183913e-01]
 [ 4.1404925e-04  5.6078867e-04 -4.9016939e-04]
 [-1.0881689e-04 -2.4922466e-04 -2.5214479e-04]
 [-7.0703478e-04 -1.2697208e-04 -2.7425727e-04]] 
Episode: 50: [[ 5.4553163e-01  3.3669770e-01 -3.6520306e-02]
 [-1.9644527e-01 -1.9127430e-01 -1.4091228e-01]
 [ 3.0391476e-01  1.6263549e-01 -4.4983968e-01]
 [-1.6159850e-01 -3.3999267e-01  4.2613342e-02]
 [ 1.2581855e-01 -4.6298116e-02 -4.1171271e-02]
 [ 4.6013081e-01  5.2155358e-01 -3.8183841e-01]
 [ 4.1472999e-04  5.6116679e-04 -4.9005338e-04]
 [-1.1178249e-04 -2.4932693e-04 -2.5159237e-04]
 [-7.1310304e-04 -1.2651921e-04 -2.7389239e-04]] 
Episode: 51: [[ 5.4553306e-01  3.3669883e-01 -3.6518000e-02]
 [-1.9645545e-01 -1.9127281e-01 -1.4090841e-01]
 [ 3.0389562e-01  1.6263710e-01 -4.4983754e-01]
 [-1.6159658e-01 -3.3999500e-01  4.2612582e-02]
 [ 1.2581113e-01 -4.6297453e-02 -4.1170597e-02]
 [ 4.6013033e-01  5.2155441e-01 -3.8183776e-01]
 [ 4.1528270e-04  5.6180556e-04 -4.8994517e-04]
 [-1.1454983e-04 -2.4931500e-04 -2.5098224e-04]
 [-7.1851042e-04 -1.2615600e-04 -2.7351727e-04]] 
Episode: 52: [[ 5.4553401e-01  3.3669999e-01 -3.6515914e-02]
 [-1.9646475e-01 -1.9127135e-01 -1.4090469e-01]
 [ 3.0387810e-01  1.6263866e-01 -4.4983539e-01]
 [-1.6159487e-01 -3.3999720e-01  4.2611860e-02]
 [ 1.2580411e-01 -4.6296831e-02 -4.1170001e-02]
 [ 4.6012992e-01  5.2155519e-01 -3.8183713e-01]
 [ 4.1573055e-04  5.6239974e-04 -4.8983062e-04]
 [-1.1707683e-04 -2.4928278e-04 -2.5038223e-04]
 [-7.2348001e-04 -1.2585965e-04 -2.7289562e-04]] 
Episode: 53: [[ 5.45535326e-01  3.36701483e-01 -3.65135893e-02]
 [-1.96472436e-01 -1.91269934e-01 -1.40900984e-01]
 [ 3.03863019e-01  1.62640154e-01 -4.49833453e-01]
 [-1.61593288e-01 -3.39999199e-01  4.26112302e-02]
 [ 1.25797331e-01 -4.62962911e-02 -4.11694348e-02]
 [ 4.60129529e-01  5.21555960e-01 -3.81836325e-01]
 [ 4.16187686e-04  5.63056092e-04 -4.89652681e-04]
 [-1.19198194e-04 -2.49241333e-04 -2.49821547e-04]
 [-7.27705949e-04 -1.25571489e-04 -2.72352918e-04]] 
Episode: 54: [[ 5.45536637e-01  3.36702615e-01 -3.65114287e-02]
 [-1.96479306e-01 -1.91268712e-01 -1.40897572e-01]
 [ 3.03854525e-01  1.62642434e-01 -4.49831575e-01]
 [-1.61591843e-01 -3.40001017e-01  4.26106416e-02]
 [ 1.25791281e-01 -4.62958142e-02 -4.11689058e-02]
 [ 4.60129201e-01  5.21556675e-01 -3.81835610e-01]
 [ 4.16620518e-04  5.63559763e-04 -4.89481958e-04]
 [-1.21095254e-04 -2.49211298e-04 -2.49302073e-04]
 [-7.32117798e-04 -1.24920276e-04 -2.71819998e-04]] 
Episode: 55: [[ 5.4553974e-01  3.3669886e-01 -3.6510013e-02]
 [-1.9647501e-01 -1.9127543e-01 -1.4089668e-01]
 [ 3.0385402e-01  1.6263776e-01 -4.4984034e-01]
 [-1.6159211e-01 -3.4000263e-01  4.2607825e-02]
 [ 1.2579325e-01 -4.6297237e-02 -4.1170783e-02]
 [ 4.6012807e-01  5.2155691e-01 -3.8183510e-01]
 [ 4.1783581e-04  5.6277087e-04 -4.8931706e-04]
 [-1.2067660e-04 -2.5042723e-04 -2.4964762e-04]
 [-7.3545636e-04 -1.2551194e-04 -2.7352091e-04]] 
Episode: 56: [[ 5.4554623e-01  3.3669335e-01 -3.6515139e-02]
 [-1.9647036e-01 -1.9128291e-01 -1.4091642e-01]
 [ 3.0385235e-01  1.6262938e-01 -4.4985268e-01]
 [-1.6159183e-01 -3.4000364e-01  4.2605828e-02]
 [ 1.2580279e-01 -4.6298519e-02 -4.1172363e-02]
 [ 4.6012756e-01  5.2155697e-01 -3.8183478e-01]
 [ 4.1930657e-04  5.6106498e-04 -4.9011759e-04]
 [-1.2024839e-04 -2.5171702e-04 -2.5505605e-04]
 [-7.3776301e-04 -1.2714672e-04 -2.7544142e-04]] 
Episode: 57: [[ 5.4555213e-01  3.3668834e-01 -3.6519796e-02]
 [-1.9646613e-01 -1.9128971e-01 -1.4093436e-01]
 [ 3.0385083e-01  1.6262178e-01 -4.4986388e-01]
 [-1.6159157e-01 -3.4000456e-01  4.2604014e-02]
 [ 1.2581144e-01 -4.6299681e-02 -4.1173797e-02]
 [ 4.6012709e-01  5.2155703e-01 -3.8183448e-01]
 [ 4.2064354e-04  5.5951485e-04 -4.9084448e-04]
 [-1.1986068e-04 -2.5288845e-04 -2.5996807e-04]
 [-7.3985942e-04 -1.2863311e-04 -2.7719469e-04]] 
Episode: 58: [[ 5.4555696e-01  3.3668181e-01 -3.6524735e-02]
 [-1.9646224e-01 -1.9129659e-01 -1.4095032e-01]
 [ 3.0384830e-01  1.6261473e-01 -4.4987345e-01]
 [-1.6159156e-01 -3.4000519e-01  4.2602338e-02]
 [ 1.2582047e-01 -4.6300590e-02 -4.1175053e-02]
 [ 4.6012667e-01  5.2155709e-01 -3.8183424e-01]
 [ 4.2183220e-04  5.5745442e-04 -4.9162615e-04]
 [-1.1948927e-04 -2.5405225e-04 -2.6434410e-04]
 [-7.4215239e-04 -1.3007932e-04 -2.7863914e-04]] 
Episode: 59: [[ 5.4556280e-01  3.3667523e-01 -3.6529131e-02]
 [-1.9645870e-01 -1.9130379e-01 -1.4096324e-01]
 [ 3.0384693e-01  1.6260692e-01 -4.4987917e-01]
 [-1.6159125e-01 -3.4000573e-01  4.2600743e-02]
 [ 1.2582923e-01 -4.6301305e-02 -4.1176237e-02]
 [ 4.6012610e-01  5.2155703e-01 -3.8183376e-01]
 [ 4.2306105e-04  5.5531680e-04 -4.9230171e-04]
 [-1.1909230e-04 -2.5524062e-04 -2.6788414e-04]
 [-7.4407685e-04 -1.3165493e-04 -2.7934625e-04]] 
Episode: 60: [[ 5.45568109e-01  3.36669236e-01 -3.65331396e-02]
 [-1.96456045e-01 -1.91310346e-01 -1.40974998e-01]
 [ 3.03843796e-01  1.62599832e-01 -4.49884385e-01]
 [-1.61590979e-01 -3.40006202e-01  4.25993055e-02]
 [ 1.25837237e-01 -4.63019535e-02 -4.11773175e-02]
 [ 4.60125595e-01  5.21556973e-01 -3.81833345e-01]
 [ 4.24179016e-04  5.53366786e-04 -4.92918247e-04]
 [-1.18876305e-04 -2.56321771e-04 -2.71106284e-04]
 [-7.45860918e-04 -1.33089270e-04 -2.79992004e-04]] 
Episode: 61: [[ 5.4556906e-01  3.3666313e-01 -3.6537383e-02]
 [-1.9645135e-01 -1.9131671e-01 -1.4098641e-01]
 [ 3.0384266e-01  1.6259186e-01 -4.4988963e-01]
 [-1.6159165e-01 -3.4000710e-01  4.2598121e-02]
 [ 1.2584372e-01 -4.6302658e-02 -4.1178219e-02]
 [ 4.6012515e-01  5.2155679e-01 -3.8183299e-01]
 [ 4.2488659e-04  5.5144250e-04 -4.9360015e-04]
 [-1.1824321e-04 -2.5736081e-04 -2.7423669e-04]
 [-7.4790319e-04 -1.3475960e-04 -2.8052449e-04]] 
Episode: 62: [[ 5.4556549e-01  3.3665788e-01 -3.6542643e-02]
 [-1.9644719e-01 -1.9132228e-01 -1.4099945e-01]
 [ 3.0384463e-01  1.6258459e-01 -4.4989613e-01]
 [-1.6159339e-01 -3.4000742e-01  4.2597301e-02]
 [ 1.2584923e-01 -4.6303026e-02 -4.1179817e-02]
 [ 4.6012488e-01  5.2155530e-01 -3.8183287e-01]
 [ 4.2526028e-04  5.5003318e-04 -4.9450487e-04]
 [-1.1773026e-04 -2.5826436e-04 -2.7772487e-04]
 [-7.4897264e-04 -1.3610230e-04 -2.8138643e-04]] 
Episode: 63: [[ 5.4556388e-01  3.3665404e-01 -3.6547482e-02]
 [-1.9644137e-01 -1.9132859e-01 -1.4101227e-01]
 [ 3.0385104e-01  1.6257742e-01 -4.4990110e-01]
 [-1.6159461e-01 -3.4000799e-01  4.2596757e-02]
 [ 1.2585393e-01 -4.6303432e-02 -4.1181404e-02]
 [ 4.6012491e-01  5.2155375e-01 -3.8183278e-01]
 [ 4.2589672e-04  5.4900564e-04 -4.9532508e-04]
 [-1.1668789e-04 -2.5927494e-04 -2.8114748e-04]
 [-7.5016398e-04 -1.3759143e-04 -2.8129053e-04]] 
Episode: 64: [[ 5.4557055e-01  3.3663413e-01 -3.6555000e-02]
 [-1.9643426e-01 -1.9134346e-01 -1.4101526e-01]
 [ 3.0385241e-01  1.6256157e-01 -4.4990405e-01]
 [-1.6159622e-01 -3.4000748e-01  4.2594448e-02]
 [ 1.2586808e-01 -4.6304133e-02 -4.1181099e-02]
 [ 4.6012264e-01  5.2155316e-01 -3.8183320e-01]
 [ 4.2756318e-04  5.4219988e-04 -4.9647124e-04]
 [-1.1540825e-04 -2.6157900e-04 -2.8211952e-04]
 [-7.5480191e-04 -1.4092366e-04 -2.8205782e-04]] 
Episode: 65: [[ 5.4557812e-01  3.3661696e-01 -3.6563691e-02]
 [-1.9643427e-01 -1.9135702e-01 -1.4102119e-01]
 [ 3.0385202e-01  1.6254652e-01 -4.4990784e-01]
 [-1.6159721e-01 -3.4000814e-01  4.2592272e-02]
 [ 1.2587997e-01 -4.6304900e-02 -4.1180994e-02]
 [ 4.6012038e-01  5.2155250e-01 -3.8183349e-01]
 [ 4.2923033e-04  5.3657772e-04 -4.9784896e-04]
 [-1.1560632e-04 -2.6367977e-04 -2.8385050e-04]
 [-7.6083792e-04 -1.4418087e-04 -2.8269412e-04]] 
Episode: 66: [[ 5.4557019e-01  3.3660594e-01 -3.6562566e-02]
 [-1.9643091e-01 -1.9136204e-01 -1.4103323e-01]
 [ 3.0385995e-01  1.6253193e-01 -4.4990960e-01]
 [-1.6159983e-01 -3.4001026e-01  4.2589735e-02]
 [ 1.2589608e-01 -4.6305243e-02 -4.1180760e-02]
 [ 4.6012032e-01  5.2155071e-01 -3.8183382e-01]
 [ 4.2864372e-04  5.3327595e-04 -4.9766002e-04]
 [-1.1488924e-04 -2.6451339e-04 -2.8712791e-04]
 [-7.6367735e-04 -1.4700476e-04 -2.8301153e-04]] 
Episode: 67: [[ 5.4556400e-01  3.3659613e-01 -3.6561497e-02]
 [-1.9642822e-01 -1.9136639e-01 -1.4104415e-01]
 [ 3.0386752e-01  1.6251928e-01 -4.4991139e-01]
 [-1.6160195e-01 -3.4001231e-01  4.2587429e-02]
 [ 1.2591119e-01 -4.6305511e-02 -4.1180536e-02]
 [ 4.6012038e-01  5.2154905e-01 -3.8183400e-01]
 [ 4.2828018e-04  5.3038250e-04 -4.9748010e-04]
 [-1.1431901e-04 -2.6523630e-04 -2.9010486e-04]
 [-7.6600048e-04 -1.4923823e-04 -2.8331659e-04]] 
Episode: 68: [[ 5.4555863e-01  3.3658570e-01 -3.6561493e-02]
 [-1.9642644e-01 -1.9137083e-01 -1.4105545e-01]
 [ 3.0387595e-01  1.6250816e-01 -4.4991258e-01]
 [-1.6160378e-01 -3.4001347e-01  4.2585392e-02]
 [ 1.2592873e-01 -4.6304692e-02 -4.1180193e-02]
 [ 4.6012044e-01  5.2154773e-01 -3.8183421e-01]
 [ 4.2797593e-04  5.2739040e-04 -4.9752876e-04]
 [-1.1389263e-04 -2.6595782e-04 -2.9316262e-04]
 [-7.6790177e-04 -1.5113202e-04 -2.8354893e-04]] 
Episode: 69: [[ 5.4551595e-01  3.3659130e-01 -3.6564384e-02]
 [-1.9642872e-01 -1.9132510e-01 -1.4111693e-01]
 [ 3.0390489e-01  1.6249768e-01 -4.4991574e-01]
 [-1.6160743e-01 -3.4003153e-01  4.2580850e-02]
 [ 1.2590720e-01 -4.6315815e-02 -4.1181579e-02]
 [ 4.6010825e-01  5.2154100e-01 -3.8183883e-01]
 [ 4.2005733e-04  5.3162494e-04 -4.9762166e-04]
 [-1.1491515e-04 -2.5782976e-04 -3.1380952e-04]
 [-7.6322595e-04 -1.5435572e-04 -2.8575392e-04]] 
Episode: 70: [[ 5.4547733e-01  3.3660030e-01 -3.6567464e-02]
 [-1.9643410e-01 -1.9128104e-01 -1.4117020e-01]
 [ 3.0393153e-01  1.6249098e-01 -4.4991603e-01]
 [-1.6160989e-01 -3.4004769e-01  4.2577002e-02]
 [ 1.2588765e-01 -4.6325844e-02 -4.1182440e-02]
 [ 4.6009716e-01  5.2153540e-01 -3.8184303e-01]
 [ 4.1258903e-04  5.3681532e-04 -4.9776869e-04]
 [-1.1665233e-04 -2.4995516e-04 -3.3167988e-04]
 [-7.5918646e-04 -1.5678708e-04 -2.8644883e-04]] 
Episode: 71: [[ 5.45442045e-01  3.36611420e-01 -3.65692265e-02]
 [-1.96439430e-01 -1.91242844e-01 -1.41216055e-01]
 [ 3.03955942e-01  1.62485108e-01 -4.49913234e-01]
 [-1.61612347e-01 -3.40061486e-01  4.25738096e-02]
 [ 1.25864774e-01 -4.63328287e-02 -4.11838628e-02]
 [ 4.60087508e-01  5.21529734e-01 -3.81846547e-01]
 [ 4.05906612e-04  5.42745693e-04 -4.97781904e-04]
 [-1.18323675e-04 -2.43121438e-04 -3.47053865e-04]
 [-7.55286426e-04 -1.58958836e-04 -2.86450522e-04]] 
Episode: 72: [[ 5.4539579e-01  3.3660674e-01 -3.6564212e-02]
 [-1.9644059e-01 -1.9122031e-01 -1.4125124e-01]
 [ 3.0398485e-01  1.6246709e-01 -4.4990602e-01]
 [-1.6162005e-01 -3.4007433e-01  4.2568985e-02]
 [ 1.2583938e-01 -4.6340559e-02 -4.1183528e-02]
 [ 4.6007946e-01  5.2152801e-01 -3.8185036e-01]
 [ 3.9902472e-04  5.4325379e-04 -4.9657555e-04]
 [-1.1909468e-04 -2.3915780e-04 -3.5893792e-04]
 [-7.5052690e-04 -1.6434400e-04 -2.8444902e-04]] 
Episode: 73: [[ 5.45353711e-01  3.36602509e-01 -3.65595333e-02]
 [-1.96440563e-01 -1.91199705e-01 -1.41283080e-01]
 [ 3.04012507e-01  1.62450820e-01 -4.49899971e-01]
 [-1.61627054e-01 -3.40085983e-01  4.25645858e-02]
 [ 1.25816420e-01 -4.63477820e-02 -4.11831662e-02]
 [ 4.60072070e-01  5.21526515e-01 -3.81853819e-01]
 [ 3.92731134e-04  5.43711823e-04 -4.95453249e-04]
 [-1.19565135e-04 -2.35531857e-04 -3.69701622e-04]
 [-7.46187055e-04 -1.69245483e-04 -2.82495428e-04]] 
Episode: 74: [[ 5.4531348e-01  3.3660075e-01 -3.6551226e-02]
 [-1.9643769e-01 -1.9118069e-01 -1.4130569e-01]
 [ 3.0404243e-01  1.6243316e-01 -4.4988886e-01]
 [-1.6163334e-01 -3.4009805e-01  4.2560179e-02]
 [ 1.2579392e-01 -4.6354193e-02 -4.1183442e-02]
 [ 4.6006638e-01  5.2152550e-01 -3.8185695e-01]
 [ 3.8653755e-04  5.4479268e-04 -4.9367058e-04]
 [-1.1923808e-04 -2.3216654e-04 -3.7730034e-04]
 [-7.4063969e-04 -1.7442339e-04 -2.7943167e-04]] 
Episode: 75: [[ 5.4527718e-01  3.3659935e-01 -3.6543936e-02]
 [-1.9643517e-01 -1.9116327e-01 -1.4132655e-01]
 [ 3.0406970e-01  1.6241755e-01 -4.4987917e-01]
 [-1.6163902e-01 -3.4010890e-01  4.2556193e-02]
 [ 1.2577398e-01 -4.6360042e-02 -4.1183680e-02]
 [ 4.6006122e-01  5.2152461e-01 -3.8185978e-01]
 [ 3.8095182e-04  5.4584723e-04 -4.9210771e-04]
 [-1.1895305e-04 -2.2908142e-04 -3.8432330e-04]
 [-7.3579437e-04 -1.7902601e-04 -2.7673075e-04]] 
Episode: 76: [[ 5.45251310e-01  3.36599052e-01 -3.65365632e-02]
 [-1.96434274e-01 -1.91147134e-01 -1.41344905e-01]
 [ 3.04097086e-01  1.62404016e-01 -4.49869692e-01]
 [-1.61642268e-01 -3.40118021e-01  4.25527543e-02]
 [ 1.25757441e-01 -4.63652536e-02 -4.11837585e-02]
 [ 4.60056752e-01  5.21523952e-01 -3.81862432e-01]
 [ 3.76579323e-04  5.47016505e-04 -4.90547274e-04]
 [-1.19026634e-04 -2.26218253e-04 -3.90506146e-04]
 [-7.30431057e-04 -1.83065509e-04 -2.73994810e-04]] 
Episode: 77: [[ 5.45227408e-01  3.36599261e-01 -3.65300998e-02]
 [-1.96434557e-01 -1.91131875e-01 -1.41362011e-01]
 [ 3.04121882e-01  1.62392527e-01 -4.49858665e-01]
 [-1.61645040e-01 -3.40126425e-01  4.25495394e-02]
 [ 1.25742182e-01 -4.63697389e-02 -4.11833487e-02]
 [ 4.60052490e-01  5.21524191e-01 -3.81865770e-01]
 [ 3.72405397e-04  5.48137759e-04 -4.89054539e-04]
 [-1.19349344e-04 -2.23482843e-04 -3.95863288e-04]
 [-7.26668048e-04 -1.86584264e-04 -2.70937395e-04]] 
Episode: 78: [[ 5.4521668e-01  3.3659726e-01 -3.6522295e-02]
 [-1.9644104e-01 -1.9111927e-01 -1.4137582e-01]
 [ 3.0414024e-01  1.6238043e-01 -4.4984949e-01]
 [-1.6164520e-01 -3.4013456e-01  4.2546269e-02]
 [ 1.2572631e-01 -4.6374146e-02 -4.1182846e-02]
 [ 4.6004865e-01  5.2152461e-01 -3.8186884e-01]
 [ 3.6987889e-04  5.4827140e-04 -4.8728532e-04]
 [-1.2122787e-04 -2.2125183e-04 -4.0014653e-04]
 [-7.2324532e-04 -1.9042703e-04 -2.6807160e-04]] 
Episode: 79: [[ 5.4515958e-01  3.3665237e-01 -3.6500018e-02]
 [-1.9645815e-01 -1.9106033e-01 -1.4141759e-01]
 [ 3.0409840e-01  1.6237457e-01 -4.4985288e-01]
 [-1.6164967e-01 -3.4015435e-01  4.2540606e-02]
 [ 1.2567528e-01 -4.6370395e-02 -4.1179858e-02]
 [ 4.6004954e-01  5.2152377e-01 -3.8186672e-01]
 [ 3.5556825e-04  5.7382340e-04 -4.8179188e-04]
 [-1.2506524e-04 -2.0747993e-04 -4.1324538e-04]
 [-7.3585619e-04 -1.9251891e-04 -2.6175691e-04]] 
Episode: 80: [[ 5.4510653e-01  3.3670163e-01 -3.6479384e-02]
 [-1.9647570e-01 -1.9100632e-01 -1.4145553e-01]
 [ 3.0405870e-01  1.6236921e-01 -4.4985616e-01]
 [-1.6165373e-01 -3.4017274e-01  4.2535536e-02]
 [ 1.2563917e-01 -4.6369281e-02 -4.1177168e-02]
 [ 4.6005049e-01  5.2152324e-01 -3.8186482e-01]
 [ 3.4218290e-04  5.9657294e-04 -4.7671597e-04]
 [-1.2914295e-04 -1.9486372e-04 -4.2517137e-04]
 [-7.4742892e-04 -1.9456771e-04 -2.5580425e-04]] 
Episode: 81: [[ 5.4505765e-01  3.3674595e-01 -3.6460303e-02]
 [-1.9648980e-01 -1.9095771e-01 -1.4149010e-01]
 [ 3.0402330e-01  1.6236414e-01 -4.4985899e-01]
 [-1.6165788e-01 -3.4018937e-01  4.2530999e-02]
 [ 1.2560648e-01 -4.6368252e-02 -4.1174691e-02]
 [ 4.6005151e-01  5.2152270e-01 -3.8186309e-01]
 [ 3.2993453e-04  6.1701471e-04 -4.7205132e-04]
 [-1.3243640e-04 -1.8351073e-04 -4.3603970e-04]
 [-7.5803330e-04 -1.9652281e-04 -2.5006456e-04]] 
Episode: 82: [[ 5.4501420e-01  3.3678621e-01 -3.6443129e-02]
 [-1.9650252e-01 -1.9091426e-01 -1.4152068e-01]
 [ 3.0399057e-01  1.6235986e-01 -4.4985959e-01]
 [-1.6166157e-01 -3.4020418e-01  4.2527102e-02]
 [ 1.2557897e-01 -4.6366930e-02 -4.1172516e-02]
 [ 4.6005270e-01  5.2152216e-01 -3.8186115e-01]
 [ 3.1889582e-04  6.3530018e-04 -4.6772099e-04]
 [-1.3538185e-04 -1.7334486e-04 -4.4552109e-04]
 [-7.6782191e-04 -1.9824508e-04 -2.4422994e-04]] 
Episode: 83: [[ 5.4497528e-01  3.3682290e-01 -3.6427908e-02]
 [-1.9651517e-01 -1.9087484e-01 -1.4154860e-01]
 [ 3.0395916e-01  1.6235644e-01 -4.4986045e-01]
 [-1.6166478e-01 -3.4021750e-01  4.2523645e-02]
 [ 1.2555422e-01 -4.6365812e-02 -4.1170441e-02]
 [ 4.6005362e-01  5.2152169e-01 -3.8185933e-01]
 [ 3.0892226e-04  6.5189740e-04 -4.6383432e-04]
 [-1.3845167e-04 -1.6412287e-04 -4.5416559e-04]
 [-7.7673083e-04 -1.9974780e-04 -2.3892529e-04]] 
Episode: 84: [[ 5.4494023e-01  3.3685318e-01 -3.6386475e-02]
 [-1.9650686e-01 -1.9083452e-01 -1.4155236e-01]
 [ 3.0394316e-01  1.6236803e-01 -4.4984263e-01]
 [-1.6166630e-01 -3.4022602e-01  4.2518467e-02]
 [ 1.2553893e-01 -4.6362769e-02 -4.1167706e-02]
 [ 4.6005598e-01  5.2152073e-01 -3.8185763e-01]
 [ 2.9921735e-04  6.6601275e-04 -4.5562381e-04]
 [-1.3641646e-04 -1.5461893e-04 -4.5401917e-04]
 [-7.8015763e-04 -1.9761611e-04 -2.3032929e-04]] 
Episode: 85: [[ 5.4491055e-01  3.3687991e-01 -3.6348939e-02]
 [-1.9650012e-01 -1.9079843e-01 -1.4155631e-01]
 [ 3.0392736e-01  1.6237834e-01 -4.4982749e-01]
 [-1.6166729e-01 -3.4023333e-01  4.2513661e-02]
 [ 1.2552588e-01 -4.6360094e-02 -4.1164994e-02]
 [ 4.6005815e-01  5.2152008e-01 -3.8185614e-01]
 [ 2.9066927e-04  6.7832158e-04 -4.4816156e-04]
 [-1.3476607e-04 -1.4610357e-04 -4.5408733e-04]
 [-7.8349805e-04 -1.9580263e-04 -2.2260608e-04]] 
Episode: 86: [[ 5.4489380e-01  3.3690158e-01 -3.6315627e-02]
 [-1.9649935e-01 -1.9076601e-01 -1.4156042e-01]
 [ 3.0391532e-01  1.6238865e-01 -4.4981235e-01]
 [-1.6166528e-01 -3.4023729e-01  4.2509437e-02]
 [ 1.2551685e-01 -4.6358738e-02 -4.1162413e-02]
 [ 4.6006018e-01  5.2151924e-01 -3.8185468e-01]
 [ 2.8453884e-04  6.8803539e-04 -4.4148718e-04]
 [-1.3452039e-04 -1.3845169e-04 -4.5433521e-04]
 [-7.8521227e-04 -1.9392978e-04 -2.1538194e-04]] 
Episode: 87: [[ 5.4486632e-01  3.3692372e-01 -3.6289915e-02]
 [-1.9650307e-01 -1.9072743e-01 -1.4157082e-01]
 [ 3.0389833e-01  1.6240606e-01 -4.4975650e-01]
 [-1.6166167e-01 -3.4024191e-01  4.2505685e-02]
 [ 1.2552904e-01 -4.6353467e-02 -4.1155376e-02]
 [ 4.6006835e-01  5.2152121e-01 -3.8185188e-01]
 [ 2.7594843e-04  6.9800142e-04 -4.3618394e-04]
 [-1.3513093e-04 -1.2914324e-04 -4.5651008e-04]
 [-7.8774214e-04 -1.8991961e-04 -1.9687453e-04]] 
Episode: 88: [[ 5.44841170e-01  3.36943805e-01 -3.62669155e-02]
 [-1.96507111e-01 -1.90692589e-01 -1.41579166e-01]
 [ 3.03882271e-01  1.62417725e-01 -4.49702412e-01]
 [-1.61658376e-01 -3.40246052e-01  4.25023921e-02]
 [ 1.25539973e-01 -4.63486314e-02 -4.11487557e-02]
 [ 4.60076094e-01  5.21523595e-01 -3.81849498e-01]
 [ 2.67840427e-04  7.06842577e-04 -4.31368069e-04]
 [-1.35929600e-04 -1.20719276e-04 -4.58129362e-04]
 [-7.89786456e-04 -1.87564408e-04 -1.78460919e-04]] 
Episode: 89: [[ 5.4481655e-01  3.3696234e-01 -3.6246017e-02]
 [-1.9650953e-01 -1.9066013e-01 -1.4158861e-01]
 [ 3.0386773e-01  1.6242887e-01 -4.4965434e-01]
 [-1.6165592e-01 -3.4024969e-01  4.2499546e-02]
 [ 1.2555122e-01 -4.6344321e-02 -4.1142609e-02]
 [ 4.6008319e-01  5.2152604e-01 -3.8184729e-01]
 [ 2.6017931e-04  7.1497913e-04 -4.2699737e-04]
 [-1.3633877e-04 -1.1287822e-04 -4.6029719e-04]
 [-7.9186633e-04 -1.8532254e-04 -1.6162264e-04]] 
Episode: 90: [[ 5.4478979e-01  3.3698758e-01 -3.6196902e-02]
 [-1.9656475e-01 -1.9061857e-01 -1.4158903e-01]
 [ 3.0388266e-01  1.6244395e-01 -4.4961631e-01]
 [-1.6165014e-01 -3.4025699e-01  4.2494763e-02]
 [ 1.2555230e-01 -4.6341546e-02 -4.1136287e-02]
 [ 4.6008956e-01  5.2152705e-01 -3.8184553e-01]
 [ 2.5213431e-04  7.2618085e-04 -4.1771602e-04]
 [-1.5226629e-04 -1.0296481e-04 -4.5930847e-04]
 [-7.8299915e-04 -1.8204559e-04 -1.4774788e-04]] 
Episode: 91: [[ 5.4476553e-01  3.3701050e-01 -3.6152437e-02]
 [-1.9661333e-01 -1.9058092e-01 -1.4158939e-01]
 [ 3.0389851e-01  1.6245776e-01 -4.4958186e-01]
 [-1.6164489e-01 -3.4026361e-01  4.2490430e-02]
 [ 1.2555331e-01 -4.6339050e-02 -4.1130554e-02]
 [ 4.6009532e-01  5.2152795e-01 -3.8184395e-01]
 [ 2.4484229e-04  7.3634082e-04 -4.0930920e-04]
 [-1.6638450e-04 -9.3984192e-05 -4.5840620e-04]
 [-7.7494729e-04 -1.7905960e-04 -1.3487198e-04]] 
Episode: 92: [[ 5.4474336e-01  3.3703208e-01 -3.6112115e-02]
 [-1.9665983e-01 -1.9054577e-01 -1.4158934e-01]
 [ 3.0391234e-01  1.6247129e-01 -4.4954929e-01]
 [-1.6163959e-01 -3.4026971e-01  4.2486813e-02]
 [ 1.2555502e-01 -4.6336785e-02 -4.1125324e-02]
 [ 4.6010059e-01  5.2152872e-01 -3.8184252e-01]
 [ 2.3812335e-04  7.4576854e-04 -4.0164965e-04]
 [-1.7988365e-04 -8.5606596e-05 -4.5744053e-04]
 [-7.6790864e-04 -1.7618813e-04 -1.2279184e-04]] 
Episode: 93: [[ 5.44727623e-01  3.37050915e-01 -3.60755697e-02]
 [-1.96703717e-01 -1.90514475e-01 -1.41588762e-01]
 [ 3.03927630e-01  1.62482455e-01 -4.49519098e-01]
 [-1.61632881e-01 -3.40275854e-01  4.24832813e-02]
 [ 1.25553772e-01 -4.63341512e-02 -4.11205068e-02]
 [ 4.60105389e-01  5.21529675e-01 -3.81841093e-01]
 [ 2.32757418e-04  7.53934844e-04 -3.94694041e-04]
 [-1.92544700e-04 -7.81337658e-05 -4.56398237e-04]
 [-7.60763127e-04 -1.74213070e-04 -1.10552784e-04]] 
Episode: 94: [[ 5.44717371e-01  3.37065905e-01 -3.60435061e-02]
 [-1.96742356e-01 -1.90488189e-01 -1.41590476e-01]
 [ 3.03945988e-01  1.62487373e-01 -4.49493438e-01]
 [-1.61625922e-01 -3.40281248e-01  4.24797572e-02]
 [ 1.25555381e-01 -4.63315137e-02 -4.11159284e-02]
 [ 4.60108936e-01  5.21531522e-01 -3.81839961e-01]
 [ 2.28634017e-04  7.60408002e-04 -3.88553046e-04]
 [-2.03652351e-04 -7.18079536e-05 -4.56324866e-04]
 [-7.52139429e-04 -1.73583830e-04 -1.00021745e-04]] 
Episode: 95: [[ 5.4470754e-01  3.3708197e-01 -3.6013048e-02]
 [-1.9677874e-01 -1.9046238e-01 -1.4159171e-01]
 [ 3.0396309e-01  1.6249464e-01 -4.4946960e-01]
 [-1.6161862e-01 -3.4028637e-01  4.2476825e-02]
 [ 1.2555647e-01 -4.6328805e-02 -4.1112095e-02]
 [ 4.6011239e-01  5.2153289e-01 -3.8183880e-01]
 [ 2.2477079e-04  7.6700200e-04 -3.8272582e-04]
 [-2.1403228e-04 -6.5637010e-05 -4.5609340e-04]
 [-7.4367539e-04 -1.7239770e-04 -9.0210153e-05]] 
Episode: 96: [[ 5.4469949e-01  3.3709669e-01 -3.5985310e-02]
 [-1.9681180e-01 -1.9043893e-01 -1.4159286e-01]
 [ 3.0397913e-01  1.6250145e-01 -4.4944742e-01]
 [-1.6161148e-01 -3.4029111e-01  4.2474296e-02]
 [ 1.2555718e-01 -4.6326112e-02 -4.1108549e-02]
 [ 4.6011558e-01  5.2153414e-01 -3.8183773e-01]
 [ 2.2140854e-04  7.7293813e-04 -3.7740127e-04]
 [-2.2342251e-04 -6.0037844e-05 -4.5588156e-04]
 [-7.3559495e-04 -1.7130497e-04 -8.1151411e-05]] 
Episode: 97: [[ 5.4470032e-01  3.3710730e-01 -3.5962321e-02]
 [-1.9684505e-01 -1.9041854e-01 -1.4160143e-01]
 [ 3.0399457e-01  1.6250458e-01 -4.4943637e-01]
 [-1.6160262e-01 -3.4029523e-01  4.2472392e-02]
 [ 1.2556094e-01 -4.6320304e-02 -4.1116390e-02]
 [ 4.6012017e-01  5.2154374e-01 -3.8183805e-01]
 [ 2.1920002e-04  7.7632576e-04 -3.7262056e-04]
 [-2.3252187e-04 -5.5285465e-05 -4.5796676e-04]
 [-7.2715449e-04 -1.7127156e-04 -7.4273681e-05]] 
Episode: 98: [[ 5.4470110e-01  3.3711705e-01 -3.5941590e-02]
 [-1.9687524e-01 -1.9039956e-01 -1.4160851e-01]
 [ 3.0400878e-01  1.6250767e-01 -4.4942605e-01]
 [-1.6159441e-01 -3.4029880e-01  4.2470686e-02]
 [ 1.2556498e-01 -4.6315201e-02 -4.1123863e-02]
 [ 4.6012443e-01  5.2155221e-01 -3.8183841e-01]
 [ 2.1715616e-04  7.7941234e-04 -3.6829343e-04]
 [-2.4079182e-04 -5.0867846e-05 -4.5964253e-04]
 [-7.1963936e-04 -1.7120370e-04 -6.7927103e-05]] 
Episode: 99: [[ 5.4469067e-01  3.3712947e-01 -3.5921946e-02]
 [-1.9689828e-01 -1.9038054e-01 -1.4161468e-01]
 [ 3.0402300e-01  1.6251072e-01 -4.4941524e-01]
 [-1.6158988e-01 -3.4030259e-01  4.2469416e-02]
 [ 1.2556981e-01 -4.6310194e-02 -4.1131366e-02]
 [ 4.6012932e-01  5.2156031e-01 -3.8183853e-01]
 [ 2.1342546e-04  7.8341103e-04 -3.6424235e-04]
 [-2.4736594e-04 -4.6480276e-05 -4.6106600e-04]
 [-7.1227562e-04 -1.7100181e-04 -6.1763938e-05]] 
Episode: 100: [[ 5.44759989e-01  3.37104827e-01 -3.58436108e-02]
 [-1.96992725e-01 -1.90440163e-01 -1.41697675e-01]
 [ 3.04120004e-01  1.62605003e-01 -4.49330866e-01]
 [-1.61533296e-01 -3.40325117e-01  4.24843132e-02]
 [ 1.25483617e-01 -4.62597422e-02 -4.11266834e-02]
 [ 4.60212976e-01  5.21531522e-01 -3.81843656e-01]
 [ 2.35898828e-04  7.54451146e-04 -3.49163398e-04]
 [-2.86484341e-04 -6.56507982e-05 -4.98308858e-04]
 [-6.26865367e-04 -1.06581276e-04 -1.39618669e-05]] 
Episode: 101: [[ 5.4482275e-01  3.3708254e-01 -3.5772737e-02]
 [-1.9707811e-01 -1.9049411e-01 -1.4177278e-01]
 [ 3.0420780e-01  1.6269031e-01 -4.4925454e-01]
 [-1.6148211e-01 -3.4034550e-01  4.2497795e-02]
 [ 1.2540564e-01 -4.6214096e-02 -4.1122448e-02]
 [ 4.6028867e-01  5.2150548e-01 -3.8184831e-01]
 [ 2.5624543e-04  7.2826055e-04 -3.3552828e-04]
 [-3.2184721e-04 -8.2995728e-05 -5.3200719e-04]
 [-5.4957968e-04 -4.8283175e-05  2.9199880e-05]] 
Episode: 102: [[ 5.4487950e-01  3.3706236e-01 -3.5708614e-02]
 [-1.9715530e-01 -1.9054291e-01 -1.4184071e-01]
 [ 3.0428725e-01  1.6276748e-01 -4.4918549e-01]
 [-1.6143580e-01 -3.4036395e-01  4.2509992e-02]
 [ 1.2533510e-01 -4.6172801e-02 -4.1118614e-02]
 [ 4.6035716e-01  5.2148193e-01 -3.8185251e-01]
 [ 2.7465145e-04  7.0456445e-04 -3.2319114e-04]
 [-3.5382493e-04 -9.8687684e-05 -5.6249253e-04]
 [-4.7965607e-04  4.4607405e-06  6.8255991e-05]] 
Episode: 103: [[ 5.4493088e-01  3.3704412e-01 -3.5650603e-02]
 [-1.9722517e-01 -1.9058706e-01 -1.4190218e-01]
 [ 3.0435914e-01  1.6283730e-01 -4.4912302e-01]
 [-1.6139391e-01 -3.4038064e-01  4.2521026e-02]
 [ 1.2527128e-01 -4.6135440e-02 -4.1115146e-02]
 [ 4.6041912e-01  5.2146059e-01 -3.8185629e-01]
 [ 2.9130871e-04  6.8313145e-04 -3.1203422e-04]
 [-3.8277282e-04 -1.1288407e-04 -5.9007265e-04]
 [-4.1639394e-04  5.2183077e-05  1.0354360e-04]] 
Episode: 104: [[ 5.4497957e-01  3.3702365e-01 -3.5599291e-02]
 [-1.9728798e-01 -1.9062912e-01 -1.4195853e-01]
 [ 3.0442449e-01  1.6289984e-01 -4.4906607e-01]
 [-1.6135554e-01 -3.4039670e-01  4.2531643e-02]
 [ 1.2521295e-01 -4.6102084e-02 -4.1112248e-02]
 [ 4.6047550e-01  5.2144170e-01 -3.8185984e-01]
 [ 3.0695432e-04  6.6255953e-04 -3.0211406e-04]
 [-4.0873722e-04 -1.2628209e-04 -6.1538245e-04]
 [-3.5877957e-04  9.5021591e-05  1.3569089e-04]] 
Episode: 105: [[ 5.4502207e-01  3.3700103e-01 -3.5542525e-02]
 [-1.9735205e-01 -1.9066556e-01 -1.4200731e-01]
 [ 3.0448237e-01  1.6295624e-01 -4.4901204e-01]
 [-1.6132008e-01 -3.4041250e-01  4.2541169e-02]
 [ 1.2515935e-01 -4.6071000e-02 -4.1109372e-02]
 [ 4.6052599e-01  5.2142501e-01 -3.8186312e-01]
 [ 3.2091673e-04  6.4244779e-04 -2.9147259e-04]
 [-4.3515296e-04 -1.3801282e-04 -6.3724222e-04]
 [-3.0743203e-04  1.3366755e-04  1.6550520e-04]] 
Episode: 106: [[ 5.4506415e-01  3.3699030e-01 -3.5487011e-02]
 [-1.9741207e-01 -1.9069573e-01 -1.4205004e-01]
 [ 3.0453506e-01  1.6300829e-01 -4.4896564e-01]
 [-1.6128577e-01 -3.4042653e-01  4.2547844e-02]
 [ 1.2511171e-01 -4.6042144e-02 -4.1107547e-02]
 [ 4.6057087e-01  5.2140778e-01 -3.8186583e-01]
 [ 3.3427012e-04  6.2688033e-04 -2.8124897e-04]
 [-4.5949756e-04 -1.4794727e-04 -6.5643608e-04]
 [-2.6046127e-04  1.6932210e-04  1.9136960e-04]] 
Episode: 107: [[ 5.4510218e-01  3.3698058e-01 -3.5436802e-02]
 [-1.9746616e-01 -1.9072302e-01 -1.4208871e-01]
 [ 3.0458274e-01  1.6305538e-01 -4.4892371e-01]
 [-1.6125475e-01 -3.4043923e-01  4.2553879e-02]
 [ 1.2506862e-01 -4.6016041e-02 -4.1105896e-02]
 [ 4.6061149e-01  5.2139223e-01 -3.8186830e-01]
 [ 3.4635677e-04  6.1280897e-04 -2.7200891e-04]
 [-4.8146525e-04 -1.5693322e-04 -6.7379978e-04]
 [-2.1796816e-04  2.0158144e-04  2.1470118e-04]] 
Episode: 108: [[ 5.4513788e-01  3.3697361e-01 -3.5391342e-02]
 [-1.9751483e-01 -1.9074593e-01 -1.4212227e-01]
 [ 3.0462626e-01  1.6309901e-01 -4.4888392e-01]
 [-1.6122545e-01 -3.4045073e-01  4.2559184e-02]
 [ 1.2503055e-01 -4.5992203e-02 -4.1104522e-02]
 [ 4.6064809e-01  5.2137816e-01 -3.8187051e-01]
 [ 3.5731096e-04  6.0046883e-04 -2.6361144e-04]
 [-5.0104695e-04 -1.6467736e-04 -6.8892486e-04]
 [-1.7919681e-04  2.3132208e-04  2.3638133e-04]] 
Episode: 109: [[ 5.45170724e-01  3.36967140e-01 -3.53500657e-02]
 [-1.97559685e-01 -1.90766677e-01 -1.42152354e-01]
 [ 3.04665595e-01  1.63138479e-01 -4.48847592e-01]
 [-1.61198750e-01 -3.40461105e-01  4.25640307e-02]
 [ 1.24996305e-01 -4.59706895e-02 -4.11031283e-02]
 [ 4.60681260e-01  5.21365523e-01 -3.81872505e-01]
 [ 3.67319561e-04  5.89282485e-04 -2.56010331e-04]
 [-5.19023451e-04 -1.71689942e-04 -7.02477293e-04]
 [-1.44122736e-04  2.58357584e-04  2.55844672e-04]] 
Episode: 110: [[ 5.4520029e-01  3.3696115e-01 -3.5312884e-02]
 [-1.9760090e-01 -1.9078556e-01 -1.4217980e-01]
 [ 3.0470106e-01  1.6317409e-01 -4.4881514e-01]
 [-1.6117477e-01 -3.4047046e-01  4.2568415e-02]
 [ 1.2496533e-01 -4.5951240e-02 -4.1101865e-02]
 [ 4.6071127e-01  5.2135408e-01 -3.8187429e-01]
 [ 3.7633904e-04  5.7913223e-04 -2.4915661e-04]
 [-5.3540251e-04 -1.7803829e-04 -7.1488455e-04]
 [-1.1243427e-04  2.8277395e-04  2.7333311e-04]] 
Episode: 111: [[ 5.45234978e-01  3.36954951e-01 -3.52834500e-02]
 [-1.97640508e-01 -1.90803722e-01 -1.42208099e-01]
 [ 3.04733753e-01  1.63205177e-01 -4.48788792e-01]
 [-1.61151066e-01 -3.40478241e-01  4.25727181e-02]
 [ 1.24937855e-01 -4.59334515e-02 -4.10998017e-02]
 [ 4.60738122e-01  5.21344483e-01 -3.81875873e-01]
 [ 3.85890249e-04  5.69792115e-04 -2.43530943e-04]
 [-5.50640048e-04 -1.83978380e-04 -7.27434992e-04]
 [-8.34442835e-05  3.04229790e-04  2.88306037e-04]] 
Episode: 112: [[ 5.4526466e-01  3.3694962e-01 -3.5257332e-02]
 [-1.9767553e-01 -1.9082072e-01 -1.4223415e-01]
 [ 3.0476278e-01  1.6323321e-01 -4.4876558e-01]
 [-1.6113053e-01 -3.4048498e-01  4.2576618e-02]
 [ 1.2491314e-01 -4.5917425e-02 -4.1097995e-02]
 [ 4.6076235e-01  5.2133566e-01 -3.8187727e-01]
 [ 3.9425911e-04  5.6141586e-04 -2.3849332e-04]
 [-5.6423794e-04 -1.8946663e-04 -7.3895912e-04]
 [-5.7621794e-05  3.2358224e-04  3.0172025e-04]] 
Episode: 113: [[ 5.4529148e-01  3.3694479e-01 -3.5233714e-02]
 [-1.9770712e-01 -1.9083609e-01 -1.4225769e-01]
 [ 3.0478904e-01  1.6325855e-01 -4.4874457e-01]
 [-1.6111195e-01 -3.4049109e-01  4.2580146e-02]
 [ 1.2489079e-01 -4.5902934e-02 -4.1096359e-02]
 [ 4.6078426e-01  5.2132767e-01 -3.8187855e-01]
 [ 4.0182224e-04  5.5383606e-04 -2.3393436e-04]
 [-5.7652139e-04 -1.9442936e-04 -7.4937963e-04]
 [-3.4272540e-05  3.4107702e-04  3.1387518e-04]] 
Episode: 114: [[ 5.4531586e-01  3.3694047e-01 -3.5212334e-02]
 [-1.9773567e-01 -1.9085002e-01 -1.4227891e-01]
 [ 3.0481279e-01  1.6328141e-01 -4.4872543e-01]
 [-1.6109511e-01 -3.4049660e-01  4.2583343e-02]
 [ 1.2487060e-01 -4.5889810e-02 -4.1094840e-02]
 [ 4.6080410e-01  5.2132052e-01 -3.8187969e-01]
 [ 4.0868012e-04  5.4699060e-04 -2.2981071e-04]
 [-5.8763713e-04 -1.9892222e-04 -7.5876969e-04]
 [-1.3145659e-05  3.5687198e-04  3.2490582e-04]] 
Episode: 115: [[ 5.4534006e-01  3.3693740e-01 -3.5193104e-02]
 [-1.9776192e-01 -1.9086204e-01 -1.4229769e-01]
 [ 3.0483431e-01  1.6330226e-01 -4.4870773e-01]
 [-1.6107905e-01 -3.4050128e-01  4.2586174e-02]
 [ 1.2485269e-01 -4.5877859e-02 -4.1093417e-02]
 [ 4.6082205e-01  5.2131391e-01 -3.8188070e-01]
 [ 4.1520785e-04  5.4097449e-04 -2.2610393e-04]
 [-5.9777853e-04 -2.0286131e-04 -7.6709595e-04]
 [ 5.9652994e-06  3.7124087e-04  3.3503619e-04]] 
Episode: 116: [[ 5.4536456e-01  3.3693263e-01 -3.5174310e-02]
 [-1.9778654e-01 -1.9087288e-01 -1.4231367e-01]
 [ 3.0485421e-01  1.6332130e-01 -4.4869044e-01]
 [-1.6106370e-01 -3.4050527e-01  4.2588841e-02]
 [ 1.2483582e-01 -4.5867052e-02 -4.1092288e-02]
 [ 4.6083841e-01  5.2130800e-01 -3.8188162e-01]
 [ 4.2142827e-04  5.3499604e-04 -2.2256964e-04]
 [-6.0706091e-04 -2.0643113e-04 -7.7427190e-04]
 [ 2.3479632e-05  3.8422336e-04  3.4467218e-04]] 
Episode: 117: [[ 5.4538745e-01  3.3694017e-01 -3.5147969e-02]
 [-1.9780764e-01 -1.9087879e-01 -1.4232126e-01]
 [ 3.0487251e-01  1.6333951e-01 -4.4866610e-01]
 [-1.6104765e-01 -3.4051061e-01  4.2591941e-02]
 [ 1.2481692e-01 -4.5857053e-02 -4.1091636e-02]
 [ 4.6085423e-01  5.2130234e-01 -3.8188225e-01]
 [ 4.2684405e-04  5.3239451e-04 -2.1817273e-04]
 [-6.1523949e-04 -2.0893096e-04 -7.7807810e-04]
 [ 3.9464230e-05  3.9638995e-04  3.5615137e-04]] 
Episode: 118: [[ 5.45405447e-01  3.36955190e-01 -3.51257958e-02]
 [-1.97828561e-01 -1.90881416e-01 -1.42328605e-01]
 [ 3.04888815e-01  1.63356990e-01 -4.48645204e-01]
 [-1.61032841e-01 -3.40514421e-01  4.25941087e-02]
 [ 1.24801464e-01 -4.58472632e-02 -4.10913192e-02]
 [ 4.60868061e-01  5.21297038e-01 -3.81882846e-01]
 [ 4.31355671e-04  5.31781407e-04 -2.14346102e-04]
 [-6.23158528e-04 -2.10632352e-04 -7.81715265e-04]
 [ 5.37539527e-05  4.07803484e-04  3.66745167e-04]] 
Episode: 119: [[ 5.45423508e-01  3.36964071e-01 -3.51201408e-02]
 [-1.97857425e-01 -1.90879464e-01 -1.42337233e-01]
 [ 3.04905415e-01  1.63374320e-01 -4.48624223e-01]
 [-1.61017790e-01 -3.40512365e-01  4.25964333e-02]
 [ 1.24794945e-01 -4.58378494e-02 -4.10908759e-02]
 [ 4.60880607e-01  5.21292984e-01 -3.81883591e-01]
 [ 4.35251393e-04  5.30065445e-04 -2.12693674e-04]
 [-6.33046846e-04 -2.11273378e-04 -7.85652024e-04]
 [ 6.77122298e-05  4.18755313e-04  3.76992451e-04]] 
Episode: 120: [[ 5.4544008e-01  3.3697289e-01 -3.5115443e-02]
 [-1.9788389e-01 -1.9087791e-01 -1.4234509e-01]
 [ 3.0492020e-01  1.6338986e-01 -4.4860581e-01]
 [-1.6100423e-01 -3.4051025e-01  4.2598519e-02]
 [ 1.2478921e-01 -4.5829412e-02 -4.1090537e-02]
 [ 4.6089205e-01  5.2128935e-01 -3.8188443e-01]
 [ 4.3882558e-04  5.2867789e-04 -2.1121549e-04]
 [-6.4209307e-04 -2.1189648e-04 -7.8924879e-04]
 [ 8.0200727e-05  4.2857236e-04  3.8629276e-04]] 
Episode: 121: [[ 5.4544747e-01  3.3698943e-01 -3.5107844e-02]
 [-1.9791101e-01 -1.9087300e-01 -1.4235055e-01]
 [ 3.0493116e-01  1.6340400e-01 -4.4858524e-01]
 [-1.6099246e-01 -3.4050903e-01  4.2600188e-02]
 [ 1.2478411e-01 -4.5821063e-02 -4.1090589e-02]
 [ 4.6090159e-01  5.2128547e-01 -3.8188502e-01]
 [ 4.4081468e-04  5.2922562e-04 -2.0946359e-04]
 [-6.5150909e-04 -2.1178446e-04 -7.9195673e-04]
 [ 9.0043490e-05  4.3746631e-04  3.9566334e-04]] 
Episode: 122: [[ 5.4541367e-01  3.3702472e-01 -3.5094324e-02]
 [-1.9791907e-01 -1.9083616e-01 -1.4235945e-01]
 [ 3.0493456e-01  1.6342032e-01 -4.4857234e-01]
 [-1.6098723e-01 -3.4051362e-01  4.2600039e-02]
 [ 1.2478418e-01 -4.5818787e-02 -4.1093729e-02]
 [ 4.6090987e-01  5.2127427e-01 -3.8188487e-01]
 [ 4.3422633e-04  5.3427881e-04 -2.0638396e-04]
 [-6.5653707e-04 -2.0542066e-04 -7.9598092e-04]
 [ 9.4607851e-05  4.4717526e-04  4.0668182e-04]] 
Episode: 123: [[ 5.4538345e-01  3.3705631e-01 -3.5082128e-02]
 [-1.9792612e-01 -1.9080302e-01 -1.4236766e-01]
 [ 3.0493766e-01  1.6343504e-01 -4.4856086e-01]
 [-1.6098250e-01 -3.4051755e-01  4.2599905e-02]
 [ 1.2478452e-01 -4.5816764e-02 -4.1096646e-02]
 [ 4.6091735e-01  5.2126408e-01 -3.8188475e-01]
 [ 4.2832963e-04  5.3878583e-04 -2.0360707e-04]
 [-6.6102727e-04 -1.9969928e-04 -7.9968007e-04]
 [ 9.8748780e-05  4.5591508e-04  4.1656251e-04]] 
Episode: 124: [[ 5.4538971e-01  3.3702168e-01 -3.5077717e-02]
 [-1.9788633e-01 -1.9082262e-01 -1.4239483e-01]
 [ 3.0495390e-01  1.6342394e-01 -4.4854888e-01]
 [-1.6097976e-01 -3.4051901e-01  4.2602155e-02]
 [ 1.2477503e-01 -4.5818064e-02 -4.1094281e-02]
 [ 4.6092576e-01  5.2127719e-01 -3.8188609e-01]
 [ 4.2977781e-04  5.2786991e-04 -2.0218187e-04]
 [-6.4964534e-04 -2.0463916e-04 -8.1035349e-04]
 [ 1.1059847e-04  4.5230807e-04  4.2531377e-04]] 
Episode: 125: [[ 5.4539430e-01  3.3699089e-01 -3.5074238e-02]
 [-1.9784994e-01 -1.9084036e-01 -1.4241962e-01]
 [ 3.0496854e-01  1.6341388e-01 -4.4853798e-01]
 [-1.6097759e-01 -3.4052050e-01  4.2604227e-02]
 [ 1.2476636e-01 -4.5819286e-02 -4.1092116e-02]
 [ 4.6093333e-01  5.2128917e-01 -3.8188732e-01]
 [ 4.3089921e-04  5.1815592e-04 -2.0093958e-04]
 [-6.3927006e-04 -2.0911063e-04 -8.2009006e-04]
 [ 1.2129501e-04  4.4905522e-04  4.3332763e-04]] 
Episode: 126: [[ 5.4539847e-01  3.3696309e-01 -3.5071094e-02]
 [-1.9781716e-01 -1.9085640e-01 -1.4244202e-01]
 [ 3.0498177e-01  1.6340479e-01 -4.4852811e-01]
 [-1.6097562e-01 -3.4052184e-01  4.2606100e-02]
 [ 1.2475852e-01 -4.5820389e-02 -4.1090161e-02]
 [ 4.6094018e-01  5.2129996e-01 -3.8188842e-01]
 [ 4.3191554e-04  5.0937885e-04 -1.9981830e-04]
 [-6.2990579e-04 -2.1315203e-04 -8.2888937e-04]
 [ 1.3096398e-04  4.4611649e-04  4.4055106e-04]] 
Episode: 127: [[ 5.4540217e-01  3.3693844e-01 -3.5068139e-02]
 [-1.9778760e-01 -1.9087076e-01 -1.4246196e-01]
 [ 3.0499357e-01  1.6339660e-01 -4.4851884e-01]
 [-1.6097376e-01 -3.4052309e-01  4.2607740e-02]
 [ 1.2475141e-01 -4.5821402e-02 -4.1088399e-02]
 [ 4.6094635e-01  5.2130973e-01 -3.8188943e-01]
 [ 4.3282280e-04  5.0157367e-04 -1.9879325e-04]
 [-6.2147866e-04 -2.1677848e-04 -8.3674287e-04]
 [ 1.3961556e-04  4.4347261e-04  4.4716726e-04]] 
Episode: 128: [[ 5.4541075e-01  3.3691099e-01 -3.5066437e-02]
 [-1.9776431e-01 -1.9088393e-01 -1.4247832e-01]
 [ 3.0500409e-01  1.6338889e-01 -4.4850937e-01]
 [-1.6097046e-01 -3.4052423e-01  4.2609066e-02]
 [ 1.2474518e-01 -4.5822348e-02 -4.1086510e-02]
 [ 4.6095178e-01  5.2131939e-01 -3.8189042e-01]
 [ 4.3438864e-04  4.9316580e-04 -1.9794010e-04]
 [-6.1474944e-04 -2.2009014e-04 -8.4329856e-04]
 [ 1.4734939e-04  4.4088691e-04  4.5361664e-04]] 
Episode: 129: [[ 5.45428932e-01  3.36884230e-01 -3.50583754e-02]
 [-1.97742075e-01 -1.90901130e-01 -1.42488122e-01]
 [ 3.05016249e-01  1.63381055e-01 -4.48499739e-01]
 [-1.60965949e-01 -3.40523988e-01  4.26099747e-02]
 [ 1.24741286e-01 -4.58235145e-02 -4.10847478e-02]
 [ 4.60957289e-01  5.21328151e-01 -3.81891549e-01]
 [ 4.37418115e-04  4.84967488e-04 -1.96379202e-04]
 [-6.08216447e-04 -2.24154472e-04 -8.47584801e-04]
 [ 1.55831964e-04  4.38093528e-04  4.60057170e-04]] 
Episode: 130: [[ 5.4544520e-01  3.3686018e-01 -3.5050932e-02]
 [-1.9772153e-01 -1.9091666e-01 -1.4249690e-01]
 [ 3.0502731e-01  1.6337396e-01 -4.4849104e-01]
 [-1.6096190e-01 -3.4052378e-01  4.2610802e-02]
 [ 1.2473775e-01 -4.5824625e-02 -4.1083217e-02]
 [ 4.6096224e-01  5.2133650e-01 -3.8189268e-01]
 [ 4.4017404e-04  4.7760483e-04 -1.9495176e-04]
 [-6.0216233e-04 -2.2782464e-04 -8.5143832e-04]
 [ 1.6356913e-04  4.3558324e-04  4.6595195e-04]] 
Episode: 131: [[ 5.45460761e-01  3.36838335e-01 -3.50437872e-02]
 [-1.97703660e-01 -1.90930516e-01 -1.42504171e-01]
 [ 3.05037618e-01  1.63367718e-01 -4.48481977e-01]
 [-1.60957605e-01 -3.40523630e-01  4.26116139e-02]
 [ 1.24734536e-01 -4.58252355e-02 -4.10818420e-02]
 [ 4.60966647e-01  5.21343708e-01 -3.81893545e-01]
 [ 4.42836725e-04  4.70980711e-04 -1.93567612e-04]
 [-5.96922648e-04 -2.31100887e-04 -8.54664366e-04]
 [ 1.70776635e-04  4.33363719e-04  4.71315027e-04]] 
Episode: 132: [[ 5.4545122e-01  3.3685300e-01 -3.5063986e-02]
 [-1.9768569e-01 -1.9092344e-01 -1.4253063e-01]
 [ 3.0503500e-01  1.6338338e-01 -4.4849992e-01]
 [-1.6095968e-01 -3.4052658e-01  4.2613160e-02]
 [ 1.2471963e-01 -4.5824833e-02 -4.1074991e-02]
 [ 4.6097219e-01  5.2136111e-01 -3.8189340e-01]
 [ 4.4188849e-04  4.7394383e-04 -1.9564957e-04]
 [-5.9209456e-04 -2.2990895e-04 -8.6416787e-04]
 [ 1.7046434e-04  4.4104696e-04  4.6758773e-04]] 
Episode: 133: [[ 5.4544264e-01  3.3686626e-01 -3.5082232e-02]
 [-1.9766925e-01 -1.9091704e-01 -1.4255455e-01]
 [ 3.0503264e-01  1.6339754e-01 -4.4851613e-01]
 [-1.6096154e-01 -3.4052923e-01  4.2614557e-02]
 [ 1.2470616e-01 -4.5824468e-02 -4.1068796e-02]
 [ 4.6097720e-01  5.2137685e-01 -3.8189325e-01]
 [ 4.4103229e-04  4.7663052e-04 -1.9753331e-04]
 [-5.8768014e-04 -2.2882980e-04 -8.7276055e-04]
 [ 1.7018543e-04  4.4798935e-04  4.6423139e-04]] 
Episode: 134: [[ 5.4543489e-01  3.3687294e-01 -3.5094611e-02]
 [-1.9765532e-01 -1.9091210e-01 -1.4257303e-01]
 [ 3.0503017e-01  1.6340989e-01 -4.4852942e-01]
 [-1.6096303e-01 -3.4053281e-01  4.2615548e-02]
 [ 1.2469220e-01 -4.5823190e-02 -4.1063011e-02]
 [ 4.6098131e-01  5.2139157e-01 -3.8189298e-01]
 [ 4.4022407e-04  4.7773495e-04 -1.9873197e-04]
 [-5.8393303e-04 -2.2807640e-04 -8.7943068e-04]
 [ 1.6974116e-04  4.5404080e-04  4.6151111e-04]] 
Episode: 135: [[ 5.45428455e-01  3.36874634e-01 -3.51075083e-02]
 [-1.97642863e-01 -1.90912217e-01 -1.42586172e-01]
 [ 3.05026710e-01  1.63420692e-01 -4.48537976e-01]
 [-1.60964876e-01 -3.40535671e-01  4.26166430e-02]
 [ 1.24680966e-01 -4.58212122e-02 -4.10567410e-02]
 [ 4.60985333e-01  5.21405280e-01 -3.81892651e-01]
 [ 4.39691095e-04  4.77643218e-04 -2.00020542e-04]
 [-5.80572523e-04 -2.28296631e-04 -8.84135545e-04]
 [ 1.68571773e-04  4.59269271e-04  4.59970819e-04]] 
Episode: 136: [[ 5.4542261e-01  3.3687633e-01 -3.5121780e-02]
 [-1.9763219e-01 -1.9091293e-01 -1.4260323e-01]
 [ 3.0502331e-01  1.6342837e-01 -4.4854701e-01]
 [-1.6096646e-01 -3.4054008e-01  4.2618245e-02]
 [ 1.2466958e-01 -4.5819610e-02 -4.1051585e-02]
 [ 4.6098945e-01  5.2141732e-01 -3.8189292e-01]
 [ 4.3941103e-04  4.7767750e-04 -2.0158707e-04]
 [-5.7780708e-04 -2.2865391e-04 -8.9005363e-04]
 [ 1.6742108e-04  4.6303286e-04  4.5811568e-04]] 
Episode: 137: [[ 5.4541725e-01  3.3687368e-01 -3.5128284e-02]
 [-1.9762510e-01 -1.9091563e-01 -1.4261340e-01]
 [ 3.0502075e-01  1.6343464e-01 -4.4855189e-01]
 [-1.6096853e-01 -3.4054273e-01  4.2620335e-02]
 [ 1.2466130e-01 -4.5817658e-02 -4.1046303e-02]
 [ 4.6099326e-01  5.2142835e-01 -3.8189349e-01]
 [ 4.3907861e-04  4.7658323e-04 -2.0227041e-04]
 [-5.7602854e-04 -2.2937721e-04 -8.9346746e-04]
 [ 1.6651247e-04  4.6616406e-04  4.5700881e-04]] 
Episode: 138: [[ 5.4539806e-01  3.3682153e-01 -3.5153717e-02]
 [-1.9757147e-01 -1.9093131e-01 -1.4264442e-01]
 [ 3.0501041e-01  1.6342644e-01 -4.4856274e-01]
 [-1.6098374e-01 -3.4053105e-01  4.2621300e-02]
 [ 1.2467078e-01 -4.5819230e-02 -4.1037139e-02]
 [ 4.6099743e-01  5.2143574e-01 -3.8189310e-01]
 [ 4.3804740e-04  4.6228411e-04 -2.0584284e-04]
 [-5.5890606e-04 -2.3269386e-04 -9.0332521e-04]
 [ 1.6108580e-04  4.6323703e-04  4.5372540e-04]] 
Episode: 139: [[ 5.4538667e-01  3.3677438e-01 -3.5180036e-02]
 [-1.9752738e-01 -1.9094978e-01 -1.4266641e-01]
 [ 3.0500072e-01  1.6341881e-01 -4.4856983e-01]
 [-1.6099615e-01 -3.4052080e-01  4.2622268e-02]
 [ 1.2468058e-01 -4.5821194e-02 -4.1029233e-02]
 [ 4.6100241e-01  5.2144098e-01 -3.8189301e-01]
 [ 4.3819065e-04  4.4930293e-04 -2.0945907e-04]
 [-5.4462947e-04 -2.3659696e-04 -9.1004313e-04]
 [ 1.5584502e-04  4.6047702e-04  4.5121342e-04]] 
Episode: 140: [[ 5.4537570e-01  3.3673227e-01 -3.5203844e-02]
 [-1.9748728e-01 -1.9096643e-01 -1.4268675e-01]
 [ 3.0499187e-01  1.6341181e-01 -4.4857711e-01]
 [-1.6100769e-01 -3.4051147e-01  4.2623095e-02]
 [ 1.2468962e-01 -4.5823228e-02 -4.1021887e-02]
 [ 4.6100691e-01  5.2144599e-01 -3.8189298e-01]
 [ 4.3824015e-04  4.3758191e-04 -2.1265747e-04]
 [-5.3164002e-04 -2.4011119e-04 -9.1628905e-04]
 [ 1.5105421e-04  4.5779688e-04  4.4917621e-04]] 
Episode: 141: [[ 5.4526412e-01  3.3683306e-01 -3.5145175e-02]
 [-1.9758709e-01 -1.9086456e-01 -1.4257656e-01]
 [ 3.0491996e-01  1.6344930e-01 -4.4846490e-01]
 [-1.6095166e-01 -3.4050953e-01  4.2578973e-02]
 [ 1.2474072e-01 -4.5789130e-02 -4.1025538e-02]
 [ 4.6096921e-01  5.2144194e-01 -3.8188127e-01]
 [ 3.7267408e-04  5.1205035e-04 -2.0072186e-04]
 [-6.1231753e-04 -1.8302786e-04 -8.1311580e-04]
 [ 1.0793428e-04  4.8044132e-04  5.4357713e-04]] 
Episode: 142: [[ 5.4516512e-01  3.3692396e-01 -3.5082560e-02]
 [-1.9767800e-01 -1.9077307e-01 -1.4247693e-01]
 [ 3.0485544e-01  1.6348304e-01 -4.4836462e-01]
 [-1.6090097e-01 -3.4050784e-01  4.2540178e-02]
 [ 1.2478417e-01 -4.5757506e-02 -4.1027434e-02]
 [ 4.6093616e-01  5.2143806e-01 -3.8187003e-01]
 [ 3.1452288e-04  5.7933264e-04 -1.8878869e-04]
 [-6.8583339e-04 -1.3175444e-04 -7.1976869e-04]
 [ 6.9194517e-05  5.0117512e-04  6.2621513e-04]] 
Episode: 143: [[ 5.45075655e-01  3.37006062e-01 -3.50260250e-02]
 [-1.97760075e-01 -1.90690428e-01 -1.42386928e-01]
 [ 3.04797143e-01  1.63513497e-01 -4.48274016e-01]
 [-1.60855189e-01 -3.40506285e-01  4.25051264e-02]
 [ 1.24823436e-01 -4.57289331e-02 -4.10291478e-02]
 [ 4.60906297e-01  5.21434546e-01 -3.81859869e-01]
 [ 2.61991372e-04  6.40131359e-04 -1.78028014e-04]
 [-7.52224296e-04 -8.54345344e-05 -6.35441917e-04]
 [ 3.41898667e-05  5.19904366e-04  7.00811914e-04]] 
Episode: 144: [[ 5.44994831e-01  3.37080240e-01 -3.49749438e-02]
 [-1.97834060e-01 -1.90615758e-01 -1.42305613e-01]
 [ 3.04744512e-01  1.63541019e-01 -4.48192149e-01]
 [-1.60813823e-01 -3.40504885e-01  4.24734689e-02]
 [ 1.24858916e-01 -4.57031205e-02 -4.10306938e-02]
 [ 4.60879296e-01  5.21431386e-01 -3.81850690e-01]
 [ 2.14528583e-04  6.95059483e-04 -1.68311977e-04]
 [-8.12157930e-04 -4.35857073e-05 -5.59255306e-04]
 [ 2.57313468e-06  5.36832435e-04  7.68234371e-04]] 
Episode: 145: [[ 5.4491806e-01  3.3714989e-01 -3.4923177e-02]
 [-1.9790170e-01 -1.9054471e-01 -1.4223115e-01]
 [ 3.0469459e-01  1.6356868e-01 -4.4811767e-01]
 [-1.6077715e-01 -3.4050375e-01  4.2444300e-02]
 [ 1.2489128e-01 -4.5679316e-02 -4.1031551e-02]
 [ 4.6085465e-01  5.2142936e-01 -3.8184237e-01]
 [ 1.6980698e-04  7.4625819e-04 -1.5846042e-04]
 [-8.6693949e-04 -4.1373132e-06 -4.8965565e-04]
 [-2.7486411e-05  5.5277918e-04  8.3042419e-04]] 
Episode: 146: [[ 5.4484868e-01  3.3721280e-01 -3.4876343e-02]
 [-1.9796278e-01 -1.9048052e-01 -1.4216387e-01]
 [ 3.0464950e-01  1.6359368e-01 -4.4805038e-01]
 [-1.6074401e-01 -3.4050271e-01  4.2417958e-02]
 [ 1.2492055e-01 -4.5657795e-02 -4.1032311e-02]
 [ 4.6083239e-01  5.2142751e-01 -3.8183486e-01]
 [ 1.2939791e-04  7.9251104e-04 -1.4955240e-04]
 [-9.1641175e-04  3.1505795e-05 -4.2677639e-04]
 [-5.4637741e-05  5.6719530e-04  8.8661525e-04]] 
Episode: 147: [[ 5.4478616e-01  3.3726972e-01 -3.4833759e-02]
 [-1.9801801e-01 -1.9042239e-01 -1.4210300e-01]
 [ 3.0460891e-01  1.6361649e-01 -4.4798946e-01]
 [-1.6071381e-01 -3.4050173e-01  4.2394198e-02]
 [ 1.2494700e-01 -4.5638349e-02 -4.1033030e-02]
 [ 4.6081227e-01  5.2142578e-01 -3.8182804e-01]
 [ 9.2874274e-05  8.3433656e-04 -1.4147729e-04]
 [-9.6114667e-04  6.3759799e-05 -3.6989673e-04]
 [-7.9088168e-05  5.8032613e-04  9.3763275e-04]] 
Episode: 148: [[ 5.44727981e-01  3.37322086e-01 -3.47958244e-02]
 [-1.98068962e-01 -1.90367192e-01 -1.42048150e-01]
 [ 3.04570884e-01  1.63639784e-01 -4.47934628e-01]
 [-1.60686433e-01 -3.40501130e-01  4.23728377e-02]
 [ 1.24971256e-01 -4.56218198e-02 -4.10352536e-02]
 [ 4.60793853e-01  5.21422744e-01 -3.81822228e-01]
 [ 5.91773023e-05  8.72751232e-04 -1.34249101e-04]
 [-1.00227364e-03  9.40304162e-05 -3.18593840e-04]
 [-1.01963218e-04  5.93342702e-04  9.83526814e-04]] 
Episode: 149: [[ 5.44675410e-01  3.37369382e-01 -3.47614959e-02]
 [-1.98114932e-01 -1.90317333e-01 -1.41998574e-01]
 [ 3.04536551e-01  1.63660809e-01 -4.47885036e-01]
 [-1.60661697e-01 -3.40500593e-01  4.23535407e-02]
 [ 1.24993168e-01 -4.56068739e-02 -4.10372950e-02]
 [ 4.60777223e-01  5.21419883e-01 -3.81816953e-01]
 [ 2.87464409e-05  9.07463022e-04 -1.27722204e-04]
 [-1.03940978e-03  1.21372934e-04 -2.72235600e-04]
 [-1.22619065e-04  6.05097215e-04  1.02501048e-03]] 
Episode: 150: [[ 5.4462153e-01  3.3741161e-01 -3.4731746e-02]
 [-1.9815539e-01 -1.9027072e-01 -1.4195354e-01]
 [ 3.0450395e-01  1.6367742e-01 -4.4783893e-01]
 [-1.6064151e-01 -3.4050193e-01  4.2336136e-02]
 [ 1.2500961e-01 -4.5589384e-02 -4.1038152e-02]
 [ 4.6076268e-01  5.2141690e-01 -3.8181075e-01]
 [-1.2262948e-06  9.3831343e-04 -1.2198003e-04]
 [-1.0723614e-03  1.4657876e-04 -2.3016530e-04]
 [-1.4170840e-04  6.1462598e-04  1.0629669e-03]] 
Episode: 151: [[ 5.44572830e-01  3.37449759e-01 -3.47048640e-02]
 [-1.98191985e-01 -1.90228626e-01 -1.41912863e-01]
 [ 3.04474473e-01  1.63692445e-01 -4.47797269e-01]
 [-1.60623252e-01 -3.40503126e-01  4.23204154e-02]
 [ 1.25024468e-01 -4.55735885e-02 -4.10389267e-02]
 [ 4.60749537e-01  5.21414220e-01 -3.81805152e-01]
 [-2.82886067e-05  9.66172782e-04 -1.16787305e-04]
 [-1.10213924e-03  1.69347579e-04 -1.92163701e-04]
 [-1.58950570e-04  6.23236119e-04  1.09725480e-03]] 
Episode: 152: [[ 5.4452884e-01  3.3748421e-01 -3.4680609e-02]
 [-1.9822501e-01 -1.9019061e-01 -1.4187613e-01]
 [ 3.0444786e-01  1.6370597e-01 -4.4775966e-01]
 [-1.6060682e-01 -3.4050423e-01  4.2306215e-02]
 [ 1.2503788e-01 -4.5559321e-02 -4.1039627e-02]
 [ 4.6073768e-01  5.2141178e-01 -3.8180012e-01]
 [-5.2737116e-05  9.9133013e-04 -1.1209963e-04]
 [-1.1290241e-03  1.8990677e-04 -1.5784499e-04]
 [-1.7452845e-04  6.3100329e-04  1.1282163e-03]] 
Episode: 153: [[ 5.44488132e-01  3.37514848e-01 -3.46587300e-02]
 [-1.98253751e-01 -1.90156370e-01 -1.41842857e-01]
 [ 3.04423779e-01  1.63718343e-01 -4.47725713e-01]
 [-1.60593271e-01 -3.40505958e-01  4.22933511e-02]
 [ 1.25049859e-01 -4.55464870e-02 -4.10402901e-02]
 [ 4.60727096e-01  5.21409392e-01 -3.81795734e-01]
 [-7.53216154e-05  1.01367594e-03 -1.07685955e-04]
 [-1.15280645e-03  2.08449565e-04 -1.26782485e-04]
 [-1.88617691e-04  6.37957710e-04  1.15654676e-03]] 
Episode: 154: [[ 5.4445148e-01  3.3754295e-01 -3.4637380e-02]
 [-1.9827972e-01 -1.9012497e-01 -1.4181294e-01]
 [ 3.0440170e-01  1.6373014e-01 -4.4769523e-01]
 [-1.6058105e-01 -3.4050685e-01  4.2281967e-02]
 [ 1.2506145e-01 -4.5534365e-02 -4.1040815e-02]
 [ 4.6071780e-01  5.2140784e-01 -3.8179258e-01]
 [-9.5777927e-05  1.0343889e-03 -1.0367031e-04]
 [-1.1743103e-03  2.2536259e-04 -9.8797522e-05]
 [-2.0156142e-04  6.4473331e-04  1.1819408e-03]] 
Episode: 155: [[ 5.4438722e-01  3.3753690e-01 -3.4536455e-02]
 [-1.9833696e-01 -1.9010665e-01 -1.4172982e-01]
 [ 3.0434892e-01  1.6372974e-01 -4.4761690e-01]
 [-1.6056204e-01 -3.4050611e-01  4.2255025e-02]
 [ 1.2509620e-01 -4.5489185e-02 -4.1022722e-02]
 [ 4.6067664e-01  5.2141547e-01 -3.8177431e-01]
 [-1.1740957e-04  1.0420901e-03 -9.8126329e-05]
 [-1.2125245e-03  2.3615384e-04 -3.4422763e-05]
 [-2.2127311e-04  6.4837537e-04  1.2209021e-03]] 
Episode: 156: [[ 5.4432917e-01  3.3753142e-01 -3.4445304e-02]
 [-1.9838858e-01 -1.9009012e-01 -1.4165476e-01]
 [ 3.0430126e-01  1.6372934e-01 -4.4754618e-01]
 [-1.6054490e-01 -3.4050542e-01  4.2230695e-02]
 [ 1.2512758e-01 -4.5448385e-02 -4.1006371e-02]
 [ 4.6063948e-01  5.2142239e-01 -3.8175780e-01]
 [-1.3694809e-04  1.0490264e-03 -9.3107665e-05]
 [-1.2470199e-03  2.4589061e-04  2.3706318e-05]
 [-2.3908746e-04  6.5164553e-04  1.2560823e-03]] 
Episode: 157: [[ 5.4427677e-01  3.3752647e-01 -3.4362935e-02]
 [-1.9843522e-01 -1.9007516e-01 -1.4158694e-01]
 [ 3.0425826e-01  1.6372904e-01 -4.4748229e-01]
 [-1.6052936e-01 -3.4050480e-01  4.2208720e-02]
 [ 1.2515591e-01 -4.5411531e-02 -4.0991616e-02]
 [ 4.6060589e-01  5.2142859e-01 -3.8174289e-01]
 [-1.5458526e-04  1.0553057e-03 -8.8567373e-05]
 [-1.2781812e-03  2.5469827e-04  7.6218632e-05]
 [-2.5515960e-04  6.5462315e-04  1.2878777e-03]] 
Episode: 158: [[ 5.4420745e-01  3.3753237e-01 -3.4290038e-02]
 [-1.9849417e-01 -1.9003561e-01 -1.4152692e-01]
 [ 3.0420408e-01  1.6378312e-01 -4.4741750e-01]
 [-1.6051146e-01 -3.4049353e-01  4.2196028e-02]
 [ 1.2520900e-01 -4.5355123e-02 -4.0970530e-02]
 [ 4.6058810e-01  5.2144027e-01 -3.8171706e-01]
 [-1.7935141e-04  1.0661915e-03 -8.6539934e-05]
 [-1.3160659e-03  2.7222818e-04  1.2331778e-04]
 [-2.7667842e-04  6.7786610e-04  1.3155162e-03]] 
Episode: 159: [[ 5.4414481e-01  3.3753771e-01 -3.4224235e-02]
 [-1.9854736e-01 -1.8999991e-01 -1.4147273e-01]
 [ 3.0415511e-01  1.6383192e-01 -4.4735900e-01]
 [-1.6049537e-01 -3.4048337e-01  4.2184565e-02]
 [ 1.2525693e-01 -4.5304187e-02 -4.0951487e-02]
 [ 4.6057203e-01  5.2145082e-01 -3.8169372e-01]
 [-2.0172304e-04  1.0760165e-03 -8.4712388e-05]
 [-1.3502671e-03  2.8805362e-04  1.6584397e-04]
 [-2.9611713e-04  6.9884950e-04  1.3404622e-03]] 
Episode: 160: [[ 5.4408830e-01  3.3754253e-01 -3.4164779e-02]
 [-1.9859543e-01 -1.8996765e-01 -1.4142378e-01]
 [ 3.0411094e-01  1.6387603e-01 -4.4730616e-01]
 [-1.6048077e-01 -3.4047419e-01  4.2174213e-02]
 [ 1.2530020e-01 -4.5258187e-02 -4.0934291e-02]
 [ 4.6055755e-01  5.2146035e-01 -3.8167265e-01]
 [-2.2191633e-04  1.0848978e-03 -8.3062230e-05]
 [-1.3811521e-03  3.0235259e-04  2.0425685e-04]
 [-3.1365888e-04  7.1781519e-04  1.3630021e-03]] 
Episode: 161: [[ 5.4403555e-01  3.3755147e-01 -3.4141503e-02]
 [-1.9863729e-01 -1.8992455e-01 -1.4138816e-01]
 [ 3.0406871e-01  1.6393027e-01 -4.4727188e-01]
 [-1.6047004e-01 -3.4046465e-01  4.2165354e-02]
 [ 1.2534006e-01 -4.5219302e-02 -4.0919505e-02]
 [ 4.6054488e-01  5.2145565e-01 -3.8165256e-01]
 [-2.4180491e-04  1.0958827e-03 -8.5321219e-05]
 [-1.4085667e-03  3.2014056e-04  2.3360964e-04]
 [-3.3100368e-04  7.4094755e-04  1.3740119e-03]] 
Episode: 162: [[ 5.4398865e-01  3.3755940e-01 -3.4120653e-02]
 [-1.9867507e-01 -1.8988554e-01 -1.4135620e-01]
 [ 3.0403110e-01  1.6398042e-01 -4.4724113e-01]
 [-1.6045995e-01 -3.4045500e-01  4.2157263e-02]
 [ 1.2537722e-01 -4.5184489e-02 -4.0906020e-02]
 [ 4.6053359e-01  5.2145100e-01 -3.8163406e-01]
 [-2.5939403e-04  1.1058415e-03 -8.7561988e-05]
 [-1.4332568e-03  3.3627459e-04  2.6001967e-04]
 [-3.4649827e-04  7.6228741e-04  1.3842458e-03]] 
Episode: 163: [[ 5.4393709e-01  3.3757812e-01 -3.4080245e-02]
 [-1.9870019e-01 -1.8983102e-01 -1.4132722e-01]
 [ 3.0400404e-01  1.6403806e-01 -4.4721895e-01]
 [-1.6045119e-01 -3.4045523e-01  4.2152882e-02]
 [ 1.2540220e-01 -4.5166850e-02 -4.0900711e-02]
 [ 4.6052617e-01  5.2144641e-01 -3.8163191e-01]
 [-2.8023878e-04  1.1204645e-03 -7.9127327e-05]
 [-1.4511062e-03  3.5777263e-04  2.8479661e-04]
 [-3.5968347e-04  7.8427250e-04  1.4074991e-03]] 
Episode: 164: [[ 5.4389203e-01  3.3758312e-01 -3.4033947e-02]
 [-1.9874135e-01 -1.8978460e-01 -1.4129838e-01]
 [ 3.0396163e-01  1.6407803e-01 -4.4719699e-01]
 [-1.6044225e-01 -3.4044355e-01  4.2150009e-02]
 [ 1.2543248e-01 -4.5142546e-02 -4.0909689e-02]
 [ 4.6052456e-01  5.2142960e-01 -3.8162732e-01]
 [-3.0132782e-04  1.1257211e-03 -5.8678150e-05]
 [-1.4757835e-03  3.7621439e-04  3.0832834e-04]
 [-3.8127525e-04  7.9863938e-04  1.4312919e-03]] 
Episode: 165: [[ 5.4385126e-01  3.3758759e-01 -3.3992175e-02]
 [-1.9877850e-01 -1.8974277e-01 -1.4127240e-01]
 [ 3.0392322e-01  1.6411391e-01 -4.4717726e-01]
 [-1.6043431e-01 -3.4043306e-01  4.2147387e-02]
 [ 1.2545964e-01 -4.5120664e-02 -4.0917836e-02]
 [ 4.6052313e-01  5.2141440e-01 -3.8162318e-01]
 [-3.2035034e-04  1.1304478e-03 -4.0184033e-05]
 [-1.4980886e-03  3.9283675e-04  3.2953403e-04]
 [-4.0082115e-04  8.1152789e-04  1.4527203e-03]] 
Episode: 166: [[ 5.4387075e-01  3.3754376e-01 -3.4014784e-02]
 [-1.9887735e-01 -1.8975942e-01 -1.4126842e-01]
 [ 3.0392754e-01  1.6406250e-01 -4.4723448e-01]
 [-1.6038068e-01 -3.4045851e-01  4.2123575e-02]
 [ 1.2552351e-01 -4.5049749e-02 -4.0867232e-02]
 [ 4.6044609e-01  5.2144963e-01 -3.8155043e-01]
 [-2.6959550e-04  1.1067153e-03 -1.1033760e-04]
 [-1.5438918e-03  3.8797499e-04  3.3066378e-04]
 [-3.5883131e-04  7.8751671e-04  1.3527474e-03]] 
Episode: 167: [[ 5.4388618e-01  3.3750263e-01 -3.4033559e-02]
 [-1.9896685e-01 -1.8977478e-01 -1.4126466e-01]
 [ 3.0392924e-01  1.6401073e-01 -4.4728565e-01]
 [-1.6033304e-01 -3.4048349e-01  4.2101230e-02]
 [ 1.2557724e-01 -4.4985071e-02 -4.0820215e-02]
 [ 4.6037638e-01  5.2148360e-01 -3.8148403e-01]
 [-2.2454688e-04  1.0840957e-03 -1.7325678e-04]
 [-1.5855581e-03  3.8334168e-04  3.3170913e-04]
 [-3.2158720e-04  7.6331478e-04  1.2626615e-03]] 
Episode: 168: [[ 5.4390615e-01  3.3746883e-01 -3.4049887e-02]
 [-1.9905005e-01 -1.8978858e-01 -1.4126427e-01]
 [ 3.0393827e-01  1.6396461e-01 -4.4733390e-01]
 [-1.6028710e-01 -3.4049973e-01  4.2081114e-02]
 [ 1.2563211e-01 -4.4927351e-02 -4.0779997e-02]
 [ 4.6031293e-01  5.2151018e-01 -3.8142362e-01]
 [-1.8256299e-04  1.0657372e-03 -2.2957774e-04]
 [-1.6241783e-03  3.7923842e-04  3.3102717e-04]
 [-2.8653303e-04  7.4209133e-04  1.1807632e-03]] 
Episode: 169: [[ 5.4392415e-01  3.3743834e-01 -3.4063932e-02]
 [-1.9912542e-01 -1.8980090e-01 -1.4126375e-01]
 [ 3.0394605e-01  1.6392268e-01 -4.4737750e-01]
 [-1.6024554e-01 -3.4051451e-01  4.2062759e-02]
 [ 1.2568100e-01 -4.4875201e-02 -4.0743597e-02]
 [ 4.6025571e-01  5.2153426e-01 -3.8136914e-01]
 [-1.4484150e-04  1.0491722e-03 -2.8034241e-04]
 [-1.6591562e-03  3.7556564e-04  3.3050298e-04]
 [-2.5503413e-04  7.2282943e-04  1.1068027e-03]] 
Episode: 170: [[ 5.4393256e-01  3.3741888e-01 -3.4073405e-02]
 [-1.9919349e-01 -1.8980542e-01 -1.4125931e-01]
 [ 3.0395767e-01  1.6389306e-01 -4.4741404e-01]
 [-1.6020729e-01 -3.4053236e-01  4.2047933e-02]
 [ 1.2572628e-01 -4.4829153e-02 -4.0708981e-02]
 [ 4.6020520e-01  5.2155656e-01 -3.8132349e-01]
 [-1.1161086e-04  1.0382171e-03 -3.2586750e-04]
 [-1.6891436e-03  3.7423839e-04  3.3226272e-04]
 [-2.2452393e-04  7.0845737e-04  1.0424261e-03]] 
Episode: 171: [[ 5.4388511e-01  3.3740732e-01 -3.4081094e-02]
 [-1.9928598e-01 -1.8977091e-01 -1.4124365e-01]
 [ 3.0393058e-01  1.6385876e-01 -4.4741872e-01]
 [-1.6017345e-01 -3.4054273e-01  4.2034693e-02]
 [ 1.2577271e-01 -4.4763226e-02 -4.0682897e-02]
 [ 4.6014842e-01  5.2159852e-01 -3.8125551e-01]
 [-9.9563898e-05  1.0313034e-03 -3.6905537e-04]
 [-1.7344999e-03  3.8478195e-04  3.3836524e-04]
 [-2.0563463e-04  6.9549133e-04  9.8162261e-04]] 
Episode: 172: [[ 5.4398566e-01  3.3729970e-01 -3.4192536e-02]
 [-1.9918522e-01 -1.8988907e-01 -1.4111881e-01]
 [ 3.0405074e-01  1.6373114e-01 -4.4741744e-01]
 [-1.6004439e-01 -3.4041837e-01  4.1943833e-02]
 [ 1.2589975e-01 -4.4630762e-02 -4.0558405e-02]
 [ 4.6018678e-01  5.2172750e-01 -3.8111591e-01]
 [ 2.6021127e-05  1.1497245e-03 -5.0029560e-04]
 [-1.6358439e-03  2.8070086e-04  4.5369452e-04]
 [-7.9142097e-05  6.0896541e-04  8.4873056e-04]] 
Episode: 173: [[ 5.4407650e-01  3.3720258e-01 -3.4293089e-02]
 [-1.9909427e-01 -1.8999575e-01 -1.4100607e-01]
 [ 3.0415922e-01  1.6361594e-01 -4.4741619e-01]
 [-1.5992782e-01 -3.4030610e-01  4.1861799e-02]
 [ 1.2601444e-01 -4.4511165e-02 -4.0446017e-02]
 [ 4.6022141e-01  5.2184397e-01 -3.8098988e-01]
 [ 1.3941052e-04  1.2566487e-03 -6.1878329e-04]
 [-1.5467836e-03  1.8674125e-04  5.5783661e-04]
 [ 3.5066951e-05  5.3087535e-04  7.2875246e-04]] 
Episode: 174: [[ 5.4415840e-01  3.3712801e-01 -3.4392409e-02]
 [-1.9901335e-01 -1.9008757e-01 -1.4090820e-01]
 [ 3.0425435e-01  1.6351373e-01 -4.4743183e-01]
 [-1.5981945e-01 -3.4020519e-01  4.1784521e-02]
 [ 1.2611867e-01 -4.4401061e-02 -4.0347155e-02]
 [ 4.6025038e-01  5.2194667e-01 -3.8087362e-01]
 [ 2.4176910e-04  1.3554645e-03 -7.2636001e-04]
 [-1.4666612e-03  1.0629505e-04  6.4825692e-04]
 [ 1.3718924e-04  4.6671217e-04  6.1923655e-04]] 
Episode: 175: [[ 5.4423231e-01  3.3706069e-01 -3.4482043e-02]
 [-1.9894020e-01 -1.9017047e-01 -1.4081983e-01]
 [ 3.0434024e-01  1.6342147e-01 -4.4744593e-01]
 [-1.5972160e-01 -3.4011409e-01  4.1714754e-02]
 [ 1.2621279e-01 -4.4301655e-02 -4.0257901e-02]
 [ 4.6027654e-01  5.2203941e-01 -3.8076866e-01]
 [ 3.3418462e-04  1.4446850e-03 -8.2348206e-04]
 [-1.3942820e-03  3.3674591e-05  7.2990020e-04]
 [ 2.2939389e-04  4.0881257e-04  5.2036491e-04]] 
Episode: 176: [[ 5.4430068e-01  3.3699888e-01 -3.4562908e-02]
 [-1.9887419e-01 -1.9024569e-01 -1.4073996e-01]
 [ 3.0441776e-01  1.6333805e-01 -4.4745809e-01]
 [-1.5963300e-01 -3.4003180e-01  4.1651633e-02]
 [ 1.2629776e-01 -4.4211924e-02 -4.0177051e-02]
 [ 4.6030018e-01  5.2212328e-01 -3.8067380e-01]
 [ 4.1782053e-04  1.5249958e-03 -9.1116491e-04]
 [-1.3289074e-03 -3.2270033e-05  8.0369372e-04]
 [ 3.1260677e-04  3.5608700e-04  4.3113186e-04]] 
Episode: 177: [[ 5.4436201e-01  3.3694345e-01 -3.4636099e-02]
 [-1.9881399e-01 -1.9031349e-01 -1.4066790e-01]
 [ 3.0448788e-01  1.6326277e-01 -4.4746923e-01]
 [-1.5955311e-01 -3.3995754e-01  4.1594770e-02]
 [ 1.2637451e-01 -4.4130880e-02 -4.0104005e-02]
 [ 4.6032161e-01  5.2219898e-01 -3.8058811e-01]
 [ 4.9327227e-04  1.5975895e-03 -9.9034014e-04]
 [-1.2692524e-03 -9.1673312e-05  8.7028201e-04]
 [ 3.8779964e-04  3.0853559e-04  3.5056131e-04]] 
Episode: 178: [[ 5.4441559e-01  3.3689788e-01 -3.4703624e-02]
 [-1.9876149e-01 -1.9037327e-01 -1.4060295e-01]
 [ 3.0454972e-01  1.6319534e-01 -4.4747880e-01]
 [-1.5948059e-01 -3.3989042e-01  4.1544233e-02]
 [ 1.2644389e-01 -4.4057421e-02 -4.0038150e-02]
 [ 4.6034124e-01  5.2226740e-01 -3.8051057e-01]
 [ 5.6112255e-04  1.6642557e-03 -1.0619061e-03]
 [-1.2170684e-03 -1.4383695e-04  9.3027111e-04]
 [ 4.5506359e-04  2.6748521e-04  2.7785110e-04]] 
Episode: 179: [[ 5.4446393e-01  3.3685672e-01 -3.4764595e-02]
 [-1.9871409e-01 -1.9042724e-01 -1.4054431e-01]
 [ 3.0460554e-01  1.6313447e-01 -4.4748747e-01]
 [-1.5941513e-01 -3.3982983e-01  4.1498609e-02]
 [ 1.2650652e-01 -4.3991104e-02 -3.9978698e-02]
 [ 4.6035898e-01  5.2232921e-01 -3.8044056e-01]
 [ 6.2237418e-04  1.7244373e-03 -1.1265150e-03]
 [-1.1699500e-03 -1.9093216e-04  9.8442426e-04]
 [ 5.1578623e-04  2.3041817e-04  2.1220704e-04]] 
Episode: 180: [[ 5.4450756e-01  3.3681956e-01 -3.4819655e-02]
 [-1.9867136e-01 -1.9047597e-01 -1.4049138e-01]
 [ 3.0465594e-01  1.6307952e-01 -4.4749531e-01]
 [-1.5935606e-01 -3.3977515e-01  4.1457422e-02]
 [ 1.2656307e-01 -4.3931235e-02 -3.9925028e-02]
 [ 4.6037498e-01  5.2238500e-01 -3.8037738e-01]
 [ 6.7766890e-04  1.7787644e-03 -1.1848435e-03]
 [-1.1274496e-03 -2.3345176e-04  1.0333069e-03]
 [ 5.7060050e-04  1.9693941e-04  1.5294332e-04]] 
Episode: 181: [[ 5.4454684e-01  3.3678573e-01 -3.4869708e-02]
 [-1.9863257e-01 -1.9052006e-01 -1.4044368e-01]
 [ 3.0470145e-01  1.6302985e-01 -4.4750252e-01]
 [-1.5930291e-01 -3.3972576e-01  4.1420355e-02]
 [ 1.2661412e-01 -4.3877229e-02 -3.9876547e-02]
 [ 4.6038944e-01  5.2243537e-01 -3.8032034e-01]
 [ 7.2757574e-04  1.8277477e-03 -1.2375270e-03]
 [-1.0889218e-03 -2.7194663e-04  1.0773530e-03]
 [ 6.2008918e-04  1.6650322e-04  9.9434459e-05]] 
Episode: 182: [[ 5.4458243e-01  3.3675522e-01 -3.4915175e-02]
 [-1.9859758e-01 -1.9055992e-01 -1.4040063e-01]
 [ 3.0474246e-01  1.6298504e-01 -4.4750944e-01]
 [-1.5925495e-01 -3.3968121e-01  4.1386798e-02]
 [ 1.2666018e-01 -4.3828543e-02 -3.9832640e-02]
 [ 4.6040249e-01  5.2248085e-01 -3.8026884e-01]
 [ 7.7264343e-04  1.8719812e-03 -1.2851157e-03]
 [-1.0541371e-03 -3.0678074e-04  1.1171204e-03]
 [ 6.6472025e-04  1.3905978e-04  5.1089948e-05]] 
Episode: 183: [[ 5.44614494e-01  3.36727619e-01 -3.49564925e-02]
 [-1.98565960e-01 -1.90595925e-01 -1.40361875e-01]
 [ 3.04779440e-01  1.62944570e-01 -4.47515726e-01]
 [-1.59211740e-01 -3.39640975e-01  4.13565114e-02]
 [ 1.26701757e-01 -4.37845923e-02 -3.97929847e-02]
 [ 4.60414261e-01  5.22521913e-01 -3.80222321e-01]
 [ 8.13327555e-04  1.91189465e-03 -1.32810290e-03]
 [-1.02270825e-03 -3.38246842e-04  1.15295022e-03]
 [ 7.05001003e-04  1.14212926e-04  7.44918952e-06]] 
Episode: 184: [[ 5.4464370e-01  3.3670342e-01 -3.4993324e-02]
 [-1.9853760e-01 -1.9062831e-01 -1.4032683e-01]
 [ 3.0481291e-01  1.6290805e-01 -4.4752139e-01]
 [-1.5917252e-01 -3.3960477e-01  4.1329019e-02]
 [ 1.2673925e-01 -4.3744899e-02 -3.9757177e-02]
 [ 4.6042487e-01  5.2255893e-01 -3.8018033e-01]
 [ 8.5007993e-04  1.9481137e-03 -1.3668730e-03]
 [-9.9450408e-04 -3.6652270e-04  1.1853478e-03]
 [ 7.4139307e-04  9.1826230e-05 -3.1942709e-05]] 
Episode: 185: [[ 5.4467005e-01  3.3668160e-01 -3.5026535e-02]
 [-1.9851202e-01 -1.9065753e-01 -1.4029518e-01]
 [ 3.0484313e-01  1.6287509e-01 -4.4752645e-01]
 [-1.5913710e-01 -3.3957207e-01  4.1304205e-02]
 [ 1.2677309e-01 -4.3709066e-02 -3.9724853e-02]
 [ 4.6043444e-01  5.2259237e-01 -3.8014242e-01]
 [ 8.8325929e-04  1.9808146e-03 -1.4018677e-03]
 [-9.6905598e-04 -3.9203823e-04  1.2146013e-03]
 [ 7.7424460e-04  7.1639690e-05 -6.7499583e-05]] 
Episode: 186: [[ 5.4469383e-01  3.3666191e-01 -3.5056531e-02]
 [-1.9848891e-01 -1.9068390e-01 -1.4026661e-01]
 [ 3.0487040e-01  1.6284533e-01 -4.4753104e-01]
 [-1.5910514e-01 -3.3954257e-01  4.1281804e-02]
 [ 1.2680364e-01 -4.3676719e-02 -3.9695673e-02]
 [ 4.6044308e-01  5.2262253e-01 -3.8010821e-01]
 [ 9.1320812e-04  2.0103301e-03 -1.4334578e-03]
 [-9.4607193e-04 -4.1507572e-04  1.2410037e-03]
 [ 8.0389768e-04  5.3404248e-05 -9.9597302e-05]] 
Episode: 187: [[ 5.4471534e-01  3.3664411e-01 -3.5083603e-02]
 [-1.9846810e-01 -1.9070771e-01 -1.4024083e-01]
 [ 3.0489501e-01  1.6281848e-01 -4.4753519e-01]
 [-1.5907627e-01 -3.3951592e-01  4.1261636e-02]
 [ 1.2683120e-01 -4.3647531e-02 -3.9669268e-02]
 [ 4.6045089e-01  5.2264977e-01 -3.8007733e-01]
 [ 9.4024470e-04  2.0369745e-03 -1.4619830e-03]
 [-9.2537992e-04 -4.3586438e-04  1.2648415e-03]
 [ 8.3066983e-04  3.6961741e-05 -1.2858851e-04]] 
Episode: 188: [[ 5.4473472e-01  3.3662805e-01 -3.5108045e-02]
 [-1.9844931e-01 -1.9072920e-01 -1.4021756e-01]
 [ 3.0491722e-01  1.6279423e-01 -4.4753894e-01]
 [-1.5905023e-01 -3.3949187e-01  4.1243430e-02]
 [ 1.2685609e-01 -4.3621182e-02 -3.9645433e-02]
 [ 4.6045795e-01  5.2267432e-01 -3.8004947e-01]
 [ 9.6464885e-04  2.0610234e-03 -1.4877334e-03]
 [-9.0669648e-04 -4.5463140e-04  1.2863565e-03]
 [ 8.5483521e-04  2.2111839e-05 -1.5475911e-04]] 
Episode: 189: [[ 5.4475415e-01  3.3660978e-01 -3.5128590e-02]
 [-1.9843306e-01 -1.9074894e-01 -1.4019623e-01]
 [ 3.0493724e-01  1.6277173e-01 -4.4754001e-01]
 [-1.5902595e-01 -3.3947042e-01  4.1228462e-02]
 [ 1.2687838e-01 -4.3597538e-02 -3.9623257e-02]
 [ 4.6046504e-01  5.2269709e-01 -3.8002449e-01]
 [ 9.8693359e-04  2.0817032e-03 -1.5109081e-03]
 [-8.9047803e-04 -4.7205351e-04  1.3061913e-03]
 [ 8.7667204e-04  6.3580469e-06 -1.7821150e-04]] 
Episode: 190: [[ 5.4477161e-01  3.3659336e-01 -3.5147045e-02]
 [-1.9841830e-01 -1.9076671e-01 -1.4017698e-01]
 [ 3.0495524e-01  1.6275145e-01 -4.4754091e-01]
 [-1.5900406e-01 -3.3945104e-01  4.1214891e-02]
 [ 1.2689853e-01 -4.3576218e-02 -3.9603129e-02]
 [ 4.6047154e-01  5.2271760e-01 -3.8000199e-01]
 [ 1.0070358e-03  2.1003855e-03 -1.5318551e-03]
 [-8.7584957e-04 -4.8771893e-04  1.3241208e-03]
 [ 8.9636585e-04 -7.7763243e-06 -1.9938273e-04]] 
Episode: 191: [[ 5.4478741e-01  3.3657858e-01 -3.5163693e-02]
 [-1.9840501e-01 -1.9078271e-01 -1.4015961e-01]
 [ 3.0497149e-01  1.6273317e-01 -4.4754165e-01]
 [-1.5898426e-01 -3.3943358e-01  4.1202679e-02]
 [ 1.2691671e-01 -4.3556981e-02 -3.9584905e-02]
 [ 4.6047744e-01  5.2273613e-01 -3.7998170e-01]
 [ 1.0251804e-03  2.1172669e-03 -1.5507615e-03]
 [-8.6267333e-04 -5.0182914e-04  1.3403078e-03]
 [ 9.1414293e-04 -2.0476549e-05 -2.1848708e-04]] 
Episode: 192: [[ 5.4480147e-01  3.3656520e-01 -3.5179291e-02]
 [-1.9839297e-01 -1.9079715e-01 -1.4014396e-01]
 [ 3.0498615e-01  1.6271667e-01 -4.4754231e-01]
 [-1.5896639e-01 -3.3941782e-01  4.1191697e-02]
 [ 1.2693311e-01 -4.3539621e-02 -3.9568443e-02]
 [ 4.6048278e-01  5.2275282e-01 -3.7996340e-01]
 [ 1.0415509e-03  2.1325001e-03 -1.5679748e-03]
 [-8.5074612e-04 -5.1455444e-04  1.3548946e-03]
 [ 9.3019794e-04 -3.1906366e-05 -2.3573572e-04]] 
Episode: 193: [[ 5.4481369e-01  3.3655256e-01 -3.5194460e-02]
 [-1.9838201e-01 -1.9081043e-01 -1.4013012e-01]
 [ 3.0499926e-01  1.6270156e-01 -4.4754431e-01]
 [-1.5895110e-01 -3.3940357e-01  4.1181788e-02]
 [ 1.2694791e-01 -4.3523956e-02 -3.9553616e-02]
 [ 4.6048757e-01  5.2276790e-01 -3.7994692e-01]
 [ 1.0562422e-03  2.1460815e-03 -1.5835941e-03]
 [-8.3981472e-04 -5.2633008e-04  1.3677480e-03]
 [ 9.4458897e-04 -4.3055472e-05 -2.5140389e-04]] 
Episode: 194: [[ 5.4482472e-01  3.3654121e-01 -3.5208173e-02]
 [-1.9837214e-01 -1.9082239e-01 -1.4011763e-01]
 [ 3.0501109e-01  1.6268796e-01 -4.4754598e-01]
 [-1.5893722e-01 -3.3939072e-01  4.1172825e-02]
 [ 1.2696128e-01 -4.3509815e-02 -3.9540254e-02]
 [ 4.6049193e-01  5.2278149e-01 -3.7993205e-01]
 [ 1.0695171e-03  2.1583543e-03 -1.5977063e-03]
 [-8.2998321e-04 -5.3693011e-04  1.3793603e-03]
 [ 9.5758436e-04 -5.3051084e-05 -2.6553945e-04]] 
Episode: 195: [[ 5.4483467e-01  3.3653095e-01 -3.5220593e-02]
 [-1.9836321e-01 -1.9083320e-01 -1.4010637e-01]
 [ 3.0502176e-01  1.6267566e-01 -4.4754753e-01]
 [-1.5892473e-01 -3.3937913e-01  4.1164733e-02]
 [ 1.2697333e-01 -4.3497052e-02 -3.9528187e-02]
 [ 4.6049583e-01  5.2279377e-01 -3.7991863e-01]
 [ 1.0814943e-03  2.1694272e-03 -1.6104485e-03]
 [-8.2108588e-04 -5.4650661e-04  1.3898298e-03]
 [ 9.6930924e-04 -6.2107007e-05 -2.7830142e-04]] 
Episode: 196: [[ 5.4484338e-01  3.3652183e-01 -3.5231709e-02]
 [-1.9835509e-01 -1.9084294e-01 -1.4009620e-01]
 [ 3.0503142e-01  1.6266458e-01 -4.4754893e-01]
 [-1.5891355e-01 -3.3936867e-01  4.1157387e-02]
 [ 1.2698421e-01 -4.3485533e-02 -3.9517317e-02]
 [ 4.6049932e-01  5.2280480e-01 -3.7990654e-01]
 [ 1.0922708e-03  2.1794587e-03 -1.6219418e-03]
 [-8.1299606e-04 -5.5513729e-04  1.3992825e-03]
 [ 9.7989501e-04 -7.0266702e-05 -2.8982048e-04]] 
Episode: 197: [[ 5.4485267e-01  3.3651373e-01 -3.5241142e-02]
 [-1.9834800e-01 -1.9085160e-01 -1.4008717e-01]
 [ 3.0504027e-01  1.6265462e-01 -4.4755015e-01]
 [-1.5890318e-01 -3.3935925e-01  4.1150860e-02]
 [ 1.2699391e-01 -4.3475267e-02 -3.9507512e-02]
 [ 4.6050274e-01  5.2281481e-01 -3.7989593e-01]
 [ 1.1020703e-03  2.1885468e-03 -1.6323072e-03]
 [-8.0593926e-04 -5.6275650e-04  1.4077740e-03]
 [ 9.8954758e-04 -7.7455421e-05 -3.0021416e-04]] 
Episode: 198: [[ 5.4486030e-01  3.3650559e-01 -3.5251100e-02]
 [-1.9834122e-01 -1.9085968e-01 -1.4007932e-01]
 [ 3.0504799e-01  1.6264541e-01 -4.4755301e-01]
 [-1.5889488e-01 -3.3935073e-01  4.1145101e-02]
 [ 1.2700269e-01 -4.3466002e-02 -3.9498519e-02]
 [ 4.6050575e-01  5.2282381e-01 -3.7988678e-01]
 [ 1.1108068e-03  2.1964819e-03 -1.6419332e-03]
 [-7.9911138e-04 -5.6996703e-04  1.4151001e-03]
 [ 9.9812902e-04 -8.4864834e-05 -3.0980399e-04]] 
Episode: 199: [[ 5.4486722e-01  3.3649826e-01 -3.5260100e-02]
 [-1.9833508e-01 -1.9086698e-01 -1.4007224e-01]
 [ 3.0505496e-01  1.6263710e-01 -4.4755560e-01]
 [-1.5888740e-01 -3.3934304e-01  4.1139901e-02]
 [ 1.2701060e-01 -4.3457638e-02 -3.9490402e-02]
 [ 4.6050847e-01  5.2283198e-01 -3.7987852e-01]
 [ 1.1186901e-03  2.2036396e-03 -1.6506236e-03]
 [-7.9293951e-04 -5.7647942e-04  1.4217077e-03]
 [ 1.0058722e-03 -9.1569455e-05 -3.1846119e-04]] 
Episode: 200: [[ 5.4487348e-01  3.3649164e-01 -3.5268206e-02]
 [-1.9832948e-01 -1.9087356e-01 -1.4006585e-01]
 [ 3.0506119e-01  1.6262959e-01 -4.4755793e-01]
 [-1.5888065e-01 -3.3933610e-01  4.1135207e-02]
 [ 1.2701775e-01 -4.3450091e-02 -3.9483074e-02]
 [ 4.6051091e-01  5.2283931e-01 -3.7987107e-01]
 [ 1.1258053e-03  2.2101025e-03 -1.6584676e-03]
 [-7.8734156e-04 -5.8235321e-04  1.4276749e-03]
 [ 1.0128672e-03 -9.7593431e-05 -3.2627187e-04]] 
Episode: 201: [[ 5.4487705e-01  3.3648553e-01 -3.5279702e-02]
 [-1.9832405e-01 -1.9087969e-01 -1.4006066e-01]
 [ 3.0506659e-01  1.6262263e-01 -4.4756192e-01]
 [-1.5887591e-01 -3.3932990e-01  4.1129779e-02]
 [ 1.2702417e-01 -4.3441743e-02 -3.9473377e-02]
 [ 4.6051258e-01  5.2284580e-01 -3.7986454e-01]
 [ 1.1318245e-03  2.2157992e-03 -1.6664034e-03]
 [-7.8183890e-04 -5.8789860e-04  1.4324818e-03]
 [ 1.0190074e-03 -1.0412069e-04 -3.3349625e-04]] 
Episode: 202: [[ 5.44880211e-01  3.36479992e-01 -3.52902375e-02]
 [-1.98319271e-01 -1.90885216e-01 -1.40055999e-01]
 [ 3.05071503e-01  1.62616327e-01 -4.47565734e-01]
 [-1.58871695e-01 -3.39324296e-01  4.11248840e-02]
 [ 1.27029970e-01 -4.34342064e-02 -3.94646414e-02]
 [ 4.60513979e-01  5.22851646e-01 -3.79858762e-01]
 [ 1.13723194e-03  2.22089770e-03 -1.67364441e-03]
 [-7.76981353e-04 -5.92911092e-04  1.43680722e-03]
 [ 1.02448510e-03 -1.10285415e-04 -3.40101018e-04]] 
Episode: 203: [[ 5.4488128e-01  3.3647510e-01 -3.5300292e-02]
 [-1.9831453e-01 -1.9089013e-01 -1.4005183e-01]
 [ 3.0507588e-01  1.6261059e-01 -4.4756907e-01]
 [-1.5886849e-01 -3.3931944e-01  4.1120030e-02]
 [ 1.2703511e-01 -4.3427467e-02 -3.9456472e-02]
 [ 4.6051502e-01  5.2285701e-01 -3.7985346e-01]
 [ 1.1419259e-03  2.2255792e-03 -1.6802083e-03]
 [-7.7220157e-04 -5.9736019e-04  1.4406395e-03]
 [ 1.0293744e-03 -1.1603721e-04 -3.4605362e-04]] 
Episode: 204: [[ 5.4488212e-01  3.3647063e-01 -3.5309535e-02]
 [-1.9831030e-01 -1.9089462e-01 -1.4004810e-01]
 [ 3.0507985e-01  1.6260538e-01 -4.4757238e-01]
 [-1.5886575e-01 -3.3931506e-01  4.1115660e-02]
 [ 1.2703976e-01 -4.3421365e-02 -3.9448984e-02]
 [ 4.6051601e-01  5.2286202e-01 -3.7984863e-01]
 [ 1.1461417e-03  2.2297795e-03 -1.6861509e-03]
 [-7.6791836e-04 -6.0142926e-04  1.4440381e-03]
 [ 1.0337216e-03 -1.2146477e-04 -3.5146240e-04]] 
Episode: 205: [[ 5.4488289e-01  3.3646655e-01 -3.5317928e-02]
 [-1.9830644e-01 -1.9089867e-01 -1.4004476e-01]
 [ 3.0508339e-01  1.6260065e-01 -4.4757545e-01]
 [-1.5886332e-01 -3.3931109e-01  4.1111723e-02]
 [ 1.2704395e-01 -4.3415859e-02 -3.9442204e-02]
 [ 4.6051687e-01  5.2286649e-01 -3.7984428e-01]
 [ 1.1499450e-03  2.2335607e-03 -1.6915208e-03]
 [-7.6400960e-04 -6.0511485e-04  1.4470910e-03]
 [ 1.0376386e-03 -1.2642161e-04 -3.5635370e-04]] 
Episode: 206: [[ 5.4488361e-01  3.3646274e-01 -3.5325561e-02]
 [-1.9830295e-01 -1.9090235e-01 -1.4004174e-01]
 [ 3.0508658e-01  1.6259639e-01 -4.4757825e-01]
 [-1.5886113e-01 -3.3930752e-01  4.1108172e-02]
 [ 1.2704773e-01 -4.3410882e-02 -3.9436061e-02]
 [ 4.6051764e-01  5.2287054e-01 -3.7984034e-01]
 [ 1.1533871e-03  2.2369325e-03 -1.6963697e-03]
 [-7.6048687e-04 -6.0847047e-04  1.4498442e-03]
 [ 1.0411703e-03 -1.3091159e-04 -3.6076969e-04]] 
Episode: 207: [[ 5.4491442e-01  3.3646566e-01 -3.5277236e-02]
 [-1.9830303e-01 -1.9090541e-01 -1.4003506e-01]
 [ 3.0509612e-01  1.6259353e-01 -4.4756895e-01]
 [-1.5885055e-01 -3.3930212e-01  4.1101366e-02]
 [ 1.2705103e-01 -4.3405753e-02 -3.9433025e-02]
 [ 4.6051767e-01  5.2287501e-01 -3.7983665e-01]
 [ 1.1593021e-03  2.2413605e-03 -1.6962135e-03]
 [-7.6256192e-04 -6.1085564e-04  1.4570118e-03]
 [ 1.0478281e-03 -1.3087508e-04 -3.6388007e-04]] 
Episode: 208: [[ 5.4494226e-01  3.3646828e-01 -3.5233639e-02]
 [-1.9830297e-01 -1.9090816e-01 -1.4002904e-01]
 [ 3.0510464e-01  1.6259094e-01 -4.4756058e-01]
 [-1.5884101e-01 -3.3929724e-01  4.1095227e-02]
 [ 1.2705401e-01 -4.3401122e-02 -3.9430246e-02]
 [ 4.6051770e-01  5.2287900e-01 -3.7983331e-01]
 [ 1.1646334e-03  2.2453563e-03 -1.6960751e-03]
 [-7.6433149e-04 -6.1301200e-04  1.4634758e-03]
 [ 1.0538377e-03 -1.3082917e-04 -3.6669231e-04]] 
Episode: 209: [[ 5.4496735e-01  3.3647078e-01 -3.5194155e-02]
 [-1.9830292e-01 -1.9091062e-01 -1.4002354e-01]
 [ 3.0511230e-01  1.6258863e-01 -4.4755304e-01]
 [-1.5883234e-01 -3.3929282e-01  4.1089583e-02]
 [ 1.2705670e-01 -4.3396901e-02 -3.9427459e-02]
 [ 4.6051764e-01  5.2288276e-01 -3.7983039e-01]
 [ 1.1694555e-03  2.2490122e-03 -1.6959457e-03]
 [-7.6594669e-04 -6.1492220e-04  1.4693601e-03]
 [ 1.0592493e-03 -1.3064835e-04 -3.6923247e-04]] 
Episode: 210: [[ 5.4498976e-01  3.3647260e-01 -3.5159897e-02]
 [-1.9830279e-01 -1.9091299e-01 -1.4001903e-01]
 [ 3.0511907e-01  1.6258641e-01 -4.4754702e-01]
 [-1.5882500e-01 -3.3928886e-01  4.1084457e-02]
 [ 1.2705910e-01 -4.3393113e-02 -3.9425306e-02]
 [ 4.6051762e-01  5.2288616e-01 -3.7982777e-01]
 [ 1.1737809e-03  2.2521962e-03 -1.6960544e-03]
 [-7.6728058e-04 -6.1682466e-04  1.4743123e-03]
 [ 1.0640549e-03 -1.3104103e-04 -3.7158147e-04]] 
Episode: 211: [[ 5.4500997e-01  3.3647421e-01 -3.5129018e-02]
 [-1.9830267e-01 -1.9091514e-01 -1.4001495e-01]
 [ 3.0512518e-01  1.6258441e-01 -4.4754159e-01]
 [-1.5881838e-01 -3.3928528e-01  4.1079823e-02]
 [ 1.2706126e-01 -4.3389693e-02 -3.9423373e-02]
 [ 4.6051759e-01  5.2288926e-01 -3.7982538e-01]
 [ 1.1776825e-03  2.2550607e-03 -1.6961576e-03]
 [-7.6848496e-04 -6.1854790e-04  1.4787785e-03]
 [ 1.0683886e-03 -1.3140494e-04 -3.7369569e-04]] 
Episode: 212: [[ 5.4502827e-01  3.3647573e-01 -3.5101060e-02]
 [-1.9830282e-01 -1.9091706e-01 -1.4001125e-01]
 [ 3.0513084e-01  1.6258262e-01 -4.4753659e-01]
 [-1.5881237e-01 -3.3928204e-01  4.1075628e-02]
 [ 1.2706323e-01 -4.3386590e-02 -3.9421603e-02]
 [ 4.6051756e-01  5.2289206e-01 -3.7982324e-01]
 [ 1.1812060e-03  2.2576500e-03 -1.6962426e-03]
 [-7.6979515e-04 -6.2009168e-04  1.4828320e-03]
 [ 1.0722845e-03 -1.3170749e-04 -3.7560725e-04]] 
Episode: 213: [[ 5.4504424e-01  3.3647713e-01 -3.5075959e-02]
 [-1.9830213e-01 -1.9091885e-01 -1.4000805e-01]
 [ 3.0513561e-01  1.6258092e-01 -4.4753265e-01]
 [-1.5880755e-01 -3.3927909e-01  4.1071955e-02]
 [ 1.2706503e-01 -4.3383799e-02 -3.9419714e-02]
 [ 4.6051750e-01  5.2289462e-01 -3.7982136e-01]
 [ 1.1842899e-03  2.2600053e-03 -1.6963186e-03]
 [-7.7009888e-04 -6.2154408e-04  1.4863447e-03]
 [ 1.0758569e-03 -1.3237697e-04 -3.7736559e-04]] 
Episode: 214: [[ 5.4505861e-01  3.3647841e-01 -3.5053309e-02]
 [-1.9830152e-01 -1.9092046e-01 -1.4000516e-01]
 [ 3.0513990e-01  1.6257939e-01 -4.4752911e-01]
 [-1.5880318e-01 -3.3927640e-01  4.1068640e-02]
 [ 1.2706666e-01 -4.3381281e-02 -3.9418008e-02]
 [ 4.6051744e-01  5.2289695e-01 -3.7981966e-01]
 [ 1.1870726e-03  2.2621311e-03 -1.6963871e-03]
 [-7.7037449e-04 -6.2285434e-04  1.4895148e-03]
 [ 1.0790804e-03 -1.3298095e-04 -3.7895222e-04]] 
Episode: 215: [[ 5.4507178e-01  3.3647978e-01 -3.5032470e-02]
 [-1.9830123e-01 -1.9092181e-01 -1.4000244e-01]
 [ 3.0514398e-01  1.6257808e-01 -4.4752544e-01]
 [-1.5879892e-01 -3.3927399e-01  4.1065656e-02]
 [ 1.2706812e-01 -4.3379009e-02 -3.9416410e-02]
 [ 4.6051732e-01  5.2289903e-01 -3.7981814e-01]
 [ 1.1896152e-03  2.2641076e-03 -1.6964189e-03]
 [-7.7089976e-04 -6.2391977e-04  1.4924998e-03]
 [ 1.0820132e-03 -1.3327994e-04 -3.8037094e-04]] 
Episode: 216: [[ 5.4508412e-01  3.3648181e-01 -3.5014052e-02]
 [-1.9830126e-01 -1.9092311e-01 -1.3999993e-01]
 [ 3.0514777e-01  1.6257694e-01 -4.4752204e-01]
 [-1.5879504e-01 -3.3927155e-01  4.1062769e-02]
 [ 1.2706968e-01 -4.3376859e-02 -3.9415341e-02]
 [ 4.6051714e-01  5.2290076e-01 -3.7981671e-01]
 [ 1.1919264e-03  2.2660361e-03 -1.6964737e-03]
 [-7.7173644e-04 -6.2494143e-04  1.4952567e-03]
 [ 1.0847196e-03 -1.3335147e-04 -3.8164598e-04]] 
Episode: 217: [[ 5.4509562e-01  3.3648345e-01 -3.4998950e-02]
 [-1.9830154e-01 -1.9092430e-01 -1.3999771e-01]
 [ 3.0515102e-01  1.6257586e-01 -4.4751900e-01]
 [-1.5879132e-01 -3.3926934e-01  4.1060030e-02]
 [ 1.2707116e-01 -4.3374859e-02 -3.9413854e-02]
 [ 4.6051681e-01  5.2290237e-01 -3.7981549e-01]
 [ 1.1940649e-03  2.2676298e-03 -1.6966432e-03]
 [-7.7275501e-04 -6.2587543e-04  1.4976773e-03]
 [ 1.0870370e-03 -1.3363814e-04 -3.8279366e-04]] 
Episode: 218: [[ 5.4510504e-01  3.3648533e-01 -3.4985427e-02]
 [-1.9830140e-01 -1.9092536e-01 -1.3999592e-01]
 [ 3.0515373e-01  1.6257483e-01 -4.4751763e-01]
