Episode: 1: [[-0.11657108  0.01925944 -0.5485631   0.5081599   0.51482797  0.34263572
  -0.09813324  0.36980087]
 [-0.31287375  0.4729509  -0.44070682 -0.4904909  -0.10482257  0.5312401
  -0.33566955 -0.35339358]
 [ 0.45142373 -0.07081959 -0.16514593  0.05238764  0.38095844 -0.33493564
   0.3099484  -0.08199146]
 [-0.33293104  0.18539287 -0.3864072  -0.08661058  0.568887    0.22681153
  -0.2919255   0.23418397]
 [ 0.28799024  0.49685922 -0.52026755 -0.49073985  0.2566427   0.5170866
  -0.15627958 -0.32159573]
 [ 0.32144564  0.16059367 -0.3375632   0.2361349   0.5321596  -0.50870615
  -0.18964416 -0.5062304 ]
 [ 0.001       0.          0.          0.          0.          0.
   0.          0.        ]
 [ 0.001       0.          0.          0.          0.          0.
   0.          0.        ]
 [ 0.001       0.          0.          0.          0.          0.
   0.          0.        ]
 [ 0.23370929  0.23737404  0.10893833 -0.37746835  0.14405029  0.13707826
   0.25212246  0.43637034]
 [ 0.51523185 -0.01700069 -0.57065964  0.49524948  0.2670042  -0.22395086
   0.5447955   0.28569257]
 [-0.279218   -0.1521027   0.14305349 -0.4652852   0.3663096   0.18491977
  -0.16814803  0.0793543 ]] 
Episode: 2: [[-1.16471082e-01  1.93594433e-02 -5.48663139e-01  5.08059859e-01
   5.14927983e-01  3.42535734e-01 -9.82332453e-02  3.69900852e-01]
 [-3.12973738e-01  4.72850919e-01 -4.40806806e-01 -4.90590900e-01
  -1.04722567e-01  5.31140089e-01 -3.35769534e-01 -3.53293598e-01]
 [ 4.51323748e-01 -7.09195957e-02 -1.65245935e-01  5.22876382e-02
   3.81058425e-01 -3.34835649e-01  3.09848428e-01 -8.18914548e-02]
 [-3.32831055e-01  1.85492873e-01 -3.86307210e-01 -8.65105763e-02
   5.68987012e-01  2.26911530e-01 -2.91825503e-01  2.34083965e-01]
 [ 2.87890255e-01  4.96759236e-01 -5.20367563e-01 -4.90839839e-01
   2.56742686e-01  5.16986609e-01 -1.56379580e-01 -3.21495742e-01]
 [ 3.21345657e-01  1.60493672e-01 -3.37663174e-01  2.36034900e-01
   5.32259643e-01 -5.08806169e-01 -1.89744160e-01 -5.06130397e-01]
 [ 1.09999999e-03  9.99999975e-05  9.99999902e-05  9.99999975e-05
   9.99999902e-05  9.99999975e-05  9.99999902e-05  9.99999975e-05]
 [ 9.00000043e-04 -9.99999975e-05 -9.99999902e-05 -9.99999975e-05
  -1.00000005e-04 -9.99999975e-05 -1.00000005e-04 -9.99999975e-05]
 [ 1.10000011e-03  9.99999975e-05  9.99999902e-05  9.99999975e-05
   9.99999975e-05  9.99999902e-05  9.99999975e-05  9.99999975e-05]
 [ 2.33809292e-01  2.37474039e-01  1.09038331e-01 -3.77368361e-01
   1.43950284e-01  1.37178257e-01  2.52222449e-01  4.36270356e-01]
 [ 5.15131831e-01 -1.71006937e-02 -5.70759654e-01  4.95149493e-01
   2.67104179e-01 -2.24050865e-01  5.44695497e-01  2.85792559e-01]
 [-2.79317975e-01 -1.52202696e-01  1.42953485e-01 -4.65385199e-01
   3.66409600e-01  1.84819773e-01 -1.68248028e-01  7.94543028e-02]] 
Episode: 3: [[-1.16396666e-01  1.92850288e-02 -5.48588753e-01  5.07985473e-01
   5.14853597e-01  3.42610151e-01 -9.81588289e-02  3.69826436e-01]
 [-3.12899321e-01  4.72925335e-01 -4.40881222e-01 -4.90516484e-01
  -1.04796983e-01  5.31214476e-01 -3.35695118e-01 -3.53368014e-01]
 [ 4.51249331e-01 -7.09940121e-02 -1.65320352e-01  5.23620509e-02
   3.80984008e-01 -3.34910065e-01  3.09922844e-01 -8.18170384e-02]
 [-3.32756639e-01  1.85567290e-01 -3.86381626e-01 -8.65849927e-02
   5.68912625e-01  2.26837113e-01 -2.91899920e-01  2.34009549e-01]
 [ 2.87964672e-01  4.96833652e-01 -5.20441949e-01 -4.90765423e-01
   2.56668270e-01  5.17060995e-01 -1.56305164e-01 -3.21570158e-01]
 [ 3.21420074e-01  1.60419255e-01 -3.37588757e-01  2.36109316e-01
   5.32185256e-01 -5.08880556e-01 -1.89669743e-01 -5.06204784e-01]
 [ 1.17441372e-03  1.74413683e-04  1.74413668e-04  2.55863160e-05
   1.74413668e-04  1.74413668e-04  1.74413668e-04  2.55863233e-05]
 [ 9.74413706e-04 -1.74413683e-04 -2.55863088e-05 -2.55863160e-05
  -2.55863306e-05 -2.55863160e-05 -1.74413683e-04 -2.55863160e-05]
 [ 1.17441383e-03  2.55863160e-05  1.74413668e-04  1.74413683e-04
   2.55863233e-05  1.74413668e-04  1.74413668e-04  2.55863069e-05]
 [ 2.33883709e-01  2.37548456e-01  1.08963914e-01 -3.77293944e-01
   1.44024700e-01  1.37103841e-01  2.52148032e-01  4.36195940e-01]
 [ 5.15206218e-01 -1.70262791e-02 -5.70685267e-01  4.95075077e-01
   2.67029762e-01 -2.23976448e-01  5.44769883e-01  2.85718143e-01]
 [-2.79392391e-01 -1.52277112e-01  1.42879069e-01 -4.65310782e-01
   3.66484016e-01  1.84745356e-01 -1.68173611e-01  7.95287192e-02]] 
Episode: 4: [[-1.16396666e-01  1.92850288e-02 -5.48588753e-01  5.07985473e-01
   5.14853597e-01  3.42610151e-01 -9.81588289e-02  3.69826436e-01]
 [-3.12899321e-01  4.72925335e-01 -4.40881222e-01 -4.90516484e-01
  -1.04796983e-01  5.31214476e-01 -3.35695118e-01 -3.53368014e-01]
 [ 4.51249331e-01 -7.09940121e-02 -1.65320352e-01  5.23620509e-02
   3.80984008e-01 -3.34910065e-01  3.09922844e-01 -8.18170384e-02]
 [-3.32756639e-01  1.85567290e-01 -3.86381626e-01 -8.65849927e-02
   5.68912625e-01  2.26837113e-01 -2.91899920e-01  2.34009549e-01]
 [ 2.87964672e-01  4.96833652e-01 -5.20441949e-01 -4.90765423e-01
   2.56668270e-01  5.17060995e-01 -1.56305164e-01 -3.21570158e-01]
 [ 3.21420074e-01  1.60419255e-01 -3.37588757e-01  2.36109316e-01
   5.32185256e-01 -5.08880556e-01 -1.89669743e-01 -5.06204784e-01]
 [ 1.17441372e-03  1.74413683e-04  1.74413668e-04  2.55863160e-05
   1.74413668e-04  1.74413668e-04  1.74413668e-04  2.55863233e-05]
 [ 9.74413706e-04 -1.74413683e-04 -2.55863088e-05 -2.55863160e-05
  -2.55863306e-05 -2.55863160e-05 -1.74413683e-04 -2.55863160e-05]
 [ 1.17441383e-03  2.55863160e-05  1.74413668e-04  1.74413683e-04
   2.55863233e-05  1.74413668e-04  1.74413668e-04  2.55863069e-05]
 [ 2.33883709e-01  2.37548456e-01  1.08963914e-01 -3.77293944e-01
   1.44024700e-01  1.37103841e-01  2.52148032e-01  4.36195940e-01]
 [ 5.15206218e-01 -1.70262791e-02 -5.70685267e-01  4.95075077e-01
   2.67029762e-01 -2.23976448e-01  5.44769883e-01  2.85718143e-01]
 [-2.79392391e-01 -1.52277112e-01  1.42879069e-01 -4.65310782e-01
   3.66484016e-01  1.84745356e-01 -1.68173611e-01  7.95287192e-02]] 
Episode: 5: [[-1.16396666e-01  1.92850288e-02 -5.48588753e-01  5.07985473e-01
   5.14853597e-01  3.42610151e-01 -9.81588289e-02  3.69826436e-01]
 [-3.12899321e-01  4.72925335e-01 -4.40881222e-01 -4.90516484e-01
  -1.04796983e-01  5.31214476e-01 -3.35695118e-01 -3.53368014e-01]
 [ 4.51249331e-01 -7.09940121e-02 -1.65320352e-01  5.23620509e-02
   3.80984008e-01 -3.34910065e-01  3.09922844e-01 -8.18170384e-02]
 [-3.32756639e-01  1.85567290e-01 -3.86381626e-01 -8.65849927e-02
   5.68912625e-01  2.26837113e-01 -2.91899920e-01  2.34009549e-01]
 [ 2.87964672e-01  4.96833652e-01 -5.20441949e-01 -4.90765423e-01
   2.56668270e-01  5.17060995e-01 -1.56305164e-01 -3.21570158e-01]
 [ 3.21420074e-01  1.60419255e-01 -3.37588757e-01  2.36109316e-01
   5.32185256e-01 -5.08880556e-01 -1.89669743e-01 -5.06204784e-01]
 [ 1.17441372e-03  1.74413683e-04  1.74413668e-04  2.55863160e-05
   1.74413668e-04  1.74413668e-04  1.74413668e-04  2.55863233e-05]
 [ 9.74413706e-04 -1.74413683e-04 -2.55863088e-05 -2.55863160e-05
  -2.55863306e-05 -2.55863160e-05 -1.74413683e-04 -2.55863160e-05]
 [ 1.17441383e-03  2.55863160e-05  1.74413668e-04  1.74413683e-04
   2.55863233e-05  1.74413668e-04  1.74413668e-04  2.55863069e-05]
 [ 2.33883709e-01  2.37548456e-01  1.08963914e-01 -3.77293944e-01
   1.44024700e-01  1.37103841e-01  2.52148032e-01  4.36195940e-01]
 [ 5.15206218e-01 -1.70262791e-02 -5.70685267e-01  4.95075077e-01
   2.67029762e-01 -2.23976448e-01  5.44769883e-01  2.85718143e-01]
 [-2.79392391e-01 -1.52277112e-01  1.42879069e-01 -4.65310782e-01
   3.66484016e-01  1.84745356e-01 -1.68173611e-01  7.95287192e-02]] 
Episode: 6: [[-1.16396666e-01  1.92850288e-02 -5.48588753e-01  5.07985473e-01
   5.14853597e-01  3.42610151e-01 -9.81588289e-02  3.69826436e-01]
 [-3.12899321e-01  4.72925335e-01 -4.40881222e-01 -4.90516484e-01
  -1.04796983e-01  5.31214476e-01 -3.35695118e-01 -3.53368014e-01]
 [ 4.51249331e-01 -7.09940121e-02 -1.65320352e-01  5.23620509e-02
   3.80984008e-01 -3.34910065e-01  3.09922844e-01 -8.18170384e-02]
 [-3.32756639e-01  1.85567290e-01 -3.86381626e-01 -8.65849927e-02
   5.68912625e-01  2.26837113e-01 -2.91899920e-01  2.34009549e-01]
 [ 2.87964672e-01  4.96833652e-01 -5.20441949e-01 -4.90765423e-01
   2.56668270e-01  5.17060995e-01 -1.56305164e-01 -3.21570158e-01]
 [ 3.21420074e-01  1.60419255e-01 -3.37588757e-01  2.36109316e-01
   5.32185256e-01 -5.08880556e-01 -1.89669743e-01 -5.06204784e-01]
 [ 1.17441372e-03  1.74413683e-04  1.74413668e-04  2.55863160e-05
   1.74413668e-04  1.74413668e-04  1.74413668e-04  2.55863233e-05]
 [ 9.74413706e-04 -1.74413683e-04 -2.55863088e-05 -2.55863160e-05
  -2.55863306e-05 -2.55863160e-05 -1.74413683e-04 -2.55863160e-05]
 [ 1.17441383e-03  2.55863160e-05  1.74413668e-04  1.74413683e-04
   2.55863233e-05  1.74413668e-04  1.74413668e-04  2.55863069e-05]
 [ 2.33883709e-01  2.37548456e-01  1.08963914e-01 -3.77293944e-01
   1.44024700e-01  1.37103841e-01  2.52148032e-01  4.36195940e-01]
 [ 5.15206218e-01 -1.70262791e-02 -5.70685267e-01  4.95075077e-01
   2.67029762e-01 -2.23976448e-01  5.44769883e-01  2.85718143e-01]
 [-2.79392391e-01 -1.52277112e-01  1.42879069e-01 -4.65310782e-01
   3.66484016e-01  1.84745356e-01 -1.68173611e-01  7.95287192e-02]] 
Episode: 7: [[-1.16396666e-01  1.92850288e-02 -5.48588753e-01  5.07985473e-01
   5.14853597e-01  3.42610151e-01 -9.81588289e-02  3.69826436e-01]
 [-3.12899321e-01  4.72925335e-01 -4.40881222e-01 -4.90516484e-01
  -1.04796983e-01  5.31214476e-01 -3.35695118e-01 -3.53368014e-01]
 [ 4.51249331e-01 -7.09940121e-02 -1.65320352e-01  5.23620509e-02
   3.80984008e-01 -3.34910065e-01  3.09922844e-01 -8.18170384e-02]
 [-3.32756639e-01  1.85567290e-01 -3.86381626e-01 -8.65849927e-02
   5.68912625e-01  2.26837113e-01 -2.91899920e-01  2.34009549e-01]
 [ 2.87964672e-01  4.96833652e-01 -5.20441949e-01 -4.90765423e-01
   2.56668270e-01  5.17060995e-01 -1.56305164e-01 -3.21570158e-01]
 [ 3.21420074e-01  1.60419255e-01 -3.37588757e-01  2.36109316e-01
   5.32185256e-01 -5.08880556e-01 -1.89669743e-01 -5.06204784e-01]
 [ 1.17441372e-03  1.74413683e-04  1.74413668e-04  2.55863160e-05
   1.74413668e-04  1.74413668e-04  1.74413668e-04  2.55863233e-05]
 [ 9.74413706e-04 -1.74413683e-04 -2.55863088e-05 -2.55863160e-05
  -2.55863306e-05 -2.55863160e-05 -1.74413683e-04 -2.55863160e-05]
 [ 1.17441383e-03  2.55863160e-05  1.74413668e-04  1.74413683e-04
   2.55863233e-05  1.74413668e-04  1.74413668e-04  2.55863069e-05]
 [ 2.33883709e-01  2.37548456e-01  1.08963914e-01 -3.77293944e-01
   1.44024700e-01  1.37103841e-01  2.52148032e-01  4.36195940e-01]
 [ 5.15206218e-01 -1.70262791e-02 -5.70685267e-01  4.95075077e-01
   2.67029762e-01 -2.23976448e-01  5.44769883e-01  2.85718143e-01]
 [-2.79392391e-01 -1.52277112e-01  1.42879069e-01 -4.65310782e-01
   3.66484016e-01  1.84745356e-01 -1.68173611e-01  7.95287192e-02]] 
Episode: 8: [[-1.16396666e-01  1.92850288e-02 -5.48588753e-01  5.07985473e-01
   5.14853597e-01  3.42610151e-01 -9.81588289e-02  3.69826436e-01]
 [-3.12899321e-01  4.72925335e-01 -4.40881222e-01 -4.90516484e-01
  -1.04796983e-01  5.31214476e-01 -3.35695118e-01 -3.53368014e-01]
 [ 4.51249331e-01 -7.09940121e-02 -1.65320352e-01  5.23620509e-02
   3.80984008e-01 -3.34910065e-01  3.09922844e-01 -8.18170384e-02]
 [-3.32756639e-01  1.85567290e-01 -3.86381626e-01 -8.65849927e-02
   5.68912625e-01  2.26837113e-01 -2.91899920e-01  2.34009549e-01]
 [ 2.87964672e-01  4.96833652e-01 -5.20441949e-01 -4.90765423e-01
   2.56668270e-01  5.17060995e-01 -1.56305164e-01 -3.21570158e-01]
 [ 3.21420074e-01  1.60419255e-01 -3.37588757e-01  2.36109316e-01
   5.32185256e-01 -5.08880556e-01 -1.89669743e-01 -5.06204784e-01]
 [ 1.17441372e-03  1.74413683e-04  1.74413668e-04  2.55863160e-05
   1.74413668e-04  1.74413668e-04  1.74413668e-04  2.55863233e-05]
 [ 9.74413706e-04 -1.74413683e-04 -2.55863088e-05 -2.55863160e-05
  -2.55863306e-05 -2.55863160e-05 -1.74413683e-04 -2.55863160e-05]
 [ 1.17441383e-03  2.55863160e-05  1.74413668e-04  1.74413683e-04
   2.55863233e-05  1.74413668e-04  1.74413668e-04  2.55863069e-05]
 [ 2.33883709e-01  2.37548456e-01  1.08963914e-01 -3.77293944e-01
   1.44024700e-01  1.37103841e-01  2.52148032e-01  4.36195940e-01]
 [ 5.15206218e-01 -1.70262791e-02 -5.70685267e-01  4.95075077e-01
   2.67029762e-01 -2.23976448e-01  5.44769883e-01  2.85718143e-01]
 [-2.79392391e-01 -1.52277112e-01  1.42879069e-01 -4.65310782e-01
   3.66484016e-01  1.84745356e-01 -1.68173611e-01  7.95287192e-02]] 
Episode: 9: [[-1.16396666e-01  1.92850288e-02 -5.48588753e-01  5.07985473e-01
   5.14853597e-01  3.42610151e-01 -9.81588289e-02  3.69826436e-01]
 [-3.12899321e-01  4.72925335e-01 -4.40881222e-01 -4.90516484e-01
  -1.04796983e-01  5.31214476e-01 -3.35695118e-01 -3.53368014e-01]
 [ 4.51249331e-01 -7.09940121e-02 -1.65320352e-01  5.23620509e-02
   3.80984008e-01 -3.34910065e-01  3.09922844e-01 -8.18170384e-02]
 [-3.32756639e-01  1.85567290e-01 -3.86381626e-01 -8.65849927e-02
   5.68912625e-01  2.26837113e-01 -2.91899920e-01  2.34009549e-01]
 [ 2.87964672e-01  4.96833652e-01 -5.20441949e-01 -4.90765423e-01
   2.56668270e-01  5.17060995e-01 -1.56305164e-01 -3.21570158e-01]
 [ 3.21420074e-01  1.60419255e-01 -3.37588757e-01  2.36109316e-01
   5.32185256e-01 -5.08880556e-01 -1.89669743e-01 -5.06204784e-01]
 [ 1.17441372e-03  1.74413683e-04  1.74413668e-04  2.55863160e-05
   1.74413668e-04  1.74413668e-04  1.74413668e-04  2.55863233e-05]
 [ 9.74413706e-04 -1.74413683e-04 -2.55863088e-05 -2.55863160e-05
  -2.55863306e-05 -2.55863160e-05 -1.74413683e-04 -2.55863160e-05]
 [ 1.17441383e-03  2.55863160e-05  1.74413668e-04  1.74413683e-04
   2.55863233e-05  1.74413668e-04  1.74413668e-04  2.55863069e-05]
 [ 2.33883709e-01  2.37548456e-01  1.08963914e-01 -3.77293944e-01
   1.44024700e-01  1.37103841e-01  2.52148032e-01  4.36195940e-01]
 [ 5.15206218e-01 -1.70262791e-02 -5.70685267e-01  4.95075077e-01
   2.67029762e-01 -2.23976448e-01  5.44769883e-01  2.85718143e-01]
 [-2.79392391e-01 -1.52277112e-01  1.42879069e-01 -4.65310782e-01
   3.66484016e-01  1.84745356e-01 -1.68173611e-01  7.95287192e-02]] 
Episode: 10: [[-1.16396666e-01  1.92850288e-02 -5.48588753e-01  5.07985473e-01
   5.14853597e-01  3.42610151e-01 -9.81588289e-02  3.69826436e-01]
 [-3.12899321e-01  4.72925335e-01 -4.40881222e-01 -4.90516484e-01
  -1.04796983e-01  5.31214476e-01 -3.35695118e-01 -3.53368014e-01]
 [ 4.51249331e-01 -7.09940121e-02 -1.65320352e-01  5.23620509e-02
   3.80984008e-01 -3.34910065e-01  3.09922844e-01 -8.18170384e-02]
 [-3.32756639e-01  1.85567290e-01 -3.86381626e-01 -8.65849927e-02
   5.68912625e-01  2.26837113e-01 -2.91899920e-01  2.34009549e-01]
 [ 2.87964672e-01  4.96833652e-01 -5.20441949e-01 -4.90765423e-01
   2.56668270e-01  5.17060995e-01 -1.56305164e-01 -3.21570158e-01]
 [ 3.21420074e-01  1.60419255e-01 -3.37588757e-01  2.36109316e-01
   5.32185256e-01 -5.08880556e-01 -1.89669743e-01 -5.06204784e-01]
 [ 1.17441372e-03  1.74413683e-04  1.74413668e-04  2.55863160e-05
   1.74413668e-04  1.74413668e-04  1.74413668e-04  2.55863233e-05]
 [ 9.74413706e-04 -1.74413683e-04 -2.55863088e-05 -2.55863160e-05
  -2.55863306e-05 -2.55863160e-05 -1.74413683e-04 -2.55863160e-05]
 [ 1.17441383e-03  2.55863160e-05  1.74413668e-04  1.74413683e-04
   2.55863233e-05  1.74413668e-04  1.74413668e-04  2.55863069e-05]
 [ 2.33883709e-01  2.37548456e-01  1.08963914e-01 -3.77293944e-01
   1.44024700e-01  1.37103841e-01  2.52148032e-01  4.36195940e-01]
 [ 5.15206218e-01 -1.70262791e-02 -5.70685267e-01  4.95075077e-01
   2.67029762e-01 -2.23976448e-01  5.44769883e-01  2.85718143e-01]
 [-2.79392391e-01 -1.52277112e-01  1.42879069e-01 -4.65310782e-01
   3.66484016e-01  1.84745356e-01 -1.68173611e-01  7.95287192e-02]] 
Episode: 11: [[-1.16396666e-01  1.92850288e-02 -5.48588753e-01  5.07985473e-01
   5.14853597e-01  3.42610151e-01 -9.81588289e-02  3.69826436e-01]
 [-3.12899321e-01  4.72925335e-01 -4.40881222e-01 -4.90516484e-01
  -1.04796983e-01  5.31214476e-01 -3.35695118e-01 -3.53368014e-01]
 [ 4.51249331e-01 -7.09940121e-02 -1.65320352e-01  5.23620509e-02
   3.80984008e-01 -3.34910065e-01  3.09922844e-01 -8.18170384e-02]
 [-3.32756639e-01  1.85567290e-01 -3.86381626e-01 -8.65849927e-02
   5.68912625e-01  2.26837113e-01 -2.91899920e-01  2.34009549e-01]
 [ 2.87964672e-01  4.96833652e-01 -5.20441949e-01 -4.90765423e-01
   2.56668270e-01  5.17060995e-01 -1.56305164e-01 -3.21570158e-01]
 [ 3.21420074e-01  1.60419255e-01 -3.37588757e-01  2.36109316e-01
   5.32185256e-01 -5.08880556e-01 -1.89669743e-01 -5.06204784e-01]
 [ 1.17441372e-03  1.74413683e-04  1.74413668e-04  2.55863160e-05
   1.74413668e-04  1.74413668e-04  1.74413668e-04  2.55863233e-05]
 [ 9.74413706e-04 -1.74413683e-04 -2.55863088e-05 -2.55863160e-05
  -2.55863306e-05 -2.55863160e-05 -1.74413683e-04 -2.55863160e-05]
 [ 1.17441383e-03  2.55863160e-05  1.74413668e-04  1.74413683e-04
   2.55863233e-05  1.74413668e-04  1.74413668e-04  2.55863069e-05]
 [ 2.33883709e-01  2.37548456e-01  1.08963914e-01 -3.77293944e-01
   1.44024700e-01  1.37103841e-01  2.52148032e-01  4.36195940e-01]
 [ 5.15206218e-01 -1.70262791e-02 -5.70685267e-01  4.95075077e-01
   2.67029762e-01 -2.23976448e-01  5.44769883e-01  2.85718143e-01]
 [-2.79392391e-01 -1.52277112e-01  1.42879069e-01 -4.65310782e-01
   3.66484016e-01  1.84745356e-01 -1.68173611e-01  7.95287192e-02]] 
Episode: 12: [[-1.16396666e-01  1.92850288e-02 -5.48588753e-01  5.07985473e-01
   5.14853597e-01  3.42610151e-01 -9.81588289e-02  3.69826436e-01]
 [-3.12899321e-01  4.72925335e-01 -4.40881222e-01 -4.90516484e-01
  -1.04796983e-01  5.31214476e-01 -3.35695118e-01 -3.53368014e-01]
 [ 4.51249331e-01 -7.09940121e-02 -1.65320352e-01  5.23620509e-02
   3.80984008e-01 -3.34910065e-01  3.09922844e-01 -8.18170384e-02]
 [-3.32756639e-01  1.85567290e-01 -3.86381626e-01 -8.65849927e-02
   5.68912625e-01  2.26837113e-01 -2.91899920e-01  2.34009549e-01]
 [ 2.87964672e-01  4.96833652e-01 -5.20441949e-01 -4.90765423e-01
   2.56668270e-01  5.17060995e-01 -1.56305164e-01 -3.21570158e-01]
 [ 3.21420074e-01  1.60419255e-01 -3.37588757e-01  2.36109316e-01
   5.32185256e-01 -5.08880556e-01 -1.89669743e-01 -5.06204784e-01]
 [ 1.17441372e-03  1.74413683e-04  1.74413668e-04  2.55863160e-05
   1.74413668e-04  1.74413668e-04  1.74413668e-04  2.55863233e-05]
 [ 9.74413706e-04 -1.74413683e-04 -2.55863088e-05 -2.55863160e-05
  -2.55863306e-05 -2.55863160e-05 -1.74413683e-04 -2.55863160e-05]
 [ 1.17441383e-03  2.55863160e-05  1.74413668e-04  1.74413683e-04
   2.55863233e-05  1.74413668e-04  1.74413668e-04  2.55863069e-05]
 [ 2.33883709e-01  2.37548456e-01  1.08963914e-01 -3.77293944e-01
   1.44024700e-01  1.37103841e-01  2.52148032e-01  4.36195940e-01]
 [ 5.15206218e-01 -1.70262791e-02 -5.70685267e-01  4.95075077e-01
   2.67029762e-01 -2.23976448e-01  5.44769883e-01  2.85718143e-01]
 [-2.79392391e-01 -1.52277112e-01  1.42879069e-01 -4.65310782e-01
   3.66484016e-01  1.84745356e-01 -1.68173611e-01  7.95287192e-02]] 
Episode: 13: [[-1.16396666e-01  1.92850288e-02 -5.48588753e-01  5.07985473e-01
   5.14853597e-01  3.42610151e-01 -9.81588289e-02  3.69826436e-01]
 [-3.12899321e-01  4.72925335e-01 -4.40881222e-01 -4.90516484e-01
  -1.04796983e-01  5.31214476e-01 -3.35695118e-01 -3.53368014e-01]
 [ 4.51249331e-01 -7.09940121e-02 -1.65320352e-01  5.23620509e-02
   3.80984008e-01 -3.34910065e-01  3.09922844e-01 -8.18170384e-02]
 [-3.32756639e-01  1.85567290e-01 -3.86381626e-01 -8.65849927e-02
   5.68912625e-01  2.26837113e-01 -2.91899920e-01  2.34009549e-01]
 [ 2.87964672e-01  4.96833652e-01 -5.20441949e-01 -4.90765423e-01
   2.56668270e-01  5.17060995e-01 -1.56305164e-01 -3.21570158e-01]
 [ 3.21420074e-01  1.60419255e-01 -3.37588757e-01  2.36109316e-01
   5.32185256e-01 -5.08880556e-01 -1.89669743e-01 -5.06204784e-01]
 [ 1.17441372e-03  1.74413683e-04  1.74413668e-04  2.55863160e-05
   1.74413668e-04  1.74413668e-04  1.74413668e-04  2.55863233e-05]
 [ 9.74413706e-04 -1.74413683e-04 -2.55863088e-05 -2.55863160e-05
  -2.55863306e-05 -2.55863160e-05 -1.74413683e-04 -2.55863160e-05]
 [ 1.17441383e-03  2.55863160e-05  1.74413668e-04  1.74413683e-04
   2.55863233e-05  1.74413668e-04  1.74413668e-04  2.55863069e-05]
 [ 2.33883709e-01  2.37548456e-01  1.08963914e-01 -3.77293944e-01
   1.44024700e-01  1.37103841e-01  2.52148032e-01  4.36195940e-01]
 [ 5.15206218e-01 -1.70262791e-02 -5.70685267e-01  4.95075077e-01
   2.67029762e-01 -2.23976448e-01  5.44769883e-01  2.85718143e-01]
 [-2.79392391e-01 -1.52277112e-01  1.42879069e-01 -4.65310782e-01
   3.66484016e-01  1.84745356e-01 -1.68173611e-01  7.95287192e-02]] 
Episode: 14: [[nan nan nan nan nan nan nan nan]
 [nan nan nan nan nan nan nan nan]
 [nan nan nan nan nan nan nan nan]
 [nan nan nan nan nan nan nan nan]
 [nan nan nan nan nan nan nan nan]
 [nan nan nan nan nan nan nan nan]
 [nan nan nan nan nan nan nan nan]
 [nan nan nan nan nan nan nan nan]
 [nan nan nan nan nan nan nan nan]
 [nan nan nan nan nan nan nan nan]
 [nan nan nan nan nan nan nan nan]
 [nan nan nan nan nan nan nan nan]] 
