Episode: 1: [[ 0.          0.          0.        ]
 [ 0.          0.          0.        ]
 [ 0.          0.          0.        ]
 [-0.16240509 -0.34006977  0.04328375]
 [ 0.12615696 -0.04700504 -0.04048468]
 [ 0.46043023  0.522202   -0.38252082]
 [ 0.22833015 -0.46042326  0.35057473]
 [ 0.3768362   0.48599768  0.40276992]
 [-0.19741115  0.02976353 -0.38563552]
 [ 0.28855428 -0.24599251 -0.2545849 ]
 [-0.37674072  0.4958444  -0.4124831 ]
 [ 0.38596833 -0.5666126   0.28840122]] 
Episode: 2: [[-9.9999423e-05  9.9999423e-05 -9.9997400e-05]
 [ 9.9999394e-05 -9.9999386e-05  9.9997444e-05]
 [-9.9996003e-05  9.9997036e-05  9.9995086e-05]
 [-1.6250509e-01 -3.3996978e-01  4.3183763e-02]
 [ 1.2625696e-01 -4.7105037e-02 -4.0384695e-02]
 [ 4.6033025e-01  5.2230197e-01 -3.8242084e-01]
 [ 2.2843015e-01 -4.6052325e-01  3.5047475e-01]
 [ 3.7693620e-01  4.8589769e-01  4.0266994e-01]
 [-1.9731115e-01  2.9663526e-02 -3.8553554e-01]
 [ 2.8855428e-01 -2.4599251e-01 -2.5458491e-01]
 [-3.7674072e-01  4.9584439e-01 -4.1248310e-01]
 [ 3.8596833e-01 -5.6661260e-01  2.8840122e-01]] 
Episode: 3: [[-1.00179794e-04  9.78119206e-05 -1.03003542e-04]
 [ 9.60986072e-05 -9.40771133e-05  9.02756074e-05]
 [-7.90798076e-05  8.23385781e-05  1.38772521e-04]
 [-1.62506461e-01 -3.39970738e-01  4.31773663e-02]
 [ 1.26252666e-01 -4.70991805e-02 -4.03957292e-02]
 [ 4.60343271e-01  5.22290766e-01 -3.82388562e-01]
 [ 2.28419706e-01 -4.60509926e-01  3.50438356e-01]
 [ 3.76934618e-01  4.85901415e-01  4.02639925e-01]
 [-1.97311312e-01  2.96666604e-02 -3.85560095e-01]
 [ 2.88554281e-01 -2.45992512e-01 -2.54584908e-01]
 [-3.76740724e-01  4.95844394e-01 -4.12483096e-01]
 [ 3.85968328e-01 -5.66612601e-01  2.88401216e-01]] 
Episode: 4: [[-6.1352359e-05  5.6901401e-05 -6.7979010e-05]
 [ 5.3893269e-05 -5.0413375e-05  4.2775733e-05]
 [-2.6619286e-05  3.2291198e-05  1.4183029e-04]
 [-1.6246913e-01 -3.4001020e-01  4.3208357e-02]
 [ 1.2621069e-01 -4.7056139e-02 -4.0443521e-02]
 [ 4.6039656e-01  5.2224040e-01 -3.8237160e-01]
 [ 2.2837192e-01 -4.6045998e-01  3.5044619e-01]
 [ 3.7689236e-01  4.8594427e-01  4.0264356e-01]
 [-1.9735166e-01  2.9708575e-02 -3.8562569e-01]
 [ 2.8855428e-01 -2.4599251e-01 -2.5458491e-01]
 [-3.7674072e-01  4.9584439e-01 -4.1248310e-01]
 [ 3.8596833e-01 -5.6661260e-01  2.8840122e-01]] 
Episode: 5: [[-2.52148438e-05  1.94300173e-05 -3.41082850e-05]
 [ 1.45950435e-05 -1.04982309e-05 -1.05552135e-06]
 [ 1.94874265e-05 -1.16050205e-05  1.40716293e-04]
 [-1.62433803e-01 -3.40046823e-01  4.32402678e-02]
 [ 1.26171932e-01 -4.70169447e-02 -4.04868759e-02]
 [ 4.60445285e-01  5.22194624e-01 -3.82357657e-01]
 [ 2.28325799e-01 -4.60413992e-01  3.50450486e-01]
 [ 3.76851022e-01  4.85984743e-01  4.02647078e-01]
 [-1.97389022e-01  2.97466759e-02 -3.85688573e-01]
 [ 2.88554281e-01 -2.45992512e-01 -2.54584908e-01]
 [-3.76740724e-01  4.95844394e-01 -4.12483096e-01]
 [ 3.85968328e-01 -5.66612601e-01  2.88401216e-01]] 
Episode: 6: [[-1.8778659e-05  1.2529631e-05 -3.1744872e-05]
 [ 6.7057531e-06 -2.5302666e-06 -9.9487115e-06]
 [ 2.9198087e-05 -1.9094010e-05  1.5546347e-04]
 [-1.6242926e-01 -3.4005201e-01  4.3237757e-02]
 [ 1.2616590e-01 -4.7010779e-02 -4.0492602e-02]
 [ 4.6046075e-01  5.2218306e-01 -3.8232967e-01]
 [ 2.2831874e-01 -4.6040595e-01  3.5045078e-01]
 [ 3.7684530e-01  4.8598987e-01  4.0264219e-01]
 [-1.9739480e-01  2.9752215e-02 -3.8571072e-01]
 [ 2.8855428e-01 -2.4599251e-01 -2.5458491e-01]
 [-3.7674072e-01  4.9584439e-01 -4.1248310e-01]
 [ 3.8596833e-01 -5.6661260e-01  2.8840122e-01]] 
Episode: 7: [[-4.6906334e-05  4.0843941e-05 -5.9787231e-05]
 [ 3.3444601e-05 -2.9909390e-05  1.4152917e-05]
 [ 2.8678894e-06  9.1155553e-06  1.9754573e-04]
 [-1.6245711e-01 -3.4002393e-01  4.3210309e-02]
 [ 1.2619287e-01 -4.7038358e-02 -4.0467799e-02]
 [ 4.6044153e-01  5.2220625e-01 -3.8227642e-01]
 [ 2.2834457e-01 -4.6043265e-01  3.5041341e-01]
 [ 3.7686980e-01  4.8596296e-01  4.0260062e-01]
 [-1.9736657e-01  2.9723210e-02 -3.8571134e-01]
 [ 2.8855428e-01 -2.4599251e-01 -2.5458491e-01]
 [-3.7674072e-01  4.9584439e-01 -4.1248310e-01]
 [ 3.8596833e-01 -5.6661260e-01  2.8840122e-01]] 
Episode: 8: [[-6.5986096e-05  6.0539271e-05 -7.8475176e-05]
 [ 5.2606996e-05 -5.0074461e-05  3.0074123e-05]
 [-1.9128964e-05  3.3444983e-05  2.2660398e-04]
 [-1.6247760e-01 -3.4000331e-01  4.3188032e-02]
 [ 1.2621348e-01 -4.7059923e-02 -4.0448647e-02]
 [ 4.6042815e-01  5.2222389e-01 -3.8223499e-01]
 [ 2.2836855e-01 -4.6045595e-01  3.5040268e-01]
 [ 3.7689146e-01  4.8593959e-01  4.0257797e-01]
 [-1.9734481e-01  2.9700251e-02 -3.8571271e-01]
 [ 2.8855428e-01 -2.4599251e-01 -2.5458491e-01]
 [-3.7674072e-01  4.9584439e-01 -4.1248310e-01]
 [ 3.8596833e-01 -5.6661260e-01  2.8840122e-01]] 
Episode: 9: [[-9.9782468e-05  9.4696843e-05 -1.1258040e-04]
 [ 8.6502478e-05 -8.4794745e-05  6.0942089e-05]
 [-5.4749453e-05  7.1223607e-05  2.6840720e-04]
 [-1.6251260e-01 -3.3996835e-01  4.3151092e-02]
 [ 1.2624867e-01 -4.7095861e-02 -4.0414888e-02]
 [ 4.6039835e-01  5.2225697e-01 -3.8218585e-01]
 [ 2.2840665e-01 -4.6049333e-01  3.5038027e-01]
 [ 3.7692797e-01  4.8590186e-01  4.0254378e-01]
 [-1.9730882e-01  2.9663255e-02 -3.8569745e-01]
 [ 2.8855428e-01 -2.4599251e-01 -2.5458491e-01]
 [-3.7674072e-01  4.9584439e-01 -4.1248310e-01]
 [ 3.8596833e-01 -5.6661260e-01  2.8840122e-01]] 
Episode: 10: [[-1.4966613e-04  1.4462997e-04 -1.6174388e-04]
 [ 1.3661617e-04 -1.3522022e-04  1.0920832e-04]
 [-1.0690596e-04  1.2406748e-04  3.2167573e-04]
 [-1.6256404e-01 -3.3991724e-01  4.3098092e-02]
 [ 1.2629987e-01 -4.7147233e-02 -4.0364288e-02]
 [ 4.6034929e-01  5.2230734e-01 -3.8213009e-01]
 [ 2.2846128e-01 -4.6054670e-01  3.5034460e-01]
 [ 3.7698197e-01  4.8584825e-01  4.0250272e-01]
 [-1.9725654e-01  2.9610662e-02 -3.8565665e-01]
 [ 2.8855428e-01 -2.4599251e-01 -2.5458491e-01]
 [-3.7674072e-01  4.9584439e-01 -4.1248310e-01]
 [ 3.8596833e-01 -5.6661260e-01  2.8840122e-01]] 
Episode: 11: [[-2.0395857e-04  1.9920057e-04 -2.1477489e-04]
 [ 1.9109988e-04 -1.9015983e-04  1.6204857e-04]
 [-1.6196570e-04  1.8085078e-04  3.7906770e-04]
 [-1.6262035e-01 -3.3986115e-01  4.3040372e-02]
 [ 1.2635550e-01 -4.7203179e-02 -4.0309157e-02]
 [ 4.6029612e-01  5.2236229e-01 -3.8207293e-01]
 [ 2.2852054e-01 -4.6060506e-01  3.5030621e-01]
 [ 3.7704068e-01  4.8578978e-01  4.0246144e-01]
 [-1.9719976e-01  2.9553341e-02 -3.8560739e-01]
 [ 2.8855428e-01 -2.4599251e-01 -2.5458491e-01]
 [-3.7674072e-01  4.9584439e-01 -4.1248310e-01]
 [ 3.8596833e-01 -5.6661260e-01  2.8840122e-01]] 
Episode: 12: [[-2.5179647e-04  2.4695630e-04 -2.6321292e-04]
 [ 2.3921288e-04 -2.3842223e-04  2.0958725e-04]
 [-2.1112703e-04  2.3070861e-04  4.2837072e-04]
 [-1.6266987e-01 -3.3981213e-01  4.2988170e-02]
 [ 1.2640440e-01 -4.7252130e-02 -4.0260084e-02]
 [ 4.6024716e-01  5.2241170e-01 -3.8202763e-01]
 [ 2.2857250e-01 -4.6065569e-01  3.5027418e-01]
 [ 3.7709293e-01  4.8573849e-01  4.0242812e-01]
 [-1.9714931e-01  2.9502843e-02 -3.8556105e-01]
 [ 2.8855428e-01 -2.4599251e-01 -2.5458491e-01]
 [-3.7674072e-01  4.9584439e-01 -4.1248310e-01]
 [ 3.8596833e-01 -5.6661260e-01  2.8840122e-01]] 
Episode: 13: [[-2.9534069e-04  2.9030137e-04 -3.0420936e-04]
 [ 2.8287331e-04 -2.8193861e-04  2.5118110e-04]
 [-2.5776459e-04  2.7799202e-04  4.7559879e-04]
 [-1.6271511e-01 -3.3976752e-01  4.2943150e-02]
 [ 1.2644933e-01 -4.7296833e-02 -4.0215872e-02]
 [ 4.6020404e-01  5.2245629e-01 -3.8197774e-01]
 [ 2.2861870e-01 -4.6070024e-01  3.5023421e-01]
 [ 3.7713835e-01  4.8569351e-01  4.0238523e-01]
 [-1.9710429e-01  2.9457556e-02 -3.8553274e-01]
 [ 2.8855428e-01 -2.4599251e-01 -2.5458491e-01]
 [-3.7674072e-01  4.9584439e-01 -4.1248310e-01]
 [ 3.8596833e-01 -5.6661260e-01  2.8840122e-01]] 
Episode: 14: [[-3.3792685e-04  3.3303737e-04 -3.4619411e-04]
 [ 3.2658270e-04 -3.2560059e-04  2.9515554e-04]
 [-3.0687731e-04  3.2722263e-04  5.1778927e-04]
 [-1.6275930e-01 -3.3972359e-01  4.2897329e-02]
 [ 1.2649412e-01 -4.7341526e-02 -4.0169727e-02]
 [ 4.6015856e-01  5.2250278e-01 -3.8193434e-01]
 [ 2.2866663e-01 -4.6074644e-01  3.5020506e-01]
 [ 3.7718534e-01  4.8564711e-01  4.0235296e-01]
 [-1.9705816e-01  2.9411253e-02 -3.8549548e-01]
 [ 2.8855428e-01 -2.4599251e-01 -2.5458491e-01]
 [-3.7674072e-01  4.9584439e-01 -4.1248310e-01]
 [ 3.8596833e-01 -5.6661260e-01  2.8840122e-01]] 
Episode: 15: [[-3.8895840e-04  3.8445534e-04 -3.9584606e-04]
 [ 3.7800198e-04 -3.7721262e-04  3.4559632e-04]
 [-3.6212284e-04  3.8383302e-04  5.7377736e-04]
 [-1.6281141e-01 -3.3967140e-01  4.2845588e-02]
 [ 1.2654655e-01 -4.7393989e-02 -4.0117331e-02]
 [ 4.6010897e-01  5.2255553e-01 -3.8187486e-01]
 [ 2.2872116e-01 -4.6080050e-01  3.5016161e-01]
 [ 3.7723875e-01  4.8559341e-01  4.0230587e-01]
 [-1.9700445e-01  2.9356798e-02 -3.8546377e-01]
 [ 2.8855428e-01 -2.4599251e-01 -2.5458491e-01]
 [-3.7674072e-01  4.9584439e-01 -4.1248310e-01]
 [ 3.8596833e-01 -5.6661260e-01  2.8840122e-01]] 
Episode: 16: [[-4.3192171e-04  4.2860757e-04 -4.3948935e-04]
 [ 4.2151369e-04 -4.2161325e-04  3.8772856e-04]
 [-4.0943883e-04  4.3313741e-04  6.1853218e-04]
 [-1.6285400e-01 -3.3962756e-01  4.2803824e-02]
 [ 1.2659144e-01 -4.7439486e-02 -4.0072199e-02]
 [ 4.6006817e-01  5.2260041e-01 -3.8182408e-01]
 [ 2.2876336e-01 -4.6084523e-01  3.5012129e-01]
 [ 3.7727967e-01  4.8554921e-01  4.0225849e-01]
 [-1.9696012e-01  2.9310882e-02 -3.8544169e-01]
 [ 2.8855428e-01 -2.4599251e-01 -2.5458491e-01]
 [-3.7674072e-01  4.9584439e-01 -4.1248310e-01]
 [ 3.8596833e-01 -5.6661260e-01  2.8840122e-01]] 
Episode: 17: [[-4.6104813e-04  4.5873513e-04 -4.6862420e-04]
 [ 4.5030890e-04 -4.5109706e-04  4.1476556e-04]
 [-4.4013216e-04  4.6698106e-04  6.5152708e-04]
 [-1.6288270e-01 -3.3959770e-01  4.2776383e-02]
 [ 1.2662172e-01 -4.7470190e-02 -4.0041838e-02]
 [ 4.6004242e-01  5.2263093e-01 -3.8178441e-01]
 [ 2.2878933e-01 -4.6087405e-01  3.5008591e-01]
 [ 3.7730506e-01  4.8552054e-01  4.0222001e-01]
 [-1.9693086e-01  2.9279752e-02 -3.8543257e-01]
 [ 2.8855428e-01 -2.4599251e-01 -2.5458491e-01]
 [-3.7674072e-01  4.9584439e-01 -4.1248310e-01]
 [ 3.8596833e-01 -5.6661260e-01  2.8840122e-01]] 
Episode: 18: [[-4.8271343e-04  4.8116859e-04 -4.8757956e-04]
 [ 4.7094759e-04 -4.7228363e-04  4.3058081e-04]
 [-4.6217316e-04  4.9081491e-04  6.8256946e-04]
 [-1.6290425e-01 -3.3957538e-01  4.2758048e-02]
 [ 1.2664402e-01 -4.7492731e-02 -4.0022273e-02]
 [ 4.6002695e-01  5.2265006e-01 -3.8174367e-01]
 [ 2.2880572e-01 -4.6089330e-01  3.5004830e-01]
 [ 3.7732184e-01  4.8550162e-01  4.0218058e-01]
 [-1.9690995e-01  2.9257571e-02 -3.8544106e-01]
 [ 2.8855428e-01 -2.4599251e-01 -2.5458491e-01]
 [-3.7674072e-01  4.9584439e-01 -4.1248310e-01]
 [ 3.8596833e-01 -5.6661260e-01  2.8840122e-01]] 
Episode: 19: [[-4.8596595e-04  4.8516475e-04 -4.9024227e-04]
 [ 4.7316891e-04 -4.7512006e-04  4.2906048e-04]
 [-4.6528090e-04  4.9545272e-04  6.9546717e-04]
 [-1.6290687e-01 -3.3957201e-01  4.2757209e-02]
 [ 1.2664741e-01 -4.7496535e-02 -4.0021043e-02]
 [ 4.6002811e-01  5.2265155e-01 -3.8172355e-01]
 [ 2.2880334e-01 -4.6089351e-01  3.5002759e-01]
 [ 3.7732014e-01  4.8550108e-01  4.0215743e-01]
 [-1.9690743e-01  2.9254032e-02 -3.8546062e-01]
 [ 2.8855428e-01 -2.4599251e-01 -2.5458491e-01]
 [-3.7674072e-01  4.9584439e-01 -4.1248310e-01]
 [ 3.8596833e-01 -5.6661260e-01  2.8840122e-01]] 
Episode: 20: [[-5.0157332e-04  5.0002604e-04 -5.0519477e-04]
 [ 4.8871961e-04 -4.8996578e-04  4.4228989e-04]
 [-4.8267291e-04  5.1132025e-04  7.1838609e-04]
 [-1.6292314e-01 -3.3955634e-01  4.2739704e-02]
 [ 1.2666410e-01 -4.7512319e-02 -4.0005185e-02]
 [ 4.6001136e-01  5.2266735e-01 -3.8170204e-01]
 [ 2.2881973e-01 -4.6090806e-01  3.5001233e-01]
 [ 3.7733752e-01  4.8548564e-01  4.0214175e-01]
 [-1.9689058e-01  2.9237928e-02 -3.8545853e-01]
 [ 2.8855428e-01 -2.4599251e-01 -2.5458491e-01]
 [-3.7674072e-01  4.9584439e-01 -4.1248310e-01]
 [ 3.8596833e-01 -5.6661260e-01  2.8840122e-01]] 
Episode: 21: [[-5.1570073e-04  5.1344588e-04 -5.2083371e-04]
 [ 5.0328037e-04 -5.0386041e-04  4.5686291e-04]
 [-4.9883581e-04  5.2531395e-04  7.3220977e-04]
 [-1.6293795e-01 -3.3954209e-01  4.2721223e-02]
 [ 1.2667951e-01 -4.7526870e-02 -3.9988644e-02]
 [ 4.5999432e-01  5.2268249e-01 -3.8169202e-01]
 [ 2.2883540e-01 -4.6092182e-01  3.5000440e-01]
 [ 3.7735420e-01  4.8547068e-01  4.0213412e-01]
 [-1.9687538e-01  2.9223779e-02 -3.8544613e-01]
 [ 2.8855428e-01 -2.4599251e-01 -2.5458491e-01]
 [-3.7674072e-01  4.9584439e-01 -4.1248310e-01]
 [ 3.8596833e-01 -5.6661260e-01  2.8840122e-01]] 
Episode: 22: [[-5.5212394e-04  5.4915331e-04 -5.5900059e-04]
 [ 5.4049958e-04 -5.4053031e-04  4.9483927e-04]
 [-5.3793035e-04  5.6262536e-04  7.6222845e-04]
 [-1.6297488e-01 -3.3950558e-01  4.2680517e-02]
 [ 1.2671730e-01 -4.7563799e-02 -3.9949145e-02]
 [ 4.5995477e-01  5.2272093e-01 -3.8166621e-01]
 [ 2.2887436e-01 -4.6095923e-01  3.4998512e-01]
 [ 3.7739393e-01  4.8543230e-01  4.0211320e-01]
 [-1.9683796e-01  2.9186975e-02 -3.8540906e-01]
 [ 2.8855428e-01 -2.4599251e-01 -2.5458491e-01]
 [-3.7674072e-01  4.9584439e-01 -4.1248310e-01]
 [ 3.8596833e-01 -5.6661260e-01  2.8840122e-01]] 
Episode: 23: [[-5.6906545e-04  5.6501594e-04 -5.7501538e-04]
 [ 5.5790349e-04 -5.5720209e-04  5.1090727e-04]
 [-5.5820646e-04  5.7993986e-04  7.7564089e-04]
 [-1.6299312e-01 -3.3948833e-01  4.2659931e-02]
 [ 1.2673581e-01 -4.7581177e-02 -3.9930515e-02]
 [ 4.5993453e-01  5.2273893e-01 -3.8165358e-01]
 [ 2.2889394e-01 -4.6097627e-01  3.4997493e-01]
 [ 3.7741464e-01  4.8541394e-01  4.0210173e-01]
 [-1.9682030e-01  2.9170470e-02 -3.8539457e-01]
 [ 2.8855428e-01 -2.4599251e-01 -2.5458491e-01]
 [-3.7674072e-01  4.9584439e-01 -4.1248310e-01]
 [ 3.8596833e-01 -5.6661260e-01  2.8840122e-01]] 
Episode: 24: [[-5.9436762e-04  5.8938499e-04 -6.0006423e-04]
 [ 5.8354967e-04 -5.8218336e-04  5.3638476e-04]
 [-5.8708829e-04  6.0620869e-04  7.9507910e-04]
 [-1.6301997e-01 -3.3946246e-01  4.2629886e-02]
 [ 1.2676260e-01 -4.7606952e-02 -3.9902471e-02]
 [ 4.5990422e-01  5.2276671e-01 -3.8164073e-01]
 [ 2.2892188e-01 -4.6100205e-01  3.4996083e-01]
 [ 3.7744394e-01  4.8538688e-01  4.0209043e-01]
 [-1.9679376e-01  2.9145010e-02 -3.8536754e-01]
 [ 2.8855428e-01 -2.4599251e-01 -2.5458491e-01]
 [-3.7674072e-01  4.9584439e-01 -4.1248310e-01]
 [ 3.8596833e-01 -5.6661260e-01  2.8840122e-01]] 
Episode: 25: [[-6.0204294e-04  5.9603516e-04 -6.0764019e-04]
 [ 5.9114426e-04 -5.8908010e-04  5.4368057e-04]
 [-5.9719465e-04  6.1405631e-04  8.0059713e-04]
 [-1.6302907e-01 -3.3945438e-01  4.2617436e-02]
 [ 1.2677123e-01 -4.7614500e-02 -3.9892677e-02]
 [ 4.5989245e-01  5.2277619e-01 -3.8163880e-01]
 [ 2.2893241e-01 -4.6101001e-01  3.4996110e-01]
 [ 3.7745580e-01  4.8537770e-01  4.0209374e-01]
 [-1.9678499e-01  2.9137243e-02 -3.8535944e-01]
 [ 2.8855428e-01 -2.4599251e-01 -2.5458491e-01]
 [-3.7674072e-01  4.9584439e-01 -4.1248310e-01]
 [ 3.8596833e-01 -5.6661260e-01  2.8840122e-01]] 
Episode: 26: [[-6.1855564e-04  6.1196188e-04 -6.2464090e-04]
 [ 6.0731580e-04 -6.0497306e-04  5.5948761e-04]
 [-6.1376102e-04  6.3009973e-04  8.1696472e-04]
 [-1.6304597e-01 -3.3943796e-01  4.2598508e-02]
 [ 1.2678805e-01 -4.7630768e-02 -3.9875228e-02]
 [ 4.5987320e-01  5.2279425e-01 -3.8162890e-01]
 [ 2.2894874e-01 -4.6102542e-01  3.4994724e-01]
 [ 3.7747350e-01  4.8536089e-01  4.0208238e-01]
 [-1.9676811e-01  2.9120758e-02 -3.8534433e-01]
 [ 2.8855428e-01 -2.4599251e-01 -2.5458491e-01]
 [-3.7674072e-01  4.9584439e-01 -4.1248310e-01]
 [ 3.8596833e-01 -5.6661260e-01  2.8840122e-01]] 
Episode: 27: [[-0.00065268  0.0006454  -0.0006588 ]
 [ 0.00064097 -0.00063827  0.0005927 ]
 [-0.00064756  0.00066307  0.00085155]
 [-0.16308053 -0.33940408  0.04256321]
 [ 0.12682222 -0.0476644  -0.03984111]
 [ 0.4598373   0.5228288  -0.3816014 ]
 [ 0.22898136 -0.46105748  0.3499154 ]
 [ 0.3775073   0.48532775  0.4020534 ]
 [-0.19673389  0.02908712 -0.3853159 ]
 [ 0.28855428 -0.24599251 -0.2545849 ]
 [-0.37674072  0.4958444  -0.4124831 ]
 [ 0.38596833 -0.5666126   0.28840122]] 
Episode: 28: [[-0.00066635  0.00065818 -0.00067236]
 [ 0.00065417 -0.00065101  0.00060495]
 [-0.00066159  0.00067546  0.00086359]
 [-0.16309462 -0.33939078  0.04254883]
 [ 0.12683605 -0.04767755 -0.03982779]
 [ 0.45982152  0.52284276 -0.38159215]
 [ 0.22899245 -0.46106783  0.34989724]
 [ 0.3775197   0.4853163   0.40203667]
 [-0.19672096  0.02907483 -0.38530895]
 [ 0.28855428 -0.24599251 -0.2545849 ]
 [-0.37674072  0.4958444  -0.4124831 ]
 [ 0.38596833 -0.5666126   0.28840122]] 
Episode: 29: [[-0.00067656  0.00066796 -0.00068188]
 [ 0.00066374 -0.00066064  0.00061292]
 [-0.000671    0.00068489  0.00087412]
 [-0.16310519 -0.33938068  0.04253931]
 [ 0.12684648 -0.04768791 -0.03981863]
 [ 0.45981097  0.5228527  -0.3815829 ]
 [ 0.22899945 -0.46107516  0.3498797 ]
 [ 0.3775273   0.48530823  0.40201786]
 [-0.19671181  0.02906562 -0.38530737]
 [ 0.28855428 -0.24599251 -0.2545849 ]
 [-0.37674072  0.4958444  -0.4124831 ]
 [ 0.38596833 -0.5666126   0.28840122]] 
Episode: 30: [[-0.00068306  0.00067388 -0.00068776]
 [ 0.00066933 -0.00066589  0.00061683]
 [-0.00067638  0.00068984  0.00088425]
 [-0.16311188 -0.33937454  0.04253346]
 [ 0.12685297 -0.04769398 -0.03981324]
 [ 0.4598046   0.5228583  -0.3815728 ]
 [ 0.22900228 -0.46107784  0.3498635 ]
 [ 0.3775311   0.48530486  0.4020031 ]
 [-0.19670667  0.02906069 -0.3853137 ]
 [ 0.28855428 -0.24599251 -0.2545849 ]
 [-0.37674072  0.4958444  -0.4124831 ]
 [ 0.38596833 -0.5666126   0.28840122]] 
Episode: 31: [[-0.000677    0.00066745 -0.00068351]
 [ 0.00066285 -0.00065935  0.00060963]
 [-0.00066976  0.00068332  0.00088056]
 [-0.16310596 -0.33938083  0.04253785]
 [ 0.12684739 -0.04768829 -0.03981899]
 [ 0.45980933  0.52285254 -0.38157836]
 [ 0.2289945  -0.46106982  0.3498681 ]
 [ 0.37752396  0.48531204  0.402005  ]
 [-0.19671299  0.02906714 -0.38532504]
 [ 0.28855428 -0.24599251 -0.2545849 ]
 [-0.37674072  0.4958444  -0.4124831 ]
 [ 0.38596833 -0.5666126   0.28840122]] 
Episode: 32: [[-0.00068091  0.0006717  -0.00068696]
 [ 0.00066591 -0.00066298  0.00061109]
 [-0.00067211  0.00068796  0.0008889 ]
 [-0.16311036 -0.33937627  0.04253434]
 [ 0.12685195 -0.0476934  -0.03981502]
 [ 0.4598049   0.5228575  -0.38157433]
 [ 0.22899707 -0.46107364  0.34986213]
 [ 0.37752604  0.48530835  0.4019968 ]
 [-0.19670944  0.02906274 -0.3853297 ]
 [ 0.28855428 -0.24599251 -0.2545849 ]
 [-0.37674072  0.4958444  -0.4124831 ]
 [ 0.38596833 -0.5666126   0.28840122]] 
Episode: 33: [[-0.0007033   0.00069408 -0.00071056]
 [ 0.00068776 -0.00068521  0.00063215]
 [-0.00069235  0.00070949  0.00091437]
 [-0.16313313 -0.33935374  0.04251045]
 [ 0.1268748  -0.04771661 -0.03979215]
 [ 0.45978057  0.52288103 -0.38156042]
 [ 0.22901879 -0.46109563  0.3498467 ]
 [ 0.37754777  0.48528576  0.40197873]
 [-0.19668654  0.02903976 -0.3853095 ]
 [ 0.28855428 -0.24599251 -0.2545849 ]
 [-0.37674072  0.4958444  -0.4124831 ]
 [ 0.38596833 -0.5666126   0.28840122]] 
Episode: 34: [[-0.00071299  0.00070377 -0.00072042]
 [ 0.00069686 -0.00069456  0.00064032]
 [-0.00069961  0.00071755  0.00092618]
 [-0.16314301 -0.339344    0.04250052]
 [ 0.12688449 -0.04772656 -0.03978291]
 [ 0.45976928  0.5228912  -0.38155827]
 [ 0.22902744 -0.46110442  0.34983826]
 [ 0.3775562   0.48527664  0.40196928]
 [-0.19667676  0.02903017 -0.38529995]
 [ 0.28855428 -0.24599251 -0.2545849 ]
 [-0.37674072  0.4958444  -0.4124831 ]
 [ 0.38596833 -0.5666126   0.28840122]] 
Episode: 35: [[-0.00070893  0.00070018 -0.00071639]
 [ 0.00069169 -0.00069007  0.00063366]
 [-0.00069076  0.00071093  0.00092712]
 [-0.163138   -0.33934844  0.04250719]
 [ 0.12687975 -0.04772251 -0.03978881]
 [ 0.45977437  0.5228865  -0.38156372]
 [ 0.22901951 -0.46109816  0.34983242]
 [ 0.37754765  0.48528293  0.40196133]
 [-0.19668229  0.02903512 -0.38530806]
 [ 0.28855428 -0.24599251 -0.2545849 ]
 [-0.37674072  0.4958444  -0.4124831 ]
 [ 0.38596833 -0.5666126   0.28840122]] 
Episode: 36: [[-0.00068755  0.00067879 -0.00069582]
 [ 0.00066959 -0.00066819  0.00061059]
 [-0.00066516  0.00068625  0.00091045]
 [-0.16311567 -0.33937064  0.04253009]
 [ 0.12685746 -0.04770054 -0.03981236]
 [ 0.45979634  0.5228639  -0.38158557]
 [ 0.22899507 -0.4610743   0.34984395]
 [ 0.377523    0.48530656  0.40197012]
 [-0.1967049   0.0290578  -0.38533008]
 [ 0.28855428 -0.24599251 -0.2545849 ]
 [-0.37674072  0.4958444  -0.4124831 ]
 [ 0.38596833 -0.5666126   0.28840122]] 
Episode: 37: [[-0.0006673   0.00065807 -0.00067544]
 [ 0.00064847 -0.00064681  0.00058751]
 [-0.00063989  0.00066081  0.00089808]
 [-0.16309498 -0.33939174  0.04255133]
 [ 0.12683634 -0.04767923 -0.03983552]
 [ 0.4598173   0.52284116 -0.38160342]
 [ 0.228972   -0.4610508   0.3498535 ]
 [ 0.3775008   0.48532936  0.40197903]
 [-0.19672634  0.02908009 -0.38535368]
 [ 0.28855428 -0.24599251 -0.2545849 ]
 [-0.37674072  0.4958444  -0.4124831 ]
 [ 0.38596833 -0.5666126   0.28840122]] 
Episode: 38: [[-6.4707757e-04  6.3732034e-04 -6.5593957e-04]
 [ 6.2759651e-04 -6.2549097e-04  5.6517427e-04]
 [-6.1555166e-04  6.3582009e-04  8.8466774e-04]
 [-1.6307423e-01 -3.3941299e-01  4.2571936e-02]
 [ 1.2681530e-01 -4.7657821e-02 -3.9858244e-02]
 [ 4.5983690e-01  5.2281922e-01 -3.8162366e-01]
 [ 2.2894892e-01 -4.6102712e-01  3.4986511e-01]
 [ 3.7747914e-01  4.8535213e-01  4.0199047e-01]
 [-1.9674732e-01  2.9102126e-02 -3.8537553e-01]
 [ 2.8855428e-01 -2.4599251e-01 -2.5458491e-01]
 [-3.7674072e-01  4.9584439e-01 -4.1248310e-01]
 [ 3.8596833e-01 -5.6661260e-01  2.8840122e-01]] 
Episode: 39: [[-6.2649354e-04  6.1620708e-04 -6.3682091e-04]
 [ 6.0653099e-04 -6.0402375e-04  5.4332527e-04]
 [-5.9059641e-04  6.1047595e-04  8.6846924e-04]
 [-1.6305280e-01 -3.3943489e-01  4.2593032e-02]
 [ 1.2679371e-01 -4.7635965e-02 -3.9881337e-02]
 [ 4.5985690e-01  5.2279699e-01 -3.8164818e-01]
 [ 2.2892493e-01 -4.6100262e-01  3.4987861e-01]
 [ 3.7745658e-01  4.8537561e-01  4.0200415e-01]
 [-1.9676875e-01  2.9124493e-02 -3.8539425e-01]
 [ 2.8855428e-01 -2.4599251e-01 -2.5458491e-01]
 [-3.7674072e-01  4.9584439e-01 -4.1248310e-01]
 [ 3.8596833e-01 -5.6661260e-01  2.8840122e-01]] 
Episode: 40: [[-6.1900856e-04  6.0679263e-04 -6.3020462e-04]
 [ 5.9784792e-04 -5.9381413e-04  5.3354976e-04]
 [-5.7788583e-04  5.9525348e-04  8.6678442e-04]
 [-1.6304500e-01 -3.3944437e-01  4.2599928e-02]
 [ 1.2678419e-01 -4.7625110e-02 -3.9893076e-02]
 [ 4.5986596e-01  5.2278465e-01 -3.8165411e-01]
 [ 2.2891285e-01 -4.6098793e-01  3.4987485e-01]
 [ 3.7744644e-01  4.8538882e-01  4.0200379e-01]
 [-1.9677840e-01  2.9136129e-02 -3.8540778e-01]
 [ 2.8855428e-01 -2.4599251e-01 -2.5458491e-01]
 [-3.7674072e-01  4.9584439e-01 -4.1248310e-01]
 [ 3.8596833e-01 -5.6661260e-01  2.8840122e-01]] 
Episode: 41: [[-6.0162140e-04  5.8783620e-04 -6.1319477e-04]
 [ 5.7972275e-04 -5.7453144e-04  5.1438803e-04]
 [-5.5721239e-04  5.7232403e-04  8.5385703e-04]
 [-1.6302761e-01 -3.3946314e-01  4.2616345e-02]
 [ 1.2676553e-01 -4.7605425e-02 -3.9913625e-02]
 [ 4.5988470e-01  5.2276331e-01 -3.8166791e-01]
 [ 2.2889277e-01 -4.6096545e-01  3.4988379e-01]
 [ 3.7742749e-01  4.8541012e-01  4.0201211e-01]
 [-1.9679727e-01  2.9156633e-02 -3.8542840e-01]
 [ 2.8855428e-01 -2.4599251e-01 -2.5458491e-01]
 [-3.7674072e-01  4.9584439e-01 -4.1248310e-01]
 [ 3.8596833e-01 -5.6661260e-01  2.8840122e-01]] 
Episode: 42: [[-5.7666888e-04  5.6124938e-04 -5.8689469e-04]
 [ 5.5364310e-04 -5.4715015e-04  4.8628380e-04]
 [-5.2810088e-04  5.4107065e-04  8.3742721e-04]
 [-1.6300286e-01 -3.3948940e-01  4.2641476e-02]
 [ 1.2673891e-01 -4.7577627e-02 -3.9943065e-02]
 [ 4.5991179e-01  5.2273375e-01 -3.8168356e-01]
 [ 2.2886585e-01 -4.6093583e-01  3.4989613e-01]
 [ 3.7740195e-01  4.8543867e-01  4.0202615e-01]
 [-1.9682373e-01  2.9184818e-02 -3.8545910e-01]
 [ 2.8855428e-01 -2.4599251e-01 -2.5458491e-01]
 [-3.7674072e-01  4.9584439e-01 -4.1248310e-01]
 [ 3.8596833e-01 -5.6661260e-01  2.8840122e-01]] 
Episode: 43: [[-5.5314164e-04  5.3639075e-04 -5.6324864e-04]
 [ 5.2950386e-04 -5.2198442e-04  4.6128855e-04]
 [-5.0163717e-04  5.1306584e-04  8.1859116e-04]
 [-1.6297942e-01 -3.3951402e-01  4.2664312e-02]
 [ 1.2671399e-01 -4.7551833e-02 -3.9969876e-02]
 [ 4.5993730e-01  5.2270663e-01 -3.8170037e-01]
 [ 2.2884153e-01 -4.6090913e-01  3.4991315e-01]
 [ 3.7737828e-01  4.8546457e-01  4.0204209e-01]
 [-1.9684860e-01  2.9210901e-02 -3.8548461e-01]
 [ 2.8855428e-01 -2.4599251e-01 -2.5458491e-01]
 [-3.7674072e-01  4.9584439e-01 -4.1248310e-01]
 [ 3.8596833e-01 -5.6661260e-01  2.8840122e-01]] 
Episode: 44: [[-5.3038995e-04  5.1249942e-04 -5.3971494e-04]
 [ 5.0603732e-04 -4.9753953e-04  4.3678595e-04]
 [-4.7575682e-04  4.8568731e-04  8.0137508e-04]
 [-1.6295661e-01 -3.3953783e-01  4.2687673e-02]
 [ 1.2668973e-01 -4.7526747e-02 -3.9996285e-02]
 [ 4.5996195e-01  5.2268028e-01 -3.8171652e-01]
 [ 2.2881716e-01 -4.6088293e-01  3.4992599e-01]
 [ 3.7735459e-01  4.8549029e-01  4.0205532e-01]
 [-1.9687261e-01  2.9236147e-02 -3.8551041e-01]
 [ 2.8855428e-01 -2.4599251e-01 -2.5458491e-01]
 [-3.7674072e-01  4.9584439e-01 -4.1248310e-01]
 [ 3.8596833e-01 -5.6661260e-01  2.8840122e-01]] 
Episode: 45: [[-5.0763710e-04  4.8877305e-04 -5.1672559e-04]
 [ 4.8273336e-04 -4.7343611e-04  4.1253353e-04]
 [-4.5003815e-04  4.5869607e-04  7.8407046e-04]
 [-1.6293380e-01 -3.3956158e-01  4.2710934e-02]
 [ 1.2666559e-01 -4.7502033e-02 -4.0022824e-02]
 [ 4.5998684e-01  5.2265382e-01 -3.8173345e-01]
 [ 2.2879252e-01 -4.6085665e-01  3.4994000e-01]
 [ 3.7733063e-01  4.8551607e-01  4.0206927e-01]
 [-1.9689633e-01  2.9260965e-02 -3.8553566e-01]
 [ 2.8855428e-01 -2.4599251e-01 -2.5458491e-01]
 [-3.7674072e-01  4.9584439e-01 -4.1248310e-01]
 [ 3.8596833e-01 -5.6661260e-01  2.8840122e-01]] 
Episode: 46: [[-4.7589777e-04  4.5663721e-04 -4.8652568e-04]
 [ 4.5148499e-04 -4.4181247e-04  3.8109970e-04]
 [-4.1881853e-04  4.2643014e-04  7.5415528e-04]
 [-1.6290155e-01 -3.3959413e-01  4.2742264e-02]
 [ 1.2663354e-01 -4.7469810e-02 -4.0056299e-02]
 [ 4.6001950e-01  5.2262032e-01 -3.8175976e-01]
 [ 2.2876103e-01 -4.6082407e-01  3.4997100e-01]
 [ 3.7729904e-01  4.8554859e-01  4.0209281e-01]
 [-1.9692817e-01  2.9293334e-02 -3.8556644e-01]
 [ 2.8855428e-01 -2.4599251e-01 -2.5458491e-01]
 [-3.7674072e-01  4.9584439e-01 -4.1248310e-01]
 [ 3.8596833e-01 -5.6661260e-01  2.8840122e-01]] 
Episode: 47: [[-4.4810129e-04  4.2799793e-04 -4.6176548e-04]
 [ 4.2467262e-04 -4.1427964e-04  3.5475747e-04]
 [-3.9201547e-04  3.9748664e-04  7.2663196e-04]
 [-1.6287336e-01 -3.3962309e-01  4.2767935e-02]
 [ 1.2660557e-01 -4.7441360e-02 -4.0085368e-02]
 [ 4.6004650e-01  5.2259123e-01 -3.8178688e-01]
 [ 2.2873470e-01 -4.6079552e-01  3.5000476e-01]
 [ 3.7727293e-01  4.8557669e-01  4.0211847e-01]
 [-1.9695541e-01  2.9321700e-02 -3.8558960e-01]
 [ 2.8855428e-01 -2.4599251e-01 -2.5458491e-01]
 [-3.7674072e-01  4.9584439e-01 -4.1248310e-01]
 [ 3.8596833e-01 -5.6661260e-01  2.8840122e-01]] 
Episode: 48: [[-4.1272299e-04  3.9180749e-04 -4.3005662e-04]
 [ 3.9049482e-04 -3.7940475e-04  3.2173694e-04]
 [-3.5736270e-04  3.6063971e-04  6.8934215e-04]
 [-1.6283727e-01 -3.3965990e-01  4.2801205e-02]
 [ 1.2656996e-01 -4.7405262e-02 -4.0121581e-02]
 [ 4.6008006e-01  5.2255517e-01 -3.8182655e-01]
 [ 2.2870065e-01 -4.6075934e-01  3.5004687e-01]
 [ 3.7723920e-01  4.8561242e-01  4.0215316e-01]
 [-1.9699030e-01  2.9357741e-02 -3.8561559e-01]
 [ 2.8855428e-01 -2.4599251e-01 -2.5458491e-01]
 [-3.7674072e-01  4.9584439e-01 -4.1248310e-01]
 [ 3.8596833e-01 -5.6661260e-01  2.8840122e-01]] 
Episode: 49: [[-3.6968716e-04  3.4789531e-04 -3.8892441e-04]
 [ 3.4820847e-04 -3.3643201e-04  2.7921452e-04]
 [-3.1492548e-04  3.1595648e-04  6.4928288e-04]
 [-1.6279398e-01 -3.3970404e-01  4.2842500e-02]
 [ 1.2652689e-01 -4.7361638e-02 -4.0165901e-02]
 [ 4.6012124e-01  5.2251130e-01 -3.8186795e-01]
 [ 2.2865924e-01 -4.6071556e-01  3.5009256e-01]
 [ 3.7719867e-01  4.8565537e-01  4.0219343e-01]
 [-1.9703227e-01  2.9401038e-02 -3.8565242e-01]
 [ 2.8855428e-01 -2.4599251e-01 -2.5458491e-01]
 [-3.7674072e-01  4.9584439e-01 -4.1248310e-01]
 [ 3.8596833e-01 -5.6661260e-01  2.8840122e-01]] 
Episode: 50: [[-3.4144396e-04  3.1900423e-04 -3.6435446e-04]
 [ 3.2074988e-04 -3.0840945e-04  2.5308627e-04]
 [-2.8558145e-04  2.8562764e-04  6.2293373e-04]
 [-1.6276518e-01 -3.3973333e-01  4.2868171e-02]
 [ 1.2649837e-01 -4.7332775e-02 -4.0194310e-02]
 [ 4.6014723e-01  5.2248335e-01 -3.8190109e-01]
 [ 2.2863249e-01 -4.6068716e-01  3.5012928e-01]
 [ 3.7717262e-01  4.8568311e-01  4.0222627e-01]
 [-1.9705956e-01  2.9429181e-02 -3.8567129e-01]
 [ 2.8855428e-01 -2.4599251e-01 -2.5458491e-01]
 [-3.7674072e-01  4.9584439e-01 -4.1248310e-01]
 [ 3.8596833e-01 -5.6661260e-01  2.8840122e-01]] 
Episode: 51: [[-3.2612836e-04  3.0336838e-04 -3.5103527e-04]
 [ 3.0584724e-04 -2.9329793e-04  2.3850246e-04]
 [-2.6907821e-04  2.6892891e-04  6.1057630e-04]
 [-1.6274950e-01 -3.3974922e-01  4.2882081e-02]
 [ 1.2648292e-01 -4.7317263e-02 -4.0210035e-02]
 [ 4.6016145e-01  5.2246815e-01 -3.8191876e-01]
 [ 2.2861843e-01 -4.6067214e-01  3.5015088e-01]
 [ 3.7715882e-01  4.8569775e-01  4.0224421e-01]
 [-1.9707404e-01  2.9444052e-02 -3.8568139e-01]
 [ 2.8855428e-01 -2.4599251e-01 -2.5458491e-01]
 [-3.7674072e-01  4.9584439e-01 -4.1248310e-01]
 [ 3.8596833e-01 -5.6661260e-01  2.8840122e-01]] 
Episode: 52: [[-3.2193496e-04  2.9918042e-04 -3.4769592e-04]
 [ 3.0210009e-04 -2.8963989e-04  2.3414311e-04]
 [-2.6383181e-04  2.6381342e-04  6.0769951e-04]
 [-1.6274500e-01 -3.3975354e-01  4.2885985e-02]
 [ 1.2647900e-01 -4.7313526e-02 -4.0214747e-02]
 [ 4.6016520e-01  5.2246404e-01 -3.8192534e-01]
 [ 2.2861521e-01 -4.6066862e-01  3.5016090e-01]
 [ 3.7715551e-01  4.8570111e-01  4.0224916e-01]
 [-1.9707759e-01  2.9447669e-02 -3.8568220e-01]
 [ 2.8855428e-01 -2.4599251e-01 -2.5458491e-01]
 [-3.7674072e-01  4.9584439e-01 -4.1248310e-01]
 [ 3.8596833e-01 -5.6661260e-01  2.8840122e-01]] 
Episode: 53: [[-3.2690633e-04  3.0425287e-04 -3.5326334e-04]
 [ 3.0744294e-04 -2.9514456e-04  2.3919117e-04]
 [-2.6693044e-04  2.6756412e-04  6.1313488e-04]
 [-1.6274965e-01 -3.3974868e-01  4.2881213e-02]
 [ 1.2648398e-01 -4.7318783e-02 -4.0210538e-02]
 [ 4.6016029e-01  5.2246892e-01 -3.8192505e-01]
 [ 2.2862063e-01 -4.6067411e-01  3.5016164e-01]
 [ 3.7716076e-01  4.8569569e-01  4.0224659e-01]
 [-1.9707224e-01  2.9442199e-02 -3.8567367e-01]
 [ 2.8855428e-01 -2.4599251e-01 -2.5458491e-01]
 [-3.7674072e-01  4.9584439e-01 -4.1248310e-01]
 [ 3.8596833e-01 -5.6661260e-01  2.8840122e-01]] 
Episode: 54: [[-3.4098199e-04  3.1877166e-04 -3.6688751e-04]
 [ 3.2189069e-04 -3.0993653e-04  2.5308554e-04]
 [-2.8052181e-04  2.8189307e-04  6.2669872e-04]
 [-1.6276322e-01 -3.3973449e-01  4.2868599e-02]
 [ 1.2649825e-01 -4.7333375e-02 -4.0196579e-02]
 [ 4.6014670e-01  5.2248341e-01 -3.8191131e-01]
 [ 2.2863527e-01 -4.6068934e-01  3.5015213e-01]
 [ 3.7717479e-01  4.8568082e-01  4.0223369e-01]
 [-1.9705786e-01  2.9427478e-02 -3.8565949e-01]
 [ 2.8855428e-01 -2.4599251e-01 -2.5458491e-01]
 [-3.7674072e-01  4.9584439e-01 -4.1248310e-01]
 [ 3.8596833e-01 -5.6661260e-01  2.8840122e-01]] 
Episode: 55: [[-3.6308909e-04  3.4143231e-04 -3.8884397e-04]
 [ 3.4484520e-04 -3.3330405e-04  2.7588414e-04]
 [-3.0439030e-04  3.0572378e-04  6.4260245e-04]
 [-1.6278449e-01 -3.3971247e-01  4.2848427e-02]
 [ 1.2652071e-01 -4.7356214e-02 -4.0174395e-02]
 [ 4.6012527e-01  5.2250570e-01 -3.8189235e-01]
 [ 2.2865750e-01 -4.6071249e-01  3.5013628e-01]
 [ 3.7719592e-01  4.8565844e-01  4.0221152e-01]
 [-1.9703577e-01  2.9405009e-02 -3.8563684e-01]
 [ 2.8855428e-01 -2.4599251e-01 -2.5458491e-01]
 [-3.7674072e-01  4.9584439e-01 -4.1248310e-01]
 [ 3.8596833e-01 -5.6661260e-01  2.8840122e-01]] 
Episode: 56: [[-3.8107214e-04  3.5983234e-04 -4.0532675e-04]
 [ 3.6351240e-04 -3.5234002e-04  2.9359321e-04]
 [-3.2393669e-04  3.2487485e-04  6.5487961e-04]
 [-1.6280213e-01 -3.3969432e-01  4.2832546e-02]
 [ 1.2653923e-01 -4.7374997e-02 -4.0156648e-02]
 [ 4.6010786e-01  5.2252340e-01 -3.8187736e-01]
 [ 2.2867602e-01 -4.6073166e-01  3.5012415e-01]
 [ 3.7721354e-01  4.8564020e-01  4.0219408e-01]
 [-1.9701795e-01  2.9386941e-02 -3.8562018e-01]
 [ 2.8855428e-01 -2.4599251e-01 -2.5458491e-01]
 [-3.7674072e-01  4.9584439e-01 -4.1248310e-01]
 [ 3.8596833e-01 -5.6661260e-01  2.8840122e-01]] 
Episode: 57: [[-3.9728134e-04  3.7647245e-04 -4.2296972e-04]
 [ 3.8139336e-04 -3.7045809e-04  3.1306178e-04]
 [-3.4387095e-04  3.4429057e-04  6.5874931e-04]
 [-1.6281825e-01 -3.3967772e-01  4.2814944e-02]
 [ 1.2655643e-01 -4.7392428e-02 -4.0138401e-02]
 [ 4.6009058e-01  5.2254099e-01 -3.8187161e-01]
 [ 2.2869496e-01 -4.6075082e-01  3.5012570e-01]
 [ 3.7723145e-01  4.8562196e-01  4.0218899e-01]
 [-1.9700097e-01  2.9369665e-02 -3.8559559e-01]
 [ 2.8855428e-01 -2.4599251e-01 -2.5458491e-01]
 [-3.7674072e-01  4.9584439e-01 -4.1248310e-01]
 [ 3.8596833e-01 -5.6661260e-01  2.8840122e-01]] 
Episode: 58: [[-4.1106320e-04  3.9063275e-04 -4.3661686e-04]
 [ 3.9606818e-04 -3.8545529e-04  3.2832249e-04]
 [-3.5994902e-04  3.6018828e-04  6.6388369e-04]
 [-1.6283211e-01 -3.3966351e-01  4.2801045e-02]
 [ 1.2657072e-01 -4.7407024e-02 -4.0123843e-02]
 [ 4.6007699e-01  5.2255499e-01 -3.8186431e-01]
 [ 2.2870997e-01 -4.6076632e-01  3.5012141e-01]
 [ 3.7724522e-01  4.8560753e-01  4.0218002e-01]
 [-1.9698739e-01  2.9355664e-02 -3.8557991e-01]
 [ 2.8855428e-01 -2.4599251e-01 -2.5458491e-01]
 [-3.7674072e-01  4.9584439e-01 -4.1248310e-01]
 [ 3.8596833e-01 -5.6661260e-01  2.8840122e-01]] 
Episode: 59: [[-4.4234682e-04  4.2234213e-04 -4.6856192e-04]
 [ 4.2821551e-04 -4.1799844e-04  3.6120188e-04]
 [-3.9295162e-04  3.9340931e-04  6.8669958e-04]
 [-1.6286348e-01 -3.3963177e-01  4.2769413e-02]
 [ 1.2660255e-01 -4.7439277e-02 -4.0091831e-02]
 [ 4.6004555e-01  5.2258694e-01 -3.8184246e-01]
 [ 2.2874185e-01 -4.6079898e-01  3.5010314e-01]
 [ 3.7727609e-01  4.8557574e-01  4.0215662e-01]
 [-1.9695608e-01  2.9323820e-02 -3.8554749e-01]
 [ 2.8855428e-01 -2.4599251e-01 -2.5458491e-01]
 [-3.7674072e-01  4.9584439e-01 -4.1248310e-01]
 [ 3.8596833e-01 -5.6661260e-01  2.8840122e-01]] 
Episode: 60: [[-4.7821092e-04  4.5879185e-04 -5.0564623e-04]
 [ 4.6501675e-04 -4.5531723e-04  3.9928092e-04]
 [-4.3084082e-04  4.3180760e-04  7.1193324e-04]
 [-1.6289935e-01 -3.3959535e-01  4.2732872e-02]
 [ 1.2663902e-01 -4.7476318e-02 -4.0054612e-02]
 [ 4.6000901e-01  5.2262414e-01 -3.8182002e-01]
 [ 2.2877850e-01 -4.6083668e-01  3.5008225e-01]
 [ 3.7731150e-01  4.8553902e-01  4.0213099e-01]
 [-1.9692023e-01  2.9287221e-02 -3.8550884e-01]
 [ 2.8855428e-01 -2.4599251e-01 -2.5458491e-01]
 [-3.7674072e-01  4.9584439e-01 -4.1248310e-01]
 [ 3.8596833e-01 -5.6661260e-01  2.8840122e-01]] 
Episode: 61: [[-4.9884693e-04  4.8014111e-04 -5.2636175e-04]
 [ 4.8666625e-04 -4.7756135e-04  4.2168269e-04]
 [-4.5437767e-04  4.5564701e-04  7.2249654e-04]
 [-1.6291997e-01 -3.3957404e-01  4.2712629e-02]
 [ 1.2666026e-01 -4.7498211e-02 -4.0033232e-02]
 [ 4.5998898e-01  5.2264524e-01 -3.8180739e-01]
 [ 2.2879981e-01 -4.6085924e-01  3.5006925e-01]
 [ 3.7733108e-01  4.8551771e-01  4.0211180e-01]
 [-1.9689986e-01  2.9266056e-02 -3.8548589e-01]
 [ 2.8855428e-01 -2.4599251e-01 -2.5458491e-01]
 [-3.7674072e-01  4.9584439e-01 -4.1248310e-01]
 [ 3.8596833e-01 -5.6661260e-01  2.8840122e-01]] 
Episode: 62: [[-5.2566081e-04  5.0753180e-04 -5.5229070e-04]
 [ 5.1421457e-04 -5.0570472e-04  4.4883962e-04]
 [-4.8299623e-04  4.8450488e-04  7.4020453e-04]
 [-1.6294678e-01 -3.3954671e-01  4.2687528e-02]
 [ 1.2668762e-01 -4.7526229e-02 -4.0006880e-02]
 [ 4.5996410e-01  5.2267104e-01 -3.8178712e-01]
 [ 2.2882530e-01 -4.6088639e-01  3.5004431e-01]
 [ 3.7735531e-01  4.8549169e-01  4.0208098e-01]
 [-1.9687420e-01  2.9239580e-02 -3.8546172e-01]
 [ 2.8855428e-01 -2.4599251e-01 -2.5458491e-01]
 [-3.7674072e-01  4.9584439e-01 -4.1248310e-01]
 [ 3.8596833e-01 -5.6661260e-01  2.8840122e-01]] 
Episode: 63: [[-5.2756065e-04  5.0993334e-04 -5.5567164e-04]
 [ 5.1727123e-04 -5.0921761e-04  4.5318852e-04]
 [-4.8767895e-04  4.8951135e-04  7.3352800e-04]
 [-1.6294818e-01 -3.3954480e-01  4.2685717e-02]
 [ 1.2669010e-01 -4.7529258e-02 -4.0003885e-02]
 [ 4.5996258e-01  5.2267343e-01 -3.8179129e-01]
 [ 2.2882700e-01 -4.6088925e-01  3.5004652e-01]
 [ 3.7735581e-01  4.8548970e-01  4.0207648e-01]
 [-1.9687265e-01  2.9237216e-02 -3.8545668e-01]
 [ 2.8855428e-01 -2.4599251e-01 -2.5458491e-01]
 [-3.7674072e-01  4.9584439e-01 -4.1248310e-01]
 [ 3.8596833e-01 -5.6661260e-01  2.8840122e-01]] 
Episode: 64: [[-5.1864481e-04  5.0135987e-04 -5.4794888e-04]
 [ 5.0954294e-04 -5.0181488e-04  4.4640628e-04]
 [-4.8205809e-04  4.8351788e-04  7.1635196e-04]
 [-1.6293900e-01 -3.3955362e-01  4.2694464e-02]
 [ 1.2668213e-01 -4.7521640e-02 -4.0011346e-02]
 [ 4.5997155e-01  5.2266490e-01 -3.8180396e-01]
 [ 2.2881816e-01 -4.6088114e-01  3.5005906e-01]
 [ 3.7734595e-01  4.8549864e-01  4.0208277e-01]
 [-1.9688179e-01  2.9245764e-02 -3.8546324e-01]
 [ 2.8855428e-01 -2.4599251e-01 -2.5458491e-01]
 [-3.7674072e-01  4.9584439e-01 -4.1248310e-01]
 [ 3.8596833e-01 -5.6661260e-01  2.8840122e-01]] 
Episode: 65: [[-5.1872415e-04  5.0181046e-04 -5.4937799e-04]
 [ 5.1083288e-04 -5.0340244e-04  4.4858019e-04]
 [-4.8521123e-04  4.8634518e-04  7.0880156e-04]
 [-1.6293858e-01 -3.3955362e-01  4.2694829e-02]
 [ 1.2668298e-01 -4.7522865e-02 -4.0010236e-02]
 [ 4.5997086e-01  5.2266580e-01 -3.8180998e-01]
 [ 2.2881821e-01 -4.6088204e-01  3.5006219e-01]
 [ 3.7734506e-01  4.8549852e-01  4.0207958e-01]
 [-1.9688168e-01  2.9245168e-02 -3.8546050e-01]
 [ 2.8855428e-01 -2.4599251e-01 -2.5458491e-01]
 [-3.7674072e-01  4.9584439e-01 -4.1248310e-01]
 [ 3.8596833e-01 -5.6661260e-01  2.8840122e-01]] 
Episode: 66: [[-5.1682594e-04  5.0050009e-04 -5.4508029e-04]
 [ 5.0954788e-04 -5.0264964e-04  4.4605799e-04]
 [-4.8617221e-04  4.8695365e-04  7.0107204e-04]
 [-1.6293682e-01 -3.3955485e-01  4.2699210e-02]
 [ 1.2668200e-01 -4.7522362e-02 -4.0012214e-02]
 [ 4.5997244e-01  5.2266437e-01 -3.8181528e-01]
 [ 2.2881648e-01 -4.6088153e-01  3.5006100e-01]
 [ 3.7734243e-01  4.8550001e-01  4.0207484e-01]
 [-1.9688360e-01  2.9246558e-02 -3.8546336e-01]
 [ 2.8855428e-01 -2.4599251e-01 -2.5458491e-01]
 [-3.7674072e-01  4.9584439e-01 -4.1248310e-01]
 [ 3.8596833e-01 -5.6661260e-01  2.8840122e-01]] 
Episode: 67: [[-5.0341012e-04  4.8785191e-04 -5.2971847e-04]
 [ 4.9713574e-04 -4.9086305e-04  4.3390988e-04]
 [-4.7657057e-04  4.7745972e-04  6.7897566e-04]
 [-1.6292383e-01 -3.3956715e-01  4.2714134e-02]
 [ 1.2666993e-01 -4.7510885e-02 -4.0023930e-02]
 [ 4.5998442e-01  5.2265298e-01 -3.8183501e-01]
 [ 2.2880447e-01 -4.6087068e-01  3.5007405e-01]
 [ 3.7732902e-01  4.8551187e-01  4.0208602e-01]
 [-1.9689640e-01  2.9258626e-02 -3.8547060e-01]
 [ 2.8855428e-01 -2.4599251e-01 -2.5458491e-01]
 [-3.7674072e-01  4.9584439e-01 -4.1248310e-01]
 [ 3.8596833e-01 -5.6661260e-01  2.8840122e-01]] 
Episode: 68: [[-4.6955823e-04  4.5461126e-04 -4.9591035e-04]
 [ 4.6434195e-04 -4.5850044e-04  4.0365959e-04]
 [-4.4606815e-04  4.4710454e-04  6.3565065e-04]
 [-1.6288991e-01 -3.3960047e-01  4.2748209e-02]
 [ 1.2663670e-01 -4.7478084e-02 -4.0055096e-02]
 [ 4.6001551e-01  5.2262199e-01 -3.8187909e-01]
 [ 2.2877304e-01 -4.6083975e-01  3.5011101e-01]
 [ 3.7729600e-01  4.8554400e-01  4.0212420e-01]
 [-1.9692944e-01  2.9291052e-02 -3.8549095e-01]
 [ 2.8855428e-01 -2.4599251e-01 -2.5458491e-01]
 [-3.7674072e-01  4.9584439e-01 -4.1248310e-01]
 [ 3.8596833e-01 -5.6661260e-01  2.8840122e-01]] 
Episode: 69: [[-4.4713120e-04  4.3390991e-04 -4.7617510e-04]
 [ 4.4410661e-04 -4.3897491e-04  3.9020798e-04]
 [-4.2988104e-04  4.3235664e-04  5.9557497e-04]
 [-1.6286716e-01 -3.3962148e-01  4.2768285e-02]
 [ 1.2661594e-01 -4.7458034e-02 -4.0069569e-02]
 [ 4.6003038e-01  5.2260774e-01 -3.8192666e-01]
 [ 2.2875699e-01 -4.6082509e-01  3.5015398e-01]
 [ 3.7727761e-01  4.8556092e-01  4.0217072e-01]
 [-1.9694941e-01  2.9309791e-02 -3.8548511e-01]
 [ 2.8855428e-01 -2.4599251e-01 -2.5458491e-01]
 [-3.7674072e-01  4.9584439e-01 -4.1248310e-01]
 [ 3.8596833e-01 -5.6661260e-01  2.8840122e-01]] 
Episode: 70: [[-4.2669306e-04  4.1520913e-04 -4.5664288e-04]
 [ 4.2552527e-04 -4.2112923e-04  3.7722857e-04]
 [-4.1456011e-04  4.1851483e-04  5.6095753e-04]
 [-1.6284600e-01 -3.3964089e-01  4.2789508e-02]
 [ 1.2659660e-01 -4.7439501e-02 -4.0084172e-02]
 [ 4.6004528e-01  5.2259368e-01 -3.8196650e-01]
 [ 2.2874133e-01 -4.6081123e-01  3.5018709e-01]
 [ 3.7725955e-01  4.8557723e-01  4.0220794e-01]
 [-1.9696812e-01  2.9327258e-02 -3.8548368e-01]
 [ 2.8855428e-01 -2.4599251e-01 -2.5458491e-01]
 [-3.7674072e-01  4.9584439e-01 -4.1248310e-01]
 [ 3.8596833e-01 -5.6661260e-01  2.8840122e-01]] 
Episode: 71: [[-4.0751268e-04  3.9790131e-04 -4.3994075e-04]
 [ 4.0855765e-04 -4.0500253e-04  3.6665666e-04]
 [-4.0104162e-04  4.0698954e-04  5.2758429e-04]
 [-1.6282608e-01 -3.3965895e-01  4.2808205e-02]
 [ 1.2657882e-01 -4.7422666e-02 -4.0096648e-02]
 [ 4.6005881e-01  5.2258146e-01 -3.8200498e-01]
 [ 2.2872843e-01 -4.6080014e-01  3.5022628e-01]
 [ 3.7724438e-01  4.8559073e-01  4.0224916e-01]
 [-1.9698487e-01  2.9342541e-02 -3.8547829e-01]
 [ 2.8855428e-01 -2.4599251e-01 -2.5458491e-01]
 [-3.7674072e-01  4.9584439e-01 -4.1248310e-01]
 [ 3.8596833e-01 -5.6661260e-01  2.8840122e-01]] 
Episode: 72: [[-3.9858549e-04  3.9065097e-04 -4.3284739e-04]
 [ 4.0166781e-04 -3.9891020e-04  3.6497120e-04]
 [-3.9748795e-04  4.0510137e-04  5.0573639e-04]
 [-1.6281626e-01 -3.3966705e-01  4.2817820e-02]
 [ 1.2657113e-01 -4.7415882e-02 -4.0100232e-02]
 [ 4.6006376e-01  5.2257800e-01 -3.8202918e-01]
 [ 2.2872446e-01 -4.6079800e-01  3.5025197e-01]
 [ 3.7723809e-01  4.8559520e-01  4.0227425e-01]
 [-1.9699204e-01  2.9348278e-02 -3.8546935e-01]
 [ 2.8855428e-01 -2.4599251e-01 -2.5458491e-01]
 [-3.7674072e-01  4.9584439e-01 -4.1248310e-01]
 [ 3.8596833e-01 -5.6661260e-01  2.8840122e-01]] 
Episode: 73: [[-3.9925627e-04  3.9309915e-04 -4.3750432e-04]
 [ 4.0515486e-04 -4.0309262e-04  3.7535839e-04]
 [-4.0455381e-04  4.1391313e-04  4.8884167e-04]
 [-1.6281573e-01 -3.3966565e-01  4.2816307e-02]
 [ 1.2657340e-01 -4.7419116e-02 -4.0092666e-02]
 [ 4.6005771e-01  5.2258551e-01 -3.8205126e-01]
 [ 2.2873151e-01 -4.6080646e-01  3.5027885e-01]
 [ 3.7724230e-01  4.8558900e-01  4.0229839e-01]
 [-1.9698909e-01  2.9343883e-02 -3.8544473e-01]
 [ 2.8855428e-01 -2.4599251e-01 -2.5458491e-01]
 [-3.7674072e-01  4.9584439e-01 -4.1248310e-01]
 [ 3.8596833e-01 -5.6661260e-01  2.8840122e-01]] 
Episode: 74: [[-3.8436346e-04  3.7920568e-04 -4.2719787e-04]
 [ 3.9258559e-04 -3.9074762e-04  3.6945989e-04]
 [-3.9390946e-04  4.0467142e-04  4.5922573e-04]
 [-1.6280000e-01 -3.3968031e-01  4.2828947e-02]
 [ 1.2655963e-01 -4.7405813e-02 -4.0101491e-02]
 [ 4.6006870e-01  5.2257550e-01 -3.8208345e-01]
 [ 2.2872134e-01 -4.6079683e-01  3.5031635e-01]
 [ 3.7723058e-01  4.8560005e-01  4.0233585e-01]
 [-1.9700244e-01  2.9356228e-02 -3.8543740e-01]
 [ 2.8855428e-01 -2.4599251e-01 -2.5458491e-01]
 [-3.7674072e-01  4.9584439e-01 -4.1248310e-01]
 [ 3.8596833e-01 -5.6661260e-01  2.8840122e-01]] 
Episode: 75: [[-3.7547562e-04  3.7110745e-04 -4.2189783e-04]
 [ 3.8549196e-04 -3.8403532e-04  3.6778473e-04]
 [-3.8814449e-04  4.0038672e-04  4.3564491e-04]
 [-1.6279018e-01 -3.3968931e-01  4.2836737e-02]
 [ 1.2655145e-01 -4.7398198e-02 -4.0105700e-02]
 [ 4.6007541e-01  5.2256995e-01 -3.8210842e-01]
 [ 2.2871511e-01 -4.6079135e-01  3.5034302e-01]
 [ 3.7722269e-01  4.8560691e-01  4.0236276e-01]
 [-1.9701076e-01  2.9363379e-02 -3.8542879e-01]
 [ 2.8855428e-01 -2.4599251e-01 -2.5458491e-01]
 [-3.7674072e-01  4.9584439e-01 -4.1248310e-01]
 [ 3.8596833e-01 -5.6661260e-01  2.8840122e-01]] 
Episode: 76: [[-3.6640052e-04  3.6306909e-04 -4.1579502e-04]
 [ 3.7810387e-04 -3.7730575e-04  3.6459492e-04]
 [-3.8196606e-04  3.9650302e-04  4.1331310e-04]
 [-1.6277999e-01 -3.3969843e-01  4.2846031e-02]
 [ 1.2654325e-01 -4.7390889e-02 -4.0110968e-02]
 [ 4.6008384e-01  5.2256370e-01 -3.8212982e-01]
 [ 2.2870785e-01 -4.6078566e-01  3.5036674e-01]
 [ 3.7721348e-01  4.8561406e-01  4.0238306e-01]
 [-1.9701983e-01  2.9370777e-02 -3.8542444e-01]
 [ 2.8855428e-01 -2.4599251e-01 -2.5458491e-01]
 [-3.7674072e-01  4.9584439e-01 -4.1248310e-01]
 [ 3.8596833e-01 -5.6661260e-01  2.8840122e-01]] 
Episode: 77: [[-3.5801210e-04  3.5551641e-04 -4.1209365e-04]
 [ 3.7139517e-04 -3.7087844e-04  3.6375254e-04]
 [-3.7479724e-04  3.9136625e-04  3.9212772e-04]
 [-1.6276985e-01 -3.3970752e-01  4.2854324e-02]
 [ 1.2653482e-01 -4.7383048e-02 -4.0115722e-02]
 [ 4.6009022e-01  5.2255851e-01 -3.8215542e-01]
 [ 2.2870141e-01 -4.6078026e-01  3.5039434e-01]
 [ 3.7720579e-01  4.8562086e-01  4.0241170e-01]
 [-1.9702776e-01  2.9377516e-02 -3.8541412e-01]
 [ 2.8855428e-01 -2.4599251e-01 -2.5458491e-01]
 [-3.7674072e-01  4.9584439e-01 -4.1248310e-01]
 [ 3.8596833e-01 -5.6661260e-01  2.8840122e-01]] 
Episode: 78: [[-3.4090938e-04  3.3904775e-04 -3.9975272e-04]
 [ 3.5590812e-04 -3.5569473e-04  3.5450890e-04]
 [-3.5973458e-04  3.7808780e-04  3.6185869e-04]
 [-1.6275175e-01 -3.3972487e-01  4.2868983e-02]
 [ 1.2651780e-01 -4.7366604e-02 -4.0128339e-02]
 [ 4.6010524e-01  5.2254468e-01 -3.8218763e-01]
 [ 2.2868808e-01 -4.6076709e-01  3.5043305e-01]
 [ 3.7719020e-01  4.8563561e-01  4.0245041e-01]
 [-1.9704421e-01  2.9392803e-02 -3.8541093e-01]
 [ 2.8855428e-01 -2.4599251e-01 -2.5458491e-01]
 [-3.7674072e-01  4.9584439e-01 -4.1248310e-01]
 [ 3.8596833e-01 -5.6661260e-01  2.8840122e-01]] 
Episode: 79: [[-3.3521268e-04  3.3395138e-04 -3.9759406e-04]
 [ 3.5135826e-04 -3.5148815e-04  3.5531126e-04]
 [-3.5499173e-04  3.7511604e-04  3.4479803e-04]
 [-1.6274525e-01 -3.3973071e-01  4.2873107e-02]
 [ 1.2651180e-01 -4.7361210e-02 -4.0130749e-02]
 [ 4.6010983e-01  5.2254122e-01 -3.8220710e-01]
 [ 2.2868529e-01 -4.6076477e-01  3.5045692e-01]
 [ 3.7718520e-01  4.8563951e-01  4.0247545e-01]
 [-1.9704968e-01  2.9397229e-02 -3.8540006e-01]
 [ 2.8855428e-01 -2.4599251e-01 -2.5458491e-01]
 [-3.7674072e-01  4.9584439e-01 -4.1248310e-01]
 [ 3.8596833e-01 -5.6661260e-01  2.8840122e-01]] 
Episode: 80: [[-3.0963789e-04  3.0875290e-04 -3.7543886e-04]
 [ 3.2729472e-04 -3.2757586e-04  3.3646045e-04]
 [-3.3160951e-04  3.5257373e-04  3.0740272e-04]
 [-1.6271892e-01 -3.3975655e-01  4.2897262e-02]
 [ 1.2648630e-01 -4.7336120e-02 -4.0152989e-02]
 [ 4.6013352e-01  5.2251810e-01 -3.8224483e-01]
 [ 2.2866268e-01 -4.6074215e-01  3.5049590e-01]
 [ 3.7716046e-01  4.8566344e-01  4.0251330e-01]
 [-1.9707491e-01  2.9421780e-02 -3.8540646e-01]
 [ 2.8855428e-01 -2.4599251e-01 -2.5458491e-01]
 [-3.7674072e-01  4.9584439e-01 -4.1248310e-01]
 [ 3.8596833e-01 -5.6661260e-01  2.8840122e-01]] 
Episode: 81: [[-2.8670527e-04  2.8634068e-04 -3.5460017e-04]
 [ 3.0561589e-04 -3.0630696e-04  3.1858584e-04]
 [-3.0987590e-04  3.3260573e-04  2.7776923e-04]
 [-1.6269548e-01 -3.3977941e-01  4.2919353e-02]
 [ 1.2646334e-01 -4.7313791e-02 -4.0173862e-02]
 [ 4.6015745e-01  5.2249616e-01 -3.8226885e-01]
 [ 2.2864363e-01 -4.6072307e-01  3.5053214e-01]
 [ 3.7713879e-01  4.8568392e-01  4.0254605e-01]
 [-1.9709721e-01  2.9443048e-02 -3.8541508e-01]
 [ 2.8855428e-01 -2.4599251e-01 -2.5458491e-01]
 [-3.7674072e-01  4.9584439e-01 -4.1248310e-01]
 [ 3.8596833e-01 -5.6661260e-01  2.8840122e-01]] 
Episode: 82: [[-2.6509483e-04  2.6532018e-04 -3.3587430e-04]
 [ 2.8569656e-04 -2.8682541e-04  3.0270181e-04]
 [-2.8997185e-04  3.1448604e-04  2.4806763e-04]
 [-1.6267326e-01 -3.3980095e-01  4.2939551e-02]
 [ 1.2644210e-01 -4.7293205e-02 -4.0192731e-02]
 [ 4.6017948e-01  5.2247620e-01 -3.8229337e-01]
 [ 2.2862674e-01 -4.6070614e-01  3.5057259e-01]
 [ 3.7711957e-01  4.8570198e-01  4.0258068e-01]
 [-1.9711748e-01  2.9462287e-02 -3.8541862e-01]
 [ 2.8855428e-01 -2.4599251e-01 -2.5458491e-01]
 [-3.7674072e-01  4.9584439e-01 -4.1248310e-01]
 [ 3.8596833e-01 -5.6661260e-01  2.8840122e-01]] 
Episode: 83: [[-2.5352108e-04  2.5362716e-04 -3.2929555e-04]
 [ 2.7686625e-04 -2.7784327e-04  3.0003951e-04]
 [-2.8206466e-04  3.0648088e-04  2.2390463e-04]
 [-1.6266121e-01 -3.3981302e-01  4.2947367e-02]
 [ 1.2643093e-01 -4.7282174e-02 -4.0200420e-02]
 [ 4.6018887e-01  5.2246720e-01 -3.8231567e-01]
 [ 2.2862276e-01 -4.6069995e-01  3.5061640e-01]
 [ 3.7711343e-01  4.8570883e-01  4.0261960e-01]
 [-1.9712593e-01  2.9470686e-02 -3.8540369e-01]
 [ 2.8855428e-01 -2.4599251e-01 -2.5458491e-01]
 [-3.7674072e-01  4.9584439e-01 -4.1248310e-01]
 [ 3.8596833e-01 -5.6661260e-01  2.8840122e-01]] 
Episode: 84: [[-2.6242973e-04  2.6242700e-04 -3.4294435e-04]
 [ 2.8881858e-04 -2.8961099e-04  3.1837440e-04]
 [-2.9599460e-04  3.1977703e-04  2.1697769e-04]
 [-1.6266963e-01 -3.3980456e-01  4.2934917e-02]
 [ 1.2644038e-01 -4.7291752e-02 -4.0187344e-02]
 [ 4.6017754e-01  5.2247870e-01 -3.8231966e-01]
 [ 2.2863935e-01 -4.6071449e-01  3.5064563e-01]
 [ 3.7712786e-01  4.8569521e-01  4.0264389e-01]
 [-1.9711359e-01  2.9458335e-02 -3.8537011e-01]
 [ 2.8855428e-01 -2.4599251e-01 -2.5458491e-01]
 [-3.7674072e-01  4.9584439e-01 -4.1248310e-01]
 [ 3.8596833e-01 -5.6661260e-01  2.8840122e-01]] 
Episode: 85: [[-2.7125346e-04  2.7127273e-04 -3.5630495e-04]
 [ 3.0074711e-04 -3.0151181e-04  3.3608623e-04]
 [-3.1038589e-04  3.3349550e-04  2.0922018e-04]
 [-1.6267793e-01 -3.3979607e-01  4.2922813e-02]
 [ 1.2644999e-01 -4.7301628e-02 -4.0174507e-02]
 [ 4.6016619e-01  5.2249044e-01 -3.8232392e-01]
 [ 2.2865564e-01 -4.6072900e-01  3.5067397e-01]
 [ 3.7714177e-01  4.8568159e-01  4.0266478e-01]
 [-1.9710149e-01  2.9446071e-02 -3.8533735e-01]
 [ 2.8855428e-01 -2.4599251e-01 -2.5458491e-01]
 [-3.7674072e-01  4.9584439e-01 -4.1248310e-01]
 [ 3.8596833e-01 -5.6661260e-01  2.8840122e-01]] 
Episode: 86: [[-2.8797268e-04  2.8810118e-04 -3.7780675e-04]
 [ 3.2031041e-04 -3.2123260e-04  3.6138468e-04]
 [-3.3377885e-04  3.5636607e-04  2.0688397e-04]
 [-1.6269380e-01 -3.3977985e-01  4.2903531e-02]
 [ 1.2646732e-01 -4.7319371e-02 -4.0153876e-02]
 [ 4.6014810e-01  5.2250969e-01 -3.8231793e-01]
 [ 2.2867776e-01 -4.6075013e-01  3.5068876e-01]
 [ 3.7716040e-01  4.8566204e-01  4.0266883e-01]
 [-1.9708297e-01  2.9426856e-02 -3.8530457e-01]
 [ 2.8855428e-01 -2.4599251e-01 -2.5458491e-01]
 [-3.7674072e-01  4.9584439e-01 -4.1248310e-01]
 [ 3.8596833e-01 -5.6661260e-01  2.8840122e-01]] 
Episode: 87: [[-2.9121846e-04  2.9150996e-04 -3.8504036e-04]
 [ 3.2636159e-04 -3.2729411e-04  3.7366091e-04]
 [-3.4319697e-04  3.6513322e-04  1.9204852e-04]
 [-1.6269641e-01 -3.3977684e-01  4.2897813e-02]
 [ 1.2647097e-01 -4.7323287e-02 -4.0146630e-02]
 [ 4.6014300e-01  5.2251554e-01 -3.8232517e-01]
 [ 2.2868687e-01 -4.6075827e-01  3.5071295e-01]
 [ 3.7716636e-01  4.8565567e-01  4.0268603e-01]
 [-1.9707768e-01  2.9421145e-02 -3.8528085e-01]
 [ 2.8855428e-01 -2.4599251e-01 -2.5458491e-01]
 [-3.7674072e-01  4.9584439e-01 -4.1248310e-01]
 [ 3.8596833e-01 -5.6661260e-01  2.8840122e-01]] 
Episode: 88: [[-2.8333237e-04  2.8403866e-04 -3.8135480e-04]
 [ 3.2140661e-04 -3.2244209e-04  3.7525938e-04]
 [-3.4252153e-04  3.6393118e-04  1.6708272e-04]
 [-1.6268797e-01 -3.3978468e-01  4.2902678e-02]
 [ 1.2646390e-01 -4.7316592e-02 -4.0149800e-02]
 [ 4.6014786e-01  5.2251142e-01 -3.8234365e-01]
 [ 2.2868547e-01 -4.6075606e-01  3.5074925e-01]
 [ 3.7716210e-01  4.8565945e-01  4.0271488e-01]
 [-1.9708280e-01  2.9425748e-02 -3.8526535e-01]
 [ 2.8855428e-01 -2.4599251e-01 -2.5458491e-01]
 [-3.7674072e-01  4.9584439e-01 -4.1248310e-01]
 [ 3.8596833e-01 -5.6661260e-01  2.8840122e-01]] 
Episode: 89: [[-2.6032701e-04  2.6142792e-04 -3.6216312e-04]
 [ 3.0111856e-04 -3.0221746e-04  3.6128360e-04]
 [-3.2657044e-04  3.4725029e-04  1.2861866e-04]
 [-1.6266437e-01 -3.3980769e-01  4.2922977e-02]
 [ 1.2644158e-01 -4.7294553e-02 -4.0168233e-02]
 [ 4.6016726e-01  5.2249241e-01 -3.8237575e-01]
 [ 2.2866902e-01 -4.6073875e-01  3.5079652e-01]
 [ 3.7714303e-01  4.8567829e-01  4.0275604e-01]
 [-1.9710304e-01  2.9445641e-02 -3.8526401e-01]
 [ 2.8855428e-01 -2.4599251e-01 -2.5458491e-01]
 [-3.7674072e-01  4.9584439e-01 -4.1248310e-01]
 [ 3.8596833e-01 -5.6661260e-01  2.8840122e-01]] 
Episode: 90: [[-2.3967575e-04  2.4122214e-04 -3.4751350e-04]
 [ 2.8359782e-04 -2.8478020e-04  3.5108611e-04]
 [-3.1318329e-04  3.3321258e-04  9.1669324e-05]
 [-1.6264334e-01 -3.3982810e-01  4.2938214e-02]
 [ 1.2642191e-01 -4.7275212e-02 -4.0183198e-02]
 [ 4.6018255e-01  5.2247709e-01 -3.8241044e-01]
 [ 2.2865622e-01 -4.6072480e-01  3.5084823e-01]
 [ 3.7712774e-01  4.8569342e-01  4.0279981e-01]
 [-1.9712009e-01  2.9462483e-02 -3.8525444e-01]
 [ 2.8855428e-01 -2.4599251e-01 -2.5458491e-01]
 [-3.7674072e-01  4.9584439e-01 -4.1248310e-01]
 [ 3.8596833e-01 -5.6661260e-01  2.8840122e-01]] 
Episode: 91: [[-2.2919873e-04  2.3159150e-04 -3.3896873e-04]
 [ 2.7572113e-04 -2.7731541e-04  3.4717415e-04]
 [-3.1015926e-04  3.2985763e-04  6.7822948e-05]
 [-1.6263302e-01 -3.3983755e-01  4.2946290e-02]
 [ 1.2641308e-01 -4.7266942e-02 -4.0189546e-02]
 [ 4.6018949e-01  5.2247077e-01 -3.8242829e-01]
 [ 2.2865257e-01 -4.6072096e-01  3.5088161e-01]
 [ 3.7712160e-01  4.8569876e-01  4.0282434e-01]
 [-1.9712742e-01  2.9469253e-02 -3.8524485e-01]
 [ 2.8855428e-01 -2.4599251e-01 -2.5458491e-01]
 [-3.7674072e-01  4.9584439e-01 -4.1248310e-01]
 [ 3.8596833e-01 -5.6661260e-01  2.8840122e-01]] 
Episode: 92: [[-2.1213906e-04  2.1514097e-04 -3.2456231e-04]
 [ 2.6119658e-04 -2.6313486e-04  3.3730085e-04]
 [-3.0012245e-04  3.1936867e-04  3.7699596e-05]
 [-1.6261697e-01 -3.3985308e-01  4.2957276e-02]
 [ 1.2639821e-01 -4.7252398e-02 -4.0200431e-02]
 [ 4.6020147e-01  5.2245873e-01 -3.8245544e-01]
 [ 2.2864491e-01 -4.6071190e-01  3.5092932e-01]
 [ 3.7711197e-01  4.8570874e-01  4.0286532e-01]
 [-1.9714043e-01  2.9482065e-02 -3.8523582e-01]
 [ 2.8855428e-01 -2.4599251e-01 -2.5458491e-01]
 [-3.7674072e-01  4.9584439e-01 -4.1248310e-01]
 [ 3.8596833e-01 -5.6661260e-01  2.8840122e-01]] 
Episode: 93: [[-1.8635177e-04  1.8992324e-04 -3.0060348e-04]
 [ 2.3760599e-04 -2.3987298e-04  3.1753542e-04]
 [-2.8110290e-04  2.9986209e-04  5.2657731e-07]
 [-1.6259202e-01 -3.3987752e-01  4.2978257e-02]
 [ 1.2637445e-01 -4.7228951e-02 -4.0220831e-02]
 [ 4.6022257e-01  5.2243763e-01 -3.8248798e-01]
 [ 2.2862750e-01 -4.6069324e-01  3.5097918e-01]
 [ 3.7709242e-01  4.8572844e-01  4.0290800e-01]
 [-1.9716284e-01  2.9504217e-02 -3.8523951e-01]
 [ 2.8855428e-01 -2.4599251e-01 -2.5458491e-01]
 [-3.7674072e-01  4.9584439e-01 -4.1248310e-01]
 [ 3.8596833e-01 -5.6661260e-01  2.8840122e-01]] 
Episode: 94: [[-1.7287971e-04  1.7697059e-04 -2.8833590e-04]
 [ 2.2609552e-04 -2.2867993e-04  3.0924942e-04]
 [-2.7430485e-04  2.9239050e-04 -2.4933770e-05]
 [-1.6257977e-01 -3.3988941e-01  4.2986967e-02]
 [ 1.2636317e-01 -4.7217987e-02 -4.0229190e-02]
 [ 4.6023169e-01  5.2242810e-01 -3.8251045e-01]
 [ 2.2862116e-01 -4.6068612e-01  3.5101417e-01]
 [ 3.7708440e-01  4.8573640e-01  4.0293700e-01]
 [-1.9717346e-01  2.9514654e-02 -3.8523430e-01]
 [ 2.8855428e-01 -2.4599251e-01 -2.5458491e-01]
 [-3.7674072e-01  4.9584439e-01 -4.1248310e-01]
 [ 3.8596833e-01 -5.6661260e-01  2.8840122e-01]] 
Episode: 95: [[-1.5933759e-04  1.6415739e-04 -2.7516304e-04]
 [ 2.1465882e-04 -2.1752922e-04  3.0122636e-04]
 [-2.6773615e-04  2.8540389e-04 -5.0298771e-05]
 [-1.6256733e-01 -3.3990121e-01  4.2996734e-02]
 [ 1.2635198e-01 -4.7207128e-02 -4.0237132e-02]
 [ 4.6024004e-01  5.2241951e-01 -3.8253406e-01]
 [ 2.2861637e-01 -4.6068031e-01  3.5105157e-01]
 [ 3.7707731e-01  4.8574340e-01  4.0296862e-01]
 [-1.9718383e-01  2.9524820e-02 -3.8522771e-01]
 [ 2.8855428e-01 -2.4599251e-01 -2.5458491e-01]
 [-3.7674072e-01  4.9584439e-01 -4.1248310e-01]
 [ 3.8596833e-01 -5.6661260e-01  2.8840122e-01]] 
Episode: 96: [[-1.2702422e-04  1.3217566e-04 -2.4384445e-04]
 [ 1.8420245e-04 -1.8712816e-04  2.7375770e-04]
 [-2.4230631e-04  2.5898937e-04 -9.1589041e-05]
 [-1.6253604e-01 -3.3993226e-01  4.3024529e-02]
 [ 1.2632182e-01 -4.7176994e-02 -4.0264238e-02]
 [ 4.6026790e-01  5.2239120e-01 -3.8256994e-01]
 [ 2.2859176e-01 -4.6065426e-01  3.5110271e-01]
 [ 3.7705082e-01  4.8577037e-01  4.0301326e-01]
 [-1.9721332e-01  2.9554319e-02 -3.8524294e-01]
 [ 2.8855428e-01 -2.4599251e-01 -2.5458491e-01]
 [-3.7674072e-01  4.9584439e-01 -4.1248310e-01]
 [ 3.8596833e-01 -5.6661260e-01  2.8840122e-01]] 
Episode: 97: [[-1.05430176e-04  1.10700908e-04 -2.18792018e-04]
 [ 1.63430683e-04 -1.66389786e-04  2.52234604e-04]
 [-2.28559904e-04  2.43718256e-04 -1.20652701e-04]
 [-1.62516266e-01 -3.39952141e-01  4.30431180e-02]
 [ 1.26302764e-01 -4.71576974e-02 -4.02818024e-02]
 [ 4.60286647e-01  5.22372365e-01 -3.82587373e-01]
 [ 2.28576094e-01 -4.60637063e-01  3.51131618e-01]
 [ 3.77033502e-01  4.85788196e-01  4.03036207e-01]
 [-1.97233632e-01  2.95745637e-02 -3.85262609e-01]
 [ 2.88554281e-01 -2.45992512e-01 -2.54584908e-01]
 [-3.76740724e-01  4.95844394e-01 -4.12483096e-01]
 [ 3.85968328e-01 -5.66612601e-01  2.88401216e-01]] 
Episode: 98: [[-6.8917172e-05  7.3696472e-05 -1.7979374e-04]
 [ 1.2717390e-04 -1.2979571e-04  2.1576314e-04]
 [-1.9729264e-04  2.1073126e-04 -1.6017462e-04]
 [-1.6248114e-01 -3.3998796e-01  4.3076284e-02]
 [ 1.2626748e-01 -4.7121845e-02 -4.0315732e-02]
 [ 4.6032003e-01  5.2233785e-01 -3.8262019e-01]
 [ 2.2854477e-01 -4.6060315e-01  3.5117114e-01]
 [ 3.7700140e-01  4.8582205e-01  4.0307447e-01]
 [-1.9726923e-01  2.9610589e-02 -3.8529566e-01]
 [ 2.8855428e-01 -2.4599251e-01 -2.5458491e-01]
 [-3.7674072e-01  4.9584439e-01 -4.1248310e-01]
 [ 3.8596833e-01 -5.6661260e-01  2.8840122e-01]] 
Episode: 99: [[-4.3166907e-05  4.7736623e-05 -1.5072152e-04]
 [ 1.0151420e-04 -1.0426448e-04  1.8922365e-04]
 [-1.7580768e-04  1.8794545e-04 -1.9070381e-04]
 [-1.6245662e-01 -3.4001288e-01  4.3100391e-02]
 [ 1.2624270e-01 -4.7096908e-02 -4.0339820e-02]
 [ 4.6034351e-01  5.2231348e-01 -3.8264561e-01]
 [ 2.2852328e-01 -4.6058029e-01  3.5120013e-01]
 [ 3.7697887e-01  4.8584563e-01  4.0310314e-01]
 [-1.9729440e-01  2.9635688e-02 -3.8531920e-01]
 [ 2.8855428e-01 -2.4599251e-01 -2.5458491e-01]
 [-3.7674072e-01  4.9584439e-01 -4.1248310e-01]
 [ 3.8596833e-01 -5.6661260e-01  2.8840122e-01]] 
Episode: 100: [[-1.9781628e-05  2.3868079e-05 -1.2461696e-04]
 [ 7.7664859e-05 -8.0251702e-05  1.6448120e-04]
 [-1.5373078e-04  1.6497530e-04 -2.1277567e-04]
 [-1.6243444e-01 -3.4003574e-01  4.3121703e-02]
 [ 1.2621953e-01 -4.7073320e-02 -4.0362593e-02]
 [ 4.6036568e-01  5.2229017e-01 -3.8266522e-01]
 [ 2.2850280e-01 -4.6055830e-01  3.5122469e-01]
 [ 3.7695855e-01  4.8586780e-01  4.0313101e-01]
 [-1.9731729e-01  2.9658841e-02 -3.8534281e-01]
 [ 2.8855428e-01 -2.4599251e-01 -2.5458491e-01]
 [-3.7674072e-01  4.9584439e-01 -4.1248310e-01]
 [ 3.8596833e-01 -5.6661260e-01  2.8840122e-01]] 
Episode: 101: [[ 6.8490590e-07  2.6330179e-06 -1.0217202e-04]
 [ 5.7136025e-05 -5.9192767e-05  1.4368049e-04]
 [-1.3415651e-04  1.4465298e-04 -2.3012284e-04]
 [-1.6241542e-01 -3.4005570e-01  4.3138452e-02]
 [ 1.2619957e-01 -4.7052614e-02 -4.0381785e-02]
 [ 4.6038482e-01  5.2226996e-01 -3.8268095e-01]
 [ 2.2848743e-01 -4.6054021e-01  3.5125279e-01]
 [ 3.7694383e-01  4.8588568e-01  4.0316170e-01]
 [-1.9733664e-01  2.9678715e-02 -3.8536069e-01]
 [ 2.8855428e-01 -2.4599251e-01 -2.5458491e-01]
 [-3.7674072e-01  4.9584439e-01 -4.1248310e-01]
 [ 3.8596833e-01 -5.6661260e-01  2.8840122e-01]] 
Episode: 102: [[ 2.98459963e-05 -2.69802076e-05 -6.86234926e-05]
 [ 2.78126081e-05 -2.95626251e-05  1.13122675e-04]
 [-1.06988176e-04  1.16964642e-04 -2.55213556e-04]
 [-1.62388325e-01 -3.40083510e-01  4.31648493e-02]
 [ 1.26171440e-01 -4.70239036e-02 -4.04095352e-02]
 [ 4.60412949e-01  5.22241354e-01 -3.82700980e-01]
 [ 2.28464961e-01 -4.60515171e-01  3.51286530e-01]
 [ 3.76921237e-01  4.85911041e-01  4.03197587e-01]
 [-1.97364628e-01  2.97069699e-02 -3.85389179e-01]
 [ 2.88554281e-01 -2.45992512e-01 -2.54584908e-01]
 [-3.76740724e-01  4.95844394e-01 -4.12483096e-01]
 [ 3.85968328e-01 -5.66612601e-01  2.88401216e-01]] 
Episode: 103: [[ 5.6690606e-05 -5.4140615e-05 -3.9411556e-05]
 [ 9.7872010e-07 -2.5416132e-06  8.7041415e-05]
 [-8.2639941e-05  9.2089285e-05 -2.8457976e-04]
 [-1.6236293e-01 -3.4010938e-01  4.3188933e-02]
 [ 1.2614498e-01 -4.6997119e-02 -4.0434573e-02]
 [ 4.6043816e-01  5.2221566e-01 -3.8272679e-01]
 [ 2.2844385e-01 -4.6049204e-01  3.5132006e-01]
 [ 3.7689918e-01  4.8593491e-01  4.0323380e-01]
 [-1.9739103e-01  2.9733440e-02 -3.8541159e-01]
 [ 2.8855428e-01 -2.4599251e-01 -2.5458491e-01]
 [-3.7674072e-01  4.9584439e-01 -4.1248310e-01]
 [ 3.8596833e-01 -5.6661260e-01  2.8840122e-01]] 
Episode: 104: [[ 9.3101080e-05 -9.0787245e-05 -5.0756159e-07]
 [-3.5660953e-05  3.4263052e-05  5.1541967e-05]
 [-4.8592297e-05  5.7463487e-05 -3.2288165e-04]
 [-1.6232774e-01 -3.4014493e-01  4.3223318e-02]
 [ 1.2610866e-01 -4.6960492e-02 -4.0469162e-02]
 [ 4.6047252e-01  5.2218068e-01 -3.8276190e-01]
 [ 2.2841215e-01 -4.6045873e-01  3.5135815e-01]
 [ 3.7686652e-01  4.8596907e-01  4.0327659e-01]
 [-1.9742720e-01  2.9769713e-02 -3.8544312e-01]
 [ 2.8855428e-01 -2.4599251e-01 -2.5458491e-01]
 [-3.7674072e-01  4.9584439e-01 -4.1248310e-01]
 [ 3.8596833e-01 -5.6661260e-01  2.8840122e-01]] 
Episode: 105: [[ 1.3630660e-04 -1.3452419e-04  4.5084700e-05]
 [-7.9532292e-05  7.8537203e-05  8.2364886e-06]
 [-6.4437204e-06  1.4635029e-05 -3.6429329e-04]
 [-1.6228567e-01 -3.4018770e-01  4.3264691e-02]
 [ 1.2606509e-01 -4.6916388e-02 -4.0511623e-02]
 [ 4.6051422e-01  5.2213800e-01 -3.8280073e-01]
 [ 2.2837164e-01 -4.6041662e-01  3.5139552e-01]
 [ 3.7682575e-01  4.8601156e-01  4.0331981e-01]
 [-1.9747052e-01  2.9813398e-02 -3.8548368e-01]
 [ 2.8855428e-01 -2.4599251e-01 -2.5458491e-01]
 [-3.7674072e-01  4.9584439e-01 -4.1248310e-01]
 [ 3.8596833e-01 -5.6661260e-01  2.8840122e-01]] 
Episode: 106: [[ 1.65967489e-04 -1.64959303e-04  7.88458347e-05]
 [-1.11023415e-04  1.10229113e-04 -2.57275005e-05]
 [ 2.65224244e-05 -1.74914730e-05 -3.80123704e-04]
 [-1.62257522e-01 -3.40216815e-01  4.32928577e-02]
 [ 1.26034766e-01 -4.68855835e-02 -4.05426212e-02]
 [ 4.60544467e-01  5.22107601e-01 -3.82816702e-01]
 [ 2.28344679e-01 -4.60387528e-01  3.51416826e-01]
 [ 3.76799047e-01  4.86039847e-01  4.03346449e-01]
 [-1.97500229e-01  2.98433788e-02 -3.85518610e-01]
 [ 2.88554281e-01 -2.45992512e-01 -2.54584908e-01]
 [-3.76740724e-01  4.95844394e-01 -4.12483096e-01]
 [ 3.85968328e-01 -5.66612601e-01  2.88401216e-01]] 
Episode: 107: [[ 1.83221404e-04 -1.82115939e-04  1.00261284e-04]
 [-1.29189575e-04  1.28059575e-04 -4.55296577e-05]
 [ 4.53632310e-05 -3.43443680e-05 -3.87971493e-04]
 [-1.62241444e-01 -3.40232939e-01  4.33096364e-02]
 [ 1.26017541e-01 -4.68683541e-02 -4.05596718e-02]
 [ 4.60562587e-01  5.22091269e-01 -3.82820696e-01]
 [ 2.28332326e-01 -4.60373670e-01  3.51433277e-01]
 [ 3.76785725e-01  4.86053377e-01  4.03364450e-01]
 [-1.97516471e-01  2.98592821e-02 -3.85536104e-01]
 [ 2.88554281e-01 -2.45992512e-01 -2.54584908e-01]
 [-3.76740724e-01  4.95844394e-01 -4.12483096e-01]
 [ 3.85968328e-01 -5.66612601e-01  2.88401216e-01]] 
Episode: 108: [[ 1.90538296e-04 -1.89363942e-04  1.10774236e-04]
 [-1.37168056e-04  1.35647948e-04 -5.49816796e-05]
 [ 5.37943997e-05 -4.13975358e-05 -3.89413734e-04]
 [-1.62234798e-01 -3.40239644e-01  4.33171950e-02]
 [ 1.26010209e-01 -4.68611717e-02 -4.05670628e-02]
 [ 4.60569441e-01  5.22085249e-01 -3.82822663e-01]
 [ 2.28328675e-01 -4.60368782e-01  3.51441413e-01]
 [ 3.76781315e-01  4.86057729e-01  4.03372586e-01]
 [-1.97522983e-01  2.98655853e-02 -3.85542661e-01]
 [ 2.88554281e-01 -2.45992512e-01 -2.54584908e-01]
 [-3.76740724e-01  4.95844394e-01 -4.12483096e-01]
 [ 3.85968328e-01 -5.66612601e-01  2.88401216e-01]] 
Episode: 109: [[ 1.7756992e-04 -1.7626437e-04  1.0024731e-04]
 [-1.2524480e-04  1.2321242e-04 -4.4318003e-05]
 [ 4.4396595e-05 -2.9805111e-05 -3.7021551e-04]
 [-1.6224818e-01 -3.4022620e-01  4.3304499e-02]
 [ 1.2602261e-01 -4.6873875e-02 -4.0554807e-02]
 [ 4.6055692e-01  5.2209884e-01 -3.8280830e-01]
 [ 2.2834437e-01 -4.6038374e-01  3.5143161e-01]
 [ 3.7679631e-01  4.8604232e-01  4.0336430e-01]
 [-1.9750987e-01  2.9852040e-02 -3.8553074e-01]
 [ 2.8855428e-01 -2.4599251e-01 -2.5458491e-01]
 [-3.7674072e-01  4.9584439e-01 -4.1248310e-01]
 [ 3.8596833e-01 -5.6661260e-01  2.8840122e-01]] 
Episode: 110: [[ 1.71957858e-04 -1.70413943e-04  9.69779139e-05]
 [-1.20367804e-04  1.17915450e-04 -3.95999268e-05]
 [ 4.14006099e-05 -2.50064313e-05 -3.61525599e-04]
 [-1.62253678e-01 -3.40220422e-01  4.33004312e-02]
 [ 1.26027375e-01 -4.68789674e-02 -4.05497253e-02]
 [ 4.60550934e-01  5.22105575e-01 -3.82804841e-01]
 [ 2.28352189e-01 -4.60391104e-01  3.51425886e-01]
 [ 3.76803279e-01  4.86034632e-01  4.03361946e-01]
 [-1.97504267e-01  2.98461150e-02 -3.85522038e-01]
 [ 2.88554281e-01 -2.45992512e-01 -2.54584908e-01]
 [-3.76740724e-01  4.95844394e-01 -4.12483096e-01]
 [ 3.85968328e-01 -5.66612601e-01  2.88401216e-01]] 
Episode: 111: [[ 1.7311602e-04 -1.7134241e-04  9.8722092e-05]
 [-1.2193360e-04  1.1899138e-04 -4.0388124e-05]
 [ 4.5056051e-05 -2.6513708e-05 -3.6214024e-04]
 [-1.6225192e-01 -3.4022179e-01  4.3302488e-02]
 [ 1.2602538e-01 -4.6877388e-02 -4.0550828e-02]
 [ 4.6055090e-01  5.2210653e-01 -3.8281184e-01]
 [ 2.2835308e-01 -4.6039164e-01  3.5142922e-01]
 [ 3.7680304e-01  4.8603362e-01  4.0336552e-01]
 [-1.9750565e-01  2.9846968e-02 -3.8551590e-01]
 [ 2.8855428e-01 -2.4599251e-01 -2.5458491e-01]
 [-3.7674072e-01  4.9584439e-01 -4.1248310e-01]
 [ 3.8596833e-01 -5.6661260e-01  2.8840122e-01]] 
Episode: 112: [[ 1.8293141e-04 -1.8100216e-04  1.0795891e-04]
 [-1.3118029e-04  1.2791419e-04 -4.7938811e-05]
 [ 5.3714753e-05 -3.4445256e-05 -3.7494735e-04]
 [-1.6224170e-01 -3.4023175e-01  4.3311413e-02]
 [ 1.2601550e-01 -4.6867788e-02 -4.0559240e-02]
 [ 4.6055770e-01  5.2209973e-01 -3.8282886e-01]
 [ 2.2834714e-01 -4.6038485e-01  3.5144636e-01]
 [ 3.7679598e-01  4.8603997e-01  4.0337977e-01]
 [-1.9751482e-01  2.9855963e-02 -3.8551491e-01]
 [ 2.8855428e-01 -2.4599251e-01 -2.5458491e-01]
 [-3.7674072e-01  4.9584439e-01 -4.1248310e-01]
 [ 3.8596833e-01 -5.6661260e-01  2.8840122e-01]] 
Episode: 113: [[ 1.83097523e-04 -1.81002062e-04  1.07207175e-04]
 [-1.31005247e-04  1.27286607e-04 -4.64173245e-05]
 [ 5.36177977e-05 -3.32790660e-05 -3.77156975e-04]
 [-1.62241235e-01 -3.40231985e-01  4.33104038e-02]
 [ 1.26015261e-01 -4.68679331e-02 -4.05581594e-02]
 [ 4.60556448e-01  5.22101402e-01 -3.82833898e-01]
 [ 2.28349775e-01 -4.60387141e-01  3.51454228e-01]
 [ 3.76797646e-01  4.86037284e-01  4.03384775e-01]
 [-1.97514683e-01  2.98554581e-02 -3.85508478e-01]
 [ 2.88554281e-01 -2.45992512e-01 -2.54584908e-01]
 [-3.76740724e-01  4.95844394e-01 -4.12483096e-01]
 [ 3.85968328e-01 -5.66612601e-01  2.88401216e-01]] 
Episode: 114: [[ 1.7620373e-04 -1.7364671e-04  9.9257442e-05]
 [-1.2338207e-04  1.1909029e-04 -3.6883015e-05]
 [ 4.6940579e-05 -2.5172600e-05 -3.7473114e-04]
 [-1.6224720e-01 -3.4022540e-01  4.3303911e-02]
 [ 1.2602170e-01 -4.6874981e-02 -4.0550627e-02]
 [ 4.6054929e-01  5.2210957e-01 -3.8283342e-01]
 [ 2.2835904e-01 -4.6039656e-01  3.5145628e-01]
 [ 3.7680534e-01  4.8602805e-01  4.0338317e-01]
 [-1.9750756e-01  2.9847756e-02 -3.8549280e-01]
 [ 2.8855428e-01 -2.4599251e-01 -2.5458491e-01]
 [-3.7674072e-01  4.9584439e-01 -4.1248310e-01]
 [ 3.8596833e-01 -5.6661260e-01  2.8840122e-01]] 
Episode: 115: [[ 1.60829062e-04 -1.57547416e-04  8.32276637e-05]
 [-1.07432163e-04  1.02393344e-04 -1.90596165e-05]
 [ 3.19611936e-05 -8.26356609e-06 -3.62616265e-04]
 [-1.62261590e-01 -3.40210110e-01  4.32895795e-02]
 [ 1.26036376e-01 -4.68904674e-02 -4.05349471e-02]
 [ 4.60534602e-01  5.22125959e-01 -3.82821560e-01]
 [ 2.28376925e-01 -4.60415184e-01  3.51450861e-01]
 [ 3.76821280e-01  4.86010104e-01  4.03374106e-01]
 [-1.97491795e-01  2.98311897e-02 -3.85470837e-01]
 [ 2.88554281e-01 -2.45992512e-01 -2.54584908e-01]
 [-3.76740724e-01  4.95844394e-01 -4.12483096e-01]
 [ 3.85968328e-01 -5.66612601e-01  2.88401216e-01]] 
Episode: 116: [[ 1.3362360e-04 -1.2943936e-04  5.4267432e-05]
 [-7.9119112e-05  7.3371149e-05  1.2070648e-05]
 [ 3.9444303e-06  2.1557325e-05 -3.4330503e-04]
 [-1.6228805e-01 -3.4018254e-01  4.3261703e-02]
 [ 1.2606362e-01 -4.6918448e-02 -4.0505420e-02]
 [ 4.6050626e-01  5.2215594e-01 -3.8280424e-01]
 [ 2.2840780e-01 -4.6044669e-01  3.5144210e-01]
 [ 3.7685055e-01  4.8597902e-01  4.0336260e-01]
 [-1.9746329e-01  2.9801922e-02 -3.8543168e-01]
 [ 2.8855428e-01 -2.4599251e-01 -2.5458491e-01]
 [-3.7674072e-01  4.9584439e-01 -4.1248310e-01]
 [ 3.8596833e-01 -5.6661260e-01  2.8840122e-01]] 
Episode: 117: [[ 1.11374473e-04 -1.05601575e-04  3.11042131e-05]
 [-5.59894252e-05  4.89066661e-05  3.68118053e-05]
 [-1.88568920e-05  4.81220668e-05 -3.23341257e-04]
 [-1.62307963e-01 -3.40160489e-01  4.32441123e-02]
 [ 1.26085326e-01 -4.69415933e-02 -4.04827595e-02]
 [ 4.60486680e-01  5.22180140e-01 -3.82776856e-01]
 [ 2.28431329e-01 -4.60473031e-01  3.51428509e-01]
 [ 3.76870781e-01  4.85954076e-01  4.03340191e-01]
 [-1.97440565e-01  2.97772624e-02 -3.85408133e-01]
 [ 2.88554281e-01 -2.45992512e-01 -2.54584908e-01]
 [-3.76740724e-01  4.95844394e-01 -4.12483096e-01]
 [ 3.85968328e-01 -5.66612601e-01  2.88401216e-01]] 
Episode: 118: [[ 8.2309904e-05 -7.5223012e-05  2.2744035e-07]
 [-2.5901560e-05  1.7682984e-05  6.8986337e-05]
 [-4.9813483e-05  8.1077436e-05 -2.9994111e-04]
 [-1.6233484e-01 -3.4013176e-01  4.3218385e-02]
 [ 1.2611392e-01 -4.6971384e-02 -4.0452823e-02]
 [ 4.6045727e-01  5.2221221e-01 -3.8275084e-01]
 [ 2.2846165e-01 -4.6050578e-01  3.5141242e-01]
 [ 3.7689871e-01  4.8592243e-01  4.0331808e-01]
 [-1.9741021e-01  2.9745733e-02 -3.8537470e-01]
 [ 2.8855428e-01 -2.4599251e-01 -2.5458491e-01]
 [-3.7674072e-01  4.9584439e-01 -4.1248310e-01]
 [ 3.8596833e-01 -5.6661260e-01  2.8840122e-01]] 
Episode: 119: [[ 5.71018572e-05 -4.93090047e-05 -2.66391744e-05]
 [ 5.36731079e-07 -9.39711754e-06  9.78999014e-05]
 [-7.85287557e-05  1.10322675e-04 -2.82734225e-04]
 [-1.62358463e-01 -3.40107024e-01  4.31949496e-02]
 [ 1.26138821e-01 -4.69970070e-02 -4.04263139e-02]
 [ 4.60429966e-01  5.22240758e-01 -3.82732511e-01]
 [ 2.28488624e-01 -4.60533887e-01  3.51399779e-01]
 [ 3.76923978e-01  4.85894829e-01  4.03301895e-01]
 [-1.97383508e-01  2.97184475e-02 -3.85342687e-01]
 [ 2.88554281e-01 -2.45992512e-01 -2.54584908e-01]
 [-3.76740724e-01  4.95844394e-01 -4.12483096e-01]
 [ 3.85968328e-01 -5.66612601e-01  2.88401216e-01]] 
Episode: 120: [[ 1.6950900e-05 -8.2063098e-06 -6.6642475e-05]
 [ 4.1623422e-05 -5.1333958e-05  1.4098975e-04]
 [-1.2303126e-04  1.5569790e-04 -2.5245341e-04]
 [-1.6239738e-01 -3.4006685e-01  4.3156404e-02]
 [ 1.2617901e-01 -4.7037907e-02 -4.0383749e-02]
 [ 4.6038786e-01  5.2228504e-01 -3.8269892e-01]
 [ 2.2853205e-01 -4.6057826e-01  3.5137680e-01]
 [ 3.7696502e-01  4.8585126e-01  4.0327567e-01]
 [-1.9734210e-01  2.9676065e-02 -3.8529825e-01]
 [ 2.8855428e-01 -2.4599251e-01 -2.5458491e-01]
 [-3.7674072e-01  4.9584439e-01 -4.1248310e-01]
 [ 3.8596833e-01 -5.6661260e-01  2.8840122e-01]] 
Episode: 121: [[-2.3185716e-05  3.3230877e-05 -1.0329577e-04]
 [ 8.2278610e-05 -9.3099770e-05  1.8134588e-04]
 [-1.6751388e-04  2.0143884e-04 -2.1910742e-04]
 [-1.6243650e-01 -3.4002611e-01  4.3120757e-02]
 [ 1.2621926e-01 -4.7079083e-02 -4.0342931e-02]
 [ 4.6034813e-01  5.2232802e-01 -3.8265640e-01]
 [ 2.2857465e-01 -4.6062267e-01  3.5134509e-01]
 [ 3.7700480e-01  4.8580819e-01  4.0323991e-01]
 [-1.9730110e-01  2.9633762e-02 -3.8526124e-01]
 [ 2.8855428e-01 -2.4599251e-01 -2.5458491e-01]
 [-3.7674072e-01  4.9584439e-01 -4.1248310e-01]
 [ 3.8596833e-01 -5.6661260e-01  2.8840122e-01]] 
Episode: 122: [[-5.8693138e-05  7.0157403e-05 -1.3617553e-04]
 [ 1.1869137e-04 -1.3063173e-04  2.1810818e-04]
 [-2.0705888e-04  2.4238919e-04 -1.9132676e-04]
 [-1.6247077e-01 -3.3999011e-01  4.3089759e-02]
 [ 1.2625498e-01 -4.7115792e-02 -4.0306553e-02]
 [ 4.6031263e-01  5.2236652e-01 -3.8262090e-01]
 [ 2.2861284e-01 -4.6066302e-01  3.5132134e-01]
 [ 3.7704059e-01  4.8576936e-01  4.0321150e-01]
 [-1.9726425e-01  2.9595643e-02 -3.8522381e-01]
 [ 2.8855428e-01 -2.4599251e-01 -2.5458491e-01]
 [-3.7674072e-01  4.9584439e-01 -4.1248310e-01]
 [ 3.8596833e-01 -5.6661260e-01  2.8840122e-01]] 
Episode: 123: [[-1.0760893e-04  1.2039352e-04 -1.8300640e-04]
 [ 1.6841826e-04 -1.8139559e-04  2.6788912e-04]
 [-2.5996219e-04  2.9641809e-04 -1.5028822e-04]
 [-1.6251794e-01 -3.3994132e-01  4.3045998e-02]
 [ 1.2630369e-01 -4.7165480e-02 -4.0257592e-02]
 [ 4.6026424e-01  5.2241755e-01 -3.8257420e-01]
 [ 2.2866292e-01 -4.6071544e-01  3.5128170e-01]
 [ 3.7708846e-01  4.8571837e-01  4.0316680e-01]
 [-1.9721460e-01  2.9544765e-02 -3.8517687e-01]
 [ 2.8855428e-01 -2.4599251e-01 -2.5458491e-01]
 [-3.7674072e-01  4.9584439e-01 -4.1248310e-01]
 [ 3.8596833e-01 -5.6661260e-01  2.8840122e-01]] 
Episode: 124: [[-1.4124459e-04  1.5494585e-04 -2.1603344e-04]
 [ 2.0304686e-04 -2.1676486e-04  3.0314297e-04]
 [-2.9749941e-04  3.3439870e-04 -1.2457864e-04]
 [-1.6254997e-01 -3.3990809e-01  4.3015875e-02]
 [ 1.2633720e-01 -4.7199730e-02 -4.0223692e-02]
 [ 4.6022969e-01  5.2245361e-01 -3.8254556e-01]
 [ 2.2869845e-01 -4.6075237e-01  3.5125920e-01]
 [ 3.7712204e-01  4.8568258e-01  4.0313786e-01]
 [-1.9718008e-01  2.9509446e-02 -3.8514134e-01]
 [ 2.8855428e-01 -2.4599251e-01 -2.5458491e-01]
 [-3.7674072e-01  4.9584439e-01 -4.1248310e-01]
 [ 3.8596833e-01 -5.6661260e-01  2.8840122e-01]] 
Episode: 125: [[-1.55135494e-04  1.69573992e-04 -2.30364181e-04]
 [ 2.17974550e-04 -2.32296530e-04  3.19273764e-04]
 [-3.15526064e-04  3.52533069e-04 -1.17355296e-04]
 [-1.62562206e-01 -3.39894831e-01  4.30043377e-02]
 [ 1.26350865e-01 -4.72139977e-02 -4.02091295e-02]
 [ 4.60214317e-01  5.22470057e-01 -3.82534683e-01]
 [ 2.28714526e-01 -4.60769355e-01  3.51255178e-01]
 [ 3.77136409e-01  4.85666513e-01  4.03127819e-01]
 [-1.97165012e-01  2.94937808e-02 -3.85122567e-01]
 [ 2.88554281e-01 -2.45992512e-01 -2.54584908e-01]
 [-3.76740724e-01  4.95844394e-01 -4.12483096e-01]
 [ 3.85968328e-01 -5.66612601e-01  2.88401216e-01]] 
Episode: 126: [[-1.7399766e-04  1.8892688e-04 -2.4921334e-04]
 [ 2.3731834e-04 -2.5198996e-04  3.3931655e-04]
 [-3.3780694e-04  3.7469185e-04 -1.0099974e-04]
 [-1.6257939e-01 -3.3987689e-01  4.2988505e-02]
 [ 1.2636884e-01 -4.7232278e-02 -4.0190939e-02]
 [ 4.6019503e-01  5.2249038e-01 -3.8251311e-01]
 [ 2.2873445e-01 -4.6078995e-01  3.5123834e-01]
 [ 3.7715492e-01  4.8564661e-01  4.0310708e-01]
 [-1.9714576e-01  2.9474154e-02 -3.8510609e-01]
 [ 2.8855428e-01 -2.4599251e-01 -2.5458491e-01]
 [-3.7674072e-01  4.9584439e-01 -4.1248310e-01]
 [ 3.8596833e-01 -5.6661260e-01  2.8840122e-01]] 
Episode: 127: [[-1.8807036e-04  2.0343876e-04 -2.6374031e-04]
 [ 2.5127156e-04 -2.6615756e-04  3.5335578e-04]
 [-3.5403206e-04  3.9073519e-04 -8.9366462e-05]
 [-1.6259119e-01 -3.3986425e-01  4.2978793e-02]
 [ 1.2638147e-01 -4.7245104e-02 -4.0178683e-02]
 [ 4.6018231e-01  5.2250427e-01 -3.8249433e-01]
 [ 2.2874609e-01 -4.6080309e-01  3.5121733e-01]
 [ 3.7716538e-01  4.8563439e-01  4.0308225e-01]
 [-1.9713333e-01  2.9461158e-02 -3.8510212e-01]
 [ 2.8855428e-01 -2.4599251e-01 -2.5458491e-01]
 [-3.7674072e-01  4.9584439e-01 -4.1248310e-01]
 [ 3.8596833e-01 -5.6661260e-01  2.8840122e-01]] 
Episode: 128: [[-2.0140156e-04  2.1712638e-04 -2.7921677e-04]
 [ 2.6418336e-04 -2.7915271e-04  3.6690696e-04]
 [-3.6799102e-04  4.0461571e-04 -7.4950345e-05]
 [-1.6260245e-01 -3.3985227e-01  4.2967696e-02]
 [ 1.2639311e-01 -4.7256801e-02 -4.0167071e-02]
 [ 4.6017054e-01  5.2251691e-01 -3.8247511e-01]
 [ 2.2875780e-01 -4.6081591e-01  3.5120243e-01]
 [ 3.7717682e-01  4.8562211e-01  4.0306416e-01]
 [-1.9712117e-01  2.9448759e-02 -3.8509759e-01]
 [ 2.8855428e-01 -2.4599251e-01 -2.5458491e-01]
 [-3.7674072e-01  4.9584439e-01 -4.1248310e-01]
 [ 3.8596833e-01 -5.6661260e-01  2.8840122e-01]] 
Episode: 129: [[-2.0474450e-04  2.2058314e-04 -2.8493730e-04]
 [ 2.6721918e-04 -2.8203565e-04  3.7069223e-04]
 [-3.7196756e-04  4.0768422e-04 -7.1354407e-05]
 [-1.6260390e-01 -3.3985037e-01  4.2966221e-02]
 [ 1.2639499e-01 -4.7258578e-02 -4.0165272e-02]
 [ 4.6016774e-01  5.2251941e-01 -3.8246959e-01]
 [ 2.2875892e-01 -4.6081778e-01  3.5119453e-01]
 [ 3.7717852e-01  4.8562026e-01  4.0305480e-01]
 [-1.9711906e-01  2.9446848e-02 -3.8509986e-01]
 [ 2.8855428e-01 -2.4599251e-01 -2.5458491e-01]
 [-3.7674072e-01  4.9584439e-01 -4.1248310e-01]
 [ 3.8596833e-01 -5.6661260e-01  2.8840122e-01]] 
Episode: 130: [[-2.0026238e-04  2.1628565e-04 -2.8349858e-04]
 [ 2.6291161e-04 -2.7757871e-04  3.6768909e-04]
 [-3.7010206e-04  4.0413815e-04 -7.8760837e-05]
 [-1.6259736e-01 -3.3985633e-01  4.2972542e-02]
 [ 1.2638958e-01 -4.7253083e-02 -4.0170226e-02]
 [ 4.6017182e-01  5.2251464e-01 -3.8247326e-01]
 [ 2.2875215e-01 -4.6081179e-01  3.5119537e-01]
 [ 3.7717247e-01  4.8562613e-01  4.0305403e-01]
 [-1.9712432e-01  2.9452423e-02 -3.8510743e-01]
 [ 2.8855428e-01 -2.4599251e-01 -2.5458491e-01]
 [-3.7674072e-01  4.9584439e-01 -4.1248310e-01]
 [ 3.8596833e-01 -5.6661260e-01  2.8840122e-01]] 
Episode: 131: [[-1.84080316e-04  2.00427909e-04 -2.71643279e-04]
 [ 2.47714343e-04 -2.62301241e-04  3.55230644e-04]
 [-3.57953424e-04  3.90336587e-04 -1.01654485e-04]
 [-1.62579179e-01 -3.39873791e-01  4.29891013e-02]
 [ 1.26372948e-01 -4.72365022e-02 -4.01852950e-02]
 [ 4.60186392e-01  5.22499442e-01 -3.82492185e-01]
 [ 2.28735954e-01 -4.60796118e-01  3.51215929e-01]
 [ 3.77156287e-01  4.85642105e-01  4.03070420e-01]
 [-1.97140455e-01  2.94687487e-02 -3.85118306e-01]
 [ 2.88554281e-01 -2.45992512e-01 -2.54584908e-01]
 [-3.76740724e-01  4.95844394e-01 -4.12483096e-01]
 [ 3.85968328e-01 -5.66612601e-01  2.88401216e-01]] 
Episode: 132: [[-1.5848677e-04  1.7504515e-04 -2.5242395e-04]
 [ 2.2313200e-04 -2.3762605e-04  3.3549228e-04]
 [-3.3606956e-04  3.6695541e-04 -1.3614164e-04]
 [-1.6255173e-01 -3.3990064e-01  4.3012790e-02]
 [ 1.2634675e-01 -4.7210351e-02 -4.0208176e-02]
 [ 4.6020889e-01  5.2247602e-01 -3.8252661e-01]
 [ 2.2871117e-01 -4.6077144e-01  3.5125005e-01]
 [ 3.7713137e-01  4.8566708e-01  4.0310323e-01]
 [-1.9716601e-01  2.9494397e-02 -3.8513231e-01]
 [ 2.8855428e-01 -2.4599251e-01 -2.5458491e-01]
 [-3.7674072e-01  4.9584439e-01 -4.1248310e-01]
 [ 3.8596833e-01 -5.6661260e-01  2.8840122e-01]] 
Episode: 133: [[-1.4269738e-04  1.5912182e-04 -2.4234096e-04]
 [ 2.0780572e-04 -2.2223551e-04  3.2497451e-04]
 [-3.2349199e-04  3.5265382e-04 -1.6376933e-04]
 [-1.6253476e-01 -3.3991751e-01  4.3025102e-02]
 [ 1.2633054e-01 -4.7194041e-02 -4.0220000e-02]
 [ 4.6022028e-01  5.2246308e-01 -3.8255876e-01]
 [ 2.2869702e-01 -4.6075648e-01  3.5127801e-01]
 [ 3.7711704e-01  4.8568195e-01  4.0313429e-01]
 [-1.9718245e-01  2.9510912e-02 -3.8513589e-01]
 [ 2.8855428e-01 -2.4599251e-01 -2.5458491e-01]
 [-3.7674072e-01  4.9584439e-01 -4.1248310e-01]
 [ 3.8596833e-01 -5.6661260e-01  2.8840122e-01]] 
Episode: 134: [[-1.2686659e-04  1.4296424e-04 -2.3236519e-04]
 [ 1.9207748e-04 -2.0632113e-04  3.1395111e-04]
 [-3.0941435e-04  3.3692049e-04 -1.8974241e-04]
 [-1.6251747e-01 -3.3993486e-01  4.3038301e-02]
 [ 1.2631358e-01 -4.7176935e-02 -4.0233158e-02]
 [ 4.6023276e-01  5.2244890e-01 -3.8259009e-01]
 [ 2.2868064e-01 -4.6073961e-01  3.5129994e-01]
 [ 3.7710059e-01  4.8569879e-01  4.0316057e-01]
 [-1.9719982e-01  2.9528426e-02 -3.8514298e-01]
 [ 2.8855428e-01 -2.4599251e-01 -2.5458491e-01]
 [-3.7674072e-01  4.9584439e-01 -4.1248310e-01]
 [ 3.8596833e-01 -5.6661260e-01  2.8840122e-01]] 
Episode: 135: [[-1.01323174e-04  1.17363939e-04 -2.11396822e-04]
 [ 1.66338912e-04 -1.80546122e-04  2.92412675e-04]
 [-2.85558490e-04  3.12122836e-04 -2.22485469e-04]
 [-1.62490740e-01 -3.39961410e-01  4.30621952e-02]
 [ 1.26286790e-01 -4.71501648e-02 -4.02566232e-02]
 [ 4.60255206e-01  5.22425354e-01 -3.82626355e-01]
 [ 2.28654742e-01 -4.60713595e-01  3.51327270e-01]
 [ 3.77074301e-01  4.85725135e-01  4.03193414e-01]
 [-1.97226748e-01  2.95551866e-02 -3.85162145e-01]
 [ 2.88554281e-01 -2.45992512e-01 -2.54584908e-01]
 [-3.76740724e-01  4.95844394e-01 -4.12483096e-01]
 [ 3.85968328e-01 -5.66612601e-01  2.88401216e-01]] 
Episode: 136: [[-9.74535797e-05  1.13003916e-04 -2.13945590e-04]
 [ 1.62386321e-04 -1.76168702e-04  2.93837191e-04]
 [-2.82775873e-04  3.07332404e-04 -2.36639346e-04]
 [-1.62485123e-01 -3.39967191e-01  4.30633873e-02]
 [ 1.26281127e-01 -4.71441709e-02 -4.02582251e-02]
 [ 4.60254550e-01  5.22423446e-01 -3.82650346e-01]
 [ 2.28649452e-01 -4.60707575e-01  3.51338774e-01]
 [ 3.77069563e-01  4.85730767e-01  4.03212607e-01]
 [-1.97232068e-01  2.95609795e-02 -3.85157257e-01]
 [ 2.88554281e-01 -2.45992512e-01 -2.54584908e-01]
 [-3.76740724e-01  4.95844394e-01 -4.12483096e-01]
 [ 3.85968328e-01 -5.66612601e-01  2.88401216e-01]] 
Episode: 137: [[-1.07203254e-04  1.21858313e-04 -2.29112979e-04]
 [ 1.71759166e-04 -1.84781180e-04  3.07377806e-04]
 [-2.91993347e-04  3.14055593e-04 -2.35313113e-04]
 [-1.62492961e-01 -3.39959949e-01  4.30528335e-02]
 [ 1.26288518e-01 -4.71510254e-02 -4.02485058e-02]
 [ 4.60241944e-01  5.22432864e-01 -3.82659525e-01]
 [ 2.28654832e-01 -4.60712314e-01  3.51330131e-01]
 [ 3.77076209e-01  4.85725403e-01  4.03212816e-01]
 [-1.97224677e-01  2.95544453e-02 -3.85145873e-01]
 [ 2.88554281e-01 -2.45992512e-01 -2.54584908e-01]
 [-3.76740724e-01  4.95844394e-01 -4.12483096e-01]
 [ 3.85968328e-01 -5.66612601e-01  2.88401216e-01]] 
Episode: 138: [[-1.2321219e-04  1.3720860e-04 -2.4742741e-04]
 [ 1.8666497e-04 -1.9919185e-04  3.2418454e-04]
 [-3.0789946e-04  3.2785523e-04 -2.2441414e-04]
 [-1.6250770e-01 -3.3994564e-01  4.3037578e-02]
 [ 1.2630260e-01 -4.7164712e-02 -4.0233050e-02]
 [ 4.6022382e-01  5.2244860e-01 -3.8265488e-01]
 [ 2.2866563e-01 -4.6072310e-01  3.5130790e-01]
 [ 3.7708786e-01  4.8571411e-01  4.0319946e-01]
 [-1.9721107e-01  2.9541431e-02 -3.8513690e-01]
 [ 2.8855428e-01 -2.4599251e-01 -2.5458491e-01]
 [-3.7674072e-01  4.9584439e-01 -4.1248310e-01]
 [ 3.8596833e-01 -5.6661260e-01  2.8840122e-01]] 
Episode: 139: [[-1.4612004e-04  1.5936072e-04 -2.7276494e-04]
 [ 2.0844101e-04 -2.2053065e-04  3.4739531e-04]
 [-3.2942294e-04  3.4810061e-04 -2.0564778e-04]
 [-1.6252977e-01 -3.3992422e-01  4.3014571e-02]
 [ 1.2632421e-01 -4.7185939e-02 -4.0210087e-02]
 [ 4.6019849e-01  5.2247173e-01 -3.8264573e-01]
 [ 2.2868423e-01 -4.6074128e-01  3.5128391e-01]
 [ 3.7710756e-01  4.8569494e-01  4.0318361e-01]
 [-1.9719037e-01  2.9521184e-02 -3.8512060e-01]
 [ 2.8855428e-01 -2.4599251e-01 -2.5458491e-01]
 [-3.7674072e-01  4.9584439e-01 -4.1248310e-01]
 [ 3.8596833e-01 -5.6661260e-01  2.8840122e-01]] 
Episode: 140: [[-1.5567856e-04  1.6851301e-04 -2.8324832e-04]
 [ 2.1705400e-04 -2.2900366e-04  3.5669806e-04]
 [-3.3840758e-04  3.5640469e-04 -1.9922956e-04]
 [-1.6253871e-01 -3.3991560e-01  4.3005884e-02]
 [ 1.2633295e-01 -4.7194574e-02 -4.0200409e-02]
 [ 4.6018702e-01  5.2248180e-01 -3.8264540e-01]
 [ 2.2869068e-01 -4.6074766e-01  3.5127074e-01]
 [ 3.7711433e-01  4.8568806e-01  4.0317616e-01]
 [-1.9718282e-01  2.9513707e-02 -3.8511741e-01]
 [ 2.8855428e-01 -2.4599251e-01 -2.5458491e-01]
 [-3.7674072e-01  4.9584439e-01 -4.1248310e-01]
 [ 3.8596833e-01 -5.6661260e-01  2.8840122e-01]] 
Episode: 141: [[-1.5524460e-04  1.6791045e-04 -2.8402641e-04]
 [ 2.1592689e-04 -2.2782487e-04  3.5713238e-04]
 [-3.3734809e-04  3.5491903e-04 -2.0261189e-04]
 [-1.6253759e-01 -3.3991691e-01  4.3007251e-02]
 [ 1.2633169e-01 -4.7193300e-02 -4.0200356e-02]
 [ 4.6018472e-01  5.2248245e-01 -3.8265753e-01]
 [ 2.2868823e-01 -4.6074513e-01  3.5126889e-01]
 [ 3.7711203e-01  4.8569047e-01  4.0318102e-01]
 [-1.9718473e-01  2.9515635e-02 -3.8511932e-01]
 [ 2.8855428e-01 -2.4599251e-01 -2.5458491e-01]
 [-3.7674072e-01  4.9584439e-01 -4.1248310e-01]
 [ 3.8596833e-01 -5.6661260e-01  2.8840122e-01]] 
Episode: 142: [[-1.6490239e-04  1.7692102e-04 -2.9690631e-04]
 [ 2.2556024e-04 -2.3691426e-04  3.6905528e-04]
 [-3.4611014e-04  3.6247342e-04 -1.9781705e-04]
 [-1.6254655e-01 -3.3990866e-01  4.2996664e-02]
 [ 1.2634061e-01 -4.7201887e-02 -4.0190119e-02]
 [ 4.6017054e-01  5.2249348e-01 -3.8266778e-01]
 [ 2.2869642e-01 -4.6075216e-01  3.5126501e-01]
 [ 3.7712169e-01  4.8568261e-01  4.0318385e-01]
 [-1.9717573e-01  2.9507324e-02 -3.8510537e-01]
 [ 2.8855428e-01 -2.4599251e-01 -2.5458491e-01]
 [-3.7674072e-01  4.9584439e-01 -4.1248310e-01]
 [ 3.8596833e-01 -5.6661260e-01  2.8840122e-01]] 
Episode: 143: [[-1.7239657e-04  1.8401130e-04 -3.0661895e-04]
 [ 2.3280812e-04 -2.4382243e-04  3.7826705e-04]
 [-3.5211258e-04  3.6762687e-04 -1.9356808e-04]
 [-1.6255343e-01 -3.3990228e-01  4.2989317e-02]
 [ 1.2634720e-01 -4.7208317e-02 -4.0182568e-02]
 [ 4.6015921e-01  5.2250201e-01 -3.8267824e-01]
 [ 2.2870253e-01 -4.6075749e-01  3.5126093e-01]
 [ 3.7712893e-01  4.8567677e-01  4.0318778e-01]
 [-1.9716890e-01  2.9501049e-02 -3.8509423e-01]
 [ 2.8855428e-01 -2.4599251e-01 -2.5458491e-01]
 [-3.7674072e-01  4.9584439e-01 -4.1248310e-01]
 [ 3.8596833e-01 -5.6661260e-01  2.8840122e-01]] 
Episode: 144: [[-1.4869824e-04  1.5932265e-04 -2.8685044e-04]
 [ 2.0887048e-04 -2.1904781e-04  3.5679006e-04]
 [-3.2684507e-04  3.4055649e-04 -2.1655134e-04]
 [-1.6252896e-01 -3.3992785e-01  4.3011278e-02]
 [ 1.2632197e-01 -4.7182526e-02 -4.0206898e-02]
 [ 4.6017972e-01  5.2247792e-01 -3.8271311e-01]
 [ 2.2867686e-01 -4.6073008e-01  3.5128239e-01]
 [ 3.7710503e-01  4.8570323e-01  4.0321669e-01]
 [-1.9719321e-01  2.9526567e-02 -3.8511220e-01]
 [ 2.8855428e-01 -2.4599251e-01 -2.5458491e-01]
 [-3.7674072e-01  4.9584439e-01 -4.1248310e-01]
 [ 3.8596833e-01 -5.6661260e-01  2.8840122e-01]] 
Episode: 145: [[-1.16229545e-04  1.25360806e-04 -2.60112312e-04]
 [ 1.76352551e-04 -1.85346304e-04  3.28100316e-04]
 [-2.92698096e-04  3.03660461e-04 -2.50082172e-04]
 [-1.62496030e-01 -3.39962423e-01  4.30397242e-02]
 [ 1.26287848e-01 -4.71474864e-02 -4.02392894e-02]
 [ 4.60207731e-01  5.22445142e-01 -3.82761091e-01]
 [ 2.28643149e-01 -4.60693568e-01  3.51316750e-01]
 [ 3.77073407e-01  4.85738665e-01  4.03260022e-01]
 [-1.97226182e-01  2.95612272e-02 -3.85134786e-01]
 [ 2.88554281e-01 -2.45992512e-01 -2.54584908e-01]
 [-3.76740724e-01  4.95844394e-01 -4.12483096e-01]
 [ 3.85968328e-01 -5.66612601e-01  2.88401216e-01]] 
Episode: 146: [[-1.04022962e-04  1.11679816e-04 -2.52459984e-04]
 [ 1.63851320e-04 -1.71767359e-04  3.18212056e-04]
 [-2.78145744e-04  2.86728493e-04 -2.60681991e-04]
 [-1.62483677e-01 -3.39976400e-01  4.30475697e-02]
 [ 1.26273960e-01 -4.71326709e-02 -4.02519070e-02]
 [ 4.60217088e-01  5.22431850e-01 -3.82784724e-01]
 [ 2.28630424e-01 -4.60677773e-01  3.51332933e-01]
 [ 3.77062559e-01  4.85753328e-01  4.03284550e-01]
 [-1.97238669e-01  2.95753144e-02 -3.85141850e-01]
 [ 2.88554281e-01 -2.45992512e-01 -2.54584908e-01]
 [-3.76740724e-01  4.95844394e-01 -4.12483096e-01]
 [ 3.85968328e-01 -5.66612601e-01  2.88401216e-01]] 
Episode: 147: [[-9.0442518e-05  9.7002157e-05 -2.4095473e-04]
 [ 1.4977308e-04 -1.5689358e-04  3.0535529e-04]
 [-2.6271565e-04  2.6932629e-04 -2.7204378e-04]
 [-1.6246998e-01 -3.3999136e-01  4.3059103e-02]
 [ 1.2625886e-01 -4.7116864e-02 -4.0266588e-02]
 [ 4.6022943e-01  5.2241659e-01 -3.8280374e-01]
 [ 2.2861592e-01 -4.6066105e-01  3.5134411e-01]
 [ 3.7704945e-01  4.8576936e-01  4.0330333e-01]
 [-1.9725296e-01  2.9590800e-02 -3.8515484e-01]
 [ 2.8855428e-01 -2.4599251e-01 -2.5458491e-01]
 [-3.7674072e-01  4.9584439e-01 -4.1248310e-01]
 [ 3.8596833e-01 -5.6661260e-01  2.8840122e-01]] 
Episode: 148: [[-7.0356095e-05  7.6481265e-05 -2.2098013e-04]
 [ 1.2945289e-04 -1.3609577e-04  2.8577141e-04]
 [-2.4100620e-04  2.4678471e-04 -2.9020189e-04]
 [-1.6244985e-01 -3.4001201e-01  4.3078911e-02]
 [ 1.2623748e-01 -4.7095127e-02 -4.0287990e-02]
 [ 4.6024910e-01  5.2239543e-01 -3.8282642e-01]
 [ 2.2859642e-01 -4.6064025e-01  3.5136035e-01]
 [ 3.7703067e-01  4.8579016e-01  4.0332681e-01]
 [-1.9727322e-01  2.9611718e-02 -3.8517028e-01]
 [ 2.8855428e-01 -2.4599251e-01 -2.5458491e-01]
 [-3.7674072e-01  4.9584439e-01 -4.1248310e-01]
 [ 3.8596833e-01 -5.6661260e-01  2.8840122e-01]] 
Episode: 149: [[-3.2963791e-05  3.8526239e-05 -1.8391349e-04]
 [ 9.1866306e-05 -9.8022108e-05  2.4897853e-04]
 [-2.0297112e-04  2.0762206e-04 -3.2552227e-04]
 [-1.6241282e-01 -3.4004980e-01  4.3114770e-02]
 [ 1.2619904e-01 -4.7056273e-02 -4.0326253e-02]
 [ 4.6028522e-01  5.2235746e-01 -3.8286534e-01]
 [ 2.2856076e-01 -4.6060282e-01  3.5139507e-01]
 [ 3.7699568e-01  4.8582748e-01  4.0336794e-01]
 [-1.9731033e-01  2.9649558e-02 -3.8520104e-01]
 [ 2.8855428e-01 -2.4599251e-01 -2.5458491e-01]
 [-3.7674072e-01  4.9584439e-01 -4.1248310e-01]
 [ 3.8596833e-01 -5.6661260e-01  2.8840122e-01]] 
Episode: 150: [[ 4.6506929e-07  4.3589157e-06 -1.4953580e-04]
 [ 5.8311245e-05 -6.3833606e-05  2.1532479e-04]
 [-1.6977866e-04  1.7230268e-04 -3.5816085e-04]
 [-1.6238026e-01 -3.4008339e-01  4.3146901e-02]
 [ 1.2616494e-01 -4.7021624e-02 -4.0360935e-02]
 [ 4.6031675e-01  5.2232319e-01 -3.8290194e-01]
 [ 2.2852883e-01 -4.6056888e-01  3.5142303e-01]
 [ 3.7696490e-01  4.8586091e-01  4.0340239e-01]
 [-1.9734344e-01  2.9683851e-02 -3.8522831e-01]
 [ 2.8855428e-01 -2.4599251e-01 -2.5458491e-01]
 [-3.7674072e-01  4.9584439e-01 -4.1248310e-01]
 [ 3.8596833e-01 -5.6661260e-01  2.8840122e-01]] 
Episode: 151: [[ 2.8142000e-05 -2.3873150e-05 -1.2096959e-04]
 [ 3.0404372e-05 -3.5340610e-05  1.8713216e-04]
 [-1.4165063e-04  1.4295080e-04 -3.8249852e-04]
 [-1.6235381e-01 -3.4011069e-01  4.3172203e-02]
 [ 1.2613681e-01 -4.6992995e-02 -4.0389527e-02]
 [ 4.6034315e-01  5.2229488e-01 -3.8292986e-01]
 [ 2.2850303e-01 -4.6054155e-01  3.5144556e-01]
 [ 3.7694073e-01  4.8588732e-01  4.0343109e-01]
 [-1.9737044e-01  2.9711872e-02 -3.8524890e-01]
 [ 2.8855428e-01 -2.4599251e-01 -2.5458491e-01]
 [-3.7674072e-01  4.9584439e-01 -4.1248310e-01]
 [ 3.8596833e-01 -5.6661260e-01  2.8840122e-01]] 
Episode: 152: [[ 7.39129246e-05 -7.02630568e-05 -7.42258126e-05]
 [-1.55983562e-05  1.12106045e-05  1.40165910e-04]
 [-9.54283241e-05  9.55797368e-05 -4.21867735e-04]
 [-1.62309095e-01 -3.40156257e-01  4.32161354e-02]
 [ 1.26090795e-01 -4.69464622e-02 -4.04365174e-02]
 [ 4.60388005e-01  5.22248328e-01 -3.82970035e-01]
 [ 2.28459328e-01 -4.60496008e-01  3.51483941e-01]
 [ 3.76898497e-01  4.85931784e-01  4.03473258e-01]
 [-1.97415292e-01  2.97577567e-02 -3.85288596e-01]
 [ 2.88554281e-01 -2.45992512e-01 -2.54584908e-01]
 [-3.76740724e-01  4.95844394e-01 -4.12483096e-01]
 [ 3.85968328e-01 -5.66612601e-01  2.88401216e-01]] 
Episode: 153: [[ 1.1829398e-04 -1.1479216e-04 -2.9867604e-05]
 [-6.0340215e-05  5.6016826e-05  9.4778901e-05]
 [-4.9566301e-05  4.9938717e-05 -4.5968269e-04]
 [-1.6226497e-01 -3.4020057e-01  4.3259770e-02]
 [ 1.2604588e-01 -4.6901468e-02 -4.0482033e-02]
 [ 4.6043298e-01  5.2220315e-01 -3.8300556e-01]
 [ 2.2841576e-01 -4.6045190e-01  3.5152063e-01]
 [ 3.7685564e-01  4.8597527e-01  4.0351182e-01]
 [-1.9745906e-01  2.9801881e-02 -3.8532791e-01]
 [ 2.8855428e-01 -2.4599251e-01 -2.5458491e-01]
 [-3.7674072e-01  4.9584439e-01 -4.1248310e-01]
 [ 3.8596833e-01 -5.6661260e-01  2.8840122e-01]] 
Episode: 154: [[ 1.60608208e-04 -1.57424467e-04  1.40593556e-05]
 [-1.03580845e-04  9.93101276e-05  4.92668805e-05]
 [-5.43341321e-06  5.96587688e-06 -4.92524996e-04]
 [-1.62222400e-01 -3.40243369e-01  4.33042571e-02]
 [ 1.26002505e-01 -4.68580090e-02 -4.05275784e-02]
 [ 4.60478902e-01  5.22157907e-01 -3.83029103e-01]
 [ 2.28371605e-01 -4.60407615e-01  3.51544946e-01]
 [ 3.76811594e-01  4.86019194e-01  4.03535366e-01]
 [-1.97502345e-01  2.98452619e-02 -3.85377288e-01]
 [ 2.88554281e-01 -2.45992512e-01 -2.54584908e-01]
 [-3.76740724e-01  4.95844394e-01 -4.12483096e-01]
 [ 3.85968328e-01 -5.66612601e-01  2.88401216e-01]] 
Episode: 155: [[ 1.8952767e-04 -1.8656939e-04  4.3918899e-05]
 [-1.3233554e-04  1.2831044e-04  1.9636300e-05]
 [ 2.1903699e-05 -2.2569886e-05 -5.1988545e-04]
 [-1.6219342e-01 -3.4027249e-01  4.3333679e-02]
 [ 1.2597360e-01 -4.6828855e-02 -4.0557098e-02]
 [ 4.6050692e-01  5.2212924e-01 -3.8305214e-01]
 [ 2.2834472e-01 -4.6037954e-01  3.5157010e-01]
 [ 3.7678450e-01  4.8604706e-01  4.0355828e-01]
 [-1.9753093e-01  2.9874332e-02 -3.8540447e-01]
 [ 2.8855428e-01 -2.4599251e-01 -2.5458491e-01]
 [-3.7674072e-01  4.9584439e-01 -4.1248310e-01]
 [ 3.8596833e-01 -5.6661260e-01  2.8840122e-01]] 
Episode: 156: [[ 2.2502318e-04 -2.2230702e-04  8.0060112e-05]
 [-1.6764927e-04  1.6395436e-04 -1.6120463e-05]
 [ 5.5448229e-05 -5.7650381e-05 -5.5371423e-04]
 [-1.6215794e-01 -3.4030810e-01  4.3368865e-02]
 [ 1.2593803e-01 -4.6792939e-02 -4.0592868e-02]
 [ 4.6054086e-01  5.2209425e-01 -3.8308173e-01]
 [ 2.2831212e-01 -4.6034557e-01  3.5160381e-01]
 [ 3.7675184e-01  4.8608094e-01  4.0359029e-01]
 [-1.9756556e-01  2.9909680e-02 -3.8543522e-01]
 [ 2.8855428e-01 -2.4599251e-01 -2.5458491e-01]
 [-3.7674072e-01  4.9584439e-01 -4.1248310e-01]
 [ 3.8596833e-01 -5.6661260e-01  2.8840122e-01]] 
Episode: 157: [[ 2.6681757e-04 -2.6418027e-04  1.2348533e-04]
 [-2.0959898e-04  2.0602247e-04 -5.8695128e-05]
 [ 9.6250085e-05 -9.9717923e-05 -5.9364981e-04]
 [-1.6211613e-01 -3.4034994e-01  4.3411750e-02]
 [ 1.2589586e-01 -4.6750553e-02 -4.0635545e-02]
 [ 4.6058196e-01  5.2205235e-01 -3.8311642e-01]
 [ 2.2827198e-01 -4.6030483e-01  3.5163921e-01]
 [ 3.7671155e-01  4.8612216e-01  4.0362597e-01]
 [-1.9760703e-01  2.9951647e-02 -3.8547385e-01]
 [ 2.8855428e-01 -2.4599251e-01 -2.5458491e-01]
 [-3.7674072e-01  4.9584439e-01 -4.1248310e-01]
 [ 3.8596833e-01 -5.6661260e-01  2.8840122e-01]] 
Episode: 158: [[ 2.8792952e-04 -2.8384771e-04  1.4670241e-04]
 [-2.3009646e-04  2.2579587e-04 -7.8327765e-05]
 [ 1.1552572e-04 -1.1781092e-04 -6.1668188e-04]
 [-1.6209486e-01 -3.4036961e-01  4.3434951e-02]
 [ 1.2587534e-01 -4.6730679e-02 -4.0654846e-02]
 [ 4.6060240e-01  5.2203369e-01 -3.8313416e-01]
 [ 2.2825602e-01 -4.6028978e-01  3.5166728e-01]
 [ 3.7669325e-01  4.8613954e-01  4.0365359e-01]
 [-1.9762670e-01  2.9970456e-02 -3.8548717e-01]
 [ 2.8855428e-01 -2.4599251e-01 -2.5458491e-01]
 [-3.7674072e-01  4.9584439e-01 -4.1248310e-01]
 [ 3.8596833e-01 -5.6661260e-01  2.8840122e-01]] 
Episode: 159: [[ 2.8601239e-04 -2.8067754e-04  1.4417291e-04]
 [-2.2804415e-04  2.2307709e-04 -7.4577663e-05]
 [ 1.1489808e-04 -1.1451096e-04 -6.1396329e-04]
 [-1.6209601e-01 -3.4036693e-01  4.3434374e-02]
 [ 1.2587690e-01 -4.6732966e-02 -4.0651992e-02]
 [ 4.6060175e-01  5.2203709e-01 -3.8312951e-01]
 [ 2.2826019e-01 -4.6029529e-01  3.5167041e-01]
 [ 3.7669551e-01  4.8613542e-01  4.0365583e-01]
 [-1.9762437e-01  2.9967012e-02 -3.8548043e-01]
 [ 2.8855428e-01 -2.4599251e-01 -2.5458491e-01]
 [-3.7674072e-01  4.9584439e-01 -4.1248310e-01]
 [ 3.8596833e-01 -5.6661260e-01  2.8840122e-01]] 
Episode: 160: [[ 2.89657502e-04 -2.83616799e-04  1.45902988e-04]
 [-2.31852973e-04  2.26516859e-04 -7.69607577e-05]
 [ 1.21705816e-04 -1.19408105e-04 -6.16429606e-04]
 [-1.62090987e-01 -3.40370864e-01  4.34397534e-02]
 [ 1.25872031e-01 -4.67285775e-02 -4.06563617e-02]
 [ 4.60607588e-01  5.22032976e-01 -3.83130908e-01]
 [ 2.28255033e-01 -4.60291743e-01  3.51671129e-01]
 [ 3.76689672e-01  4.86139715e-01  4.03656960e-01]
 [-1.97628677e-01  2.99706943e-02 -3.85481358e-01]
 [ 2.88554281e-01 -2.45992512e-01 -2.54584908e-01]
 [-3.76740724e-01  4.95844394e-01 -4.12483096e-01]
 [ 3.85968328e-01 -5.66612601e-01  2.88401216e-01]] 
Episode: 161: [[ 3.0293057e-04 -2.9635159e-04  1.5733195e-04]
 [-2.4518103e-04  2.3959939e-04 -8.8401488e-05]
 [ 1.3747113e-04 -1.3347458e-04 -6.2819378e-04]
 [-1.6207686e-01 -3.4038416e-01  4.3453105e-02]
 [ 1.2585787e-01 -4.6714742e-02 -4.0669277e-02]
 [ 4.6062163e-01  5.2202022e-01 -3.8314295e-01]
 [ 2.2824180e-01 -4.6027941e-01  3.5168394e-01]
 [ 3.7667596e-01  4.8615250e-01  4.0367132e-01]
 [-1.9764173e-01  2.9983347e-02 -3.8548711e-01]
 [ 2.8855428e-01 -2.4599251e-01 -2.5458491e-01]
 [-3.7674072e-01  4.9584439e-01 -4.1248310e-01]
 [ 3.8596833e-01 -5.6661260e-01  2.8840122e-01]] 
Episode: 162: [[ 3.1525828e-04 -3.0851620e-04  1.6611977e-04]
 [-2.5718432e-04  2.5136798e-04 -9.8088254e-05]
 [ 1.5235248e-04 -1.4678267e-04 -6.3892175e-04]
 [-1.6206369e-01 -3.4039691e-01  4.3463767e-02]
 [ 1.2584487e-01 -4.6702072e-02 -4.0680844e-02]
 [ 4.6063420e-01  5.2200860e-01 -3.8315597e-01]
 [ 2.2823040e-01 -4.6026808e-01  3.5170177e-01]
 [ 3.7666425e-01  4.8616368e-01  4.0368834e-01]
 [-1.9765323e-01  2.9994620e-02 -3.8548878e-01]
 [ 2.8855428e-01 -2.4599251e-01 -2.5458491e-01]
 [-3.7674072e-01  4.9584439e-01 -4.1248310e-01]
 [ 3.8596833e-01 -5.6661260e-01  2.8840122e-01]] 
Episode: 163: [[ 3.1500429e-04 -3.0722425e-04  1.6136641e-04]
 [-2.5533914e-04  2.4862768e-04 -9.2546201e-05]
 [ 1.4971584e-04 -1.4202441e-04 -6.4524572e-04]
 [-1.6206324e-01 -3.4039617e-01  4.3460362e-02]
 [ 1.2584572e-01 -4.6703920e-02 -4.0677119e-02]
 [ 4.6063221e-01  5.2201283e-01 -3.8316220e-01]
 [ 2.2823544e-01 -4.6027365e-01  3.5172319e-01]
 [ 3.7666756e-01  4.8615846e-01  4.0370277e-01]
 [-1.9765021e-01  2.9990522e-02 -3.8546965e-01]
 [ 2.8855428e-01 -2.4599251e-01 -2.5458491e-01]
 [-3.7674072e-01  4.9584439e-01 -4.1248310e-01]
 [ 3.8596833e-01 -5.6661260e-01  2.8840122e-01]] 
Episode: 164: [[ 2.9780078e-04 -2.8893183e-04  1.4007073e-04]
 [-2.3673283e-04  2.2916695e-04 -7.0983057e-05]
 [ 1.3091492e-04 -1.2068287e-04 -6.3277752e-04]
 [-1.6207942e-01 -3.4037867e-01  4.3440986e-02]
 [ 1.2586327e-01 -4.6722528e-02 -4.0657301e-02]
 [ 4.6061495e-01  5.2203286e-01 -3.8314909e-01]
 [ 2.2825618e-01 -4.6029514e-01  3.5172454e-01]
 [ 3.7668669e-01  4.8613706e-01  4.0369722e-01]
 [-1.9763063e-01  2.9969824e-02 -3.8543847e-01]
 [ 2.8855428e-01 -2.4599251e-01 -2.5458491e-01]
 [-3.7674072e-01  4.9584439e-01 -4.1248310e-01]
 [ 3.8596833e-01 -5.6661260e-01  2.8840122e-01]] 
Episode: 165: [[ 2.83421949e-04 -2.74238293e-04  1.23781036e-04]
 [-2.22181538e-04  2.14176325e-04 -5.63138055e-05]
 [ 1.18015945e-04 -1.05831998e-04 -6.12107862e-04]
 [-1.62092358e-01 -3.40365142e-01  4.34281118e-02]
 [ 1.25876948e-01 -4.67368327e-02 -4.06440198e-02]
 [ 4.60601956e-01  5.22047520e-01 -3.83128107e-01]
 [ 2.28270605e-01 -4.60309893e-01  3.51713270e-01]
 [ 3.76700640e-01  4.86121744e-01  4.03681338e-01]
 [-1.97615013e-01  2.99537648e-02 -3.85424823e-01]
 [ 2.88554281e-01 -2.45992512e-01 -2.54584908e-01]
 [-3.76740724e-01  4.95844394e-01 -4.12483096e-01]
 [ 3.85968328e-01 -5.66612601e-01  2.88401216e-01]] 
Episode: 166: [[ 2.7245024e-04 -2.6265037e-04  1.1153686e-04]
 [-2.1105529e-04  2.0247985e-04 -4.4717654e-05]
 [ 1.0842745e-04 -9.4293624e-05 -5.9731002e-04]
 [-1.6210164e-01 -3.4035492e-01  4.3419871e-02]
 [ 1.2588707e-01 -4.6747711e-02 -4.0634114e-02]
 [ 4.6059269e-01  5.2205867e-01 -3.8311225e-01]
 [ 2.2828066e-01 -4.6032113e-01  3.5170120e-01]
 [ 3.7670973e-01  4.8611063e-01  4.0366590e-01]
 [-1.9760363e-01  2.9941730e-02 -3.8541481e-01]
 [ 2.8855428e-01 -2.4599251e-01 -2.5458491e-01]
 [-3.7674072e-01  4.9584439e-01 -4.1248310e-01]
 [ 3.8596833e-01 -5.6661260e-01  2.8840122e-01]] 
Episode: 167: [[ 2.5452903e-04 -2.4401401e-04  9.2485629e-05]
 [-1.9335594e-04  1.8402743e-04 -2.6333817e-05]
 [ 9.3712457e-05 -7.6659599e-05 -5.7501427e-04]
 [-1.6211787e-01 -3.4033772e-01  4.3405138e-02]
 [ 1.2590371e-01 -4.6765339e-02 -4.0617716e-02]
 [ 4.6057838e-01  5.2207559e-01 -3.8308936e-01]
