Episode: 1: [[ 0.          0.          0.        ]
 [ 0.          0.          0.        ]
 [ 0.          0.          0.        ]
 [-0.16240509 -0.34006977  0.04328375]
 [ 0.12615696 -0.04700504 -0.04048468]
 [ 0.46043023  0.522202   -0.38252082]
 [ 0.22833015 -0.46042326  0.35057473]
 [ 0.3768362   0.48599768  0.40276992]
 [-0.19741115  0.02976353 -0.38563552]
 [ 0.28855428 -0.24599251 -0.2545849 ]
 [-0.37674072  0.4958444  -0.4124831 ]
 [ 0.38596833 -0.5666126   0.28840122]] 
Episode: 2: [[-9.9999248e-05  9.9998935e-05 -9.9988720e-05]
 [ 9.9999153e-05 -9.9998724e-05  9.9993551e-05]
 [-9.9991368e-05  9.9994184e-05  9.9994671e-05]
 [-1.6250509e-01 -3.3996978e-01  4.3183777e-02]
 [ 1.2625696e-01 -4.7105033e-02 -4.0384706e-02]
 [ 4.6033031e-01  5.2230197e-01 -3.8242084e-01]
 [ 2.2843015e-01 -4.6052325e-01  3.5047475e-01]
 [ 3.7693620e-01  4.8589769e-01  4.0266994e-01]
 [-1.9731115e-01  2.9663526e-02 -3.8573551e-01]
 [ 2.8845429e-01 -2.4589251e-01 -2.5468490e-01]
 [-3.7664074e-01  4.9574441e-01 -4.1238311e-01]
 [ 3.8586834e-01 -5.6651258e-01  2.8850120e-01]] 
Episode: 3: [[-9.54896459e-05  9.31629475e-05 -1.15871495e-04]
 [ 9.30873866e-05 -9.19390732e-05  9.03342443e-05]
 [-7.57330272e-05  8.56210027e-05  1.10496825e-04]
 [-1.62499309e-01 -3.39977443e-01  4.31800261e-02]
 [ 1.26248345e-01 -4.70957644e-02 -4.03965041e-02]
 [ 4.60358232e-01  5.22289515e-01 -3.82413507e-01]
 [ 2.28414550e-01 -4.60507572e-01  3.50464821e-01]
 [ 3.76929104e-01  4.85905647e-01  4.02649403e-01]
 [-1.97313547e-01  2.96687968e-02 -3.85729790e-01]
 [ 2.88460374e-01 -2.45900422e-01 -2.54692227e-01]
 [-3.76647830e-01  4.95752633e-01 -4.12393630e-01]
 [ 3.85887384e-01 -5.66525161e-01  2.88510948e-01]] 
Episode: 4: [[-5.46887932e-05  5.03820484e-05 -1.02318925e-04]
 [ 5.04950112e-05 -4.84969714e-05  4.69892839e-05]
 [-2.61666464e-05  4.12427289e-05  8.11850550e-05]
 [-1.62458226e-01 -3.40020329e-01  4.32069674e-02]
 [ 1.26205176e-01 -4.70520481e-02 -4.04407308e-02]
 [ 4.60420012e-01  5.22241771e-01 -3.82440627e-01]
 [ 2.28365064e-01 -4.60458070e-01  3.50496471e-01]
 [ 3.76887977e-01  4.85947669e-01  4.02678400e-01]
 [-1.97353318e-01  2.97098197e-02 -3.85694176e-01]
 [ 2.88501292e-01 -2.45943293e-01 -2.54701346e-01]
 [-3.76690477e-01  4.95796114e-01 -4.12437439e-01]
 [ 3.85935754e-01 -5.66569269e-01  2.88481981e-01]] 
Episode: 5: [[-1.6135171e-05  1.0639219e-05 -8.2339575e-05]
 [ 9.7663269e-06 -7.2919393e-06  3.5539306e-06]
 [ 1.8631714e-05  6.6833769e-07  5.3084514e-05]
 [-1.6241936e-01 -3.4006020e-01  4.3237112e-02]
 [ 1.2616470e-01 -4.7011189e-02 -4.0482666e-02]
 [ 4.6047586e-01  5.2219784e-01 -3.8246673e-01]
 [ 2.2831571e-01 -4.6041164e-01  3.5052356e-01]
 [ 3.7684718e-01  4.8598853e-01  4.0270200e-01]
 [-1.9739074e-01  2.9747825e-02 -3.8566419e-01]
 [ 2.8854001e-01 -2.4598311e-01 -2.5469586e-01]
 [-3.7673104e-01  4.9583718e-01 -4.1248071e-01]
 [ 3.8598111e-01 -5.6661022e-01  2.8845489e-01]] 
Episode: 6: [[-8.9918312e-06  3.5598825e-06 -9.8105753e-05]
 [ 2.3466569e-06 -1.0217322e-07 -1.1822644e-06]
 [ 2.3572256e-05 -2.1826938e-06  5.0906518e-05]
 [-1.6241294e-01 -3.4006685e-01  4.3228835e-02]
 [ 1.2615857e-01 -4.7004931e-02 -4.0486064e-02]
 [ 4.6049798e-01  5.2218980e-01 -3.8246506e-01]
 [ 2.2830829e-01 -4.6040398e-01  3.5053211e-01]
 [ 3.7684351e-01  4.8599288e-01  4.0271464e-01]
 [-1.9739598e-01  2.9752053e-02 -3.8565969e-01]
 [ 2.8854632e-01 -2.4598956e-01 -2.5473231e-01]
 [-3.7673834e-01  4.9584424e-01 -4.1248441e-01]
 [ 3.8598588e-01 -5.6661320e-01  2.8845271e-01]] 
Episode: 7: [[-3.6800870e-05  3.1953794e-05 -1.3087611e-04]
 [ 2.9489709e-05 -2.7987755e-05  2.4877443e-05]
 [-6.7724668e-06  3.0067506e-05  8.2721861e-05]
 [-1.6244018e-01 -3.4003904e-01  4.3199815e-02]
 [ 1.2618627e-01 -4.7033001e-02 -4.0457886e-02]
 [ 4.6048874e-01  5.2221608e-01 -3.8242888e-01]
 [ 2.2833464e-01 -4.6043187e-01  3.5050207e-01]
 [ 3.7687153e-01  4.8596388e-01  4.0268481e-01]
 [-1.9736739e-01  2.9721715e-02 -3.8569498e-01]
 [ 2.8851873e-01 -2.4596131e-01 -2.5475654e-01]
 [-3.7671131e-01  4.9581641e-01 -4.1245872e-01]
 [ 3.8595757e-01 -5.6658196e-01  2.8848547e-01]] 
Episode: 8: [[-5.4110813e-05  5.0045535e-05 -1.4747847e-04]
 [ 4.7342524e-05 -4.6812536e-05  3.8942151e-05]
 [-3.2949749e-05  5.6072462e-05  1.0443781e-04]
 [-1.6245836e-01 -3.4002066e-01  4.3177776e-02]
 [ 1.2620552e-01 -4.7052775e-02 -4.0438615e-02]
 [ 4.6048492e-01  5.2223468e-01 -3.8240236e-01]
 [ 2.2835664e-01 -4.6045268e-01  3.5048828e-01]
 [ 3.7689233e-01  4.8594260e-01  4.0266749e-01]
 [-1.9734585e-01  2.9698884e-02 -3.8572037e-01]
 [ 2.8850040e-01 -2.4594259e-01 -2.5478134e-01]
 [-3.7669298e-01  4.9579719e-01 -4.1244346e-01]
 [ 3.8593519e-01 -5.6655777e-01  2.8850845e-01]] 
Episode: 9: [[-8.5100633e-05  8.1672944e-05 -1.7565145e-04]
 [ 7.8736230e-05 -7.9128593e-05  6.5501285e-05]
 [-7.1320981e-05  9.4696064e-05  1.3975994e-04]
 [-1.6249020e-01 -3.3998868e-01  4.3143515e-02]
 [ 1.2623833e-01 -4.7086049e-02 -4.0406331e-02]
 [ 4.6046317e-01  5.2226794e-01 -3.8236377e-01]
 [ 2.2839138e-01 -4.6048665e-01  3.5046020e-01]
 [ 3.7692598e-01  4.8590827e-01  4.0263474e-01]
 [-1.9731079e-01  2.9662708e-02 -3.8575846e-01]
 [ 2.8846821e-01 -2.4591017e-01 -2.5481525e-01]
 [-3.7666094e-01  4.9576434e-01 -4.1241524e-01]
 [ 3.8590091e-01 -5.6652105e-01  2.8854519e-01]] 
Episode: 10: [[-1.32192275e-04  1.29022606e-04 -2.14025349e-04]
 [ 1.26211846e-04 -1.26945757e-04  1.09394976e-04]
 [-1.24219427e-04  1.46684979e-04  1.89732804e-04]
 [-1.62538454e-01 -3.39940608e-01  4.30940203e-02]
 [ 1.26286760e-01 -4.71345410e-02 -4.03584763e-02]
 [ 4.60418552e-01  5.22317231e-01 -3.82312149e-01]
 [ 2.28442594e-01 -4.60536361e-01  3.50416481e-01]
 [ 3.76975775e-01  4.85858887e-01  4.02589142e-01]
 [-1.97259799e-01  2.96116881e-02 -3.85808617e-01]
 [ 2.88419992e-01 -2.45862067e-01 -2.54850119e-01]
 [-3.76612931e-01  4.95716095e-01 -4.12369907e-01]
 [ 3.85850430e-01 -5.66470146e-01  2.88596034e-01]] 
Episode: 11: [[-1.8327306e-04  1.8059451e-04 -2.4655220e-04]
 [ 1.7740986e-04 -1.7867182e-04  1.5529949e-04]
 [-1.7767854e-04  2.0149040e-04  2.4461787e-04]
 [-1.6259117e-01 -3.3988804e-01  4.3042541e-02]
 [ 1.2633906e-01 -4.7187053e-02 -4.0307671e-02]
 [ 4.6037218e-01  5.2236980e-01 -3.8225660e-01]
 [ 2.2849749e-01 -4.6059024e-01  3.5036749e-01]
 [ 3.7702867e-01  4.8580590e-01  4.0253752e-01]
 [-1.9720471e-01  2.9556571e-02 -3.8586232e-01]
 [ 2.8836775e-01 -2.4580975e-01 -2.5486812e-01]
 [-3.7656111e-01  4.9566388e-01 -4.1232252e-01]
 [ 3.8579914e-01 -5.6641644e-01  2.8865173e-01]] 
Episode: 12: [[-2.2779912e-04  2.2531669e-04 -2.8162086e-04]
 [ 2.2215536e-04 -2.2376723e-04  1.9633655e-04]
 [-2.2587151e-04  2.4987324e-04  2.9209859e-04]
 [-1.6263698e-01 -3.3984253e-01  4.2995531e-02]
 [ 1.2638474e-01 -4.7232818e-02 -4.0262822e-02]
 [ 4.6032661e-01  5.2241731e-01 -3.8220948e-01]
 [ 2.2854485e-01 -4.6063659e-01  3.5032541e-01]
 [ 3.7707511e-01  4.8575968e-01  4.0249395e-01]
 [-1.9715591e-01  2.9508095e-02 -3.8590780e-01]
 [ 2.8832215e-01 -2.4576433e-01 -2.5489542e-01]
 [-3.7651578e-01  4.9561834e-01 -4.1227999e-01]
 [ 3.8575274e-01 -5.6636894e-01  2.8869984e-01]] 
Episode: 13: [[-2.6731644e-04  2.6448892e-04 -2.9993334e-04]
 [ 2.6147036e-04 -2.6306414e-04  2.2911225e-04]
 [-2.7192410e-04  2.9418964e-04  3.3560512e-04]
 [-1.6267771e-01 -3.3980256e-01  4.2958260e-02]
 [ 1.2642489e-01 -4.7272839e-02 -4.0225036e-02]
 [ 4.6028918e-01  5.2245879e-01 -3.8216415e-01]
 [ 2.2858521e-01 -4.6067542e-01  3.5028243e-01]
 [ 3.7711358e-01  4.8572096e-01  4.0244323e-01]
 [-1.9711334e-01  2.9465705e-02 -3.8595417e-01]
 [ 2.8828144e-01 -2.4572438e-01 -2.5490159e-01]
 [-3.7647581e-01  4.9557856e-01 -4.1224584e-01]
 [ 3.8570943e-01 -5.6632584e-01  2.8874448e-01]] 
Episode: 14: [[-3.0627297e-04  3.0333191e-04 -3.2227716e-04]
 [ 3.0077572e-04 -3.0234540e-04  2.6363885e-04]
 [-3.2008268e-04  3.3925337e-04  3.7846688e-04]
 [-1.6271777e-01 -3.3976305e-01  4.2919848e-02]
 [ 1.2646472e-01 -4.7312584e-02 -4.0186927e-02]
 [ 4.6024755e-01  5.2250165e-01 -3.8211986e-01]
 [ 2.2862686e-01 -4.6071509e-01  3.5024258e-01]
 [ 3.7715217e-01  4.8568216e-01  4.0239510e-01]
 [-1.9706947e-01  2.9422620e-02 -3.8599735e-01]
 [ 2.8824139e-01 -2.4568480e-01 -2.5491357e-01]
 [-3.7643582e-01  4.9553877e-01 -4.1220954e-01]
 [ 3.8566393e-01 -5.6628197e-01  2.8878832e-01]] 
Episode: 15: [[-3.5348555e-04  3.5032418e-04 -3.4959792e-04]
 [ 3.4757372e-04 -3.4898799e-04  3.0443951e-04]
 [-3.7176273e-04  3.9054549e-04  4.3239485e-04]
 [-1.6276567e-01 -3.3971569e-01  4.2876832e-02]
 [ 1.2651177e-01 -4.7359440e-02 -4.0142655e-02]
 [ 4.6021232e-01  5.2254874e-01 -3.8206351e-01]
 [ 2.2867526e-01 -4.6076223e-01  3.5019219e-01]
 [ 3.7719771e-01  4.8563638e-01  4.0233594e-01]
 [-1.9701892e-01  2.9372288e-02 -3.8605377e-01]
 [ 2.8819343e-01 -2.4563731e-01 -2.5491574e-01]
 [-3.7638843e-01  4.9549168e-01 -4.1216767e-01]
 [ 3.8561505e-01 -5.6623191e-01  2.8884342e-01]] 
Episode: 16: [[-3.9319982e-04  3.9058315e-04 -3.8262550e-04]
 [ 3.8755607e-04 -3.8938425e-04  3.4037253e-04]
 [-4.1828689e-04  4.3646432e-04  4.7555400e-04]
 [-1.6280505e-01 -3.3967578e-01  4.2840678e-02]
 [ 1.2655251e-01 -4.7400322e-02 -4.0102951e-02]
 [ 4.6018404e-01  5.2258974e-01 -3.8201657e-01]
 [ 2.2871384e-01 -4.6080220e-01  3.5015023e-01]
 [ 3.7723607e-01  4.8559660e-01  4.0228716e-01]
 [-1.9697739e-01  2.9329440e-02 -3.8610226e-01]
 [ 2.8815344e-01 -2.4559681e-01 -2.5492957e-01]
 [-3.7634799e-01  4.9545094e-01 -4.1213089e-01]
 [ 3.8557151e-01 -5.6618720e-01  2.8888774e-01]] 
Episode: 17: [[-4.1933850e-04  4.1706307e-04 -4.1226408e-04]
 [ 4.1383819e-04 -4.1580200e-04  3.6603503e-04]
 [-4.4994749e-04  4.6773136e-04  5.0300721e-04]
 [-1.6283059e-01 -3.3964980e-01  4.2814963e-02]
 [ 1.2657924e-01 -4.7427047e-02 -4.0075757e-02]
 [ 4.6016470e-01  5.2261794e-01 -3.8198596e-01]
 [ 2.2873802e-01 -4.6082774e-01  3.5012260e-01]
 [ 3.7726158e-01  4.8557040e-01  4.0225828e-01]
 [-1.9695005e-01  2.9300874e-02 -3.8613322e-01]
 [ 2.8812727e-01 -2.4557024e-01 -2.5494817e-01]
 [-3.7632155e-01  4.9542442e-01 -4.1210493e-01]
 [ 3.8554087e-01 -5.6615633e-01  2.8891566e-01]] 
Episode: 18: [[-4.3885171e-04  4.3697777e-04 -4.2599184e-04]
 [ 4.3278068e-04 -4.3498020e-04  3.7989896e-04]
 [-4.7481395e-04  4.9098703e-04  5.2479294e-04]
 [-1.6284980e-01 -3.3963019e-01  4.2798650e-02]
 [ 1.2659912e-01 -4.7446910e-02 -4.0057275e-02]
 [ 4.6015513e-01  5.2263653e-01 -3.8196060e-01]
 [ 2.2875299e-01 -4.6084532e-01  3.5009718e-01]
 [ 3.7727961e-01  4.8555186e-01  4.0223089e-01]
 [-1.9692987e-01  2.9279863e-02 -3.8616118e-01]
 [ 2.8810760e-01 -2.4555020e-01 -2.5495222e-01]
 [-3.7630242e-01  4.9540511e-01 -4.1209126e-01]
 [ 3.8551849e-01 -5.6613410e-01  2.8893840e-01]] 
Episode: 19: [[-4.3973012e-04  4.3808017e-04 -4.3066571e-04]
 [ 4.3290161e-04 -4.3532622e-04  3.7619736e-04]
 [-4.7838473e-04  4.9376331e-04  5.2795594e-04]
 [-1.6284998e-01 -3.3962971e-01  4.2799354e-02]
 [ 1.2659968e-01 -4.7447540e-02 -4.0058021e-02]
 [ 4.6016002e-01  5.2263659e-01 -3.8195553e-01]
 [ 2.2874844e-01 -4.6084329e-01  3.5009009e-01]
 [ 3.7727821e-01  4.8555267e-01  4.0222070e-01]
 [-1.9692878e-01  2.9278148e-02 -3.8616949e-01]
 [ 2.8810689e-01 -2.4554926e-01 -2.5495693e-01]
 [-3.7630218e-01  4.9540469e-01 -4.1209516e-01]
 [ 3.8551658e-01 -5.6613207e-01  2.8894225e-01]] 
Episode: 20: [[-4.5339207e-04  4.5057893e-04 -4.4906128e-04]
 [ 4.4665980e-04 -4.4817795e-04  3.8955014e-04]
 [-4.9534830e-04  5.0706690e-04  5.4353336e-04]
 [-1.6286375e-01 -3.3961689e-01  4.2780597e-02]
 [ 1.2661326e-01 -4.7460351e-02 -4.0044423e-02]
 [ 4.6014294e-01  5.2265006e-01 -3.8194063e-01]
 [ 2.2876325e-01 -4.6085531e-01  3.5007828e-01]
 [ 3.7729374e-01  4.8553962e-01  4.0221182e-01]
 [-1.9691356e-01  2.9264316e-02 -3.8618594e-01]
 [ 2.8809306e-01 -2.4553664e-01 -2.5497755e-01]
 [-3.7628856e-01  4.9539202e-01 -4.1208255e-01]
 [ 3.8549966e-01 -5.6611872e-01  2.8895774e-01]] 
Episode: 21: [[-4.6523588e-04  4.6150983e-04 -4.7263131e-04]
 [ 4.5897148e-04 -4.5979020e-04  4.0387249e-04]
 [-5.0992903e-04  5.1836652e-04  5.5464747e-04]
 [-1.6287567e-01 -3.3960566e-01  4.2760402e-02]
 [ 1.2662527e-01 -4.7471780e-02 -4.0031224e-02]
 [ 4.6012539e-01  5.2266264e-01 -3.8193026e-01]
 [ 2.2877689e-01 -4.6086636e-01  3.5007054e-01]
 [ 3.7730771e-01  4.8552763e-01  4.0220734e-01]
 [-1.9690077e-01  2.9252667e-02 -3.8619566e-01]
 [ 2.8808111e-01 -2.4552561e-01 -2.5500742e-01]
 [-3.7627634e-01  4.9538055e-01 -4.1206840e-01]
 [ 3.8548392e-01 -5.6610686e-01  2.8896832e-01]] 
Episode: 22: [[-4.9940287e-04  4.9495330e-04 -5.1228097e-04]
 [ 4.9368176e-04 -4.9404631e-04  4.3996732e-04]
 [-5.4731878e-04  5.5335509e-04  5.8703648e-04]
 [-1.6290994e-01 -3.3957174e-01  4.2719778e-02]
 [ 1.2665983e-01 -4.7505867e-02 -3.9995745e-02]
 [ 4.6008715e-01  5.2269870e-01 -3.8189799e-01]
 [ 2.2881344e-01 -4.6090099e-01  3.5004166e-01]
 [ 3.7734360e-01  4.8549289e-01  4.0218022e-01]
 [-1.9686575e-01  2.9218087e-02 -3.8622591e-01]
 [ 2.8804666e-01 -2.4549180e-01 -2.5504702e-01]
 [-3.7624145e-01  4.9534622e-01 -4.1203153e-01]
 [ 3.8544613e-01 -5.6607157e-01  2.8900045e-01]] 
Episode: 23: [[-5.1495474e-04  5.0965609e-04 -5.2844692e-04]
 [ 5.0980510e-04 -5.0975149e-04  4.5589253e-04]
 [-5.6955637e-04  5.7039619e-04  6.0004531e-04]
 [-1.6292627e-01 -3.3955610e-01  4.2697322e-02]
 [ 1.2667635e-01 -4.7521882e-02 -3.9978676e-02]
 [ 4.6006116e-01  5.2271688e-01 -3.8188499e-01]
 [ 2.2883187e-01 -4.6091682e-01  3.5002965e-01]
 [ 3.7736186e-01  4.8547623e-01  4.0216962e-01]
 [-1.9684875e-01  2.9202187e-02 -3.8623813e-01]
 [ 2.8803036e-01 -2.4547645e-01 -2.5507477e-01]
 [-3.7622499e-01  4.9533033e-01 -4.1201466e-01]
 [ 3.8542411e-01 -5.6605440e-01  2.8901339e-01]] 
Episode: 24: [[-5.3915731e-04  5.3302734e-04 -5.5614469e-04]
 [ 5.3456589e-04 -5.3396967e-04  4.8234651e-04]
 [-6.0041825e-04  5.9591688e-04  6.2094093e-04]
 [-1.6295151e-01 -3.3953169e-01  4.2663988e-02]
 [ 1.2670140e-01 -4.7546342e-02 -3.9952077e-02]
 [ 4.6002153e-01  5.2274531e-01 -3.8186610e-01]
 [ 2.2885914e-01 -4.6094152e-01  3.5001075e-01]
 [ 3.7738928e-01  4.8545077e-01  4.0215629e-01]
 [-1.9682233e-01  2.9177316e-02 -3.8625509e-01]
 [ 2.8800535e-01 -2.4545246e-01 -2.5511307e-01]
 [-3.7619999e-01  4.9530599e-01 -4.1198722e-01]
 [ 3.8539213e-01 -5.6602824e-01  2.8903344e-01]] 
Episode: 25: [[-5.4661743e-04  5.3958374e-04 -5.7371269e-04]
 [ 5.4225267e-04 -5.4107630e-04  4.9286016e-04]
 [-6.1297155e-04  6.0434430e-04  6.2597409e-04]
 [-1.6295977e-01 -3.3952424e-01  4.2646006e-02]
 [ 1.2670916e-01 -4.7553547e-02 -3.9942302e-02]
 [ 4.5999959e-01  5.2275658e-01 -3.8186279e-01]
 [ 2.2887014e-01 -4.6094954e-01  3.5000965e-01]
 [ 3.7740025e-01  4.8544210e-01  4.0216178e-01]
 [-1.9681273e-01  2.9169090e-02 -3.8625744e-01]
 [ 2.8799728e-01 -2.4544542e-01 -2.5514996e-01]
 [-3.7619221e-01  4.9529889e-01 -4.1197616e-01]
 [ 3.8537815e-01 -5.6601906e-01  2.8903767e-01]] 
Episode: 26: [[-5.6324457e-04  5.5558229e-04 -6.0205918e-04]
 [ 5.5885204e-04 -5.5736356e-04  5.1212421e-04]
 [-6.3099852e-04  6.2076864e-04  6.4072170e-04]
 [-1.6297637e-01 -3.3950803e-01  4.2622145e-02]
 [ 1.2672560e-01 -4.7569696e-02 -3.9924223e-02]
 [ 4.5997077e-01  5.2277648e-01 -3.8185090e-01]
 [ 2.2888727e-01 -4.6096563e-01  3.4999692e-01]
 [ 3.7741846e-01  4.8542500e-01  4.0215462e-01]
 [-1.9679500e-01  2.9152256e-02 -3.8626868e-01]
 [ 2.8798079e-01 -2.4542946e-01 -2.5518233e-01]
 [-3.7617567e-01  4.9528271e-01 -4.1195691e-01]
 [ 3.8535824e-01 -5.6600183e-01  2.8905147e-01]] 
Episode: 27: [[-5.9698214e-04  5.8867002e-04 -6.4011378e-04]
 [ 5.9234595e-04 -5.9054827e-04  5.4669275e-04]
 [-6.6552445e-04  6.5379689e-04  6.7366683e-04]
 [-1.6301027e-01 -3.3947465e-01  4.2584676e-02]
 [ 1.2675904e-01 -4.7602888e-02 -3.9890319e-02]
 [ 4.5992759e-01  5.2281249e-01 -3.8182080e-01]
 [ 2.2891982e-01 -4.6099800e-01  3.4996483e-01]
 [ 3.7745196e-01  4.8539194e-01  4.0212560e-01]
 [-1.9676015e-01  2.9118448e-02 -3.8629892e-01]
 [ 2.8794703e-01 -2.4539632e-01 -2.5521180e-01]
 [-3.7614220e-01  4.9524957e-01 -4.1192245e-01]
 [ 3.8532269e-01 -5.6596833e-01  2.8908387e-01]] 
Episode: 28: [[-6.1087665e-04  6.0159754e-04 -6.6329987e-04]
 [ 6.0610997e-04 -6.0384657e-04  5.6196016e-04]
 [-6.8255549e-04  6.6725025e-04  6.8501115e-04]
 [-1.6302432e-01 -3.3946127e-01  4.2566489e-02]
 [ 1.2677291e-01 -4.7616430e-02 -3.9875627e-02]
 [ 4.5990041e-01  5.2282894e-01 -3.8181114e-01]
 [ 2.2893190e-01 -4.6100986e-01  3.4995195e-01]
 [ 3.7746599e-01  4.8537865e-01  4.0211588e-01]
 [-1.9674572e-01  2.9105166e-02 -3.8631028e-01]
 [ 2.8793290e-01 -2.4538314e-01 -2.5523999e-01]
 [-3.7612841e-01  4.9523628e-01 -4.1190737e-01]
 [ 3.8530555e-01 -5.6595457e-01  2.8909510e-01]] 
Episode: 29: [[-0.00062153  0.00061179 -0.00067675]
 [ 0.00061664 -0.00061438  0.00057193]
 [-0.00069587  0.00067878  0.00069404]
 [-0.1630353  -0.33945066  0.04255472]
 [ 0.1267841  -0.0476276  -0.03986432]
 [ 0.45988163  0.52284175 -0.38180298]
 [ 0.22894049 -0.46101925  0.34994072]
 [ 0.37747654  0.48536786  0.40210554]
 [-0.19673471  0.02909448 -0.38632083]
 [ 0.28792197 -0.24537268 -0.25525242]
 [-0.37611777  0.49522567 -0.41189766]
 [ 0.38529298 -0.56594324  0.28910437]] 
Episode: 30: [[-0.00062926  0.00061922 -0.00069348]
 [ 0.00062418 -0.00062187  0.00058038]
 [-0.00070761  0.00068821  0.00069994]
 [-0.16304323 -0.3394429   0.04254339]
 [ 0.1267926  -0.04763598 -0.03985444]
 [ 0.45986623  0.52285194 -0.38179728]
 [ 0.22894622 -0.46102574  0.34993348]
 [ 0.37748566  0.48535928  0.40210432]
 [-0.19672713  0.02908686 -0.38632947]
 [ 0.28791386 -0.24536495 -0.25527605]
 [-0.37611032  0.49521825 -0.41188985]
 [ 0.38528174 -0.5659339   0.28911036]] 
Episode: 31: [[-0.00062399  0.00061371 -0.00070833]
 [ 0.00061918 -0.00061692  0.0005775 ]
 [-0.0007067   0.00068552  0.00069296]
 [-0.16303802 -0.33944824  0.04254178]
 [ 0.12678845 -0.0476318  -0.03985665]
 [ 0.45986247  0.52284986 -0.38180465]
 [ 0.22894053 -0.4610202   0.34994233]
 [ 0.37748283  0.48536268  0.40211767]
 [-0.19673154  0.02909123 -0.38632378]
 [ 0.2879189  -0.24537024 -0.25530928]
 [-0.37611538  0.49522325 -0.41189328]
 [ 0.3852829  -0.5659367   0.28910333]] 
Episode: 32: [[-0.00062857  0.00061865 -0.00071886]
 [ 0.00062368 -0.0006219   0.00058203]
 [-0.00071451  0.00069378  0.00069749]
 [-0.16304338 -0.33944282  0.04253307]
 [ 0.12679453 -0.04763808 -0.03984898]
 [ 0.4598509   0.52285826 -0.38180152]
 [ 0.22894591 -0.46102634  0.34994057]
 [ 0.37748995  0.48535544  0.4021207 ]
 [-0.19672608  0.029085   -0.38633037]
 [ 0.28791374 -0.24536487 -0.25532606]
 [-0.3761108   0.4952182  -0.41188905]
 [ 0.38527542 -0.56592876  0.28910765]] 
Episode: 33: [[-0.00065189  0.00064201 -0.00075282]
 [ 0.00064716 -0.00064562  0.00060726]
 [-0.00073875  0.0007191   0.00072093]
 [-0.16306715 -0.33941928  0.04250328]
 [ 0.12681897 -0.04766259 -0.03982211]
 [ 0.4598199   0.522885   -0.38178107]
 [ 0.22897077 -0.46105114  0.34992284]
 [ 0.3775169   0.48532903  0.4021111 ]
 [-0.19670132  0.02906018 -0.38635176]
 [ 0.28789037 -0.24534152 -0.25535506]
 [-0.3760875   0.49519458 -0.41186473]
 [ 0.38525042 -0.56590337  0.28913033]] 
Episode: 34: [[-0.00066224  0.0006526  -0.00077238]
 [ 0.00065768 -0.00065649  0.00061969]
 [-0.00074986  0.00073102  0.00072994]
 [-0.16307783 -0.33940852  0.04248796]
 [ 0.12683031 -0.04767412 -0.03980861]
 [ 0.4598015   0.5228985  -0.38177463]
 [ 0.22898245 -0.461063    0.3499169 ]
 [ 0.3775303   0.4853158   0.40211257]
 [-0.1966902   0.02904898 -0.38635832]
 [ 0.28788015 -0.245331   -0.25537223]
 [-0.3760772   0.49518389 -0.41185343]
 [ 0.38523823 -0.5658912   0.2891385 ]] 
Episode: 35: [[-0.00065965  0.00065088 -0.00078261]
 [ 0.0006549  -0.00065452  0.00061881]
 [-0.00074483  0.00072945  0.00072556]
 [-0.16307482 -0.33941063  0.04248828]
 [ 0.12682863 -0.04767296 -0.039808  ]
 [ 0.45980185  0.52289784 -0.38178077]
 [ 0.22897884 -0.46106157  0.34992173]
 [ 0.37752965  0.48531556  0.4021249 ]
 [-0.19669439  0.02905174 -0.38635352]
 [ 0.28788328 -0.24533303 -0.255382  ]
 [-0.37608033  0.4951861  -0.41185582]
 [ 0.385242   -0.5658925   0.28913337]] 
Episode: 36: [[-0.00063818  0.00062991 -0.000777  ]
 [ 0.00063332 -0.00063352  0.00059903]
 [-0.00072141  0.00070814  0.00070268]
 [-0.16305271 -0.3394321   0.04250745]
 [ 0.12680756 -0.04765235 -0.03982756]
 [ 0.45981947  0.5228777  -0.38180545]
 [ 0.22895612 -0.4610404   0.3499444 ]
 [ 0.37750933  0.48533523  0.40215182]
 [-0.19671693  0.02907358 -0.38632947]
 [ 0.2879054  -0.24535438 -0.25538543]
 [-0.37610224  0.4952073  -0.41187704]
 [ 0.38526484 -0.5659138   0.28911003]] 
Episode: 37: [[-0.00061773  0.00060968 -0.00076731]
 [ 0.0006125  -0.00061317  0.00057768]
 [-0.00069851  0.00068691  0.00068211]
 [-0.16303216 -0.3394524   0.04252469]
 [ 0.12678768 -0.04763274 -0.03984674]
 [ 0.4598368   0.52285755 -0.38182777]
 [ 0.22893478 -0.46102     0.34996542]
 [ 0.3774905   0.48535392  0.40217593]
 [-0.19673821  0.02909465 -0.38630816]
 [ 0.28792614 -0.24537478 -0.25538608]
 [-0.37612322  0.49522775 -0.41189945]
 [ 0.38528776 -0.5659352   0.28908935]] 
Episode: 38: [[-5.9765601e-04  5.8966200e-04 -7.6378864e-04]
 [ 5.9228169e-04 -5.9318356e-04  5.5838982e-04]
 [-6.7699648e-04  6.6613656e-04  6.6132459e-04]
 [-1.6301182e-01 -3.3947259e-01  4.2539924e-02]
 [ 1.2676813e-01 -4.7613308e-02 -3.9865121e-02]
 [ 4.5984972e-01  5.2283877e-01 -3.8185099e-01]
 [ 2.2891374e-01 -4.6099952e-01  3.4998745e-01]
 [ 3.7747246e-01  4.8537236e-01  4.0220240e-01]
 [-1.9675860e-01  2.9115235e-02 -3.8628557e-01]
 [ 2.8794658e-01 -2.4539503e-01 -2.5539717e-01]
 [-3.7614363e-01  4.9524790e-01 -4.1191980e-01]
 [ 3.8530862e-01 -5.6595588e-01  2.8906810e-01]] 
Episode: 39: [[-5.7726691e-04  5.6921714e-04 -7.6484296e-04]
 [ 5.7205814e-04 -5.7308126e-04  5.4053735e-04]
 [-6.5388030e-04  6.4414530e-04  6.3930539e-04]
 [-1.6299082e-01 -3.3949351e-01  4.2555254e-02]
 [ 1.2674811e-01 -4.7593404e-02 -3.9883748e-02]
 [ 4.5986348e-01  5.2281904e-01 -3.8187587e-01]
 [ 2.2889224e-01 -4.6097833e-01  3.5001126e-01]
 [ 3.7745443e-01  4.8539114e-01  4.0223217e-01]
 [-1.9677965e-01  2.9136509e-02 -3.8626066e-01]
 [ 2.8796777e-01 -2.4541607e-01 -2.5541025e-01]
 [-3.7616438e-01  4.9526840e-01 -4.1193941e-01]
 [ 3.8533011e-01 -5.6597739e-01  2.8904516e-01]] 
Episode: 40: [[-5.7016534e-04  5.6101690e-04 -7.7737187e-04]
 [ 5.6427129e-04 -5.6478736e-04  5.3573976e-04]
 [-6.4357487e-04  6.3354906e-04  6.3059374e-04]
 [-1.6298334e-01 -3.3950174e-01  4.2555619e-02]
 [ 1.2674026e-01 -4.7585215e-02 -3.9890029e-02]
 [ 4.5986906e-01  5.2280974e-01 -3.8188565e-01]
 [ 2.2888330e-01 -4.6096846e-01  3.5002056e-01]
 [ 3.7744889e-01  4.8539820e-01  4.0224949e-01]
 [-1.9678885e-01  2.9146330e-02 -3.8625163e-01]
 [ 2.8797531e-01 -2.4542458e-01 -2.5543475e-01]
 [-3.7617272e-01  4.9527720e-01 -4.1194618e-01]
 [ 3.8533825e-01 -5.6598699e-01  2.8903547e-01]] 
Episode: 41: [[-5.5322010e-04  5.4330972e-04 -7.7809516e-04]
 [ 5.4725510e-04 -5.4742087e-04  5.2212575e-04]
 [-6.2639394e-04  6.1498402e-04  6.1159633e-04]
 [-1.6296630e-01 -3.3951929e-01  4.2565588e-02]
 [ 1.2672326e-01 -4.7568001e-02 -3.9905183e-02]
 [ 4.5988417e-01  5.2279139e-01 -3.8190475e-01]
 [ 2.2886671e-01 -4.6095061e-01  3.5004100e-01]
 [ 3.7743467e-01  4.8541379e-01  4.0227646e-01]
 [-1.9680715e-01  2.9165154e-02 -3.8623205e-01]
 [ 2.8799248e-01 -2.4544241e-01 -2.5545350e-01]
 [-3.7619025e-01  4.9529499e-01 -4.1196150e-01]
 [ 3.8535395e-01 -5.6600481e-01  2.8901562e-01]] 
Episode: 42: [[-5.2771776e-04  5.1701593e-04 -7.5967039e-04]
 [ 5.2116619e-04 -5.2095222e-04  4.9704738e-04]
 [-5.9972110e-04  5.8751140e-04  5.8631884e-04]
 [-1.6294095e-01 -3.3954525e-01  4.2587165e-02]
 [ 1.2669724e-01 -4.7541719e-02 -3.9930545e-02]
 [ 4.5991012e-01  5.2276373e-01 -3.8192979e-01]
 [ 2.2884218e-01 -4.6092448e-01  3.5006750e-01]
 [ 3.7741151e-01  4.8543844e-01  4.0230766e-01]
 [-1.9683364e-01  2.9192291e-02 -3.8620722e-01]
 [ 2.8801799e-01 -2.4546868e-01 -2.5544927e-01]
 [-3.7621665e-01  4.9532175e-01 -4.1198799e-01]
 [ 3.8537988e-01 -5.6603187e-01  2.8898996e-01]] 
Episode: 43: [[-5.0342048e-04  4.9204117e-04 -7.4343098e-04]
 [ 4.9650186e-04 -4.9597723e-04  4.7400178e-04]
 [-5.7421235e-04  5.6173583e-04  5.6191743e-04]
 [-1.6291666e-01 -3.3957002e-01  4.2607814e-02]
 [ 1.2667240e-01 -4.7516715e-02 -3.9954688e-02]
 [ 4.5993689e-01  5.2273721e-01 -3.8195342e-01]
 [ 2.2881912e-01 -4.6089992e-01  3.5009325e-01]
 [ 3.7738904e-01  4.8546192e-01  4.0233636e-01]
 [-1.9685926e-01  2.9218169e-02 -3.8618338e-01]
 [ 2.8804234e-01 -2.4549365e-01 -2.5544655e-01]
 [-3.7624159e-01  4.9534699e-01 -4.1201225e-01]
 [ 3.8540518e-01 -5.6605744e-01  2.8896543e-01]] 
Episode: 44: [[-4.7966745e-04  4.6770665e-04 -7.2654104e-04]
 [ 4.7225007e-04 -4.7133959e-04  4.5124779e-04]
 [-5.4792647e-04  5.3567276e-04  5.3846464e-04]
 [-1.6289276e-01 -3.3959427e-01  4.2629693e-02]
 [ 1.2664784e-01 -4.7491971e-02 -3.9978895e-02]
 [ 4.5996368e-01  5.2271062e-01 -3.8197666e-01]
 [ 2.2879562e-01 -4.6087542e-01  3.5011742e-01]
 [ 3.7736639e-01  4.8548564e-01  4.0236372e-01]
 [-1.9688456e-01  2.9243808e-02 -3.8616085e-01]
 [ 2.8806642e-01 -2.4551819e-01 -2.5543681e-01]
 [-3.7626627e-01  4.9537200e-01 -4.1203666e-01]
 [ 3.8543069e-01 -5.6608313e-01  2.8894162e-01]] 
Episode: 45: [[-4.5576150e-04  4.4320369e-04 -7.1314350e-04]
 [ 4.4820583e-04 -4.4694348e-04  4.2878164e-04]
 [-5.2173418e-04  5.0965970e-04  5.1482988e-04]
 [-1.6286868e-01 -3.3961880e-01  4.2651344e-02]
 [ 1.2662354e-01 -4.7467563e-02 -4.0003076e-02]
 [ 4.5999119e-01  5.2268362e-01 -3.8200036e-01]
 [ 2.2877149e-01 -4.6085030e-01  3.5014245e-01]
 [ 3.7734383e-01  4.8550934e-01  4.0239209e-01]
 [-1.9690956e-01  2.9269198e-02 -3.8613787e-01]
 [ 2.8809068e-01 -2.4554299e-01 -2.5543159e-01]
 [-3.7629080e-01  4.9539679e-01 -4.1206101e-01]
 [ 3.8545629e-01 -5.6610888e-01  2.8891757e-01]] 
Episode: 46: [[-4.2237077e-04  4.0950338e-04 -6.9089746e-04]
 [ 4.1515840e-04 -4.1366034e-04  3.9674697e-04]
 [-4.8969942e-04  4.7622950e-04  4.8166342e-04]
 [-1.6283491e-01 -3.3965275e-01  4.2682793e-02]
 [ 1.2659012e-01 -4.7434103e-02 -4.0036581e-02]
 [ 4.6002758e-01  5.2264798e-01 -3.8203263e-01]
 [ 2.2873899e-01 -4.6081677e-01  3.5017753e-01]
 [ 3.7731183e-01  4.8554212e-01  4.0242639e-01]
 [-1.9694363e-01  2.9303422e-02 -3.8610685e-01]
 [ 2.8812438e-01 -2.4557693e-01 -2.5542381e-01]
 [-3.7632418e-01  4.9543035e-01 -4.1209450e-01]
 [ 3.8548937e-01 -5.6614268e-01  2.8888440e-01]] 
Episode: 47: [[-3.9184073e-04  3.7836441e-04 -6.7566597e-04]
 [ 3.8525471e-04 -3.8326220e-04  3.6838578e-04]
 [-4.5995053e-04  4.4478886e-04  4.5156738e-04]
 [-1.6280398e-01 -3.3968413e-01  4.2709678e-02]
 [ 1.2655951e-01 -4.7403298e-02 -4.0067296e-02]
 [ 4.6005836e-01  5.2261543e-01 -3.8206267e-01]
 [ 2.2870992e-01 -4.6078584e-01  3.5021117e-01]
 [ 3.7728292e-01  4.8557234e-01  4.0245855e-01]
 [-1.9697420e-01  2.9334767e-02 -3.8607737e-01]
 [ 2.8815526e-01 -2.4560837e-01 -2.5542504e-01]
 [-3.7635443e-01  4.9546102e-01 -4.1212425e-01]
 [ 3.8551974e-01 -5.6617433e-01  2.8885421e-01]] 
Episode: 48: [[-3.5306191e-04  3.3900607e-04 -6.5714325e-04]
 [ 3.4737235e-04 -3.4479101e-04  3.3356738e-04]
 [-4.2081275e-04  4.0416350e-04  4.1224153e-04]
 [-1.6276442e-01 -3.3972406e-01  4.2744685e-02]
 [ 1.2652045e-01 -4.7364008e-02 -4.0106140e-02]
 [ 4.6009517e-01  5.2257472e-01 -3.8210279e-01]
 [ 2.2867255e-01 -4.6074662e-01  3.5025403e-01]
 [ 3.7724575e-01  4.8561096e-01  4.0250057e-01]
 [-1.9701341e-01  2.9374829e-02 -3.8603741e-01]
 [ 2.8819475e-01 -2.4564832e-01 -2.5542548e-01]
 [-3.7639287e-01  4.9549997e-01 -4.1216087e-01]
 [ 3.8555863e-01 -5.6621486e-01  2.8881446e-01]] 
Episode: 49: [[-3.0639657e-04  2.9176631e-04 -6.2428106e-04]
 [ 3.0116973e-04 -2.9806659e-04  2.8845796e-04]
 [-3.7495975e-04  3.5618045e-04  3.6653588e-04]
 [-1.6271737e-01 -3.3977157e-01  4.2788211e-02]
 [ 1.2647361e-01 -4.7316879e-02 -4.0153261e-02]
 [ 4.6013865e-01  5.2252650e-01 -3.8214928e-01]
 [ 2.2862744e-01 -4.6069953e-01  3.5030326e-01]
 [ 3.7720114e-01  4.8565736e-01  4.0254942e-01]
 [-1.9705941e-01  2.9422008e-02 -3.8599148e-01]
 [ 2.8824177e-01 -2.4569592e-01 -2.5541523e-01]
 [-3.7643942e-01  4.9554703e-01 -4.1220734e-01]
 [ 3.8560471e-01 -5.6626290e-01  2.8876853e-01]] 
Episode: 50: [[-2.7461900e-04  2.5948416e-04 -6.1046495e-04]
 [ 2.6965557e-04 -2.6602813e-04  2.5979063e-04]
 [-3.3884071e-04  3.2150585e-04  3.3645154e-04]
 [-1.6268484e-01 -3.3980432e-01  4.2816397e-02]
 [ 1.2644111e-01 -4.7284182e-02 -4.0185321e-02]
 [ 4.6017015e-01  5.2249306e-01 -3.8218138e-01]
 [ 2.2859685e-01 -4.6066746e-01  3.5033879e-01]
 [ 3.7717074e-01  4.8568910e-01  4.0258604e-01]
 [-1.9709139e-01  2.9454596e-02 -3.8595948e-01]
 [ 2.8827426e-01 -2.4572873e-01 -2.5541583e-01]
 [-3.7647134e-01  4.9557939e-01 -4.1223729e-01]
 [ 3.8563952e-01 -5.6629705e-01  2.8873780e-01]] 
Episode: 51: [[-2.5530005e-04  2.3978298e-04 -6.0113752e-04]
 [ 2.5033235e-04 -2.4632693e-04  2.4178949e-04]
 [-3.1551823e-04  2.9973834e-04  3.1928648e-04]
 [-1.6266504e-01 -3.3982435e-01  4.2833667e-02]
 [ 1.2642105e-01 -4.7263987e-02 -4.0205322e-02]
 [ 4.6019045e-01  5.2247202e-01 -3.8220036e-01]
 [ 2.2857855e-01 -4.6064797e-01  3.5036051e-01]
 [ 3.7715238e-01  4.8570853e-01  4.0260857e-01]
 [-1.9711062e-01  2.9474363e-02 -3.8594082e-01]
 [ 2.8829411e-01 -2.4574886e-01 -2.5541282e-01]
 [-3.7649095e-01  4.9559936e-01 -4.1225636e-01]
 [ 3.8566184e-01 -5.6631851e-01  2.8872013e-01]] 
Episode: 52: [[-2.4697525e-04  2.3139112e-04 -5.9685158e-04]
 [ 2.4220557e-04 -2.3810673e-04  2.3344471e-04]
 [-3.0463666e-04  2.8991414e-04  3.1204944e-04]
 [-1.6265644e-01 -3.3983290e-01  4.2841472e-02]
 [ 1.2641266e-01 -4.7255609e-02 -4.0214173e-02]
 [ 4.6020013e-01  5.2246249e-01 -3.8220859e-01]
 [ 2.2857125e-01 -4.6063998e-01  3.5037085e-01]
 [ 3.7714496e-01  4.8571646e-01  4.0261844e-01]
 [-1.9711871e-01  2.9482784e-02 -3.8593239e-01]
 [ 2.8830275e-01 -2.4575749e-01 -2.5540993e-01]
 [-3.7649921e-01  4.9560770e-01 -4.1226533e-01]
 [ 3.8567212e-01 -5.6632811e-01  2.8871259e-01]] 
Episode: 53: [[-2.4804292e-04  2.3255445e-04 -5.9824192e-04]
 [ 2.4333851e-04 -2.3923966e-04  2.3424489e-04]
 [-3.0096184e-04  2.8872161e-04  3.1401400e-04]
 [-1.6265723e-01 -3.3983192e-01  4.2841453e-02]
 [ 1.2641342e-01 -4.7256496e-02 -4.0214144e-02]
 [ 4.6020165e-01  5.2246201e-01 -3.8220814e-01]
 [ 2.2857261e-01 -4.6064132e-01  3.5037100e-01]
 [ 3.7714595e-01  4.8571554e-01  4.0261790e-01]
 [-1.9711792e-01  2.9482082e-02 -3.8593262e-01]
 [ 2.8830218e-01 -2.4575672e-01 -2.5540203e-01]
 [-3.7649825e-01  4.9560672e-01 -4.1226530e-01]
 [ 3.8567469e-01 -5.6632894e-01  2.8871411e-01]] 
Episode: 54: [[-2.5860430e-04  2.4349829e-04 -6.0236728e-04]
 [ 2.5381619e-04 -2.4991733e-04  2.4349369e-04]
 [-3.0985547e-04  2.9903892e-04  3.2538612e-04]
 [-1.6266748e-01 -3.3982119e-01  4.2833932e-02]
 [ 1.2642379e-01 -4.7267087e-02 -4.0204361e-02]
 [ 4.6019483e-01  5.2247196e-01 -3.8219619e-01]
 [ 2.2858353e-01 -4.6065271e-01  3.5036048e-01]
 [ 3.7715596e-01  4.8570493e-01  4.0260574e-01]
 [-1.9710746e-01  2.9471377e-02 -3.8594422e-01]
 [ 2.8829190e-01 -2.4574594e-01 -2.5539243e-01]
 [-3.7648776e-01  4.9559605e-01 -4.1225618e-01]
 [ 3.8566610e-01 -5.6631869e-01  2.8872576e-01]] 
Episode: 55: [[-2.7744175e-04  2.6294257e-04 -6.1628583e-04]
 [ 2.7310729e-04 -2.6943244e-04  2.6300430e-04]
 [-3.3090153e-04  3.1937743e-04  3.4263328e-04]
 [-1.6268574e-01 -3.3980218e-01  4.2818390e-02]
 [ 1.2644273e-01 -4.7286268e-02 -4.0185440e-02]
 [ 4.6018052e-01  5.2249026e-01 -3.8217682e-01]
 [ 2.2860277e-01 -4.6067286e-01  3.5034272e-01]
 [ 3.7717453e-01  4.8568562e-01  4.0258718e-01]
 [-1.9708920e-01  2.9452519e-02 -3.8596287e-01]
 [ 2.8827330e-01 -2.4572663e-01 -2.5539255e-01]
 [-3.7646854e-01  4.9557659e-01 -4.1223687e-01]
 [ 3.8564593e-01 -5.6629860e-01  2.8874326e-01]] 
Episode: 56: [[-2.9207251e-04  2.7818591e-04 -6.1846385e-04]
 [ 2.8810240e-04 -2.8473893e-04  2.7624410e-04]
 [-3.4758242e-04  3.3520194e-04  3.5587852e-04]
 [-1.6270028e-01 -3.3978704e-01  4.2808428e-02]
 [ 1.2645780e-01 -4.7301583e-02 -4.0171143e-02]
 [ 4.6017036e-01  5.2250385e-01 -3.8216162e-01]
 [ 2.2861850e-01 -4.6068931e-01  3.5032877e-01]
 [ 3.7718934e-01  4.8567030e-01  4.0257180e-01]
 [-1.9707510e-01  2.9437905e-02 -3.8597876e-01]
 [ 2.8825864e-01 -2.4571136e-01 -2.5538111e-01]
 [-3.7645349e-01  4.9556127e-01 -4.1222370e-01]
 [ 3.8563067e-01 -5.6628329e-01  2.8875697e-01]] 
Episode: 57: [[-3.0460290e-04  2.9145772e-04 -6.2680844e-04]
 [ 3.0158443e-04 -2.9848711e-04  2.9044662e-04]
 [-3.6304962e-04  3.5022461e-04  3.6623960e-04]
 [-1.6271280e-01 -3.3977383e-01  4.2796914e-02]
 [ 1.2647089e-01 -4.7314979e-02 -4.0157981e-02]
 [ 4.6016154e-01  5.2251661e-01 -3.8214910e-01]
 [ 2.2863351e-01 -4.6070471e-01  3.5031995e-01]
 [ 3.7720209e-01  4.8565680e-01  4.0255985e-01]
 [-1.9706252e-01  2.9424593e-02 -3.8598999e-01]
 [ 2.8824604e-01 -2.4569800e-01 -2.5538480e-01]
 [-3.7643990e-01  4.9554747e-01 -4.1220897e-01]
 [ 3.8561589e-01 -5.6626844e-01  2.8876740e-01]] 
Episode: 58: [[-3.1499373e-04  3.0261558e-04 -6.2720029e-04]
 [ 3.1219979e-04 -3.0943390e-04  3.0061827e-04]
 [-3.7442855e-04  3.6231836e-04  3.7557448e-04]
 [-1.6272345e-01 -3.3976257e-01  4.2788971e-02]
 [ 1.2648149e-01 -4.7325861e-02 -4.0147644e-02]
 [ 4.6015728e-01  5.2252632e-01 -3.8213795e-01]
 [ 2.2864518e-01 -4.6071729e-01  3.5031056e-01]
 [ 3.7721181e-01  4.8564619e-01  4.0254822e-01]
 [-1.9705312e-01  2.9414071e-02 -3.8600212e-01]
 [ 2.8823543e-01 -2.4568668e-01 -2.5537771e-01]
 [-3.7642917e-01  4.9553645e-01 -4.1219851e-01]
 [ 3.8560545e-01 -5.6625676e-01  2.8877696e-01]] 
Episode: 59: [[-3.4267807e-04  3.3112636e-04 -6.4495800e-04]
 [ 3.4011793e-04 -3.3779867e-04  3.2757883e-04]
 [-4.0231529e-04  3.9169902e-04  4.0264279e-04]
 [-1.6275145e-01 -3.3973393e-01  4.2764015e-02]
 [ 1.2650958e-01 -4.7354326e-02 -4.0120117e-02]
 [ 4.6013382e-01  5.2255446e-01 -3.8211000e-01]
 [ 2.2867312e-01 -4.6074674e-01  3.5028395e-01]
 [ 3.7723815e-01  4.8561844e-01  4.0251845e-01]
 [-1.9702570e-01  2.9385634e-02 -3.8603070e-01]
 [ 2.8820744e-01 -2.4565794e-01 -2.5538120e-01]
 [-3.7640101e-01  4.9550790e-01 -4.1217095e-01]
 [ 3.8557845e-01 -5.6622773e-01  2.8880432e-01]] 
Episode: 60: [[-3.7537754e-04  3.6463322e-04 -6.7174569e-04]
 [ 3.7317449e-04 -3.7126866e-04  3.6095941e-04]
 [-4.3484918e-04  4.2600467e-04  4.3389096e-04]
 [-1.6278435e-01 -3.3970040e-01  4.2732559e-02]
 [ 1.2654264e-01 -4.7387771e-02 -4.0086962e-02]
 [ 4.6010411e-01  5.2258801e-01 -3.8207847e-01]
 [ 2.2870639e-01 -4.6078137e-01  3.5025355e-01]
 [ 3.7726992e-01  4.8558539e-01  4.0248668e-01]
 [-1.9699357e-01  2.9352359e-02 -3.8606274e-01]
 [ 2.8817454e-01 -2.4562427e-01 -2.5539491e-01]
 [-3.7636778e-01  4.9547428e-01 -4.1213700e-01]
 [ 3.8554624e-01 -5.6619358e-01  2.8883556e-01]] 
Episode: 61: [[-3.9317558e-04  3.8327413e-04 -6.8203267e-04]
 [ 3.9151142e-04 -3.8998912e-04  3.7974585e-04]
 [-4.5545620e-04  4.4657782e-04  4.4975698e-04]
 [-1.6280237e-01 -3.3968174e-01  4.2716928e-02]
 [ 1.2656091e-01 -4.7406398e-02 -4.0068489e-02]
 [ 4.6009105e-01  5.2260596e-01 -3.8206086e-01]
 [ 2.2872485e-01 -4.6080118e-01  3.5023618e-01]
 [ 3.7728709e-01  4.8556697e-01  4.0246779e-01]
 [-1.9697653e-01  2.9334154e-02 -3.8608077e-01]
 [ 2.8815645e-01 -2.4560541e-01 -2.5539631e-01]
 [-3.7634930e-01  4.9545544e-01 -4.1211781e-01]
 [ 3.8552690e-01 -5.6617355e-01  2.8885162e-01]] 
Episode: 62: [[-4.1796139e-04  4.0887273e-04 -6.9716707e-04]
 [ 4.1690344e-04 -4.1580552e-04  4.0475358e-04]
 [-4.8273141e-04  4.7383879e-04  4.7190938e-04]
 [-1.6282749e-01 -3.3965603e-01  4.2695027e-02]
 [ 1.2658668e-01 -4.7432482e-02 -4.0042646e-02]
 [ 4.6007252e-01  5.2263010e-01 -3.8203681e-01]
 [ 2.2874910e-01 -4.6082738e-01  3.5021093e-01]
 [ 3.7731174e-01  4.8554128e-01  4.0244281e-01]
 [-1.9695330e-01  2.9309511e-02 -3.8610622e-01]
 [ 2.8813130e-01 -2.4557956e-01 -2.5539881e-01]
 [-3.7632379e-01  4.9542952e-01 -4.1209263e-01]
 [ 3.8550091e-01 -5.6614685e-01  2.8887391e-01]] 
Episode: 63: [[-4.1809282e-04  4.0956264e-04 -6.9967512e-04]
 [ 4.1779099e-04 -4.1699625e-04  4.0699981e-04]
 [-4.8576749e-04  4.7686062e-04  4.7037617e-04]
 [-1.6282733e-01 -3.3965567e-01  4.2695630e-02]
 [ 1.2658742e-01 -4.7433522e-02 -4.0041171e-02]
 [ 4.6007684e-01  5.2263033e-01 -3.8203660e-01]
 [ 2.2874925e-01 -4.6082878e-01  3.5021159e-01]
 [ 3.7731162e-01  4.8554036e-01  4.0244162e-01]
 [-1.9695409e-01  2.9308990e-02 -3.8610759e-01]
 [ 2.8813115e-01 -2.4557887e-01 -2.5540346e-01]
 [-3.7632287e-01  4.9542829e-01 -4.1209024e-01]
 [ 3.8549906e-01 -5.6614435e-01  2.8887245e-01]] 
Episode: 64: [[-4.0765703e-04  3.9959146e-04 -6.9694023e-04]
 [ 4.0850407e-04 -4.0797328e-04  3.9987042e-04]
 [-4.8062237e-04  4.7008906e-04  4.5710942e-04]
 [-1.6281682e-01 -3.3966574e-01  4.2704467e-02]
 [ 1.2657838e-01 -4.7424678e-02 -4.0048771e-02]
 [ 4.6008936e-01  5.2262074e-01 -3.8204741e-01]
 [ 2.2873977e-01 -4.6081996e-01  3.5022476e-01]
 [ 3.7730259e-01  4.8554900e-01  4.0245521e-01]
 [-1.9696514e-01  2.9318836e-02 -3.8609779e-01]
 [ 2.8814134e-01 -2.4558866e-01 -2.5541595e-01]
 [-3.7633213e-01  4.9543729e-01 -4.1209728e-01]
 [ 3.8550556e-01 -5.6615156e-01  2.8885931e-01]] 
Episode: 65: [[-4.0592716e-04  3.9829485e-04 -6.9964264e-04]
 [ 4.0770456e-04 -4.0740485e-04  4.0016478e-04]
 [-4.8315691e-04  4.7140472e-04  4.5348171e-04]
 [-1.6281483e-01 -3.3966729e-01  4.2706564e-02]
 [ 1.2657759e-01 -4.7424115e-02 -4.0048908e-02]
 [ 4.6009153e-01  5.2262014e-01 -3.8204968e-01]
 [ 2.2873837e-01 -4.6081939e-01  3.5022759e-01]
 [ 3.7730119e-01  4.8554969e-01  4.0245634e-01]
 [-1.9696711e-01  2.9319894e-02 -3.8609669e-01]
 [ 2.8814301e-01 -2.4558991e-01 -2.5542331e-01]
 [-3.7633291e-01  4.9543783e-01 -4.1209695e-01]
 [ 3.8550431e-01 -5.6615072e-01  2.8885585e-01]] 
Episode: 66: [[-4.0130079e-04  3.9444017e-04 -6.8136567e-04]
 [ 4.0367813e-04 -4.0388861e-04  3.9288634e-04]
 [-4.8374682e-04  4.6973035e-04  4.4721458e-04]
 [-1.6281064e-01 -3.3967093e-01  4.2716030e-02]
 [ 1.2657423e-01 -4.7421105e-02 -4.0053472e-02]
 [ 4.6009618e-01  5.2261609e-01 -3.8205454e-01]
 [ 2.2873455e-01 -4.6081668e-01  3.5023046e-01]
 [ 3.7729675e-01  4.8555323e-01  4.0245521e-01]
 [-1.9697151e-01  2.9323684e-02 -3.8609409e-01]
 [ 2.8814724e-01 -2.4559350e-01 -2.5540128e-01]
 [-3.7633669e-01  4.9544117e-01 -4.1210392e-01]
 [ 3.8550597e-01 -5.6615323e-01  2.8885013e-01]] 
Episode: 67: [[-3.8539377e-04  3.7944087e-04 -6.5695785e-04]
 [ 3.8873593e-04 -3.8948699e-04  3.7695028e-04]
 [-4.7376982e-04  4.5759254e-04  4.2893394e-04]
 [-1.6279534e-01 -3.3968556e-01  4.2734902e-02]
 [ 1.2655996e-01 -4.7407243e-02 -4.0067926e-02]
 [ 4.6010980e-01  5.2260214e-01 -3.8207141e-01]
 [ 2.2872059e-01 -4.6080351e-01  3.5024640e-01]
 [ 3.7728170e-01  4.8556727e-01  4.0246853e-01]
 [-1.9698656e-01  2.9338136e-02 -3.8607761e-01]
 [ 2.8816271e-01 -2.4560815e-01 -2.5538102e-01]
 [-3.7635139e-01  4.9545538e-01 -4.1211939e-01]
 [ 3.8551751e-01 -5.6616592e-01  2.8883210e-01]] 
Episode: 68: [[-3.4967676e-04  3.4450722e-04 -6.2484044e-04]
 [ 3.5384719e-04 -3.5504968e-04  3.4453173e-04]
 [-4.4173896e-04  4.2473205e-04  3.9078260e-04]
 [-1.6275956e-01 -3.3972061e-01  4.2771555e-02]
 [ 1.2652493e-01 -4.7372662e-02 -4.0101949e-02]
 [ 4.6014267e-01  5.2256829e-01 -3.8210914e-01]
 [ 2.2868757e-01 -4.6077070e-01  3.5028419e-01]
 [ 3.7724665e-01  4.8560148e-01  4.0250549e-01]
 [-1.9702193e-01  2.9372744e-02 -3.8603997e-01]
 [ 2.8819847e-01 -2.4564309e-01 -2.5536481e-01]
 [-3.7638631e-01  4.9548987e-01 -4.1215181e-01]
 [ 3.8555008e-01 -5.6619900e-01  2.8879377e-01]] 
Episode: 69: [[-3.2433597e-04  3.2065334e-04 -6.0308655e-04]
 [ 3.2950545e-04 -3.3130147e-04  3.2514142e-04]
 [-4.1952543e-04  4.0322039e-04  3.6249796e-04]
 [-1.6273403e-01 -3.3974475e-01  4.2796969e-02]
 [ 1.2649989e-01 -4.7348306e-02 -4.0125262e-02]
 [ 4.6015760e-01  5.2254862e-01 -3.8213894e-01]
 [ 2.2866683e-01 -4.6075034e-01  3.5031429e-01]
 [ 3.7722024e-01  4.8562592e-01  4.0253183e-01]
 [-1.9704583e-01  2.9395720e-02 -3.8600770e-01]
 [ 2.8822389e-01 -2.4566694e-01 -2.5535691e-01]
 [-3.7641051e-01  4.9551353e-01 -4.1217002e-01]
 [ 3.8557211e-01 -5.6622052e-01  2.8876513e-01]] 
Episode: 70: [[-3.0048998e-04  2.9828725e-04 -5.7847652e-04]
 [ 3.0655408e-04 -3.0899644e-04  3.0625227e-04]
 [-3.9721996e-04  3.8230076e-04  3.3651860e-04]
 [-1.6270971e-01 -3.3976763e-01  4.2824589e-02]
 [ 1.2647627e-01 -4.7325432e-02 -4.0147811e-02]
 [ 4.6017578e-01  5.2252853e-01 -3.8216609e-01]
 [ 2.2864647e-01 -4.6073079e-01  3.5034093e-01]
 [ 3.7719494e-01  4.8564917e-01  4.0255484e-01]
 [-1.9706920e-01  2.9417923e-02 -3.8597947e-01]
 [ 2.8824806e-01 -2.4568950e-01 -2.5533530e-01]
 [-3.7643343e-01  4.9553582e-01 -4.1218823e-01]
 [ 3.8559496e-01 -5.6624180e-01  2.8873914e-01]] 
Episode: 71: [[-2.7798643e-04  2.7715880e-04 -5.5767735e-04]
 [ 2.8496888e-04 -2.8793447e-04  2.8908567e-04]
 [-3.7523746e-04  3.6278169e-04  3.1312054e-04]
 [-1.6268684e-01 -3.3978924e-01  4.2849489e-02]
 [ 1.2645391e-01 -4.7303695e-02 -4.0169001e-02]
 [ 4.6019500e-01  5.2250952e-01 -3.8219050e-01]
 [ 2.2862841e-01 -4.6071306e-01  3.5036758e-01]
 [ 3.7717161e-01  4.8567083e-01  4.0257776e-01]
 [-1.9709101e-01  2.9438451e-02 -3.8595366e-01]
 [ 2.8827092e-01 -2.4571083e-01 -2.5531748e-01]
 [-3.7645495e-01  4.9555683e-01 -4.1220462e-01]
 [ 3.8561729e-01 -5.6626165e-01  2.8871569e-01]] 
Episode: 72: [[-2.6619763e-04  2.6655468e-04 -5.4507970e-04]
 [ 2.7412843e-04 -2.7752863e-04  2.8177645e-04]
 [-3.6442111e-04  3.5396710e-04  3.0056204e-04]
 [-1.6267455e-01 -3.3980042e-01  4.2865120e-02]
 [ 1.2644233e-01 -4.7292653e-02 -4.0179804e-02]
 [ 4.6020713e-01  5.2249992e-01 -3.8220307e-01]
 [ 2.2862011e-01 -4.6070525e-01  3.5038257e-01]
 [ 3.7715897e-01  4.8568198e-01  4.0258890e-01]
 [-1.9710274e-01  2.9448735e-02 -3.8594091e-01]
 [ 2.8828308e-01 -2.4572170e-01 -2.5530052e-01]
 [-3.7646580e-01  4.9556723e-01 -4.1221154e-01]
 [ 3.8562924e-01 -5.6627113e-01  2.8870341e-01]] 
Episode: 73: [[-2.6344723e-04  2.6518785e-04 -5.4597651e-04]
 [ 2.7290612e-04 -2.7684026e-04  2.8529408e-04]
 [-3.6310122e-04  3.5502977e-04  2.9616247e-04]
 [-1.6267101e-01 -3.3980256e-01  4.2870581e-02]
 [ 1.2644003e-01 -4.7291078e-02 -4.0181234e-02]
 [ 4.6020937e-01  5.2250046e-01 -3.8220766e-01]
 [ 2.2862165e-01 -4.6070692e-01  3.5039115e-01]
 [ 3.7715480e-01  4.8568404e-01  4.0259114e-01]
 [-1.9710518e-01  2.9449487e-02 -3.8593426e-01]
 [ 2.8828630e-01 -2.4572338e-01 -2.5529623e-01]
 [-3.7646702e-01  4.9556792e-01 -4.1220731e-01]
 [ 3.8563141e-01 -5.6627059e-01  2.8869915e-01]] 
Episode: 74: [[-2.4552023e-04  2.4804118e-04 -5.4156373e-04]
 [ 2.5621240e-04 -2.6036275e-04  2.7449141e-04]
 [-3.4411423e-04  3.3910060e-04  2.7635440e-04]
 [-1.6265243e-01 -3.3982027e-01  4.2887945e-02]
 [ 1.2642227e-01 -4.7273818e-02 -4.0197767e-02]
 [ 4.6022788e-01  5.2248442e-01 -3.8222751e-01]
 [ 2.2860636e-01 -4.6069172e-01  3.5041475e-01]
 [ 3.7713560e-01  4.8570189e-01  4.0261129e-01]
 [-1.9712339e-01  2.9466236e-02 -3.8591239e-01]
 [ 2.8830469e-01 -2.4574082e-01 -2.5530162e-01]
 [-3.7648386e-01  4.9558452e-01 -4.1221783e-01]
 [ 3.8565069e-01 -5.6628674e-01  2.8867942e-01]] 
Episode: 75: [[-2.3507608e-04  2.3845707e-04 -5.4520805e-04]
 [ 2.4707927e-04 -2.5166853e-04  2.7136228e-04]
 [-3.3412475e-04  3.3131527e-04  2.6202830e-04]
 [-1.6264132e-01 -3.3983049e-01  4.2896923e-02]
 [ 1.2641241e-01 -4.7264542e-02 -4.0205646e-02]
 [ 4.6023896e-01  5.2247578e-01 -3.8224146e-01]
 [ 2.2859816e-01 -4.6068403e-01  3.5043177e-01]
 [ 3.7712505e-01  4.8571128e-01  4.0262866e-01]
 [-1.9713473e-01  2.9475776e-02 -3.8589692e-01]
 [ 2.8831571e-01 -2.4575083e-01 -2.5531286e-01]
 [-3.7649330e-01  4.9559346e-01 -4.1222113e-01]
 [ 3.8566080e-01 -5.6629467e-01  2.8866488e-01]] 
Episode: 76: [[-2.2441539e-04  2.2879292e-04 -5.4577610e-04]
 [ 2.3772848e-04 -2.4286337e-04  2.6679091e-04]
 [-3.2482497e-04  3.2393803e-04  2.4761050e-04]
 [-1.6262999e-01 -3.3984080e-01  4.2907689e-02]
 [ 1.2640263e-01 -4.7255408e-02 -4.0213816e-02]
 [ 4.6025211e-01  5.2246660e-01 -3.8225496e-01]
 [ 2.2858930e-01 -4.6067619e-01  3.5044804e-01]
 [ 3.7711439e-01  4.8572055e-01  4.0264463e-01]
 [-1.9714665e-01  2.9485621e-02 -3.8588279e-01]
 [ 2.8832692e-01 -2.4576090e-01 -2.5531772e-01]
 [-3.7650293e-01  4.9560249e-01 -4.1222599e-01]
 [ 3.8567108e-01 -5.6630254e-01  2.8865051e-01]] 
Episode: 77: [[-2.1384540e-04  2.1921567e-04 -5.5326440e-04]
 [ 2.2835104e-04 -2.3387684e-04  2.6433691e-04]
 [-3.1185895e-04  3.1475042e-04  2.3389827e-04]
 [-1.6261816e-01 -3.3985138e-01  4.2918373e-02]
 [ 1.2639219e-01 -4.7245599e-02 -4.0222440e-02]
 [ 4.6026379e-01  5.2245760e-01 -3.8226911e-01]
 [ 2.2858045e-01 -4.6066827e-01  3.5046589e-01]
 [ 3.7710336e-01  4.8573038e-01  4.0266356e-01]
 [-1.9715828e-01  2.9495437e-02 -3.8586661e-01]
 [ 2.8833857e-01 -2.4577121e-01 -2.5532597e-01]
 [-3.7651283e-01  4.9561188e-01 -4.1222933e-01]
 [ 3.8568369e-01 -5.6631172e-01  2.8863654e-01]] 
Episode: 78: [[-1.9422449e-04  2.0051944e-04 -5.5163045e-04]
 [ 2.0970521e-04 -2.1575092e-04  2.5270742e-04]
 [-2.9114619e-04  2.9740162e-04  2.1130427e-04]
 [-1.6259786e-01 -3.3987063e-01  4.2934947e-02]
 [ 1.2637262e-01 -4.7226723e-02 -4.0239833e-02]
 [ 4.6028608e-01  5.2243954e-01 -3.8229102e-01]
 [ 2.2856438e-01 -4.6065211e-01  3.5049361e-01]
 [ 3.7708333e-01  4.8574898e-01  4.0269119e-01]
 [-1.9717892e-01  2.9514058e-02 -3.8584235e-01]
 [ 2.8835875e-01 -2.4579029e-01 -2.5533974e-01]
 [-3.7653184e-01  4.9563029e-01 -4.1224140e-01]
 [ 3.8570392e-01 -5.6632900e-01  2.8861365e-01]] 
Episode: 79: [[-1.8597840e-04  1.9307082e-04 -5.5307319e-04]
 [ 2.0197032e-04 -2.0849914e-04  2.5023767e-04]
 [-2.8002524e-04  2.9020116e-04  2.0105169e-04]
 [-1.6258913e-01 -3.3987850e-01  4.2942151e-02]
 [ 1.2636401e-01 -4.7218751e-02 -4.0247105e-02]
 [ 4.6029881e-01  5.2243167e-01 -3.8230088e-01]
 [ 2.2855876e-01 -4.6064675e-01  3.5050765e-01]
 [ 3.7707388e-01  4.8575687e-01  4.0270457e-01]
 [-1.9718848e-01  2.9521855e-02 -3.8583058e-01]
 [ 2.8836754e-01 -2.4579811e-01 -2.5534362e-01]
 [-3.7653992e-01  4.9563780e-01 -4.1224441e-01]
 [ 3.8571432e-01 -5.6633610e-01  2.8860307e-01]] 
Episode: 80: [[-1.5814921e-04  1.6579685e-04 -5.3784653e-04]
 [ 1.7492936e-04 -1.8174053e-04  2.2838138e-04]
 [-2.5178806e-04  2.6383559e-04  1.7090431e-04]
 [-1.6256078e-01 -3.3990619e-01  4.2969212e-02]
 [ 1.2633605e-01 -4.7191270e-02 -4.0273961e-02]
 [ 4.6032795e-01  5.2240479e-01 -3.8233024e-01]
 [ 2.2853328e-01 -4.6062121e-01  3.5053992e-01]
 [ 3.7704492e-01  4.8578450e-01  4.0273428e-01]
 [-1.9721721e-01  2.9549329e-02 -3.8579905e-01]
 [ 2.8839585e-01 -2.4582569e-01 -2.5534061e-01]
 [-3.7656727e-01  4.9566481e-01 -4.1226685e-01]
 [ 3.8574231e-01 -5.6636244e-01  2.8857273e-01]] 
Episode: 81: [[-1.3294452e-04  1.4131451e-04 -5.2159582e-04]
 [ 1.5047657e-04 -1.5764957e-04  2.0858138e-04]
 [-2.2483699e-04  2.4039291e-04  1.4515301e-04]
 [-1.6253521e-01 -3.3993098e-01  4.2993985e-02]
 [ 1.2631080e-01 -4.7166497e-02 -4.0298101e-02]
 [ 4.6036318e-01  5.2237862e-01 -3.8235334e-01]
 [ 2.2851202e-01 -4.6059945e-01  3.5057038e-01]
 [ 3.7702030e-01  4.8580825e-01  4.0276420e-01]
 [-1.9724335e-01  2.9573744e-02 -3.8577306e-01]
 [ 2.8842145e-01 -2.4585041e-01 -2.5533354e-01]
 [-3.7659207e-01  4.9568915e-01 -4.1228750e-01]
 [ 3.8576886e-01 -5.6638587e-01  2.8854686e-01]] 
Episode: 82: [[-1.09169479e-04  1.18550357e-04 -5.07099438e-04]
 [ 1.27796229e-04 -1.35524882e-04  1.90490260e-04]
 [-2.00260562e-04  2.19431720e-04  1.20251345e-04]
 [-1.62510961e-01 -3.39954197e-01  4.30178232e-02]
 [ 1.26287460e-01 -4.71437611e-02 -4.03201357e-02]
 [ 4.60396469e-01  5.22354841e-01 -3.82375300e-01]
 [ 2.28492633e-01 -4.60579962e-01  3.50600451e-01]
 [ 3.76997799e-01  4.85829562e-01  4.02793437e-01]
 [-1.97267517e-01  2.95960419e-02 -3.85746986e-01]
 [ 2.88445711e-01 -2.45873466e-01 -2.55326480e-01]
 [-3.76615107e-01  4.95711535e-01 -4.12306458e-01]
 [ 3.85792673e-01 -5.66406667e-01  2.88521647e-01]] 
Episode: 83: [[-9.54719362e-05  1.05449995e-04 -5.09334961e-04]
 [ 1.15901450e-04 -1.23756661e-04  1.85697703e-04]
 [-1.85794212e-04  2.07848352e-04  1.05363579e-04]
 [-1.62496552e-01 -3.39967847e-01  4.30298299e-02]
 [ 1.26274034e-01 -4.71307635e-02 -4.03318629e-02]
 [ 4.60418761e-01  5.22340894e-01 -3.82387429e-01]
 [ 2.28485435e-01 -4.60570931e-01  3.50624472e-01]
 [ 3.76986712e-01  4.85840440e-01  4.02817786e-01]
 [-1.97280332e-01  2.96078585e-02 -3.85728389e-01]
 [ 2.88460255e-01 -2.45887101e-01 -2.55331069e-01]
 [-3.76627564e-01  4.95723695e-01 -4.12312448e-01]
 [ 3.85805696e-01 -5.66417754e-01  2.88506210e-01]] 
Episode: 84: [[-1.01817495e-04  1.12666865e-04 -5.25712734e-04]
 [ 1.24134705e-04 -1.32262765e-04  2.00736060e-04]
 [-1.92398089e-04  2.17245586e-04  1.10108384e-04]
 [-1.62502140e-01 -3.39961201e-01  4.30235378e-02]
 [ 1.26280710e-01 -4.71380278e-02 -4.03236933e-02]
 [ 4.60421741e-01  5.22347391e-01 -3.82379264e-01]
 [ 2.28498027e-01 -4.60582405e-01  3.50628912e-01]
 [ 3.76994610e-01  4.85831559e-01  4.02821153e-01]
 [-1.97272807e-01  2.95991115e-02 -3.85729909e-01]
 [ 2.88454801e-01 -2.45880395e-01 -2.55336225e-01]
 [-3.76619756e-01  4.95715499e-01 -4.12298232e-01]
 [ 3.85798067e-01 -5.66408038e-01  2.88510591e-01]] 
Episode: 85: [[-1.07304106e-04  1.19074241e-04 -5.39694738e-04]
 [ 1.31538996e-04 -1.40008589e-04  2.14119034e-04]
 [-1.99293514e-04  2.26257587e-04  1.13779286e-04]
 [-1.62506893e-01 -3.39955330e-01  4.30185944e-02]
 [ 1.26286641e-01 -4.71445695e-02 -4.03166004e-02]
 [ 4.60424930e-01  5.22353411e-01 -3.82371962e-01]
 [ 2.28509575e-01 -4.60592985e-01  3.50633532e-01]
 [ 3.77001405e-01  4.85823572e-01  4.02823299e-01]
 [-1.97266206e-01  2.95912083e-02 -3.85730952e-01]
 [ 2.88450122e-01 -2.45874450e-01 -2.55339146e-01]
 [-3.76612723e-01  4.95707989e-01 -4.12285507e-01]
 [ 3.85790706e-01 -5.66398859e-01  2.88514078e-01]] 
Episode: 86: [[-1.20664845e-04  1.33205627e-04 -5.61018067e-04]
 [ 1.46524690e-04 -1.55295638e-04  2.34695719e-04]
 [-2.14501066e-04  2.42986309e-04  1.24412123e-04]
 [-1.62519112e-01 -3.39942008e-01  4.30079140e-02]
 [ 1.26299828e-01 -4.71583828e-02 -4.03030179e-02]
 [ 4.60423350e-01  5.22365987e-01 -3.82356435e-01]
 [ 2.28526264e-01 -4.60609525e-01  3.50627333e-01]
 [ 3.77012819e-01  4.85810041e-01  4.02810454e-01]
 [-1.97253510e-01  2.95766648e-02 -3.85742813e-01]
 [ 2.88437665e-01 -2.45860860e-01 -2.55344033e-01]
 [-3.76598150e-01  4.95692968e-01 -4.12265718e-01]
 [ 3.85776192e-01 -5.66382468e-01  2.88525164e-01]] 
Episode: 87: [[-1.2124386e-04  1.3477923e-04 -5.6645245e-04]
 [ 1.4829534e-04 -1.5747911e-04  2.4195931e-04]
 [-2.1566173e-04  2.4709778e-04  1.2332427e-04]
 [-1.6251872e-01 -3.3994114e-01  4.3010399e-02]
 [ 1.2629992e-01 -4.7159132e-02 -4.0302228e-02]
 [ 4.6043563e-01  5.2236611e-01 -3.8235259e-01]
 [ 2.2853048e-01 -4.6061400e-01  3.5063240e-01]
 [ 3.7701145e-01  4.8580921e-01  4.0280998e-01]
 [-1.9725361e-01  2.9574627e-02 -3.8574257e-01]
 [ 2.8843796e-01 -2.4585976e-01 -2.5533518e-01]
 [-3.7659669e-01  4.9569100e-01 -4.1225901e-01]
 [ 3.8577518e-01 -5.6637853e-01  2.8852439e-01]] 
Episode: 88: [[-1.10284636e-04  1.24776809e-04 -5.64620597e-04]
 [ 1.38770949e-04 -1.48298903e-04  2.38762295e-04]
 [-2.07872101e-04  2.40741472e-04  1.10972447e-04]
 [-1.62506968e-01 -3.39951754e-01  4.30222154e-02]
 [ 1.26288861e-01 -4.71486561e-02 -4.03120741e-02]
 [ 4.60453749e-01  5.22356391e-01 -3.82360905e-01]
 [ 2.28524029e-01 -4.60607439e-01  3.50650221e-01]
 [ 3.76999617e-01  4.85819191e-01  4.02822703e-01]
 [-1.97263941e-01  2.95832641e-02 -3.85729760e-01]
 [ 2.88449675e-01 -2.45870158e-01 -2.55329758e-01]
 [-3.76606494e-01  4.95700359e-01 -4.12262678e-01]
 [ 3.85783225e-01 -5.66385031e-01  2.88512141e-01]] 
Episode: 89: [[-8.4550542e-05  9.9952151e-05 -5.4817146e-04]
 [ 1.1425298e-04 -1.2405986e-04  2.2045207e-04]
 [-1.8545731e-04  2.1919598e-04  8.4006388e-05]
 [-1.6248046e-01 -3.3997715e-01  4.3048907e-02]
 [ 1.2626281e-01 -4.7123123e-02 -4.0336851e-02]
 [ 4.6048433e-01  5.2233207e-01 -3.8238421e-01]
 [ 2.2850300e-01 -4.6058613e-01  3.5068190e-01]
 [ 3.7697315e-01  4.8584408e-01  4.0284979e-01]
 [-1.9728899e-01  2.9606935e-02 -3.8570234e-01]
 [ 2.8847611e-01 -2.4589536e-01 -2.5531712e-01]
 [-3.7663129e-01  4.9572477e-01 -4.1228136e-01]
 [ 3.8580582e-01 -5.6640667e-01  2.8848529e-01]] 
Episode: 90: [[-6.0011509e-05  7.6129116e-05 -5.3644681e-04]
 [ 9.0897789e-05 -1.0089529e-04  2.0310171e-04]
 [-1.6230092e-04  1.9783762e-04  5.9639926e-05]
 [-1.6245517e-01 -3.4000152e-01  4.3072771e-02]
 [ 1.2623762e-01 -4.7098417e-02 -4.0361229e-02]
 [ 4.6051219e-01  5.2230924e-01 -3.8240606e-01]
 [ 2.2848310e-01 -4.6056563e-01  3.5071239e-01]
 [ 3.7694696e-01  4.8586842e-01  4.0287244e-01]
 [-1.9731216e-01  2.9629199e-02 -3.8567531e-01]
 [ 2.8850129e-01 -2.4591951e-01 -2.5531244e-01]
 [-3.7665471e-01  4.9574795e-01 -4.1229847e-01]
 [ 3.8582864e-01 -5.6642795e-01  2.8846094e-01]] 
Episode: 91: [[-4.6263114e-05  6.3567546e-05 -5.2019465e-04]
 [ 7.8400080e-05 -8.8891371e-05  1.9299220e-04]
 [-1.5409998e-04  1.8925407e-04  4.5468285e-05]
 [-1.6244142e-01 -3.4001419e-01  4.3088507e-02]
 [ 1.2622450e-01 -4.7085814e-02 -4.0374100e-02]
 [ 4.6052951e-01  5.2229744e-01 -3.8241658e-01]
 [ 2.2847444e-01 -4.6055689e-01  3.5073069e-01]
 [ 3.7693346e-01  4.8588037e-01  4.0288451e-01]
 [-1.9732426e-01  2.9640233e-02 -3.8566115e-01]
 [ 2.8851512e-01 -2.4593203e-01 -2.5529447e-01]
 [-3.7666705e-01  4.9575981e-01 -4.1230813e-01]
 [ 3.8583753e-01 -5.6643683e-01  2.8844696e-01]] 
Episode: 92: [[-2.6829406e-05  4.5058416e-05 -5.0407433e-04]
 [ 6.0131391e-05 -7.0825394e-05  1.7941403e-04]
 [-1.3836230e-04  1.7386671e-04  2.5374102e-05]
 [-1.6242264e-01 -3.4003228e-01  4.3103464e-02]
 [ 1.2620567e-01 -4.7067199e-02 -4.0391244e-02]
 [ 4.6054929e-01  5.2228045e-01 -3.8243419e-01]
 [ 2.2846267e-01 -4.6054333e-01  3.5075870e-01]
 [ 3.7691653e-01  4.8589724e-01  4.0291125e-01]
 [-1.9734141e-01  2.9656805e-02 -3.8563818e-01]
 [ 2.8853428e-01 -2.4595027e-01 -2.5529543e-01]
 [-3.7668520e-01  4.9577779e-01 -4.1232097e-01]
 [ 3.8585189e-01 -5.6645173e-01  2.8842625e-01]] 
Episode: 93: [[ 1.29798423e-06  1.78595419e-05 -4.79902606e-04]
 [ 3.30508410e-05 -4.39570977e-05  1.56651440e-04]
 [-1.15225404e-04  1.50171618e-04 -3.68854012e-06]
 [-1.62395194e-01 -3.40058982e-01  4.31273021e-02]
 [ 1.26178294e-01 -4.70400155e-02 -4.04169671e-02]
 [ 4.60575819e-01  5.22255361e-01 -3.82460624e-01]
 [ 2.28441849e-01 -4.60520834e-01  3.50794435e-01]
 [ 3.76890779e-01  4.85922933e-01  4.02945280e-01]
 [-1.97367474e-01  2.96822507e-02 -3.85607421e-01]
 [ 2.88562059e-01 -2.45977119e-01 -2.55294561e-01]
 [-3.76712173e-01  4.95804548e-01 -4.12343025e-01]
 [ 3.85874093e-01 -5.66475034e-01  2.88396776e-01]] 
Episode: 94: [[ 1.7185634e-05  2.8538959e-06 -4.6368723e-04]
 [ 1.8073302e-05 -2.9207222e-05  1.4524104e-04]
 [-1.0463934e-04  1.3863509e-04 -2.0921449e-05]
 [-1.6238031e-01 -3.4007329e-01  4.3138959e-02]
 [ 1.2616332e-01 -4.7025204e-02 -4.0430330e-02]
 [ 4.6058911e-01  5.2224249e-01 -3.8247591e-01]
 [ 2.2843215e-01 -4.6051005e-01  3.5081652e-01]
 [ 3.7687704e-01  4.8593646e-01  4.0296629e-01]
 [-1.9738156e-01  2.9695787e-02 -3.8558865e-01]
 [ 2.8857741e-01 -2.4599165e-01 -2.5529486e-01]
 [-3.7672693e-01  4.9581912e-01 -4.1235349e-01]
 [ 3.8588369e-01 -5.6648618e-01  2.8837895e-01]] 
Episode: 95: [[ 3.2931133e-05 -1.1724726e-05 -4.4369584e-04]
 [ 3.3926824e-06 -1.4852250e-05  1.3407203e-04]
 [-9.4406430e-05  1.2770730e-04 -3.7812402e-05]
 [-1.6236557e-01 -3.4008718e-01  4.3151882e-02]
 [ 1.2614869e-01 -4.7010820e-02 -4.0443379e-02]
 [ 4.6060255e-01  5.2223027e-01 -3.8249069e-01]
 [ 2.2842455e-01 -4.6050075e-01  3.5083964e-01]
 [ 3.7686393e-01  4.8594925e-01  4.0298754e-01]
 [-1.9739546e-01  2.9708955e-02 -3.8557014e-01]
 [ 2.8859258e-01 -2.4600570e-01 -2.5528842e-01]
 [-3.7674138e-01  4.9583328e-01 -4.1236362e-01]
 [ 3.8589308e-01 -5.6649679e-01  2.8836161e-01]] 
Episode: 96: [[ 6.7179411e-05 -4.5221201e-05 -4.1504946e-04]
 [-2.9710673e-05  1.8153800e-05  1.0547896e-04]
 [-6.7467408e-05  9.8492579e-05 -7.3529205e-05]
 [-1.6233222e-01 -3.4011999e-01  4.3180272e-02]
 [ 1.2611556e-01 -4.6977762e-02 -4.0474337e-02]
 [ 4.6063292e-01  5.2219951e-01 -3.8252375e-01]
 [ 2.2839789e-01 -4.6047205e-01  3.5088143e-01]
 [ 3.7683269e-01  4.8598072e-01  4.0302825e-01]
 [-1.9742770e-01  2.9740747e-02 -3.8553375e-01]
 [ 2.8862619e-01 -2.4603865e-01 -2.5529414e-01]
 [-3.7677434e-01  4.9586618e-01 -4.1239133e-01]
 [ 3.8591966e-01 -5.6652576e-01  2.8832558e-01]] 
Episode: 97: [[ 8.9641318e-05 -6.7581612e-05 -3.9177298e-04]
 [-5.1192754e-05  3.9854829e-05  8.7598353e-05]
 [-5.8949114e-05  8.2912295e-05 -1.0032469e-04]
 [-1.6231135e-01 -3.4014109e-01  4.3193579e-02]
 [ 1.2609482e-01 -4.6956643e-02 -4.0491957e-02]
 [ 4.6064633e-01  5.2218151e-01 -3.8254663e-01]
 [ 2.2838290e-01 -4.6045384e-01  3.5091111e-01]
 [ 3.7681541e-01  4.8599973e-01  4.0306234e-01]
 [-1.9744870e-01  2.9761590e-02 -3.8550982e-01]
 [ 2.8864715e-01 -2.4605988e-01 -2.5531614e-01]
 [-3.7679559e-01  4.9588773e-01 -4.1240802e-01]
 [ 3.8592881e-01 -5.6654131e-01  2.8829861e-01]] 
Episode: 98: [[ 1.2638861e-04 -1.0488101e-04 -3.6101157e-04]
 [-8.7643813e-05  7.6907672e-05  5.5650580e-05]
 [-3.0701656e-05  4.9523780e-05 -1.3965517e-04]
 [-1.6227569e-01 -3.4017745e-01  4.3220531e-02]
 [ 1.2605835e-01 -4.6919610e-02 -4.0525515e-02]
 [ 4.6067393e-01  5.2214748e-01 -3.8258424e-01]
 [ 2.2835256e-01 -4.6041963e-01  3.5095373e-01]
 [ 3.7678310e-01  4.8603457e-01  4.0311140e-01]
 [-1.9748473e-01  2.9798001e-02 -3.8547200e-01]
 [ 2.8868294e-01 -2.4609649e-01 -2.5533429e-01]
 [-3.7683207e-01  4.9592486e-01 -4.1243953e-01]
 [ 3.8595700e-01 -5.6657451e-01  2.8825894e-01]] 
Episode: 99: [[ 1.5249917e-04 -1.3123042e-04 -3.3092051e-04]
 [-1.1372110e-04  1.0321159e-04  3.1815223e-05]
 [-1.1010676e-05  2.5974583e-05 -1.6836867e-04]
 [-1.6225068e-01 -3.4020290e-01  4.3241087e-02]
 [ 1.2603244e-01 -4.6893381e-02 -4.0549502e-02]
 [ 4.6069363e-01  5.2212298e-01 -3.8261163e-01]
 [ 2.2833185e-01 -4.6039635e-01  3.5098433e-01]
 [ 3.7676033e-01  4.8605913e-01  4.0314788e-01]
 [-1.9751051e-01  2.9823769e-02 -3.8544574e-01]
 [ 2.8870824e-01 -2.4612230e-01 -2.5533560e-01]
 [-3.7685814e-01  4.9595121e-01 -4.1246316e-01]
 [ 3.8597673e-01 -5.6659794e-01  2.8822985e-01]] 
Episode: 100: [[ 1.7678054e-04 -1.5609831e-04 -3.0388008e-04]
 [-1.3860900e-04  1.2856646e-04  8.4765788e-06]
 [ 1.1815853e-05  1.5806994e-06 -1.9257348e-04]
 [-1.6222738e-01 -3.4022695e-01  4.3259926e-02]
 [ 1.2600754e-01 -4.6868019e-02 -4.0573061e-02]
 [ 4.6071449e-01  5.2209842e-01 -3.8263574e-01]
 [ 2.2831115e-01 -4.6037337e-01  3.5101154e-01]
 [ 3.7673867e-01  4.8608300e-01  4.0318170e-01]
 [-1.9753446e-01  2.9848201e-02 -3.8542292e-01]
 [ 2.8873199e-01 -2.4614683e-01 -2.5533405e-01]
 [-3.7688312e-01  4.9597666e-01 -4.1248664e-01]
 [ 3.8599908e-01 -5.6662208e-01  2.8820530e-01]] 
Episode: 101: [[ 1.98656446e-04 -1.78751288e-04 -2.80603679e-04]
 [-1.60948242e-04  1.51574815e-04 -1.20484365e-05]
 [ 3.40325278e-05 -2.07279882e-05 -2.12802566e-04]
 [-1.62206560e-01 -3.40248674e-01  4.32747267e-02]
 [ 1.25985086e-01 -4.68449295e-02 -4.05942351e-02]
 [ 4.60735381e-01  5.22076011e-01 -3.82655919e-01]
 [ 2.28294522e-01 -4.60353315e-01  3.51037741e-01]
 [ 3.76720339e-01  4.86104131e-01  4.03213561e-01]
 [-1.97555646e-01  2.98699327e-02 -3.85402441e-01]
 [ 2.88753241e-01 -2.46169046e-01 -2.55337656e-01]
 [-3.76905441e-01  4.95999694e-01 -4.12506938e-01]
 [ 3.86020660e-01 -5.66644132e-01  2.88184822e-01]] 
Episode: 102: [[ 2.2953832e-04 -2.1000367e-04 -2.3251765e-04]
 [-1.9272257e-04  1.8376850e-04 -4.5132547e-05]
 [ 6.3738888e-05 -5.0923998e-05 -2.4099734e-04]
 [-1.6217750e-01 -3.4027848e-01  4.3302033e-02]
 [ 1.2595382e-01 -4.6813123e-02 -4.0625196e-02]
 [ 4.6076670e-01  5.2204472e-01 -3.8268316e-01]
 [ 2.2827001e-01 -4.6032551e-01  3.5107005e-01]
 [ 3.7669265e-01  4.8613414e-01  4.0324900e-01]
 [-1.9758585e-01  2.9900447e-02 -3.8537621e-01]
 [ 2.8878292e-01 -2.4619943e-01 -2.5531435e-01]
 [-3.7693688e-01  4.9603167e-01 -4.1253909e-01]
 [ 3.8605070e-01 -5.6667447e-01  2.8815684e-01]] 
Episode: 103: [[ 2.5844201e-04 -2.3913503e-04 -1.9355620e-04]
 [-2.2247285e-04  2.1374489e-04 -7.4528296e-05]
 [ 9.1480353e-05 -7.8830621e-05 -2.6915211e-04]
 [-1.6215000e-01 -3.4030649e-01  4.3327402e-02]
 [ 1.2592424e-01 -4.6783254e-02 -4.0654123e-02]
 [ 4.6079504e-01  5.2201611e-01 -3.8271049e-01]
 [ 2.2824621e-01 -4.6029928e-01  3.5110065e-01]
 [ 3.7666532e-01  4.8616272e-01  4.0328175e-01]
 [-1.9761495e-01  2.9929359e-02 -3.8535035e-01]
 [ 2.8881079e-01 -2.4622779e-01 -2.5530264e-01]
 [-3.7696630e-01  4.9606144e-01 -4.1256732e-01]
 [ 3.8607895e-01 -5.6670260e-01  2.8812891e-01]] 
Episode: 104: [[ 2.9604725e-04 -2.7686550e-04 -1.4706465e-04]
 [-2.6117289e-04  2.5264386e-04 -1.1259288e-04]
 [ 1.2798030e-04 -1.1566041e-04 -3.0602881e-04]
 [-1.6211371e-01 -3.4034315e-01  4.3361720e-02]
 [ 1.2588580e-01 -4.6744529e-02 -4.0691707e-02]
 [ 4.6083042e-01  5.2197909e-01 -3.8274693e-01]
 [ 2.2821300e-01 -4.6026412e-01  3.5113886e-01]
 [ 3.7662864e-01  4.8620039e-01  4.0332210e-01]
 [-1.9765297e-01  2.9967235e-02 -3.8531578e-01]
 [ 2.8884742e-01 -2.4626477e-01 -2.5528681e-01]
 [-3.7700468e-01  4.9610013e-01 -4.1260415e-01]
 [ 3.8611567e-01 -5.6673950e-01  2.8809214e-01]] 
Episode: 105: [[ 3.4049212e-04 -3.2176741e-04 -9.8409480e-05]
 [-3.0678359e-04  2.9866377e-04 -1.5740244e-04]
 [ 1.7152730e-04 -1.6013370e-04 -3.4939975e-04]
 [-1.6207041e-01 -3.4038711e-01  4.3402299e-02]
 [ 1.2584034e-01 -4.6698656e-02 -4.0736381e-02]
 [ 4.6087006e-01  5.2193516e-01 -3.8279068e-01]
 [ 2.2817132e-01 -4.6022066e-01  3.5118240e-01]
 [ 3.7658480e-01  4.8624545e-01  4.0336812e-01]
 [-1.9769756e-01  3.0012222e-02 -3.8527378e-01]
 [ 2.8889105e-01 -2.4630909e-01 -2.5527135e-01]
 [-3.7705013e-01  4.9614605e-01 -4.1264832e-01]
 [ 3.8615885e-01 -5.6678379e-01  2.8804860e-01]] 
Episode: 106: [[ 3.7089590e-04 -3.5290673e-04 -6.0119412e-05]
 [-3.3918401e-04  3.3137909e-04 -1.9178909e-04]
 [ 2.0654820e-04 -1.9282682e-04 -3.7534957e-04]
 [-1.6204134e-01 -3.4041715e-01  4.3427363e-02]
 [ 1.2580860e-01 -4.6666458e-02 -4.0767822e-02]
 [ 4.6089840e-01  5.2190435e-01 -3.8281870e-01]
 [ 2.2814393e-01 -4.6019086e-01  3.5121170e-01]
 [ 3.7655604e-01  4.8627597e-01  4.0340146e-01]
 [-1.9772789e-01  3.0043127e-02 -3.8524729e-01]
 [ 2.8892052e-01 -2.4633956e-01 -2.5526017e-01]
 [-3.7708226e-01  4.9617860e-01 -4.1268212e-01]
 [ 3.8619217e-01 -5.6681585e-01  2.8802213e-01]] 
Episode: 107: [[ 3.8882581e-04 -3.7075047e-04 -2.7320384e-05]
 [-3.5862718e-04  3.5077735e-04 -2.1268833e-04]
 [ 2.2804986e-04 -2.1092508e-04 -3.8956953e-04]
 [-1.6202448e-01 -3.4043416e-01  4.3443430e-02]
 [ 1.2578952e-01 -4.6647239e-02 -4.0786430e-02]
 [ 4.6091765e-01  5.2188724e-01 -3.8283327e-01]
 [ 2.2813047e-01 -4.6017554e-01  3.5122913e-01]
 [ 3.7653953e-01  4.8629308e-01  4.0342101e-01]
 [-1.9774516e-01  3.0060407e-02 -3.8523144e-01]
 [ 2.8893775e-01 -2.4635682e-01 -2.5523806e-01]
 [-3.7710136e-01  4.9619776e-01 -4.1270217e-01]
 [ 3.8621235e-01 -5.6683356e-01  2.8800768e-01]] 
Episode: 108: [[ 3.9670838e-04 -3.7831010e-04 -4.7099256e-06]
 [-3.6770242e-04  3.5963056e-04 -2.2364326e-04]
 [ 2.3806670e-04 -2.1833149e-04 -3.9481610e-04]
 [-1.6201732e-01 -3.4044126e-01  4.3451324e-02]
 [ 1.2578084e-01 -4.6638560e-02 -4.0794797e-02]
 [ 4.6092322e-01  5.2188134e-01 -3.8283962e-01]
 [ 2.2812599e-01 -4.6017012e-01  3.5123646e-01]
 [ 3.7653282e-01  4.8629993e-01  4.0342963e-01]
 [-1.9775228e-01  3.0067446e-02 -3.8522452e-01]
 [ 2.8894514e-01 -2.4636398e-01 -2.5521693e-01]
 [-3.7711012e-01  4.9620637e-01 -4.1271245e-01]
 [ 3.8622150e-01 -5.6684077e-01  2.8800219e-01]] 
Episode: 109: [[ 3.8483704e-04 -3.6605319e-04 -1.6992779e-07]
 [-3.5753165e-04  3.4901543e-04 -2.1600380e-04]
 [ 2.3373489e-04 -2.0787539e-04 -3.7937664e-04]
 [-1.6202955e-01 -3.4042880e-01  4.3440942e-02]
 [ 1.2579125e-01 -4.6649188e-02 -4.0784616e-02]
 [ 4.6091413e-01  5.2189380e-01 -3.8282624e-01]
 [ 2.2813991e-01 -4.6018380e-01  3.5122347e-01]
 [ 3.7654427e-01  4.8628792e-01  4.0341717e-01]
 [-1.9774070e-01  3.0055210e-02 -3.8523781e-01]
 [ 2.8893310e-01 -2.4635155e-01 -2.5519687e-01]
 [-3.7709963e-01  4.9619552e-01 -4.1270429e-01]
 [ 3.8621596e-01 -5.6683010e-01  2.8801742e-01]] 
Episode: 110: [[ 3.8009393e-04 -3.6081192e-04  8.2023007e-06]
 [-3.5424205e-04  3.4533796e-04 -2.1380543e-04]
 [ 2.3600755e-04 -2.0481362e-04 -3.7226613e-04]
 [-1.6203420e-01 -3.4042370e-01  4.3438967e-02]
 [ 1.2579434e-01 -4.6652537e-02 -4.0781591e-02]
 [ 4.6091011e-01  5.2189928e-01 -3.8282141e-01]
 [ 2.2814603e-01 -4.6019012e-01  3.5121694e-01]
 [ 3.7654796e-01  4.8628336e-01  4.0341097e-01]
 [-1.9773677e-01  3.0050764e-02 -3.8524199e-01]
 [ 2.8892857e-01 -2.4634640e-01 -2.5517216e-01]
 [-3.7709621e-01  4.9619177e-01 -4.1270185e-01]
 [ 3.8621664e-01 -5.6682664e-01  2.8802410e-01]] 
Episode: 111: [[ 3.8216356e-04 -3.6252043e-04  1.5512871e-05]
 [-3.5746783e-04  3.4826389e-04 -2.1691964e-04]
 [ 2.4562757e-04 -2.0893088e-04 -3.7291908e-04]
 [-1.6203156e-01 -3.4042585e-01  4.3443367e-02]
 [ 1.2579058e-01 -4.6649043e-02 -4.0785275e-02]
 [ 4.6091098e-01  5.2189839e-01 -3.8282475e-01]
 [ 2.2814472e-01 -4.6018910e-01  3.5121790e-01]
 [ 3.7654433e-01  4.8628590e-01  4.0341076e-01]
 [-1.9774012e-01  3.0053535e-02 -3.8523757e-01]
 [ 2.8893116e-01 -2.4634838e-01 -2.5515306e-01]
 [-3.7709939e-01  4.9619469e-01 -4.1270491e-01]
 [ 3.8622466e-01 -5.6683034e-01  2.8802302e-01]] 
Episode: 112: [[ 3.9442553e-04 -3.7455821e-04  3.4145116e-05]
 [-3.7035439e-04  3.6098520e-04 -2.3066303e-04]
 [ 2.6082914e-04 -2.2176979e-04 -3.8356477e-04]
 [-1.6201887e-01 -3.4043822e-01  4.3458201e-02]
 [ 1.2577689e-01 -4.6635535e-02 -4.0799890e-02]
 [ 4.6091989e-01  5.2188754e-01 -3.8283718e-01]
 [ 2.2813360e-01 -4.6017799e-01  3.5122827e-01]
 [ 3.7652963e-01  4.8629919e-01  4.0341437e-01]
 [-1.9775257e-01  3.0066015e-02 -3.8522410e-01]
 [ 2.8894353e-01 -2.4636041e-01 -2.5513396e-01]
 [-3.7711194e-01  4.9620718e-01 -4.1271773e-01]
 [ 3.8624036e-01 -5.6684357e-01  2.8801259e-01]] 
Episode: 113: [[ 3.9679094e-04 -3.7680275e-04  4.2481584e-05]
 [-3.7345107e-04  3.6383211e-04 -2.3491467e-04]
 [ 2.6753196e-04 -2.2510173e-04 -3.8422807e-04]
 [-1.6201615e-01 -3.4044072e-01  4.3462694e-02]
 [ 1.2577319e-01 -4.6632066e-02 -4.0804472e-02]
 [ 4.6092311e-01  5.2188540e-01 -3.8283914e-01]
 [ 2.2813129e-01 -4.6017617e-01  3.5122865e-01]
 [ 3.7652475e-01  4.8630261e-01  4.0340942e-01]
 [-1.9775556e-01  3.0068669e-02 -3.8522187e-01]
 [ 2.8894597e-01 -2.4636264e-01 -2.5512174e-01]
 [-3.7711474e-01  4.9620983e-01 -4.1272125e-01]
 [ 3.8624758e-01 -5.6684726e-01  2.8801221e-01]] 
Episode: 114: [[ 3.9191396e-04 -3.7135195e-04  4.4461114e-05]
 [-3.6889428e-04  3.5881021e-04 -2.3089765e-04]
 [ 2.6936270e-04 -2.2166980e-04 -3.7817378e-04]
 [-1.6201995e-01 -3.4043613e-01  4.3463744e-02]
 [ 1.2577657e-01 -4.6635978e-02 -4.0802285e-02]
 [ 4.6092600e-01  5.2188897e-01 -3.8283342e-01]
 [ 2.2813590e-01 -4.6018198e-01  3.5122222e-01]
 [ 3.7652642e-01  4.8629880e-01  4.0339684e-01]
 [-1.9775210e-01  3.0064236e-02 -3.8522637e-01]
 [ 2.8894189e-01 -2.4635769e-01 -2.5509858e-01]
 [-3.7711021e-01  4.9620485e-01 -4.1271734e-01]
 [ 3.8624975e-01 -5.6684422e-01  2.8801855e-01]] 
Episode: 115: [[ 3.7854578e-04 -3.5719830e-04  4.2729866e-05]
 [-3.5621339e-04  3.4549032e-04 -2.1955685e-04]
 [ 2.6392136e-04 -2.0951655e-04 -3.6234281e-04]
 [-1.6203226e-01 -3.4042284e-01  4.3457672e-02]
 [ 1.2578814e-01 -4.6648208e-02 -4.0792238e-02]
 [ 4.6092471e-01  5.2190053e-01 -3.8281733e-01]
 [ 2.2814895e-01 -4.6019673e-01  3.5120681e-01]
 [ 3.7653589e-01  4.8628667e-01  4.0337443e-01]
 [-1.9774018e-01  3.0050943e-02 -3.8524139e-01]
 [ 2.8892937e-01 -2.4634406e-01 -2.5506845e-01]
 [-3.7709749e-01  4.9619150e-01 -4.1270602e-01]
 [ 3.8624510e-01 -5.6683266e-01  2.8803498e-01]] 
Episode: 116: [[ 3.5343130e-04 -3.3118523e-04  2.4667444e-05]
 [-3.3117287e-04  3.1988809e-04 -1.9380859e-04]
 [ 2.4532416e-04 -1.8476274e-04 -3.3628714e-04]
 [-1.6205643e-01 -3.4039760e-01  4.3436799e-02]
 [ 1.2581198e-01 -4.6672683e-02 -4.0768735e-02]
 [ 4.6090755e-01  5.2192575e-01 -3.8279095e-01]
 [ 2.2817507e-01 -4.6022400e-01  3.5118291e-01]
 [ 3.7655839e-01  4.8626184e-01  4.0334591e-01]
 [-1.9771548e-01  3.0025082e-02 -3.8526437e-01]
 [ 2.8890505e-01 -2.4631850e-01 -2.5505638e-01]
 [-3.7707239e-01  4.9616587e-01 -4.1267991e-01]
 [ 3.8622627e-01 -5.6680804e-01  2.8806129e-01]] 
Episode: 117: [[ 3.3231193e-04 -3.0885814e-04  9.4880379e-06]
 [-3.0988941e-04  2.9772113e-04 -1.7246186e-04]
 [ 2.2860446e-04 -1.6198844e-04 -3.1323836e-04]
 [-1.6207534e-01 -3.4037697e-01  4.3426462e-02]
 [ 1.2583177e-01 -4.6693429e-02 -4.0749941e-02]
 [ 4.6090201e-01  5.2194607e-01 -3.8276479e-01]
 [ 2.2819558e-01 -4.6024704e-01  3.5116109e-01]
 [ 3.7657559e-01  4.8624098e-01  4.0331632e-01]
 [-1.9769543e-01  3.0002937e-02 -3.8528851e-01]
 [ 2.8888533e-01 -2.4629699e-01 -2.5503153e-01]
 [-3.7705129e-01  4.9614382e-01 -4.1265914e-01]
 [ 3.8621169e-01 -5.6678635e-01  2.8808558e-01]] 
Episode: 118: [[ 3.0477764e-04 -2.8043095e-04 -1.8534793e-05]
 [-2.8176920e-04  2.6896122e-04 -1.4298357e-04]
 [ 2.0274130e-04 -1.3313467e-04 -2.8575448e-04]
 [-1.6210073e-01 -3.4035018e-01  4.3406472e-02]
 [ 1.2585825e-01 -4.6720710e-02 -4.0723983e-02]
 [ 4.6088025e-01  5.2197444e-01 -3.8273567e-01]
 [ 2.2822273e-01 -4.6027601e-01  3.5113543e-01]
 [ 3.7660033e-01  4.8621351e-01  4.0328532e-01]
 [-1.9766772e-01  2.9974353e-02 -3.8531476e-01]
 [ 2.8885931e-01 -2.4626951e-01 -2.5502115e-01]
 [-3.7702346e-01  4.9611530e-01 -4.1263035e-01]
 [ 3.8618729e-01 -5.6675822e-01  2.8811389e-01]] 
Episode: 119: [[ 2.8097062e-04 -2.5629994e-04 -4.4199674e-05]
 [-2.5716430e-04  2.4411394e-04 -1.1645775e-04]
 [ 1.7796084e-04 -1.0828997e-04 -2.6288533e-04]
 [-1.6212280e-01 -3.4032732e-01  4.3387428e-02]
 [ 1.2588112e-01 -4.6744097e-02 -4.0701505e-02]
 [ 4.6085611e-01  5.2199948e-01 -3.8271189e-01]
 [ 2.2824669e-01 -4.6030056e-01  3.5111386e-01]
 [ 3.7662193e-01  4.8619002e-01  4.0325874e-01]
 [-1.9764307e-01  2.9949848e-02 -3.8533536e-01]
 [ 2.8883672e-01 -2.4624614e-01 -2.5501746e-01]
 [-3.7699908e-01  4.9609065e-01 -4.1260427e-01]
 [ 3.8616380e-01 -5.6673390e-01  2.8813735e-01]] 
Episode: 120: [[ 2.4200614e-04 -2.1688480e-04 -7.7870573e-05]
 [-2.1758307e-04  2.0414803e-04 -7.4579177e-05]
 [ 1.3659173e-04 -6.7298279e-05 -2.2607599e-04]
 [-1.6216025e-01 -3.4028909e-01  4.3351874e-02]
 [ 1.2591913e-01 -4.6782654e-02 -4.0662955e-02]
 [ 4.6081713e-01  5.2204031e-01 -3.8267323e-01]
 [ 2.2828791e-01 -4.6034142e-01  3.5107943e-01]
 [ 3.7665972e-01  4.8615062e-01  4.0322196e-01]
 [-1.9760370e-01  2.9910155e-02 -3.8537040e-01]
 [ 2.8879857e-01 -2.4620725e-01 -2.5502279e-01]
 [-3.7695971e-01  4.9605089e-01 -4.1256243e-01]
 [ 3.8612363e-01 -5.6669337e-01  2.8817472e-01]] 
Episode: 121: [[ 2.0317604e-04 -1.7706316e-04 -9.3308088e-05]
 [-1.7850247e-04  1.6429147e-04 -3.7202928e-05]
 [ 9.3174538e-05 -2.4965910e-05 -1.8873176e-04]
 [-1.6219808e-01 -3.4025005e-01  4.3321438e-02]
 [ 1.2595744e-01 -4.6821684e-02 -4.0625524e-02]
 [ 4.6078247e-01  5.2208042e-01 -3.8263223e-01]
 [ 2.2832851e-01 -4.6038279e-01  3.5104126e-01]
 [ 3.7669671e-01  4.8611125e-01  4.0317905e-01]
 [-1.9756439e-01  2.9870134e-02 -3.8540882e-01]
 [ 2.8876016e-01 -2.4616764e-01 -2.5500098e-01]
 [-3.7692058e-01  4.9601102e-01 -4.1252470e-01]
 [ 3.8608289e-01 -5.6665206e-01  2.8821322e-01]] 
Episode: 122: [[ 1.6899403e-04 -1.4171973e-04 -1.0792222e-04]
 [-1.4377110e-04  1.2877176e-04 -2.9375583e-06]
 [ 5.5759785e-05  1.2565107e-05 -1.5620339e-04]
 [-1.6223113e-01 -3.4021562e-01  4.3295812e-02]
 [ 1.2599123e-01 -4.6856225e-02 -4.0592324e-02]
 [ 4.6075183e-01  5.2211630e-01 -3.8259664e-01]
 [ 2.2836468e-01 -4.6042013e-01  3.5100898e-01]
 [ 3.7672946e-01  4.8607618e-01  4.0314278e-01]
 [-1.9752944e-01  2.9834364e-02 -3.8544068e-01]
 [ 2.8872666e-01 -2.4613270e-01 -2.5497705e-01]
 [-3.7688589e-01  4.9597555e-01 -4.1249037e-01]
 [ 3.8604751e-01 -5.6661534e-01  2.8824663e-01]] 
Episode: 123: [[ 1.21237012e-04 -9.29596645e-05 -1.39352138e-04]
 [-9.54512434e-05  7.97801913e-05  4.53533721e-05]
 [ 3.85830981e-06  6.37495759e-05 -1.10633315e-04]
 [-1.62277281e-01 -3.40168267e-01  4.32561077e-02]
 [ 1.26038283e-01 -4.69039455e-02 -4.05454747e-02]
 [ 4.60706443e-01  5.22165596e-01 -3.82548869e-01]
 [ 2.28413329e-01 -4.60470140e-01  3.50962698e-01]
 [ 3.76775801e-01  4.86027747e-01  4.03093934e-01]
 [-1.97481304e-01  2.97854356e-02 -3.85485888e-01]
 [ 2.88679838e-01 -2.46084586e-01 -2.54963756e-01]
 [-3.76837760e-01  4.95926738e-01 -4.12442327e-01]
 [ 3.85997921e-01 -5.66565156e-01  2.88292944e-01]] 
Episode: 124: [[ 8.8967776e-05 -5.9963106e-05 -1.6274209e-04]
 [-6.2533109e-05  4.6341109e-05  7.8634635e-05]
 [-3.2529213e-05  9.8907374e-05 -8.0434693e-05]
 [-1.6230810e-01 -3.4013650e-01  4.3229502e-02]
 [ 1.2606996e-01 -4.6936166e-02 -4.0514018e-02]
 [ 4.6067300e-01  5.2219987e-01 -3.8251731e-01]
 [ 2.2844715e-01 -4.6050462e-01  3.5093281e-01]
 [ 3.7680718e-01  4.8599473e-01  4.0306041e-01]
 [-1.9744842e-01  2.9752120e-02 -3.8551524e-01]
 [ 2.8864840e-01 -2.4605218e-01 -2.5495666e-01]
 [-3.7680507e-01  4.9589348e-01 -4.1240942e-01]
 [ 3.8596380e-01 -5.6653094e-01  2.8832388e-01]] 
Episode: 125: [[ 7.6055672e-05 -4.6321311e-05 -1.7451496e-04]
 [-4.9028738e-05  3.2327891e-05  9.3518916e-05]
 [-5.0215622e-05  1.1525439e-04 -6.9230096e-05]
 [-1.6231954e-01 -3.4012407e-01  4.3219898e-02]
 [ 1.2608230e-01 -4.6949022e-02 -4.0501185e-02]
 [ 4.6065810e-01  5.2221525e-01 -3.8250452e-01]
 [ 2.2846204e-01 -4.6052003e-01  3.5092261e-01]
 [ 3.7681967e-01  4.8598081e-01  4.0304744e-01]
 [-1.9743474e-01  2.9737880e-02 -3.8552582e-01]
 [ 2.8863630e-01 -2.4603909e-01 -2.5495407e-01]
 [-3.7679181e-01  4.9587965e-01 -4.1239482e-01]
 [ 3.8594818e-01 -5.6651539e-01  2.8833571e-01]] 
Episode: 126: [[ 5.86427195e-05 -2.87151852e-05 -1.85209632e-04]
 [-3.17829144e-05  1.49357465e-05  1.10366665e-04]
 [-7.09637534e-05  1.34511138e-04 -5.10776335e-05]
 [-1.62335411e-01 -3.40107679e-01  4.32078950e-02]
 [ 1.26098081e-01 -4.69650477e-02 -4.04861532e-02]
 [ 4.60641980e-01  5.22233069e-01 -3.82484496e-01]
 [ 2.28479773e-01 -4.60538059e-01  3.50903332e-01]
 [ 3.76834959e-01  4.85964209e-01  4.03023005e-01]
 [-1.97417334e-01  2.97203381e-02 -3.85545462e-01]
 [ 2.88619667e-01 -2.46022046e-01 -2.54940897e-01]
 [-3.76774698e-01  4.95862395e-01 -4.12378281e-01]
 [ 3.85930568e-01 -5.66497386e-01  2.88355231e-01]] 
Episode: 127: [[ 4.4844917e-05 -1.4650475e-05 -2.0182316e-04]
 [-1.8314297e-05  1.2877867e-06  1.2467378e-04]
 [-8.8076769e-05  1.5003634e-04 -3.8722883e-05]
 [-1.6234732e-01 -3.4009507e-01  4.3198317e-02]
 [ 1.2611035e-01 -4.6977546e-02 -4.0473789e-02]
 [ 4.6063083e-01  5.2224678e-01 -3.8246974e-01]
 [ 2.2849171e-01 -4.6055141e-01  3.5088736e-01]
 [ 3.7684619e-01  4.8595157e-01  4.0300420e-01]
 [-1.9740584e-01  2.9707815e-02 -3.8556266e-01]
 [ 2.8860670e-01 -2.4600855e-01 -2.5494409e-01]
 [-3.7676153e-01  4.9584901e-01 -4.1236469e-01]
 [ 3.8591617e-01 -5.6648296e-01  2.8836873e-01]] 
Episode: 128: [[ 3.2398912e-05 -2.1431704e-06 -2.1940682e-04]
 [-6.9310186e-06 -1.0027419e-05  1.3648154e-04]
 [-9.9115248e-05  1.6188853e-04 -2.5070634e-05]
 [-1.6235812e-01 -3.4008381e-01  4.3188188e-02]
 [ 1.2612043e-01 -4.6987705e-02 -4.0464047e-02]
 [ 4.6062443e-01  5.2225745e-01 -3.8245481e-01]
 [ 2.2850239e-01 -4.6056309e-01  3.5087296e-01]
 [ 3.7685579e-01  4.8594120e-01  4.0298671e-01]
 [-1.9739571e-01  2.9696979e-02 -3.8558018e-01]
 [ 2.8859508e-01 -2.4599661e-01 -2.5494981e-01]
 [-3.7675035e-01  4.9583790e-01 -4.1235337e-01]
 [ 3.8590673e-01 -5.6647182e-01  2.8838325e-01]] 
Episode: 129: [[ 3.0413790e-05 -3.4145492e-07 -2.3282574e-04]
 [-5.6592162e-06 -1.0925865e-05  1.3966349e-04]
 [-1.0042184e-04  1.6243941e-04 -2.2963470e-05]
 [-1.6235858e-01 -3.4008315e-01  4.3186773e-02]
 [ 1.2612046e-01 -4.6987582e-02 -4.0463727e-02]
 [ 4.6062371e-01  5.2225780e-01 -3.8245258e-01]
 [ 2.2850233e-01 -4.6056375e-01  3.5086924e-01]
 [ 3.7685618e-01  4.8594096e-01  4.0298271e-01]
 [-1.9739598e-01  2.9697204e-02 -3.8558471e-01]
 [ 2.8859389e-01 -2.4599537e-01 -2.5496003e-01]
 [-3.7674940e-01  4.9583727e-01 -4.1235095e-01]
 [ 3.8590637e-01 -5.6647170e-01  2.8838578e-01]] 
Episode: 130: [[ 3.5810757e-05 -5.8257842e-06 -2.4649940e-04]
 [-1.1322500e-05 -4.8052611e-06  1.3777438e-04]
 [-9.7082455e-05  1.5656614e-04 -2.9905626e-05]
 [-1.6235162e-01 -3.4008974e-01  4.3191139e-02]
 [ 1.2611374e-01 -4.6980646e-02 -4.0469039e-02]
 [ 4.6062782e-01  5.2225149e-01 -3.8245890e-01]
 [ 2.2849494e-01 -4.6055722e-01  3.5087436e-01]
 [ 3.7685043e-01  4.8594734e-01  4.0299079e-01]
 [-1.9740352e-01  2.9704757e-02 -3.8558075e-01]
 [ 2.8860009e-01 -2.4600139e-01 -2.5497925e-01]
 [-3.7675545e-01  4.9584371e-01 -4.1235372e-01]
 [ 3.8591036e-01 -5.6647778e-01  2.8837898e-01]] 
Episode: 131: [[ 5.25920514e-05 -2.25574968e-05 -2.52428901e-04]
 [-2.77413965e-05  1.19979795e-05  1.26159997e-04]
 [-8.34365128e-05  1.40241667e-04 -4.86870777e-05]
 [-1.62333220e-01 -3.40107620e-01  4.32064272e-02]
 [ 1.26096025e-01 -4.69628312e-02 -4.04851474e-02]
 [ 4.60643500e-01  5.22234201e-01 -3.82476509e-01]
 [ 2.28477955e-01 -4.60540563e-01  3.50893408e-01]
 [ 3.76833856e-01  4.85964358e-01  4.03011292e-01]
 [-1.97421938e-01  2.97230519e-02 -3.85564357e-01]
 [ 2.88617790e-01 -2.46018738e-01 -2.54997581e-01]
 [-3.76772314e-01  4.95860875e-01 -4.12366331e-01]
 [ 3.85924727e-01 -5.66494346e-01  2.88360268e-01]] 
Episode: 132: [[ 7.9315636e-05 -4.9520862e-05 -2.5269049e-04]
 [-5.4481341e-05  3.9197381e-05  1.0498438e-04]
 [-5.7424746e-05  1.1250226e-04 -7.7257129e-05]
 [-1.6230495e-01 -3.4013563e-01  4.3230508e-02]
 [ 1.2606777e-01 -4.6934474e-02 -4.0511787e-02]
 [ 4.6066660e-01  5.2220714e-01 -3.8250530e-01]
 [ 2.2845031e-01 -4.6051309e-01  3.5092181e-01]
 [ 3.7680587e-01  4.8599258e-01  4.0304041e-01]
 [-1.9745059e-01  2.9751712e-02 -3.8553709e-01]
 [ 2.8864536e-01 -2.4604629e-01 -2.5502044e-01]
 [-3.7679946e-01  4.9588844e-01 -4.1238824e-01]
 [ 3.8595083e-01 -5.6652206e-01  2.8833160e-01]] 
Episode: 133: [[ 9.5010037e-05 -6.6183376e-05 -2.7077613e-04]
 [-7.0162379e-05  5.5652938e-05  9.7976445e-05]
 [-4.2518273e-05  9.4336785e-05 -9.7943885e-05]
 [-1.6228832e-01 -3.4015286e-01  4.3235797e-02]
 [ 1.2605080e-01 -4.6917051e-02 -4.0524781e-02]
 [ 4.6067151e-01  5.2219188e-01 -3.8252780e-01]
 [ 2.2843629e-01 -4.6049666e-01  3.5094437e-01]
 [ 3.7679228e-01  4.8600841e-01  4.0307271e-01]
 [-1.9746913e-01  2.9770603e-02 -3.8551602e-01]
 [ 2.8866154e-01 -2.4606338e-01 -2.5507161e-01]
 [-3.7681577e-01  4.9590543e-01 -4.1239607e-01]
 [ 3.8596308e-01 -5.6653899e-01  2.8830954e-01]] 
Episode: 134: [[ 1.11184156e-04 -8.34987368e-05 -2.85655638e-04]
 [-8.68163042e-05  7.30399406e-05  8.82731692e-05]
 [-2.42305068e-05  7.38860763e-05 -1.18190816e-04]
 [-1.62270918e-01 -3.40170950e-01  4.32449095e-02]
 [ 1.26032665e-01 -4.68985885e-02 -4.05403860e-02]
 [ 4.60678995e-01  5.22174597e-01 -3.82550627e-01]
 [ 2.28418767e-01 -4.60477829e-01  3.50963712e-01]
 [ 3.76775295e-01  4.86026734e-01  4.03098255e-01]
 [-1.97488904e-01  2.97907833e-02 -3.85496050e-01]
 [ 2.88678378e-01 -2.46081278e-01 -2.55112886e-01]
 [-3.76833022e-01  4.95923340e-01 -4.12406713e-01]
 [ 3.85979176e-01 -5.66558421e-01  2.88288236e-01]] 
Episode: 135: [[ 1.37543480e-04 -1.10558314e-04 -2.78450112e-04]
 [-1.14287534e-04  1.00961130e-04  6.51471637e-05]
 [ 4.59405373e-06  4.39819814e-05 -1.46832506e-04]
 [-1.62243694e-01 -3.40198547e-01  4.32685092e-02]
 [ 1.26004145e-01 -4.68699299e-02 -4.05675471e-02]
 [ 4.60698307e-01  5.22147357e-01 -3.82581562e-01]
 [ 2.28390321e-01 -4.60449100e-01  3.50989401e-01]
 [ 3.76746416e-01  4.86056030e-01  4.03127462e-01]
 [-1.97518766e-01  2.98206452e-02 -3.85469615e-01]
 [ 2.88705111e-01 -2.46108681e-01 -2.55129337e-01]
 [-3.76860797e-01  4.95951533e-01 -4.12430227e-01]
 [ 3.86006624e-01 -5.66587687e-01  2.88259000e-01]] 
Episode: 136: [[ 1.42229095e-04 -1.16209296e-04 -3.00010695e-04]
 [-1.20084980e-04  1.07408901e-04  6.61145459e-05]
 [ 1.31871493e-05  3.46368906e-05 -1.54783265e-04]
 [-1.62237510e-01 -3.40205163e-01  4.32680808e-02]
 [ 1.25996679e-01 -4.68622260e-02 -4.05726135e-02]
 [ 4.60692376e-01  5.22142589e-01 -3.82593304e-01]
 [ 2.28382632e-01 -4.60441142e-01  3.50995690e-01]
 [ 3.76738936e-01  4.86064106e-01  4.03139859e-01]
 [-1.97526991e-01  2.98291743e-02 -3.85461211e-01]
 [ 2.88710564e-01 -2.46114954e-01 -2.55166560e-01]
 [-3.76867056e-01  4.95958388e-01 -4.12429810e-01]
 [ 3.86012673e-01 -5.66595912e-01  2.88249850e-01]] 
Episode: 137: [[ 1.32944246e-04 -1.07873726e-04 -3.30181298e-04]
 [-1.12113914e-04  1.00097699e-04  7.92914361e-05]
 [ 9.60516536e-06  3.84191153e-05 -1.48299601e-04]
 [-1.62245199e-01 -3.40197891e-01  4.32565399e-02]
 [ 1.26003161e-01 -4.68684658e-02 -4.05645743e-02]
 [ 4.60677117e-01  5.22150040e-01 -3.82590473e-01]
 [ 2.28386581e-01 -4.60445940e-01  3.50985765e-01]
 [ 3.76744479e-01  4.86058921e-01  4.03136164e-01]
 [-1.97522193e-01  2.98244208e-02 -3.85469228e-01]
 [ 2.88702220e-01 -2.46107370e-01 -2.55196959e-01]
 [-3.76859576e-01  4.95951504e-01 -4.12417650e-01]
 [ 3.86006653e-01 -5.66591144e-01  2.88255155e-01]] 
Episode: 138: [[ 1.1729082e-04 -9.3139897e-05 -3.5682335e-04]
 [-9.7987577e-05  8.6528198e-05  9.6555676e-05]
 [-4.2415004e-06  5.0437367e-05 -1.3540532e-04]
 [-1.6225982e-01 -3.4018379e-01  4.3239724e-02]
 [ 1.2601654e-01 -4.6881571e-02 -4.0549904e-02]
 [ 4.6065247e-01  5.2216542e-01 -3.8258022e-01]
 [ 2.2839665e-01 -4.6045691e-01  3.5096785e-01]
 [ 3.7675649e-01  4.8604718e-01  4.0312469e-01]
 [-1.9750975e-01  2.9812312e-02 -3.8548490e-01]
 [ 2.8868702e-01 -2.4609302e-01 -2.5522184e-01]
 [-3.7684575e-01  4.9593821e-01 -4.1240102e-01]
 [ 3.8599119e-01 -5.6657839e-01  2.8826728e-01]] 
Episode: 139: [[ 9.4458723e-05 -7.1417846e-05 -3.9417806e-04]
 [-7.6214441e-05  6.5460263e-05  1.2229467e-04]
 [-2.3840297e-05  6.8934292e-05 -1.1573306e-04]
 [-1.6228202e-01 -3.4016243e-01  4.3212879e-02]
 [ 1.2603791e-01 -4.6902530e-02 -4.0526658e-02]
 [ 4.6061787e-01  5.2218854e-01 -3.8256454e-01]
 [ 2.2841550e-01 -4.6047556e-01  3.5094619e-01]
 [ 3.7677792e-01  4.8602700e-01  4.0311244e-01]
 [-1.9748957e-01  2.9792797e-02 -3.8550514e-01]
 [ 2.8866434e-01 -2.4607152e-01 -2.5526121e-01]
 [-3.7682429e-01  4.9591741e-01 -4.1237587e-01]
 [ 3.8596922e-01 -5.6655890e-01  2.8828591e-01]] 
Episode: 140: [[ 8.5180356e-05 -6.2840976e-05 -4.0835279e-04]
 [-6.7948065e-05  5.7619822e-05  1.3241039e-04]
 [-3.1164353e-05  7.5163509e-05 -1.0870468e-04]
 [-1.6229098e-01 -3.4015402e-01  4.3202743e-02]
 [ 1.2604608e-01 -4.6910454e-02 -4.0517472e-02]
 [ 4.6059972e-01  5.2219790e-01 -3.8256031e-01]
 [ 2.2842169e-01 -4.6048185e-01  3.5093608e-01]
 [ 3.7678555e-01  4.8602000e-01  4.0310839e-01]
 [-1.9748276e-01  2.9786309e-02 -3.8551417e-01]
 [ 2.8865498e-01 -2.4606296e-01 -2.5527877e-01]
 [-3.7681615e-01  4.9590969e-01 -4.1236606e-01]
 [ 3.8596097e-01 -5.6655222e-01  2.8829250e-01]] 
Episode: 141: [[ 8.6888576e-05 -6.4985281e-05 -4.1394588e-04]
 [-7.0415939e-05  6.0502640e-05  1.3278973e-04]
 [-2.6906626e-05  7.0537819e-05 -1.1193477e-04]
 [-1.6228895e-01 -3.4015647e-01  4.3203332e-02]
 [ 1.2604342e-01 -4.6907529e-02 -4.0518735e-02]
 [ 4.6059209e-01  5.2219665e-01 -3.8256711e-01]
 [ 2.2841826e-01 -4.6047819e-01  3.5093787e-01]
 [ 3.7678328e-01  4.8602334e-01  4.0311697e-01]
 [-1.9748662e-01  2.9790435e-02 -3.8551182e-01]
 [ 2.8865680e-01 -2.4606530e-01 -2.5528970e-01]
 [-3.7681887e-01  4.9591276e-01 -4.1236621e-01]
 [ 3.8596386e-01 -5.6655639e-01  2.8828853e-01]] 
Episode: 142: [[ 7.9410711e-05 -5.8141813e-05 -4.3232032e-04]
 [-6.3255793e-05  5.4019889e-05  1.4294292e-04]
 [-3.0163521e-05  7.4001691e-05 -1.0561997e-04]
 [-1.6229592e-01 -3.4015006e-01  4.3193955e-02]
 [ 1.2605001e-01 -4.6913739e-02 -4.0511221e-02]
 [ 4.6057308e-01  5.2220470e-01 -3.8256586e-01]
 [ 2.2842406e-01 -4.6048334e-01  3.5093200e-01]
 [ 3.7679061e-01  4.8601761e-01  4.0311730e-01]
 [-1.9748043e-01  2.9785080e-02 -3.8551632e-01]
 [ 2.8864971e-01 -2.4605885e-01 -2.5530738e-01]
 [-3.7681201e-01  4.9590650e-01 -4.1235679e-01]
 [ 3.8595852e-01 -5.6655222e-01  2.8829384e-01]] 
Episode: 143: [[ 7.40425603e-05 -5.32836639e-05 -4.44099453e-04]
 [-5.82286884e-05  4.95902459e-05  1.50558131e-04]
 [-3.09023708e-05  7.51648040e-05 -1.01167774e-04]
 [-1.62300915e-01 -3.40145558e-01  4.31886017e-02]
 [ 1.26054525e-01 -4.69179228e-02 -4.05060574e-02]
 [ 4.60557699e-01  5.22210121e-01 -3.82566333e-01]
 [ 2.28427842e-01 -4.60486621e-01  3.50927323e-01]
 [ 3.76796097e-01  4.86013770e-01  4.03119743e-01]
 [-1.97476372e-01  2.97818501e-02 -3.85519028e-01]
 [ 2.88644731e-01 -2.46054396e-01 -2.55313873e-01]
 [-3.76807362e-01  4.95902359e-01 -4.12350267e-01]
 [ 3.85955960e-01 -5.66550434e-01  2.88297445e-01]] 
Episode: 144: [[ 9.9417237e-05 -7.9789970e-05 -4.4522149e-04]
 [-8.3813349e-05  7.6129298e-05  1.3017039e-04]
 [-2.0956172e-06  4.5127752e-05 -1.2709615e-04]
 [-1.6227467e-01 -3.4017277e-01  4.3208778e-02]
 [ 1.2602779e-01 -4.6890691e-02 -4.0531244e-02]
 [ 4.6057016e-01  5.2218431e-01 -3.8259754e-01]
 [ 2.2840028e-01 -4.6045786e-01  3.5095373e-01]
 [ 3.7677124e-01  4.8604098e-01  4.0315360e-01]
 [-1.9750263e-01  2.9809697e-02 -3.8549006e-01]
 [ 2.8867084e-01 -2.4608159e-01 -2.5533441e-01]
 [-3.7683362e-01  4.9592942e-01 -4.1237247e-01]
 [ 3.8598287e-01 -5.6657982e-01  2.8827041e-01]] 
Episode: 145: [[ 1.33377209e-04 -1.15379211e-04 -4.50389110e-04]
 [-1.17724325e-04  1.11360008e-04  1.03905142e-04]
 [ 3.74790325e-05  4.90968887e-06 -1.62022567e-04]
 [-1.62239909e-01 -3.40208918e-01  4.32338081e-02]
 [ 1.25992388e-01 -4.68545891e-02 -4.05646153e-02]
 [ 4.60589737e-01  5.22149444e-01 -3.82638901e-01]
 [ 2.28364781e-01 -4.60420012e-01  3.50991488e-01]
 [ 3.76738459e-01  4.86077040e-01  4.03200120e-01]
 [-1.97537675e-01  2.98466086e-02 -3.85450900e-01]
 [ 2.88705587e-01 -2.46117920e-01 -2.55371094e-01]
 [-3.76868367e-01  4.95965302e-01 -4.12400901e-01]
 [ 3.86019349e-01 -5.66618919e-01  2.88233966e-01]] 
Episode: 146: [[ 1.4720813e-04 -1.3088780e-04 -4.6601196e-04]
 [-1.3175009e-04  1.2668289e-04  9.5835640e-05]
 [ 5.8654252e-05 -1.5646963e-05 -1.7527230e-04]
 [-1.6222537e-01 -3.4022489e-01  4.3239791e-02]
 [ 1.2597674e-01 -4.6838243e-02 -4.0578853e-02]
 [ 4.6059650e-01  5.2213275e-01 -3.8265768e-01]
 [ 2.2835001e-01 -4.6040246e-01  3.5100871e-01]
 [ 3.7672585e-01  4.8609298e-01  4.0322623e-01]
 [-1.9755255e-01  2.9863238e-02 -3.8543403e-01]
 [ 2.8872028e-01 -2.4613421e-01 -2.5540209e-01]
 [-3.7688327e-01  4.9598131e-01 -4.1241136e-01]
 [ 3.8603818e-01 -5.6663871e-01  2.8821957e-01]] 
Episode: 147: [[ 1.6220764e-04 -1.4708834e-04 -4.6762748e-04]
 [-1.4720389e-04  1.4306726e-04  8.3647661e-05]
 [ 7.8918281e-05 -3.5832214e-05 -1.8967774e-04]
 [-1.6220984e-01 -3.4024146e-01  4.3250989e-02]
 [ 1.2596014e-01 -4.6821147e-02 -4.0594909e-02]
 [ 4.6060741e-01  5.2211481e-01 -3.8267598e-01]
 [ 2.2833362e-01 -4.6038428e-01  3.5102421e-01]
 [ 3.7671116e-01  4.8611012e-01  4.0324825e-01]
 [-1.9756879e-01  2.9880701e-02 -3.8541850e-01]
 [ 2.8873593e-01 -2.4615102e-01 -2.5541359e-01]
 [-3.7689936e-01  4.9599820e-01 -4.1242546e-01]
 [ 3.8605735e-01 -5.6665862e-01  2.8820452e-01]] 
Episode: 148: [[ 1.8480310e-04 -1.7039571e-04 -4.5056728e-04]
 [-1.7017993e-04  1.6677019e-04  6.2673658e-05]
 [ 1.0654385e-04 -6.2567065e-05 -2.1103599e-04]
 [-1.6218692e-01 -3.4026501e-01  4.3273572e-02]
 [ 1.2593597e-01 -4.6796639e-02 -4.0619235e-02]
 [ 4.6062934e-01  5.2208948e-01 -3.8269994e-01]
 [ 2.2831109e-01 -4.6036017e-01  3.5104579e-01]
 [ 3.7668896e-01  4.8613423e-01  4.0327466e-01]
 [-1.9759214e-01  2.9904949e-02 -3.8539535e-01]
 [ 2.8875920e-01 -2.4617489e-01 -2.5539833e-01]
 [-3.7692288e-01  4.9602234e-01 -4.1244817e-01]
 [ 3.8608414e-01 -5.6668514e-01  2.8818274e-01]] 
Episode: 149: [[ 2.2457588e-04 -2.1099317e-04 -4.2330593e-04]
 [-2.0997178e-04  2.0736629e-04  2.5919151e-05]
 [ 1.4851583e-04 -1.0503644e-04 -2.4976107e-04]
 [-1.6214710e-01 -3.4030563e-01  4.3310158e-02]
 [ 1.2589516e-01 -4.6755373e-02 -4.0659435e-02]
 [ 4.6066484e-01  5.2204818e-01 -3.8274115e-01]
 [ 2.2827329e-01 -4.6031985e-01  3.5108688e-01]
 [ 3.7665132e-01  4.8617437e-01  4.0332106e-01]
 [-1.9763178e-01  2.9945653e-02 -3.8535491e-01]
 [ 2.8879938e-01 -2.4621587e-01 -2.5539234e-01]
 [-3.7696314e-01  4.9606332e-01 -4.1248628e-01]
 [ 3.8612548e-01 -5.6672746e-01  2.8814355e-01]] 
Episode: 150: [[ 2.6063787e-04 -2.4805689e-04 -3.9428161e-04]
 [-2.4595563e-04  2.4428652e-04 -7.9612601e-06]
 [ 1.8433492e-04 -1.4374887e-04 -2.8573693e-04]
 [-1.6211152e-01 -3.4034234e-01  4.3342814e-02]
 [ 1.2585840e-01 -4.6718009e-02 -4.0695831e-02]
 [ 4.6069193e-01  5.2201110e-01 -3.8277987e-01]
 [ 2.2823903e-01 -4.6028289e-01  3.5112309e-01]
 [ 3.7661788e-01  4.8621067e-01  4.0336284e-01]
 [-1.9766715e-01  2.9982887e-02 -3.8531664e-01]
 [ 2.8883550e-01 -2.4625309e-01 -2.5538337e-01]
 [-3.7699944e-01  4.9610052e-01 -4.1252121e-01]
 [ 3.8616070e-01 -5.6676596e-01  2.8810701e-01]] 
Episode: 151: [[ 2.9230732e-04 -2.8051727e-04 -3.6617409e-04]
 [-2.7758887e-04  2.7676803e-04 -3.8280246e-05]
 [ 2.1611361e-04 -1.7753622e-04 -3.1599097e-04]
 [-1.6208047e-01 -3.4037441e-01  4.3371014e-02]
 [ 1.2582602e-01 -4.6685081e-02 -4.0728126e-02]
 [ 4.6071577e-01  5.2197897e-01 -3.8281268e-01]
 [ 2.2820915e-01 -4.6025077e-01  3.5115367e-01]
 [ 3.7658855e-01  4.8624238e-01  4.0339693e-01]
 [-1.9769724e-01  3.0014936e-02 -3.8528192e-01]
 [ 2.8886706e-01 -2.4628557e-01 -2.5537226e-01]
 [-3.7703118e-01  4.9613309e-01 -4.1255194e-01]
 [ 3.8619196e-01 -5.6679958e-01  2.8807637e-01]] 
Episode: 152: [[ 3.4113548e-04 -3.3011986e-04 -3.2672987e-04]
 [-3.2610242e-04  3.2612905e-04 -8.5327047e-05]
 [ 2.6382643e-04 -2.2789791e-04 -3.6336301e-04]
 [-1.6203213e-01 -3.4042367e-01  4.3415662e-02]
 [ 1.2577693e-01 -4.6635393e-02 -4.0776882e-02]
 [ 4.6075740e-01  5.2192956e-01 -3.8286179e-01]
 [ 2.2816277e-01 -4.6020180e-01  3.5120228e-01]
 [ 3.7654319e-01  4.8629048e-01  4.0344927e-01]
 [-1.9774441e-01  3.0064007e-02 -3.8523108e-01]
 [ 2.8891584e-01 -2.4633522e-01 -2.5536290e-01]
 [-3.7707993e-01  4.9618265e-01 -4.1259971e-01]
 [ 3.8623935e-01 -5.6684983e-01  2.8802869e-01]] 
Episode: 153: [[ 3.8725775e-04 -3.7642801e-04 -2.9651052e-04]
 [-3.7178275e-04  3.7218846e-04 -1.2831579e-04]
 [ 3.0953207e-04 -2.7460573e-04 -4.0916869e-04]
 [-1.6198592e-01 -3.4047008e-01  4.3458100e-02]
 [ 1.2573080e-01 -4.6588983e-02 -4.0821832e-02]
 [ 4.6079937e-01  5.2188337e-01 -3.8290814e-01]
 [ 2.2811805e-01 -4.6015608e-01  3.5124892e-01]
 [ 3.7650016e-01  4.8633519e-01  4.0350074e-01]
 [-1.9778946e-01  3.0109983e-02 -3.8518220e-01]
 [ 2.8896227e-01 -2.4638177e-01 -2.5536138e-01]
 [-3.7712598e-01  4.9622899e-01 -4.1264367e-01]
 [ 3.8628450e-01 -5.6689638e-01  2.8798267e-01]] 
Episode: 154: [[ 4.3055988e-04 -4.1997252e-04 -2.6438475e-04]
 [-4.1511180e-04  4.1581845e-04 -1.7042735e-04]
 [ 3.5220227e-04 -3.1857463e-04 -4.5227187e-04]
 [-1.6194220e-01 -3.4051391e-01  4.3501157e-02]
 [ 1.2568717e-01 -4.6545118e-02 -4.0864956e-02]
 [ 4.6084401e-01  5.2183825e-01 -3.8295016e-01]
 [ 2.2807375e-01 -4.6011183e-01  3.5128963e-01]
 [ 3.7645820e-01  4.8637819e-01  4.0354508e-01]
 [-1.9783345e-01  3.0154254e-02 -3.8514042e-01]
 [ 2.8900594e-01 -2.4642557e-01 -2.5535184e-01]
 [-3.7716973e-01  4.9627295e-01 -4.1268715e-01]
 [ 3.8632783e-01 -5.6694061e-01  2.8793988e-01]] 
Episode: 155: [[ 4.6099516e-04 -4.5050710e-04 -2.4470928e-04]
 [-4.4483290e-04  4.4593218e-04 -1.9749682e-04]
 [ 3.7932908e-04 -3.4882672e-04 -4.8440511e-04]
 [-1.6191144e-01 -3.4054464e-01  4.3529287e-02]
 [ 1.2565692e-01 -4.6514619e-02 -4.0894050e-02]
 [ 4.6086788e-01  5.2180868e-01 -3.8298205e-01]
 [ 2.2804587e-01 -4.6008241e-01  3.5132197e-01]
 [ 3.7643063e-01  4.8640725e-01  4.0358049e-01]
 [-1.9786377e-01  3.0185187e-02 -3.8510755e-01]
 [ 2.8903654e-01 -2.4645621e-01 -2.5535473e-01]
 [-3.7719977e-01  4.9630332e-01 -4.1271487e-01]
 [ 3.8635507e-01 -5.6697083e-01  2.8790778e-01]] 
Episode: 156: [[ 4.9826724e-04 -4.8798550e-04 -2.2207046e-04]
 [-4.8130620e-04  4.8293170e-04 -2.3048375e-04]
 [ 4.1240623e-04 -3.8586181e-04 -5.2345789e-04]
 [-1.6187397e-01 -3.4058222e-01  4.3562040e-02]
 [ 1.2561980e-01 -4.6477146e-02 -4.0929645e-02]
 [ 4.6089664e-01  5.2177256e-01 -3.8302091e-01]
 [ 2.2801226e-01 -4.6004665e-01  3.5136259e-01]
 [ 3.7639701e-01  4.8644283e-01  4.0362448e-01]
 [-1.9790030e-01  3.0222774e-02 -3.8506657e-01]
 [ 2.8907388e-01 -2.4649370e-01 -2.5536427e-01]
 [-3.7723657e-01  4.9634060e-01 -4.1274846e-01]
 [ 3.8638759e-01 -5.6700748e-01  2.8786847e-01]] 
Episode: 157: [[ 5.4202590e-04 -5.3182984e-04 -1.8820823e-04]
 [-5.2463386e-04  5.2663602e-04 -2.7115992e-04]
 [ 4.5362019e-04 -4.3011829e-04 -5.6892994e-04]
 [-1.6183017e-01 -3.4062603e-01  4.3603480e-02]
 [ 1.2557612e-01 -4.6433173e-02 -4.0972114e-02]
 [ 4.6093395e-01  5.2172905e-01 -3.8306603e-01]
 [ 2.2797127e-01 -4.6000433e-01  3.5140797e-01]
 [ 3.7635618e-01  4.8648530e-01  4.0367350e-01]
 [-1.9794407e-01  3.0267347e-02 -3.8502058e-01]
 [ 2.8911772e-01 -2.4653758e-01 -2.5536010e-01]
 [-3.7728027e-01  4.9638459e-01 -4.1278988e-01]
 [ 3.8642821e-01 -5.6705135e-01  2.8782281e-01]] 
Episode: 158: [[ 5.6451472e-04 -5.5286533e-04 -1.6344650e-04]
 [-5.4652907e-04  5.4795085e-04 -2.9061150e-04]
 [ 4.7598081e-04 -4.5071720e-04 -5.9229956e-04]
 [-1.6180778e-01 -3.4064707e-01  4.3627277e-02]
 [ 1.2555431e-01 -4.6411794e-02 -4.0992446e-02]
 [ 4.6096045e-01  5.2170742e-01 -3.8308734e-01]
 [ 2.2795488e-01 -4.5998734e-01  3.5143515e-01]
 [ 3.7633643e-01  4.8650485e-01  4.0370309e-01]
 [-1.9796693e-01  3.0288903e-02 -3.8499746e-01]
 [ 2.8914043e-01 -2.4655865e-01 -2.5534108e-01]
 [-3.7730238e-01  4.9640605e-01 -4.1280970e-01]
 [ 3.8645005e-01 -5.6707174e-01  2.8779948e-01]] 
Episode: 159: [[ 5.6417700e-04 -5.5115996e-04 -1.7025865e-04]
 [-5.4614502e-04  5.4694724e-04 -2.8650844e-04]
 [ 4.8023442e-04 -4.4941515e-04 -5.9146679e-04]
 [-1.6180749e-01 -3.4064591e-01  4.3627236e-02]
 [ 1.2555440e-01 -4.6412427e-02 -4.0990524e-02]
 [ 4.6096912e-01  5.2170837e-01 -3.8308522e-01]
 [ 2.2795826e-01 -4.5999143e-01  3.5143790e-01]
 [ 3.7633762e-01  4.8650259e-01  4.0370798e-01]
 [-1.9796793e-01  3.0287962e-02 -3.8499686e-01]
 [ 2.8914070e-01 -2.4655721e-01 -2.5533932e-01]
 [-3.7730223e-01  4.9640515e-01 -4.1280597e-01]
 [ 3.8645276e-01 -5.6707001e-01  2.8780010e-01]] 
Episode: 160: [[ 5.6954083e-04 -5.5571552e-04 -1.7955677e-04]
 [-5.5171974e-04  5.5220246e-04 -2.8801279e-04]
 [ 4.9217511e-04 -4.5632329e-04 -5.9723516e-04]
 [-1.6180100e-01 -3.4065130e-01  4.3632802e-02]
 [ 1.2554817e-01 -4.6406571e-02 -4.0995110e-02]
 [ 4.6098122e-01  5.2170217e-01 -3.8309073e-01]
 [ 2.2795196e-01 -4.5998693e-01  3.5144368e-01]
 [ 3.7633172e-01  4.8650759e-01  4.0371725e-01]
 [-1.9797535e-01  3.0294143e-02 -3.8498962e-01]
 [ 2.8914714e-01 -2.4656238e-01 -2.5534177e-01]
 [-3.7730825e-01  4.9641070e-01 -4.1280860e-01]
 [ 3.8646293e-01 -5.6707639e-01  2.8779405e-01]] 
Episode: 161: [[ 5.8444531e-04 -5.7010399e-04 -1.8123255e-04]
 [-5.6675269e-04  5.6712009e-04 -2.9841939e-04]
 [ 5.1291310e-04 -4.7271073e-04 -6.1222777e-04]
 [-1.6178536e-01 -3.4066620e-01  4.3645084e-02]
 [ 1.2553239e-01 -4.6391007e-02 -4.1009020e-02]
 [ 4.6099883e-01  5.2168739e-01 -3.8310620e-01]
 [ 2.2793761e-01 -4.5997322e-01  3.5146034e-01]
 [ 3.7631696e-01  4.8652196e-01  4.0373710e-01]
 [-1.9799113e-01  3.0309329e-02 -3.8497087e-01]
 [ 2.8916284e-01 -2.4657719e-01 -2.5534865e-01]
 [-3.7732363e-01  4.9642587e-01 -4.1281974e-01]
 [ 3.8648090e-01 -5.6709182e-01  2.8777832e-01]] 
Episode: 162: [[ 5.9885310e-04 -5.8441801e-04 -1.8936663e-04]
 [-5.8089790e-04  5.8127358e-04 -3.0791503e-04]
 [ 5.3453690e-04 -4.8964715e-04 -6.2589714e-04]
 [-1.6177002e-01 -3.4068117e-01  4.3655269e-02]
 [ 1.2551723e-01 -4.6376001e-02 -4.1022599e-02]
 [ 4.6101692e-01  5.2167213e-01 -3.8312089e-01]
 [ 2.2792406e-01 -4.5995951e-01  3.5147795e-01]
 [ 3.7630326e-01  4.8653573e-01  4.0375683e-01]
 [-1.9800596e-01  3.0323993e-02 -3.8495228e-01]
 [ 2.8917822e-01 -2.4659212e-01 -2.5536391e-01]
 [-3.7733820e-01  4.9644032e-01 -4.1283014e-01]
 [ 3.8649997e-01 -5.6710792e-01  2.8776395e-01]] 
Episode: 163: [[ 6.0076610e-04 -5.8547861e-04 -2.0646994e-04]
 [-5.8148400e-04  5.8154122e-04 -3.0241560e-04]
 [ 5.3669245e-04 -4.8973766e-04 -6.2898925e-04]
 [-1.6176738e-01 -3.4068289e-01  4.3652125e-02]
 [ 1.2551545e-01 -4.6374641e-02 -4.1022055e-02]
 [ 4.6101904e-01  5.2167243e-01 -3.8312358e-01]
 [ 2.2792649e-01 -4.5996135e-01  3.5148740e-01]
 [ 3.7630376e-01  4.8653483e-01  4.0376779e-01]
 [-1.9800612e-01  3.0323790e-02 -3.8494286e-01]
 [ 2.8918093e-01 -2.4659368e-01 -2.5538394e-01]
 [-3.7733909e-01  4.9644080e-01 -4.1282487e-01]
 [ 3.8650104e-01 -5.6710768e-01  2.8776041e-01]] 
Episode: 164: [[ 5.8529724e-04 -5.6900526e-04 -2.3887573e-04]
 [-5.6477822e-04  5.6439679e-04 -2.7995452e-04]
 [ 5.2118389e-04 -4.7176061e-04 -6.1470579e-04]
 [-1.6178183e-01 -3.4066737e-01  4.3632146e-02]
 [ 1.2553093e-01 -4.6390653e-02 -4.1004114e-02]
 [ 4.6100634e-01  5.2169001e-01 -3.8310865e-01]
 [ 2.2794537e-01 -4.5998016e-01  3.5147855e-01]
 [ 3.7632143e-01  4.8651645e-01  4.0376142e-01]
 [-1.9798902e-01  3.0306036e-02 -3.8495097e-01]
 [ 2.8916642e-01 -2.4657781e-01 -2.5540861e-01]
 [-3.7732273e-01  4.9642387e-01 -4.1280270e-01]
 [ 3.8648468e-01 -5.6708956e-01  2.8777421e-01]] 
Episode: 165: [[ 5.7232520e-04 -5.5561331e-04 -2.6367200e-04]
 [-5.5156223e-04  5.5089686e-04 -2.6444081e-04]
 [ 5.1051803e-04 -4.5844362e-04 -6.0035766e-04]
 [-1.6179353e-01 -3.4065503e-01  4.3618776e-02]
 [ 1.2554336e-01 -4.6403412e-02 -4.0990785e-02]
 [ 4.6099570e-01  5.2170360e-01 -3.8309479e-01]
 [ 2.2795841e-01 -4.5999369e-01  3.5146725e-01]
 [ 3.7633529e-01  4.8650223e-01  4.0375227e-01]
 [-1.9797511e-01  3.0291915e-02 -3.8496202e-01]
 [ 2.8915441e-01 -2.4656507e-01 -2.5542098e-01]
 [-3.7730989e-01  4.9641064e-01 -4.1278803e-01]
 [ 3.8647446e-01 -5.6707656e-01  2.8778884e-01]] 
Episode: 166: [[ 5.6208734e-04 -5.4461596e-04 -2.8117458e-04]
 [-5.4126501e-04  5.4009818e-04 -2.5200364e-04]
 [ 5.0237152e-04 -4.4752206e-04 -5.8977096e-04]
 [-1.6180246e-01 -3.4064513e-01  4.3610301e-02]
 [ 1.2555301e-01 -4.6413559e-02 -4.0980194e-02]
 [ 4.6098822e-01  5.2171463e-01 -3.8308439e-01]
 [ 2.2796780e-01 -4.6000463e-01  3.5145688e-01]
 [ 3.7634534e-01  4.8649108e-01  4.0374383e-01]
 [-1.9796501e-01  3.0281018e-02 -3.8497064e-01]
 [ 2.8914514e-01 -2.4655472e-01 -2.5542337e-01]
 [-3.7729993e-01  4.9640006e-01 -4.1277641e-01]
 [ 3.8646698e-01 -5.6706607e-01  2.8779975e-01]] 
Episode: 167: [[ 5.4465479e-04 -5.2629423e-04 -3.0221100e-04]
 [-5.2424241e-04  5.2236009e-04 -2.3303888e-04]
 [ 4.9107207e-04 -4.3049900e-04 -5.7118270e-04]
