Episode: 1: [[0. 0. 0.]
 [0. 0. 0.]
 [0. 0. 0.]
 [0. 0. 0.]
 [0. 0. 0.]
 [0. 0. 0.]
 [0. 0. 0.]
 [0. 0. 0.]
 [0. 0. 0.]] 
Episode: 2: [[ 0.0000000e+00  0.0000000e+00  0.0000000e+00]
 [ 0.0000000e+00  0.0000000e+00  0.0000000e+00]
 [ 0.0000000e+00  0.0000000e+00  0.0000000e+00]
 [ 9.9999299e-05 -9.9998062e-05  9.9999830e-05]
 [ 9.9999728e-05 -9.9999997e-05 -9.9999947e-05]
 [ 9.9999990e-05  9.9999845e-05 -9.9999997e-05]
 [-9.9999968e-05  9.9999968e-05 -9.9999997e-05]
 [-9.9999968e-05  9.9999997e-05 -9.9999997e-05]
 [-9.9999997e-05 -9.9999990e-05 -9.9999997e-05]] 
Episode: 3: [[ 7.4413678e-05  7.4413678e-05  7.4413678e-05]
 [-7.4413678e-05 -7.4413678e-05  7.4413685e-05]
 [-7.4413678e-05  7.4413671e-05  7.4413671e-05]
 [ 1.7441301e-04 -2.5584450e-05  1.7441426e-04]
 [ 1.7441442e-04 -1.7444708e-04 -1.7441416e-04]
 [ 2.5595029e-05  2.5586334e-05 -1.7441988e-04]
 [-2.5586436e-05  1.7447444e-04 -2.5587760e-05]
 [-1.7441381e-04  2.5587920e-05 -2.5586771e-05]
 [-1.7441405e-04 -1.7445497e-04 -2.5587753e-05]] 
Episode: 4: [[ 1.3166765e-04  6.4455737e-05  1.3848535e-04]
 [-1.2328573e-04 -1.4652198e-04  1.4508807e-04]
 [-1.2966346e-04  1.5921790e-04  1.5238355e-04]
 [ 2.3016569e-04  1.0264939e-05  2.4197291e-04]
 [ 1.2831888e-04 -2.5159039e-04 -2.5862813e-04]
 [-5.3144431e-05 -1.5852012e-05 -2.5630189e-04]
 [ 4.5544664e-05  1.1072807e-04  5.0879884e-05]
 [-2.3141042e-04 -6.0373379e-05  5.8496844e-05]
 [-2.4202379e-04 -1.3115260e-04  3.9436156e-05]] 
Episode: 5: [[ 7.3554867e-05  1.2256856e-04  8.0372658e-05]
 [-6.5172950e-05 -8.8409171e-05  2.0320105e-04]
 [-7.1550698e-05  2.1733076e-04  9.4270741e-05]
 [ 1.7205291e-04 -4.7847869e-05  1.8386016e-04]
 [ 7.0206021e-05 -3.0970323e-04 -2.0051535e-04]
 [ 4.9683695e-06  4.2260817e-05 -3.1441479e-04]
 [ 1.0365758e-04  5.2615214e-05 -7.2319381e-06]
 [-1.7329765e-04 -1.1848626e-04  3.8405051e-07]
 [-3.0013683e-04 -1.8926543e-04  9.7549011e-05]] 
Episode: 6: [[ 2.4437097e-05  1.7169132e-04  3.1233176e-05]
 [-1.6063292e-05 -3.9280272e-05  2.5229558e-04]
 [-2.2441964e-05  2.6646390e-04  4.5152712e-05]
 [ 1.2294989e-04 -9.6968695e-05  1.3473444e-04]
 [ 2.1084943e-05 -3.5882063e-04 -1.5139168e-04]
 [ 5.4085260e-05  9.1379858e-05 -3.6352995e-04]
 [ 1.5278325e-04  3.4955156e-06 -5.6230809e-05]
 [-1.2417449e-04 -1.6761501e-04 -4.8729682e-05]
 [-3.4923851e-04 -2.3839713e-04  1.4667324e-04]] 
Episode: 7: [[-1.7873790e-05  2.1401983e-04 -1.1134602e-05]
 [ 2.6270314e-05  3.0616502e-06  2.9457983e-04]
 [ 1.9871244e-05  3.0880573e-04  2.8363174e-06]
 [ 8.0635436e-05 -1.3931005e-04  9.2375019e-05]
 [-2.1254302e-05 -4.0115262e-04 -1.0904841e-04]
 [ 9.6421514e-05  1.3371595e-04 -4.0584573e-04]
 [ 1.9511693e-04 -3.8838814e-05 -9.8419310e-05]
 [-8.1842591e-05 -2.0995727e-04 -9.1055968e-05]
 [-3.9154690e-04 -2.8074073e-04  1.8901397e-04]] 
Episode: 8: [[-5.4824060e-05  2.5098550e-04 -4.8134560e-05]
 [ 6.3240426e-05  4.0039027e-05  3.3150686e-04]
 [ 5.6823545e-05  3.4578302e-04 -3.4118773e-05]
 [ 4.3682048e-05 -1.7628694e-04  5.5382359e-05]
 [-5.8229340e-05 -4.3812132e-04 -7.2069859e-05]
 [ 1.3339394e-04  1.7068823e-04 -4.4280029e-04]
 [ 2.3208710e-04 -7.5809563e-05 -1.3526270e-04]
 [-4.4873967e-05 -2.4693494e-04 -1.2801969e-04]
 [-4.2849497e-04 -3.1771956e-04  2.2599031e-04]] 
Episode: 9: [[-8.7397944e-05  2.8357294e-04 -8.0752252e-05]
 [ 9.5831805e-05  7.2636802e-05  3.6406025e-04]
 [ 8.9399218e-05  3.7838073e-04 -6.6696899e-05]
 [ 1.1105418e-05 -2.0888427e-04  2.2771103e-05]
 [-9.0825059e-05 -4.7071144e-04 -3.9471041e-05]
 [ 1.6598735e-04  2.0328152e-04 -4.7537795e-04]
 [ 2.6467853e-04 -1.0840150e-04 -1.6774236e-04]
 [-1.2283905e-05 -2.7953298e-04 -1.6060543e-04]
 [-4.6106693e-04 -3.5031862e-04  2.5858718e-04]] 
Episode: 10: [[-1.16314957e-04  3.12501972e-04 -1.09708140e-04]
 [ 1.24764338e-04  1.01575017e-04  3.92959075e-04]
 [ 1.18317825e-04  4.07318905e-04 -9.56176809e-05]
 [-1.78140290e-05 -2.37822111e-04 -6.17908154e-06]
 [-1.19761447e-04 -4.99642862e-04 -1.05318959e-05]
 [ 1.94921697e-04  2.32215767e-04 -5.04298310e-04]
 [ 2.93611112e-04 -1.37334544e-04 -1.96575726e-04]
 [ 1.66474656e-05 -3.08471441e-04 -1.89532962e-04]
 [-4.89982194e-04 -3.79257981e-04  2.87524599e-04]] 
Episode: 11: [[-1.4212274e-04  3.3832047e-04 -1.3555060e-04]
 [ 1.5058597e-04  1.2740171e-04  4.1875060e-04]
 [ 1.4412701e-04  4.3314556e-04 -1.2142881e-04]
 [-4.3623975e-05 -2.6364846e-04 -3.2016454e-05]
 [-1.4558651e-04 -5.2546349e-04  1.5295625e-05]
 [ 2.2074493e-04  2.5803893e-04 -5.3010904e-04]
 [ 3.1943279e-04 -1.6315661e-04 -2.2230884e-04]
 [ 4.2468047e-05 -3.3429835e-04 -2.1535013e-04]
 [-5.1578844e-04 -4.0508568e-04  3.1335058e-04]] 
Episode: 12: [[-1.6525135e-04  3.6145872e-04 -1.5871029e-04]
 [ 1.7372699e-04  1.5054729e-04  4.4186466e-04]
 [ 1.6725689e-04  4.5629108e-04 -1.4456044e-04]
 [-6.6754532e-05 -2.8679371e-04 -5.5171593e-05]
 [-1.6873062e-04 -5.4860365e-04  3.8441940e-05]
 [ 2.4388741e-04  2.8118130e-04 -5.5324030e-04]
 [ 3.4257385e-04 -1.8629804e-04 -2.4537055e-04]
 [ 6.5608139e-05 -3.5744411e-04 -2.3848715e-04]
 [-5.3891569e-04 -4.2823216e-04  3.3649552e-04]] 
Episode: 13: [[-1.8604711e-04  3.8226313e-04 -1.7953399e-04]
 [ 1.9453392e-04  1.7135829e-04  4.6264732e-04]
 [ 1.8805379e-04  4.7710203e-04 -1.6535891e-04]
 [-8.7552035e-05 -3.0760444e-04 -7.5991200e-05]
 [-1.8954031e-04 -5.6940975e-04  5.9253609e-05]
 [ 2.6469561e-04  3.0198944e-04 -5.7403848e-04]
 [ 3.6338082e-04 -2.0710532e-04 -2.6610616e-04]
 [ 8.6414220e-05 -3.7825527e-04 -2.5929048e-04]
 [-5.5971020e-04 -4.4904399e-04  3.5730595e-04]] 
Episode: 14: [[-2.0479453e-04  4.0101833e-04 -1.9830662e-04]
 [ 2.1329141e-04  1.9011946e-04  4.8138294e-04]
 [ 2.0680224e-04  4.9586315e-04 -1.8410878e-04]
 [-1.0630103e-04 -3.2636535e-04 -9.4760122e-05]
 [-2.0830029e-04 -5.8816653e-04  7.8015379e-05]
 [ 2.8345425e-04  3.2074802e-04 -5.9278804e-04]
 [ 3.8213833e-04 -2.2586313e-04 -2.8479935e-04]
 [ 1.0517094e-04 -3.9701659e-04 -2.7804472e-04]
 [-5.7845650e-04 -4.6780589e-04  3.7606660e-04]] 
