Episode: 1: [[-0.11657108  0.01925944 -0.5485631   0.5081599   0.51482797  0.34263572
  -0.09813324  0.36980087]
 [-0.31287375  0.4729509  -0.44070682 -0.4904909  -0.10482257  0.5312401
  -0.33566955 -0.35339358]
 [ 0.45142373 -0.07081959 -0.16514593  0.05238764  0.38095844 -0.33493564
   0.3099484  -0.08199146]
 [-0.33293104  0.18539287 -0.3864072  -0.08661058  0.568887    0.22681153
  -0.2919255   0.23418397]
 [ 0.28799024  0.49685922 -0.52026755 -0.49073985  0.2566427   0.5170866
  -0.15627958 -0.32159573]
 [ 0.32144564  0.16059367 -0.3375632   0.2361349   0.5321596  -0.50870615
  -0.18964416 -0.5062304 ]
 [ 0.001       0.          0.          0.          0.          0.
   0.          0.        ]
 [ 0.001       0.          0.          0.          0.          0.
   0.          0.        ]
 [ 0.001       0.          0.          0.          0.          0.
   0.          0.        ]
 [ 0.23370929  0.23737404  0.10893833 -0.37746835  0.14405029  0.13707826
   0.25212246  0.43637034]
 [ 0.51523185 -0.01700069 -0.57065964  0.49524948  0.2670042  -0.22395086
   0.5447955   0.28569257]
 [-0.279218   -0.1521027   0.14305349 -0.4652852   0.3663096   0.18491977
  -0.16814803  0.0793543 ]] 
Episode: 2: [[-1.16471089e-01  1.91594437e-02 -5.48663139e-01  5.08059859e-01
   5.14727950e-01  3.42535734e-01 -9.80332419e-02  3.69700879e-01]
 [-3.12973738e-01  4.73050892e-01 -4.40806806e-01 -4.90390927e-01
  -1.04922563e-01  5.31340122e-01 -3.35769534e-01 -3.53293598e-01]
 [ 4.51323748e-01 -7.09195882e-02 -1.65245920e-01  5.22876419e-02
   3.80858451e-01 -3.35035622e-01  3.10048372e-01 -8.20914507e-02]
 [-3.32831055e-01  1.85292870e-01 -3.86307210e-01 -8.67105722e-02
   5.68987012e-01  2.26711541e-01 -2.91825503e-01  2.34083965e-01]
 [ 2.87890255e-01  4.96959209e-01 -5.20367563e-01 -4.90639865e-01
   2.56542712e-01  5.16986668e-01 -1.56379580e-01 -3.21495742e-01]
 [ 3.21345717e-01  1.60493687e-01 -3.37663174e-01  2.36034915e-01
   5.32059669e-01 -5.08806169e-01 -1.89551011e-01 -5.06330431e-01]
 [ 9.00000450e-04  9.99998592e-05 -9.99980402e-05  9.99998301e-05
  -9.99980475e-05  9.99998010e-05 -9.99997719e-05  9.99998738e-05]
 [ 9.00000450e-04  9.99996919e-05 -9.99993499e-05  9.99996555e-05
  -9.99991462e-05  9.99993863e-05 -9.99997064e-05  9.99997501e-05]
 [ 9.00000974e-04  9.99998738e-05  9.99992917e-05  9.99998592e-05
   9.99994591e-05  9.99998374e-05 -9.99996482e-05  9.99998883e-05]
 [ 2.33809292e-01  2.37274036e-01  1.09038316e-01 -3.77568334e-01
   1.44150257e-01  1.36978254e-01  2.52222449e-01  4.36270356e-01]
 [ 5.15131831e-01 -1.69006940e-02 -5.70759654e-01  4.95349467e-01
   2.66904205e-01 -2.23850861e-01  5.44695497e-01  2.85792559e-01]
 [-2.79317975e-01 -1.52202696e-01  1.42953485e-01 -4.65385199e-01
   3.66209626e-01  1.84819773e-01 -1.68048039e-01  7.92542994e-02]] 
Episode: 3: [[-1.1654242e-01  1.9070312e-02 -5.4873943e-01  5.0797319e-01
   5.1465273e-01  3.4244984e-01 -9.8100334e-02  3.6961016e-01]
 [-3.1291357e-01  4.7313273e-01 -4.4074148e-01 -4.9030948e-01
  -1.0485465e-01  5.3141689e-01 -3.3571017e-01 -3.5320792e-01]
 [ 4.5124650e-01 -7.1012624e-02 -1.6532953e-01  5.2195802e-02
   3.8077587e-01 -3.3512628e-01  3.0997571e-01 -8.2186408e-02]
 [-3.3289611e-01  1.8520942e-01 -3.8637716e-01 -8.6791508e-02
   5.6891817e-01  2.2663170e-01 -2.9188719e-01  2.3399858e-01]
 [ 2.8794676e-01  4.9703729e-01 -5.2030575e-01 -4.9056128e-01
   2.5660747e-01  5.1705927e-01 -1.5632264e-01 -3.2141289e-01]
 [ 3.2126734e-01  1.6040052e-01 -3.3774799e-01  2.3594299e-01
   5.3197598e-01 -5.0889778e-01 -1.8962538e-01 -5.0642616e-01]
 [ 9.6814096e-04  1.8721256e-04 -2.6826534e-05  1.8512488e-04
  -2.6629023e-05  1.8400160e-04 -3.5603036e-05  1.8921093e-04]
 [ 9.6308143e-04  1.8495745e-04 -3.2088887e-05  1.8339822e-04
  -2.9655817e-05  1.8012956e-04 -3.8518585e-05  1.8756055e-04]
 [ 9.7169360e-04  1.8893514e-04  1.7775017e-04  1.8748234e-04
   1.7823082e-04  1.8611112e-04 -3.2044292e-05  1.9134175e-04]
 [ 2.3374023e-01  2.3718622e-01  1.0896429e-01 -3.7765431e-01
   1.4407609e-01  1.3689367e-01  2.5215715e-01  4.3618089e-01]
 [ 5.1519859e-01 -1.6812654e-02 -5.7068759e-01  4.9543548e-01
   2.6697749e-01 -2.2376740e-01  5.4475975e-01  2.8588256e-01]
 [-2.7939421e-01 -1.5229452e-01  1.4287192e-01 -4.6547592e-01
   3.6612830e-01  1.8473065e-01 -1.6811971e-01  7.9160422e-02]] 
Episode: 4: [[-1.16624482e-01  1.89772863e-02 -5.48824549e-01  5.07881999e-01
   5.14570534e-01  3.42358649e-01 -9.81778726e-02  3.69515657e-01]
 [-3.12838137e-01  4.73221630e-01 -4.40662563e-01 -4.90221471e-01
  -1.04776904e-01  5.31502604e-01 -3.35637420e-01 -3.53116155e-01]
 [ 4.51161802e-01 -7.11072311e-02 -1.65417939e-01  5.21023907e-02
   3.80690783e-01 -3.35219115e-01  3.09896439e-01 -8.22829753e-02]
 [-3.32974732e-01  1.85119480e-01 -3.86458725e-01 -8.68796259e-02
   5.68839192e-01  2.26543784e-01 -2.91961998e-01  2.33906999e-01]
 [ 2.88020194e-01  4.97124076e-01 -5.20228803e-01 -4.90474820e-01
   2.56683648e-01  5.17142653e-01 -1.56251088e-01 -3.21322709e-01]
 [ 3.21181715e-01  1.60305813e-01 -3.37837130e-01  2.35849395e-01
   5.31889856e-01 -5.08991182e-01 -1.89706087e-01 -5.06523132e-01]
 [ 1.04834361e-03  2.79203727e-04  5.65379669e-05  2.75443075e-04
   5.44570757e-05  2.74127320e-04  4.03212944e-05  2.82878522e-04]
 [ 1.04031188e-03  2.75624363e-04  4.83645636e-05  2.72530946e-04
   4.95761669e-05  2.67729687e-04  3.54983058e-05  2.80379609e-04]
 [ 1.05330395e-03  2.81498913e-04  2.63044843e-04  2.78687017e-04
   2.61278270e-04  2.76681152e-04  4.48805549e-05  2.86030874e-04]
 [ 2.33659357e-01  2.37093821e-01  1.08880311e-01 -3.77745152e-01
   1.43994331e-01  1.36803165e-01  2.52080441e-01  4.36087042e-01]
 [ 5.15277982e-01 -1.67202540e-02 -5.70604801e-01  4.95526075e-01
   2.67058402e-01 -2.23677903e-01  5.44835329e-01  2.85976768e-01]
 [-2.79478312e-01 -1.52388528e-01  1.42784521e-01 -4.65568721e-01
   3.66043687e-01  1.84638515e-01 -1.68198571e-01  7.90643468e-02]] 
Episode: 5: [[-1.16700895e-01  1.88910794e-02 -5.48902333e-01  5.07798672e-01
   5.14496386e-01  3.42275143e-01 -9.82486457e-02  3.69429529e-01]
 [-3.12767744e-01  4.73304719e-01 -4.40591544e-01 -4.90140647e-01
  -1.04705997e-01  5.31580806e-01 -3.35570633e-01 -3.53032649e-01]
 [ 4.51084584e-01 -7.11948797e-02 -1.65495470e-01  5.20176254e-02
   3.80616009e-01 -3.35302174e-01  3.09825182e-01 -8.23697448e-02]
 [-3.33048731e-01  1.85035422e-01 -3.86534125e-01 -8.69609639e-02
   5.68766892e-01  2.26462364e-01 -2.92030990e-01  2.33822793e-01]
 [ 2.88089365e-01  4.97205824e-01 -5.20158708e-01 -4.90395099e-01
   2.56753892e-01  5.17219603e-01 -1.56184942e-01 -3.21240127e-01]
 [ 3.21102619e-01  1.60217375e-01 -3.37916255e-01  2.35763520e-01
   5.31813264e-01 -5.09075344e-01 -1.89779416e-01 -5.06610870e-01]
 [ 1.12304371e-03  3.64315667e-04  1.32720510e-04  3.57582030e-04
   1.27394727e-04  3.56400909e-04  1.09506349e-04  3.68025532e-04]
 [ 1.11241604e-03  3.60212580e-04  1.20884804e-04  3.54566844e-04
   1.21761826e-04  3.47428460e-04  1.03648577e-04  3.64888983e-04]
 [ 1.12826354e-03  3.67762317e-04  3.38716141e-04  3.62093415e-04
   3.34933808e-04  3.58485413e-04  1.14530536e-04  3.71779082e-04]
 [ 2.33583361e-01  2.37007782e-01  1.08802848e-01 -3.77828300e-01
   1.43920168e-01  1.36719882e-01  2.52009809e-01  4.36001122e-01]
 [ 5.15352070e-01 -1.66340936e-02 -5.70530176e-01  4.95609552e-01
   2.67132074e-01 -2.23596558e-01  5.44905066e-01  2.86062628e-01]
 [-2.79555202e-01 -1.52475938e-01  1.42707303e-01 -4.65653181e-01
   3.65968853e-01  1.84555545e-01 -1.68269694e-01  7.89775252e-02]] 
Episode: 6: [[-1.16758287e-01  1.88237242e-02 -5.48959136e-01  5.07741511e-01
   5.14444232e-01  3.42210054e-01 -9.83016118e-02  3.69361073e-01]
 [-3.12720299e-01  4.73363757e-01 -4.40545738e-01 -4.90089506e-01
  -1.04660660e-01  5.31636596e-01 -3.35525692e-01 -3.52971464e-01]
 [ 4.51023519e-01 -7.12667778e-02 -1.65555865e-01  5.19554056e-02
   3.80559534e-01 -3.35370451e-01  3.09769332e-01 -8.24420229e-02]
 [-3.33101422e-01  1.84972897e-01 -3.86586457e-01 -8.70141387e-02
   5.68718970e-01  2.26401955e-01 -2.92080164e-01  2.33759031e-01]
 [ 2.88134754e-01  4.97262090e-01 -5.20114779e-01 -4.90345240e-01
   2.56797791e-01  5.17273188e-01 -1.56141460e-01 -3.21180969e-01]
 [ 3.21039349e-01  1.60143882e-01 -3.37979525e-01  2.35699430e-01
   5.31754076e-01 -5.09145796e-01 -1.89838156e-01 -5.06685257e-01]
 [ 1.17728126e-03  4.29147593e-04  1.86177436e-04  4.12703928e-04
   1.77423586e-04  4.19092859e-04  1.59433126e-04  4.34359157e-04]
 [ 1.16256659e-03  4.22421988e-04  1.69301653e-04  4.07770014e-04
   1.69561827e-04  4.06208594e-04  1.50874053e-04  4.28475003e-04]
 [ 1.18448713e-03  4.35367809e-04  3.94214789e-04  4.20422934e-04
   3.87891050e-04  4.22534446e-04  1.66105034e-04  4.40160278e-04]
 [ 2.33526975e-01  2.36941412e-01  1.08747415e-01 -3.77885640e-01
   1.43868044e-01  1.36655346e-01  2.51957804e-01  4.35933352e-01]
 [ 5.15405715e-01 -1.65686253e-02 -5.70478141e-01  4.95665491e-01
   2.67182708e-01 -2.23534510e-01  5.44955313e-01  2.86129147e-01]
 [-2.79615581e-01 -1.52546644e-01  1.42648295e-01 -4.65714782e-01
   3.65913033e-01  1.84488386e-01 -1.68324679e-01  7.89062157e-02]] 
Episode: 7: [[-1.16764970e-01  1.88076738e-02 -5.48967123e-01  5.07732332e-01
   5.14442265e-01  3.42197001e-01 -9.83039141e-02  3.69345278e-01]
 [-3.12720090e-01  4.73373979e-01 -4.40545470e-01 -4.90084171e-01
  -1.04662985e-01  5.31642795e-01 -3.35528135e-01 -3.52961600e-01]
 [ 4.51016128e-01 -7.12873191e-02 -1.65565491e-01  5.19430600e-02
   3.80555481e-01 -3.35385948e-01  3.09766620e-01 -8.24592859e-02]
 [-3.33105475e-01  1.84960589e-01 -3.86591494e-01 -8.70203674e-02
   5.68719387e-01  2.26392195e-01 -2.92080611e-01  2.33746737e-01]
 [ 2.88134307e-01  4.97270852e-01 -5.20115197e-01 -4.90340382e-01
   2.56795287e-01  5.17278314e-01 -1.56144246e-01 -3.21171880e-01]
 [ 3.21029544e-01  1.60121277e-01 -3.37992579e-01  2.35685229e-01
   5.31747818e-01 -5.09164333e-01 -1.89843610e-01 -5.06705523e-01]
 [ 1.18141354e-03  4.42661665e-04  1.91213956e-04  4.20016848e-04
   1.77775742e-04  4.29779437e-04  1.59464500e-04  4.47943108e-04]
 [ 1.16470910e-03  4.35421854e-04  1.71582156e-04  4.14896698e-04
   1.68954866e-04  4.14922659e-04  1.50244348e-04  4.40450123e-04]
 [ 1.18892617e-03  4.51781234e-04  3.99812707e-04  4.29545500e-04
   3.89648339e-04  4.34252899e-04  1.66390964e-04  4.53896966e-04]
 [ 2.33520523e-01  2.36925930e-01  1.08740263e-01 -3.77895474e-01
   1.43865451e-01  1.36642545e-01  2.51955658e-01  4.35917825e-01]
 [ 5.15410483e-01 -1.65525079e-02 -5.70472777e-01  4.95675117e-01
   2.67184258e-01 -2.23522827e-01  5.44956923e-01  2.86144048e-01]
 [-2.79622763e-01 -1.52566090e-01  1.42640039e-01 -4.65726793e-01
   3.65909338e-01  1.84474081e-01 -1.68327078e-01  7.88900554e-02]] 
Episode: 8: [[-1.1676940e-01  1.8796433e-02 -5.4897296e-01  5.0772691e-01
   5.1444107e-01  3.4218931e-01 -9.8306149e-02  3.6933395e-01]
 [-3.1272128e-01  4.7338054e-01 -4.4054556e-01 -4.9008250e-01
  -1.0466559e-01  5.3164494e-01 -3.3553010e-01 -3.5295540e-01]
 [ 4.5101565e-01 -7.1297981e-02 -1.6556820e-01  5.1939387e-02
   3.8055676e-01 -3.3539093e-01  3.0976799e-01 -8.2467563e-02]
 [-3.3310917e-01  1.8495077e-01 -3.8659620e-01 -8.7024763e-02
   5.6871861e-01  2.2638540e-01 -2.9208249e-01  2.3373674e-01]
 [ 2.8813362e-01  4.9727738e-01 -5.2011538e-01 -4.9033859e-01
   2.5679320e-01  5.1728076e-01 -1.5614586e-01 -3.2116565e-01]
 [ 3.2102728e-01  1.6010877e-01 -3.3799762e-01  2.3568019e-01
   5.3174716e-01 -5.0917149e-01 -1.8984428e-01 -5.0671589e-01]
 [ 1.1843230e-03  4.5236305e-04  1.9540075e-04  4.2432701e-04
   1.7788915e-04  4.3598303e-04  1.6032672e-04  4.5788163e-04]
 [ 1.1645854e-03  4.4344497e-04  1.7283642e-04  4.1766235e-04
   1.6728746e-04  4.1830295e-04  1.4940901e-04  4.4800577e-04]
 [ 1.1883758e-03  4.6072298e-04  4.0093981e-04  4.3204305e-04
   3.8768933e-04  4.3803235e-04  1.6426617e-04  4.6082091e-04]
 [ 2.3351568e-01  2.3691462e-01  1.0873442e-01 -3.7790152e-01
   1.4386353e-01  1.3663459e-01  2.5195307e-01  4.3590617e-01]
 [ 5.1541191e-01 -1.6542608e-02 -5.7046986e-01  4.9567932e-01
   2.6718375e-01 -2.2351788e-01  5.4495752e-01  2.8615338e-01]
 [-2.7962318e-01 -1.5257633e-01  1.4263782e-01 -4.6573034e-01
   3.6591050e-01  1.8446933e-01 -1.6832577e-01  7.8882188e-02]] 
Episode: 9: [[-1.16759516e-01  1.87988747e-02 -5.48962772e-01  5.07736325e-01
   5.14453590e-01  3.42200011e-01 -9.82932597e-02  3.69336694e-01]
 [-3.12734991e-01  4.73375201e-01 -4.40560043e-01 -4.90094721e-01
  -1.04680955e-01  5.31629503e-01 -3.35546017e-01 -3.52962136e-01]
 [ 4.51028764e-01 -7.12960660e-02 -1.65556073e-01  5.19501977e-02
   3.80571872e-01 -3.35377932e-01  3.09783608e-01 -8.24620649e-02]
 [-3.33098531e-01  1.84954956e-01 -3.86585057e-01 -8.70143548e-02
   5.68731725e-01  2.26396814e-01 -2.92069316e-01  2.33741090e-01]
 [ 2.88120121e-01  4.97271508e-01 -5.20130098e-01 -4.90350813e-01
   2.56778061e-01  5.17265499e-01 -1.56161532e-01 -3.21172744e-01]
 [ 3.21039349e-01  1.60109505e-01 -3.37987095e-01  2.35690296e-01
   5.31761050e-01 -5.09160221e-01 -1.89829960e-01 -5.06711841e-01]
 [ 1.17339194e-03  4.48683189e-04  1.84069941e-04  4.14118491e-04
   1.64696132e-04  4.24336991e-04  1.46592647e-04  4.54104767e-04]
 [ 1.15158234e-03  4.39428724e-04  1.59318806e-04  4.06195002e-04
   1.52623936e-04  4.03768616e-04  1.34232818e-04  4.42448363e-04]
 [ 1.17429567e-03  4.56708192e-04  3.87260399e-04  4.20001772e-04
   3.71845497e-04  4.23954451e-04  1.47952465e-04  4.53752233e-04]
 [ 2.33525425e-01  2.36917391e-01  1.08744763e-01 -3.77892494e-01
   1.43875673e-01  1.36645138e-01  2.51965731e-01  4.35908973e-01]
 [ 5.15399992e-01 -1.65449027e-02 -5.70482135e-01  4.95668948e-01
   2.67169982e-01 -2.23531291e-01  5.44943333e-01  2.86149353e-01]
 [-2.79610008e-01 -1.52573690e-01  1.42650560e-01 -4.65719372e-01
   3.65925699e-01  1.84482723e-01 -1.68310106e-01  7.88882822e-02]] 
Episode: 10: [[-1.16734020e-01  1.88168529e-02 -5.48938453e-01  5.07760704e-01
   5.14479101e-01  3.42224896e-01 -9.82677713e-02  3.69355351e-01]
 [-3.12763989e-01  4.73354101e-01 -4.40588892e-01 -4.90121573e-01
  -1.04709506e-01  5.31599522e-01 -3.35574538e-01 -3.52985054e-01]
 [ 4.51054215e-01 -7.12812990e-02 -1.65532947e-01  5.19726239e-02
   3.80596876e-01 -3.35353643e-01  3.09808046e-01 -8.24435428e-02]
 [-3.33071142e-01  1.84976205e-01 -3.86558384e-01 -8.69876891e-02
   5.68759441e-01  2.26423874e-01 -2.92041987e-01  2.33762771e-01]
 [ 2.88090557e-01  4.97249007e-01 -5.20159721e-01 -4.90378380e-01
   2.56748855e-01  5.17234862e-01 -1.56190753e-01 -3.21196645e-01]
 [ 3.21063817e-01  1.60123304e-01 -3.37965518e-01  2.35712171e-01
   5.31785190e-01 -5.09137511e-01 -1.89806491e-01 -5.06694853e-01]
 [ 1.14664133e-03  4.29208769e-04  1.58179639e-04  3.88794317e-04
   1.38397576e-04  3.98284203e-04  1.19943856e-04  4.34226473e-04]
 [ 1.12346117e-03  4.20006254e-04  1.31590365e-04  3.80295183e-04
   1.25022925e-04  3.75069532e-04  1.06756423e-04  4.20841941e-04]
 [ 1.14660081e-03  4.38218965e-04  3.60939826e-04  3.94916278e-04
   3.44572589e-04  3.97001510e-04  1.21201912e-04  4.32255241e-04]
 [ 2.33551323e-01  2.36936316e-01  1.08769976e-01 -3.77868146e-01
   1.43901303e-01  1.36670396e-01  2.51991719e-01  4.35928255e-01]
 [ 5.15373230e-01 -1.65621713e-02 -5.70508063e-01  4.95644480e-01
   2.67143697e-01 -2.23558441e-01  5.44917226e-01  2.86129594e-01]
 [-2.79584229e-01 -1.52557641e-01  1.42674997e-01 -4.65696454e-01
   3.65951419e-01  1.84508041e-01 -1.68285042e-01  7.89078549e-02]] 
Episode: 11: [[-1.16691306e-01  1.88498273e-02 -5.48897386e-01  5.07799685e-01
   5.14518976e-01  3.42265278e-01 -9.82277468e-02  3.69388759e-01]
 [-3.12808037e-01  4.73320216e-01 -4.40631837e-01 -4.90161240e-01
  -1.04750864e-01  5.31556547e-01 -3.35615814e-01 -3.53020728e-01]
 [ 4.51097518e-01 -7.12506026e-02 -1.65492162e-01  5.20104058e-02
   3.80637407e-01 -3.35313171e-01  3.09847623e-01 -8.24095756e-02]
 [-3.33027601e-01  1.85011566e-01 -3.86516064e-01 -8.69471580e-02
   5.68800509e-01  2.26465553e-01 -2.92000830e-01  2.33798310e-01]
 [ 2.88046390e-01  4.97214019e-01 -5.20203173e-01 -4.90418673e-01
   2.56707132e-01  5.17191529e-01 -1.56232536e-01 -3.21233183e-01]
 [ 3.21106672e-01  1.60153702e-01 -3.37925375e-01  2.35749885e-01
   5.31825244e-01 -5.09097755e-01 -1.89767152e-01 -5.06661534e-01]
 [ 1.10347476e-03  3.95441777e-04  1.16550895e-04  3.49406269e-04
   9.82238926e-05  3.57362704e-04  7.95060187e-05  4.00198711e-04]
 [ 1.07966899e-03  3.86987260e-04  8.90858573e-05  3.41081206e-04
   8.40273860e-05  3.32582917e-04  6.59359430e-05  3.85906227e-04]
 [ 1.10219978e-03  4.04799735e-04  3.18410544e-04  3.55337921e-04
   3.02619475e-04  3.54971125e-04  8.01506831e-05  3.96222953e-04]
 [ 2.33594209e-01  2.36970171e-01  1.08811557e-01 -3.77828926e-01
   1.43941417e-01  1.36711121e-01  2.52032101e-01  4.35962200e-01]
 [ 5.15329957e-01 -1.65938027e-02 -5.70549905e-01  4.95606095e-01
   2.67103344e-01 -2.23600179e-01  5.44877172e-01  2.86095768e-01]
 [-2.79540658e-01 -1.52525857e-01  1.42716542e-01 -4.65658128e-01
   3.65992457e-01  1.84549138e-01 -1.68244869e-01  7.89426044e-02]] 
Episode: 12: [[-1.16654575e-01  1.88784152e-02 -5.48861325e-01  5.07833838e-01
   5.14553785e-01  3.42300922e-01 -9.81919467e-02  3.69418144e-01]
 [-3.12846243e-01  4.73290980e-01 -4.40669656e-01 -4.90196079e-01
  -1.04787245e-01  5.31518221e-01 -3.35652679e-01 -3.53052318e-01]
 [ 4.51135814e-01 -7.12234229e-02 -1.65455192e-01  5.20443656e-02
   3.80673766e-01 -3.35276157e-01  3.09883863e-01 -8.23785365e-02]
 [-3.32989961e-01  1.85042396e-01 -3.86478841e-01 -8.69115666e-02
   5.68836510e-01  2.26502419e-01 -2.91963965e-01  2.33829662e-01]
 [ 2.88007855e-01  4.97183561e-01 -5.20241559e-01 -4.90454197e-01
   2.56670177e-01  5.17152786e-01 -1.56269982e-01 -3.21265668e-01]
 [ 3.21145058e-01  1.60181016e-01 -3.37888509e-01  2.35784113e-01
   5.31861663e-01 -5.09060979e-01 -1.89730778e-01 -5.06630719e-01]
 [ 1.06649892e-03  3.66278924e-04  8.01612841e-05  3.14990146e-04
   6.32740994e-05  3.21408152e-04  4.35341208e-05  3.70400259e-04]
 [ 1.04162074e-03  3.58443504e-04  5.15019747e-05  3.06548551e-04
   4.78709189e-05  2.94535217e-04  2.93733028e-05  3.54803225e-04]
 [ 1.06287713e-03  3.75158823e-04  2.79929751e-04  3.19770508e-04
   2.64968636e-04  3.16613266e-04  4.26538354e-05  3.63333907e-04]
 [ 2.33631209e-01  2.36999720e-01  1.08848169e-01 -3.77794385e-01
   1.43976629e-01  1.36747181e-01  2.52068311e-01  4.35992211e-01]
 [ 5.15292227e-01 -1.66212395e-02 -5.70587039e-01  4.95572150e-01
   2.67067611e-01 -2.23637745e-01  5.44841051e-01  2.86065519e-01]
 [-2.79502004e-01 -1.52497619e-01  1.42754287e-01 -4.65623587e-01
   3.66029382e-01  1.84586793e-01 -1.68208048e-01  7.89744779e-02]] 
Episode: 13: [[-1.16634272e-01  1.88944247e-02 -5.48836946e-01  5.07853508e-01
   5.14573157e-01  3.42319310e-01 -9.81749445e-02  3.69437337e-01]
 [-3.12868297e-01  4.73273516e-01 -4.40696299e-01 -4.90217328e-01
  -1.04809396e-01  5.31496465e-01 -3.35671753e-01 -3.53073925e-01]
 [ 4.51155603e-01 -7.12089762e-02 -1.65432259e-01  5.20652309e-02
   3.80694747e-01 -3.35256368e-01  3.09899986e-01 -8.23585242e-02]
 [-3.32967639e-01  1.85061321e-01 -3.86452734e-01 -8.68897215e-02
   5.68858206e-01  2.26523325e-01 -2.91944534e-01  2.33851105e-01]
 [ 2.87984580e-01  4.97164458e-01 -5.20269215e-01 -4.90476459e-01
   2.56646752e-01  5.17129660e-01 -1.56290427e-01 -3.21288079e-01]
 [ 3.21165144e-01  1.60195827e-01 -3.37865770e-01  2.35805377e-01
   5.31882584e-01 -5.09041309e-01 -1.89714596e-01 -5.06611109e-01]
 [ 1.04551367e-03  3.49460548e-04  5.51377234e-05  2.94854253e-04
   4.34387766e-05  3.02475819e-04  2.58417913e-05  3.50818416e-04]
 [ 1.02015771e-03  3.42068495e-04  2.53646831e-05  2.85861257e-04
   2.64143091e-05  2.73729122e-04  1.09155135e-05  3.33718344e-04]
 [ 1.04090606e-03  3.57610406e-04  2.54607206e-04  2.96549464e-04
   2.41904912e-04  2.94522149e-04  2.41874550e-05  3.41150910e-04]
 [ 2.33652353e-01  2.37016901e-01  1.08873375e-01 -3.77774268e-01
   1.43996805e-01  1.36766255e-01  2.52086401e-01  4.36011940e-01]
 [ 5.15271664e-01 -1.66361760e-02 -5.70612311e-01  4.95552391e-01
   2.67047018e-01 -2.23657489e-01  5.44823468e-01  2.86045313e-01]
 [-2.79481709e-01 -1.52482063e-01  1.42778322e-01 -4.65601981e-01
   3.66051376e-01  1.84607625e-01 -1.68191120e-01  7.89954215e-02]] 
Episode: 14: [[-1.16617292e-01  1.89078171e-02 -5.48816919e-01  5.07869244e-01
   5.14588833e-01  3.42333376e-01 -9.81618017e-02  3.69452953e-01]
 [-3.12887162e-01  4.73258078e-01 -4.40719247e-01 -4.90234822e-01
  -1.04828067e-01  5.31478465e-01 -3.35687220e-01 -3.53092432e-01]
 [ 4.51170236e-01 -7.11982325e-02 -1.65414676e-01  5.20796627e-02
   3.80709916e-01 -3.35242629e-01  3.09910923e-01 -8.23437497e-02]
 [-3.32947671e-01  1.85078502e-01 -3.86429787e-01 -8.68707076e-02
   5.68877220e-01  2.26540953e-01 -2.91927934e-01  2.33870000e-01]
 [ 2.87963927e-01  4.97146845e-01 -5.20293891e-01 -4.90495622e-01
   2.56626189e-01  5.17109692e-01 -1.56307846e-01 -3.21307987e-01]
 [ 3.21180284e-01  1.60207033e-01 -3.37848306e-01  2.35820338e-01
   5.31897783e-01 -5.09027660e-01 -1.89703539e-01 -5.06596684e-01]
 [ 1.02747907e-03  3.34934244e-04  3.40368897e-05  2.78405350e-04
   2.70683486e-05  2.87654926e-04  1.17038271e-05  3.34510813e-04]
 [ 1.00225094e-03  3.28037306e-04  3.22983101e-06  2.69310491e-04
   8.74781108e-06  2.57053034e-04 -3.61103866e-06  3.16127873e-04]
 [ 1.02308393e-03  3.42767249e-04  2.33436498e-04  2.78525258e-04
   2.23640847e-04  2.77341896e-04  9.83883456e-06  3.23114364e-04]
 [ 2.33670563e-01  2.37031847e-01  1.08894736e-01 -3.77757788e-01
   1.44013524e-01  1.36781245e-01  2.52101004e-01  4.36028451e-01]
 [ 5.15255153e-01 -1.66483782e-02 -5.70633113e-01  4.95537221e-01
   2.67030627e-01 -2.23672673e-01  5.44810236e-01  2.86029011e-01]
 [-2.79466301e-01 -1.52469844e-01  1.42797440e-01 -4.65586364e-01
   3.66067857e-01  1.84622839e-01 -1.68178990e-01  7.90115744e-02]] 
Episode: 15: [[-1.16589382e-01  1.89338885e-02 -5.48786104e-01  5.07893980e-01
   5.14613628e-01  3.42355967e-01 -9.81371403e-02  3.69478971e-01]
 [-3.12915206e-01  4.73230988e-01 -4.40751553e-01 -4.90260154e-01
  -1.04853690e-01  5.31453907e-01 -3.35712880e-01 -3.53120029e-01]
 [ 4.51196164e-01 -7.11738616e-02 -1.65385798e-01  5.21036014e-02
   3.80733341e-01 -3.35220963e-01  3.09933931e-01 -8.23183432e-02]
 [-3.32917362e-01  1.85107723e-01 -3.86396587e-01 -8.68428871e-02
   5.68905234e-01  2.26567060e-01 -2.91900486e-01  2.33898848e-01]
 [ 2.87934363e-01  4.97117877e-01 -5.20327687e-01 -4.90522444e-01
   2.56598711e-01  5.17082930e-01 -1.56335130e-01 -3.21336776e-01]
 [ 3.21206808e-01  1.60232052e-01 -3.37819278e-01  2.35845104e-01
   5.31921685e-01 -5.09005964e-01 -1.89680383e-01 -5.06571412e-01]
 [ 9.98657779e-04  3.07959126e-04  2.38312373e-06  2.53179751e-04
   1.79960944e-06  2.64446368e-04 -1.37258885e-05  3.07994545e-04]
 [ 9.74893162e-04  3.02136585e-04 -2.85760470e-05  2.44623312e-04
  -1.60712298e-05  2.33863451e-04 -2.87148068e-05  2.89207906e-04]
 [ 9.94464732e-04  3.14929115e-04  2.01411924e-04  2.51213991e-04
   1.97202869e-04  2.52086931e-04 -1.60857799e-05  2.94792204e-04]
 [ 2.33699754e-01  2.37059370e-01  1.08926840e-01 -3.77732426e-01
   1.44039303e-01  1.36804819e-01  2.52127081e-01  4.36055362e-01]
 [ 5.15228868e-01 -1.66727751e-02 -5.70663929e-01  4.95513648e-01
   2.67006904e-01 -2.23694459e-01  5.44786036e-01  2.86003143e-01]
 [-2.79439777e-01 -1.52444139e-01  1.42827734e-01 -4.65561330e-01
   3.66092622e-01  1.84646159e-01 -1.68155015e-01  7.90382996e-02]] 
Episode: 16: [[-1.16562933e-01  1.89612955e-02 -5.48755229e-01  5.07919610e-01
   5.14639318e-01  3.42377484e-01 -9.81117040e-02  3.69505435e-01]
 [-3.12941045e-01  4.73204195e-01 -4.40782845e-01 -4.90284771e-01
  -1.04879357e-01  5.31431854e-01 -3.35739076e-01 -3.53146434e-01]
 [ 4.51222867e-01 -7.11458027e-02 -1.65355131e-01  5.21305837e-02
   3.80760223e-01 -3.35198343e-01  3.09960663e-01 -8.22901502e-02]
 [-3.32889855e-01  1.85136646e-01 -3.86364907e-01 -8.68157893e-02
   5.68932533e-01  2.26590812e-01 -2.91873932e-01  2.33926609e-01]
 [ 2.87907511e-01  4.97089863e-01 -5.20359933e-01 -4.90547925e-01
   2.56571949e-01  5.17059147e-01 -1.56362146e-01 -3.21363866e-01]
 [ 3.21234614e-01  1.60261184e-01 -3.37787688e-01  2.35873550e-01
   5.31949401e-01 -5.08982658e-01 -1.89653039e-01 -5.06542623e-01]
 [ 9.72067122e-04  2.80485896e-04 -2.85312599e-05  2.27835000e-04
  -2.35498082e-05  2.43122078e-04 -3.91840149e-05  2.81829096e-04]
 [ 9.48921137e-04  2.75838713e-04 -6.01769570e-05  2.19861933e-04
  -4.15956893e-05  2.12502157e-04 -5.52494312e-05  2.62809102e-04]
 [ 9.66350373e-04  2.85088376e-04  1.69120714e-04  2.22443210e-04
   1.68858300e-04  2.27227079e-04 -4.42634046e-05  2.65261187e-04]
 [ 2.33727321e-01  2.37087801e-01  1.08958766e-01 -3.77706468e-01
   1.44065529e-01  1.36827067e-01  2.52153605e-01  4.36082423e-01]
 [ 5.15202999e-01 -1.66985560e-02 -5.70695579e-01  4.95489031e-01
   2.66981572e-01 -2.23715290e-01  5.44759333e-01  2.85976797e-01]
 [-2.79412687e-01 -1.52415082e-01  1.42859474e-01 -4.65533584e-01
   3.66120458e-01  1.84670150e-01 -1.68127716e-01  7.90674388e-02]] 
Episode: 17: [[-1.1656319e-01  1.8961830e-02 -5.4875308e-01  5.0791889e-01
   5.1464015e-01  3.4237313e-01 -9.8111033e-02  3.6950436e-01]
 [-3.1294087e-01  4.7320348e-01 -4.4078630e-01 -4.9028403e-01
  -1.0488057e-01  5.3143466e-01 -3.3574113e-01 -3.5314634e-01]
 [ 4.5122045e-01 -7.1147233e-02 -1.6535571e-01  5.2128110e-02
   3.8075936e-01 -3.3520395e-01  3.0996051e-01 -8.2292132e-02]
 [-3.3288747e-01  1.8514015e-01 -3.8636014e-01 -8.6813644e-02
   5.6893647e-01  2.2658980e-01 -2.9187077e-01  2.3392834e-01]
 [ 2.8790581e-01  4.9708721e-01 -5.2036518e-01 -4.9054873e-01
   2.5656891e-01  5.1705962e-01 -1.5636569e-01 -3.2136515e-01]
 [ 3.2123303e-01  1.6026062e-01 -3.3778760e-01  2.3587227e-01
   5.3194922e-01 -5.0898796e-01 -1.8965292e-01 -5.0654423e-01]
 [ 9.7154238e-04  2.7930443e-04 -3.1420426e-05  2.2832974e-04
  -2.4629266e-05  2.4716067e-04 -4.0440056e-05  2.8258303e-04]
 [ 9.4965135e-04  2.7620266e-04 -6.3197840e-05  2.2102961e-04
  -4.2046668e-05  2.1657252e-04 -5.7035882e-05  2.6346828e-04]
 [ 9.6604705e-04  2.8363772e-04  1.6658822e-04  2.2189927e-04
   1.6718073e-04  2.2962940e-04 -4.6557288e-05  2.6468546e-04]
 [ 2.3372860e-01  2.3708972e-01  1.0896241e-01 -3.7770659e-01
   1.4406721e-01  1.3682367e-01  2.5215569e-01  4.3608245e-01]
 [ 5.1520461e-01 -1.6696995e-02 -5.7069761e-01  4.9549103e-01
   2.6698202e-01 -2.2371006e-01  5.4475808e-01  2.8597829e-01]
 [-2.7941436e-01 -1.5241531e-01  1.4286032e-01 -4.6553504e-01
   3.6612079e-01  1.8466614e-01 -1.6812709e-01  7.9066701e-02]] 
Episode: 18: [[-1.1656384e-01  1.8958950e-02 -5.4875106e-01  5.0791579e-01
   5.1464075e-01  3.4236729e-01 -9.8110460e-02  3.6950061e-01]
 [-3.1293979e-01  4.7320691e-01 -4.4078854e-01 -4.9028045e-01
  -1.0488073e-01  5.3143942e-01 -3.3574289e-01 -3.5314333e-01]
 [ 4.5121735e-01 -7.1152858e-02 -1.6535671e-01  5.2122682e-02
   3.8075820e-01 -3.3521116e-01  3.0996031e-01 -8.2296968e-02]
 [-3.3288547e-01  1.8514037e-01 -3.8635552e-01 -8.6813740e-02
   5.6893986e-01  2.2658722e-01 -2.9186770e-01  2.3392747e-01]
 [ 2.8790507e-01  4.9708864e-01 -5.2036917e-01 -4.9054688e-01
   2.5656703e-01  5.1706219e-01 -1.5636896e-01 -3.2136363e-01]
 [ 3.2123089e-01  1.6025607e-01 -3.3778763e-01  2.3586817e-01
   5.3194892e-01 -5.0899452e-01 -1.8965253e-01 -5.0654835e-01]
 [ 9.7162806e-04  2.8168131e-04 -3.3934946e-05  2.3126343e-04
  -2.5372592e-05  2.5273600e-04 -4.1367355e-05  2.8607418e-04]
 [ 9.5117401e-04  2.8050190e-04 -6.5039720e-05  2.2505171e-04
  -4.1647909e-05  2.2230494e-04 -5.8542366e-05  2.6698635e-04]
 [ 9.6658699e-04  2.8641164e-04  1.6478347e-04  2.2445430e-04
   1.6595557e-04  2.3385331e-04 -4.8626964e-05  2.6701990e-04]
 [ 2.3372941e-01  2.3708825e-01  1.0896582e-01 -3.7770885e-01
   1.4406873e-01  1.3681893e-01  2.5215757e-01  4.3607983e-01]
 [ 5.1520687e-01 -1.6691603e-02 -5.7069868e-01  4.9549580e-01
   2.6698309e-01 -2.2370337e-01  5.4475701e-01  2.8598258e-01]
 [-2.7941665e-01 -1.5241970e-01  1.4286062e-01 -4.6553934e-01
   3.6612067e-01  1.8466030e-01 -1.6812646e-01  7.9062998e-02]] 
Episode: 19: [[-1.1658455e-01  1.8936306e-02 -5.4876947e-01  5.0789267e-01
   5.1462108e-01  3.4234303e-01 -9.8129317e-02  3.6947754e-01]
 [-3.1291884e-01  4.7322974e-01 -4.4077021e-01 -4.9025699e-01
  -1.0486101e-01  5.3146291e-01 -3.3572510e-01 -3.5312107e-01]
 [ 4.5119447e-01 -7.1177371e-02 -1.6537786e-01  5.2097503e-02
   3.8073716e-01 -3.3523661e-01  3.0994064e-01 -8.2320273e-02]
 [-3.3290365e-01  1.8512048e-01 -3.8637149e-01 -8.6834088e-02
   5.6892282e-01  2.2656578e-01 -2.9188421e-01  2.3390695e-01]
 [ 2.8792435e-01  4.9710971e-01 -5.2035248e-01 -4.9052507e-01
   2.5658518e-01  5.1708376e-01 -1.5635256e-01 -3.2134277e-01]
 [ 3.2120875e-01  1.6023259e-01 -3.3780777e-01  2.3584412e-01
   5.3192866e-01 -5.0901932e-01 -1.8967167e-01 -5.0657094e-01]
 [ 9.9181908e-04  3.0388715e-04 -1.5909094e-05  2.5412688e-04
  -5.9698668e-06  2.7672984e-04 -2.2832470e-05  3.0887788e-04]
 [ 9.7262365e-04  3.0403823e-04 -4.6255354e-05  2.4898737e-04
  -2.1391186e-05  2.4655621e-04 -4.0411203e-05  2.8978469e-04]
 [ 9.8718028e-04  3.0857284e-04  1.8355253e-04  2.4721053e-04
   1.8490657e-04  2.5683414e-04 -3.0893396e-05  2.8826136e-04]
 [ 2.3370993e-01  2.3706681e-01  1.0894854e-01 -3.7773111e-01
   1.4404997e-01  1.3679564e-01  2.5213978e-01  4.3605775e-01]
 [ 5.1522905e-01 -1.6667150e-02 -5.7067913e-01  4.9552044e-01
   2.6700401e-01 -2.2367832e-01  5.4477561e-01  2.8600606e-01]
 [-2.7943876e-01 -1.5244319e-01  1.4284053e-01 -4.6556351e-01
   3.6610049e-01  1.8463595e-01 -1.6814542e-01  7.9040609e-02]] 
Episode: 20: [[-1.16603866e-01  1.89157557e-02 -5.48787534e-01  5.07875800e-01
   5.14599860e-01  3.42323661e-01 -9.81489643e-02  3.69459033e-01]
 [-3.12900454e-01  4.73248243e-01 -4.40753996e-01 -4.90240961e-01
  -1.04841858e-01  5.31480014e-01 -3.35708559e-01 -3.53105873e-01]
 [ 4.51169938e-01 -7.12021515e-02 -1.65401429e-01  5.20761274e-02
   3.80711973e-01 -3.35259825e-01  3.09918165e-01 -8.23404863e-02]
 [-3.32918763e-01  1.85104668e-01 -3.86385292e-01 -8.68467614e-02
   5.68906426e-01  2.26550847e-01 -2.91899711e-01  2.33892649e-01]
 [ 2.87940115e-01  4.97125417e-01 -5.20338774e-01 -4.90511060e-01
   2.56601661e-01  5.17098129e-01 -1.56338140e-01 -3.21329594e-01]
 [ 3.21184725e-01  1.60208598e-01 -3.37830931e-01  2.35823542e-01
   5.31904161e-01 -5.09042501e-01 -1.89694047e-01 -5.06591380e-01]
 [ 1.00975379e-03  3.23290209e-04  6.62003458e-07  2.70319142e-04
   1.44035857e-05  2.95407925e-04 -4.37805056e-06  3.26551730e-04]
 [ 9.92359826e-04  3.24209541e-04 -2.88680458e-05  2.66045623e-04
  -7.98773726e-07  2.65224022e-04 -2.28496756e-05  3.06170172e-04]
 [ 1.00780884e-03  3.29175353e-04  2.02746131e-04  2.64609349e-04
   2.06344848e-04  2.75970349e-04 -1.21106395e-05  3.04736808e-04]
 [ 2.33692333e-01  2.37047940e-01  1.08932383e-01 -3.77747178e-01
   1.44029900e-01  1.36777431e-01  2.52121747e-01  4.36040610e-01]
 [ 5.15250564e-01 -1.66450832e-02 -5.70659816e-01  4.95538950e-01
   2.67026275e-01 -2.23658085e-01  5.44794619e-01  2.86023915e-01]
 [-2.79462188e-01 -1.52466506e-01  1.42818600e-01 -4.65583652e-01
   3.66076618e-01  1.84614345e-01 -1.68166742e-01  7.90219456e-02]] 
Episode: 21: [[-1.1663472e-01  1.8883759e-02 -5.4881793e-01  5.0784695e-01
   5.1456743e-01  3.4229261e-01 -9.8180331e-02  3.6942875e-01]
 [-3.1287208e-01  4.7327736e-01 -4.4072694e-01 -4.9021411e-01
  -1.0481237e-01  5.3150773e-01 -3.3568117e-01 -3.5307950e-01]
 [ 4.5113227e-01 -7.1240157e-02 -1.6543886e-01  5.2041098e-02
   3.8067403e-01 -3.3529699e-01  3.0988294e-01 -8.2374871e-02]
 [-3.3294475e-01  1.8507810e-01 -3.8641077e-01 -8.6870648e-02
   5.6887954e-01  2.2652492e-01 -2.9192626e-01  2.3386730e-01]
 [ 2.8796533e-01  4.9715123e-01 -5.2031451e-01 -4.9048665e-01
   2.5662807e-01  5.1712263e-01 -1.5631330e-01 -3.2130560e-01]
 [ 3.2114747e-01  1.6017127e-01 -3.3786815e-01  2.3578909e-01
   5.3186685e-01 -5.0907975e-01 -1.8972935e-01 -5.0662607e-01]
 [ 1.0388689e-03  3.5391370e-04  2.9194716e-05  2.9827538e-04
   4.5734960e-05  3.2551037e-04  2.5450292e-05  3.5576412e-04]
 [ 1.0223937e-03  3.5545148e-04 -3.0980021e-07  2.9426327e-04
   3.0468202e-05  2.9497597e-04  5.9005361e-06  3.3405103e-04]
 [ 1.0412117e-03  3.6261400e-04  2.3536533e-04  2.9513106e-04
   2.4017235e-04  3.0854464e-04  1.9027375e-05  3.3488416e-04]
 [ 2.3366347e-01  2.3701772e-01  1.0890405e-01 -3.7777516e-01
   1.4399873e-01  1.3674764e-01  2.5209224e-01  4.3601185e-01]
 [ 5.1528269e-01 -1.6611625e-02 -5.7062882e-01  4.9556899e-01
   2.6705959e-01 -2.2362635e-01  5.4482520e-01  2.8605360e-01]
 [-2.7949873e-01 -1.5250298e-01  1.4278291e-01 -4.6561736e-01
   3.6604011e-01  1.8457894e-01 -1.6820076e-01  7.8989200e-02]] 
Episode: 22: [[-1.16652556e-01  1.88668817e-02 -5.48836350e-01  5.07831693e-01
   5.14548957e-01  3.42275500e-01 -9.81993750e-02  3.69412452e-01]
 [-3.12859178e-01  4.73288149e-01 -4.40714329e-01 -4.90202844e-01
  -1.04798876e-01  5.31518161e-01 -3.35668147e-01 -3.53069335e-01]
 [ 4.51105088e-01 -7.12657198e-02 -1.65467843e-01  5.20167798e-02
   3.80646676e-01 -3.35322827e-01  3.09857041e-01 -8.23981315e-02]
 [-3.32955718e-01  1.85068756e-01 -3.86422366e-01 -8.68790075e-02
   5.68868876e-01  2.26515144e-01 -2.91938633e-01  2.33858109e-01]
 [ 2.87973732e-01  4.97157484e-01 -5.20305455e-01 -4.90478724e-01
   2.56636977e-01  5.17128766e-01 -1.56303585e-01 -3.21298599e-01]
 [ 3.21120709e-01  1.60146296e-01 -3.37897480e-01  2.35765129e-01
   5.31840146e-01 -5.09106100e-01 -1.89755872e-01 -5.06650209e-01]
 [ 1.05408847e-03  3.68669309e-04  4.44484140e-05  3.12054617e-04
   6.24468303e-05  3.41010367e-04  4.19248972e-05  3.70319234e-04]
 [ 1.03780976e-03  3.69364076e-04  1.44537498e-05  3.07650043e-04
   4.65848134e-05  3.08505696e-04  2.08649781e-05  3.46334156e-04]
 [ 1.06217759e-03  3.81480728e-04  2.57078646e-04  3.12801334e-04
   2.61425361e-04  3.27344256e-04  3.87718210e-05  3.51646915e-04]
 [ 2.33648270e-01  2.37003118e-01  1.08888663e-01 -3.77789408e-01
   1.43982098e-01  1.36732236e-01  2.52075821e-01  4.35997725e-01]
 [ 5.15301228e-01 -1.65945198e-02 -5.70610166e-01  4.95585114e-01
   2.67078668e-01 -2.23609656e-01  5.44843018e-01  2.86068738e-01]
 [-2.79524416e-01 -1.52526468e-01  1.42756581e-01 -4.65639979e-01
   3.66014689e-01  1.84555858e-01 -1.68225020e-01  7.89683536e-02]] 
Episode: 23: [[-1.16675384e-01  1.88447200e-02 -5.48859894e-01  5.07810891e-01
   5.14526010e-01  3.42253447e-01 -9.82228443e-02  3.69391203e-01]
 [-3.12840104e-01  4.73305076e-01 -4.40695077e-01 -4.90185559e-01
  -1.04779750e-01  5.31534731e-01 -3.35649520e-01 -3.53053421e-01]
 [ 4.51074928e-01 -7.12945610e-02 -1.65499479e-01  5.19889593e-02
   3.80617052e-01 -3.35351408e-01  3.09828550e-01 -8.24243128e-02]
 [-3.32973361e-01  1.85052142e-01 -3.86440903e-01 -8.68946761e-02
   5.68851590e-01  2.26498455e-01 -2.91957289e-01  2.33841971e-01]
 [ 2.87989318e-01  4.97171044e-01 -5.20288825e-01 -4.90463912e-01
   2.56652564e-01  5.17142177e-01 -1.56287417e-01 -3.21284950e-01]
 [ 3.21090728e-01  1.60117760e-01 -3.37929517e-01  2.35737368e-01
   5.31810880e-01 -5.09135067e-01 -1.89785227e-01 -5.06677210e-01]
 [ 1.07496988e-03  3.89216177e-04  6.55660842e-05  3.31736694e-04
   8.40889843e-05  3.61828250e-04  6.34364405e-05  3.90192028e-04]
 [ 1.05886988e-03  3.88609886e-04  3.54281110e-05  3.26598063e-04
   6.77642456e-05  3.27377114e-04  4.09609274e-05  3.63840256e-04]
 [ 1.08786277e-03  4.05482919e-04  2.83488363e-04  3.35847115e-04
   2.86695111e-04  3.50915332e-04  6.28512207e-05  3.73193878e-04]
 [ 2.33627349e-01  2.36982599e-01  1.08867317e-01 -3.77809525e-01
   1.43960372e-01  1.36711404e-01  2.52054214e-01  4.35978025e-01]
 [ 5.15324652e-01 -1.65728219e-02 -5.70586205e-01  4.95606184e-01
   2.67102033e-01 -2.23588452e-01  5.44865310e-01  2.86088437e-01]
 [-2.79553503e-01 -1.52553797e-01  1.42726749e-01 -4.65666533e-01
   3.65986288e-01  1.84529141e-01 -1.68252409e-01  7.89438188e-02]] 
Episode: 24: [[-1.16685309e-01  1.88347567e-02 -5.48871040e-01  5.07802308e-01
   5.14515162e-01  3.42243522e-01 -9.82341394e-02  3.69381398e-01]
 [-3.12834173e-01  4.73309726e-01 -4.40688163e-01 -4.90180790e-01
  -1.04772784e-01  5.31539142e-01 -3.35643113e-01 -3.53049040e-01]
 [ 4.51058596e-01 -7.13104457e-02 -1.65517777e-01  5.19738831e-02
   3.80600601e-01 -3.35367233e-01  3.09812367e-01 -8.24384987e-02]
 [-3.32978666e-01  1.85047254e-01 -3.86447459e-01 -8.68986323e-02
   5.68845928e-01  2.26493418e-01 -2.91964084e-01  2.33836904e-01]
 [ 2.87992358e-01  4.97172832e-01 -5.20284116e-01 -4.90461230e-01
   2.56656498e-01  5.17143965e-01 -1.56283170e-01 -3.21282566e-01]
 [ 3.21074188e-01  1.60101801e-01 -3.37948471e-01  2.35721976e-01
   5.31794429e-01 -5.09151518e-01 -1.89802468e-01 -5.06692350e-01]
 [ 1.08294410e-03  3.97523312e-04  7.43369455e-05  3.39128455e-04
   9.34781492e-05  3.70452442e-04  7.27933584e-05  3.98519420e-04]
 [ 1.06670451e-03  3.95442330e-04  4.40164804e-05  3.32989963e-04
   7.66702287e-05  3.33930773e-04  4.88265396e-05  3.69801448e-04]
 [ 1.10001513e-03  4.16759460e-04  2.96875020e-04  3.46442772e-04
   2.98978441e-04  3.62053193e-04  7.48368766e-05  3.82940285e-04]
 [ 2.33618990e-01  2.36974046e-01  1.08858034e-01 -3.77817571e-01
   1.43950656e-01  1.36702448e-01  2.52044529e-01  4.35969561e-01]
 [ 5.15334785e-01 -1.65635906e-02 -5.70574760e-01  4.95614648e-01
   2.67113119e-01 -2.23579645e-01  5.44875324e-01  2.86096543e-01]
 [-2.79568851e-01 -1.52568266e-01  1.42710090e-01 -4.65680450e-01
   3.65970969e-01  1.84514984e-01 -1.68267548e-01  7.89311454e-02]] 
Episode: 25: [[-1.16711803e-01  1.88091900e-02 -5.48898518e-01  5.07778108e-01
   5.14488339e-01  3.42217982e-01 -9.82609913e-02  3.69355947e-01]
 [-3.12811732e-01  4.73330319e-01 -4.40663964e-01 -4.90160465e-01
  -1.04749195e-01  5.31559348e-01 -3.35620940e-01 -3.53028804e-01]
 [ 4.51027215e-01 -7.13407323e-02 -1.65551275e-01  5.19445762e-02
   3.80568951e-01 -3.35397452e-01  3.09781820e-01 -8.24670196e-02]
 [-3.33000690e-01  1.85026377e-01 -3.86470467e-01 -8.69185328e-02
   5.68823874e-01  2.26472437e-01 -2.91986763e-01  2.33815834e-01]
 [ 2.88012147e-01  4.97190833e-01 -5.20262003e-01 -4.90442812e-01
   2.56677210e-01  5.17161667e-01 -1.56262994e-01 -3.21264207e-01]
 [ 3.21042418e-01  1.60071194e-01 -3.37982625e-01  2.35692158e-01
   5.31762719e-01 -5.09182394e-01 -1.89834043e-01 -5.06721795e-01]
 [ 1.10759947e-03  4.21460194e-04  9.95712180e-05  3.62038059e-04
   1.18844830e-04  3.94621282e-04  9.77357631e-05  4.22450219e-04]
 [ 1.09105906e-03  4.18087380e-04  6.99704397e-05  3.54902993e-04
   1.02206403e-04  3.56174132e-04  7.25232312e-05  3.91604786e-04]
 [ 1.12754572e-03  4.42943157e-04  3.25952307e-04  3.71697621e-04
   3.26815061e-04  3.88021610e-04  1.01530568e-04  4.07459826e-04]
 [ 2.33593822e-01  2.36949742e-01  1.08832151e-01 -3.77841264e-01
   1.43924803e-01  1.36677802e-01  2.52019048e-01  4.35945332e-01]
 [ 5.15361369e-01 -1.65386703e-02 -5.70546091e-01  4.95638609e-01
   2.67140776e-01 -2.23555207e-01  5.44901133e-01  2.86120445e-01]
 [-2.79599309e-01 -1.52597338e-01  1.42677963e-01 -4.65708733e-01
   3.65940273e-01  1.84486210e-01 -1.68297157e-01  7.89038762e-02]] 
Episode: 26: [[-1.16731964e-01  1.87900458e-02 -5.48919737e-01  5.07759094e-01
   5.14466882e-01  3.42198521e-01 -9.82801989e-02  3.69337082e-01]
 [-3.12797040e-01  4.73343164e-01 -4.40647393e-01 -4.90146220e-01
  -1.04732253e-01  5.31572282e-01 -3.35607708e-01 -3.53016526e-01]
 [ 4.51000690e-01 -7.13663846e-02 -1.65579632e-01  5.19187264e-02
   3.80540758e-01 -3.35423201e-01  3.09757382e-01 -8.24907497e-02]
 [-3.33016038e-01  1.85012445e-01 -3.86486799e-01 -8.69327113e-02
   5.68807840e-01  2.26458013e-01 -2.92001605e-01  2.33801827e-01]
 [ 2.88024276e-01  4.97201025e-01 -5.20247519e-01 -4.90430593e-01
   2.56691188e-01  5.17171979e-01 -1.56251699e-01 -3.21253806e-01]
 [ 3.21015060e-01  1.60044923e-01 -3.38011950e-01  2.35665530e-01
   5.31734228e-01 -5.09209216e-01 -1.89859793e-01 -5.06746709e-01]
 [ 1.12549576e-03  4.38573974e-04  1.18153410e-04  3.79437610e-04
   1.38512332e-04  4.12357476e-04  1.14701696e-04  4.39388270e-04]
 [ 1.10789086e-03  4.33339941e-04  8.85278496e-05  3.70980328e-04
   1.21401208e-04  3.71566013e-04  8.75026963e-05  4.05671744e-04]
 [ 1.14970258e-03  4.63818782e-04  3.49229638e-04  3.92829563e-04
   3.50572227e-04  4.08865249e-04  1.21755736e-04  4.26574523e-04]
 [ 2.33575016e-01  2.36931860e-01  1.08812504e-01 -3.77859741e-01
   1.43904313e-01  1.36659175e-01  2.52001047e-01  4.35927719e-01]
 [ 5.15380800e-01 -1.65206343e-02 -5.70524335e-01  4.95657116e-01
   2.67162502e-01 -2.23537192e-01  5.44918537e-01  2.86137074e-01]
 [-2.79624909e-01 -1.52621627e-01  1.42651126e-01 -4.65733498e-01
   3.65913153e-01  1.84462026e-01 -1.68320730e-01  7.88815096e-02]] 
Episode: 27: [[-1.16724104e-01  1.87972728e-02 -5.48911095e-01  5.07767856e-01
   5.14473855e-01  3.42207223e-01 -9.82728302e-02  3.69345307e-01]
 [-3.12808871e-01  4.73331183e-01 -4.40659195e-01 -4.90158051e-01
  -1.04742393e-01  5.31559110e-01 -3.35619450e-01 -3.53029430e-01]
 [ 4.51003134e-01 -7.13642538e-02 -1.65576965e-01  5.19219562e-02
   3.80542547e-01 -3.35418940e-01  3.09760720e-01 -8.24864879e-02]
 [-3.33004355e-01  1.85024053e-01 -3.86474431e-01 -8.69200528e-02
   5.68819046e-01  2.26470694e-01 -2.91990489e-01  2.33814031e-01]
 [ 2.88010329e-01  4.97186720e-01 -5.20260990e-01 -4.90444332e-01
   2.56678641e-01  5.17156661e-01 -1.56265244e-01 -3.21268409e-01]
 [ 3.21016937e-01  1.60046697e-01 -3.38009924e-01  2.35668316e-01
   5.31735837e-01 -5.09205580e-01 -1.89857215e-01 -5.06743252e-01]
 [ 1.11591036e-03  4.29768552e-04  1.07528947e-04  3.69540241e-04
   1.30199143e-04  4.02372651e-04  1.05659245e-04  4.29737585e-04]
 [ 1.09770941e-03  4.23220103e-04  7.82381030e-05  3.60533770e-04
   1.12984759e-04  3.60204052e-04  7.71182677e-05  3.94180039e-04]
 [ 1.14348740e-03  4.57457878e-04  3.42416606e-04  3.85602267e-04
   3.45014705e-04  4.00633056e-04  1.14733572e-04  4.18367126e-04]
 [ 2.33584002e-01  2.36940280e-01  1.08822420e-01 -3.77850443e-01
   1.43912137e-01  1.36668622e-01  2.52009481e-01  4.35936987e-01]
 [ 5.15372753e-01 -1.65284704e-02 -5.70532203e-01  4.95648533e-01
   2.67156094e-01 -2.23546505e-01  5.44910073e-01  2.86127597e-01]
 [-2.79621512e-01 -1.52618140e-01  1.42655104e-01 -4.65729237e-01
   3.65915954e-01  1.84467584e-01 -1.68316498e-01  7.88869858e-02]] 
Episode: 28: [[-1.16734304e-01  1.87865589e-02 -5.48920751e-01  5.07758319e-01
   5.14464021e-01  3.42198014e-01 -9.82826799e-02  3.69336307e-01]
 [-3.12802196e-01  4.73337740e-01 -4.40652043e-01 -4.90151525e-01
  -1.04735389e-01  5.31564415e-01 -3.35613430e-01 -3.53024364e-01]
 [ 4.50987488e-01 -7.13795871e-02 -1.65591821e-01  5.19073568e-02
   3.80528182e-01 -3.35432261e-01  3.09746981e-01 -8.24990347e-02]
 [-3.33010674e-01  1.85017645e-01 -3.86480331e-01 -8.69255960e-02
   5.68813264e-01  2.26465538e-01 -2.91996658e-01  2.33808935e-01]
 [ 2.88014621e-01  4.97190773e-01 -5.20255685e-01 -4.90440071e-01
   2.56683081e-01  5.17159641e-01 -1.56261265e-01 -3.21265280e-01]
 [ 3.21001053e-01  1.60031453e-01 -3.38024825e-01  2.35653624e-01
   5.31721830e-01 -5.09218931e-01 -1.89871252e-01 -5.06755948e-01]
 [ 1.12469133e-03  4.39230847e-04  1.15575080e-04  3.78081109e-04
   1.38878429e-04  4.10539564e-04  1.14136099e-04  4.37507173e-04]
 [ 1.10591517e-03  4.31340392e-04  8.66903065e-05  3.68388486e-04
   1.21491226e-04  3.67144734e-04  8.42736117e-05  4.00461489e-04]
 [ 1.15556468e-03  4.68873768e-04  3.53497046e-04  3.96367366e-04
   3.55838187e-04  4.10248176e-04  1.25015082e-04  4.27251478e-04]
 [ 2.33575061e-01  2.36930817e-01  1.08814076e-01 -3.77859145e-01
   1.43903390e-01  1.36660308e-01  2.52000809e-01  4.35929239e-01]
 [ 5.15382767e-01 -1.65183954e-02 -5.70521653e-01  4.95658010e-01
   2.67166346e-01 -2.23537788e-01  5.44918895e-01  2.86135644e-01]
 [-2.79636115e-01 -1.52632207e-01  1.42641380e-01 -4.65742707e-01
   3.65902603e-01  1.84455454e-01 -1.68329298e-01  7.88755044e-02]] 
Episode: 29: [[-1.1673853e-01  1.8781185e-02 -5.4892445e-01  5.0775433e-01
   5.1445985e-01  3.4219444e-01 -9.8286882e-02  3.6933300e-01]
 [-3.1280166e-01  4.7333962e-01 -4.4065049e-01 -4.9015027e-01
  -1.0473416e-01  5.3156495e-01 -3.3561313e-01 -3.5302451e-01]
 [ 4.5097944e-01 -7.1388021e-02 -1.6559912e-01  5.1899835e-02
   3.8052148e-01 -3.3543861e-01  3.0974045e-01 -8.2504593e-02]
 [-3.3301196e-01  1.8501543e-01 -3.8648123e-01 -8.6926647e-02
   5.6881189e-01  2.2646488e-01 -2.9199815e-01  2.3380841e-01]
 [ 2.8801352e-01  4.9719086e-01 -5.2025545e-01 -4.9044064e-01
   2.5668249e-01  5.1715845e-01 -1.5626250e-01 -3.2126692e-01]
 [ 3.2099268e-01  1.6002311e-01 -3.3803210e-01  2.3564602e-01
   5.3171533e-01 -5.0922513e-01 -1.8987788e-01 -5.0676137e-01]
 [ 1.1279655e-03  4.4367881e-04  1.1821470e-04  3.8130907e-04
   1.4208096e-04  4.1327992e-04  1.1735842e-04  4.3979101e-04]
 [ 1.1076540e-03  4.3423416e-04  8.9259767e-05  3.7068920e-04
   1.2387880e-04  3.6871189e-04  8.5433960e-05  4.0120783e-04]
 [ 1.1609161e-03  4.7450457e-04  3.5812991e-04  4.0108652e-04
   3.5992055e-04  4.1400190e-04  1.2900811e-04  4.3015674e-04]
 [ 2.3357162e-01  2.3692635e-01  1.0881118e-01 -3.7786239e-01
   1.4390005e-01  1.3665745e-01  2.5199735e-01  4.3592688e-01]
 [ 5.1538587e-01 -1.6514082e-02 -5.7051760e-01  4.9566153e-01
   2.6717001e-01 -2.2353496e-01  5.4492128e-01  2.8613773e-01]
 [-2.7964318e-01 -1.5263970e-01  1.4263484e-01 -4.6574929e-01
   3.6589658e-01  1.8444982e-01 -1.6833512e-01  7.8870691e-02]] 
Episode: 30: [[-1.16749980e-01  1.87687688e-02 -5.48935473e-01  5.07745266e-01
   5.14450967e-01  3.42184782e-01 -9.82955173e-02  3.69323224e-01]
 [-3.12792987e-01  4.73348796e-01 -4.40641105e-01 -4.90143299e-01
  -1.04727261e-01  5.31572282e-01 -3.35607618e-01 -3.53018314e-01]
 [ 4.50963706e-01 -7.14037195e-02 -1.65614903e-01  5.18864021e-02
   3.80509138e-01 -3.35451663e-01  3.09729427e-01 -8.25167894e-02]
 [-3.33020091e-01  1.85006574e-01 -3.86488974e-01 -8.69324729e-02
   5.68806112e-01  2.26458445e-01 -2.92003930e-01  2.33801797e-01]
 [ 2.88020223e-01  4.97197956e-01 -5.20247817e-01 -4.90435600e-01
   2.56687403e-01  5.17163873e-01 -1.56258538e-01 -3.21262389e-01]
 [ 3.20976764e-01  1.60007536e-01 -3.38047743e-01  2.35632628e-01
   5.31703115e-01 -5.09238124e-01 -1.89889088e-01 -5.06773591e-01]
 [ 1.13827095e-03  4.55044734e-04  1.28013227e-04  3.89564491e-04
   1.50081629e-04  4.22049401e-04  1.24956103e-04  4.48511913e-04]
 [ 1.11764693e-03  4.44668316e-04  9.97451280e-05  3.78691242e-04
   1.32023924e-04  3.77261837e-04  9.18929873e-05  4.08438529e-04]
 [ 1.17365457e-03  4.87058569e-04  3.70719819e-04  4.11423418e-04
   3.69526446e-04  4.24217666e-04  1.37412557e-04  4.39412193e-04]
 [ 2.33561248e-01  2.36915007e-01  1.08801216e-01 -3.77870679e-01
   1.43891901e-01  1.36648595e-01  2.51989573e-01  4.35918152e-01]
 [ 5.15397429e-01 -1.65020619e-02 -5.70505500e-01  4.95670825e-01
   2.67179489e-01 -2.23525017e-01  5.44929028e-01  2.86146373e-01]
 [-2.79657960e-01 -1.52654350e-01  1.42620027e-01 -4.65761751e-01
   3.65884990e-01  1.84437588e-01 -1.68345466e-01  7.88593888e-02]] 
Episode: 31: [[-1.1677755e-01  1.8739689e-02 -5.4896283e-01  5.0771934e-01
   5.1442587e-01  3.4215793e-01 -9.8321110e-02  3.6929676e-01]
 [-3.1276879e-01  4.7337395e-01 -4.4061598e-01 -4.9012059e-01
  -1.0470453e-01  5.3159600e-01 -3.3558580e-01 -3.5299617e-01]
 [ 4.5093289e-01 -7.1435206e-02 -1.6564566e-01  5.1857337e-02
   3.8048121e-01 -3.3548084e-01  3.0970213e-01 -8.2544453e-02]
 [-3.3304468e-01  1.8498069e-01 -3.8651344e-01 -8.6955473e-02
   5.6878376e-01  2.2643451e-01 -2.9202694e-01  2.3377815e-01]
 [ 2.8804269e-01  4.9722132e-01 -5.2022421e-01 -4.9041456e-01
   2.5670844e-01  5.1718593e-01 -1.5623809e-01 -3.2124168e-01]
 [ 3.2094556e-01  1.5997595e-01 -3.3807853e-01  2.3560341e-01
   5.3167510e-01 -5.0926733e-01 -1.8991666e-01 -5.0680143e-01]
 [ 1.1647245e-03  4.8307551e-04  1.5422903e-04  4.1467213e-04
   1.7428491e-04  4.4797917e-04  1.4947983e-04  4.7394854e-04]
 [ 1.1431428e-03  4.7106281e-04  1.2597174e-04  4.0247149e-04
   1.5596813e-04  4.0222821e-04  1.1470360e-04  4.3162736e-04]
 [ 1.2017608e-03  5.1572971e-04  3.9868994e-04  4.3770915e-04
   3.9504337e-04  4.5083460e-04  1.6229898e-04  4.6450042e-04]
 [ 2.3353454e-01  2.3688678e-01  1.0877467e-01 -3.7789601e-01
   1.4386736e-01  1.3662240e-01  2.5196469e-01  4.3589252e-01]
 [ 5.1542443e-01 -1.6474117e-02 -5.7047772e-01  4.9569589e-01
   2.6720470e-01 -2.2349869e-01  5.4495311e-01  2.8617093e-01]
 [-2.7968791e-01 -1.5268491e-01  1.4259005e-01 -4.6578994e-01
   3.6585769e-01  1.8440905e-01 -1.6837217e-01  7.8832440e-02]] 
Episode: 32: [[-1.16785735e-01  1.87319703e-02 -5.48971176e-01  5.07713795e-01
   5.14419138e-01  3.42151672e-01 -9.83276665e-02  3.69291425e-01]
 [-3.12762767e-01  4.73379493e-01 -4.40608144e-01 -4.90117401e-01
  -1.04698896e-01  5.31600773e-01 -3.35581839e-01 -3.52993548e-01]
 [ 4.50924158e-01 -7.14425445e-02 -1.65654525e-01  5.18518984e-02
   3.80474508e-01 -3.35486501e-01  3.09696287e-01 -8.25482309e-02]
 [-3.33051234e-01  1.84974402e-01 -3.86520267e-01 -8.69596377e-02
   5.68778038e-01  2.26429492e-01 -2.92032331e-01  2.33773872e-01]
 [ 2.88048089e-01  4.97226238e-01 -5.20217121e-01 -4.90412146e-01
   2.56713331e-01  5.17190158e-01 -1.56234667e-01 -3.21239591e-01]
 [ 3.20936352e-01  1.59968212e-01 -3.38087350e-01  2.35597476e-01
   5.31667948e-01 -5.09272993e-01 -1.89922825e-01 -5.06805301e-01]
 [ 1.17230928e-03  4.90213046e-04  1.62014330e-04  4.19646007e-04
   1.80325806e-04  4.53654531e-04  1.55372603e-04  4.78623464e-04]
 [ 1.15006010e-03  4.77160385e-04  1.34593312e-04  4.06312058e-04
   1.62379598e-04  4.07518703e-04  1.19325719e-04  4.34808899e-04]
 [ 1.20910059e-03  5.21880807e-04  4.06299252e-04  4.41946555e-04
   4.00591351e-04  4.55584115e-04  1.67001810e-04  4.67299222e-04]
 [ 2.33526558e-01  2.36879319e-01  1.08766451e-01 -3.77901196e-01
   1.43860802e-01  1.36616319e-01  2.51958191e-01  4.35887396e-01]
 [ 5.15432358e-01 -1.64671317e-02 -5.70468307e-01  4.95700479e-01
   2.67211914e-01 -2.23492712e-01  5.44958591e-01  2.86174864e-01]
 [-2.79695928e-01 -1.52691796e-01  1.42581403e-01 -4.65794802e-01
   3.65851134e-01  1.84403419e-01 -1.68377668e-01  7.88287818e-02]] 
Episode: 33: [[-1.16774626e-01  1.87391620e-02 -5.48963368e-01  5.07725179e-01
   5.14428377e-01  3.42161775e-01 -9.83168930e-02  3.69303286e-01]
 [-3.12777072e-01  4.73368794e-01 -4.40618277e-01 -4.90131527e-01
  -1.04710981e-01  5.31587958e-01 -3.35595787e-01 -3.53009552e-01]
 [ 4.50935036e-01 -7.14346468e-02 -1.65646642e-01  5.18620908e-02
   3.80484015e-01 -3.35476518e-01  3.09706926e-01 -8.25345740e-02]
 [-3.33038896e-01  1.84983104e-01 -3.86511028e-01 -8.69470313e-02
   5.68788350e-01  2.26440802e-01 -2.92020530e-01  2.33786598e-01]
 [ 2.88033724e-01  4.97215033e-01 -5.20227551e-01 -4.90426719e-01
   2.56700873e-01  5.17177045e-01 -1.56248838e-01 -3.21255714e-01]
 [ 3.20946127e-01  1.59975141e-01 -3.38080108e-01  2.35606655e-01
   5.31676531e-01 -5.09263754e-01 -1.89913154e-01 -5.06792605e-01]
 [ 1.16032676e-03  4.81995608e-04  1.53197994e-04  4.07445419e-04
   1.70035768e-04  4.42672201e-04  1.43584417e-04  4.65800142e-04]
 [ 1.13670470e-03  4.67387785e-04  1.25325998e-04  3.93008057e-04
   1.51247688e-04  3.95586161e-04  1.06228792e-04  4.19475400e-04]
 [ 1.19698921e-03  5.12505532e-04  3.97022173e-04  4.30433633e-04
   3.89807305e-04  4.44473670e-04  1.55117887e-04  4.52605076e-04]
 [ 2.33537540e-01  2.36886635e-01  1.08774297e-01 -3.77889782e-01
   1.43870026e-01  1.36626393e-01  2.51968890e-01  4.35899258e-01]
 [ 5.15420198e-01 -1.64756328e-02 -5.70476413e-01  4.95688140e-01
   2.67201930e-01 -2.23503634e-01  5.44946671e-01  2.86160499e-01]
 [-2.79684573e-01 -1.52683482e-01  1.42589509e-01 -4.65784252e-01
   3.65860790e-01  1.84413463e-01 -1.68366730e-01  7.88425133e-02]] 
Episode: 34: [[-1.16779231e-01  1.87309571e-02 -5.48971176e-01  5.07720709e-01
   5.14422417e-01  3.42156738e-01 -9.83219594e-02  3.69299114e-01]
 [-3.12774926e-01  4.73374188e-01 -4.40611988e-01 -4.90129143e-01
  -1.04707070e-01  5.31591356e-01 -3.35593015e-01 -3.53008777e-01]
 [ 4.50928986e-01 -7.14431256e-02 -1.65655941e-01  5.18557914e-02
   3.80477399e-01 -3.35482806e-01  3.09700578e-01 -8.25380906e-02]
 [-3.33042324e-01  1.84976369e-01 -3.86517435e-01 -8.69502798e-02
   5.68783402e-01  2.26436913e-01 -2.92024583e-01  2.33783320e-01]
 [ 2.88035691e-01  4.97219771e-01 -5.20221710e-01 -4.90424842e-01
   2.56704360e-01  5.17179966e-01 -1.56246349e-01 -3.21255147e-01]
 [ 3.20939302e-01  1.59965962e-01 -3.38089794e-01  2.35599622e-01
   5.31669259e-01 -5.09270549e-01 -1.89920187e-01 -5.06796777e-01]
 [ 1.16421748e-03  4.89373575e-04  1.60147596e-04  4.11282148e-04
   1.75177600e-04  4.47034981e-04  1.47808430e-04  4.69199062e-04]
 [ 1.13963615e-03  4.73611930e-04  1.32391913e-04  3.96083662e-04
   1.55984133e-04  3.99775367e-04  1.09736575e-04  4.20808297e-04]
 [ 1.20197155e-03  5.19681140e-04  4.05042490e-04  4.35596710e-04
   3.95418552e-04  4.49793442e-04  1.60387397e-04  4.55231027e-04]
 [ 2.33532876e-01  2.36878604e-01  1.08766638e-01 -3.77894223e-01
   1.43864065e-01  1.36621341e-01  2.51963824e-01  4.35895145e-01]
 [ 5.15424132e-01 -1.64683368e-02 -5.70468366e-01  4.95691985e-01
   2.67207593e-01 -2.23498598e-01  5.44951141e-01  2.86162615e-01]
 [-2.79690206e-01 -1.52691558e-01  1.42580464e-01 -4.65790242e-01
   3.65854293e-01  1.84407264e-01 -1.68372825e-01  7.88390711e-02]] 
Episode: 35: [[-1.1680191e-01  1.8705452e-02 -5.4899603e-01  5.0770062e-01
   5.1439989e-01  3.4213540e-01 -9.8342583e-02  3.6927715e-01]
 [-3.1275451e-01  4.7339699e-01 -4.4058895e-01 -4.9011064e-01
  -1.0468647e-01  5.3161108e-01 -3.3557454e-01 -3.5299003e-01]
 [ 4.5090371e-01 -7.1470343e-02 -1.6568324e-01  5.1832072e-02
   3.8045239e-01 -3.3550715e-01  3.0967754e-01 -8.2560621e-02]
 [-3.3306342e-01  1.8495278e-01 -3.8654050e-01 -8.6968839e-02
   5.6876236e-01  2.2641703e-01 -2.9204392e-01  2.3376274e-01]
 [ 2.8805569e-01  4.9724162e-01 -5.2019936e-01 -4.9040699e-01
   2.5672433e-01  5.1719904e-01 -1.5622827e-01 -3.2123694e-01]
 [ 3.2091320e-01  1.5993807e-01 -3.3811751e-01  2.3557517e-01
   5.3164369e-01 -5.0929552e-01 -1.8994395e-01 -5.0682002e-01]
 [ 1.1859628e-03  5.1389931e-04  1.8391560e-04  4.3058835e-04
   1.9678529e-04  4.6760045e-04  1.6737454e-04  4.9024000e-04]
 [ 1.1610487e-03  4.9748836e-04  1.5635250e-04  4.1547109e-04
   1.7758152e-04  4.2057942e-04  1.2906567e-04  4.4031834e-04]
 [ 1.2258985e-03  5.4531026e-04  4.3083259e-04  4.5794845e-04
   4.1917543e-04  4.7288989e-04  1.8218681e-04  4.7656344e-04]
 [ 2.3351032e-01  2.3685342e-01  1.0874211e-01 -3.7791428e-01
   1.4384158e-01  1.3659999e-01  2.5194335e-01  4.3587342e-01]
 [ 5.1544672e-01 -1.6443226e-02 -5.7044321e-01  4.9571231e-01
   2.6723024e-01 -2.2347680e-01  5.4497159e-01  2.8618309e-01]
 [-2.7971506e-01 -1.5271829e-01  1.4255345e-01 -4.6581364e-01
   3.6582950e-01  1.8438308e-01 -1.6839559e-01  7.8816734e-02]] 
Episode: 36: [[-1.1683577e-01  1.8667573e-02 -5.4903203e-01  5.0766730e-01
   5.1436603e-01  3.4210217e-01 -9.8374769e-02  3.6924285e-01]
 [-3.1272158e-01  4.7343355e-01 -4.4055352e-01 -4.9007756e-01
  -1.0465343e-01  5.3164387e-01 -3.3554286e-01 -3.5295764e-01]
 [ 4.5086962e-01 -7.1508050e-02 -1.6571933e-01  5.1797163e-02
   3.8041854e-01 -3.3554116e-01  3.0964503e-01 -8.2593419e-02]
 [-3.3309722e-01  1.8491533e-01 -3.8657629e-01 -8.7002009e-02
   5.6872839e-01  2.2638379e-01 -2.9207638e-01  2.3372836e-01]
 [ 2.8808895e-01  4.9727792e-01 -5.2016389e-01 -4.9037391e-01
   2.5675753e-01  5.1723182e-01 -1.5619622e-01 -3.2120439e-01]
 [ 3.2087877e-01  1.5990008e-01 -3.3815357e-01  2.3553996e-01
   5.3160965e-01 -5.0932968e-01 -1.8997672e-01 -5.0685304e-01]
 [ 1.2196514e-03  5.5148202e-04  2.1968981e-04  4.6376346e-04
   2.3040154e-04  5.0068722e-04  1.9924738e-04  5.2429317e-04]
 [ 1.1942324e-03  5.3443148e-04  1.9204657e-04  4.4876829e-04
   2.1087023e-04  4.5368855e-04  1.6087129e-04  4.7281393e-04]
 [ 1.2601608e-03  5.8289798e-04  4.6702530e-04  4.9292523e-04
   4.5335561e-04  5.0715497e-04  2.1502010e-04  5.0964684e-04]
 [ 2.3347621e-01  2.3681554e-01  1.0870602e-01 -3.7794781e-01
   1.4380744e-01  1.3656649e-01  2.5191092e-01  4.3583903e-01]
 [ 5.1548016e-01 -1.6405934e-02 -5.7040733e-01  4.9574572e-01
   2.6726365e-01 -2.2344357e-01  5.4500359e-01  2.8621569e-01]
 [-2.7974910e-01 -1.5275587e-01  1.4251721e-01 -4.6584857e-01
   3.6579540e-01  1.8434882e-01 -1.6842824e-01  7.8783728e-02]] 
Episode: 37: [[-1.1686741e-01  1.8630782e-02 -5.4906696e-01  5.0763446e-01
   5.1433241e-01  3.4207031e-01 -9.8405428e-02  3.6921087e-01]
 [-3.1269041e-01  4.7346935e-01 -4.4051963e-01 -4.9004546e-01
  -1.0462064e-01  5.3167510e-01 -3.3551246e-01 -3.5292712e-01]
 [ 4.5083779e-01 -7.1544513e-02 -1.6575369e-01  5.1763460e-02
   3.8038504e-01 -3.3557323e-01  3.0961385e-01 -8.2623929e-02]
 [-3.3312881e-01  1.8487900e-01 -3.8661098e-01 -8.7034665e-02
   5.6869477e-01  2.2635184e-01 -2.9210725e-01  2.3369625e-01]
 [ 2.8812033e-01  4.9731332e-01 -5.2013004e-01 -4.9034190e-01
   2.5679031e-01  5.1726311e-01 -1.5616553e-01 -3.2117376e-01]
 [ 3.2084683e-01  1.5986358e-01 -3.3818772e-01  2.3550612e-01
   5.3157622e-01 -5.0936162e-01 -1.9000794e-01 -5.0688356e-01]
 [ 1.2512477e-03  5.8807962e-04  2.5448098e-04  4.9659371e-04
   2.6387614e-04  5.3249131e-04  2.2973458e-04  5.5616832e-04]
 [ 1.2255736e-03  5.7053316e-04  2.2605561e-04  4.8098131e-04
   2.4384966e-04  4.8514520e-04  1.9129002e-04  5.0331914e-04]
 [ 1.2922124e-03  6.1931217e-04  5.0155108e-04  5.2671885e-04
   4.8708249e-04  5.3951412e-04  2.4650840e-04  5.4052647e-04]
 [ 2.3344442e-01  2.3677886e-01  1.0867110e-01 -3.7798077e-01
   1.4377366e-01  1.3653448e-01  2.5188011e-01  4.3580696e-01]
 [ 5.1551163e-01 -1.6369605e-02 -5.7037324e-01  4.9577793e-01
   2.6729670e-01 -2.2341208e-01  5.4503411e-01  2.8624618e-01]
 [-2.7978086e-01 -1.5279226e-01  1.4248273e-01 -4.6588227e-01
   3.6576176e-01  1.8431656e-01 -1.6845950e-01  7.8753017e-02]] 
Episode: 38: [[-1.16896152e-01  1.85980685e-02 -5.49098611e-01  5.07605135e-01
   5.14302135e-01  3.42041910e-01 -9.84324291e-02  3.69182259e-01]
 [-3.12662274e-01  4.73501116e-01 -4.40488786e-01 -4.90016729e-01
  -1.04591094e-01  5.31702816e-01 -3.35485786e-01 -3.52900118e-01]
 [ 4.50809300e-01 -7.15765208e-02 -1.65784717e-01  5.17335720e-02
   3.80355209e-01 -3.35601270e-01  3.09586704e-01 -8.26506615e-02]
 [-3.33157361e-01  1.84846774e-01 -3.86642218e-01 -8.70637074e-02
   5.68664610e-01  2.26323441e-01 -2.92134345e-01  2.33667612e-01]
 [ 2.88148522e-01  4.97344613e-01 -5.20099401e-01 -4.90313351e-01
   2.56819725e-01  5.17290771e-01 -1.56138733e-01 -3.21146786e-01]
 [ 3.20818454e-01  1.59831718e-01 -3.38218242e-01  2.35476300e-01
   5.31546712e-01 -5.09389400e-01 -1.90034926e-01 -5.06910026e-01]
 [ 1.28002127e-03  6.20680279e-04  2.86063761e-04  5.25975542e-04
   2.94066791e-04  5.60924236e-04  2.56679661e-04  5.84803813e-04]
 [ 1.25383958e-03  6.02501095e-04  2.56946601e-04  5.09736652e-04
   2.73491227e-04  5.12942672e-04  2.17952431e-04  5.30250079e-04]
 [ 1.32084836e-03  6.51220791e-04  5.32611273e-04  5.56636078e-04
   5.17000444e-04  5.67806012e-04  2.73889978e-04  5.67509618e-04]
 [ 2.33415633e-01  2.36746341e-01  1.08639576e-01 -3.78010124e-01
   1.43743366e-01  1.36506021e-01  2.51853049e-01  4.35778350e-01]
 [ 5.15539944e-01 -1.63375083e-02 -5.70342302e-01  4.95806605e-01
   2.67326385e-01 -2.23384351e-01  5.45060813e-01  2.86273003e-01]
 [-2.79809266e-01 -1.52824163e-01  1.42451674e-01 -4.65912133e-01
   3.65731895e-01  1.84288383e-01 -1.68486655e-01  7.87261948e-02]] 
Episode: 39: [[-1.16919160e-01  1.85711421e-02 -5.49125433e-01  5.07580578e-01
   5.14277875e-01  3.42018157e-01 -9.84537154e-02  3.69158894e-01]
 [-3.12639505e-01  4.73527789e-01 -4.40462142e-01 -4.89992350e-01
  -1.04567118e-01  5.31726360e-01 -3.35464418e-01 -3.52877617e-01]
 [ 4.50787485e-01 -7.16020316e-02 -1.65810466e-01  5.17094992e-02
   3.80332232e-01 -3.35624039e-01  3.09566081e-01 -8.26718360e-02]
 [-3.33180904e-01  1.84819520e-01 -3.86669308e-01 -8.70886669e-02
   5.68639636e-01  2.26299018e-01 -2.92156488e-01  2.33643517e-01]
 [ 2.88171768e-01  4.97371316e-01 -5.20072639e-01 -4.90288794e-01
   2.56844014e-01  5.17314672e-01 -1.56116813e-01 -3.21124017e-01]
 [ 3.20796758e-01  1.59806445e-01 -3.38243335e-01  2.35452354e-01
   5.31524062e-01 -5.09411752e-01 -1.90055326e-01 -5.06930828e-01]
 [ 1.30336650e-03  6.47822628e-04  3.13196826e-04  5.50830155e-04
   3.18515726e-04  5.84960100e-04  2.78246909e-04  6.08458067e-04]
 [ 1.27642101e-03  6.28962764e-04  2.83415662e-04  5.33883169e-04
   2.97210907e-04  5.36209554e-04  2.38964931e-04  5.52441867e-04]
 [ 1.34348019e-03  6.77406089e-04  5.59094362e-04  5.81431959e-04
   5.40747249e-04  5.91473596e-04  2.95444246e-04  5.89597155e-04]
 [ 2.33392358e-01  2.36719355e-01  1.08612604e-01 -3.78034800e-01
   1.43718928e-01  1.36482045e-01  2.51831472e-01  4.35754776e-01]
 [ 5.15562236e-01 -1.63113177e-02 -5.70316255e-01  4.95830387e-01
   2.67349720e-01 -2.23361522e-01  5.45081496e-01  2.86294729e-01]
 [-2.79831141e-01 -1.52849793e-01  1.42425627e-01 -4.65936303e-01
   3.65708679e-01  1.84265241e-01 -1.68507472e-01  7.87047222e-02]] 
Episode: 40: [[-1.1693942e-01  1.8546715e-02 -5.4914916e-01  5.0755876e-01
   5.1425755e-01  3.4199491e-01 -9.8472610e-02  3.6913779e-01]
 [-3.1261981e-01  4.7355068e-01 -4.4043940e-01 -4.8997128e-01
  -1.0454701e-01  5.3174883e-01 -3.3544609e-01 -3.5285732e-01]
 [ 4.5076621e-01 -7.1626753e-02 -1.6583498e-01  5.1686376e-02
   3.8031033e-01 -3.3564889e-01  3.0954590e-01 -8.2693696e-02]
 [-3.3320034e-01  1.8479614e-01 -3.8669208e-01 -8.7109625e-02
   5.6862009e-01  2.2627680e-01 -2.9217494e-01  2.3362322e-01]
 [ 2.8819099e-01  4.9739355e-01 -5.2005023e-01 -4.9026820e-01
   2.5686362e-01  5.1733661e-01 -1.5609857e-01 -3.2110414e-01]
 [ 3.2077539e-01  1.5978168e-01 -3.3826789e-01  2.3542918e-01
   5.3150243e-01 -5.0943661e-01 -1.9007584e-01 -5.0695288e-01]
 [ 1.3234694e-03  6.7180250e-04  3.3643155e-04  5.7250255e-04
   3.3873771e-04  6.0805923e-04  2.9677717e-04  6.2937348e-04]
 [ 1.2965007e-03  6.5236201e-04  3.0640571e-04  5.5518787e-04
   3.1765364e-04  5.5909861e-04  2.5742996e-04  5.7293370e-04]
 [ 1.3643031e-03  7.0147385e-04  5.8288191e-04  6.0389767e-04
   5.6212227e-04  6.1560032e-04  3.1516986e-04  6.1087671e-04]
 [ 2.3337229e-01  2.3669532e-01  1.0858926e-01 -3.7805662e-01
   1.4369860e-01  1.3645899e-01  2.5181282e-01  4.3573403e-01]
 [ 5.1558256e-01 -1.6287478e-02 -5.7029283e-01  4.9585193e-01
   2.6737040e-01 -2.2333831e-01  5.4510021e-01  2.8631541e-01]
 [-2.7985230e-01 -1.5287441e-01  1.4240128e-01 -4.6595928e-01
   3.6568695e-01  1.8424059e-01 -1.6852751e-01  7.8683034e-02]] 
Episode: 41: [[-1.16966940e-01  1.85157564e-02 -5.49179912e-01  5.07531166e-01
   5.14230192e-01  3.41964930e-01 -9.84990969e-02  3.69109064e-01]
 [-3.12592864e-01  4.73580092e-01 -4.40409452e-01 -4.89944458e-01
  -1.04519941e-01  5.31777918e-01 -3.35420042e-01 -3.52829307e-01]
 [ 4.50738043e-01 -7.16573000e-02 -1.65865734e-01  5.16581312e-02
   3.80282104e-01 -3.35679293e-01  3.09518665e-01 -8.27227384e-02]
 [-3.33227485e-01  1.84765637e-01 -3.86722445e-01 -8.71369541e-02
   5.68592906e-01  2.26247251e-01 -2.92201459e-01  2.33594775e-01]
 [ 2.88217723e-01  4.97422636e-01 -5.20020366e-01 -4.90241557e-01
   2.56890476e-01  5.17365456e-01 -1.56072438e-01 -3.21076334e-01]
 [ 3.20747077e-01  1.59750998e-01 -3.38298619e-01  2.35400766e-01
   5.31474352e-01 -5.09466946e-01 -1.90103412e-01 -5.06982148e-01]
 [ 1.35098130e-03  7.02482881e-04  3.66965978e-04  6.00076106e-04
   3.66064691e-04  6.38042402e-04  3.23074026e-04  6.58021658e-04]
 [ 1.32373592e-03  6.82057696e-04  3.36461700e-04  5.82132838e-04
   3.44901986e-04  5.88342722e-04  2.83476780e-04  6.01018604e-04]
 [ 1.39243063e-03  7.31923617e-04  6.13562297e-04  6.32130192e-04
   5.90330339e-04  6.45973545e-04  3.42477433e-04  6.39761274e-04]
 [ 2.33344793e-01  2.36664563e-01  1.08558655e-01 -3.78084302e-01
   1.43671140e-01  1.36429042e-01  2.51786351e-01  4.35705483e-01]
 [ 5.15609860e-01 -1.62575766e-02 -5.70262671e-01  4.95878845e-01
   2.67397702e-01 -2.23309040e-01  5.45126319e-01  2.86343545e-01]
 [-2.79880404e-01 -1.52905017e-01  1.42370418e-01 -4.65987533e-01
   3.65658700e-01  1.84210062e-01 -1.68554813e-01  7.86539912e-02]] 
Episode: 42: [[-1.16996758e-01  1.84836369e-02 -5.49213707e-01  5.07500589e-01
   5.14199555e-01  3.41933459e-01 -9.85281244e-02  3.69079351e-01]
 [-3.12561214e-01  4.73613113e-01 -4.40374285e-01 -4.89912510e-01
  -1.04487315e-01  5.31810403e-01 -3.35389227e-01 -3.52797955e-01]
 [ 4.50708538e-01 -7.16882125e-02 -1.65898860e-01  5.16277179e-02
   3.80251229e-01 -3.35710049e-01  3.09489846e-01 -8.27521831e-02]
 [-3.33257914e-01  1.84732869e-01 -3.86756659e-01 -8.71681422e-02
   5.68561554e-01  2.26215184e-01 -2.92231470e-01  2.33564302e-01]
 [ 2.88249582e-01  4.97455776e-01 -5.19985080e-01 -4.90209460e-01
   2.56923258e-01  5.17398119e-01 -1.56041175e-01 -3.21044773e-01]
 [ 3.20717871e-01  1.59720361e-01 -3.38331223e-01  2.35370710e-01
   5.31444073e-01 -5.09497166e-01 -1.90132007e-01 -5.07011294e-01]
 [ 1.38133357e-03  7.34858331e-04  4.01057303e-04  6.31059927e-04
   3.97141936e-04  6.69968256e-04  3.52455012e-04  6.88153319e-04]
 [ 1.35516981e-03  7.14784081e-04  3.71358474e-04  6.13750773e-04
   3.77269462e-04  6.20472711e-04  3.13828292e-04  6.31978735e-04]
 [ 1.42279954e-03  7.63775373e-04  6.47474779e-04  6.63434912e-04
   6.22013817e-04  6.77704462e-04  3.72268871e-04  6.70077396e-04]
 [ 2.33314797e-01  2.36632422e-01  1.08524896e-01 -3.78115028e-01
   1.43640250e-01  1.36397496e-01  2.51757175e-01  4.35675740e-01]
 [ 5.15640795e-01 -1.62252933e-02 -5.70228279e-01  4.95909899e-01
   2.67429560e-01 -2.23277509e-01  5.45156181e-01  2.86373943e-01]
 [-2.79910028e-01 -1.52936190e-01  1.42337024e-01 -4.66018140e-01
   3.65627646e-01  1.84178978e-01 -1.68583885e-01  7.86243305e-02]] 
Episode: 43: [[-1.1702812e-01  1.8450661e-02 -5.4924887e-01  5.0746828e-01
   5.1416773e-01  3.4190044e-01 -9.8558873e-02  3.6904785e-01]
 [-3.1252885e-01  4.7364628e-01 -4.4033840e-01 -4.8987955e-01
  -1.0445436e-01  5.3184372e-01 -3.3535746e-01 -3.5276562e-01]
 [ 4.5067677e-01 -7.1720906e-02 -1.6593435e-01  5.1594604e-02
   3.8021860e-01 -3.3574307e-01  3.0945837e-01 -8.2784109e-02]
 [-3.3328924e-01  1.8469988e-01 -3.8679159e-01 -8.7200381e-02
   5.6852973e-01  2.2618227e-01 -2.9226246e-01  2.3353274e-01]
 [ 2.8828180e-01  4.9748877e-01 -5.1994944e-01 -4.9017668e-01
   2.5695601e-01  5.1743120e-01 -1.5600933e-01 -3.2101259e-01]
 [ 3.2068637e-01  1.5968789e-01 -3.3836624e-01  2.3533793e-01
   5.3141195e-01 -5.0952965e-01 -1.9016325e-01 -5.0704294e-01]
 [ 1.4129470e-03  7.6785276e-04  4.3626264e-04  6.6353998e-04
   4.2916913e-04  7.0321007e-04  3.8329646e-04  7.1985309e-04]
 [ 1.3875639e-03  7.4792880e-04  4.0726407e-04  6.4665603e-04
   4.1022274e-04  6.5373152e-04  3.4540432e-04  6.6418183e-04]
 [ 1.4548170e-03  7.9676765e-04  6.8308384e-04  6.9675175e-04
   6.5486773e-04  7.1102922e-04  4.0402284e-04  7.0224068e-04]
 [ 2.3328346e-01  2.3659959e-01  1.0848993e-01 -3.7814733e-01
   1.4360836e-01  1.3636455e-01  2.5172645e-01  4.3564439e-01]
 [ 5.1567298e-01 -1.6192298e-02 -5.7019252e-01  4.9594253e-01
   2.6746228e-01 -2.2324453e-01  5.4518753e-01  2.8640589e-01]
 [-2.7994177e-01 -1.5296894e-01  1.4230146e-01 -4.6605128e-01
   3.6559498e-01  1.8414585e-01 -1.6861543e-01  7.8592367e-02]] 
Episode: 44: [[-1.1705394e-01  1.8423956e-02 -5.4927737e-01  5.0744218e-01
   5.1414192e-01  3.4187317e-01 -9.8583303e-02  3.6902264e-01]
 [-3.1250155e-01  4.7367391e-01 -4.4030845e-01 -4.8985174e-01
  -1.0442661e-01  5.3187233e-01 -3.3533144e-01 -3.5273892e-01]
 [ 4.5065174e-01 -7.1746320e-02 -1.6596210e-01  5.1568467e-02
   3.8019300e-01 -3.3576974e-01  3.0943432e-01 -8.2808740e-02]
 [-3.3331570e-01  1.8467240e-01 -3.8682058e-01 -8.7227210e-02
   5.6850302e-01  2.2615437e-01 -2.9228789e-01  2.3350671e-01]
 [ 2.8830945e-01  4.9751669e-01 -5.1991934e-01 -4.9014866e-01
   2.5698403e-01  5.1746005e-01 -1.5598273e-01 -3.2098562e-01]
 [ 3.2066169e-01  1.5966280e-01 -3.3839339e-01  2.3531219e-01
   5.3138679e-01 -5.0955564e-01 -1.9018699e-01 -5.0706708e-01]
 [ 1.4393430e-03  7.9489290e-04  4.6520476e-04  6.9003424e-04
   4.5544666e-04  7.3095929e-04  4.0814700e-04  7.4551895e-04]
 [ 1.4145367e-03  7.7514804e-04  4.3691759e-04  6.7407044e-04
   4.3762536e-04  6.8191590e-04  3.7087151e-04  6.9046603e-04]
 [ 1.4808300e-03  8.2328840e-04  7.1179558e-04  7.2388642e-04
   6.8143749e-04  7.3871837e-04  4.2913164e-04  7.2791596e-04]
 [ 2.3325737e-01  2.3657277e-01  1.0846129e-01 -3.7817353e-01
   1.4358231e-01  1.3633716e-01  2.5170177e-01  4.3561906e-01]
 [ 5.1569939e-01 -1.6165603e-02 -5.7016349e-01  4.9596938e-01
   2.6748911e-01 -2.2321697e-01  5.4521245e-01  2.8643155e-01]
 [-2.7996695e-01 -1.5299463e-01  1.4227338e-01 -4.6607760e-01
   3.6556914e-01  1.8411885e-01 -1.6863973e-01  7.8567453e-02]] 
Episode: 45: [[-1.17074922e-01  1.84013564e-02 -5.49300790e-01  5.07420063e-01
   5.14120936e-01  3.41849834e-01 -9.86027420e-02  3.69001508e-01]
 [-3.12479556e-01  4.73697186e-01 -4.40283716e-01 -4.89828527e-01
  -1.04404300e-01  5.31896830e-01 -3.35310996e-01 -3.52716684e-01]
 [ 4.50633228e-01 -7.17661157e-02 -1.65982991e-01  5.15479855e-02
   3.80174279e-01 -3.35790843e-01  3.09417039e-01 -8.28278661e-02]
 [-3.33338112e-01  1.84648231e-01 -3.86845171e-01 -8.72507319e-02
   5.68480134e-01  2.26129606e-01 -2.92308986e-01  2.33484030e-01]
 [ 2.88332522e-01  4.97540951e-01 -5.19894183e-01 -4.90125060e-01
   2.57007420e-01  5.17485440e-01 -1.55961439e-01 -3.20962906e-01]
 [ 3.20643157e-01  1.59643024e-01 -3.38413775e-01  2.35291958e-01
   5.31368077e-01 -5.09576201e-01 -1.90203860e-01 -5.07085681e-01]
 [ 1.46107259e-03  8.17967753e-04  4.89371829e-04  7.12582667e-04
   4.76855261e-04  7.54786073e-04  4.28210275e-04  7.67221267e-04]
 [ 1.43591571e-03  7.97699089e-04  4.61351097e-04  6.96901407e-04
   4.59258619e-04  7.05602521e-04  3.90694826e-04  7.12261419e-04]
 [ 1.50092912e-03  8.44841590e-04  7.34492263e-04  7.46016623e-04
   7.01828336e-04  7.61539501e-04  4.48161300e-04  7.48760242e-04]
 [ 2.33235747e-01  2.36549705e-01  1.08437315e-01 -3.78195852e-01
   1.43560916e-01  1.36313528e-01  2.51681745e-01  4.35597420e-01]
 [ 5.15720010e-01 -1.61437690e-02 -5.70140004e-01  4.95991528e-01
   2.67509997e-01 -2.23194093e-01  5.45231581e-01  2.86452591e-01]
 [-2.79985726e-01 -1.53014898e-01  1.42251864e-01 -4.66098368e-01
   3.65549922e-01  1.84097081e-01 -1.68657422e-01  7.85478055e-02]] 
Episode: 46: [[-1.1710985e-01  1.8366592e-02 -5.4933739e-01  5.0738543e-01
   5.1408714e-01  3.4181425e-01 -9.8636061e-02  3.6896795e-01]
 [-3.1244415e-01  4.7373217e-01 -4.4024628e-01 -4.8979330e-01
  -1.0437008e-01  5.3193307e-01 -3.3527756e-01 -3.5268262e-01]
 [ 4.5060048e-01 -7.1798041e-02 -1.6601707e-01  5.1514771e-02
   3.8014305e-01 -3.3582413e-01  3.0938593e-01 -8.2859300e-02]
 [-3.3337408e-01  1.8461211e-01 -3.8688269e-01 -8.7286502e-02
   5.6844467e-01  2.2609276e-01 -2.9234359e-01  2.3344910e-01]
 [ 2.8836876e-01  4.9757674e-01 -5.1985651e-01 -4.9008957e-01
   2.5704259e-01  5.1752251e-01 -1.5592732e-01 -3.2092842e-01]
 [ 3.2061037e-01  1.5961112e-01 -3.3844733e-01  2.3525894e-01
   5.3133672e-01 -5.0960892e-01 -1.9023454e-01 -5.0711656e-01]
 [ 1.4965989e-03  8.5307949e-04  5.2659411e-04  7.4749411e-04
   5.1087287e-04  7.9069391e-04  4.6193198e-04  8.0117065e-04]
 [ 1.4709542e-03  8.3212287e-04  4.9864931e-04  7.3194865e-04
   4.9298123e-04  7.4123620e-04  4.2377092e-04  7.4603362e-04]
 [ 1.5348865e-03  8.7824516e-04  7.7005324e-04  7.8056165e-04
   7.3449255e-04  7.9634727e-04  4.8061257e-04  7.8166235e-04]
 [ 2.3320022e-01  2.3651452e-01  1.0840018e-01 -3.7823063e-01
   1.4352679e-01  1.3627765e-01  2.5164792e-01  4.3556342e-01]
 [ 5.1575446e-01 -1.6109949e-02 -5.7010353e-01  4.9602604e-01
   2.6754308e-01 -2.2315916e-01  5.4526418e-01  2.8648573e-01]
 [-2.8001860e-01 -1.5304723e-01  1.4221719e-01 -4.6613178e-01
   3.6551815e-01  1.8406311e-01 -1.6868882e-01  7.8515857e-02]] 
Episode: 47: [[-1.1714410e-01  1.8331535e-02 -5.4937381e-01  5.0735050e-01
   5.1405293e-01  3.4177923e-01 -9.8669730e-02  3.6893484e-01]
 [-3.1240967e-01  4.7376683e-01 -4.4020960e-01 -4.8975816e-01
  -1.0433586e-01  5.3196841e-01 -3.3524397e-01 -3.5264945e-01]
 [ 4.5056894e-01 -7.1829267e-02 -1.6605043e-01  5.1481854e-02
   3.8011199e-01 -3.3585632e-01  3.0935532e-01 -8.2889378e-02]
 [-3.3340955e-01  1.8457566e-01 -3.8692015e-01 -8.7322615e-02
   5.6840873e-01  2.2605643e-01 -2.9237857e-01  2.3341455e-01]
 [ 2.8840414e-01  4.9761218e-01 -5.1981956e-01 -4.9005416e-01
   2.5707769e-01  5.1755863e-01 -1.5589310e-01 -3.2089484e-01]
 [ 3.2057905e-01  1.5958011e-01 -3.3848003e-01  2.3522639e-01
   5.3130579e-01 -5.0964040e-01 -1.9026452e-01 -5.0714594e-01]
 [ 1.5315758e-03  8.8861032e-04  5.6376396e-04  7.8286033e-04
   5.4549036e-04  8.2620664e-04  4.9613451e-04  8.3479070e-04]
 [ 1.5049224e-03  8.6617877e-04  5.3507532e-04  7.6679897e-04
   5.2662822e-04  7.7585806e-04  4.5691762e-04  7.7877723e-04]
 [ 1.5677563e-03  9.1100478e-04  8.0493721e-04  8.1486284e-04
   7.6701265e-04  8.3014247e-04  5.1263993e-04  8.1329799e-04]
 [ 2.3316540e-01  2.3647907e-01  1.0836325e-01 -3.7826574e-01
   1.4349224e-01  1.3624233e-01  2.5161377e-01  4.3552989e-01]
 [ 5.1578766e-01 -1.6076621e-02 -5.7006806e-01  4.9606019e-01
   2.6757595e-01 -2.2312540e-01  5.4529673e-01  2.8651768e-01]
 [-2.8005031e-01 -1.5307879e-01  1.4218330e-01 -4.6616489e-01
   3.6548662e-01  1.8403025e-01 -1.6871971e-01  7.8485303e-02]] 
Episode: 48: [[-1.17177561e-01  1.82982311e-02 -5.49409330e-01  5.07317126e-01
   5.14019549e-01  3.41746002e-01 -9.87020582e-02  3.68903250e-01]
 [-3.12374353e-01  4.73801523e-01 -4.40172404e-01 -4.89722967e-01
  -1.04301035e-01  5.32003343e-01 -3.35209846e-01 -3.52616012e-01]
 [ 4.50540304e-01 -7.18568638e-02 -1.66080952e-01  5.14528118e-02
   3.80084008e-01 -3.35884660e-01  3.09328020e-01 -8.29160139e-02]
 [-3.33445698e-01  1.84539303e-01 -3.86958092e-01 -8.73587504e-02
   5.68372071e-01  2.26020247e-01 -2.92413801e-01  2.33379900e-01]
 [ 2.88441122e-01  4.97648478e-01 -5.19781470e-01 -4.90017861e-01
   2.57114172e-01  5.17595112e-01 -1.55857608e-01 -3.20860267e-01]
 [ 3.20551336e-01  1.59553334e-01 -3.38509172e-01  2.35198408e-01
   5.31278670e-01 -5.09667397e-01 -1.90290526e-01 -5.07171214e-01]
 [ 1.56662997e-03  9.23245330e-04  6.00887288e-04  8.17462977e-04
   5.80125954e-04  8.60738277e-04  5.29896934e-04  8.67755734e-04]
 [ 1.53887365e-03  8.99369712e-04  5.71250566e-04  8.00831709e-04
   5.60010551e-04  8.09188408e-04  4.89726663e-04  8.11014499e-04]
 [ 1.59936235e-03  9.41877835e-04  8.38607608e-04  8.47091957e-04
   7.98124180e-04  8.61793000e-04  5.43063157e-04  8.43226153e-04]
 [ 2.33131036e-01  2.36445025e-01  1.08326979e-01 -3.78299505e-01
   1.43458217e-01  1.36208564e-01  2.51580596e-01  4.35497493e-01]
 [ 5.15819848e-01 -1.60451680e-02 -5.70033789e-01  4.96092528e-01
   2.67607540e-01 -2.23093927e-01  5.45327902e-01  2.86548138e-01]
 [-2.80079484e-01 -1.53107062e-01  1.42151937e-01 -4.66194510e-01
   3.65457803e-01  1.84000880e-01 -1.68747663e-01  7.84578025e-02]] 
Episode: 49: [[-1.1722176e-01  1.8253321e-02 -5.4945558e-01  5.0727278e-01
   5.1397473e-01  3.4170213e-01 -9.8745190e-02  3.6886045e-01]
 [-3.1232843e-01  4.7384784e-01 -4.4012445e-01 -4.8967683e-01
  -1.0425477e-01  5.3204888e-01 -3.3516496e-01 -3.5257134e-01]
 [ 4.5050165e-01 -7.1895652e-02 -1.6612180e-01  5.1413074e-02
   3.8004488e-01 -3.3592287e-01  3.0929065e-01 -8.2953326e-02]
 [-3.3349270e-01  1.8449138e-01 -3.8700685e-01 -8.7405942e-02
   5.6832403e-01  2.2597329e-01 -2.9245993e-01  2.3333402e-01]
 [ 2.8848884e-01  4.9769643e-01 -5.1973253e-01 -4.8997062e-01
   2.5716212e-01  5.1764238e-01 -1.5581118e-01 -3.2081443e-01]
 [ 3.2051337e-01  1.5951516e-01 -3.3854893e-01  2.3515943e-01
   5.3124017e-01 -5.0970447e-01 -1.9032687e-01 -5.0720733e-01]
 [ 1.6123111e-03  9.6940732e-04  6.4867281e-04  8.6299673e-04
   6.2609004e-04  9.0581778e-04  5.7438540e-04  9.1182848e-04]
 [ 1.5834958e-03  9.4426918e-04  6.1827520e-04  8.4594684e-04
   6.0493674e-04  8.5310126e-04  5.3333043e-04  8.5457938e-04]
 [ 1.6410139e-03  9.8389038e-04  8.8265265e-04  8.8999531e-04
   8.4031245e-04  9.0335601e-04  5.8362802e-04  8.8383292e-04]
 [ 2.3308586e-01  2.3639929e-01  1.0827990e-01 -3.7834433e-01
   1.4341274e-01  1.3616407e-01  2.5153652e-01  4.3545383e-01]
 [ 5.1586276e-01 -1.6001970e-02 -5.6998867e-01  4.9613598e-01
   2.6765075e-01 -2.2305186e-01  5.4536986e-01  2.8658998e-01]
 [-2.8011876e-01 -1.5314661e-01  1.4211014e-01 -4.6623495e-01
   3.6541775e-01  1.8396151e-01 -1.6878583e-01  7.8419544e-02]] 
Episode: 50: [[-1.17257409e-01  1.82181671e-02 -5.49492896e-01  5.07238209e-01
   5.13936996e-01  3.41667622e-01 -9.87793207e-02  3.68826509e-01]
 [-3.12291801e-01  4.73883778e-01 -4.40086186e-01 -4.89640892e-01
  -1.04216225e-01  5.32084882e-01 -3.35129499e-01 -3.52536052e-01]
 [ 4.50469524e-01 -7.19265044e-02 -1.66155592e-01  5.13812415e-02
   3.80010605e-01 -3.35953742e-01  3.09260041e-01 -8.29835013e-02]
 [-3.33530009e-01  1.84454307e-01 -3.87045592e-01 -8.74422491e-02
   5.68284571e-01  2.25936949e-01 -2.92495906e-01  2.33298197e-01]
 [ 2.88526565e-01  4.97733444e-01 -5.19693792e-01 -4.89934117e-01
   2.57201582e-01  5.17679393e-01 -1.55774817e-01 -3.20778608e-01]
 [ 3.20481867e-01  1.59484833e-01 -3.38581771e-01  2.35128224e-01
   5.31206489e-01 -5.09734392e-01 -1.90356612e-01 -5.07236600e-01]
 [ 1.64897891e-03  1.00539695e-03  6.86993881e-04  8.98413651e-04
   6.64576772e-04  9.41237493e-04  6.09485549e-04  9.46763903e-04]
 [ 1.61921501e-03  9.79233766e-04  6.55988581e-04  8.81219050e-04
   6.42605301e-04  8.87950824e-04  5.67912590e-04  8.89150891e-04]
 [ 1.67494977e-03  1.01677887e-03  9.18376842e-04  9.23840387e-04
   8.76310107e-04  9.36344790e-04  6.16222853e-04  9.16114601e-04]
 [ 2.33049646e-01  2.36363694e-01  1.08242176e-01 -3.78379107e-01
   1.43374726e-01  1.36129215e-01  2.51501828e-01  4.35419351e-01]
 [ 5.15897334e-01 -1.59681570e-02 -5.69952190e-01  4.96170074e-01
   2.67687261e-01 -2.23018333e-01  5.45403302e-01  2.86623240e-01]
 [-2.80151248e-01 -1.53177902e-01  1.42075777e-01 -4.66267169e-01
   3.65382999e-01  1.83929920e-01 -1.68816879e-01  7.83888251e-02]] 
Episode: 51: [[-0.11727922  0.01819604 -0.5495161   0.50721705  0.513913    0.3416465
  -0.09880064  0.36880547]
 [-0.31226853  0.47390735 -0.4400618  -0.48961833 -0.1041907   0.53210795
  -0.33510634 -0.35251325]
 [ 0.45045194 -0.07194395 -0.16617431  0.0513639   0.37999052 -0.3359707
   0.3092428  -0.08300031]
 [-0.3335538   0.18443005 -0.38707054 -0.08746547  0.5682585   0.22591375
  -0.29251927  0.2332751 ]
 [ 0.28855118  0.49775827 -0.5196686  -0.4899107   0.25722826  0.5177037
  -0.15575057 -0.32075506]
 [ 0.3204648   0.15946779 -0.3385997   0.23511134  0.5311868  -0.5097506
  -0.19037305 -0.50725263]
 [ 0.00167183  0.00102839  0.00071122  0.00092047  0.00068942  0.00096331
   0.00063177  0.0009688 ]
 [ 0.00164147  0.00100176  0.00067965  0.00090302  0.00066717  0.00090987
   0.00059013  0.00091116]
 [ 0.00169469  0.00103648  0.00093939  0.00094352  0.0008984   0.00095568
   0.00063567  0.00093526]
 [ 0.23302718  0.23634103  0.10821846 -0.3784006   0.1433503   0.13610761
   0.25147986  0.43539768]
 [ 0.5159184  -0.01594678 -0.56992984  0.4961907   0.26771066 -0.22299773
   0.5454244   0.28664398]
 [-0.28016928 -0.15319581  0.14205642 -0.46628493  0.36536238  0.1839122
  -0.16883461  0.07837143]] 
Episode: 52: [[-0.11729822  0.01817679 -0.54953647  0.50719875  0.5138917   0.34162804
  -0.0988194   0.3687871 ]
 [-0.31224972  0.47392637 -0.44004214 -0.48960015 -0.1041696   0.5321266
  -0.33508757 -0.35249475]
 [ 0.45043573 -0.07195999 -0.16619176  0.05134802  0.37997165 -0.3359865
   0.30922663 -0.08301596]
 [-0.3335739   0.18440959 -0.3870919  -0.08748494  0.5682363   0.22589414
  -0.2925392   0.2332557 ]
 [ 0.28857088  0.4977781  -0.5196483  -0.48989198  0.25725004  0.5177232
  -0.15573111 -0.3207362 ]
 [ 0.3204488   0.15945178 -0.33861697  0.23509555  0.5311681  -0.50976616
  -0.19038896 -0.5072679 ]
 [ 0.0016914   0.00104804  0.00073209  0.00093921  0.00071118  0.00098225
   0.00065096  0.00098778]
 [ 0.00165967  0.00102025  0.00069902  0.00092079  0.00068775  0.00092787
   0.0006084   0.00092928]
 [ 0.00171221  0.00105382  0.00095809  0.00096083  0.00091835  0.00097283
   0.0006531   0.00095226]
 [ 0.23300768  0.23632146  0.10819776 -0.37841913  0.14332874  0.13608883
   0.25146076  0.4353789 ]
 [ 0.51593584 -0.01592888 -0.56991106  0.49620777  0.2677306  -0.2229804
   0.5454421   0.28666133]
 [-0.28018588 -0.15321216  0.1420386  -0.46630117  0.3653432   0.18389596
  -0.1688511   0.07835545]] 
Episode: 53: [[-0.11730642  0.01816753 -0.5495462   0.5071902   0.5138807   0.34161964
  -0.09882802  0.36877847]
 [-0.31224146  0.47393546 -0.44003308 -0.48959175 -0.10415889  0.5321352
  -0.33507892 -0.35248592]
 [ 0.4504288  -0.07196719 -0.16619971  0.05134073  0.3799619  -0.33599353
   0.30921945 -0.0830231 ]
 [-0.33358303  0.18439941 -0.3871024  -0.0874944   0.5682246   0.22588482
  -0.29254875  0.23324627]
 [ 0.28857997  0.4977879  -0.51963866 -0.4898831   0.25726137  0.5177326
  -0.15572189 -0.32072708]
 [ 0.32044187  0.15944451 -0.33862492  0.23508815  0.5311584  -0.50977314
  -0.19039607 -0.50727487]
 [ 0.00170002  0.00105753  0.00074208  0.00094805  0.00072246  0.00099096
   0.00065986  0.00099687]
 [ 0.00166747  0.00102896  0.00070783  0.0009289   0.00069808  0.00093598
   0.0006167   0.00093784]
 [ 0.0017202   0.00106202  0.00096704  0.00096924  0.00092892  0.00098094
   0.00066128  0.00096045]
 [ 0.23299903  0.23631191  0.10818776 -0.3784279   0.1433175   0.13608013
   0.25145182  0.43536988]
 [ 0.51594317 -0.01592053 -0.56990266  0.49621543  0.2677405  -0.22297272
   0.54545003  0.28666934]
 [-0.28019312 -0.15321958  0.14203034 -0.4663087   0.36533323  0.18388855
  -0.16885856  0.07834804]] 
Episode: 54: [[-0.11731517  0.01815857 -0.5495565   0.5071817   0.51387     0.34161147
  -0.098837    0.36877   ]
 [-0.3122341   0.47394302 -0.4400253  -0.48958436 -0.1041497   0.53214246
  -0.33507124 -0.35247827]
 [ 0.4504194  -0.07197649 -0.16621016  0.05133141  0.37995005 -0.3360025
   0.30921006 -0.08303228]
 [-0.33359122  0.18439113 -0.38711193 -0.08750223  0.5682149   0.2258774
  -0.29255703  0.23323865]
 [ 0.2885872   0.49779513 -0.51963097 -0.48987597  0.25727028  0.5177396
  -0.15571447 -0.32071984]
 [ 0.32043228  0.15943487 -0.33863562  0.23507857  0.5311466  -0.50978243
  -0.19040564 -0.5072843 ]
 [ 0.00170843  0.00106608  0.00075184  0.00095641  0.00073292  0.00099894
   0.00066845  0.00100526]
 [ 0.00167505  0.00103698  0.00071583  0.00093651  0.00070752  0.00094365
   0.00062465  0.00094574]
 [ 0.00172913  0.00107065  0.00097673  0.00097798  0.00094003  0.00098924
   0.00067005  0.00096893]
 [ 0.2329904   0.23630317  0.10817779 -0.37843645  0.1433069   0.136072
   0.25144306  0.43536153]
 [ 0.51595104 -0.01591211 -0.56989413  0.4962232   0.26775023 -0.2229647
   0.54545826  0.28667742]
 [-0.28020257 -0.1532287   0.14202012 -0.466318    0.36532158  0.18387982
  -0.16886784  0.07833912]] 
Episode: 55: [[-0.11731629  0.01815955 -0.54955834  0.5071825   0.51386976  0.3416107
  -0.09883698  0.3687695 ]
 [-0.31223428  0.47394052 -0.4400263  -0.48958647 -0.1041511   0.5321417
  -0.3350724  -0.3524786 ]
 [ 0.4504176  -0.07197554 -0.16621232  0.05133168  0.3799489  -0.33600408
   0.30920961 -0.08303376]
 [-0.3335916   0.18439284 -0.3871128  -0.08750071  0.5682156   0.22587769
  -0.29255626  0.23323919]
 [ 0.28858677  0.4977924  -0.5196321  -0.48987827  0.2572687   0.5177384
  -0.15571584 -0.32072067]
 [ 0.32043055  0.1594357  -0.33863792  0.2350789   0.5311457  -0.5097842
  -0.19040602 -0.5072859 ]
 [ 0.00170923  0.00106478  0.00075307  0.00095558  0.00073304  0.00099955
   0.0006681   0.00100574]
 [ 0.00167497  0.00103487  0.000715    0.00093448  0.00070623  0.00094333
   0.00062362  0.0009456 ]
 [ 0.00173035  0.00106914  0.00097799  0.00097721  0.00094059  0.0009899
   0.0006699   0.00096958]
 [ 0.23298952  0.23630434  0.1081765  -0.3784357   0.14330673  0.13607138
   0.25144333  0.43536124]
 [ 0.5159512  -0.01591388 -0.56989443  0.49622127  0.26774916 -0.22296458
   0.5454575   0.28667745]
 [-0.28020436 -0.15322758  0.14201838 -0.46631774  0.36532068  0.18387873
  -0.16886814  0.07833803]] 
Episode: 56: [[-0.11731733  0.01816127 -0.5495599   0.50718427  0.51386935  0.34161162
  -0.09883649  0.36877045]
 [-0.31223404  0.4739382  -0.44002703 -0.48958927 -0.10415214  0.5321399
  -0.33507356 -0.3524797 ]
 [ 0.45041645 -0.07197324 -0.16621281  0.05133406  0.37994894 -0.33600265
   0.30921036 -0.08303303]
 [-0.33359268  0.1843943  -0.3871143  -0.08749922  0.5682151   0.22587852
  -0.29255587  0.23324016]
 [ 0.28858724  0.49779046 -0.51963234 -0.4898808   0.25726804  0.517737
  -0.15571673 -0.3207218 ]
 [ 0.32042912  0.15943764 -0.33863878  0.23508085  0.53114575 -0.5097831
  -0.19040541 -0.50728536]
 [ 0.0017102   0.00106302  0.00075441  0.00095387  0.00073341  0.00099861
   0.00066754  0.00100491]
 [ 0.0016752   0.00103251  0.00071432  0.00093168  0.00070507  0.00094146
   0.00062245  0.00094449]
 [ 0.00173159  0.00106719  0.00097861  0.00097531  0.0009407   0.00098868
   0.00066935  0.00096891]
 [ 0.23298828  0.23630582  0.10817493 -0.37843412  0.1433062   0.13607217
   0.25144362  0.43536204]
 [ 0.5159515  -0.01591621 -0.5698949   0.49621835  0.26774803 -0.22296639
   0.54545635  0.2866763 ]
 [-0.2802056  -0.15322545  0.14201786 -0.4663156   0.36532068  0.1838801
  -0.16886748  0.07833881]] 
Episode: 57: [[-0.11732415  0.0181583  -0.54956675  0.5071801   0.5138632   0.3416057
  -0.09884191  0.3687639 ]
 [-0.31222808  0.4739397  -0.44002345 -0.4895863  -0.10414784  0.53214425
  -0.33507    -0.35247344]
 [ 0.4504088  -0.07197547 -0.16621849  0.05133018  0.37994295 -0.33600813
   0.30920544 -0.08304024]
 [-0.33359894  0.1843916  -0.38712046 -0.08750302  0.56820947  0.22587325
  -0.29256073  0.23323433]
 [ 0.28859305  0.49779198 -0.51962864 -0.48987794  0.25727227  0.5177412
  -0.15571328 -0.32071602]
 [ 0.32042134  0.15943508 -0.3386448   0.23507667  0.53113985 -0.5097888
  -0.19041044 -0.5072926 ]
 [ 0.00171678  0.00106579  0.00076093  0.00095794  0.00073925  0.0010044
   0.00067273  0.00101135]
 [ 0.00168134  0.00103421  0.00071811  0.00093482  0.00070952  0.00094602
   0.00062621  0.00095099]
 [ 0.00173867  0.00106921  0.00098391  0.00097904  0.00094616  0.00099373
   0.00067382  0.00097542]
 [ 0.23298147  0.23630284  0.10816824 -0.37843832  0.1433002   0.1360663
   0.25143823  0.43535563]
 [ 0.5159579  -0.01591431 -0.56989074  0.4962215   0.26775274 -0.2229616
   0.54546034  0.28668296]
 [-0.2802132  -0.15322761  0.1420123  -0.46631956  0.36531493  0.18387471
  -0.16887225  0.07833182]] 
Episode: 58: [[-0.11733146  0.01815449 -0.54957354  0.5071758   0.5138568   0.34159958
  -0.09884778  0.36875746]
 [-0.31222045  0.47394344 -0.4400184  -0.4895819  -0.10414218  0.5321498
  -0.3350649  -0.35246602]
 [ 0.45040056 -0.07197881 -0.16622421  0.05132591  0.37993684 -0.3360136
   0.3092001  -0.08304734]
 [-0.33360562  0.1843881  -0.38712654 -0.087507    0.56820357  0.2258677
  -0.292566    0.23322852]
 [ 0.28860047  0.49779564 -0.51962364 -0.48987374  0.25727782  0.5177467
  -0.15570836 -0.3207091 ]
 [ 0.3204132   0.1594317  -0.3386505   0.23507227  0.53113395 -0.5097941
  -0.19041555 -0.5072995 ]
 [ 0.001724    0.0010696   0.00076765  0.00096217  0.0007454   0.00101044
   0.00067855  0.00101778]
 [ 0.00168911  0.00103804  0.00072333  0.00093932  0.00071525  0.00095159
   0.00063146  0.00095851]
 [ 0.00174633  0.00107241  0.00098939  0.00098326  0.0009518   0.00099893
   0.00067877  0.00098201]
 [ 0.23297419  0.236299    0.10816156 -0.37844244  0.1432941   0.13606034
   0.25143236  0.43534935]
 [ 0.5159658  -0.01591047 -0.5698854   0.49622595  0.2677586  -0.22295596
   0.5454657   0.28669053]
 [-0.28022122 -0.15323083  0.14200671 -0.46632382  0.3653091   0.18386932
  -0.16887738  0.07832491]] 
Episode: 59: [[-0.11731779  0.01817107 -0.5495587   0.5071921   0.5138714   0.3416147
  -0.09883229  0.36877087]
 [-0.3122339   0.47392654 -0.4400348  -0.48959827 -0.1041574   0.5321338
  -0.33508116 -0.35247892]
 [ 0.45041406 -0.07196073 -0.16620752  0.05134299  0.37995237 -0.33599657
   0.309217   -0.08303336]
 [-0.33359167  0.18440464 -0.38711134 -0.08749075  0.5682182   0.22588299
  -0.2925503   0.23324224]
 [ 0.28858706  0.49777892 -0.51963985 -0.48989004  0.2572628   0.51773095
  -0.15572453 -0.32072225]
 [ 0.32042655  0.1594495  -0.338634    0.23508903  0.53114945 -0.5097772
  -0.19039871 -0.50728554]
 [ 0.00171026  0.00105306  0.00075278  0.00094585  0.00073066  0.00099526
   0.00066307  0.00100432]
 [ 0.00167574  0.00102109  0.00070693  0.000923    0.0007      0.00093555
   0.00061519  0.00094566]
 [ 0.00173262  0.00105453  0.00097284  0.00096644  0.00093612  0.00098208
   0.00066191  0.00096785]
 [ 0.23298775  0.2363154   0.10817637 -0.37842613  0.14330876  0.13607547
   0.2514477   0.4353628 ]
 [ 0.5159527  -0.01592734 -0.5699016   0.49620965  0.2677436  -0.22297184
   0.5454496   0.28667784]
 [-0.2802076  -0.15321271  0.14202344 -0.46630678  0.36532483  0.18388627
  -0.16886038  0.078339  ]] 
Episode: 60: [[-0.11729766  0.01819443 -0.54953736  0.50721484  0.513893    0.3416366
  -0.0988102   0.3687908 ]
 [-0.31225362  0.47390312 -0.4400571  -0.4896209  -0.10417927  0.53211147
  -0.3351038  -0.35249823]
 [ 0.45043337 -0.0719367  -0.16618532  0.05136603  0.37997428 -0.33597374
   0.3092398  -0.08301348]
 [-0.33357126  0.18442798 -0.38708967 -0.08746799  0.56823987  0.22590505
  -0.29252803  0.23326251]
 [ 0.28856742  0.49775574 -0.5196619  -0.48991254  0.25724116  0.5177089
  -0.155747   -0.32074174]
 [ 0.32044557  0.15947314 -0.33861217  0.2351116   0.53117114 -0.50975466
  -0.19037616 -0.5072658 ]
 [ 0.00168997  0.00102964  0.00073136  0.00092292  0.00070874  0.00097319
   0.0006409   0.00098421]
 [ 0.00165617  0.00099768  0.00068476  0.00090048  0.00067816  0.0009132
   0.0005926   0.00092647]
 [ 0.001713    0.0010306   0.00095063  0.00094355  0.00091403  0.00095931
   0.00063909  0.00094772]
 [ 0.23300774  0.23633853  0.10819758 -0.37840334  0.14333047  0.13609733
   0.2514696   0.43538272]
 [ 0.5159335  -0.01595055 -0.56992346  0.49618733  0.2677221  -0.22299391
   0.5454273   0.28665894]
 [-0.28018814 -0.15318863  0.14204572 -0.46628374  0.36534694  0.18390906
  -0.16883747  0.07835902]] 
Episode: 61: [[-0.11728884  0.01820623 -0.54952663  0.50722635  0.5139047   0.34164652
  -0.09879949  0.36879885]
 [-0.3122613   0.47389233 -0.44006768 -0.48963138 -0.10419025  0.5321021
  -0.33511412 -0.3525046 ]
 [ 0.4504415  -0.07192446 -0.166174    0.05137794  0.37998635 -0.33596295
   0.30925134 -0.08300569]
 [-0.3335626   0.18443929 -0.38707912 -0.08745703  0.5682509   0.2259147
  -0.29251757  0.23327042]
 [ 0.2885601   0.49774542 -0.51967216 -0.48992273  0.2572307   0.51769996
  -0.15575694 -0.32074818]
 [ 0.32045367  0.15948525 -0.33860084  0.23512329  0.5311831  -0.5097438
  -0.1903645  -0.5072578 ]
 [ 0.00168122  0.001018    0.00072085  0.00091147  0.00069704  0.00096331
   0.0006304   0.00097624]
 [ 0.0016484   0.00098671  0.00067411  0.00088988  0.00066696  0.00090362
   0.00058217  0.00092009]
 [ 0.00170498  0.0010189   0.00093981  0.00093223  0.00090236  0.00094899
   0.00062798  0.00094012]
 [ 0.23301631  0.23635001  0.10820803 -0.37839186  0.14334211  0.13610715
   0.25147998  0.4353906 ]
 [ 0.5159258  -0.01596162 -0.5699342   0.4961766   0.26771086 -0.22300352
   0.54541683  0.2866525 ]
 [-0.28017992 -0.15317641  0.14205696 -0.46627188  0.36535907  0.18391973
  -0.16882592  0.07836679]] 
Episode: 62: [[-1.1726835e-01  1.8229315e-02 -5.4950368e-01  5.0724977e-01
   5.1392859e-01  3.4166792e-01 -9.8776422e-02  3.6881867e-01]
 [-3.1228098e-01  4.7386992e-01 -4.4009033e-01 -4.8965448e-01
  -1.0421370e-01  5.3208059e-01 -3.3513695e-01 -3.5252321e-01]
 [ 4.5046148e-01 -7.1900688e-02 -1.6615075e-01  5.1402453e-02
   3.8001096e-01 -3.3594018e-01  3.0927539e-01 -8.2986072e-02]
 [-3.3354267e-01  1.8446150e-01 -3.8705671e-01 -8.7434553e-02
   5.6827366e-01  2.2593543e-01 -2.9249519e-01  2.3328969e-01]
 [ 2.8854111e-01  4.9772379e-01 -5.1969421e-01 -4.8994529e-01
   2.5720805e-01  5.1767921e-01 -1.5577914e-01 -3.2076657e-01]
 [ 3.2047343e-01  1.5950878e-01 -3.3857769e-01  2.3514745e-01
   5.3120744e-01 -5.0972104e-01 -1.9034041e-01 -5.0723803e-01]
 [ 1.6609400e-03  9.9513284e-04  6.9829432e-04  8.8807440e-04
   6.7316520e-04  9.4194175e-04  6.0768740e-04  9.5651520e-04]
 [ 1.6284788e-03  9.6388196e-04  6.5129588e-04  8.6650747e-04
   6.4311380e-04  8.8166853e-04  5.5906881e-04  9.0132246e-04]
 [ 1.6854486e-03  9.9603110e-04  9.1751362e-04  9.0878637e-04
   8.7847689e-04  9.2710601e-04  6.0481002e-04  9.2110975e-04]
 [ 2.3303637e-01  2.3637268e-01  1.0823048e-01 -3.7836841e-01
   1.4336590e-01  1.3612838e-01  2.5150251e-01  4.3541014e-01]
 [ 5.1590592e-01 -1.5984612e-02 -5.6995726e-01  4.9615303e-01
   2.6768687e-01 -2.2302558e-01  5.4539359e-01  2.8663364e-01]
 [-2.8015989e-01 -1.5315275e-01  1.4207995e-01 -4.6624750e-01
   3.6538365e-01  1.8394220e-01 -1.6880199e-01  7.8386232e-02]] 
Episode: 63: [[-1.17268041e-01  1.82321277e-02 -5.49500406e-01  5.07252693e-01
   5.13931394e-01  3.41668606e-01 -9.87746865e-02  3.68819028e-01]
 [-3.12280387e-01  4.73867834e-01 -4.40093011e-01 -4.89657193e-01
  -1.04216360e-01  5.32079816e-01 -3.35138381e-01 -3.52522463e-01]
 [ 4.50463802e-01 -7.18944222e-02 -1.66144818e-01  5.14089167e-02
   3.80017400e-01 -3.35935980e-01  3.09280604e-01 -8.29831064e-02]
 [-3.33543599e-01  1.84462696e-01 -3.87054712e-01 -8.74332562e-02
   5.68274677e-01  2.25934729e-01 -2.92494774e-01  2.33288705e-01]
 [ 2.88542658e-01  4.97722775e-01 -5.19696116e-01 -4.89947289e-01
   2.57206500e-01  5.17679393e-01 -1.55779749e-01 -3.20765376e-01]
 [ 3.20475787e-01  1.59515008e-01 -3.38571548e-01  2.35153869e-01
   5.31213701e-01 -5.09716570e-01 -1.90334842e-01 -5.07234573e-01]
 [ 1.66114478e-03  9.92799527e-04  6.95739815e-04  8.85401503e-04
   6.70639973e-04  9.41525737e-04  6.06564339e-04  9.56522708e-04]
 [ 1.62861310e-03  9.61128681e-04  6.48212794e-04  8.63353431e-04
   6.39819948e-04  8.80248146e-04  5.57154126e-04  9.01682477e-04]
 [ 1.68426475e-03  9.91424196e-04  9.13336175e-04  9.04093962e-04
   8.73495534e-04  9.24487482e-04  6.01088104e-04  9.19572427e-04]
 [ 2.33036026e-01  2.36374840e-01  1.08233035e-01 -3.78365606e-01
   1.43368423e-01  1.36128753e-01  2.51503527e-01  4.35409993e-01]
 [ 5.15905619e-01 -1.59879774e-02 -5.69961071e-01  4.96149242e-01
   2.67682999e-01 -2.23027542e-01  5.45391142e-01  2.86633462e-01]
 [-2.80157715e-01 -1.53146818e-01  1.42085373e-01 -4.66241360e-01
   3.65389794e-01  1.83945864e-01 -1.68797091e-01  7.83887878e-02]] 
Episode: 64: [[-1.17274456e-01  1.82273854e-02 -5.49504519e-01  5.07248998e-01
   5.13927996e-01  3.41662467e-01 -9.87796336e-02  3.68812799e-01]
 [-3.12272340e-01  4.73873615e-01 -4.40087587e-01 -4.89652902e-01
  -1.04212135e-01  5.32086790e-01 -3.35132569e-01 -3.52514982e-01]
 [ 4.50461090e-01 -7.18936324e-02 -1.66144371e-01  5.14108166e-02
   3.80019367e-01 -3.35936844e-01  3.09280962e-01 -8.29845741e-02]
 [-3.33552152e-01  1.84455484e-01 -3.87060970e-01 -8.74395221e-02
   5.68268478e-01  2.25926295e-01 -2.92501986e-01  2.33280182e-01]
 [ 2.88552016e-01  4.97729927e-01 -5.19689500e-01 -4.89941925e-01
   2.57212222e-01  5.17687678e-01 -1.55772716e-01 -3.20757002e-01]
 [ 3.20473254e-01  1.59515902e-01 -3.38570684e-01  2.35155821e-01
   5.31215727e-01 -5.09716928e-01 -1.90333918e-01 -5.07235348e-01]
 [ 1.66851131e-03  9.98455798e-04  7.01013545e-04  8.89760267e-04
   6.74772833e-04  9.48330970e-04  6.12523232e-04  9.63517989e-04]
 [ 1.63586019e-03  9.65848856e-04  6.52935065e-04  8.66831921e-04
   6.43044419e-04  8.86138005e-04  5.62073488e-04  9.08452435e-04]
 [ 1.68910983e-03  9.93289636e-04  9.15610057e-04  9.05006716e-04
   8.73994315e-04  9.27915680e-04  6.03226013e-04  9.23505286e-04]
 [ 2.33028695e-01  2.36369237e-01  1.08227938e-01 -3.78369629e-01
   1.43364459e-01  1.36122108e-01  2.51497656e-01  4.35403019e-01]
 [ 5.15911937e-01 -1.59843657e-02 -5.69957495e-01  4.96151626e-01
   2.67685175e-01 -2.23022684e-01  5.45395017e-01  2.86639214e-01]
 [-2.80160844e-01 -1.53146669e-01  1.42085016e-01 -4.66240078e-01
   3.65391165e-01  1.83944136e-01 -1.68797359e-01  7.83865824e-02]] 
Episode: 65: [[-1.17267296e-01  1.82356201e-02 -5.49495459e-01  5.07257640e-01
   5.13937294e-01  3.41670036e-01 -9.87713486e-02  3.68819922e-01]
 [-3.12277466e-01  4.73866671e-01 -4.40095246e-01 -4.89660531e-01
  -1.04220137e-01  5.32080531e-01 -3.35139841e-01 -3.52520555e-01]
 [ 4.50472057e-01 -7.18795806e-02 -1.66130275e-01  5.14250398e-02
   3.80034238e-01 -3.35924178e-01  3.09294879e-01 -8.29723850e-02]
 [-3.33547384e-01  1.84460998e-01 -3.87054354e-01 -8.74335691e-02
   5.68274796e-01  2.25931257e-01 -2.92496234e-01  2.33284727e-01]
 [ 2.88548350e-01  4.97724533e-01 -5.19695818e-01 -4.89948392e-01
   2.57205814e-01  5.17682910e-01 -1.55778617e-01 -3.20761502e-01]
 [ 3.20484430e-01  1.59530103e-01 -3.38556170e-01  2.35170171e-01
   5.31230688e-01 -5.09703755e-01 -1.90319464e-01 -5.07222474e-01]
 [ 1.66242011e-03  9.91224544e-04  6.93229493e-04  8.81866086e-04
   6.66269218e-04  9.41565726e-04  6.05346111e-04  9.57242912e-04]
 [ 1.62981346e-03  9.57672193e-04  6.44397165e-04  8.58287967e-04
   6.33932534e-04  8.78617866e-04  5.53768652e-04  9.01996274e-04]
 [ 1.68056577e-03  9.82153811e-04  9.04494140e-04  8.93724675e-04
   8.61851149e-04  9.18058387e-04  5.92083088e-04  9.14044038e-04]
 [ 2.33034879e-01  2.36376613e-01  1.08236000e-01 -3.78361344e-01
   1.43373176e-01  1.36129066e-01  2.51505017e-01  4.35409397e-01]
 [ 5.15904903e-01 -1.59937143e-02 -5.69967330e-01  4.96141970e-01
   2.67674953e-01 -2.23031312e-01  5.45385599e-01  2.86631703e-01]
 [-2.80150324e-01 -1.53133273e-01  1.42098293e-01 -4.66226429e-01
   3.65405381e-01  1.83955938e-01 -1.68784067e-01  7.83980414e-02]] 
Episode: 66: [[-1.17264993e-01  1.82388648e-02 -5.49491942e-01  5.07261455e-01
