Episode: 1: [[-0.11657108  0.01925944 -0.5485631   0.5081599   0.51482797  0.34263572
  -0.09813324  0.36980087]
 [-0.31287375  0.4729509  -0.44070682 -0.4904909  -0.10482257  0.5312401
  -0.33566955 -0.35339358]
 [ 0.45142373 -0.07081959 -0.16514593  0.05238764  0.38095844 -0.33493564
   0.3099484  -0.08199146]
 [-0.33293104  0.18539287 -0.3864072  -0.08661058  0.568887    0.22681153
  -0.2919255   0.23418397]
 [ 0.28799024  0.49685922 -0.52026755 -0.49073985  0.2566427   0.5170866
  -0.15627958 -0.32159573]
 [ 0.32144564  0.16059367 -0.3375632   0.2361349   0.5321596  -0.50870615
  -0.18964416 -0.5062304 ]
 [ 0.001       0.          0.          0.          0.          0.
   0.          0.        ]
 [ 0.001       0.          0.          0.          0.          0.
   0.          0.        ]
 [ 0.001       0.          0.          0.          0.          0.
   0.          0.        ]
 [ 0.23370929  0.23737404  0.10893833 -0.37746835  0.14405029  0.13707826
   0.25212246  0.43637034]
 [ 0.51523185 -0.01700069 -0.57065964  0.49524948  0.2670042  -0.22395086
   0.5447955   0.28569257]
 [-0.279218   -0.1521027   0.14305349 -0.4652852   0.3663096   0.18491977
  -0.16814803  0.0793543 ]] 
Episode: 2: [[-1.16471089e-01  1.91594437e-02 -5.48663139e-01  5.08059859e-01
   5.14727950e-01  3.42535734e-01 -9.82332453e-02  3.69700879e-01]
 [-3.12773764e-01  4.72850919e-01 -4.40806806e-01 -4.90590900e-01
  -1.04922570e-01  5.31140089e-01 -3.35769534e-01 -3.53493571e-01]
 [ 4.51323748e-01 -7.07195923e-02 -1.65245935e-01  5.22876419e-02
   3.80858451e-01 -3.35035622e-01  3.10048401e-01 -8.20914507e-02]
 [-3.32831055e-01  1.85492873e-01 -3.86307210e-01 -8.65105763e-02
   5.68987012e-01  2.26911530e-01 -2.91825503e-01  2.34283969e-01]
 [ 2.88090229e-01  4.96959209e-01 -5.20167530e-01 -4.90639865e-01
   2.56742686e-01  5.17186642e-01 -1.56179577e-01 -3.21495742e-01]
 [ 3.21345657e-01  1.60493672e-01 -3.37663174e-01  2.36034900e-01
   5.32059610e-01 -5.08806169e-01 -1.89744160e-01 -5.06330431e-01]
 [ 9.00000043e-04  9.99999975e-05 -1.00000005e-04  9.99999975e-05
  -9.99999902e-05  1.00000005e-04 -9.99999902e-05 -9.99999975e-05]
 [ 9.00000043e-04  9.99999902e-05 -9.99999902e-05 -9.99998956e-05
  -1.00000005e-04 -9.99999975e-05  9.99999902e-05  9.99999975e-05]
 [ 9.00000043e-04  9.99999902e-05 -9.99999902e-05  9.99999975e-05
  -9.99999902e-05  1.00000005e-04  9.99999029e-05 -9.99999975e-05]
 [ 2.33809292e-01  2.37274036e-01  1.08838327e-01 -3.77368361e-01
   1.43950284e-01  1.37178257e-01  2.52022475e-01  4.36270356e-01]
 [ 5.15131831e-01 -1.71006937e-02 -5.70759654e-01  4.95149493e-01
   2.66904205e-01 -2.24050865e-01  5.44895530e-01  2.85592586e-01]
 [-2.79317975e-01 -1.52002692e-01  1.42953500e-01 -4.65385199e-01
   3.66209626e-01  1.84819773e-01 -1.68248028e-01  7.92542994e-02]] 
Episode: 3: [[-1.1639244e-01  1.9096540e-02 -5.4875815e-01  5.0813329e-01
   5.1473606e-01  3.4260482e-01 -9.8332219e-02  3.6961165e-01]
 [-3.1280929e-01  4.7279504e-01 -4.4089791e-01 -4.9068683e-01
  -1.0502210e-01  5.3108323e-01 -3.3584553e-01 -3.5352355e-01]
 [ 4.5124781e-01 -7.0620455e-02 -1.6532928e-01  5.2196972e-02
   3.8083747e-01 -3.3513233e-01  3.1012550e-01 -8.2146056e-02]
 [-3.3273166e-01  1.8544541e-01 -3.8621700e-01 -8.6417153e-02
   5.6896144e-01  2.2700621e-01 -2.9182473e-01  2.3436697e-01]
 [ 2.8802532e-01  4.9691343e-01 -5.2007806e-01 -4.9054801e-01
   2.5668612e-01  5.1719916e-01 -1.5616268e-01 -3.2140040e-01]
 [ 3.2126334e-01  1.6051067e-01 -3.3775330e-01  2.3599137e-01
   5.3208822e-01 -5.0884002e-01 -1.8977594e-01 -5.0642937e-01]
 [ 9.3846174e-04  7.1724302e-05 -1.5324098e-04  1.8385876e-04
  -1.9975136e-04  6.2955565e-05 -1.8077895e-04 -1.9707343e-04]
 [ 8.0635515e-04  1.8295155e-04 -1.7707214e-04 -2.7053680e-05
  -1.4934775e-04 -3.6719062e-05  6.4022257e-05  1.9988892e-04]
 [ 9.3119708e-04  9.0070782e-05 -1.8252694e-04  1.8391744e-04
  -1.9407256e-04  6.7903980e-05  2.6078689e-05 -1.9506285e-04]
 [ 2.3390637e-01  2.3723553e-01  1.0873912e-01 -3.7742966e-01
   1.4385273e-01  1.3726573e-01  2.5196007e-01  4.3617123e-01]
 [ 5.1503783e-01 -1.7196873e-02 -5.7084876e-01  4.9517161e-01
   2.6680505e-01 -2.2398303e-01  5.4483908e-01  2.8564560e-01]
 [-2.7939641e-01 -1.5190838e-01  1.4292508e-01 -4.6542025e-01
   3.6624560e-01  1.8471985e-01 -1.6821153e-01  7.9181679e-02]] 
Episode: 4: [[-1.1635255e-01  1.9044785e-02 -5.4884434e-01  5.0813669e-01
   5.1468402e-01  3.4266016e-01 -9.8334730e-02  3.6961132e-01]
 [-3.1277972e-01  4.7272450e-01 -4.4099239e-01 -4.9078140e-01
  -1.0511782e-01  5.3108376e-01 -3.3585408e-01 -3.5349867e-01]
 [ 4.5116442e-01 -7.0634566e-02 -1.6541980e-01  5.2211218e-02
   3.8088039e-01 -3.3513781e-01  3.1008229e-01 -8.2220420e-02]
 [-3.3265966e-01  1.8546282e-01 -3.8612321e-01 -8.6436540e-02
   5.6893694e-01  2.2699212e-01 -2.9176998e-01  2.3438725e-01]
 [ 2.8806689e-01  4.9690175e-01 -5.1999110e-01 -4.9055201e-01
   2.5668633e-01  5.1714033e-01 -1.5610777e-01 -3.2133350e-01]
 [ 3.2117328e-01  1.6048113e-01 -3.3784553e-01  2.3603328e-01
   5.3209877e-01 -5.0880605e-01 -1.8982534e-01 -5.0644225e-01]
 [ 8.9741859e-04  1.8855406e-05 -1.1679342e-04  2.3958182e-04
  -2.8181891e-04  3.3734068e-05 -2.6930339e-04 -2.9506625e-04]
 [ 7.2024850e-04  1.4780309e-04 -2.5107746e-04 -6.5100437e-05
  -2.0826128e-04 -3.2413114e-05  4.1170006e-05  1.8092724e-04]
 [ 8.8648952e-04  3.3687793e-05 -1.6016827e-04  2.3480559e-04
  -2.7750665e-04  3.4823031e-05 -5.5028515e-05 -2.8999968e-04]
 [ 2.3389882e-01  2.3717724e-01  1.0863992e-01 -3.7749720e-01
   1.4377888e-01  1.3735235e-01  2.5195876e-01  4.3613169e-01]
 [ 5.1506937e-01 -1.7286381e-02 -5.7094240e-01  4.9515581e-01
   2.6670527e-01 -2.2399417e-01  5.4486549e-01  2.8571537e-01]
 [-2.7948329e-01 -1.5185213e-01  1.4285760e-01 -4.6537605e-01
   3.6631376e-01  1.8471675e-01 -1.6826558e-01  7.9182945e-02]] 
Episode: 5: [[-1.16290614e-01  1.89834777e-02 -5.48877299e-01  5.08163393e-01
   5.14660239e-01  3.42718005e-01 -9.83459949e-02  3.69575649e-01]
 [-3.12730134e-01  4.72754270e-01 -4.41049665e-01 -4.90845412e-01
  -1.05172545e-01  5.31078398e-01 -3.35892230e-01 -3.53540182e-01]
 [ 4.51079965e-01 -7.06331432e-02 -1.65512308e-01  5.21881096e-02
   3.80908221e-01 -3.35178673e-01  3.10035497e-01 -8.21683705e-02]
 [-3.32579225e-01  1.85457706e-01 -3.86048228e-01 -8.64537582e-02
   5.68892777e-01  2.26998195e-01 -2.91711599e-01  2.34369308e-01]
 [ 2.88102627e-01  4.96918529e-01 -5.19909859e-01 -4.90563154e-01
   2.56654978e-01  5.17114878e-01 -1.56047136e-01 -3.21285695e-01]
 [ 3.21108907e-01  1.60448819e-01 -3.37917268e-01  2.36078441e-01
   5.32129109e-01 -5.08782446e-01 -1.89891994e-01 -5.06421268e-01]
 [ 8.50423647e-04  2.38921439e-05 -5.78188883e-05  2.59594439e-04
  -3.67840519e-04  3.40960614e-05 -3.08914081e-04 -3.89950670e-04]
 [ 6.34747033e-04  1.05842460e-04 -2.87396571e-04 -1.13831549e-04
  -2.76994397e-04 -5.85359849e-05  4.28207568e-05  2.02357012e-04]
 [ 8.36347404e-04  2.57711163e-05 -1.08028609e-04  2.51039455e-04
  -3.65278567e-04  2.95957325e-05 -8.86686685e-05 -3.85349995e-04]
 [ 2.33955026e-01  2.37115040e-01  1.08566605e-01 -3.77534121e-01
   1.43723324e-01  1.37429759e-01  2.51933157e-01  4.36070204e-01]
 [ 5.15079260e-01 -1.72896739e-02 -5.70994377e-01  4.95140046e-01
   2.66654462e-01 -2.23962054e-01  5.44836283e-01  2.85734862e-01]
 [-2.79551089e-01 -1.51802644e-01  1.42777443e-01 -4.65353280e-01
   3.66383165e-01  1.84740007e-01 -1.68330938e-01  7.92357996e-02]] 
Episode: 6: [[-1.16217345e-01  1.89802926e-02 -5.48937380e-01  5.08216619e-01
   5.14680505e-01  3.42705548e-01 -9.83561501e-02  3.69572878e-01]
 [-3.12661350e-01  4.72807497e-01 -4.41120863e-01 -4.90839481e-01
  -1.05205260e-01  5.31024098e-01 -3.35854292e-01 -3.53579313e-01]
 [ 4.50990647e-01 -7.06523657e-02 -1.65544599e-01  5.21633960e-02
   3.80943030e-01 -3.35189193e-01  3.09979647e-01 -8.21719393e-02]
 [-3.32497656e-01  1.85453117e-01 -3.85974407e-01 -8.64739046e-02
   5.68845451e-01  2.27023661e-01 -2.91662812e-01  2.34350547e-01]
 [ 2.88154125e-01  4.96941119e-01 -5.19822419e-01 -4.90548909e-01
   2.56624103e-01  5.17115295e-01 -1.55997872e-01 -3.21285635e-01]
 [ 3.21032703e-01  1.60424203e-01 -3.37991804e-01  2.36130416e-01
   5.32169282e-01 -5.08780181e-01 -1.89940736e-01 -5.06380618e-01]
 [ 8.13861610e-04  3.93860209e-05 -7.58468814e-05  2.46761192e-04
  -4.53590503e-04  4.19168609e-05 -3.40139202e-04 -4.84684686e-04]
 [ 5.47408068e-04  7.30344182e-05 -3.10852251e-04 -1.81971904e-04
  -3.55907308e-04 -8.84694891e-05  2.50465982e-05  2.17777924e-04]
 [ 7.95101281e-04  3.15298130e-05 -1.25939434e-04  2.33576822e-04
  -4.56201989e-04  3.17186787e-05 -1.19470722e-04 -4.79714043e-04]
 [ 2.34024063e-01  2.37118557e-01  1.08490445e-01 -3.77540171e-01
   1.43697575e-01  1.37406051e-01  2.51966029e-01  4.36060697e-01]
 [ 5.15133798e-01 -1.72557607e-02 -5.71058869e-01  4.95177686e-01
   2.66659498e-01 -2.23998681e-01  5.44858336e-01  2.85733670e-01]
 [-2.79626548e-01 -1.51810184e-01  1.42804280e-01 -4.65325683e-01
   3.66444170e-01  1.84778646e-01 -1.68404281e-01  7.92778134e-02]] 
Episode: 7: [[-1.1613800e-01  1.8979056e-02 -5.4899490e-01  5.0822121e-01
   5.1468658e-01  3.4266153e-01 -9.8382339e-02  3.6956820e-01]
 [-3.1258363e-01  4.7281536e-01 -4.4119343e-01 -4.9087855e-01
  -1.0525632e-01  5.3095621e-01 -3.3584514e-01 -3.5361362e-01]
 [ 4.5090830e-01 -7.0640266e-02 -1.6557559e-01  5.2199397e-02
   3.8099763e-01 -3.3516285e-01  3.0995494e-01 -8.2194358e-02]
 [-3.3243704e-01  1.8542264e-01 -3.8590953e-01 -8.6520538e-02
   5.6879008e-01  2.2701269e-01 -2.9164293e-01  2.3433512e-01]
 [ 2.8820267e-01  4.9695307e-01 -5.1976675e-01 -4.9055099e-01
   2.5659046e-01  5.1710218e-01 -1.5597641e-01 -3.2130548e-01]
 [ 3.2098702e-01  1.6044393e-01 -3.3806947e-01  2.3619914e-01
   5.3222144e-01 -5.0875950e-01 -1.8998922e-01 -5.0637192e-01]
 [ 7.8307989e-04  1.6091029e-05 -9.5578980e-05  2.4113184e-04
  -5.4346328e-04  3.7082275e-05 -3.5998662e-04 -5.4378423e-04]
 [ 5.1278120e-04  5.8855036e-05 -3.2291983e-04 -2.4315955e-04
  -4.3703042e-04 -1.3525524e-04  2.5720733e-06  2.2372141e-04]
 [ 7.6334440e-04  5.3967442e-06 -1.4485142e-04  2.2186695e-04
  -5.4975058e-04  1.7318491e-05 -1.4016067e-04 -5.3868315e-04]
 [ 2.3408610e-01  2.3709834e-01  1.0841522e-01 -3.7758508e-01
   1.4365827e-01  1.3735965e-01  2.5199518e-01  4.3605083e-01]
 [ 5.1520056e-01 -1.7250322e-02 -5.7112736e-01  4.9519113e-01
   2.6664308e-01 -2.2405545e-01  5.4485595e-01  2.8572702e-01]
 [-2.7968481e-01 -1.5176940e-01  1.4284684e-01 -4.6527034e-01
   3.6651805e-01  1.8484056e-01 -1.6842102e-01  7.9279907e-02]] 
Episode: 8: [[-1.16071984e-01  1.89806316e-02 -5.49037993e-01  5.08238077e-01
   5.14684856e-01  3.42613667e-01 -9.83949080e-02  3.69564980e-01]
 [-3.12537968e-01  4.72802818e-01 -4.41248447e-01 -4.90914017e-01
  -1.05314307e-01  5.30894339e-01 -3.35870862e-01 -3.53669465e-01]
 [ 4.50850338e-01 -7.06329942e-02 -1.65630132e-01  5.22154532e-02
   3.81043106e-01 -3.35140765e-01  3.09946656e-01 -8.22110921e-02]
 [-3.32388341e-01  1.85395107e-01 -3.85839403e-01 -8.65551382e-02
   5.68738997e-01  2.26994202e-01 -2.91634619e-01  2.34331787e-01]
 [ 2.88237363e-01  4.96948034e-01 -5.19700885e-01 -4.90561306e-01
   2.56545901e-01  5.17095149e-01 -1.55991837e-01 -3.21321309e-01]
 [ 3.20971459e-01  1.60481200e-01 -3.38152975e-01  2.36254916e-01
   5.32274127e-01 -5.08742929e-01 -1.90017834e-01 -5.06362736e-01]
 [ 7.53783213e-04 -2.78105563e-05 -1.01938356e-04  2.53350299e-04
  -6.36187207e-04  5.40333785e-05 -3.49963695e-04 -6.01790554e-04]
 [ 5.03408723e-04  4.55714217e-05 -3.46755958e-04 -2.68326636e-04
  -5.21742681e-04 -1.89365572e-04  1.26508667e-05  2.61378009e-04]
 [ 7.34733010e-04 -4.03725717e-05 -1.51455431e-04  2.30139834e-04
  -6.45157415e-04  2.71019217e-05 -1.29177526e-04 -5.93953184e-04]
 [ 2.34147087e-01  2.37101659e-01  1.08348571e-01 -3.77619326e-01
   1.43634379e-01  1.37304753e-01  2.52005160e-01  4.36039031e-01]
 [ 5.15240490e-01 -1.72727164e-02 -5.71183801e-01  4.95207548e-01
   2.66607314e-01 -2.24111035e-01  5.44830143e-01  2.85712391e-01]
 [-2.79717982e-01 -1.51720956e-01  1.42841354e-01 -4.65237767e-01
   3.66590887e-01  1.84897438e-01 -1.68413892e-01  7.92879462e-02]] 
Episode: 9: [[-1.16045885e-01  1.89807452e-02 -5.49069762e-01  5.08269727e-01
   5.14703572e-01  3.42556566e-01 -9.84327644e-02  3.69544476e-01]
 [-3.12521100e-01  4.72787470e-01 -4.41294104e-01 -4.90965605e-01
  -1.05367921e-01  5.30841947e-01 -3.35905224e-01 -3.53705168e-01]
 [ 4.50821728e-01 -7.06654638e-02 -1.65680662e-01  5.22297546e-02
   3.81083786e-01 -3.35160375e-01  3.09955537e-01 -8.21992084e-02]
 [-3.32356185e-01  1.85412258e-01 -3.85779470e-01 -8.65974873e-02
   5.68685472e-01  2.27021798e-01 -2.91639507e-01  2.34305829e-01]
 [ 2.88272202e-01  4.96971756e-01 -5.19657612e-01 -4.90604550e-01
   2.56499916e-01  5.17129898e-01 -1.56021044e-01 -3.21351200e-01]
 [ 3.20970386e-01  1.60475254e-01 -3.38225901e-01  2.36316279e-01
   5.32330632e-01 -5.08771241e-01 -1.90034941e-01 -5.06352901e-01]
 [ 7.30027503e-04 -5.27081902e-05 -1.02420323e-04  2.57962645e-04
  -7.12910609e-04  5.72706304e-05 -3.47214198e-04 -6.47260167e-04]
 [ 5.01440838e-04  3.59805490e-05 -3.48818896e-04 -2.89155112e-04
  -6.02679094e-04 -2.37367552e-04  3.55185171e-06  2.84800451e-04]
 [ 7.12249079e-04 -6.58952122e-05 -1.49680622e-04  2.31666345e-04
  -7.26246799e-04  2.44805160e-05 -1.27794745e-04 -6.38406957e-04]
 [ 2.34157905e-01  2.37108305e-01  1.08298786e-01 -3.77623111e-01
   1.43616185e-01  1.37243271e-01  2.51989424e-01  4.36030716e-01]
 [ 5.15275717e-01 -1.73041504e-02 -5.71235359e-01  4.95205075e-01
   2.66586006e-01 -2.24167377e-01  5.44786572e-01  2.85691261e-01]
 [-2.79723585e-01 -1.51714459e-01  1.42829031e-01 -4.65202123e-01
   3.66663098e-01  1.84914544e-01 -1.68386713e-01  7.93107525e-02]] 
Episode: 10: [[-1.1602209e-01  1.8973529e-02 -5.4910761e-01  5.0827360e-01
   5.1472396e-01  3.4251142e-01 -9.8479427e-02  3.6951318e-01]
 [-3.1251058e-01  4.7276324e-01 -4.4134629e-01 -4.9102986e-01
  -1.0541762e-01  5.3080058e-01 -3.3594364e-01 -3.5372645e-01]
 [ 4.5079374e-01 -7.0691258e-02 -1.6570398e-01  5.2257977e-02
   3.8111630e-01 -3.3517477e-01  3.0997217e-01 -8.2187884e-02]
 [-3.3233181e-01  1.8542846e-01 -3.8573456e-01 -8.6634330e-02
   5.6864172e-01  2.2704259e-01 -2.9164836e-01  2.3428319e-01]
 [ 2.8830108e-01  4.9698395e-01 -5.1963133e-01 -4.9063703e-01
   2.5645211e-01  5.1715875e-01 -1.5604968e-01 -3.2136992e-01]
 [ 3.2097724e-01  1.6047762e-01 -3.3827868e-01  2.3637272e-01
   5.3238308e-01 -5.0879496e-01 -1.9003136e-01 -5.0635070e-01]
 [ 7.0834038e-04 -7.2605486e-05 -1.1441126e-04  2.4925196e-04
  -7.8558904e-04  6.8736284e-05 -3.6099282e-04 -6.9232471e-04]
 [ 4.9123488e-04  4.1096973e-05 -3.2047680e-04 -3.1715073e-04
  -6.8140333e-04 -2.8864975e-04 -2.2705410e-05  2.6458825e-04]
 [ 6.9094339e-04 -8.4233710e-05 -1.5513845e-04  2.1958091e-04
  -8.0285338e-04  3.0087393e-05 -1.4308374e-04 -6.8664696e-04]
 [ 2.3415799e-01  2.3711124e-01  1.0824516e-01 -3.7764990e-01
   1.4360568e-01  1.3718480e-01  2.5196582e-01  4.3601286e-01]
 [ 5.1531559e-01 -1.7339408e-02 -5.7129240e-01  4.9518761e-01
   2.6656872e-01 -2.2421168e-01  5.4473925e-01  2.8568459e-01]
 [-2.7972651e-01 -1.5170343e-01  1.4282401e-01 -4.6515194e-01
   3.6672983e-01  1.8492143e-01 -1.6834967e-01  7.9338357e-02]] 
Episode: 11: [[-1.1600263e-01  1.8963462e-02 -5.4914564e-01  5.0827253e-01
   5.1475465e-01  3.4248570e-01 -9.8530769e-02  3.6949089e-01]
 [-3.1252107e-01  4.7273502e-01 -4.4140655e-01 -4.9110162e-01
  -1.0545473e-01  5.3079087e-01 -3.3597627e-01 -3.5375571e-01]
 [ 4.5076692e-01 -7.0713744e-02 -1.6572180e-01  5.2294388e-02
   3.8112050e-01 -3.3521506e-01  3.0999088e-01 -8.2171910e-02]
 [-3.3231235e-01  1.8542983e-01 -3.8568738e-01 -8.6682543e-02
   5.6861180e-01  2.2708207e-01 -2.9165989e-01  2.3425572e-01]
 [ 2.8831849e-01  4.9698728e-01 -5.1961595e-01 -4.9067551e-01
   2.5641498e-01  5.1719964e-01 -1.5607546e-01 -3.2138622e-01]
 [ 3.2098681e-01  1.6048741e-01 -3.3832538e-01  2.3644049e-01
   5.3242642e-01 -5.0883538e-01 -1.9004194e-01 -5.0633931e-01]
 [ 7.0414570e-04 -8.0461359e-05 -1.3527257e-04  2.3310783e-04
  -8.2272419e-04  8.3710234e-05 -3.7782258e-04 -7.3118327e-04]
 [ 4.8474743e-04  4.9153579e-05 -2.9949530e-04 -3.4862332e-04
  -7.6130615e-04 -3.3476658e-04 -5.2886124e-05  2.4412910e-04]
 [ 6.8662496e-04 -9.0542460e-05 -1.7139176e-04  2.0063887e-04
  -8.4872631e-04  4.0528794e-05 -1.6218011e-04 -7.2861812e-04]
 [ 2.3415005e-01  2.3710632e-01  1.0820312e-01 -3.7768427e-01
   1.4360367e-01  1.3714932e-01  2.5195947e-01  4.3599904e-01]
 [ 5.1534879e-01 -1.7370058e-02 -5.7135755e-01  4.9516234e-01
   2.6656505e-01 -2.2422706e-01  5.4469031e-01  2.8569025e-01]
 [-2.7972877e-01 -1.5169093e-01  1.4283161e-01 -4.6509233e-01
   3.6677685e-01  1.8490547e-01 -1.6832200e-01  7.9369321e-02]] 
Episode: 12: [[-1.16012536e-01  1.89371742e-02 -5.49187303e-01  5.08261621e-01
   5.14766157e-01  3.42457712e-01 -9.85757411e-02  3.69500995e-01]
 [-3.12553406e-01  4.72688496e-01 -4.41463023e-01 -4.91178542e-01
  -1.05509706e-01  5.30756056e-01 -3.36010307e-01 -3.53727728e-01]
 [ 4.50765997e-01 -7.07107484e-02 -1.65732220e-01  5.23437783e-02
   3.81151289e-01 -3.35224539e-01  3.10012251e-01 -8.22034702e-02]
 [-3.32306296e-01  1.85424402e-01 -3.85636449e-01 -8.67371038e-02
   5.68568945e-01  2.27110282e-01 -2.91679978e-01  2.34271988e-01]
 [ 2.88333684e-01  4.96986598e-01 -5.19585252e-01 -4.90710616e-01
   2.56373763e-01  5.17229974e-01 -1.56105265e-01 -3.21380317e-01]
 [ 3.21016788e-01  1.60519272e-01 -3.38365078e-01  2.36514226e-01
   5.32478452e-01 -5.08856118e-01 -1.90022647e-01 -5.06357968e-01]
 [ 6.88236149e-04 -1.21115729e-04 -1.65684498e-04  2.03290678e-04
  -8.72909091e-04  7.23718913e-05 -3.89214867e-04 -7.30323489e-04]
 [ 5.06110373e-04  4.96793364e-05 -3.18439008e-04 -3.86338477e-04
  -8.41827772e-04 -3.79018369e-04 -8.27049298e-05  2.23593335e-04]
 [ 6.75031799e-04 -1.30216475e-04 -2.04327836e-04  1.68721614e-04
  -9.06083966e-04  2.39572564e-05 -1.75986686e-04 -7.29715393e-04]
 [ 2.34123141e-01  2.37102821e-01  1.08162157e-01 -3.77726495e-01
   1.43584996e-01  1.37108207e-01  2.51959741e-01  4.36022043e-01]
 [ 5.15344977e-01 -1.74168684e-02 -5.71416855e-01  4.95132238e-01
   2.66540617e-01 -2.24258155e-01  5.44648230e-01  2.85729647e-01]
 [-2.79710919e-01 -1.51652515e-01  1.42859742e-01 -4.65022385e-01
   3.66840452e-01  1.84911385e-01 -1.68285355e-01  7.93499053e-02]] 
Episode: 13: [[-1.1602283e-01  1.8934093e-02 -5.4922694e-01  5.0825119e-01
   5.1477265e-01  3.4243473e-01 -9.8620109e-02  3.6951479e-01]
 [-3.1257036e-01  4.7264549e-01 -4.4151351e-01 -4.9123219e-01
  -1.0555644e-01  5.3072971e-01 -3.3603752e-01 -3.5369807e-01]
 [ 4.5077145e-01 -7.0712656e-02 -1.6573673e-01  5.2391898e-02
   3.8117316e-01 -3.3524093e-01  3.1003240e-01 -8.2239211e-02]
 [-3.3230659e-01  1.8542692e-01 -3.8559583e-01 -8.6793467e-02
   5.6853056e-01  2.2713691e-01 -2.9169956e-01  2.3429601e-01]
 [ 2.8835213e-01  4.9698859e-01 -5.1957279e-01 -4.9074289e-01
   2.5635025e-01  5.1726222e-01 -1.5612346e-01 -3.2136658e-01]
 [ 3.2104850e-01  1.6054748e-01 -3.3839479e-01  2.3658226e-01
   5.3251821e-01 -5.0887883e-01 -1.9000302e-01 -5.0637448e-01]
 [ 6.7622442e-04 -1.6241915e-04 -2.0161767e-04  1.8009485e-04
  -9.1219146e-04  6.9317772e-05 -3.8644194e-04 -7.2879990e-04]
 [ 5.3248601e-04  5.6163270e-05 -3.3630946e-04 -4.2338390e-04
  -9.1868249e-04 -4.2192021e-04 -1.0770267e-04  2.0194701e-04]
 [ 6.6777779e-04 -1.6966359e-04 -2.4256977e-04  1.4310422e-04
  -9.5260079e-04  1.6280366e-05 -1.7691126e-04 -7.3030993e-04]
 [ 2.3409952e-01  2.3710264e-01  1.0814266e-01 -3.7777057e-01
   1.4356275e-01  1.3707316e-01  2.5195482e-01  4.3604681e-01]
 [ 5.1535577e-01 -1.7455442e-02 -5.7147747e-01  4.9511531e-01
   2.6652294e-01 -2.2427195e-01  5.4461527e-01  2.8576615e-01]
 [-2.7969101e-01 -1.5162274e-01  1.4288670e-01 -4.6495879e-01
   3.6689740e-01  1.8490940e-01 -1.6826108e-01  7.9327114e-02]] 
Episode: 14: [[-1.1603284e-01  1.8905804e-02 -5.4923874e-01  5.0823438e-01
   5.1477927e-01  3.4241802e-01 -9.8679341e-02  3.6951146e-01]
 [-3.1258833e-01  4.7261781e-01 -4.4155395e-01 -4.9128434e-01
  -1.0559300e-01  5.3070503e-01 -3.3606210e-01 -3.5367289e-01]
 [ 4.5076439e-01 -7.0691019e-02 -1.6573395e-01  5.2443027e-02
   3.8119021e-01 -3.3525389e-01  3.1007266e-01 -8.2265355e-02]
 [-3.3229265e-01  1.8541382e-01 -3.8558325e-01 -8.6851455e-02
   5.6848985e-01  2.2715922e-01 -2.9173571e-01  2.3432240e-01]
 [ 2.8838721e-01  4.9699283e-01 -5.1958787e-01 -4.9077731e-01
   2.5631812e-01  5.1728529e-01 -1.5615557e-01 -3.2136062e-01]
 [ 3.2106298e-01  1.6058367e-01 -3.3839202e-01  2.3664820e-01
   5.3255624e-01 -5.0890040e-01 -1.8996523e-01 -5.0639749e-01]
 [ 6.5635331e-04 -1.9762861e-04 -2.4134916e-04  1.5881209e-04
  -9.3130977e-04  7.0086717e-05 -3.7852087e-04 -7.3128281e-04]
 [ 5.5232242e-04  5.4723456e-05 -3.5566580e-04 -4.7219798e-04
  -9.8122831e-04 -4.3844388e-04 -1.1975631e-04  1.9495589e-04]
 [ 6.5216777e-04 -2.0468218e-04 -2.8531087e-04  1.1778381e-04
  -9.7843038e-04  1.6316304e-05 -1.7189354e-04 -7.3350454e-04]
 [ 2.3406394e-01  2.3708013e-01  1.0814380e-01 -3.7781116e-01
   1.4354979e-01  1.3703984e-01  2.5193951e-01  4.3607113e-01]
 [ 5.1535845e-01 -1.7477844e-02 -5.7152641e-01  4.9509805e-01
   2.6650792e-01 -2.2428524e-01  5.4458642e-01  2.8578842e-01]
 [-2.7967408e-01 -1.5157957e-01  1.4291900e-01 -4.6489701e-01
   3.6694169e-01  1.8490297e-01 -1.6822763e-01  7.9297289e-02]] 
Episode: 15: [[-1.16049014e-01  1.88755523e-02 -5.49257994e-01  5.08219600e-01
   5.14784276e-01  3.42409462e-01 -9.87216383e-02  3.69496495e-01]
 [-3.12626094e-01  4.72595394e-01 -4.41592127e-01 -4.91331518e-01
  -1.05624579e-01  5.30681372e-01 -3.36091965e-01 -3.53667080e-01]
 [ 4.50763881e-01 -7.06765503e-02 -1.65715486e-01  5.24895526e-02
   3.81203949e-01 -3.35267574e-01  3.10101628e-01 -8.22800323e-02]
 [-3.32285672e-01  1.85408920e-01 -3.85580540e-01 -8.69069397e-02
   5.68459153e-01  2.27175742e-01 -2.91765630e-01  2.34339014e-01]
 [ 2.88409829e-01  4.97003824e-01 -5.19608438e-01 -4.90811110e-01
   2.56291479e-01  5.17302394e-01 -1.56185776e-01 -3.21363956e-01]
 [ 3.21078986e-01  1.60608485e-01 -3.38383943e-01  2.36709282e-01
   5.32584488e-01 -5.08916795e-01 -1.89932197e-01 -5.06410003e-01]
 [ 6.39430771e-04 -2.24812087e-04 -2.75783648e-04  1.37461990e-04
  -9.55274678e-04  7.40228861e-05 -3.81671562e-04 -7.41246040e-04]
 [ 5.69789321e-04  5.56232590e-05 -3.68003675e-04 -5.18540444e-04
  -1.04255346e-03 -4.60961513e-04 -1.37067836e-04  1.78423215e-04]
 [ 6.39010745e-04 -2.31468381e-04 -3.21248284e-04  9.27873989e-05
  -1.00826635e-03  1.87095502e-05 -1.77083159e-04 -7.45464815e-04]
 [ 2.34031364e-01  2.37068966e-01  1.08139321e-01 -3.77848536e-01
   1.43537328e-01  1.37011200e-01  2.51942128e-01  4.36092526e-01]
 [ 5.15343189e-01 -1.74966995e-02 -5.71573675e-01  4.95086014e-01
   2.66496062e-01 -2.24293828e-01  5.44560611e-01  2.85797119e-01]
 [-2.79646665e-01 -1.51547775e-01  1.42951936e-01 -4.64842081e-01
   3.66977572e-01  1.84901327e-01 -1.68195307e-01  7.92859271e-02]] 
Episode: 16: [[-1.16070144e-01  1.88606679e-02 -5.49280107e-01  5.08204639e-01
   5.14783740e-01  3.42404157e-01 -9.87422243e-02  3.69482815e-01]
 [-3.12673569e-01  4.72582847e-01 -4.41622645e-01 -4.91375893e-01
  -1.05659604e-01  5.30669212e-01 -3.36124241e-01 -3.53654385e-01]
 [ 4.50755358e-01 -7.06654117e-02 -1.65697038e-01  5.25394492e-02
   3.81226540e-01 -3.35285753e-01  3.10117036e-01 -8.23179036e-02]
 [-3.32265675e-01  1.85405865e-01 -3.85584295e-01 -8.69605467e-02
   5.68414629e-01  2.27194145e-01 -2.91806489e-01  2.34386250e-01]
 [ 2.88440704e-01  4.97015923e-01 -5.19636869e-01 -4.90844935e-01
   2.56250054e-01  5.17320156e-01 -1.56234443e-01 -3.21338445e-01]
 [ 3.21075290e-01  1.60630599e-01 -3.38368952e-01  2.36769781e-01
   5.32620430e-01 -5.08936048e-01 -1.89886630e-01 -5.06450474e-01]
 [ 6.28833950e-04 -2.51855294e-04 -3.19319108e-04  1.06542386e-04
  -9.76507086e-04  8.43056041e-05 -3.60527454e-04 -7.45995960e-04]
 [ 5.88297844e-04  5.30408615e-05 -3.80096724e-04 -5.71689277e-04
  -1.10372319e-03 -4.60833486e-04 -1.37672396e-04  1.84739009e-04]
 [ 6.32366166e-04 -2.58657354e-04 -3.65937769e-04  5.83341644e-05
  -1.03567191e-03  3.08997114e-05 -1.58920753e-04 -7.48376420e-04]
 [ 2.34005794e-01  2.37068757e-01  1.08140856e-01 -3.77881646e-01
   1.43523678e-01  1.36986136e-01  2.51959711e-01  4.36111867e-01]
 [ 5.15318155e-01 -1.75098628e-02 -5.71621776e-01  4.95076627e-01
   2.66476452e-01 -2.24292591e-01  5.44529736e-01  2.85806149e-01]
 [-2.79632181e-01 -1.51515633e-01  1.42982051e-01 -4.64789659e-01
   3.67020190e-01  1.84887335e-01 -1.68168038e-01  7.92502090e-02]] 
Episode: 17: [[-1.16110966e-01  1.88373439e-02 -5.49302101e-01  5.08198261e-01
   5.14782488e-01  3.42405230e-01 -9.87563580e-02  3.69465500e-01]
 [-3.12732607e-01  4.72572118e-01 -4.41652000e-01 -4.91419733e-01
  -1.05690010e-01  5.30657172e-01 -3.36152941e-01 -3.53659242e-01]
 [ 4.50752705e-01 -7.06529766e-02 -1.65663064e-01  5.25880493e-02
   3.81253123e-01 -3.35310906e-01  3.10119122e-01 -8.23617280e-02]
 [-3.32245201e-01  1.85407862e-01 -3.85610193e-01 -8.70092288e-02
   5.68371296e-01  2.27222085e-01 -2.91820556e-01  2.34444022e-01]
 [ 2.88473397e-01  4.97037023e-01 -5.19669890e-01 -4.90884632e-01
   2.56215453e-01  5.17337620e-01 -1.56261146e-01 -3.21309328e-01]
 [ 3.21057856e-01  1.60649076e-01 -3.38333696e-01  2.36830205e-01
   5.32661140e-01 -5.08962214e-01 -1.89865664e-01 -5.06500900e-01]
 [ 6.26480090e-04 -2.67354655e-04 -3.58208548e-04  6.09149902e-05
  -1.00906391e-03  9.68016029e-05 -3.58415797e-04 -7.44243269e-04]
 [ 6.09933923e-04  4.52540589e-05 -3.94501403e-04 -6.24472508e-04
  -1.17167237e-03 -4.55295143e-04 -1.41550438e-04  1.88584920e-04]
 [ 6.33697666e-04 -2.75723141e-04 -4.07033920e-04  1.06136022e-05
  -1.07427023e-03  4.60093615e-05 -1.57738905e-04 -7.45324010e-04]
 [ 2.33963564e-01  2.37060592e-01  1.08127616e-01 -3.77899081e-01
   1.43512025e-01  1.36969626e-01  2.51973927e-01  4.36124027e-01]
 [ 5.15275121e-01 -1.75214391e-02 -5.71658611e-01  4.95060921e-01
   2.66454250e-01 -2.24298537e-01  5.44500768e-01  2.85803348e-01]
 [-2.79615313e-01 -1.51486427e-01  1.43027052e-01 -4.64738607e-01
   3.67066205e-01  1.84864879e-01 -1.68152586e-01  7.92086720e-02]] 
Episode: 18: [[-1.16142549e-01  1.88218188e-02 -5.49319029e-01  5.08194387e-01
   5.14771461e-01  3.42402905e-01 -9.87733006e-02  3.69470149e-01]
 [-3.12778115e-01  4.72561419e-01 -4.41677839e-01 -4.91445690e-01
  -1.05707742e-01  5.30649483e-01 -3.36166680e-01 -3.53641599e-01]
 [ 4.50747639e-01 -7.06376061e-02 -1.65631622e-01  5.26298732e-02
   3.81277651e-01 -3.35333258e-01  3.10130894e-01 -8.24098811e-02]
 [-3.32216233e-01  1.85394883e-01 -3.85629475e-01 -8.70551094e-02
   5.68332076e-01  2.27253273e-01 -2.91832000e-01  2.34499961e-01]
 [ 2.88517505e-01  4.97041941e-01 -5.19695163e-01 -4.90925401e-01
   2.56190449e-01  5.17359555e-01 -1.56279445e-01 -3.21277231e-01]
 [ 3.21031451e-01  1.60676703e-01 -3.38308573e-01  2.36884728e-01
   5.32684624e-01 -5.08995593e-01 -1.89838096e-01 -5.06548524e-01]
 [ 6.24635199e-04 -2.68777367e-04 -3.80611338e-04  2.99765688e-05
  -1.01818680e-03  1.17842414e-04 -3.51209776e-04 -7.44507997e-04]
 [ 6.37021556e-04  4.30109249e-05 -3.98584409e-04 -6.56827353e-04
  -1.20286853e-03 -4.34995338e-04 -1.35638227e-04  1.89415878e-04]
 [ 6.36457524e-04 -2.78224150e-04 -4.30028653e-04 -2.18772748e-05
  -1.08652283e-03  7.19779273e-05 -1.50791922e-04 -7.44727207e-04]
 [ 2.33923152e-01  2.37058103e-01  1.08116575e-01 -3.77910227e-01
   1.43494621e-01  1.36942923e-01  2.51977473e-01  4.36134160e-01]
 [ 5.15249729e-01 -1.75279193e-02 -5.71684062e-01  4.95047867e-01
   2.66437799e-01 -2.24297270e-01  5.44476748e-01  2.85816759e-01]
 [-2.79619068e-01 -1.51455164e-01  1.43062383e-01 -4.64696705e-01
   3.67097586e-01  1.84834167e-01 -1.68141633e-01  7.91626424e-02]] 
Episode: 19: [[-1.16177246e-01  1.87772531e-02 -5.49342096e-01  5.08159935e-01
   5.14753401e-01  3.42422545e-01 -9.88074839e-02  3.69441241e-01]
 [-3.12830865e-01  4.72541273e-01 -4.41706479e-01 -4.91488010e-01
  -1.05748594e-01  5.30634105e-01 -3.36144984e-01 -3.53611529e-01]
 [ 4.50725853e-01 -7.05983117e-02 -1.65602222e-01  5.26860505e-02
   3.81316751e-01 -3.35357189e-01  3.10146183e-01 -8.24688897e-02]
 [-3.32176805e-01  1.85404107e-01 -3.85639071e-01 -8.71176049e-02
   5.68274438e-01  2.27279022e-01 -2.91827142e-01  2.34564200e-01]
 [ 2.88580090e-01  4.97069955e-01 -5.19707441e-01 -4.90961552e-01
   2.56163150e-01  5.17369866e-01 -1.56281278e-01 -3.21225405e-01]
 [ 3.20980549e-01  1.60699576e-01 -3.38271558e-01  2.36941248e-01
   5.32711089e-01 -5.09020865e-01 -1.89801991e-01 -5.06603479e-01]
 [ 6.35887380e-04 -2.95751117e-04 -4.13323869e-04  4.08438646e-05
  -1.01677759e-03  1.35914583e-04 -3.62121995e-04 -7.60461611e-04]
 [ 6.29431277e-04  4.63573233e-05 -4.25043661e-04 -6.93204696e-04
  -1.19404960e-03 -4.34202724e-04 -1.45491154e-04  1.59397619e-04]
 [ 6.47257897e-04 -3.04890506e-04 -4.66979080e-04 -1.46070224e-05
  -1.08321989e-03  9.12404212e-05 -1.63412711e-04 -7.64866127e-04]
 [ 2.33888388e-01  2.37030491e-01  1.08109735e-01 -3.77945453e-01
   1.43450305e-01  1.36923119e-01  2.51982301e-01  4.36155409e-01]
 [ 5.15246749e-01 -1.75571609e-02 -5.71710408e-01  4.95027661e-01
   2.66433448e-01 -2.24299490e-01  5.44474542e-01  2.85840273e-01]
 [-2.79638916e-01 -1.51406184e-01  1.43119231e-01 -4.64639097e-01
   3.67145181e-01  1.84810892e-01 -1.68129355e-01  7.91130438e-02]] 
Episode: 20: [[-1.16205186e-01  1.87389404e-02 -5.49365103e-01  5.08129597e-01
   5.14736652e-01  3.42438340e-01 -9.88315195e-02  3.69407594e-01]
 [-3.12874258e-01  4.72523361e-01 -4.41733211e-01 -4.91524577e-01
  -1.05787762e-01  5.30616999e-01 -3.36124539e-01 -3.53595346e-01]
 [ 4.50704604e-01 -7.05601573e-02 -1.65578410e-01  5.27357422e-02
   3.81344438e-01 -3.35371733e-01  3.10154140e-01 -8.25247020e-02]
 [-3.32138956e-01  1.85406953e-01 -3.85643840e-01 -8.71720165e-02
   5.68231523e-01  2.27297664e-01 -2.91817665e-01  2.34626636e-01]
 [ 2.88638592e-01  4.97090101e-01 -5.19712508e-01 -4.90988195e-01
   2.56149977e-01  5.17376602e-01 -1.56280816e-01 -3.21175814e-01]
 [ 3.20932508e-01  1.60726309e-01 -3.38244408e-01  2.36989468e-01
   5.32724082e-01 -5.09039998e-01 -1.89772427e-01 -5.06658077e-01]
 [ 6.46542467e-04 -3.22018168e-04 -4.40525560e-04  5.02360781e-05
  -1.00949442e-03  1.49242725e-04 -3.73483315e-04 -7.71871069e-04]
 [ 6.22628082e-04  5.12533006e-05 -4.46054008e-04 -7.29270221e-04
  -1.18498039e-03 -4.30884742e-04 -1.56628666e-04  1.29602675e-04]
 [ 6.57574274e-04 -3.30715091e-04 -4.97406290e-04 -8.66112623e-06
  -1.07437605e-03  1.05925785e-04 -1.76522197e-04 -7.80392729e-04]
 [ 2.33857840e-01  2.37004220e-01  1.08100638e-01 -3.77978414e-01
   1.43406540e-01  1.36905700e-01  2.51993179e-01  4.36164260e-01]
 [ 5.15246630e-01 -1.75844338e-02 -5.71732640e-01  4.95012373e-01
   2.66433716e-01 -2.24301696e-01  5.44476748e-01  2.85854489e-01]
 [-2.79660881e-01 -1.51360348e-01  1.43167645e-01 -4.64588940e-01
   3.67184043e-01  1.84793919e-01 -1.68127328e-01  7.90700614e-02]] 
Episode: 21: [[-1.1622421e-01  1.8720126e-02 -5.4935497e-01  5.0809419e-01
   5.1472819e-01  3.4246990e-01 -9.8862238e-02  3.6937481e-01]
 [-3.1290841e-01  4.7251990e-01 -4.4173101e-01 -4.9155524e-01
  -1.0582344e-01  5.3064585e-01 -3.3609208e-01 -3.5359845e-01]
 [ 4.5066893e-01 -7.0537411e-02 -1.6560213e-01  5.2751463e-02
   3.8138592e-01 -3.3541664e-01  3.1017503e-01 -8.2576983e-02]
 [-3.3208925e-01  1.8539833e-01 -3.8562262e-01 -8.7188646e-02
   5.6817734e-01  2.2734460e-01 -2.9181853e-01  2.3468417e-01]
 [ 2.8869668e-01  4.9708983e-01 -5.1969779e-01 -4.9098074e-01
   2.5612217e-01  5.1741737e-01 -1.5626927e-01 -3.2113665e-01]
 [ 3.2088852e-01  1.6076265e-01 -3.3824593e-01  2.3698588e-01
   5.3274423e-01 -5.0908017e-01 -1.8972063e-01 -5.0670719e-01]
 [ 6.5467285e-04 -3.4381051e-04 -4.2590703e-04  7.8823788e-05
  -1.0224404e-03  1.6402309e-04 -4.0147977e-04 -7.8559370e-04]
 [ 6.2374130e-04  6.0511346e-05 -4.7156765e-04 -7.3834189e-04
  -1.1717925e-03 -4.2991567e-04 -1.6164161e-04  9.8758748e-05]
 [ 6.6688342e-04 -3.5139336e-04 -4.8795654e-04  1.8392582e-05
  -1.0832660e-03  1.2243216e-04 -2.0381209e-04 -7.9810526e-04]
 [ 2.3382519e-01  2.3699868e-01  1.0812336e-01 -3.7801075e-01
   1.4337403e-01  1.3691075e-01  2.5197840e-01  4.3616968e-01]
 [ 5.1524901e-01 -1.7602919e-02 -5.7172978e-01  4.9500576e-01
   2.6643637e-01 -2.2426498e-01  5.4449248e-01  2.8585067e-01]
 [-2.7969724e-01 -1.5132469e-01  1.4316905e-01 -4.6456760e-01
   3.6722121e-01  1.8474628e-01 -1.6810618e-01  7.9031937e-02]] 
Episode: 22: [[-1.1623513e-01  1.8726133e-02 -5.4933417e-01  5.0804752e-01
   5.1471961e-01  3.4249058e-01 -9.8862149e-02  3.6936092e-01]
 [-3.1291068e-01  4.7255138e-01 -4.4171923e-01 -4.9159414e-01
  -1.0586353e-01  5.3067148e-01 -3.3604088e-01 -3.5359254e-01]
 [ 4.5062882e-01 -7.0536360e-02 -1.6562679e-01  5.2789256e-02
   3.8142329e-01 -3.3545062e-01  3.1017500e-01 -8.2625166e-02]
 [-3.3203024e-01  1.8538904e-01 -3.8560224e-01 -8.7223448e-02
   5.6812871e-01  2.2738893e-01 -2.9180947e-01  2.3472999e-01]
 [ 2.8876156e-01  4.9709672e-01 -5.1967555e-01 -4.9098751e-01
   2.5610167e-01  5.1746011e-01 -1.5624620e-01 -3.2110354e-01]
 [ 3.2083282e-01  1.6079059e-01 -3.3825231e-01  2.3700204e-01
   5.3276950e-01 -5.0911617e-01 -1.8968396e-01 -5.0674492e-01]
 [ 6.7728717e-04 -3.4944736e-04 -4.0994317e-04  8.7081047e-05
  -1.0547073e-03  1.7241696e-04 -4.2864983e-04 -7.8345416e-04]
 [ 6.3809450e-04  5.9282385e-05 -4.8659067e-04 -7.6165801e-04
  -1.1738755e-03 -4.3978923e-04 -1.5777431e-04  6.3060150e-05]
 [ 6.9207849e-04 -3.5741337e-04 -4.7512530e-04  2.4702782e-05
  -1.1122403e-03  1.3032333e-04 -2.2878278e-04 -8.0150441e-04]
 [ 2.3378856e-01  2.3701562e-01  1.0815362e-01 -3.7804809e-01
   1.4334616e-01  1.3690944e-01  2.5199884e-01  4.3617699e-01]
 [ 5.1527292e-01 -1.7588347e-02 -5.7171768e-01  4.9498498e-01
   2.6642665e-01 -2.2423220e-01  5.4453307e-01  2.8586012e-01]
 [-2.7974826e-01 -1.5131235e-01  1.4316061e-01 -4.6452615e-01
   3.6726829e-01  1.8471427e-01 -1.6812420e-01  7.9001158e-02]] 
Episode: 23: [[-1.1624958e-01  1.8742612e-02 -5.4932827e-01  5.0802344e-01
   5.1472473e-01  3.4250104e-01 -9.8869219e-02  3.6934632e-01]
 [-3.1294116e-01  4.7257701e-01 -4.4169727e-01 -4.9161381e-01
  -1.0588826e-01  5.3068835e-01 -3.3599007e-01 -3.5356197e-01]
 [ 4.5060456e-01 -7.0530951e-02 -1.6565371e-01  5.2833077e-02
   3.8144726e-01 -3.3546478e-01  3.1017825e-01 -8.2665898e-02]
 [-3.3198348e-01  1.8535650e-01 -3.8558713e-01 -8.7268002e-02
   5.6809241e-01  2.2740643e-01 -2.9180059e-01  2.3476444e-01]
 [ 2.8879753e-01  4.9708617e-01 -5.1964784e-01 -4.9100363e-01
   2.5609428e-01  5.1749784e-01 -1.5621772e-01 -3.2105857e-01]
 [ 3.2080868e-01  1.6084217e-01 -3.3826521e-01  2.3703936e-01
   5.3280002e-01 -5.0914091e-01 -1.8965723e-01 -5.0676322e-01]
 [ 6.8260002e-04 -3.5467319e-04 -4.0771018e-04  6.8315720e-05
  -1.0788098e-03  1.9792827e-04 -4.5599299e-04 -8.0301781e-04]
 [ 6.6652469e-04  4.6004883e-05 -4.9866893e-04 -7.9978839e-04
  -1.2060547e-03 -4.5263619e-04 -1.3597646e-04  1.7787481e-05]
 [ 7.0281816e-04 -3.6457722e-04 -4.7455967e-04  3.6637996e-06
  -1.1399133e-03  1.5497254e-04 -2.4952224e-04 -8.2729768e-04]
 [ 2.3376571e-01  2.3703124e-01  1.0817892e-01 -3.7806988e-01
   1.4333089e-01  1.3689321e-01  2.5202256e-01  4.3617839e-01]
 [ 5.1526016e-01 -1.7567554e-02 -5.7170105e-01  4.9497023e-01
   2.6643190e-01 -2.2419664e-01  5.4457426e-01  2.8588203e-01]
 [-2.7976370e-01 -1.5127948e-01  1.4315118e-01 -4.6447432e-01
   3.6731815e-01  1.8469779e-01 -1.6815634e-01  7.8979127e-02]] 
Episode: 24: [[-1.1625723e-01  1.8720673e-02 -5.4928625e-01  5.0802666e-01
   5.1475704e-01  3.4248605e-01 -9.8850809e-02  3.6932841e-01]
 [-3.1298199e-01  4.7256511e-01 -4.4166401e-01 -4.9157754e-01
  -1.0589310e-01  5.3065979e-01 -3.3594251e-01 -3.5355815e-01]
 [ 4.5055321e-01 -7.0500784e-02 -1.6570061e-01  5.2834734e-02
   3.8144910e-01 -3.3544675e-01  3.1018227e-01 -8.2703523e-02]
 [-3.3192796e-01  1.8530945e-01 -3.8557592e-01 -8.7291293e-02
   5.6804568e-01  2.2740887e-01 -2.9180363e-01  2.3477238e-01]
 [ 2.8881997e-01  4.9706087e-01 -5.1962394e-01 -4.9100375e-01
   2.5606000e-01  5.1752216e-01 -1.5619268e-01 -3.2106891e-01]
 [ 3.2076204e-01  1.6089268e-01 -3.3826235e-01  2.3705944e-01
   5.3284174e-01 -5.0914264e-01 -1.8960610e-01 -5.0676411e-01]
 [ 7.0776965e-04 -3.5971738e-04 -3.7713264e-04  6.5982058e-05
  -1.0643650e-03  2.1519588e-04 -5.0151040e-04 -7.9578272e-04]
 [ 6.9989765e-04  7.4886884e-05 -4.9533288e-04 -7.8166189e-04
  -1.2258507e-03 -4.3200862e-04 -1.0154187e-04 -2.0600979e-05]
 [ 7.3423301e-04 -3.6417684e-04 -4.4384965e-04  1.8743337e-06
  -1.1310577e-03  1.7928949e-04 -2.8579016e-04 -8.2513271e-04]
 [ 2.3377225e-01  2.3700546e-01  1.0820731e-01 -3.7805313e-01
   1.4331473e-01  1.3684227e-01  2.5207016e-01  4.3617436e-01]
 [ 5.1522398e-01 -1.7570967e-02 -5.7165438e-01  4.9500602e-01
   2.6645207e-01 -2.2420236e-01  5.4461670e-01  2.8586429e-01]
 [-2.7980891e-01 -1.5124053e-01  1.4312643e-01 -4.6446809e-01
   3.6736283e-01  1.8472309e-01 -1.6817769e-01  7.8992002e-02]] 
Episode: 25: [[-1.16262235e-01  1.87004674e-02 -5.49248576e-01  5.08028865e-01
   5.14786601e-01  3.42472881e-01 -9.88316834e-02  3.69313955e-01]
 [-3.13028842e-01  4.72555578e-01 -4.41632092e-01 -4.91547167e-01
  -1.05897151e-01  5.30630052e-01 -3.35898161e-01 -3.53553742e-01]
 [ 4.50509846e-01 -7.04701543e-02 -1.65740788e-01  5.28352670e-02
   3.81450921e-01 -3.35427940e-01  3.10186446e-01 -8.27334672e-02]
 [-3.31879884e-01  1.85263336e-01 -3.85567337e-01 -8.73116329e-02
   5.68004608e-01  2.27411136e-01 -2.91808307e-01  2.34772608e-01]
 [ 2.88836241e-01  4.97034639e-01 -5.19598424e-01 -4.91005868e-01
   2.56028056e-01  5.17540395e-01 -1.56170383e-01 -3.21078300e-01]
 [ 3.20721835e-01  1.60942867e-01 -3.38258505e-01  2.37075821e-01
   5.32877982e-01 -5.09140849e-01 -1.89557835e-01 -5.06758928e-01]
 [ 7.32032640e-04 -3.65103391e-04 -3.49600305e-04  6.45036489e-05
  -1.04985118e-03  2.25467098e-04 -5.42699010e-04 -7.87244760e-04]
 [ 7.32806744e-04  1.01970007e-04 -4.91333427e-04 -7.67976744e-04
  -1.24081282e-03 -4.11920162e-04 -7.28818559e-05 -5.43806491e-05]
 [ 7.64491502e-04 -3.64563020e-04 -4.15980263e-04  5.88789590e-07
  -1.12111378e-03  1.96197929e-04 -3.18915583e-04 -8.21125461e-04]
 [ 2.33777136e-01  2.36981466e-01  1.08227529e-01 -3.78037423e-01
   1.43297926e-01  1.36795923e-01  2.52116472e-01  4.36163723e-01]
 [ 5.15187085e-01 -1.75739918e-02 -5.71610272e-01  4.95036900e-01
   2.66471565e-01 -2.24212557e-01  5.44658422e-01  2.85851419e-01]
 [-2.79845864e-01 -1.51202172e-01  1.43106654e-01 -4.64462727e-01
   3.67401659e-01  1.84748173e-01 -1.68196455e-01  7.90078416e-02]] 
Episode: 26: [[-1.1625887e-01  1.8676382e-02 -5.4921484e-01  5.0803107e-01
   5.1481026e-01  3.4246317e-01 -9.8818243e-02  3.6929995e-01]
 [-3.1305966e-01  4.7254759e-01 -4.4159946e-01 -4.9152339e-01
  -1.0591036e-01  5.3060460e-01 -3.3585656e-01 -3.5355628e-01]
 [ 4.5046499e-01 -7.0442870e-02 -1.6576920e-01  5.2836694e-02
   3.8144988e-01 -3.3541653e-01  3.1019768e-01 -8.2766853e-02]
 [-3.3182570e-01  1.8522359e-01 -3.8557017e-01 -8.7328970e-02
   5.6797493e-01  2.2741914e-01 -2.9182151e-01  2.3478208e-01]
 [ 2.8885958e-01  4.9700686e-01 -5.1958477e-01 -4.9100581e-01
   2.5600496e-01  5.1756138e-01 -1.5615280e-01 -3.2108435e-01]
 [ 3.2067832e-01  1.6098648e-01 -3.3824620e-01  2.3708983e-01
   5.3290188e-01 -5.0914311e-01 -1.8950671e-01 -5.0676233e-01]
 [ 7.5142091e-04 -3.7334819e-04 -3.2797881e-04  6.2187850e-05
  -1.0369504e-03  2.2781175e-04 -5.8095518e-04 -7.8288576e-04]
 [ 7.6210074e-04  1.2323352e-04 -4.8955472e-04 -7.5584301e-04
  -1.2491182e-03 -3.8859303e-04 -3.7317539e-05 -7.7538934e-05]
 [ 7.8936084e-04 -3.6877691e-04 -3.9441799e-04 -1.4502175e-06
  -1.1114079e-03  2.0531325e-04 -3.4832326e-04 -8.1979472e-04]
 [ 2.3378801e-01  2.3696117e-01  1.0825066e-01 -3.7802696e-01
   1.4327750e-01  1.3675551e-01  2.5215214e-01  4.3614855e-01]
 [ 5.1516318e-01 -1.7582873e-02 -5.7156956e-01  4.9506494e-01
   2.6648322e-01 -2.2421989e-01  5.4469645e-01  2.8583413e-01]
 [-2.7988794e-01 -1.5116858e-01  1.4309438e-01 -4.6445593e-01
   3.6743489e-01  1.8476625e-01 -1.6820849e-01  7.9016380e-02]] 
