Episode: 1: [[ 0.          0.          0.        ]
 [ 0.          0.          0.        ]
 [ 0.          0.          0.        ]
 [-0.16240509 -0.34006977  0.04328375]
 [ 0.12615696 -0.04700504 -0.04048468]
 [ 0.46043023  0.522202   -0.38252082]
 [ 0.22833015 -0.46042326  0.35057473]
 [ 0.3768362   0.48599768  0.40276992]
 [-0.19741115  0.02976353 -0.38563552]
 [ 0.28855428 -0.24599251 -0.2545849 ]
 [-0.37674072  0.4958444  -0.4124831 ]
 [ 0.38596833 -0.5666126   0.28840122]] 
Episode: 2: [[-9.9999445e-05  9.9999430e-05  9.9995006e-05]
 [ 9.9999961e-05  9.9999816e-05 -9.9999830e-05]
 [ 9.9999743e-05  9.9986057e-05 -9.9999466e-05]
 [-1.6250509e-01 -3.4016976e-01  4.3383744e-02]
 [ 1.2605695e-01 -4.6905037e-02 -4.0584680e-02]
 [ 4.6053022e-01  5.2230203e-01 -3.8262081e-01]
 [ 2.2823015e-01 -4.6052325e-01  3.5067472e-01]
 [ 3.7693620e-01  4.8589769e-01  4.0266994e-01]
 [-1.9751115e-01  2.9663526e-02 -3.8553554e-01]
 [ 2.8865427e-01 -2.4609251e-01 -2.5448495e-01]
 [-3.7664074e-01  4.9594438e-01 -4.1258308e-01]
 [ 3.8606831e-01 -5.6651258e-01  2.8830123e-01]] 
Episode: 3: [[-1.7944330e-04  3.3640561e-05  1.7516132e-04]
 [ 1.7797433e-04  6.8181413e-05 -1.9511604e-04]
 [ 1.8659110e-04  1.7554674e-04 -1.8447213e-04]
 [-1.6259392e-01 -3.4025690e-01  4.3476868e-02]
 [ 1.2597780e-01 -4.6805270e-02 -4.0525991e-02]
 [ 4.6062106e-01  5.2238804e-01 -3.8271940e-01]
 [ 2.2826256e-01 -4.6050456e-01  3.5063899e-01]
 [ 3.7689331e-01  4.8592696e-01  4.0270716e-01]
 [-1.9749367e-01  2.9685408e-02 -3.8556248e-01]
 [ 2.8859684e-01 -2.4617338e-01 -2.5441015e-01]
 [-3.7668601e-01  4.9588642e-01 -4.1268259e-01]
 [ 3.8614991e-01 -5.6642413e-01  2.8820944e-01]] 
Episode: 4: [[-2.6087314e-04  8.0100777e-05  1.7162187e-04]
 [ 2.0960359e-04  1.1990319e-04 -2.0107982e-04]
 [ 2.7910739e-04  1.3394056e-04 -1.8812688e-04]
 [-1.6268618e-01 -3.4020767e-01  4.3572240e-02]
 [ 1.2595955e-01 -4.6705134e-02 -4.0539689e-02]
 [ 4.6071172e-01  5.2243853e-01 -3.8281694e-01]
 [ 2.2832209e-01 -4.6045369e-01  3.5057715e-01]
 [ 3.7682775e-01  4.8598599e-01  4.0268037e-01]
 [-1.9744211e-01  2.9742431e-02 -3.8562235e-01]
 [ 2.8852609e-01 -2.4614310e-01 -2.5432664e-01]
 [-3.7673137e-01  4.9593106e-01 -4.1267017e-01]
 [ 3.8623375e-01 -5.6641841e-01  2.8811887e-01]] 
Episode: 5: [[-3.4153287e-04  1.1148747e-04  1.8773894e-04]
 [ 2.2113223e-04  1.7283717e-04 -1.9818395e-04]
 [ 3.7043335e-04  8.5433610e-05 -2.0885016e-04]
 [-1.6277313e-01 -3.4014425e-01  4.3666992e-02]
 [ 1.2592892e-01 -4.6605512e-02 -4.0528551e-02]
 [ 4.6080467e-01  5.2242583e-01 -3.8291359e-01]
 [ 2.2829263e-01 -4.6048832e-01  3.5060459e-01]
 [ 3.7685359e-01  4.8595652e-01  4.0261841e-01]
 [-1.9747600e-01  2.9712489e-02 -3.8559490e-01]
 [ 2.8845990e-01 -2.4611336e-01 -2.5424439e-01]
 [-3.7680000e-01  4.9596581e-01 -4.1261840e-01]
 [ 3.8631830e-01 -5.6642240e-01  2.8802603e-01]] 
Episode: 6: [[-4.2317502e-04  1.2713234e-04  2.2273687e-04]
 [ 2.2622279e-04  2.2198321e-04 -2.0709011e-04]
 [ 4.6477176e-04  4.1938009e-05 -2.5069920e-04]
 [-1.6286449e-01 -3.4007886e-01  4.3762792e-02]
 [ 1.2588099e-01 -4.6505209e-02 -4.0493000e-02]
 [ 4.6089900e-01  5.2241868e-01 -3.8300976e-01]
 [ 2.2824086e-01 -4.6054405e-01  3.5065499e-01]
 [ 3.7690181e-01  4.8590469e-01  4.0254685e-01]
 [-1.9753166e-01  2.9660378e-02 -3.8554400e-01]
 [ 2.8839597e-01 -2.4610129e-01 -2.5415656e-01]
 [-3.7687743e-01  4.9599558e-01 -4.1257164e-01]
 [ 3.8640603e-01 -5.6640184e-01  2.8793359e-01]] 
Episode: 7: [[-4.9553998e-04  1.4891148e-04  2.3833322e-04]
 [ 1.8403413e-04  2.4019965e-04 -1.7100803e-04]
 [ 5.5813295e-04 -1.8834809e-05 -2.8638175e-04]
 [-1.6293065e-01 -3.4000844e-01  4.3854937e-02]
 [ 1.2584440e-01 -4.6472874e-02 -4.0433206e-02]
 [ 4.6099463e-01  5.2243203e-01 -3.8310710e-01]
 [ 2.2817884e-01 -4.6060899e-01  3.5071570e-01]
 [ 3.7696093e-01  4.8584276e-01  4.0247411e-01]
 [-1.9759686e-01  2.9598506e-02 -3.8548291e-01]
 [ 2.8833243e-01 -2.4606329e-01 -2.5407419e-01]
 [-3.7695390e-01  4.9598736e-01 -4.1250607e-01]
 [ 3.8649294e-01 -5.6639624e-01  2.8783882e-01]] 
Episode: 8: [[-5.6237361e-04  1.6390342e-04  2.4981282e-04]
 [ 1.3061690e-04  2.5245550e-04 -1.2571803e-04]
 [ 6.5051933e-04 -7.7697558e-05 -3.1844221e-04]
 [-1.6299109e-01 -3.3994192e-01  4.3945380e-02]
 [ 1.2580723e-01 -4.6447951e-02 -4.0365811e-02]
 [ 4.6108887e-01  5.2245307e-01 -3.8320485e-01]
 [ 2.2811191e-01 -4.6067867e-01  3.5078141e-01]
 [ 3.7702465e-01  4.8577586e-01  4.0240869e-01]
 [-1.9766723e-01  2.9531376e-02 -3.8541630e-01]
 [ 2.8827503e-01 -2.4603079e-01 -2.5399822e-01]
 [-3.7703437e-01  4.9596855e-01 -4.1243216e-01]
 [ 3.8657725e-01 -5.6638122e-01  2.8774622e-01]] 
Episode: 9: [[-6.2240526e-04  1.8687095e-04  2.4437276e-04]
 [ 8.8239314e-05  2.7462785e-04 -7.9540558e-05]
 [ 7.2122435e-04 -1.3080261e-04 -3.2668968e-04]
 [-1.6304091e-01 -3.3988443e-01  4.4016372e-02]
 [ 1.2577814e-01 -4.6423782e-02 -4.0319361e-02]
 [ 4.6116176e-01  5.2246773e-01 -3.8328207e-01]
 [ 2.2805612e-01 -4.6073654e-01  3.5083598e-01]
 [ 3.7707797e-01  4.8572052e-01  4.0234306e-01]
 [-1.9772530e-01  2.9475650e-02 -3.8536200e-01]
 [ 2.8822002e-01 -2.4599954e-01 -2.5393298e-01]
 [-3.7710682e-01  4.9596146e-01 -4.1235635e-01]
 [ 3.8665047e-01 -5.6637681e-01  2.8767988e-01]] 
Episode: 10: [[-6.6553068e-04  2.1175617e-04  2.3539602e-04]
 [ 7.4776050e-05  2.9456319e-04 -5.0881536e-05]
 [ 7.6348026e-04 -1.7051661e-04 -3.2691701e-04]
 [-1.6307853e-01 -3.3984807e-01  4.4061445e-02]
 [ 1.2575981e-01 -4.6401866e-02 -4.0298600e-02]
 [ 4.6120515e-01  5.2248472e-01 -3.8332671e-01]
 [ 2.2803208e-01 -4.6076041e-01  3.5085988e-01]
 [ 3.7710270e-01  4.8569700e-01  4.0229070e-01]
 [-1.9774941e-01  2.9453127e-02 -3.8533938e-01]
 [ 2.8817618e-01 -2.4597201e-01 -2.5388771e-01]
 [-3.7714252e-01  4.9596214e-01 -4.1230983e-01]
 [ 3.8669956e-01 -5.6638074e-01  2.8764132e-01]] 
Episode: 11: [[-7.1636640e-04  2.5027600e-04  2.1206633e-04]
 [ 7.1731498e-05  3.3538116e-04 -2.6440068e-05]
 [ 8.0792373e-04 -2.1540355e-04 -3.1320759e-04]
 [-1.6312151e-01 -3.3980331e-01  4.4106793e-02]
 [ 1.2574816e-01 -4.6367958e-02 -4.0296402e-02]
 [ 4.6124578e-01  5.2249980e-01 -3.8337117e-01]
 [ 2.2800799e-01 -4.6078354e-01  3.5088426e-01]
 [ 3.7712699e-01  4.8567340e-01  4.0224129e-01]
 [-1.9777402e-01  2.9431285e-02 -3.8531625e-01]
 [ 2.8812018e-01 -2.4594255e-01 -2.5383353e-01]
 [-3.7716797e-01  4.9598840e-01 -4.1227710e-01]
 [ 3.8675389e-01 -5.6639147e-01  2.8760767e-01]] 
Episode: 12: [[-7.6719071e-04  2.9559855e-04  1.7906955e-04]
 [ 4.4260560e-05  3.6399218e-04  1.7971726e-05]
 [ 8.4965344e-04 -2.6794587e-04 -2.9312007e-04]
 [-1.6315140e-01 -3.3975050e-01  4.4145163e-02]
 [ 1.2574029e-01 -4.6360824e-02 -4.0279619e-02]
 [ 4.6128517e-01  5.2252978e-01 -3.8341939e-01]
 [ 2.2798297e-01 -4.6080810e-01  3.5090929e-01]
 [ 3.7715232e-01  4.8564860e-01  4.0219134e-01]
 [-1.9779918e-01  2.9408244e-02 -3.8529289e-01]
 [ 2.8806135e-01 -2.4589995e-01 -2.5377825e-01]
 [-3.7719640e-01  4.9600542e-01 -4.1223028e-01]
 [ 3.8680774e-01 -5.6640816e-01  2.8756917e-01]] 
Episode: 13: [[-8.0689962e-04  3.3599633e-04  1.4675212e-04]
 [ 3.1158113e-05  4.0103553e-04  5.1936364e-05]
 [ 8.7467243e-04 -3.0443611e-04 -2.6791301e-04]
 [-1.6317448e-01 -3.3971480e-01  4.4167414e-02]
 [ 1.2573580e-01 -4.6346322e-02 -4.0279660e-02]
 [ 4.6130648e-01  5.2255291e-01 -3.8344663e-01]
 [ 2.2796705e-01 -4.6082282e-01  3.5092542e-01]
 [ 3.7716970e-01  4.8563302e-01  4.0214807e-01]
 [-1.9781427e-01  2.9394353e-02 -3.8527882e-01]
 [ 2.8801376e-01 -2.4587597e-01 -2.5373304e-01]
 [-3.7721387e-01  4.9603400e-01 -4.1219360e-01]
 [ 3.8684544e-01 -5.6642276e-01  2.8755036e-01]] 
Episode: 14: [[-8.3015306e-04  3.6263681e-04  1.2312374e-04]
 [ 1.7726325e-05  4.2443848e-04  8.2092702e-05]
 [ 8.8136602e-04 -3.2763320e-04 -2.4712519e-04]
 [-1.6318142e-01 -3.3968943e-01  4.4171065e-02]
 [ 1.2573245e-01 -4.6338510e-02 -4.0279496e-02]
 [ 4.6131194e-01  5.2255553e-01 -3.8345474e-01]
 [ 2.2795928e-01 -4.6083006e-01  3.5093337e-01]
 [ 3.7717918e-01  4.8562568e-01  4.0210739e-01]
 [-1.9782068e-01  2.9388046e-02 -3.8527310e-01]
 [ 2.8798172e-01 -2.4585663e-01 -2.5370231e-01]
 [-3.7723020e-01  4.9605316e-01 -4.1215843e-01]
 [ 3.8686565e-01 -5.6644052e-01  2.8754288e-01]] 
Episode: 15: [[-8.5210154e-04  3.8781876e-04  9.8233722e-05]
 [ 5.4470302e-06  4.4951157e-04  1.0824561e-04]
 [ 8.8708161e-04 -3.4962065e-04 -2.2374731e-04]
 [-1.6318443e-01 -3.3966199e-01  4.4170737e-02]
 [ 1.2573348e-01 -4.6329867e-02 -4.0284887e-02]
 [ 4.6131554e-01  5.2255774e-01 -3.8346186e-01]
 [ 2.2795293e-01 -4.6083578e-01  3.5093987e-01]
 [ 3.7718686e-01  4.8561981e-01  4.0206784e-01]
 [-1.9782579e-01  2.9383330e-02 -3.8526884e-01]
 [ 2.8795114e-01 -2.4583703e-01 -2.5367656e-01]
 [-3.7724429e-01  4.9607444e-01 -4.1212952e-01]
 [ 3.8688537e-01 -5.6645924e-01  2.8753892e-01]] 
Episode: 16: [[-8.7229040e-04  4.1502767e-04  7.2433191e-05]
 [ 3.5257583e-06  4.7789788e-04  1.2582220e-04]
 [ 8.9173228e-04 -3.6903011e-04 -1.9810768e-04]
 [-1.6318709e-01 -3.3964112e-01  4.4167075e-02]
 [ 1.2574089e-01 -4.6320830e-02 -4.0295798e-02]
 [ 4.6131530e-01  5.2256811e-01 -3.8346544e-01]
 [ 2.2795020e-01 -4.6083793e-01  3.5094267e-01]
 [ 3.7719086e-01  4.8561746e-01  4.0203673e-01]
 [-1.9782773e-01  2.9381646e-02 -3.8526773e-01]
 [ 2.8792176e-01 -2.4582069e-01 -2.5365531e-01]
 [-3.7724739e-01  4.9610069e-01 -4.1211045e-01]
 [ 3.8690156e-01 -5.6647635e-01  2.8754237e-01]] 
Episode: 17: [[-8.8632171e-04  4.5763765e-04  2.9697892e-05]
 [ 4.4509602e-06  4.9293885e-04  1.5174990e-04]
 [ 8.7054400e-04 -3.9096808e-04 -1.5048125e-04]
 [-1.6316448e-01 -3.3964130e-01  4.4130489e-02]
 [ 1.2578292e-01 -4.6345916e-02 -4.0334575e-02]
 [ 4.6128297e-01  5.2258265e-01 -3.8343790e-01]
 [ 2.2798391e-01 -4.6080312e-01  3.5090932e-01]
 [ 3.7715906e-01  4.8565128e-01  4.0205216e-01]
 [-1.9779305e-01  2.9415866e-02 -3.8530228e-01]
 [ 2.8788674e-01 -2.4579294e-01 -2.5364313e-01]
 [-3.7721434e-01  4.9613652e-01 -4.1211218e-01]
 [ 3.8689828e-01 -5.6651992e-01  2.8757533e-01]] 
Episode: 18: [[-9.0473582e-04  5.0122390e-04 -5.1650213e-06]
 [ 1.0642207e-05  5.1055528e-04  1.7289614e-04]
 [ 8.5622282e-04 -4.1519641e-04 -1.1081088e-04]
 [-1.6315167e-01 -3.3964166e-01  4.4103287e-02]
 [ 1.2582184e-01 -4.6365868e-02 -4.0368989e-02]
 [ 4.6125767e-01  5.2259475e-01 -3.8341561e-01]
 [ 2.2801602e-01 -4.6077013e-01  3.5087752e-01]
 [ 3.7712872e-01  4.8568365e-01  4.0206730e-01]
 [-1.9776008e-01  2.9448489e-02 -3.8533512e-01]
 [ 2.8785434e-01 -2.4576548e-01 -2.5362700e-01]
 [-3.7718329e-01  4.9617347e-01 -4.1211444e-01]
 [ 3.8689983e-01 -5.6656015e-01  2.8760031e-01]] 
Episode: 19: [[-9.32460825e-04  4.96708846e-04  1.49066445e-05]
 [ 4.72581487e-05  5.44476730e-04  1.39852724e-04]
 [ 8.50101293e-04 -4.02024307e-04 -1.11121335e-04]
 [-1.63168475e-01 -3.39641631e-01  4.40858416e-02]
 [ 1.25839517e-01 -4.63401675e-02 -4.04163040e-02]
 [ 4.61241901e-01  5.22554219e-01 -3.83379430e-01]
 [ 2.28053674e-01 -4.60735530e-01  3.50838333e-01]
 [ 3.77092987e-01  4.85721201e-01  4.02043432e-01]
 [-1.97722465e-01  2.94841267e-02 -3.85374993e-01]
 [ 2.87837416e-01 -2.45784700e-01 -2.53599346e-01]
 [-3.77182156e-01  4.96220410e-01 -4.12147850e-01]
 [ 3.86906058e-01 -5.66577792e-01  2.87627101e-01]] 
Episode: 20: [[-9.54130082e-04  4.93250147e-04  3.18558523e-05]
 [ 8.79444779e-05  5.77959581e-04  1.06363696e-04]
 [ 8.36670166e-04 -3.84263432e-04 -1.06527965e-04]
 [-1.63182452e-01 -3.39651376e-01  4.40636985e-02]
 [ 1.25859320e-01 -4.63165343e-02 -4.04686444e-02]
 [ 4.61219937e-01  5.22517323e-01 -3.83338243e-01]
 [ 2.28095248e-01 -4.60695982e-01  3.50795776e-01]
 [ 3.77053916e-01  4.85762715e-01  4.02024776e-01]
 [-1.97680444e-01  2.95242555e-02 -3.85418385e-01]
 [ 2.87822992e-01 -2.45806366e-01 -2.53578454e-01]
 [-3.77174824e-01  4.96268451e-01 -4.12184000e-01]
 [ 3.86905044e-01 -5.66594243e-01  2.87661314e-01]] 
Episode: 21: [[-9.8602031e-04  4.6367676e-04  7.2913732e-05]
 [ 1.3883108e-04  6.2269135e-04  5.2441395e-05]
 [ 8.4183208e-04 -3.4501057e-04 -1.2727959e-04]
 [-1.6321993e-01 -3.3965209e-01  4.4062898e-02]
 [ 1.2584381e-01 -4.6265252e-02 -4.0523078e-02]
 [ 4.6121794e-01  5.2246016e-01 -3.8329893e-01]
 [ 2.2812217e-01 -4.6067488e-01  3.5076606e-01]
 [ 3.7702721e-01  4.8578969e-01  4.0198737e-01]
 [-1.9765499e-01  2.9547499e-02 -3.8544765e-01]
 [ 2.8782007e-01 -2.4585366e-01 -2.5354370e-01]
 [-3.7720573e-01  4.9631333e-01 -4.1221955e-01]
 [ 3.8692206e-01 -5.6657606e-01  2.8768277e-01]] 
Episode: 22: [[-1.0211945e-03  4.2725899e-04  1.1963806e-04]
 [ 1.8451417e-04  6.7204313e-04 -1.2036941e-07]
 [ 8.5863488e-04 -3.0711430e-04 -1.6041628e-04]
 [-1.6326362e-01 -3.3963898e-01  4.4079788e-02]
 [ 1.2581383e-01 -4.6208009e-02 -4.0556334e-02]
 [ 4.6123254e-01  5.2239949e-01 -3.8327834e-01]
 [ 2.2812891e-01 -4.6067342e-01  3.5075682e-01]
 [ 3.7702042e-01  4.8579663e-01  4.0194115e-01]
 [-1.9764963e-01  2.9550938e-02 -3.8545647e-01]
 [ 2.8781945e-01 -2.4590285e-01 -2.5349706e-01]
 [-3.7724772e-01  4.9635211e-01 -4.1224355e-01]
 [ 3.8694766e-01 -5.6654733e-01  2.8768003e-01]] 
Episode: 23: [[-1.0463177e-03  3.9912379e-04  1.5113899e-04]
 [ 2.0292649e-04  6.9475005e-04 -3.6786587e-05]
 [ 8.9283724e-04 -2.9746737e-04 -1.9214480e-04]
 [-1.6329314e-01 -3.3960876e-01  4.4106610e-02]
 [ 1.2578538e-01 -4.6167109e-02 -4.0555265e-02]
 [ 4.6126559e-01  5.2236456e-01 -3.8329038e-01]
 [ 2.2811112e-01 -4.6069479e-01  3.5077298e-01]
 [ 3.7703922e-01  4.8577863e-01  4.0188479e-01]
 [-1.9766776e-01  2.9531255e-02 -3.8544059e-01]
 [ 2.8781819e-01 -2.4592888e-01 -2.5346541e-01]
 [-3.7728706e-01  4.9636477e-01 -4.1225585e-01]
 [ 3.8698563e-01 -5.6651801e-01  2.8765965e-01]] 
Episode: 24: [[-1.0912950e-03  3.4321559e-04  2.1035704e-04]
 [ 2.5637544e-04  7.4905844e-04 -9.8846453e-05]
 [ 9.1783964e-04 -2.5653621e-04 -2.4921465e-04]
 [-1.6334377e-01 -3.3955407e-01  4.4135481e-02]
 [ 1.2574574e-01 -4.6102878e-02 -4.0590823e-02]
 [ 4.6129557e-01  5.2230334e-01 -3.8327059e-01]
 [ 2.2810128e-01 -4.6071303e-01  3.5077912e-01]
 [ 3.7705216e-01  4.8576805e-01  4.0181154e-01]
 [-1.9767810e-01  2.9516341e-02 -3.8543475e-01]
 [ 2.8783599e-01 -2.4597962e-01 -2.5341970e-01]
 [-3.7734714e-01  4.9641183e-01 -4.1230491e-01]
 [ 3.8700330e-01 -5.6648219e-01  2.8766361e-01]] 
Episode: 25: [[-1.1308917e-03  2.9302534e-04  2.6432937e-04]
 [ 3.0520090e-04  7.9708622e-04 -1.5640624e-04]
 [ 9.3781826e-04 -2.1809633e-04 -3.0001040e-04]
 [-1.6338772e-01 -3.3950484e-01  4.4157725e-02]
 [ 1.2571283e-01 -4.6045106e-02 -4.0625058e-02]
 [ 4.6131966e-01  5.2224702e-01 -3.8324970e-01]
 [ 2.2809537e-01 -4.6072647e-01  3.5078168e-01]
 [ 3.7706107e-01  4.8576149e-01  4.0174586e-01]
 [-1.9768427e-01  2.9505851e-02 -3.8543251e-01]
 [ 2.8785267e-01 -2.4602485e-01 -2.5338134e-01]
 [-3.7740064e-01  4.9645442e-01 -4.1235149e-01]
 [ 3.8701704e-01 -5.6645054e-01  2.8767145e-01]] 
Episode: 26: [[-1.1576753e-03  2.5018377e-04  3.1404442e-04]
 [ 3.6147053e-04  8.4922044e-04 -2.1375158e-04]
 [ 9.3445677e-04 -1.7478496e-04 -3.4307688e-04]
 [-1.6342412e-01 -3.3947858e-01  4.4160265e-02]
 [ 1.2569338e-01 -4.5991268e-02 -4.0671561e-02]
 [ 4.6131986e-01  5.2219534e-01 -3.8321298e-01]
 [ 2.2810979e-01 -4.6071786e-01  3.5076487e-01]
 [ 3.7705022e-01  4.8577541e-01  4.0168872e-01]
 [-1.9766931e-01  2.9517109e-02 -3.8545021e-01]
 [ 2.8787497e-01 -2.4607024e-01 -2.5335419e-01]
 [-3.7743288e-01  4.9650702e-01 -4.1240737e-01]
 [ 3.8700959e-01 -5.6643212e-01  2.8769600e-01]] 
