Episode: 1: [[ 0.          0.          0.        ]
 [ 0.          0.          0.        ]
 [ 0.          0.          0.        ]
 [-0.03829795  0.47320485  0.27406526]
 [-0.38992545  0.46269286  0.3066008 ]
 [ 0.40508252  0.07705551 -0.39840895]
 [ 0.          0.          0.        ]
 [ 0.          0.          0.        ]
 [ 0.          0.          0.        ]] 
Episode: 2: [[ 0.0000000e+00  0.0000000e+00  0.0000000e+00]
 [ 0.0000000e+00  0.0000000e+00  0.0000000e+00]
 [ 0.0000000e+00  0.0000000e+00  0.0000000e+00]
 [-3.8197953e-02  4.7310486e-01  2.7416524e-01]
 [-3.9002544e-01  4.6259287e-01  3.0650082e-01]
 [ 4.0498254e-01  7.6955512e-02 -3.9850894e-01]
 [ 9.9999721e-05 -9.9999976e-05 -9.9999968e-05]
 [-9.9999932e-05 -9.9999961e-05 -9.9999961e-05]
 [-9.9999961e-05  9.9999968e-05  9.9999932e-05]] 
Episode: 3: [[-7.4410978e-05 -7.4410462e-05 -7.4413576e-05]
 [-7.4408461e-05 -7.4410280e-05 -7.4413525e-05]
 [-7.4409247e-05 -7.4411459e-05 -7.4409843e-05]
 [-3.8272165e-02  4.7317895e-01  2.7409476e-01]
 [-3.8995188e-01  4.6251836e-01  3.0657402e-01]
 [ 4.0490624e-01  7.7027448e-02 -3.9858341e-01]
 [ 2.5611975e-05 -2.5692250e-05 -1.7462901e-04]
 [-2.5753856e-05 -2.5754518e-05 -2.5652524e-05]
 [-2.5745154e-05  7.2047791e-05  1.7451783e-04]] 
Episode: 4: [[-1.33733643e-04 -1.29279884e-04 -1.31927372e-04]
 [-1.33242516e-04 -1.13011673e-04 -1.26527055e-04]
 [-1.23807447e-04 -1.19920136e-04 -1.59750343e-04]
 [-3.83294709e-02  4.73236740e-01  2.74026543e-01]
 [-3.89899373e-01  4.62439090e-01  3.06627899e-01]
 [ 4.04825479e-01  7.70678446e-02 -3.98668140e-01]
 [-3.27671914e-05  3.30788098e-05 -2.55036546e-04]
 [ 3.24014545e-05  2.59359731e-05  1.04152350e-05]
 [ 2.92438344e-05  7.02027319e-06  2.22956558e-04]] 
Episode: 5: [[-1.8473694e-04 -1.6067106e-04 -1.7934770e-04]
 [-1.8481593e-04 -1.2573191e-04 -1.6973405e-04]
 [-1.6999803e-04 -1.4238921e-04 -2.3734558e-04]
 [-3.8374599e-02  4.7328344e-01  2.7400708e-01]
 [-3.8985622e-01  4.6237540e-01  3.0667216e-01]
 [ 4.0476152e-01  7.7099830e-02 -3.9873642e-01]
 [-7.9832505e-05  7.9560821e-05 -3.2094307e-04]
 [ 8.1110164e-05  6.3138694e-05  4.1311538e-05]
 [ 7.5446143e-05 -7.0979528e-05  2.6604399e-04]] 
Episode: 6: [[-2.29956524e-04 -1.91349332e-04 -2.19883368e-04]
 [-2.28852194e-04 -1.34385729e-04 -2.07295874e-04]
 [-1.96208028e-04 -1.51317086e-04 -3.06003727e-04]
 [-3.84109989e-02  4.73323315e-01  2.73971498e-01]
 [-3.89817268e-01  4.62323457e-01  3.06732267e-01]
 [ 4.04705435e-01  7.71528855e-02 -3.98795247e-01]
 [-1.19141136e-04  1.18965545e-04 -3.76263110e-04]
 [ 1.22481259e-04  9.42573388e-05  6.96437346e-05]
 [ 1.12516471e-04 -1.49865678e-04  3.02611094e-04]] 
Episode: 7: [[-2.6916561e-04 -2.1793060e-04 -2.5564438e-04]
 [-2.6700937e-04 -1.4172068e-04 -2.3881001e-04]
 [-2.1906976e-04 -1.5744370e-04 -3.6574449e-04]
 [-3.8442403e-02  4.7335780e-01  2.7394184e-01]
 [-3.8978368e-01  4.6227604e-01  3.0678439e-01]
 [ 4.0465704e-01  7.7199563e-02 -3.9884576e-01]
 [-1.5301364e-04  1.5289801e-04 -4.2466971e-04]
 [ 1.5818648e-04  1.2103189e-04  9.3450180e-05]
 [ 1.4450024e-04 -2.1949907e-04  3.3431579e-04]] 
Episode: 8: [[-3.0102220e-04 -2.4166556e-04 -2.8762873e-04]
 [-2.9312065e-04 -1.4553148e-04 -2.6739400e-04]
 [-2.3425852e-04 -1.6424287e-04 -4.1722570e-04]
 [-3.8469583e-02  4.7338820e-01  2.7391571e-01]
 [-3.8975370e-01  4.6223673e-01  3.0682862e-01]
 [ 4.0462035e-01  7.7239871e-02 -3.9888617e-01]
 [-1.8278020e-04  1.8253260e-04 -4.6303091e-04]
 [ 1.8814893e-04  1.4407570e-04  1.1606912e-04]
 [ 1.7207141e-04 -2.7913801e-04  3.6359241e-04]] 
Episode: 9: [[-3.3383688e-04 -2.4986072e-04 -3.1451340e-04]
 [-3.2776050e-04 -1.4240676e-04 -2.9332048e-04]
 [-2.5424972e-04 -1.7400119e-04 -4.6355382e-04]
 [-3.8493026e-02  4.7341409e-01  2.7388418e-01]
 [-3.8972783e-01  4.6220818e-01  3.0686387e-01]
 [ 4.0458623e-01  7.7272892e-02 -3.9892244e-01]
 [-2.0845441e-04  2.0713688e-04 -4.9388513e-04]
 [ 2.1691705e-04  1.6327047e-04  1.3612346e-04]
 [ 1.9717962e-04 -3.2895428e-04  3.8938632e-04]] 
Episode: 10: [[-3.8161929e-04 -2.3320295e-04 -3.3649328e-04]
 [-3.5690109e-04 -1.1778305e-04 -3.1075728e-04]
 [-2.9502832e-04 -1.7429807e-04 -5.1555748e-04]
 [-3.8515035e-02  4.7344649e-01  2.7388981e-01]
 [-3.8969323e-01  4.6218270e-01  3.0688658e-01]
 [ 4.0454715e-01  7.7321604e-02 -3.9895847e-01]
 [-2.2616179e-04  2.2732119e-04 -5.2939722e-04]
 [ 2.4234138e-04  1.7615176e-04  1.4576518e-04]
 [ 2.2243174e-04 -3.7850041e-04  4.1247369e-04]] 
Episode: 11: [[-4.3222608e-04 -1.9559081e-04 -3.5623857e-04]
 [-3.8772795e-04 -7.5961492e-05 -3.2698663e-04]
 [-3.5092898e-04 -1.5968693e-04 -5.6641159e-04]
 [-3.8536817e-02  4.7348982e-01  2.7392429e-01]
 [-3.8964984e-01  4.6214861e-01  3.0692515e-01]
 [ 4.0450794e-01  7.7334911e-02 -3.9898959e-01]
 [-2.4004818e-04  2.4271978e-04 -5.6017312e-04]
 [ 2.6635057e-04  1.8349657e-04  1.5531917e-04]
 [ 2.4803879e-04 -4.4038595e-04  4.3479071e-04]] 
Episode: 12: [[-4.7443743e-04 -1.6226535e-04 -3.7625630e-04]
 [-4.0245272e-04 -3.8955390e-05 -3.4180059e-04]
 [-3.8269127e-04 -1.2780531e-04 -6.1069045e-04]
 [-3.8555931e-02  4.7352913e-01  2.7393717e-01]
 [-3.8961068e-01  4.6211636e-01  3.0696130e-01]
 [ 4.0447560e-01  7.7353306e-02 -3.9901534e-01]
 [-2.5262561e-04  2.5650524e-04 -5.8618828e-04]
 [ 2.8643021e-04  1.9038061e-04  1.6518100e-04]
 [ 2.6913005e-04 -5.1167316e-04  4.5413568e-04]] 
Episode: 13: [[-5.0319947e-04 -1.3667214e-04 -3.9212429e-04]
 [-3.7989591e-04 -6.0115417e-06 -3.5436309e-04]
 [-4.0890137e-04 -9.1334616e-05 -6.5272162e-04]
 [-3.8578764e-02  4.7356352e-01  2.7394900e-01]
 [-3.8957331e-01  4.6209088e-01  3.0699509e-01]
 [ 4.0445170e-01  7.7384017e-02 -3.9903897e-01]
 [-2.6562859e-04  2.6853257e-04 -6.1265292e-04]
 [ 2.9722656e-04  1.9658561e-04  1.7251207e-04]
 [ 2.8761433e-04 -5.8440678e-04  4.7098775e-04]] 
Episode: 14: [[-5.29122422e-04 -1.15731294e-04 -4.06563660e-04]
 [-3.62324237e-04  2.01845305e-05 -3.65248066e-04]
 [-4.36516333e-04 -6.30034410e-05 -6.88465196e-04]
 [-3.85993309e-02  4.73594368e-01  2.73963004e-01]
 [-3.89539301e-01  4.62068379e-01  3.07025462e-01]
 [ 4.04424787e-01  7.74134845e-02 -3.99059772e-01]
 [-2.77350831e-04  2.79239524e-04 -6.36125449e-04]
 [ 3.07477138e-04  2.02796073e-04  1.78651084e-04]
 [ 3.04748391e-04 -6.44707878e-04  4.85825643e-04]] 
Episode: 15: [[-4.9342349e-04 -6.4249791e-05 -4.2826583e-04]
 [-3.1192848e-04  7.2967458e-05 -3.8786256e-04]
 [-4.8732874e-04 -2.4517405e-05 -7.4454839e-04]
 [-3.8575523e-02  4.7362864e-01  2.7396616e-01]
 [-3.8952526e-01  4.6210214e-01  3.0698374e-01]
 [ 4.0437219e-01  7.7398181e-02 -3.9904618e-01]
 [-3.0764609e-04  2.8223317e-04 -6.3568610e-04]
 [ 2.8361854e-04  1.8446904e-04  1.9953326e-04]
 [ 3.2886342e-04 -7.1505824e-04  5.2795303e-04]] 
Episode: 16: [[-4.6155867e-04 -2.0248266e-05 -4.4970037e-04]
 [-2.6639929e-04  1.2184702e-04 -4.0916572e-04]
 [-5.3698738e-04 -2.4408615e-05 -7.9444679e-04]
 [-3.8548380e-02  4.7365966e-01  2.7396420e-01]
 [-3.8951039e-01  4.6213573e-01  3.0694646e-01]
 [ 4.0432099e-01  7.7379644e-02 -3.9902934e-01]
 [-3.3538061e-04  2.8733720e-04 -6.3308625e-04]
 [ 2.6262840e-04  1.6761999e-04  2.1970557e-04]
 [ 3.5148847e-04 -7.7046856e-04  5.6779478e-04]] 
Episode: 17: [[-4.3457389e-04  2.0591950e-05 -4.6865529e-04]
 [-2.2637603e-04  1.6632509e-04 -4.2699388e-04]
 [-5.8822008e-04 -2.0836847e-05 -8.3969260e-04]
 [-3.8525060e-02  4.7368711e-01  2.7395689e-01]
 [-3.8949728e-01  4.6216574e-01  3.0691242e-01]
 [ 4.0427408e-01  7.7360161e-02 -3.9901629e-01]
 [-3.5957590e-04  2.9128688e-04 -6.3371815e-04]
 [ 2.4434811e-04  1.5214986e-04  2.3654550e-04]
 [ 3.7276873e-04 -8.2199631e-04  6.0301245e-04]] 
Episode: 18: [[-4.1120197e-04  5.5001641e-05 -4.8326596e-04]
 [-1.9102107e-04  2.0631871e-04 -4.4519911e-04]
 [-6.3754240e-04 -1.8441428e-05 -8.8089658e-04]
 [-3.8504984e-02  4.7371152e-01  2.7391940e-01]
 [-3.8948506e-01  4.6218279e-01  3.0688226e-01]
 [ 4.0423077e-01  7.7342577e-02 -3.9900389e-01]
 [-3.8087941e-04  2.9631922e-04 -6.3506892e-04]
 [ 2.2849606e-04  1.3797148e-04  2.5206426e-04]
 [ 3.9242778e-04 -8.6693949e-04  6.3532614e-04]] 
Episode: 19: [[-3.9098869e-04  8.4682848e-05 -4.9690530e-04]
 [-1.5975772e-04  2.4230873e-04 -4.6255029e-04]
 [-6.8320299e-04 -2.3506249e-05 -9.1765338e-04]
 [-3.8485806e-02  4.7373340e-01  2.7388191e-01]
 [-3.8947496e-01  4.6219948e-01  3.0685550e-01]
 [ 4.0419018e-01  7.7328250e-02 -3.9899158e-01]
 [-3.9998206e-04  3.0133972e-04 -6.3480454e-04]
 [ 2.1483169e-04  1.2537788e-04  2.6690328e-04]
 [ 4.1044090e-04 -9.0481958e-04  6.6477613e-04]] 
Episode: 20: [[-3.7262449e-04  1.1222426e-04 -5.1068148e-04]
 [-1.3085935e-04  2.7426815e-04 -4.7724260e-04]
 [-7.1116723e-04 -3.0099513e-05 -9.4870618e-04]
 [-3.8468480e-02  4.7375381e-01  2.7384612e-01]
 [-3.8946626e-01  4.6221620e-01  3.0683064e-01]
 [ 4.0415555e-01  7.7315427e-02 -3.9897871e-01]
 [-4.1731374e-04  3.0520323e-04 -6.3407928e-04]
 [ 2.0201685e-04  1.1445157e-04  2.8023569e-04]
 [ 4.2520769e-04 -9.3582331e-04  6.9162954e-04]] 
