Episode: 1: [[ 0.00092566  0.1884309  -0.47406635  0.46717453  0.19659376  0.4503889
  -0.10379273  0.3929658 ]
 [-0.06094849  0.41054338 -0.53069663 -0.20726025  0.18841356  0.08876103
  -0.2593558  -0.13485932]
 [-0.00112575  0.30005962 -0.31495517  0.41223353  0.06572521  0.28130668
  -0.38617328 -0.559901  ]
 [-0.09894142 -0.5449288  -0.34873372 -0.5694712  -0.42014933  0.327869
   0.11496413  0.11893058]
 [ 0.09767616 -0.3025094  -0.41225266  0.19843453  0.5474354   0.20367622
  -0.21176076  0.0922938 ]
 [-0.076509   -0.07437015  0.31738156 -0.26549503 -0.5580083   0.405711
  -0.4968884  -0.52619445]
 [ 0.001       0.          0.          0.          0.          0.
   0.          0.        ]
 [ 0.001       0.          0.          0.          0.          0.
   0.          0.        ]
 [ 0.001       0.          0.          0.          0.          0.
   0.          0.        ]] 
Episode: 2: [[ 9.25660133e-04  1.88430905e-01 -4.74066347e-01  4.67174530e-01
   1.96593761e-01  4.50388908e-01 -1.03792727e-01  3.92965794e-01]
 [-6.09484911e-02  4.10543382e-01 -5.30696630e-01 -2.07260251e-01
   1.88413560e-01  8.87610316e-02 -2.59355813e-01 -1.34859324e-01]
 [-1.12575293e-03  3.00059617e-01 -3.14955175e-01  4.12233531e-01
   6.57252073e-02  2.81306684e-01 -3.86173278e-01 -5.59900999e-01]
 [-9.88414139e-02 -5.44828773e-01 -3.48633736e-01 -5.69371164e-01
  -4.20049340e-01  3.27968985e-01  1.15064129e-01  1.19030580e-01]
 [ 9.77761596e-02 -3.02409410e-01 -4.12152678e-01  1.98534533e-01
   5.47535419e-01  2.03776225e-01 -2.11660758e-01  9.23938006e-02]
 [-7.64089972e-02 -7.44701475e-02  3.17481548e-01 -2.65395045e-01
  -5.57908297e-01  4.05611008e-01 -4.96988386e-01 -5.26094437e-01]
 [ 1.09999999e-03  9.99999902e-05  1.00000005e-04  9.99999975e-05
   9.99999975e-05  9.99999975e-05  9.99999975e-05  9.99999975e-05]
 [ 9.00000043e-04 -1.00000005e-04  9.99999975e-05  9.99999902e-05
  -1.00000005e-04 -1.00000005e-04 -9.99999975e-05 -9.99999975e-05]
 [ 1.09999999e-03  9.99999975e-05  1.00000012e-04  1.00000005e-04
   1.00000005e-04 -9.99999975e-05  9.99999829e-05 -9.99999902e-05]] 
Episode: 3: [[ 1.00007374e-03  1.88505322e-01 -4.73991930e-01  4.67248946e-01
   1.96519345e-01  4.50314492e-01 -1.03867143e-01  3.92891377e-01]
 [-6.08740784e-02  4.10617799e-01 -5.30622244e-01 -2.07185835e-01
   1.88339144e-01  8.86866152e-02 -2.59430230e-01 -1.34784907e-01]
 [-1.05133944e-03  3.00134033e-01 -3.15029591e-01  4.12307948e-01
   6.57996237e-02  2.81232268e-01 -3.86247694e-01 -5.59826612e-01]
 [-9.87663642e-02 -5.44752300e-01 -3.48558992e-01 -5.69296122e-01
  -4.19974506e-01  3.28043580e-01  1.15138784e-01  1.19105019e-01]
 [ 9.78505835e-02 -3.02334934e-01 -4.12078172e-01  1.98614702e-01
   5.47610223e-01  2.03850657e-01 -2.11724266e-01  9.24682468e-02]
 [-7.63343275e-02 -7.43957907e-02  3.17555964e-01 -2.65320629e-01
  -5.57833791e-01  4.05685365e-01 -4.96913999e-01 -5.26019990e-01]
 [ 1.02567312e-03  2.62075337e-05  2.58225264e-05  2.59649314e-05
   2.58797591e-05  2.58263681e-05  1.75079433e-04  1.74952438e-04]
 [ 9.74389201e-04 -2.61952373e-05  1.74528890e-04  1.74741464e-04
  -2.56320709e-05 -2.61561945e-05 -2.69243901e-05 -2.99386447e-05]
 [ 1.02569675e-03  2.60169763e-05  2.63506663e-05  2.59772423e-05
   2.61757232e-05 -2.57424254e-05  2.62746253e-05 -1.74511137e-04]] 
Episode: 4: [[ 1.05832540e-03  1.88564941e-01 -4.73932892e-01  4.67306882e-01
   1.96463317e-01  4.50257838e-01 -1.03924327e-01  3.92840534e-01]
 [-6.08155280e-02  4.10677463e-01 -5.30563533e-01 -2.07127690e-01
   1.88282400e-01  8.86313319e-02 -2.59483993e-01 -1.34716600e-01]
 [-9.83005273e-04  3.00215244e-01 -3.15043539e-01  4.12369788e-01
   6.58655092e-02  2.81176925e-01 -3.86292636e-01 -5.59763610e-01]
 [-9.87070575e-02 -5.44680536e-01 -3.48499238e-01 -5.69235146e-01
  -4.19913203e-01  3.28114539e-01  1.15199104e-01  1.19161814e-01]
 [ 9.79075953e-02 -3.02280784e-01 -4.12021726e-01  1.98594585e-01
   5.47660589e-01  2.03862295e-01 -2.11800471e-01  9.25253406e-02]
 [-7.62776062e-02 -7.43394345e-02  3.17613423e-01 -2.65263855e-01
  -5.57778120e-01  4.05737638e-01 -4.96857136e-01 -5.25963604e-01]
 [ 9.64286795e-04 -3.17448576e-05 -3.24989524e-05 -3.29231261e-05
  -3.28066781e-05 -3.21366970e-05  2.30726684e-04  2.31411788e-04]
 [ 1.03158958e-03  3.24166831e-05  2.32584716e-04  2.32384977e-04
   3.17167141e-05  3.02304870e-05  2.76160681e-05  1.74276793e-05]
 [ 9.59553290e-04 -3.11491276e-05 -3.41724044e-05 -3.24843204e-05
  -3.73244693e-05 -2.16220178e-05 -4.58409850e-05 -2.34655919e-04]] 
Episode: 5: [[ 1.10601471e-03  1.88613668e-01 -4.73884493e-01  4.67354327e-01
   1.96417481e-01  4.50211316e-01 -1.03971176e-01  3.92799735e-01]
 [-6.07675649e-02  4.10726219e-01 -5.30515432e-01 -2.07080007e-01
   1.88235939e-01  8.85860324e-02 -2.59527922e-01 -1.34659976e-01]
 [-9.27634654e-04  3.00279647e-01 -3.15056384e-01  4.12420243e-01
   6.59190714e-02  2.81131446e-01 -3.86330038e-01 -5.59712231e-01]
 [-9.86581668e-02 -5.44621229e-01 -3.48452359e-01 -5.69186985e-01
  -4.19862360e-01  3.28168750e-01  1.15248874e-01  1.19208202e-01]
 [ 9.79544222e-02 -3.02235872e-01 -4.11975294e-01  1.98593110e-01
   5.47702014e-01  2.03874156e-01 -2.11857915e-01  9.25722346e-02]
 [-7.62326121e-02 -7.42932782e-02  3.17660153e-01 -2.65218228e-01
  -5.57732522e-01  4.05779362e-01 -4.96811241e-01 -5.25917292e-01]
 [ 9.14069940e-04 -7.91894854e-05 -8.02463328e-05 -8.09957419e-05
  -8.08029945e-05 -7.91279599e-05  2.76342646e-04  2.77656771e-04]
 [ 1.07852358e-03  8.05993768e-05  2.80210486e-04  2.79616623e-04
   7.87098979e-05  7.64412398e-05  7.23692065e-05  5.61891393e-05]
 [ 9.06570349e-04 -7.71137056e-05 -8.24570525e-05 -7.87737081e-05
  -8.85168993e-05 -1.31558700e-05 -1.04381383e-04 -2.83539062e-04]] 
Episode: 6: [[ 1.14675541e-03  1.88655481e-01 -4.73843068e-01  4.67395008e-01
   1.96380779e-01  4.50172424e-01 -1.04010418e-01  3.92767549e-01]
 [-6.07264303e-02  4.10768181e-01 -5.30474246e-01 -2.07039252e-01
   1.88197970e-01  8.85490999e-02 -2.59563535e-01 -1.34607717e-01]
 [-8.77749990e-04  3.00340295e-01 -3.15056264e-01  4.12463903e-01
   6.59658611e-02  2.81093597e-01 -3.86358380e-01 -5.59667289e-01]
 [-9.86171216e-02 -5.44552624e-01 -3.48412365e-01 -5.69149375e-01
  -4.19811159e-01  3.28215033e-01  1.15290694e-01  1.19260073e-01]
 [ 9.79939029e-02 -3.02200049e-01 -4.11936522e-01  1.98561937e-01
   5.47734082e-01  2.03870192e-01 -2.11922899e-01  9.26116854e-02]
 [-7.61886612e-02 -7.42542148e-02  3.17700505e-01 -2.65179336e-01
  -5.57691157e-01  4.05815393e-01 -4.96772319e-01 -5.25878131e-01]
 [ 8.71381897e-04 -1.19311793e-04 -1.20664568e-04 -1.21733683e-04
  -1.21476158e-04 -1.18053918e-04  3.14735807e-04  3.16796650e-04]
 [ 1.11821527e-03  1.21303259e-04  3.20425606e-04  3.19530867e-04
   1.18407654e-04  1.15497962e-04  1.10199457e-04  8.88946524e-05]
 [ 8.58749903e-04 -1.16789117e-04 -1.24300219e-04 -1.19149627e-04
  -1.33141148e-04 -7.72271778e-06 -1.55038695e-04 -3.25522065e-04]] 
Episode: 7: [[ 1.18190795e-03  1.88691869e-01 -4.73807037e-01  4.67429847e-01
   1.96341008e-01  4.50139165e-01 -1.04044132e-01  3.92741263e-01]
 [-6.06910102e-02  4.10804451e-01 -5.30438602e-01 -2.07004160e-01
   1.88165098e-01  8.85170326e-02 -2.59594113e-01 -1.34562373e-01]
 [-8.31944053e-04  3.00399035e-01 -3.15045536e-01  4.12502319e-01
   6.60018995e-02  2.81062067e-01 -3.86378646e-01 -5.59627175e-01]
 [-9.85821411e-02 -5.44493318e-01 -3.48377943e-01 -5.69117904e-01
  -4.19768840e-01  3.28253806e-01  1.15326211e-01  1.19304493e-01]
 [ 9.80279073e-02 -3.02169234e-01 -4.11903143e-01  1.98533699e-01
   5.47761500e-01  2.03865469e-01 -2.11980581e-01  9.26456749e-02]
 [-7.61507526e-02 -7.42204934e-02  3.17735285e-01 -2.65145808e-01
  -5.57655513e-01  4.05846447e-01 -4.96738762e-01 -5.25844336e-01]
 [ 8.34489474e-04 -1.53927147e-04 -1.55528251e-04 -1.56879716e-04
  -1.56539551e-04 -1.51648826e-04  3.47758614e-04  3.50491173e-04]
 [ 1.15239969e-03  1.56343565e-04  3.55070486e-04  3.53923882e-04
   1.52616762e-04  1.49151689e-04  1.42794161e-04  1.17061005e-04]
 [ 8.17184453e-04 -1.51126718e-04 -1.60516211e-04 -1.54021458e-04
  -1.71609921e-04 -3.34270044e-06 -1.98808790e-04 -3.61783575e-04]] 
Episode: 8: [[ 1.2125310e-03  1.8872310e-01 -4.7377595e-01  4.6746001e-01
   1.9630532e-01  4.5011029e-01 -1.0407350e-01  3.9271915e-01]
 [-6.0659971e-02  4.1083685e-01 -5.3040731e-01 -2.0697296e-01
   1.8813795e-01  8.8490650e-02 -2.5961939e-01 -1.3451749e-01]
 [-7.9213409e-04  3.0044997e-01 -3.1503680e-01  4.1253552e-01
   6.6032708e-02  2.8103477e-01 -3.8639668e-01 -5.5959213e-01]
 [-9.8551661e-02 -5.4444188e-01 -3.4834820e-01 -5.6909078e-01
  -4.1973197e-01  3.2828766e-01  1.1535706e-01  1.1934327e-01]
 [ 9.8057635e-02 -3.0214286e-01 -4.1187409e-01  1.9850978e-01
   5.4778510e-01  2.0385753e-01 -2.1202418e-01  9.2675321e-02]
 [-7.6117657e-02 -7.4190967e-02  3.1776565e-01 -2.6511645e-01
  -5.5762434e-01  4.0587363e-01 -4.9670944e-01 -5.2581477e-01]
 [ 8.0255611e-04 -1.8400575e-04 -1.8573273e-04 -1.8743036e-04
  -1.8707641e-04 -1.8102358e-04  3.7654070e-04  3.8008724e-04]
 [ 1.1822536e-03  1.8689771e-04  3.8531364e-04  3.8396500e-04
   1.8247731e-04  1.7852624e-04  1.7126004e-04  1.4160037e-04]
 [ 7.8074052e-04 -1.8083860e-04 -1.9215637e-04 -1.8452910e-04
  -2.0524525e-04  1.5137266e-07 -2.3729510e-04 -3.9347738e-04]] 
Episode: 9: [[ 1.23967964e-03  1.88751057e-01 -4.73748475e-01  4.67486352e-01
   1.96273938e-01  4.50085014e-01 -1.04099154e-01  3.92701089e-01]
 [-6.06324449e-02  4.10865605e-01 -5.30379713e-01 -2.06945345e-01
   1.88115135e-01  8.84681419e-02 -2.59640694e-01 -1.34476095e-01]
 [-7.56176363e-04  3.00504655e-01 -3.15028101e-01  4.12565142e-01
   6.60609975e-02  2.81010687e-01 -3.86411875e-01 -5.59559405e-01]
 [-9.85242799e-02 -5.44397414e-01 -3.48322570e-01 -5.69066882e-01
  -4.19699699e-01  3.28318298e-01  1.15382724e-01  1.19377345e-01]
 [ 9.80838910e-02 -3.02119285e-01 -4.11848336e-01  1.98505729e-01
   5.47806680e-01  2.03861445e-01 -2.12048247e-01  9.27013978e-02]
 [-7.60885477e-02 -7.41647184e-02  3.17792416e-01 -2.65090525e-01
  -5.57596982e-01  4.05897498e-01 -4.96683598e-01 -5.25788665e-01]
 [ 7.72326719e-04 -2.11136619e-04 -2.12945612e-04 -2.15651089e-04
  -2.14646803e-04 -2.07589197e-04  4.00861551e-04  4.05637838e-04]
 [ 1.20856636e-03  2.13621650e-04  4.12146008e-04  4.10434441e-04
   2.08847850e-04  2.04396041e-04  1.96386536e-04  1.63328077e-04]
 [ 7.42248609e-04 -2.08659185e-04 -2.22032788e-04 -2.13751657e-04
  -2.37091808e-04  2.60243951e-07 -2.73181242e-04 -4.22553072e-04]] 
Episode: 10: [[ 1.26304314e-03  1.88773796e-01 -4.73726153e-01  4.67508554e-01
   1.96245089e-01  4.50061798e-01 -1.04122765e-01  3.92678797e-01]
 [-6.06080256e-02  4.10890162e-01 -5.30355632e-01 -2.06920817e-01
   1.88094661e-01  8.84472728e-02 -2.59659797e-01 -1.34442464e-01]
 [-7.26570783e-04  3.00549775e-01 -3.15017194e-01  4.12591457e-01
   6.60873353e-02  2.80988485e-01 -3.86427581e-01 -5.59528708e-01]
 [-9.85012203e-02 -5.44356942e-01 -3.48299533e-01 -5.69046259e-01
  -4.19669658e-01  3.28347147e-01  1.15406036e-01  1.19407557e-01]
 [ 9.81078222e-02 -3.02093357e-01 -4.11823630e-01  1.98538214e-01
   5.47834694e-01  2.03901872e-01 -2.12024167e-01  9.27250981e-02]
 [-7.60626197e-02 -7.41409361e-02  3.17816138e-01 -2.65067488e-01
  -5.57573020e-01  4.05918747e-01 -4.96660501e-01 -5.25765359e-01]
 [ 7.45943165e-04 -2.35252563e-04 -2.36999796e-04 -2.40787660e-04
  -2.39084373e-04 -2.30718375e-04  4.22695419e-04  4.28338448e-04]
 [ 1.23203034e-03  2.37092041e-04  4.35962022e-04  4.33892739e-04
   2.32250793e-04  2.27381955e-04  2.18746645e-04  1.82534262e-04]
 [ 7.08309119e-04 -2.32815772e-04 -2.49344215e-04 -2.39930596e-04
  -2.65568902e-04  2.78994321e-06 -3.05504538e-04 -4.48686624e-04]] 
Episode: 11: [[ 1.28364493e-03  1.88795909e-01 -4.73705471e-01  4.67528790e-01
   1.96217760e-01  4.50041384e-01 -1.04143605e-01  3.92659456e-01]
 [-6.05839416e-02  4.10918653e-01 -5.30331254e-01 -2.06895739e-01
   1.88084275e-01  8.84340927e-02 -2.59665936e-01 -1.34395361e-01]
 [-6.87678577e-04  3.00611138e-01 -3.14975291e-01  4.12620187e-01
   6.61137402e-02  2.80972928e-01 -3.86426121e-01 -5.59495628e-01]
 [-9.84837189e-02 -5.44319928e-01 -3.48279953e-01 -5.69032192e-01
  -4.19647366e-01  3.28369945e-01  1.15424439e-01  1.19434118e-01]
 [ 9.81295705e-02 -3.02066326e-01 -4.11800712e-01  1.98584124e-01
   5.47865868e-01  2.03951299e-01 -2.11984172e-01  9.27464589e-02]
 [-7.60368630e-02 -7.41160884e-02  3.17838490e-01 -2.65044540e-01
  -5.57553172e-01  4.05945063e-01 -4.96636629e-01 -5.25738478e-01]
 [ 7.22347642e-04 -2.56965373e-04 -2.58507294e-04 -2.63406488e-04
  -2.61032023e-04 -2.51898513e-04  4.41890414e-04  4.48375737e-04]
 [ 1.25274016e-03  2.57580134e-04  4.57072980e-04  4.54748806e-04
   2.53057224e-04  2.47794291e-04  2.38588153e-04  1.99335147e-04]
 [ 6.52334769e-04 -2.61013076e-04 -2.75960425e-04 -2.65056355e-04
  -3.00439016e-04 -3.32250638e-05 -3.35538061e-04 -4.78642585e-04]] 
Episode: 12: [[ 1.30239839e-03  1.88814834e-01 -4.73687321e-01  4.67546701e-01
   1.96192622e-01  4.50023353e-01 -1.04161926e-01  3.92644167e-01]
 [-6.05626367e-02  4.10942405e-01 -5.30309856e-01 -2.06873760e-01
   1.88073784e-01  8.84204358e-02 -2.59673774e-01 -1.34357288e-01]
 [-6.52050949e-04  3.00657064e-01 -3.14942777e-01  4.12644982e-01
   6.61379024e-02  2.80958503e-01 -3.86427432e-01 -5.59466124e-01]
 [-9.84686166e-02 -5.44286013e-01 -3.48261565e-01 -5.69019675e-01
  -4.19626981e-01  3.28393519e-01  1.15439184e-01  1.19457550e-01]
 [ 9.81489569e-02 -3.02042753e-01 -4.11780268e-01  1.98614940e-01
   5.47893643e-01  2.04000980e-01 -2.11942449e-01  9.27656516e-02]
 [-7.60142952e-02 -7.40948617e-02  3.17858487e-01 -2.65024364e-01
  -5.57536185e-01  4.05968070e-01 -4.96615261e-01 -5.25714040e-01]
 [ 7.00932636e-04 -2.76493898e-04 -2.77892424e-04 -2.83602887e-04
  -2.80710752e-04 -2.69129669e-04  4.59994568e-04  4.66650963e-04]
 [ 1.27131760e-03  2.76073348e-04  4.76018933e-04  4.73442924e-04
   2.71699741e-04  2.66079296e-04  2.56357773e-04  2.14439337e-04]
 [ 6.01653825e-04 -2.86736351e-04 -2.99697655e-04 -2.87916831e-04
  -3.32037569e-04 -6.59236830e-05 -3.62680992e-04 -5.05700882e-04]] 
Episode: 13: [[ 1.3195144e-03  1.8884373e-01 -4.7367075e-01  4.6756890e-01
   1.9619101e-01  4.5000660e-01 -1.0417800e-01  3.9261910e-01]
 [-6.0543921e-02  4.1096625e-01 -5.3028888e-01 -2.0685345e-01
   1.8806690e-01  8.8408045e-02 -2.5968140e-01 -1.3432761e-01]
 [-6.1044190e-04  3.0069491e-01 -3.1492448e-01  4.1267213e-01
   6.6171534e-02  2.8094763e-01 -3.8641283e-01 -5.5943787e-01]
 [-9.8455012e-02 -5.4424596e-01 -3.4824488e-01 -5.6900638e-01
  -4.1959888e-01  3.2841772e-01  1.1545632e-01  1.1947898e-01]
 [ 9.8167025e-02 -3.0204397e-01 -4.1176853e-01  1.9856936e-01
   5.4791552e-01  2.0401025e-01 -2.1191753e-01  9.2783064e-02]
 [-7.5993866e-02 -7.4075334e-02  3.1787643e-01 -2.6500633e-01
  -5.5752188e-01  4.0598866e-01 -4.9659604e-01 -5.2569181e-01]
 [ 6.7982281e-04 -2.9467838e-04 -2.9572126e-04 -3.0308869e-04
  -2.9897370e-04 -2.8433444e-04  4.7609917e-04  4.8263275e-04]
 [ 1.2879387e-03  2.9243171e-04  4.9293187e-04  4.9022166e-04
   2.8842344e-04  2.8241958e-04  2.7224669e-04  2.2781749e-04]
 [ 5.5922993e-04 -3.0867921e-04 -3.1998052e-04 -3.0897951e-04
  -3.6093817e-04 -9.5609008e-05 -3.8752757e-04 -5.3024065e-04]] 
Episode: 14: [[ 1.33503333e-03  1.88870102e-01 -4.73655432e-01  4.67589080e-01
   1.96189463e-01  4.49991494e-01 -1.04192406e-01  3.92597109e-01]
 [-6.05261214e-02  4.10990119e-01 -5.30268729e-01 -2.06834793e-01
   1.88061818e-01  8.83987918e-02 -2.59686828e-01 -1.34296432e-01]
 [-5.71922166e-04  3.00733060e-01 -3.14903706e-01  4.12697166e-01
   6.62022606e-02  2.80938268e-01 -3.86398524e-01 -5.59411705e-01]
 [-9.84430835e-02 -5.44210136e-01 -3.48237753e-01 -5.68994105e-01
  -4.19573992e-01  3.28436881e-01  1.15463935e-01  1.19496934e-01]
 [ 9.81833264e-02 -3.02045047e-01 -4.11757946e-01  1.98528334e-01
   5.47935128e-01  2.04019457e-01 -2.11892515e-01  9.27987769e-02]
 [-7.59748071e-02 -7.40573034e-02  3.17892730e-01 -2.64990091e-01
  -5.57508767e-01  4.06007320e-01 -4.96578574e-01 -5.25671721e-01]
 [ 6.60741236e-04 -3.11037584e-04 -3.11724027e-04 -3.20522260e-04
  -3.15363170e-04 -2.98083120e-04  4.90734004e-04  4.97115951e-04]
 [ 1.30290398e-03  3.07179434e-04  5.08170226e-04  5.05342614e-04
   3.03498673e-04  2.97147519e-04  2.86569411e-04  2.39870307e-04]
 [ 5.21212467e-04 -3.28404130e-04 -3.38196376e-04 -3.27892980e-04
  -3.86907137e-04 -1.22268510e-04 -4.09857254e-04 -5.52330690e-04]] 
Episode: 15: [[ 1.35285733e-03  1.88890517e-01 -4.73649144e-01  4.67604846e-01
   1.96173549e-01  4.49979573e-01 -1.04216248e-01  3.92556697e-01]
 [-6.05073646e-02  4.11015034e-01 -5.30255139e-01 -2.06821650e-01
   1.88070208e-01  8.84002522e-02 -2.59687275e-01 -1.34267971e-01]
 [-5.23882394e-04  3.00790906e-01 -3.14877450e-01  4.12723005e-01
   6.62303045e-02  2.80935019e-01 -3.86375815e-01 -5.59379399e-01]
 [-9.84323770e-02 -5.44152021e-01 -3.48237842e-01 -5.68970203e-01
  -4.19594646e-01  3.28469813e-01  1.15444966e-01  1.19487561e-01]
 [ 9.81901214e-02 -3.02081794e-01 -4.11760747e-01  1.98469430e-01
   5.47909319e-01  2.03972012e-01 -2.11939543e-01  9.28008854e-02]
 [-7.59564489e-02 -7.40414634e-02  3.17907989e-01 -2.64977157e-01
  -5.57488501e-01  4.06023920e-01 -4.96564537e-01 -5.25654316e-01]
 [ 6.44665270e-04 -3.25205765e-04 -3.25601606e-04 -3.34969867e-04
  -3.29454604e-04 -3.09570925e-04  5.05693082e-04  5.10939746e-04]
 [ 1.31616311e-03  3.20183579e-04  5.21875045e-04  5.18950517e-04
   3.17068683e-04  3.10396339e-04  2.99403298e-04  2.50610203e-04]
 [ 4.87607147e-04 -3.46229936e-04 -3.54356540e-04 -3.44764616e-04
  -4.10180772e-04 -1.46369610e-04 -4.29828011e-04 -5.72266639e-04]] 
Episode: 16: [[ 1.36807538e-03  1.88906506e-01 -4.73646522e-01  4.67618287e-01
   1.96160138e-01  4.49967116e-01 -1.04238994e-01  3.92510653e-01]
 [-6.04919344e-02  4.11034942e-01 -5.30245304e-01 -2.06811726e-01
   1.88075289e-01  8.83966461e-02 -2.59691864e-01 -1.34257674e-01]
 [-4.95659944e-04  3.00812423e-01 -3.14888388e-01  4.12740022e-01
   6.62494376e-02  2.80927777e-01 -3.86366844e-01 -5.59358299e-01]
 [-9.84214619e-02 -5.44094741e-01 -3.48233789e-01 -5.68947256e-01
  -4.19612408e-01  3.28503519e-01  1.15436204e-01  1.19479723e-01]
 [ 9.81961265e-02 -3.02115202e-01 -4.11763519e-01  1.98415756e-01
   5.47885656e-01  2.03928828e-01 -2.11982235e-01  9.28027779e-02]
 [-7.59395510e-02 -7.40268826e-02  3.17921877e-01 -2.64965296e-01
  -5.57470441e-01  4.06038940e-01 -4.96551633e-01 -5.25637805e-01]
 [ 6.30678784e-04 -3.37888603e-04 -3.38068989e-04 -3.47798254e-04
  -3.42093612e-04 -3.20123625e-04  5.19316178e-04  5.23518771e-04]
 [ 1.32832804e-03  3.32272873e-04  5.34415012e-04  5.31310856e-04
   3.29383620e-04  3.22443288e-04  3.11110547e-04  2.60496920e-04]
 [ 4.58030321e-04 -3.62310908e-04 -3.68878740e-04 -3.59970727e-04
  -4.31127643e-04 -1.68093306e-04 -4.47822502e-04 -5.90299198e-04]] 
Episode: 17: [[ 1.3821408e-03  1.8892173e-01 -4.7364354e-01  4.6763083e-01
   1.9614919e-01  4.4995615e-01 -1.0425932e-01  3.9247090e-01]
 [-6.0476895e-02  4.1105413e-01 -5.3023517e-01 -2.0680164e-01
   1.8808267e-01  8.8396914e-02 -2.5969264e-01 -1.3423823e-01]
 [-4.6789553e-04  3.0084497e-01 -3.1488737e-01  4.1276297e-01
   6.6271611e-02  2.8092191e-01 -3.8635126e-01 -5.5934125e-01]
 [-9.8410867e-02 -5.4404229e-01 -3.4822994e-01 -5.6892574e-01
  -4.1962886e-01  3.2853526e-01  1.1542870e-01  1.1947264e-01]
 [ 9.8201610e-02 -3.0214548e-01 -4.1176608e-01  1.9836710e-01
   5.4786384e-01  2.0388976e-01 -2.1202080e-01  9.2804536e-02]
 [-7.5924285e-02 -7.4013628e-02  3.1793448e-01 -2.6495448e-01
  -5.5745393e-01  4.0605259e-01 -4.9653989e-01 -5.2562290e-01]
 [ 6.1782438e-04 -3.4942626e-04 -3.4938205e-04 -3.5949168e-04
  -3.5353765e-04 -3.2959343e-04  5.3181587e-04  5.3488975e-04]
 [ 1.3392835e-03  3.4316201e-04  5.4571865e-04  5.4248812e-04
   3.4052611e-04  3.3332576e-04  3.2168019e-04  2.6937647e-04]
 [ 4.3133312e-04 -3.7687836e-04 -3.8201312e-04 -3.7381775e-04
  -4.5012776e-04 -1.8776111e-04 -4.6413619e-04 -6.0659961e-04]] 
Episode: 18: [[ 1.39481411e-03  1.88934699e-01 -4.73640382e-01  4.67641622e-01
   1.96142927e-01  4.49946046e-01 -1.04277276e-01  3.92438978e-01]
 [-6.04639575e-02  4.11070824e-01 -5.30225575e-01 -2.06793576e-01
   1.88087702e-01  8.83931816e-02 -2.59696662e-01 -1.34230092e-01]
 [-4.50963998e-04  3.00854564e-01 -3.14905256e-01  4.12779570e-01
   6.62862435e-02  2.80913293e-01 -3.86350632e-01 -5.59329450e-01]
 [-9.84019861e-02 -5.43997765e-01 -3.48228902e-01 -5.68925321e-01
  -4.19653535e-01  3.28561187e-01  1.15422077e-01  1.19466528e-01]
 [ 9.82064232e-02 -3.02174091e-01 -4.11768526e-01  1.98322088e-01
   5.47842324e-01  2.03854471e-01 -2.12056175e-01  9.28061530e-02]
 [-7.59103447e-02 -7.40015805e-02  3.17945927e-01 -2.64944583e-01
  -5.57438850e-01  4.06065047e-01 -4.96529251e-01 -5.25609076e-01]
 [ 6.03355642e-04 -3.61458980e-04 -3.60735517e-04 -3.70854454e-04
  -3.64473875e-04 -3.39022750e-04  5.41920250e-04  5.44042268e-04]
 [ 1.34922669e-03  3.53007752e-04  5.55970182e-04  5.52626676e-04
   3.50634014e-04  3.43220134e-04  3.31265444e-04  2.77415442e-04]
 [ 4.04671882e-04 -3.90373607e-04 -3.94275616e-04 -3.86679021e-04
  -4.67838399e-04 -2.06005920e-04 -4.79278504e-04 -6.21505606e-04]] 
Episode: 19: [[ 1.40591571e-03  1.88945591e-01 -4.73638386e-01  4.67651069e-01
   1.96135998e-01  4.49936420e-01 -1.04294129e-01  3.92406553e-01]
 [-6.04525730e-02  4.11085457e-01 -5.30217052e-01 -2.06786558e-01
   1.88091904e-01  8.83892700e-02 -2.59701192e-01 -1.34224147e-01]
 [-4.38673625e-04  3.00859839e-01 -3.14925730e-01  4.12793517e-01
   6.62983432e-02  2.80905247e-01 -3.86351407e-01 -5.59319735e-01]
 [-9.83945206e-02 -5.43958008e-01 -3.48228127e-01 -5.68924963e-01
  -4.19676602e-01  3.28583926e-01  1.15415968e-01  1.19460754e-01]
 [ 9.82107595e-02 -3.02200079e-01 -4.11770791e-01  1.98281273e-01
   5.47823012e-01  2.03822225e-01 -2.12088346e-01  9.28075463e-02]
 [-7.58976787e-02 -7.39905387e-02  3.17956328e-01 -2.64935553e-01
  -5.57424843e-01  4.06076431e-01 -4.96519566e-01 -5.25596380e-01]
 [ 5.90405019e-04 -3.72327166e-04 -3.70945199e-04 -3.80872312e-04
  -3.74383933e-04 -3.47126974e-04  5.51480160e-04  5.52559446e-04]
 [ 1.35824538e-03  3.61868209e-04  5.65314724e-04  5.61845489e-04
   3.59824771e-04  3.52204544e-04  3.39987746e-04  2.84726644e-04]
 [ 3.80570593e-04 -4.02542530e-04 -4.05282219e-04 -3.98237287e-04
  -4.83863900e-04 -2.22516130e-04 -4.92955907e-04 -6.35010831e-04]] 
Episode: 20: [[ 1.4167791e-03  1.8895653e-01 -4.7363505e-01  4.6766049e-01
   1.9613481e-01  4.4992903e-01 -1.0430802e-01  3.9238715e-01]
 [-6.0439974e-02  4.1110229e-01 -5.3020710e-01 -2.0677772e-01
   1.8810154e-01  8.8392250e-02 -2.5969830e-01 -1.3420127e-01]
 [-4.1949988e-04  3.0087495e-01 -3.1493312e-01  4.1280815e-01
   6.6312335e-02  2.8089952e-01 -3.8634816e-01 -5.5930787e-01]
 [-9.8387368e-02 -5.4392052e-01 -3.4822717e-01 -5.6892365e-01
  -4.1969737e-01  3.2860622e-01  1.1541125e-01  1.1945585e-01]
 [ 9.8214425e-02 -3.0222455e-01 -4.1177323e-01  1.9824347e-01
   5.4780465e-01  2.0379224e-01 -2.1211807e-01  9.2808627e-02]
 [-7.5886019e-02 -7.3980391e-02  3.1796578e-01 -2.6492739e-01
  -5.5741197e-01  4.0608671e-01 -4.9651071e-01 -5.2558506e-01]
 [ 5.7854835e-04 -3.8215940e-04 -3.8016587e-04 -3.8988088e-04
  -3.8333045e-04 -3.5460453e-04  5.6025269e-04  5.6031195e-04]
 [ 1.3663917e-03  3.6986492e-04  5.7378504e-04  5.7021441e-04
   3.6816712e-04  3.6035758e-04  3.4789852e-04  2.9132885e-04]
 [ 3.5889287e-04 -4.1352451e-04 -4.1519586e-04 -4.0859412e-04
  -4.9830991e-04 -2.3744043e-04 -5.0527806e-04 -6.4723601e-04]] 
