Episode: 1: [[ 0.00038884  0.07915682 -0.1991477   0.19625255  0.08258589  0.18920116
  -0.04360167  0.16507865 -0.02560349  0.17246272 -0.22293717 -0.08706672
   0.07914953  0.03728709 -0.10895123 -0.05665225 -0.00047292]
 [ 0.12605025 -0.13230765  0.17317271  0.02761011  0.11817244 -0.16222523
  -0.23520546 -0.04156371 -0.22891587 -0.14649746 -0.23922575 -0.17649803
   0.13773252  0.0482946   0.04996083  0.04103218 -0.12707937]
 [-0.17318076  0.08335919  0.22996886  0.08556113 -0.08895731  0.03877114
  -0.0321402  -0.03124172  0.13332692 -0.11153022 -0.23441038  0.1704327
  -0.20873488 -0.22104588  0.21450874  0.20550609 -0.18107939]] 
Episode: 2: [[-3.66833410e-06  7.87635967e-02 -1.99539825e-01  1.95859522e-01
   8.21918845e-02  1.88808247e-01 -4.39943112e-02  1.64684698e-01
  -2.59964671e-02  1.72070086e-01 -2.23330542e-01 -8.74591172e-02
   7.87561014e-02  3.68929058e-02 -1.09344043e-01 -5.70450798e-02
  -8.66829301e-04]
 [ 1.26446918e-01 -1.31911114e-01  1.73569724e-01  2.80068666e-02
   1.18569098e-01 -1.61828235e-01 -2.34808758e-01 -4.11669202e-02
  -2.28518784e-01 -1.46100745e-01 -2.38829121e-01 -1.76100925e-01
   1.38129324e-01  4.86913696e-02  5.03578633e-02  4.14289646e-02
  -1.26682550e-01]
 [-1.73574865e-01  8.29661414e-02  2.29573607e-01  8.51670951e-02
  -8.93499181e-02  3.83762680e-02 -3.25342901e-02 -3.16349864e-02
   1.32931828e-01 -1.11924365e-01 -2.34803647e-01  1.70037329e-01
  -2.09128767e-01 -2.21438751e-01  2.14113712e-01  2.05111846e-01
  -1.81472808e-01]] 
Episode: 3: [[-0.0003128   0.07845575 -0.19985574  0.19554228  0.08247563  0.18906626
  -0.04430311  0.16434368 -0.02571033  0.17173253 -0.2236558  -0.08720135
   0.07841851  0.03714902 -0.10971908 -0.05737076 -0.00121804]
 [ 0.12616245 -0.13219701  0.17329207  0.02771905  0.11827832 -0.1621119
  -0.2350954  -0.04145073 -0.22880423 -0.14639173 -0.2391164  -0.17636551
   0.13784015  0.04840434  0.05008591  0.04114217 -0.12697086]
 [-0.17328225  0.08326001  0.22986217  0.08546035 -0.08905657  0.03866429
  -0.03224099 -0.03134307  0.1332165  -0.11163023 -0.23451042  0.17030463
  -0.20883517 -0.22114672  0.2143975   0.20540425 -0.18117936]] 
Episode: 4: [[-0.00051273  0.07825897 -0.19992796  0.19538149  0.0827277   0.1893874
  -0.04449452  0.16424492 -0.02543089  0.17160782 -0.22379673 -0.08687928
   0.07830117  0.03742605 -0.10958005 -0.05749859 -0.001275  ]
 [ 0.12610267 -0.13226166  0.1732644   0.02761661  0.11814613 -0.1621902
  -0.23518422 -0.04150005 -0.22890201 -0.1465343  -0.23920238 -0.17631115
   0.13772012  0.04831914  0.05010339  0.04104852 -0.12707514]
 [-0.17318076  0.08336862  0.22990142  0.08557273 -0.08897261  0.0386801
  -0.0321236  -0.0312876   0.13319077 -0.11148851 -0.23441665  0.1701605
  -0.20871511 -0.22109711  0.2143587   0.20550251 -0.18107834]] 
Episode: 5: [[-0.00046859  0.07827806 -0.19978184  0.19550541  0.08303627  0.1897171
  -0.04444678  0.16444123 -0.02510782  0.17180197 -0.22363894 -0.08655147
   0.07849117  0.03772894 -0.10932222 -0.05732596 -0.00106352]
 [ 0.12605192 -0.13231924  0.17324232  0.02753122  0.11803358 -0.16226055
  -0.23525867 -0.04154452 -0.22898509 -0.14665224 -0.23927484 -0.17627673
   0.13762085  0.04824466  0.05011214  0.04096435 -0.12716432]
 [-0.17316243  0.08339957  0.22985893  0.08560493 -0.08897018  0.03861587
  -0.03208777 -0.03132432  0.1330805  -0.11142268 -0.23440433  0.16994914
  -0.20867603 -0.22113493  0.21424128  0.20551775 -0.1810602 ]] 
Episode: 6: [[-0.00042258  0.07830594 -0.19969103  0.19561951  0.08330776  0.18996531
  -0.04439718  0.164602   -0.02487703  0.17194672 -0.22350869 -0.08634058
   0.07863567  0.03798109 -0.10916969 -0.05719081 -0.00088811]
 [ 0.1259882  -0.13240576  0.17320064  0.02743916  0.11791474 -0.16233678
  -0.23534238 -0.04162038 -0.22906688 -0.1467601  -0.23936656 -0.17626993
   0.1375238   0.04815293  0.05010065  0.04087714 -0.12726744]
 [-0.17313561  0.08344709  0.22985211  0.08564566 -0.08894267  0.03859005
  -0.0320458  -0.03132078  0.13302885 -0.11135542 -0.2343671   0.16982506
  -0.20862718 -0.2211347   0.21418351  0.20554765 -0.18101868]] 
Episode: 7: [[-0.00058517  0.07814787 -0.1998486   0.19547431  0.08326453  0.18985781
  -0.04455514  0.16447625 -0.02494732  0.17180376 -0.22364984 -0.08645931
   0.07849405  0.03788971 -0.10931494 -0.05733183 -0.0010103 ]
 [ 0.12590234 -0.13251558  0.17313033  0.02733463  0.11778785 -0.16242948
  -0.23544133 -0.04172575 -0.2291598  -0.14687084 -0.23947717 -0.17631172
   0.13742046  0.04804     0.05005045  0.04077626 -0.12738574]
 [-0.17298697  0.08360062  0.22999515  0.08579596 -0.08879218  0.03872776
  -0.03189536 -0.03117746  0.13316026 -0.11119889 -0.23421396  0.16993815
  -0.2084748  -0.2209915   0.21431546  0.20569853 -0.18086687]] 
Episode: 8: [[-0.00074972  0.07797375 -0.20002252  0.19532451  0.08318675  0.18972427
  -0.04471707  0.1643271  -0.02504241  0.17165442 -0.22381367 -0.0866012
   0.0783461   0.03776883 -0.109478   -0.05747801 -0.00115649]
 [ 0.12583283 -0.13260257  0.17308183  0.02724808  0.11768129 -0.16249862
  -0.23552208 -0.04180711 -0.22923166 -0.14696394 -0.23956588 -0.17633009
   0.13733335  0.0479496   0.05002365  0.04069385 -0.12748225]
 [-0.1728457   0.08375191  0.23013984  0.08593731 -0.08863991  0.03886912
  -0.0317528  -0.03103333  0.13329506 -0.11105283 -0.23406121  0.17006001
  -0.2083306  -0.22084622  0.21445058  0.20584078 -0.1807169 ]] 
Episode: 9: [[-0.00098105  0.07815995 -0.20023833  0.19509576  0.08337907  0.18951124
  -0.04495898  0.16451555 -0.02524984  0.17161626 -0.22362565 -0.08681118
   0.07812425  0.03795824 -0.10969304 -0.05771056 -0.00096955]
 [ 0.12563287 -0.13280252  0.17288257  0.02704698  0.11747982 -0.1626985
  -0.23572245 -0.04200699 -0.22943209 -0.14716597 -0.23976614 -0.17652865
   0.13713187  0.04774908  0.04982487  0.0404932  -0.12768295]
 [-0.17264187  0.08395741  0.23034276  0.0861419  -0.08843504  0.03907153
  -0.03154858 -0.03082851  0.13349737 -0.11084697 -0.2338555   0.17026149
  -0.20812596 -0.22064121  0.21465303  0.20604508 -0.18051167]] 
Episode: 10: [[-0.00121848  0.07813947 -0.20047975  0.19486643  0.08333892  0.1892754
  -0.0451788   0.1645254  -0.02548492  0.17141904 -0.22363898 -0.0870553
   0.07789494  0.03790641 -0.10992904 -0.0579213  -0.00099282]
 [ 0.12566938 -0.132893    0.17289259  0.02710429  0.11737127 -0.16269656
  -0.23570107 -0.04210092 -0.22939856 -0.14712718 -0.23987016 -0.17650379
   0.13719305  0.04765871  0.0498536   0.04054635 -0.1277796 ]
 [-0.17259715  0.08410911  0.23050994  0.08616833 -0.08824847  0.03923159
  -0.03147365 -0.03068885  0.13366348 -0.11081264 -0.23368381  0.17041907
  -0.20807369 -0.22046253  0.21482284  0.206071   -0.1803608 ]] 
Episode: 11: [[-0.00107914  0.07831395 -0.2006556   0.19497156  0.08350415  0.18904984
  -0.04506486  0.16471294 -0.0257363   0.17154759 -0.22345747 -0.08723279
   0.07798062  0.03806345 -0.11002818 -0.05779063 -0.00081801]
 [ 0.12572119 -0.13308166  0.17290275  0.02723002  0.11716232 -0.1626453
  -0.23563673 -0.04229774 -0.22928227 -0.1470704  -0.24007769 -0.17648503
   0.13728914  0.04747135  0.04987323  0.04061876 -0.127978  ]
 [-0.17274287  0.08419201  0.23062955  0.08601496 -0.08806062  0.03932487
  -0.03160033 -0.03062894  0.13372816 -0.11095484 -0.23359625  0.1705344
  -0.20820928 -0.22035614  0.21489042  0.2059169  -0.18021467]] 
Episode: 12: [[-0.00099819  0.07834522 -0.20089029  0.19500655  0.08352842  0.18877353
  -0.04500254  0.16476303 -0.0260255   0.1716239  -0.22341497 -0.08746135
   0.07801142  0.03805709 -0.11019778 -0.0576981  -0.00080227]
 [ 0.125707   -0.13325562  0.17285398  0.02728494  0.1169719  -0.16264684
  -0.2356467  -0.04247164 -0.22923277 -0.14708416 -0.24025524 -0.17651081
   0.13732012  0.04728813  0.04982705  0.04062365 -0.12815678]
 [-0.17279798  0.08438422  0.23083332  0.08595631 -0.08780482  0.03950758
  -0.03163632 -0.03045218  0.13389312 -0.11100078 -0.23339899  0.1707249
  -0.2082537  -0.22014302  0.21506229  0.20584211 -0.17998445]] 
Episode: 13: [[-0.00079409  0.07853214 -0.20074838  0.1951972   0.08371382  0.18890373
  -0.04480323  0.16495635 -0.02590487  0.17182763 -0.22322834 -0.08732391
   0.07820022  0.03823045 -0.11005186 -0.05748846 -0.00061857]
 [ 0.12557144 -0.1334963   0.17269674  0.02721024  0.11671951 -0.16276944
  -0.23576336 -0.04270833 -0.22928974 -0.14720523 -0.2404967  -0.17662728
   0.13722627  0.04703969  0.04967603  0.04051904 -0.12840113]
 [-0.17296635  0.08429335  0.23072995  0.08578378 -0.08787142  0.03940813
  -0.03180405 -0.03056171  0.13377666 -0.11117139 -0.23348291  0.17061417
  -0.20842701 -0.22021855  0.21495232  0.20565224 -0.18006419]] 
Episode: 14: [[-0.0005382   0.07878578 -0.20051736  0.19544747  0.08396794  0.18912905
  -0.0445515   0.16521522 -0.02568376  0.17208008 -0.22297569 -0.08709509
   0.07845164  0.03847788 -0.10981949 -0.05723079 -0.0003648 ]
 [ 0.12535617 -0.13374393  0.17247406  0.02700677  0.116461   -0.16298409
  -0.23597436 -0.04295634 -0.22948925 -0.14741784 -0.2407475  -0.17683865
   0.13701884  0.04679428  0.04945745  0.04031013 -0.1286515 ]
 [-0.17308216  0.08426753  0.23057736  0.0856668  -0.08788085  0.03925746
  -0.03195081 -0.03058825  0.1336614  -0.11132417 -0.23352845  0.17048162
  -0.20853697 -0.22020431  0.21481372  0.20549256 -0.18003504]] 
Episode: 15: [[-3.7760631e-04  7.8970917e-02 -2.0040795e-01  1.9561990e-01
   8.4162757e-02  1.8922384e-01 -4.4376202e-02  1.6541794e-01
  -2.5594374e-02  1.7224154e-01 -2.2278780e-01 -8.6994395e-02
   7.8612462e-02  3.8660552e-02 -1.0972115e-01 -5.7048865e-02
  -1.5646558e-04]
 [ 1.2512870e-01 -1.3398637e-01  1.7225102e-01  2.6779033e-02
   1.1620726e-01 -1.6318434e-01 -2.3621152e-01 -4.3188222e-02
  -2.2967742e-01 -1.4764486e-01 -2.4100091e-01 -1.7704643e-01
   1.3679405e-01  4.6552602e-02  4.9252681e-02  4.0085491e-02
  -1.2889692e-01]
 [-1.7299135e-01  8.4370688e-02  2.3064402e-01  8.5753024e-02
  -8.7777168e-02  3.9331347e-02 -3.1872887e-02 -3.0533850e-02
   1.3374548e-01 -1.1124694e-01 -2.3342091e-01  1.7056346e-01
  -2.0844680e-01 -2.2008173e-01  2.1489559e-01  2.0554066e-01
  -1.7993021e-01]] 
Episode: 16: [[-3.03195906e-04  7.90232047e-02 -2.00394303e-01  1.95702106e-01
   8.42316225e-02  1.89231113e-01 -4.42898981e-02  1.65486321e-01
  -2.55979560e-02  1.72310710e-01 -2.22720310e-01 -8.69866684e-02
   7.86738023e-02  3.87071632e-02 -1.09717540e-01 -5.69591559e-02
  -9.63993225e-05]
 [ 1.24948494e-01 -1.34171993e-01  1.72076926e-01  2.65937876e-02
   1.15993537e-01 -1.63342297e-01 -2.36397788e-01 -4.33806367e-02
  -2.29820013e-01 -1.47819266e-01 -2.41215229e-01 -1.77201554e-01
   1.36627093e-01  4.63467129e-02  4.90823835e-02  3.99148017e-02
  -1.29095450e-01]
 [-1.72847122e-01  8.45663771e-02  2.30789289e-01  8.58968198e-02
  -8.75767246e-02  3.94832045e-02 -3.17420401e-02 -3.03636994e-02
   1.33903667e-01 -1.11109421e-01 -2.33218804e-01  1.70715004e-01
  -2.08302543e-01 -2.19866619e-01  2.15062618e-01  2.05649182e-01
  -1.79727778e-01]] 
Episode: 17: [[-3.4153773e-04  7.8975074e-02 -2.0051792e-01  1.9566332e-01
   8.4186442e-02  1.8910310e-01 -4.4311568e-02  1.6544154e-01
  -2.5737995e-02  1.7227167e-01 -2.2275893e-01 -8.7115884e-02
   7.8627378e-02  3.8644761e-02 -1.0984591e-01 -5.6977972e-02
  -1.4876816e-04]
 [ 1.2474269e-01 -1.3435943e-01  1.7188208e-01  2.6388226e-02
   1.1578312e-01 -1.6353109e-01 -2.3660134e-01 -4.3565810e-02
  -2.2999434e-01 -1.4801614e-01 -2.4142395e-01 -1.7738456e-01
   1.3643688e-01  4.6141431e-02  4.8883345e-02  3.9719902e-02
  -1.2928857e-01]
 [-1.7261238e-01  8.4830448e-02  2.3102498e-01  8.6131111e-02
  -8.7309919e-02  3.9721303e-02 -3.1516887e-02 -3.0115331e-02
   1.3414435e-01 -1.1087875e-01 -2.3295079e-01  1.7095323e-01
  -2.0806853e-01 -2.1959054e-01  2.1530846e-01  2.0586392e-01
  -1.7945957e-01]] 
Episode: 18: [[-2.1789526e-04  7.9078883e-02 -2.0049113e-01  1.9578265e-01
   8.4290259e-02  1.8911609e-01 -4.4179194e-02  1.6554917e-01
  -2.5734892e-02  1.7239179e-01 -2.2265708e-01 -8.7098993e-02
   7.8740790e-02  3.8733289e-02 -1.0982087e-01 -5.6852091e-02
  -4.2708751e-05]
 [ 1.2459220e-01 -1.3445406e-01  1.7178589e-01  2.6256951e-02
   1.1568512e-01 -1.6362152e-01 -2.3674177e-01 -4.3612681e-02
  -2.3006205e-01 -1.4816323e-01 -2.4151812e-01 -1.7747489e-01
   1.3631946e-01  4.6049725e-02  4.8766788e-02  3.9593086e-02
  -1.2937103e-01]
 [-1.7265260e-01  8.4783822e-02  2.3103680e-01  8.6091228e-02
  -8.7352589e-02  3.9746527e-02 -3.1569719e-02 -3.0183997e-02
   1.3417059e-01 -1.1092073e-01 -2.3299190e-01  1.7097542e-01
  -2.0811102e-01 -2.1961886e-01  2.1533206e-01  2.0581417e-01
  -1.7951046e-01]] 
Episode: 19: [[-2.15636042e-04  7.90375173e-02 -2.00559765e-01  1.95772871e-01
   8.42409655e-02  1.89038217e-01 -4.41699922e-02  1.65506646e-01
  -2.58201901e-02  1.72395959e-01 -2.22701326e-01 -8.71696174e-02
   7.87388235e-02  3.86734158e-02 -1.09881021e-01 -5.68413846e-02
  -7.90825870e-05]
 [ 1.24627486e-01 -1.34361640e-01  1.71896547e-01  2.63186209e-02
   1.15777031e-01 -1.63516834e-01 -2.36694455e-01 -4.34846878e-02
  -2.29945838e-01 -1.48110881e-01 -2.41419122e-01 -1.77370638e-01
   1.36375099e-01  4.61537614e-02  4.88534309e-02  3.96362022e-02
  -1.29265398e-01]
 [-1.72681004e-01  8.47535506e-02  2.31036678e-01  8.60528797e-02
  -8.73717219e-02  3.97594422e-02 -3.16161960e-02 -3.02490219e-02
   1.34178743e-01 -1.10966511e-01 -2.33031139e-01  1.70978725e-01
  -2.08150700e-01 -2.19645321e-01  2.15339497e-01  2.05769300e-01
  -1.79562315e-01]] 
Episode: 20: [[-2.2052154e-04  7.9019368e-02 -2.0063464e-01  1.9575864e-01
   8.4215552e-02  1.8895167e-01 -4.4165123e-02  1.6548611e-01
  -2.5921477e-02  1.7238960e-01 -2.2271970e-01 -8.7256879e-02
   7.8736886e-02  3.8632307e-02 -1.0995853e-01 -5.6844838e-02
  -8.8237626e-05]
 [ 1.2467321e-01 -1.3428232e-01  1.7200866e-01  2.6383216e-02
   1.1584243e-01 -1.6340153e-01 -2.3665814e-01 -4.3382011e-02
  -2.2981666e-01 -1.4806043e-01 -2.4134076e-01 -1.7725426e-01
   1.3642502e-01  4.6237104e-02  4.8956469e-02  3.9698374e-02
  -1.2917325e-01]
 [-1.7270914e-01  8.4707014e-02  2.3104231e-01  8.6017042e-02
  -8.7396868e-02  3.9774358e-02 -3.1649396e-02 -3.0316208e-02
   1.3419454e-01 -1.1099875e-01 -2.3308167e-01  1.7099135e-01
  -2.0818610e-01 -2.1967453e-01  2.1535464e-01  2.0572509e-01
  -1.7963229e-01]] 
Episode: 21: [[-1.6187431e-04  7.9061471e-02 -2.0063461e-01  1.9581516e-01
   8.4261730e-02  1.8892841e-01 -4.4090476e-02  1.6553284e-01
  -2.5951087e-02  1.7244945e-01 -2.2268283e-01 -8.7261401e-02
   7.8804247e-02  3.8661595e-02 -1.0997303e-01 -5.6775030e-02
  -3.1367497e-05]
 [ 1.2469646e-01 -1.3422273e-01  1.7210309e-01  2.6430199e-02
   1.1589046e-01 -1.6329406e-01 -2.3663688e-01 -4.3289095e-02
  -2.2970138e-01 -1.4803445e-01 -2.4127242e-01 -1.7717043e-01
   1.3645579e-01  4.6304051e-02  4.9044341e-02  3.9736032e-02
  -1.2909508e-01]
 [-1.7279167e-01  8.4607303e-02  2.3098235e-01  8.5919537e-02
  -8.7489679e-02  3.9729767e-02 -3.1748168e-02 -3.0443644e-02
   1.3414930e-01 -1.1108711e-01 -2.3318508e-01  1.7094155e-01
  -2.0828095e-01 -2.1976705e-01  2.1531497e-01  2.0561971e-01
  -1.7975985e-01]] 
Episode: 22: [[-1.57284638e-04  7.90411010e-02 -2.00681522e-01  1.95813924e-01
   8.42507854e-02  1.88866287e-01 -4.40780893e-02  1.65519059e-01
  -2.60236003e-02  1.72460705e-01 -2.22707212e-01 -8.73117074e-02
   7.88124949e-02  3.86274979e-02 -1.10029511e-01 -5.67613989e-02
  -3.47961686e-05]
 [ 1.24679685e-01 -1.34185806e-01  1.72155336e-01  2.64449976e-02
   1.15919054e-01 -1.63228378e-01 -2.36647785e-01 -4.32117060e-02
  -2.29634821e-01 -1.48041666e-01 -2.41203368e-01 -1.77121788e-01
   1.36462227e-01  4.63626608e-02  4.90930602e-02  3.97422872e-02
  -1.29038587e-01]
 [-1.72785401e-01  8.46025497e-02  2.30999619e-01  8.59103575e-02
  -8.74984935e-02  3.97530608e-02 -3.17541286e-02 -3.04891523e-02
   1.34179711e-01 -1.11094408e-01 -2.33214900e-01  1.70963526e-01
  -2.08293989e-01 -2.19776303e-01  2.15343818e-01  2.05600709e-01
  -1.79799885e-01]] 
Episode: 23: [[-1.60368407e-04  7.90033117e-02 -2.00732991e-01  1.95795089e-01
   8.42175037e-02  1.88802809e-01 -4.40726466e-02  1.65470958e-01
  -2.60992441e-02  1.72458902e-01 -2.22740248e-01 -8.73673633e-02
   7.88067952e-02  3.85637432e-02 -1.10094167e-01 -5.67741655e-02
  -6.37024787e-05]
 [ 1.24585897e-01 -1.34262189e-01  1.72080308e-01  2.63876189e-02
   1.15833685e-01 -1.63288698e-01 -2.36731902e-01 -4.32340167e-02
  -2.29691312e-01 -1.48136616e-01 -2.41255641e-01 -1.77199304e-01
   1.36409059e-01  4.63125482e-02  4.90359142e-02  3.96786518e-02
  -1.29096925e-01]
 [-1.72717527e-01  8.46999064e-02  2.31098458e-01  8.59701410e-02
  -8.74008089e-02  3.98540869e-02 -3.17015238e-02 -3.04261912e-02
   1.34287253e-01 -1.11022785e-01 -2.33136654e-01  1.71068713e-01
  -2.08251923e-01 -2.19674125e-01  2.15442434e-01  2.05657408e-01
  -1.79727465e-01]] 
Episode: 24: [[-1.6376129e-04  7.8956068e-02 -2.0078500e-01  1.9578105e-01
   8.4180728e-02  1.8872933e-01 -4.4073652e-02  1.6541499e-01
  -2.6175607e-02  1.7245698e-01 -2.2279561e-01 -8.7430008e-02
   7.8805670e-02  3.8503736e-02 -1.1017308e-01 -5.6783978e-02
  -9.8696626e-05]
 [ 1.2455318e-01 -1.3426645e-01  1.7206681e-01  2.6393889e-02
   1.1581101e-01 -1.6332114e-01 -2.3674920e-01 -4.3207686e-02
  -2.2972514e-01 -1.4817369e-01 -2.4125192e-01 -1.7724299e-01
   1.3639775e-01  4.6304420e-02  4.9018580e-02  3.9652389e-02
  -1.2910949e-01]
 [-1.7269117e-01  8.4750369e-02  2.3115663e-01  8.5979395e-02
  -8.7347142e-02  3.9946068e-02 -3.1688228e-02 -3.0392926e-02
   1.3438021e-01 -1.1099326e-01 -2.3308349e-01  1.7115782e-01
  -2.0824303e-01 -2.1960926e-01  2.1552999e-01  2.0568545e-01
  -1.7968468e-01]] 
Episode: 25: [[-1.48645777e-04  7.88968876e-02 -2.00826779e-01  1.95782140e-01
   8.41405392e-02  1.88683107e-01 -4.40541022e-02  1.65372610e-01
  -2.62185428e-02  1.72484294e-01 -2.22864613e-01 -8.74795169e-02
   7.88343102e-02  3.84492092e-02 -1.10242315e-01 -5.67762963e-02
  -1.30218701e-04]
 [ 1.24528117e-01 -1.34292766e-01  1.72033161e-01  2.63764374e-02
   1.15790978e-01 -1.63382918e-01 -2.36787051e-01 -4.31983769e-02
  -2.29788408e-01 -1.48216978e-01 -2.41274670e-01 -1.77303568e-01
   1.36356175e-01  4.63025533e-02  4.89657670e-02  3.95978913e-02
  -1.29131049e-01]
 [-1.72688961e-01  8.48296136e-02  2.31218919e-01  8.59910250e-02
  -8.72921422e-02  4.00327668e-02 -3.16812173e-02 -3.03595793e-02
   1.34463355e-01 -1.10989019e-01 -2.32994497e-01  1.71246246e-01
  -2.08243400e-01 -2.19554722e-01  2.15631038e-01  2.05715731e-01
  -1.79638132e-01]] 
Episode: 26: [[-1.81218071e-04  7.87936822e-02 -2.00905234e-01  1.95732579e-01
   8.40627626e-02  1.88596249e-01 -4.40852679e-02  1.65286437e-01
  -2.62919515e-02  1.72451839e-01 -2.22973749e-01 -8.75555947e-02
   7.88115487e-02  3.83541621e-02 -1.10340171e-01 -5.68158440e-02
  -2.01015879e-04]
 [ 1.24502242e-01 -1.34293437e-01  1.72036499e-01  2.63889190e-02
   1.15790643e-01 -1.63444534e-01 -2.36812949e-01 -4.31666598e-02
  -2.29817793e-01 -1.48226276e-01 -2.41268173e-01 -1.77341595e-01
   1.36312768e-01  4.63426821e-02  4.89266589e-02  3.95707674e-02
  -1.29153386e-01]
 [-1.72638550e-01  8.49336907e-02  2.31291711e-01  8.60316530e-02
  -8.72144625e-02  4.01570462e-02 -3.16311270e-02 -3.03001050e-02
   1.34552255e-01 -1.10948436e-01 -2.32888550e-01  1.71344817e-01
  -2.08191156e-01 -2.19492659e-01  2.15750992e-01  2.05775052e-01
  -1.79554328e-01]] 
Episode: 27: [[-1.5652878e-04  7.8774609e-02 -2.0090176e-01  1.9574547e-01
   8.4067956e-02  1.8859395e-01 -4.4056021e-02  1.6528273e-01
  -2.6285496e-02  1.7247431e-01 -2.2298139e-01 -8.7548614e-02
   7.8857675e-02  3.8340848e-02 -1.1035938e-01 -5.6795985e-02
  -1.9335505e-04]
 [ 1.2448078e-01 -1.3432121e-01  1.7199787e-01  2.6410012e-02
   1.1575783e-01 -1.6355650e-01 -2.3682506e-01 -4.3164819e-02
  -2.2989216e-01 -1.4822838e-01 -2.4128844e-01 -1.7742395e-01
   1.3629173e-01  4.6349771e-02  4.8852649e-02  3.9562229e-02
  -1.2919614e-01]
 [-1.7264928e-01  8.4974788e-02  2.3131482e-01  8.6004153e-02
  -8.7195061e-02  4.0236458e-02 -3.1652730e-02 -3.0297779e-02
   1.3459811e-01 -1.1097012e-01 -2.3286363e-01  1.7139499e-01
  -2.0822378e-01 -2.1948469e-01  2.1581785e-01  2.0576069e-01
  -1.7952964e-01]] 
Episode: 28: [[ 5.0937728e-05  7.8672640e-02 -2.0086658e-01  1.9596334e-01
   8.4286228e-02  1.8857010e-01 -4.3840170e-02  1.6506669e-01
  -2.6481921e-02  1.7262825e-01 -2.2318593e-01 -8.7334067e-02
   7.9039708e-02  3.8135052e-02 -1.1014402e-01 -5.6610219e-02
  -3.9345564e-04]
 [ 1.2454348e-01 -1.3411534e-01  1.7185371e-01  2.6198870e-02
   1.1590597e-01 -1.6379832e-01 -2.3704211e-01 -4.2947736e-02
  -2.2972457e-01 -1.4844367e-01 -2.4107805e-01 -1.7765431e-01
   1.3649632e-01  4.6560802e-02  4.9013659e-02  3.9375942e-02
  -1.2898490e-01]
 [-1.7285499e-01  8.4784530e-02  2.3139274e-01  8.5795775e-02
  -8.7411270e-02  4.0459886e-02 -3.1597696e-02 -3.0241104e-02
   1.3475348e-01 -1.1077158e-01 -2.3302683e-01  1.7127213e-01
  -2.0844142e-01 -2.1951674e-01  2.1560653e-01  2.0567647e-01
  -1.7972799e-01]] 
Episode: 29: [[ 0.00024704  0.07863111 -0.20076422  0.19616318  0.0844929   0.18858507
  -0.04362948  0.16488534 -0.02661473  0.17280662 -0.22335503 -0.0871193
   0.07920383  0.03802156 -0.10995299 -0.05640988 -0.00053592]
 [ 0.12448127 -0.1339737   0.17164637  0.02599199  0.11594251 -0.16406293
  -0.2372684  -0.04277576 -0.2296226  -0.14867319 -0.24092403 -0.17788142
   0.13665913  0.04668752  0.04911593  0.03912317 -0.1288181 ]
 [-0.173012    0.08464046  0.23146273  0.08562626 -0.08760381  0.04068655
  -0.03149605 -0.03014802  0.13487497 -0.11056555 -0.23311633  0.1711409
  -0.20862295 -0.21956013  0.21542497  0.20567617 -0.17989795]] 
Episode: 30: [[ 0.00053296  0.07880169 -0.20052132  0.1964216   0.08472186  0.1888002
  -0.04333789  0.16479419 -0.02651409  0.17308185 -0.22335778 -0.08683071
   0.07947277  0.03806789 -0.1097148  -0.05612244 -0.00051247]
 [ 0.12426159 -0.1339311   0.17135933  0.02574152  0.1158331  -0.16439188
  -0.23754221 -0.04266646 -0.22971486 -0.14893581 -0.24085182 -0.17816702
   0.13669738  0.04670628  0.04901052  0.03880201 -0.12871298]
 [-0.17323604  0.08445925  0.23133291  0.0853798  -0.08779703  0.04075791
  -0.03160874 -0.03019297  0.1347814  -0.1104935  -0.23327228  0.17090024
  -0.20886436 -0.21972507  0.21523108  0.20549728 -0.18010566]] 
Episode: 31: [[ 0.00080506  0.07894454 -0.20029925  0.1966594   0.08492757  0.18898083
  -0.04307486  0.16471156 -0.02642314  0.17333546 -0.22335126 -0.0865743
   0.07970089  0.03809509 -0.10949945 -0.05585606 -0.00051025]
 [ 0.12401447 -0.13390525  0.17106798  0.0255022   0.11573187 -0.16470519
  -0.23779789 -0.04257656 -0.22982381 -0.14918894 -0.24080497 -0.17843565
   0.13673148  0.04671539  0.04891323  0.03847996 -0.12863083]
 [-0.17342538  0.08431971  0.2312523   0.08516589 -0.08797015  0.04085816
  -0.03169142 -0.03019531  0.13473119 -0.11041353 -0.23338763  0.17071566
  -0.20907038 -0.21981469  0.21505623  0.20535885 -0.1802489 ]] 
Episode: 32: [[ 0.00094166  0.07890464 -0.2002093   0.1968166   0.08506914  0.18903226
  -0.04293216  0.1645702  -0.02642183  0.17342465 -0.22345626 -0.08641412
   0.07978196  0.03800904 -0.10934526 -0.05573462 -0.00062099]
 [ 0.12369291 -0.13398208  0.17071715  0.025212    0.11550291 -0.1650657
  -0.23810211 -0.04256623 -0.23003256 -0.14948983 -0.24084881 -0.178748
   0.13662447  0.04660832  0.04871742  0.03810902 -0.12862249]
 [-0.17337964  0.08441041  0.23141627  0.08521006 -0.08804439  0.04109437
  -0.03152709 -0.02998035  0.13490054 -0.11020102 -0.23323691  0.17081186
  -0.20905696 -0.21962836  0.21496852  0.20549405 -0.18017012]] 
Episode: 33: [[ 0.00109308  0.07896886 -0.20007657  0.19698183  0.08522723  0.18911643
  -0.04277318  0.16448216 -0.02638906  0.17356105 -0.22347839 -0.08624446
   0.07990584  0.03800861 -0.10918595 -0.05556404 -0.00066498]
 [ 0.12340236 -0.13403705  0.17039502  0.02495326  0.11530085 -0.16539417
  -0.2383673  -0.04255293 -0.23022865 -0.1497752  -0.2408812  -0.17903493
   0.1365206   0.04651096  0.04852839  0.03776702 -0.12861793]
 [-0.17336464  0.08441219  0.23150995  0.08520909 -0.08813982  0.04127108
  -0.03143006 -0.02986014  0.1350207  -0.11004057 -0.23318061  0.1708639
  -0.20907606 -0.21954225  0.2148743   0.2055552  -0.18013981]] 
Episode: 34: [[ 0.0012376   0.07901803 -0.19995926  0.19717994  0.08538124  0.1891819
  -0.04259593  0.16448942 -0.02632269  0.1736669  -0.22350493 -0.08610387
   0.07998376  0.03803939 -0.10900917 -0.05544772 -0.0006658 ]
 [ 0.12316094 -0.13405402  0.17019978  0.02481296  0.11511254 -0.16561675
  -0.23858172 -0.04260566 -0.23036493 -0.14999592 -0.24090849 -0.17924163
   0.1364887   0.04636207  0.04825527  0.03754833 -0.12865421]
 [-0.1733685   0.08439351  0.23153742  0.08507282 -0.08823476  0.04138796
  -0.03141245 -0.02979451  0.13505156 -0.109915   -0.23312569  0.170878
  -0.20910884 -0.2194381   0.21479768  0.20559405 -0.18009502]] 
Episode: 35: [[ 0.00145518  0.07920025 -0.19978568  0.19741447  0.08558094  0.18932734
  -0.04236772  0.16458993 -0.0261828   0.17381841 -0.22339652 -0.08592049
   0.08010394  0.03821491 -0.10880083 -0.05528839 -0.00052313]
 [ 0.12294859 -0.13411926  0.1699957   0.02466919  0.11487931 -0.16586107
  -0.23881595 -0.04265893 -0.23049323 -0.15018336 -0.2409751  -0.17944893
   0.13650587  0.04619189  0.0479453   0.03736398 -0.12870717]
 [-0.173464    0.08430009  0.23150924  0.08488954 -0.08836278  0.04143896
  -0.0314438  -0.0298799   0.13498686 -0.10985781 -0.23317064  0.17082253
  -0.20920098 -0.21950014  0.21470457  0.20556508 -0.18016815]] 
Episode: 36: [[ 0.00176645  0.07949235 -0.19949868  0.19772674  0.08585745  0.18960169
  -0.04205205  0.16483057 -0.02591326  0.1740943  -0.22317098 -0.0856282
   0.08036331  0.03848732 -0.10850685 -0.05500739 -0.00025437]
 [ 0.12309667 -0.1339285   0.17015849  0.02481158  0.11499047 -0.16571602
  -0.23868717 -0.04249783 -0.23030515 -0.15005705 -0.24080871 -0.179333
   0.13673064  0.04634387  0.0480379   0.03754178 -0.1285431 ]
 [-0.1737196   0.08404487  0.23126988  0.08460233 -0.08861245  0.04121908
  -0.03168267 -0.0301328   0.1347392  -0.1100638  -0.23340803  0.170577
  -0.20945516 -0.21974401  0.2144623   0.2053262  -0.18041663]] 
Episode: 37: [[ 2.0008113e-03  7.9725638e-02 -1.9924453e-01  1.9797774e-01
   8.6096331e-02  1.8985002e-01 -4.1806437e-02  1.6502757e-01
  -2.5670111e-02  1.7430571e-01 -2.2299260e-01 -8.5371397e-02
   8.0575801e-02  3.8692571e-02 -1.0823685e-01 -5.4776512e-02
  -3.1568256e-05]
 [ 1.2331714e-01 -1.3371621e-01  1.7032641e-01  2.4992751e-02
   1.1516873e-01 -1.6555408e-01 -2.3852658e-01 -4.2316996e-02
  -2.3009986e-01 -1.4989345e-01 -2.4059866e-01 -1.7918348e-01
   1.3698645e-01  4.6532828e-02  4.8150383e-02  3.7746366e-02
  -1.2834373e-01]
 [-1.7397539e-01  8.3800793e-02  2.3104499e-01  8.4324092e-02
  -8.8860475e-02  4.1001894e-02 -3.1914506e-02 -3.0370012e-02
   1.3449453e-01 -1.1026844e-01 -2.3365611e-01  1.7033416e-01
  -2.0970976e-01 -2.1998218e-01  2.1422777e-01  2.0509358e-01
  -1.8066652e-01]] 
Episode: 38: [[ 0.0022924   0.08002974 -0.19890675  0.19830982  0.08639866  0.1901734
  -0.04148062  0.16531676 -0.02534551  0.17460525 -0.22269994 -0.08503264
   0.08086461  0.03879981 -0.10788912 -0.05445821  0.00027022]
 [ 0.12352473 -0.1334341   0.17061512  0.0252831   0.11539261 -0.1652773
  -0.23827603 -0.04202487 -0.22988814 -0.1496889  -0.24033931 -0.1789062
   0.13727237  0.04676699  0.04839413  0.03800456 -0.12821662]
 [-0.17426337  0.08348608  0.23072508  0.08397225 -0.08916952  0.04068732
  -0.03223869 -0.03069743  0.13419122 -0.11054396 -0.2339877   0.17000403
  -0.21001774 -0.2202093   0.2139019   0.20478512 -0.18093452]] 
Episode: 39: [[ 2.04412476e-03  7.97815323e-02 -1.99154258e-01  1.98061720e-01
   8.61510560e-02  1.89925894e-01 -4.17284444e-02  1.65068880e-01
  -2.55935173e-02  1.74356863e-01 -2.22948030e-01 -8.52798447e-02
   8.06161836e-02  3.85511741e-02 -1.08135149e-01 -5.47062419e-02
   2.22628005e-05]
 [ 1.23277254e-01 -1.33679271e-01  1.70371354e-01  2.50419974e-02
   1.15144238e-01 -1.65525153e-01 -2.38516733e-01 -4.22716811e-02
  -2.30135992e-01 -1.49934709e-01 -2.40587026e-01 -1.79153025e-01
   1.37024730e-01  4.65193130e-02  4.81465459e-02  3.77579667e-02
  -1.28464848e-01]
 [-1.74015254e-01  8.37337375e-02  2.30971828e-01  8.42197165e-02
  -8.89215544e-02  4.09349874e-02 -3.19914334e-02 -3.04499082e-02
   1.34439170e-01 -1.10295862e-01 -2.33739749e-01  1.70251071e-01
  -2.09769547e-01 -2.19960988e-01  2.14148700e-01  2.05032825e-01
  -1.80686459e-01]] 
Episode: 40: [[ 1.8180412e-03  7.9555094e-02 -1.9937946e-01  1.9783579e-01
   8.5925519e-02  1.8970042e-01 -4.1954167e-02  1.6484322e-01
  -2.5819276e-02  1.7413062e-01 -2.2317418e-01 -8.5505098e-02
   8.0389857e-02  3.8324736e-02 -1.0835932e-01 -5.4932166e-02
  -2.0360564e-04]
 [ 1.2305378e-01 -1.3389872e-01  1.7015159e-01  2.4823623e-02
   1.1491870e-01 -1.6575037e-01 -2.3873118e-01 -4.2495571e-02
  -2.3036109e-01 -1.5015490e-01 -2.4081181e-01 -1.7937683e-01
   1.3680001e-01  4.6294320e-02  4.7921613e-02  3.7536006e-02
  -1.2868991e-01]
 [-1.7378968e-01  8.3958924e-02  2.3119593e-01  8.4444970e-02
  -8.8696018e-02  4.1160338e-02 -3.1766620e-02 -3.0224845e-02
   1.3466470e-01 -1.1007031e-01 -2.3351410e-01  1.7047572e-01
  -2.0954369e-01 -2.1973504e-01  2.1437325e-01  2.0525783e-01
  -1.8046091e-01]] 
Episode: 41: [[ 0.0016127   0.07935158 -0.19957726  0.19763431  0.08571491  0.18948881
  -0.04214926  0.16463614 -0.02602039  0.17392533 -0.22337995 -0.08570222
   0.08018417  0.03812094 -0.10855531 -0.05513735 -0.00041083]
 [ 0.12288426 -0.13404685  0.17003042  0.0247083   0.11472955 -0.16593751
  -0.23881827 -0.04268076 -0.23055087 -0.15028936 -0.24101676 -0.17956187
   0.1366089   0.04612     0.04773064  0.03736786 -0.12887198]
 [-0.1735911   0.08415277  0.2313786   0.08463889 -0.08849537  0.04136067
  -0.03158011 -0.03002501  0.134862   -0.10987284 -0.23330864  0.17066786
  -0.20934227 -0.21954109  0.2145668   0.20545468 -0.18026358]] 
Episode: 42: [[ 0.00142591  0.07916645 -0.1997571   0.19745103  0.08552331  0.18929625
  -0.04232673  0.16444775 -0.02620333  0.17373858 -0.2235671  -0.08588156
   0.07999701  0.03793567 -0.10873353 -0.05532398 -0.0005993 ]
 [ 0.1227293  -0.13418299  0.16991954  0.02460166  0.11455724 -0.16610809
  -0.23889913 -0.04284959 -0.23072408 -0.15041281 -0.24120368 -0.17973062
   0.13643454  0.04596077  0.04755655  0.03721435 -0.12903805]
 [-0.17341031  0.08432937  0.23154484  0.08481546 -0.08831273  0.04154309
  -0.0314103  -0.02984309  0.13504168 -0.10969308 -0.23312159  0.17084284
  -0.20915887 -0.21936451  0.21474302  0.20563385 -0.1800839 ]] 
Episode: 43: [[ 0.00125582  0.07899789 -0.19992083  0.19728391  0.08534797  0.1891209
  -0.04248878  0.16427635 -0.02636977  0.17356835 -0.22373752 -0.08604507
   0.0798266   0.037767   -0.10889606 -0.05549446 -0.00077065]
 [ 0.12259001 -0.13430394  0.16982165  0.02451141  0.1144014  -0.1662629
  -0.23896904 -0.04300175 -0.23087925 -0.15052126 -0.24137227 -0.17988198
   0.13627759  0.0458176   0.04740008  0.03707601 -0.12918805]
 [-0.17324604  0.08448961  0.23169555  0.0849758  -0.08814645  0.04170896
  -0.0312556  -0.02967805  0.13520434 -0.1095297  -0.23295183  0.17100133
  -0.2089924  -0.21920437  0.21490261  0.20579709 -0.17992094]] 
Episode: 44: [[ 0.00110137  0.07884482 -0.2000694   0.19713187  0.0851888   0.18896173
  -0.04263611  0.16412023 -0.02652097  0.1734134  -0.22389232 -0.08619346
   0.07967148  0.03761384 -0.10904315 -0.05564928 -0.00092647]
 [ 0.1224629  -0.1344142   0.16973297  0.02443049  0.11425982 -0.16640386
  -0.2390312  -0.04313972 -0.23102023 -0.15061903 -0.24152559 -0.18001917
   0.13613509  0.04568742  0.04725769  0.0369506  -0.12932429]
 [-0.17309675  0.08463521  0.23183227  0.08512155 -0.08799545  0.04185973
  -0.03111507 -0.02952795  0.1353521  -0.1093811  -0.2327976   0.1711451
  -0.20884098 -0.2190589   0.21504742  0.20594528 -0.17977281]] 
Episode: 45: [[ 0.0009607   0.07870533 -0.20020469  0.19699343  0.08504365  0.1888168
  -0.04277024  0.1639779  -0.02665864  0.17327227 -0.22403337 -0.08632855
   0.07953029  0.03747424 -0.10917732 -0.05579029 -0.00106853]
 [ 0.12234659 -0.13451533  0.16965134  0.02435509  0.11413071 -0.16653232
  -0.23908955 -0.04326561 -0.23114897 -0.1507091  -0.24166532 -0.18014434
   0.13600521  0.0455685   0.04712765  0.03683611 -0.12944862]
 [-0.17296067  0.084768    0.23195694  0.08525444 -0.08785775  0.04199707
  -0.03098696 -0.02939108  0.13548678 -0.10924564 -0.23265703  0.17127609
  -0.20870312 -0.21892622  0.21517958  0.20608032 -0.17963772]] 
Episode: 46: [[ 0.00083274  0.07857843 -0.20032775  0.19686747  0.08491159  0.18868496
  -0.04289225  0.16384844 -0.02678385  0.17314388 -0.2241617  -0.08645143
   0.07940184  0.03734727 -0.10929945 -0.05591859 -0.00119775]
 [ 0.12224058 -0.1346074   0.16957712  0.02428647  0.11401328 -0.1666492
  -0.23914306 -0.04338019 -0.23126613 -0.150791   -0.24179238 -0.18025823
   0.13588701  0.04546032  0.04700936  0.03673185 -0.12956172]
 [-0.17283684  0.08488882  0.23207037  0.08537534 -0.08773249  0.04212201
  -0.03087041 -0.02926655  0.13560928 -0.1091224  -0.23252916  0.17139526
  -0.20857768 -0.21880554  0.21529984  0.2062032  -0.17951484]] 
Episode: 47: [[ 0.00071637  0.07846313 -0.2004397   0.19675289  0.08479171  0.18856505
  -0.04300323  0.16373079 -0.02689777  0.17302716 -0.22427827 -0.08656323
   0.07928502  0.0372319  -0.10941055 -0.0560353  -0.00131518]
 [ 0.12214399 -0.1346915   0.16950952  0.02422385  0.11390631 -0.16675542
  -0.23919183 -0.04348456 -0.23137271 -0.15086564 -0.2419081  -0.18036176
   0.13577943  0.04536178  0.0469018   0.03663673 -0.12966472]
 [-0.1727242   0.08499867  0.23217356  0.08548533 -0.0876186   0.04223562
  -0.03076438 -0.02915329  0.13572074 -0.10901034 -0.2324129   0.17150365
  -0.20846356 -0.21869579  0.21540923  0.20631506 -0.17940308]] 
Episode: 48: [[ 0.00061063  0.07835835 -0.20054148  0.19664875  0.08468275  0.18845603
  -0.04310409  0.16362384 -0.02700132  0.17292106 -0.22438419 -0.08666484
   0.07917881  0.03712705 -0.10951147 -0.05614135 -0.00142189]
 [ 0.12205549 -0.13476877  0.16944718  0.02416568  0.11380875 -0.16685218
  -0.23923765 -0.04357978 -0.2314699  -0.15093438 -0.24201359 -0.18045628
   0.1356813   0.0452718   0.04680368  0.03654964 -0.12975867]
 [-0.17262171  0.08509865  0.23226756  0.08558543 -0.08751494  0.04233898
  -0.03066789 -0.02905023  0.13582216 -0.10890838 -0.23230715  0.17160234
  -0.20835973 -0.2185959   0.2155088   0.20641685 -0.17930138]] 
Episode: 49: [[ 0.00051432  0.07826287 -0.2006342   0.19655386  0.08458333  0.18835662
  -0.04319594  0.16352646 -0.02709567  0.17282449 -0.22448069 -0.08675756
   0.07908207  0.03703151 -0.10960364 -0.05623799 -0.00151916]
 [ 0.12197564 -0.13483843  0.16939048  0.02411386  0.11372037 -0.16694005
  -0.23927857 -0.04366615 -0.23155819 -0.15099615 -0.2421093  -0.18054205
   0.13559236  0.04519016  0.04671464  0.03647082 -0.12984389]
 [-0.1725285   0.08518963  0.23235317  0.08567653 -0.08742065  0.04243306
  -0.03058009 -0.0289565   0.13591447 -0.10881566 -0.23221093  0.17169218
  -0.20826527 -0.21850501  0.21559945  0.20650947 -0.17920884]] 
Episode: 50: [[ 0.00042677  0.0781761  -0.20071846  0.19646761  0.08449298  0.18826628
  -0.04327939  0.16343795 -0.02718145  0.17273672 -0.22456841 -0.08684175
   0.07899416  0.03694468 -0.1096874  -0.05632578 -0.00160758]
 [ 0.12190311 -0.13490164  0.16933888  0.02406679  0.11364008 -0.16701992
  -0.23931566 -0.04374462 -0.23163848 -0.15105224 -0.24219628 -0.18062001
   0.1355115   0.04511595  0.04663371  0.03639904 -0.1299213 ]
 [-0.17244379  0.0852723   0.23243098  0.08575933 -0.08733498  0.04251858
  -0.03050032 -0.02887132  0.1359984  -0.1087314  -0.2321235   0.1717738
  -0.20817943 -0.2184224   0.21568184  0.20659365 -0.17912476]] 
Episode: 51: [[ 0.00034728  0.07809734 -0.20079482  0.1963893   0.084411    0.1881843
  -0.04335517  0.1633577  -0.02725929  0.17265703 -0.22464795 -0.08691809
   0.07891441  0.03686589 -0.10976326 -0.0564055  -0.00168775]
 [ 0.12183773 -0.13495822  0.16929245  0.02402494  0.11356734 -0.16709234
  -0.23934832 -0.04381568 -0.23171125 -0.15110244 -0.24227509 -0.18069065
   0.13543822  0.04504878  0.04656039  0.03633437 -0.1299914 ]
 [-0.17236698  0.08534718  0.23250143  0.08583441 -0.08725729  0.04259615
  -0.03042798 -0.02879412  0.13607454 -0.10865498 -0.23204422  0.17184778
  -0.20810157 -0.21834749  0.21575646  0.20666997 -0.17904854]] 
Episode: 52: [[ 0.00027481  0.07802549 -0.20086445  0.19631796  0.08433618  0.18810959
  -0.04342426  0.16328451 -0.02733025  0.1725844  -0.22472051 -0.08698779
   0.07884175  0.03679401 -0.10983262 -0.05647823 -0.00176092]
 [ 0.1217783  -0.13500969  0.16925016  0.02398667  0.11350119 -0.16715817
  -0.239378   -0.04388025 -0.23177743 -0.15114813 -0.24234673 -0.18075487
   0.13537163  0.04498776  0.04649375  0.0362756  -0.13005516]
 [-0.17229697  0.08541547  0.23256567  0.08590284 -0.0871865   0.04266676
  -0.03036203 -0.02872378  0.1361439  -0.10858535 -0.231972    0.17191522
  -0.20803069 -0.21827924  0.2158245   0.20673954 -0.17897907]] 
Episode: 53: [[ 2.0894542e-04  7.7960283e-02 -2.0092767e-01  1.9625312e-01
   8.4268272e-02  1.8804170e-01 -4.3487053e-02  1.6321808e-01
  -2.7394667e-02  1.7251843e-01 -2.2478637e-01 -8.7051079e-02
   7.8775726e-02  3.6728755e-02 -1.0989562e-01 -5.6544300e-02
  -1.8273263e-03]
 [ 1.2172420e-01 -1.3505681e-01  1.6921143e-01  2.3951676e-02
   1.1344097e-01 -1.6721798e-01 -2.3940532e-01 -4.3939020e-02
  -2.3183773e-01 -1.5118979e-01 -2.4241191e-01 -1.8081327e-01
   1.3531105e-01  4.4932213e-02  4.6433095e-02  3.6222011e-02
  -1.3011324e-01]
 [-1.7223333e-01  8.5477516e-02  2.3262407e-01  8.5965045e-02
  -8.7122165e-02  4.2730924e-02 -3.0302059e-02 -2.8659884e-02
   1.3620692e-01 -1.0852209e-01 -2.3190638e-01  1.7197649e-01
  -2.0796627e-01 -2.1821724e-01  2.1588635e-01  2.0680280e-01
  -1.7891593e-01]] 
Episode: 54: [[ 1.4918766e-04  7.7901050e-02 -2.0098507e-01  1.9619429e-01
   8.4206633e-02  1.8798007e-01 -4.3544024e-02  1.6315779e-01
  -2.7453072e-02  1.7245856e-01 -2.2484617e-01 -8.7108441e-02
   7.8715831e-02  3.6669485e-02 -1.0995272e-01 -5.6604274e-02
  -1.8876557e-03]
 [ 1.2167402e-01 -1.3510112e-01  1.6917509e-01  2.3918159e-02
   1.1338581e-01 -1.6727258e-01 -2.3943311e-01 -4.3992966e-02
  -2.3189305e-01 -1.5122938e-01 -2.4247172e-01 -1.8086688e-01
   1.3525544e-01  4.4881139e-02  4.6377420e-02  3.6172416e-02
  -1.3016646e-01]
 [-1.7217538e-01  8.5534155e-02  2.3267734e-01  8.6021662e-02
  -8.7063536e-02  4.2789310e-02 -3.0247387e-02 -2.8601693e-02
   1.3626429e-01 -1.0846445e-01 -2.3184659e-01  1.7203231e-01
  -2.0790763e-01 -2.1816070e-01  2.1594277e-01  2.0686044e-01
  -1.7885840e-01]] 
Episode: 55: [[ 9.49409223e-05  7.78472573e-02 -2.01037198e-01  1.96140885e-01
   8.41507316e-02  1.87924132e-01 -4.35957499e-02  1.63103059e-01
  -2.75060721e-02  1.72404215e-01 -2.24900424e-01 -8.71605203e-02
   7.86614642e-02  3.66156772e-02 -1.10004485e-01 -5.66586629e-02
  -1.94238347e-03]
 [ 1.21628679e-01 -1.35141104e-01  1.69142395e-01  2.38880143e-02
   1.13335736e-01 -1.67322114e-01 -2.39457920e-01 -4.40418459e-02
  -2.31943190e-01 -1.51265100e-01 -2.42525980e-01 -1.80915475e-01
   1.35204956e-01  4.48348187e-02  4.63269129e-02  3.61274257e-02
  -1.30214676e-01]
 [-1.72122806e-01  8.55855420e-02  2.32725650e-01  8.60730186e-02
  -8.70103389e-02  4.28422987e-02 -3.01977843e-02 -2.85488982e-02
   1.36316329e-01 -1.08412161e-01 -2.31792331e-01  1.72082946e-01
  -2.07854405e-01 -2.18109399e-01  2.15993926e-01  2.06912711e-01
  -1.78806230e-01]] 
Episode: 56: [[ 4.57725982e-05  7.77985379e-02 -2.01084360e-01  1.96092471e-01
   8.41001421e-02  1.87873468e-01 -4.36426103e-02  1.63053453e-01
  -2.75540631e-02  1.72354952e-01 -2.24949628e-01 -8.72076228e-02
   7.86121711e-02  3.65669616e-02 -1.10051259e-01 -5.67079633e-02
  -1.99199584e-03]
 [ 1.21587329e-01 -1.35177597e-01  1.69112429e-01  2.38605570e-02
   1.13290176e-01 -1.67367116e-01 -2.39480659e-01 -4.40863036e-02
  -2.31988817e-01 -1.51297584e-01 -2.42575347e-01 -1.80959627e-01
   1.35159150e-01  4.47925851e-02  4.62809205e-02  3.60865667e-02
  -1.30258486e-01]
 [-1.72075108e-01  8.56321380e-02  2.32769430e-01  8.61195996e-02
  -8.69620815e-02  4.28903550e-02 -3.01528238e-02 -2.85009965e-02
   1.36363521e-01 -1.08364746e-01 -2.31743068e-01  1.72128826e-01
  -2.07806125e-01 -2.18062848e-01  2.16040328e-01  2.06960112e-01
  -1.78758889e-01]] 
Episode: 57: [[ 9.9933095e-07  7.7754207e-02 -2.0112734e-01  1.9604844e-01
   8.4054045e-02  1.8782744e-01 -4.3685228e-02  1.6300839e-01
  -2.7597640e-02  1.7231013e-01 -2.2499441e-01 -8.7250620e-02
   7.8567356e-02  3.6522657e-02 -1.1009391e-01 -5.6752842e-02
  -2.0371261e-03]
 [ 1.2155052e-01 -1.3520992e-01  1.6908623e-01  2.3836704e-02
   1.1324903e-01 -1.6740786e-01 -2.3949885e-01 -4.4126485e-02
  -2.3202994e-01 -1.5132529e-01 -2.4261995e-01 -1.8099934e-01
   1.3511792e-01  4.4754680e-02  4.6239354e-02  3.6050174e-02
  -1.3029802e-01]
 [-1.7203183e-01  8.5674375e-02  2.3280910e-01  8.6161844e-02
  -8.6918287e-02  4.2933948e-02 -3.0112155e-02 -2.8457547e-02
   1.3640627e-01 -1.0832183e-01 -2.3169835e-01  1.7217046e-01
  -2.0776236e-01 -2.1802068e-01  2.1608245e-01  2.0700307e-01
  -1.7871596e-01]] 
Episode: 58: [[-3.96473479e-05  7.77139813e-02 -2.01166391e-01  1.96008429e-01
   8.40121657e-02  1.87785566e-01 -4.37239707e-02  1.62967429e-01
  -2.76373103e-02  1.72269419e-01 -2.25035131e-01 -8.72898027e-02
   7.85266384e-02  3.64824198e-02 -1.10132776e-01 -5.67936040e-02
  -2.07819114e-03]
 [ 1.21517047e-01 -1.35239318e-01  1.69062138e-01  2.38148738e-02
   1.13211676e-01 -1.67444929e-01 -2.39515692e-01 -4.41630594e-02
  -2.32067347e-01 -1.51350856e-01 -2.42660537e-01 -1.81035444e-01
   1.35080531e-01  4.47202101e-02  4.62014973e-02  3.60171646e-02
  -1.30334094e-01]
 [-1.71992540e-01  8.57127160e-02  2.32845217e-01  8.62002447e-02
  -8.68785083e-02  4.29736041e-02 -3.00751552e-02 -2.84180306e-02
   1.36445180e-01 -1.08282797e-01 -2.31657669e-01  1.72208369e-01
  -2.07722619e-01 -2.17982367e-01  2.16120839e-01  2.07042083e-01
  -1.78676859e-01]] 
Episode: 59: [[-7.64100550e-05  7.76776373e-02 -2.01201662e-01  1.95972234e-01
   8.39743540e-02  1.87747702e-01 -4.37589958e-02  1.62930384e-01
  -2.76731811e-02  1.72232598e-01 -2.25071937e-01 -8.73251483e-02
   7.84898177e-02  3.64460759e-02 -1.10167809e-01 -5.68304285e-02
  -2.11525289e-03]
 [ 1.21486045e-01 -1.35266572e-01  1.69039801e-01  2.37940792e-02
   1.13177575e-01 -1.67478696e-01 -2.39532202e-01 -4.41964902e-02
  -2.32101530e-01 -1.51374921e-01 -2.42697611e-01 -1.81068450e-01
   1.35046318e-01  4.46886942e-02  4.61668745e-02  3.59866545e-02
  -1.30367041e-01]
 [-1.71956867e-01  8.57474804e-02  2.32877955e-01  8.62350836e-02
  -8.68424177e-02  4.30095792e-02 -3.00415922e-02 -2.83821821e-02
   1.36480480e-01 -1.08247384e-01 -2.31620759e-01  1.72242746e-01
  -2.07686558e-01 -2.17947632e-01  2.16155678e-01  2.07077488e-01
  -1.78641409e-01]] 
Episode: 60: [[-1.0970451e-04  7.7644750e-02 -2.0123363e-01  1.9593947e-01
   8.3940156e-02  1.8771338e-01 -4.3790713e-02  1.6289684e-01
  -2.7705694e-02  1.7219925e-01 -2.2510524e-01 -8.7357141e-02
   7.8456476e-02  3.6413182e-02 -1.1019951e-01 -5.6863744e-02
  -2.1487763e-03]
 [ 1.2145761e-01 -1.3529177e-01  1.6901921e-01  2.3774544e-02
   1.1314650e-01 -1.6750945e-01 -2.3954800e-01 -4.4226978e-02
  -2.3213270e-01 -1.5139726e-01 -2.4273139e-01 -1.8109857e-01
   1.3501510e-01  4.4659946e-02  4.6135284e-02  3.5958603e-02
  -1.3039711e-01]
 [-1.7192449e-01  8.5779034e-02  2.3290768e-01  8.6266704e-02
  -8.6809665e-02  4.3042257e-02 -3.0011127e-02 -2.8349649e-02
   1.3651255e-01 -1.0821525e-01 -2.3158728e-01  1.7227396e-01
  -2.0765384e-01 -2.1791612e-01  2.1618733e-01  2.0710963e-01
  -1.7860924e-01]] 
Episode: 61: [[-1.40049437e-04  7.76147768e-02 -2.01262727e-01  1.95909619e-01
   8.39089602e-02  1.87682122e-01 -4.38195914e-02  1.62866250e-01
  -2.77352910e-02  1.72168896e-01 -2.25135595e-01 -8.73863399e-02
   7.84261376e-02  3.63831967e-02 -1.10228434e-01 -5.68940938e-02
  -2.17938051e-03]
 [ 1.21431910e-01 -1.35314420e-01  1.69000432e-01  2.37568002e-02
   1.13118321e-01 -1.67537302e-01 -2.39562154e-01 -4.42546383e-02
  -2.32161015e-01 -1.51417434e-01 -2.42761984e-01 -1.81125879e-01
   1.34986833e-01  4.46339175e-02  4.61066067e-02  3.59332450e-02
  -1.30424380e-01]
 [-1.71895012e-01  8.58077407e-02  2.32934758e-01  8.62955004e-02
  -8.67798701e-02  4.30719480e-02 -2.99834087e-02 -2.83200257e-02
   1.36541709e-01 -1.08186021e-01 -2.31556833e-01  1.72302380e-01
  -2.07624108e-01 -2.17887446e-01  2.16216132e-01  2.07138866e-01
  -1.78579941e-01]] 
Episode: 62: [[-1.67766673e-04  7.75872096e-02 -2.01289430e-01  1.95882395e-01
   8.38803053e-02  1.87653437e-01 -4.38460372e-02  1.62838191e-01
  -2.77625229e-02  1.72141179e-01 -2.25163534e-01 -8.74132067e-02
   7.83984587e-02  3.63557599e-02 -1.10255152e-01 -5.69218658e-02
  -2.20756768e-03]
 [ 1.21408105e-01 -1.35334671e-01  1.68983057e-01  2.37400476e-02
   1.13092721e-01 -1.67562649e-01 -2.39575759e-01 -4.42800373e-02
  -2.32186630e-01 -1.51436180e-01 -2.42789954e-01 -1.81150809e-01
   1.34961069e-01  4.46103364e-02  4.60804030e-02  3.59099805e-02
  -1.30449057e-01]
 [-1.71868026e-01  8.58340338e-02  2.32959628e-01  8.63218158e-02
  -8.67526308e-02  4.30990905e-02 -2.99579687e-02 -2.82928403e-02
   1.36568397e-01 -1.08159281e-01 -2.31528878e-01  1.72328442e-01
  -2.07596987e-01 -2.17861295e-01  2.16242597e-01  2.07165629e-01
  -1.78553134e-01]] 
Episode: 63: [[-1.92894047e-04  7.75621831e-02 -2.01313794e-01  1.95857733e-01
   8.38542581e-02  1.87627316e-01 -4.38699871e-02  1.62812695e-01
  -2.77873240e-02  1.72116071e-01 -2.25188956e-01 -8.74377415e-02
   7.83733875e-02  3.63308489e-02 -1.10279545e-01 -5.69470637e-02
  -2.23317975e-03]
 [ 1.21386603e-01 -1.35352716e-01  1.68967396e-01  2.37249155e-02
   1.13069601e-01 -1.67585626e-01 -2.39587873e-01 -4.43029590e-02
  -2.32209861e-01 -1.51453227e-01 -2.42815122e-01 -1.81173384e-01
   1.34937704e-01  4.45891209e-02  4.60567027e-02  3.58890556e-02
  -1.30471230e-01]
 [-1.71843573e-01  8.58578458e-02  2.32982278e-01  8.63456503e-02
  -8.67279470e-02  4.31237593e-02 -2.99349483e-02 -2.82681976e-02
   1.36592671e-01 -1.08135059e-01 -2.31503546e-01  1.72352165e-01
  -2.07572415e-01 -2.17837617e-01  2.16266647e-01  2.07189873e-01
  -1.78528875e-01]] 
Episode: 64: [[-2.1576883e-04  7.7539369e-02 -2.0133606e-01  1.9583531e-01
   8.3830476e-02  1.8760353e-01 -4.3891791e-02  1.6278949e-01
  -2.7809938e-02  1.7209323e-01 -2.2521211e-01 -8.7460190e-02
   7.8350581e-02  3.6308121e-02 -1.1030188e-01 -5.6969989e-02
  -2.2565364e-03]
 [ 1.2136758e-01 -1.3536863e-01  1.6895346e-01  2.3711827e-02
   1.1304875e-01 -1.6760634e-01 -2.3959802e-01 -4.4323530e-02
  -2.3223069e-01 -1.5146811e-01 -2.4283780e-01 -1.8119375e-01
   1.3491668e-01  4.4569992e-02  4.6035290e-02  3.5870519e-02
  -1.3049105e-01]
 [-1.7182143e-01  8.5879445e-02  2.3300290e-01  8.6367264e-02
  -8.6705528e-02  4.3146126e-02 -2.9914068e-02 -2.8245868e-02
   1.3661468e-01 -1.0811310e-01 -2.3148055e-01  1.7237376e-01
  -2.0755014e-01 -2.1781610e-01  2.1628854e-01  2.0721181e-01
  -1.7850691e-01]] 
Episode: 65: [[-2.37025597e-04  7.75180832e-02 -2.01356843e-01  1.95814505e-01
   8.38081837e-02  1.87581509e-01 -4.39120494e-02  1.62767962e-01
  -2.78309025e-02  1.72072098e-01 -2.25233689e-01 -8.74812007e-02
   7.83294812e-02  3.62868980e-02 -1.10322960e-01 -5.69913425e-02
  -2.27835565e-03]
 [ 1.21350080e-01 -1.35383114e-01  1.68940440e-01  2.36999486e-02
   1.13029785e-01 -1.67625263e-01 -2.39607006e-01 -4.43422981e-02
  -2.32249841e-01 -1.51481852e-01 -2.42858499e-01 -1.81212395e-01
   1.34897470e-01  4.45525907e-02  4.60156538e-02  3.58534977e-02
  -1.30509123e-01]
 [-1.71800882e-01  8.58995393e-02  2.33022168e-01  8.63872841e-02
  -8.66847858e-02  4.31667119e-02 -2.98947040e-02 -2.82252561e-02
   1.36635035e-01 -1.08092792e-01 -2.31459305e-01  1.72393784e-01
  -2.07529590e-01 -2.17796162e-01  2.16308907e-01  2.07232177e-01
  -1.78486571e-01]] 
Episode: 66: [[-0.00025618  0.07749884 -0.2013755   0.19579573  0.08378809  0.18756162
  -0.04393024  0.1627485  -0.02784985  0.17205308 -0.22525321 -0.08750014
   0.07831044  0.03626772 -0.11034184 -0.05701045 -0.00229807]
 [ 0.12133497 -0.13539512  0.1689299   0.02369072  0.11301299 -0.16764218
  -0.23961283 -0.04435886 -0.23226681 -0.15149303 -0.24287674 -0.18122885
   0.13488033  0.04453723  0.04599838  0.03583912 -0.13052513]
 [-0.1717825   0.0859175   0.23303922  0.08640521 -0.08666623  0.04318522
  -0.02987752 -0.02820676  0.13665332 -0.10807466 -0.23144026  0.1724117
  -0.20751111 -0.21777827  0.21632701  0.20725021 -0.17846833]] 
Episode: 67: [[-0.00027392  0.07748093 -0.2013927   0.19577847  0.08376952  0.1875434
  -0.04394706  0.1627305  -0.0278673   0.1720356  -0.22527112 -0.08751775
   0.07829294  0.03625004 -0.11035929 -0.05702803 -0.00231635]
 [ 0.12132141 -0.13540427  0.16892084  0.02368317  0.11299775 -0.16765732
  -0.23961754 -0.04437351 -0.23228188 -0.15150325 -0.24289331 -0.18124355
   0.13486493  0.04452368  0.04598297  0.03582625 -0.13054004]
 [-0.17176555  0.08593385  0.23305479  0.0864216  -0.08664922  0.04320201
  -0.02986168 -0.02818988  0.13666996 -0.10805798 -0.23142284  0.1724281
  -0.20749423 -0.21776198  0.21634348  0.20726672 -0.17845139]] 
Episode: 68: [[-0.00029001  0.07746469 -0.2014083   0.19576281  0.08375266  0.18752688
  -0.04396234  0.16271417 -0.02788315  0.17201973 -0.2252874  -0.08753373
   0.07827705  0.03623398 -0.11037514 -0.057044   -0.00233294]
 [ 0.12130909 -0.13541262  0.16891259  0.02367621  0.11298393 -0.16767105
  -0.23962182 -0.04438681 -0.23229556 -0.15151249 -0.24290837 -0.1812569
   0.13485095  0.04451138  0.04596898  0.03581457 -0.13055357]
 [-0.17175017  0.08594868  0.23306893  0.08643649 -0.08663379  0.04321725
  -0.0298473  -0.02817456  0.13668507 -0.10804286 -0.23140702  0.17244299
  -0.2074789  -0.2177472   0.21635842  0.20728171 -0.17843601]] 
Episode: 69: [[-0.00030461  0.07744996 -0.2014225   0.19574857  0.08373736  0.18751185
  -0.0439762   0.16269934 -0.02789755  0.17200534 -0.22530216 -0.08754825
   0.07826262  0.03621941 -0.11038958 -0.0570585  -0.002348  ]
 [ 0.12129712 -0.13542128  0.16890405  0.02366836  0.11297109 -0.16768375
  -0.23962758 -0.0443993  -0.23230834 -0.15152195 -0.24292241 -0.18126947
   0.13483793  0.04449975  0.0459559   0.03580335 -0.13056624]
 [-0.17173606  0.08596233  0.233082    0.08645017 -0.08661964  0.0432312
  -0.02983408 -0.0281605   0.13669893 -0.10802901 -0.23139252  0.1724567
  -0.20746487 -0.21773362  0.2163722   0.20729546 -0.1784219 ]] 
Episode: 70: [[-0.00031781  0.07743663 -0.20143533  0.19573563  0.08372346  0.18749824
  -0.04398877  0.16268592 -0.02791057  0.17199232 -0.22531554 -0.08756138
   0.07824954  0.03620617 -0.11040255 -0.05707162 -0.00236169]
 [ 0.12128575 -0.13542986  0.16889575  0.02366063  0.1129593  -0.16769542
  -0.23963343 -0.04441078 -0.23232017 -0.15153128 -0.24293533 -0.18128106
   0.1348259   0.04448899  0.04594381  0.03579278 -0.13057783]
 [-0.1717232   0.08597483  0.23309393  0.08646265 -0.08660673  0.0432439
  -0.02982204 -0.02814772  0.13671155 -0.10801639 -0.2313793   0.1724692
  -0.2074521  -0.21772121  0.21638475  0.20730801 -0.17840904]] 
Episode: 71: [[-0.00032985  0.07742444 -0.20144701  0.19572386  0.08371077  0.18748586
  -0.04400024  0.16267368 -0.02792244  0.17198044 -0.22532775 -0.0875734
   0.07823762  0.03619408 -0.11041441 -0.05708356 -0.00237419]
 [ 0.12127545 -0.13543792  0.16888815  0.02365352  0.1129486  -0.16770603
  -0.23963855 -0.04442117 -0.23233093 -0.15153958 -0.24294706 -0.18129161
   0.134815    0.04447918  0.04593285  0.03578317 -0.13058834]
 [-0.17171149  0.08598629  0.23310481  0.08647402 -0.08659497  0.04325546
  -0.02981108 -0.0281361   0.13672306 -0.1080049  -0.23136728  0.17248061
  -0.2074405  -0.21770988  0.21639618  0.20731942 -0.17839733]] 
Episode: 72: [[-0.00034069  0.07741345 -0.20145756  0.19571331  0.08369939  0.18747464
  -0.04401052  0.16266279 -0.02793313  0.17196974 -0.22533873 -0.08758432
   0.07822686  0.03618328 -0.11042527 -0.0570943  -0.00238552]
 [ 0.12126523 -0.13544658  0.1688805   0.02364497  0.11293858 -0.16771594
  -0.23964587 -0.04443114 -0.23234108 -0.15154842 -0.24295804 -0.18130177
   0.1348044   0.04446969  0.04592242  0.03577353 -0.13059834]
 [-0.17170076  0.08599687  0.2331148   0.08648442 -0.08658422  0.04326608
  -0.02980101 -0.02812551  0.13673356 -0.10799439 -0.2313563   0.17249122
  -0.20742978 -0.21769951  0.21640684  0.20732991 -0.17838652]] 
Episode: 73: [[-0.00035053  0.07740347 -0.20146717  0.19570373  0.08368903  0.18746446
  -0.04401986  0.1626529  -0.02794285  0.17196004 -0.2253487  -0.08759426
   0.07821707  0.03617347 -0.11043513 -0.05710405 -0.0023958 ]
 [ 0.12125612 -0.13545445  0.1688736   0.02363749  0.11292952 -0.16772489
  -0.23965234 -0.04444014 -0.23235025 -0.1515563  -0.24296801 -0.18131089
   0.13479482  0.0444611   0.04591297  0.03576494 -0.1306074 ]
 [-0.17169106  0.08600649  0.23312388  0.08649383 -0.08657447  0.04327569
  -0.02979188 -0.02811592  0.1367431  -0.10798487 -0.23134632  0.17250083
  -0.20742005 -0.21769011  0.2164165   0.20733942 -0.17837672]] 
Episode: 74: [[-0.00035937  0.07739458 -0.20147575  0.19569512  0.08367979  0.18745534
  -0.04402824  0.16264403 -0.02795157  0.17195131 -0.2253576  -0.08760311
   0.0782083   0.03616473 -0.11044386 -0.05711278 -0.00240498]
 [ 0.12124766 -0.135462    0.16886695  0.02363015  0.11292124 -0.16773306
  -0.23965903 -0.04444842 -0.23235863 -0.15156376 -0.24297714 -0.18131927
   0.13478602  0.04445317  0.04590432  0.0357569  -0.13061576]
 [-0.17168228  0.08601516  0.2331321   0.08650234 -0.08656567  0.04328437
  -0.0297836  -0.02810724  0.13675171 -0.10797627 -0.23133734  0.17250949
  -0.20741127 -0.21768163  0.21642518  0.207348   -0.17836787]] 
Episode: 75: [[-0.00036745  0.07738631 -0.20148371  0.19568723  0.0836712   0.18744695
  -0.04403596  0.16263582 -0.02795962  0.1719433  -0.22536588 -0.08761132
   0.07820024  0.03615661 -0.110452   -0.0571208  -0.00241349]
 [ 0.12123889 -0.13546982  0.16885991  0.02362161  0.1129134  -0.1677407
  -0.23966703 -0.04445638 -0.23236673 -0.15157184 -0.24298592 -0.18132731
   0.13477765  0.04444545  0.04589602  0.03574891 -0.13062374]
 [-0.17167406  0.08602337  0.23313989  0.08651032 -0.08655743  0.04329242
  -0.02977582 -0.0280991   0.13675977 -0.10796823 -0.23132889  0.17251764
  -0.20740312 -0.21767364  0.21643339  0.20735604 -0.17835955]] 
Episode: 76: [[-0.00037473  0.07737893 -0.20149085  0.19568016  0.08366354  0.1874394
  -0.04404291  0.16262847 -0.02796687  0.17193614 -0.22537324 -0.08761869
   0.07819302  0.03614938 -0.11045927 -0.05712799 -0.00242106]
 [ 0.12123083 -0.13547713  0.16885342  0.02361347  0.11290623 -0.16774766
  -0.23967473 -0.04446369 -0.2323741  -0.15157951 -0.24299398 -0.18133469
   0.13476993  0.04443832  0.04588841  0.03574156 -0.1306311 ]
 [-0.17166662  0.08603075  0.23314694  0.08651751 -0.08654999  0.0432997
  -0.02976878 -0.02809176  0.13676707 -0.10796098 -0.23132128  0.17252502
  -0.20739575 -0.21766643  0.21644083  0.20736328 -0.17835206]] 
Episode: 77: [[-0.00038143  0.07737213 -0.20149744  0.19567369  0.08365647  0.18743241
  -0.0440493   0.16262169 -0.02797354  0.17192955 -0.22538002 -0.08762555
   0.07818639  0.03614271 -0.11046606 -0.05713462 -0.00242805]
 [ 0.12122314 -0.13548416  0.16884708  0.02360558  0.11289964 -0.16775408
  -0.23968261 -0.04447049 -0.23238096 -0.15158701 -0.24300143 -0.18134156
   0.13476278  0.04443169  0.04588133  0.03573461 -0.1306379 ]
 [-0.17165972  0.08603761  0.2331535   0.08652414 -0.08654315  0.04330643
  -0.02976223 -0.02808497  0.13677381 -0.10795427 -0.23131424  0.17253189
  -0.20738897 -0.21765977  0.21644776  0.20736998 -0.17834514]] 
Episode: 78: [[-0.00038739  0.07736609 -0.20150325  0.19566791  0.08365025  0.18742621
  -0.044055    0.16261564 -0.02797945  0.17192368 -0.22538604 -0.08763158
   0.07818049  0.03613678 -0.11047196 -0.05714049 -0.00243424]
 [ 0.12121578 -0.13549091  0.16884081  0.02359764  0.11289352 -0.16776003
  -0.23969063 -0.04447683 -0.23238738 -0.1515945  -0.24300836 -0.18134803
   0.13475606  0.04442549  0.04587469  0.03572793 -0.13064425]
 [-0.17165348  0.0860438   0.23315945  0.08653016 -0.08653697  0.04331252
  -0.0297563  -0.02807883  0.1367799  -0.10794819 -0.2313079   0.1725381
  -0.20738281 -0.21765375  0.21645401  0.20737605 -0.17833889]] 
Episode: 79: [[-0.00039275  0.07736065 -0.20150849  0.19566269  0.08364464  0.18742062
  -0.04406011  0.16261023 -0.02798475  0.1719184  -0.22539142 -0.08763696
   0.07817519  0.03613148 -0.11047722 -0.05714575 -0.00243974]
 [ 0.12120895 -0.13549699  0.16883501  0.02359018  0.11288795 -0.16776547
  -0.23969811 -0.04448267 -0.23239335 -0.15160182 -0.24301475 -0.18135408
   0.13474979  0.04441974  0.04586852  0.03572157 -0.13065012]
 [-0.17164782  0.08604937  0.23316485  0.0865356  -0.08653137  0.04331804
  -0.02975095 -0.02807326  0.13678543 -0.10794266 -0.23130214  0.17254376
  -0.20737723 -0.21764828  0.21645972  0.20738158 -0.17833324]] 
Episode: 80: [[-0.00039771  0.07735558 -0.20151338  0.1956579   0.0836394   0.18741545
  -0.04406487  0.16260523 -0.02798967  0.17191353 -0.22539642 -0.08764203
   0.07817031  0.03612654 -0.1104822  -0.05715065 -0.00244487]
 [ 0.1212028  -0.13550235  0.16882987  0.02358337  0.11288296 -0.16777037
  -0.23970476 -0.04448794 -0.23239878 -0.15160842 -0.24302047 -0.18135953
   0.1347441   0.04441455  0.04586297  0.03571589 -0.13065536]
 [-0.17164262  0.08605451  0.23316982  0.0865406  -0.08652624  0.04332308
  -0.02974601 -0.02806816  0.13679053 -0.10793757 -0.23129688  0.172549
  -0.2073721  -0.21764325  0.21646498  0.20738667 -0.17832805]] 
Episode: 81: [[-0.00040215  0.07735106 -0.2015177   0.19565362  0.08363477  0.18741085
  -0.04406911  0.16260077 -0.02799405  0.17190917 -0.22540087 -0.08764649
   0.07816593  0.03612218 -0.11048659 -0.05715501 -0.00244942]
 [ 0.1211971  -0.13550764  0.16882482  0.02357667  0.11287836 -0.16777487
  -0.23971131 -0.04449281 -0.23240376 -0.15161458 -0.24302585 -0.18136463
   0.13473885  0.04440972  0.04585779  0.03571054 -0.13066022]
 [-0.17163792  0.08605918  0.23317432  0.08654513 -0.08652163  0.04332764
  -0.02974154 -0.02806356  0.13679512 -0.10793298 -0.2312921   0.17255372
  -0.20736746 -0.21763872  0.21646976  0.20739126 -0.17832337]] 
Episode: 82: [[-0.000406    0.0773472  -0.20152135  0.19564988  0.08363086  0.18740685
  -0.0440728   0.1625969  -0.02799786  0.17190537 -0.22540464 -0.08765025
   0.07816212  0.03611846 -0.11049025 -0.05715876 -0.00245332]
 [ 0.12119078 -0.13551389  0.16881888  0.02356851  0.11287374 -0.1677793
  -0.23972012 -0.04449784 -0.2324088  -0.15162183 -0.24303131 -0.18136987
   0.13473351  0.04440465  0.04585254  0.03570465 -0.1306652 ]
 [-0.17163359  0.08606348  0.23317848  0.0865493  -0.08651738  0.04333185
  -0.02973739 -0.02805929  0.13679935 -0.10792875 -0.2312877   0.1725581
  -0.2073632  -0.21763453  0.21647419  0.20739552 -0.17831904]] 
Episode: 83: [[-0.00040954  0.0773438  -0.20152473  0.19564642  0.08362739  0.18740319
  -0.04407618  0.16259342 -0.02800139  0.1719019  -0.22540796 -0.08765374
   0.07815859  0.03611512 -0.11049367 -0.05716221 -0.00245684]
 [ 0.12118496 -0.13551956  0.16881336  0.02356101  0.11286948 -0.16778332
  -0.23972835 -0.04450249 -0.23241341 -0.1516286  -0.24303626 -0.18137464
   0.13472866  0.0444      0.04584777  0.0356992  -0.13066976]
 [-0.1716296   0.08606731  0.23318234  0.08655316 -0.08651353  0.04333568
  -0.02973356 -0.02805542  0.13680324 -0.10792489 -0.23128377  0.17256212
  -0.20735928 -0.21763074  0.21647827  0.20739944 -0.1783151 ]] 
Episode: 84: [[-0.00041278  0.07734066 -0.2015278   0.19564329  0.08362419  0.18739988
  -0.04407926  0.16259022 -0.02800457  0.17189874 -0.22541103 -0.08765691
   0.07815537  0.03611206 -0.11049673 -0.05716534 -0.0024601 ]
 [ 0.12117992 -0.13552433  0.1688085   0.02355448  0.11286569 -0.16778691
  -0.23973534 -0.04450653 -0.23241748 -0.15163442 -0.2430406  -0.1813789
   0.13472435  0.04439593  0.04584355  0.03569448 -0.1306738 ]
 [-0.171626    0.08607076  0.2331858   0.08655662 -0.08651005  0.04333913
  -0.02973012 -0.02805193  0.13680673 -0.1079214  -0.23128022  0.17256574
  -0.20735574 -0.21762733  0.21648191  0.20740294 -0.17831153]] 
Episode: 85: [[-0.00041582  0.07733775 -0.2015307   0.19564039  0.08362118  0.18739681
  -0.04408211  0.16258723 -0.02800753  0.1718958  -0.22541387 -0.08765988
   0.07815236  0.03610918 -0.11049963 -0.05716825 -0.00246314]
 [ 0.12117516 -0.1355288   0.16880381  0.02354823  0.11286222 -0.16779025
  -0.23974231 -0.04451022 -0.23242131 -0.15164013 -0.24304464 -0.18138288
   0.13472031  0.04439215  0.04583961  0.0356899  -0.13067749]
 [-0.17162262  0.08607396  0.23318909  0.08655985 -0.08650682  0.04334233
  -0.0297269  -0.0280487   0.13680997 -0.10791812 -0.23127693  0.17256914
  -0.20735243 -0.21762414  0.2164853   0.20740625 -0.17830822]] 
Episode: 86: [[-0.00041853  0.07733519 -0.20153329  0.1956378   0.08361857  0.18739407
  -0.04408464  0.16258459 -0.02801017  0.17189318 -0.22541639 -0.08766253
   0.0781497   0.03610667 -0.11050218 -0.05717082 -0.0024658 ]
 [ 0.12117046 -0.13553335  0.16879909  0.0235417   0.11285892 -0.1677934
  -0.23974957 -0.04451376 -0.23242496 -0.15164585 -0.24304849 -0.18138668
   0.13471645  0.04438849  0.04583585  0.03568539 -0.13068102]
 [-0.17161952  0.08607689  0.23319215  0.08656281 -0.08650388  0.04334527
  -0.02972394 -0.02804576  0.13681296 -0.10791512 -0.23127392  0.17257227
  -0.20734942 -0.21762124  0.21648845  0.20740928 -0.17830521]] 
Episode: 87: [[-0.00042109  0.07733273 -0.2015358   0.1956354   0.08361601  0.18739143
  -0.04408704  0.16258205 -0.02801269  0.1718907  -0.2254188  -0.08766512
   0.0781472   0.03610424 -0.11050475 -0.05717327 -0.00246839]
 [ 0.12116571 -0.13553797  0.16879438  0.02353493  0.11285579 -0.16779639
  -0.23975717 -0.04451723 -0.2324285  -0.15165187 -0.24305221 -0.18139037
   0.13471273  0.04438492  0.04583224  0.03568082 -0.13068445]
 [-0.17161652  0.08607976  0.23319514  0.08656565 -0.08650105  0.04334808
  -0.02972107 -0.02804291  0.13681583 -0.10791222 -0.23127103  0.17257532
  -0.20734656 -0.2176184   0.21649154  0.20741223 -0.17830227]] 
Episode: 88: [[-0.00042343  0.07733058 -0.20153801  0.1956332   0.08361381  0.1873891
  -0.04408922  0.16257986 -0.02801491  0.17188847 -0.22542089 -0.08766737
   0.07814495  0.03610212 -0.11050697 -0.0571755  -0.00247063]
 [ 0.12116107 -0.13554265  0.1687898   0.02352814  0.11285279 -0.16779917
  -0.23976496 -0.04452062 -0.23243189 -0.15165797 -0.24305582 -0.18139385
   0.13470915  0.04438139  0.04582884  0.03567644 -0.13068776]
 [-0.17161374  0.08608238  0.23319787  0.08656829 -0.08649847  0.04335063
  -0.02971839 -0.02804031  0.13681844 -0.10790952 -0.23126838  0.17257808
  -0.2073439  -0.2176158   0.21649432  0.20741495 -0.1782996 ]] 
Episode: 89: [[-0.00042587  0.07732827 -0.20154044  0.19563095  0.08361138  0.18738668
  -0.04409149  0.16257754 -0.02801726  0.17188618 -0.22542317 -0.08766988
   0.07814262  0.03609982 -0.11050955 -0.05717788 -0.00247308]
 [ 0.12115719 -0.13554637  0.16878602  0.02352255  0.1128502  -0.16780163
  -0.23977144 -0.04452349 -0.23243484 -0.15166299 -0.24305885 -0.18139689
   0.13470605  0.04437843  0.04582587  0.03567278 -0.13069057]
 [-0.17161101  0.08608495  0.2332006   0.08657086 -0.08649596  0.04335308
  -0.02971573 -0.02803781  0.13682099 -0.10790689 -0.23126581  0.17258081
  -0.20734136 -0.21761326  0.2164971   0.20741764 -0.17829701]] 
Episode: 90: [[-0.0004281   0.07732615 -0.20154263  0.19562891  0.08360914  0.18738447
  -0.04409355  0.16257542 -0.02801939  0.1718841  -0.22542526 -0.08767216
   0.07814051  0.03609769 -0.11051188 -0.05718004 -0.00247529]
 [ 0.12115385 -0.13554963  0.1687827   0.02351796  0.1128479  -0.16780385
  -0.2397769  -0.04452604 -0.23243752 -0.1516673  -0.2430616  -0.18139964
   0.1347033   0.04437577  0.04582315  0.03566954 -0.13069308]
 [-0.17160857  0.08608729  0.23320304  0.08657315 -0.08649369  0.0433553
  -0.02971336 -0.02803553  0.13682331 -0.10790455 -0.23126347  0.17258328
  -0.20733906 -0.21761096  0.21649961  0.20742007 -0.17829469]] 
Episode: 91: [[-0.00043012  0.07732417 -0.20154464  0.19562705  0.08360706  0.18738246
  -0.0440954   0.16257347 -0.02802135  0.17188223 -0.2254272  -0.08767429
   0.0781386   0.03609573 -0.11051401 -0.05718201 -0.00247736]
 [ 0.12115064 -0.1355529   0.16877937  0.02351346  0.11284574 -0.16780594
  -0.23978212 -0.04452851 -0.23244005 -0.15167142 -0.24306421 -0.18140224
   0.13470072  0.04437324  0.04582061  0.03566647 -0.13069543]
 [-0.1716063   0.0860895   0.23320533  0.08657527 -0.08649157  0.04335734
  -0.02971121 -0.02803341  0.13682547 -0.10790239 -0.23126128  0.1725856
  -0.20733695 -0.2176088   0.21650195  0.2074223  -0.1782925 ]] 
Episode: 92: [[-0.00043207  0.07732228 -0.20154661  0.19562526  0.08360499  0.18738051
  -0.04409719  0.1625716  -0.02802326  0.17188042 -0.22542906 -0.0876764
   0.07813676  0.03609381 -0.11051615 -0.05718393 -0.00247937]
 [ 0.1211474  -0.13555627  0.16877599  0.02350884  0.11284363 -0.1678079
  -0.2397876  -0.04453089 -0.23244247 -0.15167563 -0.24306674 -0.18140475
   0.13469823  0.04437074  0.04581817  0.03566343 -0.1306977 ]
 [-0.1716041   0.08609167  0.23320761  0.08657733 -0.08648948  0.0433593
  -0.02970909 -0.02803135  0.13682754 -0.1079003  -0.23125918  0.17258789
  -0.20733492 -0.21760668  0.21650423  0.20742448 -0.17829038]] 
Episode: 93: [[-0.00043405  0.07732029 -0.20154867  0.1956235   0.08360279  0.1873785
  -0.044099    0.16256963 -0.02802522  0.1718786  -0.22543105 -0.08767866
   0.07813493  0.03609174 -0.11051852 -0.05718587 -0.00248154]
 [ 0.12114325 -0.1355607   0.16877152  0.02350223  0.11284126 -0.16781005
  -0.23979561 -0.04453374 -0.23244525 -0.1516814  -0.24306965 -0.1814077
   0.13469528  0.04436779  0.04581539  0.0356595  -0.1307004 ]
 [-0.17160168  0.08609411  0.23321019  0.08657957 -0.0864872   0.04336137
  -0.02970673 -0.02802909  0.13682978 -0.107898   -0.23125684  0.17259043
  -0.20733276 -0.21760431  0.21650681  0.20742689 -0.178288  ]] 
Episode: 94: [[-0.00043575  0.07731866 -0.20155041  0.19562198  0.083601    0.18737678
  -0.04410055  0.16256799 -0.0280269   0.17187703 -0.2254327  -0.08768056
   0.07813338  0.03609008 -0.11052038 -0.05718752 -0.00248327]
 [ 0.12113958 -0.1355645   0.16876785  0.02349643  0.11283915 -0.16781196
  -0.23980284 -0.04453636 -0.23244768 -0.15168704 -0.24307227 -0.18141033
   0.13469262  0.0443651   0.04581298  0.03565595 -0.1307028 ]
 [-0.1715996   0.08609615  0.23321235  0.08658151 -0.08648525  0.04336318
  -0.02970468 -0.02802712  0.13683172 -0.10789594 -0.23125483  0.17259263
  -0.20733088 -0.2176023   0.21650894  0.20742899 -0.17828599]] 
Episode: 95: [[-0.0004373   0.0773173  -0.201552    0.19562055  0.0835995   0.18737519
  -0.0441019   0.16256663 -0.02802843  0.17187557 -0.22543414 -0.08768224
   0.07813193  0.0360887  -0.11052199 -0.05718899 -0.00248479]
 [ 0.12113599 -0.13556823  0.16876426  0.02349101  0.11283712 -0.16781367
  -0.2398094  -0.04453894 -0.23244995 -0.15169226 -0.24307476 -0.18141271
   0.13469028  0.04436256  0.04581071  0.03565274 -0.13070497]
 [-0.17159764  0.08609794  0.23321438  0.08658333 -0.0864835   0.04336483
  -0.02970286 -0.02802534  0.13683349 -0.10789403 -0.231253    0.17259459
  -0.20732917 -0.21760052  0.21651088  0.20743087 -0.17828421]] 
Episode: 96: [[-0.0004387   0.07731598 -0.20155345  0.19561927  0.08359811  0.18737373
  -0.04410315  0.16256535 -0.02802982  0.17187423 -0.22543544 -0.08768371
   0.07813058  0.03608742 -0.11052339 -0.05719037 -0.00248616]
 [ 0.12113277 -0.1355712   0.16876082  0.02348596  0.11283533 -0.16781522
  -0.23981525 -0.04454125 -0.23245205 -0.15169707 -0.24307707 -0.1814149
   0.13468829  0.04436028  0.04580862  0.03564991 -0.13070694]
 [-0.17159589  0.08609957  0.23321626  0.08658499 -0.08648192  0.04336633
  -0.0297012  -0.02802372  0.13683513 -0.10789227 -0.23125133  0.17259637
  -0.20732763 -0.2175989   0.21651262  0.2074326  -0.1782826 ]] 
Episode: 97: [[-0.00044003  0.07731477 -0.20155476  0.1956181   0.0835968   0.18737239
  -0.04410431  0.16256422 -0.02803108  0.171873   -0.22543664 -0.08768504
   0.07812934  0.03608623 -0.1105247  -0.05719165 -0.00248738]
 [ 0.12113004 -0.13557358  0.16875783  0.0234818   0.11283384 -0.16781656
  -0.2398201  -0.04454324 -0.23245387 -0.1517012  -0.24307904 -0.18141676
   0.13468659  0.04435836  0.04580688  0.03564757 -0.1307086 ]
 [-0.17159428  0.086101    0.23321792  0.08658645 -0.08648052  0.04336768
  -0.02969971 -0.02802229  0.13683657 -0.1078907  -0.23124984  0.17259791
  -0.20732625 -0.21759745  0.21651414  0.20743412 -0.1782812 ]] 
Episode: 98: [[-0.00044126  0.07731362 -0.20155598  0.195617    0.08359557  0.18737113
  -0.04410539  0.16256315 -0.02803226  0.17187189 -0.22543779 -0.0876863
   0.07812819  0.03608511 -0.11052595 -0.05719283 -0.00248853]
 [ 0.12112698 -0.13557649  0.16875419  0.02347698  0.11283225 -0.16781801
  -0.23982583 -0.04454532 -0.23245591 -0.15170585 -0.24308111 -0.18141885
   0.13468476  0.04435631  0.04580496  0.03564491 -0.13071038]
 [-0.17159268  0.08610247  0.23321967  0.08658791 -0.08647912  0.04336902
  -0.02969821 -0.02802088  0.13683803 -0.10788916 -0.23124835  0.17259952
  -0.20732489 -0.21759601  0.21651572  0.20743565 -0.1782798 ]] 
Episode: 99: [[-0.00044237  0.07731258 -0.20155704  0.19561599  0.0835944   0.18736996
  -0.04410643  0.16256215 -0.02803335  0.17187083 -0.22543883 -0.08768748
   0.07812705  0.03608404 -0.11052714 -0.05719396 -0.00248957]
 [ 0.12112404 -0.13557957  0.16875069  0.02347219  0.11283063 -0.16781941
  -0.23983121 -0.04454732 -0.23245789 -0.1517102  -0.24308302 -0.18142089
   0.13468303  0.04435427  0.04580306  0.03564243 -0.13071205]
 [-0.1715912   0.08610389  0.23322125  0.08658928 -0.08647774  0.0433703
  -0.02969679 -0.02801955  0.13683943 -0.1078877  -0.231247    0.17260106
  -0.20732358 -0.21759461  0.21651725  0.2074371  -0.1782785 ]] 
Episode: 100: [[-0.00044342  0.07731152 -0.20155811  0.19561502  0.08359321  0.18736883
  -0.04410741  0.16256112 -0.02803442  0.17186981 -0.22543989 -0.08768871
   0.07812597  0.03608295 -0.11052834 -0.05719504 -0.00249066]
 [ 0.12112135 -0.13558236  0.16874745  0.02346785  0.11282918 -0.16782074
  -0.23983635 -0.04454909 -0.2324597  -0.15171409 -0.24308473 -0.18142277
   0.13468143  0.04435248  0.04580132  0.03564008 -0.13071352]
 [-0.17158984  0.08610527  0.23322278  0.08659058 -0.08647642  0.04337152
  -0.02969544 -0.02801827  0.13684075 -0.10788634 -0.2312457   0.17260256
  -0.20732234 -0.21759327  0.21651872  0.20743847 -0.17827727]] 
Episode: 101: [[-0.00044435  0.0773106  -0.20155898  0.19561417  0.0835922   0.1873679
  -0.04410827  0.16256024 -0.02803532  0.17186892 -0.22544077 -0.08768968
   0.07812501  0.03608202 -0.1105293  -0.05719602 -0.00249164]
 [ 0.12111834 -0.1355858   0.16874376  0.02346272  0.11282758 -0.16782215
  -0.2398425  -0.04455107 -0.23246169 -0.15171853 -0.24308665 -0.18142487
   0.13467965  0.04435046  0.04579947  0.03563744 -0.13071524]
 [-0.1715885   0.08610665  0.23322426  0.08659185 -0.08647513  0.04337268
  -0.02969411 -0.02801702  0.13684201 -0.10788502 -0.23124443  0.17260401
  -0.20732114 -0.21759196  0.21652012  0.20743984 -0.17827599]] 
Episode: 102: [[-0.00044525  0.07730981 -0.20155968  0.19561337  0.08359132  0.18736707
  -0.04410906  0.16255948 -0.02803613  0.17186807 -0.22544153 -0.08769051
   0.07812411  0.03608122 -0.11053014 -0.0571969  -0.00249246]
 [ 0.12111578 -0.13558882  0.1687403   0.0234583   0.11282612 -0.16782343
  -0.23984806 -0.04455285 -0.23246345 -0.15172239 -0.24308835 -0.18142675
   0.134678    0.04434872  0.04579774  0.03563504 -0.13071674]
 [-0.17158727  0.08610785  0.23322554  0.08659299 -0.08647398  0.04337373
  -0.02969289 -0.02801592  0.13684314 -0.10788381 -0.23124333  0.17260528
  -0.20732002 -0.21759084  0.21652138  0.20744108 -0.1782749 ]] 
Episode: 103: [[-0.00044604  0.07730914 -0.2015603   0.19561267  0.08359057  0.18736632
  -0.04410976  0.16255882 -0.02803685  0.17186733 -0.22544217 -0.08769124
   0.0781233   0.03608055 -0.11053088 -0.05719766 -0.00249315]
 [ 0.12111344 -0.13559152  0.1687372   0.02345415  0.1128248  -0.16782461
  -0.23985322 -0.04455445 -0.23246501 -0.15172596 -0.24308988 -0.18142846
   0.13467649  0.04434713  0.04579616  0.03563277 -0.13071808]
 [-0.17158617  0.08610889  0.23322669  0.08659403 -0.08647296  0.04337468
  -0.0296918  -0.02801494  0.13684416 -0.10788273 -0.23124236  0.17260642
  -0.207319   -0.21758986  0.21652253  0.2074422  -0.17827395]] 
Episode: 104: [[-0.00044686  0.07730853 -0.20156094  0.19561198  0.08358991  0.18736558
  -0.04411047  0.16255818 -0.02803756  0.17186663 -0.22544277 -0.08769197
   0.07812249  0.03607992 -0.11053165 -0.05719841 -0.00249375]
 [ 0.12111247 -0.13559279  0.16873562  0.0234527   0.11282401 -0.16782536
  -0.23985507 -0.04455537 -0.23246586 -0.1517277  -0.24309075 -0.18142943
   0.13467568  0.04434626  0.04579522  0.03563179 -0.13071872]
 [-0.17158532  0.08610963  0.23322752  0.0865948  -0.08647224  0.04337542
  -0.02969099 -0.02801421  0.13684492 -0.1078819  -0.23124166  0.17260726
  -0.2073182  -0.21758914  0.21652338  0.207443   -0.17827334]] 
Episode: 105: [[-0.00044767  0.07730785 -0.20156159  0.19561133  0.08358917  0.18736485
  -0.04411115  0.16255748 -0.02803826  0.17186594 -0.22544341 -0.08769268
   0.07812173  0.03607924 -0.11053246 -0.05719912 -0.00249443]
 [ 0.12111193 -0.13559349  0.16873461  0.02345208  0.11282341 -0.16782594
  -0.23985595 -0.04455602 -0.23246649 -0.15172875 -0.2430914  -0.18143018
   0.13467509  0.04434567  0.04579456  0.03563121 -0.13071914]
 [-0.17158456  0.08611031  0.23322825  0.08659545 -0.08647157  0.04337609
  -0.02969028 -0.02801353  0.13684559 -0.10788118 -0.231241    0.17260797
  -0.20731749 -0.21758848  0.21652412  0.20744368 -0.17827277]] 
Episode: 106: [[-0.0004483   0.07730739 -0.20156232  0.19561078  0.08358863  0.187364
  -0.04411174  0.16255704 -0.02803896  0.17186542 -0.22544388 -0.08769345
   0.07812114  0.03607881 -0.11053333 -0.05719962 -0.00249493]
 [ 0.12111165 -0.13559434  0.16873363  0.02345195  0.11282282 -0.16782644
  -0.23985659 -0.04455675 -0.23246706 -0.15172906 -0.2430921  -0.18143094
   0.1346747   0.04434504  0.04579391  0.03563078 -0.13071965]
 [-0.17158401  0.08611085  0.23322904  0.08659597 -0.08647101  0.04337678
  -0.02968969 -0.02801298  0.13684624 -0.10788067 -0.23124045  0.17260873
  -0.20731695 -0.21758798  0.21652488  0.20744416 -0.17827226]] 
Episode: 107: [[-0.00044887  0.07730698 -0.20156303  0.19561026  0.08358812  0.18736319
  -0.04411228  0.16255663 -0.02803962  0.17186493 -0.22544432 -0.08769419
   0.07812059  0.03607841 -0.11053416 -0.05720008 -0.00249538]
 [ 0.12111159 -0.13559507  0.16873266  0.02345232  0.11282229 -0.1678269
  -0.23985662 -0.04455741 -0.23246756 -0.15172905 -0.2430927  -0.18143162
   0.13467444  0.04434448  0.04579333  0.03563059 -0.1307201 ]
 [-0.17158353  0.08611132  0.23322982  0.08659641 -0.08647048  0.04337742
  -0.02968919 -0.02801249  0.13684686 -0.10788024 -0.23123996  0.17260945
  -0.20731649 -0.21758753  0.2165256   0.20744456 -0.17827182]] 
Episode: 108: [[-0.00044933  0.07730665 -0.20156358  0.19560982  0.0835877   0.18736254
  -0.04411272  0.16255632 -0.02804017  0.17186451 -0.22544464 -0.08769476
   0.07812013  0.03607808 -0.11053482 -0.05720043 -0.00249574]
 [ 0.12111155 -0.13559572  0.16873184  0.02345278  0.11282183 -0.16782732
  -0.2398566  -0.04455798 -0.23246801 -0.15172894 -0.24309318 -0.1814322
   0.13467419  0.04434407  0.04579284  0.03563044 -0.13072047]
 [-0.17158316  0.08611171  0.23323043  0.08659676 -0.08647005  0.04337796
  -0.02968879 -0.0280121   0.13684736 -0.10787988 -0.23123957  0.17261003
  -0.2073161  -0.21758717  0.21652618  0.20744486 -0.17827146]] 
Episode: 109: [[-0.00044982  0.07730626 -0.2015642   0.19560939  0.08358723  0.18736187
  -0.04411318  0.16255596 -0.02804072  0.17186408 -0.22544505 -0.08769538
   0.0781197   0.0360777  -0.11053557 -0.05720081 -0.00249615]
 [ 0.12111058 -0.13559724  0.1687301   0.02345147  0.11282112 -0.16782792
  -0.23985869 -0.04455888 -0.23246881 -0.15173034 -0.24309395 -0.18143316
   0.13467349  0.0443433   0.04579203  0.03562949 -0.13072117]
 [-0.17158258  0.08611231  0.23323129  0.08659729 -0.08646946  0.0433786
  -0.02968819 -0.02801155  0.136848   -0.10787933 -0.23123904  0.17261079
  -0.20731558 -0.21758665  0.21652696  0.20744537 -0.17827094]] 
Episode: 110: [[-0.00045022  0.07730601 -0.20156461  0.19560902  0.08358692  0.18736137
  -0.04411358  0.1625557  -0.02804112  0.17186369 -0.22544537 -0.08769576
   0.07811931  0.03607742 -0.11053598 -0.05720113 -0.00249645]
 [ 0.1211102  -0.13559808  0.16872893  0.02345117  0.11282063 -0.16782835
  -0.23985942 -0.04455951 -0.23246926 -0.15173098 -0.2430945  -0.18143387
   0.1346731   0.04434286  0.04579145  0.03562895 -0.13072164]
 [-0.17158218  0.08611267  0.23323187  0.08659766 -0.08646906  0.04337906
  -0.02968776 -0.02801117  0.1368484  -0.10787891 -0.23123863  0.17261131
  -0.20731519 -0.21758632  0.21652745  0.20744574 -0.17827056]] 
Episode: 111: [[-0.0004508   0.0773056  -0.2015652   0.19560854  0.08358636  0.18736075
  -0.04411409  0.16255532 -0.02804159  0.17186317 -0.2254459  -0.0876964
   0.07811882  0.03607698 -0.11053666 -0.05720165 -0.0024969 ]
 [ 0.12110882 -0.13560013  0.16872664  0.02344907  0.11281974 -0.16782905
  -0.23986319 -0.04456073 -0.23247015 -0.15173304 -0.2430955  -0.1814351
   0.13467228  0.04434179  0.04579041  0.03562746 -0.13072273]
 [-0.17158145  0.08611339  0.23323283  0.08659829 -0.08646835  0.04337972
  -0.02968696 -0.02801051  0.13684903 -0.10787821 -0.23123793  0.17261219
  -0.20731461 -0.21758567  0.21652831  0.20744649 -0.17826985]] 
Episode: 112: [[-0.00045122  0.07730532 -0.20156562  0.1956082   0.08358597  0.18736029
  -0.04411447  0.16255507 -0.02804189  0.17186278 -0.22544625 -0.08769681
   0.07811846  0.0360767  -0.11053711 -0.05720205 -0.00249717]
 [ 0.12110773 -0.135602    0.16872486  0.02344753  0.11281894 -0.16782957
  -0.23986627 -0.0445619  -0.23247084 -0.15173459 -0.24309643 -0.18143603
   0.13467164  0.04434084  0.04578962  0.03562624 -0.13072373]
 [-0.1715809   0.08611395  0.23323353  0.08659875 -0.08646777  0.04338021
  -0.02968634 -0.02800995  0.13684946 -0.10787768 -0.23123737  0.17261282
  -0.20731416 -0.21758516  0.21652892  0.20744707 -0.17826928]] 
Episode: 113: [[-0.00045153  0.07730521 -0.20156585  0.19560796  0.08358578  0.18735997
  -0.04411472  0.16255495 -0.028042    0.1718625  -0.2254464  -0.08769693
   0.07811824  0.0360766  -0.11053724 -0.05720227 -0.00249723]
 [ 0.1211067  -0.13560358  0.16872317  0.023446    0.11281818 -0.16783006
  -0.23986945 -0.04456299 -0.23247151 -0.15173644 -0.24309738 -0.18143693
   0.13467096  0.04433987  0.04578885  0.03562497 -0.13072471]
 [-0.17158043  0.08611433  0.23323406  0.08659911 -0.0864673   0.0433806
  -0.02968583 -0.02800951  0.13684978 -0.10787721 -0.23123692  0.17261326
  -0.2073138  -0.21758476  0.21652935  0.20744753 -0.17826885]] 
Episode: 114: [[-0.00045201  0.07730489 -0.20156638  0.19560757  0.08358534  0.18735945
  -0.04411516  0.16255462 -0.02804237  0.17186208 -0.22544678 -0.08769744
   0.07811785  0.03607628 -0.1105378  -0.05720272 -0.00249758]
 [ 0.12110487 -0.13560592  0.16872078  0.02344293  0.11281715 -0.1678307
  -0.2398743  -0.04456437 -0.23247251 -0.1517394  -0.24309859 -0.18143815
   0.13466991  0.04433853  0.04578784  0.03562307 -0.13072594]
 [-0.17157969  0.08611502  0.23323499  0.08659976 -0.08646659  0.04338119
  -0.029685   -0.02800882  0.13685036 -0.10787648 -0.23123623  0.17261407
  -0.20731322 -0.21758409  0.21653014  0.20744832 -0.17826815]] 
Episode: 115: [[-0.00045244  0.07730467 -0.2015668   0.19560723  0.08358505  0.18735904
  -0.04411552  0.16255441 -0.02804266  0.17186171 -0.22544701 -0.08769778
   0.0781175   0.03607605 -0.11053817 -0.05720312 -0.00249779]
 [ 0.12110345 -0.13560776  0.16871876  0.02344072  0.1128163  -0.16783126
  -0.23987804 -0.04456551 -0.23247334 -0.15174171 -0.2430996  -0.18143918
   0.13466905  0.04433744  0.04578696  0.03562154 -0.13072696]
 [-0.17157906  0.08611555  0.23323575  0.08660028 -0.08646603  0.04338166
  -0.02968434 -0.02800829  0.13685083 -0.10787588 -0.23123571  0.1726147
  -0.20731272 -0.21758357  0.21653076  0.20744899 -0.17826761]] 
Episode: 116: [[-0.00045287  0.07730437 -0.20156735  0.19560683  0.0835848   0.18735857
  -0.04411598  0.16255422 -0.02804299  0.1718613  -0.22544737 -0.08769821
   0.07811709  0.03607578 -0.11053856 -0.05720359 -0.00249801]
 [ 0.12110246 -0.13560884  0.1687178   0.0234393   0.11281563 -0.1678316
  -0.23988055 -0.04456634 -0.23247376 -0.1517427  -0.24310027 -0.18143973
   0.13466853  0.04433661  0.04578648  0.03562064 -0.13072765]
 [-0.17157853  0.08611599  0.23323639  0.08660079 -0.08646558  0.04338207
  -0.0296837  -0.02800789  0.13685119 -0.10787541 -0.23123524  0.17261517
  -0.20731229 -0.2175831   0.21653119  0.20744956 -0.17826721]] 
Episode: 117: [[-0.00045346  0.07730383 -0.20156811  0.19560628  0.08358426  0.18735796
  -0.04411659  0.16255379 -0.0280435   0.17186075 -0.22544798 -0.08769888
   0.07811655  0.03607526 -0.11053928 -0.05720425 -0.00249852]
 [ 0.1211008  -0.13561057  0.16871622  0.02343651  0.1128148  -0.16783206
  -0.23988475 -0.04456741 -0.23247445 -0.15174486 -0.24310118 -0.18144055
   0.13466765  0.04433553  0.04578575  0.03561907 -0.13072854]
 [-0.17157772  0.08611675  0.23323733  0.08660156 -0.0864649   0.04338261
  -0.02968277 -0.02800724  0.13685176 -0.10787466 -0.2312345   0.17261592
  -0.20731165 -0.21758239  0.2165319   0.20745043 -0.17826654]] 
Episode: 118: [[-0.00045397  0.07730338 -0.20156877  0.19560581  0.08358385  0.18735744
  -0.04411712  0.16255344 -0.02804393  0.17186026 -0.22544847 -0.08769945
   0.07811609  0.03607486 -0.11053987 -0.05720482 -0.00249892]
 [ 0.12109929 -0.1356121   0.16871488  0.02343378  0.11281402 -0.16783248
  -0.23988846 -0.04456837 -0.23247506 -0.15174676 -0.24310197 -0.18144132
   0.1346669   0.04433457  0.04578513  0.03561768 -0.13072932]
 [-0.17157702  0.08611741  0.23323813  0.08660223 -0.08646432  0.04338309
  -0.02968196 -0.02800669  0.13685225 -0.10787401 -0.23123391  0.17261657
  -0.2073111  -0.2175818   0.21653251  0.2074512  -0.17826599]] 
Episode: 119: [[-0.00045445  0.07730292 -0.20156932  0.19560543  0.08358337  0.18735701
  -0.04411764  0.16255309 -0.02804429  0.17185982 -0.22544898 -0.08770002
   0.07811566  0.03607444 -0.11054032 -0.05720531 -0.00249945]
 [ 0.12109704 -0.13561465  0.1687125   0.02342958  0.11281282 -0.16783316
  -0.23989457 -0.0445698  -0.23247604 -0.15174997 -0.2431032  -0.18144245
   0.1346658   0.04433296  0.04578406  0.0356156  -0.13073061]
 [-0.1715762   0.08611825  0.23323907  0.08660299 -0.08646349  0.04338365
  -0.02968094 -0.02800597  0.13685282 -0.10787324 -0.23123313  0.17261738
  -0.20731047 -0.21758097  0.21653326  0.20745206 -0.17826515]] 
Episode: 120: [[-0.00045509  0.07730226 -0.20157008  0.19560485  0.08358257  0.1873564
  -0.04411831  0.16255255 -0.02804477  0.17185925 -0.22544964 -0.08770084
   0.07811505  0.03607386 -0.11054108 -0.05720606 -0.00250024]
 [ 0.12109443 -0.13561767  0.16870977  0.02342474  0.11281148 -0.16783401
  -0.23990141 -0.04457139 -0.2324772  -0.15175392 -0.24310464 -0.1814437
   0.1346645   0.04433112  0.04578288  0.03561321 -0.13073198]
 [-0.17157517  0.08611934  0.23324025  0.08660398 -0.08646243  0.04338437
  -0.02967973 -0.02800508  0.13685353 -0.10787226 -0.2312322   0.17261837
  -0.20730965 -0.21757996  0.21653423  0.20745319 -0.17826413]] 
Episode: 121: [[-0.00045546  0.07730195 -0.2015705   0.19560449  0.08358216  0.18735604
  -0.04411874  0.16255231 -0.02804499  0.1718589  -0.22544998 -0.08770128
   0.07811467  0.03607359 -0.11054139 -0.0572065  -0.00250066]
 [ 0.12109108 -0.13562179  0.16870615  0.02341855  0.11280983 -0.16783506
  -0.23990983 -0.04457337 -0.23247875 -0.15175901 -0.24310644 -0.18144532
   0.13466285  0.04432881  0.04578129  0.03561025 -0.13073376]
 [-0.17157422  0.08612035  0.23324135  0.0866049  -0.08646144  0.04338504
  -0.0296786  -0.02800425  0.1368542  -0.10787135 -0.23123132  0.1726193
  -0.20730889 -0.21757899  0.21653517  0.20745422 -0.17826316]] 
Episode: 122: [[-0.00045582  0.07730163 -0.20157091  0.19560416  0.08358175  0.18735568
  -0.04411913  0.16255207 -0.02804525  0.1718586  -0.22545029 -0.08770175
   0.07811432  0.03607332 -0.11054175 -0.05720693 -0.00250105]
 [ 0.12108754 -0.1356261   0.16870229  0.02341202  0.11280818 -0.16783613
  -0.23991872 -0.04457534 -0.23248033 -0.15176433 -0.2431083  -0.18144697
   0.13466112  0.04432644  0.04577963  0.03560713 -0.13073562]
 [-0.17157324  0.0861214   0.2332425   0.08660582 -0.08646045  0.04338574
  -0.02967745 -0.02800342  0.1368549  -0.10787044 -0.23123042  0.17262025
  -0.20730813 -0.21757801  0.21653616  0.20745528 -0.17826217]] 
Episode: 123: [[-0.00045617  0.07730135 -0.2015714   0.19560386  0.08358145  0.18735525
  -0.04411951  0.16255186 -0.02804554  0.1718583  -0.22545055 -0.08770225
   0.07811401  0.0360731  -0.1105421  -0.05720735 -0.00250137]
 [ 0.12108409 -0.1356304   0.16869858  0.02340553  0.11280655 -0.16783717
  -0.2399275  -0.04457726 -0.23248185 -0.15176953 -0.24311005 -0.18144858
   0.13465951  0.04432401  0.04577801  0.03560409 -0.1307375 ]
 [-0.17157228  0.08612242  0.23324367  0.08660672 -0.08645952  0.04338646
  -0.02967634 -0.02800264  0.13685562 -0.10786957 -0.23122962  0.17262122
  -0.20730743 -0.21757703  0.21653713  0.2074563  -0.17826124]] 
Episode: 124: [[-0.00045643  0.07730111 -0.20157179  0.19560364  0.08358117  0.18735492
  -0.04411982  0.16255169 -0.02804578  0.17185807 -0.22545074 -0.08770264
   0.07811372  0.03607297 -0.11054235 -0.0572077  -0.00250164]
 [ 0.12108047 -0.13563474  0.16869442  0.02339841  0.11280494 -0.16783826
  -0.23993638 -0.0445792  -0.23248342 -0.1517749  -0.24311185 -0.18145022
   0.13465796  0.04432147  0.04577632  0.03560094 -0.13073935]
 [-0.17157136  0.08612341  0.23324487  0.08660761 -0.08645861  0.04338714
  -0.02967527 -0.02800187  0.13685632 -0.10786872 -0.23122883  0.17262213
  -0.20730676 -0.21757607  0.21653807  0.2074573  -0.17826033]] 
Episode: 125: [[-0.00045661  0.07730101 -0.20157203  0.19560355  0.08358113  0.18735471
  -0.04411996  0.16255164 -0.02804596  0.17185794 -0.22545081 -0.08770293
   0.07811358  0.03607299 -0.11054259 -0.05720789 -0.00250181]
 [ 0.12107641 -0.13563962  0.16868995  0.02339099  0.1128033  -0.1678394
  -0.23994584 -0.04458117 -0.2324852  -0.15178089 -0.24311373 -0.18145211
   0.13465625  0.04431896  0.04577436  0.0355975  -0.13074128]
 [-0.17157042  0.08612439  0.233246    0.08660839 -0.08645781  0.04338779
  -0.02967431 -0.02800118  0.13685703 -0.10786789 -0.23122808  0.17262308
  -0.20730615 -0.21757522  0.21653916  0.20745826 -0.17825945]] 
Episode: 126: [[-0.00045686  0.07730076 -0.20157239  0.19560337  0.0835809   0.18735442
  -0.0441202   0.16255148 -0.02804623  0.1718577  -0.22545101 -0.08770338
   0.07811336  0.03607284 -0.11054307 -0.05720819 -0.00250216]
 [ 0.12107269 -0.13564415  0.16868587  0.02338438  0.11280182 -0.16784044
  -0.23995452 -0.04458297 -0.2324868  -0.1517864  -0.2431154  -0.18145376
   0.13465466  0.04431665  0.04577254  0.03559435 -0.13074306]
 [-0.1715695   0.08612543  0.23324715  0.08660919 -0.08645699  0.04338844
  -0.02967333 -0.02800046  0.13685775 -0.10786703 -0.23122734  0.17262404
  -0.20730552 -0.21757433  0.21654029  0.20745923 -0.17825852]] 
Episode: 127: [[-0.00045711  0.07730044 -0.2015728   0.19560319  0.08358056  0.18735406
  -0.04412046  0.16255127 -0.02804657  0.17185745 -0.22545126 -0.08770388
   0.07811313  0.03607261 -0.11054366 -0.0572085  -0.00250254]
 [ 0.12106887 -0.1356488   0.16868165  0.02337749  0.11280033 -0.16784154
  -0.2399635  -0.04458489 -0.23248851 -0.15179206 -0.24311714 -0.18145551
   0.13465297  0.04431432  0.04577065  0.03559109 -0.13074492]
 [-0.17156854  0.08612655  0.23324837  0.08661001 -0.08645611  0.04338914
  -0.0296723  -0.02799967  0.13685855 -0.10786614 -0.23122653  0.17262505
  -0.20730485 -0.21757337  0.21654151  0.20746022 -0.17825754]] 
Episode: 128: [[-0.00045723  0.07730039 -0.20157294  0.19560312  0.08358067  0.18735398
  -0.04412061  0.16255137 -0.02804672  0.17185733 -0.22545113 -0.087704
   0.07811299  0.03607285 -0.11054385 -0.05720869 -0.00250261]
 [ 0.12106521 -0.135653    0.168678    0.02337172  0.112799   -0.16784263
  -0.23997252 -0.04458654 -0.23248991 -0.15179747 -0.24311893 -0.18145709
   0.13465159  0.04431203  0.04576903  0.03558821 -0.13074654]
 [-0.17156772  0.08612736  0.23324925  0.08661064 -0.08645553  0.04338969
  -0.02967137 -0.02799918  0.13685913 -0.10786539 -0.23122595  0.17262578
  -0.20730434 -0.21757275  0.2165424   0.20746104 -0.17825685]] 
Episode: 129: [[-0.0004575   0.07730009 -0.20157328  0.19560292  0.08358046  0.18735376
  -0.04412089  0.16255124 -0.02804702  0.17185707 -0.22545123 -0.08770435
   0.07811269  0.03607283 -0.11054433 -0.05720906 -0.00250297]
 [ 0.12106159 -0.13565698  0.16867459  0.02336594  0.11279773 -0.16784365
  -0.23998122 -0.04458812 -0.23249123 -0.15180281 -0.24312066 -0.1814586
   0.13465019  0.04430984  0.04576747  0.03558538 -0.13074811]
 [-0.1715668   0.08612834  0.23325023  0.08661137 -0.08645482  0.04339029
  -0.02967034 -0.02799856  0.13685977 -0.10786453 -0.23122524  0.17262661
  -0.20730372 -0.21757199  0.21654339  0.20746198 -0.178256  ]] 
Episode: 130: [[-0.00045771  0.07729983 -0.20157358  0.19560277  0.08358026  0.18735352
  -0.04412114  0.16255109 -0.02804732  0.17185688 -0.22545137 -0.08770467
   0.07811245  0.03607279 -0.11054478 -0.05720934 -0.00250334]
 [ 0.12105799 -0.13566096  0.1686712   0.02336022  0.11279647 -0.16784462
  -0.23998979 -0.04458967 -0.23249249 -0.15180822 -0.24312231 -0.18146011
   0.13464873  0.04430771  0.04576595  0.03558246 -0.13074961]
 [-0.17156594  0.08612929  0.23325118  0.08661205 -0.08645412  0.04339087
  -0.02966936 -0.02799794  0.1368604  -0.10786371 -0.23122454  0.17262743
  -0.20730312 -0.21757123  0.21654436  0.20746288 -0.17825519]] 
Episode: 131: [[-0.00045796  0.07729951 -0.2015739   0.19560258  0.08357997  0.18735328
  -0.0441214   0.16255088 -0.02804765  0.17185666 -0.2254516  -0.08770504
   0.07811219  0.03607265 -0.11054525 -0.05720962 -0.00250378]
 [ 0.12105468 -0.13566478  0.16866797  0.02335488  0.11279529 -0.16784556
  -0.23999783 -0.04459113 -0.23249368 -0.15181334 -0.24312386 -0.18146154
   0.13464734  0.04430574  0.04576453  0.03557953 -0.13075101]
 [-0.17156509  0.08613025  0.23325211  0.08661274 -0.08645341  0.04339144
  -0.02966842 -0.02799731  0.13686103 -0.1078629  -0.2312238   0.17262824
  -0.20730253 -0.21757045  0.2165453   0.20746377 -0.17825435]] 
Episode: 132: [[-0.00045803  0.07729939 -0.20157395  0.19560255  0.08357992  0.18735325
  -0.0441215   0.16255085 -0.02804778  0.17185658 -0.22545166 -0.08770513
   0.07811209  0.0360727  -0.11054536 -0.05720971 -0.00250398]
 [ 0.12105138 -0.13566859  0.16866472  0.02334961  0.11279411 -0.16784649
  -0.2400058  -0.04459261 -0.23249489 -0.15181841 -0.24312542 -0.18146294
   0.13464597  0.0443038   0.04576312  0.03557665 -0.13075241]
 [-0.17156437  0.08613105  0.23325284  0.08661328 -0.08645282  0.0433919
  -0.02966763 -0.02799679  0.13686152 -0.10786223 -0.2312232   0.17262888
  -0.20730205 -0.21756983  0.21654604  0.20746452 -0.17825367]] 
Episode: 133: [[-0.00045831  0.0772991  -0.2015743   0.19560237  0.08357963  0.18735296
  -0.04412184  0.16255063 -0.02804815  0.17185628 -0.2254519  -0.08770559
   0.07811183  0.03607265 -0.11054588 -0.05721008 -0.00250439]
 [ 0.12104779 -0.13567305  0.16866109  0.02334323  0.11279278 -0.16784754
  -0.24001534 -0.04459432 -0.23249653 -0.15182397 -0.2431271  -0.18146466
   0.13464431  0.04430177  0.04576142  0.03557349 -0.13075411]
 [-0.17156345  0.08613211  0.23325388  0.08661405 -0.08645204  0.04339256
  -0.02966647 -0.02799606  0.13686231 -0.1078613  -0.23122244  0.17262986
  -0.20730138 -0.2175691   0.21654715  0.20746554 -0.17825274]] 
Episode: 134: [[-0.00045893  0.07729852 -0.20157501  0.1956019   0.08357898  0.18735233
  -0.04412254  0.1625501  -0.02804882  0.17185569 -0.22545245 -0.08770646
   0.07811126  0.03607226 -0.11054697 -0.05721087 -0.00250514]
 [ 0.12104563 -0.1356761   0.16865882  0.02333956  0.11279192 -0.16784823
  -0.2400213  -0.04459542 -0.2324976  -0.1518273  -0.2431282  -0.18146577
   0.1346434   0.04430041  0.04576035  0.03557152 -0.13075528]
 [-0.17156252  0.08613314  0.23325492  0.08661484 -0.08645128  0.04339322
  -0.02966531 -0.02799534  0.13686311 -0.10786037 -0.23122168  0.17263085
  -0.20730071 -0.21756838  0.21654822  0.20746662 -0.17825182]] 
Episode: 135: [[-0.00045946  0.07729821 -0.20157571  0.19560136  0.0835783   0.18735163
  -0.04412341  0.16254948 -0.02804946  0.17185512 -0.2254528  -0.0877073
   0.07811073  0.03607183 -0.1105477  -0.05721169 -0.00250594]
 [ 0.12104397 -0.13567916  0.16865678  0.02333786  0.11279095 -0.16784875
  -0.24002495 -0.04459646 -0.23249811 -0.15183051 -0.24312933 -0.18146682
   0.13464275  0.04429929  0.04575974  0.03557017 -0.13075651]
 [-0.17156178  0.08613395  0.23325591  0.08661548 -0.08645047  0.04339384
  -0.02966419 -0.02799458  0.13686371 -0.10785948 -0.23122104  0.17263177
  -0.20730014 -0.21756771  0.21654889  0.20746756 -0.17825085]] 
Episode: 136: [[-0.00045978  0.07729799 -0.20157632  0.19560096  0.08357776  0.18735111
  -0.04412404  0.16254903 -0.02804993  0.17185469 -0.22545303 -0.08770791
   0.07811041  0.03607153 -0.11054821 -0.0572123  -0.00250653]
 [ 0.12104203 -0.1356825   0.16865443  0.02333498  0.11278988 -0.16784942
  -0.24003005 -0.04459758 -0.23249878 -0.15183419 -0.24313065 -0.18146807
   0.13464178  0.0442981   0.04575896  0.03556853 -0.13075775]
 [-0.17156114  0.08613474  0.23325689  0.08661612 -0.08644968  0.04339443
  -0.02966316 -0.0279939   0.13686424 -0.10785867 -0.2312204   0.17263263
  -0.20729962 -0.21756712  0.21654953  0.2074684  -0.17825   ]] 
Episode: 137: [[-0.00046015  0.07729768 -0.201577    0.19560051  0.08357711  0.18735054
  -0.0441247   0.16254851 -0.02805045  0.17185423 -0.22545338 -0.08770856
   0.07811004  0.03607113 -0.11054882 -0.05721298 -0.00250719]
 [ 0.12103993 -0.13568586  0.16865198  0.02333182  0.11278881 -0.16785012
  -0.24003541 -0.0445988  -0.23249955 -0.15183803 -0.24313201 -0.18146941
   0.13464072  0.04429685  0.04575807  0.03556678 -0.13075906]
 [-0.17156042  0.08613562  0.23325795  0.08661684 -0.08644883  0.04339506
  -0.02966208 -0.02799314  0.13686484 -0.1078578  -0.23121968  0.17263357
  -0.20729904 -0.21756642  0.21655028  0.20746933 -0.17824908]] 
Episode: 138: [[-0.00046047  0.07729745 -0.20157759  0.19560014  0.08357661  0.1873501
  -0.04412526  0.16254808 -0.02805089  0.17185386 -0.22545364 -0.08770911
   0.07810973  0.03607081 -0.11054935 -0.05721353 -0.00250772]
 [ 0.12103803 -0.135689    0.16864987  0.02332896  0.11278784 -0.16785076
  -0.24004045 -0.04459992 -0.23250021 -0.15184158 -0.24313325 -0.18147062
   0.13463973  0.04429572  0.04575729  0.03556516 -0.1307603 ]
 [-0.1715598   0.08613638  0.23325887  0.08661745 -0.0864481   0.0433956
  -0.02966113 -0.02799248  0.13686535 -0.10785705 -0.23121905  0.1726344
  -0.20729852 -0.21756582  0.21655093  0.20747012 -0.17824827]] 
Episode: 139: [[-0.00046109  0.07729691 -0.20157845  0.19559951  0.08357574  0.18734935
  -0.0441261   0.16254741 -0.02805156  0.17185324 -0.22545427 -0.08771
   0.07810916  0.03607013 -0.11055036 -0.05721439 -0.00250855]
 [ 0.12103545 -0.13569291  0.16864689  0.02332489  0.11278664 -0.16785158
  -0.2400472  -0.04460113 -0.23250127 -0.15184599 -0.24313478 -0.18147214
   0.13463841  0.04429422  0.04575612  0.03556291 -0.13076167]
 [-0.1715588   0.08613753  0.2332602   0.08661841 -0.08644708  0.04339638
  -0.02965976 -0.02799163  0.13686615 -0.10785598 -0.2312181   0.17263556
  -0.20729773 -0.21756485  0.21655202  0.20747131 -0.17824721]] 
Episode: 140: [[-0.00046158  0.07729654 -0.20157911  0.19559893  0.08357485  0.18734872
  -0.04412676  0.16254672 -0.02805213  0.17185271 -0.22545485 -0.08771063
   0.07810872  0.03606952 -0.11055128 -0.05721516 -0.00250929]
 [ 0.12103202 -0.1356978   0.16864322  0.02332112  0.11278541 -0.16785242
  -0.24005547 -0.04460221 -0.23250248 -0.15185104 -0.24313635 -0.18147407
   0.13463674  0.0442927   0.04575494  0.03556076 -0.13076307]
 [-0.17155772  0.08613874  0.2332615   0.0866193  -0.08644602  0.04339711
  -0.02965843 -0.02799081  0.13686693 -0.1078549  -0.23121715  0.17263673
  -0.20729692 -0.21756393  0.21655306  0.2074724  -0.17824621]] 
Episode: 141: [[-0.00046186  0.0772964  -0.20157942  0.19559856  0.08357433  0.18734835
  -0.04412718  0.16254629 -0.02805241  0.17185238 -0.22545514 -0.08771091
   0.07810847  0.03606919 -0.11055171 -0.05721573 -0.00250975]
 [ 0.12102943 -0.13570158  0.16864054  0.02331867  0.11278453 -0.16785297
  -0.24006169 -0.04460296 -0.23250318 -0.15185475 -0.24313758 -0.18147545
   0.13463551  0.04429153  0.04575428  0.03555937 -0.13076407]
 [-0.171557    0.08613955  0.23326232  0.08661988 -0.08644532  0.04339756
  -0.02965749 -0.02799027  0.13686734 -0.10785417 -0.2312165   0.17263746
  -0.20729639 -0.2175633   0.21655361  0.20747316 -0.17824553]] 
Episode: 142: [[-0.00046221  0.07729612 -0.20157984  0.19559813  0.08357365  0.18734789
  -0.04412767  0.16254576 -0.0280528   0.17185198 -0.22545555 -0.08771136
   0.07810815  0.03606873 -0.11055234 -0.05721635 -0.00251038]
 [ 0.12102698 -0.13570517  0.16863786  0.02331612  0.11278367 -0.16785353
  -0.24006769 -0.04460377 -0.23250392 -0.15185848 -0.24313885 -0.18147677
   0.13463426  0.04429035  0.0457536   0.03555802 -0.13076507]
 [-0.17155623  0.08614044  0.23326321  0.08662051 -0.08644456  0.04339807
  -0.02965652 -0.02798964  0.13686785 -0.10785337 -0.23121578  0.17263828
  -0.20729578 -0.2175626   0.21655427  0.20747395 -0.17824475]] 
Episode: 143: [[-0.0004624   0.07729603 -0.20158008  0.19559786  0.08357323  0.1873476
  -0.04412797  0.16254544 -0.02805302  0.17185174 -0.22545573 -0.0877116
   0.07810797  0.03606855 -0.11055262 -0.05721673 -0.00251074]
 [ 0.12102372 -0.13570929  0.16863427  0.02331199  0.11278256 -0.16785431
  -0.2400753  -0.04460494 -0.23250513 -0.15186323 -0.24314043 -0.18147852
   0.13463256  0.04428873  0.04575245  0.03555583 -0.13076633]
 [-0.17155544  0.08614127  0.23326415  0.08662114 -0.0864438   0.04339858
  -0.02965557 -0.02798904  0.1368684  -0.10785259 -0.23121509  0.17263915
  -0.20729515 -0.21756193  0.21655497  0.20747475 -0.17824402]] 
Episode: 144: [[-0.00046246  0.07729608 -0.20158015  0.19559771  0.08357303  0.18734747
  -0.04412814  0.16254528 -0.02805309  0.1718516  -0.22545576 -0.08771164
   0.07810789  0.03606852 -0.11055263 -0.05721693 -0.00251089]
 [ 0.12102011 -0.13571385  0.16863017  0.02330698  0.11278126 -0.16785519
  -0.24008386 -0.04460634 -0.23250659 -0.15186857 -0.24314222 -0.18148045
   0.13463065  0.04428681  0.04575107  0.03555315 -0.13076785]
 [-0.17155468  0.08614206  0.23326507  0.08662176 -0.08644308  0.04339906
  -0.02965466 -0.02798845  0.13686894 -0.10785183 -0.2312144   0.17263998
  -0.20729452 -0.21756126  0.21655566  0.20747553 -0.17824332]] 
Episode: 145: [[-0.00046245  0.07729619 -0.2015801   0.19559763  0.08357295  0.18734747
  -0.04412824  0.16254514 -0.02805305  0.17185156 -0.22545575 -0.08771155
   0.07810789  0.03606855 -0.1105525  -0.05721703 -0.00251097]
 [ 0.12101606 -0.135719    0.16862562  0.02330071  0.11277972 -0.16785619
  -0.24009366 -0.04460802 -0.23250826 -0.15187454 -0.24314427 -0.18148251
   0.13462852  0.04428458  0.04574948  0.03555001 -0.13076967]
 [-0.1715539   0.08614291  0.233266    0.08662243 -0.08644231  0.04339954
  -0.02965372 -0.0279878   0.13686948 -0.10785109 -0.23121364  0.17264079
  -0.2072939  -0.21756051  0.21655637  0.20747633 -0.17824255]] 
Episode: 146: [[-0.00046243  0.07729629 -0.2015801   0.19559759  0.08357285  0.18734741
  -0.04412829  0.162545   -0.02805306  0.17185155 -0.22545575 -0.08771155
