Episode: 1: [[ 0.5452972   0.3359824  -0.03574859]
 [-0.19629928 -0.19112663 -0.14055663]
 [ 0.30482256  0.16221905 -0.45003137]
 [-0.16240509 -0.34006977  0.04328375]
 [ 0.12615696 -0.04700504 -0.04048468]
 [ 0.46043023  0.522202   -0.38252082]
 [ 0.          0.          0.        ]
 [ 0.          0.          0.        ]
 [ 0.          0.          0.        ]] 
Episode: 2: [[ 5.45297205e-01  3.35982412e-01 -3.57485898e-02]
 [-1.96299285e-01 -1.91126630e-01 -1.40556633e-01]
 [ 3.04822564e-01  1.62219048e-01 -4.50031370e-01]
 [-1.62405089e-01 -3.40169758e-01  4.33837473e-02]
 [ 1.26056954e-01 -4.70050387e-02 -4.03846800e-02]
 [ 4.60330248e-01  5.22302032e-01 -3.82420838e-01]
 [ 0.00000000e+00 -1.00000005e-04 -9.99999975e-05]
 [ 0.00000000e+00  0.00000000e+00  0.00000000e+00]
 [ 0.00000000e+00  0.00000000e+00  0.00000000e+00]] 
Episode: 3: [[ 5.4537159e-01  3.3590800e-01 -3.5823002e-02]
 [-1.9629928e-01 -1.9112663e-01 -1.4055663e-01]
 [ 3.0482256e-01  1.6221905e-01 -4.5003137e-01]
 [-1.6240509e-01 -3.4023649e-01  4.3450806e-02]
 [ 1.2599032e-01 -4.7005039e-02 -4.0318392e-02]
 [ 4.6026444e-01  5.2236444e-01 -3.8235372e-01]
 [ 0.0000000e+00 -1.6323246e-04 -1.7010260e-04]
 [ 0.0000000e+00  0.0000000e+00  0.0000000e+00]
 [ 0.0000000e+00  0.0000000e+00  0.0000000e+00]] 
Episode: 4: [[ 5.4537159e-01  3.3590800e-01 -3.5823002e-02]
 [-1.9629928e-01 -1.9112663e-01 -1.4055663e-01]
 [ 3.0482256e-01  1.6221905e-01 -4.5003137e-01]
 [-1.6240509e-01 -3.4023649e-01  4.3450806e-02]
 [ 1.2599032e-01 -4.7005039e-02 -4.0318392e-02]
 [ 4.6026444e-01  5.2236444e-01 -3.8235372e-01]
 [ 0.0000000e+00 -1.6323246e-04 -1.7010260e-04]
 [ 0.0000000e+00  0.0000000e+00  0.0000000e+00]
 [ 0.0000000e+00  0.0000000e+00  0.0000000e+00]] 
Episode: 5: [[ 5.4537159e-01  3.3590800e-01 -3.5823002e-02]
 [-1.9629928e-01 -1.9112663e-01 -1.4055663e-01]
 [ 3.0482256e-01  1.6221905e-01 -4.5003137e-01]
 [-1.6240509e-01 -3.4023649e-01  4.3450806e-02]
 [ 1.2599032e-01 -4.7005039e-02 -4.0318392e-02]
 [ 4.6026444e-01  5.2236444e-01 -3.8235372e-01]
 [ 0.0000000e+00 -1.6323246e-04 -1.7010260e-04]
 [ 0.0000000e+00  0.0000000e+00  0.0000000e+00]
 [ 0.0000000e+00  0.0000000e+00  0.0000000e+00]] 
Episode: 6: [[ 5.4537159e-01  3.3590800e-01 -3.5823002e-02]
 [-1.9629928e-01 -1.9112663e-01 -1.4055663e-01]
 [ 3.0482256e-01  1.6221905e-01 -4.5003137e-01]
 [-1.6240509e-01 -3.4023649e-01  4.3450806e-02]
 [ 1.2599032e-01 -4.7005039e-02 -4.0318392e-02]
 [ 4.6026444e-01  5.2236444e-01 -3.8235372e-01]
 [ 0.0000000e+00 -1.6323246e-04 -1.7010260e-04]
 [ 0.0000000e+00  0.0000000e+00  0.0000000e+00]
 [ 0.0000000e+00  0.0000000e+00  0.0000000e+00]] 
Episode: 7: [[ 5.4537159e-01  3.3590800e-01 -3.5823002e-02]
 [-1.9629928e-01 -1.9112663e-01 -1.4055663e-01]
 [ 3.0482256e-01  1.6221905e-01 -4.5003137e-01]
 [-1.6240509e-01 -3.4023649e-01  4.3450806e-02]
 [ 1.2599032e-01 -4.7005039e-02 -4.0318392e-02]
 [ 4.6026444e-01  5.2236444e-01 -3.8235372e-01]
 [ 0.0000000e+00 -1.6323246e-04 -1.7010260e-04]
 [ 0.0000000e+00  0.0000000e+00  0.0000000e+00]
 [ 0.0000000e+00  0.0000000e+00  0.0000000e+00]] 
Episode: 8: [[ 5.4537159e-01  3.3590800e-01 -3.5823002e-02]
 [-1.9629928e-01 -1.9112663e-01 -1.4055663e-01]
 [ 3.0482256e-01  1.6221905e-01 -4.5003137e-01]
 [-1.6240509e-01 -3.4023649e-01  4.3450806e-02]
 [ 1.2599032e-01 -4.7005039e-02 -4.0318392e-02]
 [ 4.6026444e-01  5.2236444e-01 -3.8235372e-01]
 [ 0.0000000e+00 -1.6323246e-04 -1.7010260e-04]
 [ 0.0000000e+00  0.0000000e+00  0.0000000e+00]
 [ 0.0000000e+00  0.0000000e+00  0.0000000e+00]] 
Episode: 9: [[ 5.4537159e-01  3.3590800e-01 -3.5823002e-02]
 [-1.9629928e-01 -1.9112663e-01 -1.4055663e-01]
 [ 3.0482256e-01  1.6221905e-01 -4.5003137e-01]
 [-1.6240509e-01 -3.4023649e-01  4.3450806e-02]
 [ 1.2599032e-01 -4.7005039e-02 -4.0318392e-02]
 [ 4.6026444e-01  5.2236444e-01 -3.8235372e-01]
 [ 0.0000000e+00 -1.6323246e-04 -1.7010260e-04]
 [ 0.0000000e+00  0.0000000e+00  0.0000000e+00]
 [ 0.0000000e+00  0.0000000e+00  0.0000000e+00]] 
Episode: 10: [[ 5.4537159e-01  3.3590800e-01 -3.5823002e-02]
 [-1.9629928e-01 -1.9112663e-01 -1.4055663e-01]
 [ 3.0482256e-01  1.6221905e-01 -4.5003137e-01]
 [-1.6240509e-01 -3.4023649e-01  4.3450806e-02]
 [ 1.2599032e-01 -4.7005039e-02 -4.0318392e-02]
 [ 4.6026444e-01  5.2236444e-01 -3.8235372e-01]
 [ 0.0000000e+00 -1.6323246e-04 -1.7010260e-04]
 [ 0.0000000e+00  0.0000000e+00  0.0000000e+00]
 [ 0.0000000e+00  0.0000000e+00  0.0000000e+00]] 
Episode: 11: [[ 5.4537159e-01  3.3590800e-01 -3.5823002e-02]
 [-1.9629928e-01 -1.9112663e-01 -1.4055663e-01]
 [ 3.0482256e-01  1.6221905e-01 -4.5003137e-01]
 [-1.6240509e-01 -3.4023649e-01  4.3450806e-02]
 [ 1.2599032e-01 -4.7005039e-02 -4.0318392e-02]
 [ 4.6026444e-01  5.2236444e-01 -3.8235372e-01]
 [ 0.0000000e+00 -1.6323246e-04 -1.7010260e-04]
 [ 0.0000000e+00  0.0000000e+00  0.0000000e+00]
 [ 0.0000000e+00  0.0000000e+00  0.0000000e+00]] 
Episode: 12: [[ 5.4537159e-01  3.3590800e-01 -3.5823002e-02]
 [-1.9629928e-01 -1.9112663e-01 -1.4055663e-01]
 [ 3.0482256e-01  1.6221905e-01 -4.5003137e-01]
 [-1.6240509e-01 -3.4023649e-01  4.3450806e-02]
 [ 1.2599032e-01 -4.7005039e-02 -4.0318392e-02]
 [ 4.6026444e-01  5.2236444e-01 -3.8235372e-01]
 [ 0.0000000e+00 -1.6323246e-04 -1.7010260e-04]
 [ 0.0000000e+00  0.0000000e+00  0.0000000e+00]
 [ 0.0000000e+00  0.0000000e+00  0.0000000e+00]] 
Episode: 13: [[ 5.4537159e-01  3.3590800e-01 -3.5823002e-02]
 [-1.9629928e-01 -1.9112663e-01 -1.4055663e-01]
 [ 3.0482256e-01  1.6221905e-01 -4.5003137e-01]
 [-1.6240509e-01 -3.4023649e-01  4.3450806e-02]
 [ 1.2599032e-01 -4.7005039e-02 -4.0318392e-02]
 [ 4.6026444e-01  5.2236444e-01 -3.8235372e-01]
 [ 0.0000000e+00 -1.6323246e-04 -1.7010260e-04]
 [ 0.0000000e+00  0.0000000e+00  0.0000000e+00]
 [ 0.0000000e+00  0.0000000e+00  0.0000000e+00]] 
Episode: 14: [[ 5.4537159e-01  3.3590800e-01 -3.5823002e-02]
 [-1.9629928e-01 -1.9112663e-01 -1.4055663e-01]
 [ 3.0482256e-01  1.6221905e-01 -4.5003137e-01]
 [-1.6240509e-01 -3.4023649e-01  4.3450806e-02]
 [ 1.2599032e-01 -4.7005039e-02 -4.0318392e-02]
 [ 4.6026444e-01  5.2236444e-01 -3.8235372e-01]
 [ 0.0000000e+00 -1.6323246e-04 -1.7010260e-04]
 [ 0.0000000e+00  0.0000000e+00  0.0000000e+00]
 [ 0.0000000e+00  0.0000000e+00  0.0000000e+00]] 
Episode: 15: [[ 5.4537159e-01  3.3590800e-01 -3.5823002e-02]
 [-1.9629928e-01 -1.9112663e-01 -1.4055663e-01]
 [ 3.0482256e-01  1.6221905e-01 -4.5003137e-01]
 [-1.6240509e-01 -3.4023649e-01  4.3450806e-02]
 [ 1.2599032e-01 -4.7005039e-02 -4.0318392e-02]
 [ 4.6026444e-01  5.2236444e-01 -3.8235372e-01]
 [ 0.0000000e+00 -1.6323246e-04 -1.7010260e-04]
 [ 0.0000000e+00  0.0000000e+00  0.0000000e+00]
 [ 0.0000000e+00  0.0000000e+00  0.0000000e+00]] 
Episode: 16: [[ 5.4537159e-01  3.3590800e-01 -3.5823002e-02]
 [-1.9629928e-01 -1.9112663e-01 -1.4055663e-01]
 [ 3.0482256e-01  1.6221905e-01 -4.5003137e-01]
 [-1.6240509e-01 -3.4023649e-01  4.3450806e-02]
 [ 1.2599032e-01 -4.7005039e-02 -4.0318392e-02]
 [ 4.6026444e-01  5.2236444e-01 -3.8235372e-01]
 [ 0.0000000e+00 -1.6323246e-04 -1.7010260e-04]
 [ 0.0000000e+00  0.0000000e+00  0.0000000e+00]
 [ 0.0000000e+00  0.0000000e+00  0.0000000e+00]] 
Episode: 17: [[ 5.4537159e-01  3.3590800e-01 -3.5823002e-02]
 [-1.9629928e-01 -1.9112663e-01 -1.4055663e-01]
 [ 3.0482256e-01  1.6221905e-01 -4.5003137e-01]
 [-1.6240509e-01 -3.4023649e-01  4.3450806e-02]
 [ 1.2599032e-01 -4.7005039e-02 -4.0318392e-02]
 [ 4.6026444e-01  5.2236444e-01 -3.8235372e-01]
 [ 0.0000000e+00 -1.6323246e-04 -1.7010260e-04]
 [ 0.0000000e+00  0.0000000e+00  0.0000000e+00]
 [ 0.0000000e+00  0.0000000e+00  0.0000000e+00]] 
Episode: 18: [[ 5.4537159e-01  3.3590800e-01 -3.5823002e-02]
 [-1.9629928e-01 -1.9112663e-01 -1.4055663e-01]
 [ 3.0482256e-01  1.6221905e-01 -4.5003137e-01]
 [-1.6240509e-01 -3.4023649e-01  4.3450806e-02]
 [ 1.2599032e-01 -4.7005039e-02 -4.0318392e-02]
 [ 4.6026444e-01  5.2236444e-01 -3.8235372e-01]
 [ 0.0000000e+00 -1.6323246e-04 -1.7010260e-04]
 [ 0.0000000e+00  0.0000000e+00  0.0000000e+00]
 [ 0.0000000e+00  0.0000000e+00  0.0000000e+00]] 
Episode: 19: [[ 5.4537159e-01  3.3590800e-01 -3.5823002e-02]
 [-1.9629928e-01 -1.9112663e-01 -1.4055663e-01]
 [ 3.0482256e-01  1.6221905e-01 -4.5003137e-01]
 [-1.6240509e-01 -3.4023649e-01  4.3450806e-02]
 [ 1.2599032e-01 -4.7005039e-02 -4.0318392e-02]
 [ 4.6026444e-01  5.2236444e-01 -3.8235372e-01]
 [ 0.0000000e+00 -1.6323246e-04 -1.7010260e-04]
 [ 0.0000000e+00  0.0000000e+00  0.0000000e+00]
 [ 0.0000000e+00  0.0000000e+00  0.0000000e+00]] 
Episode: 20: [[ 5.4537159e-01  3.3590800e-01 -3.5823002e-02]
 [-1.9629928e-01 -1.9112663e-01 -1.4055663e-01]
 [ 3.0482256e-01  1.6221905e-01 -4.5003137e-01]
 [-1.6240509e-01 -3.4023649e-01  4.3450806e-02]
 [ 1.2599032e-01 -4.7005039e-02 -4.0318392e-02]
 [ 4.6026444e-01  5.2236444e-01 -3.8235372e-01]
 [ 0.0000000e+00 -1.6323246e-04 -1.7010260e-04]
 [ 0.0000000e+00  0.0000000e+00  0.0000000e+00]
 [ 0.0000000e+00  0.0000000e+00  0.0000000e+00]] 
Episode: 21: [[ 5.4537159e-01  3.3590800e-01 -3.5823002e-02]
 [-1.9629928e-01 -1.9112663e-01 -1.4055663e-01]
 [ 3.0482256e-01  1.6221905e-01 -4.5003137e-01]
 [-1.6240509e-01 -3.4023649e-01  4.3450806e-02]
 [ 1.2599032e-01 -4.7005039e-02 -4.0318392e-02]
 [ 4.6026444e-01  5.2236444e-01 -3.8235372e-01]
 [ 0.0000000e+00 -1.6323246e-04 -1.7010260e-04]
 [ 0.0000000e+00  0.0000000e+00  0.0000000e+00]
 [ 0.0000000e+00  0.0000000e+00  0.0000000e+00]] 
Episode: 22: [[ 5.4537159e-01  3.3590800e-01 -3.5823002e-02]
 [-1.9629928e-01 -1.9112663e-01 -1.4055663e-01]
 [ 3.0482256e-01  1.6221905e-01 -4.5003137e-01]
 [-1.6240509e-01 -3.4023649e-01  4.3450806e-02]
 [ 1.2599032e-01 -4.7005039e-02 -4.0318392e-02]
 [ 4.6026444e-01  5.2236444e-01 -3.8235372e-01]
 [ 0.0000000e+00 -1.6323246e-04 -1.7010260e-04]
 [ 0.0000000e+00  0.0000000e+00  0.0000000e+00]
 [ 0.0000000e+00  0.0000000e+00  0.0000000e+00]] 
Episode: 23: [[ 5.4537159e-01  3.3590800e-01 -3.5823002e-02]
 [-1.9629928e-01 -1.9112663e-01 -1.4055663e-01]
 [ 3.0482256e-01  1.6221905e-01 -4.5003137e-01]
 [-1.6240509e-01 -3.4023649e-01  4.3450806e-02]
 [ 1.2599032e-01 -4.7005039e-02 -4.0318392e-02]
 [ 4.6026444e-01  5.2236444e-01 -3.8235372e-01]
 [ 0.0000000e+00 -1.6323246e-04 -1.7010260e-04]
 [ 0.0000000e+00  0.0000000e+00  0.0000000e+00]
 [ 0.0000000e+00  0.0000000e+00  0.0000000e+00]] 
Episode: 24: [[ 5.4537159e-01  3.3590800e-01 -3.5823002e-02]
 [-1.9629928e-01 -1.9112663e-01 -1.4055663e-01]
 [ 3.0482256e-01  1.6221905e-01 -4.5003137e-01]
 [-1.6240509e-01 -3.4023649e-01  4.3450806e-02]
 [ 1.2599032e-01 -4.7005039e-02 -4.0318392e-02]
 [ 4.6026444e-01  5.2236444e-01 -3.8235372e-01]
 [ 0.0000000e+00 -1.6323246e-04 -1.7010260e-04]
 [ 0.0000000e+00  0.0000000e+00  0.0000000e+00]
 [ 0.0000000e+00  0.0000000e+00  0.0000000e+00]] 
Episode: 25: [[ 5.4537159e-01  3.3590800e-01 -3.5823002e-02]
 [-1.9629928e-01 -1.9112663e-01 -1.4055663e-01]
 [ 3.0482256e-01  1.6221905e-01 -4.5003137e-01]
 [-1.6240509e-01 -3.4023649e-01  4.3450806e-02]
 [ 1.2599032e-01 -4.7005039e-02 -4.0318392e-02]
 [ 4.6026444e-01  5.2236444e-01 -3.8235372e-01]
 [ 0.0000000e+00 -1.6323246e-04 -1.7010260e-04]
 [ 0.0000000e+00  0.0000000e+00  0.0000000e+00]
 [ 0.0000000e+00  0.0000000e+00  0.0000000e+00]] 
Episode: 26: [[ 5.4537159e-01  3.3590800e-01 -3.5823002e-02]
 [-1.9629928e-01 -1.9112663e-01 -1.4055663e-01]
 [ 3.0482256e-01  1.6221905e-01 -4.5003137e-01]
 [-1.6240509e-01 -3.4023649e-01  4.3450806e-02]
 [ 1.2599032e-01 -4.7005039e-02 -4.0318392e-02]
 [ 4.6026444e-01  5.2236444e-01 -3.8235372e-01]
 [ 0.0000000e+00 -1.6323246e-04 -1.7010260e-04]
 [ 0.0000000e+00  0.0000000e+00  0.0000000e+00]
 [ 0.0000000e+00  0.0000000e+00  0.0000000e+00]] 
Episode: 27: [[ 5.4537159e-01  3.3590800e-01 -3.5823002e-02]
 [-1.9629928e-01 -1.9112663e-01 -1.4055663e-01]
 [ 3.0482256e-01  1.6221905e-01 -4.5003137e-01]
 [-1.6240509e-01 -3.4023649e-01  4.3450806e-02]
 [ 1.2599032e-01 -4.7005039e-02 -4.0318392e-02]
 [ 4.6026444e-01  5.2236444e-01 -3.8235372e-01]
 [ 0.0000000e+00 -1.6323246e-04 -1.7010260e-04]
 [ 0.0000000e+00  0.0000000e+00  0.0000000e+00]
 [ 0.0000000e+00  0.0000000e+00  0.0000000e+00]] 
Episode: 28: [[ 5.4537159e-01  3.3590800e-01 -3.5823002e-02]
 [-1.9629928e-01 -1.9112663e-01 -1.4055663e-01]
 [ 3.0482256e-01  1.6221905e-01 -4.5003137e-01]
 [-1.6240509e-01 -3.4023649e-01  4.3450806e-02]
 [ 1.2599032e-01 -4.7005039e-02 -4.0318392e-02]
 [ 4.6026444e-01  5.2236444e-01 -3.8235372e-01]
 [ 0.0000000e+00 -1.6323246e-04 -1.7010260e-04]
 [ 0.0000000e+00  0.0000000e+00  0.0000000e+00]
 [ 0.0000000e+00  0.0000000e+00  0.0000000e+00]] 
Episode: 29: [[ 5.4537159e-01  3.3590800e-01 -3.5823002e-02]
 [-1.9629928e-01 -1.9112663e-01 -1.4055663e-01]
 [ 3.0482256e-01  1.6221905e-01 -4.5003137e-01]
 [-1.6240509e-01 -3.4023649e-01  4.3450806e-02]
 [ 1.2599032e-01 -4.7005039e-02 -4.0318392e-02]
 [ 4.6026444e-01  5.2236444e-01 -3.8235372e-01]
 [ 0.0000000e+00 -1.6323246e-04 -1.7010260e-04]
 [ 0.0000000e+00  0.0000000e+00  0.0000000e+00]
 [ 0.0000000e+00  0.0000000e+00  0.0000000e+00]] 
Episode: 30: [[ 5.4537159e-01  3.3590800e-01 -3.5823002e-02]
 [-1.9629928e-01 -1.9112663e-01 -1.4055663e-01]
 [ 3.0482256e-01  1.6221905e-01 -4.5003137e-01]
 [-1.6240509e-01 -3.4023649e-01  4.3450806e-02]
 [ 1.2599032e-01 -4.7005039e-02 -4.0318392e-02]
 [ 4.6026444e-01  5.2236444e-01 -3.8235372e-01]
 [ 0.0000000e+00 -1.6323246e-04 -1.7010260e-04]
 [ 0.0000000e+00  0.0000000e+00  0.0000000e+00]
 [ 0.0000000e+00  0.0000000e+00  0.0000000e+00]] 
Episode: 31: [[ 5.4537159e-01  3.3590800e-01 -3.5823002e-02]
 [-1.9629928e-01 -1.9112663e-01 -1.4055663e-01]
 [ 3.0482256e-01  1.6221905e-01 -4.5003137e-01]
 [-1.6240509e-01 -3.4023649e-01  4.3450806e-02]
 [ 1.2599032e-01 -4.7005039e-02 -4.0318392e-02]
 [ 4.6026444e-01  5.2236444e-01 -3.8235372e-01]
 [ 0.0000000e+00 -1.6323246e-04 -1.7010260e-04]
 [ 0.0000000e+00  0.0000000e+00  0.0000000e+00]
 [ 0.0000000e+00  0.0000000e+00  0.0000000e+00]] 
Episode: 32: [[ 5.4537159e-01  3.3590800e-01 -3.5823002e-02]
 [-1.9629928e-01 -1.9112663e-01 -1.4055663e-01]
 [ 3.0482256e-01  1.6221905e-01 -4.5003137e-01]
 [-1.6240509e-01 -3.4023649e-01  4.3450806e-02]
 [ 1.2599032e-01 -4.7005039e-02 -4.0318392e-02]
 [ 4.6026444e-01  5.2236444e-01 -3.8235372e-01]
 [ 0.0000000e+00 -1.6323246e-04 -1.7010260e-04]
 [ 0.0000000e+00  0.0000000e+00  0.0000000e+00]
 [ 0.0000000e+00  0.0000000e+00  0.0000000e+00]] 
Episode: 33: [[ 5.4537159e-01  3.3590800e-01 -3.5823002e-02]
 [-1.9629928e-01 -1.9112663e-01 -1.4055663e-01]
 [ 3.0482256e-01  1.6221905e-01 -4.5003137e-01]
 [-1.6240509e-01 -3.4023649e-01  4.3450806e-02]
 [ 1.2599032e-01 -4.7005039e-02 -4.0318392e-02]
 [ 4.6026444e-01  5.2236444e-01 -3.8235372e-01]
 [ 0.0000000e+00 -1.6323246e-04 -1.7010260e-04]
 [ 0.0000000e+00  0.0000000e+00  0.0000000e+00]
 [ 0.0000000e+00  0.0000000e+00  0.0000000e+00]] 
Episode: 34: [[ 5.4537159e-01  3.3590800e-01 -3.5823002e-02]
 [-1.9629928e-01 -1.9112663e-01 -1.4055663e-01]
 [ 3.0482256e-01  1.6221905e-01 -4.5003137e-01]
 [-1.6240509e-01 -3.4023649e-01  4.3450806e-02]
 [ 1.2599032e-01 -4.7005039e-02 -4.0318392e-02]
 [ 4.6026444e-01  5.2236444e-01 -3.8235372e-01]
 [ 0.0000000e+00 -1.6323246e-04 -1.7010260e-04]
 [ 0.0000000e+00  0.0000000e+00  0.0000000e+00]
 [ 0.0000000e+00  0.0000000e+00  0.0000000e+00]] 
Episode: 35: [[ 5.4537159e-01  3.3590800e-01 -3.5823002e-02]
 [-1.9629928e-01 -1.9112663e-01 -1.4055663e-01]
 [ 3.0482256e-01  1.6221905e-01 -4.5003137e-01]
 [-1.6240509e-01 -3.4023649e-01  4.3450806e-02]
 [ 1.2599032e-01 -4.7005039e-02 -4.0318392e-02]
 [ 4.6026444e-01  5.2236444e-01 -3.8235372e-01]
 [ 0.0000000e+00 -1.6323246e-04 -1.7010260e-04]
 [ 0.0000000e+00  0.0000000e+00  0.0000000e+00]
 [ 0.0000000e+00  0.0000000e+00  0.0000000e+00]] 
Episode: 36: [[ 5.4537159e-01  3.3590800e-01 -3.5823002e-02]
 [-1.9629928e-01 -1.9112663e-01 -1.4055663e-01]
 [ 3.0482256e-01  1.6221905e-01 -4.5003137e-01]
 [-1.6240509e-01 -3.4023649e-01  4.3450806e-02]
 [ 1.2599032e-01 -4.7005039e-02 -4.0318392e-02]
 [ 4.6026444e-01  5.2236444e-01 -3.8235372e-01]
 [ 0.0000000e+00 -1.6323246e-04 -1.7010260e-04]
 [ 0.0000000e+00  0.0000000e+00  0.0000000e+00]
 [ 0.0000000e+00  0.0000000e+00  0.0000000e+00]] 
Episode: 37: [[ 5.4537159e-01  3.3590800e-01 -3.5823002e-02]
 [-1.9629928e-01 -1.9112663e-01 -1.4055663e-01]
 [ 3.0482256e-01  1.6221905e-01 -4.5003137e-01]
 [-1.6240509e-01 -3.4023649e-01  4.3450806e-02]
 [ 1.2599032e-01 -4.7005039e-02 -4.0318392e-02]
 [ 4.6026444e-01  5.2236444e-01 -3.8235372e-01]
 [ 0.0000000e+00 -1.6323246e-04 -1.7010260e-04]
 [ 0.0000000e+00  0.0000000e+00  0.0000000e+00]
 [ 0.0000000e+00  0.0000000e+00  0.0000000e+00]] 
Episode: 38: [[ 5.4537159e-01  3.3590800e-01 -3.5823002e-02]
 [-1.9629928e-01 -1.9112663e-01 -1.4055663e-01]
 [ 3.0482256e-01  1.6221905e-01 -4.5003137e-01]
 [-1.6240509e-01 -3.4023649e-01  4.3450806e-02]
 [ 1.2599032e-01 -4.7005039e-02 -4.0318392e-02]
 [ 4.6026444e-01  5.2236444e-01 -3.8235372e-01]
 [ 0.0000000e+00 -1.6323246e-04 -1.7010260e-04]
 [ 0.0000000e+00  0.0000000e+00  0.0000000e+00]
 [ 0.0000000e+00  0.0000000e+00  0.0000000e+00]] 
Episode: 39: [[ 5.4537159e-01  3.3590800e-01 -3.5823002e-02]
 [-1.9629928e-01 -1.9112663e-01 -1.4055663e-01]
 [ 3.0482256e-01  1.6221905e-01 -4.5003137e-01]
 [-1.6240509e-01 -3.4023649e-01  4.3450806e-02]
 [ 1.2599032e-01 -4.7005039e-02 -4.0318392e-02]
 [ 4.6026444e-01  5.2236444e-01 -3.8235372e-01]
 [ 0.0000000e+00 -1.6323246e-04 -1.7010260e-04]
 [ 0.0000000e+00  0.0000000e+00  0.0000000e+00]
 [ 0.0000000e+00  0.0000000e+00  0.0000000e+00]] 
Episode: 40: [[ 5.4537159e-01  3.3590800e-01 -3.5823002e-02]
 [-1.9629928e-01 -1.9112663e-01 -1.4055663e-01]
 [ 3.0482256e-01  1.6221905e-01 -4.5003137e-01]
 [-1.6240509e-01 -3.4023649e-01  4.3450806e-02]
 [ 1.2599032e-01 -4.7005039e-02 -4.0318392e-02]
 [ 4.6026444e-01  5.2236444e-01 -3.8235372e-01]
 [ 0.0000000e+00 -1.6323246e-04 -1.7010260e-04]
 [ 0.0000000e+00  0.0000000e+00  0.0000000e+00]
 [ 0.0000000e+00  0.0000000e+00  0.0000000e+00]] 
Episode: 41: [[ 5.4537159e-01  3.3590800e-01 -3.5823002e-02]
 [-1.9629928e-01 -1.9112663e-01 -1.4055663e-01]
 [ 3.0482256e-01  1.6221905e-01 -4.5003137e-01]
 [-1.6240509e-01 -3.4023649e-01  4.3450806e-02]
 [ 1.2599032e-01 -4.7005039e-02 -4.0318392e-02]
 [ 4.6026444e-01  5.2236444e-01 -3.8235372e-01]
 [ 0.0000000e+00 -1.6323246e-04 -1.7010260e-04]
 [ 0.0000000e+00  0.0000000e+00  0.0000000e+00]
 [ 0.0000000e+00  0.0000000e+00  0.0000000e+00]] 
Episode: 42: [[ 5.4537159e-01  3.3590800e-01 -3.5823002e-02]
 [-1.9629928e-01 -1.9112663e-01 -1.4055663e-01]
 [ 3.0482256e-01  1.6221905e-01 -4.5003137e-01]
 [-1.6240509e-01 -3.4023649e-01  4.3450806e-02]
 [ 1.2599032e-01 -4.7005039e-02 -4.0318392e-02]
 [ 4.6026444e-01  5.2236444e-01 -3.8235372e-01]
 [ 0.0000000e+00 -1.6323246e-04 -1.7010260e-04]
 [ 0.0000000e+00  0.0000000e+00  0.0000000e+00]
 [ 0.0000000e+00  0.0000000e+00  0.0000000e+00]] 
Episode: 43: [[ 5.4537159e-01  3.3590800e-01 -3.5823002e-02]
 [-1.9629928e-01 -1.9112663e-01 -1.4055663e-01]
 [ 3.0482256e-01  1.6221905e-01 -4.5003137e-01]
 [-1.6240509e-01 -3.4023649e-01  4.3450806e-02]
 [ 1.2599032e-01 -4.7005039e-02 -4.0318392e-02]
 [ 4.6026444e-01  5.2236444e-01 -3.8235372e-01]
 [ 0.0000000e+00 -1.6323246e-04 -1.7010260e-04]
 [ 0.0000000e+00  0.0000000e+00  0.0000000e+00]
 [ 0.0000000e+00  0.0000000e+00  0.0000000e+00]] 
Episode: 44: [[ 5.4537159e-01  3.3590800e-01 -3.5823002e-02]
 [-1.9629928e-01 -1.9112663e-01 -1.4055663e-01]
 [ 3.0482256e-01  1.6221905e-01 -4.5003137e-01]
 [-1.6240509e-01 -3.4023649e-01  4.3450806e-02]
 [ 1.2599032e-01 -4.7005039e-02 -4.0318392e-02]
 [ 4.6026444e-01  5.2236444e-01 -3.8235372e-01]
 [ 0.0000000e+00 -1.6323246e-04 -1.7010260e-04]
 [ 0.0000000e+00  0.0000000e+00  0.0000000e+00]
 [ 0.0000000e+00  0.0000000e+00  0.0000000e+00]] 
Episode: 45: [[ 5.4537159e-01  3.3590800e-01 -3.5823002e-02]
 [-1.9629928e-01 -1.9112663e-01 -1.4055663e-01]
 [ 3.0482256e-01  1.6221905e-01 -4.5003137e-01]
 [-1.6240509e-01 -3.4023649e-01  4.3450806e-02]
 [ 1.2599032e-01 -4.7005039e-02 -4.0318392e-02]
 [ 4.6026444e-01  5.2236444e-01 -3.8235372e-01]
 [ 0.0000000e+00 -1.6323246e-04 -1.7010260e-04]
 [ 0.0000000e+00  0.0000000e+00  0.0000000e+00]
 [ 0.0000000e+00  0.0000000e+00  0.0000000e+00]] 
Episode: 46: [[ 5.4537159e-01  3.3590800e-01 -3.5823002e-02]
 [-1.9629928e-01 -1.9112663e-01 -1.4055663e-01]
 [ 3.0482256e-01  1.6221905e-01 -4.5003137e-01]
 [-1.6240509e-01 -3.4023649e-01  4.3450806e-02]
 [ 1.2599032e-01 -4.7005039e-02 -4.0318392e-02]
 [ 4.6026444e-01  5.2236444e-01 -3.8235372e-01]
 [ 0.0000000e+00 -1.6323246e-04 -1.7010260e-04]
 [ 0.0000000e+00  0.0000000e+00  0.0000000e+00]
 [ 0.0000000e+00  0.0000000e+00  0.0000000e+00]] 
Episode: 47: [[ 5.4537159e-01  3.3590800e-01 -3.5823002e-02]
 [-1.9629928e-01 -1.9112663e-01 -1.4055663e-01]
 [ 3.0482256e-01  1.6221905e-01 -4.5003137e-01]
 [-1.6240509e-01 -3.4023649e-01  4.3450806e-02]
 [ 1.2599032e-01 -4.7005039e-02 -4.0318392e-02]
 [ 4.6026444e-01  5.2236444e-01 -3.8235372e-01]
 [ 0.0000000e+00 -1.6323246e-04 -1.7010260e-04]
 [ 0.0000000e+00  0.0000000e+00  0.0000000e+00]
 [ 0.0000000e+00  0.0000000e+00  0.0000000e+00]] 
Episode: 48: [[ 5.4537159e-01  3.3590800e-01 -3.5823002e-02]
 [-1.9629928e-01 -1.9112663e-01 -1.4055663e-01]
 [ 3.0482256e-01  1.6221905e-01 -4.5003137e-01]
 [-1.6240509e-01 -3.4023649e-01  4.3450806e-02]
 [ 1.2599032e-01 -4.7005039e-02 -4.0318392e-02]
 [ 4.6026444e-01  5.2236444e-01 -3.8235372e-01]
 [ 0.0000000e+00 -1.6323246e-04 -1.7010260e-04]
 [ 0.0000000e+00  0.0000000e+00  0.0000000e+00]
 [ 0.0000000e+00  0.0000000e+00  0.0000000e+00]] 
Episode: 49: [[ 5.4537159e-01  3.3590800e-01 -3.5823002e-02]
 [-1.9629928e-01 -1.9112663e-01 -1.4055663e-01]
 [ 3.0482256e-01  1.6221905e-01 -4.5003137e-01]
 [-1.6240509e-01 -3.4023649e-01  4.3450806e-02]
 [ 1.2599032e-01 -4.7005039e-02 -4.0318392e-02]
 [ 4.6026444e-01  5.2236444e-01 -3.8235372e-01]
 [ 0.0000000e+00 -1.6323246e-04 -1.7010260e-04]
 [ 0.0000000e+00  0.0000000e+00  0.0000000e+00]
 [ 0.0000000e+00  0.0000000e+00  0.0000000e+00]] 
Episode: 50: [[ 5.4537159e-01  3.3590800e-01 -3.5823002e-02]
 [-1.9629928e-01 -1.9112663e-01 -1.4055663e-01]
 [ 3.0482256e-01  1.6221905e-01 -4.5003137e-01]
 [-1.6240509e-01 -3.4023649e-01  4.3450806e-02]
 [ 1.2599032e-01 -4.7005039e-02 -4.0318392e-02]
 [ 4.6026444e-01  5.2236444e-01 -3.8235372e-01]
 [ 0.0000000e+00 -1.6323246e-04 -1.7010260e-04]
 [ 0.0000000e+00  0.0000000e+00  0.0000000e+00]
 [ 0.0000000e+00  0.0000000e+00  0.0000000e+00]] 
Episode: 51: [[ 5.4537159e-01  3.3590800e-01 -3.5823002e-02]
 [-1.9629928e-01 -1.9112663e-01 -1.4055663e-01]
 [ 3.0482256e-01  1.6221905e-01 -4.5003137e-01]
 [-1.6240509e-01 -3.4023649e-01  4.3450806e-02]
 [ 1.2599032e-01 -4.7005039e-02 -4.0318392e-02]
 [ 4.6026444e-01  5.2236444e-01 -3.8235372e-01]
 [ 0.0000000e+00 -1.6323246e-04 -1.7010260e-04]
 [ 0.0000000e+00  0.0000000e+00  0.0000000e+00]
 [ 0.0000000e+00  0.0000000e+00  0.0000000e+00]] 
Episode: 52: [[ 5.4537159e-01  3.3590800e-01 -3.5823002e-02]
 [-1.9629928e-01 -1.9112663e-01 -1.4055663e-01]
 [ 3.0482256e-01  1.6221905e-01 -4.5003137e-01]
 [-1.6240509e-01 -3.4023649e-01  4.3450806e-02]
 [ 1.2599032e-01 -4.7005039e-02 -4.0318392e-02]
 [ 4.6026444e-01  5.2236444e-01 -3.8235372e-01]
 [ 0.0000000e+00 -1.6323246e-04 -1.7010260e-04]
 [ 0.0000000e+00  0.0000000e+00  0.0000000e+00]
 [ 0.0000000e+00  0.0000000e+00  0.0000000e+00]] 
Episode: 53: [[ 5.4537159e-01  3.3590800e-01 -3.5823002e-02]
 [-1.9629928e-01 -1.9112663e-01 -1.4055663e-01]
 [ 3.0482256e-01  1.6221905e-01 -4.5003137e-01]
 [-1.6240509e-01 -3.4023649e-01  4.3450806e-02]
 [ 1.2599032e-01 -4.7005039e-02 -4.0318392e-02]
 [ 4.6026444e-01  5.2236444e-01 -3.8235372e-01]
 [ 0.0000000e+00 -1.6323246e-04 -1.7010260e-04]
 [ 0.0000000e+00  0.0000000e+00  0.0000000e+00]
 [ 0.0000000e+00  0.0000000e+00  0.0000000e+00]] 
Episode: 54: [[ 5.4537159e-01  3.3590800e-01 -3.5823002e-02]
 [-1.9629928e-01 -1.9112663e-01 -1.4055663e-01]
 [ 3.0482256e-01  1.6221905e-01 -4.5003137e-01]
 [-1.6240509e-01 -3.4023649e-01  4.3450806e-02]
 [ 1.2599032e-01 -4.7005039e-02 -4.0318392e-02]
 [ 4.6026444e-01  5.2236444e-01 -3.8235372e-01]
 [ 0.0000000e+00 -1.6323246e-04 -1.7010260e-04]
 [ 0.0000000e+00  0.0000000e+00  0.0000000e+00]
 [ 0.0000000e+00  0.0000000e+00  0.0000000e+00]] 
Episode: 55: [[ 5.4537159e-01  3.3590800e-01 -3.5823002e-02]
 [-1.9629928e-01 -1.9112663e-01 -1.4055663e-01]
 [ 3.0482256e-01  1.6221905e-01 -4.5003137e-01]
 [-1.6240509e-01 -3.4023649e-01  4.3450806e-02]
 [ 1.2599032e-01 -4.7005039e-02 -4.0318392e-02]
 [ 4.6026444e-01  5.2236444e-01 -3.8235372e-01]
 [ 0.0000000e+00 -1.6323246e-04 -1.7010260e-04]
 [ 0.0000000e+00  0.0000000e+00  0.0000000e+00]
 [ 0.0000000e+00  0.0000000e+00  0.0000000e+00]] 
Episode: 56: [[ 5.4537159e-01  3.3590800e-01 -3.5823002e-02]
 [-1.9629928e-01 -1.9112663e-01 -1.4055663e-01]
 [ 3.0482256e-01  1.6221905e-01 -4.5003137e-01]
 [-1.6240509e-01 -3.4023649e-01  4.3450806e-02]
 [ 1.2599032e-01 -4.7005039e-02 -4.0318392e-02]
 [ 4.6026444e-01  5.2236444e-01 -3.8235372e-01]
 [ 0.0000000e+00 -1.6323246e-04 -1.7010260e-04]
 [ 0.0000000e+00  0.0000000e+00  0.0000000e+00]
 [ 0.0000000e+00  0.0000000e+00  0.0000000e+00]] 
Episode: 57: [[ 5.4537159e-01  3.3590800e-01 -3.5823002e-02]
 [-1.9629928e-01 -1.9112663e-01 -1.4055663e-01]
 [ 3.0482256e-01  1.6221905e-01 -4.5003137e-01]
 [-1.6240509e-01 -3.4023649e-01  4.3450806e-02]
 [ 1.2599032e-01 -4.7005039e-02 -4.0318392e-02]
 [ 4.6026444e-01  5.2236444e-01 -3.8235372e-01]
 [ 0.0000000e+00 -1.6323246e-04 -1.7010260e-04]
 [ 0.0000000e+00  0.0000000e+00  0.0000000e+00]
 [ 0.0000000e+00  0.0000000e+00  0.0000000e+00]] 
Episode: 58: [[ 5.4537159e-01  3.3590800e-01 -3.5823002e-02]
 [-1.9629928e-01 -1.9112663e-01 -1.4055663e-01]
 [ 3.0482256e-01  1.6221905e-01 -4.5003137e-01]
 [-1.6240509e-01 -3.4023649e-01  4.3450806e-02]
 [ 1.2599032e-01 -4.7005039e-02 -4.0318392e-02]
 [ 4.6026444e-01  5.2236444e-01 -3.8235372e-01]
 [ 0.0000000e+00 -1.6323246e-04 -1.7010260e-04]
 [ 0.0000000e+00  0.0000000e+00  0.0000000e+00]
 [ 0.0000000e+00  0.0000000e+00  0.0000000e+00]] 
Episode: 59: [[ 5.4537159e-01  3.3590800e-01 -3.5823002e-02]
 [-1.9629928e-01 -1.9112663e-01 -1.4055663e-01]
 [ 3.0482256e-01  1.6221905e-01 -4.5003137e-01]
 [-1.6240509e-01 -3.4023649e-01  4.3450806e-02]
 [ 1.2599032e-01 -4.7005039e-02 -4.0318392e-02]
 [ 4.6026444e-01  5.2236444e-01 -3.8235372e-01]
 [ 0.0000000e+00 -1.6323246e-04 -1.7010260e-04]
 [ 0.0000000e+00  0.0000000e+00  0.0000000e+00]
 [ 0.0000000e+00  0.0000000e+00  0.0000000e+00]] 
Episode: 60: [[ 5.4537159e-01  3.3590800e-01 -3.5823002e-02]
 [-1.9629928e-01 -1.9112663e-01 -1.4055663e-01]
 [ 3.0482256e-01  1.6221905e-01 -4.5003137e-01]
 [-1.6240509e-01 -3.4023649e-01  4.3450806e-02]
 [ 1.2599032e-01 -4.7005039e-02 -4.0318392e-02]
 [ 4.6026444e-01  5.2236444e-01 -3.8235372e-01]
 [ 0.0000000e+00 -1.6323246e-04 -1.7010260e-04]
 [ 0.0000000e+00  0.0000000e+00  0.0000000e+00]
 [ 0.0000000e+00  0.0000000e+00  0.0000000e+00]] 
Episode: 61: [[ 5.4537159e-01  3.3590800e-01 -3.5823002e-02]
 [-1.9629928e-01 -1.9112663e-01 -1.4055663e-01]
 [ 3.0482256e-01  1.6221905e-01 -4.5003137e-01]
 [-1.6240509e-01 -3.4023649e-01  4.3450806e-02]
 [ 1.2599032e-01 -4.7005039e-02 -4.0318392e-02]
 [ 4.6026444e-01  5.2236444e-01 -3.8235372e-01]
 [ 0.0000000e+00 -1.6323246e-04 -1.7010260e-04]
 [ 0.0000000e+00  0.0000000e+00  0.0000000e+00]
 [ 0.0000000e+00  0.0000000e+00  0.0000000e+00]] 
Episode: 62: [[ 5.4537159e-01  3.3590800e-01 -3.5823002e-02]
 [-1.9629928e-01 -1.9112663e-01 -1.4055663e-01]
 [ 3.0482256e-01  1.6221905e-01 -4.5003137e-01]
 [-1.6240509e-01 -3.4023649e-01  4.3450806e-02]
 [ 1.2599032e-01 -4.7005039e-02 -4.0318392e-02]
 [ 4.6026444e-01  5.2236444e-01 -3.8235372e-01]
 [ 0.0000000e+00 -1.6323246e-04 -1.7010260e-04]
 [ 0.0000000e+00  0.0000000e+00  0.0000000e+00]
 [ 0.0000000e+00  0.0000000e+00  0.0000000e+00]] 
Episode: 63: [[ 5.4537159e-01  3.3590800e-01 -3.5823002e-02]
 [-1.9629928e-01 -1.9112663e-01 -1.4055663e-01]
 [ 3.0482256e-01  1.6221905e-01 -4.5003137e-01]
 [-1.6240509e-01 -3.4023649e-01  4.3450806e-02]
 [ 1.2599032e-01 -4.7005039e-02 -4.0318392e-02]
 [ 4.6026444e-01  5.2236444e-01 -3.8235372e-01]
 [ 0.0000000e+00 -1.6323246e-04 -1.7010260e-04]
 [ 0.0000000e+00  0.0000000e+00  0.0000000e+00]
 [ 0.0000000e+00  0.0000000e+00  0.0000000e+00]] 
Episode: 64: [[ 5.4537159e-01  3.3590800e-01 -3.5823002e-02]
 [-1.9629928e-01 -1.9112663e-01 -1.4055663e-01]
 [ 3.0482256e-01  1.6221905e-01 -4.5003137e-01]
 [-1.6240509e-01 -3.4023649e-01  4.3450806e-02]
 [ 1.2599032e-01 -4.7005039e-02 -4.0318392e-02]
 [ 4.6026444e-01  5.2236444e-01 -3.8235372e-01]
 [ 0.0000000e+00 -1.6323246e-04 -1.7010260e-04]
 [ 0.0000000e+00  0.0000000e+00  0.0000000e+00]
 [ 0.0000000e+00  0.0000000e+00  0.0000000e+00]] 
Episode: 65: [[ 5.4537159e-01  3.3590800e-01 -3.5823002e-02]
 [-1.9629928e-01 -1.9112663e-01 -1.4055663e-01]
 [ 3.0482256e-01  1.6221905e-01 -4.5003137e-01]
 [-1.6240509e-01 -3.4023649e-01  4.3450806e-02]
 [ 1.2599032e-01 -4.7005039e-02 -4.0318392e-02]
 [ 4.6026444e-01  5.2236444e-01 -3.8235372e-01]
 [ 0.0000000e+00 -1.6323246e-04 -1.7010260e-04]
 [ 0.0000000e+00  0.0000000e+00  0.0000000e+00]
 [ 0.0000000e+00  0.0000000e+00  0.0000000e+00]] 
Episode: 66: [[ 5.4537159e-01  3.3590800e-01 -3.5823002e-02]
 [-1.9629928e-01 -1.9112663e-01 -1.4055663e-01]
 [ 3.0482256e-01  1.6221905e-01 -4.5003137e-01]
 [-1.6240509e-01 -3.4023649e-01  4.3450806e-02]
 [ 1.2599032e-01 -4.7005039e-02 -4.0318392e-02]
 [ 4.6026444e-01  5.2236444e-01 -3.8235372e-01]
 [ 0.0000000e+00 -1.6323246e-04 -1.7010260e-04]
 [ 0.0000000e+00  0.0000000e+00  0.0000000e+00]
 [ 0.0000000e+00  0.0000000e+00  0.0000000e+00]] 
Episode: 67: [[ 5.4537159e-01  3.3590800e-01 -3.5823002e-02]
 [-1.9629928e-01 -1.9112663e-01 -1.4055663e-01]
 [ 3.0482256e-01  1.6221905e-01 -4.5003137e-01]
 [-1.6240509e-01 -3.4023649e-01  4.3450806e-02]
 [ 1.2599032e-01 -4.7005039e-02 -4.0318392e-02]
 [ 4.6026444e-01  5.2236444e-01 -3.8235372e-01]
 [ 0.0000000e+00 -1.6323246e-04 -1.7010260e-04]
 [ 0.0000000e+00  0.0000000e+00  0.0000000e+00]
 [ 0.0000000e+00  0.0000000e+00  0.0000000e+00]] 
Episode: 68: [[ 5.4537159e-01  3.3590800e-01 -3.5823002e-02]
 [-1.9629928e-01 -1.9112663e-01 -1.4055663e-01]
 [ 3.0482256e-01  1.6221905e-01 -4.5003137e-01]
 [-1.6240509e-01 -3.4023649e-01  4.3450806e-02]
 [ 1.2599032e-01 -4.7005039e-02 -4.0318392e-02]
 [ 4.6026444e-01  5.2236444e-01 -3.8235372e-01]
 [ 0.0000000e+00 -1.6323246e-04 -1.7010260e-04]
 [ 0.0000000e+00  0.0000000e+00  0.0000000e+00]
 [ 0.0000000e+00  0.0000000e+00  0.0000000e+00]] 
Episode: 69: [[ 5.4537159e-01  3.3590800e-01 -3.5823002e-02]
 [-1.9629928e-01 -1.9112663e-01 -1.4055663e-01]
 [ 3.0482256e-01  1.6221905e-01 -4.5003137e-01]
 [-1.6240509e-01 -3.4023649e-01  4.3450806e-02]
 [ 1.2599032e-01 -4.7005039e-02 -4.0318392e-02]
 [ 4.6026444e-01  5.2236444e-01 -3.8235372e-01]
 [ 0.0000000e+00 -1.6323246e-04 -1.7010260e-04]
 [ 0.0000000e+00  0.0000000e+00  0.0000000e+00]
 [ 0.0000000e+00  0.0000000e+00  0.0000000e+00]] 
Episode: 70: [[ 5.4537159e-01  3.3590800e-01 -3.5823002e-02]
 [-1.9629928e-01 -1.9112663e-01 -1.4055663e-01]
 [ 3.0482256e-01  1.6221905e-01 -4.5003137e-01]
 [-1.6240509e-01 -3.4023649e-01  4.3450806e-02]
 [ 1.2599032e-01 -4.7005039e-02 -4.0318392e-02]
 [ 4.6026444e-01  5.2236444e-01 -3.8235372e-01]
 [ 0.0000000e+00 -1.6323246e-04 -1.7010260e-04]
 [ 0.0000000e+00  0.0000000e+00  0.0000000e+00]
 [ 0.0000000e+00  0.0000000e+00  0.0000000e+00]] 
Episode: 71: [[ 5.4537159e-01  3.3590800e-01 -3.5823002e-02]
 [-1.9629928e-01 -1.9112663e-01 -1.4055663e-01]
 [ 3.0482256e-01  1.6221905e-01 -4.5003137e-01]
 [-1.6240509e-01 -3.4023649e-01  4.3450806e-02]
 [ 1.2599032e-01 -4.7005039e-02 -4.0318392e-02]
 [ 4.6026444e-01  5.2236444e-01 -3.8235372e-01]
 [ 0.0000000e+00 -1.6323246e-04 -1.7010260e-04]
 [ 0.0000000e+00  0.0000000e+00  0.0000000e+00]
 [ 0.0000000e+00  0.0000000e+00  0.0000000e+00]] 
Episode: 72: [[ 5.4537159e-01  3.3590800e-01 -3.5823002e-02]
 [-1.9629928e-01 -1.9112663e-01 -1.4055663e-01]
 [ 3.0482256e-01  1.6221905e-01 -4.5003137e-01]
 [-1.6240509e-01 -3.4023649e-01  4.3450806e-02]
 [ 1.2599032e-01 -4.7005039e-02 -4.0318392e-02]
 [ 4.6026444e-01  5.2236444e-01 -3.8235372e-01]
 [ 0.0000000e+00 -1.6323246e-04 -1.7010260e-04]
 [ 0.0000000e+00  0.0000000e+00  0.0000000e+00]
 [ 0.0000000e+00  0.0000000e+00  0.0000000e+00]] 
Episode: 73: [[ 5.4537159e-01  3.3590800e-01 -3.5823002e-02]
 [-1.9629928e-01 -1.9112663e-01 -1.4055663e-01]
 [ 3.0482256e-01  1.6221905e-01 -4.5003137e-01]
 [-1.6240509e-01 -3.4023649e-01  4.3450806e-02]
 [ 1.2599032e-01 -4.7005039e-02 -4.0318392e-02]
 [ 4.6026444e-01  5.2236444e-01 -3.8235372e-01]
 [ 0.0000000e+00 -1.6323246e-04 -1.7010260e-04]
 [ 0.0000000e+00  0.0000000e+00  0.0000000e+00]
 [ 0.0000000e+00  0.0000000e+00  0.0000000e+00]] 
Episode: 74: [[ 5.4537159e-01  3.3590800e-01 -3.5823002e-02]
 [-1.9629928e-01 -1.9112663e-01 -1.4055663e-01]
 [ 3.0482256e-01  1.6221905e-01 -4.5003137e-01]
 [-1.6240509e-01 -3.4023649e-01  4.3450806e-02]
 [ 1.2599032e-01 -4.7005039e-02 -4.0318392e-02]
 [ 4.6026444e-01  5.2236444e-01 -3.8235372e-01]
 [ 0.0000000e+00 -1.6323246e-04 -1.7010260e-04]
 [ 0.0000000e+00  0.0000000e+00  0.0000000e+00]
 [ 0.0000000e+00  0.0000000e+00  0.0000000e+00]] 
Episode: 75: [[ 5.4537159e-01  3.3590800e-01 -3.5823002e-02]
 [-1.9629928e-01 -1.9112663e-01 -1.4055663e-01]
 [ 3.0482256e-01  1.6221905e-01 -4.5003137e-01]
 [-1.6240509e-01 -3.4023649e-01  4.3450806e-02]
 [ 1.2599032e-01 -4.7005039e-02 -4.0318392e-02]
 [ 4.6026444e-01  5.2236444e-01 -3.8235372e-01]
 [ 0.0000000e+00 -1.6323246e-04 -1.7010260e-04]
 [ 0.0000000e+00  0.0000000e+00  0.0000000e+00]
 [ 0.0000000e+00  0.0000000e+00  0.0000000e+00]] 
Episode: 76: [[ 5.4537159e-01  3.3590800e-01 -3.5823002e-02]
 [-1.9629928e-01 -1.9112663e-01 -1.4055663e-01]
 [ 3.0482256e-01  1.6221905e-01 -4.5003137e-01]
 [-1.6240509e-01 -3.4023649e-01  4.3450806e-02]
 [ 1.2599032e-01 -4.7005039e-02 -4.0318392e-02]
 [ 4.6026444e-01  5.2236444e-01 -3.8235372e-01]
 [ 0.0000000e+00 -1.6323246e-04 -1.7010260e-04]
 [ 0.0000000e+00  0.0000000e+00  0.0000000e+00]
 [ 0.0000000e+00  0.0000000e+00  0.0000000e+00]] 
Episode: 77: [[ 5.4537159e-01  3.3590800e-01 -3.5823002e-02]
 [-1.9629928e-01 -1.9112663e-01 -1.4055663e-01]
 [ 3.0482256e-01  1.6221905e-01 -4.5003137e-01]
 [-1.6240509e-01 -3.4023649e-01  4.3450806e-02]
 [ 1.2599032e-01 -4.7005039e-02 -4.0318392e-02]
 [ 4.6026444e-01  5.2236444e-01 -3.8235372e-01]
 [ 0.0000000e+00 -1.6323246e-04 -1.7010260e-04]
 [ 0.0000000e+00  0.0000000e+00  0.0000000e+00]
 [ 0.0000000e+00  0.0000000e+00  0.0000000e+00]] 
Episode: 78: [[ 5.4537159e-01  3.3590800e-01 -3.5823002e-02]
 [-1.9629928e-01 -1.9112663e-01 -1.4055663e-01]
 [ 3.0482256e-01  1.6221905e-01 -4.5003137e-01]
 [-1.6240509e-01 -3.4023649e-01  4.3450806e-02]
 [ 1.2599032e-01 -4.7005039e-02 -4.0318392e-02]
 [ 4.6026444e-01  5.2236444e-01 -3.8235372e-01]
 [ 0.0000000e+00 -1.6323246e-04 -1.7010260e-04]
 [ 0.0000000e+00  0.0000000e+00  0.0000000e+00]
 [ 0.0000000e+00  0.0000000e+00  0.0000000e+00]] 
Episode: 79: [[ 5.4537159e-01  3.3590800e-01 -3.5823002e-02]
 [-1.9629928e-01 -1.9112663e-01 -1.4055663e-01]
 [ 3.0482256e-01  1.6221905e-01 -4.5003137e-01]
 [-1.6240509e-01 -3.4023649e-01  4.3450806e-02]
 [ 1.2599032e-01 -4.7005039e-02 -4.0318392e-02]
 [ 4.6026444e-01  5.2236444e-01 -3.8235372e-01]
 [ 0.0000000e+00 -1.6323246e-04 -1.7010260e-04]
 [ 0.0000000e+00  0.0000000e+00  0.0000000e+00]
 [ 0.0000000e+00  0.0000000e+00  0.0000000e+00]] 
Episode: 80: [[ 5.4537159e-01  3.3590800e-01 -3.5823002e-02]
 [-1.9629928e-01 -1.9112663e-01 -1.4055663e-01]
 [ 3.0482256e-01  1.6221905e-01 -4.5003137e-01]
 [-1.6240509e-01 -3.4023649e-01  4.3450806e-02]
 [ 1.2599032e-01 -4.7005039e-02 -4.0318392e-02]
 [ 4.6026444e-01  5.2236444e-01 -3.8235372e-01]
 [ 0.0000000e+00 -1.6323246e-04 -1.7010260e-04]
 [ 0.0000000e+00  0.0000000e+00  0.0000000e+00]
 [ 0.0000000e+00  0.0000000e+00  0.0000000e+00]] 
Episode: 81: [[nan nan nan]
 [nan nan nan]
 [nan nan nan]
 [nan nan nan]
 [nan nan nan]
 [nan nan nan]
 [nan nan nan]
 [nan nan nan]
 [nan nan nan]] 
