Episode: 1: [[-0.11657108  0.01925944 -0.5485631   0.5081599   0.51482797  0.34263572
  -0.09813324  0.36980087]
 [-0.31287375  0.4729509  -0.44070682 -0.4904909  -0.10482257  0.5312401
  -0.33566955 -0.35339358]
 [ 0.45142373 -0.07081959 -0.16514593  0.05238764  0.38095844 -0.33493564
   0.3099484  -0.08199146]
 [-0.33293104  0.18539287 -0.3864072  -0.08661058  0.568887    0.22681153
  -0.2919255   0.23418397]
 [ 0.28799024  0.49685922 -0.52026755 -0.49073985  0.2566427   0.5170866
  -0.15627958 -0.32159573]
 [ 0.32144564  0.16059367 -0.3375632   0.2361349   0.5321596  -0.50870615
  -0.18964416 -0.5062304 ]
 [ 0.23444827  0.07411888 -0.5656251   0.4100609   0.02156778  0.00194026
  -0.44525188 -0.25972065]
 [ 0.03911808  0.41365     0.40005657 -0.36426654  0.15705666  0.20776007
  -0.0683714   0.00119605]
 [ 0.35758778  0.11111142  0.05937364 -0.09593705 -0.23548137  0.21103637
  -0.03138388 -0.08890072]] 
Episode: 2: [[-0.11657108  0.01925944 -0.5485631   0.5081599   0.51482797  0.34263572
  -0.09813324  0.36980087]
 [-0.31287375  0.4729509  -0.44070682 -0.4904909  -0.10482257  0.5312401
  -0.33566955 -0.35339358]
 [ 0.45142373 -0.07081959 -0.16514593  0.05238764  0.38095844 -0.33493564
   0.3099484  -0.08199146]
 [-0.33293104  0.18539287 -0.3864072  -0.08661058  0.568787    0.22681153
  -0.2919255   0.23408397]
 [ 0.28799024  0.49685922 -0.52026755 -0.49073985  0.2567427   0.5170866
  -0.15637958 -0.32169572]
 [ 0.32144564  0.16049367 -0.33766317  0.2360349   0.5320596  -0.50870615
  -0.18954416 -0.5062304 ]
 [ 0.23444827  0.07411888 -0.5656251   0.4100609   0.02156778  0.00194026
  -0.44535187 -0.25982064]
 [ 0.03911808  0.41365     0.40005657 -0.36426654  0.15705666  0.20776007
  -0.0683714   0.00119605]
 [ 0.35758778  0.11111142  0.05947364 -0.09593705 -0.23548137  0.21103637
  -0.03138388 -0.08890072]] 
Episode: 3: [[-0.11649667  0.01918503 -0.5486375   0.5080855   0.5147536   0.34271014
  -0.09805883  0.36972645]
 [-0.31287375  0.4729509  -0.44070682 -0.4904909  -0.10482257  0.5312401
  -0.33566955 -0.35339358]
 [ 0.45142373 -0.07081959 -0.16514593  0.05238764  0.38095844 -0.33493564
   0.3099484  -0.08199146]
 [-0.33293104  0.18539287 -0.3864072  -0.08661058  0.56872404  0.22681153
  -0.2919255   0.23403333]
 [ 0.28799024  0.49685922 -0.52026755 -0.49073985  0.25679123  0.5170866
  -0.15645286 -0.3217946 ]
 [ 0.32144564  0.16042511 -0.33773187  0.23596756  0.5319936  -0.50870615
  -0.18947709 -0.5062304 ]
 [ 0.23444827  0.07411888 -0.5656251   0.4100609   0.02156778  0.00194026
  -0.4453503  -0.25985593]
 [ 0.03911808  0.41365     0.40005657 -0.36426654  0.15705666  0.20776007
  -0.0683714   0.00119605]
 [ 0.35758778  0.11111142  0.05955703 -0.09593705 -0.23548137  0.21103637
  -0.03138388 -0.08890072]] 
Episode: 4: [[-0.11649667  0.01918503 -0.5486375   0.5080855   0.5147536   0.34271014
  -0.09805883  0.36972645]
 [-0.31287375  0.4729509  -0.44070682 -0.4904909  -0.10482257  0.5312401
  -0.33566955 -0.35339358]
 [ 0.45142373 -0.07081959 -0.16514593  0.05238764  0.38095844 -0.33493564
   0.3099484  -0.08199146]
 [-0.33293104  0.18539287 -0.3864072  -0.08661058  0.56872404  0.22681153
  -0.2919255   0.23403333]
 [ 0.28799024  0.49685922 -0.52026755 -0.49073985  0.25679123  0.5170866
  -0.15645286 -0.3217946 ]
 [ 0.32144564  0.16042511 -0.33773187  0.23596756  0.5319936  -0.50870615
  -0.18947709 -0.5062304 ]
 [ 0.23444827  0.07411888 -0.5656251   0.4100609   0.02156778  0.00194026
  -0.4453503  -0.25985593]
 [ 0.03911808  0.41365     0.40005657 -0.36426654  0.15705666  0.20776007
  -0.0683714   0.00119605]
 [ 0.35758778  0.11111142  0.05955703 -0.09593705 -0.23548137  0.21103637
  -0.03138388 -0.08890072]] 
Episode: 5: [[-0.11649667  0.01918503 -0.5486375   0.5080855   0.5147536   0.34271014
  -0.09805883  0.36972645]
 [-0.31287375  0.4729509  -0.44070682 -0.4904909  -0.10482257  0.5312401
  -0.33566955 -0.35339358]
 [ 0.45142373 -0.07081959 -0.16514593  0.05238764  0.38095844 -0.33493564
   0.3099484  -0.08199146]
 [-0.33293104  0.18539287 -0.3864072  -0.08661058  0.56872404  0.22681153
  -0.2919255   0.23403333]
 [ 0.28799024  0.49685922 -0.52026755 -0.49073985  0.25679123  0.5170866
  -0.15645286 -0.3217946 ]
 [ 0.32144564  0.16042511 -0.33773187  0.23596756  0.5319936  -0.50870615
  -0.18947709 -0.5062304 ]
 [ 0.23444827  0.07411888 -0.5656251   0.4100609   0.02156778  0.00194026
  -0.4453503  -0.25985593]
 [ 0.03911808  0.41365     0.40005657 -0.36426654  0.15705666  0.20776007
  -0.0683714   0.00119605]
 [ 0.35758778  0.11111142  0.05955703 -0.09593705 -0.23548137  0.21103637
  -0.03138388 -0.08890072]] 
Episode: 6: [[-0.11649667  0.01918503 -0.5486375   0.5080855   0.5147536   0.34271014
  -0.09805883  0.36972645]
 [-0.31287375  0.4729509  -0.44070682 -0.4904909  -0.10482257  0.5312401
  -0.33566955 -0.35339358]
 [ 0.45142373 -0.07081959 -0.16514593  0.05238764  0.38095844 -0.33493564
   0.3099484  -0.08199146]
 [-0.33293104  0.18539287 -0.3864072  -0.08661058  0.56872404  0.22681153
  -0.2919255   0.23403333]
 [ 0.28799024  0.49685922 -0.52026755 -0.49073985  0.25679123  0.5170866
  -0.15645286 -0.3217946 ]
 [ 0.32144564  0.16042511 -0.33773187  0.23596756  0.5319936  -0.50870615
  -0.18947709 -0.5062304 ]
 [ 0.23444827  0.07411888 -0.5656251   0.4100609   0.02156778  0.00194026
  -0.4453503  -0.25985593]
 [ 0.03911808  0.41365     0.40005657 -0.36426654  0.15705666  0.20776007
  -0.0683714   0.00119605]
 [ 0.35758778  0.11111142  0.05955703 -0.09593705 -0.23548137  0.21103637
  -0.03138388 -0.08890072]] 
Episode: 7: [[-0.11649667  0.01918503 -0.5486375   0.5080855   0.5147536   0.34271014
  -0.09805883  0.36972645]
 [-0.31287375  0.4729509  -0.44070682 -0.4904909  -0.10482257  0.5312401
  -0.33566955 -0.35339358]
 [ 0.45142373 -0.07081959 -0.16514593  0.05238764  0.38095844 -0.33493564
   0.3099484  -0.08199146]
 [-0.33293104  0.18539287 -0.3864072  -0.08661058  0.56872404  0.22681153
  -0.2919255   0.23403333]
 [ 0.28799024  0.49685922 -0.52026755 -0.49073985  0.25679123  0.5170866
  -0.15645286 -0.3217946 ]
 [ 0.32144564  0.16042511 -0.33773187  0.23596756  0.5319936  -0.50870615
  -0.18947709 -0.5062304 ]
 [ 0.23444827  0.07411888 -0.5656251   0.4100609   0.02156778  0.00194026
  -0.4453503  -0.25985593]
 [ 0.03911808  0.41365     0.40005657 -0.36426654  0.15705666  0.20776007
  -0.0683714   0.00119605]
 [ 0.35758778  0.11111142  0.05955703 -0.09593705 -0.23548137  0.21103637
  -0.03138388 -0.08890072]] 
Episode: 8: [[-0.11649667  0.01918503 -0.5486375   0.5080855   0.5147536   0.34271014
  -0.09805883  0.36972645]
 [-0.31287375  0.4729509  -0.44070682 -0.4904909  -0.10482257  0.5312401
  -0.33566955 -0.35339358]
 [ 0.45142373 -0.07081959 -0.16514593  0.05238764  0.38095844 -0.33493564
   0.3099484  -0.08199146]
 [-0.33293104  0.18539287 -0.3864072  -0.08661058  0.56872404  0.22681153
  -0.2919255   0.23403333]
 [ 0.28799024  0.49685922 -0.52026755 -0.49073985  0.25679123  0.5170866
  -0.15645286 -0.3217946 ]
 [ 0.32144564  0.16042511 -0.33773187  0.23596756  0.5319936  -0.50870615
  -0.18947709 -0.5062304 ]
 [ 0.23444827  0.07411888 -0.5656251   0.4100609   0.02156778  0.00194026
  -0.4453503  -0.25985593]
 [ 0.03911808  0.41365     0.40005657 -0.36426654  0.15705666  0.20776007
  -0.0683714   0.00119605]
 [ 0.35758778  0.11111142  0.05955703 -0.09593705 -0.23548137  0.21103637
  -0.03138388 -0.08890072]] 
Episode: 9: [[-0.11649667  0.01918503 -0.5486375   0.5080855   0.5147536   0.34271014
  -0.09805883  0.36972645]
 [-0.31287375  0.4729509  -0.44070682 -0.4904909  -0.10482257  0.5312401
  -0.33566955 -0.35339358]
 [ 0.45142373 -0.07081959 -0.16514593  0.05238764  0.38095844 -0.33493564
   0.3099484  -0.08199146]
 [-0.33293104  0.18539287 -0.3864072  -0.08661058  0.56872404  0.22681153
  -0.2919255   0.23403333]
 [ 0.28799024  0.49685922 -0.52026755 -0.49073985  0.25679123  0.5170866
  -0.15645286 -0.3217946 ]
 [ 0.32144564  0.16042511 -0.33773187  0.23596756  0.5319936  -0.50870615
  -0.18947709 -0.5062304 ]
 [ 0.23444827  0.07411888 -0.5656251   0.4100609   0.02156778  0.00194026
  -0.4453503  -0.25985593]
 [ 0.03911808  0.41365     0.40005657 -0.36426654  0.15705666  0.20776007
  -0.0683714   0.00119605]
 [ 0.35758778  0.11111142  0.05955703 -0.09593705 -0.23548137  0.21103637
  -0.03138388 -0.08890072]] 
Episode: 10: [[-0.11649667  0.01918503 -0.5486375   0.5080855   0.5147536   0.34271014
  -0.09805883  0.36972645]
 [-0.31287375  0.4729509  -0.44070682 -0.4904909  -0.10482257  0.5312401
  -0.33566955 -0.35339358]
 [ 0.45142373 -0.07081959 -0.16514593  0.05238764  0.38095844 -0.33493564
   0.3099484  -0.08199146]
 [-0.33293104  0.18539287 -0.3864072  -0.08661058  0.56872404  0.22681153
  -0.2919255   0.23403333]
 [ 0.28799024  0.49685922 -0.52026755 -0.49073985  0.25679123  0.5170866
  -0.15645286 -0.3217946 ]
 [ 0.32144564  0.16042511 -0.33773187  0.23596756  0.5319936  -0.50870615
  -0.18947709 -0.5062304 ]
 [ 0.23444827  0.07411888 -0.5656251   0.4100609   0.02156778  0.00194026
  -0.4453503  -0.25985593]
 [ 0.03911808  0.41365     0.40005657 -0.36426654  0.15705666  0.20776007
  -0.0683714   0.00119605]
 [ 0.35758778  0.11111142  0.05955703 -0.09593705 -0.23548137  0.21103637
  -0.03138388 -0.08890072]] 
Episode: 11: [[-0.11649667  0.01918503 -0.5486375   0.5080855   0.5147536   0.34271014
  -0.09805883  0.36972645]
 [-0.31287375  0.4729509  -0.44070682 -0.4904909  -0.10482257  0.5312401
  -0.33566955 -0.35339358]
 [ 0.45142373 -0.07081959 -0.16514593  0.05238764  0.38095844 -0.33493564
   0.3099484  -0.08199146]
 [-0.33293104  0.18539287 -0.3864072  -0.08661058  0.56872404  0.22681153
  -0.2919255   0.23403333]
 [ 0.28799024  0.49685922 -0.52026755 -0.49073985  0.25679123  0.5170866
  -0.15645286 -0.3217946 ]
 [ 0.32144564  0.16042511 -0.33773187  0.23596756  0.5319936  -0.50870615
  -0.18947709 -0.5062304 ]
 [ 0.23444827  0.07411888 -0.5656251   0.4100609   0.02156778  0.00194026
  -0.4453503  -0.25985593]
 [ 0.03911808  0.41365     0.40005657 -0.36426654  0.15705666  0.20776007
  -0.0683714   0.00119605]
 [ 0.35758778  0.11111142  0.05955703 -0.09593705 -0.23548137  0.21103637
  -0.03138388 -0.08890072]] 
Episode: 12: [[-0.11649667  0.01918503 -0.5486375   0.5080855   0.5147536   0.34271014
  -0.09805883  0.36972645]
 [-0.31287375  0.4729509  -0.44070682 -0.4904909  -0.10482257  0.5312401
  -0.33566955 -0.35339358]
 [ 0.45142373 -0.07081959 -0.16514593  0.05238764  0.38095844 -0.33493564
   0.3099484  -0.08199146]
 [-0.33293104  0.18539287 -0.3864072  -0.08661058  0.56872404  0.22681153
  -0.2919255   0.23403333]
 [ 0.28799024  0.49685922 -0.52026755 -0.49073985  0.25679123  0.5170866
  -0.15645286 -0.3217946 ]
 [ 0.32144564  0.16042511 -0.33773187  0.23596756  0.5319936  -0.50870615
  -0.18947709 -0.5062304 ]
 [ 0.23444827  0.07411888 -0.5656251   0.4100609   0.02156778  0.00194026
  -0.4453503  -0.25985593]
 [ 0.03911808  0.41365     0.40005657 -0.36426654  0.15705666  0.20776007
  -0.0683714   0.00119605]
 [ 0.35758778  0.11111142  0.05955703 -0.09593705 -0.23548137  0.21103637
  -0.03138388 -0.08890072]] 
Episode: 13: [[-0.11649667  0.01918503 -0.5486375   0.5080855   0.5147536   0.34271014
  -0.09805883  0.36972645]
 [-0.31287375  0.4729509  -0.44070682 -0.4904909  -0.10482257  0.5312401
  -0.33566955 -0.35339358]
 [ 0.45142373 -0.07081959 -0.16514593  0.05238764  0.38095844 -0.33493564
   0.3099484  -0.08199146]
 [-0.33293104  0.18539287 -0.3864072  -0.08661058  0.56872404  0.22681153
  -0.2919255   0.23403333]
 [ 0.28799024  0.49685922 -0.52026755 -0.49073985  0.25679123  0.5170866
  -0.15645286 -0.3217946 ]
 [ 0.32144564  0.16042511 -0.33773187  0.23596756  0.5319936  -0.50870615
  -0.18947709 -0.5062304 ]
 [ 0.23444827  0.07411888 -0.5656251   0.4100609   0.02156778  0.00194026
  -0.4453503  -0.25985593]
 [ 0.03911808  0.41365     0.40005657 -0.36426654  0.15705666  0.20776007
  -0.0683714   0.00119605]
 [ 0.35758778  0.11111142  0.05955703 -0.09593705 -0.23548137  0.21103637
  -0.03138388 -0.08890072]] 
Episode: 14: [[-0.11649667  0.01918503 -0.5486375   0.5080855   0.5147536   0.34271014
  -0.09805883  0.36972645]
 [-0.31287375  0.4729509  -0.44070682 -0.4904909  -0.10482257  0.5312401
  -0.33566955 -0.35339358]
 [ 0.45142373 -0.07081959 -0.16514593  0.05238764  0.38095844 -0.33493564
   0.3099484  -0.08199146]
 [-0.33293104  0.18539287 -0.3864072  -0.08661058  0.56872404  0.22681153
  -0.2919255   0.23403333]
 [ 0.28799024  0.49685922 -0.52026755 -0.49073985  0.25679123  0.5170866
  -0.15645286 -0.3217946 ]
 [ 0.32144564  0.16042511 -0.33773187  0.23596756  0.5319936  -0.50870615
  -0.18947709 -0.5062304 ]
 [ 0.23444827  0.07411888 -0.5656251   0.4100609   0.02156778  0.00194026
  -0.4453503  -0.25985593]
 [ 0.03911808  0.41365     0.40005657 -0.36426654  0.15705666  0.20776007
  -0.0683714   0.00119605]
 [ 0.35758778  0.11111142  0.05955703 -0.09593705 -0.23548137  0.21103637
  -0.03138388 -0.08890072]] 
Episode: 15: [[-0.11649667  0.01918503 -0.5486375   0.5080855   0.5147536   0.34271014
  -0.09805883  0.36972645]
 [-0.31287375  0.4729509  -0.44070682 -0.4904909  -0.10482257  0.5312401
  -0.33566955 -0.35339358]
 [ 0.45142373 -0.07081959 -0.16514593  0.05238764  0.38095844 -0.33493564
   0.3099484  -0.08199146]
 [-0.33293104  0.18539287 -0.3864072  -0.08661058  0.56872404  0.22681153
  -0.2919255   0.23403333]
 [ 0.28799024  0.49685922 -0.52026755 -0.49073985  0.25679123  0.5170866
  -0.15645286 -0.3217946 ]
 [ 0.32144564  0.16042511 -0.33773187  0.23596756  0.5319936  -0.50870615
  -0.18947709 -0.5062304 ]
 [ 0.23444827  0.07411888 -0.5656251   0.4100609   0.02156778  0.00194026
  -0.4453503  -0.25985593]
 [ 0.03911808  0.41365     0.40005657 -0.36426654  0.15705666  0.20776007
  -0.0683714   0.00119605]
 [ 0.35758778  0.11111142  0.05955703 -0.09593705 -0.23548137  0.21103637
  -0.03138388 -0.08890072]] 
Episode: 16: [[-0.11649667  0.01918503 -0.5486375   0.5080855   0.5147536   0.34271014
  -0.09805883  0.36972645]
 [-0.31287375  0.4729509  -0.44070682 -0.4904909  -0.10482257  0.5312401
  -0.33566955 -0.35339358]
 [ 0.45142373 -0.07081959 -0.16514593  0.05238764  0.38095844 -0.33493564
   0.3099484  -0.08199146]
 [-0.33293104  0.18539287 -0.3864072  -0.08661058  0.56872404  0.22681153
  -0.2919255   0.23403333]
 [ 0.28799024  0.49685922 -0.52026755 -0.49073985  0.25679123  0.5170866
  -0.15645286 -0.3217946 ]
 [ 0.32144564  0.16042511 -0.33773187  0.23596756  0.5319936  -0.50870615
  -0.18947709 -0.5062304 ]
 [ 0.23444827  0.07411888 -0.5656251   0.4100609   0.02156778  0.00194026
  -0.4453503  -0.25985593]
 [ 0.03911808  0.41365     0.40005657 -0.36426654  0.15705666  0.20776007
  -0.0683714   0.00119605]
 [ 0.35758778  0.11111142  0.05955703 -0.09593705 -0.23548137  0.21103637
  -0.03138388 -0.08890072]] 
Episode: 17: [[-0.11649667  0.01918503 -0.5486375   0.5080855   0.5147536   0.34271014
  -0.09805883  0.36972645]
 [-0.31287375  0.4729509  -0.44070682 -0.4904909  -0.10482257  0.5312401
  -0.33566955 -0.35339358]
 [ 0.45142373 -0.07081959 -0.16514593  0.05238764  0.38095844 -0.33493564
   0.3099484  -0.08199146]
 [-0.33293104  0.18539287 -0.3864072  -0.08661058  0.56872404  0.22681153
  -0.2919255   0.23403333]
 [ 0.28799024  0.49685922 -0.52026755 -0.49073985  0.25679123  0.5170866
  -0.15645286 -0.3217946 ]
 [ 0.32144564  0.16042511 -0.33773187  0.23596756  0.5319936  -0.50870615
  -0.18947709 -0.5062304 ]
 [ 0.23444827  0.07411888 -0.5656251   0.4100609   0.02156778  0.00194026
  -0.4453503  -0.25985593]
 [ 0.03911808  0.41365     0.40005657 -0.36426654  0.15705666  0.20776007
  -0.0683714   0.00119605]
 [ 0.35758778  0.11111142  0.05955703 -0.09593705 -0.23548137  0.21103637
  -0.03138388 -0.08890072]] 
Episode: 18: [[-0.11649667  0.01918503 -0.5486375   0.5080855   0.5147536   0.34271014
  -0.09805883  0.36972645]
 [-0.31287375  0.4729509  -0.44070682 -0.4904909  -0.10482257  0.5312401
  -0.33566955 -0.35339358]
 [ 0.45142373 -0.07081959 -0.16514593  0.05238764  0.38095844 -0.33493564
   0.3099484  -0.08199146]
 [-0.33293104  0.18539287 -0.3864072  -0.08661058  0.56872404  0.22681153
  -0.2919255   0.23403333]
 [ 0.28799024  0.49685922 -0.52026755 -0.49073985  0.25679123  0.5170866
  -0.15645286 -0.3217946 ]
 [ 0.32144564  0.16042511 -0.33773187  0.23596756  0.5319936  -0.50870615
  -0.18947709 -0.5062304 ]
 [ 0.23444827  0.07411888 -0.5656251   0.4100609   0.02156778  0.00194026
  -0.4453503  -0.25985593]
 [ 0.03911808  0.41365     0.40005657 -0.36426654  0.15705666  0.20776007
  -0.0683714   0.00119605]
 [ 0.35758778  0.11111142  0.05955703 -0.09593705 -0.23548137  0.21103637
  -0.03138388 -0.08890072]] 
Episode: 19: [[-0.11649667  0.01918503 -0.5486375   0.5080855   0.5147536   0.34271014
  -0.09805883  0.36972645]
 [-0.31287375  0.4729509  -0.44070682 -0.4904909  -0.10482257  0.5312401
  -0.33566955 -0.35339358]
 [ 0.45142373 -0.07081959 -0.16514593  0.05238764  0.38095844 -0.33493564
   0.3099484  -0.08199146]
 [-0.33293104  0.18539287 -0.3864072  -0.08661058  0.56872404  0.22681153
  -0.2919255   0.23403333]
 [ 0.28799024  0.49685922 -0.52026755 -0.49073985  0.25679123  0.5170866
  -0.15645286 -0.3217946 ]
 [ 0.32144564  0.16042511 -0.33773187  0.23596756  0.5319936  -0.50870615
  -0.18947709 -0.5062304 ]
 [ 0.23444827  0.07411888 -0.5656251   0.4100609   0.02156778  0.00194026
  -0.4453503  -0.25985593]
 [ 0.03911808  0.41365     0.40005657 -0.36426654  0.15705666  0.20776007
  -0.0683714   0.00119605]
 [ 0.35758778  0.11111142  0.05955703 -0.09593705 -0.23548137  0.21103637
  -0.03138388 -0.08890072]] 
Episode: 20: [[-0.11649667  0.01918503 -0.5486375   0.5080855   0.5147536   0.34271014
  -0.09805883  0.36972645]
 [-0.31287375  0.4729509  -0.44070682 -0.4904909  -0.10482257  0.5312401
  -0.33566955 -0.35339358]
 [ 0.45142373 -0.07081959 -0.16514593  0.05238764  0.38095844 -0.33493564
   0.3099484  -0.08199146]
 [-0.33293104  0.18539287 -0.3864072  -0.08661058  0.56872404  0.22681153
  -0.2919255   0.23403333]
 [ 0.28799024  0.49685922 -0.52026755 -0.49073985  0.25679123  0.5170866
  -0.15645286 -0.3217946 ]
 [ 0.32144564  0.16042511 -0.33773187  0.23596756  0.5319936  -0.50870615
  -0.18947709 -0.5062304 ]
 [ 0.23444827  0.07411888 -0.5656251   0.4100609   0.02156778  0.00194026
  -0.4453503  -0.25985593]
 [ 0.03911808  0.41365     0.40005657 -0.36426654  0.15705666  0.20776007
  -0.0683714   0.00119605]
 [ 0.35758778  0.11111142  0.05955703 -0.09593705 -0.23548137  0.21103637
  -0.03138388 -0.08890072]] 
Episode: 21: [[-0.11649667  0.01918503 -0.5486375   0.5080855   0.5147536   0.34271014
  -0.09805883  0.36972645]
 [-0.31287375  0.4729509  -0.44070682 -0.4904909  -0.10482257  0.5312401
  -0.33566955 -0.35339358]
 [ 0.45142373 -0.07081959 -0.16514593  0.05238764  0.38095844 -0.33493564
   0.3099484  -0.08199146]
 [-0.33293104  0.18539287 -0.3864072  -0.08661058  0.56872404  0.22681153
  -0.2919255   0.23403333]
 [ 0.28799024  0.49685922 -0.52026755 -0.49073985  0.25679123  0.5170866
  -0.15645286 -0.3217946 ]
 [ 0.32144564  0.16042511 -0.33773187  0.23596756  0.5319936  -0.50870615
  -0.18947709 -0.5062304 ]
 [ 0.23444827  0.07411888 -0.5656251   0.4100609   0.02156778  0.00194026
  -0.4453503  -0.25985593]
 [ 0.03911808  0.41365     0.40005657 -0.36426654  0.15705666  0.20776007
  -0.0683714   0.00119605]
 [ 0.35758778  0.11111142  0.05955703 -0.09593705 -0.23548137  0.21103637
  -0.03138388 -0.08890072]] 
Episode: 22: [[-0.11649667  0.01918503 -0.5486375   0.5080855   0.5147536   0.34271014
  -0.09805883  0.36972645]
 [-0.31287375  0.4729509  -0.44070682 -0.4904909  -0.10482257  0.5312401
  -0.33566955 -0.35339358]
 [ 0.45142373 -0.07081959 -0.16514593  0.05238764  0.38095844 -0.33493564
   0.3099484  -0.08199146]
 [-0.33293104  0.18539287 -0.3864072  -0.08661058  0.56872404  0.22681153
  -0.2919255   0.23403333]
 [ 0.28799024  0.49685922 -0.52026755 -0.49073985  0.25679123  0.5170866
  -0.15645286 -0.3217946 ]
 [ 0.32144564  0.16042511 -0.33773187  0.23596756  0.5319936  -0.50870615
  -0.18947709 -0.5062304 ]
 [ 0.23444827  0.07411888 -0.5656251   0.4100609   0.02156778  0.00194026
  -0.4453503  -0.25985593]
 [ 0.03911808  0.41365     0.40005657 -0.36426654  0.15705666  0.20776007
  -0.0683714   0.00119605]
 [ 0.35758778  0.11111142  0.05955703 -0.09593705 -0.23548137  0.21103637
  -0.03138388 -0.08890072]] 
Episode: 23: [[-0.11649667  0.01918503 -0.5486375   0.5080855   0.5147536   0.34271014
  -0.09805883  0.36972645]
 [-0.31287375  0.4729509  -0.44070682 -0.4904909  -0.10482257  0.5312401
  -0.33566955 -0.35339358]
 [ 0.45142373 -0.07081959 -0.16514593  0.05238764  0.38095844 -0.33493564
   0.3099484  -0.08199146]
 [-0.33293104  0.18539287 -0.3864072  -0.08661058  0.56872404  0.22681153
  -0.2919255   0.23403333]
 [ 0.28799024  0.49685922 -0.52026755 -0.49073985  0.25679123  0.5170866
  -0.15645286 -0.3217946 ]
 [ 0.32144564  0.16042511 -0.33773187  0.23596756  0.5319936  -0.50870615
  -0.18947709 -0.5062304 ]
 [ 0.23444827  0.07411888 -0.5656251   0.4100609   0.02156778  0.00194026
  -0.4453503  -0.25985593]
 [ 0.03911808  0.41365     0.40005657 -0.36426654  0.15705666  0.20776007
  -0.0683714   0.00119605]
 [ 0.35758778  0.11111142  0.05955703 -0.09593705 -0.23548137  0.21103637
  -0.03138388 -0.08890072]] 
Episode: 24: [[-0.11649667  0.01918503 -0.5486375   0.5080855   0.5147536   0.34271014
  -0.09805883  0.36972645]
 [-0.31287375  0.4729509  -0.44070682 -0.4904909  -0.10482257  0.5312401
  -0.33566955 -0.35339358]
 [ 0.45142373 -0.07081959 -0.16514593  0.05238764  0.38095844 -0.33493564
   0.3099484  -0.08199146]
 [-0.33293104  0.18539287 -0.3864072  -0.08661058  0.56872404  0.22681153
  -0.2919255   0.23403333]
 [ 0.28799024  0.49685922 -0.52026755 -0.49073985  0.25679123  0.5170866
  -0.15645286 -0.3217946 ]
 [ 0.32144564  0.16042511 -0.33773187  0.23596756  0.5319936  -0.50870615
  -0.18947709 -0.5062304 ]
 [ 0.23444827  0.07411888 -0.5656251   0.4100609   0.02156778  0.00194026
  -0.4453503  -0.25985593]
 [ 0.03911808  0.41365     0.40005657 -0.36426654  0.15705666  0.20776007
  -0.0683714   0.00119605]
 [ 0.35758778  0.11111142  0.05955703 -0.09593705 -0.23548137  0.21103637
  -0.03138388 -0.08890072]] 
Episode: 25: [[-0.11649667  0.01918503 -0.5486375   0.5080855   0.5147536   0.34271014
  -0.09805883  0.36972645]
 [-0.31287375  0.4729509  -0.44070682 -0.4904909  -0.10482257  0.5312401
  -0.33566955 -0.35339358]
 [ 0.45142373 -0.07081959 -0.16514593  0.05238764  0.38095844 -0.33493564
   0.3099484  -0.08199146]
 [-0.33293104  0.18539287 -0.3864072  -0.08661058  0.56872404  0.22681153
  -0.2919255   0.23403333]
 [ 0.28799024  0.49685922 -0.52026755 -0.49073985  0.25679123  0.5170866
  -0.15645286 -0.3217946 ]
 [ 0.32144564  0.16042511 -0.33773187  0.23596756  0.5319936  -0.50870615
  -0.18947709 -0.5062304 ]
 [ 0.23444827  0.07411888 -0.5656251   0.4100609   0.02156778  0.00194026
  -0.4453503  -0.25985593]
 [ 0.03911808  0.41365     0.40005657 -0.36426654  0.15705666  0.20776007
  -0.0683714   0.00119605]
 [ 0.35758778  0.11111142  0.05955703 -0.09593705 -0.23548137  0.21103637
  -0.03138388 -0.08890072]] 
Episode: 26: [[-0.11649667  0.01918503 -0.5486375   0.5080855   0.5147536   0.34271014
  -0.09805883  0.36972645]
 [-0.31287375  0.4729509  -0.44070682 -0.4904909  -0.10482257  0.5312401
  -0.33566955 -0.35339358]
 [ 0.45142373 -0.07081959 -0.16514593  0.05238764  0.38095844 -0.33493564
   0.3099484  -0.08199146]
 [-0.33293104  0.18539287 -0.3864072  -0.08661058  0.56872404  0.22681153
  -0.2919255   0.23403333]
 [ 0.28799024  0.49685922 -0.52026755 -0.49073985  0.25679123  0.5170866
  -0.15645286 -0.3217946 ]
 [ 0.32144564  0.16042511 -0.33773187  0.23596756  0.5319936  -0.50870615
  -0.18947709 -0.5062304 ]
 [ 0.23444827  0.07411888 -0.5656251   0.4100609   0.02156778  0.00194026
  -0.4453503  -0.25985593]
 [ 0.03911808  0.41365     0.40005657 -0.36426654  0.15705666  0.20776007
  -0.0683714   0.00119605]
 [ 0.35758778  0.11111142  0.05955703 -0.09593705 -0.23548137  0.21103637
  -0.03138388 -0.08890072]] 
Episode: 27: [[-0.11649667  0.01918503 -0.5486375   0.5080855   0.5147536   0.34271014
  -0.09805883  0.36972645]
 [-0.31287375  0.4729509  -0.44070682 -0.4904909  -0.10482257  0.5312401
  -0.33566955 -0.35339358]
 [ 0.45142373 -0.07081959 -0.16514593  0.05238764  0.38095844 -0.33493564
   0.3099484  -0.08199146]
 [-0.33293104  0.18539287 -0.3864072  -0.08661058  0.56872404  0.22681153
  -0.2919255   0.23403333]
 [ 0.28799024  0.49685922 -0.52026755 -0.49073985  0.25679123  0.5170866
  -0.15645286 -0.3217946 ]
 [ 0.32144564  0.16042511 -0.33773187  0.23596756  0.5319936  -0.50870615
  -0.18947709 -0.5062304 ]
 [ 0.23444827  0.07411888 -0.5656251   0.4100609   0.02156778  0.00194026
  -0.4453503  -0.25985593]
 [ 0.03911808  0.41365     0.40005657 -0.36426654  0.15705666  0.20776007
  -0.0683714   0.00119605]
 [ 0.35758778  0.11111142  0.05955703 -0.09593705 -0.23548137  0.21103637
  -0.03138388 -0.08890072]] 
Episode: 28: [[-0.11649667  0.01918503 -0.5486375   0.5080855   0.5147536   0.34271014
  -0.09805883  0.36972645]
 [-0.31287375  0.4729509  -0.44070682 -0.4904909  -0.10482257  0.5312401
  -0.33566955 -0.35339358]
 [ 0.45142373 -0.07081959 -0.16514593  0.05238764  0.38095844 -0.33493564
   0.3099484  -0.08199146]
 [-0.33293104  0.18539287 -0.3864072  -0.08661058  0.56872404  0.22681153
  -0.2919255   0.23403333]
 [ 0.28799024  0.49685922 -0.52026755 -0.49073985  0.25679123  0.5170866
  -0.15645286 -0.3217946 ]
 [ 0.32144564  0.16042511 -0.33773187  0.23596756  0.5319936  -0.50870615
  -0.18947709 -0.5062304 ]
 [ 0.23444827  0.07411888 -0.5656251   0.4100609   0.02156778  0.00194026
  -0.4453503  -0.25985593]
 [ 0.03911808  0.41365     0.40005657 -0.36426654  0.15705666  0.20776007
  -0.0683714   0.00119605]
 [ 0.35758778  0.11111142  0.05955703 -0.09593705 -0.23548137  0.21103637
  -0.03138388 -0.08890072]] 
Episode: 29: [[-0.11649667  0.01918503 -0.5486375   0.5080855   0.5147536   0.34271014
  -0.09805883  0.36972645]
 [-0.31287375  0.4729509  -0.44070682 -0.4904909  -0.10482257  0.5312401
  -0.33566955 -0.35339358]
 [ 0.45142373 -0.07081959 -0.16514593  0.05238764  0.38095844 -0.33493564
   0.3099484  -0.08199146]
 [-0.33293104  0.18539287 -0.3864072  -0.08661058  0.56872404  0.22681153
  -0.2919255   0.23403333]
 [ 0.28799024  0.49685922 -0.52026755 -0.49073985  0.25679123  0.5170866
  -0.15645286 -0.3217946 ]
 [ 0.32144564  0.16042511 -0.33773187  0.23596756  0.5319936  -0.50870615
  -0.18947709 -0.5062304 ]
 [ 0.23444827  0.07411888 -0.5656251   0.4100609   0.02156778  0.00194026
  -0.4453503  -0.25985593]
 [ 0.03911808  0.41365     0.40005657 -0.36426654  0.15705666  0.20776007
  -0.0683714   0.00119605]
 [ 0.35758778  0.11111142  0.05955703 -0.09593705 -0.23548137  0.21103637
  -0.03138388 -0.08890072]] 
Episode: 30: [[-0.11649667  0.01918503 -0.5486375   0.5080855   0.5147536   0.34271014
  -0.09805883  0.36972645]
 [-0.31287375  0.4729509  -0.44070682 -0.4904909  -0.10482257  0.5312401
  -0.33566955 -0.35339358]
 [ 0.45142373 -0.07081959 -0.16514593  0.05238764  0.38095844 -0.33493564
   0.3099484  -0.08199146]
 [-0.33293104  0.18539287 -0.3864072  -0.08661058  0.56872404  0.22681153
  -0.2919255   0.23403333]
 [ 0.28799024  0.49685922 -0.52026755 -0.49073985  0.25679123  0.5170866
  -0.15645286 -0.3217946 ]
 [ 0.32144564  0.16042511 -0.33773187  0.23596756  0.5319936  -0.50870615
  -0.18947709 -0.5062304 ]
 [ 0.23444827  0.07411888 -0.5656251   0.4100609   0.02156778  0.00194026
  -0.4453503  -0.25985593]
 [ 0.03911808  0.41365     0.40005657 -0.36426654  0.15705666  0.20776007
  -0.0683714   0.00119605]
 [ 0.35758778  0.11111142  0.05955703 -0.09593705 -0.23548137  0.21103637
  -0.03138388 -0.08890072]] 
Episode: 31: [[-0.11649667  0.01918503 -0.5486375   0.5080855   0.5147536   0.34271014
  -0.09805883  0.36972645]
 [-0.31287375  0.4729509  -0.44070682 -0.4904909  -0.10482257  0.5312401
  -0.33566955 -0.35339358]
 [ 0.45142373 -0.07081959 -0.16514593  0.05238764  0.38095844 -0.33493564
   0.3099484  -0.08199146]
 [-0.33293104  0.18539287 -0.3864072  -0.08661058  0.56872404  0.22681153
  -0.2919255   0.23403333]
 [ 0.28799024  0.49685922 -0.52026755 -0.49073985  0.25679123  0.5170866
  -0.15645286 -0.3217946 ]
 [ 0.32144564  0.16042511 -0.33773187  0.23596756  0.5319936  -0.50870615
  -0.18947709 -0.5062304 ]
 [ 0.23444827  0.07411888 -0.5656251   0.4100609   0.02156778  0.00194026
  -0.4453503  -0.25985593]
 [ 0.03911808  0.41365     0.40005657 -0.36426654  0.15705666  0.20776007
  -0.0683714   0.00119605]
 [ 0.35758778  0.11111142  0.05955703 -0.09593705 -0.23548137  0.21103637
  -0.03138388 -0.08890072]] 
Episode: 32: [[-0.11649667  0.01918503 -0.5486375   0.5080855   0.5147536   0.34271014
  -0.09805883  0.36972645]
 [-0.31287375  0.4729509  -0.44070682 -0.4904909  -0.10482257  0.5312401
  -0.33566955 -0.35339358]
 [ 0.45142373 -0.07081959 -0.16514593  0.05238764  0.38095844 -0.33493564
   0.3099484  -0.08199146]
 [-0.33293104  0.18539287 -0.3864072  -0.08661058  0.56872404  0.22681153
  -0.2919255   0.23403333]
 [ 0.28799024  0.49685922 -0.52026755 -0.49073985  0.25679123  0.5170866
  -0.15645286 -0.3217946 ]
 [ 0.32144564  0.16042511 -0.33773187  0.23596756  0.5319936  -0.50870615
  -0.18947709 -0.5062304 ]
 [ 0.23444827  0.07411888 -0.5656251   0.4100609   0.02156778  0.00194026
  -0.4453503  -0.25985593]
 [ 0.03911808  0.41365     0.40005657 -0.36426654  0.15705666  0.20776007
  -0.0683714   0.00119605]
 [ 0.35758778  0.11111142  0.05955703 -0.09593705 -0.23548137  0.21103637
  -0.03138388 -0.08890072]] 
Episode: 33: [[-0.11649667  0.01918503 -0.5486375   0.5080855   0.5147536   0.34271014
  -0.09805883  0.36972645]
 [-0.31287375  0.4729509  -0.44070682 -0.4904909  -0.10482257  0.5312401
  -0.33566955 -0.35339358]
 [ 0.45142373 -0.07081959 -0.16514593  0.05238764  0.38095844 -0.33493564
   0.3099484  -0.08199146]
 [-0.33293104  0.18539287 -0.3864072  -0.08661058  0.56872404  0.22681153
  -0.2919255   0.23403333]
 [ 0.28799024  0.49685922 -0.52026755 -0.49073985  0.25679123  0.5170866
  -0.15645286 -0.3217946 ]
 [ 0.32144564  0.16042511 -0.33773187  0.23596756  0.5319936  -0.50870615
  -0.18947709 -0.5062304 ]
 [ 0.23444827  0.07411888 -0.5656251   0.4100609   0.02156778  0.00194026
  -0.4453503  -0.25985593]
 [ 0.03911808  0.41365     0.40005657 -0.36426654  0.15705666  0.20776007
  -0.0683714   0.00119605]
 [ 0.35758778  0.11111142  0.05955703 -0.09593705 -0.23548137  0.21103637
  -0.03138388 -0.08890072]] 
Episode: 34: [[-0.11649667  0.01918503 -0.5486375   0.5080855   0.5147536   0.34271014
  -0.09805883  0.36972645]
 [-0.31287375  0.4729509  -0.44070682 -0.4904909  -0.10482257  0.5312401
  -0.33566955 -0.35339358]
 [ 0.45142373 -0.07081959 -0.16514593  0.05238764  0.38095844 -0.33493564
   0.3099484  -0.08199146]
 [-0.33293104  0.18539287 -0.3864072  -0.08661058  0.56872404  0.22681153
  -0.2919255   0.23403333]
 [ 0.28799024  0.49685922 -0.52026755 -0.49073985  0.25679123  0.5170866
  -0.15645286 -0.3217946 ]
 [ 0.32144564  0.16042511 -0.33773187  0.23596756  0.5319936  -0.50870615
  -0.18947709 -0.5062304 ]
 [ 0.23444827  0.07411888 -0.5656251   0.4100609   0.02156778  0.00194026
  -0.4453503  -0.25985593]
 [ 0.03911808  0.41365     0.40005657 -0.36426654  0.15705666  0.20776007
  -0.0683714   0.00119605]
 [ 0.35758778  0.11111142  0.05955703 -0.09593705 -0.23548137  0.21103637
  -0.03138388 -0.08890072]] 
Episode: 35: [[-0.11649667  0.01918503 -0.5486375   0.5080855   0.5147536   0.34271014
  -0.09805883  0.36972645]
 [-0.31287375  0.4729509  -0.44070682 -0.4904909  -0.10482257  0.5312401
  -0.33566955 -0.35339358]
 [ 0.45142373 -0.07081959 -0.16514593  0.05238764  0.38095844 -0.33493564
   0.3099484  -0.08199146]
 [-0.33293104  0.18539287 -0.3864072  -0.08661058  0.56872404  0.22681153
  -0.2919255   0.23403333]
 [ 0.28799024  0.49685922 -0.52026755 -0.49073985  0.25679123  0.5170866
  -0.15645286 -0.3217946 ]
 [ 0.32144564  0.16042511 -0.33773187  0.23596756  0.5319936  -0.50870615
  -0.18947709 -0.5062304 ]
 [ 0.23444827  0.07411888 -0.5656251   0.4100609   0.02156778  0.00194026
  -0.4453503  -0.25985593]
 [ 0.03911808  0.41365     0.40005657 -0.36426654  0.15705666  0.20776007
  -0.0683714   0.00119605]
 [ 0.35758778  0.11111142  0.05955703 -0.09593705 -0.23548137  0.21103637
  -0.03138388 -0.08890072]] 
Episode: 36: [[-0.11649667  0.01918503 -0.5486375   0.5080855   0.5147536   0.34271014
  -0.09805883  0.36972645]
 [-0.31287375  0.4729509  -0.44070682 -0.4904909  -0.10482257  0.5312401
  -0.33566955 -0.35339358]
 [ 0.45142373 -0.07081959 -0.16514593  0.05238764  0.38095844 -0.33493564
   0.3099484  -0.08199146]
 [-0.33293104  0.18539287 -0.3864072  -0.08661058  0.56872404  0.22681153
  -0.2919255   0.23403333]
 [ 0.28799024  0.49685922 -0.52026755 -0.49073985  0.25679123  0.5170866
  -0.15645286 -0.3217946 ]
 [ 0.32144564  0.16042511 -0.33773187  0.23596756  0.5319936  -0.50870615
  -0.18947709 -0.5062304 ]
 [ 0.23444827  0.07411888 -0.5656251   0.4100609   0.02156778  0.00194026
  -0.4453503  -0.25985593]
 [ 0.03911808  0.41365     0.40005657 -0.36426654  0.15705666  0.20776007
  -0.0683714   0.00119605]
 [ 0.35758778  0.11111142  0.05955703 -0.09593705 -0.23548137  0.21103637
  -0.03138388 -0.08890072]] 
Episode: 37: [[-0.11649667  0.01918503 -0.5486375   0.5080855   0.5147536   0.34271014
  -0.09805883  0.36972645]
 [-0.31287375  0.4729509  -0.44070682 -0.4904909  -0.10482257  0.5312401
  -0.33566955 -0.35339358]
 [ 0.45142373 -0.07081959 -0.16514593  0.05238764  0.38095844 -0.33493564
   0.3099484  -0.08199146]
 [-0.33293104  0.18539287 -0.3864072  -0.08661058  0.56872404  0.22681153
  -0.2919255   0.23403333]
 [ 0.28799024  0.49685922 -0.52026755 -0.49073985  0.25679123  0.5170866
  -0.15645286 -0.3217946 ]
 [ 0.32144564  0.16042511 -0.33773187  0.23596756  0.5319936  -0.50870615
  -0.18947709 -0.5062304 ]
 [ 0.23444827  0.07411888 -0.5656251   0.4100609   0.02156778  0.00194026
  -0.4453503  -0.25985593]
 [ 0.03911808  0.41365     0.40005657 -0.36426654  0.15705666  0.20776007
  -0.0683714   0.00119605]
 [ 0.35758778  0.11111142  0.05955703 -0.09593705 -0.23548137  0.21103637
  -0.03138388 -0.08890072]] 
Episode: 38: [[-0.11649667  0.01918503 -0.5486375   0.5080855   0.5147536   0.34271014
  -0.09805883  0.36972645]
 [-0.31287375  0.4729509  -0.44070682 -0.4904909  -0.10482257  0.5312401
  -0.33566955 -0.35339358]
 [ 0.45142373 -0.07081959 -0.16514593  0.05238764  0.38095844 -0.33493564
   0.3099484  -0.08199146]
 [-0.33293104  0.18539287 -0.3864072  -0.08661058  0.56872404  0.22681153
  -0.2919255   0.23403333]
 [ 0.28799024  0.49685922 -0.52026755 -0.49073985  0.25679123  0.5170866
  -0.15645286 -0.3217946 ]
 [ 0.32144564  0.16042511 -0.33773187  0.23596756  0.5319936  -0.50870615
  -0.18947709 -0.5062304 ]
 [ 0.23444827  0.07411888 -0.5656251   0.4100609   0.02156778  0.00194026
  -0.4453503  -0.25985593]
 [ 0.03911808  0.41365     0.40005657 -0.36426654  0.15705666  0.20776007
  -0.0683714   0.00119605]
 [ 0.35758778  0.11111142  0.05955703 -0.09593705 -0.23548137  0.21103637
  -0.03138388 -0.08890072]] 
Episode: 39: [[-0.11649667  0.01918503 -0.5486375   0.5080855   0.5147536   0.34271014
  -0.09805883  0.36972645]
 [-0.31287375  0.4729509  -0.44070682 -0.4904909  -0.10482257  0.5312401
  -0.33566955 -0.35339358]
 [ 0.45142373 -0.07081959 -0.16514593  0.05238764  0.38095844 -0.33493564
   0.3099484  -0.08199146]
 [-0.33293104  0.18539287 -0.3864072  -0.08661058  0.56872404  0.22681153
  -0.2919255   0.23403333]
 [ 0.28799024  0.49685922 -0.52026755 -0.49073985  0.25679123  0.5170866
  -0.15645286 -0.3217946 ]
 [ 0.32144564  0.16042511 -0.33773187  0.23596756  0.5319936  -0.50870615
  -0.18947709 -0.5062304 ]
 [ 0.23444827  0.07411888 -0.5656251   0.4100609   0.02156778  0.00194026
  -0.4453503  -0.25985593]
 [ 0.03911808  0.41365     0.40005657 -0.36426654  0.15705666  0.20776007
  -0.0683714   0.00119605]
 [ 0.35758778  0.11111142  0.05955703 -0.09593705 -0.23548137  0.21103637
  -0.03138388 -0.08890072]] 
Episode: 40: [[-0.11649667  0.01918503 -0.5486375   0.5080855   0.5147536   0.34271014
  -0.09805883  0.36972645]
 [-0.31287375  0.4729509  -0.44070682 -0.4904909  -0.10482257  0.5312401
  -0.33566955 -0.35339358]
 [ 0.45142373 -0.07081959 -0.16514593  0.05238764  0.38095844 -0.33493564
   0.3099484  -0.08199146]
 [-0.33293104  0.18539287 -0.3864072  -0.08661058  0.56872404  0.22681153
  -0.2919255   0.23403333]
 [ 0.28799024  0.49685922 -0.52026755 -0.49073985  0.25679123  0.5170866
  -0.15645286 -0.3217946 ]
 [ 0.32144564  0.16042511 -0.33773187  0.23596756  0.5319936  -0.50870615
  -0.18947709 -0.5062304 ]
 [ 0.23444827  0.07411888 -0.5656251   0.4100609   0.02156778  0.00194026
  -0.4453503  -0.25985593]
 [ 0.03911808  0.41365     0.40005657 -0.36426654  0.15705666  0.20776007
  -0.0683714   0.00119605]
 [ 0.35758778  0.11111142  0.05955703 -0.09593705 -0.23548137  0.21103637
  -0.03138388 -0.08890072]] 
Episode: 41: [[-0.11649667  0.01918503 -0.5486375   0.5080855   0.5147536   0.34271014
  -0.09805883  0.36972645]
 [-0.31287375  0.4729509  -0.44070682 -0.4904909  -0.10482257  0.5312401
  -0.33566955 -0.35339358]
 [ 0.45142373 -0.07081959 -0.16514593  0.05238764  0.38095844 -0.33493564
   0.3099484  -0.08199146]
 [-0.33293104  0.18539287 -0.3864072  -0.08661058  0.56872404  0.22681153
  -0.2919255   0.23403333]
 [ 0.28799024  0.49685922 -0.52026755 -0.49073985  0.25679123  0.5170866
  -0.15645286 -0.3217946 ]
 [ 0.32144564  0.16042511 -0.33773187  0.23596756  0.5319936  -0.50870615
  -0.18947709 -0.5062304 ]
 [ 0.23444827  0.07411888 -0.5656251   0.4100609   0.02156778  0.00194026
  -0.4453503  -0.25985593]
 [ 0.03911808  0.41365     0.40005657 -0.36426654  0.15705666  0.20776007
  -0.0683714   0.00119605]
 [ 0.35758778  0.11111142  0.05955703 -0.09593705 -0.23548137  0.21103637
  -0.03138388 -0.08890072]] 
Episode: 42: [[-0.11649667  0.01918503 -0.5486375   0.5080855   0.5147536   0.34271014
  -0.09805883  0.36972645]
 [-0.31287375  0.4729509  -0.44070682 -0.4904909  -0.10482257  0.5312401
  -0.33566955 -0.35339358]
 [ 0.45142373 -0.07081959 -0.16514593  0.05238764  0.38095844 -0.33493564
   0.3099484  -0.08199146]
 [-0.33293104  0.18539287 -0.3864072  -0.08661058  0.56872404  0.22681153
  -0.2919255   0.23403333]
 [ 0.28799024  0.49685922 -0.52026755 -0.49073985  0.25679123  0.5170866
  -0.15645286 -0.3217946 ]
 [ 0.32144564  0.16042511 -0.33773187  0.23596756  0.5319936  -0.50870615
  -0.18947709 -0.5062304 ]
 [ 0.23444827  0.07411888 -0.5656251   0.4100609   0.02156778  0.00194026
  -0.4453503  -0.25985593]
 [ 0.03911808  0.41365     0.40005657 -0.36426654  0.15705666  0.20776007
  -0.0683714   0.00119605]
 [ 0.35758778  0.11111142  0.05955703 -0.09593705 -0.23548137  0.21103637
  -0.03138388 -0.08890072]] 
Episode: 43: [[-0.11649667  0.01918503 -0.5486375   0.5080855   0.5147536   0.34271014
  -0.09805883  0.36972645]
 [-0.31287375  0.4729509  -0.44070682 -0.4904909  -0.10482257  0.5312401
  -0.33566955 -0.35339358]
 [ 0.45142373 -0.07081959 -0.16514593  0.05238764  0.38095844 -0.33493564
   0.3099484  -0.08199146]
 [-0.33293104  0.18539287 -0.3864072  -0.08661058  0.56872404  0.22681153
  -0.2919255   0.23403333]
 [ 0.28799024  0.49685922 -0.52026755 -0.49073985  0.25679123  0.5170866
  -0.15645286 -0.3217946 ]
 [ 0.32144564  0.16042511 -0.33773187  0.23596756  0.5319936  -0.50870615
  -0.18947709 -0.5062304 ]
 [ 0.23444827  0.07411888 -0.5656251   0.4100609   0.02156778  0.00194026
  -0.4453503  -0.25985593]
 [ 0.03911808  0.41365     0.40005657 -0.36426654  0.15705666  0.20776007
  -0.0683714   0.00119605]
 [ 0.35758778  0.11111142  0.05955703 -0.09593705 -0.23548137  0.21103637
  -0.03138388 -0.08890072]] 
Episode: 44: [[-0.11649667  0.01918503 -0.5486375   0.5080855   0.5147536   0.34271014
  -0.09805883  0.36972645]
 [-0.31287375  0.4729509  -0.44070682 -0.4904909  -0.10482257  0.5312401
  -0.33566955 -0.35339358]
 [ 0.45142373 -0.07081959 -0.16514593  0.05238764  0.38095844 -0.33493564
   0.3099484  -0.08199146]
 [-0.33293104  0.18539287 -0.3864072  -0.08661058  0.56872404  0.22681153
  -0.2919255   0.23403333]
 [ 0.28799024  0.49685922 -0.52026755 -0.49073985  0.25679123  0.5170866
  -0.15645286 -0.3217946 ]
 [ 0.32144564  0.16042511 -0.33773187  0.23596756  0.5319936  -0.50870615
  -0.18947709 -0.5062304 ]
 [ 0.23444827  0.07411888 -0.5656251   0.4100609   0.02156778  0.00194026
  -0.4453503  -0.25985593]
 [ 0.03911808  0.41365     0.40005657 -0.36426654  0.15705666  0.20776007
  -0.0683714   0.00119605]
 [ 0.35758778  0.11111142  0.05955703 -0.09593705 -0.23548137  0.21103637
  -0.03138388 -0.08890072]] 
Episode: 45: [[-0.11649667  0.01918503 -0.5486375   0.5080855   0.5147536   0.34271014
  -0.09805883  0.36972645]
 [-0.31287375  0.4729509  -0.44070682 -0.4904909  -0.10482257  0.5312401
  -0.33566955 -0.35339358]
 [ 0.45142373 -0.07081959 -0.16514593  0.05238764  0.38095844 -0.33493564
   0.3099484  -0.08199146]
 [-0.33293104  0.18539287 -0.3864072  -0.08661058  0.56872404  0.22681153
  -0.2919255   0.23403333]
 [ 0.28799024  0.49685922 -0.52026755 -0.49073985  0.25679123  0.5170866
  -0.15645286 -0.3217946 ]
 [ 0.32144564  0.16042511 -0.33773187  0.23596756  0.5319936  -0.50870615
  -0.18947709 -0.5062304 ]
 [ 0.23444827  0.07411888 -0.5656251   0.4100609   0.02156778  0.00194026
  -0.4453503  -0.25985593]
 [ 0.03911808  0.41365     0.40005657 -0.36426654  0.15705666  0.20776007
  -0.0683714   0.00119605]
 [ 0.35758778  0.11111142  0.05955703 -0.09593705 -0.23548137  0.21103637
  -0.03138388 -0.08890072]] 
Episode: 46: [[-0.11649667  0.01918503 -0.5486375   0.5080855   0.5147536   0.34271014
  -0.09805883  0.36972645]
 [-0.31287375  0.4729509  -0.44070682 -0.4904909  -0.10482257  0.5312401
  -0.33566955 -0.35339358]
 [ 0.45142373 -0.07081959 -0.16514593  0.05238764  0.38095844 -0.33493564
   0.3099484  -0.08199146]
 [-0.33293104  0.18539287 -0.3864072  -0.08661058  0.56872404  0.22681153
  -0.2919255   0.23403333]
 [ 0.28799024  0.49685922 -0.52026755 -0.49073985  0.25679123  0.5170866
  -0.15645286 -0.3217946 ]
 [ 0.32144564  0.16042511 -0.33773187  0.23596756  0.5319936  -0.50870615
  -0.18947709 -0.5062304 ]
 [ 0.23444827  0.07411888 -0.5656251   0.4100609   0.02156778  0.00194026
  -0.4453503  -0.25985593]
 [ 0.03911808  0.41365     0.40005657 -0.36426654  0.15705666  0.20776007
  -0.0683714   0.00119605]
 [ 0.35758778  0.11111142  0.05955703 -0.09593705 -0.23548137  0.21103637
  -0.03138388 -0.08890072]] 
Episode: 47: [[-0.11649667  0.01918503 -0.5486375   0.5080855   0.5147536   0.34271014
  -0.09805883  0.36972645]
 [-0.31287375  0.4729509  -0.44070682 -0.4904909  -0.10482257  0.5312401
  -0.33566955 -0.35339358]
 [ 0.45142373 -0.07081959 -0.16514593  0.05238764  0.38095844 -0.33493564
   0.3099484  -0.08199146]
 [-0.33293104  0.18539287 -0.3864072  -0.08661058  0.56872404  0.22681153
  -0.2919255   0.23403333]
 [ 0.28799024  0.49685922 -0.52026755 -0.49073985  0.25679123  0.5170866
  -0.15645286 -0.3217946 ]
 [ 0.32144564  0.16042511 -0.33773187  0.23596756  0.5319936  -0.50870615
  -0.18947709 -0.5062304 ]
 [ 0.23444827  0.07411888 -0.5656251   0.4100609   0.02156778  0.00194026
  -0.4453503  -0.25985593]
 [ 0.03911808  0.41365     0.40005657 -0.36426654  0.15705666  0.20776007
  -0.0683714   0.00119605]
 [ 0.35758778  0.11111142  0.05955703 -0.09593705 -0.23548137  0.21103637
  -0.03138388 -0.08890072]] 
Episode: 48: [[-0.11649667  0.01918503 -0.5486375   0.5080855   0.5147536   0.34271014
  -0.09805883  0.36972645]
 [-0.31287375  0.4729509  -0.44070682 -0.4904909  -0.10482257  0.5312401
  -0.33566955 -0.35339358]
 [ 0.45142373 -0.07081959 -0.16514593  0.05238764  0.38095844 -0.33493564
   0.3099484  -0.08199146]
 [-0.33293104  0.18539287 -0.3864072  -0.08661058  0.56872404  0.22681153
  -0.2919255   0.23403333]
 [ 0.28799024  0.49685922 -0.52026755 -0.49073985  0.25679123  0.5170866
  -0.15645286 -0.3217946 ]
 [ 0.32144564  0.16042511 -0.33773187  0.23596756  0.5319936  -0.50870615
  -0.18947709 -0.5062304 ]
 [ 0.23444827  0.07411888 -0.5656251   0.4100609   0.02156778  0.00194026
  -0.4453503  -0.25985593]
 [ 0.03911808  0.41365     0.40005657 -0.36426654  0.15705666  0.20776007
  -0.0683714   0.00119605]
 [ 0.35758778  0.11111142  0.05955703 -0.09593705 -0.23548137  0.21103637
  -0.03138388 -0.08890072]] 
Episode: 49: [[-0.11649667  0.01918503 -0.5486375   0.5080855   0.5147536   0.34271014
  -0.09805883  0.36972645]
 [-0.31287375  0.4729509  -0.44070682 -0.4904909  -0.10482257  0.5312401
  -0.33566955 -0.35339358]
 [ 0.45142373 -0.07081959 -0.16514593  0.05238764  0.38095844 -0.33493564
   0.3099484  -0.08199146]
 [-0.33293104  0.18539287 -0.3864072  -0.08661058  0.56872404  0.22681153
  -0.2919255   0.23403333]
 [ 0.28799024  0.49685922 -0.52026755 -0.49073985  0.25679123  0.5170866
  -0.15645286 -0.3217946 ]
 [ 0.32144564  0.16042511 -0.33773187  0.23596756  0.5319936  -0.50870615
  -0.18947709 -0.5062304 ]
 [ 0.23444827  0.07411888 -0.5656251   0.4100609   0.02156778  0.00194026
  -0.4453503  -0.25985593]
 [ 0.03911808  0.41365     0.40005657 -0.36426654  0.15705666  0.20776007
  -0.0683714   0.00119605]
 [ 0.35758778  0.11111142  0.05955703 -0.09593705 -0.23548137  0.21103637
  -0.03138388 -0.08890072]] 
Episode: 50: [[-0.11649667  0.01918503 -0.5486375   0.5080855   0.5147536   0.34271014
  -0.09805883  0.36972645]
 [-0.31287375  0.4729509  -0.44070682 -0.4904909  -0.10482257  0.5312401
  -0.33566955 -0.35339358]
 [ 0.45142373 -0.07081959 -0.16514593  0.05238764  0.38095844 -0.33493564
   0.3099484  -0.08199146]
 [-0.33293104  0.18539287 -0.3864072  -0.08661058  0.56872404  0.22681153
  -0.2919255   0.23403333]
 [ 0.28799024  0.49685922 -0.52026755 -0.49073985  0.25679123  0.5170866
  -0.15645286 -0.3217946 ]
 [ 0.32144564  0.16042511 -0.33773187  0.23596756  0.5319936  -0.50870615
  -0.18947709 -0.5062304 ]
 [ 0.23444827  0.07411888 -0.5656251   0.4100609   0.02156778  0.00194026
  -0.4453503  -0.25985593]
 [ 0.03911808  0.41365     0.40005657 -0.36426654  0.15705666  0.20776007
  -0.0683714   0.00119605]
 [ 0.35758778  0.11111142  0.05955703 -0.09593705 -0.23548137  0.21103637
  -0.03138388 -0.08890072]] 
Episode: 51: [[-0.11649667  0.01918503 -0.5486375   0.5080855   0.5147536   0.34271014
  -0.09805883  0.36972645]
 [-0.31287375  0.4729509  -0.44070682 -0.4904909  -0.10482257  0.5312401
  -0.33566955 -0.35339358]
 [ 0.45142373 -0.07081959 -0.16514593  0.05238764  0.38095844 -0.33493564
   0.3099484  -0.08199146]
 [-0.33293104  0.18539287 -0.3864072  -0.08661058  0.56872404  0.22681153
  -0.2919255   0.23403333]
 [ 0.28799024  0.49685922 -0.52026755 -0.49073985  0.25679123  0.5170866
  -0.15645286 -0.3217946 ]
 [ 0.32144564  0.16042511 -0.33773187  0.23596756  0.5319936  -0.50870615
  -0.18947709 -0.5062304 ]
 [ 0.23444827  0.07411888 -0.5656251   0.4100609   0.02156778  0.00194026
  -0.4453503  -0.25985593]
 [ 0.03911808  0.41365     0.40005657 -0.36426654  0.15705666  0.20776007
  -0.0683714   0.00119605]
 [ 0.35758778  0.11111142  0.05955703 -0.09593705 -0.23548137  0.21103637
  -0.03138388 -0.08890072]] 
Episode: 52: [[-0.11649667  0.01918503 -0.5486375   0.5080855   0.5147536   0.34271014
  -0.09805883  0.36972645]
 [-0.31287375  0.4729509  -0.44070682 -0.4904909  -0.10482257  0.5312401
  -0.33566955 -0.35339358]
 [ 0.45142373 -0.07081959 -0.16514593  0.05238764  0.38095844 -0.33493564
   0.3099484  -0.08199146]
 [-0.33293104  0.18539287 -0.3864072  -0.08661058  0.56872404  0.22681153
  -0.2919255   0.23403333]
 [ 0.28799024  0.49685922 -0.52026755 -0.49073985  0.25679123  0.5170866
  -0.15645286 -0.3217946 ]
 [ 0.32144564  0.16042511 -0.33773187  0.23596756  0.5319936  -0.50870615
  -0.18947709 -0.5062304 ]
 [ 0.23444827  0.07411888 -0.5656251   0.4100609   0.02156778  0.00194026
  -0.4453503  -0.25985593]
 [ 0.03911808  0.41365     0.40005657 -0.36426654  0.15705666  0.20776007
  -0.0683714   0.00119605]
 [ 0.35758778  0.11111142  0.05955703 -0.09593705 -0.23548137  0.21103637
  -0.03138388 -0.08890072]] 
Episode: 53: [[-0.11649667  0.01918503 -0.5486375   0.5080855   0.5147536   0.34271014
  -0.09805883  0.36972645]
 [-0.31287375  0.4729509  -0.44070682 -0.4904909  -0.10482257  0.5312401
  -0.33566955 -0.35339358]
 [ 0.45142373 -0.07081959 -0.16514593  0.05238764  0.38095844 -0.33493564
   0.3099484  -0.08199146]
 [-0.33293104  0.18539287 -0.3864072  -0.08661058  0.56872404  0.22681153
  -0.2919255   0.23403333]
 [ 0.28799024  0.49685922 -0.52026755 -0.49073985  0.25679123  0.5170866
  -0.15645286 -0.3217946 ]
 [ 0.32144564  0.16042511 -0.33773187  0.23596756  0.5319936  -0.50870615
  -0.18947709 -0.5062304 ]
 [ 0.23444827  0.07411888 -0.5656251   0.4100609   0.02156778  0.00194026
  -0.4453503  -0.25985593]
 [ 0.03911808  0.41365     0.40005657 -0.36426654  0.15705666  0.20776007
  -0.0683714   0.00119605]
 [ 0.35758778  0.11111142  0.05955703 -0.09593705 -0.23548137  0.21103637
  -0.03138388 -0.08890072]] 
Episode: 54: [[-0.11649667  0.01918503 -0.5486375   0.5080855   0.5147536   0.34271014
  -0.09805883  0.36972645]
 [-0.31287375  0.4729509  -0.44070682 -0.4904909  -0.10482257  0.5312401
  -0.33566955 -0.35339358]
 [ 0.45142373 -0.07081959 -0.16514593  0.05238764  0.38095844 -0.33493564
   0.3099484  -0.08199146]
 [-0.33293104  0.18539287 -0.3864072  -0.08661058  0.56872404  0.22681153
  -0.2919255   0.23403333]
 [ 0.28799024  0.49685922 -0.52026755 -0.49073985  0.25679123  0.5170866
  -0.15645286 -0.3217946 ]
 [ 0.32144564  0.16042511 -0.33773187  0.23596756  0.5319936  -0.50870615
  -0.18947709 -0.5062304 ]
 [ 0.23444827  0.07411888 -0.5656251   0.4100609   0.02156778  0.00194026
  -0.4453503  -0.25985593]
 [ 0.03911808  0.41365     0.40005657 -0.36426654  0.15705666  0.20776007
  -0.0683714   0.00119605]
 [ 0.35758778  0.11111142  0.05955703 -0.09593705 -0.23548137  0.21103637
  -0.03138388 -0.08890072]] 
Episode: 55: [[-0.11649667  0.01918503 -0.5486375   0.5080855   0.5147536   0.34271014
  -0.09805883  0.36972645]
 [-0.31287375  0.4729509  -0.44070682 -0.4904909  -0.10482257  0.5312401
  -0.33566955 -0.35339358]
 [ 0.45142373 -0.07081959 -0.16514593  0.05238764  0.38095844 -0.33493564
   0.3099484  -0.08199146]
 [-0.33293104  0.18539287 -0.3864072  -0.08661058  0.56872404  0.22681153
  -0.2919255   0.23403333]
 [ 0.28799024  0.49685922 -0.52026755 -0.49073985  0.25679123  0.5170866
  -0.15645286 -0.3217946 ]
 [ 0.32144564  0.16042511 -0.33773187  0.23596756  0.5319936  -0.50870615
  -0.18947709 -0.5062304 ]
 [ 0.23444827  0.07411888 -0.5656251   0.4100609   0.02156778  0.00194026
  -0.4453503  -0.25985593]
 [ 0.03911808  0.41365     0.40005657 -0.36426654  0.15705666  0.20776007
  -0.0683714   0.00119605]
 [ 0.35758778  0.11111142  0.05955703 -0.09593705 -0.23548137  0.21103637
  -0.03138388 -0.08890072]] 
Episode: 56: [[-0.11649667  0.01918503 -0.5486375   0.5080855   0.5147536   0.34271014
  -0.09805883  0.36972645]
 [-0.31287375  0.4729509  -0.44070682 -0.4904909  -0.10482257  0.5312401
  -0.33566955 -0.35339358]
 [ 0.45142373 -0.07081959 -0.16514593  0.05238764  0.38095844 -0.33493564
   0.3099484  -0.08199146]
 [-0.33293104  0.18539287 -0.3864072  -0.08661058  0.56872404  0.22681153
  -0.2919255   0.23403333]
 [ 0.28799024  0.49685922 -0.52026755 -0.49073985  0.25679123  0.5170866
  -0.15645286 -0.3217946 ]
 [ 0.32144564  0.16042511 -0.33773187  0.23596756  0.5319936  -0.50870615
  -0.18947709 -0.5062304 ]
 [ 0.23444827  0.07411888 -0.5656251   0.4100609   0.02156778  0.00194026
  -0.4453503  -0.25985593]
 [ 0.03911808  0.41365     0.40005657 -0.36426654  0.15705666  0.20776007
  -0.0683714   0.00119605]
 [ 0.35758778  0.11111142  0.05955703 -0.09593705 -0.23548137  0.21103637
  -0.03138388 -0.08890072]] 
Episode: 57: [[-0.11649667  0.01918503 -0.5486375   0.5080855   0.5147536   0.34271014
  -0.09805883  0.36972645]
 [-0.31287375  0.4729509  -0.44070682 -0.4904909  -0.10482257  0.5312401
  -0.33566955 -0.35339358]
 [ 0.45142373 -0.07081959 -0.16514593  0.05238764  0.38095844 -0.33493564
   0.3099484  -0.08199146]
 [-0.33293104  0.18539287 -0.3864072  -0.08661058  0.56872404  0.22681153
  -0.2919255   0.23403333]
 [ 0.28799024  0.49685922 -0.52026755 -0.49073985  0.25679123  0.5170866
  -0.15645286 -0.3217946 ]
 [ 0.32144564  0.16042511 -0.33773187  0.23596756  0.5319936  -0.50870615
  -0.18947709 -0.5062304 ]
 [ 0.23444827  0.07411888 -0.5656251   0.4100609   0.02156778  0.00194026
  -0.4453503  -0.25985593]
 [ 0.03911808  0.41365     0.40005657 -0.36426654  0.15705666  0.20776007
  -0.0683714   0.00119605]
 [ 0.35758778  0.11111142  0.05955703 -0.09593705 -0.23548137  0.21103637
  -0.03138388 -0.08890072]] 
Episode: 58: [[-0.11649667  0.01918503 -0.5486375   0.5080855   0.5147536   0.34271014
  -0.09805883  0.36972645]
 [-0.31287375  0.4729509  -0.44070682 -0.4904909  -0.10482257  0.5312401
  -0.33566955 -0.35339358]
 [ 0.45142373 -0.07081959 -0.16514593  0.05238764  0.38095844 -0.33493564
   0.3099484  -0.08199146]
 [-0.33293104  0.18539287 -0.3864072  -0.08661058  0.56872404  0.22681153
  -0.2919255   0.23403333]
 [ 0.28799024  0.49685922 -0.52026755 -0.49073985  0.25679123  0.5170866
  -0.15645286 -0.3217946 ]
 [ 0.32144564  0.16042511 -0.33773187  0.23596756  0.5319936  -0.50870615
  -0.18947709 -0.5062304 ]
 [ 0.23444827  0.07411888 -0.5656251   0.4100609   0.02156778  0.00194026
  -0.4453503  -0.25985593]
 [ 0.03911808  0.41365     0.40005657 -0.36426654  0.15705666  0.20776007
  -0.0683714   0.00119605]
 [ 0.35758778  0.11111142  0.05955703 -0.09593705 -0.23548137  0.21103637
  -0.03138388 -0.08890072]] 
Episode: 59: [[-0.11649667  0.01918503 -0.5486375   0.5080855   0.5147536   0.34271014
  -0.09805883  0.36972645]
 [-0.31287375  0.4729509  -0.44070682 -0.4904909  -0.10482257  0.5312401
  -0.33566955 -0.35339358]
 [ 0.45142373 -0.07081959 -0.16514593  0.05238764  0.38095844 -0.33493564
   0.3099484  -0.08199146]
 [-0.33293104  0.18539287 -0.3864072  -0.08661058  0.56872404  0.22681153
  -0.2919255   0.23403333]
 [ 0.28799024  0.49685922 -0.52026755 -0.49073985  0.25679123  0.5170866
  -0.15645286 -0.3217946 ]
 [ 0.32144564  0.16042511 -0.33773187  0.23596756  0.5319936  -0.50870615
  -0.18947709 -0.5062304 ]
 [ 0.23444827  0.07411888 -0.5656251   0.4100609   0.02156778  0.00194026
  -0.4453503  -0.25985593]
 [ 0.03911808  0.41365     0.40005657 -0.36426654  0.15705666  0.20776007
  -0.0683714   0.00119605]
 [ 0.35758778  0.11111142  0.05955703 -0.09593705 -0.23548137  0.21103637
  -0.03138388 -0.08890072]] 
Episode: 60: [[-0.11649667  0.01918503 -0.5486375   0.5080855   0.5147536   0.34271014
  -0.09805883  0.36972645]
 [-0.31287375  0.4729509  -0.44070682 -0.4904909  -0.10482257  0.5312401
  -0.33566955 -0.35339358]
 [ 0.45142373 -0.07081959 -0.16514593  0.05238764  0.38095844 -0.33493564
   0.3099484  -0.08199146]
 [-0.33293104  0.18539287 -0.3864072  -0.08661058  0.56872404  0.22681153
  -0.2919255   0.23403333]
 [ 0.28799024  0.49685922 -0.52026755 -0.49073985  0.25679123  0.5170866
  -0.15645286 -0.3217946 ]
 [ 0.32144564  0.16042511 -0.33773187  0.23596756  0.5319936  -0.50870615
  -0.18947709 -0.5062304 ]
 [ 0.23444827  0.07411888 -0.5656251   0.4100609   0.02156778  0.00194026
  -0.4453503  -0.25985593]
 [ 0.03911808  0.41365     0.40005657 -0.36426654  0.15705666  0.20776007
  -0.0683714   0.00119605]
 [ 0.35758778  0.11111142  0.05955703 -0.09593705 -0.23548137  0.21103637
  -0.03138388 -0.08890072]] 
Episode: 61: [[-0.11649667  0.01918503 -0.5486375   0.5080855   0.5147536   0.34271014
  -0.09805883  0.36972645]
 [-0.31287375  0.4729509  -0.44070682 -0.4904909  -0.10482257  0.5312401
  -0.33566955 -0.35339358]
 [ 0.45142373 -0.07081959 -0.16514593  0.05238764  0.38095844 -0.33493564
   0.3099484  -0.08199146]
 [-0.33293104  0.18539287 -0.3864072  -0.08661058  0.56872404  0.22681153
  -0.2919255   0.23403333]
 [ 0.28799024  0.49685922 -0.52026755 -0.49073985  0.25679123  0.5170866
  -0.15645286 -0.3217946 ]
 [ 0.32144564  0.16042511 -0.33773187  0.23596756  0.5319936  -0.50870615
  -0.18947709 -0.5062304 ]
 [ 0.23444827  0.07411888 -0.5656251   0.4100609   0.02156778  0.00194026
  -0.4453503  -0.25985593]
 [ 0.03911808  0.41365     0.40005657 -0.36426654  0.15705666  0.20776007
  -0.0683714   0.00119605]
 [ 0.35758778  0.11111142  0.05955703 -0.09593705 -0.23548137  0.21103637
  -0.03138388 -0.08890072]] 
Episode: 62: [[-0.11649667  0.01918503 -0.5486375   0.5080855   0.5147536   0.34271014
  -0.09805883  0.36972645]
 [-0.31287375  0.4729509  -0.44070682 -0.4904909  -0.10482257  0.5312401
  -0.33566955 -0.35339358]
 [ 0.45142373 -0.07081959 -0.16514593  0.05238764  0.38095844 -0.33493564
   0.3099484  -0.08199146]
 [-0.33293104  0.18539287 -0.3864072  -0.08661058  0.56872404  0.22681153
  -0.2919255   0.23403333]
 [ 0.28799024  0.49685922 -0.52026755 -0.49073985  0.25679123  0.5170866
  -0.15645286 -0.3217946 ]
 [ 0.32144564  0.16042511 -0.33773187  0.23596756  0.5319936  -0.50870615
  -0.18947709 -0.5062304 ]
 [ 0.23444827  0.07411888 -0.5656251   0.4100609   0.02156778  0.00194026
  -0.4453503  -0.25985593]
 [ 0.03911808  0.41365     0.40005657 -0.36426654  0.15705666  0.20776007
  -0.0683714   0.00119605]
 [ 0.35758778  0.11111142  0.05955703 -0.09593705 -0.23548137  0.21103637
  -0.03138388 -0.08890072]] 
Episode: 63: [[-0.11649667  0.01918503 -0.5486375   0.5080855   0.5147536   0.34271014
  -0.09805883  0.36972645]
 [-0.31287375  0.4729509  -0.44070682 -0.4904909  -0.10482257  0.5312401
  -0.33566955 -0.35339358]
 [ 0.45142373 -0.07081959 -0.16514593  0.05238764  0.38095844 -0.33493564
   0.3099484  -0.08199146]
 [-0.33293104  0.18539287 -0.3864072  -0.08661058  0.56872404  0.22681153
  -0.2919255   0.23403333]
 [ 0.28799024  0.49685922 -0.52026755 -0.49073985  0.25679123  0.5170866
  -0.15645286 -0.3217946 ]
 [ 0.32144564  0.16042511 -0.33773187  0.23596756  0.5319936  -0.50870615
  -0.18947709 -0.5062304 ]
 [ 0.23444827  0.07411888 -0.5656251   0.4100609   0.02156778  0.00194026
  -0.4453503  -0.25985593]
 [ 0.03911808  0.41365     0.40005657 -0.36426654  0.15705666  0.20776007
  -0.0683714   0.00119605]
 [ 0.35758778  0.11111142  0.05955703 -0.09593705 -0.23548137  0.21103637
  -0.03138388 -0.08890072]] 
Episode: 64: [[-0.11649667  0.01918503 -0.5486375   0.5080855   0.5147536   0.34271014
  -0.09805883  0.36972645]
 [-0.31287375  0.4729509  -0.44070682 -0.4904909  -0.10482257  0.5312401
  -0.33566955 -0.35339358]
 [ 0.45142373 -0.07081959 -0.16514593  0.05238764  0.38095844 -0.33493564
   0.3099484  -0.08199146]
 [-0.33293104  0.18539287 -0.3864072  -0.08661058  0.56872404  0.22681153
  -0.2919255   0.23403333]
 [ 0.28799024  0.49685922 -0.52026755 -0.49073985  0.25679123  0.5170866
  -0.15645286 -0.3217946 ]
 [ 0.32144564  0.16042511 -0.33773187  0.23596756  0.5319936  -0.50870615
  -0.18947709 -0.5062304 ]
 [ 0.23444827  0.07411888 -0.5656251   0.4100609   0.02156778  0.00194026
  -0.4453503  -0.25985593]
 [ 0.03911808  0.41365     0.40005657 -0.36426654  0.15705666  0.20776007
  -0.0683714   0.00119605]
 [ 0.35758778  0.11111142  0.05955703 -0.09593705 -0.23548137  0.21103637
  -0.03138388 -0.08890072]] 
Episode: 65: [[-0.11649667  0.01918503 -0.5486375   0.5080855   0.5147536   0.34271014
  -0.09805883  0.36972645]
 [-0.31287375  0.4729509  -0.44070682 -0.4904909  -0.10482257  0.5312401
  -0.33566955 -0.35339358]
 [ 0.45142373 -0.07081959 -0.16514593  0.05238764  0.38095844 -0.33493564
   0.3099484  -0.08199146]
 [-0.33293104  0.18539287 -0.3864072  -0.08661058  0.56872404  0.22681153
  -0.2919255   0.23403333]
 [ 0.28799024  0.49685922 -0.52026755 -0.49073985  0.25679123  0.5170866
  -0.15645286 -0.3217946 ]
 [ 0.32144564  0.16042511 -0.33773187  0.23596756  0.5319936  -0.50870615
  -0.18947709 -0.5062304 ]
 [ 0.23444827  0.07411888 -0.5656251   0.4100609   0.02156778  0.00194026
  -0.4453503  -0.25985593]
 [ 0.03911808  0.41365     0.40005657 -0.36426654  0.15705666  0.20776007
  -0.0683714   0.00119605]
 [ 0.35758778  0.11111142  0.05955703 -0.09593705 -0.23548137  0.21103637
  -0.03138388 -0.08890072]] 
Episode: 66: [[-0.11649667  0.01918503 -0.5486375   0.5080855   0.5147536   0.34271014
  -0.09805883  0.36972645]
 [-0.31287375  0.4729509  -0.44070682 -0.4904909  -0.10482257  0.5312401
  -0.33566955 -0.35339358]
 [ 0.45142373 -0.07081959 -0.16514593  0.05238764  0.38095844 -0.33493564
   0.3099484  -0.08199146]
 [-0.33293104  0.18539287 -0.3864072  -0.08661058  0.56872404  0.22681153
  -0.2919255   0.23403333]
 [ 0.28799024  0.49685922 -0.52026755 -0.49073985  0.25679123  0.5170866
  -0.15645286 -0.3217946 ]
 [ 0.32144564  0.16042511 -0.33773187  0.23596756  0.5319936  -0.50870615
  -0.18947709 -0.5062304 ]
 [ 0.23444827  0.07411888 -0.5656251   0.4100609   0.02156778  0.00194026
  -0.4453503  -0.25985593]
 [ 0.03911808  0.41365     0.40005657 -0.36426654  0.15705666  0.20776007
  -0.0683714   0.00119605]
 [ 0.35758778  0.11111142  0.05955703 -0.09593705 -0.23548137  0.21103637
  -0.03138388 -0.08890072]] 
Episode: 67: [[-0.11649667  0.01918503 -0.5486375   0.5080855   0.5147536   0.34271014
  -0.09805883  0.36972645]
 [-0.31287375  0.4729509  -0.44070682 -0.4904909  -0.10482257  0.5312401
  -0.33566955 -0.35339358]
 [ 0.45142373 -0.07081959 -0.16514593  0.05238764  0.38095844 -0.33493564
   0.3099484  -0.08199146]
 [-0.33293104  0.18539287 -0.3864072  -0.08661058  0.56872404  0.22681153
  -0.2919255   0.23403333]
 [ 0.28799024  0.49685922 -0.52026755 -0.49073985  0.25679123  0.5170866
  -0.15645286 -0.3217946 ]
 [ 0.32144564  0.16042511 -0.33773187  0.23596756  0.5319936  -0.50870615
  -0.18947709 -0.5062304 ]
 [ 0.23444827  0.07411888 -0.5656251   0.4100609   0.02156778  0.00194026
  -0.4453503  -0.25985593]
 [ 0.03911808  0.41365     0.40005657 -0.36426654  0.15705666  0.20776007
  -0.0683714   0.00119605]
 [ 0.35758778  0.11111142  0.05955703 -0.09593705 -0.23548137  0.21103637
  -0.03138388 -0.08890072]] 
Episode: 68: [[-0.11649667  0.01918503 -0.5486375   0.5080855   0.5147536   0.34271014
  -0.09805883  0.36972645]
 [-0.31287375  0.4729509  -0.44070682 -0.4904909  -0.10482257  0.5312401
  -0.33566955 -0.35339358]
 [ 0.45142373 -0.07081959 -0.16514593  0.05238764  0.38095844 -0.33493564
   0.3099484  -0.08199146]
 [-0.33293104  0.18539287 -0.3864072  -0.08661058  0.56872404  0.22681153
  -0.2919255   0.23403333]
 [ 0.28799024  0.49685922 -0.52026755 -0.49073985  0.25679123  0.5170866
  -0.15645286 -0.3217946 ]
 [ 0.32144564  0.16042511 -0.33773187  0.23596756  0.5319936  -0.50870615
  -0.18947709 -0.5062304 ]
 [ 0.23444827  0.07411888 -0.5656251   0.4100609   0.02156778  0.00194026
  -0.4453503  -0.25985593]
 [ 0.03911808  0.41365     0.40005657 -0.36426654  0.15705666  0.20776007
  -0.0683714   0.00119605]
 [ 0.35758778  0.11111142  0.05955703 -0.09593705 -0.23548137  0.21103637
  -0.03138388 -0.08890072]] 
Episode: 69: [[-0.11649667  0.01918503 -0.5486375   0.5080855   0.5147536   0.34271014
  -0.09805883  0.36972645]
 [-0.31287375  0.4729509  -0.44070682 -0.4904909  -0.10482257  0.5312401
  -0.33566955 -0.35339358]
 [ 0.45142373 -0.07081959 -0.16514593  0.05238764  0.38095844 -0.33493564
   0.3099484  -0.08199146]
 [-0.33293104  0.18539287 -0.3864072  -0.08661058  0.56872404  0.22681153
  -0.2919255   0.23403333]
 [ 0.28799024  0.49685922 -0.52026755 -0.49073985  0.25679123  0.5170866
  -0.15645286 -0.3217946 ]
 [ 0.32144564  0.16042511 -0.33773187  0.23596756  0.5319936  -0.50870615
  -0.18947709 -0.5062304 ]
 [ 0.23444827  0.07411888 -0.5656251   0.4100609   0.02156778  0.00194026
  -0.4453503  -0.25985593]
 [ 0.03911808  0.41365     0.40005657 -0.36426654  0.15705666  0.20776007
  -0.0683714   0.00119605]
 [ 0.35758778  0.11111142  0.05955703 -0.09593705 -0.23548137  0.21103637
  -0.03138388 -0.08890072]] 
Episode: 70: [[-0.11649667  0.01918503 -0.5486375   0.5080855   0.5147536   0.34271014
  -0.09805883  0.36972645]
 [-0.31287375  0.4729509  -0.44070682 -0.4904909  -0.10482257  0.5312401
  -0.33566955 -0.35339358]
 [ 0.45142373 -0.07081959 -0.16514593  0.05238764  0.38095844 -0.33493564
   0.3099484  -0.08199146]
 [-0.33293104  0.18539287 -0.3864072  -0.08661058  0.56872404  0.22681153
  -0.2919255   0.23403333]
 [ 0.28799024  0.49685922 -0.52026755 -0.49073985  0.25679123  0.5170866
  -0.15645286 -0.3217946 ]
 [ 0.32144564  0.16042511 -0.33773187  0.23596756  0.5319936  -0.50870615
  -0.18947709 -0.5062304 ]
 [ 0.23444827  0.07411888 -0.5656251   0.4100609   0.02156778  0.00194026
  -0.4453503  -0.25985593]
 [ 0.03911808  0.41365     0.40005657 -0.36426654  0.15705666  0.20776007
  -0.0683714   0.00119605]
 [ 0.35758778  0.11111142  0.05955703 -0.09593705 -0.23548137  0.21103637
  -0.03138388 -0.08890072]] 
Episode: 71: [[-0.11649667  0.01918503 -0.5486375   0.5080855   0.5147536   0.34271014
  -0.09805883  0.36972645]
 [-0.31287375  0.4729509  -0.44070682 -0.4904909  -0.10482257  0.5312401
  -0.33566955 -0.35339358]
 [ 0.45142373 -0.07081959 -0.16514593  0.05238764  0.38095844 -0.33493564
   0.3099484  -0.08199146]
 [-0.33293104  0.18539287 -0.3864072  -0.08661058  0.56872404  0.22681153
  -0.2919255   0.23403333]
 [ 0.28799024  0.49685922 -0.52026755 -0.49073985  0.25679123  0.5170866
  -0.15645286 -0.3217946 ]
 [ 0.32144564  0.16042511 -0.33773187  0.23596756  0.5319936  -0.50870615
  -0.18947709 -0.5062304 ]
 [ 0.23444827  0.07411888 -0.5656251   0.4100609   0.02156778  0.00194026
  -0.4453503  -0.25985593]
 [ 0.03911808  0.41365     0.40005657 -0.36426654  0.15705666  0.20776007
  -0.0683714   0.00119605]
 [ 0.35758778  0.11111142  0.05955703 -0.09593705 -0.23548137  0.21103637
  -0.03138388 -0.08890072]] 
Episode: 72: [[-0.11649667  0.01918503 -0.5486375   0.5080855   0.5147536   0.34271014
  -0.09805883  0.36972645]
 [-0.31287375  0.4729509  -0.44070682 -0.4904909  -0.10482257  0.5312401
  -0.33566955 -0.35339358]
 [ 0.45142373 -0.07081959 -0.16514593  0.05238764  0.38095844 -0.33493564
   0.3099484  -0.08199146]
 [-0.33293104  0.18539287 -0.3864072  -0.08661058  0.56872404  0.22681153
  -0.2919255   0.23403333]
 [ 0.28799024  0.49685922 -0.52026755 -0.49073985  0.25679123  0.5170866
  -0.15645286 -0.3217946 ]
 [ 0.32144564  0.16042511 -0.33773187  0.23596756  0.5319936  -0.50870615
  -0.18947709 -0.5062304 ]
 [ 0.23444827  0.07411888 -0.5656251   0.4100609   0.02156778  0.00194026
  -0.4453503  -0.25985593]
 [ 0.03911808  0.41365     0.40005657 -0.36426654  0.15705666  0.20776007
  -0.0683714   0.00119605]
 [ 0.35758778  0.11111142  0.05955703 -0.09593705 -0.23548137  0.21103637
  -0.03138388 -0.08890072]] 
Episode: 73: [[-0.11649667  0.01918503 -0.5486375   0.5080855   0.5147536   0.34271014
  -0.09805883  0.36972645]
 [-0.31287375  0.4729509  -0.44070682 -0.4904909  -0.10482257  0.5312401
  -0.33566955 -0.35339358]
 [ 0.45142373 -0.07081959 -0.16514593  0.05238764  0.38095844 -0.33493564
   0.3099484  -0.08199146]
 [-0.33293104  0.18539287 -0.3864072  -0.08661058  0.56872404  0.22681153
  -0.2919255   0.23403333]
 [ 0.28799024  0.49685922 -0.52026755 -0.49073985  0.25679123  0.5170866
  -0.15645286 -0.3217946 ]
 [ 0.32144564  0.16042511 -0.33773187  0.23596756  0.5319936  -0.50870615
  -0.18947709 -0.5062304 ]
 [ 0.23444827  0.07411888 -0.5656251   0.4100609   0.02156778  0.00194026
  -0.4453503  -0.25985593]
 [ 0.03911808  0.41365     0.40005657 -0.36426654  0.15705666  0.20776007
  -0.0683714   0.00119605]
 [ 0.35758778  0.11111142  0.05955703 -0.09593705 -0.23548137  0.21103637
  -0.03138388 -0.08890072]] 
Episode: 74: [[-0.11649667  0.01918503 -0.5486375   0.5080855   0.5147536   0.34271014
  -0.09805883  0.36972645]
 [-0.31287375  0.4729509  -0.44070682 -0.4904909  -0.10482257  0.5312401
  -0.33566955 -0.35339358]
 [ 0.45142373 -0.07081959 -0.16514593  0.05238764  0.38095844 -0.33493564
   0.3099484  -0.08199146]
 [-0.33293104  0.18539287 -0.3864072  -0.08661058  0.56872404  0.22681153
  -0.2919255   0.23403333]
 [ 0.28799024  0.49685922 -0.52026755 -0.49073985  0.25679123  0.5170866
  -0.15645286 -0.3217946 ]
 [ 0.32144564  0.16042511 -0.33773187  0.23596756  0.5319936  -0.50870615
  -0.18947709 -0.5062304 ]
 [ 0.23444827  0.07411888 -0.5656251   0.4100609   0.02156778  0.00194026
  -0.4453503  -0.25985593]
 [ 0.03911808  0.41365     0.40005657 -0.36426654  0.15705666  0.20776007
  -0.0683714   0.00119605]
 [ 0.35758778  0.11111142  0.05955703 -0.09593705 -0.23548137  0.21103637
  -0.03138388 -0.08890072]] 
Episode: 75: [[-0.11649667  0.01918503 -0.5486375   0.5080855   0.5147536   0.34271014
  -0.09805883  0.36972645]
 [-0.31287375  0.4729509  -0.44070682 -0.4904909  -0.10482257  0.5312401
  -0.33566955 -0.35339358]
 [ 0.45142373 -0.07081959 -0.16514593  0.05238764  0.38095844 -0.33493564
   0.3099484  -0.08199146]
 [-0.33293104  0.18539287 -0.3864072  -0.08661058  0.56872404  0.22681153
  -0.2919255   0.23403333]
 [ 0.28799024  0.49685922 -0.52026755 -0.49073985  0.25679123  0.5170866
  -0.15645286 -0.3217946 ]
 [ 0.32144564  0.16042511 -0.33773187  0.23596756  0.5319936  -0.50870615
  -0.18947709 -0.5062304 ]
 [ 0.23444827  0.07411888 -0.5656251   0.4100609   0.02156778  0.00194026
  -0.4453503  -0.25985593]
 [ 0.03911808  0.41365     0.40005657 -0.36426654  0.15705666  0.20776007
  -0.0683714   0.00119605]
 [ 0.35758778  0.11111142  0.05955703 -0.09593705 -0.23548137  0.21103637
  -0.03138388 -0.08890072]] 
Episode: 76: [[-0.11649667  0.01918503 -0.5486375   0.5080855   0.5147536   0.34271014
  -0.09805883  0.36972645]
 [-0.31287375  0.4729509  -0.44070682 -0.4904909  -0.10482257  0.5312401
  -0.33566955 -0.35339358]
 [ 0.45142373 -0.07081959 -0.16514593  0.05238764  0.38095844 -0.33493564
   0.3099484  -0.08199146]
 [-0.33293104  0.18539287 -0.3864072  -0.08661058  0.56872404  0.22681153
  -0.2919255   0.23403333]
 [ 0.28799024  0.49685922 -0.52026755 -0.49073985  0.25679123  0.5170866
  -0.15645286 -0.3217946 ]
 [ 0.32144564  0.16042511 -0.33773187  0.23596756  0.5319936  -0.50870615
  -0.18947709 -0.5062304 ]
 [ 0.23444827  0.07411888 -0.5656251   0.4100609   0.02156778  0.00194026
  -0.4453503  -0.25985593]
 [ 0.03911808  0.41365     0.40005657 -0.36426654  0.15705666  0.20776007
  -0.0683714   0.00119605]
 [ 0.35758778  0.11111142  0.05955703 -0.09593705 -0.23548137  0.21103637
  -0.03138388 -0.08890072]] 
Episode: 77: [[-0.11649667  0.01918503 -0.5486375   0.5080855   0.5147536   0.34271014
  -0.09805883  0.36972645]
 [-0.31287375  0.4729509  -0.44070682 -0.4904909  -0.10482257  0.5312401
  -0.33566955 -0.35339358]
 [ 0.45142373 -0.07081959 -0.16514593  0.05238764  0.38095844 -0.33493564
   0.3099484  -0.08199146]
 [-0.33293104  0.18539287 -0.3864072  -0.08661058  0.56872404  0.22681153
  -0.2919255   0.23403333]
 [ 0.28799024  0.49685922 -0.52026755 -0.49073985  0.25679123  0.5170866
  -0.15645286 -0.3217946 ]
 [ 0.32144564  0.16042511 -0.33773187  0.23596756  0.5319936  -0.50870615
  -0.18947709 -0.5062304 ]
 [ 0.23444827  0.07411888 -0.5656251   0.4100609   0.02156778  0.00194026
  -0.4453503  -0.25985593]
 [ 0.03911808  0.41365     0.40005657 -0.36426654  0.15705666  0.20776007
  -0.0683714   0.00119605]
 [ 0.35758778  0.11111142  0.05955703 -0.09593705 -0.23548137  0.21103637
  -0.03138388 -0.08890072]] 
Episode: 78: [[-0.11649667  0.01918503 -0.5486375   0.5080855   0.5147536   0.34271014
  -0.09805883  0.36972645]
 [-0.31287375  0.4729509  -0.44070682 -0.4904909  -0.10482257  0.5312401
  -0.33566955 -0.35339358]
 [ 0.45142373 -0.07081959 -0.16514593  0.05238764  0.38095844 -0.33493564
   0.3099484  -0.08199146]
 [-0.33293104  0.18539287 -0.3864072  -0.08661058  0.56872404  0.22681153
  -0.2919255   0.23403333]
 [ 0.28799024  0.49685922 -0.52026755 -0.49073985  0.25679123  0.5170866
  -0.15645286 -0.3217946 ]
 [ 0.32144564  0.16042511 -0.33773187  0.23596756  0.5319936  -0.50870615
  -0.18947709 -0.5062304 ]
 [ 0.23444827  0.07411888 -0.5656251   0.4100609   0.02156778  0.00194026
  -0.4453503  -0.25985593]
 [ 0.03911808  0.41365     0.40005657 -0.36426654  0.15705666  0.20776007
  -0.0683714   0.00119605]
 [ 0.35758778  0.11111142  0.05955703 -0.09593705 -0.23548137  0.21103637
  -0.03138388 -0.08890072]] 
Episode: 79: [[-0.11649667  0.01918503 -0.5486375   0.5080855   0.5147536   0.34271014
  -0.09805883  0.36972645]
 [-0.31287375  0.4729509  -0.44070682 -0.4904909  -0.10482257  0.5312401
  -0.33566955 -0.35339358]
 [ 0.45142373 -0.07081959 -0.16514593  0.05238764  0.38095844 -0.33493564
   0.3099484  -0.08199146]
 [-0.33293104  0.18539287 -0.3864072  -0.08661058  0.56872404  0.22681153
  -0.2919255   0.23403333]
 [ 0.28799024  0.49685922 -0.52026755 -0.49073985  0.25679123  0.5170866
  -0.15645286 -0.3217946 ]
 [ 0.32144564  0.16042511 -0.33773187  0.23596756  0.5319936  -0.50870615
  -0.18947709 -0.5062304 ]
 [ 0.23444827  0.07411888 -0.5656251   0.4100609   0.02156778  0.00194026
  -0.4453503  -0.25985593]
 [ 0.03911808  0.41365     0.40005657 -0.36426654  0.15705666  0.20776007
  -0.0683714   0.00119605]
 [ 0.35758778  0.11111142  0.05955703 -0.09593705 -0.23548137  0.21103637
  -0.03138388 -0.08890072]] 
Episode: 80: [[-0.11649667  0.01918503 -0.5486375   0.5080855   0.5147536   0.34271014
  -0.09805883  0.36972645]
 [-0.31287375  0.4729509  -0.44070682 -0.4904909  -0.10482257  0.5312401
  -0.33566955 -0.35339358]
 [ 0.45142373 -0.07081959 -0.16514593  0.05238764  0.38095844 -0.33493564
   0.3099484  -0.08199146]
 [-0.33293104  0.18539287 -0.3864072  -0.08661058  0.56872404  0.22681153
  -0.2919255   0.23403333]
 [ 0.28799024  0.49685922 -0.52026755 -0.49073985  0.25679123  0.5170866
  -0.15645286 -0.3217946 ]
 [ 0.32144564  0.16042511 -0.33773187  0.23596756  0.5319936  -0.50870615
  -0.18947709 -0.5062304 ]
 [ 0.23444827  0.07411888 -0.5656251   0.4100609   0.02156778  0.00194026
  -0.4453503  -0.25985593]
 [ 0.03911808  0.41365     0.40005657 -0.36426654  0.15705666  0.20776007
  -0.0683714   0.00119605]
 [ 0.35758778  0.11111142  0.05955703 -0.09593705 -0.23548137  0.21103637
  -0.03138388 -0.08890072]] 
Episode: 81: [[nan nan nan nan nan nan nan nan]
 [nan nan nan nan nan nan nan nan]
 [nan nan nan nan nan nan nan nan]
 [nan nan nan nan nan nan nan nan]
 [nan nan nan nan nan nan nan nan]
 [nan nan nan nan nan nan nan nan]
 [nan nan nan nan nan nan nan nan]
 [nan nan nan nan nan nan nan nan]
 [nan nan nan nan nan nan nan nan]] 
