Episode: 1: [[ 0.          0.          0.        ]
 [ 0.          0.          0.        ]
 [ 0.          0.          0.        ]
 [-0.16240509 -0.34006977  0.04328375]
 [ 0.12615696 -0.04700504 -0.04048468]
 [ 0.46043023  0.522202   -0.38252082]
 [ 0.          0.          0.        ]
 [ 0.          0.          0.        ]
 [ 0.          0.          0.        ]] 
Episode: 2: [[ 0.0000000e+00  0.0000000e+00  0.0000000e+00]
 [ 0.0000000e+00  0.0000000e+00  0.0000000e+00]
 [ 0.0000000e+00  0.0000000e+00  0.0000000e+00]
 [-1.6230509e-01 -3.3996978e-01  4.3383747e-02]
 [ 1.2625696e-01 -4.6905041e-02 -4.0384684e-02]
 [ 4.6052945e-01  5.2210200e-01 -3.8262081e-01]
 [ 9.9999983e-05 -9.9999976e-05 -9.9999990e-05]
 [-9.9999990e-05 -9.9999925e-05 -9.9999954e-05]
 [-9.9999859e-05 -9.9999881e-05  9.9999401e-05]] 
Episode: 3: [[-4.4809924e-05 -1.2914212e-05  3.8031678e-05]
 [ 7.4058065e-05  1.1639387e-05  1.8652156e-05]
 [ 7.4019110e-05  1.4902618e-05  9.4386742e-06]
 [-1.6223852e-01 -3.3990297e-01  4.3451145e-02]
 [ 1.2632371e-01 -4.6838429e-02 -4.0317290e-02]
 [ 4.6062511e-01  5.2203453e-01 -3.8268808e-01]
 [ 1.6697227e-04 -1.6698655e-04 -1.6723020e-04]
 [-1.6007775e-04 -1.6719688e-04 -1.6750125e-04]
 [-8.4808518e-05 -1.6767974e-04  1.6499290e-04]] 
Episode: 4: [[-1.05662446e-04 -3.37398137e-06  7.43993442e-05]
 [ 1.58303592e-04  3.20608488e-05  4.21694567e-05]
 [ 1.58223032e-04  3.60238701e-05  2.64485989e-05]
 [-1.62187561e-01 -3.39851320e-01  4.35032435e-02]
 [ 1.26375318e-01 -4.67869379e-02 -4.02651913e-02]
 [ 4.60699767e-01  5.21982372e-01 -3.82740080e-01]
 [ 2.18700836e-04 -2.18849906e-04 -2.19250287e-04]
 [-2.00709706e-04 -2.19446869e-04 -2.19884372e-04]
 [-3.65274318e-05 -2.20553688e-04  2.12717729e-04]] 
Episode: 5: [[-1.75200999e-04  1.78277533e-05  1.11145455e-04]
 [ 2.48254946e-04  5.72879580e-05  6.85001723e-05]
 [ 2.36137188e-04  6.00376334e-05  4.64346886e-05]
 [-1.62146300e-01 -3.39809000e-01  4.35459204e-02]
 [ 1.26417592e-01 -4.67447601e-02 -4.02225144e-02]
 [ 4.60760832e-01  5.21939635e-01 -3.82782668e-01]
 [ 2.61025096e-04 -2.61407229e-04 -2.61904701e-04]
 [-2.30443999e-04 -2.62532820e-04 -2.62971647e-04]
 [ 2.73404930e-05 -2.64373259e-04  2.49696954e-04]] 
Episode: 6: [[-2.5052592e-04  4.6971061e-05  1.4767722e-04]
 [ 3.4041941e-04  8.4952699e-05  9.5456955e-05]
 [ 2.7964785e-04  8.5053041e-05  6.6120127e-05]
 [-1.6211191e-01 -3.3977324e-01  4.3581992e-02]
 [ 1.2645334e-01 -4.6709109e-02 -4.0186446e-02]
 [ 4.6081176e-01  5.2190351e-01 -3.8281867e-01]
 [ 2.9673328e-04 -2.9745215e-04 -2.9799039e-04]
 [-2.5072080e-04 -2.9922885e-04 -2.9952254e-04]
 [ 1.0033542e-04 -3.0191476e-04  2.7935262e-04]] 
Episode: 7: [[-3.2936188e-04  7.8883633e-05  1.8174834e-04]
 [ 4.3516190e-04  1.1126829e-04  1.2076094e-04]
 [ 2.7313165e-04  1.0835747e-04  8.2944389e-05]
 [-1.6208263e-01 -3.3974242e-01  4.3613080e-02]
 [ 1.2648416e-01 -4.6678383e-02 -4.0155359e-02]
 [ 4.6085420e-01  5.2187240e-01 -3.8284969e-01]
 [ 3.2744283e-04 -3.2856627e-04 -3.2910900e-04]
 [-2.6363909e-04 -3.3104714e-04 -3.3109516e-04]
 [ 1.7927719e-04 -3.3461567e-04  3.0406652e-04]] 
Episode: 8: [[-4.11419809e-04  1.13291375e-04  2.11493796e-04]
 [ 5.32030652e-04  1.35627270e-04  1.43595433e-04]
 [ 2.31378814e-04  1.29237742e-04  9.58908495e-05]
 [-1.62057474e-01 -3.39715511e-01  4.36402299e-02]
 [ 1.26511067e-01 -4.66515496e-02 -4.01282087e-02]
 [ 4.60889220e-01  5.21845222e-01 -3.82876784e-01]
 [ 3.54172633e-04 -3.55788739e-04 -3.56290431e-04]
 [-2.70485558e-04 -3.59023979e-04 -3.58686782e-04]
 [ 2.62453104e-04 -3.63518920e-04  3.25402216e-04]] 
Episode: 9: [[-4.95890039e-04  1.48701438e-04  2.34398671e-04]
 [ 6.30743045e-04  1.56754322e-04  1.63809120e-04]
 [ 1.72609929e-04  1.46701568e-04  1.05943436e-04]
 [-1.62035674e-01 -3.39691788e-01  4.36641648e-02]
 [ 1.26534805e-01 -4.66278940e-02 -4.01042737e-02]
 [ 4.60918397e-01  5.21821260e-01 -3.82900655e-01]
 [ 3.77635093e-04 -3.79828678e-04 -3.80243408e-04]
 [-2.72178760e-04 -3.83849983e-04 -3.82974133e-04]
 [ 3.45876324e-04 -3.89271561e-04  3.44689179e-04]] 
Episode: 10: [[-5.7623722e-04  1.7814546e-04  2.4467192e-04]
 [ 7.3101133e-04  1.7298167e-04  1.8187349e-04]
 [ 1.0150893e-04  1.6349918e-04  1.1565562e-04]
 [-1.6201648e-01 -3.3967072e-01  4.3685414e-02]
 [ 1.2655589e-01 -4.6606895e-02 -4.0083028e-02]
 [ 4.6094099e-01  5.2179998e-01 -3.8292184e-01]
 [ 3.9836304e-04 -4.0116443e-04 -4.0146976e-04]
 [-2.6948351e-04 -4.0588444e-04 -4.0437817e-04]
 [ 4.3247861e-04 -4.1212884e-04  3.6362346e-04]] 
Episode: 11: [[-6.5589754e-04  2.0363771e-04  2.4302471e-04]
 [ 8.3256856e-04  1.8518408e-04  2.0045403e-04]
 [ 2.2061027e-05  1.8009471e-04  1.2808503e-04]
 [-1.6199957e-01 -3.3965191e-01  4.3704376e-02]
 [ 1.2657472e-01 -4.6588153e-02 -4.0064067e-02]
 [ 4.6095717e-01  5.2178097e-01 -3.8294077e-01]
 [ 4.1673615e-04 -4.2020626e-04 -4.2036426e-04]
 [-2.6293730e-04 -4.2555563e-04 -4.2327718e-04]
 [ 5.2152190e-04 -4.3254308e-04  3.8290821e-04]] 
Episode: 12: [[-7.0479169e-04  1.5566198e-04  2.9117687e-04]
 [ 9.3509944e-04  1.3851283e-04  1.5253262e-04]
 [-6.2975116e-05  2.2534320e-04  1.7264062e-04]
 [-1.6201305e-01 -3.3966920e-01  4.3755200e-02]
 [ 1.2655595e-01 -4.6615832e-02 -4.0013637e-02]
 [ 4.6090898e-01  5.2172983e-01 -3.8293701e-01]
 [ 4.1233207e-04 -4.1920959e-04 -4.7127326e-04]
 [-2.3593052e-04 -4.1991935e-04 -4.7432070e-04]
 [ 6.0764345e-04 -4.3085625e-04  4.3404684e-04]] 
Episode: 13: [[-7.2825357e-04  1.2788868e-04  3.3363968e-04]
 [ 9.5083652e-04  7.7880897e-05  1.1059014e-04]
 [-1.5062306e-04  2.7166537e-04  2.1149738e-04]
 [-1.6200194e-01 -3.3966655e-01  4.3799948e-02]
 [ 1.2655391e-01 -4.6627302e-02 -3.9968848e-02]
 [ 4.6086675e-01  5.2168524e-01 -3.8292173e-01]
 [ 4.2313867e-04 -4.3385956e-04 -5.1620771e-04]
 [-2.3641707e-04 -4.3146289e-04 -5.1925937e-04]
 [ 6.9669168e-04 -4.2701670e-04  4.7885522e-04]] 
Episode: 14: [[-7.4941700e-04  1.0283570e-04  3.7189183e-04]
 [ 9.7257679e-04  2.3337992e-05  7.2869509e-05]
 [-2.4270477e-04  3.1461834e-04  2.4876156e-04]
 [-1.6199195e-01 -3.3966416e-01  4.3840289e-02]
 [ 1.2655208e-01 -4.6637643e-02 -3.9928470e-02]
 [ 4.6082866e-01  5.2164501e-01 -3.8290793e-01]
 [ 4.3276994e-04 -4.4703553e-04 -5.5668375e-04]
 [-2.3414036e-04 -4.4176917e-04 -5.5968249e-04]
 [ 7.8649959e-04 -4.2333902e-04  5.2073837e-04]] 
Episode: 15: [[-7.6833682e-04  8.0154547e-05  4.0640545e-04]
 [ 1.0010519e-03 -2.5564248e-05  3.8963455e-05]
 [-3.3759529e-04  3.5676983e-04  2.8702512e-04]
 [-1.6198277e-01 -3.3966199e-01  4.3876734e-02]
 [ 1.2655042e-01 -4.6646982e-02 -3.9891992e-02]
 [ 4.6079424e-01  5.2160865e-01 -3.8289544e-01]
 [ 4.4133471e-04 -4.5885128e-04 -5.9319584e-04]
 [-2.2879332e-04 -4.5077014e-04 -5.9604424e-04]
 [ 8.7820162e-04 -4.1942182e-04  5.6103838e-04]] 
Episode: 16: [[-7.8525726e-04  5.9582078e-05  4.3759603e-04]
 [ 1.0355647e-03 -6.9356065e-05  8.4952326e-06]
 [-4.3563760e-04  3.9891215e-04  3.2708797e-04]
 [-1.6197430e-01 -3.3966002e-01  4.3909714e-02]
 [ 1.2654893e-01 -4.6655435e-02 -3.9858978e-02]
 [ 4.6076310e-01  5.2157575e-01 -3.8288414e-01]
 [ 4.4893927e-04 -4.6945151e-04 -6.2617927e-04]
 [-2.2069155e-04 -4.5859601e-04 -6.2878401e-04]
 [ 9.7162742e-04 -4.1523579e-04  6.0017750e-04]] 
Episode: 17: [[-8.00248003e-04  4.08778033e-05  4.65814315e-04]
 [ 1.07536383e-03 -1.08255816e-04 -1.88099129e-05]
 [-5.36751468e-04  4.43122379e-04  3.70960915e-04]
 [-1.61966309e-01 -3.39658231e-01  4.39396054e-02]
 [ 1.26547590e-01 -4.66630943e-02 -3.98290604e-02]
 [ 4.60734844e-01  5.21545947e-01 -3.82873863e-01]
 [ 4.55675210e-04 -4.78927832e-04 -6.55997719e-04]
 [-2.10006969e-04 -4.65226854e-04 -6.58245874e-04]
 [ 1.06656679e-03 -4.10526729e-04  6.38933678e-04]] 
Episode: 18: [[-8.1527571e-04  2.4118455e-05  4.9156556e-04]
 [ 1.0810664e-03 -1.4683693e-04 -4.4847580e-05]
 [-5.3363846e-04  4.5407130e-04  3.7547902e-04]
 [-1.6196036e-01 -3.3965662e-01  4.3966722e-02]
 [ 1.2654634e-01 -4.6670046e-02 -3.9801918e-02]
 [ 4.6070924e-01  5.2151889e-01 -3.8286465e-01]
 [ 4.6231487e-04 -4.8802435e-04 -6.8331877e-04]
 [-2.1111968e-04 -4.7298969e-04 -6.8573334e-04]
 [ 1.0972024e-03 -4.0973915e-04  6.6104217e-04]] 
Episode: 19: [[-8.0550648e-04  4.2388227e-05  5.1551720e-04]
 [ 1.0493698e-03 -2.0019899e-04 -7.8610086e-05]
 [-4.9702072e-04  5.0405849e-04  4.2457622e-04]
 [-1.6191874e-01 -3.3960944e-01  4.3999478e-02]
 [ 1.2659197e-01 -4.6622302e-02 -3.9773658e-02]
 [ 4.6067956e-01  5.2148175e-01 -3.8281453e-01]
 [ 5.0622696e-04 -5.3621415e-04 -7.0993096e-04]
 [-2.3240576e-04 -5.2098726e-04 -7.1156840e-04]
 [ 1.1239789e-03 -3.6398522e-04  7.1395654e-04]] 
Episode: 20: [[-8.1520638e-04  5.8144502e-05  5.3712557e-04]
 [ 1.0346590e-03 -2.4669140e-04 -1.0766003e-04]
 [-4.7306457e-04  5.5222091e-04  4.6969365e-04]
 [-1.6189325e-01 -3.3956826e-01  4.4028517e-02]
 [ 1.2663031e-01 -4.6578966e-02 -3.9749324e-02]
 [ 4.6065718e-01  5.2144521e-01 -3.8276848e-01]
 [ 5.4013898e-04 -5.7763467e-04 -7.3409110e-04]
 [-2.3810199e-04 -5.6320854e-04 -7.3409855e-04]
 [ 1.1554775e-03 -3.2055375e-04  7.6153607e-04]] 
Episode: 21: [[-8.2312291e-04  7.2434865e-05  5.5674784e-04]
 [ 1.0274444e-03 -2.8868276e-04 -1.3336881e-04]
 [-4.6209592e-04  5.9743400e-04  5.1300519e-04]
 [-1.6186951e-01 -3.3953083e-01  4.4054925e-02]
 [ 1.2666517e-01 -4.6539556e-02 -3.9727196e-02]
 [ 4.6063682e-01  5.2141201e-01 -3.8272661e-01]
 [ 5.7088450e-04 -6.1518588e-04 -7.5594551e-04]
 [-2.4037203e-04 -6.0120109e-04 -7.5424585e-04]
 [ 1.1939721e-03 -2.8032321e-04  8.0745167e-04]] 
Episode: 22: [[-8.2936144e-04  8.5421198e-05  5.7459006e-04]
 [ 1.0273039e-03 -3.2656186e-04 -1.5595074e-04]
 [-4.6314756e-04  6.4011250e-04  5.5493700e-04]
 [-1.6184735e-01 -3.3949676e-01  4.4078954e-02]
 [ 1.2669690e-01 -4.6503700e-02 -3.9707061e-02]
 [ 4.6061829e-01  5.2138180e-01 -3.8268849e-01]
 [ 5.9876172e-04 -6.4923218e-04 -7.7570812e-04]
 [-2.3946018e-04 -6.3535542e-04 -7.7222317e-04]
 [ 1.2386967e-03 -2.4296873e-04  8.5197954e-04]] 
Episode: 23: [[-8.3015917e-04  9.8755168e-05  5.9105345e-04]
 [ 1.0328492e-03 -3.5847889e-04 -1.6711894e-04]
 [-4.7477178e-04  6.7861675e-04  5.9712271e-04]
 [-1.6182597e-01 -3.3946633e-01  4.4098612e-02]
 [ 1.2672469e-01 -4.6470873e-02 -3.9690744e-02]
 [ 4.6059984e-01  5.2135104e-01 -3.8265297e-01]
 [ 6.2341394e-04 -6.7906914e-04 -7.9113804e-04]
 [-2.3729703e-04 -6.6454761e-04 -7.8573136e-04]
 [ 1.2903574e-03 -2.0871343e-04  8.9638022e-04]] 
Episode: 24: [[-8.5194281e-04  1.1045562e-04  6.0593412e-04]
 [ 1.0523691e-03 -3.7561072e-04 -1.7071763e-04]
 [-4.9755175e-04  7.1153406e-04  6.3164206e-04]
 [-1.6181973e-01 -3.3944595e-01  4.4114266e-02]
 [ 1.2674288e-01 -4.6444964e-02 -3.9677884e-02]
 [ 4.6058455e-01  5.2132279e-01 -3.8262337e-01]
 [ 6.3679490e-04 -6.9900707e-04 -8.0262090e-04]
 [-2.2478796e-04 -6.8267732e-04 -7.9615472e-04]
 [ 1.3424718e-03 -1.7952584e-04  9.3446084e-04]] 
Episode: 25: [[-9.08426242e-04  1.04589955e-04  6.17977756e-04]
 [ 1.10006402e-03 -3.83852923e-04 -2.16832937e-04]
 [-5.26338874e-04  7.38634146e-04  6.07671100e-04]
 [-1.61853760e-01 -3.39443028e-01  4.41430211e-02]
 [ 1.26739025e-01 -4.64397818e-02 -3.96563970e-02]
 [ 4.60537761e-01  5.21294415e-01 -3.82613242e-01]
 [ 6.32897078e-04 -7.27414736e-04 -8.37766740e-04]
 [-1.78336442e-04 -6.99290598e-04 -8.28896184e-04]
 [ 1.35620905e-03 -1.59414005e-04  9.30052018e-04]] 
Episode: 26: [[-9.6154871e-04  9.9064717e-05  6.2880263e-04]
 [ 1.1291591e-03 -3.9320462e-04 -2.6113278e-04]
 [-5.5856165e-04  7.5514120e-04  5.7694531e-04]
 [-1.6188654e-01 -3.3944035e-01  4.4169210e-02]
 [ 1.2673549e-01 -4.6435062e-02 -3.9636828e-02]
 [ 4.6049514e-01  5.2126855e-01 -3.8260403e-01]
 [ 6.2966137e-04 -7.5382571e-04 -8.7024376e-04]
 [-1.4299910e-04 -7.1623817e-04 -8.6005271e-04]
 [ 1.3733255e-03 -1.4455122e-04  9.1669901e-04]] 
Episode: 27: [[-1.0094403e-03  9.4061652e-05  6.3868897e-04]
 [ 1.1591524e-03 -4.0115824e-04 -3.0077115e-04]
 [-5.9933047e-04  7.7271770e-04  5.5148103e-04]
 [-1.6191587e-01 -3.3943790e-01  4.4193070e-02]
 [ 1.2673227e-01 -4.6430763e-02 -3.9618999e-02]
 [ 4.6045631e-01  5.2124500e-01 -3.8259563e-01]
 [ 6.2660186e-04 -7.7771087e-04 -8.9968299e-04]
 [-1.0875294e-04 -7.3111535e-04 -8.8802067e-04]
 [ 1.3979381e-03 -1.2997261e-04  9.0749370e-04]] 
Episode: 28: [[-1.0657500e-03  9.7977412e-05  6.4759864e-04]
 [ 1.2048687e-03 -3.8401279e-04 -3.2286317e-04]
 [-6.4655422e-04  7.5041089e-04  5.2093313e-04]
 [-1.6196001e-01 -3.3945453e-01  4.4200331e-02]
 [ 1.2671140e-01 -4.6442673e-02 -3.9612226e-02]
 [ 4.6047789e-01  5.2123386e-01 -3.8259551e-01]
 [ 6.0964643e-04 -7.9546653e-04 -9.2458702e-04]
 [-5.6089993e-05 -7.3089922e-04 -9.0972608e-04]
 [ 1.3948047e-03 -1.3660810e-04  8.7881635e-04]] 
Episode: 29: [[-1.12132228e-03  1.18604177e-04  6.62265753e-04]
 [ 1.24051049e-03 -4.15405113e-04 -3.78197874e-04]
 [-7.06103398e-04  6.92112430e-04  4.63150704e-04]
 [-1.61987424e-01 -3.39445323e-01  4.42220904e-02]
 [ 1.26719102e-01 -4.64532003e-02 -3.95846255e-02]
 [ 4.60473597e-01  5.21193385e-01 -3.82619351e-01]
 [ 6.28874463e-04 -8.46904120e-04 -9.70700989e-04]
 [-1.06162215e-05 -7.71173509e-04 -9.57103446e-04]
 [ 1.38641545e-03 -1.77080728e-04  8.26756295e-04]] 
Episode: 30: [[-1.1731351e-03  1.3762938e-04  6.7582668e-04]
 [ 1.2686015e-03 -4.4484879e-04 -4.2975487e-04]
 [-7.1972964e-04  6.3658558e-04  4.0585411e-04]
 [-1.6201356e-01 -3.3943695e-01  4.4241913e-02]
 [ 1.2672612e-01 -4.6462793e-02 -3.9559480e-02]
 [ 4.6046972e-01  5.2115649e-01 -3.8264108e-01]
 [ 6.4671732e-04 -8.9407776e-04 -1.0130792e-03]
 [ 2.4314215e-05 -8.0891547e-04 -1.0012781e-03]
 [ 1.3548684e-03 -2.1604961e-04  7.7295461e-04]] 
Episode: 31: [[-1.2199976e-03  1.5485352e-04  6.8808784e-04]
 [ 1.2946485e-03 -4.7145566e-04 -4.7642260e-04]
 [-7.4125262e-04  5.8664812e-04  3.5499071e-04]
 [-1.6203706e-01 -3.3942932e-01  4.4259977e-02]
 [ 1.2673251e-01 -4.6471532e-02 -3.9536569e-02]
 [ 4.6046618e-01  5.2112287e-01 -3.8266087e-01]
 [ 6.6285947e-04 -9.3696825e-04 -1.0515826e-03]
 [ 5.7388865e-05 -8.4300363e-04 -1.0412300e-03]
 [ 1.3338339e-03 -2.5095863e-04  7.2591793e-04]] 
Episode: 32: [[-1.2635902e-03  1.7094708e-04  6.9963222e-04]
 [ 1.3180388e-03 -4.9625628e-04 -5.1975314e-04]
 [-7.6561328e-04  5.3952105e-04  3.0440727e-04]
 [-1.6205925e-01 -3.3942237e-01  4.4276431e-02]
 [ 1.2673834e-01 -4.6479497e-02 -3.9515696e-02]
 [ 4.6046296e-01  5.2109224e-01 -3.8267890e-01]
 [ 6.7795027e-04 -9.7629451e-04 -1.0869817e-03]
 [ 8.1322134e-05 -8.7489630e-04 -1.0785018e-03]
 [ 1.3191801e-03 -2.8444050e-04  6.7760458e-04]] 
Episode: 33: [[-1.30304752e-03  1.85466866e-04  7.10014545e-04]
 [ 1.33900053e-03 -5.18705463e-04 -5.59014501e-04]
 [-7.97312532e-04  4.97044006e-04  2.59251508e-04]
 [-1.62079260e-01 -3.39416027e-01  4.42914218e-02]
 [ 1.26743644e-01 -4.64867540e-02 -3.94966789e-02]
 [ 4.60460007e-01  5.21064341e-01 -3.82695317e-01]
 [ 6.91573019e-04 -1.01205090e-03 -1.11913844e-03]
 [ 1.05056024e-04 -9.03709908e-04 -1.11219985e-03]
 [ 1.31418731e-03 -3.14463396e-04  6.35288947e-04]] 
Episode: 34: [[-1.3404370e-03  1.9977706e-04  7.2055991e-04]
 [ 1.3641263e-03 -5.3999090e-04 -5.9606048e-04]
 [-7.7243481e-04  4.5566814e-04  2.1258027e-04]
 [-1.6209854e-01 -3.3941025e-01  4.4305075e-02]
 [ 1.2674847e-01 -4.6493363e-02 -3.9479360e-02]
 [ 4.6045738e-01  5.2103889e-01 -3.8271031e-01]
 [ 7.0494320e-04 -1.0450855e-03 -1.1490675e-03]
 [ 1.1188623e-04 -9.3150133e-04 -1.1446344e-03]
 [ 1.2708262e-03 -3.4489713e-04  5.8615825e-04]] 
Episode: 35: [[-1.3743533e-03  2.1262838e-04  7.2998920e-04]
 [ 1.3857899e-03 -5.5928825e-04 -6.2966516e-04]
 [-7.5644121e-04  4.1826902e-04  1.7065316e-04]
 [-1.6211604e-01 -3.3940500e-01  4.4317503e-02]
 [ 1.2675285e-01 -4.6499386e-02 -3.9463587e-02]
 [ 4.6045500e-01  5.2101570e-01 -3.8272396e-01]
 [ 7.1697438e-04 -1.0751076e-03 -1.1762420e-03]
 [ 1.2030765e-04 -9.5662544e-04 -1.1739550e-03]
 [ 1.2375877e-03 -3.7225668e-04  5.4280157e-04]] 
Episode: 36: [[-1.4142015e-03  2.0043153e-04  7.3537300e-04]
 [ 1.4059499e-03 -5.7084410e-04 -6.5924245e-04]
 [-7.4667315e-04  3.8512552e-04  1.3076334e-04]
 [-1.6214582e-01 -3.3941120e-01  4.4326711e-02]
 [ 1.2674700e-01 -4.6509150e-02 -3.9452855e-02]
 [ 4.6045190e-01  5.2099842e-01 -3.8273072e-01]
 [ 7.1615580e-04 -1.0949036e-03 -1.1995267e-03]
 [ 1.3866500e-04 -9.6992118e-04 -1.1992183e-03]
 [ 1.2115899e-03 -3.9635057e-04  5.0016021e-04]] 
Episode: 37: [[-1.4546335e-03  1.8410839e-04  7.3808350e-04]
 [ 1.4224869e-03 -5.8147102e-04 -6.8599783e-04]
 [-7.4261666e-04  3.5512456e-04  9.3959963e-05]
 [-1.6217755e-01 -3.3941785e-01  4.4334639e-02]
 [ 1.2674062e-01 -4.6517201e-02 -3.9443243e-02]
 [ 4.6044856e-01  5.2098137e-01 -3.8273600e-01]
 [ 7.1285345e-04 -1.1117981e-03 -1.2200986e-03]
 [ 1.5958751e-04 -9.8133867e-04 -1.2213892e-03]
 [ 1.1937824e-03 -4.1803348e-04  4.6073284e-04]] 
Episode: 38: [[-1.4914583e-03  1.6915295e-04  7.4040657e-04]
 [ 1.4351093e-03 -5.9112126e-04 -7.1030797e-04]
 [-7.4501027e-04  3.2791065e-04  6.0672850e-05]
 [-1.6220649e-01 -3.3942389e-01  4.4341858e-02]
 [ 1.2673481e-01 -4.6524532e-02 -3.9434493e-02]
 [ 4.6044552e-01  5.2096587e-01 -3.8274083e-01]
 [ 7.0971024e-04 -1.1271533e-03 -1.2387745e-03]
 [ 1.8081813e-04 -9.9164061e-04 -1.2414232e-03]
 [ 1.1836051e-03 -4.3758636e-04  4.2582795e-04]] 
Episode: 39: [[-1.5248662e-03  1.5579459e-04  7.4296893e-04]
 [ 1.4555949e-03 -5.9996004e-04 -7.3255191e-04]
 [-7.3037454e-04  3.0291404e-04  2.9835241e-05]
 [-1.6223255e-01 -3.3942941e-01  4.4348434e-02]
 [ 1.2672952e-01 -4.6531204e-02 -3.9426528e-02]
 [ 4.6044278e-01  5.2095175e-01 -3.8274521e-01]
 [ 7.0728874e-04 -1.1412058e-03 -1.2559387e-03]
 [ 1.9322682e-04 -1.0012658e-03 -1.2601096e-03]
 [ 1.1582625e-03 -4.5588581e-04  3.9121023e-04]] 
Episode: 40: [[-1.5547561e-03  1.4411280e-04  7.4629008e-04]
 [ 1.4937707e-03 -6.0807209e-04 -7.5295841e-04]
 [-6.8612804e-04  2.7985894e-04  1.0037285e-06]
 [-1.6225536e-01 -3.3943442e-01  4.4354420e-02]
 [ 1.2672472e-01 -4.6537280e-02 -3.9419279e-02]
 [ 4.6044034e-01  5.2093887e-01 -3.8274920e-01]
 [ 7.0611469e-04 -1.1541253e-03 -1.2718987e-03]
 [ 1.8998559e-04 -1.0104550e-03 -1.2780468e-03]
 [ 1.1058556e-03 -4.7341562e-04  3.5386762e-04]] 
Episode: 41: [[-1.5832987e-03  1.8302271e-04  7.8778912e-04]
 [ 1.5258710e-03 -6.2902976e-04 -7.7241356e-04]
 [-6.4491149e-04  2.6055667e-04 -1.7118116e-05]
 [-1.6225541e-01 -3.3940864e-01  4.4371888e-02]
 [ 1.2675236e-01 -4.6515197e-02 -3.9403595e-02]
 [ 4.6044764e-01  5.2094018e-01 -3.8275245e-01]
 [ 7.2064332e-04 -1.1858939e-03 -1.2992038e-03]
 [ 1.6505181e-04 -1.0398271e-03 -1.3046479e-03]
 [ 1.0493434e-03 -4.8264640e-04  3.4045195e-04]] 
Episode: 42: [[-1.6096103e-03  2.1792289e-04  8.2688319e-04]
 [ 1.5524251e-03 -6.4827135e-04 -7.9013646e-04]
 [-6.1161554e-04  2.4302068e-04 -3.3529795e-05]
 [-1.6225563e-01 -3.3938515e-01  4.4388197e-02]
 [ 1.2677750e-01 -4.6495013e-02 -3.9388999e-02]
 [ 4.6045423e-01  5.2094108e-01 -3.8275516e-01]
 [ 7.3354738e-04 -1.2148303e-03 -1.3244719e-03]
 [ 1.4429737e-04 -1.0664816e-03 -1.3291379e-03]
 [ 1.0024959e-03 -4.9086008e-04  3.2910102e-04]] 
Episode: 43: [[-1.6329079e-03  2.4964227e-04  8.6267444e-04]
 [ 1.5839008e-03 -6.6577533e-04 -8.0623792e-04]
 [-5.6947349e-04  2.2713577e-04 -4.8275851e-05]
 [-1.6225511e-01 -3.3936378e-01  4.4403039e-02]
 [ 1.2680039e-01 -4.6476647e-02 -3.9375719e-02]
 [ 4.6046025e-01  5.2094191e-01 -3.8275763e-01]
 [ 7.4572000e-04 -1.2411486e-03 -1.3475433e-03]
 [ 1.1960917e-04 -1.0907007e-03 -1.3516475e-03]
 [ 9.4718696e-04 -4.9825927e-04  3.1737101e-04]] 
Episode: 44: [[-1.60070101e-03  2.37667802e-04  8.22445611e-04]
 [ 1.62192329e-03 -6.57037250e-04 -8.31769721e-04]
 [-5.35492669e-04  2.20880509e-04 -6.36785553e-05]
 [-1.62235931e-01 -3.39376152e-01  4.43870090e-02]
 [ 1.26788318e-01 -4.64969054e-02 -3.93890813e-02]
 [ 4.60468829e-01  5.20901084e-01 -3.82774979e-01]
 [ 7.64391560e-04 -1.23468763e-03 -1.34178810e-03]
 [ 1.17346026e-04 -1.08576927e-03 -1.34982832e-03]
 [ 8.93343997e-04 -4.61337244e-04  2.87296309e-04]] 
Episode: 45: [[-1.5707707e-03  2.2664845e-04  7.8592257e-04]
 [ 1.6630080e-03 -6.4910168e-04 -8.5495540e-04]
 [-4.9282657e-04  2.1528968e-04 -7.7338118e-05]
 [-1.6221760e-01 -3.3938742e-01  4.4372428e-02]
 [ 1.2677734e-01 -4.6515334e-02 -3.9401233e-02]
 [ 4.6047667e-01  5.2086395e-01 -3.8279074e-01]
 [ 7.8180444e-04 -1.2287702e-03 -1.3365961e-03]
 [ 1.0947248e-04 -1.0811515e-03 -1.3483020e-03]
 [ 8.3083450e-04 -4.2750934e-04  2.5914714e-04]] 
Episode: 46: [[-1.5438019e-03  2.1669583e-04  7.5269403e-04]
 [ 1.6982526e-03 -6.4187380e-04 -8.7605283e-04]
 [-4.5740526e-04  2.1017357e-04 -8.9869260e-05]
 [-1.6220127e-01 -3.3939767e-01  4.4359166e-02]
 [ 1.2676735e-01 -4.6532094e-02 -3.9412286e-02]
 [ 4.6048379e-01  5.2083015e-01 -3.8280508e-01]
 [ 7.9750159e-04 -1.2234099e-03 -1.3318675e-03]
 [ 1.0416076e-04 -1.0770179e-03 -1.3468919e-03]
 [ 7.7838777e-04 -3.9686219e-04  2.3368422e-04]] 
Episode: 47: [[-1.5433315e-03  2.7185949e-04  7.5019407e-04]
 [ 1.7326500e-03 -6.3811115e-04 -8.8996970e-04]
 [-4.2311632e-04  2.0897870e-04 -1.0062662e-04]
 [-1.6217694e-01 -3.3938330e-01  4.4356078e-02]
 [ 1.2678324e-01 -4.6530943e-02 -3.9414667e-02]
 [ 4.6049541e-01  5.2083814e-01 -3.8280097e-01]
 [ 8.3728338e-04 -1.2531572e-03 -1.3391436e-03]
 [ 8.5178195e-05 -1.1001854e-03 -1.3511886e-03]
 [ 7.0566853e-04 -3.5520285e-04  2.2286832e-04]] 
Episode: 48: [[-1.54315564e-03  3.22008622e-04  7.47860759e-04]
 [ 1.76207896e-03 -6.34662283e-04 -9.02637956e-04]
 [-3.94844013e-04  2.07878649e-04 -1.10496374e-04]
 [-1.62155166e-01 -3.39370281e-01  4.43532355e-02]
 [ 1.26797646e-01 -4.65299115e-02 -3.94168496e-02]
 [ 4.60505992e-01  5.20845413e-01 -3.82797211e-01]
 [ 8.73316487e-04 -1.28019892e-03 -1.34572957e-03]
 [ 6.97598880e-05 -1.12130097e-03 -1.35505956e-03]
 [ 6.43537962e-04 -3.17479571e-04  2.13029241e-04]] 
Episode: 49: [[-1.5953272e-03  4.0458725e-04  7.9523859e-04]
 [ 1.7694578e-03 -6.3148432e-04 -8.8867679e-04]
 [-3.7275726e-04  1.9715716e-04 -1.0795392e-04]
 [-1.6214643e-01 -3.3931604e-01  4.4379737e-02]
 [ 1.2682827e-01 -4.6512060e-02 -3.9384998e-02]
 [ 4.6056196e-01  5.2078640e-01 -3.8283068e-01]
 [ 9.4388291e-04 -1.3400546e-03 -1.3774727e-03]
 [ 9.2955772e-05 -1.1855395e-03 -1.3882772e-03]
 [ 5.8826170e-04 -2.6358021e-04  2.2727734e-04]] 
Episode: 50: [[-1.6394153e-03  5.0237082e-04  8.6600572e-04]
 [ 1.7854401e-03 -6.3168386e-04 -8.7068556e-04]
 [-3.5087421e-04  1.8250693e-04 -1.0875151e-04]
 [-1.6209728e-01 -3.3924171e-01  4.4428922e-02]
 [ 1.2688896e-01 -4.6470046e-02 -3.9345000e-02]
 [ 4.6060243e-01  5.2072835e-01 -3.8285831e-01]
 [ 1.0348302e-03 -1.4160917e-03 -1.4292402e-03]
 [ 7.3844007e-05 -1.2660583e-03 -1.4382425e-03]
 [ 5.3618738e-04 -2.0726254e-04  2.6100219e-04]] 
Episode: 51: [[-1.67973945e-03  5.91266376e-04  9.30329901e-04]
 [ 1.79871020e-03 -6.31822972e-04 -8.54325423e-04]
 [-3.33219854e-04  1.69215069e-04 -1.09516775e-04]
 [-1.62052900e-01 -3.39174181e-01  4.44736220e-02]
 [ 1.26944125e-01 -4.64318618e-02 -3.93086486e-02]
 [ 4.60639209e-01  5.20675600e-01 -3.82883430e-01]
 [ 1.11741375e-03 -1.48521783e-03 -1.47629541e-03]
 [ 5.74101578e-05 -1.33929716e-03 -1.48367102e-03]
 [ 4.92833671e-04 -1.56254115e-04  2.91537435e-04]] 
Episode: 52: [[-1.7071334e-03  6.7343120e-04  9.8008639e-04]
 [ 1.8184918e-03 -6.2936294e-04 -8.4107328e-04]
 [-3.1052248e-04  1.5704619e-04 -1.0928951e-04]
 [-1.6200601e-01 -3.3911252e-01  4.4508364e-02]
 [ 1.2699510e-01 -4.6397455e-02 -3.9280325e-02]
 [ 4.6067542e-01  5.2063000e-01 -3.8290441e-01]
 [ 1.1951402e-03 -1.5476133e-03 -1.5128357e-03]
 [ 3.4774159e-05 -1.4056080e-03 -1.5193640e-03]
 [ 4.4182717e-04 -1.0937561e-04  3.1754081e-04]] 
Episode: 53: [[-1.7323863e-03  7.4812170e-04  1.0253140e-03]
 [ 1.8351700e-03 -6.2705745e-04 -8.2900294e-04]
 [-2.9180461e-04  1.4605372e-04 -1.0906991e-04]
 [-1.6196375e-01 -3.3905649e-01  4.4539928e-02]
 [ 1.2704141e-01 -4.6366192e-02 -3.9254591e-02]
 [ 4.6070832e-01  5.2058858e-01 -3.8292345e-01]
 [ 1.2656861e-03 -1.6043332e-03 -1.5460508e-03]
 [ 1.5587431e-05 -1.4659385e-03 -1.5518349e-03]
 [ 3.9944792e-04 -6.7018809e-05  3.4090516e-04]] 
Episode: 54: [[-1.7557254e-03  8.1601564e-04  1.0664238e-03]
 [ 1.8492820e-03 -6.2488252e-04 -8.1800285e-04]
 [-2.7659009e-04  1.3615047e-04 -1.0883795e-04]
 [-1.6192570e-01 -3.3900559e-01  4.4568606e-02]
 [ 1.2708348e-01 -4.6337791e-02 -3.9231211e-02]
 [ 4.6073821e-01  5.2055091e-01 -3.8294077e-01]
 [ 1.3296966e-03 -1.6558918e-03 -1.5762424e-03]
 [-4.4252093e-07 -1.5208328e-03 -1.5813770e-03]
 [ 3.6494335e-04 -2.8793602e-05  3.6184827e-04]] 
Episode: 55: [[-1.8314691e-03  9.1130007e-04  1.1440075e-03]
 [ 1.7948452e-03 -6.9563085e-04 -7.4672804e-04]
 [-2.6151934e-04  6.8328533e-05 -1.3339218e-04]
 [-1.6186634e-01 -3.3892196e-01  4.4645306e-02]
 [ 1.2716426e-01 -4.6261922e-02 -3.9155461e-02]
 [ 4.6067435e-01  5.2047747e-01 -3.8287035e-01]
 [ 1.4224398e-03 -1.7416375e-03 -1.6537647e-03]
 [-8.1380557e-07 -1.6077508e-03 -1.6586104e-03]
 [ 4.1057603e-04  5.0631115e-05  4.3575326e-04]] 
Episode: 56: [[-1.9004167e-03  9.9786464e-04  1.2144747e-03]
 [ 1.7450347e-03 -7.5986929e-04 -6.8197999e-04]
 [-2.4968677e-04  6.7686606e-06 -1.5565338e-04]
 [-1.6181278e-01 -3.3884600e-01  4.4714965e-02]
 [ 1.2723762e-01 -4.6193015e-02 -3.9086662e-02]
 [ 4.6061635e-01  5.2041078e-01 -3.8280639e-01]
 [ 1.5066157e-03 -1.8195272e-03 -1.7241780e-03]
 [ 2.5638121e-07 -1.6867296e-03 -1.7287703e-03]
 [ 4.5409802e-04  1.2269146e-04  5.0270633e-04]] 
Episode: 57: [[-1.9631386e-03  1.0764879e-03  1.2784670e-03]
 [ 1.6995376e-03 -8.1819558e-04 -6.2317867e-04]
 [-2.4062705e-04 -4.9119593e-05 -1.7588593e-04]
 [-1.6176438e-01 -3.3877701e-01  4.4778224e-02]
 [ 1.2730424e-01 -4.6130441e-02 -3.9024185e-02]
 [ 4.6056369e-01  5.2035022e-01 -3.8274831e-01]
 [ 1.5830109e-03 -1.8902669e-03 -1.7881222e-03]
 [ 2.4050107e-06 -1.7584736e-03 -1.7924873e-03]
 [ 4.9538928e-04  1.8808529e-04  5.6345295e-04]] 
Episode: 58: [[-2.0201593e-03  1.1487962e-03  1.3364065e-03]
 [ 1.6579191e-03 -8.7108486e-04 -5.6980003e-04]
 [-2.3461794e-04 -9.9905963e-05 -1.9423428e-04]
 [-1.6172037e-01 -3.3871412e-01  4.4835530e-02]
 [ 1.2736492e-01 -4.6073534e-02 -3.8967658e-02]
 [ 4.6051592e-01  5.2029526e-01 -3.8269556e-01]
 [ 1.6526831e-03 -1.9548868e-03 -1.8459506e-03]
 [ 5.6464914e-06 -1.8239686e-03 -1.8501794e-03]
 [ 5.3527037e-04  2.4749181e-04  6.1854004e-04]] 
Episode: 59: [[-2.0720360e-03  1.2144513e-03  1.3890067e-03]
 [ 1.6198755e-03 -9.1909722e-04 -5.2134198e-04]
 [-2.3156613e-04 -1.4601373e-04 -2.1094523e-04]
 [-1.6168062e-01 -3.3865702e-01  4.4887558e-02]
 [ 1.2742001e-01 -4.6021868e-02 -3.8916338e-02]
 [ 4.6047255e-01  5.2024537e-01 -3.8264766e-01]
 [ 1.7158826e-03 -2.0135588e-03 -1.8984496e-03]
 [ 1.0034441e-05 -1.8834460e-03 -1.9025523e-03]
 [ 5.7367369e-04  3.0139429e-04  6.6859351e-04]] 
Episode: 60: [[-2.1505503e-03  1.2366388e-03  1.4402326e-03]
 [ 1.5849735e-03 -9.6327416e-04 -4.8117296e-04]
 [-2.2835072e-04 -1.8499058e-04 -2.2857342e-04]
 [-1.6171269e-01 -3.3861777e-01  4.4939615e-02]
 [ 1.2745459e-01 -4.5978643e-02 -3.8863122e-02]
 [ 4.6042857e-01  5.2018875e-01 -3.8260221e-01]
 [ 1.7309693e-03 -2.0537593e-03 -1.9511429e-03]
 [ 5.4136624e-05 -1.9235510e-03 -1.9544240e-03]
 [ 6.0492236e-04  3.4975709e-04  7.1077887e-04]] 
Episode: 61: [[-2.2225373e-03  1.2552835e-03  1.4878825e-03]
 [ 1.5537860e-03 -1.0056843e-03 -4.4861663e-04]
 [-2.1607873e-04 -2.2062752e-04 -2.4574983e-04]
 [-1.6174021e-01 -3.3858141e-01  4.4989247e-02]
 [ 1.2748680e-01 -4.5938984e-02 -3.8810931e-02]
 [ 4.6038738e-01  5.2013397e-01 -3.8256136e-01]
 [ 1.7458100e-03 -2.0909449e-03 -2.0015286e-03]
 [ 8.9396221e-05 -1.9607535e-03 -2.0040271e-03]
 [ 6.2554341e-04  3.9403010e-04  7.5130386e-04]] 
Episode: 62: [[-2.2934198e-03  1.2802451e-03  1.5323436e-03]
 [ 1.5241251e-03 -1.0435949e-03 -4.2308908e-04]
 [-2.0485040e-04 -2.5285821e-04 -2.6085615e-04]
 [-1.6176744e-01 -3.3854619e-01  4.5036670e-02]
 [ 1.2751617e-01 -4.5904431e-02 -3.8760126e-02]
 [ 4.6035001e-01  5.2007788e-01 -3.8252395e-01]
 [ 1.7621896e-03 -2.1277126e-03 -2.0499092e-03]
 [ 1.2424953e-04 -1.9976459e-03 -2.0515358e-03]
 [ 6.4366573e-04  4.3608996e-04  7.9105451e-04]] 
Episode: 63: [[-2.3569115e-03  1.3028870e-03  1.5727221e-03]
 [ 1.5117258e-03 -1.0779940e-03 -3.9989557e-04]
 [-1.6458753e-04 -2.8202476e-04 -2.7450270e-04]
 [-1.6179091e-01 -3.3851424e-01  4.5079704e-02]
 [ 1.2754282e-01 -4.5873076e-02 -3.8714021e-02]
 [ 4.6031612e-01  5.2002698e-01 -3.8249001e-01]
 [ 1.7776374e-03 -2.1610691e-03 -2.0938772e-03]
 [ 1.4125532e-04 -2.0311032e-03 -2.0948257e-03]
 [ 6.3404458e-04  4.7429683e-04  8.2520855e-04]] 
Episode: 64: [[-2.4145965e-03  1.3234315e-03  1.6093563e-03]
 [ 1.4991190e-03 -1.1092053e-03 -3.7885353e-04]
 [-1.3068100e-04 -3.0849664e-04 -2.8689555e-04]
 [-1.6181231e-01 -3.3848524e-01  4.5118753e-02]
 [ 1.2756701e-01 -4.5844626e-02 -3.8672190e-02]
 [ 4.6028537e-01  5.1998079e-01 -3.8245922e-01]
 [ 1.7916047e-03 -2.1913352e-03 -2.1337657e-03]
 [ 1.5792364e-04 -2.0614630e-03 -2.1340912e-03]
 [ 6.2752562e-04  5.0895673e-04  8.5632969e-04]] 
Episode: 65: [[-2.4840420e-03  1.3345580e-03  1.6468640e-03]
 [ 1.4817390e-03 -1.1409605e-03 -3.6992936e-04]
 [-9.9880388e-05 -3.3249776e-04 -3.0235059e-04]
 [-1.6184935e-01 -3.3846051e-01  4.5160983e-02]
 [ 1.2758741e-01 -4.5820039e-02 -3.8624670e-02]
 [ 4.6025193e-01  5.1993674e-01 -3.8243234e-01]
 [ 1.7931432e-03 -2.2189440e-03 -2.1787230e-03]
 [ 1.8402316e-04 -2.0876050e-03 -2.1766101e-03]
 [ 6.1532325e-04  5.3992780e-04  8.8893931e-04]] 
Episode: 66: [[-2.5451859e-03  1.3465183e-03  1.6802592e-03]
 [ 1.4644552e-03 -1.1696172e-03 -3.6077591e-04]
 [-7.4643045e-05 -3.5405628e-04 -3.1663955e-04]
 [-1.6188066e-01 -3.3843711e-01  4.5198373e-02]
 [ 1.2760717e-01 -4.5797605e-02 -3.8582027e-02]
 [ 4.6022171e-01  5.1989788e-01 -3.8240820e-01]
 [ 1.7964045e-03 -2.2451878e-03 -2.2184008e-03]
 [ 2.0762248e-04 -2.1123802e-03 -2.2141656e-03]
 [ 6.0511712e-04  5.6844437e-04  9.1823068e-04]] 
Episode: 67: [[-2.6006785e-03  1.3573639e-03  1.7105464e-03]
 [ 1.4471581e-03 -1.1956095e-03 -3.5247250e-04]
 [-5.3859487e-05 -3.7360593e-04 -3.2953062e-04]
 [-1.6190910e-01 -3.3841589e-01  4.5232289e-02]
 [ 1.2762509e-01 -4.5777258e-02 -3.8543347e-02]
 [ 4.6019429e-01  5.1986265e-01 -3.8238633e-01]
 [ 1.7993222e-03 -2.2689891e-03 -2.2543822e-03]
 [ 2.3006892e-04 -2.1348444e-03 -2.2482092e-03]
 [ 5.9776072e-04  5.9432420e-04  9.4501278e-04]] 
Episode: 68: [[-2.6432266e-03  1.3837791e-03  1.7371345e-03]
 [ 1.4289503e-03 -1.2228111e-03 -3.4455516e-04]
 [-3.5426638e-05 -3.9245299e-04 -3.3814640e-04]
 [-1.6191705e-01 -3.3838645e-01  4.5262940e-02]
 [ 1.2764975e-01 -4.5757025e-02 -3.8506053e-02]
 [ 4.6017033e-01  5.1983076e-01 -3.8236651e-01]
 [ 1.8179825e-03 -2.2984333e-03 -2.2854549e-03]
 [ 2.3944440e-04 -2.1667986e-03 -2.2787538e-03]
 [ 5.9948646e-04  6.1955396e-04  9.7367843e-04]] 
Episode: 69: [[-2.6814803e-03  1.4077552e-03  1.7612699e-03]
 [ 1.4289330e-03 -1.2474803e-03 -3.3739206e-04]
 [-1.1658950e-06 -4.0958566e-04 -3.4656675e-04]
 [-1.6192377e-01 -3.3835974e-01  4.5290738e-02]
 [ 1.2767212e-01 -4.5738678e-02 -3.8472231e-02]
 [ 4.6014863e-01  5.1980186e-01 -3.8234854e-01]
 [ 1.8352472e-03 -2.3251572e-03 -2.3136919e-03]
 [ 2.3862062e-04 -2.1958419e-03 -2.3066108e-03]
 [ 5.8450794e-04  6.4230443e-04  9.9797093e-04]] 
Episode: 70: [[-2.7162062e-03  1.4294919e-03  1.7831513e-03]
 [ 1.4273472e-03 -1.2698483e-03 -3.3089356e-04]
 [ 2.7376002e-05 -4.2511206e-04 -3.5411553e-04]
 [-1.6192992e-01 -3.3833551e-01  4.5315944e-02]
 [ 1.2769240e-01 -4.5722041e-02 -3.8441565e-02]
 [ 4.6012893e-01  5.1977563e-01 -3.8233224e-01]
 [ 1.8508553e-03 -2.3493853e-03 -2.3392877e-03]
 [ 2.3873546e-04 -2.2221657e-03 -2.3318478e-03]
 [ 5.7323865e-04  6.6295505e-04  1.0202365e-03]] 
Episode: 71: [[-2.7472300e-03  1.4496489e-03  1.8027205e-03]
 [ 1.4234270e-03 -1.2900896e-03 -3.2481219e-04]
 [ 5.1517858e-05 -4.3918189e-04 -3.6093549e-04]
 [-1.6193515e-01 -3.3831334e-01  4.5338504e-02]
 [ 1.2771097e-01 -4.5706853e-02 -3.8414098e-02]
 [ 4.6011132e-01  5.1975197e-01 -3.8231757e-01]
 [ 1.8651274e-03 -2.3714062e-03 -2.3620529e-03]
 [ 2.3993198e-04 -2.2462299e-03 -2.3543434e-03]
 [ 5.6465011e-04  6.8182399e-04  1.0405374e-03]] 
Episode: 72: [[-2.7792377e-03  1.4706320e-03  1.8205665e-03]
 [ 1.4194068e-03 -1.3039728e-03 -3.0840244e-04]
 [ 7.1155679e-05 -4.5197955e-04 -3.6694916e-04]
 [-1.6194783e-01 -3.3829567e-01  4.5355655e-02]
 [ 1.2772515e-01 -4.5694336e-02 -3.8393822e-02]
 [ 4.6009603e-01  5.1973432e-01 -3.8230333e-01]
 [ 1.8751818e-03 -2.3906035e-03 -2.3796838e-03]
 [ 2.4998677e-04 -2.2658112e-03 -2.3717906e-03]
 [ 5.5824901e-04  6.9968693e-04  1.0539135e-03]] 
Episode: 73: [[-2.8083567e-03  1.4896576e-03  1.8367412e-03]
 [ 1.4132814e-03 -1.3165572e-03 -2.9352470e-04]
 [ 8.7307591e-05 -4.6358429e-04 -3.7239253e-04]
 [-1.6195945e-01 -3.3827963e-01  4.5371201e-02]
 [ 1.2773801e-01 -4.5682989e-02 -3.8375441e-02]
 [ 4.6008217e-01  5.1971835e-01 -3.8229042e-01]
 [ 1.8842421e-03 -2.4080083e-03 -2.3956599e-03]
 [ 2.6042588e-04 -2.2835631e-03 -2.3875965e-03]
 [ 5.5399968e-04  7.1588199e-04  1.0661212e-03]] 
Episode: 74: [[-2.8351711e-03  1.5064302e-03  1.8515178e-03]
 [ 1.4057591e-03 -1.3280995e-03 -2.8045432e-04]
 [ 9.9594603e-05 -4.7410265e-04 -3.7725060e-04]
 [-1.6197038e-01 -3.3826521e-01  4.5385540e-02]
 [ 1.2774955e-01 -4.5672730e-02 -3.8358487e-02]
 [ 4.6006948e-01  5.1970363e-01 -3.8227868e-01]
 [ 1.8921765e-03 -2.4236748e-03 -2.4104873e-03]
 [ 2.7100364e-04 -2.2995223e-03 -2.4021713e-03]
 [ 5.5249402e-04  7.3054654e-04  1.0775108e-03]] 
Episode: 75: [[-2.86037941e-03  1.52173231e-03  1.86524191e-03]
 [ 1.39603275e-03 -1.33886840e-03 -2.68505391e-04]
 [ 1.08349304e-04 -4.83982847e-04 -3.82083526e-04]
 [-1.61980718e-01 -3.38251948e-01  4.53988761e-02]
 [ 1.27760172e-01 -4.56633866e-02 -3.83427516e-02]
 [ 4.60057765e-01  5.19690156e-01 -3.82268280e-01]
 [ 1.89953530e-03 -2.43827701e-03 -2.42433860e-03]
 [ 2.82349676e-04 -2.31436244e-03 -2.41575693e-03]
 [ 5.53395075e-04  7.43811484e-04  1.08819501e-03]] 
Episode: 76: [[-2.8830806e-03  1.5356094e-03  1.8776903e-03]
 [ 1.3961880e-03 -1.3486295e-03 -2.5768927e-04]
 [ 1.2406959e-04 -4.9296417e-04 -3.8678359e-04]
 [-1.6198990e-01 -3.3823994e-01  4.5410961e-02]
 [ 1.2776980e-01 -4.5654919e-02 -3.8328487e-02]
 [ 4.6004716e-01  5.1967794e-01 -3.8225883e-01]
 [ 1.9063564e-03 -2.4515223e-03 -2.4369201e-03]
 [ 2.8841771e-04 -2.3278478e-03 -2.4281414e-03]
 [ 5.4661225e-04  7.5576175e-04  1.0971164e-03]] 
Episode: 77: [[-2.9037062e-03  1.5481832e-03  1.8889704e-03]
 [ 1.3934220e-03 -1.3574760e-03 -2.4789065e-04]
 [ 1.3586297e-04 -5.0110894e-04 -3.9106759e-04]
 [-1.6199829e-01 -3.3822903e-01  4.5421913e-02]
 [ 1.2777852e-01 -4.5647245e-02 -3.8315561e-02]
 [ 4.6003753e-01  5.1966685e-01 -3.8225028e-01]
 [ 1.9125072e-03 -2.4635240e-03 -2.4483199e-03]
 [ 2.9531616e-04 -2.3400660e-03 -2.4393604e-03]
 [ 5.4300512e-04  7.6659495e-04  1.1052508e-03]] 
Episode: 78: [[-2.9224490e-03  1.5595735e-03  1.8991884e-03]
 [ 1.3879817e-03 -1.3654917e-03 -2.3900927e-04]
 [ 1.4414990e-04 -5.0848443e-04 -3.9486878e-04]
 [-1.6200596e-01 -3.3821917e-01  4.5431837e-02]
 [ 1.2778641e-01 -4.5640294e-02 -3.8303848e-02]
 [ 4.6002880e-01  5.1965684e-01 -3.8224253e-01]
 [ 1.9180324e-03 -2.4743956e-03 -2.4586415e-03]
 [ 3.0291086e-04 -2.3511276e-03 -2.4495067e-03]
 [ 5.4215163e-04  7.7642826e-04  1.1128293e-03]] 
Episode: 79: [[-2.9394852e-03  1.5698901e-03  1.9084435e-03]
 [ 1.3799992e-03 -1.3727538e-03 -2.3095994e-04]
 [ 1.4922567e-04 -5.1515974e-04 -3.9822812e-04]
 [-1.6201298e-01 -3.3821023e-01  4.5440830e-02]
 [ 1.2779358e-01 -4.5633994e-02 -3.8293239e-02]
 [ 4.6002090e-01  5.1964778e-01 -3.8223550e-01]
 [ 1.9229901e-03 -2.4842417e-03 -2.4679857e-03]
 [ 3.1114972e-04 -2.3611395e-03 -2.4586811e-03]
 [ 5.4381439e-04  7.8535854e-04  1.1199062e-03]] 
Episode: 80: [[-2.9549694e-03  1.5792329e-03  1.9168252e-03]
 [ 1.3706213e-03 -1.3793320e-03 -2.2366289e-04]
 [ 1.5217227e-04 -5.2119483e-04 -4.0115588e-04]
 [-1.6201940e-01 -3.3820212e-01  4.5448978e-02]
 [ 1.2780006e-01 -4.5628287e-02 -3.8283627e-02]
 [ 4.6001375e-01  5.1963955e-01 -3.8222915e-01]
 [ 1.9274328e-03 -2.4931575e-03 -2.4764431e-03]
 [ 3.1953352e-04 -2.3701978e-03 -2.4669715e-03]
 [ 5.4694980e-04  7.9347269e-04  1.1265463e-03]] 
Episode: 81: [[-2.9690424e-03  1.5876925e-03  1.9244151e-03]
 [ 1.3589216e-03 -1.3852905e-03 -2.1704864e-04]
 [ 1.5239150e-04 -5.2665127e-04 -4.0370470e-04]
 [-1.6202529e-01 -3.3819479e-01  4.5456357e-02]
 [ 1.2780593e-01 -4.5623116e-02 -3.8274918e-02]
 [ 4.6000725e-01  5.1963210e-01 -3.8222340e-01]
 [ 1.9314092e-03 -2.5012298e-03 -2.4840962e-03]
 [ 3.2849007e-04 -2.3783906e-03 -2.4744598e-03]
 [ 5.5224984e-04  8.0084871e-04  1.1327964e-03]] 
Episode: 82: [[-2.9814288e-03  1.5953999e-03  1.9313170e-03]
 [ 1.3723595e-03 -1.3907060e-03 -2.1109941e-04]
 [ 1.5163829e-04 -5.3176627e-04 -4.0731748e-04]
 [-1.6203013e-01 -3.3818811e-01  4.5463048e-02]
 [ 1.2781127e-01 -4.5618430e-02 -3.8267024e-02]
 [ 4.6000138e-01  5.1962537e-01 -3.8221818e-01]
 [ 1.9354142e-03 -2.5085954e-03 -2.4911016e-03]
 [ 3.2645316e-04 -2.3859339e-03 -2.4814238e-03]
 [ 5.5857294e-04  8.0733118e-04  1.1366205e-03]] 
Episode: 83: [[-2.9925127e-03  1.6023939e-03  1.9375790e-03]
 [ 1.3945752e-03 -1.3956135e-03 -2.0572641e-04]
 [ 1.5900625e-04 -5.3643592e-04 -4.1097312e-04]
 [-1.6203433e-01 -3.3818209e-01  4.5469109e-02]
 [ 1.2781611e-01 -4.5614183e-02 -3.8259871e-02]
 [ 4.5999604e-01  5.1961923e-01 -3.8221344e-01]
 [ 1.9391989e-03 -2.5152825e-03 -2.4974763e-03]
 [ 3.2024825e-04 -2.3928112e-03 -2.4878092e-03]
 [ 5.5651279e-04  8.1311545e-04  1.1392504e-03]] 
Episode: 84: [[-2.9726506e-03  1.6550835e-03  1.9338278e-03]
 [ 1.4255850e-03 -1.3855092e-03 -1.6232827e-04]
 [ 1.6514963e-04 -5.3068093e-04 -3.9295299e-04]
 [-1.6201410e-01 -3.3816317e-01  4.5450848e-02]
 [ 1.2783496e-01 -4.5605931e-02 -3.8286407e-02]
 [ 4.6001327e-01  5.1965982e-01 -3.8220915e-01]
 [ 1.9638182e-03 -2.5400063e-03 -2.4785220e-03]
 [ 3.0148358e-04 -2.4135623e-03 -2.4711804e-03]
 [ 5.5513944e-04  8.2567800e-04  1.1300979e-03]] 
Episode: 85: [[-2.9549841e-03  1.7027758e-03  1.9305006e-03]
 [ 1.4514502e-03 -1.3764411e-03 -1.2303819e-04]
 [ 1.6812827e-04 -5.2546442e-04 -3.7650688e-04]
 [-1.6199602e-01 -3.3814600e-01  4.5434386e-02]
 [ 1.2785207e-01 -4.5598432e-02 -3.8310375e-02]
 [ 4.6002886e-01  5.1969659e-01 -3.8220525e-01]
 [ 1.9860161e-03 -2.5624449e-03 -2.4614485e-03]
 [ 2.8552776e-04 -2.4324046e-03 -2.4561796e-03]
 [ 5.5637571e-04  8.3706650e-04  1.1221283e-03]] 
Episode: 86: [[-2.9370724e-03  1.7465146e-03  1.9274892e-03]
 [ 1.4724266e-03 -1.3680818e-03 -8.7173146e-05]
 [ 1.6966247e-04 -5.2076107e-04 -3.6158823e-04]
 [-1.6197778e-01 -3.3813038e-01  4.5419384e-02]
 [ 1.2786748e-01 -4.5591682e-02 -3.8332239e-02]
 [ 4.6004277e-01  5.1972985e-01 -3.8220161e-01]
 [ 2.0068579e-03 -2.5831524e-03 -2.4459162e-03]
 [ 2.7051501e-04 -2.4495248e-03 -2.4424384e-03]
 [ 5.5867579e-04  8.4723090e-04  1.1148767e-03]] 
Episode: 87: [[-2.9211619e-03  1.7874074e-03  1.9246017e-03]
 [ 1.4898781e-03 -1.3587218e-03 -5.2447307e-05]
 [ 1.6805205e-04 -5.1580206e-04 -3.4562286e-04]
 [-1.6196260e-01 -3.3811706e-01  4.5404673e-02]
 [ 1.2788083e-01 -4.5585942e-02 -3.8353898e-02]
 [ 4.6005583e-01  5.1976156e-01 -3.8219684e-01]
 [ 2.0259768e-03 -2.6012247e-03 -2.4308239e-03]
 [ 2.5938306e-04 -2.4645636e-03 -2.4288711e-03]
 [ 5.6220876e-04  8.5567788e-04  1.1062797e-03]] 
Episode: 88: [[-2.9071064e-03  1.8241110e-03  1.9221008e-03]
 [ 1.5028166e-03 -1.3503901e-03 -2.1180416e-05]
 [ 1.6394010e-04 -5.1149860e-04 -3.3138515e-04]
 [-1.6194913e-01 -3.3810505e-01  4.5391530e-02]
 [ 1.2789294e-01 -4.5580726e-02 -3.8373310e-02]
 [ 4.6006748e-01  5.1979011e-01 -3.8219258e-01]
 [ 2.0432803e-03 -2.6175785e-03 -2.4174170e-03]
 [ 2.5046070e-04 -2.4781779e-03 -2.4167998e-03]
 [ 5.6792691e-04  8.6322235e-04  1.0987776e-03]] 
Episode: 89: [[-2.9268155e-03  1.8438622e-03  1.9192863e-03]
 [ 1.5110696e-03 -1.3318356e-03  1.2954675e-05]
 [ 1.6130033e-04 -5.0606899e-04 -3.1717427e-04]
 [-1.6198003e-01 -3.3810619e-01  4.5377064e-02]
 [ 1.2789081e-01 -4.5581385e-02 -3.8395230e-02]
 [ 4.6007964e-01  5.1982254e-01 -3.8218766e-01]
 [ 2.0292359e-03 -2.6187997e-03 -2.4024961e-03]
 [ 2.6746775e-04 -2.4774668e-03 -2.4031769e-03]
 [ 5.6497037e-04  8.6518022e-04  1.0844336e-03]] 
Episode: 90: [[-2.9443833e-03  1.8626294e-03  1.9164404e-03]
 [ 1.5163491e-03 -1.3141371e-03  4.5519821e-05]
 [ 1.5616715e-04 -5.0114491e-04 -3.0413625e-04]
 [-1.6200836e-01 -3.3810735e-01  4.5363076e-02]
 [ 1.2788868e-01 -4.5582090e-02 -3.8416278e-02]
 [ 4.6009091e-01  5.1985264e-01 -3.8218305e-01]
 [ 2.0165092e-03 -2.6198037e-03 -2.3879977e-03]
 [ 2.8452073e-04 -2.4767478e-03 -2.3899283e-03]
 [ 5.6496589e-04  8.6686446e-04  1.0704824e-03]] 
Episode: 91: [[-2.9603487e-03  1.8796166e-03  1.9138616e-03]
 [ 1.5181580e-03 -1.2981157e-03  7.5000127e-05]
 [ 1.4877551e-04 -4.9668748e-04 -2.9229547e-04]
 [-1.6203408e-01 -3.3810842e-01  4.5350414e-02]
 [ 1.2788674e-01 -4.5582727e-02 -3.8435332e-02]
 [ 4.6010110e-01  5.1987988e-01 -3.8217887e-01]
 [ 2.0049401e-03 -2.6207098e-03 -2.3748663e-03]
 [ 3.0133553e-04 -2.4760889e-03 -2.3779175e-03]
 [ 5.6755653e-04  8.6840522e-04  1.0580471e-03]] 
Episode: 92: [[-2.97474372e-03  1.89505576e-03  1.91149476e-03]
 [ 1.51658384e-03 -1.28366344e-03  1.01696605e-04]
 [ 1.39179945e-04 -4.92453633e-04 -2.81442481e-04]
 [-1.62057281e-01 -3.38109344e-01  4.53389250e-02]
 [ 1.27885059e-01 -4.55832481e-02 -3.84526476e-02]
 [ 4.60110307e-01  5.19904733e-01 -3.82175058e-01]
 [ 1.99451344e-03 -2.62156664e-03 -2.36291182e-03]
 [ 3.18024599e-04 -2.47553829e-03 -2.36696168e-03]
 [ 5.72727586e-04  8.70007090e-04  1.04695198e-03]] 
Episode: 93: [[-2.9877767e-03  1.9089249e-03  1.9093665e-03]
 [ 1.5255267e-03 -1.2705906e-03  1.2588582e-04]
 [ 1.3937277e-04 -4.8860593e-04 -2.7168717e-04]
 [-1.6207829e-01 -3.3811021e-01  4.5328513e-02]
 [ 1.2788351e-01 -4.5583703e-02 -3.8468346e-02]
 [ 4.6011868e-01  5.1992732e-01 -3.8217154e-01]
 [ 1.9851248e-03 -2.6222817e-03 -2.3521096e-03]
 [ 3.2895102e-04 -2.4750177e-03 -2.3571101e-03]
 [ 5.6906632e-04  8.7135087e-04  1.0361399e-03]] 
Episode: 94: [[-2.9996228e-03  1.9214751e-03  1.9074371e-03]
 [ 1.5301319e-03 -1.2587587e-03  1.4777994e-04]
 [ 1.3672991e-04 -4.8512249e-04 -2.6280869e-04]
 [-1.6209736e-01 -3.3811098e-01  4.5319088e-02]
 [ 1.2788211e-01 -4.5584112e-02 -3.8482554e-02]
 [ 4.6012625e-01  5.1994777e-01 -3.8216835e-01]
 [ 1.9765801e-03 -2.6229250e-03 -2.3423249e-03]
 [ 3.4023784e-04 -2.4745357e-03 -2.3481729e-03]
 [ 5.6838535e-04  8.7258808e-04  1.0265746e-03]] 
Episode: 95: [[-3.0101791e-03  1.9328429e-03  1.9057015e-03]
 [ 1.5458995e-03 -1.2480485e-03  1.6759330e-04]
 [ 1.3169297e-04 -4.8202591e-04 -2.5523777e-04]
 [-1.6211443e-01 -3.3811170e-01  4.5310561e-02]
 [ 1.2788084e-01 -4.5584485e-02 -3.8495414e-02]
 [ 4.6013311e-01  5.1996624e-01 -3.8216546e-01]
 [ 1.9690038e-03 -2.6235192e-03 -2.3334958e-03]
 [ 3.4587871e-04 -2.4741350e-03 -2.3401554e-03]
 [ 5.7063013e-04  8.7364123e-04  1.0171705e-03]] 
Episode: 96: [[-3.0197967e-03  1.9431289e-03  1.9041281e-03]
 [ 1.5564748e-03 -1.2383569e-03  1.8552366e-04]
 [ 1.2429900e-04 -4.7922775e-04 -2.4835474e-04]
 [-1.6212994e-01 -3.3811235e-01  4.5302842e-02]
 [ 1.2787969e-01 -4.5584820e-02 -3.8507052e-02]
 [ 4.6013930e-01  5.1998299e-01 -3.8216284e-01]
 [ 1.9620978e-03 -2.6240547e-03 -2.3254990e-03]
 [ 3.5239547e-04 -2.4737653e-03 -2.3328823e-03]
 [ 5.7530892e-04  8.7460974e-04  1.0088549e-03]] 
Episode: 97: [[-3.0285560e-03  1.9524347e-03  1.9027013e-03]
 [ 1.5635224e-03 -1.2295870e-03  2.0175065e-04]
 [ 1.1480861e-04 -4.7669880e-04 -2.4208381e-04]
 [-1.6214405e-01 -3.3811292e-01  4.5295857e-02]
 [ 1.2787865e-01 -4.5585126e-02 -3.8517583e-02]
 [ 4.6014491e-01  5.1999813e-01 -3.8216048e-01]
 [ 1.9558002e-03 -2.6245362e-03 -2.3182549e-03]
 [ 3.5925390e-04 -2.4734221e-03 -2.3262806e-03]
 [ 5.8217102e-04  8.7550376e-04  1.0015495e-03]] 
Episode: 98: [[-3.0370883e-03  1.9602620e-03  1.9014952e-03]
 [ 1.5817889e-03 -1.2217641e-03  2.1617608e-04]
 [ 1.1645373e-04 -4.7419677e-04 -2.3624473e-04]
 [-1.6215743e-01 -3.3811364e-01  4.5289695e-02]
 [ 1.2787753e-01 -4.5585409e-02 -3.8526930e-02]
 [ 4.6014985e-01  5.2001178e-01 -3.8215819e-01]
 [ 1.9497385e-03 -2.6246684e-03 -2.3119440e-03]
 [ 3.6164711e-04 -2.4728910e-03 -2.3205094e-03]
 [ 5.7875493e-04  8.7626203e-04  9.9442119e-04]] 
Episode: 99: [[-3.0448865e-03  1.9673428e-03  1.9004020e-03]
 [ 1.5956382e-03 -1.2146869e-03  2.2922759e-04]
 [ 1.1598529e-04 -4.7193651e-04 -2.3093892e-04]
 [-1.6216964e-01 -3.3811429e-01  4.5284122e-02]
 [ 1.2787652e-01 -4.5585666e-02 -3.8535386e-02]
 [ 4.6015432e-01  5.2002412e-01 -3.8215610e-01]
 [ 1.9442025e-03 -2.6247865e-03 -2.3062292e-03]
 [ 3.6478564e-04 -2.4724051e-03 -2.3152742e-03]
 [ 5.7743897e-04  8.7695883e-04  9.8812149e-04]] 
Episode: 100: [[-3.0519865e-03  1.9737477e-03  1.8994105e-03]
 [ 1.6049118e-03 -1.2082845e-03  2.4103548e-04]
 [ 1.1314180e-04 -4.6989581e-04 -2.2611530e-04]
 [-1.6218074e-01 -3.3811489e-01  4.5279078e-02]
 [ 1.2787561e-01 -4.5585897e-02 -3.8543038e-02]
 [ 4.6015838e-01  5.2003527e-01 -3.8215423e-01]
 [ 1.9391538e-03 -2.6248908e-03 -2.3010524e-03]
 [ 3.6880487e-04 -2.4719578e-03 -2.3105210e-03]
 [ 5.7847996e-04  8.7760371e-04  9.8260073e-04]] 
Episode: 101: [[-3.0582242e-03  1.9795487e-03  1.8985224e-03]
 [ 1.6254958e-03 -1.2024873e-03  2.5172357e-04]
 [ 1.1960114e-04 -4.6802839e-04 -2.2183535e-04]
 [-1.6219054e-01 -3.3811542e-01  4.5274515e-02]
 [ 1.2787479e-01 -4.5586105e-02 -3.8549963e-02]
 [ 4.6016204e-01  5.2004534e-01 -3.8215253e-01]
 [ 1.9347393e-03 -2.6249927e-03 -2.2963912e-03]
 [ 3.6793324e-04 -2.4715767e-03 -2.3062811e-03]
 [ 5.7102728e-04  8.7814050e-04  9.7693957e-04]] 
Episode: 102: [[-3.0639463e-03  1.9847958e-03  1.8977167e-03]
 [ 1.6401034e-03 -1.1972443e-03  2.6139061e-04]
 [ 1.2254881e-04 -4.6634965e-04 -2.1796547e-04]
 [-1.6219951e-01 -3.3811590e-01  4.5270387e-02]
 [ 1.2787405e-01 -4.5586295e-02 -3.8556226e-02]
 [ 4.6016535e-01  5.2005446e-01 -3.8215098e-01]
 [ 1.9306933e-03 -2.6250838e-03 -2.2921683e-03]
 [ 3.6860234e-04 -2.4712277e-03 -2.3024306e-03]
 [ 5.6698354e-04  8.7863440e-04  9.7197690e-04]] 
Episode: 103: [[-3.0691866e-03  1.9895411e-03  1.8969852e-03]
 [ 1.6493218e-03 -1.1925028e-03  2.7013361e-04]
 [ 1.2233955e-04 -4.6484082e-04 -2.1445507e-04]
 [-1.6220771e-01 -3.3811635e-01  4.5266651e-02]
 [ 1.2787338e-01 -4.5586467e-02 -3.8561892e-02]
 [ 4.6016836e-01  5.2006274e-01 -3.8214958e-01]
 [ 1.9269839e-03 -2.6251643e-03 -2.2883420e-03]
 [ 3.7065634e-04 -2.4709059e-03 -2.2989304e-03]
 [ 5.6603918e-04  8.7909150e-04  9.6767530e-04]] 
Episode: 104: [[-3.0458767e-03  2.0075629e-03  1.8970452e-03]
 [ 1.6805483e-03 -1.1861013e-03  2.8595893e-04]
 [ 1.3109950e-04 -4.6762792e-04 -2.1180163e-04]
 [-1.6218197e-01 -3.3811006e-01  4.5261405e-02]
 [ 1.2788032e-01 -4.5586344e-02 -3.8569152e-02]
 [ 4.6017280e-01  5.2007133e-01 -3.8215008e-01]
 [ 1.9486713e-03 -2.6332003e-03 -2.2826644e-03]
 [ 3.3523707e-04 -2.4790762e-03 -2.2941036e-03]
 [ 5.5533642e-04  8.7854819e-04  9.6471864e-04]] 
Episode: 105: [[-3.0248440e-03  2.0238634e-03  1.8970965e-03]
 [ 1.7051878e-03 -1.1803121e-03  3.0027225e-04]
 [ 1.3614808e-04 -4.7015579e-04 -2.0938423e-04]
 [-1.6215876e-01 -3.3810437e-01  4.5256659e-02]
 [ 1.2788659e-01 -4.5586232e-02 -3.8575720e-02]
 [ 4.6017683e-01  5.2007914e-01 -3.8215056e-01]
 [ 1.9682446e-03 -2.6404671e-03 -2.2775214e-03]
 [ 3.0456181e-04 -2.4864599e-03 -2.2897178e-03]
 [ 5.4840057e-04  8.7807089e-04  9.6225564e-04]] 
Episode: 106: [[-3.0210593e-03  2.0266615e-03  1.9048285e-03]
 [ 1.7206154e-03 -1.1684702e-03  3.1485839e-04]
 [ 1.4040479e-04 -4.6495098e-04 -1.9872141e-04]
 [-1.6215652e-01 -3.3810884e-01  4.5260083e-02]
 [ 1.2788083e-01 -4.5592844e-02 -3.8575880e-02]
 [ 4.6017838e-01  5.2008575e-01 -3.8214642e-01]
 [ 1.9666580e-03 -2.6345241e-03 -2.2806858e-03]
 [ 2.9719403e-04 -2.4793295e-03 -2.2934687e-03]
 [ 5.4169539e-04  8.8268711e-04  9.6733466e-04]] 
Episode: 107: [[-3.0176572e-03  2.0292255e-03  1.9118154e-03]
 [ 1.7313941e-03 -1.1577633e-03  3.2805774e-04]
 [ 1.4145275e-04 -4.6024623e-04 -1.8906282e-04]
 [-1.6215453e-01 -3.3811286e-01  4.5263175e-02]
 [ 1.2787563e-01 -4.5598820e-02 -3.8576037e-02]
 [ 4.6017978e-01  5.2009171e-01 -3.8214266e-01]
 [ 1.9652154e-03 -2.6291730e-03 -2.2835315e-03]
 [ 2.9183211e-04 -2.4728947e-03 -2.2968373e-03]
 [ 5.3840305e-04  8.8688004e-04  9.7210426e-04]] 
Episode: 108: [[-3.0152933e-03  2.0327168e-03  1.9138405e-03]
 [ 1.7457191e-03 -1.1377573e-03  3.4854221e-04]
 [ 1.4211357e-04 -4.5351894e-04 -1.8176036e-04]
 [-1.6216204e-01 -3.3812177e-01  4.5258008e-02]
 [ 1.2786469e-01 -4.5607764e-02 -3.8584933e-02]
 [ 4.6018511e-01  5.2009773e-01 -3.8213959e-01]
 [ 1.9563488e-03 -2.6172223e-03 -2.2776606e-03]
 [ 2.9108138e-04 -2.4607654e-03 -2.2915278e-03]
 [ 5.2590237e-04  8.9116779e-04  9.6640934e-04]] 
Episode: 109: [[-3.0129389e-03  2.0358802e-03  1.9156808e-03]
 [ 1.7682830e-03 -1.1196610e-03  3.6707032e-04]
 [ 1.5115239e-04 -4.4742381e-04 -1.7525734e-04]
 [-1.6216856e-01 -3.3812982e-01  4.5253333e-02]
 [ 1.2785479e-01 -4.5615852e-02 -3.8592979e-02]
 [ 4.6018994e-01  5.2010316e-01 -3.8213682e-01]
 [ 1.9484932e-03 -2.6064217e-03 -2.2723738e-03]
 [ 2.8622712e-04 -2.4498173e-03 -2.2867869e-03]
 [ 5.0605438e-04  8.9500070e-04  9.6058525e-04]] 
Episode: 110: [[-3.0108860e-03  2.0387403e-03  1.9173430e-03]
 [ 1.7865202e-03 -1.1032956e-03  3.8382670e-04]
 [ 1.5664755e-04 -4.4191789e-04 -1.6936331e-04]
 [-1.6217455e-01 -3.3813709e-01  4.5249104e-02]
 [ 1.2784585e-01 -4.5623168e-02 -3.8600255e-02]
 [ 4.6019432e-01  5.2010810e-01 -3.8213432e-01]
 [ 1.9413378e-03 -2.5966524e-03 -2.2675865e-03]
 [ 2.8277951e-04 -2.4399119e-03 -2.2824844e-03]
 [ 4.9088331e-04  8.9847593e-04  9.5549040e-04]] 
Episode: 111: [[-3.0141578e-03  2.0517095e-03  1.9181264e-03]
 [ 1.8000418e-03 -1.0894543e-03  3.9813831e-04]
 [ 1.6035761e-04 -4.3729760e-04 -1.6354186e-04]
 [-1.6218136e-01 -3.3813897e-01  4.5244254e-02]
 [ 1.2784262e-01 -4.5629054e-02 -3.8606443e-02]
 [ 4.6019918e-01  5.2011341e-01 -3.8213226e-01]
 [ 1.9391757e-03 -2.5926970e-03 -2.2616545e-03]
 [ 2.9484995e-04 -2.4367871e-03 -2.2776586e-03]
 [ 4.9072132e-04  9.0254360e-04  9.5097563e-04]] 
Episode: 112: [[-3.0171731e-03  2.0634367e-03  1.9188328e-03]
 [ 1.8104559e-03 -1.0769380e-03  4.1108040e-04]
 [ 1.6155977e-04 -4.3312475e-04 -1.5826123e-04]
 [-1.6218758e-01 -3.3814067e-01  4.5239866e-02]
 [ 1.2783970e-01 -4.5634374e-02 -3.8612038e-02]
 [ 4.6020356e-01  5.2011818e-01 -3.8213038e-01]
 [ 1.9371802e-03 -2.5891191e-03 -2.2562847e-03]
 [ 3.0652084e-04 -2.4339578e-03 -2.2732806e-03]
 [ 4.9287890e-04  9.0622978e-04  9.4704668e-04]] 
Episode: 113: [[-3.0199583e-03  2.0740398e-03  1.9194691e-03]
 [ 1.8165192e-03 -1.0656209e-03  4.2278241e-04]
 [ 1.6003879e-04 -4.2935679e-04 -1.5346421e-04]
 [-1.6219327e-01 -3.3814219e-01  4.5235898e-02]
 [ 1.2783706e-01 -4.5639187e-02 -3.8617097e-02]
 [ 4.6020752e-01  5.2012247e-01 -3.8212869e-01]
 [ 1.9353299e-03 -2.5858816e-03 -2.2514225e-03]
 [ 3.1845164e-04 -2.4313929e-03 -2.2693041e-03]
 [ 4.9761805e-04  9.0957555e-04  9.4368891e-04]] 
Episode: 114: [[-3.0207660e-03  2.0838697e-03  1.9205023e-03]
 [ 1.8327107e-03 -1.0552908e-03  4.3481728e-04]
 [ 1.6597276e-04 -4.2646439e-04 -1.4922197e-04]
 [-1.6219646e-01 -3.3814305e-01  4.5232244e-02]
 [ 1.2783535e-01 -4.5643345e-02 -3.8622219e-02]
 [ 4.6021160e-01  5.2012527e-01 -3.8212737e-01]
 [ 1.9348977e-03 -2.5832637e-03 -2.2473731e-03]
 [ 3.2260350e-04 -2.4298192e-03 -2.2656568e-03]
 [ 4.9027230e-04  9.1288786e-04  9.4101444e-04]] 
Episode: 115: [[-3.0221893e-03  2.0882706e-03  1.9274877e-03]
 [ 1.8365526e-03 -1.0630529e-03  4.2111790e-04]
 [ 1.6767465e-04 -4.2810207e-04 -1.5128069e-04]
 [-1.6218436e-01 -3.3813474e-01  4.5244135e-02]
 [ 1.2784509e-01 -4.5644980e-02 -3.8600903e-02]
 [ 4.6020547e-01  5.2013308e-01 -3.8213179e-01]
 [ 1.9493147e-03 -2.5898886e-03 -2.2610517e-03]
 [ 3.1733097e-04 -2.4382493e-03 -2.2786995e-03]
 [ 4.9247465e-04  9.1865828e-04  9.5907465e-04]] 
Episode: 116: [[-3.0229536e-03  2.0922876e-03  1.9338247e-03]
 [ 1.8392398e-03 -1.0700630e-03  4.0874301e-04]
 [ 1.6879264e-04 -4.2954166e-04 -1.5306224e-04]
 [-1.6217291e-01 -3.3812720e-01  4.5254912e-02]
 [ 1.2785390e-01 -4.5646470e-02 -3.8581610e-02]
 [ 4.6019992e-01  5.2014005e-01 -3.8213578e-01]
 [ 1.9626082e-03 -2.5958784e-03 -2.2734450e-03]
 [ 3.1243346e-04 -2.4458494e-03 -2.2904808e-03]
 [ 4.9557793e-04  9.2390820e-04  9.7564986e-04]] 
Episode: 117: [[-3.0236093e-03  2.0960660e-03  1.9396414e-03]
 [ 1.8381620e-03 -1.0765319e-03  3.9743050e-04]
 [ 1.6703247e-04 -4.3093725e-04 -1.5480016e-04]
 [-1.6216233e-01 -3.3812022e-01  4.5264788e-02]
 [ 1.2786196e-01 -4.5647785e-02 -3.8564026e-02]
 [ 4.6019489e-01  5.2014619e-01 -3.8213944e-01]
 [ 1.9749138e-03 -2.6015977e-03 -2.2848730e-03]
 [ 3.0924386e-04 -2.4529449e-03 -2.3012855e-03]
 [ 5.0138484e-04  9.2867902e-04  9.9090033e-04]] 
Episode: 118: [[-3.0242698e-03  2.0994807e-03  1.9448980e-03]
 [ 1.8337361e-03 -1.0823818e-03  3.8720111e-04]
 [ 1.6271111e-04 -4.3220667e-04 -1.5636215e-04]
 [-1.6215284e-01 -3.3811393e-01  4.5273714e-02]
 [ 1.2786925e-01 -4.5648973e-02 -3.8548127e-02]
 [ 4.6019033e-01  5.2015173e-01 -3.8214275e-01]
 [ 1.9859923e-03 -2.6067670e-03 -2.2951991e-03]
 [ 3.0776672e-04 -2.4593552e-03 -2.3110374e-03]
 [ 5.0946238e-04  9.3300216e-04  1.0048662e-03]] 
Episode: 119: [[-3.0183997e-03  2.0961179e-03  1.9514859e-03]
 [ 1.8604391e-03 -1.0919224e-03  3.8022714e-04]
 [ 1.7845133e-04 -4.1992243e-04 -1.4686699e-04]
 [-1.6213480e-01 -3.3810824e-01  4.5283552e-02]
 [ 1.2787889e-01 -4.5649074e-02 -3.8527679e-02]
 [ 4.6019846e-01  5.2014995e-01 -3.8214767e-01]
 [ 1.9972736e-03 -2.6038641e-03 -2.3064883e-03]
 [ 3.1433036e-04 -2.4588150e-03 -2.3200612e-03]
 [ 4.9050705e-04  9.5504732e-04  1.0385556e-03]] 
Episode: 120: [[-3.0129221e-03  2.0930860e-03  1.9574498e-03]
 [ 1.8946135e-03 -1.1005451e-03  3.7392232e-04]
 [ 2.0058244e-04 -4.0881539e-04 -1.3841677e-04]
 [-1.6211829e-01 -3.3810309e-01  4.5292445e-02]
 [ 1.2788761e-01 -4.5649167e-02 -3.8509190e-02]
 [ 4.6020582e-01  5.2014834e-01 -3.8215211e-01]
 [ 2.0076213e-03 -2.6012517e-03 -2.3167171e-03]
 [ 3.1586783e-04 -2.4583617e-03 -2.3282822e-03]
 [ 4.6500153e-04  9.7490678e-04  1.0683470e-03]] 
Episode: 121: [[-3.0080071e-03  2.0903421e-03  1.9628389e-03]
 [ 1.9221151e-03 -1.1083401e-03  3.6822315e-04]
 [ 2.1886478e-04 -3.9876666e-04 -1.3072249e-04]
 [-1.6210340e-01 -3.3809844e-01  4.5300484e-02]
 [ 1.2789549e-01 -4.5649249e-02 -3.8492478e-02]
 [ 4.6021247e-01  5.2014691e-01 -3.8215610e-01]
 [ 2.0169364e-03 -2.5988854e-03 -2.3259574e-03]
 [ 3.1867082e-04 -2.4579377e-03 -2.3356958e-03]
 [ 4.4384153e-04  9.9288777e-04  1.0954670e-03]] 
Episode: 122: [[-2.9583145e-03  2.1098356e-03  1.9541017e-03]
 [ 1.9663875e-03 -1.1044553e-03  3.7111476e-04]
 [ 2.3212543e-04 -3.9114451e-04 -1.2339557e-04]
 [-1.6205280e-01 -3.3809054e-01  4.5289598e-02]
 [ 1.2790330e-01 -4.5651056e-02 -3.8490772e-02]
 [ 4.6023899e-01  5.2013707e-01 -3.8216126e-01]
 [ 2.0528121e-03 -2.5955613e-03 -2.3128816e-03]
 [ 3.1142833e-04 -2.4607161e-03 -2.3224745e-03]
 [ 4.4559577e-04  1.0145811e-03  1.1094147e-03]] 
Episode: 123: [[-2.8853135e-03  2.1503838e-03  1.9452431e-03]
 [ 2.0091548e-03 -1.1065722e-03  3.7474706e-04]
 [ 2.4250653e-04 -3.8381034e-04 -1.0642081e-04]
 [-1.6197419e-01 -3.3806825e-01  4.5278199e-02]
 [ 1.2792598e-01 -4.5647629e-02 -3.8491979e-02]
 [ 4.6026221e-01  5.2013892e-01 -3.8216326e-01]
 [ 2.1125565e-03 -2.6097542e-03 -2.2984021e-03]
 [ 2.8392795e-04 -2.4798352e-03 -2.3087026e-03]
 [ 4.7106133e-04  1.0363356e-03  1.1263258e-03]] 
Episode: 124: [[-2.8193567e-03  2.1870199e-03  1.9372390e-03]
 [ 2.0457921e-03 -1.1084805e-03  3.7803169e-04]
 [ 2.4933441e-04 -3.7717281e-04 -9.1003458e-05]
 [-1.6190317e-01 -3.3804810e-01  4.5267902e-02]
 [ 1.2794647e-01 -4.5644537e-02 -3.8493063e-02]
 [ 4.6028322e-01  5.2014059e-01 -3.8216507e-01]
 [ 2.1665103e-03 -2.6225627e-03 -2.2853157e-03]
 [ 2.6002317e-04 -2.4970947e-03 -2.2962375e-03]
 [ 4.9681420e-04  1.0560245e-03  1.1418493e-03]] 
Episode: 125: [[-2.7597737e-03  2.2201315e-03  1.9300017e-03]
 [ 2.0758952e-03 -1.1102048e-03  3.8100415e-04]
 [ 2.5246694e-04 -3.7116374e-04 -7.6993136e-05]
 [-1.6183902e-01 -3.3802989e-01  4.5258597e-02]
 [ 1.2796499e-01 -4.5641743e-02 -3.8494043e-02]
 [ 4.6030220e-01  5.2014208e-01 -3.8216671e-01]
 [ 2.2152374e-03 -2.6341346e-03 -2.2734785e-03]
 [ 2.3998533e-04 -2.5126799e-03 -2.2849471e-03]
 [ 5.2314578e-04  1.0738519e-03  1.1561362e-03]] 
Episode: 126: [[-2.7059515e-03  2.2500558e-03  1.9234571e-03]
 [ 2.1183742e-03 -1.1117557e-03  3.8371657e-04]
 [ 2.7178047e-04 -3.6565762e-04 -6.3810592e-05]
 [-1.6178107e-01 -3.3801344e-01  4.5250185e-02]
 [ 1.2798172e-01 -4.5639217e-02 -3.8494930e-02]
 [ 4.6031937e-01  5.2014345e-01 -3.8216820e-01]
 [ 2.2592347e-03 -2.6445875e-03 -2.2627695e-03]
 [ 2.1216404e-04 -2.5267503e-03 -2.2747193e-03]
 [ 5.2951794e-04  1.0899995e-03  1.1693054e-03]] 
Episode: 127: [[-2.6586687e-03  2.2771566e-03  1.9170560e-03]
 [ 2.1555161e-03 -1.1116248e-03  3.8815322e-04]
 [ 2.8661257e-04 -3.6055755e-04 -5.0954444e-05]
 [-1.6173096e-01 -3.3799955e-01  4.5241304e-02]
 [ 1.2799571e-01 -4.5637235e-02 -3.8497459e-02]
 [ 4.6033552e-01  5.2014607e-01 -3.8216910e-01]
 [ 2.2971614e-03 -2.6529627e-03 -2.2517641e-03]
 [ 1.9039586e-04 -2.5385222e-03 -2.2640824e-03]
 [ 5.3784199e-04  1.1041944e-03  1.1797097e-03]] 
Episode: 128: [[-2.6181121e-03  2.3008541e-03  1.9112694e-03]
 [ 2.1865955e-03 -1.1122966e-03  3.9125030e-04]
 [ 2.9724924e-04 -3.5541778e-04 -3.8591086e-05]
 [-1.6168739e-01 -3.3798698e-01  4.5233585e-02]
 [ 1.2800828e-01 -4.5635216e-02 -3.8499091e-02]
 [ 4.6035007e-01  5.2014816e-01 -3.8216954e-01]
 [ 2.3304881e-03 -2.6605048e-03 -2.2420327e-03]
 [ 1.7336426e-04 -2.5491654e-03 -2.2546642e-03]
 [ 5.4758904e-04  1.1173837e-03  1.1895593e-03]] 
Episode: 129: [[-2.5814779e-03  2.3222666e-03  1.9060366e-03]
 [ 2.2129898e-03 -1.1129002e-03  3.9405734e-04]
 [ 3.0387970e-04 -3.5074391e-04 -2.7300854e-05]
 [-1.6164804e-01 -3.3797562e-01  4.5226611e-02]
 [ 1.2801963e-01 -4.5633391e-02 -3.8500566e-02]
 [ 4.6036321e-01  5.2015001e-01 -3.8216996e-01]
 [ 2.3605679e-03 -2.6673130e-03 -2.2332279e-03]
 [ 1.5940014e-04 -2.5587617e-03 -2.2461254e-03]
 [ 5.5913732e-04  1.1293490e-03  1.1987500e-03]] 
Episode: 130: [[-2.5484692e-03  2.3415913e-03  1.9013007e-03]
 [ 2.2353437e-03 -1.1134319e-03  3.9660718e-04]
 [ 3.0688025e-04 -3.4649676e-04 -1.6991751e-05]
 [-1.6161257e-01 -3.3796537e-01  4.5220301e-02]
 [ 1.2802988e-01 -4.5631744e-02 -3.8501903e-02]
 [ 4.6037510e-01  5.2015173e-01 -3.8217032e-01]
 [ 2.3876687e-03 -2.6734411e-03 -2.2252547e-03]
 [ 1.4823674e-04 -2.5674016e-03 -2.2383789e-03]
 [ 5.7225890e-04  1.1401903e-03  1.2073165e-03]] 
Episode: 131: [[-2.5185773e-03  2.3590694e-03  1.8970316e-03]
 [ 2.2553157e-03 -1.1139278e-03  3.9886692e-04]
 [ 3.1922071e-04 -3.4277214e-04 -8.2129627e-06]
 [-1.6158044e-01 -3.3795610e-01  4.5214601e-02]
 [ 1.2803915e-01 -4.5630258e-02 -3.8503114e-02]
 [ 4.6038586e-01  5.2015328e-01 -3.8217065e-01]
 [ 2.4122982e-03 -2.6790062e-03 -2.2180870e-03]
 [ 1.3849682e-04 -2.5752850e-03 -2.2314768e-03]
 [ 5.7569158e-04  1.1498324e-03  1.2139700e-03]] 
Episode: 132: [[-2.6040308e-03  2.2509454e-03  1.9788670e-03]
 [ 2.3623423e-03 -1.0066909e-03  2.9421510e-04]
 [ 3.4854608e-04 -2.6226701e-04 -7.7833269e-05]
 [-1.6167642e-01 -3.3806315e-01  4.5312483e-02]
 [ 1.2793356e-01 -4.5733687e-02 -3.8398892e-02]
 [ 4.6031535e-01  5.2016509e-01 -3.8218096e-01]
 [ 2.3083854e-03 -2.5699688e-03 -2.3186728e-03]
 [ 2.4583002e-04 -2.4672153e-03 -2.3315195e-03]
 [ 6.3651265e-04  1.1801547e-03  1.2247455e-03]] 
Episode: 133: [[-2.6812733e-03  2.1532380e-03  2.0528168e-03]
 [ 2.4578737e-03 -9.0978562e-04  1.9964555e-04]
 [ 3.7153310e-04 -1.8951859e-04 -1.4074413e-04]
 [-1.6176316e-01 -3.3815989e-01  4.5400936e-02]
 [ 1.2783813e-01 -4.5827154e-02 -3.8304709e-02]
 [ 4.6025163e-01  5.2017576e-01 -3.8219026e-01]
 [ 2.2144755e-03 -2.4714358e-03 -2.4095655e-03]
 [ 3.4308637e-04 -2.3695554e-03 -2.4219165e-03]
 [ 6.9383049e-04  1.2075779e-03  1.2347002e-03]] 
Episode: 134: [[-2.7509471e-03  2.0649612e-03  2.1196411e-03]
 [ 2.5431919e-03 -8.2221866e-04  1.1420262e-04]
 [ 3.8903870e-04 -1.2378824e-04 -1.9765559e-04]
 [-1.6184147e-01 -3.3824727e-01  4.5480859e-02]
 [ 1.2775192e-01 -4.5911606e-02 -3.8219612e-02]
 [ 4.6019405e-01  5.2018541e-01 -3.8219866e-01]
 [ 2.1296474e-03 -2.3824133e-03 -2.4916905e-03]
 [ 4.3109100e-04 -2.2813184e-03 -2.5035928e-03]
 [ 7.4764970e-04  1.2324040e-03  1.2437393e-03]] 
Episode: 135: [[-2.8139499e-03  1.9851942e-03  2.1800236e-03]
 [ 2.6180611e-03 -7.4309303e-04  3.6992780e-05]
 [ 4.0202326e-04 -6.4409505e-05 -2.4915414e-04]
 [-1.6191226e-01 -3.3832625e-01  4.5553077e-02]
 [ 1.2767401e-01 -4.5987919e-02 -3.8142718e-02]
 [ 4.6014202e-01  5.2019411e-01 -3.8220626e-01]
 [ 2.0529884e-03 -2.3019726e-03 -2.5658987e-03]
 [ 5.1087834e-04 -2.2015893e-03 -2.5773947e-03]
 [ 7.9782482e-04  1.2548078e-03  1.2519413e-03]] 
Episode: 136: [[-2.8710864e-03  1.9131229e-03  2.2346869e-03]
 [ 2.6829795e-03 -6.7162613e-04 -3.2813619e-05]
 [ 4.0919299e-04 -1.0823888e-05 -2.9613415e-04]
 [-1.6197629e-01 -3.3839756e-01  4.5618434e-02]
 [ 1.2760364e-01 -4.6056855e-02 -3.8073182e-02]
 [ 4.6009478e-01  5.2020192e-01 -3.8221318e-01]
 [ 1.9837369e-03 -2.2293159e-03 -2.6331041e-03]
 [ 5.8327778e-04 -2.1295880e-03 -2.6441764e-03]
 [ 8.4572041e-04  1.2751264e-03  1.2595202e-03]] 
Episode: 137: [[-2.9227652e-03  1.8480034e-03  2.2840793e-03]
 [ 2.7394521e-03 -6.0705090e-04 -9.5888943e-05]
 [ 4.1079058e-04  3.7575537e-05 -3.3870633e-04]
 [-1.6203418e-01 -3.3846200e-01  4.5677487e-02]
 [ 1.2754005e-01 -4.6119146e-02 -3.8010351e-02]
 [ 4.6005210e-01  5.2020895e-01 -3.8221940e-01]
 [ 1.9211579e-03 -2.1636679e-03 -2.6938298e-03]
 [ 6.4887904e-04 -2.0645361e-03 -2.7045219e-03]
 [ 8.9130958e-04  1.2934237e-03  1.2662482e-03]] 
Episode: 138: [[-2.9876688e-03  1.7897867e-03  2.3377046e-03]
 [ 2.7662548e-03 -5.5525440e-04 -1.4992255e-04]
 [ 4.0875233e-04  7.0622889e-05 -3.8553818e-04]
 [-1.6209024e-01 -3.3851433e-01  4.5739602e-02]
 [ 1.2748969e-01 -4.6166524e-02 -3.7946586e-02]
 [ 4.6001226e-01  5.2018929e-01 -3.8221636e-01]
 [ 1.8688581e-03 -2.1095797e-03 -2.7568727e-03]
 [ 7.0940499e-04 -2.0121173e-03 -2.7669254e-03]
 [ 9.3642209e-04  1.3130491e-03  1.2994123e-03]] 
Episode: 139: [[-3.0482325e-03  1.7372250e-03  2.3863399e-03]
 [ 2.8009966e-03 -5.0881295e-04 -1.9979107e-04]
 [ 4.0104464e-04  9.9231285e-05 -4.3220224e-04]
 [-1.6214173e-01 -3.3856127e-01  4.5796018e-02]
 [ 1.2744436e-01 -4.6209160e-02 -3.7888195e-02]
 [ 4.5997411e-01  5.2017438e-01 -3.8221493e-01]
 [ 1.8212107e-03 -2.0609410e-03 -2.8146592e-03]
 [ 7.6349993e-04 -1.9649956e-03 -2.8234222e-03]
 [ 9.7309763e-04  1.3279608e-03  1.3308771e-03]] 
Episode: 140: [[-3.1027636e-03  1.6897314e-03  2.4302737e-03]
 [ 2.8446501e-03 -4.6686022e-04 -2.4484564e-04]
 [ 4.1310408e-04  1.2507894e-04 -4.7405926e-04]
 [-1.6218808e-01 -3.3860368e-01  4.5846988e-02]
 [ 1.2740341e-01 -4.6247683e-02 -3.7835442e-02]
 [ 4.5993963e-01  5.2016091e-01 -3.8221365e-01]
 [ 1.7781780e-03 -2.0169888e-03 -2.8668572e-03]
 [ 8.1153453e-04 -1.9223965e-03 -2.8744377e-03]
 [ 9.9827349e-04  1.3417333e-03  1.3600929e-03]] 
Episode: 141: [[-3.1681703e-03  1.6445777e-03  2.4716300e-03]
 [ 2.8566429e-03 -4.3202884e-04 -2.8276470e-04]
 [ 4.2996320e-04  1.6206829e-04 -4.9401098e-04]
 [-1.6224422e-01 -3.3864489e-01  4.5894019e-02]
 [ 1.2736331e-01 -4.6284016e-02 -3.7786264e-02]
 [ 4.5990950e-01  5.2017617e-01 -3.8220963e-01]
 [ 1.7330666e-03 -1.9758667e-03 -2.9145563e-03]
 [ 8.6047419e-04 -1.8812966e-03 -2.9221245e-03]
 [ 9.9020428e-04  1.3517328e-03  1.3838533e-03]] 
Episode: 142: [[-3.2268912e-03  1.6040569e-03  2.5084659e-03]
 [ 2.8632355e-03 -4.0015232e-04 -3.1737439e-04]
 [ 4.3942948e-04  1.9526116e-04 -5.0982751e-04]
 [-1.6229492e-01 -3.3868203e-01  4.5935854e-02]
 [ 1.2732719e-01 -4.6316750e-02 -3.7742428e-02]
 [ 4.5988303e-01  5.2019137e-01 -3.8220599e-01]
 [ 1.6924033e-03 -1.9388122e-03 -2.9570349e-03]
 [ 9.0488192e-04 -1.8442806e-03 -2.9646119e-03]
 [ 9.8489458e-04  1.3608071e-03  1.4039560e-03]] 
Episode: 143: [[-3.2886425e-03  1.5638660e-03  2.5525717e-03]
 [ 2.8628996e-03 -3.7867858e-04 -3.4128805e-04]
 [ 4.4029640e-04  2.1545381e-04 -5.7558855e-04]
 [-1.6233759e-01 -3.3871418e-01  4.5988716e-02]
 [ 1.2729657e-01 -4.6344914e-02 -3.7688695e-02]
 [ 4.5984617e-01  5.2016979e-01 -3.8220239e-01]
 [ 1.6573654e-03 -1.9063937e-03 -3.0092818e-03]
 [ 9.4429340e-04 -1.8123573e-03 -3.0170158e-03]
 [ 9.8762393e-04  1.3766591e-03  1.4567410e-03]] 
Episode: 144: [[-3.3442175e-03  1.5275507e-03  2.5924044e-03]
 [ 2.8809435e-03 -3.5929150e-04 -3.6290110e-04]
 [ 4.5884339e-04  2.3352569e-04 -6.3522626e-04]
 [-1.6237594e-01 -3.3874324e-01  4.6036471e-02]
 [ 1.2726890e-01 -4.6370357e-02 -3.7640154e-02]
 [ 4.5981285e-01  5.2015030e-01 -3.8219914e-01]
 [ 1.6257261e-03 -1.8770962e-03 -3.0564645e-03]
 [ 9.7887090e-04 -1.7834831e-03 -3.0643137e-03]
 [ 9.8317477e-04  1.3913960e-03  1.5055810e-03]] 
Episode: 145: [[-3.3930894e-03  1.4966996e-03  2.6264116e-03]
 [ 2.8992807e-03 -3.3976053e-04 -3.8490703e-04]
 [ 4.7220173e-04  2.4668543e-04 -6.7821256e-04]
 [-1.6240811e-01 -3.3876726e-01  4.6078056e-02]
 [ 1.2724645e-01 -4.6390098e-02 -3.7598107e-02]
 [ 4.5978600e-01  5.2012563e-01 -3.8219056e-01]
 [ 1.6006242e-03 -1.8526152e-03 -3.0976166e-03]
 [ 1.0083691e-03 -1.7596073e-03 -3.1056742e-03]
 [ 9.8437793e-04  1.4067497e-03  1.5487232e-03]] 
Episode: 146: [[-3.4467566e-03  1.4701037e-03  2.6556896e-03]
 [ 2.9034284e-03 -3.2137847e-04 -4.0798238e-04]
 [ 4.8912544e-04  2.5361805e-04 -7.2580780e-04]
 [-1.6244160e-01 -3.3878621e-01  4.6117052e-02]
 [ 1.2722856e-01 -4.6404775e-02 -3.7557982e-02]
 [ 4.5976305e-01  5.2008498e-01 -3.8218245e-01]
 [ 1.5794600e-03 -1.8335818e-03 -3.1372171e-03]
 [ 1.0368981e-03 -1.7413547e-03 -3.1444174e-03]
 [ 9.7121682e-04  1.4260025e-03  1.5926183e-03]] 
Episode: 147: [[-3.4952981e-03  1.4460802e-03  2.6821585e-03]
 [ 2.9018396e-03 -3.0476833e-04 -4.2880187e-04]
 [ 4.9874856e-04  2.5993134e-04 -7.6871639e-04]
 [-1.6247188e-01 -3.3880332e-01  4.6152297e-02]
 [ 1.2721241e-01 -4.6418034e-02 -3.7521720e-02]
 [ 4.5974231e-01  5.2004820e-01 -3.8217515e-01]
 [ 1.5603506e-03 -1.8163964e-03 -3.1730174e-03]
 [ 1.0629316e-03 -1.7248852e-03 -3.1794482e-03]
 [ 9.6157781e-04  1.4432557e-03  1.6318944e-03]] 
Episode: 148: [[-3.5392169e-03  1.4243821e-03  2.7060728e-03]
 [ 2.8948355e-03 -2.8975736e-04 -4.4759887e-04]
 [ 5.0182641e-04  2.6573107e-04 -8.0727664e-04]
 [-1.6249931e-01 -3.3881876e-01  4.6184134e-02]
 [ 1.2719780e-01 -4.6430010e-02 -3.7488963e-02]
 [ 4.5972356e-01  5.2001500e-01 -3.8216853e-01]
 [ 1.5430847e-03 -1.8008766e-03 -3.2053625e-03]
 [ 1.0867267e-03 -1.7100213e-03 -3.2111083e-03]
 [ 9.5507735e-04  1.4586826e-03  1.6669247e-03]] 
Episode: 149: [[-3.5789525e-03  1.4047850e-03  2.7276792e-03]
 [ 2.8828459e-03 -2.7619200e-04 -4.6456780e-04]
 [ 4.9903546e-04  2.7106344e-04 -8.4188889e-04]
 [-1.6252415e-01 -3.3883271e-01  4.6212893e-02]
 [ 1.2718461e-01 -4.6440829e-02 -3.7459373e-02]
 [ 4.5970663e-01  5.1998502e-01 -3.8216257e-01]
 [ 1.5274853e-03 -1.7868616e-03 -3.2345860e-03]
 [ 1.1085006e-03 -1.6966074e-03 -3.2397239e-03]
 [ 9.5144275e-04  1.4724659e-03  1.6981121e-03]] 
Episode: 150: [[-3.6123483e-03  1.3879539e-03  2.7442179e-03]
 [ 2.8626295e-03 -2.6227409e-04 -4.8434711e-04]
 [ 4.9042027e-04  2.8228227e-04 -8.4108644e-04]
 [-1.6254880e-01 -3.3884647e-01  4.6234194e-02]
 [ 1.2717119e-01 -4.6451319e-02 -3.7438147e-02]
 [ 4.5969677e-01  5.1997417e-01 -3.8215259e-01]
 [ 1.5113861e-03 -1.7731211e-03 -3.2561205e-03]
 [ 1.1303518e-03 -1.6832071e-03 -3.2607501e-03]
 [ 9.5536467e-04  1.4865536e-03  1.7130957e-03]] 
Episode: 151: [[-3.6425823e-03  1.3727540e-03  2.7591612e-03]
 [ 2.8384039e-03 -2.4969561e-04 -5.0220173e-04]
 [ 4.7695779e-04  2.9252190e-04 -8.4012712e-04]
 [-1.6257113e-01 -3.3885890e-01  4.6253435e-02]
 [ 1.2715906e-01 -4.6460796e-02 -3.7418973e-02]
 [ 4.5968786e-01  5.1996434e-01 -3.8214359e-01]
 [ 1.4968411e-03 -1.7607142e-03 -3.2755784e-03]
 [ 1.1503698e-03 -1.6711170e-03 -3.2797600e-03]
 [ 9.6115476e-04  1.4991157e-03  1.7261571e-03]] 
Episode: 152: [[-3.6698114e-03  1.3589911e-03  2.7727382e-03]
 [ 2.8111218e-03 -2.3841427e-04 -5.1823887e-04]
 [ 4.5919078e-04  3.0206091e-04 -8.3925202e-04]
 [-1.6259119e-01 -3.3887014e-01  4.6270888e-02]
 [ 1.2714809e-01 -4.6469349e-02 -3.7401583e-02]
 [ 4.5967969e-01  5.1995516e-01 -3.8213539e-01]
 [ 1.4837449e-03 -1.7495177e-03 -3.2932896e-03]
 [ 1.1686077e-03 -1.6601833e-03 -3.2970395e-03]
 [ 9.6835283e-04  1.5102644e-03  1.7376213e-03]] 
Episode: 153: [[-3.6940926e-03  1.3467296e-03  2.7849851e-03]
 [ 2.8073699e-03 -2.2787285e-04 -5.3275743e-04]
 [ 4.6203285e-04  3.1010309e-04 -8.3750376e-04]
 [-1.6260885e-01 -3.3888009e-01  4.6286542e-02]
 [ 1.2713845e-01 -4.6476826e-02 -3.7386056e-02]
 [ 4.5967248e-01  5.1994699e-01 -3.8212782e-01]
 [ 1.4722239e-03 -1.7395675e-03 -3.3092077e-03]
 [ 1.1840924e-03 -1.6504994e-03 -3.3125267e-03]
 [ 9.6675736e-04  1.5207522e-03  1.7481877e-03]] 
Episode: 154: [[-3.7153799e-03  1.3364754e-03  2.7943589e-03]
 [ 2.7968735e-03 -2.1705913e-04 -5.4886052e-04]
 [ 4.5956823e-04  3.1825682e-04 -8.1944128e-04]
 [-1.6262528e-01 -3.3888850e-01  4.6298530e-02]
 [ 1.2713023e-01 -4.6482421e-02 -3.7373848e-02]
 [ 4.5966983e-01  5.1994139e-01 -3.8211632e-01]
 [ 1.4621583e-03 -1.7311039e-03 -3.3214358e-03]
 [ 1.1985786e-03 -1.6423282e-03 -3.3243350e-03]
 [ 9.6865348e-04  1.5324247e-03  1.7534237e-03]] 
Episode: 155: [[-3.7340841e-03  1.3238121e-03  2.8065632e-03]
 [ 2.8486443e-03 -2.1194898e-04 -5.5645092e-04]
 [ 4.8587329e-04  3.0698243e-04 -8.6307700e-04]
 [-1.6262671e-01 -3.3889318e-01  4.6322204e-02]
 [ 1.2712766e-01 -4.6485435e-02 -3.7347708e-02]
 [ 4.5965275e-01  5.1990390e-01 -3.8210985e-01]
 [ 1.4594349e-03 -1.7252603e-03 -3.3445000e-03]
 [ 1.2028478e-03 -1.6377799e-03 -3.3469605e-03]
 [ 9.6020137e-04  1.5518431e-03  1.7892229e-03]] 
Episode: 156: [[-3.7510407e-03  1.3123777e-03  2.8175900e-03]
 [ 2.8899075e-03 -2.0732741e-04 -5.6329515e-04]
 [ 5.0406088e-04  2.9689979e-04 -9.0226682e-04]
 [-1.6262807e-01 -3.3889741e-01  4.6343587e-02]
 [ 1.2712535e-01 -4.6488158e-02 -3.7324101e-02]
 [ 4.5963734e-01  5.1987004e-01 -3.8210401e-01]
 [ 1.4569728e-03 -1.7199868e-03 -3.3653374e-03]
 [ 1.2069884e-03 -1.6336859e-03 -3.3674135e-03]
 [ 9.5483835e-04  1.5692234e-03  1.8210899e-03]] 
Episode: 157: [[-3.7664217e-03  1.3020536e-03  2.8275538e-03]
 [ 2.9233235e-03 -2.0314439e-04 -5.6946051e-04]
 [ 5.1502115e-04  2.8790097e-04 -9.3742501e-04]
 [-1.6262937e-01 -3.3890122e-01  4.6362899e-02]
 [ 1.2712327e-01 -4.6490617e-02 -3.7302781e-02]
 [ 4.5962343e-01  5.1983947e-01 -3.8209873e-01]
 [ 1.4547465e-03 -1.7152284e-03 -3.3841636e-03]
 [ 1.2109280e-03 -1.6300025e-03 -3.3859045e-03]
 [ 9.5226133e-04  1.5847558e-03  1.8493845e-03]] 
Episode: 158: [[-3.7289993e-03  1.3184132e-03  2.7985044e-03]
 [ 2.9922321e-03 -1.5418549e-04 -6.3003751e-04]
 [ 5.2049616e-04  2.6996317e-04 -8.7156665e-04]
 [-1.6262858e-01 -3.3890191e-01  4.6319157e-02]
 [ 1.2712556e-01 -4.6496540e-02 -3.7337605e-02]
 [ 4.5968100e-01  5.1990718e-01 -3.8214871e-01]
 [ 1.4544899e-03 -1.7144495e-03 -3.3444907e-03]
 [ 1.2123000e-03 -1.6298741e-03 -3.3476518e-03]
 [ 9.2541397e-04  1.5691654e-03  1.7811011e-03]] 
Episode: 159: [[-3.6884919e-03  1.3360097e-03  2.7600345e-03]
 [ 3.0551266e-03 -1.0514695e-04 -7.0283288e-04]
 [ 5.2063365e-04  2.6416208e-04 -7.9332874e-04]
 [-1.6262826e-01 -3.3890352e-01  4.6272241e-02]
 [ 1.2712671e-01 -4.6502668e-02 -3.7377652e-02]
 [ 4.5974061e-01  5.1998073e-01 -3.8219559e-01]
 [ 1.4544058e-03 -1.7127423e-03 -3.3012882e-03]
 [ 1.2137518e-03 -1.6287653e-03 -3.3057444e-03]
 [ 9.0549892e-04  1.5529197e-03  1.7062810e-03]] 
Episode: 160: [[-3.6519764e-03  1.3519037e-03  2.7252987e-03]
 [ 3.1081350e-03 -6.0850776e-05 -7.6855492e-04]
 [ 5.1545008e-04  2.5907028e-04 -7.2246068e-04]
 [-1.6262805e-01 -3.3890495e-01  4.6229873e-02]
 [ 1.2712775e-01 -4.6508204e-02 -3.7413817e-02]
 [ 4.5979443e-01  5.2004713e-01 -3.8223791e-01]
 [ 1.4543267e-03 -1.7112052e-03 -3.2622803e-03]
 [ 1.2152643e-03 -1.6277791e-03 -3.2679173e-03]
 [ 8.8978308e-04  1.5380731e-03  1.6383477e-03]] 
Episode: 161: [[-3.6208448e-03  1.3658089e-03  2.6925094e-03]
 [ 3.1472363e-03 -2.1937125e-05 -8.2938443e-04]
 [ 5.0833606e-04  2.5288601e-04 -6.6609355e-04]
 [-1.6263022e-01 -3.3890703e-01  4.6191774e-02]
 [ 1.2712744e-01 -4.6514507e-02 -3.7445858e-02]
 [ 4.5983911e-01  5.2010179e-01 -3.8228127e-01]
 [ 1.4528406e-03 -1.7097063e-03 -3.2274150e-03]
 [ 1.2180146e-03 -1.6263302e-03 -3.2344218e-03]
 [ 8.7549753e-04  1.5223485e-03  1.5744604e-03]] 
Episode: 162: [[-3.5988435e-03  1.3787983e-03  2.6632540e-03]
 [ 3.1656716e-03  1.4023032e-05 -8.8426727e-04]
 [ 5.0285767e-04  2.4772997e-04 -6.1487302e-04]
 [-1.6263862e-01 -3.3890882e-01  4.6157062e-02]
 [ 1.2712708e-01 -4.6520215e-02 -3.7475403e-02]
 [ 4.5988011e-01  5.2015084e-01 -3.8232222e-01]
 [ 1.4490742e-03 -1.7088305e-03 -3.1959529e-03]
 [ 1.2240839e-03 -1.6254205e-03 -3.2038908e-03]
 [ 8.5492164e-04  1.5074317e-03  1.5149991e-03]] 
Episode: 163: [[-3.5807751e-03  1.3891746e-03  2.6381845e-03]
 [ 3.1709797e-03  4.4262255e-05 -9.3283731e-04]
 [ 4.9423159e-04  2.4604975e-04 -5.6626549e-04]
 [-1.6264814e-01 -3.3891085e-01  4.6126604e-02]
 [ 1.2712620e-01 -4.6525385e-02 -3.7500437e-02]
 [ 4.5991594e-01  5.2019650e-01 -3.8235530e-01]
 [ 1.4445980e-03 -1.7071496e-03 -3.1687717e-03]
 [ 1.2308072e-03 -1.6240032e-03 -3.1767250e-03]
 [ 8.4062130e-04  1.4959918e-03  1.4623066e-03]] 
Episode: 164: [[-3.5635950e-03  1.3994795e-03  2.6147247e-03]
 [ 3.1744421e-03  7.3414652e-05 -9.7734726e-04]
 [ 4.7937859e-04  2.4385810e-04 -5.2272296e-04]
 [-1.6265507e-01 -3.3891204e-01  4.6098839e-02]
 [ 1.2712584e-01 -4.6529997e-02 -3.7524153e-02]
 [ 4.5994824e-01  5.2023894e-01 -3.8238481e-01]
 [ 1.4421542e-03 -1.7058571e-03 -3.1430437e-03]
 [ 1.2380523e-03 -1.6234620e-03 -3.1515202e-03]
 [ 8.4270869e-04  1.4868609e-03  1.4154934e-03]] 
Episode: 165: [[-3.5475753e-03  1.4087581e-03  2.5934901e-03]
 [ 3.2148487e-03  9.9657664e-05 -1.0176904e-03]
 [ 5.0169643e-04  2.4042596e-04 -4.8571819e-04]
 [-1.6266075e-01 -3.3891311e-01  4.6073772e-02]
 [ 1.2712553e-01 -4.6534162e-02 -3.7545569e-02]
 [ 4.5997742e-01  5.2027726e-01 -3.8241145e-01]
 [ 1.4399703e-03 -1.7046542e-03 -3.1197555e-03]
 [ 1.2423993e-03 -1.6228547e-03 -3.1286106e-03]
 [ 8.2899735e-04  1.4799637e-03  1.3761858e-03]] 
Episode: 166: [[-3.5364970e-03  1.4168835e-03  2.5774215e-03]
 [ 3.2446531e-03  1.2247574e-04 -1.0508389e-03]
 [ 5.2233046e-04  2.3809588e-04 -4.5462404e-04]
 [-1.6266902e-01 -3.3891487e-01  4.6052489e-02]
 [ 1.2712477e-01 -4.6538476e-02 -3.7564866e-02]
 [ 4.6000314e-01  5.2031094e-01 -3.8243520e-01]
 [ 1.4364620e-03 -1.7031567e-03 -3.1003370e-03]
 [ 1.2481447e-03 -1.6216344e-03 -3.1092016e-03]
 [ 8.1108895e-04  1.4739875e-03  1.3425426e-03]] 
Episode: 167: [[-3.5182503e-03  1.4256851e-03  2.5597555e-03]
 [ 3.2927310e-03  1.4569346e-04 -1.0849639e-03]
 [ 5.3171028e-04  2.3363435e-04 -4.2910030e-04]
 [-1.6266564e-01 -3.3891454e-01  4.6033192e-02]
 [ 1.2712651e-01 -4.6540529e-02 -3.7582520e-02]
 [ 4.6002534e-01  5.2034140e-01 -3.8245541e-01]
 [ 1.4376644e-03 -1.7033848e-03 -3.0823790e-03]
 [ 1.2492922e-03 -1.6219374e-03 -3.0915618e-03]
 [ 8.0653996e-04  1.4700866e-03  1.3147198e-03]] 
Episode: 168: [[-3.4983463e-03  1.4343482e-03  2.5431409e-03]
 [ 3.3590244e-03  1.6820210e-04 -1.1166713e-03]
 [ 5.5438350e-04  2.2738165e-04 -4.0481356e-04]
 [-1.6265947e-01 -3.3891401e-01  4.6014719e-02]
 [ 1.2712859e-01 -4.6542741e-02 -3.7599366e-02]
 [ 4.6004784e-01  5.2037221e-01 -3.8247585e-01]
 [ 1.4398082e-03 -1.7037453e-03 -3.0651146e-03]
 [ 1.2479706e-03 -1.6224312e-03 -3.0744839e-03]
 [ 7.9703808e-04  1.4666920e-03  1.2893393e-03]] 
Episode: 169: [[-3.4736691e-03  1.4472322e-03  2.5122096e-03]
 [ 3.4429254e-03  1.9718918e-04 -1.1695017e-03]
 [ 5.8898842e-04  2.2347635e-04 -3.5840069e-04]
 [-1.6264981e-01 -3.3890986e-01  4.5990374e-02]
 [ 1.2713495e-01 -4.6539027e-02 -3.7622962e-02]
 [ 4.6007329e-01  5.2041847e-01 -3.8248628e-01]
 [ 1.4459603e-03 -1.7063555e-03 -3.0420532e-03]
 [ 1.2434268e-03 -1.6258127e-03 -3.0512353e-03]
 [ 7.8587799e-04  1.4682921e-03  1.2586501e-03]] 
Episode: 170: [[-3.4522836e-03  1.4585685e-03  2.4842820e-03]
 [ 3.5312113e-03  2.2294503e-04 -1.2171852e-03]
 [ 6.3529646e-04  2.2073917e-04 -3.1596608e-04]
 [-1.6264215e-01 -3.3890632e-01  4.5968443e-02]
 [ 1.2714049e-01 -4.6535682e-02 -3.7644226e-02]
 [ 4.6009627e-01  5.2045995e-01 -3.8249558e-01]
 [ 1.4510741e-03 -1.7085186e-03 -3.0213213e-03]
 [ 1.2391116e-03 -1.6286712e-03 -3.0303043e-03]
 [ 7.6781883e-04  1.4696297e-03  1.2307246e-03]] 
Episode: 171: [[-3.4346401e-03  1.4662835e-03  2.4691259e-03]
 [ 3.6188785e-03  2.3987197e-04 -1.2466063e-03]
 [ 6.7998812e-04  2.2620439e-04 -2.9539029e-04]
 [-1.6263404e-01 -3.3890674e-01  4.5956608e-02]
 [ 1.2714094e-01 -4.6538126e-02 -3.7660334e-02]
 [ 4.6009418e-01  5.2049124e-01 -3.8250518e-01]
 [ 1.4533882e-03 -1.7077574e-03 -3.0098688e-03]
 [ 1.2338556e-03 -1.6277565e-03 -3.0193031e-03]
 [ 7.5813307e-04  1.4633189e-03  1.2073898e-03]] 
Episode: 172: [[-3.4070292e-03  1.4776249e-03  2.4549230e-03]
 [ 3.7218623e-03  2.6247971e-04 -1.2733118e-03]
 [ 7.1019988e-04  2.1489126e-04 -2.8724843e-04]
 [-1.6261064e-01 -3.3890313e-01  4.5946009e-02]
 [ 1.2714654e-01 -4.6538632e-02 -3.7674833e-02]
 [ 4.6009141e-01  5.2051789e-01 -3.8251430e-01]
 [ 1.4623193e-03 -1.7102244e-03 -2.9989742e-03]
 [ 1.2224872e-03 -1.6302998e-03 -3.0096141e-03]
 [ 7.6093752e-04  1.4642263e-03  1.1941646e-03]] 
Episode: 173: [[-3.3821794e-03  1.4878691e-03  2.4421094e-03]
 [ 3.8114465e-03  2.8290894e-04 -1.2973887e-03]
 [ 7.3318975e-04  2.0494669e-04 -2.7944072e-04]
 [-1.6258958e-01 -3.3889985e-01  4.5936439e-02]
 [ 1.2715159e-01 -4.6539091e-02 -3.7687924e-02]
 [ 4.6008891e-01  5.2054197e-01 -3.8252252e-01]
 [ 1.4703789e-03 -1.7124572e-03 -2.9891471e-03]
 [ 1.2124302e-03 -1.6326136e-03 -3.0008904e-03]
 [ 7.6564692e-04  1.4648477e-03  1.1817510e-03]] 
Episode: 174: [[-3.3507976e-03  1.5008028e-03  2.4243393e-03]
 [ 3.9086603e-03  3.0820741e-04 -1.3279519e-03]
 [ 7.5332110e-04  1.9279636e-04 -2.6175892e-04]
 [-1.6256286e-01 -3.3889502e-01  4.5923125e-02]
 [ 1.2715900e-01 -4.6538770e-02 -3.7704252e-02]
 [ 4.6009156e-01  5.2057713e-01 -3.8253027e-01]
 [ 1.4817895e-03 -1.7160588e-03 -2.9758560e-03]
 [ 1.1991870e-03 -1.6365013e-03 -2.9886179e-03]
 [ 7.6995976e-04  1.4680133e-03  1.1672805e-03]] 
Episode: 175: [[-3.3221799e-03  1.5124625e-03  2.4082623e-03]
 [ 4.0103383e-03  3.3098611e-04 -1.3556565e-03]
 [ 7.8484230e-04  1.8078362e-04 -2.4740800e-04]
 [-1.6253842e-01 -3.3889067e-01  4.5911103e-02]
 [ 1.2716569e-01 -4.6538480e-02 -3.7718993e-02]
 [ 4.6009395e-01  5.2060890e-01 -3.8253728e-01]
 [ 1.4921054e-03 -1.7192913e-03 -2.9638254e-03]
 [ 1.1863086e-03 -1.6399478e-03 -2.9774555e-03]
 [ 7.6724769e-04  1.4715951e-03  1.1558419e-03]] 
Episode: 176: [[-3.2964784e-03  1.5229719e-03  2.3938515e-03]
 [ 4.0974803e-03  3.5153242e-04 -1.3804837e-03]
 [ 8.0893550e-04  1.7012956e-04 -2.3422428e-04]
 [-1.6251644e-01 -3.3888674e-01  4.5900319e-02]
 [ 1.2717175e-01 -4.6538208e-02 -3.7732221e-02]
 [ 4.6009600e-01  5.2063751e-01 -3.8254362e-01]
 [ 1.5014303e-03 -1.7222237e-03 -2.9530383e-03]
 [ 1.1749709e-03 -1.6430855e-03 -2.9674752e-03]
 [ 7.6695834e-04  1.4746537e-03  1.1451578e-03]] 
Episode: 177: [[-3.2733250e-03  1.5324628e-03  2.3808470e-03]
 [ 4.1717631e-03  3.7008850e-04 -1.4028843e-03]
 [ 8.2632992e-04  1.6065031e-04 -2.2210425e-04]
 [-1.6249666e-01 -3.3888319e-01  4.5890585e-02]
 [ 1.2717722e-01 -4.6537962e-02 -3.7744164e-02]
 [ 4.6009788e-01  5.2066332e-01 -3.8254935e-01]
 [ 1.5098465e-03 -1.7248743e-03 -2.9433048e-03]
 [ 1.1650315e-03 -1.6459287e-03 -2.9584782e-03]
 [ 7.6894823e-04  1.4772970e-03  1.1352564e-03]] 
Episode: 178: [[-3.2604060e-03  1.5390337e-03  2.3675396e-03]
 [ 4.2129816e-03  3.8254439e-04 -1.4262148e-03]
 [ 8.4218354e-04  1.5697717e-04 -2.0615604e-04]
 [-1.6248938e-01 -3.3888137e-01  4.5881152e-02]
 [ 1.2717943e-01 -4.6537854e-02 -3.7754554e-02]
 [ 4.6010503e-01  5.2068424e-01 -3.8255450e-01]
 [ 1.5129059e-03 -1.7255702e-03 -2.9341341e-03]
 [ 1.1621026e-03 -1.6469590e-03 -2.9496450e-03]
 [ 7.6889939e-04  1.4780768e-03  1.1240834e-03]] 
Episode: 179: [[-3.2488285e-03  1.5449709e-03  2.3555367e-03]
 [ 4.2457525e-03  3.9380707e-04 -1.4472425e-03]
 [ 8.5351826e-04  1.5398709e-04 -1.9123068e-04]
 [-1.6248290e-01 -3.3887973e-01  4.5872636e-02]
 [ 1.2718143e-01 -4.6537757e-02 -3.7763935e-02]
 [ 4.6011150e-01  5.2070314e-01 -3.8255915e-01]
 [ 1.5156636e-03 -1.7262041e-03 -2.9258644e-03]
 [ 1.1597547e-03 -1.6479072e-03 -2.9416955e-03]
 [ 7.7033637e-04  1.4785731e-03  1.1135027e-03]] 
Episode: 180: [[-3.2384633e-03  1.5503361e-03  2.3447115e-03]
 [ 4.2720689e-03  4.0399545e-04 -1.4661882e-03]
 [ 8.5920654e-04  1.5160085e-04 -1.7727191e-04]
 [-1.6247715e-01 -3.3887824e-01  4.5864947e-02]
 [ 1.2718323e-01 -4.6537671e-02 -3.7772402e-02]
 [ 4.6011731e-01  5.2072018e-01 -3.8256335e-01]
 [ 1.5181488e-03 -1.7267819e-03 -2.9184080e-03]
 [ 1.1578462e-03 -1.6487821e-03 -2.9345439e-03]
 [ 7.7387126e-04  1.4788082e-03  1.1034711e-03]] 
Episode: 181: [[-3.2368342e-03  1.5524022e-03  2.3398916e-03]
 [ 4.2834133e-03  4.0803902e-04 -1.4767740e-03]
 [ 8.6805475e-04  1.5550762e-04 -1.6952639e-04]
 [-1.6247925e-01 -3.3887902e-01  4.5861371e-02]
 [ 1.2718190e-01 -4.6539120e-02 -3.7777640e-02]
 [ 4.6011817e-01  5.2073014e-01 -3.8256624e-01]
 [ 1.5167223e-03 -1.7259949e-03 -2.9153062e-03]
 [ 1.1588631e-03 -1.6477277e-03 -2.9313015e-03]
 [ 7.6455669e-04  1.4776144e-03  1.0954884e-03]] 
Episode: 182: [[-3.2346074e-03  1.5547245e-03  2.3350117e-03]
 [ 4.2915954e-03  4.1225879e-04 -1.4867649e-03]
 [ 8.7045820e-04  1.5883290e-04 -1.6151005e-04]
 [-1.6248013e-01 -3.3887941e-01  4.5857932e-02]
 [ 1.2718099e-01 -4.6540070e-02 -3.7782591e-02]
 [ 4.6011904e-01  5.2073884e-01 -3.8256821e-01]
 [ 1.5160862e-03 -1.7256119e-03 -2.9121204e-03]
 [ 1.1594924e-03 -1.6471128e-03 -2.9281848e-03]
 [ 7.6155388e-04  1.4766110e-03  1.0876562e-03]] 
Episode: 183: [[-3.2321350e-03  1.5569194e-03  2.3303300e-03]
 [ 4.2955307e-03  4.1620119e-04 -1.4960855e-03]
 [ 8.6792192e-04  1.6211640e-04 -1.5334420e-04]
 [-1.6248053e-01 -3.3887973e-01  4.5854684e-02]
 [ 1.2718020e-01 -4.6540927e-02 -3.7787158e-02]
 [ 4.6011990e-01  5.2074695e-01 -3.8256985e-01]
 [ 1.5156782e-03 -1.7252937e-03 -2.9090517e-03]
 [ 1.1601190e-03 -1.6465938e-03 -2.9252365e-03]
 [ 7.6143368e-04  1.4755895e-03  1.0799201e-03]] 
Episode: 184: [[-3.2397250e-03  1.5594958e-03  2.3253465e-03]
 [ 4.2713238e-03  4.1951158e-04 -1.5042690e-03]
 [ 8.6502172e-04  1.6079648e-04 -1.4649822e-04]
 [-1.6249095e-01 -3.3887950e-01  4.5851603e-02]
 [ 1.2717910e-01 -4.6540841e-02 -3.7790749e-02]
 [ 4.6012360e-01  5.2075082e-01 -3.8257092e-01]
 [ 1.5124066e-03 -1.7257971e-03 -2.9060591e-03]
 [ 1.1669118e-03 -1.6468441e-03 -2.9230192e-03]
 [ 7.5883843e-04  1.4758634e-03  1.0741239e-03]] 
Episode: 185: [[-3.2690645e-03  1.5541803e-03  2.3263961e-03]
 [ 4.2131841e-03  4.1351304e-04 -1.5065203e-03]
 [ 8.8790682e-04  1.7970466e-04 -1.3950223e-04]
 [-1.6252625e-01 -3.3888412e-01  4.5851085e-02]
 [ 1.2717295e-01 -4.6543714e-02 -3.7792172e-02]
 [ 4.6012795e-01  5.2074611e-01 -3.8257518e-01]
 [ 1.4978085e-03 -1.7208712e-03 -2.9083504e-03]
 [ 1.1848614e-03 -1.6426787e-03 -2.9237592e-03]
 [ 7.2017906e-04  1.4630147e-03  1.0651707e-03]] 
Episode: 186: [[-3.2956325e-03  1.5493874e-03  2.3273537e-03]
 [ 4.1564065e-03  4.0811632e-04 -1.5085184e-03]
 [ 9.0439682e-04  1.9708896e-04 -1.3267979e-04]
 [-1.6255821e-01 -3.3888829e-01  4.5850620e-02]
 [ 1.2716739e-01 -4.6546306e-02 -3.7793458e-02]
 [ 4.6013185e-01  5.2074182e-01 -3.8257903e-01]
 [ 1.4846270e-03 -1.7164304e-03 -2.9104280e-03]
 [ 1.2013771e-03 -1.6389375e-03 -2.9244518e-03]
 [ 6.8741804e-04  1.4512014e-03  1.0565977e-03]] 
Episode: 187: [[-3.3193622e-03  1.5450455e-03  2.3281877e-03]
 [ 4.1189422e-03  4.0319073e-04 -1.5104258e-03]
 [ 9.3162077e-04  2.1181315e-04 -1.2807279e-04]
 [-1.6258678e-01 -3.3889204e-01  4.5850199e-02]
 [ 1.2716238e-01 -4.6548646e-02 -3.7794616e-02]
 [ 4.6013540e-01  5.2073795e-01 -3.8258249e-01]
 [ 1.4727397e-03 -1.7124045e-03 -2.9122750e-03]
 [ 1.2153399e-03 -1.6355028e-03 -2.9250011e-03]
 [ 6.5132987e-04  1.4411937e-03  1.0503542e-03]] 
Episode: 188: [[-3.3405358e-03  1.5411113e-03  2.3289116e-03]
 [ 4.0987805e-03  3.9869122e-04 -1.5122497e-03]
 [ 9.6778898e-04  2.2412441e-04 -1.2545336e-04]
 [-1.6261229e-01 -3.3889544e-01  4.5849819e-02]
 [ 1.2715787e-01 -4.6550758e-02 -3.7795663e-02]
 [ 4.6013859e-01  5.2073449e-01 -3.8258561e-01]
 [ 1.4620209e-03 -1.7087532e-03 -2.9139146e-03]
 [ 1.2270041e-03 -1.6323444e-03 -2.9254225e-03]
 [ 6.1218790e-04  1.4328151e-03  1.0461757e-03]] 
Episode: 189: [[-3.3597259e-03  1.5375654e-03  2.3295744e-03]
 [ 4.0760762e-03  3.9464809e-04 -1.5138614e-03]
 [ 9.9790294e-04  2.3558836e-04 -1.2253670e-04]
 [-1.6263542e-01 -3.3889851e-01  4.5849476e-02]
 [ 1.2715378e-01 -4.6552666e-02 -3.7796609e-02]
 [ 4.6014148e-01  5.2073133e-01 -3.8258845e-01]
 [ 1.4523435e-03 -1.7054633e-03 -2.9154036e-03]
 [ 1.2378396e-03 -1.6295131e-03 -2.9258276e-03]
 [ 5.7834003e-04  1.4250343e-03  1.0419084e-03]] 
Episode: 190: [[-3.3773545e-03  1.5359266e-03  2.3328250e-03]
 [ 4.0548225e-03  3.9372436e-04 -1.5120235e-03]
 [ 1.0195313e-03  2.4002629e-04 -1.2372916e-04]
 [-1.6265412e-01 -3.3889982e-01  4.5849707e-02]
 [ 1.2715179e-01 -4.6553262e-02 -3.7797343e-02]
 [ 4.6014541e-01  5.2073127e-01 -3.8259208e-01]
 [ 1.4453917e-03 -1.7043756e-03 -2.9174783e-03]
 [ 1.2481728e-03 -1.6285992e-03 -2.9271068e-03]
 [ 5.5566314e-04  1.4207958e-03  1.0415321e-03]] 
Episode: 191: [[-3.3843217e-03  1.5361522e-03  2.3433825e-03]
 [ 4.0732487e-03  3.9878441e-04 -1.4965357e-03]
 [ 1.0361215e-03  2.1771675e-04 -1.6502554e-04]
 [-1.6264905e-01 -3.3889434e-01  4.5858670e-02]
 [ 1.2715955e-01 -4.6549480e-02 -3.7786409e-02]
 [ 4.6014291e-01  5.2071559e-01 -3.8259795e-01]
 [ 1.4502582e-03 -1.7081545e-03 -2.9278926e-03]
 [ 1.2448722e-03 -1.6337214e-03 -2.9368235e-03]
 [ 5.4482516e-04  1.4248159e-03  1.0674882e-03]] 
Episode: 192: [[-3.3906889e-03  1.5363607e-03  2.3529208e-03]
 [ 4.0854900e-03  4.0337001e-04 -1.4825218e-03]
 [ 1.0477434e-03  1.9792291e-04 -2.0179254e-04]
 [-1.6264457e-01 -3.3888939e-01  4.5866761e-02]
 [ 1.2716655e-01 -4.6546064e-02 -3.7776541e-02]
 [ 4.6014065e-01  5.2070141e-01 -3.8260326e-01]
 [ 1.4546480e-03 -1.7115711e-03 -2.9373015e-03]
 [ 1.2422001e-03 -1.6383645e-03 -2.9456185e-03]
 [ 5.3721201e-04  1.4282241e-03  1.0904485e-03]] 
Episode: 193: [[-3.3965155e-03  1.5365538e-03  2.3615391e-03]
 [ 4.0920563e-03  4.0752749e-04 -1.4698370e-03]
 [ 1.0548380e-03  1.8040302e-04 -2.3445554e-04]
 [-1.6264060e-01 -3.3888492e-01  4.5874063e-02]
 [ 1.2717287e-01 -4.6542984e-02 -3.7767634e-02]
 [ 4.6013862e-01  5.2068865e-01 -3.8260803e-01]
 [ 1.4586076e-03 -1.7146608e-03 -2.9458029e-03]
 [ 1.2401001e-03 -1.6425751e-03 -2.9535820e-03]
 [ 5.3256552e-04  1.4310785e-03  1.1106903e-03]] 
Episode: 194: [[-3.4015316e-03  1.5367134e-03  2.3692895e-03]
 [ 4.0946947e-03  4.1118695e-04 -1.4585336e-03]
 [ 1.0573840e-03  1.6330287e-04 -2.6572816e-04]
 [-1.6263676e-01 -3.3888090e-01  4.5880653e-02]
 [ 1.2717858e-01 -4.6540201e-02 -3.7759595e-02]
 [ 4.6013677e-01  5.2067709e-01 -3.8261235e-01]
 [ 1.4621892e-03 -1.7174318e-03 -2.9534481e-03]
 [ 1.2384881e-03 -1.6463149e-03 -2.9606926e-03]
 [ 5.3118588e-04  1.4343372e-03  1.1304372e-03]] 
Episode: 195: [[-3.4064834e-03  1.5356637e-03  2.3769906e-03]
 [ 4.0890351e-03  4.1203102e-04 -1.4470814e-03]
 [ 1.0567886e-03  1.5029832e-04 -2.9559288e-04]
 [-1.6263473e-01 -3.3887845e-01  4.5887079e-02]
 [ 1.2718208e-01 -4.6539247e-02 -3.7751112e-02]
 [ 4.6013480e-01  5.2066284e-01 -3.8261795e-01]
 [ 1.4638881e-03 -1.7190682e-03 -2.9608496e-03]
 [ 1.2380132e-03 -1.6485960e-03 -2.9676713e-03]
 [ 5.3029752e-04  1.4350264e-03  1.1475610e-03]] 
Episode: 196: [[-3.41684883e-03  1.52724423e-03  2.40091677e-03]
 [ 4.09842981e-03  4.01137950e-04 -1.40982447e-03]
 [ 1.05916418e-03  1.13988965e-04 -3.63325875e-04]
 [-1.62624970e-01 -3.38874072e-01  4.59091365e-02]
 [ 1.27188206e-01 -4.65349928e-02 -3.77209261e-02]
 [ 4.60116804e-01  5.20607948e-01 -3.82611990e-01]
 [ 1.46981271e-03 -1.72127283e-03 -2.98289955e-03]
 [ 1.23163394e-03 -1.65248290e-03 -2.98919273e-03]
 [ 5.33949933e-04  1.44823350e-03  1.18869450e-03]] 
Episode: 197: [[-3.4317630e-03  1.5205039e-03  2.4208687e-03]
 [ 4.1058171e-03  3.9269793e-04 -1.3798050e-03]
 [ 1.0741947e-03  7.9467485e-05 -4.1510985e-04]
 [-1.6262339e-01 -3.3886984e-01  4.5926493e-02]
 [ 1.2719379e-01 -4.6530455e-02 -3.7695371e-02]
 [ 4.6010333e-01  5.2055955e-01 -3.8260445e-01]
 [ 1.4731180e-03 -1.7238392e-03 -3.0006999e-03]
 [ 1.2281685e-03 -1.6565224e-03 -3.0061491e-03]
 [ 5.2395044e-04  1.4611527e-03  1.2205467e-03]] 
Episode: 198: [[-3.4453145e-03  1.5144260e-03  2.4388772e-03]
 [ 4.1076131e-03  3.8509813e-04 -1.3526862e-03]
 [ 1.0841048e-03  4.8668015e-05 -4.6129184e-04]
 [-1.6262206e-01 -3.3886603e-01  4.5942150e-02]
 [ 1.2719883e-01 -4.6526361e-02 -3.7672311e-02]
 [ 4.6009117e-01  5.2051592e-01 -3.8259763e-01]
 [ 1.4760930e-03 -1.7261599e-03 -3.0167687e-03]
 [ 1.2253942e-03 -1.6601862e-03 -3.0214738e-03]
 [ 5.1738357e-04  1.4725830e-03  1.2487753e-03]] 
Episode: 199: [[-3.4551551e-03  1.5090959e-03  2.4544606e-03]
 [ 4.1094059e-03  3.7841956e-04 -1.3288219e-03]
 [ 1.0885841e-03  1.7381504e-05 -5.0897506e-04]
 [-1.6262016e-01 -3.3886424e-01  4.5954853e-02]
 [ 1.2720095e-01 -4.6526469e-02 -3.7652545e-02]
 [ 4.6008155e-01  5.2047086e-01 -3.8260049e-01]
 [ 1.4784668e-03 -1.7275264e-03 -3.0300524e-03]
 [ 1.2235263e-03 -1.6625166e-03 -3.0339428e-03]
 [ 5.1163574e-04  1.4781663e-03  1.2729821e-03]] 
Episode: 200: [[-3.4640823e-03  1.5042884e-03  2.4685299e-03]
 [ 4.1070632e-03  3.7240019e-04 -1.3072663e-03]
 [ 1.0895750e-03 -1.0669958e-05 -5.5173878e-04]
 [-1.6261849e-01 -3.3886263e-01  4.5966320e-02]
 [ 1.2720285e-01 -4.6526566e-02 -3.7634704e-02]
 [ 4.6007288e-01  5.2043021e-01 -3.8260305e-01]
 [ 1.4806084e-03 -1.7287631e-03 -3.0420460e-03]
 [ 1.2221301e-03 -1.6646314e-03 -3.0452106e-03]
 [ 5.0856580e-04  1.4830782e-03  1.2945656e-03]] 
Episode: 201: [[-3.4722232e-03  1.4999548e-03  2.4812373e-03]
 [ 4.1018128e-03  3.6699077e-04 -1.2877708e-03]
 [ 1.0872477e-03 -3.5618887e-05 -5.8979355e-04]
 [-1.6261707e-01 -3.3886117e-01  4.5976669e-02]
 [ 1.2720457e-01 -4.6526652e-02 -3.7618604e-02]
 [ 4.6006504e-01  5.2039355e-01 -3.8260537e-01]
 [ 1.4825385e-03 -1.7298852e-03 -3.0528796e-03]
 [ 1.2210937e-03 -1.6665607e-03 -3.0554063e-03]
 [ 5.0804007e-04  1.4872828e-03  1.3135503e-03]] 
Episode: 202: [[-3.4795746e-03  1.4960783e-03  2.4927943e-03]
 [ 4.0930412e-03  3.6216690e-04 -1.2700370e-03]
 [ 1.0819143e-03 -5.7754511e-05 -6.2387838e-04]
 [-1.6261575e-01 -3.3885983e-01  4.5986045e-02]
 [ 1.2720615e-01 -4.6526726e-02 -3.7604034e-02]
 [ 4.6005791e-01  5.2036041e-01 -3.8260752e-01]
 [ 1.4843356e-03 -1.7309422e-03 -3.0627279e-03]
 [ 1.2203843e-03 -1.6683521e-03 -3.0646792e-03]
 [ 5.0986622e-04  1.4907952e-03  1.3303694e-03]] 
Episode: 203: [[-3.4870021e-03  1.4920447e-03  2.5027075e-03]
 [ 4.0808134e-03  3.5627463e-04 -1.2558176e-03]
 [ 1.0767231e-03 -7.6125078e-05 -6.4864143e-04]
 [-1.6261727e-01 -3.3885998e-01  4.5993112e-02]
 [ 1.2720616e-01 -4.6527293e-02 -3.7592635e-02]
 [ 4.6005404e-01  5.2033788e-01 -3.8261059e-01]
 [ 1.4843651e-03 -1.7310343e-03 -3.0703652e-03]
 [ 1.2223506e-03 -1.6686567e-03 -3.0714804e-03]
 [ 5.0986616e-04  1.4937673e-03  1.3424595e-03]] 
Episode: 204: [[-3.4937961e-03  1.4884101e-03  2.5116650e-03]
 [ 4.0653101e-03  3.5097869e-04 -1.2429419e-03]
 [ 1.0687661e-03 -9.2318507e-05 -6.7039893e-04]
 [-1.6261874e-01 -3.3886012e-01  4.5999490e-02]
 [ 1.2720618e-01 -4.6527803e-02 -3.7582349e-02]
 [ 4.6005055e-01  5.2031755e-01 -3.8261336e-01]
 [ 1.4843884e-03 -1.7311238e-03 -3.0772684e-03]
 [ 1.2244465e-03 -1.6689526e-03 -3.0776465e-03]
 [ 5.1211409e-04  1.4962115e-03  1.3528322e-03]] 
Episode: 205: [[-3.49965668e-03  1.48511305e-03  2.51971581e-03]
 [ 4.06501815e-03  3.46133660e-04 -1.23145024e-03]
 [ 1.07165705e-03 -1.08103755e-04 -6.91778958e-04]
 [-1.62619770e-01 -3.38860244e-01  4.60052453e-02]
 [ 1.27206191e-01 -4.65282649e-02 -3.75730656e-02]
 [ 4.60047394e-01  5.20299196e-01 -3.82615864e-01]
 [ 1.48441875e-03 -1.73118524e-03 -3.08346725e-03]
 [ 1.22535403e-03 -1.66915532e-03 -3.08312709e-03]
 [ 5.07352583e-04  1.49913691e-03  1.36377930e-03]] 
Episode: 206: [[-3.5025075e-03  1.4804587e-03  2.5276376e-03]
 [ 4.1012978e-03  3.4108484e-04 -1.2172203e-03]
 [ 1.0953337e-03 -1.3729547e-04 -7.1628921e-04]
 [-1.6261557e-01 -3.3886024e-01  4.6013042e-02]
 [ 1.2720653e-01 -4.6528529e-02 -3.7562594e-02]
 [ 4.6004385e-01  5.2027166e-01 -3.8261688e-01]
 [ 1.4879730e-03 -1.7307930e-03 -3.0911686e-03]
 [ 1.2220796e-03 -1.6697224e-03 -3.0903628e-03]
 [ 4.9513503e-04  1.5091079e-03  1.3756655e-03]] 
Episode: 207: [[-3.5232781e-03  1.4749003e-03  2.5298775e-03]
 [ 4.0871855e-03  3.3197255e-04 -1.2134550e-03]
 [ 1.1213074e-03 -1.4780620e-04 -7.2044635e-04]
 [-1.6263664e-01 -3.3886403e-01  4.6016332e-02]
 [ 1.2720032e-01 -4.6531457e-02 -3.7557796e-02]
 [ 4.6004599e-01  5.2025270e-01 -3.8261816e-01]
 [ 1.4805351e-03 -1.7280275e-03 -3.0945414e-03]
 [ 1.2310367e-03 -1.6673028e-03 -3.0935258e-03]
 [ 4.7180231e-04  1.5141665e-03  1.3745989e-03]] 
Episode: 208: [[-3.5417571e-03  1.4698678e-03  2.5318658e-03]
 [ 4.0868279e-03  3.2368355e-04 -1.2101871e-03]
 [ 1.1539046e-03 -1.5846759e-04 -7.2596129e-04]
 [-1.6265537e-01 -3.3886746e-01  4.6019301e-02]
 [ 1.2719472e-01 -4.6534099e-02 -3.7553463e-02]
 [ 4.6004793e-01  5.2023560e-01 -3.8261932e-01]
 [ 1.4738330e-03 -1.7255126e-03 -3.0975535e-03]
 [ 1.2381504e-03 -1.6650558e-03 -3.0962958e-03]
 [ 4.4395338e-04  1.5194495e-03  1.3752396e-03]] 
Episode: 209: [[-3.5585174e-03  1.4653319e-03  2.5336700e-03]
 [ 4.0823705e-03  3.1622555e-04 -1.2071966e-03]
 [ 1.1803772e-03 -1.6768838e-04 -7.3038292e-04]
 [-1.6267236e-01 -3.3887056e-01  4.6021979e-02]
 [ 1.2718965e-01 -4.6536483e-02 -3.7549555e-02]
 [ 4.6004969e-01  5.2022016e-01 -3.8262036e-01]
 [ 1.4677824e-03 -1.7232494e-03 -3.1002811e-03]
 [ 1.2448942e-03 -1.6630496e-03 -3.0988222e-03]
 [ 4.2109162e-04  1.5239751e-03  1.3753225e-03]] 
Episode: 210: [[-3.5678810e-03  1.4607038e-03  2.5420086e-03]
 [ 4.0875245e-03  3.0934985e-04 -1.1915095e-03]
 [ 1.1993123e-03 -1.9474124e-04 -7.5925136e-04]
 [-1.6267899e-01 -3.3887288e-01  4.6028849e-02]
 [ 1.2718613e-01 -4.6540469e-02 -3.7542704e-02]
 [ 4.6004850e-01  5.2018917e-01 -3.8263053e-01]
 [ 1.4622379e-03 -1.7216661e-03 -3.1074886e-03]
 [ 1.2478716e-03 -1.6609103e-03 -3.1058623e-03]
 [ 4.0790607e-04  1.5312468e-03  1.3855288e-03]] 
Episode: 211: [[-3.5764023e-03  1.4565326e-03  2.5495426e-03]
 [ 4.0892465e-03  3.0316936e-04 -1.1773123e-03]
 [ 1.2133416e-03 -2.1877399e-04 -7.8477140e-04]
 [-1.6268505e-01 -3.3887500e-01  4.6035048e-02]
 [ 1.2718296e-01 -4.6544064e-02 -3.7536521e-02]
 [ 4.6004742e-01  5.2016121e-01 -3.8263968e-01]
 [ 1.4572323e-03 -1.7202434e-03 -3.1140016e-03]
 [ 1.2507836e-03 -1.6590009e-03 -3.1122407e-03]
 [ 3.9854384e-04  1.5375800e-03  1.3942665e-03]] 
Episode: 212: [[-3.5841323e-03  1.4527368e-03  2.5562958e-03]
 [ 4.0867371e-03  2.9744121e-04 -1.1647939e-03]
 [ 1.2242454e-03 -2.3816177e-04 -8.0544001e-04]
 [-1.6269056e-01 -3.3887690e-01  4.6040647e-02]
 [ 1.2718011e-01 -4.6547137e-02 -3.7530903e-02]
 [ 4.6004644e-01  5.2013630e-01 -3.8264617e-01]
 [ 1.4527440e-03 -1.7189583e-03 -3.1199101e-03]
 [ 1.2537170e-03 -1.6572776e-03 -3.1180156e-03]
 [ 3.9148121e-04  1.5430223e-03  1.4013710e-03]] 
Episode: 213: [[-3.5914057e-03  1.4492251e-03  2.5627878e-03]
 [ 4.0802252e-03  2.9219175e-04 -1.1529336e-03]
 [ 1.2314068e-03 -2.5539362e-04 -8.2436739e-04]
 [-1.6269563e-01 -3.3887860e-01  4.6045929e-02]
 [ 1.2717755e-01 -4.6549901e-02 -3.7525620e-02]
 [ 4.6004540e-01  5.2011335e-01 -3.8265219e-01]
 [ 1.4487092e-03 -1.7178254e-03 -3.1255668e-03]
 [ 1.2566947e-03 -1.6557686e-03 -3.1234878e-03]
 [ 3.8732510e-04  1.5476362e-03  1.4077228e-03]] 
Episode: 214: [[-3.5993336e-03  1.4450636e-03  2.5705975e-03]
 [ 4.0863375e-03  2.8575613e-04 -1.1391171e-03]
 [ 1.2467182e-03 -2.6947455e-04 -8.4250921e-04]
 [-1.6270067e-01 -3.3888066e-01  4.6052415e-02]
 [ 1.2717468e-01 -4.6552535e-02 -3.7519738e-02]
 [ 4.6004134e-01  5.2009010e-01 -3.8265625e-01]
 [ 1.4449214e-03 -1.7163947e-03 -3.1324755e-03]
 [ 1.2583053e-03 -1.6540033e-03 -3.1300229e-03]
 [ 3.7604154e-04  1.5519070e-03  1.4139693e-03]] 
Episode: 215: [[-3.6062256e-03  1.4412927e-03  2.5776122e-03]
 [ 4.1044587e-03  2.7988231e-04 -1.1267925e-03]
 [ 1.2683518e-03 -2.8341627e-04 -8.6079835e-04]
 [-1.6270491e-01 -3.3888251e-01  4.6058267e-02]
 [ 1.2717208e-01 -4.6554912e-02 -3.7514430e-02]
 [ 4.6003768e-01  5.2006912e-01 -3.8265991e-01]
 [ 1.4415100e-03 -1.7150836e-03 -3.1386761e-03]
 [ 1.2587542e-03 -1.6523447e-03 -3.1358302e-03]
 [ 3.5894185e-04  1.5565007e-03  1.4213102e-03]] 
Episode: 216: [[-3.6152103e-03  1.4381917e-03  2.5816583e-03]
 [ 4.1135894e-03  2.7487575e-04 -1.1191769e-03]
 [ 1.2883958e-03 -2.9146686e-04 -8.7174133e-04]
 [-1.6271317e-01 -3.3888462e-01  4.6061702e-02]
 [ 1.2716885e-01 -4.6558138e-02 -3.7510835e-02]
 [ 4.6003571e-01  5.2005225e-01 -3.8266310e-01]
 [ 1.4371325e-03 -1.7132959e-03 -3.1419322e-03]
 [ 1.2621954e-03 -1.6504924e-03 -3.1390474e-03]
 [ 3.4088691e-04  1.5587171e-03  1.4242110e-03]] 
Episode: 217: [[-3.6309022e-03  1.4323487e-03  2.5911797e-03]
 [ 4.1069700e-03  2.6567050e-04 -1.1035191e-03]
 [ 1.3070396e-03 -3.0244904e-04 -8.8411017e-04]
 [-1.6272694e-01 -3.3888823e-01  4.6069738e-02]
 [ 1.2716445e-01 -4.6562657e-02 -3.7503459e-02]
 [ 4.6002898e-01  5.2003324e-01 -3.8265955e-01]
 [ 1.4307165e-03 -1.7098029e-03 -3.1495432e-03]
 [ 1.2665762e-03 -1.6476942e-03 -3.1460100e-03]
 [ 3.2621063e-04  1.5668436e-03  1.4311125e-03]] 
Episode: 218: [[-3.6246972e-03  1.4351266e-03  2.5720405e-03]
 [ 4.0974324e-03  2.7188536e-04 -1.1590471e-03]
 [ 1.3296718e-03 -2.1687306e-04 -8.0510578e-04]
 [-1.6275372e-01 -3.3889917e-01  4.6041112e-02]
 [ 1.2715045e-01 -4.6568017e-02 -3.7542954e-02]
 [ 4.6006888e-01  5.2012122e-01 -3.8265824e-01]
 [ 1.4124877e-03 -1.6967792e-03 -3.1258261e-03]
 [ 1.2722195e-03 -1.6380767e-03 -3.1091154e-03]
 [ 3.1149876e-04  1.5102848e-03  1.3930548e-03]] 
Episode: 219: [[-3.6174671e-03  1.4372556e-03  2.5548358e-03]
 [ 4.0849783e-03  2.7706841e-04 -1.2102384e-03]
