Episode: 1: [[ 0.          0.          0.        ]
 [ 0.          0.          0.        ]
 [ 0.          0.          0.        ]
 [-0.16240509 -0.34006977  0.04328375]
 [ 0.12615696 -0.04700504 -0.04048468]
 [ 0.46043023  0.522202   -0.38252082]
 [ 0.          0.          0.        ]
 [ 0.          0.          0.        ]
 [ 0.          0.          0.        ]] 
Episode: 2: [[ 0.0000000e+00  0.0000000e+00  0.0000000e+00]
 [ 0.0000000e+00  0.0000000e+00  0.0000000e+00]
 [ 0.0000000e+00  0.0000000e+00  0.0000000e+00]
 [-1.6230509e-01 -3.3996978e-01  4.3383747e-02]
 [ 1.2625696e-01 -4.6905041e-02 -4.0384684e-02]
 [ 4.6052945e-01  5.2210200e-01 -3.8262081e-01]
 [ 9.9999983e-05 -9.9999976e-05 -9.9999990e-05]
 [-9.9999990e-05 -9.9999925e-05 -9.9999954e-05]
 [-9.9999859e-05 -9.9999881e-05  9.9999401e-05]] 
Episode: 3: [[-4.4809924e-05 -1.2914212e-05  3.8031678e-05]
 [ 7.4058065e-05  1.1639387e-05  1.8652156e-05]
 [ 7.4019110e-05  1.4902618e-05  9.4386742e-06]
 [-1.6223852e-01 -3.3990297e-01  4.3451145e-02]
 [ 1.2632371e-01 -4.6838429e-02 -4.0317290e-02]
 [ 4.6062511e-01  5.2203453e-01 -3.8268808e-01]
 [ 1.6697227e-04 -1.6698655e-04 -1.6723020e-04]
 [-1.6007775e-04 -1.6719688e-04 -1.6750125e-04]
 [-8.4808518e-05 -1.6767974e-04  1.6499290e-04]] 
