Episode: 1: [[ 0.00092566  0.1884309  -0.47406635  0.46717453  0.19659376  0.4503889
  -0.10379273]
 [ 0.3929658  -0.06094849  0.41054338 -0.53069663 -0.20726025  0.18841356
   0.08876103]
 [-0.2593558  -0.13485932 -0.00112575  0.30005962 -0.31495517  0.41223353
   0.06572521]
 [ 0.28130668 -0.38617328 -0.559901   -0.09894142 -0.5449288  -0.34873372
  -0.5694712 ]
 [-0.42014933  0.327869    0.11496413  0.11893058  0.09767616 -0.3025094
  -0.41225266]
 [ 0.19843453  0.5474354   0.20367622 -0.21176076  0.0922938  -0.076509
  -0.07437015]
 [ 0.001       0.          0.          0.          0.          0.
   0.        ]
 [ 0.001       0.          0.          0.          0.          0.
   0.        ]
 [ 0.001       0.          0.          0.          0.          0.
   0.        ]] 
Episode: 2: [[ 9.2566013e-04  1.8843091e-01 -4.7406635e-01  4.6717453e-01
   1.9659376e-01  4.5038891e-01 -1.0379273e-01]
 [ 3.9296579e-01 -6.0948491e-02  4.1054338e-01 -5.3069663e-01
  -2.0726025e-01  1.8841356e-01  8.8761032e-02]
 [-2.5935581e-01 -1.3485932e-01 -1.1257529e-03  3.0005962e-01
  -3.1495517e-01  4.1223353e-01  6.5725207e-02]
 [ 2.8127810e-01 -3.8613021e-01 -5.5985922e-01 -9.8891012e-02
  -5.4487926e-01 -3.4869111e-01 -5.6942803e-01]
 [-4.2017916e-01  3.2791406e-01  1.1500794e-01  1.1898319e-01
   9.7728081e-02 -3.0246446e-01 -4.1220760e-01]
 [ 1.9838668e-01  5.4748428e-01  2.0372303e-01 -2.1170320e-01
   9.2351809e-02 -7.6457627e-02 -7.4319497e-02]
 [ 9.0000010e-04 -9.9999917e-05 -9.9999910e-05 -9.9999925e-05
  -9.9999910e-05 -9.9999910e-05 -9.9999917e-05]
 [ 9.0000016e-04 -9.9999925e-05 -9.9999910e-05 -9.9999910e-05
  -9.9999917e-05 -9.9999910e-05 -9.9999917e-05]
 [ 9.0000016e-04 -9.9999917e-05 -9.9999910e-05 -9.9999917e-05
  -9.9999903e-05 -9.9999917e-05 -9.9999910e-05]] 
Episode: 3: [[ 8.7369437e-04  1.8838020e-01 -4.7411889e-01  4.6712229e-01
   1.9654125e-01  4.5033637e-01 -1.0384481e-01]
 [ 3.9291358e-01 -6.0999796e-02  4.1049036e-01 -5.3074932e-01
  -2.0731317e-01  1.8836072e-01  8.8708475e-02]
 [-2.5940979e-01 -1.3491255e-01 -1.1801141e-03  3.0000553e-01
  -3.1500959e-01  4.1217923e-01  6.5670937e-02]
 [ 2.8129464e-01 -3.8611045e-01 -5.5983263e-01 -9.8861538e-02
  -5.4484189e-01 -3.4865800e-01 -5.6940275e-01]
 [-4.2016229e-01  3.2793587e-01  1.1503607e-01  1.1901541e-01
   9.7767286e-02 -3.0242985e-01 -4.1218090e-01]
 [ 1.9839644e-01  5.4750878e-01  2.0375440e-01 -2.1166763e-01
   9.2395790e-02 -7.6418519e-02 -7.4288100e-02]
 [ 8.4184646e-04 -1.5898416e-04 -1.5802676e-04 -1.5811333e-04
  -1.5804100e-04 -1.5799192e-04 -1.5824547e-04]
 [ 8.4160932e-04 -1.5904481e-04 -1.5813563e-04 -1.5826935e-04
  -1.5820588e-04 -1.5821490e-04 -1.5835268e-04]
 [ 8.4406685e-04 -1.5671941e-04 -1.5596520e-04 -1.5603349e-04
  -1.5597715e-04 -1.5597545e-04 -1.5594601e-04]] 
Episode: 4: [[ 8.0794661e-04  1.8831480e-01 -4.7418481e-01  4.6705645e-01
   1.9647531e-01  4.5027044e-01 -1.0391059e-01]
 [ 3.9284775e-01 -6.1065372e-02  4.1042429e-01 -5.3081530e-01
  -2.0737925e-01  1.8829468e-01  8.8642530e-02]
 [-2.5947636e-01 -1.3497888e-01 -1.2468331e-03  2.9993889e-01
  -3.1507638e-01  4.1211250e-01  6.5604232e-02]
 [ 2.8132364e-01 -3.8609770e-01 -5.5980825e-01 -9.8848723e-02
  -5.4481506e-01 -3.4862608e-01 -5.6938237e-01]
 [-4.2013389e-01  3.2794997e-01  1.1506046e-01  1.1903064e-01
   9.7795062e-02 -3.0239764e-01 -4.1216019e-01]
 [ 1.9841959e-01  5.4752356e-01  2.0378003e-01 -2.1165147e-01
   9.2425957e-02 -7.6383770e-02 -7.4265182e-02]
 [ 8.4392406e-04 -1.5822792e-04 -1.5648162e-04 -1.5667966e-04
  -1.5733235e-04 -1.5680102e-04 -1.5688561e-04]
 [ 8.4124407e-04 -1.6062033e-04 -1.5900224e-04 -1.5922543e-04
  -1.5994288e-04 -1.5944333e-04 -1.5939948e-04]
 [ 8.4647053e-04 -1.5564945e-04 -1.5440330e-04 -1.5442053e-04
  -1.5528868e-04 -1.5478011e-04 -1.5439071e-04]] 
Episode: 5: [[ 7.9635199e-04  1.8830276e-01 -4.7419816e-01  4.6704528e-01
   1.9646339e-01  4.5025754e-01 -1.0392275e-01]
 [ 3.9284170e-01 -6.1071984e-02  4.1041636e-01 -5.3082108e-01
  -2.0738578e-01  1.8828726e-01  8.8635795e-02]
 [-2.5947925e-01 -1.3498215e-01 -1.2514403e-03  2.9993641e-01
  -3.1507966e-01  4.1210839e-01  6.5600768e-02]
 [ 2.8135240e-01 -3.8609067e-01 -5.5978990e-01 -9.8839760e-02
  -5.4479975e-01 -3.4860393e-01 -5.6937230e-01]
 [-4.2010581e-01  3.2795805e-01  1.1507777e-01  1.1904157e-01
   9.7811207e-02 -3.0237538e-01 -4.1214997e-01]
 [ 1.9844577e-01  5.4753250e-01  2.0379940e-01 -2.1164005e-01
   9.2443973e-02 -7.6359138e-02 -7.4252769e-02]
 [ 8.2347303e-04 -1.7905541e-04 -1.7628341e-04 -1.7764917e-04
  -1.7826006e-04 -1.7699884e-04 -1.7738702e-04]
 [ 8.1800733e-04 -1.8412131e-04 -1.8151842e-04 -1.8287761e-04
  -1.8355359e-04 -1.8237675e-04 -1.8259724e-04]
 [ 8.2456652e-04 -1.7794747e-04 -1.7580342e-04 -1.7686549e-04
  -1.7775001e-04 -1.7658118e-04 -1.7636442e-04]] 
