Episode: 1: [[0. 0. 0.]
 [0. 0. 0.]
 [0. 0. 0.]
 [0. 0. 0.]
 [0. 0. 0.]
 [0. 0. 0.]
 [0. 0. 0.]
 [0. 0. 0.]
 [0. 0. 0.]] 
Episode: 2: [[ 0.0000000e+00  0.0000000e+00  0.0000000e+00]
 [ 0.0000000e+00  0.0000000e+00  0.0000000e+00]
 [ 0.0000000e+00  0.0000000e+00  0.0000000e+00]
 [ 1.7854236e-07  1.7900811e-07  1.6253958e-07]
 [ 1.8696954e-07  1.8747679e-07  1.7014568e-07]
 [ 1.9404183e-07  1.9449814e-07  1.7637721e-07]
 [-9.9786441e-05 -9.9785524e-05 -9.9785488e-05]
 [-9.9809622e-05 -9.9808865e-05 -9.9808894e-05]
 [-9.9734680e-05 -9.9733690e-05 -9.9733952e-05]] 
Episode: 3: [[-5.0415395e-08 -5.1416876e-08 -5.3656741e-08]
 [-5.2576098e-08 -5.3660116e-08 -5.5792849e-08]
 [-5.7003525e-08 -5.8392502e-08 -6.0465396e-08]
 [ 2.3892218e-07  2.3965299e-07  2.1707999e-07]
 [ 2.5204560e-07  2.5278507e-07  2.2887319e-07]
 [ 2.5879473e-07  2.5948100e-07  2.3458296e-07]
 [-1.6432634e-04 -1.6427046e-04 -1.6410960e-04]
 [-1.6415591e-04 -1.6409240e-04 -1.6396714e-04]
 [-1.6328288e-04 -1.6318902e-04 -1.6306850e-04]] 
Episode: 4: [[ 1.15117615e-07  9.49497405e-08  5.52984218e-08]
 [ 8.46399217e-08  6.39578275e-08  2.70743463e-08]
 [ 6.50319336e-08  4.55495126e-08  1.20325723e-08]
 [ 2.84080642e-07  2.85480183e-07  2.59343835e-07]
 [ 2.97346048e-07  2.98649638e-07  2.71091437e-07]
 [ 2.93486210e-07  2.94589000e-07  2.66835769e-07]
 [-2.24720410e-04 -2.24122050e-04 -2.22339004e-04]
 [-2.21334194e-04 -2.20643138e-04 -2.19156733e-04]
 [-2.18958434e-04 -2.18160712e-04 -2.16743967e-04]] 
Episode: 5: [[ 1.2711527e-07  9.3467591e-08  5.7141420e-08]
 [ 8.1451944e-08  4.7729792e-08  1.9473500e-08]
 [ 4.6083333e-08  1.4687156e-08 -6.9928490e-09]
 [ 2.8604592e-07  2.8705298e-07  2.6017329e-07]
 [ 3.0020217e-07  3.0105846e-07  2.7265355e-07]
 [ 2.7810759e-07  2.7833056e-07  2.5087766e-07]
 [-2.6641623e-04 -2.6522303e-04 -2.6367872e-04]
 [-2.6297817e-04 -2.6173904e-04 -2.6056808e-04]
 [-2.6000215e-04 -2.5863864e-04 -2.5759873e-04]] 
