Episode: 1: [[-0.04896965  0.00809058 -0.23044261  0.21346986  0.21627101  0.14393578
  -0.04122421  0.15534744 -0.13143326  0.19867912 -0.1851339  -0.2060474
  -0.04403428  0.2231655  -0.14100942 -0.148455    0.1896359 ]
 [-0.02975018 -0.06937516  0.02200721  0.16003455 -0.14070112  0.13020438
  -0.0344433  -0.139859    0.07788058 -0.16232349 -0.03638372  0.23898034
   0.09527989 -0.12263323  0.09837694  0.1209801   0.20872262]
 [-0.21855608 -0.20615198  0.1078115   0.21721983 -0.06565056 -0.13509722
   0.13503417  0.06746283 -0.1418049   0.0991965   0.22355177 -0.21369933
  -0.07966648 -0.21265931  0.09848797  0.03113616 -0.23761007]] 
Episode: 2: [[-0.04935831  0.00846306 -0.23083827  0.21307662  0.21592024  0.14354116
  -0.04161153  0.15500659 -0.13182949  0.19829947 -0.1849096  -0.20644319
  -0.04442811  0.22347173 -0.14140435 -0.14884359  0.18940128]
 [-0.02935462 -0.06897954  0.02240504  0.16043058 -0.14030492  0.13060139
  -0.0340466  -0.13946219  0.07827815 -0.1619289  -0.03598753  0.23937821
   0.09567618 -0.1222375   0.09877406  0.12137688  0.20911938]
 [-0.21894892 -0.20654817  0.1074158   0.21682921 -0.06604648 -0.13549058
   0.13463858  0.06706616 -0.14219816  0.09880374  0.22315553 -0.21409512
  -0.08005738 -0.2130552   0.09809453  0.0307406  -0.23800679]] 
